svm_type c_svc
kernel_type linear
nr_class 2
total_sv 13718
rho 0.918466
label 0 1
probA -1.44844
probB -0.155764
nr_sv 7637 6081
SV
0.1192054482056088 2:1 4:1 13:1 14:1 15:1 16:1 17:1 18:1 19:1 20:1 21:1 22:1 23:1 24:1 
1 2:1 4:1 13:1 14:1 25:1 26:1 27:1 28:1 29:1 30:1 
1 2:1 4:1 5:1 13:1 14:1 31:1 32:1 33:1 34:1 35:1 36:1 37:1 38:1 39:1 
0.32360637191551 2:1 4:1 5:1 13:1 14:1 27:1 40:1 41:1 42:1 43:1 44:1 45:1 46:1 47:1 48:1 49:1 
0.2968226703354297 2:1 4:1 10:1 13:1 14:1 30:1 31:1 75:1 83:1 84:1 85:1 86:1 87:1 88:1 89:1 
0.5581704548907478 1:1 2:1 3:1 4:1 12:1 13:1 14:1 19:1 51:1 62:1 66:1 90:1 101:1 129:1 130:1 131:1 
1 2:1 4:1 13:1 14:1 66:1 84:1 137:1 138:1 139:1 140:1 141:1 142:1 143:1 
0.6759394617504521 2:1 4:1 5:1 6:1 13:1 14:1 46:1 63:1 71:1 82:1 84:1 150:1 151:1 152:1 153:1 154:1 155:1 156:1 
0.2540748018222249 2:1 4:1 12:1 13:1 14:1 42:1 55:1 57:1 157:1 158:1 159:1 160:1 161:1 
1 2:1 4:1 5:1 13:1 14:1 19:1 38:1 60:1 63:1 108:1 109:1 172:1 173:1 174:1 175:1 176:1 177:1 178:1 
0.5127904795819977 1:1 2:1 3:1 4:1 12:1 13:1 14:1 30:1 48:1 159:1 185:1 186:1 187:1 188:1 
0.5609851083462071 1:1 2:1 3:1 4:1 13:1 14:1 48:1 109:1 195:1 196:1 197:1 198:1 
1 1:1 2:1 3:1 4:1 12:1 13:1 14:1 19:1 51:1 55:1 63:1 78:1 90:1 114:1 158:1 199:1 200:1 201:1 202:1 203:1 204:1 
1 2:1 4:1 5:1 12:1 13:1 14:1 27:1 34:1 63:1 66:1 71:1 108:1 109:1 170:1 172:1 213:1 214:1 215:1 216:1 
1 2:1 4:1 13:1 14:1 20:1 159:1 160:1 217:1 
0.2393667408999196 1:1 2:1 3:1 4:1 5:1 12:1 13:1 14:1 19:1 29:1 71:1 90:1 108:1 109:1 172:1 218:1 219:1 
0.1404051071421813 2:1 4:1 13:1 14:1 29:1 34:1 56:1 58:1 220:1 221:1 222:1 223:1 
1 2:1 4:1 13:1 14:1 46:1 47:1 48:1 52:1 63:1 72:1 222:1 238:1 239:1 
0.4875784576927004 2:1 4:1 9:1 12:1 13:1 14:1 27:1 78:1 163:1 240:1 241:1 
1 2:1 4:1 12:1 13:1 14:1 75:1 252:1 253:1 
0.2466408179949971 2:1 4:1 13:1 14:1 66:1 254:1 255:1 
0.9696151603029626 1:1 2:1 3:1 4:1 13:1 14:1 19:1 47:1 48:1 56:1 63:1 75:1 90:1 99:1 222:1 259:1 260:1 261:1 262:1 263:1 264:1 265:1 266:1 267:1 
0.049239680621416 2:1 4:1 5:1 13:1 14:1 56:1 108:1 109:1 176:1 277:1 278:1 279:1 280:1 281:1 282:1 283:1 284:1 285:1 
0.1650724315562044 1:1 2:1 3:1 4:1 5:1 8:1 12:1 13:1 14:1 71:1 79:1 92:1 99:1 156:1 159:1 182:1 286:1 287:1 288:1 289:1 290:1 
1 2:1 4:1 13:1 14:1 32:1 84:1 101:1 159:1 216:1 300:1 301:1 302:1 303:1 
1 2:1 4:1 13:1 14:1 29:1 34:1 304:1 305:1 
0.3956654818164135 2:1 4:1 5:1 12:1 13:1 14:1 29:1 48:1 68:1 84:1 109:1 122:1 123:1 124:1 282:1 332:1 333:1 334:1 335:1 336:1 
1 2:1 4:1 5:1 13:1 14:1 71:1 75:1 92:1 107:1 150:1 159:1 165:1 197:1 202:1 340:1 341:1 342:1 
1 2:1 4:1 13:1 14:1 27:1 48:1 101:1 343:1 344:1 
0.6438119211611536 1:1 2:1 3:1 4:1 12:1 13:1 14:1 57:1 71:1 75:1 158:1 345:1 346:1 
1 2:1 4:1 13:1 14:1 30:1 
0.5358019393978175 2:1 4:1 5:1 6:1 8:1 13:1 14:1 62:1 63:1 108:1 109:1 135:1 139:1 159:1 167:1 182:1 315:1 316:1 349:1 350:1 351:1 352:1 
1 1:1 2:1 3:1 4:1 12:1 13:1 14:1 42:1 46:1 47:1 262:1 360:1 361:1 362:1 
0.9484949643653464 2:1 4:1 12:1 13:1 14:1 63:1 71:1 73:1 75:1 84:1 122:1 137:1 372:1 373:1 374:1 375:1 376:1 
0.5514935034791091 2:1 4:1 13:1 14:1 79:1 150:1 377:1 378:1 
1 2:1 4:1 13:1 14:1 29:1 48:1 62:1 75:1 123:1 278:1 
0.9298168031358089 1:1 2:1 3:1 4:1 13:1 14:1 387:1 
0.2910334803731607 1:1 2:1 3:1 4:1 9:1 12:1 13:1 14:1 31:1 48:1 92:1 101:1 196:1 214:1 282:1 329:1 331:1 337:1 385:1 388:1 389:1 390:1 391:1 392:1 393:1 394:1 395:1 396:1 397:1 398:1 
0.9051992928229301 2:1 4:1 8:1 13:1 14:1 19:1 51:1 55:1 63:1 64:1 65:1 72:1 75:1 94:1 115:1 130:1 165:1 177:1 178:1 331:1 417:1 418:1 419:1 420:1 421:1 422:1 423:1 424:1 
0.1053657169659903 2:1 4:1 12:1 13:1 14:1 65:1 137:1 201:1 202:1 431:1 432:1 433:1 434:1 435:1 436:1 
1 2:1 4:1 13:1 14:1 75:1 159:1 222:1 437:1 438:1 
1 2:1 4:1 5:1 12:1 13:1 14:1 32:1 84:1 115:1 159:1 239:1 248:1 448:1 449:1 450:1 
1 2:1 4:1 5:1 6:1 13:1 14:1 42:1 63:1 78:1 108:1 109:1 110:1 262:1 451:1 
1 2:1 4:1 12:1 13:1 14:1 30:1 452:1 
0.1933741705817146 2:1 4:1 13:1 14:1 196:1 479:1 480:1 481:1 
1 1:1 2:1 3:1 4:1 9:1 13:1 14:1 16:1 17:1 19:1 84:1 90:1 123:1 482:1 483:1 484:1 485:1 486:1 
0.05945283466534786 2:1 4:1 13:1 14:1 75:1 216:1 302:1 326:1 488:1 489:1 490:1 491:1 
1 2:1 4:1 13:1 14:1 63:1 72:1 78:1 500:1 501:1 
1 1:1 2:1 3:1 4:1 12:1 13:1 14:1 62:1 504:1 505:1 506:1 
0.080553135067674 2:1 4:1 5:1 6:1 13:1 14:1 29:1 46:1 56:1 60:1 63:1 68:1 126:1 135:1 329:1 331:1 392:1 438:1 456:1 507:1 508:1 509:1 510:1 511:1 512:1 513:1 514:1 515:1 516:1 
1 1:1 2:1 3:1 4:1 12:1 13:1 14:1 19:1 60:1 63:1 68:1 108:1 109:1 122:1 141:1 172:1 189:1 311:1 320:1 517:1 518:1 
0.7472375191681234 2:1 4:1 13:1 14:1 16:1 124:1 150:1 204:1 349:1 538:1 539:1 540:1 541:1 542:1 543:1 
0.4002644574467832 2:1 4:1 5:1 13:1 14:1 63:1 71:1 72:1 75:1 82:1 84:1 159:1 172:1 216:1 271:1 302:1 326:1 546:1 547:1 
1 2:1 4:1 12:1 13:1 14:1 
1 2:1 4:1 13:1 14:1 29:1 30:1 71:1 75:1 362:1 552:1 
0.2693960500557475 2:1 4:1 13:1 14:1 84:1 159:1 262:1 334:1 565:1 566:1 567:1 
1 2:1 4:1 5:1 10:1 12:1 13:1 14:1 47:1 215:1 316:1 339:1 347:1 422:1 568:1 569:1 570:1 571:1 
1 2:1 4:1 12:1 13:1 14:1 63:1 131:1 135:1 141:1 326:1 
1 2:1 4:1 12:1 13:1 14:1 29:1 30:1 71:1 73:1 575:1 576:1 577:1 
1 2:1 4:1 13:1 14:1 
1 2:1 4:1 13:1 14:1 19:1 75:1 95:1 159:1 202:1 239:1 240:1 309:1 340:1 578:1 579:1 580:1 581:1 
0.07668865569013217 2:1 4:1 13:1 14:1 84:1 189:1 213:1 587:1 
0.1378324337176072 2:1 4:1 13:1 14:1 63:1 194:1 222:1 492:1 588:1 589:1 
0.8658317228110879 2:1 4:1 12:1 13:1 14:1 594:1 595:1 
1 1:1 2:1 3:1 4:1 13:1 14:1 34:1 63:1 122:1 123:1 376:1 601:1 602:1 
0.307878514069091 1:1 2:1 3:1 4:1 13:1 14:1 19:1 47:1 51:1 71:1 75:1 90:1 160:1 215:1 362:1 603:1 604:1 605:1 
1 2:1 4:1 13:1 14:1 42:1 109:1 159:1 197:1 306:1 446:1 566:1 606:1 
1 2:1 4:1 12:1 13:1 14:1 29:1 78:1 
1 2:1 4:1 5:1 12:1 13:1 14:1 34:1 63:1 71:1 84:1 108:1 109:1 172:1 618:1 619:1 
1 1:1 2:1 3:1 4:1 13:1 14:1 30:1 
0.9020514741832076 1:1 2:1 3:1 4:1 8:1 9:1 10:1 12:1 13:1 14:1 29:1 63:1 75:1 82:1 294:1 381:1 499:1 622:1 623:1 624:1 625:1 
0.2760633710900292 2:1 4:1 13:1 14:1 71:1 98:1 141:1 244:1 347:1 359:1 410:1 634:1 635:1 636:1 637:1 
1 2:1 4:1 13:1 14:1 82:1 641:1 642:1 
1 2:1 4:1 13:1 14:1 249:1 643:1 
1 2:1 4:1 12:1 13:1 14:1 29:1 30:1 71:1 115:1 575:1 644:1 
0.5188039898609238 2:1 4:1 13:1 14:1 350:1 634:1 650:1 651:1 652:1 653:1 
0.772329213965362 1:1 2:1 3:1 4:1 6:1 13:1 14:1 34:1 75:1 130:1 229:1 232:1 622:1 654:1 655:1 
1 2:1 4:1 10:1 13:1 14:1 27:1 48:1 84:1 101:1 239:1 414:1 434:1 656:1 657:1 658:1 
0.5914664661212902 2:1 4:1 5:1 13:1 14:1 42:1 46:1 63:1 66:1 71:1 116:1 123:1 159:1 262:1 267:1 349:1 434:1 659:1 660:1 661:1 662:1 663:1 664:1 665:1 
1 1:1 2:1 3:1 4:1 13:1 14:1 19:1 46:1 47:1 48:1 52:1 63:1 72:1 90:1 222:1 238:1 239:1 
0.8689293237479115 1:1 2:1 3:1 4:1 13:1 14:1 56:1 63:1 68:1 123:1 137:1 163:1 554:1 562:1 678:1 679:1 
0.0009772731499732466 2:1 4:1 13:1 14:1 141:1 239:1 708:1 709:1 
0.2985765200181287 2:1 4:1 13:1 14:1 42:1 60:1 63:1 72:1 150:1 389:1 715:1 716:1 
0.5990105125962192 1:1 2:1 3:1 4:1 13:1 14:1 300:1 349:1 527:1 
1 1:1 2:1 3:1 4:1 13:1 14:1 19:1 90:1 123:1 329:1 330:1 331:1 434:1 718:1 719:1 
0.4560441779787145 1:1 2:1 3:1 4:1 13:1 14:1 31:1 48:1 109:1 233:1 622:1 720:1 
1 2:1 4:1 10:1 12:1 13:1 14:1 42:1 75:1 147:1 172:1 307:1 733:1 734:1 
0.04262195528562859 1:1 2:1 3:1 4:1 5:1 13:1 14:1 30:1 34:1 63:1 75:1 111:1 186:1 197:1 366:1 675:1 
1 1:1 2:1 3:1 4:1 13:1 14:1 19:1 90:1 
0.4739430541259353 2:1 4:1 13:1 14:1 39:1 46:1 66:1 68:1 84:1 141:1 604:1 756:1 757:1 
1 2:1 4:1 12:1 13:1 14:1 29:1 175:1 211:1 222:1 
0.3969018243537941 2:1 4:1 13:1 14:1 84:1 358:1 464:1 685:1 758:1 759:1 
1 1:1 2:1 3:1 4:1 5:1 6:1 13:1 14:1 63:1 132:1 176:1 201:1 202:1 410:1 767:1 
0.3886157184451514 2:1 4:1 13:1 14:1 19:1 30:1 31:1 47:1 62:1 63:1 72:1 84:1 158:1 172:1 173:1 175:1 302:1 600:1 621:1 773:1 774:1 775:1 776:1 
0.6539692442909182 1:1 2:1 3:1 4:1 13:1 14:1 123:1 202:1 647:1 777:1 
0.9670251529252951 2:1 4:1 12:1 13:1 14:1 65:1 71:1 116:1 172:1 208:1 329:1 331:1 392:1 784:1 785:1 
0.3893761563091451 2:1 4:1 13:1 14:1 30:1 47:1 48:1 63:1 84:1 92:1 602:1 786:1 787:1 788:1 
0.1009021153802446 2:1 4:1 5:1 13:1 14:1 27:1 63:1 95:1 109:1 120:1 131:1 135:1 141:1 142:1 239:1 282:1 315:1 794:1 
0.1145058814723131 1:1 2:1 3:1 4:1 9:1 13:1 14:1 84:1 107:1 131:1 159:1 196:1 201:1 202:1 280:1 738:1 803:1 
0.8214190713602213 2:1 4:1 13:1 14:1 19:1 177:1 178:1 262:1 804:1 805:1 806:1 
0.8774914844969905 1:1 2:1 3:1 4:1 5:1 12:1 13:1 14:1 30:1 71:1 73:1 75:1 84:1 90:1 101:1 120:1 153:1 216:1 262:1 810:1 811:1 812:1 813:1 814:1 815:1 
1 2:1 4:1 12:1 13:1 14:1 42:1 160:1 194:1 
1 2:1 4:1 12:1 13:1 14:1 29:1 42:1 173:1 695:1 
1 2:1 4:1 13:1 14:1 30:1 
1 2:1 4:1 13:1 14:1 30:1 122:1 381:1 
1 2:1 4:1 12:1 13:1 14:1 56:1 84:1 175:1 209:1 312:1 329:1 331:1 392:1 464:1 840:1 841:1 842:1 
0.6753754467935251 2:1 4:1 12:1 13:1 14:1 17:1 19:1 42:1 48:1 203:1 239:1 240:1 282:1 422:1 464:1 561:1 600:1 627:1 843:1 844:1 845:1 846:1 
0.08657074437573639 2:1 4:1 13:1 14:1 578:1 853:1 854:1 855:1 
0.8999600715532752 13:1 77:1 861:1 862:1 
0.1094142673036419 2:1 4:1 13:1 14:1 30:1 48:1 71:1 75:1 79:1 183:1 197:1 362:1 410:1 576:1 870:1 871:1 872:1 
0.2859236643546597 2:1 4:1 5:1 13:1 14:1 47:1 52:1 874:1 
1 2:1 4:1 13:1 14:1 
1 2:1 4:1 13:1 14:1 29:1 68:1 122:1 123:1 124:1 
1 2:1 4:1 13:1 14:1 29:1 34:1 201:1 202:1 828:1 
1 1:1 2:1 3:1 4:1 12:1 13:1 14:1 19:1 71:1 75:1 90:1 114:1 176:1 204:1 429:1 729:1 877:1 878:1 
1 2:1 4:1 12:1 13:1 14:1 29:1 68:1 122:1 123:1 124:1 
1 2:1 4:1 13:1 14:1 30:1 47:1 48:1 82:1 233:1 262:1 267:1 
0.2799834346253482 2:1 4:1 5:1 6:1 13:1 14:1 29:1 34:1 71:1 84:1 165:1 201:1 202:1 231:1 267:1 312:1 507:1 649:1 879:1 880:1 881:1 882:1 
0.4810989003625969 2:1 4:1 12:1 13:1 14:1 19:1 29:1 84:1 222:1 836:1 883:1 884:1 
0.1007534539617866 2:1 4:1 13:1 14:1 47:1 51:1 71:1 75:1 160:1 215:1 362:1 603:1 604:1 605:1 
0.04740723951182056 1:1 2:1 3:1 4:1 12:1 13:1 14:1 19:1 84:1 90:1 122:1 252:1 897:1 898:1 
1 2:1 4:1 13:1 14:1 108:1 109:1 131:1 
1 2:1 4:1 5:1 6:1 13:1 14:1 38:1 46:1 48:1 121:1 141:1 911:1 912:1 913:1 
1 2:1 4:1 12:1 13:1 14:1 122:1 141:1 177:1 362:1 918:1 920:1 921:1 
1 2:1 4:1 13:1 14:1 29:1 71:1 922:1 
1 2:1 4:1 13:1 14:1 46:1 48:1 54:1 56:1 63:1 68:1 75:1 131:1 139:1 148:1 938:1 939:1 940:1 941:1 942:1 943:1 
0.3397384355922626 1:1 2:1 3:1 4:1 10:1 13:1 14:1 56:1 63:1 68:1 94:1 107:1 302:1 347:1 349:1 507:1 944:1 945:1 
1 2:1 4:1 5:1 6:1 13:1 14:1 27:1 29:1 71:1 649:1 
0.7297611997637377 2:1 4:1 13:1 14:1 42:1 159:1 362:1 946:1 947:1 948:1 
0.3804357483013515 1:1 2:1 3:1 4:1 13:1 14:1 19:1 63:1 84:1 90:1 159:1 199:1 302:1 658:1 960:1 961:1 962:1 
0.2573624946678076 1:1 2:1 3:1 4:1 13:1 14:1 76:1 262:1 560:1 658:1 969:1 970:1 971:1 
1 2:1 4:1 5:1 10:1 12:1 13:1 14:1 27:1 29:1 48:1 63:1 215:1 216:1 239:1 283:1 334:1 372:1 450:1 479:1 972:1 
1 2:1 4:1 13:1 14:1 974:1 975:1 
0.3488019681974256 2:1 4:1 13:1 14:1 19:1 20:1 38:1 177:1 178:1 454:1 980:1 981:1 982:1 983:1 984:1 985:1 986:1 987:1 988:1 
0.1341807239827116 2:1 4:1 5:1 13:1 14:1 27:1 29:1 34:1 63:1 150:1 216:1 347:1 604:1 805:1 918:1 
1 2:1 4:1 13:1 14:1 63:1 71:1 72:1 309:1 310:1 429:1 524:1 680:1 805:1 950:1 
0.7690708208301283 1:1 2:1 3:1 4:1 13:1 14:1 63:1 75:1 78:1 114:1 240:1 283:1 406:1 520:1 992:1 993:1 994:1 
1 1:1 2:1 3:1 4:1 12:1 13:1 14:1 91:1 999:1 
0.1880571920790528 2:1 4:1 13:1 14:1 42:1 56:1 63:1 159:1 167:1 262:1 429:1 631:1 1008:1 1009:1 
1 2:1 4:1 5:1 12:1 13:1 14:1 20:1 27:1 34:1 108:1 109:1 110:1 147:1 159:1 203:1 293:1 454:1 656:1 1010:1 1011:1 
0.1405371961914653 1:1 2:1 3:1 4:1 9:1 13:1 14:1 19:1 71:1 84:1 90:1 95:1 109:1 315:1 365:1 505:1 780:1 1012:1 1013:1 1014:1 
1 2:1 4:1 5:1 13:1 14:1 34:1 42:1 50:1 65:1 130:1 175:1 222:1 916:1 1016:1 1017:1 
1 2:1 4:1 5:1 12:1 13:1 14:1 16:1 20:1 38:1 63:1 84:1 127:1 167:1 306:1 625:1 905:1 1025:1 
0.9853051131984137 2:1 4:1 5:1 12:1 13:1 14:1 63:1 95:1 109:1 186:1 347:1 368:1 484:1 1036:1 1037:1 
1 2:1 4:1 13:1 14:1 29:1 48:1 75:1 381:1 
0.2065659181817076 2:1 4:1 12:1 13:1 14:1 29:1 63:1 84:1 121:1 210:1 1044:1 1045:1 
0.1979532468630351 2:1 4:1 13:1 14:1 267:1 1048:1 1049:1 1050:1 1051:1 
0.04241484859248577 2:1 4:1 5:1 13:1 14:1 63:1 98:1 99:1 120:1 165:1 349:1 464:1 610:1 1056:1 1057:1 
0.06033169673338321 2:1 4:1 13:1 14:1 29:1 34:1 46:1 63:1 66:1 71:1 84:1 112:1 159:1 170:1 172:1 211:1 267:1 347:1 733:1 1059:1 
0.7699742148105222 1:1 2:1 3:1 4:1 5:1 6:1 12:1 13:1 14:1 19:1 29:1 34:1 38:1 71:1 84:1 90:1 122:1 123:1 132:1 165:1 167:1 201:1 202:1 231:1 267:1 312:1 507:1 649:1 879:1 880:1 881:1 
1 1:1 2:1 3:1 4:1 12:1 13:1 14:1 30:1 60:1 63:1 71:1 84:1 150:1 312:1 1061:1 1062:1 1063:1 1064:1 
0.05822097215359379 13:1 42:1 46:1 159:1 262:1 306:1 388:1 410:1 1065:1 1066:1 1067:1 1068:1 1069:1 
0.0648858185928623 1:1 2:1 3:1 4:1 13:1 14:1 19:1 63:1 233:1 425:1 1074:1 1075:1 1076:1 
1 2:1 4:1 12:1 13:1 14:1 30:1 1077:1 
1 2:1 4:1 12:1 13:1 14:1 27:1 34:1 101:1 115:1 150:1 216:1 343:1 
0.4806246823888123 2:1 4:1 13:1 14:1 42:1 46:1 63:1 71:1 75:1 95:1 123:1 137:1 175:1 454:1 600:1 1084:1 1085:1 1086:1 1087:1 1088:1 1089:1 
0.002080174591488319 1:1 2:1 3:1 4:1 12:1 13:1 14:1 19:1 42:1 55:1 57:1 90:1 157:1 158:1 159:1 160:1 161:1 
0.1929149972280252 1:1 2:1 3:1 4:1 13:1 14:1 63:1 109:1 237:1 685:1 1090:1 1091:1 1092:1 1093:1 
0.9577066874253004 2:1 4:1 12:1 13:1 14:1 29:1 158:1 356:1 357:1 
0.8940982429342321 2:1 4:1 5:1 12:1 13:1 14:1 34:1 46:1 130:1 159:1 203:1 427:1 656:1 845:1 1094:1 1095:1 1096:1 
0.02824028735336065 2:1 4:1 5:1 6:1 12:1 13:1 14:1 32:1 42:1 52:1 1097:1 1098:1 
1 2:1 4:1 13:1 14:1 29:1 63:1 66:1 72:1 170:1 262:1 576:1 
1 2:1 4:1 13:1 14:1 16:1 23:1 83:1 123:1 439:1 1115:1 
0.2397650375024663 2:1 4:1 5:1 13:1 14:1 34:1 42:1 46:1 48:1 63:1 71:1 99:1 101:1 113:1 127:1 147:1 175:1 196:1 201:1 202:1 267:1 402:1 865:1 869:1 1118:1 1119:1 1120:1 1121:1 1122:1 1123:1 1124:1 1125:1 1126:1 
1 2:1 4:1 12:1 13:1 14:1 29:1 312:1 579:1 1129:1 1130:1 
0.1109112877086568 2:1 4:1 9:1 13:1 14:1 75:1 194:1 1131:1 1132:1 
1 1:1 2:1 3:1 4:1 12:1 13:1 14:1 19:1 30:1 90:1 122:1 194:1 210:1 
0.6132808692266413 2:1 4:1 13:1 14:1 47:1 160:1 1133:1 1134:1 
1 2:1 4:1 5:1 12:1 13:1 14:1 27:1 40:1 46:1 48:1 111:1 112:1 135:1 251:1 349:1 413:1 680:1 
1 2:1 4:1 13:1 14:1 29:1 51:1 63:1 75:1 101:1 210:1 216:1 489:1 1018:1 
1 2:1 4:1 13:1 14:1 30:1 46:1 142:1 522:1 
0.9599294836074357 2:1 4:1 10:1 12:1 13:1 14:1 84:1 150:1 204:1 258:1 312:1 1135:1 1136:1 1137:1 
0.5598117254797947 1:1 2:1 3:1 4:1 5:1 10:1 13:1 14:1 34:1 46:1 63:1 75:1 84:1 158:1 229:1 262:1 294:1 413:1 622:1 756:1 1138:1 1139:1 1140:1 1141:1 1142:1 
0.290096753980381 1:1 2:1 3:1 4:1 5:1 8:1 12:1 13:1 14:1 27:1 42:1 99:1 312:1 715:1 1143:1 
0.829929034892544 2:1 4:1 10:1 12:1 13:1 14:1 147:1 194:1 786:1 1144:1 1145:1 
0.2935120604524867 2:1 4:1 13:1 14:1 42:1 56:1 68:1 75:1 150:1 1155:1 1156:1 1157:1 1158:1 
1 2:1 4:1 13:1 14:1 30:1 
1 2:1 4:1 12:1 13:1 14:1 19:1 29:1 84:1 177:1 178:1 215:1 262:1 505:1 759:1 1162:1 
1 1:1 2:1 3:1 4:1 13:1 14:1 
0.324773059562422 2:1 4:1 10:1 12:1 13:1 14:1 29:1 48:1 75:1 159:1 437:1 1163:1 1164:1 1165:1 1166:1 
1 2:1 4:1 13:1 14:1 42:1 137:1 159:1 316:1 1031:1 1178:1 
1 2:1 4:1 5:1 13:1 14:1 27:1 31:1 56:1 75:1 107:1 194:1 282:1 312:1 313:1 314:1 315:1 316:1 317:1 318:1 319:1 
1 1:1 2:1 3:1 4:1 5:1 12:1 13:1 14:1 27:1 93:1 911:1 
1 2:1 4:1 13:1 14:1 
1 1:1 2:1 3:1 4:1 13:1 14:1 19:1 84:1 90:1 215:1 251:1 351:1 360:1 385:1 503:1 701:1 
0.2837811820397994 1:1 2:1 3:1 4:1 13:1 14:1 34:1 63:1 66:1 78:1 153:1 162:1 238:1 359:1 389:1 480:1 628:1 1194:1 1195:1 
0.940376140503188 2:1 4:1 13:1 14:1 29:1 63:1 122:1 135:1 159:1 160:1 163:1 167:1 413:1 1198:1 1199:1 
0.3065505927819782 1:1 2:1 3:1 4:1 5:1 12:1 13:1 14:1 19:1 56:1 63:1 71:1 75:1 90:1 99:1 109:1 163:1 229:1 235:1 267:1 270:1 448:1 548:1 580:1 581:1 590:1 883:1 918:1 1047:1 1136:1 1200:1 1201:1 1202:1 1203:1 
1 2:1 4:1 12:1 13:1 14:1 47:1 71:1 215:1 362:1 505:1 1204:1 1205:1 
0.8354997230461078 2:1 4:1 5:1 6:1 13:1 14:1 17:1 38:1 71:1 75:1 84:1 225:1 454:1 564:1 1206:1 1207:1 
0.6437431333324297 2:1 4:1 12:1 13:1 14:1 30:1 84:1 163:1 277:1 456:1 759:1 919:1 1208:1 1209:1 
1 2:1 4:1 12:1 13:1 14:1 19:1 42:1 122:1 123:1 179:1 580:1 581:1 641:1 1210:1 
1 2:1 4:1 13:1 14:1 17:1 29:1 159:1 175:1 222:1 337:1 625:1 729:1 1217:1 
0.4112976958296205 1:1 2:1 3:1 4:1 13:1 14:1 262:1 283:1 1218:1 
1 2:1 4:1 12:1 13:1 14:1 71:1 240:1 362:1 576:1 990:1 
0.9268302304917654 1:1 2:1 3:1 4:1 13:1 14:1 38:1 63:1 163:1 283:1 337:1 625:1 1026:1 
1 2:1 4:1 13:1 14:1 123:1 238:1 1229:1 
0.03522491454262559 2:1 4:1 13:1 14:1 30:1 34:1 38:1 47:1 75:1 130:1 472:1 1236:1 1237:1 1238:1 1239:1 
1 2:1 4:1 13:1 14:1 30:1 63:1 262:1 1233:1 1240:1 
0.4599473399999313 2:1 4:1 13:1 14:1 680:1 1243:1 1244:1 1245:1 
0.2294122312750931 2:1 4:1 13:1 14:1 123:1 329:1 330:1 331:1 434:1 718:1 719:1 
0.1694042021199536 2:1 4:1 13:1 14:1 63:1 150:1 950:1 1246:1 1247:1 
0.5101862988569174 1:1 2:1 3:1 4:1 10:1 12:1 13:1 14:1 66:1 210:1 318:1 504:1 1252:1 1253:1 
0.2303892496713996 2:1 4:1 13:1 14:1 30:1 68:1 922:1 1264:1 1265:1 
1 2:1 4:1 12:1 13:1 14:1 72:1 132:1 167:1 452:1 755:1 
0.5250799090359017 2:1 4:1 5:1 10:1 13:1 14:1 42:1 63:1 68:1 79:1 81:1 84:1 99:1 120:1 316:1 343:1 641:1 680:1 820:1 1266:1 1267:1 1268:1 
1 2:1 4:1 5:1 12:1 13:1 14:1 42:1 79:1 165:1 207:1 225:1 232:1 307:1 312:1 733:1 1269:1 
1 2:1 4:1 8:1 13:1 14:1 17:1 20:1 38:1 42:1 63:1 75:1 78:1 99:1 114:1 159:1 204:1 232:1 316:1 414:1 656:1 1227:1 
0.5077183478338573 2:1 4:1 8:1 10:1 12:1 13:1 14:1 63:1 71:1 75:1 78:1 84:1 86:1 122:1 159:1 173:1 262:1 306:1 1199:1 1277:1 1278:1 
1 2:1 4:1 5:1 12:1 13:1 14:1 42:1 262:1 382:1 422:1 622:1 
0.3192429227826886 2:1 4:1 5:1 6:1 13:1 14:1 63:1 65:1 135:1 315:1 436:1 
0.5667422395533032 2:1 4:1 13:1 14:1 29:1 84:1 175:1 211:1 222:1 1284:1 1285:1 
0.5729688350182476 2:1 4:1 13:1 14:1 329:1 330:1 331:1 
1 2:1 4:1 12:1 13:1 14:1 16:1 19:1 60:1 123:1 177:1 295:1 597:1 883:1 993:1 1201:1 1286:1 1287:1 
1 2:1 4:1 13:1 14:1 84:1 215:1 251:1 351:1 360:1 385:1 503:1 701:1 
0.0469609746314142 1:1 2:1 3:1 4:1 19:1 66:1 68:1 72:1 90:1 92:1 115:1 225:1 1189:1 1288:1 1289:1 1290:1 1291:1 1292:1 
1 2:1 4:1 10:1 12:1 13:1 14:1 38:1 42:1 71:1 75:1 78:1 114:1 122:1 131:1 159:1 163:1 554:1 1293:1 1294:1 1295:1 
0.1465477063802264 1:1 2:1 3:1 4:1 5:1 9:1 12:1 13:1 14:1 27:1 38:1 46:1 56:1 57:1 63:1 65:1 71:1 75:1 84:1 109:1 115:1 120:1 175:1 215:1 216:1 262:1 267:1 306:1 353:1 429:1 489:1 576:1 658:1 785:1 842:1 980:1 1018:1 1032:1 1296:1 
1 2:1 4:1 10:1 12:1 13:1 14:1 29:1 46:1 124:1 162:1 238:1 339:1 903:1 1297:1 
1 2:1 4:1 5:1 12:1 13:1 14:1 27:1 93:1 911:1 
0.1862511861003478 2:1 4:1 13:1 14:1 38:1 47:1 68:1 75:1 84:1 158:1 176:1 550:1 1300:1 1301:1 
1 2:1 4:1 5:1 8:1 13:1 14:1 50:1 108:1 109:1 139:1 1312:1 
0.5252841046813029 2:1 4:1 13:1 14:1 1103:1 1313:1 1314:1 
1 1:1 2:1 3:1 4:1 5:1 10:1 12:1 13:1 14:1 63:1 71:1 172:1 216:1 302:1 326:1 413:1 
1 2:1 4:1 13:1 14:1 30:1 31:1 47:1 62:1 63:1 84:1 108:1 109:1 158:1 172:1 173:1 175:1 302:1 600:1 773:1 774:1 775:1 1332:1 
1 2:1 4:1 5:1 13:1 14:1 60:1 1335:1 
1 1:1 2:1 3:1 4:1 13:1 14:1 19:1 90:1 
0.37887096497696 1:1 2:1 3:1 4:1 13:1 14:1 19:1 90:1 141:1 239:1 708:1 709:1 
0.4558136215197117 2:1 4:1 13:1 14:1 926:1 1343:1 1344:1 1345:1 1346:1 1347:1 
1 2:1 4:1 13:1 14:1 46:1 75:1 158:1 364:1 450:1 742:1 
0.7065953091576871 2:1 4:1 10:1 12:1 13:1 14:1 63:1 729:1 1357:1 1358:1 
1 2:1 4:1 5:1 13:1 14:1 20:1 84:1 123:1 175:1 211:1 222:1 238:1 434:1 
1 2:1 4:1 5:1 13:1 14:1 20:1 211:1 222:1 376:1 
1 2:1 4:1 12:1 13:1 14:1 29:1 123:1 1359:1 
0.1218123908329099 2:1 4:1 12:1 13:1 14:1 42:1 56:1 634:1 1053:1 1344:1 1360:1 1361:1 1362:1 1363:1 1364:1 1365:1 1366:1 1367:1 1368:1 1369:1 1370:1 1371:1 1372:1 1373:1 1374:1 
0.2759964683238867 1:1 2:1 3:1 4:1 13:1 14:1 30:1 32:1 38:1 46:1 48:1 101:1 181:1 1375:1 1376:1 1377:1 1378:1 
0.06029788687551394 2:1 4:1 10:1 13:1 14:1 72:1 79:1 788:1 1382:1 1383:1 1384:1 1385:1 
0.1486634464047614 2:1 4:1 13:1 14:1 1386:1 1387:1 
1 1:1 2:1 3:1 4:1 5:1 13:1 14:1 379:1 408:1 1390:1 1391:1 1392:1 1393:1 
0.7647296669968218 2:1 4:1 13:1 14:1 16:1 46:1 306:1 433:1 719:1 1404:1 1405:1 
0.5262729611951478 2:1 4:1 13:1 14:1 30:1 71:1 159:1 172:1 175:1 226:1 349:1 502:1 1409:1 1410:1 
0.448770431890176 1:1 2:1 3:1 4:1 5:1 13:1 14:1 19:1 50:1 90:1 262:1 312:1 664:1 687:1 748:1 
1 2:1 4:1 13:1 14:1 29:1 175:1 211:1 222:1 
1 2:1 4:1 13:1 14:1 
0.1207387504478357 1:1 2:1 3:1 4:1 9:1 13:1 14:1 62:1 101:1 1415:1 1416:1 
0.9611010252151864 1:1 2:1 4:1 13:1 14:1 30:1 72:1 75:1 123:1 128:1 302:1 489:1 837:1 854:1 1417:1 1418:1 1419:1 1420:1 1421:1 1422:1 
0.4755407842859521 2:1 4:1 13:1 14:1 19:1 30:1 48:1 73:1 84:1 123:1 131:1 329:1 331:1 379:1 392:1 483:1 497:1 807:1 817:1 1312:1 1434:1 
0.8120652947250975 1:1 2:1 3:1 4:1 5:1 10:1 19:1 29:1 56:1 63:1 71:1 72:1 75:1 84:1 90:1 108:1 109:1 110:1 111:1 127:1 156:1 312:1 414:1 521:1 522:1 561:1 817:1 824:1 1435:1 
1 2:1 4:1 13:1 14:1 215:1 
0.4190384916253282 2:1 4:1 13:1 14:1 20:1 1441:1 
0.02731010279810071 1:1 2:1 3:1 4:1 12:1 13:1 14:1 19:1 51:1 71:1 75:1 84:1 90:1 108:1 109:1 110:1 111:1 112:1 113:1 114:1 115:1 116:1 117:1 118:1 
0.2388147725702683 2:1 4:1 13:1 14:1 32:1 42:1 52:1 215:1 1445:1 1446:1 1447:1 
1 2:1 4:1 13:1 14:1 1448:1 
1 2:1 4:1 9:1 13:1 14:1 19:1 29:1 34:1 42:1 123:1 177:1 178:1 201:1 202:1 282:1 622:1 768:1 834:1 
0.03345502034031778 2:1 4:1 13:1 14:1 46:1 65:1 68:1 71:1 382:1 660:1 877:1 1454:1 
0.4682347919047918 2:1 4:1 13:1 14:1 51:1 84:1 156:1 197:1 215:1 312:1 379:1 658:1 713:1 1116:1 1459:1 
1 2:1 4:1 5:1 13:1 14:1 19:1 30:1 48:1 73:1 95:1 177:1 178:1 216:1 939:1 
1 2:1 4:1 5:1 13:1 14:1 27:1 63:1 120:1 215:1 216:1 222:1 262:1 360:1 793:1 1426:1 
1 1:1 2:1 3:1 4:1 9:1 12:1 13:1 14:1 47:1 84:1 214:1 287:1 316:1 1464:1 1465:1 
0.6580327008390559 2:1 4:1 13:1 14:1 66:1 84:1 479:1 480:1 1149:1 1469:1 1470:1 1471:1 1472:1 1473:1 
0.321044703474824 2:1 4:1 9:1 13:1 14:1 71:1 84:1 95:1 109:1 315:1 365:1 505:1 780:1 1012:1 1013:1 1014:1 
0.07880766686804534 2:1 4:1 12:1 13:1 14:1 56:1 229:1 253:1 437:1 1476:1 1477:1 1478:1 1479:1 1480:1 1481:1 1482:1 1483:1 1484:1 1485:1 1486:1 1487:1 1488:1 1489:1 1490:1 1491:1 1492:1 1493:1 1494:1 
0.1927838619511434 2:1 4:1 13:1 14:1 72:1 101:1 107:1 232:1 1029:1 1182:1 1344:1 1495:1 1496:1 1497:1 1498:1 1499:1 1500:1 1501:1 1502:1 1503:1 1504:1 1505:1 1506:1 
1 2:1 4:1 8:1 13:1 14:1 27:1 47:1 62:1 63:1 72:1 107:1 130:1 289:1 351:1 1514:1 
1 2:1 4:1 13:1 14:1 108:1 109:1 1296:1 
0.1509278158646548 2:1 4:1 10:1 12:1 13:1 14:1 63:1 68:1 172:1 205:1 240:1 487:1 658:1 733:1 743:1 781:1 1518:1 1519:1 
0.2788327885455037 2:1 4:1 5:1 13:1 14:1 16:1 62:1 84:1 101:1 105:1 185:1 774:1 1520:1 1521:1 
1 2:1 4:1 5:1 13:1 14:1 47:1 63:1 108:1 109:1 112:1 172:1 186:1 262:1 302:1 1528:1 
1 1:1 2:1 3:1 4:1 13:1 14:1 175:1 194:1 302:1 
0.06654329249946511 1:1 2:1 3:1 4:1 10:1 13:1 14:1 624:1 1530:1 1531:1 
0.2143984756851118 2:1 4:1 9:1 13:1 14:1 40:1 148:1 150:1 159:1 165:1 329:1 331:1 392:1 474:1 722:1 1532:1 1533:1 1534:1 
1 2:1 4:1 13:1 14:1 72:1 194:1 1537:1 
0.5656985771716605 2:1 4:1 13:1 14:1 17:1 1069:1 1543:1 
1 2:1 4:1 5:1 6:1 10:1 13:1 14:1 42:1 116:1 
1 2:1 4:1 9:1 13:1 14:1 19:1 29:1 75:1 123:1 137:1 177:1 178:1 
1 1:1 2:1 3:1 4:1 12:1 13:1 14:1 73:1 232:1 612:1 
0.1465854797586821 2:1 4:1 13:1 14:1 55:1 84:1 262:1 949:1 1558:1 
1 2:1 4:1 13:1 14:1 63:1 65:1 150:1 222:1 1566:1 1567:1 1568:1 
1 2:1 4:1 5:1 9:1 12:1 13:1 14:1 19:1 30:1 34:1 42:1 82:1 126:1 194:1 
1 1:1 2:1 3:1 4:1 13:1 14:1 19:1 38:1 42:1 71:1 75:1 90:1 159:1 253:1 512:1 919:1 1569:1 1570:1 1571:1 1572:1 1573:1 
1 2:1 4:1 12:1 13:1 14:1 30:1 620:1 1144:1 
1 2:1 4:1 13:1 14:1 29:1 46:1 62:1 63:1 64:1 84:1 135:1 196:1 208:1 289:1 316:1 351:1 602:1 1576:1 1577:1 
0.07937950645956558 1:1 2:1 3:1 4:1 5:1 9:1 10:1 12:1 13:1 14:1 19:1 27:1 29:1 32:1 42:1 92:1 107:1 165:1 173:1 252:1 311:1 320:1 340:1 695:1 1585:1 1586:1 
0.1030595103403136 2:1 4:1 10:1 13:1 14:1 42:1 46:1 75:1 84:1 122:1 150:1 167:1 877:1 878:1 1587:1 1588:1 1589:1 1590:1 
1 1:1 2:1 3:1 4:1 13:1 14:1 29:1 186:1 1592:1 1593:1 
0.8430276585259349 2:1 4:1 13:1 14:1 29:1 84:1 262:1 616:1 1234:1 1235:1 
0.169262127714591 2:1 4:1 10:1 13:1 14:1 42:1 63:1 316:1 1031:1 1074:1 1227:1 1597:1 
0.1737644160848182 2:1 4:1 5:1 13:1 14:1 52:1 75:1 78:1 99:1 107:1 109:1 147:1 239:1 281:1 316:1 355:1 1046:1 1603:1 1604:1 
1 2:1 4:1 12:1 13:1 14:1 71:1 75:1 84:1 114:1 116:1 117:1 118:1 
1 2:1 4:1 10:1 13:1 14:1 29:1 1608:1 
0.07658170043851981 2:1 4:1 13:1 14:1 63:1 163:1 222:1 1136:1 1609:1 
0.07650689400843527 2:1 4:1 13:1 14:1 30:1 38:1 42:1 46:1 48:1 55:1 62:1 63:1 71:1 75:1 101:1 135:1 205:1 484:1 519:1 695:1 1616:1 1617:1 1618:1 1619:1 1620:1 1621:1 1622:1 1623:1 
1 2:1 4:1 12:1 13:1 14:1 141:1 1624:1 
1 1:1 2:1 3:1 4:1 12:1 13:1 14:1 63:1 173:1 223:1 294:1 505:1 1625:1 
0.2602113849137666 2:1 4:1 13:1 14:1 66:1 1626:1 1627:1 
1 2:1 4:1 13:1 14:1 72:1 170:1 175:1 262:1 446:1 505:1 957:1 
0.007492697792463321 2:1 4:1 13:1 14:1 34:1 47:1 1634:1 1635:1 
1 2:1 4:1 8:1 13:1 14:1 46:1 48:1 71:1 92:1 262:1 277:1 308:1 788:1 1103:1 1637:1 
1 1:1 2:1 3:1 4:1 5:1 13:1 14:1 51:1 130:1 173:1 286:1 744:1 
1 2:1 4:1 12:1 13:1 14:1 29:1 135:1 1186:1 
1 1:1 2:1 3:1 4:1 12:1 13:1 14:1 19:1 27:1 34:1 90:1 101:1 115:1 216:1 339:1 
1 2:1 4:1 12:1 13:1 14:1 30:1 656:1 1216:1 
0.4763459899516709 2:1 4:1 13:1 14:1 63:1 84:1 172:1 262:1 813:1 1240:1 1644:1 
0.06192188170344634 2:1 4:1 13:1 14:1 42:1 159:1 278:1 1180:1 1645:1 1646:1 1647:1 1648:1 
1 2:1 4:1 12:1 13:1 14:1 27:1 42:1 71:1 75:1 82:1 239:1 262:1 358:1 376:1 464:1 759:1 1649:1 
0.31593659741972 1:1 2:1 3:1 4:1 5:1 6:1 12:1 13:1 14:1 19:1 46:1 48:1 56:1 67:1 68:1 69:1 70:1 71:1 72:1 73:1 74:1 75:1 76:1 77:1 78:1 79:1 80:1 81:1 82:1 90:1 
1 2:1 4:1 13:1 14:1 34:1 47:1 48:1 75:1 160:1 201:1 202:1 507:1 1672:1 
0.0491735824688541 1:1 2:1 3:1 4:1 12:1 13:1 14:1 19:1 29:1 205:1 212:1 311:1 320:1 1019:1 1673:1 1674:1 
0.2510179753533402 2:1 4:1 13:1 14:1 48:1 56:1 60:1 72:1 82:1 249:1 1677:1 
0.3695056024017723 2:1 4:1 5:1 12:1 13:1 14:1 30:1 63:1 75:1 128:1 148:1 251:1 277:1 503:1 560:1 1678:1 1679:1 1680:1 1681:1 
0.8584101050843059 2:1 4:1 12:1 13:1 14:1 48:1 240:1 743:1 1684:1 
1 2:1 4:1 12:1 13:1 14:1 38:1 48:1 107:1 487:1 
0.1650650776150588 2:1 4:1 13:1 14:1 279:1 283:1 658:1 1136:1 1688:1 1689:1 
1 2:1 4:1 5:1 6:1 8:1 13:1 14:1 54:1 55:1 63:1 75:1 97:1 107:1 147:1 165:1 262:1 277:1 289:1 329:1 330:1 331:1 1056:1 1090:1 1663:1 1693:1 1694:1 
0.2527614978516632 2:1 4:1 12:1 13:1 14:1 29:1 437:1 1695:1 1696:1 
1 2:1 4:1 13:1 14:1 29:1 123:1 137:1 
0.3118434538550043 1:1 2:1 3:1 4:1 13:1 14:1 19:1 56:1 90:1 259:1 260:1 528:1 529:1 
1 1:1 2:1 3:1 4:1 5:1 13:1 14:1 19:1 60:1 63:1 71:1 84:1 90:1 108:1 109:1 148:1 172:1 262:1 483:1 
1 1:1 2:1 3:1 4:1 13:1 14:1 25:1 48:1 72:1 92:1 204:1 389:1 
1 2:1 4:1 13:1 14:1 
0.6337122216841263 1:1 2:1 3:1 4:1 12:1 13:1 14:1 32:1 51:1 63:1 130:1 262:1 316:1 377:1 590:1 832:1 1705:1 1706:1 1707:1 1708:1 
1 2:1 4:1 5:1 13:1 14:1 101:1 126:1 173:1 201:1 202:1 208:1 793:1 
0.9156680781491096 1:1 2:1 3:1 4:1 13:1 14:1 19:1 21:1 90:1 353:1 680:1 
1 1:1 2:1 3:1 4:1 5:1 12:1 13:1 14:1 19:1 42:1 90:1 262:1 382:1 422:1 622:1 
0.2845366864430506 2:1 4:1 13:1 14:1 46:1 47:1 52:1 78:1 92:1 130:1 204:1 326:1 1144:1 1164:1 1713:1 1714:1 
0.3259505410881698 2:1 4:1 13:1 14:1 29:1 122:1 222:1 240:1 591:1 1715:1 
0.3745351396186031 2:1 4:1 5:1 9:1 10:1 12:1 13:1 14:1 38:1 40:1 46:1 63:1 75:1 95:1 99:1 114:1 123:1 126:1 150:1 167:1 215:1 351:1 409:1 671:1 1422:1 1717:1 
0.6695443167650168 1:1 2:1 3:1 4:1 8:1 13:1 14:1 47:1 56:1 109:1 166:1 167:1 177:1 295:1 335:1 1487:1 1718:1 
1 2:1 4:1 13:1 14:1 30:1 56:1 122:1 252:1 451:1 
0.1661459228284498 1:1 2:1 3:1 4:1 13:1 14:1 19:1 90:1 350:1 634:1 650:1 651:1 652:1 653:1 
1 1:1 2:1 3:1 4:1 5:1 13:1 14:1 16:1 19:1 38:1 90:1 160:1 167:1 235:1 282:1 414:1 427:1 671:1 
0.4675861598161309 2:1 4:1 9:1 12:1 13:1 14:1 30:1 41:1 63:1 75:1 107:1 186:1 214:1 240:1 507:1 675:1 1719:1 
1 2:1 4:1 13:1 14:1 29:1 68:1 84:1 123:1 175:1 211:1 1720:1 
0.5605798835319259 2:1 4:1 13:1 14:1 42:1 66:1 68:1 1726:1 1727:1 1728:1 
1 2:1 4:1 5:1 6:1 12:1 13:1 14:1 71:1 75:1 84:1 204:1 215:1 216:1 262:1 309:1 576:1 1729:1 
1 2:1 4:1 12:1 13:1 14:1 27:1 34:1 101:1 115:1 216:1 339:1 
0.468832100830886 2:1 4:1 13:1 14:1 31:1 47:1 63:1 75:1 92:1 160:1 173:1 1018:1 1608:1 1731:1 
0.7578174605386839 2:1 4:1 5:1 12:1 13:1 14:1 30:1 60:1 72:1 75:1 108:1 109:1 172:1 215:1 351:1 422:1 845:1 1734:1 1735:1 
0.1070532874435888 2:1 4:1 10:1 13:1 14:1 34:1 75:1 148:1 159:1 304:1 438:1 1740:1 
1 2:1 4:1 12:1 13:1 14:1 19:1 71:1 84:1 122:1 123:1 177:1 178:1 334:1 1741:1 1742:1 1743:1 1744:1 
1 2:1 4:1 13:1 14:1 29:1 124:1 222:1 
0.2110899762058044 1:1 2:1 3:1 4:1 13:1 14:1 38:1 46:1 75:1 99:1 159:1 215:1 499:1 544:1 618:1 622:1 817:1 1760:1 1761:1 1762:1 1763:1 1764:1 
1 2:1 4:1 12:1 13:1 14:1 38:1 47:1 52:1 108:1 109:1 262:1 1765:1 1766:1 
1 2:1 4:1 12:1 13:1 14:1 123:1 217:1 676:1 1767:1 
1 2:1 4:1 5:1 13:1 14:1 160:1 277:1 429:1 448:1 1136:1 
0.2973907223058992 2:1 4:1 13:1 14:1 1510:1 
1 1:1 2:1 3:1 4:1 12:1 13:1 14:1 63:1 108:1 109:1 163:1 170:1 172:1 173:1 192:1 309:1 622:1 647:1 
1 2:1 4:1 12:1 13:1 14:1 29:1 175:1 211:1 
0.05805273906057571 2:1 4:1 13:1 14:1 61:1 150:1 353:1 600:1 1603:1 1776:1 
1 2:1 4:1 13:1 14:1 17:1 46:1 55:1 75:1 84:1 215:1 248:1 339:1 343:1 1516:1 1549:1 1779:1 
0.1459360667444229 2:1 4:1 13:1 14:1 75:1 1780:1 1781:1 1782:1 1783:1 
0.2361407069491804 2:1 4:1 13:1 14:1 34:1 63:1 71:1 95:1 109:1 158:1 249:1 283:1 347:1 454:1 1785:1 1786:1 
1 2:1 4:1 12:1 13:1 14:1 71:1 108:1 109:1 141:1 172:1 
0.1028230731164245 2:1 4:1 13:1 14:1 66:1 68:1 84:1 122:1 123:1 508:1 1788:1 1789:1 
0.3510493796327395 2:1 4:1 13:1 14:1 84:1 215:1 351:1 1774:1 1790:1 
1 2:1 4:1 12:1 13:1 14:1 47:1 251:1 601:1 680:1 1791:1 
0.6874748754922591 2:1 4:1 12:1 13:1 14:1 63:1 71:1 72:1 75:1 172:1 621:1 774:1 805:1 886:1 928:1 1302:1 1566:1 1801:1 1802:1 
0.3000767116617077 2:1 4:1 5:1 8:1 13:1 14:1 34:1 71:1 75:1 210:1 282:1 376:1 448:1 573:1 864:1 880:1 1808:1 
0.3033108739097664 2:1 4:1 13:1 14:1 38:1 71:1 72:1 150:1 282:1 560:1 950:1 1772:1 
0.213644700260549 2:1 4:1 13:1 14:1 63:1 159:1 235:1 767:1 1443:1 1817:1 
0.4277909561248404 2:1 4:1 13:1 14:1 52:1 215:1 326:1 622:1 1466:1 
1 1:1 2:1 3:1 4:1 5:1 12:1 13:1 14:1 27:1 52:1 63:1 165:1 216:1 
1 2:1 4:1 13:1 14:1 17:1 72:1 84:1 159:1 175:1 194:1 222:1 1822:1 
1 2:1 4:1 12:1 13:1 14:1 63:1 75:1 209:1 210:1 429:1 
1 2:1 4:1 12:1 13:1 14:1 19:1 63:1 84:1 122:1 135:1 177:1 178:1 262:1 451:1 
1 2:1 4:1 13:1 14:1 29:1 75:1 175:1 211:1 222:1 329:1 331:1 392:1 505:1 567:1 
0.6298494390405134 1:1 2:1 3:1 4:1 5:1 13:1 14:1 19:1 75:1 90:1 441:1 442:1 
0.006808103666820029 2:1 4:1 6:1 13:1 14:1 29:1 63:1 72:1 81:1 135:1 160:1 427:1 766:1 1536:1 1833:1 1834:1 
0.2656695597663488 1:1 2:1 3:1 4:1 5:1 12:1 13:1 14:1 19:1 34:1 75:1 90:1 101:1 123:1 130:1 163:1 189:1 197:1 200:1 201:1 267:1 434:1 544:1 596:1 597:1 598:1 599:1 729:1 767:1 994:1 1837:1 
1 2:1 4:1 10:1 13:1 14:1 56:1 160:1 215:1 351:1 505:1 598:1 1103:1 1765:1 1838:1 
0.095203838535735 1:1 2:1 3:1 4:1 13:1 14:1 19:1 55:1 84:1 90:1 429:1 444:1 445:1 446:1 447:1 
0.6987688089680498 2:1 4:1 13:1 14:1 71:1 172:1 240:1 1839:1 
1 1:1 2:1 3:1 4:1 13:1 14:1 177:1 331:1 424:1 
0.1892341957730597 2:1 4:1 12:1 13:1 14:1 29:1 56:1 65:1 124:1 159:1 286:1 446:1 554:1 798:1 1847:1 1848:1 1849:1 1850:1 
1 1:1 2:1 3:1 4:1 5:1 12:1 13:1 14:1 29:1 108:1 109:1 172:1 434:1 
0.2372270606293597 2:1 4:1 10:1 13:1 14:1 75:1 135:1 159:1 204:1 233:1 282:1 351:1 1337:1 1852:1 
0.4314586306292889 1:1 2:1 3:1 4:1 13:1 14:1 19:1 72:1 82:1 90:1 249:1 349:1 845:1 899:1 900:1 901:1 902:1 
0.07236845688687746 2:1 4:1 13:1 14:1 47:1 48:1 122:1 209:1 210:1 729:1 1864:1 
1 2:1 4:1 12:1 13:1 14:1 63:1 135:1 262:1 1865:1 1866:1 
0.5891594423162528 2:1 4:1 5:1 6:1 8:1 13:1 14:1 75:1 226:1 293:1 316:1 385:1 1867:1 
1 2:1 4:1 13:1 14:1 376:1 569:1 1868:1 
0.5651012008414634 2:1 4:1 13:1 14:1 295:1 920:1 1869:1 
0.01776865999823164 2:1 4:1 10:1 13:1 14:1 19:1 38:1 47:1 68:1 71:1 72:1 75:1 84:1 107:1 177:1 178:1 507:1 510:1 865:1 869:1 922:1 1144:1 1245:1 1870:1 1871:1 1872:1 
0.09833282498392559 2:1 4:1 5:1 6:1 13:1 14:1 46:1 47:1 71:1 127:1 216:1 576:1 1734:1 1873:1 1874:1 1875:1 
1 2:1 4:1 5:1 6:1 9:1 12:1 13:1 14:1 27:1 29:1 46:1 84:1 215:1 625:1 1876:1 1877:1 
0.003370366668782201 2:1 4:1 13:1 14:1 38:1 47:1 117:1 480:1 1885:1 
1 1:1 2:1 3:1 4:1 12:1 13:1 14:1 29:1 48:1 51:1 55:1 63:1 68:1 78:1 84:1 114:1 122:1 123:1 158:1 199:1 200:1 201:1 202:1 203:1 204:1 267:1 388:1 911:1 1892:1 
0.417271453611177 1:1 2:1 3:1 4:1 5:1 12:1 13:1 14:1 31:1 42:1 56:1 84:1 94:1 95:1 99:1 101:1 159:1 312:1 944:1 1303:1 1773:1 1893:1 1894:1 1895:1 
1 2:1 4:1 13:1 14:1 71:1 339:1 515:1 1455:1 
1 2:1 4:1 5:1 7:1 10:1 12:1 13:1 14:1 95:1 109:1 165:1 181:1 507:1 781:1 1904:1 
1 1:1 2:1 3:1 4:1 8:1 12:1 13:1 14:1 34:1 51:1 60:1 63:1 71:1 72:1 82:1 99:1 130:1 142:1 163:1 208:1 210:1 215:1 216:1 622:1 788:1 1418:1 1436:1 1911:1 1912:1 1913:1 
1 1:1 2:1 3:1 4:1 5:1 13:1 14:1 19:1 71:1 75:1 90:1 92:1 107:1 150:1 159:1 165:1 197:1 202:1 340:1 341:1 342:1 
0.7679273757269396 1:1 2:1 3:1 4:1 12:1 13:1 14:1 84:1 91:1 240:1 1029:1 1922:1 
1 2:1 4:1 10:1 12:1 13:1 14:1 38:1 123:1 167:1 238:1 1418:1 
0.4427827975699145 1:1 2:1 3:1 4:1 13:1 14:1 19:1 42:1 48:1 90:1 283:1 519:1 522:1 554:1 561:1 608:1 609:1 622:1 
0.2269929620905619 2:1 4:1 5:1 8:1 13:1 14:1 25:1 26:1 84:1 215:1 277:1 1924:1 
0.1369120384880486 2:1 4:1 10:1 12:1 13:1 14:1 19:1 57:1 63:1 71:1 75:1 158:1 177:1 178:1 338:1 355:1 486:1 1925:1 
0.6994888881359964 2:1 4:1 5:1 13:1 14:1 75:1 99:1 109:1 130:1 159:1 160:1 204:1 248:1 379:1 719:1 1926:1 1927:1 1928:1 1929:1 
0.009034765794007483 2:1 4:1 13:1 14:1 42:1 48:1 283:1 519:1 522:1 554:1 561:1 608:1 609:1 622:1 
0.2506438279781296 2:1 4:1 13:1 14:1 46:1 71:1 1938:1 1939:1 1940:1 1941:1 1942:1 1943:1 1944:1 
0.1039972114845355 1:1 2:1 3:1 4:1 5:1 13:1 14:1 19:1 63:1 90:1 97:1 120:1 175:1 766:1 
1 2:1 4:1 13:1 14:1 47:1 63:1 108:1 109:1 139:1 148:1 172:1 
0.7333005840266912 2:1 4:1 5:1 13:1 14:1 312:1 315:1 522:1 600:1 687:1 
1 2:1 4:1 13:1 14:1 
1 2:1 4:1 12:1 13:1 14:1 123:1 1952:1 1953:1 
1 2:1 4:1 13:1 14:1 29:1 34:1 130:1 828:1 1748:1 
0.3111771548450631 2:1 4:1 12:1 13:1 14:1 42:1 60:1 159:1 177:1 331:1 424:1 1957:1 1958:1 1959:1 1960:1 1961:1 
0.1152757332005622 1:1 2:1 3:1 4:1 12:1 13:1 14:1 25:1 56:1 84:1 91:1 240:1 1962:1 1963:1 
1 2:1 4:1 5:1 13:1 14:1 34:1 47:1 63:1 68:1 73:1 75:1 99:1 214:1 351:1 480:1 845:1 1646:1 1976:1 
0.9013903400959254 2:1 4:1 5:1 13:1 14:1 27:1 34:1 101:1 150:1 159:1 215:1 216:1 343:1 1980:1 
0.2495976073942034 2:1 4:1 12:1 13:1 14:1 31:1 32:1 46:1 55:1 61:1 75:1 238:1 743:1 1982:1 1983:1 
0.5942168833846678 2:1 4:1 13:1 14:1 60:1 63:1 71:1 84:1 262:1 267:1 576:1 1069:1 1984:1 1985:1 1986:1 
1 2:1 4:1 13:1 14:1 31:1 48:1 175:1 518:1 622:1 1987:1 
1 2:1 4:1 13:1 14:1 30:1 52:1 1993:1 
0.8227325617664952 2:1 4:1 12:1 13:1 14:1 38:1 46:1 47:1 51:1 64:1 92:1 230:1 236:1 240:1 262:1 312:1 329:1 331:1 392:1 414:1 429:1 604:1 687:1 719:1 779:1 944:1 1888:1 2004:1 2005:1 2006:1 2007:1 
1 2:1 4:1 13:1 14:1 19:1 122:1 295:1 362:1 2008:1 2009:1 
1 2:1 4:1 5:1 12:1 13:1 14:1 23:1 66:1 75:1 126:1 159:1 475:1 494:1 508:1 509:1 2010:1 2011:1 
1 1:1 2:1 3:1 4:1 13:1 14:1 63:1 150:1 172:1 189:1 1103:1 
0.5120814484276518 2:1 4:1 5:1 13:1 14:1 42:1 46:1 63:1 71:1 72:1 78:1 84:1 97:1 127:1 147:1 176:1 312:1 337:1 360:1 413:1 625:1 826:1 992:1 1957:1 2013:1 2014:1 
0.0585765344175302 2:1 4:1 13:1 14:1 66:1 84:1 210:1 2016:1 2017:1 2018:1 
1 2:1 4:1 13:1 14:1 362:1 381:1 
0.2460381055736601 2:1 4:1 13:1 14:1 2023:1 2024:1 2025:1 
1 1:1 2:1 3:1 4:1 9:1 12:1 13:1 14:1 19:1 84:1 90:1 115:1 175:1 216:1 302:1 2026:1 2027:1 2028:1 2029:1 
1 1:1 2:1 3:1 4:1 13:1 14:1 30:1 66:1 232:1 273:1 477:1 847:1 1003:1 2034:1 
0.3064330915136823 2:1 4:1 5:1 13:1 14:1 29:1 47:1 84:1 205:1 258:1 262:1 326:1 641:1 740:1 1315:1 1456:1 1472:1 1535:1 2035:1 
1 1:1 2:1 3:1 4:1 12:1 13:1 14:1 66:1 84:1 141:1 148:1 
1 1:1 2:1 3:1 4:1 12:1 13:1 14:1 19:1 46:1 51:1 90:1 172:1 
1 2:1 4:1 12:1 13:1 14:1 19:1 63:1 108:1 109:1 172:1 295:1 573:1 2044:1 
0.8432211967876705 1:1 2:1 4:1 13:1 14:1 19:1 30:1 34:1 63:1 72:1 172:1 177:1 212:1 1003:1 2045:1 2046:1 2047:1 2048:1 2049:1 
0.4118444418955821 2:1 4:1 5:1 12:1 13:1 14:1 30:1 38:1 42:1 47:1 101:1 150:1 159:1 1031:1 1339:1 2057:1 2058:1 2059:1 2060:1 
0.9134995745816226 2:1 4:1 13:1 14:1 27:1 48:1 101:1 344:1 427:1 
0.113893306368023 1:1 2:1 3:1 4:1 8:1 12:1 13:1 14:1 34:1 50:1 63:1 75:1 101:1 130:1 232:1 361:1 1570:1 2061:1 
1 1:1 2:1 3:1 4:1 13:1 14:1 2067:1 
1 2:1 4:1 13:1 14:1 56:1 84:1 175:1 194:1 229:1 262:1 454:1 805:1 1058:1 1600:1 1724:1 1860:1 2068:1 
0.0179690724653315 2:1 4:1 12:1 13:1 14:1 258:1 2070:1 
0.25740780483615 2:1 4:1 13:1 14:1 262:1 2073:1 
0.04908800769015337 2:1 4:1 5:1 6:1 10:1 12:1 13:1 14:1 20:1 46:1 48:1 75:1 123:1 135:1 159:1 240:1 258:1 313:1 2074:1 2075:1 2076:1 2077:1 2078:1 
1 2:1 4:1 13:1 14:1 72:1 78:1 82:1 84:1 616:1 680:1 738:1 1415:1 
0.4648522302213397 2:1 4:1 5:1 10:1 13:1 14:1 31:1 46:1 50:1 52:1 68:1 75:1 95:1 101:1 126:1 240:1 336:1 365:1 548:1 1330:1 1357:1 1751:1 2088:1 
1 2:1 4:1 13:1 14:1 163:1 2098:1 
1 2:1 4:1 12:1 13:1 14:1 63:1 71:1 75:1 78:1 112:1 122:1 162:1 163:1 
1 2:1 4:1 12:1 13:1 14:1 72:1 123:1 364:1 414:1 992:1 
0.05307646701815102 2:1 4:1 13:1 14:1 42:1 47:1 66:1 84:1 262:1 2107:1 2108:1 2109:1 2110:1 
1 2:1 4:1 13:1 14:1 598:1 1766:1 
1 2:1 4:1 10:1 13:1 14:1 84:1 122:1 262:1 339:1 451:1 507:1 2111:1 
1 2:1 4:1 13:1 14:1 42:1 68:1 72:1 82:1 150:1 215:1 622:1 1779:1 2119:1 2120:1 
0.7281350954571733 2:1 4:1 5:1 12:1 13:1 14:1 30:1 56:1 126:1 128:1 158:1 598:1 649:1 1803:1 2122:1 
1 2:1 4:1 13:1 14:1 38:1 63:1 84:1 122:1 123:1 310:1 429:1 
0.5990525224416552 2:1 4:1 12:1 13:1 14:1 135:1 2116:1 2123:1 
0.7454755511147108 2:1 4:1 13:1 14:1 29:1 56:1 68:1 123:1 509:1 2126:1 2127:1 2128:1 
0.6866687684045207 2:1 4:1 13:1 14:1 46:1 63:1 71:1 84:1 262:1 1074:1 1597:1 2129:1 
0.8773835248987725 2:1 4:1 13:1 14:1 15:1 19:1 81:1 123:1 238:1 2130:1 
1 2:1 4:1 12:1 13:1 14:1 29:1 77:1 78:1 84:1 147:1 592:1 900:1 
0.6312267689329812 2:1 4:1 12:1 13:1 14:1 2135:1 2136:1 
0.134251300329948 2:1 4:1 12:1 13:1 14:1 1312:1 2139:1 2140:1 2141:1 2142:1 2143:1 2144:1 2145:1 
1 1:1 2:1 3:1 4:1 5:1 8:1 12:1 13:1 14:1 19:1 55:1 56:1 73:1 90:1 99:1 123:1 147:1 1603:1 
1 1:1 2:1 3:1 4:1 5:1 6:1 13:1 14:1 19:1 63:1 90:1 135:1 2149:1 
0.1059561151464059 2:1 4:1 12:1 13:1 14:1 63:1 135:1 1404:1 2151:1 2152:1 2153:1 2154:1 
1 1:1 2:1 3:1 4:1 5:1 6:1 12:1 13:1 14:1 27:1 40:1 55:1 66:1 95:1 107:1 148:1 150:1 201:1 202:1 240:1 282:1 291:1 349:1 377:1 444:1 805:1 817:1 939:1 1090:1 1793:1 2155:1 2156:1 
0.6041293806998385 1:1 2:1 3:1 4:1 9:1 13:1 14:1 19:1 27:1 30:1 48:1 90:1 101:1 177:1 295:1 339:1 344:1 900:1 1551:1 2157:1 2158:1 2159:1 2160:1 
1 1:1 2:1 3:1 4:1 5:1 6:1 12:1 13:1 14:1 19:1 56:1 90:1 123:1 201:1 202:1 222:1 238:1 251:1 645:1 2099:1 
0.9787401673846063 2:1 4:1 5:1 12:1 13:1 14:1 20:1 72:1 159:1 160:1 172:1 216:1 219:1 305:1 451:1 845:1 1094:1 
1 2:1 4:1 5:1 12:1 13:1 14:1 60:1 127:1 
0.3256573242359367 2:1 4:1 5:1 13:1 14:1 46:1 55:1 66:1 75:1 102:1 103:1 197:1 262:1 462:1 529:1 1073:1 2166:1 2167:1 2168:1 
0.3950203693139506 1:1 2:1 3:1 4:1 5:1 12:1 13:1 14:1 19:1 32:1 47:1 52:1 71:1 90:1 95:1 99:1 109:1 194:1 490:1 1568:1 2169:1 
1 2:1 4:1 13:1 14:1 63:1 72:1 158:1 172:1 199:1 590:1 1390:1 2170:1 2171:1 2172:1 
0.4149244946708212 1:1 2:1 3:1 4:1 12:1 13:1 14:1 19:1 27:1 90:1 302:1 2173:1 2174:1 
0.1953106401708093 2:1 4:1 13:1 14:1 71:1 72:1 84:1 1351:1 2176:1 2177:1 
1 2:1 4:1 13:1 14:1 48:1 72:1 84:1 159:1 176:1 781:1 1164:1 
1 2:1 4:1 13:1 14:1 19:1 30:1 122:1 166:1 167:1 209:1 210:1 295:1 
1 2:1 4:1 5:1 12:1 13:1 14:1 16:1 32:1 52:1 63:1 99:1 172:1 173:1 239:1 240:1 248:1 251:1 312:1 620:1 1243:1 1270:1 2187:1 2188:1 
1 2:1 4:1 13:1 14:1 194:1 362:1 918:1 
1 2:1 4:1 5:1 6:1 13:1 14:1 123:1 434:1 2099:1 2192:1 
1 2:1 4:1 12:1 13:1 14:1 165:1 326:1 
1 2:1 4:1 13:1 14:1 48:1 68:1 207:1 229:1 476:1 658:1 
1 2:1 4:1 12:1 13:1 14:1 19:1 122:1 177:1 178:1 194:1 210:1 1874:1 
0.3620535542415272 2:1 4:1 12:1 13:1 14:1 1888:1 2202:1 2203:1 
0.7942340615795599 2:1 4:1 12:1 13:1 14:1 194:1 2205:1 
0.8801157195794443 2:1 4:1 13:1 14:1 42:1 63:1 71:1 78:1 99:1 212:1 307:1 309:1 310:1 
0.1902348665304638 2:1 4:1 12:1 13:1 14:1 19:1 56:1 68:1 71:1 73:1 75:1 122:1 163:1 262:1 267:1 295:1 302:1 448:1 674:1 719:1 806:1 2213:1 2214:1 2215:1 2216:1 2217:1 2218:1 2219:1 2220:1 
1 2:1 4:1 13:1 14:1 48:1 75:1 172:1 1025:1 2224:1 
0.01487355163270575 2:1 4:1 5:1 13:1 14:1 229:1 966:1 
0.8581362999377733 2:1 4:1 10:1 13:1 14:1 63:1 75:1 1357:1 2230:1 
1 1:1 2:1 3:1 4:1 5:1 9:1 12:1 13:1 14:1 27:1 48:1 63:1 75:1 84:1 99:1 135:1 194:1 229:1 240:1 282:1 315:1 353:1 590:1 742:1 1267:1 1773:1 2037:1 2231:1 2232:1 
1 2:1 4:1 13:1 14:1 34:1 414:1 
0.2347058011053847 2:1 4:1 13:1 14:1 66:1 123:1 238:1 302:1 957:1 2235:1 
1 2:1 4:1 13:1 14:1 42:1 46:1 71:1 84:1 124:1 138:1 159:1 160:1 262:1 306:1 414:1 680:1 845:1 1094:1 2238:1 2239:1 
1 2:1 4:1 12:1 13:1 14:1 63:1 163:1 262:1 362:1 1074:1 
1 2:1 4:1 13:1 14:1 124:1 
1 2:1 4:1 13:1 14:1 123:1 2247:1 2248:1 
0.4728496650172158 2:1 4:1 5:1 13:1 14:1 55:1 84:1 229:1 238:1 845:1 1589:1 2249:1 2250:1 2251:1 
1 2:1 4:1 10:1 13:1 14:1 30:1 47:1 84:1 249:1 262:1 759:1 2252:1 2253:1 
0.9715669670785703 2:1 4:1 13:1 14:1 112:1 376:1 451:1 2254:1 
0.209125012829727 2:1 4:1 13:1 14:1 39:1 491:1 1262:1 2262:1 
1 1:1 2:1 3:1 4:1 12:1 13:1 14:1 48:1 262:1 568:1 1074:1 
1 2:1 4:1 10:1 13:1 14:1 48:1 75:1 135:1 2264:1 
1 1:1 2:1 3:1 4:1 10:1 12:1 13:1 14:1 34:1 60:1 68:1 130:1 148:1 188:1 343:1 729:1 2269:1 2270:1 
0.3830096620224323 2:1 4:1 12:1 13:1 14:1 2255:1 2271:1 
0.610661520698111 2:1 4:1 13:1 14:1 84:1 158:1 199:1 204:1 329:1 330:1 331:1 726:1 1144:1 1652:1 2273:1 
1 2:1 4:1 13:1 14:1 75:1 150:1 159:1 413:1 1224:1 2274:1 
1 1:1 2:1 3:1 4:1 8:1 13:1 14:1 50:1 75:1 101:1 130:1 361:1 2279:1 
0.2178561598613558 1:1 2:1 3:1 4:1 8:1 13:1 14:1 34:1 42:1 46:1 61:1 63:1 78:1 92:1 93:1 95:1 147:1 240:1 262:1 315:1 412:1 500:1 600:1 865:1 869:1 944:1 1637:1 2284:1 2285:1 
0.372604558595716 2:1 4:1 13:1 14:1 28:1 71:1 72:1 75:1 82:1 123:1 170:1 172:1 324:1 622:1 2293:1 
0.5370329770694507 2:1 4:1 13:1 14:1 29:1 175:1 211:1 2295:1 
0.331694273574358 2:1 4:1 13:1 14:1 47:1 68:1 274:1 1059:1 2296:1 2297:1 2298:1 
1 2:1 4:1 5:1 13:1 14:1 38:1 47:1 50:1 93:1 147:1 175:1 326:1 413:1 450:1 685:1 1028:1 1649:1 2300:1 
0.2516744207962096 2:1 4:1 13:1 14:1 159:1 826:1 926:1 2305:1 2306:1 2307:1 2308:1 
1 2:1 4:1 10:1 13:1 14:1 63:1 75:1 84:1 1357:1 2309:1 
1 2:1 4:1 13:1 14:1 34:1 42:1 48:1 141:1 201:1 202:1 205:1 502:1 519:1 622:1 1566:1 2310:1 
0.2230244009342463 1:1 2:1 3:1 4:1 12:1 13:1 14:1 19:1 84:1 312:1 370:1 2312:1 2313:1 
0.3880886092828514 2:1 4:1 10:1 13:1 14:1 302:1 2314:1 
1 2:1 4:1 5:1 12:1 13:1 14:1 63:1 92:1 101:1 126:1 135:1 463:1 
0.0967630351209595 2:1 4:1 5:1 6:1 13:1 14:1 112:1 162:1 
0.8910006031015754 2:1 4:1 5:1 6:1 12:1 13:1 14:1 30:1 42:1 56:1 63:1 71:1 82:1 101:1 199:1 238:1 267:1 282:1 471:1 505:1 1684:1 1748:1 1947:1 2316:1 2317:1 2318:1 
0.0998377956238431 2:1 4:1 10:1 13:1 14:1 27:1 72:1 75:1 112:1 121:1 181:1 238:1 316:1 591:1 781:1 1291:1 1330:1 2327:1 2328:1 2329:1 2330:1 
0.6512806322771664 2:1 4:1 8:1 13:1 14:1 34:1 60:1 63:1 237:1 573:1 
1 2:1 4:1 12:1 13:1 14:1 42:1 194:1 262:1 451:1 
0.8865069728334583 2:1 4:1 5:1 10:1 13:1 14:1 16:1 42:1 71:1 84:1 99:1 160:1 204:1 518:1 598:1 1301:1 2336:1 2337:1 
1 1:1 2:1 3:1 4:1 13:1 14:1 19:1 30:1 90:1 215:1 2339:1 
1 2:1 4:1 13:1 14:1 84:1 124:1 158:1 1156:1 1435:1 2194:1 
1 2:1 4:1 13:1 14:1 42:1 99:1 109:1 160:1 204:1 225:1 471:1 680:1 1588:1 
1 1:1 2:1 3:1 4:1 13:1 14:1 19:1 90:1 
0.7311738849800661 2:1 4:1 5:1 12:1 13:1 14:1 32:1 34:1 56:1 63:1 75:1 84:1 94:1 124:1 130:1 150:1 151:1 200:1 229:1 310:1 519:1 520:1 2343:1 2344:1 
1 2:1 4:1 13:1 14:1 46:1 75:1 116:1 137:1 159:1 160:1 204:1 215:1 484:1 1068:1 1762:1 
1 2:1 4:1 10:1 12:1 13:1 14:1 163:1 238:1 362:1 434:1 518:1 
0.06907890658069982 2:1 4:1 10:1 13:1 14:1 42:1 43:1 46:1 48:1 56:1 60:1 71:1 77:1 78:1 84:1 197:1 240:1 251:1 444:1 590:1 600:1 805:1 865:1 869:1 2349:1 2350:1 2351:1 2352:1 2353:1 2354:1 2355:1 
0.4412369630392081 2:1 4:1 13:1 14:1 77:1 78:1 84:1 239:1 2356:1 2357:1 
1 1:1 2:1 3:1 4:1 12:1 13:1 14:1 19:1 30:1 90:1 437:1 625:1 2367:1 
0.1142742698140359 2:1 4:1 5:1 13:1 14:1 27:1 33:1 42:1 47:1 57:1 63:1 71:1 82:1 114:1 148:1 163:1 172:1 315:1 641:1 743:1 2192:1 2368:1 
0.2725944871475253 1:1 2:1 3:1 4:1 13:1 14:1 19:1 60:1 63:1 90:1 107:1 505:1 898:1 1070:1 1653:1 2369:1 2370:1 
1 2:1 4:1 13:1 14:1 30:1 128:1 2373:1 
1 2:1 4:1 13:1 14:1 30:1 
0.3693382928604903 2:1 4:1 12:1 13:1 14:1 63:1 66:1 75:1 84:1 127:1 209:1 210:1 240:1 282:1 429:1 505:1 606:1 1078:1 2378:1 
0.1516164388145485 1:1 2:1 3:1 4:1 10:1 12:1 13:1 14:1 19:1 38:1 84:1 90:1 114:1 160:1 671:1 2130:1 2379:1 2380:1 
0.7505496554623549 2:1 4:1 12:1 13:1 14:1 122:1 194:1 362:1 2385:1 
0.05018693817252236 2:1 4:1 13:1 14:1 47:1 63:1 108:1 109:1 172:1 262:1 1240:1 
0.3997376839604523 2:1 4:1 12:1 13:1 14:1 63:1 78:1 162:1 628:1 2388:1 
0.1493839192401142 2:1 4:1 13:1 14:1 29:1 31:1 47:1 63:1 68:1 326:1 743:1 1018:1 2303:1 2389:1 2390:1 
1 2:1 4:1 13:1 14:1 34:1 42:1 47:1 72:1 130:1 186:1 229:1 622:1 743:1 
1 2:1 4:1 5:1 13:1 14:1 27:1 71:1 84:1 95:1 107:1 108:1 109:1 130:1 202:1 437:1 444:1 2250:1 2394:1 2395:1 2396:1 
1 1:1 2:1 3:1 4:1 9:1 12:1 13:1 14:1 19:1 27:1 71:1 90:1 114:1 177:1 178:1 204:1 215:1 489:1 505:1 580:1 581:1 2407:1 
0.9965317182381669 2:1 4:1 5:1 12:1 13:1 14:1 61:1 84:1 347:1 1728:1 1803:1 
1 1:1 2:1 3:1 4:1 8:1 13:1 14:1 99:1 112:1 215:1 351:1 
1 2:1 4:1 12:1 13:1 14:1 30:1 209:1 210:1 
0.1640500722523252 2:1 4:1 5:1 6:1 13:1 14:1 31:1 60:1 62:1 63:1 71:1 82:1 84:1 215:1 316:1 408:1 454:1 759:1 1129:1 1538:1 2430:1 
1 2:1 4:1 12:1 13:1 14:1 48:1 123:1 194:1 196:1 649:1 1056:1 1298:1 
0.4690249149008149 2:1 4:1 12:1 13:1 14:1 107:1 115:1 2346:1 2436:1 
0.1507126385822797 2:1 4:1 5:1 13:1 14:1 31:1 38:1 48:1 52:1 56:1 71:1 75:1 79:1 181:1 201:1 202:1 222:1 231:1 262:1 306:1 845:1 1094:1 1412:1 2437:1 2438:1 2439:1 2440:1 2441:1 2442:1 
0.3635860606988123 2:1 4:1 13:1 14:1 71:1 141:1 362:1 2448:1 2449:1 
1 2:1 4:1 12:1 13:1 14:1 163:1 936:1 
1 2:1 4:1 13:1 14:1 63:1 72:1 172:1 748:1 1478:1 1896:1 
1 2:1 4:1 12:1 13:1 14:1 68:1 75:1 124:1 141:1 362:1 2463:1 
0.0293300043350189 2:1 4:1 8:1 13:1 14:1 48:1 56:1 101:1 240:1 2468:1 
0.5320600290000067 2:1 4:1 5:1 13:1 14:1 41:1 47:1 48:1 50:1 51:1 60:1 63:1 71:1 84:1 92:1 99:1 109:1 256:1 366:1 1061:1 1295:1 1300:1 1321:1 2094:1 2130:1 2471:1 2472:1 2473:1 
0.2383681653195323 2:1 4:1 13:1 14:1 60:1 75:1 302:1 2474:1 2475:1 
0.275532115922992 2:1 4:1 13:1 14:1 22:1 68:1 82:1 329:1 330:1 331:1 726:1 2478:1 
1 2:1 4:1 12:1 13:1 14:1 68:1 194:1 2424:1 2483:1 
1 2:1 4:1 13:1 14:1 75:1 112:1 262:1 759:1 767:1 
0.1759890775847679 2:1 4:1 8:1 13:1 14:1 30:1 38:1 48:1 55:1 72:1 75:1 101:1 215:1 267:1 1003:1 2398:1 2484:1 2485:1 2486:1 2487:1 2488:1 
0.9776452568196818 2:1 4:1 12:1 13:1 14:1 30:1 437:1 625:1 2367:1 
1 1:1 2:1 3:1 4:1 10:1 12:1 13:1 14:1 19:1 90:1 163:1 238:1 362:1 434:1 518:1 
1 2:1 4:1 13:1 14:1 30:1 66:1 84:1 128:1 163:1 209:1 2502:1 
1 2:1 4:1 13:1 14:1 84:1 358:1 464:1 759:1 1653:1 
1 2:1 4:1 5:1 13:1 14:1 19:1 71:1 172:1 580:1 581:1 813:1 911:1 1965:1 2504:1 
0.5135912027645939 2:1 4:1 12:1 13:1 14:1 84:1 159:1 175:1 194:1 222:1 324:1 518:1 1017:1 2505:1 
1 1:1 2:1 4:1 5:1 12:1 13:1 14:1 19:1 47:1 48:1 75:1 84:1 99:1 121:1 126:1 177:1 178:1 194:1 212:1 215:1 229:1 329:1 331:1 392:1 719:1 2074:1 2506:1 2507:1 2508:1 
1 2:1 4:1 13:1 14:1 32:1 34:1 47:1 48:1 63:1 71:1 112:1 172:1 1450:1 1523:1 
1 2:1 4:1 5:1 12:1 13:1 14:1 34:1 47:1 48:1 50:1 130:1 170:1 505:1 936:1 
1 2:1 4:1 12:1 13:1 14:1 71:1 122:1 159:1 204:1 252:1 343:1 2514:1 
0.0695235419575416 2:1 4:1 13:1 14:1 518:1 2515:1 
1 2:1 4:1 5:1 13:1 14:1 68:1 71:1 809:1 1281:1 2120:1 
0.5740199443619834 2:1 4:1 12:1 13:1 14:1 71:1 84:1 150:1 167:1 950:1 1058:1 1589:1 1600:1 1724:1 
1 2:1 4:1 13:1 14:1 2527:1 
0.2324131022623792 2:1 4:1 13:1 14:1 72:1 302:1 306:1 367:1 2528:1 2529:1 
1 2:1 4:1 5:1 13:1 14:1 47:1 48:1 108:1 109:1 110:1 488:1 1129:1 2100:1 
1 2:1 4:1 5:1 13:1 14:1 63:1 76:1 84:1 262:1 413:1 451:1 479:1 480:1 1251:1 
0.6622840802990864 2:1 4:1 13:1 14:1 42:1 46:1 66:1 84:1 150:1 175:1 177:1 182:1 295:1 377:1 1153:1 2534:1 2535:1 2536:1 2537:1 2538:1 2539:1 
1 2:1 4:1 13:1 14:1 42:1 71:1 72:1 82:1 159:1 625:1 2544:1 
1 2:1 4:1 12:1 13:1 14:1 30:1 47:1 48:1 160:1 262:1 2545:1 2546:1 2547:1 
0.4985117766931003 2:1 4:1 12:1 13:1 14:1 124:1 158:1 282:1 476:1 1058:1 1724:1 
0.4529356710977744 2:1 4:1 5:1 12:1 13:1 14:1 19:1 42:1 61:1 63:1 75:1 84:1 175:1 199:1 214:1 251:1 262:1 295:1 368:1 508:1 759:1 1074:1 1127:1 2549:1 2550:1 2551:1 2552:1 
0.6584203517865534 1:1 2:1 3:1 4:1 12:1 13:1 14:1 2553:1 
0.1881795785906564 1:1 2:1 3:1 4:1 13:1 14:1 19:1 90:1 360:1 421:1 756:1 1608:1 2564:1 
0.08682092914208601 2:1 4:1 13:1 14:1 63:1 262:1 1766:1 2572:1 
1 2:1 4:1 13:1 14:1 113:1 123:1 132:1 159:1 258:1 
0.2726008705574447 2:1 4:1 13:1 14:1 30:1 42:1 46:1 75:1 103:1 107:1 109:1 123:1 128:1 233:1 287:1 502:1 768:1 823:1 1032:1 2106:1 2573:1 2574:1 2575:1 
0.111050979921595 1:1 2:1 3:1 4:1 13:1 14:1 68:1 92:1 214:1 2375:1 2576:1 
1 2:1 4:1 8:1 13:1 14:1 42:1 56:1 91:1 107:1 144:1 240:1 293:1 316:1 367:1 760:1 1357:1 
0.1061346573113267 2:1 4:1 13:1 14:1 101:1 119:1 2024:1 2580:1 
1 2:1 4:1 13:1 14:1 56:1 82:1 204:1 487:1 911:1 
0.4220441494909434 2:1 4:1 13:1 14:1 467:1 701:1 2360:1 2592:1 2593:1 
0.9316709166567227 2:1 4:1 13:1 14:1 63:1 172:1 262:1 2595:1 2596:1 
0.7607591419996861 2:1 4:1 5:1 13:1 14:1 56:1 63:1 71:1 75:1 82:1 84:1 249:1 262:1 293:1 364:1 573:1 647:1 743:1 2597:1 2598:1 2599:1 
1 2:1 4:1 12:1 13:1 14:1 34:1 74:1 79:1 159:1 226:1 306:1 480:1 2602:1 
0.01892145591357958 2:1 4:1 13:1 14:1 63:1 641:1 774:1 961:1 1765:1 2012:1 2449:1 
0.2004444514366029 2:1 4:1 9:1 13:1 14:1 27:1 32:1 46:1 51:1 99:1 107:1 142:1 150:1 160:1 240:1 414:1 538:1 1028:1 1297:1 2615:1 
1 1:1 2:1 3:1 4:1 12:1 13:1 14:1 75:1 175:1 429:1 2617:1 
0.08385196936586979 2:1 4:1 13:1 14:1 34:1 46:1 48:1 63:1 135:1 194:1 291:1 2618:1 
0.7546864775356971 2:1 4:1 13:1 14:1 454:1 756:1 1011:1 2114:1 2619:1 
0.7899311908197924 2:1 4:1 10:1 12:1 13:1 14:1 75:1 122:1 123:1 175:1 211:1 
1 2:1 4:1 5:1 12:1 13:1 14:1 84:1 194:1 258:1 312:1 695:1 2621:1 
1 2:1 4:1 13:1 14:1 63:1 71:1 75:1 105:1 172:1 307:1 1189:1 2605:1 
0.5787179484685016 2:1 4:1 12:1 13:1 14:1 29:1 262:1 2624:1 2625:1 
0.7110829180895085 2:1 4:1 12:1 13:1 14:1 20:1 42:1 91:1 107:1 144:1 159:1 160:1 229:1 334:1 429:1 2194:1 2490:1 2626:1 2627:1 
0.4233246789601505 2:1 4:1 5:1 6:1 13:1 14:1 63:1 135:1 2149:1 
0.1642832419375506 2:1 4:1 13:1 14:1 27:1 42:1 185:1 215:1 329:1 331:1 392:1 901:1 1418:1 2365:1 2366:1 
1 1:1 2:1 3:1 4:1 12:1 13:1 14:1 19:1 71:1 84:1 90:1 197:1 339:1 377:1 379:1 451:1 743:1 822:1 
0.6675830600841549 2:1 4:1 10:1 12:1 13:1 14:1 64:1 71:1 339:1 2635:1 2636:1 2637:1 
1 2:1 4:1 5:1 13:1 14:1 34:1 42:1 47:1 130:1 160:1 163:1 204:1 239:1 240:1 329:1 330:1 331:1 719:1 2638:1 
1 2:1 4:1 10:1 12:1 13:1 14:1 19:1 20:1 27:1 28:1 41:1 46:1 56:1 71:1 72:1 75:1 119:1 122:1 135:1 142:1 177:1 178:1 240:1 251:1 253:1 625:1 1585:1 1961:1 2639:1 
1 2:1 4:1 12:1 13:1 14:1 123:1 362:1 
1 2:1 4:1 13:1 14:1 194:1 362:1 
1 1:1 2:1 3:1 4:1 5:1 12:1 13:1 14:1 19:1 90:1 107:1 111:1 172:1 379:1 485:1 2310:1 
1 2:1 4:1 13:1 14:1 63:1 75:1 78:1 104:1 2642:1 2643:1 
0.1132539319436802 2:1 4:1 5:1 13:1 14:1 38:1 42:1 46:1 48:1 66:1 75:1 84:1 158:1 194:1 196:1 207:1 226:1 262:1 287:1 367:1 381:1 476:1 550:1 622:1 688:1 792:1 2644:1 2645:1 
0.1584733041461025 1:1 2:1 3:1 4:1 9:1 13:1 14:1 19:1 27:1 32:1 46:1 51:1 90:1 99:1 107:1 142:1 150:1 160:1 240:1 414:1 538:1 1028:1 1297:1 2615:1 
1 2:1 4:1 13:1 14:1 82:1 
1 2:1 4:1 12:1 13:1 14:1 38:1 75:1 122:1 337:1 362:1 1517:1 
0.02210680320449944 2:1 4:1 5:1 12:1 13:1 14:1 48:1 75:1 84:1 156:1 159:1 229:1 271:1 1652:1 2651:1 
1 2:1 4:1 5:1 13:1 14:1 126:1 215:1 238:1 507:1 845:1 2652:1 
1 1:1 2:1 3:1 4:1 13:1 14:1 19:1 311:1 320:1 
1 2:1 4:1 10:1 13:1 14:1 30:1 156:1 172:1 1652:1 
0.1346324127746616 2:1 4:1 5:1 13:1 14:1 46:1 72:1 84:1 262:1 382:1 641:1 658:1 767:1 1588:1 2659:1 
0.2876999933328712 2:1 4:1 10:1 13:1 14:1 52:1 56:1 72:1 75:1 107:1 130:1 165:1 196:1 316:1 349:1 507:1 1357:1 
1 2:1 4:1 5:1 12:1 13:1 14:1 19:1 23:1 34:1 46:1 50:1 56:1 84:1 130:1 156:1 163:1 165:1 177:1 178:1 240:1 312:1 414:1 489:1 766:1 936:1 1260:1 1383:1 2579:1 2639:1 
1 1:1 2:1 3:1 4:1 8:1 9:1 12:1 13:1 14:1 19:1 27:1 29:1 42:1 51:1 56:1 62:1 63:1 123:1 130:1 150:1 165:1 173:1 177:1 287:1 334:1 450:1 754:1 1003:1 1418:1 2049:1 2678:1 
0.02171183870022158 2:1 4:1 12:1 13:1 14:1 1003:1 1768:1 2024:1 2684:1 2685:1 
0.6272879408123038 2:1 4:1 12:1 13:1 14:1 122:1 194:1 1812:1 2686:1 
0.6304663380766696 2:1 4:1 5:1 6:1 13:1 14:1 201:1 202:1 262:1 315:1 1081:1 2511:1 
0.6830650807543074 2:1 4:1 13:1 14:1 30:1 34:1 42:1 63:1 163:1 179:1 2689:1 
0.7628573000033448 2:1 4:1 12:1 13:1 14:1 34:1 46:1 47:1 55:1 201:1 202:1 204:1 215:1 329:1 330:1 331:1 2019:1 2690:1 2691:1 
1 2:1 4:1 12:1 13:1 14:1 123:1 2626:1 
1 2:1 4:1 13:1 14:1 34:1 47:1 108:1 109:1 171:1 622:1 649:1 2694:1 
1 1:1 2:1 3:1 4:1 5:1 6:1 10:1 12:1 13:1 14:1 19:1 52:1 55:1 60:1 78:1 92:1 101:1 141:1 150:1 408:1 604:1 1742:1 1744:1 1954:1 2490:1 2695:1 
0.4479230752460454 2:1 4:1 13:1 14:1 38:1 63:1 66:1 75:1 84:1 429:1 1293:1 2696:1 2697:1 2698:1 2699:1 2700:1 2701:1 
0.05970500961514929 2:1 4:1 12:1 13:1 14:1 63:1 82:1 84:1 107:1 130:1 194:1 229:1 418:1 829:1 949:1 2707:1 
1 2:1 4:1 9:1 12:1 13:1 14:1 19:1 27:1 71:1 114:1 177:1 178:1 204:1 215:1 489:1 505:1 580:1 581:1 2407:1 
1 2:1 4:1 5:1 6:1 12:1 13:1 14:1 30:1 66:1 75:1 194:1 2420:1 2710:1 
0.4738025400772292 2:1 4:1 13:1 14:1 71:1 132:1 172:1 1407:1 
1 2:1 4:1 12:1 13:1 14:1 30:1 68:1 122:1 123:1 2711:1 
0.09320992071316869 1:1 2:1 3:1 4:1 5:1 10:1 12:1 13:1 14:1 19:1 54:1 61:1 76:1 101:1 120:1 312:1 362:1 389:1 454:1 560:1 805:1 2521:1 2713:1 2714:1 2715:1 
1 2:1 4:1 10:1 12:1 13:1 14:1 42:1 56:1 159:1 302:1 372:1 429:1 433:1 1068:1 1585:1 2090:1 
0.4588568761904002 2:1 4:1 5:1 12:1 13:1 14:1 84:1 175:1 194:1 211:1 222:1 2718:1 
0.1658741204945551 2:1 4:1 13:1 14:1 68:1 79:1 212:1 312:1 2719:1 2720:1 2721:1 
0.7868352888294085 1:1 2:1 3:1 4:1 13:1 14:1 38:1 46:1 56:1 63:1 75:1 163:1 244:1 251:1 283:1 512:1 545:1 678:1 2605:1 2722:1 2723:1 
1 2:1 4:1 5:1 6:1 10:1 13:1 14:1 75:1 113:1 158:1 194:1 199:1 248:1 360:1 
1 2:1 4:1 13:1 14:1 31:1 63:1 84:1 175:1 1018:1 2124:1 
1 2:1 4:1 12:1 13:1 14:1 63:1 65:1 75:1 404:1 503:1 729:1 1121:1 1122:1 1588:1 2127:1 
1 2:1 4:1 13:1 14:1 30:1 
0.1868872859483114 1:1 2:1 3:1 4:1 10:1 13:1 14:1 66:1 72:1 75:1 77:1 132:1 658:1 2742:1 2743:1 
1 2:1 4:1 5:1 6:1 12:1 13:1 14:1 56:1 65:1 71:1 141:1 215:1 482:1 505:1 785:1 2747:1 2748:1 
0.1621296446759434 2:1 4:1 13:1 14:1 63:1 78:1 84:1 262:1 429:1 1512:1 1946:1 
0.650068897702155 2:1 4:1 13:1 14:1 75:1 84:1 159:1 450:1 479:1 663:1 2751:1 
0.3565662250082003 2:1 4:1 8:1 13:1 14:1 71:1 76:1 84:1 92:1 95:1 172:1 267:1 315:1 448:1 1196:1 
0.9928933214068618 2:1 4:1 12:1 13:1 14:1 29:1 46:1 71:1 122:1 222:1 362:1 487:1 2755:1 2756:1 2757:1 
1 2:1 4:1 12:1 13:1 14:1 71:1 84:1 197:1 339:1 377:1 379:1 451:1 743:1 822:1 
0.6295730601320195 2:1 4:1 5:1 13:1 14:1 33:1 34:1 38:1 75:1 123:1 181:1 429:1 550:1 2758:1 
0.8287083650675025 2:1 4:1 12:1 13:1 14:1 141:1 2759:1 2760:1 
1 2:1 4:1 12:1 13:1 14:1 63:1 71:1 75:1 172:1 222:1 362:1 1768:1 2762:1 2763:1 
0.3482569948741332 2:1 4:1 5:1 10:1 12:1 13:1 14:1 42:1 65:1 84:1 124:1 347:1 422:1 2770:1 2771:1 
1 2:1 4:1 10:1 12:1 13:1 14:1 302:1 2744:1 
0.3305780710049768 1:1 2:1 3:1 4:1 12:1 13:1 14:1 1298:1 2773:1 
0.2283745019260006 2:1 4:1 13:1 14:1 38:1 72:1 75:1 329:1 330:1 331:1 639:1 726:1 2774:1 2775:1 
1 2:1 4:1 5:1 13:1 14:1 27:1 48:1 108:1 109:1 135:1 163:1 181:1 189:1 194:1 215:1 440:1 
0.4593525132212896 1:1 2:1 3:1 4:1 5:1 13:1 14:1 15:1 34:1 42:1 50:1 54:1 75:1 99:1 101:1 120:1 130:1 452:1 472:1 486:1 507:1 1124:1 1989:1 2776:1 2777:1 2778:1 2779:1 
0.2974370348286932 2:1 4:1 13:1 14:1 1024:1 
0.8228053631075817 2:1 4:1 5:1 6:1 12:1 13:1 14:1 63:1 68:1 84:1 99:1 122:1 215:1 362:1 505:1 604:1 793:1 918:1 2783:1 2784:1 
0.1120443278402448 2:1 4:1 13:1 14:1 42:1 63:1 99:1 282:1 316:1 1227:1 1920:1 
1 2:1 4:1 13:1 14:1 51:1 60:1 127:1 
0.0678079424589733 1:1 2:1 3:1 4:1 9:1 13:1 14:1 27:1 42:1 51:1 56:1 63:1 75:1 101:1 141:1 159:1 173:1 232:1 240:1 262:1 327:1 362:1 893:1 1194:1 2240:1 2785:1 2786:1 2787:1 
1 2:1 4:1 10:1 13:1 14:1 66:1 75:1 180:1 620:1 719:1 756:1 
0.125644648396909 1:1 2:1 3:1 4:1 12:1 13:1 14:1 42:1 56:1 72:1 82:1 286:1 1496:1 2799:1 2800:1 2801:1 2802:1 2803:1 2804:1 2805:1 
1 2:1 4:1 12:1 13:1 14:1 19:1 194:1 212:1 580:1 581:1 
0.8697023126670801 2:1 4:1 5:1 13:1 14:1 34:1 46:1 71:1 84:1 122:1 293:1 306:1 360:1 719:1 788:1 2808:1 2809:1 
1 2:1 4:1 13:1 14:1 48:1 75:1 194:1 381:1 
0.1454418586873739 2:1 4:1 13:1 14:1 63:1 127:1 2813:1 
1 2:1 4:1 13:1 14:1 48:1 113:1 160:1 437:1 625:1 992:1 
1 2:1 4:1 13:1 14:1 19:1 71:1 84:1 177:1 178:1 204:1 312:1 666:1 1127:1 
1 1:1 2:1 3:1 4:1 13:1 14:1 50:1 203:1 647:1 
0.03153016993531752 2:1 4:1 13:1 14:1 29:1 48:1 84:1 229:1 239:1 284:1 2824:1 
0.4395277008548982 2:1 4:1 5:1 13:1 14:1 20:1 34:1 46:1 66:1 68:1 75:1 112:1 114:1 130:1 150:1 205:1 211:1 377:1 649:1 805:1 837:1 852:1 2828:1 2829:1 2830:1 
1 2:1 4:1 5:1 6:1 9:1 12:1 13:1 14:1 71:1 172:1 1773:1 2255:1 2841:1 
0.2140059170765363 2:1 4:1 12:1 13:1 14:1 48:1 66:1 75:1 84:1 108:1 109:1 110:1 122:1 141:1 604:1 1624:1 2842:1 2843:1 
0.1787655568692767 2:1 4:1 8:1 10:1 13:1 14:1 42:1 52:1 68:1 75:1 93:1 109:1 142:1 165:1 232:1 368:1 389:1 462:1 488:1 956:1 981:1 2844:1 2845:1 2846:1 
0.3557161255856029 2:1 4:1 13:1 14:1 30:1 2847:1 2848:1 
0.2153309846293607 2:1 4:1 12:1 13:1 14:1 75:1 114:1 194:1 346:1 719:1 1243:1 2849:1 2850:1 
0.1422242024168267 2:1 4:1 5:1 6:1 12:1 13:1 14:1 46:1 47:1 167:1 238:1 620:1 1144:1 1974:1 2851:1 2852:1 2853:1 
1 1:1 2:1 3:1 4:1 5:1 13:1 14:1 41:1 46:1 63:1 107:1 159:1 199:1 200:1 216:1 251:1 573:1 622:1 1566:1 1693:1 2260:1 2596:1 2854:1 2855:1 
1 2:1 4:1 13:1 14:1 51:1 60:1 1335:1 
1 2:1 4:1 12:1 13:1 14:1 19:1 253:1 295:1 625:1 2856:1 
1 1:1 2:1 3:1 4:1 13:1 14:1 19:1 82:1 90:1 
1 2:1 4:1 12:1 13:1 14:1 17:1 34:1 38:1 47:1 75:1 84:1 130:1 300:1 2857:1 2858:1 2859:1 
0.3527524400979754 2:1 4:1 12:1 13:1 14:1 60:1 115:1 262:1 2860:1 2861:1 
0.3074676828301705 2:1 4:1 13:1 14:1 30:1 63:1 262:1 410:1 429:1 2862:1 2863:1 
1 2:1 4:1 5:1 12:1 13:1 14:1 48:1 84:1 215:1 315:1 377:1 609:1 1994:1 
0.2610239445304266 2:1 4:1 5:1 13:1 14:1 46:1 60:1 2867:1 
0.4368397807553817 1:1 2:1 3:1 4:1 13:1 14:1 19:1 27:1 42:1 90:1 185:1 215:1 329:1 331:1 392:1 901:1 1418:1 2365:1 2366:1 
0.2960462194804877 2:1 4:1 13:1 14:1 46:1 55:1 61:1 71:1 75:1 94:1 99:1 465:1 1125:1 1302:1 1529:1 1538:1 2596:1 2868:1 2869:1 2870:1 
0.8728585079889124 2:1 4:1 12:1 13:1 14:1 47:1 63:1 179:1 262:1 518:1 922:1 
1 2:1 4:1 12:1 13:1 14:1 30:1 71:1 84:1 194:1 576:1 1404:1 2272:1 
1 2:1 4:1 5:1 6:1 9:1 10:1 13:1 14:1 27:1 46:1 56:1 75:1 84:1 262:1 429:1 451:1 680:1 1925:1 2877:1 
1 2:1 4:1 13:1 14:1 123:1 238:1 620:1 
0.2455625946077647 2:1 4:1 13:1 14:1 65:1 2881:1 2882:1 2883:1 2884:1 
1 2:1 4:1 13:1 14:1 19:1 47:1 173:1 177:1 178:1 200:1 744:1 754:1 2068:1 
0.00145968796447139 2:1 4:1 12:1 13:1 14:1 68:1 75:1 122:1 123:1 175:1 211:1 2885:1 
0.1877742017388978 2:1 4:1 13:1 14:1 48:1 201:1 202:1 712:1 2887:1 2888:1 
0.122748734518349 2:1 4:1 5:1 13:1 14:1 82:1 84:1 86:1 111:1 159:1 177:1 295:1 2594:1 2877:1 2889:1 2890:1 
1 2:1 4:1 12:1 13:1 14:1 229:1 337:1 2891:1 
0.4593728373697408 2:1 4:1 13:1 14:1 20:1 32:1 47:1 48:1 52:1 112:1 135:1 262:1 779:1 1281:1 2892:1 
1 1:1 2:1 3:1 4:1 5:1 8:1 9:1 12:1 13:1 14:1 30:1 42:1 46:1 63:1 72:1 84:1 229:1 240:1 262:1 283:1 302:1 353:1 472:1 622:1 1090:1 1710:1 2346:1 2893:1 2894:1 2895:1 
0.5395733116441077 2:1 4:1 13:1 14:1 30:1 128:1 2899:1 2900:1 
0.7021414581841886 2:1 4:1 13:1 14:1 66:1 71:1 84:1 122:1 124:1 2901:1 2902:1 
1 1:1 2:1 3:1 4:1 5:1 8:1 13:1 14:1 160:1 173:1 204:1 251:1 880:1 1430:1 2596:1 2903:1 2904:1 
1 2:1 4:1 12:1 13:1 14:1 48:1 108:1 109:1 110:1 204:1 240:1 488:1 579:1 729:1 1129:1 
1 2:1 4:1 12:1 13:1 14:1 28:1 576:1 
1 2:1 4:1 13:1 14:1 29:1 72:1 84:1 262:1 597:1 631:1 2269:1 2907:1 
1 2:1 4:1 12:1 13:1 14:1 19:1 29:1 63:1 71:1 177:1 178:1 210:1 215:1 262:1 483:1 576:1 680:1 2911:1 
1 2:1 4:1 13:1 14:1 240:1 329:1 331:1 412:1 726:1 
0.5874778157508294 2:1 4:1 13:1 14:1 48:1 123:1 194:1 362:1 2914:1 
1 1:1 2:1 3:1 4:1 12:1 13:1 14:1 141:1 283:1 
0.1530498616646554 1:1 2:1 3:1 4:1 13:1 14:1 30:1 38:1 68:1 75:1 181:1 262:1 429:1 988:1 2103:1 2104:1 2105:1 
0.1458199100761806 2:1 4:1 12:1 13:1 14:1 71:1 429:1 715:1 950:1 1505:1 2915:1 2916:1 
0.6161980028559332 2:1 4:1 9:1 13:1 14:1 32:1 38:1 42:1 46:1 75:1 84:1 159:1 163:1 302:1 1649:1 1766:1 2924:1 2925:1 2926:1 2927:1 2928:1 
1 2:1 4:1 5:1 6:1 13:1 14:1 52:1 71:1 75:1 84:1 172:1 240:1 251:1 282:1 312:1 422:1 429:1 2931:1 2932:1 
1 2:1 4:1 12:1 13:1 14:1 19:1 55:1 63:1 68:1 72:1 84:1 107:1 144:1 177:1 178:1 781:1 1443:1 1712:1 2496:1 2678:1 2933:1 2934:1 2935:1 
0.2069097120983324 2:1 4:1 13:1 14:1 38:1 42:1 82:1 327:1 1618:1 2941:1 2942:1 
0.5265540388114636 2:1 4:1 13:1 14:1 108:1 109:1 302:1 662:1 2944:1 
1 1:1 2:1 3:1 4:1 13:1 14:1 19:1 82:1 107:1 177:1 233:1 1003:1 2049:1 
0.2825756190005375 1:1 2:1 3:1 4:1 12:1 13:1 14:1 19:1 75:1 90:1 114:1 194:1 346:1 719:1 1243:1 2849:1 2850:1 
0.0001346070980616531 1:1 2:1 3:1 4:1 12:1 13:1 14:1 19:1 63:1 82:1 84:1 90:1 107:1 130:1 194:1 229:1 418:1 829:1 949:1 2707:1 
0.8484339595469003 2:1 4:1 13:1 14:1 16:1 34:1 41:1 60:1 84:1 130:1 160:1 786:1 2130:1 2362:1 2769:1 
0.6770580930244269 2:1 4:1 12:1 13:1 14:1 28:1 68:1 75:1 2945:1 
0.4848196150164838 2:1 4:1 5:1 13:1 14:1 30:1 75:1 99:1 113:1 130:1 163:1 215:1 337:1 2845:1 2946:1 2947:1 
0.3557946470452651 2:1 4:1 13:1 14:1 30:1 2952:1 2953:1 
1 2:1 4:1 13:1 14:1 34:1 68:1 75:1 84:1 123:1 130:1 150:1 172:1 204:1 216:1 312:1 326:1 343:1 434:1 701:1 883:1 1109:1 2954:1 2955:1 2956:1 
1 2:1 4:1 13:1 14:1 51:1 63:1 101:1 115:1 216:1 343:1 1638:1 
0.9328541703090337 2:1 4:1 13:1 14:1 29:1 68:1 71:1 75:1 490:1 509:1 2309:1 2957:1 2958:1 
1 2:1 4:1 12:1 13:1 14:1 68:1 84:1 122:1 124:1 141:1 175:1 211:1 625:1 
1 2:1 4:1 13:1 14:1 29:1 84:1 262:1 616:1 1234:1 1235:1 
1 2:1 4:1 10:1 13:1 14:1 66:1 135:1 339:1 1273:1 2303:1 
1 2:1 4:1 5:1 6:1 13:1 14:1 32:1 52:1 63:1 135:1 436:1 1994:1 
1 1:1 2:1 3:1 4:1 5:1 13:1 14:1 19:1 30:1 71:1 75:1 90:1 126:1 150:1 172:1 204:1 2263:1 
0.2221689235705238 1:1 2:1 3:1 4:1 10:1 13:1 14:1 19:1 63:1 75:1 82:1 84:1 90:1 1357:1 2102:1 
0.1471086389808703 2:1 4:1 12:1 13:1 14:1 46:1 56:1 122:1 166:1 209:1 210:1 454:1 1697:1 2964:1 2965:1 2966:1 
1 1:1 2:1 3:1 4:1 5:1 6:1 8:1 12:1 13:1 14:1 78:1 84:1 277:1 
1 2:1 4:1 13:1 14:1 66:1 71:1 75:1 244:1 376:1 505:1 2975:1 
0.2654307985806261 1:1 2:1 3:1 4:1 12:1 13:1 14:1 42:1 101:1 1485:1 1496:1 2976:1 2977:1 2978:1 2979:1 2980:1 2981:1 
0.878650555907581 2:1 4:1 10:1 13:1 14:1 63:1 75:1 204:1 576:1 1300:1 1822:1 
0.6253471165298119 2:1 4:1 13:1 14:1 48:1 75:1 122:1 159:1 306:1 414:1 431:1 747:1 
1 8:1 13:1 48:1 75:1 77:1 186:1 507:1 760:1 2224:1 
0.01048863301533633 2:1 4:1 5:1 6:1 12:1 13:1 14:1 47:1 63:1 71:1 75:1 84:1 135:1 163:1 315:1 456:1 493:1 759:1 1185:1 
1 2:1 4:1 13:1 14:1 63:1 209:1 1391:1 2186:1 
0.07814234755361402 2:1 4:1 12:1 13:1 14:1 42:1 63:1 68:1 75:1 262:1 364:1 824:1 1233:1 2985:1 
0.08561003700562554 1:1 2:1 3:1 4:1 13:1 14:1 19:1 46:1 55:1 63:1 75:1 90:1 471:1 1690:1 2987:1 2988:1 2989:1 
1 2:1 4:1 5:1 13:1 14:1 63:1 114:1 135:1 150:1 165:1 167:1 200:1 202:1 204:1 340:1 487:1 
1 1:1 2:1 3:1 4:1 13:1 14:1 29:1 31:1 63:1 101:1 138:1 1018:1 
0.3050094231635524 2:1 4:1 12:1 13:1 14:1 68:1 75:1 122:1 123:1 124:1 175:1 362:1 2993:1 2994:1 
0.2216573589733246 2:1 4:1 5:1 10:1 13:1 14:1 71:1 84:1 215:1 216:1 262:1 309:1 576:1 2764:1 2997:1 2998:1 
1 2:1 4:1 12:1 13:1 14:1 28:1 42:1 48:1 63:1 71:1 72:1 75:1 99:1 150:1 163:1 172:1 476:1 576:1 774:1 2639:1 2999:1 
0.4132724688760404 2:1 4:1 13:1 14:1 48:1 63:1 75:1 84:1 108:1 109:1 159:1 172:1 200:1 429:1 658:1 962:1 1300:1 3000:1 3001:1 
0.2686062778494555 2:1 4:1 13:1 14:1 47:1 48:1 63:1 73:1 82:1 123:1 144:1 200:1 240:1 302:1 509:1 1003:1 3004:1 3005:1 3006:1 
1 2:1 4:1 9:1 12:1 13:1 14:1 47:1 62:1 173:1 207:1 287:1 754:1 
1 1:1 2:1 3:1 4:1 12:1 13:1 14:1 47:1 48:1 72:1 119:1 175:1 429:1 502:1 
1 2:1 4:1 12:1 13:1 14:1 38:1 63:1 84:1 122:1 123:1 124:1 135:1 
0.4195236687429104 2:1 4:1 9:1 13:1 14:1 47:1 55:1 63:1 71:1 73:1 127:1 488:1 576:1 3018:1 3019:1 
1 1:1 2:1 3:1 4:1 5:1 13:1 14:1 312:1 1766:1 3023:1 
1 1:1 2:1 3:1 4:1 13:1 14:1 
0.9525357325883641 2:1 4:1 5:1 13:1 14:1 60:1 743:1 3024:1 
0.6034093875850783 2:1 4:1 13:1 14:1 63:1 66:1 72:1 75:1 210:1 215:1 756:1 880:1 
1 2:1 4:1 12:1 13:1 14:1 17:1 42:1 84:1 137:1 159:1 189:1 343:1 680:1 1031:1 
0.2957179718200996 2:1 4:1 9:1 10:1 13:1 14:1 38:1 71:1 73:1 84:1 196:1 201:1 202:1 277:1 376:1 410:1 576:1 636:1 936:1 957:1 3030:1 3031:1 
0.3480766743566144 2:1 4:1 12:1 13:1 14:1 38:1 63:1 68:1 72:1 75:1 84:1 122:1 123:1 222:1 576:1 1191:1 3034:1 
1 2:1 4:1 13:1 14:1 207:1 215:1 232:1 1269:1 
0.6399940367390854 2:1 4:1 13:1 14:1 38:1 122:1 123:1 124:1 3035:1 
1 2:1 4:1 5:1 12:1 13:1 14:1 29:1 123:1 159:1 315:1 334:1 625:1 834:1 3040:1 
1 2:1 4:1 13:1 14:1 182:1 1946:1 
1 2:1 4:1 12:1 13:1 14:1 55:1 71:1 72:1 163:1 172:1 305:1 886:1 887:1 2877:1 
1 1:1 2:1 3:1 4:1 5:1 12:1 13:1 14:1 27:1 41:1 239:1 318:1 622:1 1090:1 1935:1 2628:1 2910:1 
1 2:1 4:1 5:1 12:1 13:1 14:1 29:1 33:1 38:1 84:1 150:1 210:1 239:1 240:1 341:1 805:1 1505:1 3054:1 
0.1993689670047996 2:1 4:1 5:1 13:1 14:1 34:1 38:1 46:1 72:1 73:1 75:1 130:1 147:1 283:1 315:1 869:1 1346:1 2309:1 3055:1 3056:1 
0.3855791089091999 2:1 4:1 13:1 14:1 63:1 75:1 503:1 866:1 
1 2:1 4:1 9:1 12:1 13:1 14:1 30:1 47:1 95:1 128:1 287:1 3061:1 
1 2:1 4:1 9:1 13:1 14:1 27:1 34:1 42:1 46:1 48:1 50:1 71:1 108:1 109:1 111:1 159:1 214:1 240:1 282:1 347:1 476:1 479:1 507:1 560:1 680:1 768:1 1357:1 1637:1 
1 2:1 4:1 13:1 14:1 29:1 63:1 75:1 159:1 239:1 326:1 505:1 1174:1 1636:1 
0.3001131365521938 2:1 4:1 8:1 12:1 13:1 14:1 27:1 30:1 48:1 60:1 229:1 3062:1 
0.05342234235040348 2:1 4:1 5:1 13:1 14:1 56:1 95:1 101:1 126:1 182:1 272:1 743:1 865:1 869:1 1297:1 1539:1 1566:1 2499:1 2669:1 3063:1 3064:1 3065:1 
0.5102289974123817 2:1 4:1 5:1 6:1 10:1 12:1 13:1 14:1 27:1 63:1 65:1 72:1 75:1 84:1 120:1 199:1 329:1 331:1 392:1 785:1 798:1 912:1 1159:1 1281:1 
1 1:1 2:1 3:1 4:1 13:1 14:1 175:1 283:1 
0.7526327672886872 2:1 4:1 5:1 13:1 14:1 42:1 48:1 99:1 137:1 158:1 160:1 167:1 204:1 258:1 389:1 477:1 2374:1 3069:1 
0.3311090699590602 2:1 4:1 12:1 13:1 14:1 46:1 56:1 71:1 107:1 127:1 204:1 222:1 226:1 236:1 903:1 1793:1 3070:1 
0.483154645562249 1:1 2:1 3:1 4:1 9:1 13:1 14:1 27:1 56:1 75:1 142:1 211:1 379:1 446:1 622:1 3071:1 3072:1 3073:1 
1 2:1 4:1 12:1 13:1 14:1 34:1 63:1 71:1 170:1 190:1 576:1 3074:1 
1 1:1 2:1 3:1 4:1 13:1 14:1 19:1 27:1 48:1 90:1 101:1 344:1 1042:1 1517:1 
0.219993943604298 2:1 4:1 13:1 14:1 68:1 210:1 3077:1 3078:1 3079:1 
0.8830032374351404 2:1 4:1 13:1 14:1 19:1 29:1 71:1 75:1 177:1 178:1 212:1 3086:1 
0.2731389166347442 1:1 2:1 3:1 4:1 13:1 14:1 19:1 32:1 42:1 46:1 48:1 63:1 72:1 90:1 300:1 326:1 487:1 507:1 576:1 992:1 1074:1 1144:1 
0.6562640596722958 2:1 4:1 5:1 13:1 14:1 38:1 63:1 75:1 82:1 95:1 98:1 126:1 156:1 165:1 194:1 282:1 410:1 487:1 492:1 529:1 695:1 889:1 901:1 1028:1 1346:1 1957:1 
0.4117729136398438 2:1 4:1 10:1 13:1 14:1 29:1 34:1 38:1 42:1 63:1 75:1 84:1 99:1 107:1 116:1 215:1 316:1 808:1 863:1 2511:1 3088:1 
0.2785681415592581 2:1 4:1 13:1 14:1 84:1 122:1 179:1 339:1 518:1 625:1 3089:1 
0.2525474555669894 2:1 4:1 10:1 13:1 14:1 84:1 233:1 251:1 351:1 385:1 609:1 
1 1:1 2:1 3:1 4:1 13:1 14:1 19:1 27:1 120:1 177:1 178:1 201:1 202:1 331:1 424:1 1090:1 1512:1 
0.1380318904980844 2:1 4:1 10:1 12:1 13:1 14:1 63:1 112:1 189:1 262:1 410:1 3093:1 3094:1 3095:1 3096:1 
0.5246457027946283 2:1 4:1 13:1 14:1 568:1 992:1 2520:1 3097:1 
0.7630584900761894 2:1 4:1 5:1 12:1 13:1 14:1 34:1 47:1 63:1 127:1 229:1 249:1 293:1 328:1 3098:1 
0.6711001852355054 1:1 2:1 3:1 4:1 9:1 12:1 13:1 14:1 19:1 63:1 71:1 90:1 107:1 109:1 238:1 240:1 267:1 420:1 548:1 1103:1 1334:1 1773:1 3099:1 3100:1 
1 2:1 4:1 12:1 13:1 14:1 47:1 63:1 95:1 115:1 123:1 287:1 1335:1 2675:1 
0.7808327537620022 1:1 2:1 3:1 4:1 5:1 6:1 12:1 13:1 14:1 31:1 46:1 63:1 160:1 204:1 267:1 344:1 680:1 1003:1 1018:1 1090:1 2039:1 2126:1 2194:1 3101:1 
1 1:1 2:1 3:1 4:1 12:1 13:1 14:1 107:1 2310:1 
0.4229227916747853 2:1 4:1 10:1 13:1 14:1 75:1 135:1 215:1 351:1 3105:1 
1 2:1 4:1 13:1 14:1 19:1 177:1 1003:1 2049:1 
0.09491038791924925 1:1 12:1 13:1 20:1 51:1 77:1 95:1 109:1 119:1 120:1 238:1 281:1 573:1 845:1 2060:1 3106:1 3107:1 3108:1 3109:1 3110:1 3111:1 
1 2:1 4:1 10:1 12:1 13:1 14:1 16:1 29:1 42:1 46:1 56:1 64:1 66:1 76:1 79:1 84:1 163:1 306:1 337:1 532:1 601:1 845:1 1078:1 1094:1 1438:1 3113:1 
1 2:1 4:1 5:1 13:1 14:1 42:1 175:1 233:1 277:1 351:1 471:1 631:1 3114:1 3115:1 
1 1:1 2:1 3:1 4:1 12:1 13:1 14:1 240:1 337:1 625:1 817:1 2179:1 
0.1025876179114054 2:1 4:1 13:1 14:1 2023:1 2221:1 3120:1 3121:1 
1 2:1 4:1 10:1 13:1 14:1 63:1 1137:1 1300:1 3124:1 
0.348684686703188 1:1 2:1 3:1 4:1 13:1 14:1 19:1 56:1 90:1 503:1 690:1 733:1 1532:1 2687:1 
0.0916825810510486 2:1 4:1 5:1 13:1 14:1 63:1 84:1 99:1 194:1 1624:1 3131:1 
0.4033096255092345 2:1 4:1 5:1 6:1 13:1 14:1 3132:1 3133:1 
1 13:1 63:1 108:1 109:1 172:1 215:1 235:1 487:1 1069:1 3136:1 
1 2:1 4:1 10:1 13:1 14:1 16:1 72:1 75:1 160:1 175:1 497:1 1478:1 1653:1 3137:1 
0.4543508753577641 2:1 4:1 13:1 14:1 66:1 84:1 123:1 159:1 210:1 429:1 2130:1 3140:1 
0.08031748822524393 2:1 4:1 13:1 14:1 27:1 38:1 41:1 109:1 123:1 215:1 248:1 277:1 376:1 480:1 620:1 719:1 756:1 1007:1 1388:1 2642:1 3142:1 3143:1 3144:1 
0.4348847935602875 1:1 2:1 3:1 4:1 12:1 13:1 14:1 48:1 55:1 3149:1 3150:1 3151:1 3152:1 3153:1 3154:1 3155:1 
1 2:1 4:1 12:1 13:1 14:1 63:1 78:1 84:1 112:1 262:1 759:1 
0.1053966889605451 2:1 4:1 13:1 14:1 34:1 76:1 84:1 484:1 2517:1 3163:1 
0.1755648626302551 2:1 4:1 5:1 8:1 13:1 14:1 30:1 32:1 78:1 237:1 282:1 3164:1 
0.2828690302432726 2:1 4:1 10:1 13:1 14:1 29:1 38:1 48:1 56:1 63:1 75:1 84:1 120:1 159:1 240:1 413:1 427:1 521:1 625:1 805:1 1522:1 1636:1 2925:1 3166:1 3167:1 3168:1 3169:1 
0.8318857719161513 2:1 4:1 12:1 13:1 14:1 123:1 238:1 434:1 3170:1 3171:1 3172:1 
1 2:1 4:1 13:1 14:1 131:1 150:1 201:1 202:1 251:1 
0.606377481159449 1:1 2:1 3:1 4:1 13:1 14:1 27:1 82:1 101:1 159:1 262:1 864:1 936:1 1015:1 2019:1 2156:1 3174:1 3175:1 3176:1 
1 2:1 4:1 13:1 14:1 141:1 186:1 215:1 1762:1 
0.6756916052345247 1:1 2:1 3:1 4:1 9:1 13:1 14:1 19:1 75:1 90:1 189:1 414:1 854:1 1020:1 
1 2:1 4:1 13:1 14:1 77:1 78:1 124:1 141:1 
0.6222317952867804 2:1 4:1 13:1 14:1 55:1 71:1 75:1 107:1 302:1 367:1 701:1 914:1 
0.8743883465825851 2:1 4:1 12:1 13:1 14:1 19:1 48:1 56:1 72:1 75:1 84:1 107:1 204:1 205:1 213:1 249:1 295:1 876:1 902:1 903:1 2503:1 
1 2:1 4:1 13:1 14:1 27:1 63:1 105:1 163:1 477:1 
1 2:1 4:1 5:1 13:1 14:1 16:1 108:1 109:1 123:1 172:1 216:1 301:1 957:1 3183:1 
0.3511891251859837 1:1 2:1 3:1 4:1 5:1 8:1 10:1 13:1 14:1 27:1 42:1 48:1 68:1 92:1 95:1 130:1 159:1 315:1 428:1 1517:1 1968:1 2194:1 2545:1 3184:1 3185:1 3186:1 
0.6822482673016548 2:1 4:1 13:1 14:1 65:1 71:1 75:1 81:1 150:1 877:1 2548:1 2660:1 
1 2:1 4:1 8:1 13:1 14:1 91:1 119:1 329:1 330:1 331:1 719:1 3188:1 3189:1 
0.9804140699941588 2:1 4:1 13:1 14:1 48:1 63:1 127:1 135:1 141:1 205:1 239:1 502:1 622:1 2310:1 
0.08116799465902474 2:1 4:1 13:1 14:1 56:1 72:1 1199:1 3190:1 3191:1 3192:1 3193:1 
1 1:1 2:1 3:1 4:1 5:1 12:1 13:1 14:1 19:1 41:1 75:1 90:1 150:1 165:1 186:1 315:1 911:1 938:1 
0.2568546549535991 2:1 4:1 13:1 14:1 240:1 743:1 2562:1 3198:1 3199:1 
0.6758952679006499 1:1 2:1 3:1 4:1 5:1 13:1 14:1 19:1 29:1 56:1 71:1 131:1 172:1 262:1 311:1 422:1 805:1 813:1 894:1 2906:1 3200:1 
0.453342689670162 2:1 4:1 12:1 13:1 14:1 19:1 27:1 46:1 72:1 84:1 158:1 177:1 178:1 201:1 202:1 229:1 231:1 358:1 385:1 477:1 759:1 1185:1 2278:1 3201:1 
0.9994319566780538 1:1 2:1 3:1 4:1 10:1 12:1 19:1 34:1 55:1 63:1 71:1 72:1 75:1 90:1 101:1 123:1 163:1 172:1 214:1 286:1 305:1 318:1 480:1 886:1 887:1 2877:1 3202:1 
1 1:1 2:1 3:1 4:1 8:1 12:1 13:1 14:1 19:1 42:1 47:1 63:1 76:1 90:1 295:1 300:1 312:1 865:1 869:1 911:1 2346:1 3203:1 3204:1 3205:1 
1 2:1 4:1 13:1 14:1 42:1 798:1 1668:1 1728:1 
0.04105403344338703 1:1 2:1 3:1 4:1 12:1 13:1 14:1 27:1 29:1 46:1 101:1 147:1 159:1 362:1 484:1 2023:1 2221:1 2606:1 3121:1 3207:1 3208:1 3209:1 3210:1 
0.07549201924862711 2:1 4:1 5:1 6:1 13:1 14:1 46:1 54:1 66:1 78:1 135:1 139:1 236:1 256:1 507:1 1529:1 3211:1 
1 1:1 2:1 3:1 4:1 12:1 13:1 14:1 19:1 30:1 63:1 90:1 262:1 576:1 1240:1 
1 2:1 4:1 13:1 14:1 38:1 63:1 84:1 122:1 123:1 124:1 429:1 3212:1 
0.6968334349367603 1:1 2:1 3:1 4:1 12:1 13:1 14:1 46:1 66:1 135:1 159:1 318:1 1632:1 3213:1 3214:1 3215:1 
0.1979113368938082 1:1 2:1 3:1 4:1 8:1 12:1 13:1 14:1 19:1 42:1 47:1 63:1 76:1 295:1 300:1 312:1 865:1 869:1 911:1 2346:1 3203:1 3204:1 3205:1 
1 1:1 2:1 3:1 4:1 13:1 14:1 72:1 101:1 364:1 1056:1 1566:1 3176:1 
1 2:1 4:1 12:1 13:1 14:1 22:1 63:1 123:1 127:1 
0.3534532127761567 1:1 2:1 3:1 4:1 9:1 10:1 12:1 13:1 14:1 42:1 66:1 84:1 140:1 3223:1 3224:1 3225:1 
0.9162962784656294 2:1 4:1 5:1 13:1 14:1 17:1 47:1 71:1 73:1 84:1 111:1 172:1 353:1 2840:1 
0.02050407030509778 1:1 2:1 3:1 4:1 13:1 14:1 19:1 50:1 55:1 72:1 82:1 90:1 315:1 1430:1 1875:1 3017:1 
1 2:1 4:1 13:1 14:1 65:1 84:1 123:1 434:1 680:1 694:1 956:1 1487:1 
0.08463983080084247 2:1 4:1 10:1 13:1 14:1 936:1 3076:1 3229:1 
0.3266074488599882 1:1 2:1 3:1 4:1 13:1 14:1 19:1 72:1 90:1 1144:1 1400:1 3235:1 3236:1 3237:1 
1 2:1 4:1 12:1 13:1 14:1 29:1 48:1 84:1 258:1 1353:1 
0.05482109780794774 2:1 4:1 12:1 13:1 14:1 42:1 46:1 47:1 56:1 63:1 71:1 121:1 150:1 215:1 312:1 359:1 362:1 469:1 762:1 1028:1 1270:1 2628:1 3238:1 3239:1 
0.5251111445958719 2:1 4:1 13:1 14:1 38:1 65:1 71:1 75:1 84:1 141:1 175:1 209:1 370:1 680:1 1588:1 2617:1 3241:1 
1 2:1 4:1 13:1 14:1 42:1 78:1 139:1 175:1 407:1 3242:1 
0.2194184927652634 1:1 2:1 3:1 4:1 10:1 12:1 13:1 14:1 27:1 38:1 42:1 46:1 48:1 101:1 108:1 109:1 124:1 192:1 232:1 239:1 240:1 329:1 331:1 392:1 560:1 742:1 809:1 1368:1 3246:1 3247:1 
0.6055677754095401 2:1 4:1 12:1 13:1 14:1 42:1 175:1 197:1 211:1 3248:1 
1 2:1 4:1 13:1 14:1 27:1 34:1 47:1 48:1 63:1 84:1 248:1 256:1 774:1 894:1 1156:1 1456:1 1748:1 
0.2789111045417835 2:1 4:1 13:1 14:1 20:1 30:1 147:1 251:1 329:1 331:1 392:1 414:1 484:1 767:1 1637:1 2446:1 2541:1 3259:1 3260:1 3261:1 3262:1 3263:1 3264:1 3265:1 3266:1 3267:1 
1 1:1 2:1 3:1 4:1 13:1 14:1 30:1 507:1 2782:1 3268:1 
1 2:1 4:1 12:1 13:1 14:1 47:1 84:1 112:1 488:1 759:1 793:1 3269:1 
1 1:1 2:1 3:1 4:1 13:1 14:1 350:1 
0.5692121466481188 2:1 4:1 5:1 13:1 14:1 82:1 130:1 680:1 728:1 3276:1 3277:1 3278:1 
0.2738342687547461 2:1 4:1 13:1 14:1 32:1 63:1 204:1 480:1 489:1 779:1 1018:1 3279:1 
1 2:1 4:1 13:1 14:1 150:1 232:1 316:1 367:1 2357:1 
1 2:1 4:1 12:1 13:1 14:1 27:1 34:1 101:1 115:1 216:1 309:1 
1 1:1 2:1 3:1 4:1 5:1 8:1 10:1 13:1 14:1 42:1 46:1 63:1 99:1 124:1 172:1 175:1 222:1 267:1 277:1 729:1 813:1 3292:1 3293:1 
0.9706276130669808 2:1 4:1 12:1 13:1 14:1 306:1 414:1 431:1 434:1 1259:1 3296:1 3297:1 
0.2208593344343674 1:1 2:1 3:1 4:1 13:1 14:1 32:1 84:1 107:1 150:1 196:1 738:1 3049:1 3303:1 
0.06252654601520813 2:1 4:1 5:1 6:1 13:1 14:1 27:1 42:1 50:1 63:1 75:1 132:1 159:1 302:1 768:1 3311:1 3312:1 
0.1486996034056303 2:1 4:1 13:1 14:1 3317:1 3318:1 
0.8909381042885746 2:1 4:1 13:1 14:1 30:1 63:1 84:1 135:1 262:1 2920:1 
0.8702346269855351 2:1 4:1 13:1 14:1 42:1 48:1 63:1 75:1 78:1 175:1 229:1 262:1 2895:1 2931:1 3324:1 
0.2803775619193392 2:1 4:1 5:1 10:1 13:1 14:1 27:1 31:1 38:1 42:1 46:1 48:1 50:1 56:1 84:1 107:1 173:1 236:1 249:1 315:1 817:1 1116:1 1600:1 2346:1 3325:1 3326:1 3327:1 
0.1772018975407937 1:1 2:1 3:1 4:1 5:1 12:1 13:1 14:1 19:1 63:1 90:1 99:1 141:1 158:1 841:1 1443:1 2996:1 
1 2:1 4:1 13:1 14:1 25:1 30:1 84:1 649:1 1199:1 2476:1 
0.7988005306237062 1:1 2:1 3:1 4:1 13:1 14:1 19:1 38:1 65:1 71:1 75:1 84:1 90:1 141:1 175:1 209:1 370:1 680:1 1588:1 2617:1 3241:1 
0.1742507759502578 1:1 2:1 3:1 4:1 13:1 14:1 75:1 107:1 186:1 573:1 3332:1 
0.1874874610586387 2:1 4:1 10:1 13:1 14:1 119:1 3120:1 3333:1 3334:1 
0.2960988049316055 13:1 38:1 47:1 351:1 362:1 1069:1 3336:1 3337:1 3338:1 3339:1 3340:1 
1 2:1 4:1 5:1 9:1 13:1 14:1 27:1 34:1 65:1 72:1 130:1 158:1 165:1 215:1 476:1 767:1 778:1 1300:1 1568:1 
0.7204575551791393 2:1 4:1 5:1 13:1 14:1 27:1 46:1 65:1 72:1 93:1 3345:1 
0.1504074070115963 2:1 4:1 13:1 14:1 159:1 164:1 446:1 563:1 3112:1 3346:1 
1 1:1 2:1 3:1 4:1 5:1 6:1 13:1 14:1 201:1 202:1 315:1 2910:1 
1 2:1 4:1 5:1 10:1 12:1 13:1 14:1 19:1 27:1 41:1 66:1 75:1 99:1 175:1 194:1 203:1 282:1 295:1 329:1 331:1 344:1 349:1 379:1 392:1 618:1 684:1 719:1 1003:1 1356:1 1566:1 1976:1 3348:1 3349:1 
1 2:1 4:1 13:1 14:1 63:1 108:1 109:1 1690:1 2806:1 
0.3383681471733084 2:1 4:1 13:1 14:1 46:1 63:1 84:1 95:1 99:1 189:1 258:1 422:1 743:1 1233:1 1351:1 1554:1 1974:1 2329:1 
0.1647712429137614 2:1 4:1 13:1 14:1 63:1 66:1 95:1 163:1 805:1 3352:1 3353:1 
0.2493870231305674 2:1 4:1 12:1 13:1 14:1 38:1 75:1 114:1 122:1 141:1 1606:1 1649:1 1812:1 
1 1:1 2:1 3:1 4:1 13:1 14:1 19:1 47:1 48:1 90:1 631:1 2332:1 3355:1 
0.2156205335072953 2:1 4:1 13:1 14:1 71:1 75:1 3359:1 3360:1 
1 2:1 4:1 13:1 14:1 30:1 82:1 1044:1 
1 2:1 4:1 13:1 14:1 30:1 51:1 56:1 60:1 63:1 78:1 84:1 127:1 158:1 271:1 341:1 
1 2:1 4:1 5:1 13:1 14:1 63:1 84:1 173:1 312:1 946:1 1637:1 3348:1 3371:1 
0.770686923542652 2:1 4:1 5:1 13:1 14:1 71:1 204:1 222:1 694:1 744:1 1812:1 3372:1 
0.1116098288122003 2:1 4:1 13:1 14:1 19:1 47:1 87:1 1144:1 1946:1 3373:1 
1 2:1 4:1 12:1 13:1 14:1 71:1 75:1 84:1 759:1 1162:1 1201:1 3375:1 
0.4122409133659038 1:1 2:1 3:1 4:1 12:1 13:1 14:1 19:1 311:1 3376:1 
0.2082230164663336 1:1 2:1 3:1 4:1 12:1 13:1 14:1 19:1 42:1 56:1 311:1 320:1 487:1 1891:1 3380:1 3381:1 3382:1 3383:1 
1 1:1 2:1 3:1 4:1 5:1 12:1 13:1 14:1 41:1 75:1 150:1 165:1 186:1 315:1 911:1 938:1 
0.09257906962590717 1:1 2:1 3:1 4:1 8:1 12:1 13:1 14:1 27:1 31:1 32:1 63:1 92:1 101:1 130:1 248:1 294:1 318:1 408:1 487:1 490:1 793:1 1166:1 1269:1 1678:1 3384:1 
1 2:1 4:1 12:1 13:1 14:1 
0.1435354762899238 2:1 4:1 13:1 14:1 92:1 3389:1 
0.3167491483147917 2:1 4:1 13:1 14:1 34:1 48:1 75:1 139:1 817:1 1563:1 3390:1 
1 2:1 4:1 13:1 14:1 42:1 156:1 159:1 160:1 1068:1 
1 2:1 4:1 5:1 13:1 14:1 29:1 56:1 71:1 131:1 172:1 262:1 422:1 805:1 813:1 894:1 2906:1 
1 1:1 2:1 3:1 4:1 5:1 12:1 13:1 14:1 63:1 73:1 74:1 147:1 150:1 240:1 347:1 
1 2:1 4:1 13:1 14:1 31:1 63:1 326:1 1864:1 3399:1 
0.7484755075523091 2:1 4:1 10:1 13:1 14:1 65:1 75:1 105:1 172:1 192:1 1189:1 
0.01819815210750239 1:1 2:1 3:1 4:1 10:1 13:1 14:1 19:1 75:1 90:1 135:1 215:1 351:1 3105:1 
0.3598695175973314 1:1 2:1 3:1 4:1 12:1 13:1 14:1 19:1 38:1 75:1 90:1 114:1 122:1 141:1 1606:1 1649:1 1812:1 
0.40219500723339 1:1 2:1 3:1 4:1 13:1 14:1 30:1 46:1 63:1 108:1 109:1 172:1 173:1 793:1 3405:1 
0.6676939706571352 2:1 4:1 12:1 13:1 14:1 25:1 30:1 38:1 72:1 84:1 123:1 337:1 783:1 3406:1 
1 2:1 4:1 13:1 14:1 27:1 34:1 42:1 130:1 150:1 412:1 480:1 562:1 600:1 601:1 3413:1 
1 2:1 4:1 12:1 13:1 14:1 30:1 42:1 47:1 48:1 305:1 768:1 1227:1 
0.5875946480173191 2:1 4:1 12:1 13:1 14:1 42:1 211:1 212:1 312:1 680:1 
1 2:1 4:1 13:1 14:1 25:1 30:1 47:1 48:1 91:1 2935:1 
0.5623931978238474 2:1 4:1 5:1 13:1 14:1 63:1 84:1 108:1 109:1 124:1 127:1 147:1 172:1 262:1 329:1 331:1 392:1 658:1 666:1 1909:1 3424:1 
0.657560646125947 2:1 4:1 13:1 14:1 71:1 108:1 109:1 172:1 3427:1 
1 2:1 4:1 13:1 14:1 38:1 353:1 376:1 742:1 
0.09894757363293401 2:1 4:1 10:1 13:1 14:1 68:1 75:1 84:1 262:1 1537:1 3431:1 3432:1 3433:1 
0.1842495338764777 1:1 2:1 3:1 4:1 5:1 13:1 14:1 42:1 63:1 78:1 99:1 886:1 1566:1 2286:1 2346:1 2596:1 3434:1 
1 1:1 2:1 3:1 4:1 12:1 13:1 14:1 30:1 63:1 262:1 576:1 1240:1 
1 2:1 4:1 13:1 14:1 72:1 82:1 172:1 
0.6794874826242927 2:1 4:1 13:1 14:1 66:1 72:1 84:1 158:1 210:1 685:1 761:1 1178:1 3440:1 3441:1 
1 1:1 2:1 3:1 4:1 12:1 13:1 14:1 19:1 277:1 295:1 1090:1 
1 2:1 4:1 13:1 14:1 27:1 34:1 56:1 63:1 92:1 109:1 225:1 232:1 347:1 590:1 600:1 2066:1 2346:1 3444:1 3445:1 
0.05322772229619125 2:1 4:1 13:1 14:1 56:1 107:1 926:1 1485:1 3446:1 3447:1 3448:1 3449:1 3450:1 3451:1 3452:1 
0.4326179939297769 2:1 4:1 13:1 14:1 46:1 120:1 144:1 159:1 166:1 267:1 774:1 904:1 1697:1 
0.7016275920397058 1:1 2:1 3:1 4:1 12:1 13:1 14:1 19:1 29:1 90:1 239:1 2024:1 3032:1 3033:1 
1 2:1 4:1 13:1 14:1 63:1 84:1 172:1 262:1 3009:1 
1 2:1 4:1 12:1 13:1 14:1 66:1 71:1 84:1 343:1 377:1 451:1 3467:1 3468:1 
1 2:1 4:1 12:1 13:1 14:1 84:1 159:1 287:1 450:1 1585:1 
0.2563049281966784 2:1 4:1 13:1 14:1 42:1 532:1 1102:1 3472:1 3473:1 3474:1 
1 2:1 4:1 5:1 12:1 13:1 14:1 34:1 42:1 51:1 71:1 75:1 111:1 123:1 172:1 194:1 216:1 249:1 262:1 267:1 302:1 326:1 379:1 422:1 489:1 490:1 1069:1 1872:1 3009:1 
1 2:1 4:1 12:1 13:1 14:1 29:1 46:1 51:1 63:1 78:1 150:1 216:1 339:1 367:1 489:1 875:1 1018:1 1784:1 
0.4004378166634439 1:1 2:1 3:1 4:1 5:1 13:1 14:1 27:1 47:1 63:1 71:1 108:1 109:1 150:1 232:1 262:1 306:1 434:1 748:1 793:1 1136:1 1690:1 2851:1 3485:1 3486:1 3487:1 3488:1 3489:1 
1 2:1 4:1 5:1 6:1 12:1 13:1 14:1 19:1 48:1 63:1 71:1 135:1 215:1 302:1 505:1 580:1 581:1 1267:1 3490:1 3491:1 3492:1 3493:1 
1 2:1 4:1 5:1 8:1 10:1 13:1 14:1 38:1 42:1 123:1 130:1 189:1 381:1 462:1 540:1 805:1 1272:1 
0.1581293158207581 1:1 2:1 3:1 4:1 8:1 12:1 13:1 14:1 19:1 62:1 63:1 78:1 101:1 132:1 194:1 295:1 487:1 1029:1 1030:1 1553:1 3500:1 
0.3381732946292133 2:1 4:1 12:1 13:1 14:1 29:1 65:1 92:1 130:1 214:1 232:1 408:1 3501:1 3502:1 
0.4181924548880041 2:1 4:1 12:1 13:1 14:1 63:1 75:1 99:1 127:1 194:1 1626:1 
0.1906144402979049 2:1 4:1 13:1 14:1 26:1 3503:1 
0.1578492277963306 2:1 4:1 13:1 14:1 251:1 385:1 3504:1 
1 2:1 4:1 5:1 6:1 8:1 13:1 14:1 52:1 78:1 185:1 239:1 316:1 422:1 1269:1 1418:1 1794:1 2156:1 
1 2:1 4:1 12:1 13:1 14:1 29:1 66:1 71:1 211:1 3511:1 3512:1 
1 2:1 4:1 5:1 13:1 14:1 52:1 60:1 62:1 78:1 84:1 201:1 202:1 444:1 573:1 2782:1 
0.711546117109814 2:1 4:1 13:1 14:1 30:1 3513:1 
0.2982477662566203 2:1 4:1 13:1 14:1 68:1 212:1 3514:1 3515:1 3516:1 
1 1:1 2:1 3:1 4:1 13:1 14:1 19:1 42:1 90:1 312:1 680:1 
0.2418387480616955 2:1 4:1 12:1 13:1 14:1 29:1 170:1 487:1 957:1 1063:1 1965:1 3455:1 3456:1 
0.8488915650506108 2:1 4:1 13:1 14:1 27:1 42:1 56:1 60:1 75:1 78:1 147:1 150:1 159:1 160:1 170:1 189:1 329:1 331:1 349:1 353:1 392:1 410:1 444:1 483:1 684:1 817:1 1070:1 1178:1 1712:1 2279:1 3517:1 3518:1 3519:1 
1 2:1 4:1 12:1 13:1 14:1 222:1 752:1 793:1 1597:1 1962:1 
1 2:1 4:1 13:1 14:1 19:1 47:1 51:1 56:1 99:1 110:1 142:1 160:1 167:1 235:1 293:1 414:1 460:1 522:1 580:1 581:1 671:1 813:1 
1 1:1 2:1 3:1 4:1 5:1 13:1 14:1 19:1 63:1 90:1 114:1 135:1 150:1 165:1 167:1 200:1 202:1 204:1 340:1 487:1 
0.6159853497269142 2:1 4:1 5:1 13:1 14:1 27:1 42:1 92:1 107:1 291:1 408:1 435:1 1608:1 2628:1 3408:1 
0.697331944270853 2:1 4:1 13:1 14:1 30:1 3139:1 3521:1 3522:1 
0.06443421632540128 1:1 2:1 3:1 4:1 9:1 13:1 14:1 84:1 240:1 1378:1 3525:1 
0.09280934226901875 1:1 2:1 3:1 4:1 8:1 10:1 13:1 14:1 72:1 75:1 111:1 150:1 156:1 205:1 355:1 680:1 857:1 3530:1 
1 2:1 4:1 13:1 14:1 29:1 123:1 137:1 434:1 1549:1 2479:1 
0.1721683681690787 1:1 2:1 3:1 4:1 8:1 12:1 13:1 14:1 19:1 90:1 95:1 141:1 267:1 293:1 311:1 320:1 389:1 569:1 1129:1 2200:1 2201:1 3531:1 
1 2:1 4:1 13:1 14:1 45:1 262:1 680:1 837:1 2311:1 
1 2:1 4:1 13:1 14:1 46:1 194:1 212:1 238:1 976:1 3532:1 
1 1:1 2:1 3:1 4:1 5:1 6:1 13:1 14:1 19:1 71:1 75:1 90:1 215:1 295:1 493:1 576:1 
0.007920488733662429 1:1 2:1 3:1 4:1 13:1 14:1 215:1 3538:1 3539:1 3540:1 3541:1 3542:1 3543:1 3544:1 3545:1 3546:1 3547:1 3548:1 3549:1 
0.7120148373225915 1:1 2:1 3:1 4:1 8:1 13:1 14:1 19:1 29:1 95:1 209:1 210:1 293:1 311:1 320:1 1860:1 3550:1 
1 2:1 4:1 5:1 12:1 13:1 14:1 16:1 30:1 50:1 63:1 84:1 108:1 109:1 172:1 173:1 262:1 350:1 793:1 854:1 873:1 946:1 3552:1 3553:1 
0.3684844039364047 2:1 4:1 12:1 13:1 14:1 30:1 1365:1 3557:1 3558:1 3559:1 3560:1 
0.08555891205062251 2:1 4:1 12:1 13:1 14:1 203:1 938:1 1632:1 3561:1 3562:1 3563:1 3564:1 3565:1 3566:1 3567:1 3568:1 3569:1 
0.2537099223096627 2:1 4:1 5:1 6:1 10:1 13:1 14:1 56:1 63:1 72:1 73:1 75:1 84:1 111:1 124:1 192:1 207:1 215:1 251:1 429:1 1588:1 2332:1 3570:1 3571:1 
1 2:1 4:1 13:1 14:1 47:1 84:1 122:1 211:1 222:1 329:1 331:1 488:1 726:1 
1 2:1 4:1 12:1 13:1 14:1 68:1 71:1 73:1 75:1 159:1 172:1 306:1 391:1 488:1 813:1 1020:1 1297:1 1637:1 1765:1 2090:1 2700:1 3576:1 3577:1 3578:1 3579:1 3580:1 
1 1:1 2:1 3:1 4:1 10:1 13:1 14:1 84:1 99:1 109:1 249:1 344:1 817:1 
1 2:1 4:1 12:1 13:1 14:1 262:1 1240:1 
0.8631364893954058 2:1 4:1 13:1 14:1 29:1 84:1 331:1 358:1 429:1 759:1 1029:1 3588:1 
0.2973544974285425 2:1 4:1 13:1 14:1 3590:1 
0.5139669421049021 2:1 4:1 13:1 14:1 30:1 38:1 75:1 84:1 122:1 205:1 362:1 1517:1 2558:1 3596:1 3597:1 3598:1 
1 2:1 4:1 5:1 6:1 13:1 14:1 71:1 141:1 215:1 505:1 3599:1 
0.8827442246155817 1:1 2:1 3:1 4:1 13:1 14:1 63:1 68:1 124:1 173:1 233:1 329:1 331:1 477:1 576:1 726:1 3604:1 3605:1 3606:1 
1 2:1 4:1 5:1 6:1 12:1 13:1 14:1 56:1 82:1 262:1 1284:1 1946:1 
0.4909094069824926 2:1 4:1 9:1 13:1 14:1 46:1 56:1 63:1 66:1 75:1 127:1 173:1 253:1 410:1 444:1 612:1 2434:1 2782:1 2958:1 3623:1 3624:1 
0.03508159615376574 1:1 2:1 3:1 4:1 5:1 10:1 12:1 13:1 14:1 38:1 120:1 139:1 2020:1 
0.7113522183649252 2:1 4:1 12:1 13:1 14:1 27:1 34:1 42:1 71:1 72:1 130:1 229:1 252:1 339:1 2560:1 2596:1 3625:1 
0.009490682212838062 2:1 4:1 13:1 14:1 29:1 42:1 68:1 71:1 75:1 123:1 135:1 258:1 522:1 2495:1 2562:1 3628:1 3629:1 
0.8158101128970771 2:1 4:1 13:1 14:1 43:1 46:1 71:1 163:1 358:1 462:1 487:1 759:1 805:1 
0.07396041696649371 1:1 2:1 3:1 4:1 7:1 10:1 13:1 14:1 29:1 54:1 72:1 75:1 77:1 78:1 3630:1 
0.2078176457612451 1:1 2:1 4:1 12:1 13:1 14:1 30:1 56:1 63:1 108:1 172:1 212:1 262:1 630:1 3633:1 
0.3309213645028828 2:1 4:1 13:1 14:1 27:1 30:1 34:1 48:1 56:1 63:1 82:1 95:1 109:1 159:1 422:1 560:1 845:1 3634:1 
0.486252778786574 2:1 4:1 13:1 14:1 39:1 158:1 194:1 302:1 3639:1 3640:1 
0.07361661444166399 2:1 4:1 5:1 6:1 12:1 13:1 14:1 55:1 63:1 66:1 72:1 75:1 94:1 158:1 199:1 215:1 302:1 505:1 865:1 869:1 2316:1 2317:1 3641:1 3642:1 
0.1334026107403599 2:1 4:1 13:1 14:1 63:1 71:1 72:1 127:1 135:1 159:1 194:1 210:1 329:1 331:1 392:1 434:1 892:1 956:1 1028:1 1368:1 1417:1 3643:1 3644:1 3645:1 3646:1 
0.03854095414814333 2:1 4:1 13:1 14:1 19:1 528:1 3648:1 
0.2113970181899197 2:1 4:1 13:1 14:1 42:1 189:1 3649:1 
1 1:1 2:1 3:1 4:1 13:1 14:1 19:1 30:1 48:1 90:1 101:1 205:1 
0.02234380319946544 13:1 77:1 360:1 609:1 1226:1 1762:1 3473:1 3660:1 
1 2:1 4:1 13:1 14:1 63:1 84:1 503:1 824:1 3661:1 
1 2:1 4:1 13:1 14:1 19:1 29:1 122:1 132:1 133:1 177:1 178:1 
0.3557452121120167 1:1 2:1 3:1 4:1 13:1 14:1 41:1 42:1 79:1 147:1 181:1 327:1 538:1 837:1 992:1 1180:1 3662:1 3663:1 
0.3454793182657441 2:1 4:1 13:1 14:1 223:1 489:1 1135:1 1446:1 
1 2:1 4:1 13:1 14:1 30:1 31:1 39:1 63:1 68:1 71:1 75:1 488:1 604:1 1018:1 1043:1 1874:1 3665:1 3666:1 
1 2:1 4:1 13:1 14:1 30:1 84:1 148:1 3668:1 
0.1551158980290606 2:1 4:1 13:1 14:1 55:1 56:1 1197:1 1520:1 3671:1 3672:1 3673:1 3674:1 
1 2:1 4:1 13:1 14:1 31:1 63:1 71:1 72:1 84:1 112:1 262:1 451:1 505:1 1127:1 1355:1 3132:1 
1 2:1 4:1 12:1 13:1 14:1 19:1 32:1 41:1 92:1 107:1 139:1 158:1 177:1 178:1 196:1 199:1 300:1 312:1 412:1 422:1 687:1 3680:1 3681:1 
0.7945715673597281 1:1 2:1 3:1 4:1 13:1 14:1 3685:1 
0.003876235358880143 2:1 4:1 5:1 6:1 12:1 13:1 14:1 55:1 63:1 66:1 72:1 75:1 94:1 158:1 199:1 215:1 302:1 505:1 865:1 869:1 2316:1 2317:1 3243:1 3642:1 
1 2:1 4:1 5:1 6:1 12:1 13:1 14:1 30:1 576:1 
1 1:1 2:1 3:1 4:1 13:1 14:1 19:1 42:1 90:1 156:1 159:1 160:1 1068:1 
0.8204863082456565 1:1 2:1 3:1 4:1 5:1 13:1 14:1 19:1 30:1 63:1 75:1 90:1 108:1 109:1 170:1 172:1 222:1 309:1 518:1 3275:1 
1 2:1 4:1 13:1 14:1 34:1 63:1 131:1 141:1 201:1 202:1 328:1 561:1 
0.08009969835430732 2:1 4:1 5:1 6:1 13:1 14:1 38:1 46:1 48:1 66:1 75:1 124:1 150:1 194:1 312:1 622:1 746:1 938:1 983:1 3695:1 3696:1 3697:1 3698:1 
0.6554137316079196 2:1 4:1 13:1 14:1 32:1 42:1 68:1 84:1 1670:1 3575:1 3703:1 
0.9545934000888973 2:1 4:1 13:1 14:1 28:1 48:1 56:1 72:1 75:1 94:1 170:1 172:1 282:1 462:1 550:1 600:1 1025:1 2224:1 
1 2:1 4:1 5:1 13:1 14:1 38:1 63:1 75:1 99:1 159:1 389:1 518:1 604:1 2668:1 
1 1:1 2:1 3:1 4:1 10:1 12:1 13:1 14:1 68:1 71:1 158:1 240:1 414:1 1538:1 
1 2:1 4:1 12:1 13:1 14:1 19:1 63:1 97:1 108:1 109:1 153:1 172:1 177:1 178:1 283:1 302:1 329:1 331:1 392:1 
0.8564090822630257 2:1 4:1 5:1 6:1 9:1 13:1 14:1 27:1 63:1 71:1 72:1 73:1 84:1 107:1 176:1 194:1 238:1 239:1 240:1 251:1 877:1 2849:1 3705:1 
0.3818463044555971 2:1 4:1 13:1 14:1 38:1 209:1 337:1 420:1 1517:1 
1 2:1 4:1 13:1 14:1 71:1 334:1 625:1 3708:1 
0.08339338946261921 1:1 2:1 3:1 4:1 5:1 13:1 14:1 46:1 55:1 63:1 135:1 204:1 421:1 542:1 756:1 1996:1 3712:1 
0.05296157673086899 2:1 4:1 13:1 14:1 72:1 84:1 150:1 193:1 338:1 680:1 1348:1 2617:1 3713:1 3714:1 
0.3987985970808478 2:1 4:1 9:1 13:1 14:1 34:1 63:1 141:1 518:1 625:1 1635:1 3715:1 
0.0189687925865971 1:1 2:1 3:1 4:1 13:1 14:1 19:1 90:1 215:1 883:1 1762:1 3716:1 3717:1 
0.6710477565247763 1:1 2:1 3:1 4:1 12:1 13:1 14:1 215:1 3718:1 
1 2:1 4:1 12:1 13:1 14:1 38:1 122:1 123:1 509:1 
0.6624179772231426 2:1 4:1 10:1 13:1 14:1 46:1 84:1 107:1 130:1 158:1 160:1 199:1 238:1 267:1 919:1 1208:1 3726:1 
1 2:1 4:1 13:1 14:1 30:1 71:1 72:1 235:1 3485:1 
1 1:1 2:1 3:1 4:1 12:1 13:1 14:1 19:1 38:1 42:1 84:1 90:1 114:1 122:1 159:1 160:1 680:1 1068:1 1597:1 
1 2:1 4:1 12:1 13:1 14:1 19:1 29:1 30:1 48:1 75:1 123:1 177:1 178:1 
0.9968247952816308 2:1 4:1 5:1 13:1 14:1 42:1 63:1 95:1 150:1 312:1 2346:1 2371:1 3727:1 
1 2:1 4:1 5:1 9:1 12:1 13:1 14:1 27:1 42:1 63:1 99:1 163:1 240:1 278:1 315:1 483:1 864:1 1194:1 
0.6476152515956181 1:1 2:1 3:1 4:1 13:1 14:1 48:1 205:1 729:1 781:1 893:1 1566:1 2147:1 2423:1 3298:1 3650:1 
1 2:1 4:1 13:1 14:1 19:1 66:1 135:1 177:1 178:1 1186:1 3471:1 3730:1 
0.4831060394621273 2:1 4:1 13:1 14:1 72:1 919:1 3732:1 3733:1 
0.07903864926935479 2:1 4:1 12:1 13:1 14:1 20:1 30:1 42:1 58:1 63:1 71:1 107:1 189:1 216:1 316:1 329:1 331:1 367:1 392:1 565:1 620:1 671:1 1193:1 3737:1 
1 2:1 4:1 13:1 14:1 48:1 84:1 156:1 1135:1 3738:1 
1 2:1 4:1 13:1 14:1 25:1 75:1 84:1 2357:1 
0.3198312576794393 1:1 2:1 3:1 4:1 13:1 14:1 19:1 66:1 90:1 123:1 238:1 302:1 957:1 2235:1 
0.1485756097612262 2:1 4:1 13:1 14:1 42:1 48:1 62:1 127:1 166:1 167:1 201:1 202:1 326:1 362:1 1267:1 3739:1 
0.7020144435903029 2:1 4:1 13:1 14:1 63:1 82:1 84:1 163:1 358:1 2278:1 
1 2:1 4:1 5:1 13:1 14:1 62:1 95:1 109:1 165:1 216:1 351:1 774:1 3272:1 
0.1506961851952537 2:1 4:1 13:1 14:1 911:1 3741:1 
0.3499851052848965 2:1 4:1 13:1 14:1 46:1 63:1 75:1 84:1 150:1 377:1 461:1 477:1 646:1 817:1 1690:1 3742:1 3743:1 
0.5926994035957468 2:1 4:1 13:1 14:1 20:1 57:1 71:1 158:1 159:1 568:1 1120:1 3744:1 3745:1 
0.2974464503759882 2:1 4:1 13:1 14:1 3746:1 
1 2:1 4:1 12:1 13:1 14:1 30:1 107:1 128:1 194:1 
1 2:1 4:1 13:1 14:1 209:1 210:1 3668:1 
1 1:1 2:1 3:1 4:1 12:1 13:1 14:1 19:1 27:1 63:1 107:1 177:1 178:1 208:1 215:1 216:1 326:1 329:1 330:1 331:1 580:1 581:1 715:1 719:1 951:1 1690:1 2404:1 
0.9331050988668662 1:1 2:1 3:1 4:1 13:1 14:1 34:1 39:1 42:1 48:1 54:1 56:1 63:1 75:1 95:1 108:1 109:1 130:1 147:1 163:1 173:1 200:1 302:1 573:1 729:1 1232:1 1712:1 1918:1 2040:1 2782:1 3750:1 3751:1 
0.2259568238614922 2:1 4:1 12:1 13:1 14:1 42:1 46:1 55:1 63:1 68:1 75:1 84:1 107:1 135:1 159:1 493:1 628:1 911:1 936:1 2180:1 2555:1 3087:1 3430:1 
1 2:1 4:1 13:1 14:1 29:1 84:1 122:1 132:1 133:1 312:1 3752:1 
0.1343428473636393 1:1 2:1 3:1 4:1 12:1 13:1 14:1 27:1 41:1 56:1 75:1 222:1 422:1 429:1 507:1 515:1 522:1 863:1 1090:1 2382:1 
0.274460156382405 1:1 2:1 3:1 4:1 5:1 6:1 12:1 13:1 14:1 19:1 55:1 63:1 66:1 72:1 75:1 90:1 94:1 158:1 199:1 215:1 302:1 505:1 865:1 869:1 2316:1 2317:1 3243:1 3642:1 
0.1841107813036016 2:1 4:1 13:1 14:1 63:1 503:1 3758:1 3759:1 
1 2:1 4:1 13:1 14:1 63:1 95:1 163:1 215:1 351:1 497:1 2906:1 
0.5092410251634772 2:1 4:1 5:1 13:1 14:1 34:1 60:1 63:1 84:1 150:1 300:1 301:1 347:1 3760:1 
1 2:1 4:1 5:1 12:1 13:1 14:1 29:1 55:1 56:1 63:1 84:1 92:1 107:1 165:1 175:1 211:1 215:1 222:1 240:1 267:1 282:1 302:1 315:1 347:1 429:1 1284:1 1762:1 2891:1 3762:1 3763:1 
0.4979894728062766 2:1 4:1 13:1 14:1 71:1 262:1 329:1 331:1 392:1 505:1 569:1 576:1 3764:1 
0.7258800752595987 2:1 4:1 13:1 14:1 20:1 84:1 160:1 434:1 845:1 998:1 1094:1 1353:1 
1 2:1 4:1 13:1 14:1 30:1 127:1 216:1 365:1 
0.5573390674548625 2:1 4:1 13:1 14:1 63:1 84:1 135:1 159:1 477:1 3774:1 
1 1:1 2:1 3:1 4:1 12:1 13:1 14:1 19:1 90:1 262:1 1240:1 
0.402307047179782 2:1 4:1 5:1 13:1 14:1 16:1 27:1 63:1 84:1 108:1 109:1 131:1 150:1 189:1 216:1 262:1 347:1 572:1 1991:1 3663:1 
0.4012445859193929 1:1 2:1 3:1 4:1 10:1 12:1 13:1 14:1 19:1 63:1 90:1 112:1 189:1 262:1 410:1 3093:1 3094:1 3095:1 3096:1 
0.1665133866146052 2:1 4:1 9:1 13:1 14:1 75:1 189:1 414:1 854:1 1020:1 
0.8543327254001875 2:1 4:1 13:1 14:1 47:1 63:1 65:1 71:1 76:1 84:1 170:1 172:1 251:1 306:1 379:1 414:1 680:1 2376:1 
1 1:1 2:1 3:1 4:1 12:1 13:1 14:1 38:1 75:1 122:1 210:1 267:1 1517:1 
1 2:1 4:1 5:1 6:1 13:1 14:1 19:1 71:1 75:1 215:1 295:1 493:1 576:1 
0.09386714198449179 1:1 2:1 3:1 4:1 12:1 13:1 14:1 27:1 63:1 71:1 84:1 99:1 109:1 225:1 312:1 344:1 1773:1 2121:1 2910:1 3785:1 
1 2:1 4:1 12:1 13:1 14:1 29:1 175:1 211:1 
0.2108045301705191 2:1 4:1 13:1 14:1 55:1 75:1 2199:1 3783:1 3797:1 
1 1:1 2:1 3:1 4:1 13:1 14:1 1090:1 2075:1 
0.2973283469383323 2:1 4:1 13:1 14:1 3804:1 
0.7054062663011078 1:1 2:1 3:1 4:1 10:1 13:1 14:1 20:1 30:1 42:1 76:1 95:1 109:1 135:1 159:1 194:1 306:1 316:1 329:1 331:1 392:1 1346:1 2061:1 2411:1 2661:1 3807:1 
0.3460026639797991 1:1 2:1 3:1 4:1 12:1 13:1 14:1 253:1 742:1 3808:1 
0.05018103296457677 1:1 2:1 3:1 4:1 13:1 14:1 19:1 34:1 42:1 48:1 63:1 72:1 78:1 90:1 95:1 101:1 107:1 109:1 130:1 183:1 214:1 240:1 262:1 384:1 412:1 476:1 600:1 680:1 865:1 869:1 3626:1 
1 1:1 2:1 3:1 4:1 13:1 14:1 19:1 30:1 46:1 63:1 90:1 108:1 109:1 172:1 173:1 793:1 3405:1 
0.8032581066248189 2:1 4:1 12:1 13:1 14:1 19:1 47:1 68:1 71:1 107:1 122:1 177:1 178:1 209:1 210:1 1517:1 3809:1 
1 2:1 4:1 13:1 14:1 19:1 163:1 177:1 178:1 362:1 
0.3692713190251592 1:1 2:1 3:1 4:1 5:1 12:1 13:1 14:1 46:1 65:1 71:1 101:1 216:1 247:1 289:1 785:1 2042:1 2509:1 3463:1 
1 2:1 4:1 12:1 13:1 14:1 63:1 124:1 262:1 429:1 576:1 
0.3072829155416001 1:1 2:1 3:1 4:1 12:1 13:1 14:1 19:1 63:1 90:1 372:1 429:1 3490:1 3815:1 
0.2331374229711339 2:1 4:1 13:1 14:1 767:1 3819:1 
1 2:1 4:1 13:1 14:1 30:1 48:1 101:1 205:1 
1 2:1 4:1 5:1 13:1 14:1 27:1 47:1 63:1 71:1 84:1 91:1 205:1 229:1 301:1 339:1 505:1 673:1 847:1 1044:1 1750:1 2068:1 
0.2974674134887121 2:1 4:1 13:1 14:1 3822:1 
1 1:1 2:1 3:1 4:1 13:1 14:1 19:1 177:1 178:1 
0.382364646947134 2:1 4:1 5:1 13:1 14:1 60:1 62:1 63:1 94:1 277:1 326:1 329:1 331:1 392:1 422:1 604:1 781:1 1330:1 1608:1 2026:1 3836:1 3837:1 3838:1 3839:1 
0.3881087268020068 2:1 4:1 12:1 13:1 14:1 163:1 258:1 2780:1 
0.2541946490180811 2:1 4:1 13:1 14:1 115:1 262:1 3841:1 
0.8443162658079817 2:1 4:1 13:1 14:1 63:1 503:1 767:1 3843:1 
0.5759357580253129 2:1 4:1 5:1 10:1 13:1 14:1 27:1 84:1 101:1 176:1 197:1 283:1 365:1 521:1 522:1 694:1 913:1 3184:1 
1 2:1 4:1 12:1 13:1 14:1 42:1 47:1 48:1 101:1 253:1 
0.3677089721690979 2:1 4:1 6:1 13:1 14:1 30:1 3847:1 3848:1 
0.4732621124520167 2:1 4:1 5:1 12:1 13:1 14:1 84:1 115:1 239:1 347:1 451:1 3851:1 
1 2:1 4:1 10:1 13:1 14:1 38:1 48:1 75:1 107:1 186:1 240:1 273:1 1068:1 1418:1 3856:1 
0.9707156450906801 2:1 4:1 5:1 13:1 14:1 31:1 32:1 34:1 222:1 293:1 767:1 3857:1 3858:1 
1 2:1 4:1 12:1 13:1 14:1 38:1 42:1 84:1 114:1 122:1 159:1 160:1 680:1 1068:1 1597:1 
0.4073778078267782 2:1 4:1 12:1 13:1 14:1 306:1 431:1 3859:1 
1 2:1 4:1 5:1 6:1 13:1 14:1 19:1 42:1 46:1 66:1 107:1 141:1 148:1 158:1 177:1 178:1 189:1 196:1 244:1 279:1 337:1 625:1 1297:1 1917:1 2723:1 2769:1 3384:1 3861:1 3862:1 
0.3576891076351388 1:1 2:1 3:1 4:1 5:1 13:1 14:1 19:1 34:1 38:1 46:1 72:1 73:1 75:1 90:1 130:1 147:1 283:1 315:1 869:1 1346:1 2309:1 3055:1 3056:1 
0.648609675507437 2:1 4:1 8:1 12:1 13:1 14:1 42:1 56:1 65:1 71:1 99:1 137:1 248:1 316:1 324:1 944:1 2974:1 3864:1 
0.5236534608626076 2:1 4:1 13:1 14:1 16:1 20:1 306:1 3869:1 
0.06677745180992177 1:1 2:1 3:1 4:1 8:1 12:1 13:1 14:1 19:1 27:1 30:1 48:1 60:1 75:1 158:1 229:1 236:1 311:1 320:1 956:1 1860:1 3062:1 3871:1 3872:1 
1 1:1 2:1 3:1 4:1 5:1 12:1 13:1 14:1 46:1 165:1 
1 2:1 4:1 12:1 13:1 14:1 122:1 518:1 636:1 
0.6700372699366027 2:1 4:1 5:1 12:1 13:1 14:1 32:1 50:1 107:1 208:1 210:1 229:1 1273:1 2019:1 2628:1 
1 1:1 2:1 3:1 4:1 13:1 14:1 19:1 72:1 75:1 82:1 90:1 172:1 420:1 
0.35816219877472 2:1 4:1 12:1 13:1 14:1 63:1 71:1 75:1 84:1 121:1 159:1 189:1 251:1 258:1 329:1 331:1 392:1 680:1 1003:1 1025:1 3766:1 
0.4536864441875896 2:1 4:1 10:1 13:1 14:1 72:1 84:1 150:1 287:1 307:1 3507:1 
1 2:1 4:1 13:1 14:1 29:1 101:1 329:1 331:1 392:1 1945:1 3218:1 3456:1 
1 2:1 4:1 13:1 14:1 27:1 48:1 3095:1 3876:1 
1 2:1 4:1 5:1 12:1 13:1 14:1 27:1 56:1 57:1 66:1 84:1 158:1 175:1 229:1 324:1 477:1 622:1 759:1 
1 1:1 2:1 3:1 4:1 12:1 13:1 14:1 19:1 47:1 48:1 90:1 107:1 165:1 172:1 202:1 340:1 712:1 
1 2:1 4:1 8:1 13:1 14:1 63:1 108:1 109:1 172:1 173:1 793:1 
0.8348778968483186 2:1 4:1 12:1 13:1 14:1 31:1 55:1 63:1 84:1 147:1 186:1 222:1 413:1 622:1 1603:1 2692:1 3880:1 
1 2:1 4:1 13:1 14:1 82:1 
1 2:1 4:1 13:1 14:1 1864:1 3668:1 3884:1 
0.2590376589286411 2:1 4:1 13:1 14:1 29:1 38:1 39:1 167:1 337:1 507:1 1262:1 3887:1 3888:1 
0.06612250083297995 2:1 4:1 13:1 14:1 63:1 78:1 84:1 262:1 616:1 3889:1 
1 2:1 4:1 13:1 14:1 38:1 122:1 123:1 124:1 376:1 
0.7209007935931359 2:1 4:1 13:1 14:1 41:1 42:1 56:1 240:1 305:1 678:1 1103:1 1297:1 1677:1 1971:1 2662:1 3892:1 
0.08315825932572607 2:1 4:1 13:1 14:1 68:1 437:1 3895:1 3896:1 3897:1 3898:1 
1 2:1 4:1 13:1 14:1 48:1 54:1 84:1 150:1 158:1 175:1 382:1 1954:1 
1 2:1 4:1 12:1 13:1 14:1 48:1 84:1 108:1 109:1 110:1 156:1 204:1 460:1 1144:1 
0.1410066348058478 2:1 4:1 13:1 14:1 194:1 680:1 2004:1 3056:1 3521:1 3905:1 
1 2:1 4:1 13:1 14:1 31:1 63:1 84:1 175:1 222:1 339:1 1018:1 2124:1 3112:1 
1 2:1 4:1 13:1 14:1 29:1 68:1 122:1 123:1 124:1 
1 1:1 2:1 3:1 4:1 13:1 14:1 19:1 177:1 1003:1 2049:1 
0.6586035435892869 1:1 2:1 3:1 4:1 12:1 13:1 14:1 3910:1 
0.3195070331016888 2:1 4:1 10:1 13:1 14:1 29:1 71:1 75:1 107:1 132:1 162:1 238:1 262:1 316:1 3458:1 3912:1 
1 2:1 4:1 13:1 14:1 29:1 34:1 46:1 63:1 65:1 108:1 109:1 131:1 312:1 334:1 
1 2:1 4:1 12:1 13:1 14:1 71:1 215:1 569:1 880:1 3913:1 
0.8520219721250172 2:1 4:1 5:1 10:1 13:1 14:1 27:1 41:1 42:1 46:1 56:1 77:1 81:1 192:1 194:1 238:1 240:1 329:1 331:1 381:1 392:1 414:1 622:1 680:1 1078:1 1115:1 1297:1 1716:1 2561:1 3919:1 
1 2:1 4:1 13:1 14:1 29:1 31:1 63:1 326:1 1018:1 
0.1691602760973405 2:1 4:1 12:1 13:1 14:1 72:1 131:1 194:1 437:1 620:1 1180:1 1895:1 3923:1 
0.116477963855005 1:1 2:1 3:1 4:1 5:1 13:1 14:1 19:1 42:1 90:1 312:1 1129:1 3709:1 3710:1 
0.4855804186920097 2:1 4:1 13:1 14:1 71:1 75:1 950:1 1538:1 3631:1 3924:1 
0.1987591014637816 1:1 2:1 3:1 4:1 12:1 13:1 14:1 27:1 46:1 71:1 159:1 444:1 507:1 729:1 858:1 1764:1 3919:1 3925:1 3926:1 
1 2:1 4:1 12:1 13:1 14:1 63:1 84:1 108:1 109:1 114:1 127:1 172:1 413:1 3639:1 3665:1 
1 2:1 4:1 5:1 8:1 12:1 63:1 120:1 131:1 141:1 173:1 267:1 329:1 330:1 331:1 385:1 719:1 911:1 3927:1 
0.2492126868510059 2:1 4:1 12:1 13:1 14:1 19:1 29:1 121:1 295:1 824:1 3928:1 3929:1 3930:1 
1 1:1 2:1 3:1 4:1 5:1 12:1 13:1 14:1 19:1 27:1 48:1 50:1 63:1 75:1 101:1 173:1 215:1 327:1 347:1 351:1 580:1 581:1 2279:1 2950:1 
0.06228395284820814 2:1 4:1 13:1 14:1 75:1 159:1 210:1 752:1 3220:1 
