svm_type c_svc
kernel_type linear
nr_class 2
total_sv 14879
rho -1.72598
label 0 1
probA -1.25496
probB -0.313852
nr_sv 8776 6103
SV
0.09561215816557833 1:1 2:1 3:1 4:1 5:1 6:1 7:1 8:1 9:1 10:1 11:1 12:1 13:1 14:1 
1 2:1 4:1 5:1 13:1 14:1 27:1 40:1 41:1 42:1 43:1 44:1 45:1 46:1 47:1 48:1 49:1 
0.1611536807412055 2:1 4:1 10:1 13:1 14:1 30:1 50:1 51:1 52:1 53:1 54:1 55:1 56:1 57:1 58:1 59:1 60:1 61:1 62:1 63:1 64:1 65:1 66:1 
0.2682697002437993 2:1 4:1 10:1 13:1 14:1 30:1 31:1 75:1 83:1 84:1 85:1 86:1 87:1 88:1 89:1 
0.8075076305719734 1:1 2:1 3:1 4:1 9:1 13:1 14:1 19:1 25:1 30:1 63:1 73:1 90:1 91:1 92:1 93:1 94:1 95:1 96:1 97:1 98:1 99:1 100:1 101:1 
1 1:1 2:1 3:1 4:1 13:1 14:1 19:1 47:1 90:1 107:1 144:1 145:1 146:1 147:1 148:1 149:1 
1 2:1 4:1 9:1 13:1 14:1 27:1 32:1 38:1 73:1 75:1 122:1 123:1 167:1 170:1 171:1 
0.1228677430230856 1:1 2:1 3:1 4:1 5:1 6:1 10:1 13:1 14:1 19:1 71:1 72:1 75:1 90:1 159:1 189:1 190:1 191:1 192:1 193:1 194:1 
1 1:1 2:1 3:1 4:1 13:1 14:1 48:1 109:1 195:1 196:1 197:1 198:1 
0.06958806026326357 1:1 2:1 3:1 4:1 8:1 13:1 14:1 48:1 63:1 92:1 93:1 95:1 101:1 206:1 207:1 208:1 
0.5313155412295653 2:1 4:1 5:1 8:1 12:1 13:1 14:1 63:1 71:1 72:1 84:1 224:1 225:1 226:1 227:1 228:1 229:1 230:1 231:1 232:1 233:1 234:1 235:1 236:1 
1 2:1 4:1 13:1 14:1 46:1 47:1 48:1 52:1 63:1 72:1 222:1 238:1 239:1 
1 1:1 2:1 3:1 4:1 12:1 13:1 14:1 101:1 194:1 242:1 243:1 244:1 245:1 246:1 
1 2:1 4:1 12:1 13:1 14:1 75:1 252:1 253:1 
0.270586427209671 1:1 2:1 3:1 4:1 13:1 14:1 19:1 47:1 48:1 56:1 63:1 75:1 90:1 99:1 222:1 259:1 260:1 261:1 262:1 263:1 264:1 265:1 266:1 267:1 
0.508957720426752 1:1 2:1 3:1 4:1 5:1 8:1 10:1 12:1 13:1 14:1 19:1 47:1 95:1 111:1 114:1 249:1 291:1 292:1 293:1 294:1 295:1 296:1 297:1 298:1 299:1 
1 2:1 4:1 13:1 14:1 29:1 34:1 304:1 305:1 
1 2:1 4:1 13:1 14:1 27:1 46:1 48:1 63:1 78:1 139:1 165:1 324:1 325:1 326:1 327:1 328:1 329:1 330:1 331:1 
0.2428349087032883 2:1 4:1 5:1 13:1 14:1 150:1 347:1 348:1 
1 2:1 4:1 5:1 6:1 8:1 13:1 14:1 62:1 63:1 108:1 109:1 135:1 139:1 159:1 167:1 182:1 315:1 316:1 349:1 350:1 351:1 352:1 
0.03007946518028845 2:1 4:1 5:1 10:1 13:1 14:1 38:1 47:1 48:1 82:1 84:1 120:1 150:1 240:1 353:1 354:1 
0.09865980517504444 1:1 2:1 3:1 4:1 9:1 13:1 14:1 19:1 51:1 60:1 75:1 90:1 99:1 248:1 326:1 363:1 364:1 365:1 366:1 367:1 368:1 369:1 370:1 371:1 
0.1975599668355102 1:1 2:1 3:1 4:1 13:1 14:1 387:1 
0.536832113986788 1:1 2:1 3:1 4:1 9:1 12:1 13:1 14:1 31:1 48:1 92:1 101:1 196:1 214:1 282:1 329:1 331:1 337:1 385:1 388:1 389:1 390:1 391:1 392:1 393:1 394:1 395:1 396:1 397:1 398:1 
0.6646415651624037 1:1 2:1 3:1 4:1 9:1 13:1 14:1 19:1 42:1 48:1 145:1 149:1 159:1 399:1 400:1 401:1 402:1 403:1 404:1 405:1 
1 2:1 4:1 5:1 13:1 14:1 19:1 63:1 189:1 196:1 229:1 295:1 299:1 409:1 410:1 411:1 
0.3869096164044367 2:1 4:1 8:1 13:1 14:1 19:1 51:1 55:1 63:1 64:1 65:1 72:1 75:1 94:1 115:1 130:1 165:1 177:1 178:1 331:1 417:1 418:1 419:1 420:1 421:1 422:1 423:1 424:1 
0.06253542504343479 2:1 4:1 13:1 14:1 55:1 84:1 429:1 444:1 445:1 446:1 447:1 
0.6302357080040784 1:1 2:1 3:1 4:1 13:1 14:1 19:1 34:1 38:1 75:1 84:1 92:1 130:1 209:1 225:1 277:1 349:1 377:1 452:1 453:1 454:1 455:1 456:1 457:1 458:1 
1 2:1 4:1 5:1 10:1 13:1 14:1 42:1 48:1 63:1 75:1 204:1 302:1 347:1 459:1 460:1 461:1 462:1 
1 1:1 2:1 3:1 4:1 10:1 13:1 14:1 19:1 34:1 46:1 50:1 63:1 75:1 90:1 94:1 145:1 149:1 307:1 473:1 474:1 475:1 
0.5716152062355094 1:1 2:1 3:1 4:1 9:1 13:1 14:1 16:1 17:1 19:1 84:1 90:1 123:1 482:1 483:1 484:1 485:1 486:1 
0.3837381968196562 2:1 4:1 5:1 8:1 13:1 14:1 41:1 56:1 63:1 215:1 267:1 492:1 493:1 494:1 495:1 
1 2:1 4:1 13:1 14:1 19:1 295:1 299:1 502:1 503:1 
0.1759912427841381 2:1 4:1 13:1 14:1 48:1 101:1 200:1 530:1 531:1 
0.01713682549141485 2:1 4:1 13:1 14:1 16:1 124:1 150:1 204:1 349:1 538:1 539:1 540:1 541:1 542:1 543:1 
0.08471875388976292 1:1 2:1 3:1 4:1 5:1 13:1 14:1 19:1 47:1 48:1 56:1 68:1 72:1 79:1 82:1 90:1 109:1 205:1 212:1 229:1 267:1 281:1 312:1 339:1 548:1 549:1 550:1 551:1 
0.07613977478636758 2:1 4:1 5:1 8:1 10:1 12:1 13:1 14:1 46:1 60:1 61:1 63:1 84:1 127:1 150:1 159:1 196:1 197:1 203:1 216:1 382:1 410:1 413:1 421:1 553:1 554:1 555:1 556:1 557:1 558:1 559:1 560:1 561:1 
0.2828655031369743 1:1 2:1 3:1 4:1 13:1 14:1 19:1 27:1 63:1 82:1 90:1 108:1 109:1 163:1 189:1 239:1 353:1 572:1 573:1 574:1 
1 2:1 4:1 13:1 14:1 
0.2816101226552193 2:1 4:1 5:1 10:1 13:1 14:1 34:1 41:1 42:1 48:1 63:1 126:1 135:1 150:1 159:1 208:1 239:1 248:1 367:1 381:1 533:1 582:1 583:1 584:1 585:1 586:1 
1 2:1 4:1 5:1 13:1 14:1 19:1 63:1 72:1 82:1 99:1 145:1 149:1 215:1 351:1 600:1 
0.8409626578938274 2:1 4:1 13:1 14:1 42:1 109:1 159:1 197:1 306:1 446:1 566:1 606:1 
0.1357435162577333 2:1 4:1 13:1 14:1 20:1 38:1 47:1 48:1 107:1 351:1 607:1 608:1 609:1 610:1 611:1 612:1 613:1 
0.004713414028179567 2:1 4:1 13:1 14:1 29:1 380:1 614:1 
0.3431364522913104 2:1 4:1 13:1 14:1 32:1 38:1 47:1 68:1 73:1 75:1 82:1 326:1 639:1 640:1 
1 2:1 4:1 13:1 14:1 82:1 641:1 642:1 
0.4509903209776689 1:1 2:1 3:1 4:1 6:1 13:1 14:1 34:1 75:1 130:1 229:1 232:1 622:1 654:1 655:1 
1 2:1 4:1 13:1 14:1 31:1 63:1 75:1 150:1 159:1 173:1 349:1 375:1 417:1 671:1 672:1 673:1 674:1 675:1 676:1 
1 1:1 2:1 3:1 4:1 13:1 14:1 19:1 46:1 47:1 48:1 52:1 63:1 72:1 90:1 222:1 238:1 239:1 
0.9730587592972366 1:1 2:1 3:1 4:1 13:1 14:1 56:1 63:1 68:1 123:1 137:1 163:1 554:1 562:1 678:1 679:1 
1 2:1 4:1 10:1 13:1 14:1 19:1 47:1 72:1 109:1 239:1 283:1 522:1 554:1 691:1 692:1 693:1 694:1 
0.1109528632251052 2:1 4:1 10:1 13:1 14:1 46:1 56:1 73:1 75:1 84:1 228:1 229:1 232:1 239:1 497:1 699:1 700:1 701:1 702:1 703:1 704:1 705:1 706:1 707:1 
0.01239005968676274 1:1 2:1 3:1 4:1 13:1 14:1 300:1 349:1 527:1 
0.4346600363166666 2:1 4:1 5:1 13:1 14:1 32:1 60:1 71:1 92:1 229:1 262:1 359:1 636:1 717:1 
0.6814706399212543 1:1 2:1 3:1 4:1 13:1 14:1 19:1 90:1 123:1 329:1 330:1 331:1 434:1 718:1 719:1 
0.6965509962586435 1:1 2:1 3:1 4:1 13:1 14:1 31:1 48:1 109:1 233:1 622:1 720:1 
0.3720460678899272 1:1 2:1 3:1 4:1 8:1 13:1 14:1 42:1 47:1 48:1 63:1 71:1 79:1 101:1 107:1 127:1 248:1 493:1 737:1 738:1 739:1 740:1 741:1 742:1 
0.5678310123055241 2:1 4:1 5:1 13:1 14:1 48:1 63:1 75:1 82:1 107:1 353:1 376:1 743:1 744:1 745:1 746:1 
1 2:1 4:1 13:1 14:1 19:1 63:1 75:1 127:1 194:1 295:1 299:1 312:1 747:1 
1 2:1 4:1 5:1 13:1 14:1 108:1 109:1 507:1 749:1 750:1 
1 2:1 4:1 10:1 13:1 14:1 75:1 101:1 164:1 344:1 362:1 393:1 751:1 
1 1:1 2:1 3:1 4:1 13:1 14:1 19:1 90:1 
1 1:1 2:1 3:1 4:1 9:1 13:1 14:1 75:1 92:1 101:1 350:1 
0.4201706836041685 2:1 4:1 13:1 14:1 39:1 46:1 66:1 68:1 84:1 141:1 604:1 756:1 757:1 
1 1:1 2:1 3:1 4:1 5:1 13:1 14:1 19:1 63:1 75:1 90:1 95:1 109:1 163:1 164:1 197:1 316:1 780:1 781:1 782:1 783:1 
1 1:1 2:1 3:1 4:1 9:1 13:1 14:1 51:1 60:1 75:1 99:1 248:1 326:1 363:1 364:1 365:1 366:1 367:1 368:1 369:1 370:1 371:1 
1 2:1 4:1 13:1 14:1 56:1 60:1 68:1 71:1 75:1 84:1 94:1 150:1 226:1 367:1 789:1 790:1 791:1 792:1 793:1 
0.8833686442935573 2:1 4:1 5:1 13:1 14:1 27:1 63:1 95:1 109:1 120:1 131:1 135:1 141:1 142:1 239:1 282:1 315:1 794:1 
0.3804233591450273 2:1 4:1 9:1 13:1 14:1 63:1 71:1 75:1 122:1 163:1 316:1 795:1 796:1 797:1 798:1 799:1 800:1 
0.4648337717216545 1:1 2:1 3:1 4:1 13:1 14:1 743:1 851:1 852:1 
0.1322822603150025 2:1 4:1 13:1 14:1 578:1 853:1 854:1 855:1 
1 1:1 2:1 3:1 4:1 13:1 14:1 27:1 63:1 75:1 107:1 150:1 214:1 240:1 863:1 864:1 
0.01624359100855095 2:1 4:1 13:1 14:1 30:1 48:1 71:1 75:1 79:1 183:1 197:1 362:1 410:1 576:1 870:1 871:1 872:1 
0.09773480935785514 2:1 4:1 5:1 13:1 14:1 47:1 52:1 874:1 
1 2:1 4:1 13:1 14:1 
0.3705898832922855 2:1 4:1 13:1 14:1 72:1 82:1 92:1 421:1 813:1 875:1 876:1 
1 2:1 4:1 13:1 14:1 30:1 47:1 48:1 82:1 233:1 262:1 267:1 
1 1:1 2:1 3:1 4:1 10:1 13:1 14:1 19:1 34:1 46:1 50:1 63:1 75:1 94:1 145:1 149:1 307:1 473:1 474:1 475:1 
1 2:1 4:1 13:1 14:1 108:1 109:1 131:1 
0.4156927905940845 2:1 4:1 12:1 13:1 14:1 45:1 63:1 93:1 109:1 122:1 167:1 238:1 262:1 287:1 347:1 602:1 744:1 905:1 906:1 907:1 908:1 909:1 910:1 
0.3707689720986985 2:1 4:1 13:1 14:1 29:1 71:1 922:1 
0.4651677563026194 2:1 4:1 13:1 14:1 61:1 72:1 641:1 708:1 924:1 925:1 926:1 927:1 928:1 929:1 930:1 931:1 932:1 
1 2:1 4:1 13:1 14:1 46:1 48:1 54:1 56:1 63:1 68:1 75:1 131:1 139:1 148:1 938:1 939:1 940:1 941:1 942:1 943:1 
1 2:1 4:1 5:1 9:1 13:1 14:1 150:1 229:1 232:1 307:1 612:1 
0.03545861607283662 1:1 2:1 3:1 4:1 10:1 13:1 14:1 56:1 63:1 68:1 94:1 107:1 302:1 347:1 349:1 507:1 944:1 945:1 
0.9710302824051406 1:1 2:1 3:1 4:1 5:1 13:1 14:1 19:1 56:1 71:1 90:1 108:1 109:1 172:1 294:1 569:1 954:1 
0.3508088993415145 1:1 2:1 3:1 4:1 13:1 14:1 76:1 262:1 560:1 658:1 969:1 970:1 971:1 
1 2:1 4:1 13:1 14:1 19:1 132:1 133:1 458:1 973:1 
1 2:1 4:1 5:1 13:1 14:1 27:1 29:1 34:1 63:1 150:1 216:1 347:1 604:1 805:1 918:1 
1 1:1 2:1 3:1 4:1 5:1 13:1 14:1 101:1 144:1 216:1 
1 1:1 2:1 3:1 4:1 13:1 14:1 63:1 75:1 78:1 114:1 240:1 283:1 406:1 520:1 992:1 993:1 994:1 
0.3410443981919341 1:1 2:1 3:1 4:1 12:1 13:1 14:1 91:1 999:1 
1 2:1 4:1 12:1 13:1 14:1 48:1 84:1 192:1 196:1 229:1 294:1 486:1 497:1 562:1 1000:1 1001:1 
0.08350989958152492 1:1 2:1 3:1 4:1 9:1 13:1 14:1 19:1 71:1 84:1 90:1 95:1 109:1 315:1 365:1 505:1 780:1 1012:1 1013:1 1014:1 
0.6936263886718148 2:1 4:1 5:1 6:1 13:1 14:1 47:1 63:1 84:1 135:1 628:1 1022:1 1023:1 1024:1 
1 2:1 4:1 13:1 14:1 19:1 38:1 414:1 671:1 1026:1 1027:1 1028:1 1029:1 1030:1 
1 1:1 2:1 3:1 4:1 5:1 6:1 8:1 13:1 14:1 72:1 101:1 107:1 109:1 239:1 251:1 318:1 413:1 441:1 562:1 847:1 1031:1 1032:1 
1 2:1 4:1 13:1 14:1 109:1 196:1 480:1 1033:1 
0.3707736451294403 2:1 4:1 5:1 12:1 13:1 14:1 63:1 95:1 109:1 186:1 347:1 368:1 484:1 1036:1 1037:1 
0.08186948330823139 2:1 4:1 13:1 14:1 267:1 1048:1 1049:1 1050:1 1051:1 
0.4964581511721796 2:1 4:1 5:1 12:1 13:1 14:1 47:1 56:1 95:1 109:1 111:1 216:1 240:1 315:1 324:1 347:1 351:1 476:1 507:1 641:1 1058:1 
0.2666755013259235 2:1 4:1 8:1 9:1 13:1 14:1 27:1 32:1 56:1 215:1 1070:1 1071:1 1072:1 1073:1 
0.2835480759123152 1:1 2:1 3:1 4:1 13:1 14:1 19:1 63:1 233:1 425:1 1074:1 1075:1 1076:1 
1 2:1 4:1 12:1 13:1 14:1 52:1 101:1 251:1 385:1 807:1 904:1 1078:1 1079:1 1080:1 1081:1 1082:1 
0.1855775043176776 2:1 4:1 13:1 14:1 42:1 46:1 63:1 71:1 75:1 95:1 123:1 137:1 175:1 454:1 600:1 1084:1 1085:1 1086:1 1087:1 1088:1 1089:1 
1 2:1 4:1 13:1 14:1 38:1 42:1 72:1 109:1 127:1 267:1 294:1 480:1 515:1 631:1 663:1 1099:1 1100:1 
0.5000439790410848 1:1 2:1 3:1 4:1 13:1 14:1 32:1 75:1 94:1 95:1 109:1 156:1 805:1 1101:1 1102:1 1103:1 1104:1 1105:1 1106:1 1107:1 1108:1 1109:1 1110:1 1111:1 
1 2:1 4:1 13:1 14:1 16:1 23:1 83:1 123:1 439:1 1115:1 
0.9643971774042752 2:1 4:1 5:1 8:1 13:1 14:1 99:1 109:1 366:1 1116:1 1117:1 
0.1994724725422726 2:1 4:1 5:1 13:1 14:1 34:1 42:1 46:1 48:1 63:1 71:1 99:1 101:1 113:1 127:1 147:1 175:1 196:1 201:1 202:1 267:1 402:1 865:1 869:1 1118:1 1119:1 1120:1 1121:1 1122:1 1123:1 1124:1 1125:1 1126:1 
1 2:1 4:1 13:1 14:1 47:1 160:1 1133:1 1134:1 
0.1567665721957658 2:1 4:1 5:1 12:1 13:1 14:1 27:1 40:1 46:1 48:1 111:1 112:1 135:1 251:1 349:1 413:1 680:1 
0.6957831670858803 1:1 2:1 3:1 4:1 5:1 10:1 13:1 14:1 34:1 46:1 63:1 75:1 84:1 158:1 229:1 262:1 294:1 413:1 622:1 756:1 1138:1 1139:1 1140:1 1141:1 1142:1 
0.5782802097396265 2:1 4:1 5:1 13:1 14:1 42:1 94:1 377:1 479:1 1159:1 1160:1 1161:1 
1 1:1 2:1 3:1 4:1 13:1 14:1 
0.8299773948638711 2:1 4:1 10:1 12:1 13:1 14:1 29:1 48:1 75:1 159:1 437:1 1163:1 1164:1 1165:1 1166:1 
0.1471866857854708 2:1 4:1 5:1 6:1 10:1 13:1 14:1 42:1 46:1 56:1 60:1 65:1 71:1 109:1 116:1 141:1 208:1 248:1 262:1 282:1 335:1 774:1 1167:1 1168:1 1169:1 1170:1 1171:1 1172:1 1173:1 
0.645793206577162 2:1 4:1 10:1 13:1 14:1 42:1 60:1 99:1 101:1 164:1 413:1 548:1 1175:1 1176:1 
1 2:1 4:1 8:1 13:1 14:1 19:1 50:1 75:1 108:1 109:1 145:1 149:1 502:1 863:1 951:1 
1 2:1 4:1 13:1 14:1 72:1 108:1 109:1 131:1 
1 2:1 4:1 13:1 14:1 
1 2:1 4:1 13:1 14:1 63:1 65:1 141:1 262:1 852:1 1193:1 
0.09353181183516879 1:1 2:1 3:1 4:1 5:1 8:1 13:1 14:1 42:1 63:1 75:1 95:1 106:1 109:1 111:1 150:1 181:1 282:1 347:1 366:1 678:1 1090:1 1211:1 1212:1 1213:1 1214:1 
0.04543204683825426 1:1 2:1 3:1 4:1 13:1 14:1 262:1 283:1 1218:1 
0.7955531685891862 2:1 4:1 12:1 13:1 14:1 71:1 240:1 362:1 576:1 990:1 
1 1:1 2:1 3:1 4:1 13:1 14:1 38:1 63:1 163:1 283:1 337:1 625:1 1026:1 
0.3712052707540719 2:1 4:1 5:1 13:1 14:1 19:1 120:1 177:1 1219:1 1220:1 
0.5754114692281518 2:1 4:1 5:1 13:1 14:1 19:1 38:1 42:1 46:1 56:1 71:1 72:1 75:1 89:1 99:1 114:1 142:1 159:1 239:1 295:1 299:1 628:1 852:1 1189:1 1221:1 1222:1 1223:1 1224:1 
0.9009840222959939 1:1 2:1 3:1 4:1 8:1 12:1 13:1 14:1 19:1 34:1 63:1 72:1 75:1 94:1 95:1 107:1 148:1 240:1 267:1 347:1 865:1 869:1 1225:1 1226:1 1227:1 1228:1 
0.09475551420279331 1:1 2:1 3:1 4:1 5:1 13:1 14:1 99:1 231:1 349:1 455:1 1230:1 1231:1 1232:1 
1 2:1 4:1 13:1 14:1 19:1 29:1 38:1 75:1 122:1 123:1 145:1 149:1 1241:1 1242:1 
0.4319564981169773 2:1 4:1 13:1 14:1 63:1 150:1 950:1 1246:1 1247:1 
1 2:1 4:1 8:1 13:1 14:1 50:1 52:1 240:1 823:1 944:1 
0.1125410178332552 1:1 2:1 3:1 4:1 10:1 12:1 13:1 14:1 66:1 210:1 318:1 504:1 1252:1 1253:1 
0.4825545647959011 2:1 4:1 13:1 14:1 46:1 48:1 66:1 84:1 112:1 158:1 225:1 326:1 444:1 1270:1 1271:1 
0.3013303622991144 1:1 2:1 3:1 4:1 13:1 14:1 30:1 128:1 293:1 561:1 590:1 1272:1 
1 2:1 4:1 13:1 14:1 27:1 47:1 48:1 72:1 
1 1:1 2:1 3:1 4:1 5:1 13:1 14:1 19:1 63:1 95:1 107:1 130:1 145:1 149:1 251:1 324:1 1029:1 1030:1 1276:1 
0.1629621131804989 2:1 4:1 5:1 13:1 14:1 42:1 48:1 73:1 347:1 1279:1 1280:1 
1 2:1 4:1 13:1 14:1 47:1 63:1 68:1 75:1 107:1 197:1 226:1 238:1 385:1 561:1 845:1 1182:1 1282:1 1283:1 
1 2:1 4:1 13:1 14:1 329:1 330:1 331:1 
1 2:1 4:1 5:1 8:1 13:1 14:1 52:1 71:1 72:1 215:1 502:1 
1 2:1 4:1 13:1 14:1 38:1 47:1 68:1 75:1 84:1 158:1 176:1 550:1 1300:1 1301:1 
0.2648064286120497 1:1 2:1 3:1 4:1 5:1 9:1 10:1 13:1 14:1 27:1 42:1 46:1 56:1 94:1 147:1 823:1 997:1 1103:1 1302:1 1303:1 1304:1 1305:1 1306:1 1307:1 1308:1 
1 2:1 4:1 5:1 8:1 13:1 14:1 50:1 108:1 109:1 139:1 1312:1 
0.2037997258077542 2:1 4:1 13:1 14:1 1103:1 1313:1 1314:1 
0.671601073032234 2:1 4:1 13:1 14:1 47:1 63:1 73:1 107:1 163:1 197:1 351:1 628:1 1319:1 1320:1 1321:1 1322:1 
1 2:1 4:1 5:1 9:1 10:1 13:1 14:1 27:1 38:1 63:1 77:1 84:1 92:1 107:1 120:1 135:1 158:1 522:1 573:1 781:1 841:1 1053:1 1326:1 1327:1 
1 1:1 2:1 3:1 4:1 13:1 14:1 19:1 90:1 
0.6624361917519838 2:1 4:1 13:1 14:1 107:1 148:1 150:1 316:1 805:1 1341:1 1342:1 
0.05302735824555724 2:1 4:1 13:1 14:1 926:1 1343:1 1344:1 1345:1 1346:1 1347:1 
1 2:1 4:1 5:1 13:1 14:1 63:1 75:1 95:1 109:1 127:1 202:1 239:1 340:1 746:1 1327:1 
0.243422260921847 2:1 4:1 13:1 14:1 46:1 75:1 158:1 364:1 450:1 742:1 
1 2:1 4:1 13:1 14:1 19:1 48:1 61:1 84:1 108:1 109:1 131:1 192:1 229:1 295:1 562:1 1003:1 1356:1 
0.1212275667689998 2:1 4:1 12:1 13:1 14:1 42:1 56:1 634:1 1053:1 1344:1 1360:1 1361:1 1362:1 1363:1 1364:1 1365:1 1366:1 1367:1 1368:1 1369:1 1370:1 1371:1 1372:1 1373:1 1374:1 
0.0341166855713913 2:1 4:1 13:1 14:1 1386:1 1387:1 
0.1468344829210572 2:1 4:1 13:1 14:1 302:1 364:1 1226:1 1394:1 1395:1 1396:1 1397:1 1398:1 1399:1 1400:1 1401:1 
0.2408743844576108 2:1 4:1 13:1 14:1 30:1 71:1 159:1 172:1 175:1 226:1 349:1 502:1 1409:1 1410:1 
1 2:1 4:1 5:1 13:1 14:1 63:1 82:1 84:1 99:1 109:1 139:1 140:1 1327:1 1411:1 
1 2:1 4:1 13:1 14:1 
0.3766762230498021 1:1 2:1 3:1 4:1 9:1 13:1 14:1 62:1 101:1 1415:1 1416:1 
0.4447732521448668 1:1 2:1 4:1 13:1 14:1 30:1 72:1 75:1 123:1 128:1 302:1 489:1 837:1 854:1 1417:1 1418:1 1419:1 1420:1 1421:1 1422:1 
0.5133372491760305 1:1 2:1 3:1 4:1 5:1 8:1 10:1 12:1 13:1 14:1 46:1 55:1 56:1 71:1 92:1 95:1 107:1 109:1 123:1 165:1 194:1 282:1 293:1 324:1 326:1 809:1 922:1 1154:1 1427:1 
0.4605772002987084 2:1 4:1 13:1 14:1 38:1 46:1 63:1 65:1 71:1 72:1 75:1 78:1 84:1 108:1 109:1 122:1 159:1 163:1 229:1 239:1 360:1 368:1 419:1 674:1 1199:1 1428:1 1429:1 1430:1 1431:1 1432:1 1433:1 
1 1:1 2:1 3:1 4:1 5:1 13:1 14:1 23:1 99:1 109:1 312:1 
0.9053545537757558 1:1 2:1 3:1 4:1 5:1 10:1 19:1 29:1 56:1 63:1 71:1 72:1 75:1 84:1 90:1 108:1 109:1 110:1 111:1 127:1 156:1 312:1 414:1 521:1 522:1 561:1 817:1 824:1 1435:1 
1 2:1 4:1 5:1 10:1 13:1 14:1 29:1 41:1 47:1 63:1 75:1 99:1 122:1 210:1 522:1 894:1 1116:1 1436:1 1437:1 
1 2:1 4:1 13:1 14:1 215:1 
0.2173845638813689 2:1 4:1 13:1 14:1 32:1 42:1 52:1 215:1 1445:1 1446:1 1447:1 
0.6663855651598075 1:1 2:1 3:1 4:1 13:1 14:1 40:1 72:1 82:1 197:1 224:1 240:1 379:1 522:1 743:1 1116:1 1450:1 
0.08338932447061813 1:1 2:1 3:1 4:1 13:1 14:1 19:1 47:1 72:1 75:1 90:1 114:1 158:1 302:1 1451:1 1452:1 1453:1 
1 2:1 4:1 5:1 6:1 13:1 14:1 19:1 29:1 32:1 52:1 63:1 78:1 121:1 127:1 167:1 215:1 295:1 299:1 326:1 413:1 576:1 
1 2:1 4:1 13:1 14:1 51:1 84:1 156:1 197:1 215:1 312:1 379:1 658:1 713:1 1116:1 1459:1 
1 1:1 2:1 3:1 4:1 5:1 13:1 14:1 19:1 48:1 66:1 75:1 295:1 299:1 560:1 710:1 1056:1 1462:1 1463:1 
1 1:1 2:1 3:1 4:1 5:1 13:1 14:1 19:1 27:1 47:1 48:1 56:1 94:1 107:1 165:1 215:1 412:1 413:1 508:1 561:1 602:1 823:1 865:1 869:1 1466:1 
1 1:1 2:1 3:1 4:1 13:1 14:1 19:1 51:1 55:1 62:1 101:1 145:1 149:1 976:1 
0.09902494893157807 2:1 4:1 13:1 14:1 30:1 999:1 1475:1 
0.05255875476098607 2:1 4:1 12:1 13:1 14:1 56:1 229:1 253:1 437:1 1476:1 1477:1 1478:1 1479:1 1480:1 1481:1 1482:1 1483:1 1484:1 1485:1 1486:1 1487:1 1488:1 1489:1 1490:1 1491:1 1492:1 1493:1 1494:1 
0.106013527073602 2:1 4:1 13:1 14:1 72:1 101:1 107:1 232:1 1029:1 1182:1 1344:1 1495:1 1496:1 1497:1 1498:1 1499:1 1500:1 1501:1 1502:1 1503:1 1504:1 1505:1 1506:1 
0.5959926254870859 2:1 4:1 8:1 13:1 14:1 27:1 47:1 62:1 63:1 72:1 107:1 130:1 289:1 351:1 1514:1 
1 2:1 4:1 13:1 14:1 19:1 30:1 72:1 107:1 131:1 287:1 295:1 299:1 1515:1 
0.9510375577994755 1:1 2:1 3:1 4:1 12:1 13:1 14:1 38:1 362:1 1516:1 1517:1 
1 2:1 4:1 13:1 14:1 108:1 109:1 1296:1 
1 1:1 2:1 3:1 4:1 13:1 14:1 515:1 
0.7227171125850577 2:1 4:1 5:1 13:1 14:1 16:1 62:1 84:1 101:1 105:1 185:1 774:1 1520:1 1521:1 
0.6196856054097789 2:1 4:1 13:1 14:1 32:1 65:1 68:1 75:1 84:1 94:1 593:1 639:1 944:1 1522:1 1523:1 1524:1 1525:1 1526:1 1527:1 
1 1:1 2:1 3:1 4:1 13:1 14:1 175:1 194:1 302:1 
0.5158235463263214 1:1 2:1 3:1 4:1 13:1 14:1 19:1 84:1 90:1 150:1 1135:1 1460:1 
0.07467192319598123 1:1 2:1 3:1 4:1 10:1 13:1 14:1 624:1 1530:1 1531:1 
0.1657643843253064 2:1 4:1 9:1 13:1 14:1 40:1 148:1 150:1 159:1 165:1 329:1 331:1 392:1 474:1 722:1 1532:1 1533:1 1534:1 
1 2:1 4:1 13:1 14:1 72:1 194:1 1537:1 
0.6986167782663191 1:1 2:1 3:1 4:1 5:1 6:1 9:1 12:1 13:1 14:1 27:1 46:1 68:1 84:1 114:1 225:1 239:1 305:1 456:1 647:1 805:1 809:1 1337:1 1552:1 1553:1 
0.02431345778346437 2:1 4:1 13:1 14:1 55:1 84:1 262:1 949:1 1558:1 
0.006678687732132825 1:1 2:1 3:1 4:1 13:1 14:1 19:1 25:1 72:1 75:1 84:1 90:1 434:1 1559:1 1560:1 1561:1 
0.4946092033517022 2:1 4:1 10:1 13:1 14:1 41:1 42:1 46:1 56:1 63:1 66:1 75:1 84:1 86:1 107:1 112:1 159:1 192:1 513:1 898:1 1061:1 1119:1 1281:1 1562:1 1563:1 1564:1 1565:1 
1 1:1 2:1 3:1 4:1 10:1 12:1 13:1 14:1 47:1 56:1 65:1 567:1 1579:1 
0.6377916949775688 2:1 4:1 13:1 14:1 66:1 75:1 91:1 208:1 226:1 329:1 331:1 385:1 392:1 710:1 767:1 781:1 1418:1 1580:1 1581:1 1582:1 
1 2:1 4:1 13:1 14:1 47:1 48:1 50:1 55:1 75:1 515:1 904:1 1591:1 
0.01577151002281945 1:1 2:1 3:1 4:1 13:1 14:1 19:1 66:1 71:1 90:1 123:1 145:1 621:1 898:1 1595:1 1596:1 
0.7620657453468171 2:1 4:1 5:1 13:1 14:1 52:1 75:1 78:1 99:1 107:1 109:1 147:1 239:1 281:1 316:1 355:1 1046:1 1603:1 1604:1 
0.8523117837628439 2:1 4:1 5:1 13:1 14:1 47:1 48:1 56:1 63:1 68:1 75:1 108:1 109:1 111:1 135:1 159:1 214:1 232:1 240:1 248:1 281:1 428:1 1227:1 1600:1 1605:1 1606:1 1607:1 
1 2:1 4:1 5:1 10:1 12:1 13:1 14:1 19:1 42:1 63:1 99:1 145:1 149:1 165:1 199:1 200:1 216:1 239:1 295:1 299:1 301:1 365:1 597:1 
0.7058083817892915 2:1 4:1 9:1 13:1 14:1 27:1 38:1 46:1 63:1 75:1 95:1 99:1 117:1 258:1 267:1 306:1 337:1 379:1 743:1 1487:1 1613:1 1614:1 1615:1 
1 2:1 4:1 12:1 13:1 14:1 141:1 1624:1 
1 1:1 2:1 3:1 4:1 12:1 13:1 14:1 63:1 173:1 223:1 294:1 505:1 1625:1 
0.04061451966642496 2:1 4:1 13:1 14:1 66:1 1626:1 1627:1 
0.8400832002148803 1:1 2:1 3:1 4:1 12:1 13:1 14:1 19:1 38:1 46:1 72:1 90:1 817:1 938:1 1631:1 1632:1 1633:1 
1 1:1 2:1 3:1 4:1 5:1 13:1 14:1 27:1 52:1 78:1 315:1 807:1 
1 1:1 2:1 3:1 4:1 5:1 13:1 14:1 51:1 130:1 173:1 286:1 744:1 
1 1:1 2:1 3:1 4:1 13:1 14:1 29:1 51:1 55:1 92:1 95:1 101:1 165:1 304:1 365:1 
0.7973153817867655 2:1 4:1 5:1 13:1 14:1 63:1 84:1 95:1 109:1 214:1 281:1 347:1 1651:1 
0.5545755120620962 2:1 4:1 10:1 13:1 14:1 71:1 84:1 156:1 167:1 282:1 326:1 490:1 743:1 913:1 1348:1 1652:1 1653:1 
0.3762811634471655 2:1 4:1 13:1 14:1 42:1 72:1 364:1 1344:1 1365:1 1400:1 1495:1 1505:1 1654:1 1655:1 1656:1 1657:1 1658:1 1659:1 
1 1:1 2:1 3:1 4:1 5:1 12:1 13:1 14:1 41:1 46:1 51:1 56:1 63:1 82:1 84:1 120:1 122:1 139:1 163:1 210:1 236:1 238:1 262:1 318:1 391:1 647:1 1056:1 1136:1 1661:1 1662:1 1663:1 
0.02595804013921719 2:1 4:1 13:1 14:1 56:1 372:1 525:1 822:1 1667:1 
1 2:1 4:1 13:1 14:1 72:1 215:1 351:1 379:1 901:1 1000:1 1676:1 
0.776411757978688 2:1 4:1 5:1 13:1 14:1 63:1 150:1 222:1 347:1 918:1 1682:1 1683:1 
1 2:1 4:1 13:1 14:1 19:1 30:1 145:1 149:1 240:1 742:1 
0.1405147027387006 2:1 4:1 13:1 14:1 279:1 283:1 658:1 1136:1 1688:1 1689:1 
1 1:1 2:1 3:1 4:1 5:1 13:1 14:1 19:1 63:1 75:1 95:1 109:1 295:1 299:1 544:1 735:1 1046:1 1140:1 1690:1 1691:1 
0.3109617761491094 2:1 4:1 10:1 13:1 14:1 56:1 75:1 122:1 201:1 202:1 1316:1 1697:1 1698:1 1699:1 1700:1 
1 2:1 4:1 13:1 14:1 
1 2:1 4:1 5:1 13:1 14:1 101:1 126:1 173:1 201:1 202:1 208:1 793:1 
0.157495722013179 1:1 2:1 3:1 4:1 8:1 13:1 14:1 47:1 56:1 109:1 166:1 167:1 177:1 295:1 335:1 1487:1 1718:1 
0.2299054430305836 2:1 4:1 13:1 14:1 502:1 1730:1 
1 1:1 2:1 3:1 4:1 13:1 14:1 68:1 71:1 73:1 101:1 215:1 486:1 560:1 562:1 1402:1 1436:1 1732:1 1733:1 
0.4075823162741011 2:1 4:1 13:1 14:1 42:1 43:1 46:1 48:1 56:1 66:1 71:1 72:1 73:1 82:1 84:1 95:1 107:1 165:1 205:1 248:1 326:1 864:1 1738:1 1739:1 
0.9286921941470782 1:1 2:1 3:1 4:1 5:1 6:1 13:1 14:1 32:1 43:1 52:1 71:1 135:1 805:1 1747:1 
1 2:1 4:1 13:1 14:1 63:1 82:1 84:1 326:1 696:1 1748:1 1749:1 1750:1 
1 2:1 4:1 5:1 13:1 14:1 160:1 277:1 429:1 448:1 1136:1 
0.06817358268164138 2:1 4:1 13:1 14:1 1510:1 
1 1:1 2:1 3:1 4:1 13:1 14:1 34:1 63:1 131:1 141:1 251:1 304:1 328:1 487:1 561:1 
0.3908450358098859 1:1 2:1 3:1 4:1 5:1 9:1 13:1 14:1 19:1 42:1 46:1 55:1 60:1 72:1 84:1 90:1 99:1 107:1 216:1 224:1 236:1 251:1 483:1 743:1 744:1 1570:1 1770:1 1771:1 1772:1 
1 1:1 2:1 3:1 4:1 13:1 14:1 56:1 72:1 82:1 150:1 205:1 248:1 267:1 326:1 1267:1 1775:1 
0.2305792305942744 2:1 4:1 13:1 14:1 61:1 150:1 353:1 600:1 1603:1 1776:1 
1 2:1 4:1 13:1 14:1 47:1 72:1 84:1 326:1 413:1 502:1 694:1 1774:1 
0.4244120571158447 2:1 4:1 13:1 14:1 75:1 1780:1 1781:1 1782:1 1783:1 
1 1:1 2:1 3:1 4:1 5:1 6:1 9:1 10:1 13:1 14:1 16:1 19:1 27:1 42:1 63:1 71:1 72:1 90:1 95:1 107:1 109:1 114:1 135:1 240:1 315:1 538:1 992:1 1127:1 1300:1 1784:1 
0.7218247991965198 2:1 4:1 13:1 14:1 72:1 75:1 147:1 156:1 277:1 433:1 532:1 658:1 993:1 1787:1 
1 2:1 4:1 13:1 14:1 329:1 330:1 331:1 1153:1 
0.9999232185906766 2:1 4:1 13:1 14:1 63:1 71:1 120:1 213:1 922:1 
1 2:1 4:1 13:1 14:1 84:1 215:1 351:1 1774:1 1790:1 
0.1291425965115682 2:1 4:1 13:1 14:1 42:1 52:1 68:1 71:1 75:1 101:1 107:1 159:1 177:1 212:1 295:1 307:1 788:1 798:1 1194:1 1795:1 1796:1 1797:1 1798:1 1799:1 1800:1 
1 2:1 4:1 13:1 14:1 42:1 46:1 71:1 107:1 108:1 109:1 418:1 618:1 1028:1 1803:1 1804:1 1805:1 1806:1 1807:1 
0.2244765441442494 2:1 4:1 13:1 14:1 38:1 71:1 72:1 150:1 282:1 560:1 950:1 1772:1 
0.499863531332269 2:1 4:1 10:1 13:1 14:1 20:1 40:1 122:1 238:1 359:1 729:1 1297:1 1811:1 1812:1 1813:1 
0.5933001602666471 2:1 4:1 13:1 14:1 42:1 159:1 262:1 439:1 451:1 1441:1 1814:1 1815:1 1816:1 
0.2268148813654915 2:1 4:1 13:1 14:1 63:1 159:1 235:1 767:1 1443:1 1817:1 
0.3617387789241176 2:1 4:1 13:1 14:1 63:1 72:1 84:1 99:1 109:1 201:1 359:1 496:1 538:1 1116:1 1812:1 1818:1 
1 2:1 4:1 5:1 13:1 14:1 50:1 68:1 84:1 107:1 109:1 196:1 229:1 262:1 548:1 664:1 1273:1 1821:1 
1 2:1 4:1 13:1 14:1 47:1 72:1 769:1 
1 2:1 4:1 5:1 13:1 14:1 27:1 32:1 50:1 56:1 68:1 97:1 107:1 233:1 239:1 316:1 774:1 1670:1 1823:1 1824:1 
0.8076984393735287 2:1 4:1 5:1 13:1 14:1 19:1 108:1 109:1 135:1 145:1 149:1 951:1 1052:1 
1 2:1 4:1 13:1 14:1 32:1 42:1 84:1 107:1 307:1 312:1 410:1 429:1 733:1 1273:1 1831:1 1832:1 
0.146321046421396 1:1 2:1 3:1 4:1 13:1 14:1 19:1 55:1 84:1 90:1 429:1 444:1 445:1 446:1 447:1 
0.1152425074863294 2:1 4:1 5:1 6:1 13:1 14:1 27:1 48:1 71:1 106:1 240:1 502:1 685:1 1232:1 1840:1 
1 2:1 4:1 10:1 13:1 14:1 19:1 38:1 48:1 72:1 75:1 84:1 101:1 164:1 295:1 299:1 375:1 694:1 1851:1 
0.01785658206997018 2:1 4:1 10:1 13:1 14:1 75:1 135:1 159:1 204:1 233:1 282:1 351:1 1337:1 1852:1 
0.06604151217593821 2:1 4:1 13:1 14:1 19:1 72:1 149:1 194:1 244:1 1857:1 1858:1 
0.4313767165492449 2:1 4:1 13:1 14:1 19:1 29:1 68:1 99:1 295:1 299:1 903:1 1859:1 
0.3271078508823208 2:1 4:1 5:1 6:1 13:1 14:1 19:1 92:1 93:1 95:1 101:1 150:1 170:1 214:1 229:1 267:1 295:1 299:1 324:1 326:1 1566:1 1862:1 1863:1 
0.5826147584413633 2:1 4:1 12:1 13:1 14:1 63:1 135:1 262:1 1865:1 1866:1 
1 2:1 4:1 13:1 14:1 295:1 920:1 1869:1 
0.3595574545285005 1:1 2:1 3:1 4:1 5:1 12:1 13:1 14:1 31:1 42:1 56:1 84:1 94:1 95:1 99:1 101:1 159:1 312:1 944:1 1303:1 1773:1 1893:1 1894:1 1895:1 
0.0538266834464287 2:1 4:1 13:1 14:1 42:1 72:1 82:1 1365:1 1496:1 1898:1 1899:1 1900:1 1901:1 1902:1 1903:1 
1 2:1 4:1 13:1 14:1 71:1 339:1 515:1 1455:1 
1 2:1 4:1 5:1 7:1 10:1 12:1 13:1 14:1 95:1 109:1 165:1 181:1 507:1 781:1 1904:1 
0.3230399107936902 2:1 4:1 5:1 6:1 8:1 10:1 13:1 14:1 31:1 32:1 42:1 63:1 75:1 104:1 127:1 131:1 159:1 199:1 232:1 382:1 522:1 845:1 1281:1 1297:1 1908:1 1909:1 1910:1 
0.2722882242325252 1:1 2:1 3:1 4:1 8:1 12:1 13:1 14:1 34:1 51:1 60:1 63:1 71:1 72:1 82:1 99:1 130:1 142:1 163:1 208:1 210:1 215:1 216:1 622:1 788:1 1418:1 1436:1 1911:1 1912:1 1913:1 
0.5974934666354761 2:1 4:1 12:1 13:1 14:1 19:1 108:1 109:1 131:1 150:1 238:1 295:1 299:1 349:1 499:1 591:1 603:1 1315:1 1914:1 1915:1 1916:1 1917:1 
0.2777986489840128 2:1 4:1 13:1 14:1 27:1 109:1 229:1 262:1 548:1 1923:1 
1 2:1 4:1 13:1 14:1 515:1 999:1 
0.9558151469251035 1:1 2:1 3:1 4:1 13:1 14:1 19:1 42:1 48:1 90:1 283:1 519:1 522:1 554:1 561:1 608:1 609:1 622:1 
0.2252295294734149 2:1 4:1 5:1 13:1 14:1 75:1 99:1 109:1 130:1 159:1 160:1 204:1 248:1 379:1 719:1 1926:1 1927:1 1928:1 1929:1 
0.3128899466419555 2:1 4:1 13:1 14:1 27:1 63:1 82:1 108:1 109:1 163:1 189:1 239:1 353:1 572:1 573:1 574:1 
0.7392236996337979 2:1 4:1 5:1 12:1 13:1 14:1 32:1 51:1 56:1 75:1 82:1 92:1 93:1 95:1 99:1 101:1 109:1 113:1 139:1 159:1 215:1 239:1 325:1 326:1 384:1 818:1 944:1 975:1 
0.1076071531467606 2:1 4:1 13:1 14:1 46:1 71:1 1938:1 1939:1 1940:1 1941:1 1942:1 1943:1 1944:1 
0.4406654012278807 1:1 2:1 3:1 4:1 5:1 13:1 14:1 19:1 63:1 90:1 97:1 120:1 175:1 766:1 
0.6935219698922127 2:1 4:1 5:1 13:1 14:1 312:1 315:1 522:1 600:1 687:1 
0.5921964577909677 2:1 4:1 13:1 14:1 29:1 535:1 536:1 1225:1 
1 2:1 4:1 13:1 14:1 
1 2:1 4:1 5:1 10:1 13:1 14:1 42:1 46:1 63:1 75:1 99:1 127:1 225:1 240:1 326:1 347:1 1144:1 1227:1 1597:1 1954:1 
0.531652922299479 2:1 4:1 12:1 13:1 14:1 42:1 60:1 159:1 177:1 331:1 424:1 1957:1 1958:1 1959:1 1960:1 1961:1 
1 2:1 4:1 5:1 13:1 14:1 41:1 47:1 60:1 63:1 84:1 93:1 95:1 99:1 109:1 215:1 353:1 479:1 1319:1 1348:1 
0.4186792735450652 2:1 4:1 10:1 13:1 14:1 31:1 38:1 48:1 62:1 78:1 94:1 205:1 232:1 781:1 957:1 1965:1 1966:1 1967:1 1968:1 
0.2800745916647664 2:1 4:1 5:1 13:1 14:1 34:1 66:1 68:1 75:1 84:1 130:1 229:1 483:1 497:1 590:1 1977:1 1978:1 1979:1 
0.2428526325561108 2:1 4:1 12:1 13:1 14:1 31:1 32:1 46:1 55:1 61:1 75:1 238:1 743:1 1982:1 1983:1 
1 1:1 2:1 3:1 4:1 5:1 13:1 14:1 32:1 95:1 109:1 240:1 649:1 1988:1 
0.3468491627439808 2:1 4:1 13:1 14:1 32:1 71:1 75:1 92:1 122:1 159:1 163:1 485:1 604:1 1070:1 1995:1 
1 1:1 2:1 3:1 4:1 13:1 14:1 427:1 671:1 1026:1 
0.2974523589016423 2:1 4:1 5:1 13:1 14:1 42:1 46:1 63:1 71:1 72:1 78:1 84:1 97:1 127:1 147:1 176:1 312:1 337:1 360:1 413:1 625:1 826:1 992:1 1957:1 2013:1 2014:1 
1 1:1 2:1 3:1 4:1 5:1 13:1 14:1 19:1 32:1 47:1 52:1 90:1 95:1 101:1 164:1 
0.1839666628196433 1:1 2:1 3:1 4:1 13:1 14:1 19:1 68:1 75:1 90:1 101:1 343:1 1624:1 1746:1 2020:1 2021:1 2022:1 
0.4053439087641869 1:1 2:1 3:1 4:1 13:1 14:1 19:1 27:1 38:1 41:1 50:1 51:1 66:1 75:1 90:1 101:1 114:1 130:1 165:1 181:1 248:1 251:1 337:1 680:1 1517:1 2030:1 2031:1 
0.01338067634735787 2:1 4:1 13:1 14:1 55:1 63:1 72:1 84:1 152:1 228:1 258:1 312:1 326:1 687:1 966:1 2029:1 2032:1 2033:1 
1 2:1 4:1 13:1 14:1 60:1 82:1 743:1 754:1 2050:1 
1 2:1 4:1 10:1 13:1 14:1 63:1 71:1 84:1 212:1 1357:1 2052:1 
0.3094411249541548 2:1 4:1 12:1 13:1 14:1 42:1 48:1 63:1 72:1 108:1 109:1 160:1 263:1 418:1 694:1 719:1 903:1 1028:1 1070:1 2054:1 
1 2:1 4:1 13:1 14:1 42:1 48:1 72:1 446:1 865:1 869:1 1406:1 2055:1 2056:1 
1 2:1 4:1 5:1 13:1 14:1 42:1 43:1 52:1 71:1 72:1 78:1 99:1 194:1 502:1 805:1 
1 2:1 4:1 13:1 14:1 20:1 63:1 65:1 107:1 120:1 785:1 2062:1 
1 1:1 2:1 3:1 4:1 13:1 14:1 2067:1 
1 2:1 4:1 8:1 13:1 14:1 50:1 84:1 95:1 109:1 710:1 733:1 1327:1 
0.4803587806016278 2:1 4:1 5:1 13:1 14:1 34:1 42:1 47:1 63:1 93:1 99:1 109:1 114:1 214:1 353:1 427:1 1070:1 2081:1 2082:1 2083:1 
1 1:1 2:1 3:1 4:1 5:1 8:1 10:1 13:1 14:1 31:1 42:1 46:1 62:1 94:1 95:1 99:1 109:1 127:1 130:1 165:1 233:1 262:1 287:1 305:1 743:1 
0.06781958306756085 2:1 4:1 13:1 14:1 46:1 72:1 160:1 204:1 212:1 732:1 2089:1 2090:1 2091:1 2092:1 
0.5752477249923172 1:1 2:1 3:1 4:1 13:1 14:1 19:1 75:1 90:1 273:1 1443:1 2095:1 2096:1 2097:1 
1 2:1 4:1 13:1 14:1 19:1 215:1 295:1 299:1 
1 2:1 4:1 5:1 10:1 13:1 14:1 86:1 173:1 232:1 248:1 251:1 385:1 864:1 2106:1 
0.5587930218445151 1:1 2:1 3:1 4:1 5:1 13:1 14:1 27:1 34:1 56:1 63:1 75:1 82:1 238:1 263:1 287:1 315:1 593:1 743:1 2112:1 2113:1 
0.3303763125876825 2:1 4:1 12:1 13:1 14:1 135:1 2116:1 2123:1 
0.02931848903360052 2:1 4:1 13:1 14:1 46:1 63:1 71:1 84:1 262:1 1074:1 1597:1 2129:1 
1 2:1 4:1 5:1 13:1 14:1 47:1 63:1 72:1 74:1 92:1 326:1 347:1 438:1 786:1 
1 1:1 2:1 3:1 4:1 5:1 13:1 14:1 19:1 50:1 51:1 63:1 90:1 107:1 120:1 139:1 573:1 781:1 823:1 865:1 869:1 2131:1 
0.515529104769145 2:1 4:1 9:1 10:1 13:1 14:1 27:1 47:1 71:1 75:1 84:1 114:1 122:1 175:1 229:1 258:1 267:1 337:1 362:1 422:1 845:1 896:1 1351:1 2134:1 
0.1265361312387248 2:1 4:1 12:1 13:1 14:1 2135:1 2136:1 
0.03017708605004516 2:1 4:1 12:1 13:1 14:1 1312:1 2139:1 2140:1 2141:1 2142:1 2143:1 2144:1 2145:1 
1 2:1 4:1 13:1 14:1 19:1 31:1 47:1 63:1 135:1 194:1 295:1 299:1 326:1 746:1 822:1 1018:1 
1 2:1 4:1 5:1 8:1 9:1 13:1 14:1 27:1 32:1 42:1 46:1 50:1 52:1 65:1 95:1 99:1 109:1 165:1 258:1 302:1 391:1 560:1 778:1 1103:1 1605:1 
0.3227875859438366 2:1 4:1 13:1 14:1 38:1 46:1 48:1 158:1 225:1 2146:1 2147:1 2148:1 
1 2:1 4:1 13:1 14:1 19:1 31:1 42:1 46:1 61:1 63:1 68:1 84:1 99:1 109:1 127:1 135:1 239:1 248:1 295:1 384:1 487:1 548:1 590:1 646:1 696:1 992:1 1028:1 1418:1 1904:1 
1 1:1 2:1 3:1 4:1 5:1 6:1 12:1 13:1 14:1 27:1 40:1 55:1 66:1 95:1 107:1 148:1 150:1 201:1 202:1 240:1 282:1 291:1 349:1 377:1 444:1 805:1 817:1 939:1 1090:1 1793:1 2155:1 2156:1 
1 2:1 4:1 5:1 12:1 13:1 14:1 75:1 84:1 240:1 507:1 817:1 913:1 989:1 2163:1 2164:1 2165:1 
0.2338534675840572 2:1 4:1 5:1 12:1 13:1 14:1 20:1 72:1 159:1 160:1 172:1 216:1 219:1 305:1 451:1 845:1 1094:1 
0.06974879249272026 1:1 2:1 3:1 4:1 5:1 12:1 13:1 14:1 19:1 32:1 47:1 52:1 71:1 90:1 95:1 99:1 109:1 194:1 490:1 1568:1 2169:1 
0.3372225480981172 2:1 4:1 13:1 14:1 71:1 72:1 84:1 1351:1 2176:1 2177:1 
1 2:1 4:1 5:1 8:1 10:1 13:1 14:1 47:1 63:1 73:1 84:1 107:1 111:1 127:1 240:1 671:1 701:1 823:1 2178:1 
1 2:1 4:1 13:1 14:1 48:1 72:1 84:1 159:1 176:1 781:1 1164:1 
0.3979105028884915 2:1 4:1 12:1 13:1 14:1 1888:1 2202:1 2203:1 
1 2:1 4:1 13:1 14:1 2131:1 
1 2:1 4:1 5:1 13:1 14:1 229:1 966:1 
1 2:1 4:1 13:1 14:1 183:1 222:1 625:1 666:1 
0.5813519969928415 1:1 2:1 3:1 4:1 5:1 6:1 9:1 13:1 14:1 19:1 42:1 60:1 99:1 109:1 147:1 207:1 229:1 311:1 320:1 454:1 590:1 873:1 1090:1 1378:1 1603:1 2229:1 
0.7540551985907545 2:1 4:1 10:1 13:1 14:1 63:1 75:1 1357:1 2230:1 
0.256943387985818 1:1 2:1 3:1 4:1 5:1 9:1 12:1 13:1 14:1 27:1 48:1 63:1 75:1 84:1 99:1 135:1 194:1 229:1 240:1 282:1 315:1 353:1 590:1 742:1 1267:1 1773:1 2037:1 2231:1 2232:1 
1 2:1 4:1 10:1 13:1 14:1 19:1 57:1 63:1 72:1 150:1 214:1 295:1 299:1 309:1 337:1 464:1 
0.6263572153774483 2:1 4:1 9:1 10:1 13:1 14:1 33:1 34:1 42:1 46:1 48:1 63:1 75:1 79:1 196:1 225:1 240:1 282:1 326:1 389:1 490:1 496:1 1446:1 2200:1 2240:1 2241:1 2242:1 2243:1 2244:1 2245:1 
0.8407441630235821 2:1 4:1 5:1 13:1 14:1 34:1 72:1 101:1 694:1 1684:1 
1 2:1 4:1 13:1 14:1 150:1 170:1 194:1 262:1 287:1 1327:1 2246:1 
0.7527675582219653 2:1 4:1 13:1 14:1 55:1 82:1 2255:1 2256:1 
0.2588497710422977 2:1 4:1 10:1 13:1 14:1 32:1 42:1 84:1 158:1 262:1 356:1 357:1 958:1 1687:1 
0.01309715005180169 2:1 4:1 10:1 13:1 14:1 48:1 75:1 135:1 2264:1 
0.06877430778783747 1:1 2:1 3:1 4:1 9:1 13:1 14:1 30:1 40:1 46:1 47:1 48:1 684:1 1297:1 2268:1 
1 2:1 4:1 8:1 13:1 14:1 55:1 72:1 101:1 200:1 
1 1:1 2:1 3:1 4:1 8:1 13:1 14:1 50:1 75:1 101:1 130:1 361:1 2279:1 
0.4407595893450052 1:1 2:1 3:1 4:1 13:1 14:1 42:1 99:1 474:1 641:1 743:1 2280:1 
0.2651998749457006 2:1 4:1 9:1 13:1 14:1 56:1 71:1 318:1 590:1 759:1 760:1 788:1 2060:1 2282:1 2283:1 
0.2691872255861565 2:1 4:1 12:1 13:1 14:1 19:1 47:1 71:1 73:1 175:1 194:1 219:1 248:1 295:1 299:1 326:1 487:1 576:1 746:1 1267:1 
0.2924694532640521 2:1 4:1 12:1 13:1 14:1 873:1 2294:1 
1 2:1 4:1 5:1 13:1 14:1 38:1 47:1 50:1 93:1 147:1 175:1 326:1 413:1 450:1 685:1 1028:1 1649:1 2300:1 
1 1:1 2:1 3:1 4:1 5:1 6:1 12:1 13:1 14:1 27:1 78:1 150:1 182:1 326:1 649:1 1603:1 
0.0975831786595459 2:1 4:1 10:1 13:1 14:1 302:1 2314:1 
0.936449880608341 2:1 4:1 5:1 6:1 13:1 14:1 112:1 162:1 
0.1695688943211305 2:1 4:1 13:1 14:1 42:1 61:1 63:1 107:1 147:1 148:1 150:1 738:1 1455:1 1551:1 2323:1 2324:1 2325:1 2326:1 
1 2:1 4:1 8:1 13:1 14:1 42:1 47:1 60:1 72:1 82:1 159:1 462:1 573:1 728:1 744:1 2075:1 2106:1 2279:1 2340:1 
0.2986483353201603 2:1 4:1 12:1 13:1 14:1 34:1 56:1 60:1 63:1 95:1 135:1 150:1 215:1 326:1 409:1 410:1 487:1 2341:1 2342:1 
1 1:1 2:1 3:1 4:1 13:1 14:1 27:1 38:1 41:1 50:1 51:1 66:1 75:1 101:1 114:1 130:1 165:1 181:1 248:1 251:1 337:1 680:1 1517:1 2030:1 2031:1 
1 1:1 2:1 3:1 4:1 13:1 14:1 19:1 90:1 
0.07932151695234345 2:1 4:1 10:1 13:1 14:1 42:1 43:1 46:1 48:1 56:1 60:1 71:1 77:1 78:1 84:1 197:1 240:1 251:1 444:1 590:1 600:1 805:1 865:1 869:1 2349:1 2350:1 2351:1 2352:1 2353:1 2354:1 2355:1 
0.01107531747914796 2:1 4:1 13:1 14:1 77:1 78:1 84:1 239:1 2356:1 2357:1 
0.6156720929497144 2:1 4:1 13:1 14:1 16:1 62:1 101:1 107:1 123:1 238:1 597:1 610:1 781:1 1762:1 
0.3220111998051919 2:1 4:1 5:1 6:1 9:1 13:1 14:1 20:1 32:1 48:1 52:1 56:1 84:1 122:1 123:1 167:1 170:1 196:1 229:1 326:1 329:1 331:1 392:1 413:1 548:1 743:1 1116:1 1712:1 2362:1 2363:1 2364:1 
1 1:1 2:1 3:1 4:1 13:1 14:1 19:1 27:1 42:1 185:1 215:1 329:1 331:1 392:1 865:1 869:1 901:1 1418:1 2365:1 2366:1 
0.7509680788140327 2:1 4:1 5:1 10:1 13:1 14:1 47:1 63:1 75:1 95:1 109:1 216:1 315:1 1690:1 2272:1 2371:1 
0.5272457070892013 2:1 4:1 12:1 13:1 14:1 30:1 58:1 72:1 75:1 84:1 251:1 326:1 351:1 759:1 2374:1 2375:1 2376:1 
0.8445635941854089 1:1 2:1 3:1 4:1 10:1 12:1 13:1 14:1 19:1 38:1 84:1 90:1 114:1 160:1 671:1 2130:1 2379:1 2380:1 
0.7123104652835039 1:1 2:1 3:1 4:1 13:1 14:1 34:1 56:1 94:1 106:1 117:1 130:1 240:1 327:1 1773:1 2381:1 2382:1 2383:1 2384:1 
0.1913666563174237 2:1 4:1 5:1 13:1 14:1 30:1 34:1 63:1 72:1 75:1 84:1 95:1 109:1 154:1 159:1 165:1 189:1 205:1 347:1 450:1 998:1 1535:1 1637:1 2391:1 2392:1 
0.08961536927725251 1:1 2:1 3:1 4:1 13:1 14:1 19:1 71:1 82:1 92:1 865:1 869:1 1196:1 2397:1 
1 1:1 2:1 3:1 4:1 5:1 13:1 14:1 108:1 109:1 110:1 150:1 240:1 446:1 2398:1 
0.3861970199481295 2:1 4:1 13:1 14:1 41:1 42:1 56:1 71:1 107:1 137:1 239:1 240:1 1031:1 2128:1 
0.02160655211054772 2:1 4:1 5:1 10:1 13:1 14:1 38:1 46:1 47:1 93:1 126:1 170:1 215:1 262:1 316:1 326:1 413:1 476:1 479:1 700:1 809:1 989:1 1069:1 1605:1 1748:1 2037:1 2400:1 
1 2:1 4:1 5:1 12:1 13:1 14:1 61:1 84:1 347:1 1728:1 1803:1 
1 1:1 2:1 3:1 4:1 9:1 13:1 14:1 19:1 27:1 42:1 48:1 66:1 90:1 101:1 123:1 158:1 248:1 379:1 408:1 562:1 1068:1 1194:1 1322:1 1656:1 2411:1 
0.5021639291915472 2:1 4:1 9:1 10:1 13:1 14:1 38:1 40:1 46:1 47:1 79:1 159:1 215:1 240:1 379:1 385:1 532:1 561:1 600:1 749:1 818:1 865:1 869:1 1974:1 2419:1 2420:1 2421:1 2422:1 2423:1 2424:1 2425:1 
0.3084980146980346 2:1 4:1 13:1 14:1 32:1 57:1 71:1 158:1 498:1 2426:1 
0.3579588079170356 2:1 4:1 8:1 12:1 13:1 14:1 50:1 99:1 109:1 159:1 170:1 366:1 384:1 781:1 2431:1 
0.1599160420625446 2:1 4:1 13:1 14:1 42:1 52:1 63:1 92:1 107:1 137:1 148:1 215:1 217:1 316:1 622:1 879:1 1186:1 1357:1 2432:1 2433:1 
0.03405291297764128 2:1 4:1 5:1 13:1 14:1 31:1 38:1 48:1 52:1 56:1 71:1 75:1 79:1 181:1 201:1 202:1 222:1 231:1 262:1 306:1 845:1 1094:1 1412:1 2437:1 2438:1 2439:1 2440:1 2441:1 2442:1 
0.1429619481627455 2:1 4:1 13:1 14:1 84:1 127:1 479:1 480:1 848:1 992:1 
0.6540763769550814 2:1 4:1 13:1 14:1 68:1 86:1 141:1 232:1 277:1 865:1 869:1 2443:1 2444:1 2445:1 2446:1 2447:1 
1 2:1 4:1 9:1 13:1 14:1 30:1 40:1 66:1 324:1 325:1 410:1 497:1 2450:1 2451:1 
1 2:1 4:1 13:1 14:1 48:1 60:1 66:1 68:1 72:1 84:1 385:1 790:1 1895:1 2121:1 2452:1 2453:1 
1 1:1 2:1 3:1 4:1 8:1 13:1 14:1 46:1 202:1 232:1 248:1 340:1 865:1 869:1 1003:1 1047:1 2446:1 2454:1 2455:1 
0.306596970375988 2:1 4:1 8:1 13:1 14:1 48:1 56:1 101:1 240:1 2468:1 
0.3538742638347263 2:1 4:1 5:1 13:1 14:1 41:1 47:1 48:1 50:1 51:1 60:1 63:1 71:1 84:1 92:1 99:1 109:1 256:1 366:1 1061:1 1295:1 1300:1 1321:1 2094:1 2130:1 2471:1 2472:1 2473:1 
0.1114000222347812 2:1 4:1 13:1 14:1 60:1 75:1 302:1 2474:1 2475:1 
1 2:1 4:1 5:1 13:1 14:1 50:1 51:1 63:1 107:1 120:1 139:1 573:1 781:1 823:1 865:1 869:1 2131:1 
0.6369937872527943 2:1 4:1 5:1 6:1 13:1 14:1 32:1 42:1 47:1 48:1 65:1 71:1 94:1 101:1 109:1 215:1 222:1 318:1 362:1 562:1 631:1 993:1 2114:1 2200:1 2480:1 2481:1 2482:1 
0.2409468673917872 2:1 4:1 8:1 13:1 14:1 30:1 38:1 48:1 55:1 72:1 75:1 101:1 215:1 267:1 1003:1 2398:1 2484:1 2485:1 2486:1 2487:1 2488:1 
0.9057273379252903 1:1 2:1 3:1 4:1 10:1 13:1 14:1 16:1 19:1 20:1 40:1 75:1 90:1 110:1 122:1 160:1 209:1 210:1 813:1 
1 1:1 2:1 3:1 4:1 13:1 14:1 267:1 1780:1 2090:1 2492:1 
0.7848137401561652 1:1 2:1 3:1 4:1 13:1 14:1 66:1 205:1 349:1 444:1 774:1 2499:1 
0.149059990150545 2:1 4:1 13:1 14:1 84:1 2500:1 2501:1 
0.3648583368434301 1:1 2:1 3:1 4:1 12:1 13:1 14:1 38:1 75:1 94:1 347:1 1947:1 2509:1 2510:1 
0.9607150062439347 2:1 4:1 5:1 6:1 13:1 14:1 127:1 201:1 202:1 1676:1 2194:1 
0.5469938338720696 1:1 2:1 3:1 4:1 13:1 14:1 60:1 63:1 107:1 505:1 898:1 1070:1 1653:1 2369:1 2370:1 
0.1334899266786439 2:1 4:1 5:1 6:1 13:1 14:1 19:1 32:1 47:1 52:1 56:1 63:1 73:1 123:1 135:1 145:1 170:1 379:1 807:1 1676:1 2523:1 
0.0682487343272879 2:1 4:1 13:1 14:1 2527:1 
0.1195706467749072 1:1 2:1 3:1 4:1 8:1 13:1 14:1 19:1 55:1 82:1 101:1 145:1 267:1 323:1 422:1 483:1 641:1 2530:1 
1 2:1 4:1 5:1 13:1 14:1 63:1 76:1 84:1 262:1 413:1 451:1 479:1 480:1 1251:1 
0.1983270504741889 2:1 4:1 13:1 14:1 42:1 46:1 66:1 84:1 150:1 175:1 177:1 182:1 295:1 377:1 1153:1 2534:1 2535:1 2536:1 2537:1 2538:1 2539:1 
0.071503185753545 1:1 2:1 3:1 4:1 8:1 12:1 13:1 14:1 19:1 42:1 55:1 71:1 101:1 109:1 123:1 177:1 178:1 251:1 446:1 562:1 2119:1 2540:1 2541:1 
0.1144126538041689 1:1 2:1 3:1 4:1 5:1 6:1 13:1 14:1 19:1 60:1 82:1 101:1 164:1 267:1 385:1 865:1 869:1 2542:1 2543:1 
0.8763905666451604 2:1 4:1 5:1 6:1 10:1 13:1 14:1 48:1 75:1 78:1 84:1 186:1 227:1 240:1 251:1 385:1 1578:1 
0.1522998245955393 2:1 4:1 5:1 12:1 13:1 14:1 19:1 42:1 61:1 63:1 75:1 84:1 175:1 199:1 214:1 251:1 262:1 295:1 368:1 508:1 759:1 1074:1 1127:1 2549:1 2550:1 2551:1 2552:1 
0.4029156466424298 2:1 4:1 13:1 14:1 42:1 84:1 92:1 122:1 337:1 507:1 778:1 2557:1 2558:1 2559:1 
0.2822523635270972 2:1 4:1 5:1 13:1 14:1 41:1 46:1 56:1 63:1 72:1 75:1 163:1 172:1 251:1 329:1 331:1 392:1 845:1 847:1 863:1 1063:1 1078:1 1677:1 2560:1 2561:1 2562:1 2563:1 
0.3166317750891707 1:1 2:1 3:1 4:1 13:1 14:1 19:1 90:1 360:1 421:1 756:1 1608:1 2564:1 
1 2:1 4:1 13:1 14:1 46:1 63:1 215:1 305:1 886:1 1227:1 1762:1 2568:1 
0.151075186518442 2:1 4:1 13:1 14:1 38:1 48:1 73:1 75:1 989:1 2581:1 2582:1 
0.3147497819823483 2:1 4:1 5:1 13:1 14:1 63:1 68:1 78:1 79:1 99:1 160:1 167:1 186:1 820:1 883:1 976:1 2583:1 2584:1 2585:1 
0.1150402382459759 2:1 4:1 13:1 14:1 52:1 240:1 938:1 957:1 2191:1 
0.313629370509272 1:1 2:1 3:1 4:1 5:1 13:1 14:1 19:1 63:1 90:1 150:1 347:1 2587:1 
0.7627931776444271 2:1 4:1 5:1 13:1 14:1 19:1 41:1 42:1 52:1 137:1 145:1 149:1 240:1 262:1 324:1 495:1 1154:1 2589:1 2590:1 
0.2790629277928613 2:1 4:1 5:1 13:1 14:1 56:1 63:1 71:1 75:1 82:1 84:1 249:1 262:1 293:1 364:1 573:1 647:1 743:1 2597:1 2598:1 2599:1 
1 2:1 4:1 5:1 6:1 13:1 14:1 42:1 583:1 2601:1 
1 2:1 4:1 5:1 13:1 14:1 47:1 122:1 123:1 207:1 229:1 754:1 1327:1 
1 1:1 2:1 3:1 4:1 5:1 13:1 14:1 27:1 34:1 48:1 56:1 63:1 75:1 305:1 315:1 507:1 738:1 742:1 865:1 869:1 1245:1 2607:1 2608:1 
0.08995681023220545 2:1 4:1 9:1 13:1 14:1 27:1 32:1 46:1 51:1 99:1 107:1 142:1 150:1 160:1 240:1 414:1 538:1 1028:1 1297:1 2615:1 
0.4353827939363598 1:1 2:1 3:1 4:1 5:1 13:1 14:1 19:1 32:1 52:1 78:1 90:1 107:1 165:1 236:1 240:1 324:1 462:1 809:1 852:1 2616:1 
1 1:1 2:1 3:1 4:1 12:1 13:1 14:1 75:1 175:1 429:1 2617:1 
0.1476519977611607 2:1 4:1 13:1 14:1 454:1 756:1 1011:1 2114:1 2619:1 
1 2:1 4:1 13:1 14:1 19:1 47:1 48:1 156:1 251:1 262:1 458:1 2053:1 
0.2554224063294649 13:1 121:1 262:1 1067:1 2623:1 
0.1201134193246985 2:1 4:1 12:1 13:1 14:1 29:1 262:1 2624:1 2625:1 
0.8327880184986942 2:1 4:1 5:1 13:1 14:1 47:1 63:1 75:1 99:1 201:1 242:1 246:1 429:1 454:1 694:1 2191:1 2309:1 2629:1 
0.5177136764420427 2:1 4:1 5:1 6:1 13:1 14:1 27:1 63:1 111:1 150:1 205:1 326:1 368:1 465:1 512:1 1267:1 1535:1 1959:1 2075:1 2630:1 
0.1071244292576488 1:1 2:1 3:1 4:1 13:1 14:1 42:1 47:1 63:1 71:1 101:1 222:1 493:1 568:1 922:1 1194:1 1693:1 2379:1 2633:1 
1 2:1 4:1 5:1 13:1 14:1 99:1 109:1 208:1 366:1 1116:1 2019:1 
0.02960619702614921 2:1 4:1 13:1 14:1 63:1 75:1 78:1 104:1 2642:1 2643:1 
1 1:1 2:1 3:1 4:1 9:1 13:1 14:1 19:1 27:1 32:1 46:1 51:1 90:1 99:1 107:1 142:1 150:1 160:1 240:1 414:1 538:1 1028:1 1297:1 2615:1 
1 2:1 4:1 13:1 14:1 82:1 
1 2:1 4:1 5:1 13:1 14:1 126:1 215:1 238:1 507:1 845:1 2652:1 
1 1:1 2:1 3:1 4:1 13:1 14:1 19:1 311:1 320:1 
0.360346936760197 2:1 4:1 5:1 13:1 14:1 16:1 27:1 38:1 48:1 56:1 75:1 109:1 124:1 156:1 165:1 222:1 240:1 248:1 360:1 507:1 641:1 903:1 989:1 1025:1 1032:1 2654:1 2655:1 
0.9835387066929743 2:1 4:1 5:1 13:1 14:1 46:1 72:1 84:1 262:1 382:1 641:1 658:1 767:1 1588:1 2659:1 
1 2:1 4:1 10:1 13:1 14:1 52:1 56:1 72:1 75:1 107:1 130:1 165:1 196:1 316:1 349:1 507:1 1357:1 
1 2:1 4:1 13:1 14:1 19:1 47:1 62:1 72:1 145:1 149:1 173:1 262:1 287:1 754:1 2624:1 
0.007167629239921871 2:1 4:1 13:1 14:1 101:1 2672:1 2673:1 2674:1 2675:1 2676:1 
0.9892009865878247 1:1 2:1 3:1 4:1 13:1 14:1 19:1 90:1 115:1 150:1 202:1 239:1 340:1 568:1 604:1 2677:1 
0.2312945185407691 2:1 4:1 12:1 13:1 14:1 1003:1 1768:1 2024:1 2684:1 2685:1 
1 2:1 4:1 5:1 13:1 14:1 19:1 95:1 295:1 299:1 324:1 479:1 864:1 
1 2:1 4:1 5:1 8:1 10:1 13:1 14:1 34:1 56:1 63:1 71:1 72:1 75:1 139:1 202:1 222:1 239:1 282:1 340:1 347:1 2585:1 2612:1 
0.7985296617509789 2:1 4:1 13:1 14:1 34:1 47:1 108:1 109:1 171:1 622:1 649:1 2694:1 
0.9717258572579457 2:1 4:1 5:1 9:1 13:1 14:1 27:1 42:1 56:1 65:1 95:1 109:1 165:1 229:1 239:1 282:1 515:1 641:1 992:1 2590:1 2704:1 
0.2111319003996152 1:1 2:1 3:1 4:1 5:1 6:1 13:1 14:1 48:1 68:1 72:1 200:1 2705:1 
1 2:1 4:1 12:1 13:1 14:1 30:1 68:1 122:1 123:1 2711:1 
0.2199484093195216 1:1 2:1 3:1 4:1 13:1 14:1 72:1 82:1 95:1 101:1 358:1 1657:1 2712:1 
0.04322366282781637 1:1 2:1 3:1 4:1 5:1 10:1 12:1 13:1 14:1 19:1 54:1 61:1 76:1 101:1 120:1 312:1 362:1 389:1 454:1 560:1 805:1 2521:1 2713:1 2714:1 2715:1 
0.5134659341646622 1:1 2:1 3:1 4:1 5:1 13:1 14:1 19:1 34:1 46:1 56:1 63:1 72:1 73:1 75:1 90:1 106:1 127:1 130:1 145:1 149:1 204:1 248:1 283:1 891:1 1997:1 1998:1 1999:1 2000:1 2001:1 2002:1 2003:1 
0.3262248238188481 2:1 4:1 13:1 14:1 75:1 101:1 122:1 159:1 160:1 262:1 2727:1 2728:1 
0.1854104996850855 2:1 4:1 13:1 14:1 107:1 926:1 2729:1 2730:1 2731:1 2732:1 
1 1:1 2:1 3:1 4:1 13:1 14:1 38:1 48:1 107:1 251:1 446:1 2736:1 2737:1 2738:1 
1 2:1 4:1 13:1 14:1 19:1 120:1 295:1 299:1 903:1 
1 2:1 4:1 5:1 6:1 13:1 14:1 47:1 95:1 109:1 141:1 201:1 202:1 248:1 262:1 451:1 2741:1 
0.5082350697425277 2:1 4:1 10:1 13:1 14:1 47:1 73:1 229:1 743:1 754:1 901:1 
1 2:1 4:1 13:1 14:1 1322:1 
0.3309671641529529 2:1 4:1 5:1 13:1 14:1 38:1 47:1 130:1 159:1 171:1 463:1 464:1 561:1 1025:1 2744:1 
0.4133566856802178 1:1 2:1 3:1 4:1 13:1 14:1 19:1 72:1 82:1 84:1 90:1 130:1 229:1 239:1 823:1 2272:1 2745:1 2746:1 
1 1:1 2:1 3:1 4:1 13:1 14:1 46:1 107:1 729:1 858:1 2591:1 
0.2338370214105078 2:1 4:1 5:1 6:1 12:1 13:1 14:1 56:1 65:1 71:1 141:1 215:1 482:1 505:1 785:1 2747:1 2748:1 
0.6453913076791107 2:1 4:1 8:1 13:1 14:1 99:1 150:1 216:1 233:1 351:1 421:1 561:1 1629:1 2749:1 
1 2:1 4:1 5:1 13:1 14:1 27:1 99:1 109:1 164:1 185:1 215:1 385:1 561:1 754:1 1032:1 2194:1 2574:1 2737:1 2750:1 
0.1536195209061822 2:1 4:1 13:1 14:1 75:1 84:1 159:1 450:1 479:1 663:1 2751:1 
1 1:1 2:1 3:1 4:1 13:1 14:1 19:1 90:1 150:1 170:1 194:1 262:1 287:1 1327:1 2246:1 
0.04113743004985337 2:1 4:1 12:1 13:1 14:1 48:1 2272:1 2754:1 
1 2:1 4:1 5:1 6:1 13:1 14:1 55:1 63:1 81:1 84:1 135:1 159:1 215:1 315:1 673:1 1120:1 1199:1 
1 1:1 2:1 3:1 4:1 13:1 14:1 75:1 90:1 107:1 628:1 733:1 865:1 
0.297576765243816 2:1 4:1 5:1 13:1 14:1 33:1 34:1 38:1 75:1 123:1 181:1 429:1 550:1 2758:1 
0.2800967860450096 2:1 4:1 5:1 13:1 14:1 239:1 823:1 2761:1 
0.2666469502441887 1:1 2:1 3:1 4:1 13:1 14:1 48:1 50:1 107:1 446:1 722:1 2750:1 2766:1 
0.8425247671042108 2:1 4:1 5:1 6:1 12:1 13:1 14:1 21:1 46:1 123:1 159:1 235:1 247:1 911:1 1487:1 2767:1 
1 1:1 2:1 3:1 4:1 8:1 9:1 12:1 13:1 14:1 41:1 71:1 72:1 159:1 215:1 240:1 324:1 437:1 548:1 798:1 1281:1 1895:1 2300:1 2768:1 2769:1 
1 2:1 4:1 13:1 14:1 38:1 75:1 92:1 94:1 159:1 487:1 583:1 733:1 865:1 869:1 967:1 1267:1 1653:1 1758:1 
0.5356872652464086 2:1 4:1 13:1 14:1 46:1 62:1 84:1 302:1 413:1 561:1 754:1 1061:1 2772:1 
0.3745197013899873 2:1 4:1 13:1 14:1 1024:1 
1 2:1 4:1 5:1 13:1 14:1 19:1 48:1 72:1 75:1 101:1 164:1 209:1 215:1 240:1 271:1 287:1 295:1 299:1 440:1 479:1 864:1 
1 2:1 4:1 13:1 14:1 51:1 60:1 127:1 
0.2489174131282077 2:1 4:1 12:1 13:1 14:1 157:1 270:1 302:1 469:1 708:1 926:1 1182:1 1374:1 1496:1 2340:1 2788:1 2789:1 2790:1 2791:1 2792:1 2793:1 2794:1 2795:1 2796:1 2797:1 2798:1 
0.05243968508111543 1:1 2:1 3:1 4:1 12:1 13:1 14:1 42:1 56:1 72:1 82:1 286:1 1496:1 2799:1 2800:1 2801:1 2802:1 2803:1 2804:1 2805:1 
0.7399960268210326 1:1 2:1 3:1 4:1 13:1 14:1 48:1 73:1 101:1 225:1 2806:1 2807:1 
0.7197941007034442 2:1 4:1 13:1 14:1 82:1 97:1 101:1 102:1 164:1 1600:1 1670:1 
1 1:1 2:1 3:1 4:1 5:1 9:1 13:1 14:1 19:1 27:1 30:1 32:1 38:1 48:1 73:1 84:1 95:1 109:1 163:1 199:1 279:1 282:1 311:1 315:1 320:1 967:1 1406:1 2317:1 2811:1 
0.2335103417607052 2:1 4:1 13:1 14:1 63:1 127:1 2813:1 
0.05471281324847847 2:1 4:1 13:1 14:1 122:1 194:1 362:1 504:1 568:1 2819:1 2820:1 
1 1:1 2:1 3:1 4:1 5:1 13:1 14:1 19:1 38:1 75:1 90:1 97:1 519:1 823:1 2823:1 
1 1:1 2:1 3:1 4:1 13:1 14:1 50:1 203:1 647:1 
0.9739760152902683 1:1 2:1 3:1 4:1 13:1 14:1 19:1 27:1 63:1 72:1 76:1 84:1 90:1 196:1 262:1 410:1 413:1 440:1 641:1 847:1 865:1 869:1 1003:1 1135:1 2825:1 2826:1 2827:1 
1 2:1 4:1 8:1 13:1 14:1 27:1 41:1 72:1 315:1 326:1 448:1 604:1 1436:1 2023:1 2088:1 2836:1 2837:1 
1 2:1 4:1 13:1 14:1 46:1 52:1 63:1 68:1 75:1 95:1 101:1 107:1 163:1 316:1 422:1 462:1 938:1 1690:1 1908:1 
1 2:1 4:1 5:1 13:1 14:1 47:1 52:1 72:1 823:1 
1 1:1 2:1 3:1 4:1 13:1 14:1 19:1 82:1 90:1 
0.4678834074303006 2:1 4:1 13:1 14:1 30:1 63:1 262:1 410:1 429:1 2862:1 2863:1 
0.394209383056726 2:1 4:1 13:1 14:1 38:1 42:1 65:1 114:1 116:1 239:1 1608:1 2379:1 2864:1 2865:1 2866:1 
0.2337858741994005 2:1 4:1 5:1 13:1 14:1 46:1 60:1 2867:1 
0.1198457472298595 2:1 4:1 13:1 14:1 46:1 55:1 61:1 71:1 75:1 94:1 99:1 465:1 1125:1 1302:1 1529:1 1538:1 2596:1 2868:1 2869:1 2870:1 
0.1977039716110804 1:1 2:1 3:1 4:1 5:1 8:1 12:1 13:1 14:1 19:1 55:1 61:1 62:1 66:1 92:1 101:1 109:1 164:1 182:1 196:1 203:1 248:1 480:1 507:1 600:1 712:1 911:1 1029:1 1030:1 1032:1 1455:1 2874:1 2875:1 2876:1 
1 2:1 4:1 13:1 14:1 123:1 238:1 620:1 
0.7560603603586349 2:1 4:1 12:1 13:1 14:1 63:1 68:1 71:1 75:1 127:1 130:1 147:1 229:1 244:1 413:1 743:1 1028:1 1297:1 1690:1 2222:1 2716:1 2717:1 2879:1 2880:1 
0.08554801663457239 2:1 4:1 13:1 14:1 65:1 2881:1 2882:1 2883:1 2884:1 
0.4156307250745301 2:1 4:1 13:1 14:1 48:1 201:1 202:1 712:1 2887:1 2888:1 
0.6609296110698479 2:1 4:1 12:1 13:1 14:1 229:1 337:1 2891:1 
0.1036873722198094 1:1 2:1 3:1 4:1 12:1 13:1 14:1 38:1 50:1 60:1 75:1 101:1 361:1 548:1 2061:1 2279:1 
0.996299921377679 1:1 2:1 3:1 4:1 13:1 14:1 19:1 90:1 222:1 376:1 954:1 2620:1 
0.1619982151907349 1:1 2:1 3:1 4:1 5:1 13:1 14:1 19:1 27:1 42:1 48:1 135:1 150:1 167:1 181:1 233:1 311:1 315:1 440:1 694:1 1418:1 2896:1 2897:1 2898:1 
1 2:1 4:1 5:1 9:1 13:1 14:1 27:1 60:1 75:1 111:1 171:1 201:1 379:1 561:1 798:1 854:1 1116:1 1189:1 1300:1 2457:1 2488:1 2750:1 
0.8463572202349334 2:1 4:1 13:1 14:1 2913:1 
0.1364942945670917 2:1 4:1 8:1 13:1 14:1 43:1 47:1 50:1 63:1 68:1 71:1 72:1 75:1 108:1 109:1 150:1 159:1 267:1 282:1 318:1 344:1 347:1 382:1 412:1 781:1 792:1 805:1 
1 2:1 4:1 5:1 10:1 13:1 14:1 47:1 95:1 109:1 202:1 203:1 340:1 572:1 2586:1 
0.3508505538788247 1:1 2:1 3:1 4:1 5:1 9:1 10:1 13:1 14:1 19:1 48:1 50:1 75:1 170:1 196:1 262:1 302:1 315:1 458:1 463:1 505:1 507:1 1866:1 2922:1 2923:1 
1 2:1 4:1 5:1 6:1 13:1 14:1 52:1 71:1 75:1 84:1 172:1 240:1 251:1 282:1 312:1 422:1 429:1 2931:1 2932:1 
0.6716094881088942 2:1 4:1 13:1 14:1 42:1 159:1 211:1 2936:1 2937:1 
0.1793903846791461 1:1 2:1 3:1 4:1 13:1 14:1 40:1 51:1 262:1 478:1 641:1 2943:1 
0.002904487347629738 1:1 2:1 3:1 4:1 12:1 13:1 14:1 27:1 302:1 2173:1 2174:1 
0.2537116072738561 2:1 4:1 13:1 14:1 108:1 109:1 302:1 662:1 2944:1 
0.04374774577340239 1:1 2:1 3:1 4:1 13:1 14:1 19:1 82:1 107:1 177:1 233:1 1003:1 2049:1 
0.1318848673304632 1:1 2:1 3:1 4:1 12:1 13:1 14:1 19:1 75:1 90:1 114:1 194:1 346:1 719:1 1243:1 2849:1 2850:1 
1 2:1 4:1 5:1 13:1 14:1 19:1 47:1 52:1 61:1 63:1 84:1 295:1 807:1 808:1 823:1 
1 1:1 2:1 3:1 4:1 8:1 13:1 14:1 32:1 47:1 72:1 82:1 84:1 92:1 95:1 101:1 239:1 639:1 999:1 
1 2:1 4:1 12:1 13:1 14:1 31:1 38:1 46:1 63:1 75:1 135:1 231:1 326:1 413:1 1018:1 1150:1 1189:1 2951:1 
0.3589608082083834 2:1 4:1 13:1 14:1 51:1 63:1 101:1 115:1 216:1 343:1 1638:1 
0.2356838988489327 2:1 4:1 13:1 14:1 19:1 46:1 50:1 65:1 72:1 75:1 79:1 396:1 886:1 1297:1 1600:1 1891:1 2959:1 2960:1 2961:1 2962:1 2963:1 
1 1:1 2:1 3:1 4:1 5:1 12:1 13:1 14:1 27:1 48:1 84:1 93:1 109:1 229:1 233:1 294:1 327:1 329:1 331:1 392:1 733:1 983:1 1069:1 
1 1:1 2:1 3:1 4:1 8:1 13:1 14:1 19:1 50:1 84:1 90:1 95:1 109:1 710:1 733:1 1327:1 
0.7078327368356625 2:1 4:1 5:1 13:1 14:1 46:1 72:1 75:1 123:1 156:1 192:1 277:1 522:1 1736:1 2973:1 2974:1 
1 2:1 4:1 12:1 13:1 14:1 1404:1 2074:1 2272:1 
0.05337779639055346 1:1 2:1 3:1 4:1 12:1 13:1 14:1 42:1 101:1 1485:1 1496:1 2976:1 2977:1 2978:1 2979:1 2980:1 2981:1 
1 2:1 4:1 13:1 14:1 48:1 56:1 63:1 71:1 77:1 107:1 326:1 349:1 471:1 1690:1 
1 2:1 4:1 13:1 14:1 72:1 82:1 109:1 150:1 324:1 385:1 548:1 1070:1 
0.06235055150741959 1:1 2:1 3:1 4:1 13:1 14:1 30:1 38:1 48:1 79:1 101:1 164:1 210:1 2986:1 
0.1766003189643228 1:1 2:1 3:1 4:1 13:1 14:1 19:1 46:1 55:1 63:1 75:1 90:1 471:1 1690:1 2987:1 2988:1 2989:1 
0.688059162372595 2:1 4:1 13:1 14:1 535:1 2990:1 
1 1:1 2:1 3:1 4:1 13:1 14:1 29:1 31:1 63:1 101:1 138:1 1018:1 
0.516056110224409 1:1 2:1 3:1 4:1 8:1 13:1 14:1 19:1 29:1 31:1 34:1 47:1 63:1 68:1 95:1 109:1 311:1 320:1 326:1 735:1 743:1 1018:1 2303:1 2389:1 2390:1 2995:1 
1 2:1 4:1 5:1 13:1 14:1 55:1 75:1 76:1 84:1 109:1 159:1 229:1 502:1 818:1 1327:1 
1 1:1 2:1 3:1 4:1 13:1 14:1 42:1 75:1 106:1 107:1 150:1 240:1 355:1 497:1 865:1 869:1 2179:1 2930:1 3007:1 
0.454505975657489 2:1 4:1 13:1 14:1 63:1 75:1 429:1 822:1 
0.4859656170991595 1:1 2:1 3:1 4:1 5:1 19:1 42:1 46:1 72:1 86:1 90:1 150:1 267:1 347:1 357:1 476:1 740:1 759:1 774:1 1653:1 1895:1 2639:1 2770:1 3011:1 
1 1:1 2:1 3:1 4:1 12:1 13:1 14:1 47:1 48:1 72:1 119:1 175:1 429:1 502:1 
0.5236850164456927 2:1 4:1 5:1 13:1 14:1 19:1 34:1 65:1 71:1 72:1 84:1 145:1 149:1 226:1 293:1 326:1 339:1 562:1 625:1 658:1 805:1 898:1 964:1 1119:1 3016:1 
0.7880391921218542 1:1 2:1 3:1 4:1 13:1 14:1 50:1 55:1 72:1 82:1 315:1 1430:1 1875:1 3017:1 
0.2350151412562509 2:1 4:1 9:1 13:1 14:1 27:1 38:1 42:1 46:1 232:1 351:1 685:1 1058:1 1074:1 1653:1 1724:1 1867:1 1895:1 
0.2688279525203006 2:1 4:1 8:1 13:1 14:1 50:1 60:1 61:1 63:1 72:1 75:1 353:1 444:1 641:1 778:1 3020:1 3021:1 3022:1 
1 1:1 2:1 3:1 4:1 13:1 14:1 
0.03824155268374648 2:1 4:1 5:1 13:1 14:1 60:1 743:1 3024:1 
0.9226980999576342 1:1 2:1 3:1 4:1 9:1 13:1 14:1 19:1 56:1 92:1 101:1 214:1 458:1 3025:1 
0.5372374155092274 2:1 4:1 13:1 14:1 27:1 48:1 72:1 75:1 79:1 196:1 282:1 406:1 410:1 477:1 565:1 680:1 1770:1 3026:1 3027:1 3028:1 
0.3918954577752463 2:1 4:1 13:1 14:1 63:1 66:1 72:1 75:1 210:1 215:1 756:1 880:1 
1 1:1 2:1 3:1 4:1 13:1 14:1 75:1 101:1 251:1 326:1 434:1 774:1 1758:1 
0.1307644492047366 2:1 4:1 13:1 14:1 48:1 101:1 200:1 3039:1 
1 1:1 2:1 3:1 4:1 13:1 14:1 19:1 23:1 32:1 61:1 72:1 75:1 99:1 159:1 238:1 325:1 743:1 813:1 845:1 949:1 1046:1 1742:1 1744:1 3041:1 
0.4737536792325469 1:1 2:1 3:1 4:1 5:1 8:1 13:1 14:1 19:1 46:1 51:1 56:1 63:1 72:1 90:1 95:1 109:1 127:1 158:1 165:1 247:1 282:1 347:1 367:1 494:1 622:1 628:1 641:1 3042:1 3043:1 3044:1 
0.2714477621558687 2:1 4:1 13:1 14:1 182:1 1946:1 
1 2:1 4:1 5:1 6:1 13:1 14:1 71:1 95:1 109:1 315:1 344:1 576:1 1538:1 
0.7663059791813416 1:1 2:1 3:1 4:1 8:1 13:1 14:1 19:1 90:1 94:1 102:1 215:1 282:1 347:1 908:1 1233:1 1298:1 3046:1 3047:1 3048:1 
1 2:1 4:1 5:1 6:1 9:1 12:1 13:1 14:1 27:1 32:1 56:1 71:1 75:1 84:1 92:1 99:1 116:1 186:1 208:1 229:1 240:1 289:1 497:1 498:1 992:1 2590:1 3049:1 
0.1310612596779091 1:1 2:1 3:1 4:1 10:1 13:1 14:1 29:1 63:1 71:1 75:1 185:1 410:1 422:1 674:1 2044:1 2302:1 3050:1 3051:1 3052:1 
0.3378961440682647 2:1 4:1 5:1 12:1 13:1 14:1 29:1 33:1 38:1 84:1 150:1 210:1 239:1 240:1 341:1 805:1 1505:1 3054:1 
0.1284708788152976 2:1 4:1 13:1 14:1 63:1 75:1 503:1 866:1 
1 2:1 4:1 9:1 13:1 14:1 27:1 34:1 42:1 46:1 48:1 50:1 71:1 108:1 109:1 111:1 159:1 214:1 240:1 282:1 347:1 476:1 479:1 507:1 560:1 680:1 768:1 1357:1 1637:1 
1 2:1 4:1 13:1 14:1 72:1 202:1 239:1 251:1 340:1 385:1 604:1 
1 2:1 4:1 13:1 14:1 42:1 159:1 363:1 379:1 522:1 561:1 1191:1 
1 1:1 2:1 3:1 4:1 13:1 14:1 175:1 283:1 
0.250176423370627 2:1 4:1 5:1 13:1 14:1 42:1 48:1 99:1 137:1 158:1 160:1 167:1 204:1 258:1 389:1 477:1 2374:1 3069:1 
0.6267279882321128 1:1 2:1 3:1 4:1 5:1 6:1 8:1 13:1 14:1 50:1 57:1 63:1 74:1 75:1 99:1 107:1 109:1 130:1 147:1 679:1 817:1 961:1 1267:1 1529:1 2786:1 
0.4573154197647306 2:1 4:1 5:1 6:1 13:1 14:1 44:1 71:1 84:1 156:1 229:1 239:1 759:1 3081:1 3082:1 
1 2:1 4:1 5:1 12:1 13:1 14:1 27:1 63:1 84:1 135:1 147:1 150:1 199:1 229:1 282:1 312:1 363:1 487:1 658:1 1455:1 3083:1 3084:1 3085:1 
1 1:1 2:1 3:1 4:1 13:1 14:1 19:1 32:1 42:1 46:1 48:1 63:1 72:1 90:1 300:1 326:1 487:1 507:1 576:1 992:1 1074:1 1144:1 
1 2:1 4:1 10:1 13:1 14:1 84:1 233:1 251:1 351:1 385:1 609:1 
0.3009671578237126 2:1 4:1 13:1 14:1 568:1 992:1 2520:1 3097:1 
0.3376485847919108 1:1 2:1 3:1 4:1 9:1 12:1 13:1 14:1 19:1 63:1 71:1 90:1 107:1 109:1 238:1 240:1 267:1 420:1 548:1 1103:1 1334:1 1773:1 3099:1 3100:1 
0.7556245546960799 1:1 2:1 3:1 4:1 8:1 13:1 14:1 55:1 72:1 73:1 101:1 147:1 349:1 364:1 560:1 677:1 710:1 3102:1 
0.009762995701252837 2:1 4:1 10:1 12:1 13:1 14:1 16:1 29:1 42:1 46:1 56:1 64:1 66:1 76:1 79:1 84:1 163:1 306:1 337:1 532:1 601:1 845:1 1078:1 1094:1 1438:1 3113:1 
0.3824277183129906 2:1 4:1 5:1 13:1 14:1 42:1 175:1 233:1 277:1 351:1 471:1 631:1 3114:1 3115:1 
0.02114295734061833 2:1 4:1 5:1 13:1 14:1 38:1 52:1 75:1 82:1 109:1 142:1 229:1 548:1 1429:1 1470:1 3014:1 3116:1 3117:1 3118:1 
1 1:1 2:1 3:1 4:1 12:1 13:1 14:1 240:1 337:1 625:1 817:1 2179:1 
1 1:1 2:1 3:1 4:1 5:1 13:1 14:1 42:1 48:1 54:1 99:1 156:1 215:1 444:1 639:1 847:1 
1 2:1 4:1 13:1 14:1 19:1 122:1 295:1 299:1 3125:1 
1 2:1 4:1 5:1 10:1 13:1 14:1 19:1 72:1 84:1 137:1 145:1 147:1 148:1 149:1 160:1 177:1 178:1 194:1 211:1 222:1 295:1 299:1 
0.2407695943766513 2:1 4:1 5:1 13:1 14:1 63:1 84:1 99:1 194:1 1624:1 3131:1 
0.02130004830672632 2:1 4:1 5:1 6:1 13:1 14:1 3132:1 3133:1 
1 2:1 4:1 13:1 14:1 84:1 92:1 312:1 349:1 350:1 503:1 687:1 1600:1 3134:1 
1 2:1 4:1 5:1 13:1 14:1 108:1 109:1 159:1 306:1 512:1 2130:1 3135:1 
1 1:1 2:1 3:1 4:1 8:1 13:1 14:1 42:1 46:1 71:1 75:1 99:1 101:1 107:1 109:1 113:1 159:1 366:1 2309:1 2590:1 
1 2:1 4:1 10:1 13:1 14:1 16:1 72:1 75:1 160:1 175:1 497:1 1478:1 1653:1 3137:1 
0.5652895030823791 1:1 2:1 3:1 4:1 5:1 13:1 14:1 19:1 38:1 46:1 54:1 75:1 84:1 90:1 95:1 107:1 109:1 119:1 126:1 159:1 165:1 222:1 352:1 444:1 590:1 865:1 869:1 3147:1 3148:1 
0.02373627426345768 1:1 2:1 3:1 4:1 12:1 13:1 14:1 48:1 55:1 3149:1 3150:1 3151:1 3152:1 3153:1 3154:1 3155:1 
0.1276493929391908 1:1 2:1 3:1 4:1 9:1 12:1 13:1 14:1 19:1 60:1 90:1 99:1 101:1 109:1 147:1 159:1 200:1 1603:1 3112:1 3156:1 3157:1 3158:1 
0.2013707046171855 2:1 4:1 10:1 13:1 14:1 19:1 42:1 46:1 72:1 75:1 82:1 84:1 107:1 295:1 299:1 484:1 646:1 1339:1 1548:1 3162:1 
0.1965455322340111 2:1 4:1 13:1 14:1 34:1 76:1 84:1 484:1 2517:1 3163:1 
1 2:1 4:1 13:1 14:1 34:1 42:1 63:1 135:1 625:1 1000:1 3165:1 
1 2:1 4:1 9:1 13:1 14:1 19:1 42:1 63:1 145:1 149:1 159:1 189:1 240:1 678:1 
1 2:1 4:1 13:1 14:1 131:1 150:1 201:1 202:1 251:1 
1 1:1 2:1 3:1 4:1 13:1 14:1 20:1 32:1 40:1 363:1 3173:1 
1 2:1 4:1 5:1 13:1 14:1 72:1 82:1 93:1 95:1 109:1 215:1 251:1 262:1 384:1 847:1 1589:1 1692:1 
0.3831179237363435 2:1 4:1 13:1 14:1 48:1 101:1 109:1 164:1 412:1 413:1 3177:1 
1 2:1 4:1 13:1 14:1 141:1 186:1 215:1 1762:1 
1 2:1 4:1 13:1 14:1 27:1 63:1 105:1 163:1 477:1 
1 2:1 4:1 13:1 14:1 48:1 63:1 127:1 135:1 141:1 205:1 239:1 502:1 622:1 2310:1 
0.160519873471045 2:1 4:1 13:1 14:1 56:1 72:1 1199:1 3190:1 3191:1 3192:1 3193:1 
0.04776466232160969 2:1 4:1 13:1 14:1 240:1 743:1 2562:1 3198:1 3199:1 
1 2:1 4:1 9:1 13:1 14:1 63:1 127:1 287:1 642:1 
1 2:1 4:1 13:1 14:1 42:1 798:1 1668:1 1728:1 
0.01056938470307175 1:1 2:1 3:1 4:1 8:1 12:1 13:1 14:1 19:1 42:1 47:1 63:1 76:1 295:1 300:1 312:1 865:1 869:1 911:1 2346:1 3203:1 3204:1 3205:1 
1 2:1 4:1 13:1 14:1 38:1 46:1 63:1 65:1 75:1 124:1 215:1 327:1 428:1 1457:1 2727:1 3220:1 
0.1038050376327079 1:1 2:1 3:1 4:1 12:1 13:1 14:1 25:1 38:1 108:1 109:1 172:1 282:1 642:1 647:1 1186:1 3206:1 
0.6458910156803257 1:1 2:1 3:1 4:1 13:1 14:1 41:1 63:1 78:1 99:1 135:1 215:1 222:1 315:1 444:1 743:1 971:1 3226:1 3227:1 
0.5322703327711268 2:1 4:1 5:1 13:1 14:1 63:1 72:1 75:1 78:1 150:1 164:1 262:1 347:1 520:1 673:1 847:1 997:1 3228:1 
1 2:1 4:1 13:1 14:1 65:1 84:1 123:1 434:1 680:1 694:1 956:1 1487:1 
1 1:1 2:1 3:1 4:1 13:1 14:1 19:1 72:1 90:1 1144:1 1400:1 3235:1 3236:1 3237:1 
0.1962954100753286 2:1 4:1 10:1 13:1 14:1 992:1 3245:1 
1 1:1 2:1 3:1 4:1 10:1 12:1 13:1 14:1 27:1 38:1 42:1 46:1 48:1 101:1 108:1 109:1 124:1 192:1 232:1 239:1 240:1 329:1 331:1 392:1 560:1 742:1 809:1 1368:1 3246:1 3247:1 
0.9318357560022416 2:1 4:1 13:1 14:1 34:1 48:1 62:1 63:1 68:1 79:1 101:1 212:1 233:1 334:1 1188:1 
0.1591697581543113 2:1 4:1 13:1 14:1 20:1 30:1 147:1 251:1 329:1 331:1 392:1 414:1 484:1 767:1 1637:1 2446:1 2541:1 3259:1 3260:1 3261:1 3262:1 3263:1 3264:1 3265:1 3266:1 3267:1 
1 2:1 4:1 5:1 13:1 14:1 46:1 63:1 78:1 92:1 95:1 109:1 165:1 262:1 
1 2:1 4:1 5:1 10:1 13:1 14:1 38:1 150:1 216:1 239:1 281:1 337:1 409:1 625:1 2845:1 
1 1:1 2:1 3:1 4:1 13:1 14:1 350:1 
0.008987392280652658 2:1 4:1 5:1 13:1 14:1 72:1 109:1 142:1 150:1 167:1 229:1 316:1 334:1 338:1 604:1 1032:1 1443:1 2724:1 2887:1 3280:1 3281:1 
1 2:1 4:1 5:1 13:1 14:1 95:1 99:1 109:1 202:1 340:1 1135:1 3284:1 
1 2:1 4:1 13:1 14:1 42:1 72:1 215:1 251:1 262:1 312:1 385:1 497:1 687:1 3285:1 
0.9082064841548858 2:1 4:1 5:1 6:1 12:1 13:1 14:1 19:1 27:1 29:1 63:1 84:1 99:1 120:1 145:1 149:1 215:1 248:1 293:1 295:1 299:1 329:1 331:1 392:1 722:1 913:1 1124:1 1194:1 2315:1 2503:1 2786:1 3287:1 3288:1 3289:1 
0.5178142001738206 2:1 4:1 8:1 13:1 14:1 34:1 240:1 326:1 694:1 3290:1 3291:1 
0.2290456906625671 1:1 2:1 3:1 4:1 13:1 14:1 63:1 101:1 214:1 3294:1 3295:1 
0.05560752467133689 2:1 4:1 12:1 13:1 14:1 306:1 414:1 431:1 434:1 1259:1 3296:1 3297:1 
1 2:1 4:1 5:1 13:1 14:1 20:1 32:1 75:1 93:1 109:1 150:1 306:1 473:1 479:1 794:1 818:1 864:1 
1 2:1 4:1 5:1 9:1 13:1 14:1 48:1 63:1 84:1 92:1 99:1 101:1 107:1 112:1 119:1 164:1 165:1 174:1 231:1 294:1 325:1 349:1 590:1 1311:1 1739:1 2398:1 3003:1 
0.363927406420488 1:1 2:1 3:1 4:1 13:1 14:1 32:1 84:1 107:1 150:1 196:1 738:1 3049:1 3303:1 
0.0539745060554641 1:1 2:1 3:1 4:1 13:1 14:1 19:1 78:1 90:1 101:1 145:1 149:1 1194:1 1641:1 3221:1 3299:1 3300:1 3304:1 3305:1 3306:1 3307:1 3308:1 3309:1 3310:1 
0.03410744181876638 2:1 4:1 13:1 14:1 3317:1 3318:1 
0.4377819499480215 1:1 2:1 3:1 4:1 13:1 14:1 19:1 38:1 48:1 84:1 90:1 239:1 3322:1 3323:1 
0.5709030401407437 2:1 4:1 5:1 10:1 13:1 14:1 29:1 42:1 71:1 111:1 331:1 379:1 380:1 2194:1 2590:1 3328:1 3329:1 
1 2:1 4:1 13:1 14:1 25:1 30:1 84:1 649:1 1199:1 2476:1 
1 2:1 4:1 13:1 14:1 32:1 42:1 46:1 56:1 60:1 84:1 122:1 141:1 253:1 826:1 1140:1 1273:1 1832:1 1986:1 
0.7880941042881079 2:1 4:1 5:1 9:1 13:1 14:1 27:1 32:1 326:1 2044:1 3330:1 
1 2:1 4:1 5:1 13:1 14:1 29:1 47:1 52:1 63:1 72:1 84:1 95:1 109:1 150:1 235:1 347:1 483:1 507:1 548:1 3335:1 
0.2344608707435568 2:1 4:1 13:1 14:1 47:1 63:1 72:1 222:1 239:1 364:1 380:1 649:1 915:1 3341:1 
1 2:1 4:1 5:1 13:1 14:1 27:1 46:1 65:1 72:1 93:1 3345:1 
0.09646050419793958 2:1 4:1 5:1 10:1 12:1 13:1 14:1 19:1 27:1 41:1 66:1 75:1 99:1 175:1 194:1 203:1 282:1 295:1 329:1 331:1 344:1 349:1 379:1 392:1 618:1 684:1 719:1 1003:1 1356:1 1566:1 1976:1 3348:1 3349:1 
1 2:1 4:1 13:1 14:1 63:1 108:1 109:1 1690:1 2806:1 
0.1122866962036264 1:1 2:1 3:1 4:1 5:1 13:1 14:1 19:1 23:1 30:1 47:1 63:1 72:1 84:1 95:1 142:1 311:1 320:1 364:1 480:1 1119:1 1232:1 3350:1 3351:1 
0.05752445269346642 2:1 4:1 13:1 14:1 71:1 75:1 3359:1 3360:1 
0.4996261430910058 2:1 4:1 10:1 13:1 14:1 27:1 29:1 56:1 75:1 154:1 156:1 305:1 845:1 1812:1 1833:1 2055:1 
0.3000759521281436 2:1 4:1 5:1 13:1 14:1 38:1 52:1 75:1 84:1 150:1 159:1 312:1 989:1 3366:1 3367:1 
0.7722232455767406 1:1 2:1 3:1 4:1 13:1 14:1 215:1 1408:1 2620:1 
0.1603527617184101 1:1 2:1 3:1 4:1 5:1 13:1 14:1 19:1 32:1 52:1 90:1 99:1 115:1 181:1 597:1 694:1 2194:1 3374:1 
1 1:1 2:1 3:1 4:1 13:1 14:1 27:1 48:1 101:1 205:1 1074:1 1418:1 
1 2:1 4:1 13:1 14:1 48:1 84:1 262:1 410:1 437:1 1273:1 1327:1 3377:1 3378:1 3379:1 
0.4925514484498131 1:1 2:1 3:1 4:1 9:1 10:1 13:1 14:1 19:1 40:1 135:1 233:1 311:1 320:1 351:1 385:1 3010:1 
0.1356102223421801 2:1 4:1 5:1 6:1 9:1 13:1 14:1 27:1 46:1 63:1 65:1 135:1 262:1 478:1 769:1 3387:1 3388:1 
0.02069455483835933 2:1 4:1 13:1 14:1 92:1 3389:1 
0.279319991057752 2:1 4:1 13:1 14:1 42:1 150:1 159:1 211:1 212:1 946:1 3392:1 
0.8772381533031263 2:1 4:1 13:1 14:1 32:1 42:1 46:1 48:1 63:1 72:1 300:1 326:1 487:1 507:1 576:1 992:1 1074:1 1144:1 
1 1:1 2:1 3:1 4:1 5:1 12:1 13:1 14:1 63:1 73:1 74:1 147:1 150:1 240:1 347:1 
0.1380574784522929 2:1 4:1 13:1 14:1 31:1 63:1 326:1 1864:1 3399:1 
1 2:1 4:1 5:1 13:1 14:1 34:1 47:1 63:1 72:1 115:1 160:1 170:1 347:1 
1 2:1 4:1 13:1 14:1 29:1 52:1 78:1 807:1 
0.6307995837430792 1:1 2:1 3:1 4:1 5:1 10:1 13:1 14:1 63:1 75:1 95:1 101:1 120:1 126:1 165:1 315:1 471:1 631:1 894:1 1056:1 2119:1 2315:1 2492:1 3147:1 3410:1 
0.9031727718588488 2:1 4:1 13:1 14:1 19:1 29:1 71:1 145:1 149:1 326:1 3415:1 
0.5522353692512055 2:1 4:1 13:1 14:1 56:1 72:1 75:1 101:1 163:1 659:1 695:1 1327:1 3418:1 3419:1 3420:1 
1 2:1 4:1 10:1 13:1 14:1 19:1 29:1 34:1 47:1 63:1 75:1 84:1 163:1 295:1 299:1 792:1 1357:1 2068:1 
0.8678005138570569 2:1 4:1 12:1 13:1 14:1 27:1 46:1 75:1 107:1 156:1 197:1 379:1 522:1 561:1 938:1 1140:1 1357:1 1804:1 3425:1 3426:1 
1 2:1 4:1 5:1 12:1 13:1 14:1 34:1 42:1 46:1 75:1 99:1 159:1 326:1 375:1 479:1 618:1 684:1 793:1 864:1 1100:1 
1 2:1 4:1 5:1 13:1 14:1 19:1 30:1 229:1 295:1 299:1 476:1 562:1 3430:1 
0.1772951724601988 2:1 4:1 10:1 13:1 14:1 68:1 75:1 84:1 262:1 1537:1 3431:1 3432:1 3433:1 
1 1:1 2:1 3:1 4:1 13:1 14:1 84:1 122:1 507:1 
0.007864616998186157 2:1 4:1 10:1 13:1 14:1 27:1 41:1 42:1 46:1 79:1 109:1 150:1 282:1 411:1 781:1 1180:1 1302:1 1770:1 3435:1 3436:1 3437:1 3438:1 3439:1 
1 2:1 4:1 5:1 6:1 13:1 14:1 25:1 32:1 34:1 50:1 63:1 94:1 95:1 97:1 107:1 109:1 823:1 850:1 892:1 959:1 1046:1 
1 2:1 4:1 10:1 12:1 13:1 14:1 46:1 66:1 68:1 73:1 124:1 484:1 1007:1 1608:1 2716:1 3442:1 
0.06555033859316933 2:1 4:1 13:1 14:1 72:1 1144:1 1400:1 3235:1 3236:1 3237:1 
0.07141535262548947 2:1 4:1 5:1 10:1 13:1 14:1 27:1 30:1 42:1 63:1 72:1 75:1 101:1 107:1 164:1 189:1 194:1 240:1 258:1 306:1 329:1 331:1 392:1 408:1 427:1 762:1 1292:1 3443:1 
0.00728067586723068 2:1 4:1 13:1 14:1 56:1 107:1 926:1 1485:1 3446:1 3447:1 3448:1 3449:1 3450:1 3451:1 3452:1 
0.6580253758746608 1:1 2:1 3:1 4:1 13:1 14:1 19:1 42:1 311:1 845:1 2112:1 3442:1 3453:1 
0.07028434759891984 2:1 4:1 13:1 14:1 82:1 107:1 267:1 316:1 685:1 1675:1 3454:1 
0.9730080378278676 2:1 4:1 13:1 14:1 46:1 47:1 48:1 150:1 262:1 1908:1 2466:1 2655:1 
1 2:1 4:1 13:1 14:1 46:1 63:1 68:1 92:1 95:1 109:1 165:1 1210:1 2300:1 
0.1133801233156056 1:1 2:1 3:1 4:1 5:1 12:1 13:1 14:1 20:1 47:1 78:1 99:1 109:1 160:1 211:1 225:1 239:1 262:1 415:1 950:1 1603:1 3458:1 3459:1 3460:1 
0.3176005856812067 2:1 4:1 8:1 13:1 14:1 94:1 102:1 215:1 282:1 347:1 908:1 1233:1 1298:1 3046:1 3047:1 3048:1 
1 1:1 2:1 3:1 4:1 5:1 13:1 14:1 93:1 101:1 109:1 240:1 600:1 
0.01283560232959961 2:1 4:1 13:1 14:1 42:1 532:1 1102:1 3472:1 3473:1 3474:1 
1 2:1 4:1 13:1 14:1 60:1 743:1 754:1 1281:1 
0.5020166104113647 2:1 4:1 5:1 13:1 14:1 22:1 31:1 32:1 42:1 46:1 61:1 101:1 114:1 126:1 181:1 262:1 406:1 474:1 2490:1 3007:1 3475:1 3476:1 3477:1 3478:1 3479:1 3480:1 3481:1 
0.09103505290733592 2:1 4:1 5:1 13:1 14:1 27:1 108:1 109:1 248:1 251:1 347:1 616:1 896:1 1227:1 
0.9494144822448463 2:1 4:1 13:1 14:1 26:1 3503:1 
0.3035725708570607 2:1 4:1 13:1 14:1 42:1 46:1 71:1 73:1 75:1 82:1 107:1 150:1 177:1 295:1 368:1 497:1 532:1 625:1 631:1 805:1 1241:1 1270:1 1957:1 3416:1 3505:1 3506:1 3507:1 3508:1 3509:1 
1 2:1 4:1 13:1 14:1 183:1 210:1 3510:1 
1 1:1 2:1 3:1 4:1 5:1 13:1 14:1 19:1 46:1 63:1 78:1 90:1 92:1 95:1 109:1 165:1 262:1 
0.3556849962452625 2:1 4:1 13:1 14:1 27:1 42:1 56:1 60:1 75:1 78:1 147:1 150:1 159:1 160:1 170:1 189:1 329:1 331:1 349:1 353:1 392:1 410:1 444:1 483:1 684:1 817:1 1070:1 1178:1 1712:1 2279:1 3517:1 3518:1 3519:1 
0.7717553927487852 2:1 4:1 5:1 13:1 14:1 60:1 72:1 75:1 92:1 181:1 229:1 315:1 377:1 385:1 573:1 1227:1 
0.9169601394321745 2:1 4:1 5:1 13:1 14:1 41:1 63:1 75:1 175:1 240:1 326:1 347:1 3520:1 
0.6938922925133097 2:1 4:1 5:1 13:1 14:1 27:1 42:1 92:1 107:1 291:1 408:1 435:1 1608:1 2628:1 3408:1 
0.1085884562316936 2:1 4:1 12:1 13:1 14:1 107:1 122:1 141:1 362:1 479:1 3523:1 3524:1 
0.561851380200623 2:1 4:1 12:1 13:1 14:1 42:1 48:1 51:1 68:1 75:1 170:1 183:1 262:1 391:1 864:1 2019:1 3526:1 3527:1 3528:1 3529:1 
0.1255645697774151 1:1 2:1 3:1 4:1 8:1 10:1 13:1 14:1 72:1 75:1 111:1 150:1 156:1 205:1 355:1 680:1 857:1 3530:1 
0.06673110094421948 2:1 4:1 9:1 12:1 13:1 14:1 86:1 147:1 159:1 1670:1 1671:1 1958:1 3533:1 3534:1 3535:1 3536:1 
1 2:1 4:1 5:1 6:1 13:1 14:1 326:1 
0.0784188687538676 1:1 2:1 3:1 4:1 13:1 14:1 215:1 3538:1 3539:1 3540:1 3541:1 3542:1 3543:1 3544:1 3545:1 3546:1 3547:1 3548:1 3549:1 
1 2:1 4:1 5:1 13:1 14:1 32:1 63:1 120:1 1053:1 2011:1 3551:1 
0.2148400345210934 2:1 4:1 13:1 14:1 82:1 1746:1 3555:1 3556:1 
1 1:1 2:1 3:1 4:1 9:1 13:1 14:1 20:1 41:1 56:1 75:1 92:1 101:1 141:1 238:1 886:1 1652:1 
0.0499822071480665 2:1 4:1 12:1 13:1 14:1 203:1 938:1 1632:1 3561:1 3562:1 3563:1 3564:1 3565:1 3566:1 3567:1 3568:1 3569:1 
1 2:1 4:1 12:1 13:1 14:1 19:1 30:1 38:1 123:1 295:1 299:1 456:1 733:1 1319:1 2509:1 
1 2:1 4:1 13:1 14:1 20:1 84:1 159:1 358:1 759:1 774:1 1171:1 1457:1 2709:1 3573:1 
1 2:1 4:1 10:1 13:1 14:1 41:1 46:1 63:1 72:1 120:1 158:1 165:1 194:1 197:1 282:1 326:1 349:1 360:1 413:1 590:1 620:1 719:1 790:1 809:1 865:1 869:1 3574:1 
1 1:1 2:1 3:1 4:1 13:1 14:1 63:1 107:1 150:1 429:1 573:1 956:1 
0.7063880253308139 2:1 4:1 13:1 14:1 3583:1 3584:1 
1 2:1 4:1 12:1 13:1 14:1 61:1 72:1 147:1 225:1 257:1 349:1 364:1 591:1 1069:1 1150:1 1378:1 1653:1 
0.6408648824382294 2:1 4:1 13:1 14:1 48:1 75:1 84:1 159:1 483:1 792:1 3377:1 3589:1 
0.06816904495523315 2:1 4:1 13:1 14:1 3590:1 
0.09364166648092828 2:1 4:1 13:1 14:1 27:1 40:1 47:1 48:1 56:1 66:1 72:1 73:1 107:1 127:1 159:1 200:1 550:1 781:1 1330:1 1972:1 2964:1 3593:1 3594:1 3595:1 
1 1:1 2:1 3:1 4:1 5:1 13:1 14:1 34:1 63:1 181:1 232:1 347:1 385:1 1664:1 3600:1 3601:1 
1 2:1 4:1 5:1 12:1 13:1 14:1 19:1 47:1 101:1 127:1 295:1 299:1 507:1 628:1 694:1 1136:1 
0.575288802816474 2:1 4:1 12:1 13:1 14:1 27:1 48:1 200:1 671:1 1418:1 3609:1 3610:1 3611:1 
0.7168038686883569 1:1 2:1 3:1 4:1 5:1 8:1 9:1 13:1 14:1 19:1 46:1 56:1 63:1 90:1 99:1 109:1 150:1 164:1 229:1 239:1 446:1 454:1 476:1 478:1 641:1 834:1 944:1 
0.8210503837873934 2:1 4:1 13:1 14:1 46:1 63:1 66:1 75:1 251:1 304:1 326:1 507:1 1074:1 1589:1 1812:1 3614:1 3615:1 3616:1 
0.1706208601612046 2:1 4:1 13:1 14:1 38:1 75:1 122:1 209:1 210:1 3620:1 
0.4676006964372861 1:1 2:1 3:1 4:1 5:1 6:1 10:1 13:1 14:1 46:1 150:1 267:1 326:1 347:1 357:1 454:1 476:1 1914:1 2298:1 2639:1 3465:1 
0.3707499360961037 2:1 4:1 9:1 13:1 14:1 46:1 56:1 63:1 66:1 75:1 127:1 173:1 253:1 410:1 444:1 612:1 2434:1 2782:1 2958:1 3623:1 3624:1 
1 2:1 4:1 5:1 10:1 13:1 14:1 23:1 42:1 46:1 63:1 75:1 83:1 84:1 99:1 107:1 159:1 202:1 240:1 242:1 316:1 340:1 355:1 503:1 532:1 2278:1 2488:1 2992:1 3403:1 
1 1:1 2:1 3:1 4:1 7:1 10:1 13:1 14:1 29:1 54:1 72:1 75:1 77:1 78:1 3630:1 
0.4363267879390523 1:1 2:1 3:1 4:1 13:1 14:1 42:1 56:1 150:1 177:1 326:1 331:1 424:1 486:1 631:1 2823:1 
0.2313605460776268 2:1 4:1 13:1 14:1 27:1 34:1 101:1 108:1 109:1 115:1 164:1 213:1 
0.3561932874553498 2:1 4:1 13:1 14:1 27:1 30:1 34:1 48:1 56:1 63:1 82:1 95:1 109:1 159:1 422:1 560:1 845:1 3634:1 
1 2:1 4:1 10:1 13:1 14:1 63:1 72:1 107:1 251:1 385:1 1221:1 1378:1 
0.09137431567928733 2:1 4:1 13:1 14:1 63:1 71:1 72:1 127:1 135:1 159:1 194:1 210:1 329:1 331:1 392:1 434:1 892:1 956:1 1028:1 1368:1 1417:1 3643:1 3644:1 3645:1 3646:1 
0.4884704303085931 2:1 4:1 13:1 14:1 19:1 528:1 3648:1 
0.01685309360739951 2:1 4:1 5:1 6:1 13:1 14:1 31:1 63:1 75:1 326:1 1018:1 3651:1 3652:1 
0.1827941367948089 2:1 4:1 13:1 14:1 71:1 75:1 84:1 122:1 163:1 262:1 3657:1 3658:1 3659:1 
1 1:1 2:1 3:1 4:1 13:1 14:1 42:1 46:1 124:1 159:1 240:1 318:1 508:1 1884:1 
1 1:1 2:1 3:1 4:1 13:1 14:1 41:1 42:1 79:1 147:1 181:1 327:1 538:1 837:1 992:1 1180:1 3662:1 3663:1 
1 2:1 4:1 13:1 14:1 223:1 489:1 1135:1 1446:1 
1 1:1 2:1 3:1 4:1 5:1 13:1 14:1 42:1 72:1 78:1 101:1 139:1 148:1 159:1 202:1 340:1 597:1 2003:1 
0.5364462184700037 2:1 4:1 5:1 12:1 13:1 14:1 63:1 64:1 72:1 120:1 141:1 658:1 676:1 754:1 900:1 2074:1 3664:1 
0.5226794134306739 2:1 4:1 9:1 13:1 14:1 27:1 47:1 60:1 68:1 73:1 147:1 150:1 239:1 282:1 312:1 820:1 3667:1 
0.9853876770957228 2:1 4:1 5:1 12:1 13:1 14:1 47:1 108:1 109:1 111:1 150:1 282:1 302:1 421:1 490:1 522:1 767:1 854:1 902:1 1327:1 
0.5261926242382523 2:1 4:1 5:1 6:1 9:1 13:1 14:1 27:1 50:1 72:1 326:1 823:1 3403:1 3687:1 
0.5068452676343062 2:1 4:1 12:1 13:1 14:1 46:1 68:1 148:1 347:1 623:1 3688:1 
0.07751675058407284 2:1 4:1 13:1 14:1 25:1 60:1 72:1 302:1 3689:1 3690:1 
0.01523484984384395 2:1 4:1 13:1 14:1 34:1 47:1 48:1 52:1 56:1 75:1 91:1 107:1 150:1 287:1 367:1 989:1 3691:1 
0.3846505495883142 1:1 2:1 3:1 4:1 8:1 12:1 13:1 14:1 46:1 55:1 63:1 72:1 75:1 82:1 101:1 107:1 139:1 159:1 164:1 200:1 642:1 1628:1 
1 2:1 4:1 13:1 14:1 34:1 63:1 131:1 141:1 201:1 202:1 328:1 561:1 
1 2:1 4:1 13:1 14:1 19:1 52:1 82:1 145:1 149:1 823:1 967:1 
1 2:1 4:1 5:1 9:1 12:1 13:1 14:1 47:1 60:1 63:1 95:1 109:1 229:1 3118:1 3700:1 
0.2681809395290779 1:1 2:1 3:1 4:1 13:1 14:1 83:1 108:1 109:1 135:1 951:1 2958:1 3701:1 
1 1:1 2:1 3:1 4:1 8:1 13:1 14:1 48:1 82:1 92:1 95:1 109:1 215:1 507:1 600:1 865:1 869:1 944:1 3702:1 
0.1518534244333491 2:1 4:1 13:1 14:1 32:1 42:1 68:1 84:1 1670:1 3575:1 3703:1 
1 2:1 4:1 13:1 14:1 28:1 48:1 56:1 72:1 75:1 94:1 170:1 172:1 282:1 462:1 550:1 600:1 1025:1 2224:1 
1 1:1 2:1 3:1 4:1 10:1 12:1 13:1 14:1 68:1 71:1 158:1 240:1 414:1 1538:1 
1 2:1 4:1 5:1 6:1 9:1 13:1 14:1 27:1 63:1 71:1 72:1 73:1 84:1 107:1 176:1 194:1 238:1 239:1 240:1 251:1 877:1 2849:1 3705:1 
1 2:1 4:1 5:1 13:1 14:1 27:1 63:1 75:1 101:1 150:1 189:1 204:1 205:1 532:1 694:1 992:1 3143:1 
0.004719403197722303 2:1 4:1 13:1 14:1 38:1 42:1 62:1 63:1 127:1 147:1 159:1 186:1 216:1 464:1 768:1 1154:1 2464:1 2639:1 3706:1 3707:1 
0.6349348443935848 2:1 4:1 13:1 14:1 38:1 209:1 337:1 420:1 1517:1 
0.0629611956464131 2:1 4:1 13:1 14:1 30:1 65:1 72:1 107:1 316:1 507:1 1435:1 3711:1 
0.6060837476596974 1:1 2:1 3:1 4:1 5:1 13:1 14:1 46:1 55:1 63:1 135:1 204:1 421:1 542:1 756:1 1996:1 3712:1 
0.2314576134048826 1:1 2:1 3:1 4:1 13:1 14:1 19:1 90:1 215:1 883:1 1762:1 3716:1 3717:1 
0.7081463446914606 2:1 4:1 5:1 13:1 14:1 25:1 34:1 48:1 56:1 63:1 72:1 75:1 84:1 127:1 138:1 229:1 239:1 262:1 293:1 328:1 1267:1 1733:1 2119:1 2337:1 2513:1 
1 1:1 2:1 3:1 4:1 13:1 14:1 19:1 63:1 135:1 182:1 251:1 295:1 299:1 1933:1 3719:1 3720:1 
0.4413964272699665 1:1 2:1 3:1 4:1 8:1 13:1 14:1 19:1 48:1 62:1 63:1 72:1 90:1 93:1 101:1 126:1 192:1 311:1 329:1 489:1 590:1 733:1 798:1 865:1 1749:1 3178:1 
0.6944412740719105 2:1 4:1 5:1 13:1 14:1 73:1 111:1 122:1 123:1 512:1 858:1 
1 2:1 4:1 10:1 13:1 14:1 46:1 84:1 107:1 130:1 158:1 160:1 199:1 238:1 267:1 919:1 1208:1 3726:1 
1 2:1 4:1 13:1 14:1 63:1 72:1 102:1 262:1 362:1 654:1 847:1 
1 2:1 4:1 13:1 14:1 30:1 71:1 72:1 235:1 3485:1 
0.5912003107552236 1:1 2:1 3:1 4:1 13:1 14:1 101:1 197:1 365:1 366:1 729:1 3728:1 
1 2:1 4:1 12:1 13:1 14:1 27:1 32:1 60:1 63:1 65:1 71:1 101:1 115:1 164:1 262:1 485:1 548:1 785:1 1070:1 2130:1 
0.4005342690254856 2:1 4:1 13:1 14:1 72:1 919:1 3732:1 3733:1 
0.1705536971403018 2:1 4:1 10:1 13:1 14:1 55:1 64:1 68:1 75:1 101:1 197:1 366:1 379:1 1116:1 2019:1 3426:1 3734:1 3735:1 
1 1:1 2:1 3:1 4:1 13:1 14:1 51:1 73:1 130:1 315:1 318:1 
0.8453024473052958 2:1 4:1 13:1 14:1 48:1 84:1 156:1 1135:1 3738:1 
1 2:1 4:1 13:1 14:1 25:1 75:1 84:1 2357:1 
1 1:1 2:1 3:1 4:1 8:1 13:1 14:1 101:1 144:1 312:1 1194:1 1297:1 
1 2:1 4:1 12:1 13:1 14:1 225:1 349:1 2343:1 
0.00158826149636396 2:1 4:1 13:1 14:1 20:1 57:1 71:1 158:1 159:1 568:1 1120:1 3744:1 3745:1 
0.06822532738295242 2:1 4:1 13:1 14:1 3746:1 
0.2900148643485685 2:1 4:1 5:1 8:1 13:1 14:1 42:1 46:1 50:1 51:1 63:1 68:1 71:1 72:1 73:1 99:1 101:1 107:1 127:1 139:1 158:1 267:1 798:1 841:1 1812:1 2590:1 3747:1 3748:1 3749:1 
1 2:1 4:1 8:1 13:1 14:1 63:1 71:1 92:1 95:1 109:1 165:1 352:1 
0.6699665241134433 2:1 4:1 13:1 14:1 71:1 82:1 150:1 950:1 1677:1 1692:1 2448:1 3418:1 3754:1 
0.05976217760899415 2:1 4:1 13:1 14:1 63:1 503:1 3758:1 3759:1 
0.2493558860811969 2:1 4:1 13:1 14:1 30:1 212:1 2718:1 
0.1230028356696802 1:1 2:1 3:1 4:1 5:1 9:1 13:1 14:1 16:1 41:1 63:1 72:1 75:1 113:1 182:1 189:1 248:1 433:1 480:1 562:1 662:1 680:1 712:1 865:1 869:1 957:1 1003:1 1436:1 3767:1 3768:1 3769:1 
1 2:1 4:1 13:1 14:1 20:1 84:1 160:1 434:1 845:1 998:1 1094:1 1353:1 
1 2:1 4:1 13:1 14:1 30:1 127:1 216:1 365:1 
0.008310896345542123 2:1 4:1 13:1 14:1 63:1 84:1 135:1 159:1 477:1 3774:1 
1 2:1 4:1 5:1 13:1 14:1 16:1 27:1 63:1 84:1 108:1 109:1 131:1 150:1 189:1 216:1 262:1 347:1 572:1 1991:1 3663:1 
0.1869094067915004 1:1 2:1 3:1 4:1 10:1 12:1 13:1 14:1 19:1 63:1 90:1 112:1 189:1 262:1 410:1 3093:1 3094:1 3095:1 3096:1 
1 1:1 2:1 3:1 4:1 5:1 13:1 14:1 62:1 65:1 239:1 240:1 351:1 412:1 507:1 515:1 1662:1 
0.1480345888809927 2:1 4:1 13:1 14:1 47:1 55:1 107:1 192:1 349:1 515:1 518:1 712:1 739:1 1301:1 
1 2:1 4:1 8:1 13:1 14:1 34:1 54:1 55:1 66:1 71:1 84:1 95:1 107:1 109:1 189:1 215:1 282:1 288:1 647:1 733:1 944:1 1003:1 1291:1 1418:1 1556:1 1646:1 3287:1 3786:1 3787:1 
0.3682202779438237 2:1 4:1 5:1 6:1 13:1 14:1 68:1 75:1 211:1 251:1 312:1 2711:1 3788:1 
0.8030600322978081 2:1 4:1 5:1 13:1 14:1 84:1 99:1 108:1 109:1 159:1 215:1 863:1 1296:1 1762:1 3789:1 3790:1 3791:1 
0.9214630989643582 2:1 4:1 5:1 6:1 9:1 13:1 14:1 46:1 150:1 1100:1 1751:1 2561:1 3792:1 
0.03404666190183018 1:1 2:1 3:1 4:1 12:1 13:1 14:1 19:1 50:1 63:1 71:1 75:1 84:1 90:1 158:1 159:1 199:1 235:1 267:1 444:1 894:1 1938:1 2127:1 2724:1 3793:1 3794:1 
1 2:1 4:1 5:1 13:1 14:1 72:1 92:1 95:1 101:1 364:1 694:1 3136:1 
1 1:1 2:1 3:1 4:1 13:1 14:1 60:1 64:1 107:1 141:1 1522:1 3800:1 
0.06826982003909757 2:1 4:1 13:1 14:1 3804:1 
1 1:1 2:1 3:1 4:1 12:1 13:1 14:1 253:1 742:1 3808:1 
0.09997033663137193 2:1 4:1 13:1 14:1 82:1 159:1 620:1 641:1 719:1 975:1 1762:1 2362:1 3810:1 3811:1 3812:1 3813:1 3814:1 
0.2034566887305209 1:1 2:1 3:1 4:1 12:1 13:1 14:1 19:1 63:1 90:1 372:1 429:1 3490:1 3815:1 
1 2:1 4:1 13:1 14:1 767:1 3819:1 
0.1972125951410013 2:1 4:1 10:1 13:1 14:1 46:1 75:1 76:1 102:1 119:1 159:1 421:1 751:1 796:1 938:1 3820:1 3821:1 
0.1685114652808313 2:1 4:1 5:1 13:1 14:1 27:1 47:1 63:1 71:1 84:1 91:1 205:1 229:1 301:1 339:1 505:1 673:1 847:1 1044:1 1750:1 2068:1 
0.06823958463853733 2:1 4:1 13:1 14:1 3822:1 
0.3650963399929211 2:1 4:1 13:1 14:1 38:1 46:1 50:1 63:1 65:1 94:1 144:1 240:1 282:1 316:1 353:1 550:1 560:1 696:1 722:1 1297:1 1851:1 2006:1 2155:1 2541:1 3824:1 3825:1 
0.2448840066428425 2:1 4:1 5:1 6:1 13:1 14:1 46:1 55:1 239:1 240:1 251:1 376:1 604:1 835:1 1297:1 3032:1 3826:1 3827:1 
0.426142029226745 2:1 4:1 5:1 13:1 14:1 60:1 62:1 63:1 94:1 277:1 326:1 329:1 331:1 392:1 422:1 604:1 781:1 1330:1 1608:1 2026:1 3836:1 3837:1 3838:1 3839:1 
0.07419866932427148 2:1 4:1 5:1 10:1 13:1 14:1 27:1 52:1 75:1 78:1 92:1 159:1 229:1 235:1 239:1 240:1 349:1 1249:1 1604:1 1731:1 2398:1 3844:1 3845:1 3846:1 
1 1:1 2:1 3:1 4:1 5:1 12:1 13:1 14:1 73:1 150:1 347:1 446:1 472:1 560:1 2971:1 3849:1 
0.7494335354114017 2:1 4:1 13:1 14:1 19:1 72:1 160:1 204:1 258:1 295:1 299:1 420:1 3852:1 
1 1:1 2:1 3:1 4:1 13:1 14:1 19:1 27:1 34:1 90:1 101:1 108:1 109:1 115:1 164:1 213:1 
1 1:1 2:1 3:1 4:1 5:1 9:1 12:1 13:1 14:1 32:1 48:1 62:1 74:1 95:1 101:1 109:1 126:1 158:1 159:1 164:1 196:1 238:1 351:1 841:1 845:1 1151:1 2655:1 
1 1:1 2:1 3:1 4:1 13:1 14:1 19:1 27:1 40:1 46:1 55:1 97:1 145:1 149:1 337:1 729:1 1812:1 3860:1 
0.6694902963851179 2:1 4:1 13:1 14:1 63:1 78:1 127:1 1994:1 
0.2155601524890526 1:1 2:1 3:1 4:1 13:1 14:1 19:1 46:1 47:1 48:1 63:1 72:1 90:1 101:1 135:1 467:1 623:1 865:1 869:1 1124:1 3865:1 3866:1 3867:1 
0.1129839838539233 2:1 4:1 5:1 13:1 14:1 40:1 42:1 48:1 109:1 183:1 229:1 677:1 1279:1 
1 2:1 4:1 5:1 6:1 13:1 14:1 32:1 52:1 63:1 95:1 324:1 875:1 
0.09796816931127152 2:1 4:1 5:1 13:1 14:1 27:1 48:1 72:1 101:1 165:1 344:1 1517:1 3873:1 
0.2431173096482746 2:1 4:1 13:1 14:1 42:1 73:1 84:1 99:1 122:1 163:1 200:1 357:1 493:1 913:1 1436:1 3877:1 
0.3616797129333927 2:1 4:1 5:1 13:1 14:1 41:1 42:1 47:1 109:1 229:1 3878:1 
0.3275767931470019 2:1 4:1 13:1 14:1 84:1 262:1 743:1 1065:1 3879:1 
1 1:1 2:1 3:1 4:1 5:1 8:1 12:1 13:1 14:1 32:1 51:1 63:1 93:1 99:1 109:1 229:1 232:1 239:1 262:1 281:1 282:1 293:1 544:1 
1 1:1 2:1 3:1 4:1 13:1 14:1 42:1 68:1 107:1 205:1 232:1 326:1 367:1 377:1 573:1 602:1 631:1 2727:1 
1 2:1 4:1 13:1 14:1 82:1 
1 2:1 4:1 13:1 14:1 48:1 75:1 84:1 159:1 240:1 355:1 823:1 1174:1 3049:1 
0.101796172584056 2:1 4:1 5:1 9:1 10:1 12:1 13:1 14:1 41:1 46:1 63:1 78:1 92:1 107:1 127:1 200:1 214:1 215:1 476:1 561:1 641:1 767:1 835:1 1282:1 1509:1 1758:1 3504:1 3885:1 
1 2:1 4:1 13:1 14:1 41:1 42:1 56:1 240:1 305:1 678:1 1103:1 1297:1 1677:1 1971:1 2662:1 3892:1 
0.0193401312719117 2:1 4:1 13:1 14:1 68:1 437:1 3895:1 3896:1 3897:1 3898:1 
0.003703129151903453 1:1 2:1 3:1 4:1 5:1 13:1 14:1 165:1 1630:1 2628:1 
0.428442974646052 2:1 4:1 5:1 13:1 14:1 32:1 52:1 72:1 158:1 159:1 379:1 485:1 3777:1 
1 2:1 4:1 13:1 14:1 19:1 145:1 149:1 851:1 3903:1 
1 2:1 4:1 5:1 13:1 14:1 38:1 52:1 62:1 75:1 78:1 95:1 101:1 107:1 109:1 165:1 238:1 532:1 612:1 628:1 680:1 1517:1 
0.06214601085809109 2:1 4:1 13:1 14:1 232:1 326:1 739:1 2211:1 3904:1 
0.5255277621123499 1:1 2:1 3:1 4:1 13:1 14:1 19:1 48:1 90:1 240:1 247:1 612:1 3906:1 3907:1 
1 2:1 4:1 5:1 10:1 13:1 14:1 46:1 63:1 94:1 99:1 106:1 158:1 240:1 251:1 282:1 315:1 368:1 477:1 769:1 1327:1 1436:1 2663:1 3909:1 
1 2:1 4:1 13:1 14:1 72:1 78:1 337:1 472:1 625:1 1136:1 3901:1 
0.9418057753830464 2:1 4:1 13:1 14:1 34:1 40:1 41:1 56:1 63:1 68:1 71:1 84:1 106:1 107:1 158:1 159:1 164:1 196:1 780:1 1319:1 1670:1 1954:1 2301:1 2577:1 3911:1 
0.7154796159575986 2:1 4:1 13:1 14:1 72:1 306:1 433:1 620:1 2130:1 
1 2:1 4:1 13:1 14:1 29:1 34:1 46:1 63:1 65:1 108:1 109:1 131:1 312:1 334:1 
1 1:1 2:1 3:1 4:1 5:1 10:1 13:1 14:1 19:1 52:1 72:1 75:1 90:1 95:1 99:1 109:1 130:1 164:1 170:1 262:1 282:1 329:1 331:1 389:1 392:1 786:1 2768:1 3361:1 3914:1 3915:1 
0.2110784067168064 2:1 4:1 5:1 13:1 14:1 32:1 101:1 104:1 107:1 164:1 181:1 182:1 610:1 793:1 3920:1 
1 2:1 4:1 13:1 14:1 29:1 31:1 63:1 326:1 1018:1 
0.01541057141119158 2:1 4:1 5:1 13:1 14:1 63:1 75:1 99:1 203:1 240:1 409:1 1606:1 2004:1 2027:1 3008:1 3921:1 3922:1 
1 1:1 2:1 3:1 4:1 13:1 14:1 63:1 72:1 413:1 1538:1 3931:1 
0.9163917705268485 2:1 4:1 8:1 13:1 14:1 72:1 99:1 107:1 267:1 561:1 743:1 3932:1 3933:1 3934:1 
0.01162726250009692 2:1 4:1 10:1 13:1 14:1 63:1 75:1 84:1 127:1 262:1 1357:1 1732:1 3935:1 
1 2:1 4:1 13:1 14:1 48:1 84:1 239:1 327:1 2277:1 2717:1 
0.4000769637813931 2:1 4:1 13:1 14:1 30:1 34:1 38:1 95:1 109:1 
0.1266842520602148 1:1 2:1 3:1 4:1 5:1 13:1 14:1 32:1 47:1 72:1 107:1 197:1 273:1 315:1 364:1 847:1 3938:1 
1 2:1 4:1 5:1 13:1 14:1 46:1 47:1 66:1 101:1 127:1 150:1 170:1 216:1 251:1 262:1 
0.3520581029340643 2:1 4:1 9:1 12:1 13:1 14:1 27:1 42:1 46:1 56:1 71:1 73:1 116:1 137:1 141:1 197:1 368:1 435:1 625:1 873:1 3944:1 
1 2:1 4:1 9:1 13:1 14:1 27:1 34:1 42:1 63:1 72:1 75:1 123:1 135:1 315:1 385:1 389:1 817:1 3948:1 
1 2:1 4:1 13:1 14:1 48:1 75:1 159:1 604:1 975:1 3004:1 
1 2:1 4:1 13:1 14:1 82:1 
0.4665273215352245 1:1 2:1 3:1 4:1 12:1 13:1 14:1 19:1 42:1 58:1 84:1 92:1 101:1 159:1 170:1 311:1 320:1 759:1 919:1 1162:1 3620:1 
1 1:1 2:1 3:1 4:1 5:1 13:1 14:1 19:1 90:1 150:1 165:1 326:1 823:1 
1 2:1 4:1 13:1 14:1 19:1 32:1 52:1 71:1 101:1 177:1 178:1 232:1 237:1 326:1 347:1 409:1 462:1 474:1 507:1 560:1 781:1 
0.1651138879693191 1:1 2:1 3:1 4:1 5:1 12:1 13:1 14:1 30:1 38:1 63:1 92:1 147:1 181:1 215:1 347:1 502:1 604:1 793:1 1040:1 1303:1 3478:1 3960:1 3961:1 
0.6006233186258275 2:1 4:1 13:1 14:1 430:1 3965:1 
1 2:1 4:1 5:1 13:1 14:1 38:1 81:1 84:1 99:1 159:1 349:1 642:1 966:1 2786:1 3159:1 
0.7425072569756848 2:1 4:1 5:1 8:1 13:1 14:1 92:1 479:1 1436:1 2031:1 3970:1 
1 2:1 4:1 13:1 14:1 72:1 137:1 141:1 362:1 
0.08287467295994258 2:1 4:1 5:1 13:1 14:1 38:1 42:1 84:1 99:1 109:1 170:1 225:1 398:1 618:1 701:1 1116:1 1194:1 2083:1 3978:1 3979:1 3980:1 
1 1:1 2:1 3:1 4:1 8:1 12:1 13:1 14:1 101:1 107:1 145:1 239:1 331:1 367:1 573:1 654:1 944:1 3982:1 
1 2:1 4:1 5:1 13:1 14:1 63:1 95:1 109:1 127:1 347:1 658:1 
0.4751395455676444 2:1 4:1 5:1 13:1 14:1 27:1 32:1 42:1 47:1 50:1 147:1 163:1 239:1 368:1 391:1 864:1 3983:1 
0.7537463240241546 2:1 4:1 13:1 14:1 63:1 127:1 135:1 704:1 
0.1595421944372589 2:1 4:1 13:1 14:1 47:1 63:1 122:1 123:1 143:1 413:1 507:1 2019:1 3134:1 3984:1 
0.1908483094202904 2:1 4:1 13:1 14:1 62:1 101:1 123:1 309:1 434:1 1762:1 3985:1 
1 2:1 4:1 13:1 14:1 48:1 84:1 101:1 164:1 462:1 807:1 1273:1 3995:1 
1 2:1 4:1 5:1 13:1 14:1 27:1 34:1 63:1 95:1 130:1 328:1 
1 1:1 2:1 3:1 4:1 8:1 13:1 14:1 34:1 51:1 55:1 63:1 95:1 109:1 135:1 326:1 1774:1 
0.08504624441042084 2:1 4:1 11:1 12:1 13:1 14:1 19:1 30:1 38:1 42:1 63:1 72:1 82:1 84:1 150:1 326:1 458:1 528:1 621:1 678:1 1646:1 2279:1 
1 2:1 4:1 5:1 6:1 10:1 13:1 14:1 63:1 75:1 135:1 743:1 744:1 3044:1 4008:1 
1 2:1 4:1 13:1 14:1 240:1 337:1 625:1 823:1 2034:1 
0.5471413160180978 2:1 4:1 13:1 14:1 19:1 30:1 177:1 178:1 4011:1 4012:1 
1 2:1 4:1 13:1 14:1 63:1 71:1 75:1 1549:1 4018:1 
0.7981116270548354 2:1 4:1 5:1 6:1 12:1 13:1 14:1 25:1 30:1 63:1 82:1 134:1 744:1 767:1 845:1 863:1 1300:1 4023:1 
0.6393194450385141 1:1 2:1 3:1 4:1 13:1 14:1 181:1 329:1 331:1 392:1 2683:1 4024:1 
0.06047164123890782 2:1 4:1 5:1 6:1 13:1 14:1 19:1 25:1 29:1 71:1 72:1 75:1 95:1 106:1 122:1 210:1 214:1 223:1 248:1 293:1 295:1 299:1 570:1 965:1 1725:1 4026:1 
0.211291656996263 2:1 4:1 13:1 14:1 30:1 75:1 158:1 209:1 1804:1 4030:1 4031:1 
0.8113734266190722 1:1 2:1 3:1 4:1 13:1 14:1 54:1 63:1 84:1 153:1 194:1 363:1 396:1 893:1 1090:1 1580:1 1762:1 2393:1 4032:1 
1 2:1 4:1 12:1 13:1 14:1 63:1 200:1 223:1 327:1 487:1 894:1 1074:1 1520:1 4036:1 4037:1 
1 2:1 4:1 13:1 14:1 
1 2:1 4:1 13:1 14:1 48:1 68:1 73:1 326:1 622:1 788:1 790:1 
0.113648676823613 1:1 2:1 4:1 13:1 14:1 19:1 30:1 66:1 84:1 145:1 149:1 158:1 258:1 841:1 4042:1 4043:1 
1 1:1 2:1 3:1 4:1 13:1 14:1 65:1 72:1 92:1 101:1 911:1 
0.6206413065086921 2:1 4:1 13:1 14:1 51:1 60:1 127:1 282:1 318:1 1309:1 1513:1 1606:1 
0.1272451314898382 2:1 4:1 13:1 14:1 30:1 46:1 48:1 84:1 128:1 224:1 1135:1 1216:1 3887:1 4047:1 4048:1 4049:1 4050:1 
0.6767634334191537 2:1 4:1 5:1 10:1 13:1 14:1 46:1 55:1 84:1 251:1 865:1 869:1 1259:1 1648:1 2904:1 4055:1 4056:1 
1 2:1 4:1 5:1 6:1 13:1 14:1 27:1 63:1 95:1 106:1 315:1 1327:1 
1 1:1 2:1 3:1 4:1 13:1 14:1 197:1 215:1 325:1 379:1 561:1 2088:1 
1 2:1 4:1 13:1 14:1 19:1 38:1 72:1 82:1 106:1 145:1 149:1 223:1 487:1 1138:1 1505:1 
0.01817580420756766 1:1 2:1 3:1 4:1 5:1 13:1 14:1 19:1 27:1 42:1 48:1 90:1 135:1 150:1 167:1 181:1 233:1 315:1 440:1 694:1 1418:1 2896:1 2897:1 4063:1 
0.9061417298021881 2:1 4:1 5:1 6:1 12:1 13:1 14:1 27:1 46:1 63:1 71:1 72:1 75:1 124:1 211:1 229:1 305:1 479:1 490:1 507:1 913:1 2782:1 4064:1 
0.8690698526002695 2:1 4:1 13:1 14:1 27:1 75:1 78:1 84:1 215:1 302:1 315:1 316:1 400:1 688:1 808:1 1103:1 1129:1 1774:1 
1 2:1 4:1 9:1 13:1 14:1 30:1 38:1 99:1 102:1 590:1 2889:1 
1 1:1 2:1 3:1 4:1 13:1 14:1 19:1 63:1 90:1 102:1 186:1 262:1 602:1 1100:1 
0.1343559820618066 2:1 4:1 10:1 13:1 14:1 65:1 84:1 141:1 1240:1 3800:1 
0.08250642373528459 2:1 4:1 13:1 14:1 29:1 66:1 1414:1 2420:1 4082:1 
1 1:1 2:1 3:1 4:1 13:1 14:1 51:1 62:1 159:1 240:1 312:1 326:1 507:1 1267:1 1779:1 
0.1670598967427822 1:1 2:1 3:1 4:1 5:1 9:1 12:1 13:1 14:1 34:1 75:1 99:1 107:1 240:1 248:1 379:1 480:1 590:1 628:1 817:1 3335:1 4083:1 4084:1 4085:1 4086:1 
1 1:1 2:1 3:1 4:1 13:1 14:1 16:1 34:1 48:1 56:1 63:1 84:1 123:1 135:1 719:1 1832:1 2464:1 
0.8959378023639437 2:1 4:1 13:1 14:1 63:1 75:1 92:1 130:1 173:1 341:1 828:1 1608:1 
0.1570698024374663 2:1 4:1 13:1 14:1 42:1 101:1 163:1 2074:1 3419:1 
1 1:1 2:1 3:1 4:1 13:1 14:1 63:1 75:1 535:1 576:1 1758:1 2496:1 
1 1:1 2:1 3:1 4:1 5:1 13:1 14:1 32:1 95:1 109:1 240:1 631:1 
0.5191626266295101 1:1 2:1 3:1 4:1 13:1 14:1 19:1 42:1 68:1 90:1 107:1 205:1 232:1 326:1 367:1 377:1 573:1 602:1 631:1 2727:1 
0.4971524028564976 1:1 2:1 3:1 4:1 8:1 13:1 14:1 17:1 48:1 62:1 71:1 79:1 82:1 101:1 159:1 232:1 641:1 4096:1 4097:1 4098:1 
1 1:1 2:1 3:1 4:1 13:1 14:1 76:1 389:1 2411:1 
0.6156038739258468 2:1 4:1 5:1 10:1 12:1 13:1 14:1 20:1 27:1 34:1 47:1 48:1 58:1 63:1 68:1 72:1 78:1 82:1 135:1 147:1 203:1 215:1 306:1 618:1 820:1 992:1 4102:1 
0.06845117439991943 2:1 4:1 5:1 13:1 14:1 32:1 46:1 51:1 56:1 63:1 72:1 73:1 75:1 82:1 99:1 116:1 418:1 1136:1 1707:1 4103:1 4104:1 4105:1 
0.9523036744118238 2:1 4:1 13:1 14:1 17:1 71:1 240:1 576:1 4106:1 
0.2538784455916306 2:1 4:1 13:1 14:1 41:1 42:1 46:1 107:1 194:1 312:1 324:1 444:1 601:1 622:1 938:1 1303:1 4107:1 4108:1 
1 1:1 2:1 3:1 4:1 13:1 14:1 19:1 90:1 
0.5636585951455639 1:1 2:1 3:1 4:1 5:1 13:1 14:1 19:1 75:1 90:1 417:1 1357:1 2464:1 2653:1 
1 2:1 4:1 13:1 14:1 42:1 58:1 84:1 159:1 170:1 759:1 919:1 1162:1 3620:1 
0.3829772733977191 2:1 4:1 9:1 13:1 14:1 42:1 46:1 75:1 84:1 114:1 532:1 604:1 1119:1 1418:1 1443:1 2590:1 4124:1 4125:1 4126:1 4127:1 4128:1 
0.3155468445568306 2:1 4:1 8:1 9:1 13:1 14:1 27:1 40:1 46:1 65:1 73:1 95:1 216:1 262:1 282:1 324:1 326:1 413:1 462:1 4129:1 4130:1 
0.3303222124853887 2:1 4:1 13:1 14:1 19:1 52:1 95:1 109:1 239:1 385:1 1003:1 4136:1 
1 2:1 4:1 13:1 14:1 34:1 47:1 63:1 214:1 813:1 1251:1 
0.01049583827216389 2:1 4:1 12:1 13:1 14:1 30:1 48:1 63:1 77:1 141:1 226:1 327:1 367:1 791:1 792:1 1061:1 4145:1 4146:1 4147:1 
0.2413004824323826 2:1 4:1 13:1 14:1 47:1 48:1 78:1 107:1 315:1 360:1 488:1 628:1 1135:1 4148:1 4149:1 
0.6787884135733657 2:1 4:1 13:1 14:1 32:1 109:1 124:1 141:1 150:1 548:1 639:1 1194:1 4150:1 
1 2:1 4:1 10:1 12:1 13:1 14:1 107:1 240:1 307:1 733:1 864:1 1028:1 1418:1 1575:1 
0.8593978785640839 2:1 4:1 13:1 14:1 19:1 63:1 141:1 145:1 149:1 817:1 1242:1 1437:1 2877:1 
1 2:1 4:1 5:1 13:1 14:1 32:1 47:1 72:1 75:1 93:1 204:1 205:1 229:1 238:1 337:1 351:1 618:1 641:1 845:1 
0.1160161682524819 1:1 2:1 3:1 4:1 13:1 71:1 77:1 159:1 204:1 301:1 1549:1 2541:1 4157:1 4158:1 4159:1 4160:1 
1 2:1 4:1 5:1 13:1 14:1 84:1 111:1 215:1 351:1 360:1 561:1 701:1 817:1 3790:1 
1 2:1 4:1 5:1 13:1 14:1 42:1 47:1 66:1 72:1 75:1 99:1 212:1 343:1 2052:1 2806:1 4093:1 
0.2032091826631111 2:1 4:1 13:1 14:1 41:1 54:1 63:1 73:1 75:1 107:1 240:1 664:1 1357:1 2004:1 2302:1 4161:1 4162:1 
0.58375109840299 1:1 2:1 3:1 4:1 13:1 14:1 41:1 124:1 479:1 4165:1 
1 1:1 2:1 3:1 4:1 13:1 14:1 19:1 34:1 48:1 73:1 84:1 90:1 181:1 183:1 201:1 202:1 1186:1 
0.06821903216481832 2:1 4:1 13:1 14:1 4170:1 
0.001901554408046514 2:1 4:1 12:1 13:1 14:1 362:1 1136:1 4174:1 
0.2827983130588191 2:1 4:1 13:1 14:1 38:1 68:1 84:1 805:1 1402:1 4175:1 4176:1 4177:1 
1 2:1 4:1 8:1 10:1 13:1 14:1 43:1 48:1 60:1 75:1 82:1 232:1 733:1 809:1 4178:1 
1 1:1 2:1 3:1 4:1 13:1 14:1 19:1 72:1 90:1 306:1 433:1 620:1 2130:1 
0.04880691085627799 2:1 4:1 5:1 13:1 14:1 46:1 63:1 72:1 126:1 158:1 215:1 240:1 246:1 282:1 289:1 505:1 597:1 1297:1 1300:1 3647:1 
1 2:1 4:1 5:1 6:1 13:1 14:1 82:1 
1 1:1 2:1 3:1 4:1 13:1 14:1 31:1 63:1 79:1 267:1 398:1 1018:1 4179:1 4180:1 4181:1 
0.444280294188333 2:1 4:1 13:1 14:1 63:1 71:1 326:1 1992:1 4185:1 4186:1 
0.8117600293155651 2:1 4:1 13:1 14:1 84:1 183:1 262:1 616:1 1732:1 
0.3970379729032301 1:1 2:1 3:1 4:1 5:1 12:1 13:1 14:1 42:1 48:1 99:1 109:1 159:1 163:1 190:1 205:1 248:1 281:1 366:1 408:1 774:1 1194:1 4196:1 
0.3356984251875872 1:1 2:1 3:1 4:1 10:1 13:1 14:1 46:1 47:1 48:1 75:1 148:1 315:1 329:1 330:1 331:1 489:1 590:1 932:1 4199:1 
0.2935619761926627 2:1 4:1 12:1 13:1 14:1 84:1 150:1 194:1 312:1 565:1 1668:1 
1 2:1 4:1 13:1 14:1 19:1 63:1 108:1 109:1 131:1 145:1 149:1 262:1 507:1 805:1 2782:1 4203:1 
1 1:1 2:1 3:1 4:1 13:1 14:1 19:1 23:1 27:1 34:1 48:1 56:1 63:1 75:1 78:1 84:1 95:1 109:1 114:1 130:1 159:1 173:1 267:1 311:1 315:1 320:1 347:1 413:1 507:1 549:1 1278:1 2004:1 2579:1 
1 2:1 4:1 10:1 13:1 14:1 412:1 476:1 484:1 864:1 
0.005135501209002509 2:1 4:1 13:1 14:1 160:1 3170:1 4207:1 
0.7999044207539669 1:1 2:1 3:1 4:1 5:1 13:1 14:1 19:1 42:1 90:1 99:1 109:1 123:1 159:1 817:1 1068:1 3059:1 
0.3092078590019954 2:1 4:1 13:1 14:1 19:1 47:1 48:1 71:1 72:1 145:1 149:1 247:1 326:1 576:1 693:1 1368:1 1652:1 
0.400319758602239 2:1 4:1 10:1 12:1 13:1 14:1 34:1 115:1 302:1 1487:1 
0.8899625977743841 2:1 4:1 13:1 14:1 46:1 63:1 68:1 71:1 72:1 75:1 122:1 141:1 159:1 163:1 176:1 227:1 729:1 781:1 1028:1 1116:1 1914:1 4222:1 4223:1 
1 2:1 4:1 9:1 10:1 13:1 14:1 92:1 101:1 107:1 109:1 135:1 164:1 573:1 590:1 1032:1 
0.05057949000735106 2:1 4:1 5:1 6:1 13:1 14:1 46:1 73:1 111:1 123:1 326:1 817:1 1267:1 4229:1 4230:1 
0.03451341058521212 2:1 4:1 13:1 14:1 42:1 57:1 63:1 4231:1 4232:1 
1 2:1 4:1 13:1 14:1 63:1 102:1 186:1 262:1 602:1 1100:1 
0.134916424964309 1:1 2:1 3:1 4:1 8:1 13:1 14:1 93:1 101:1 109:1 1194:1 1545:1 2688:1 
1 2:1 4:1 5:1 13:1 14:1 39:1 75:1 229:1 239:1 316:1 1597:1 2002:1 4243:1 
1 2:1 4:1 5:1 13:1 14:1 108:1 109:1 110:1 123:1 159:1 1300:1 4192:1 
0.5101642277007317 1:1 2:1 3:1 4:1 13:1 14:1 19:1 22:1 42:1 46:1 64:1 71:1 75:1 90:1 93:1 109:1 123:1 150:1 175:1 375:1 507:1 671:1 980:1 1573:1 4252:1 4253:1 4254:1 4255:1 
0.02931336292301248 2:1 4:1 5:1 6:1 10:1 13:1 14:1 63:1 123:1 229:1 238:1 394:1 429:1 434:1 4256:1 4257:1 4258:1 
0.5158346927645621 2:1 4:1 13:1 14:1 47:1 63:1 107:1 159:1 367:1 413:1 829:1 1038:1 2281:1 2296:1 2374:1 
0.09998285732720287 1:1 2:1 3:1 4:1 13:1 14:1 19:1 71:1 75:1 90:1 182:1 922:1 1013:1 1597:1 2891:1 
0.5158290531617056 2:1 4:1 13:1 14:1 25:1 72:1 306:1 4270:1 4271:1 
1 1:1 2:1 3:1 4:1 8:1 13:1 14:1 31:1 32:1 42:1 147:1 159:1 240:1 279:1 324:1 337:1 1338:1 2935:1 4272:1 
1 2:1 4:1 13:1 14:1 48:1 141:1 158:1 215:1 302:1 476:1 
0.001483957299916546 2:1 4:1 5:1 6:1 10:1 12:1 13:1 14:1 46:1 63:1 66:1 75:1 95:1 106:1 107:1 127:1 148:1 186:1 262:1 364:1 474:1 649:1 805:1 2770:1 4277:1 4278:1 4279:1 
1 2:1 4:1 5:1 12:1 13:1 14:1 19:1 34:1 47:1 63:1 68:1 84:1 99:1 124:1 160:1 295:1 299:1 377:1 409:1 507:1 641:1 1908:1 3511:1 
0.2724978950735072 1:1 2:1 3:1 4:1 12:1 13:1 14:1 46:1 63:1 75:1 94:1 95:1 109:1 150:1 189:1 194:1 229:1 232:1 743:1 754:1 903:1 1227:1 1520:1 2119:1 
1 2:1 4:1 5:1 13:1 14:1 52:1 215:1 364:1 807:1 
0.2338765959226372 2:1 4:1 13:1 14:1 63:1 86:1 99:1 326:1 894:1 1194:1 4286:1 
1 2:1 4:1 8:1 9:1 13:1 14:1 27:1 42:1 51:1 56:1 62:1 63:1 65:1 147:1 177:1 282:1 295:1 1300:1 1487:1 4287:1 
0.1566099247290569 1:1 2:1 3:1 4:1 8:1 13:1 14:1 32:1 42:1 46:1 55:1 63:1 66:1 72:1 116:1 197:1 240:1 267:1 349:1 364:1 372:1 433:1 439:1 671:1 798:1 911:1 1046:1 2040:1 2710:1 3770:1 4037:1 4290:1 4291:1 
1 1:1 2:1 3:1 4:1 13:1 14:1 92:1 101:1 325:1 483:1 
1 2:1 4:1 13:1 14:1 31:1 32:1 38:1 50:1 94:1 95:1 97:1 101:1 164:1 189:1 240:1 318:1 3478:1 4296:1 
0.2610860819361921 2:1 4:1 13:1 14:1 38:1 48:1 63:1 77:1 131:1 291:1 326:1 327:1 328:1 809:1 896:1 
0.07793126258720405 2:1 4:1 13:1 14:1 56:1 4300:1 
1 1:1 2:1 3:1 4:1 13:1 14:1 19:1 92:1 181:1 240:1 337:1 408:1 446:1 1282:1 1312:1 
0.09572563177467892 2:1 4:1 13:1 14:1 63:1 71:1 72:1 84:1 150:1 226:1 367:1 618:1 3609:1 3984:1 4301:1 
0.14258578118843 2:1 4:1 5:1 10:1 13:1 14:1 52:1 71:1 75:1 95:1 99:1 101:1 109:1 130:1 164:1 262:1 282:1 329:1 331:1 389:1 392:1 786:1 2768:1 3361:1 3914:1 3915:1 4304:1 4305:1 
0.01555608368994528 2:1 4:1 5:1 13:1 14:1 50:1 65:1 159:1 364:1 1016:1 1254:1 
1 2:1 4:1 5:1 13:1 14:1 71:1 150:1 156:1 479:1 2585:1 4306:1 4307:1 4308:1 4309:1 4310:1 
0.1919919065400984 2:1 4:1 13:1 14:1 54:1 63:1 94:1 95:1 97:1 101:1 164:1 781:1 2508:1 4312:1 4313:1 4314:1 
1 2:1 4:1 13:1 14:1 30:1 123:1 482:1 671:1 
0.05122456354846729 1:1 2:1 3:1 4:1 10:1 12:1 13:1 14:1 50:1 86:1 196:1 283:1 507:1 1273:1 1378:1 1908:1 
0.02118496284952984 2:1 4:1 5:1 6:1 13:1 14:1 63:1 64:1 75:1 78:1 283:1 1589:1 4021:1 4321:1 
0.08039894345411436 2:1 4:1 13:1 14:1 46:1 63:1 65:1 68:1 75:1 107:1 240:1 329:1 330:1 331:1 355:1 421:1 450:1 636:1 896:1 1637:1 1958:1 2120:1 4322:1 
1 2:1 4:1 5:1 13:1 14:1 19:1 84:1 99:1 159:1 295:1 299:1 433:1 845:1 1094:1 1383:1 1478:1 
0.4967069113828308 2:1 4:1 10:1 13:1 14:1 17:1 19:1 27:1 34:1 42:1 63:1 72:1 84:1 101:1 108:1 109:1 120:1 124:1 159:1 240:1 248:1 293:1 295:1 299:1 743:1 1773:1 1874:1 2545:1 2597:1 2964:1 4327:1 4328:1 
0.3940867600133779 2:1 4:1 12:1 13:1 14:1 68:1 122:1 163:1 4329:1 
1 2:1 4:1 13:1 14:1 128:1 
0.1999704053832304 2:1 4:1 5:1 13:1 14:1 42:1 46:1 47:1 48:1 52:1 56:1 63:1 72:1 75:1 108:1 109:1 326:1 391:1 522:1 625:1 1357:1 2694:1 2770:1 4122:1 4331:1 4332:1 4333:1 
0.6938472778007586 2:1 4:1 12:1 13:1 14:1 38:1 75:1 150:1 251:1 283:1 532:1 612:1 680:1 1517:1 4335:1 
0.2535566313956297 2:1 4:1 5:1 13:1 14:1 42:1 99:1 109:1 123:1 159:1 817:1 1068:1 3059:1 
0.7168034362836578 2:1 4:1 13:1 14:1 40:1 42:1 48:1 84:1 159:1 367:1 712:1 781:1 1103:1 1614:1 2669:1 4336:1 4337:1 
1 2:1 4:1 13:1 14:1 73:1 75:1 163:1 
1 2:1 4:1 5:1 13:1 14:1 63:1 72:1 95:1 109:1 127:1 347:1 1040:1 4338:1 
0.5524354576659111 1:1 2:1 3:1 4:1 5:1 12:1 13:1 14:1 19:1 27:1 38:1 41:1 51:1 158:1 177:1 178:1 192:1 293:1 457:1 487:1 680:1 767:1 1267:1 1391:1 1421:1 1917:1 2663:1 3463:1 4287:1 4341:1 4342:1 4343:1 4344:1 4345:1 
0.2419244589581568 1:1 2:1 3:1 4:1 13:1 14:1 101:1 647:1 1364:1 
0.1494939192118581 2:1 4:1 13:1 14:1 47:1 48:1 115:1 160:1 2690:1 
0.01699784656052261 2:1 4:1 10:1 13:1 14:1 32:1 38:1 47:1 48:1 52:1 79:1 123:1 159:1 167:1 240:1 304:1 337:1 3351:1 4347:1 4348:1 4349:1 4350:1 
0.4726822781792206 1:1 2:1 3:1 4:1 13:1 14:1 28:1 32:1 38:1 48:1 63:1 71:1 75:1 158:1 172:1 302:1 4220:1 4221:1 
0.4910323884434581 1:1 2:1 3:1 4:1 9:1 13:1 14:1 46:1 73:1 107:1 329:1 331:1 726:1 2612:1 4035:1 
0.8482840397971209 2:1 4:1 5:1 13:1 14:1 40:1 41:1 42:1 56:1 63:1 71:1 84:1 135:1 150:1 449:1 565:1 863:1 1805:1 1843:1 
1 1:1 2:1 3:1 4:1 8:1 13:1 14:1 19:1 311:1 320:1 421:1 809:1 1436:1 3028:1 
0.03506334670646322 2:1 4:1 5:1 13:1 14:1 29:1 42:1 63:1 68:1 71:1 75:1 99:1 127:1 210:1 2265:1 3242:1 3474:1 
0.01224319294559124 2:1 4:1 5:1 13:1 14:1 31:1 38:1 75:1 95:1 109:1 111:1 197:1 282:1 498:1 507:1 805:1 2106:1 3027:1 4359:1 4360:1 4361:1 
1 2:1 4:1 13:1 14:1 41:1 47:1 63:1 107:1 145:1 159:1 192:1 240:1 315:1 316:1 561:1 807:1 951:1 2348:1 
1 1:1 2:1 3:1 4:1 13:1 14:1 19:1 41:1 42:1 56:1 90:1 240:1 305:1 678:1 1103:1 1297:1 1677:1 1971:1 2662:1 3892:1 
0.7907888539314918 2:1 4:1 8:1 13:1 14:1 47:1 68:1 75:1 107:1 130:1 173:1 279:1 326:1 488:1 612:1 2434:1 
1 2:1 4:1 13:1 14:1 19:1 29:1 71:1 145:1 149:1 239:1 258:1 295:1 299:1 326:1 576:1 
0.5666663518025871 2:1 4:1 13:1 14:1 47:1 63:1 72:1 107:1 173:1 189:1 200:1 576:1 1353:1 
1 1:1 2:1 3:1 4:1 13:1 14:1 19:1 73:1 75:1 90:1 163:1 
1 1:1 2:1 3:1 4:1 8:1 13:1 14:1 99:1 200:1 201:1 
0.4175646017999881 2:1 4:1 5:1 6:1 13:1 14:1 25:1 82:1 326:1 1991:1 4374:1 
0.5614767746986526 2:1 4:1 5:1 8:1 10:1 13:1 14:1 47:1 56:1 248:1 277:1 1455:1 1765:1 2390:1 4375:1 
1 2:1 4:1 13:1 14:1 802:1 
0.157594096030015 2:1 4:1 5:1 10:1 13:1 14:1 27:1 38:1 62:1 63:1 65:1 75:1 84:1 101:1 107:1 163:1 573:1 694:1 863:1 1194:1 1608:1 4378:1 4379:1 
0.06896206816956708 1:1 2:1 3:1 4:1 13:1 14:1 19:1 90:1 3796:1 
0.01938197634861013 2:1 4:1 5:1 10:1 13:1 14:1 27:1 34:1 42:1 48:1 75:1 111:1 130:1 147:1 159:1 239:1 240:1 504:1 507:1 656:1 676:1 992:1 1044:1 1127:1 1267:1 1300:1 4384:1 
0.1861794170394682 2:1 4:1 13:1 14:1 30:1 46:1 47:1 107:1 1070:1 1684:1 1958:1 4385:1 
0.5337832162861519 1:1 2:1 3:1 4:1 12:1 13:1 14:1 30:1 75:1 273:1 4388:1 4389:1 
1 1:1 2:1 3:1 4:1 5:1 13:1 14:1 41:1 46:1 61:1 65:1 66:1 105:1 107:1 232:1 1520:1 2079:1 4407:1 
0.04380128160975368 2:1 4:1 13:1 14:1 34:1 48:1 73:1 84:1 181:1 183:1 201:1 202:1 1186:1 
0.1001858262370235 2:1 4:1 13:1 14:1 47:1 73:1 4410:1 
1 2:1 4:1 5:1 13:1 14:1 56:1 63:1 150:1 172:1 216:1 326:1 347:1 572:1 837:1 3278:1 
0.1970327322260235 1:1 2:1 3:1 4:1 12:1 13:1 14:1 42:1 46:1 82:1 137:1 141:1 233:1 362:1 625:1 832:1 4418:1 
0.6143738561576966 1:1 2:1 3:1 4:1 5:1 13:1 14:1 19:1 90:1 202:1 262:1 340:1 641:1 642:1 4419:1 
0.4832605930704336 2:1 4:1 13:1 14:1 62:1 97:1 127:1 130:1 805:1 2199:1 3602:1 
1 2:1 4:1 13:1 14:1 19:1 295:1 299:1 
1 2:1 4:1 13:1 14:1 63:1 72:1 127:1 306:1 364:1 958:1 
1 2:1 4:1 5:1 13:1 14:1 150:1 165:1 326:1 823:1 
1 2:1 4:1 13:1 14:1 16:1 22:1 75:1 306:1 2776:1 
0.3969650193316774 2:1 4:1 5:1 13:1 14:1 19:1 27:1 34:1 42:1 47:1 56:1 63:1 77:1 78:1 94:1 107:1 127:1 139:1 145:1 149:1 159:1 216:1 278:1 347:1 379:1 474:1 508:1 1046:1 3777:1 4426:1 
1 2:1 4:1 5:1 6:1 13:1 14:1 25:1 32:1 95:1 109:1 131:1 183:1 326:1 967:1 1773:1 2683:1 
0.2374010918936173 2:1 4:1 5:1 12:1 13:1 14:1 42:1 63:1 72:1 82:1 94:1 108:1 109:1 110:1 199:1 215:1 305:1 944:1 2904:1 4437:1 
0.6495571759806453 2:1 4:1 13:1 14:1 72:1 75:1 82:1 137:1 159:1 194:1 262:1 312:1 362:1 430:1 687:1 
0.332682102613937 2:1 4:1 13:1 14:1 38:1 48:1 63:1 78:1 84:1 150:1 158:1 1135:1 1446:1 2931:1 4445:1 
1 1:1 2:1 3:1 4:1 5:1 8:1 13:1 14:1 19:1 42:1 62:1 71:1 93:1 158:1 186:1 197:1 199:1 295:1 299:1 311:1 315:1 320:1 602:1 4219:1 
1 2:1 4:1 13:1 14:1 131:1 813:1 
0.2163500488724829 1:1 2:1 3:1 4:1 8:1 13:1 14:1 421:1 809:1 1436:1 3028:1 
1 2:1 4:1 5:1 6:1 13:1 14:1 201:1 202:1 673:1 1457:1 
