svm_type c_svc
kernel_type linear
nr_class 5
total_sv 26004
rho 0.148433 0.444176 1.47901 0.426492 -0.796328 1.53215 -0.505358 1.14629 -0.0409491 -2.20199
label 4 0 3 1 2
probA -1.22892 -1.2527 -1.33378 -1.29482 -1.12431 -1.51488 -1.00971 -1.49636 -1.10462 -1.48137
probB 0.0632381 -0.0230517 0.0584704 0.0521947 -0.0941659 -0.0105067 0.0400092 0.0134558 0.108595 0.0169278
nr_sv 4514 4974 4085 6143 6288
SV
0.4864049670142339 1 1 0.9918935320160921 1:1 2:1 4:1 6:1 7:1 8:1 9:1 10:1 12:1 13:1 
0.2133095098834868 0 0 0 2:1 4:1 13:1 16:1 19:1 20:1 21:1 22:1 23:1 24:1 
0 0 1 0 2:1 4:1 13:1 26:1 27:1 28:1 29:1 
0.08489324431105455 0.1370245092960401 0.1830095595248721 0.5753376613496619 2:1 4:1 5:1 13:1 31:1 32:1 33:1 34:1 35:1 36:1 37:1 38:1 39:1 
1 0.6906083807449607 0.9367669658617985 0.9367883434166311 2:1 4:1 13:1 41:1 42:1 43:1 44:1 45:1 47:1 48:1 49:1 50:1 
0.7544098297673931 0.5551243849741154 0.2334366891095931 0.7873958979590527 2:1 4:1 10:1 13:1 52:1 53:1 54:1 55:1 56:1 57:1 58:1 59:1 60:1 62:1 63:1 64:1 65:1 66:1 67:1 
0.482098502638896 1 0.6159030284342528 0.6725881134321013 2:1 4:1 13:1 76:1 85:1 88:1 89:1 90:1 91:1 
1 1 0.3197597014105166 1 1:1 2:1 4:1 9:1 13:1 19:1 64:1 74:1 93:1 94:1 95:1 96:1 97:1 99:1 100:1 101:1 102:1 103:1 
0 0.3531423969778115 0 0 2:1 4:1 13:1 38:1 56:1 104:1 105:1 106:1 107:1 108:1 109:1 
0 0 0 0.4746885956203679 1:1 2:1 4:1 12:1 13:1 19:1 52:1 72:1 73:1 76:1 86:1 111:1 112:1 113:1 114:1 115:1 116:1 117:1 119:1 120:1 121:1 
1 1 1 1 1:1 2:1 4:1 5:1 12:1 13:1 19:1 48:1 74:1 123:1 124:1 
0.3654390116943517 0 0.4470350366805473 0 2:1 4:1 12:1 13:1 61:1 69:1 72:1 73:1 86:1 126:1 127:1 128:1 129:1 130:1 131:1 132:1 
0 1 1 1 1:1 2:1 4:1 12:1 13:1 19:1 52:1 63:1 67:1 103:1 134:1 135:1 
1 1 1 0 2:1 4:1 13:1 67:1 86:1 142:1 143:1 144:1 145:1 146:1 147:1 
0 0 0 1 1:1 2:1 4:1 13:1 19:1 47:1 109:1 148:1 149:1 150:1 151:1 152:1 
0.7535321732648349 1 1 0.4973945016736414 2:1 4:1 6:1 13:1 46:1 64:1 72:1 83:1 86:1 154:1 155:1 156:1 157:1 159:1 
0.005335798813447909 0 0 0 2:1 4:1 12:1 13:1 42:1 56:1 58:1 161:1 162:1 163:1 164:1 
0.7762442155266446 0.7932201592444802 0 0 1:1 2:1 4:1 8:1 13:1 47:1 56:1 73:1 97:1 103:1 138:1 168:1 169:1 170:1 171:1 172:1 173:1 174:1 175:1 
1 0 0.9495981050916927 1 2:1 4:1 9:1 13:1 32:1 38:1 74:1 76:1 126:1 127:1 171:1 176:1 177:1 
0 0 1 0 2:1 4:1 13:1 19:1 38:1 64:1 110:1 111:1 178:1 179:1 180:1 181:1 182:1 183:1 184:1 
0.2656712673163188 0 0 0.21811574711929 1:1 2:1 4:1 12:1 13:1 48:1 162:1 192:1 193:1 194:1 195:1 
0 0.5195640269856578 0.7875847240034507 0.6666602880347267 1:1 2:1 4:1 6:1 13:1 19:1 72:1 73:1 76:1 162:1 196:1 197:1 198:1 199:1 200:1 202:1 
0.3275185288096015 0.605860381779181 0.6734070183392162 1 1:1 2:1 4:1 13:1 48:1 111:1 203:1 205:1 206:1 
0 0 1 0 1:1 2:1 4:1 12:1 13:1 19:1 52:1 56:1 64:1 120:1 174:1 207:1 208:1 209:1 210:1 211:1 212:1 
1 1 0 1 1:1 2:1 4:1 8:1 13:1 48:1 64:1 95:1 97:1 103:1 215:1 216:1 
1 0 1 0 2:1 4:1 12:1 13:1 34:1 49:1 64:1 67:1 72:1 110:1 111:1 176:1 178:1 222:1 223:1 224:1 
0.4080216308660299 0 1 1 2:1 4:1 13:1 20:1 162:1 226:1 
0 0.005182250745672781 1 0.8141328450089546 2:1 4:1 13:1 29:1 34:1 57:1 59:1 231:1 232:1 233:1 
0.4134781380743614 0.4542661825843156 0.06932100989483049 0.2933622727114093 2:1 4:1 8:1 12:1 13:1 64:1 72:1 73:1 86:1 235:1 236:1 238:1 239:1 240:1 241:1 242:1 243:1 244:1 245:1 246:1 247:1 
1 1 1 1 2:1 4:1 5:1 13:1 94:1 95:1 169:1 
0 0 1 1 2:1 4:1 13:1 46:1 48:1 53:1 64:1 73:1 249:1 250:1 251:1 
0.6638658271591459 0.4498324769273573 1 0.3123099311018783 2:1 4:1 9:1 12:1 13:1 79:1 167:1 252:1 253:1 
0.01723119363752372 0.3635660794794077 0.8038118448961676 0.6101421141215402 1:1 2:1 4:1 12:1 13:1 103:1 202:1 254:1 255:1 256:1 257:1 
0 1 0 0 2:1 4:1 5:1 13:1 27:1 204:1 215:1 223:1 248:1 251:1 259:1 260:1 261:1 262:1 263:1 264:1 265:1 
1 1 1 1 2:1 4:1 12:1 13:1 76:1 267:1 
1 1 1 1 2:1 4:1 8:1 13:1 56:1 103:1 
0.8894130169327684 1 1 1 2:1 4:1 13:1 67:1 269:1 
0.01955412518334675 0.02821793548321695 1 0.2603910556767426 2:1 4:1 13:1 47:1 79:1 271:1 272:1 
0.4330969620624651 0 0 0.2560161283792988 1:1 2:1 4:1 13:1 19:1 48:1 57:1 64:1 76:1 101:1 275:1 276:1 277:1 279:1 280:1 281:1 
0.07514694778466627 0 0 0 2:1 4:1 13:1 48:1 49:1 76:1 86:1 151:1 162:1 205:1 284:1 286:1 287:1 288:1 289:1 290:1 291:1 292:1 
0.2900611027157874 0.2441988638315939 0.3359335779376736 0.189915631022846 2:1 4:1 13:1 57:1 110:1 111:1 293:1 294:1 295:1 296:1 297:1 298:1 299:1 300:1 302:1 
0.05790809726952908 0.7506661992381649 0.7614801306649338 0.8742343330382495 1:1 2:1 4:1 5:1 8:1 12:1 13:1 72:1 80:1 94:1 101:1 162:1 189:1 303:1 304:1 305:1 306:1 307:1 308:1 
0 0.2391376451902909 0.4799580750638345 0.7428495299456999 1:1 2:1 4:1 8:1 10:1 12:1 13:1 19:1 47:1 97:1 113:1 120:1 309:1 310:1 311:1 312:1 313:1 314:1 315:1 316:1 
0 0 1 0 2:1 4:1 13:1 32:1 86:1 103:1 162:1 317:1 318:1 319:1 320:1 
1 1 1 1 2:1 4:1 13:1 34:1 321:1 322:1 
0 0 0 0.2705056733961371 1:1 2:1 4:1 5:1 13:1 19:1 49:1 57:1 76:1 84:1 103:1 109:1 202:1 299:1 328:1 329:1 331:1 332:1 333:1 334:1 336:1 337:1 
1 0 0 1 2:1 4:1 13:1 46:1 48:1 49:1 64:1 79:1 143:1 341:1 342:1 343:1 344:1 345:1 346:1 347:1 348:1 349:1 
1 1 1 1 2:1 4:1 12:1 13:1 111:1 
0 0 0.08117973522783486 0 2:1 4:1 12:1 13:1 356:1 
1 0 1 0 2:1 4:1 13:1 72:1 76:1 94:1 109:1 153:1 162:1 169:1 205:1 210:1 358:1 359:1 360:1 
1 1 1 1 2:1 4:1 13:1 49:1 103:1 362:1 
1 1 1 1 1:1 2:1 4:1 12:1 13:1 
1 0.6372591784174851 0.9350101783922947 1 2:1 4:1 5:1 13:1 153:1 366:1 367:1 
1 1 1 1 2:1 4:1 13:1 
1 0 1 1 2:1 4:1 6:1 8:1 13:1 63:1 64:1 110:1 111:1 139:1 143:1 162:1 171:1 189:1 332:1 369:1 370:1 371:1 372:1 
0.9470414631008197 0.7551871476831875 0.9308754604928754 1 2:1 4:1 5:1 13:1 38:1 48:1 83:1 86:1 122:1 124:1 153:1 252:1 373:1 374:1 
0 0.4683622542535038 1 1 1:1 2:1 4:1 12:1 13:1 42:1 46:1 47:1 380:1 381:1 382:1 383:1 
0.6480082988731468 0 0.3022988794815324 0 1:1 2:1 4:1 9:1 13:1 19:1 76:1 101:1 180:1 385:1 386:1 387:1 388:1 389:1 390:1 391:1 392:1 393:1 
0 0 0.8312349863799376 0 2:1 4:1 12:1 13:1 64:1 72:1 76:1 86:1 126:1 141:1 394:1 395:1 396:1 397:1 398:1 
1 1 1 1 2:1 4:1 13:1 80:1 399:1 400:1 
1 0 0 0 2:1 4:1 13:1 47:1 74:1 113:1 401:1 402:1 403:1 404:1 
0.5147619547857375 0.0869647144400265 0.6935758948323621 0.4782510450349787 2:1 4:1 10:1 13:1 32:1 48:1 139:1 265:1 405:1 406:1 408:1 409:1 
0 0 1 1 2:1 4:1 13:1 29:1 48:1 63:1 76:1 127:1 
1 1 1 1 1:1 2:1 4:1 13:1 
0 0 0 0.1641853167270746 1:1 2:1 4:1 9:1 12:1 13:1 48:1 94:1 103:1 204:1 299:1 347:1 349:1 355:1 408:1 412:1 414:1 415:1 416:1 417:1 418:1 419:1 420:1 421:1 422:1 
0 0.1447350401835343 0.04922201488922494 0.5854016997354139 1:1 2:1 4:1 9:1 13:1 19:1 42:1 48:1 149:1 162:1 423:1 424:1 425:1 426:1 427:1 428:1 429:1 
1 0.972689149276288 0.1163354191767656 1 2:1 4:1 13:1 27:1 32:1 64:1 86:1 94:1 179:1 265:1 430:1 431:1 432:1 
0 0 0.4882293134169428 0.6267761193848884 2:1 4:1 13:1 19:1 64:1 204:1 239:1 313:1 433:1 434:1 435:1 436:1 
0 0 0 0.1163055731305386 2:1 4:1 8:1 9:1 13:1 32:1 101:1 111:1 162:1 264:1 344:1 437:1 438:1 439:1 440:1 441:1 442:1 
0.09871505422994467 0.5173392351466305 0.7141959706455049 0.2837068819883988 2:1 4:1 8:1 13:1 19:1 52:1 56:1 64:1 65:1 66:1 73:1 76:1 96:1 117:1 134:1 169:1 184:1 349:1 444:1 445:1 446:1 447:1 448:1 449:1 
0.2276268964543108 0.2296315438293242 0.1976795052750626 0.02445905328867258 2:1 4:1 12:1 13:1 42:1 56:1 76:1 162:1 265:1 450:1 451:1 452:1 453:1 454:1 455:1 
0 0 0.213704502550973 0 2:1 4:1 12:1 13:1 66:1 141:1 209:1 210:1 457:1 458:1 459:1 460:1 461:1 
0.1617722411016483 0.5556248623047932 0.6904396282640585 0.4020133469951999 2:1 4:1 13:1 76:1 162:1 462:1 463:1 464:1 
0.89250546093286 0 0 0 2:1 4:1 13:1 56:1 64:1 104:1 131:1 139:1 188:1 212:1 223:1 458:1 465:1 466:1 
0 0.136337153482972 0 0.09006611343770171 1:1 2:1 4:1 13:1 76:1 467:1 468:1 
1 1 1 1 2:1 4:1 9:1 12:1 13:1 69:1 127:1 
1 1 1 1 1:1 2:1 4:1 8:1 13:1 56:1 94:1 97:1 103:1 209:1 210:1 
0.3704203400715333 0.1219021895870852 0 0 2:1 4:1 13:1 56:1 86:1 454:1 470:1 471:1 472:1 473:1 
1 0 1 0 2:1 4:1 12:1 13:1 32:1 86:1 117:1 162:1 261:1 474:1 475:1 477:1 
0 0 1 0 2:1 4:1 6:1 13:1 42:1 64:1 79:1 110:1 111:1 112:1 380:1 478:1 
1 1 1 1 2:1 4:1 12:1 13:1 
1 0.3149312029136995 1 1 2:1 4:1 5:1 13:1 42:1 48:1 64:1 76:1 122:1 212:1 319:1 366:1 487:1 488:1 489:1 490:1 
0.676662556581975 0.2740771277486476 0.576010293547746 0 2:1 4:1 13:1 86:1 491:1 492:1 493:1 494:1 
1 0.1615444472456587 0 0.2091968706004789 2:1 4:1 8:1 9:1 10:1 13:1 32:1 47:1 48:1 67:1 76:1 80:1 97:1 103:1 109:1 111:1 252:1 343:1 495:1 496:1 497:1 498:1 499:1 500:1 501:1 502:1 503:1 
0 0 0 0.03537744847672932 1:1 2:1 4:1 13:1 19:1 34:1 46:1 51:1 64:1 76:1 96:1 149:1 324:1 504:1 505:1 506:1 
1 1 1 1 2:1 4:1 13:1 204:1 511:1 512:1 
0.2746364129542694 0.03417759277552591 1 1 1:1 2:1 4:1 9:1 13:1 17:1 19:1 86:1 513:1 514:1 515:1 516:1 517:1 518:1 519:1 
0 1 0 0 1:1 2:1 4:1 10:1 13:1 64:1 72:1 73:1 139:1 241:1 243:1 262:1 263:1 342:1 390:1 520:1 521:1 
1 1 1 1 1:1 2:1 4:1 9:1 12:1 13:1 94:1 343:1 
0.6074296686376496 0 1 0 2:1 4:1 13:1 224:1 319:1 344:1 522:1 523:1 524:1 525:1 
0.4052264439442748 1 0.3577011371438265 0.8959480774267082 2:1 4:1 8:1 13:1 41:1 57:1 64:1 223:1 526:1 527:1 528:1 529:1 
1 1 1 1 2:1 4:1 13:1 64:1 73:1 534:1 
1 1 1 1 2:1 4:1 13:1 19:1 313:1 537:1 
0 0.3057690199854705 0.398369264381422 0.5316298729692003 1:1 2:1 4:1 12:1 13:1 63:1 538:1 539:1 540:1 
0.3830288438437566 0 0 0 2:1 4:1 6:1 13:1 64:1 72:1 79:1 86:1 162:1 558:1 559:1 561:1 
1 0.2599034309862185 0.6507266823328883 1 2:1 4:1 13:1 57:1 563:1 
1 1 0.1987277498271719 1 2:1 4:1 13:1 48:1 103:1 565:1 
0 0.769669250451778 0 0 1:1 2:1 4:1 6:1 13:1 76:1 153:1 249:1 566:1 567:1 
0.2699907396025102 0.3011908105909932 0.4215997715131803 0.9383268271617139 1:1 2:1 4:1 13:1 19:1 25:1 56:1 57:1 568:1 569:1 570:1 
0.08769447472959507 0.3306735681552945 0.7709131515977653 0.3333124850352353 2:1 4:1 13:1 16:1 128:1 212:1 572:1 573:1 575:1 577:1 
0 1 0.1351941489999975 0 2:1 4:1 6:1 13:1 29:1 49:1 153:1 579:1 580:1 581:1 
0.04087609249543649 0 0.8468726304756169 0 2:1 4:1 13:1 64:1 72:1 73:1 76:1 83:1 86:1 162:1 178:1 224:1 287:1 319:1 344:1 582:1 583:1 
0.005654206060559119 1 0 0 2:1 4:1 13:1 42:1 162:1 220:1 531:1 
1 1 1 1 2:1 4:1 12:1 13:1 
0.03191495038528714 0 0 1 1:1 2:1 4:1 13:1 19:1 47:1 48:1 57:1 69:1 73:1 80:1 83:1 111:1 220:1 239:1 264:1 298:1 329:1 584:1 585:1 586:1 
0 0 1 1 2:1 4:1 13:1 29:1 72:1 76:1 383:1 
0.7843292366842415 0.4841787498616731 0.6451717408498591 1 2:1 4:1 8:1 10:1 12:1 13:1 46:1 61:1 62:1 64:1 86:1 131:1 153:1 162:1 205:1 211:1 224:1 405:1 435:1 438:1 447:1 590:1 591:1 593:1 594:1 595:1 596:1 597:1 
0 0.8354061131534634 0.3199042641359434 0 1:1 2:1 4:1 9:1 12:1 13:1 42:1 49:1 267:1 598:1 
0 0 0.3214926968316131 0 1:1 2:1 4:1 13:1 19:1 73:1 362:1 390:1 599:1 600:1 
0.7098019763395661 0.2873766880169621 0.1148160366858134 1 2:1 4:1 13:1 86:1 162:1 601:1 602:1 603:1 604:1 
0 0 1 0 1:1 2:1 4:1 13:1 19:1 48:1 64:1 94:1 139:1 184:1 222:1 313:1 609:1 
0 0 1 1 2:1 4:1 12:1 13:1 64:1 135:1 139:1 145:1 
0.7328489148872344 0.5245887783464194 0.5255071970759221 1 1:1 2:1 4:1 13:1 19:1 64:1 83:1 110:1 111:1 434:1 610:1 611:1 612:1 613:1 
0 0 1 0.004227022945704291 2:1 4:1 12:1 13:1 29:1 72:1 74:1 615:1 616:1 
1 1 1 1 2:1 4:1 13:1 
0.1706499127338389 0.2954873775084185 0.1703562129652304 0.2727903261426348 2:1 4:1 13:1 34:1 41:1 42:1 48:1 64:1 122:1 130:1 139:1 153:1 162:1 216:1 261:1 404:1 475:1 567:1 620:1 621:1 623:1 624:1 
0.9805164740749674 0.916124043540276 1 1 2:1 4:1 13:1 86:1 625:1 
0.7030905181066299 0.3877632506478913 1 0.5934553341893658 2:1 4:1 13:1 64:1 202:1 232:1 627:1 
1 1 1 1 2:1 4:1 13:1 
0.4009164593646438 0.4136838278233654 1 0.6812177602979725 2:1 4:1 12:1 13:1 632:1 633:1 
1 1 1 1 2:1 4:1 13:1 19:1 64:1 73:1 83:1 101:1 149:1 223:1 370:1 640:1 
1 0.636916435065356 1 1 1:1 2:1 4:1 13:1 64:1 127:1 398:1 641:1 642:1 
0 0 0.2734874983116224 0 1:1 2:1 4:1 13:1 19:1 47:1 52:1 72:1 76:1 163:1 643:1 644:1 645:1 646:1 
0.8357346263909392 1 1 1 2:1 4:1 13:1 42:1 111:1 162:1 205:1 323:1 602:1 648:1 
0.08575381121769161 0 0 0 2:1 4:1 13:1 20:1 38:1 47:1 48:1 109:1 370:1 650:1 651:1 652:1 653:1 654:1 655:1 
0 0 0.01748181883331125 0 2:1 4:1 13:1 29:1 402:1 
0 0.2254793712336803 0 0 2:1 4:1 13:1 64:1 86:1 380:1 657:1 658:1 659:1 
0 0 1 0 2:1 4:1 12:1 13:1 29:1 79:1 
0 0 1 0 2:1 4:1 13:1 398:1 660:1 
1 0 1 0 2:1 4:1 12:1 13:1 34:1 64:1 72:1 86:1 110:1 111:1 178:1 661:1 662:1 
0 0 1 0 1:1 2:1 4:1 12:1 13:1 19:1 48:1 162:1 163:1 217:1 218:1 663:1 
1 1 1 1 1:1 2:1 4:1 13:1 
1 1 1 1 2:1 4:1 13:1 19:1 
0 0 1 0 1:1 2:1 4:1 8:1 9:1 10:1 12:1 13:1 29:1 64:1 76:1 83:1 404:1 533:1 666:1 668:1 669:1 
0 0.04794011904238834 1 0.452268605560275 2:1 4:1 13:1 29:1 46:1 670:1 
0.4779379381266384 0 0 0 2:1 4:1 13:1 57:1 64:1 76:1 109:1 143:1 152:1 344:1 366:1 671:1 672:1 673:1 
0 0 0.1166937213450478 0 2:1 4:1 13:1 72:1 100:1 145:1 379:1 435:1 679:1 680:1 681:1 682:1 683:1 
0.3172499354534717 0.2068711896243199 1 0.7811407790035853 2:1 4:1 13:1 48:1 163:1 299:1 684:1 685:1 
0.3397929886008568 0.3350382562919792 0.3031701268356802 0.2967745029253619 2:1 4:1 13:1 38:1 47:1 69:1 74:1 76:1 83:1 686:1 687:1 688:1 
1 1 1 1 2:1 4:1 13:1 83:1 689:1 690:1 
1 1 1 1 2:1 4:1 13:1 691:1 
0 0 1 0 2:1 4:1 12:1 13:1 29:1 72:1 117:1 692:1 
0.902878177190431 0 0 0.05832235193412956 2:1 4:1 13:1 47:1 103:1 130:1 176:1 693:1 
1 1 1 0.2624379956393592 1:1 2:1 4:1 8:1 13:1 86:1 103:1 162:1 380:1 694:1 
1 0 0 0 1:1 2:1 4:1 12:1 13:1 19:1 48:1 56:1 57:1 73:1 74:1 97:1 168:1 579:1 695:1 696:1 697:1 698:1 699:1 700:1 701:1 
0.376477511183105 0 0 0 2:1 4:1 13:1 702:1 703:1 704:1 705:1 706:1 
0 0 1 0 1:1 2:1 4:1 6:1 13:1 34:1 76:1 134:1 239:1 243:1 665:1 708:1 
0 0 0.7801315111750958 0.0357912270580029 2:1 4:1 13:1 48:1 49:1 86:1 103:1 196:1 439:1 475:1 635:1 709:1 710:1 711:1 
0 0 0.2107787651745526 0.2581171776717701 2:1 4:1 13:1 42:1 46:1 64:1 67:1 72:1 162:1 368:1 380:1 514:1 635:1 712:1 713:1 714:1 715:1 716:1 717:1 718:1 719:1 
0.4607100609359858 0.5190175238355283 0.2057076714679646 1 2:1 4:1 8:1 13:1 69:1 76:1 669:1 720:1 724:1 
1 0.5397651448255029 0 1 2:1 4:1 13:1 86:1 153:1 169:1 210:1 358:1 618:1 
0 0.03599038149616814 0.9958999309617786 1 2:1 4:1 13:1 64:1 76:1 153:1 162:1 397:1 725:1 726:1 727:1 728:1 729:1 730:1 731:1 732:1 733:1 
0 0 0 1 2:1 4:1 13:1 734:1 
0 0 1 1 1:1 2:1 4:1 13:1 19:1 46:1 48:1 53:1 64:1 73:1 249:1 250:1 251:1 
0.4299642406303934 1 1 1 1:1 2:1 4:1 13:1 57:1 64:1 69:1 127:1 141:1 167:1 590:1 735:1 736:1 
0 0 1 0 2:1 4:1 13:1 29:1 218:1 
0.9262304198836623 0.6306699605935724 1 0.6678088645540599 2:1 4:1 13:1 49:1 266:1 740:1 
0.6410524324340121 0.4296987143683546 0 0 2:1 4:1 8:1 13:1 56:1 64:1 69:1 99:1 128:1 174:1 207:1 347:1 348:1 349:1 745:1 747:1 748:1 
1 1 1 1 2:1 4:1 13:1 19:1 47:1 73:1 111:1 300:1 475:1 556:1 590:1 753:1 
0.07740727507260282 0.05584568512172169 0 0 2:1 4:1 10:1 13:1 46:1 57:1 74:1 76:1 86:1 238:1 243:1 531:1 758:1 759:1 760:1 761:1 762:1 763:1 764:1 765:1 766:1 767:1 
1 0 0 0.1911170638590008 2:1 4:1 13:1 145:1 251:1 769:1 
1 0 0 0 2:1 4:1 13:1 72:1 73:1 252:1 770:1 771:1 
0.2270814792603442 0.02461173531563685 0 0.1272265569847907 2:1 4:1 13:1 47:1 76:1 162:1 261:1 432:1 511:1 772:1 773:1 774:1 775:1 
1 0.5069668884618399 0.01734509771921638 0 2:1 4:1 13:1 42:1 64:1 73:1 153:1 180:1 776:1 777:1 
0.3389729983094756 0.7177359846265027 0.5481080500906357 0.980647987913791 1:1 2:1 4:1 13:1 368:1 561:1 778:1 
0 1 1 1 1:1 2:1 4:1 13:1 19:1 347:1 348:1 349:1 514:1 635:1 781:1 782:1 
0.1270765133694083 1 1 1 1:1 2:1 4:1 13:1 48:1 111:1 244:1 665:1 732:1 783:1 
0.1105749408366652 0.5049465992181087 0.3322743548634757 0.2164071126070232 1:1 2:1 4:1 13:1 49:1 72:1 176:1 184:1 349:1 380:1 520:1 784:1 785:1 786:1 787:1 788:1 789:1 
0.6365642218070718 0.3862297734741139 0.9390290312963413 0.7312963930447866 2:1 4:1 13:1 47:1 86:1 272:1 347:1 348:1 349:1 791:1 792:1 
0.1442842029506847 0.1587702732136038 0.0781834657160516 0.02868676084470995 1:1 2:1 4:1 8:1 13:1 99:1 103:1 113:1 134:1 153:1 179:1 224:1 243:1 252:1 526:1 633:1 793:1 794:1 795:1 796:1 798:1 799:1 
0.5870587622196533 0.6245706425955552 1 0 2:1 4:1 10:1 12:1 13:1 42:1 76:1 151:1 324:1 800:1 801:1 
1 1 0.5449875180139249 1 1:1 2:1 4:1 8:1 12:1 13:1 57:1 103:1 109:1 152:1 168:1 471:1 665:1 802:1 803:1 
0.03809477890664958 0.5467900068640809 0 0.5920511599995649 1:1 2:1 4:1 8:1 13:1 42:1 47:1 64:1 72:1 80:1 103:1 109:1 131:1 261:1 527:1 804:1 805:1 806:1 807:1 808:1 809:1 
0.6507466081017206 0 0 0.4133254671051204 2:1 4:1 13:1 48:1 64:1 76:1 83:1 109:1 398:1 612:1 811:1 812:1 813:1 
1 0 1 1 2:1 4:1 13:1 19:1 64:1 76:1 131:1 202:1 313:1 814:1 
0.5666596122149108 0.1177690530847043 0.9850657517444148 1 1:1 2:1 4:1 13:1 51:1 380:1 718:1 744:1 815:1 
1 1 1 1 2:1 4:1 13:1 110:1 111:1 696:1 817:1 
1 0 0.43356978624062 0.1394900813267754 2:1 4:1 10:1 13:1 76:1 103:1 362:1 383:1 416:1 818:1 
0 1 0 0 1:1 2:1 4:1 13:1 34:1 64:1 76:1 113:1 387:1 660:1 731:1 
0 0.1140623126432575 0 0.8571511354451029 1:1 2:1 4:1 13:1 19:1 57:1 64:1 76:1 109:1 143:1 152:1 344:1 366:1 671:1 672:1 673:1 
1 1 1 1 1:1 2:1 4:1 13:1 19:1 
0 0.7047630302380489 1 1 1:1 2:1 4:1 9:1 13:1 76:1 94:1 103:1 369:1 
1 1 1 1 2:1 4:1 13:1 46:1 67:1 69:1 86:1 145:1 825:1 826:1 
0 0 1 0 2:1 4:1 12:1 13:1 29:1 182:1 219:1 
0.8887501351529933 0.3728904341576971 0.5399863721837196 0.679154081591628 2:1 4:1 9:1 13:1 41:1 42:1 57:1 73:1 86:1 94:1 111:1 127:1 162:1 174:1 207:1 252:1 265:1 299:1 329:1 347:1 349:1 360:1 385:1 415:1 536:1 742:1 744:1 833:1 834:1 835:1 836:1 837:1 
1 1 1 1 2:1 4:1 13:1 64:1 99:1 124:1 182:1 838:1 
0 0 1 0 1:1 2:1 4:1 6:1 13:1 64:1 183:1 209:1 210:1 435:1 839:1 840:1 
0.1707330059341198 0.2629469007024485 0.05733169144438268 0.173586572118828 1:1 2:1 4:1 6:1 13:1 19:1 109:1 153:1 313:1 344:1 383:1 398:1 841:1 842:1 843:1 844:1 845:1 846:1 
0 0 0.664192387504999 0 2:1 4:1 13:1 19:1 47:1 63:1 64:1 73:1 84:1 86:1 174:1 178:1 179:1 182:1 848:1 849:1 850:1 852:1 
0.113519803289385 0.1791500315624603 0.7846789614877402 0.302800539087418 1:1 2:1 4:1 13:1 210:1 853:1 854:1 855:1 
0.1167944949558117 0.4673729960577036 0 1 2:1 4:1 13:1 42:1 47:1 79:1 97:1 101:1 111:1 168:1 169:1 299:1 856:1 857:1 858:1 
1 0.1303209020224604 0 0.746324775850418 1:1 2:1 4:1 13:1 19:1 64:1 76:1 97:1 111:1 167:1 168:1 205:1 371:1 859:1 860:1 861:1 862:1 
0.003710841569942096 0.01683391593189226 1 0 2:1 4:1 12:1 13:1 66:1 72:1 216:1 347:1 349:1 415:1 713:1 770:1 863:1 
0 0 0 0.2821232876365605 1:1 2:1 4:1 9:1 13:1 76:1 101:1 180:1 385:1 386:1 387:1 388:1 389:1 390:1 391:1 392:1 393:1 
0.7374559378612776 0 0.6660425225781911 0.452657726581806 2:1 4:1 13:1 48:1 64:1 86:1 94:1 642:1 865:1 866:1 867:1 
0 0 0 1 2:1 4:1 13:1 27:1 64:1 97:1 111:1 124:1 135:1 139:1 145:1 299:1 332:1 475:1 874:1 
0.2352518166405305 0 0.2083297117258061 0.2668871144430183 2:1 4:1 9:1 13:1 64:1 72:1 76:1 126:1 167:1 371:1 877:1 878:1 879:1 880:1 
0.3178424591439643 1 0.4290205207147317 1 2:1 4:1 13:1 64:1 131:1 485:1 543:1 881:1 882:1 
0 1 1 1 1:1 2:1 4:1 9:1 13:1 86:1 109:1 135:1 162:1 204:1 209:1 210:1 805:1 884:1 
0 1 1 0.4519966006043535 2:1 4:1 13:1 19:1 184:1 380:1 886:1 887:1 
1 0 0 0 2:1 4:1 5:1 6:1 13:1 64:1 86:1 101:1 131:1 145:1 888:1 889:1 890:1 
0.3216557246078404 0 0.09218190648244831 0.2125470028587296 1:1 2:1 4:1 12:1 13:1 72:1 74:1 76:1 86:1 103:1 156:1 224:1 380:1 891:1 892:1 893:1 894:1 895:1 
0 0.6034851979906065 0 0.01323368873108112 2:1 4:1 13:1 72:1 748:1 897:1 
0.3493314501614547 0.4872277470219357 0 0.5747652446301336 2:1 4:1 13:1 46:1 69:1 73:1 86:1 101:1 344:1 362:1 597:1 860:1 898:1 899:1 900:1 901:1 902:1 903:1 
1 0 1 1 2:1 4:1 12:1 13:1 163:1 202:1 
1 0.8260154501859486 1 0.1597340762292976 2:1 4:1 5:1 12:1 13:1 48:1 74:1 123:1 124:1 
0 0.06226671644943053 1 0.06648801853273896 2:1 4:1 12:1 13:1 29:1 42:1 913:1 
0 0.1472206452778167 0 0 1:1 2:1 4:1 8:1 19:1 38:1 42:1 46:1 56:1 57:1 64:1 73:1 101:1 261:1 307:1 368:1 640:1 721:1 914:1 915:1 917:1 918:1 919:1 920:1 
1 1 1 1 2:1 4:1 13:1 
1 1 0 1 2:1 4:1 13:1 32:1 53:1 109:1 333:1 342:1 345:1 921:1 922:1 
1 1 1 1 2:1 4:1 13:1 
0.0130921301103462 0.20326243469975 0 0 1:1 2:1 4:1 13:1 19:1 46:1 56:1 64:1 67:1 83:1 139:1 145:1 174:1 748:1 924:1 925:1 
0 0.09063655852072064 0.2237284364204318 0 2:1 4:1 13:1 56:1 223:1 490:1 606:1 926:1 
0.1057015010580391 0 1 0 2:1 4:1 12:1 13:1 57:1 86:1 182:1 347:1 349:1 415:1 484:1 492:1 928:1 929:1 
1 0.4751238351831409 1 1 2:1 4:1 12:1 13:1 17:1 19:1 42:1 48:1 252:1 299:1 448:1 475:1 597:1 830:1 931:1 932:1 933:1 934:1 
0.612793726322626 1 1 1 1:1 2:1 4:1 13:1 810:1 940:1 941:1 
1 1 1 1 2:1 4:1 13:1 
0.3873000746807658 0.9332265471721664 0 0.588384354655318 2:1 4:1 13:1 49:1 86:1 99:1 162:1 438:1 776:1 899:1 945:1 947:1 948:1 949:1 
0.6084234826833343 1 1 1 2:1 4:1 13:1 86:1 126:1 936:1 
0 0.1697868201584563 0.1389736173099501 0 13:1 78:1 951:1 
0.5595580064200288 0 0 0.2213951428843979 2:1 4:1 13:1 38:1 379:1 953:1 
1 1 1 1 1:1 2:1 4:1 13:1 27:1 49:1 64:1 76:1 109:1 153:1 222:1 252:1 954:1 955:1 
0 0 0.309394462510294 0 1:1 2:1 4:1 13:1 19:1 80:1 86:1 131:1 184:1 209:1 210:1 323:1 434:1 956:1 959:1 960:1 
0.1865136529537266 0 0.2842522094996483 0.6803767947290614 2:1 4:1 13:1 48:1 72:1 76:1 80:1 190:1 205:1 383:1 435:1 615:1 963:1 
1 1 0 1 2:1 4:1 13:1 38:1 127:1 128:1 964:1 
0.3141008690544204 0.2222292739321584 1 0.8125845652571573 2:1 4:1 13:1 47:1 857:1 965:1 
1 1 1 1 2:1 4:1 13:1 
0.7712639193357483 1 1 1 2:1 4:1 13:1 34:1 209:1 210:1 966:1 
1 0.3792722409559751 0.1184885070264226 1 2:1 4:1 13:1 73:1 83:1 94:1 447:1 967:1 968:1 969:1 
0 0.2599742339946244 1 0 1:1 2:1 4:1 12:1 13:1 19:1 72:1 76:1 120:1 183:1 212:1 795:1 971:1 972:1 
0 0 1 0 2:1 4:1 12:1 13:1 29:1 69:1 127:1 128:1 
1 1 1 1 2:1 4:1 13:1 48:1 83:1 244:1 276:1 
0 0 0.003618741542954145 0 2:1 4:1 6:1 13:1 29:1 34:1 72:1 86:1 169:1 209:1 210:1 242:1 329:1 696:1 974:1 975:1 976:1 977:1 
0.2319795873911215 0 1 0 2:1 4:1 12:1 13:1 19:1 29:1 978:1 979:1 
0.2536008065268169 0.5527037483172653 0 0 2:1 4:1 12:1 13:1 38:1 46:1 69:1 76:1 113:1 162:1 252:1 345:1 383:1 401:1 731:1 983:1 984:1 987:1 990:1 
0.4446101605762483 0.3855212048878927 0.2921251052888278 0.9972771913839624 1:1 2:1 4:1 13:1 19:1 34:1 46:1 51:1 64:1 76:1 96:1 149:1 324:1 504:1 505:1 506:1 
0.273171292948021 0 0.6519667845083279 0 1:1 2:1 4:1 12:1 13:1 19:1 86:1 126:1 996:1 997:1 
0 1 0.6983046218438217 0.5758243978704448 1:1 2:1 4:1 13:1 73:1 83:1 368:1 933:1 999:1 1000:1 1001:1 
1 1 1 1 2:1 4:1 13:1 110:1 111:1 135:1 
0.3035125832897498 0.05676901836370127 0 0.1073705741785077 2:1 4:1 12:1 13:1 45:1 64:1 95:1 111:1 171:1 250:1 366:1 380:1 642:1 1006:1 1007:1 1008:1 1012:1 
1 0.08742994451463473 0 0.00190368409530764 2:1 4:1 6:1 13:1 34:1 47:1 48:1 64:1 109:1 174:1 299:1 363:1 438:1 475:1 928:1 987:1 1016:1 
0.1013697698920133 0 0.4789924729981331 0 2:1 4:1 13:1 69:1 86:1 127:1 182:1 1018:1 
0 0 1 1 2:1 4:1 13:1 29:1 72:1 
0.4789291426457574 0.1067840553139495 0.6328672784595413 0.5354441658323467 1:1 2:1 4:1 13:1 19:1 49:1 103:1 362:1 1026:1 
0.2062371594588707 0.2140505951184703 0.2609599107865351 0.3547478314969978 2:1 4:1 13:1 62:1 73:1 1027:1 1028:1 1029:1 1030:1 1031:1 1032:1 1033:1 1034:1 1035:1 1036:1 
1 1 0.6589590069217689 1 2:1 4:1 13:1 41:1 42:1 47:1 73:1 536:1 553:1 
0 0.09767376918465726 0 0.001553985162815289 2:1 4:1 10:1 13:1 19:1 64:1 76:1 149:1 1038:1 1039:1 1040:1 1041:1 
0 0.9730896533962886 0.5706277511881185 0.8250662685662116 2:1 4:1 13:1 46:1 48:1 55:1 57:1 64:1 69:1 76:1 135:1 152:1 1042:1 1043:1 1044:1 1045:1 1046:1 1047:1 1048:1 
1 0 0 1 2:1 4:1 9:1 13:1 153:1 239:1 243:1 324:1 654:1 
1 1 0.6226221376852403 1 1:1 2:1 4:1 13:1 57:1 64:1 69:1 96:1 109:1 122:1 319:1 368:1 541:1 1049:1 1050:1 1051:1 
0.3698607648214766 0.3194085481619858 1 0.4593603449185177 2:1 4:1 13:1 42:1 162:1 383:1 1052:1 1053:1 1054:1 
0.4357820078470407 0.1357472577419356 0 0 2:1 4:1 13:1 64:1 76:1 79:1 101:1 151:1 153:1 162:1 189:1 219:1 299:1 475:1 1055:1 1056:1 1057:1 1058:1 1059:1 1060:1 
0 0 0 0.2272564793522628 1:1 2:1 4:1 5:1 13:1 19:1 57:1 72:1 110:1 111:1 178:1 312:1 606:1 1061:1 
0 0.8132867645508434 0 0 2:1 4:1 13:1 38:1 47:1 76:1 103:1 263:1 734:1 806:1 832:1 886:1 1062:1 1064:1 
0.8673489937911342 0.8607880507048797 0.7272586808586013 0.2334608926470754 1:1 2:1 4:1 13:1 19:1 64:1 86:1 162:1 207:1 711:1 1070:1 1071:1 
0 0.6397001651122334 0.872004487820393 0.5390534309086836 2:1 4:1 13:1 86:1 126:1 162:1 1055:1 1077:1 
0.364123598628538 0.8526239895423228 0.2332443671076974 0.6205123643471135 1:1 2:1 4:1 13:1 77:1 380:1 596:1 711:1 1078:1 1079:1 1080:1 
0 0 1 0 2:1 4:1 10:1 12:1 13:1 29:1 48:1 49:1 64:1 223:1 224:1 300:1 394:1 477:1 510:1 1081:1 1082:1 
0.9277848364410886 0.4882216550001893 1 1 2:1 4:1 13:1 19:1 137:1 1083:1 
0.9984856055097544 0 1 1 2:1 4:1 13:1 1084:1 1085:1 
1 0 0.2342789550215974 0.2894856287511844 2:1 4:1 10:1 13:1 57:1 67:1 99:1 101:1 109:1 130:1 176:1 223:1 265:1 370:1 454:1 475:1 1086:1 1087:1 1088:1 1089:1 1090:1 1091:1 
0.05453375670077761 0.2711442061608738 0.4016942240678189 0.00482760942355144 2:1 4:1 13:1 19:1 20:1 38:1 184:1 481:1 1093:1 1095:1 1096:1 1097:1 1098:1 1099:1 1100:1 
0 1 0 1 1:1 2:1 4:1 12:1 13:1 263:1 541:1 806:1 1101:1 1102:1 
0 0 1 0.2896554506818138 2:1 4:1 13:1 29:1 34:1 49:1 64:1 153:1 366:1 645:1 886:1 1021:1 
1 0.2855927781950821 1 1 1:1 2:1 4:1 13:1 103:1 148:1 224:1 
0.07640699208428635 0.06936432532118054 0.6006856903233837 1 2:1 4:1 13:1 64:1 72:1 73:1 326:1 454:1 558:1 886:1 1056:1 1104:1 
0.5495212966974541 0 0 0 2:1 4:1 12:1 13:1 47:1 86:1 114:1 128:1 153:1 174:1 210:1 223:1 224:1 272:1 300:1 347:1 349:1 358:1 380:1 415:1 475:1 645:1 1105:1 1106:1 
0.6780894776330494 0.6051032639361708 0.26654903852592 0.6484020240256414 1:1 2:1 4:1 13:1 64:1 76:1 79:1 120:1 252:1 300:1 430:1 554:1 1107:1 1108:1 1109:1 
0.1472204488532371 0 0 0 2:1 4:1 13:1 38:1 73:1 109:1 127:1 510:1 533:1 1110:1 1111:1 
1 0.254836061904073 0.8669083767295882 0.07833480069358269 2:1 4:1 12:1 13:1 69:1 128:1 438:1 720:1 1112:1 
1 0 1 0 2:1 4:1 13:1 86:1 1114:1 1116:1 
0.8553041813488362 0.2992600470377612 1 1 1:1 2:1 4:1 12:1 13:1 93:1 1117:1 
0.2550836111867376 0 0 0.2293633552801487 1:1 2:1 4:1 13:1 40:1 56:1 64:1 139:1 223:1 243:1 371:1 734:1 809:1 890:1 1121:1 1122:1 1124:1 1125:1 1126:1 1127:1 
0.5794138185082698 0.5557402164040219 0 1 1:1 2:1 4:1 10:1 13:1 19:1 57:1 67:1 73:1 99:1 101:1 109:1 130:1 176:1 223:1 265:1 370:1 454:1 475:1 1086:1 1087:1 1088:1 1089:1 1090:1 1091:1 
0 0.0187413118792058 0.4239135977486569 0 2:1 4:1 13:1 42:1 57:1 64:1 162:1 171:1 276:1 675:1 1128:1 1129:1 
0 0 1 0 2:1 4:1 12:1 13:1 20:1 34:1 49:1 111:1 112:1 151:1 162:1 311:1 481:1 709:1 1130:1 
0 0.01947071226595673 0.5773026832503506 0.7955252124446239 1:1 2:1 4:1 9:1 13:1 19:1 72:1 86:1 111:1 332:1 386:1 1133:1 1134:1 1136:1 1137:1 
0.3708356016148982 0 1 0.04668381182785157 2:1 4:1 13:1 34:1 42:1 66:1 134:1 182:1 249:1 1018:1 1140:1 1141:1 
0 0 1 0 2:1 4:1 13:1 47:1 57:1 109:1 204:1 239:1 304:1 380:1 478:1 
0 0.2628915711535987 0.2212879274959227 0 1:1 2:1 4:1 10:1 13:1 19:1 34:1 67:1 73:1 86:1 184:1 276:1 658:1 1144:1 1145:1 1146:1 
0 0 0.04832926396806961 0.7355058706273244 2:1 4:1 6:1 13:1 47:1 64:1 86:1 139:1 699:1 1147:1 1148:1 1149:1 
0 0 1 0 2:1 4:1 12:1 13:1 16:1 20:1 38:1 64:1 86:1 131:1 171:1 440:1 669:1 1150:1 1151:1 
0 0 0.8680110966454286 1 2:1 4:1 13:1 19:1 38:1 439:1 726:1 1152:1 1153:1 1154:1 1155:1 
0.1954954692219165 0.3329199845879355 0 0.856390594042212 1:1 2:1 4:1 6:1 8:1 13:1 73:1 103:1 109:1 111:1 265:1 335:1 438:1 598:1 936:1 1156:1 1157:1 1158:1 1159:1 
1 1 1 1 2:1 4:1 13:1 111:1 511:1 1160:1 
0.488379222978697 0.1066073323288277 0.6823187229236514 0.2418455891525943 2:1 4:1 13:1 83:1 205:1 1161:1 1162:1 
1 0.6270163703747907 1 1 2:1 4:1 12:1 13:1 64:1 97:1 111:1 366:1 390:1 660:1 1163:1 1164:1 1165:1 
0.7714239543747805 0.7187012048168088 0.6582502463271436 0.6156047802556006 2:1 4:1 13:1 19:1 67:1 76:1 265:1 408:1 1166:1 1167:1 
1 1 1 1 2:1 4:1 13:1 48:1 76:1 404:1 
0 0 0.1560428423537137 0 2:1 4:1 13:1 67:1 126:1 190:1 543:1 544:1 1168:1 1169:1 1170:1 1171:1 
0 1 0 0.1121061351097019 2:1 4:1 13:1 38:1 56:1 74:1 174:1 216:1 435:1 657:1 748:1 1174:1 1175:1 
0.3435684888174688 0.370127676895621 0.7309070653480907 0.427447969924577 2:1 4:1 13:1 1176:1 1177:1 1179:1 
0.3888550925368668 0.1816466912771378 0.2031282624642509 0.5051984574684102 2:1 4:1 5:1 13:1 64:1 100:1 101:1 124:1 169:1 368:1 830:1 1184:1 1185:1 1186:1 
0.6382352580433713 0 0 0.05214116550722798 2:1 4:1 12:1 13:1 47:1 57:1 111:1 113:1 224:1 252:1 332:1 342:1 370:1 507:1 541:1 679:1 689:1 1187:1 1188:1 
0 0 0.7038772113402064 0.2421128826146944 2:1 4:1 6:1 9:1 13:1 29:1 49:1 72:1 109:1 127:1 252:1 342:1 344:1 607:1 1051:1 
1 1 1 1 2:1 4:1 13:1 1008:1 
0.5778883904149261 0.9997392376901862 1 0.8063025666631444 1:1 2:1 4:1 12:1 13:1 64:1 72:1 153:1 180:1 329:1 1191:1 1192:1 1193:1 
1 0.6135798680179947 0.8597321083894683 0.4233168040878217 2:1 4:1 9:1 13:1 49:1 57:1 223:1 1201:1 1202:1 1203:1 1204:1 
0 0.103294957059495 0.4374361870188374 0.6876483588953355 1:1 2:1 4:1 13:1 19:1 64:1 244:1 450:1 1205:1 1206:1 
0.9461809526321819 0.958478835366302 1 0.9061699436208797 2:1 4:1 12:1 13:1 1207:1 
0 0 0 0.7843850276719841 2:1 4:1 12:1 13:1 103:1 265:1 408:1 888:1 1005:1 1208:1 1209:1 1210:1 1211:1 1212:1 
1 1 1 1 2:1 4:1 12:1 13:1 103:1 
0 0.1496602860861325 1 0 1:1 2:1 4:1 12:1 13:1 19:1 64:1 83:1 86:1 126:1 630:1 
0.4499426192391959 0.04757740971894705 0.3671844256306339 0.3229166997559132 2:1 4:1 13:1 42:1 46:1 64:1 72:1 76:1 97:1 127:1 182:1 481:1 1214:1 1215:1 1216:1 1217:1 1218:1 1219:1 
0 0 1 1 2:1 4:1 12:1 13:1 29:1 73:1 
0 0 0 0.5217448430065326 1:1 2:1 4:1 12:1 13:1 19:1 42:1 56:1 58:1 161:1 162:1 163:1 164:1 
0.6537542808579907 0.4488445977610746 0.1697930687838516 0.5909745816755932 1:1 2:1 4:1 13:1 64:1 111:1 248:1 742:1 1222:1 1223:1 
0 0 0.7290679033498745 0 2:1 4:1 12:1 13:1 29:1 174:1 376:1 377:1 
0 0.6905640279115447 1 0 2:1 4:1 12:1 13:1 34:1 46:1 134:1 162:1 452:1 709:1 933:1 1130:1 1226:1 
1 0.6273327476008409 1 0.4542386566852319 2:1 4:1 5:1 6:1 12:1 13:1 32:1 42:1 53:1 1227:1 1228:1 
0.9560398323413652 0.5192224928119649 0 1 2:1 4:1 13:1 38:1 42:1 73:1 111:1 131:1 312:1 511:1 675:1 717:1 1229:1 1230:1 
0 0 1 1 2:1 4:1 13:1 29:1 64:1 67:1 73:1 176:1 380:1 
0.3649460645972502 0.1331016604773403 0.02010139757931989 0.2814954391482946 1:1 2:1 4:1 13:1 76:1 96:1 97:1 111:1 159:1 1231:1 1232:1 1233:1 1235:1 1236:1 1237:1 1238:1 1239:1 1241:1 
0 0.1313854163413106 1 0.1295812022865204 2:1 4:1 13:1 16:1 465:1 514:1 1245:1 1246:1 
1 1 1 1 2:1 4:1 8:1 13:1 101:1 111:1 387:1 1247:1 
0 0 0.219228061097346 0.06242488658916536 2:1 4:1 13:1 34:1 42:1 46:1 48:1 64:1 72:1 101:1 103:1 115:1 131:1 151:1 182:1 204:1 209:1 210:1 426:1 956:1 960:1 1249:1 1250:1 1251:1 1252:1 1253:1 1255:1 
0.3994944931093889 0.2389363382148615 0 0 2:1 4:1 13:1 52:1 97:1 111:1 139:1 169:1 208:1 907:1 1258:1 1259:1 
0 0 0.6351482646347664 0 2:1 4:1 12:1 13:1 29:1 1260:1 1261:1 1262:1 
0.4352402162449481 0.4845162675883317 0.7058590570287173 0.6129856240534078 2:1 4:1 9:1 13:1 76:1 1263:1 1264:1 
0 0 1 0 1:1 2:1 4:1 12:1 13:1 19:1 202:1 218:1 
1 1 1 1 2:1 4:1 13:1 47:1 163:1 1265:1 1266:1 
1 0 0 0.03718945000250361 2:1 4:1 13:1 80:1 86:1 131:1 209:1 210:1 323:1 434:1 959:1 
1 0 1 1 2:1 4:1 12:1 13:1 40:1 46:1 48:1 49:1 113:1 114:1 139:1 265:1 368:1 438:1 737:1 
0.5815053118491053 0.08911492710996795 1 0.5405422912077436 1:1 2:1 4:1 13:1 19:1 86:1 1114:1 1116:1 
1 1 1 1 2:1 4:1 13:1 46:1 146:1 
0 0 0.1184063471954424 0 2:1 4:1 12:1 13:1 86:1 122:1 212:1 272:1 329:1 1267:1 
0.1300584887587855 0.1681263669269418 0.6493579984849469 0.3755516705176485 1:1 2:1 4:1 10:1 13:1 34:1 46:1 64:1 76:1 86:1 174:1 380:1 438:1 665:1 667:1 1271:1 1273:1 1274:1 1275:1 
0 0 1 0 2:1 4:1 12:1 13:1 69:1 86:1 127:1 182:1 219:1 
1 0.7976051752058343 0.9792969371615905 1 1:1 2:1 4:1 8:1 12:1 13:1 42:1 49:1 776:1 1276:1 1277:1 
0 0 1 1 2:1 4:1 13:1 29:1 264:1 
1 0 1 0.6698456788045383 2:1 4:1 13:1 48:1 73:1 83:1 523:1 745:1 
0 0.2375674960355003 1 0 2:1 4:1 12:1 13:1 122:1 151:1 202:1 1278:1 1279:1 
0.6515073453865373 0.1845093167072985 0.4565130896442618 0.3197358882641591 2:1 4:1 13:1 86:1 153:1 1242:1 1280:1 1281:1 
0 0 0 0.2106390381974199 2:1 4:1 13:1 34:1 47:1 79:1 80:1 86:1 120:1 252:1 276:1 753:1 858:1 982:1 1283:1 1284:1 1285:1 1286:1 
0.6952925914170657 0.4176821937995108 0 0.7254924629930656 2:1 4:1 6:1 13:1 344:1 696:1 1289:1 1290:1 1291:1 
0.3330615433349426 0.870044275307026 0.4642178735010903 0.3493282739270962 2:1 4:1 13:1 42:1 57:1 153:1 1292:1 1293:1 1294:1 1295:1 1296:1 
0.6654151960088364 0 0.1835033383790207 0.7022276278554751 2:1 4:1 13:1 42:1 96:1 399:1 510:1 1297:1 1298:1 1299:1 
1 1 1 1 2:1 4:1 13:1 
0 0 1 0 2:1 4:1 12:1 13:1 19:1 29:1 86:1 184:1 223:1 829:1 1300:1 1301:1 
1 1 1 1 1:1 2:1 4:1 13:1 
0 1 0.8352994158169682 1 2:1 4:1 10:1 12:1 13:1 29:1 48:1 162:1 1302:1 1303:1 1306:1 
0.4349930875564745 0 0.4606113654096292 0 2:1 4:1 6:1 10:1 13:1 42:1 46:1 57:1 61:1 66:1 72:1 111:1 145:1 216:1 353:1 380:1 713:1 849:1 1311:1 1312:1 
1 1 0 1 2:1 4:1 13:1 64:1 76:1 612:1 1314:1 
1 0.999941681284876 1 1 2:1 4:1 10:1 13:1 42:1 101:1 103:1 180:1 438:1 584:1 1316:1 
0 0 0.459506430533008 0 2:1 4:1 12:1 13:1 29:1 218:1 689:1 1317:1 
0.1882614222567152 1 1 1 2:1 4:1 13:1 42:1 141:1 162:1 1319:1 1320:1 
0.2838059870028679 1 0 1 2:1 4:1 8:1 13:1 19:1 76:1 110:1 111:1 149:1 536:1 1057:1 1323:1 
0 0.3419343844674558 1 0 2:1 4:1 5:1 13:1 49:1 57:1 76:1 84:1 109:1 202:1 299:1 329:1 331:1 332:1 333:1 334:1 336:1 
1 1 1 1 1:1 2:1 4:1 8:1 12:1 13:1 56:1 103:1 168:1 
1 1 1 1 2:1 4:1 13:1 73:1 111:1 135:1 
0 0.04167647908965663 0.3077313913656599 0.4687319263576135 2:1 4:1 13:1 34:1 42:1 97:1 103:1 109:1 162:1 180:1 224:1 329:1 332:1 628:1 1325:1 1326:1 1327:1 
1 1 1 1 1:1 2:1 4:1 12:1 13:1 49:1 95:1 
0.9880380256557378 0.3289154875506575 1 0.6465646214781731 2:1 4:1 12:1 13:1 48:1 86:1 103:1 1328:1 1329:1 
1 1 1 1 2:1 4:1 13:1 
0 0.741133307319837 1 1 1:1 2:1 4:1 13:1 19:1 86:1 223:1 265:1 370:1 408:1 537:1 761:1 1330:1 
0.4907513867550788 0.003937608545883584 1 0.6992929966150051 2:1 4:1 13:1 127:1 174:1 663:1 1333:1 
1 0.5667273207323994 0 0 2:1 4:1 13:1 31:1 32:1 76:1 109:1 151:1 162:1 1327:1 1335:1 1336:1 1337:1 
0.9435930587948012 0.03902213013466551 0.3328718101322338 0.8871931056032935 2:1 4:1 13:1 64:1 66:1 145:1 1340:1 1341:1 
0 0 0 0.05423048729345004 1:1 2:1 4:1 13:1 34:1 64:1 67:1 156:1 166:1 379:1 511:1 699:1 1343:1 1344:1 1345:1 
0.9571029859280454 0.3513887980705842 0 0.08152980243915312 2:1 4:1 10:1 13:1 47:1 73:1 86:1 252:1 665:1 822:1 1347:1 
0 0 0.1075844382886711 0 2:1 4:1 13:1 29:1 64:1 126:1 139:1 162:1 167:1 171:1 226:1 438:1 1348:1 1349:1 
0.2789367992520612 0 0.06611857551045405 0.2499558134376935 1:1 2:1 4:1 12:1 13:1 19:1 57:1 64:1 72:1 76:1 101:1 111:1 239:1 246:1 474:1 584:1 628:1 978:1 1021:1 1268:1 1350:1 1351:1 1352:1 1353:1 1354:1 1355:1 
0 0 1 0.3413262375377599 2:1 4:1 12:1 13:1 47:1 72:1 223:1 383:1 1301:1 1357:1 
1 1 0.4200084621701279 0.3656005624240866 2:1 4:1 6:1 13:1 17:1 38:1 72:1 76:1 86:1 235:1 481:1 609:1 1358:1 
1 0 0.4454531800788001 0 2:1 4:1 12:1 13:1 19:1 42:1 126:1 127:1 689:1 1362:1 1363:1 
0 0.04673529621974253 0 0.3404258504264719 1:1 2:1 4:1 8:1 13:1 42:1 64:1 76:1 97:1 111:1 113:1 153:1 188:1 299:1 366:1 387:1 993:1 1220:1 1365:1 1366:1 1367:1 1368:1 
0 1 1 1 2:1 4:1 13:1 17:1 162:1 182:1 669:1 795:1 1372:1 
0.6682079872416402 1 1 1 1:1 2:1 4:1 13:1 380:1 1374:1 
0 0 1 0.3549919776621009 2:1 4:1 12:1 13:1 72:1 252:1 383:1 615:1 1105:1 
0.1979382562027929 1 1 1 1:1 2:1 4:1 13:1 38:1 64:1 300:1 355:1 1375:1 1376:1 
0.3114186705330903 0.3995564095855463 0.8817040213828984 0.4037887470199053 2:1 4:1 13:1 19:1 124:1 184:1 1377:1 1378:1 
1 1 0.7883440575393219 1 2:1 4:1 13:1 19:1 38:1 42:1 46:1 57:1 72:1 73:1 76:1 91:1 101:1 116:1 162:1 313:1 941:1 1379:1 1380:1 1381:1 1382:1 1383:1 1384:1 1385:1 1386:1 
1 0.6451982197570348 0.05439990839567712 1 1:1 2:1 4:1 8:1 12:1 13:1 19:1 34:1 64:1 73:1 76:1 97:1 109:1 252:1 366:1 956:1 960:1 1387:1 1389:1 1390:1 
1 0 1 1 2:1 4:1 13:1 250:1 514:1 1391:1 
0 0 1 0 1:1 2:1 4:1 6:1 9:1 13:1 19:1 20:1 32:1 34:1 64:1 76:1 139:1 162:1 197:1 223:1 332:1 856:1 1251:1 
0.501663019417348 0.7301551198160069 0.5320617982510345 0.9009894064825034 1:1 2:1 4:1 5:1 13:1 101:1 242:1 368:1 482:1 1393:1 1394:1 1395:1 
0.4594879809485827 0.0298014973186836 0.1314797805772016 0.035838083243677 2:1 4:1 13:1 34:1 38:1 47:1 76:1 134:1 503:1 1399:1 1400:1 1401:1 
0.8025175988639607 0 0 1 2:1 4:1 13:1 64:1 380:1 1403:1 
0 0 0.8081133372922746 1 2:1 4:1 13:1 19:1 29:1 38:1 76:1 127:1 149:1 1404:1 1405:1 
0.7367934588145389 0.1719197955853533 0 0.4098979075494811 2:1 4:1 13:1 1406:1 1408:1 
0.1467850735407095 0 0.9663500155036052 0.6570806330528218 2:1 4:1 13:1 347:1 348:1 349:1 514:1 635:1 781:1 782:1 
0.1434591755946631 0 0.2673674327164435 0.05057534131453351 2:1 4:1 13:1 64:1 1409:1 1410:1 1411:1 
0.1130463633551322 0.2264016619430534 0 0.06963142605896613 2:1 4:1 13:1 49:1 51:1 86:1 907:1 1412:1 1413:1 1414:1 1415:1 1416:1 
1 1 1 1 2:1 4:1 8:1 13:1 51:1 252:1 857:1 1050:1 
0 1 1 0 1:1 2:1 4:1 10:1 12:1 13:1 67:1 335:1 403:1 
0 1 0.2156560379163202 0 1:1 2:1 4:1 10:1 12:1 13:1 19:1 42:1 47:1 48:1 67:1 328:1 335:1 337:1 403:1 549:1 806:1 
0 0 0.1617932627890403 0 2:1 4:1 12:1 13:1 57:1 64:1 109:1 139:1 189:1 533:1 1419:1 1420:1 
0.9111206804989403 0 0.6539076293267165 0 2:1 4:1 13:1 153:1 172:1 174:1 300:1 936:1 1428:1 1429:1 1430:1 
0.970194596333692 1 1 0.9653677713362656 2:1 4:1 13:1 69:1 1025:1 
0.4334185671937093 0 1 0 2:1 4:1 12:1 13:1 73:1 171:1 479:1 823:1 
1 1 1 0.7470549888360644 2:1 4:1 12:1 13:1 42:1 80:1 169:1 215:1 235:1 243:1 324:1 329:1 800:1 
1 1 0.6059677804530591 1 2:1 4:1 13:1 46:1 48:1 67:1 86:1 114:1 174:1 235:1 344:1 470:1 1438:1 1439:1 
1 1 0.9408838654612174 1 1:1 2:1 4:1 13:1 132:1 311:1 597:1 1440:1 
0.5143696082810556 0.9340225503398286 0.4728539280231731 0.3786340627792141 2:1 4:1 13:1 42:1 751:1 1441:1 1442:1 1443:1 
1 1 1 1 2:1 4:1 13:1 48:1 49:1 73:1 
0 0 1 0 2:1 4:1 13:1 17:1 20:1 38:1 42:1 64:1 76:1 79:1 101:1 116:1 162:1 212:1 243:1 371:1 439:1 709:1 1444:1 
0.1362096576795586 0 0 0.5491684735860173 1:1 2:1 4:1 13:1 19:1 64:1 97:1 109:1 134:1 149:1 265:1 342:1 1155:1 1445:1 
0 0 0.06537150097930414 0 2:1 4:1 8:1 10:1 12:1 13:1 64:1 72:1 76:1 86:1 88:1 126:1 162:1 380:1 440:1 1349:1 1446:1 1447:1 
1 0.004023453151071622 1 0.7303214726423697 2:1 4:1 5:1 12:1 13:1 42:1 380:1 448:1 665:1 1448:1 
0.6028925896029591 0.5173798253477169 0.6009788138040002 0.8834457345102394 2:1 4:1 13:1 42:1 48:1 74:1 366:1 1449:1 1450:1 
0.4353457997751043 0.009194210905637707 1 0.8594233695427645 2:1 4:1 5:1 6:1 13:1 64:1 66:1 139:1 461:1 
1 0.5118170456190395 0.4275447214935462 0.5499142510833508 2:1 4:1 13:1 47:1 64:1 69:1 109:1 205:1 250:1 408:1 597:1 933:1 1452:1 1453:1 1454:1 1455:1 
0.1502612196385242 0 0 0 2:1 4:1 8:1 13:1 38:1 42:1 46:1 56:1 57:1 64:1 101:1 103:1 261:1 307:1 368:1 640:1 721:1 914:1 915:1 917:1 918:1 919:1 1458:1 
0 0 1 0 2:1 4:1 13:1 76:1 162:1 182:1 219:1 464:1 
1 1 1 1 2:1 4:1 13:1 347:1 348:1 349:1 
0.2317884168763193 0 0.9578731366554406 0 2:1 4:1 12:1 13:1 16:1 19:1 61:1 184:1 313:1 514:1 978:1 1108:1 1352:1 1459:1 1461:1 
0.5752185750999367 0 1 0.9005658102697157 2:1 4:1 13:1 86:1 223:1 265:1 370:1 408:1 537:1 761:1 1330:1 
0.1840221892340735 0.6275698821129257 0.2766125058340146 0.007279458810214419 1:1 2:1 4:1 19:1 67:1 69:1 73:1 94:1 235:1 1335:1 1462:1 1463:1 1464:1 1465:1 1466:1 
0.2806347311938457 0.3281365695137317 1 0.4009415646858466 2:1 4:1 10:1 12:1 13:1 38:1 42:1 72:1 76:1 79:1 116:1 126:1 162:1 167:1 590:1 1468:1 1469:1 1470:1 
0.8781216512250819 0 0.4386985069677212 0 1:1 2:1 4:1 9:1 12:1 13:1 38:1 46:1 57:1 64:1 66:1 72:1 76:1 86:1 111:1 117:1 182:1 223:1 224:1 380:1 440:1 612:1 615:1 711:1 864:1 929:1 1159:1 1471:1 1473:1 1474:1 
1 1 1 1 2:1 4:1 13:1 38:1 127:1 128:1 
1 1 1 1 2:1 4:1 8:1 13:1 53:1 72:1 73:1 223:1 536:1 
1 1 1 1 2:1 4:1 12:1 13:1 49:1 95:1 
1 0 1 1 2:1 4:1 13:1 38:1 47:1 69:1 76:1 86:1 174:1 183:1 1479:1 1480:1 1481:1 
0.3521447139880461 0.4116600272718557 0 0.7080707527819685 1:1 2:1 4:1 9:1 10:1 13:1 42:1 46:1 49:1 57:1 96:1 151:1 907:1 1233:1 1482:1 1486:1 1487:1 1488:1 
0.5656901540207685 0.5220485276114892 0 1 2:1 4:1 13:1 48:1 86:1 168:1 345:1 856:1 1267:1 
0.2131103512728642 0.6034307076127593 0.4943687648708396 1 1:1 2:1 4:1 12:1 13:1 109:1 243:1 344:1 368:1 520:1 1491:1 1492:1 
0.9733745450336206 0.1055691051385408 1 1 1:1 2:1 4:1 10:1 12:1 13:1 19:1 57:1 64:1 86:1 110:1 111:1 131:1 135:1 193:1 1003:1 1325:1 
0 0 1 0 2:1 4:1 13:1 29:1 218:1 
1 1 1 1 2:1 4:1 8:1 13:1 110:1 111:1 143:1 1493:1 
1 1 1 1 2:1 4:1 13:1 1233:1 
0 0 1 0 2:1 4:1 13:1 109:1 125:1 333:1 
0.2854460682903573 0 0 0.4818545624732187 2:1 4:1 13:1 578:1 637:1 1496:1 1497:1 
0.2700299157480155 0.2069713960863181 0.2510430155362662 0 2:1 4:1 13:1 48:1 65:1 86:1 126:1 1498:1 1499:1 1500:1 
0.3567168284133125 0 0 0.298540995888719 2:1 4:1 13:1 47:1 64:1 109:1 167:1 205:1 370:1 1501:1 1502:1 1503:1 1504:1 1505:1 
0.1264155863803877 0 0 0.17732844507054 2:1 4:1 13:1 42:1 46:1 47:1 49:1 72:1 86:1 109:1 145:1 167:1 174:1 237:1 281:1 300:1 304:1 590:1 774:1 873:1 964:1 980:1 1507:1 1508:1 1509:1 
1 0 0 0.4888593726282878 2:1 4:1 9:1 10:1 13:1 38:1 49:1 64:1 86:1 94:1 109:1 139:1 174:1 556:1 611:1 928:1 1181:1 1471:1 1510:1 1511:1 
0.7289374606202933 0.3364869518153963 0.9370173448620567 0.6292711187870708 2:1 4:1 13:1 34:1 47:1 49:1 74:1 134:1 169:1 264:1 344:1 448:1 522:1 1513:1 1514:1 1515:1 1516:1 
0.5078086358174801 0 1 0 1:1 2:1 4:1 10:1 12:1 13:1 64:1 72:1 178:1 224:1 319:1 344:1 438:1 
1 1 1 1 2:1 4:1 13:1 42:1 45:1 408:1 689:1 1519:1 
0 0 0.69548427117754 0 2:1 4:1 6:1 9:1 13:1 20:1 32:1 34:1 64:1 76:1 139:1 162:1 197:1 223:1 332:1 856:1 1251:1 
1 0.5730980432826356 1 0.9583485330016154 2:1 4:1 5:1 13:1 61:1 1520:1 
1 1 1 1 1:1 2:1 4:1 13:1 19:1 
1 0.4338830369941481 1 1 1:1 2:1 4:1 13:1 64:1 86:1 124:1 223:1 224:1 319:1 711:1 1521:1 1522:1 1523:1 
0.4692369844065674 0.8764253603826241 0.8162025802960523 1 1:1 2:1 4:1 13:1 19:1 145:1 251:1 769:1 
0 0.2097103058606295 0 0.3767791840750322 2:1 4:1 10:1 13:1 40:1 41:1 42:1 49:1 86:1 153:1 299:1 537:1 642:1 829:1 954:1 1525:1 1526:1 
0.8903721412882296 0 0.03824376730642364 0.7828257689277274 2:1 4:1 13:1 109:1 153:1 172:1 371:1 1527:1 1528:1 
0.8575665287017232 0.6700301197297079 1 1 2:1 4:1 13:1 1530:1 1533:1 
1 0 0 1 2:1 4:1 13:1 64:1 76:1 97:1 111:1 131:1 210:1 358:1 475:1 813:1 1511:1 
1 1 1 0 1:1 2:1 4:1 12:1 13:1 19:1 1534:1 
0 0 0.1657988816300747 0.2612459265143174 2:1 4:1 13:1 29:1 162:1 185:1 347:1 348:1 349:1 464:1 1536:1 1538:1 
1 1 1 1 2:1 4:1 13:1 1447:1 
0 0 1 0 2:1 4:1 13:1 606:1 
1 1 1 1 2:1 4:1 13:1 76:1 174:1 385:1 477:1 953:1 
0 0 0 1 2:1 4:1 13:1 19:1 48:1 62:1 86:1 111:1 135:1 200:1 239:1 313:1 598:1 1122:1 
1 1 1 1 2:1 4:1 12:1 13:1 64:1 795:1 1542:1 
0 0 1 0 2:1 4:1 13:1 20:1 86:1 182:1 219:1 232:1 250:1 514:1 635:1 
0 0 1 0 2:1 4:1 12:1 13:1 29:1 127:1 
0 0 0.1733639219736492 0.0419786498664423 2:1 4:1 12:1 13:1 42:1 57:1 702:1 1530:1 1545:1 1546:1 1547:1 1548:1 1549:1 1550:1 1551:1 1552:1 1553:1 1554:1 1555:1 1556:1 1557:1 1558:1 1559:1 1560:1 
0 0 0 0.5746132007468252 1:1 2:1 4:1 13:1 32:1 38:1 46:1 103:1 188:1 1561:1 1562:1 1563:1 1564:1 
1 1 1 1 2:1 4:1 13:1 49:1 67:1 153:1 176:1 380:1 
0.2253439264055858 0.08756605283800259 0.04480439054863004 0.2304929850294336 2:1 4:1 10:1 13:1 73:1 80:1 1568:1 1569:1 1570:1 
0.5153446394075026 0.5550896369392608 0.8101161929841078 0.6409632691871008 2:1 4:1 13:1 1572:1 1573:1 
0.6368345992936904 0.6580357828295482 0.5945791038514567 0.249465743638676 1:1 2:1 4:1 12:1 13:1 79:1 94:1 597:1 1325:1 1574:1 1575:1 
0.7726633132205568 0.6562441835040603 1 1 1:1 2:1 4:1 13:1 401:1 432:1 1576:1 1577:1 1578:1 1579:1 
0.1457557613137551 0.1426540135335185 0.03735202060154088 0.1757044103125203 2:1 4:1 13:1 385:1 1388:1 1581:1 1582:1 1583:1 1585:1 1586:1 1587:1 1588:1 
1 0.3173022931551626 0 1 2:1 4:1 13:1 47:1 48:1 72:1 111:1 261:1 264:1 1589:1 
0.1912721861627183 0 0.669800457088377 0.5982149211370668 2:1 4:1 13:1 16:1 46:1 440:1 458:1 782:1 1592:1 1593:1 
0 0.08859016459877564 0.1681936695511538 0.229524952509514 2:1 4:1 13:1 76:1 162:1 1314:1 
0 0 0.361026532140183 0.5554275370427126 2:1 4:1 13:1 72:1 162:1 368:1 536:1 1283:1 1597:1 1598:1 
0.6820403436247371 1 0.1274491145094777 1 2:1 4:1 13:1 64:1 83:1 86:1 101:1 111:1 144:1 1511:1 1599:1 1600:1 
1 0 1 0.1073379215557478 1:1 2:1 4:1 13:1 19:1 51:1 380:1 718:1 744:1 815:1 
0.903609030762777 0 0 0 1:1 2:1 4:1 10:1 12:1 13:1 19:1 38:1 42:1 48:1 76:1 127:1 162:1 218:1 552:1 1601:1 
1 0.3148423436915339 0 0.6997331788333777 2:1 4:1 10:1 13:1 20:1 58:1 272:1 1602:1 
0 0 1 0 2:1 4:1 13:1 29:1 182:1 219:1 
1 1 1 1 2:1 4:1 13:1 
0.2792739304503062 0 0.4365081933726356 0.107541908254366 2:1 4:1 5:1 9:1 12:1 13:1 38:1 72:1 74:1 76:1 86:1 127:1 355:1 380:1 454:1 971:1 1285:1 1603:1 
0 0.943568925592932 1 1 1:1 2:1 4:1 9:1 13:1 63:1 103:1 1604:1 1605:1 
0.3337304519821552 0.3372407272391355 1 0.4987565100401281 1:1 2:1 4:1 13:1 73:1 76:1 132:1 319:1 514:1 1606:1 1607:1 1608:1 1609:1 1610:1 1611:1 1612:1 
0 0.06284689416512486 0 0.07829858322332299 2:1 4:1 6:1 10:1 13:1 57:1 64:1 73:1 109:1 120:1 202:1 205:1 222:1 252:1 299:1 362:1 600:1 1066:1 1195:1 1451:1 1613:1 1614:1 
0.6892695918140403 0.4576363195938452 0 0.2789881278756668 1:1 2:1 4:1 8:1 12:1 13:1 56:1 57:1 72:1 94:1 97:1 109:1 111:1 122:1 127:1 169:1 202:1 299:1 311:1 342:1 344:1 890:1 1291:1 1618:1 1619:1 1620:1 
1 1 1 1 1:1 2:1 4:1 13:1 101:1 111:1 329:1 1628:1 
0.6015998677818004 0.7775557527389267 1 1 2:1 4:1 13:1 19:1 48:1 74:1 127:1 347:1 349:1 401:1 415:1 516:1 531:1 888:1 899:1 1467:1 1493:1 1629:1 
0 0 0 0.2578095039479399 1:1 2:1 4:1 10:1 19:1 29:1 57:1 64:1 72:1 73:1 76:1 86:1 110:1 111:1 112:1 113:1 122:1 131:1 159:1 329:1 439:1 555:1 556:1 597:1 899:1 1475:1 1630:1 1631:1 
0 0 0 1 2:1 4:1 13:1 29:1 41:1 47:1 64:1 76:1 101:1 218:1 556:1 991:1 1247:1 1632:1 1633:1 1634:1 
0.7333534433149127 0 0 0 2:1 4:1 6:1 13:1 72:1 73:1 76:1 162:1 196:1 197:1 198:1 199:1 200:1 202:1 
0 0 0 0.285964321290516 2:1 4:1 13:1 64:1 86:1 380:1 438:1 521:1 1636:1 1637:1 
1 1 1 1 2:1 4:1 13:1 
1 1 1 1 2:1 4:1 13:1 73:1 167:1 
0.3186546505175319 0 0.5924288549717742 0.6487739860101628 2:1 4:1 13:1 20:1 1639:1 
0.1926731223709848 0.3008311404786172 0 0.1920072931716677 2:1 4:1 12:1 13:1 356:1 1640:1 1641:1 1642:1 
0.6824940246173261 0.5795279415673127 0.6158913079824633 0 1:1 2:1 4:1 12:1 13:1 19:1 52:1 72:1 76:1 86:1 111:1 112:1 113:1 114:1 115:1 116:1 117:1 119:1 120:1 121:1 
1 1 1 1 2:1 4:1 13:1 32:1 42:1 53:1 223:1 1644:1 
1 1 1 1 2:1 4:1 13:1 
0 0.2130358343864429 0.3827027559422637 0.1785229633906406 2:1 4:1 13:1 187:1 1647:1 
1 1 1 1 2:1 4:1 8:1 13:1 56:1 169:1 208:1 210:1 358:1 
0.0893171871731 0.3298689073479684 1 1 1:1 2:1 4:1 13:1 40:1 73:1 83:1 205:1 252:1 401:1 556:1 810:1 1247:1 1648:1 1649:1 
0 0 1 0 2:1 4:1 9:1 13:1 19:1 29:1 34:1 42:1 127:1 184:1 209:1 210:1 299:1 665:1 921:1 1650:1 
0 0.3329128665366625 0.4823097696650448 0.5375654363944026 1:1 2:1 4:1 13:1 19:1 47:1 73:1 76:1 120:1 174:1 319:1 1652:1 1653:1 
0.6663710772758971 1 0.5836993732653997 0.8117950211868302 2:1 4:1 13:1 46:1 66:1 69:1 72:1 405:1 714:1 1655:1 
0.9302624570188313 0.7519289985695349 0.6716698685442475 1 2:1 4:1 13:1 52:1 86:1 205:1 223:1 259:1 329:1 401:1 711:1 774:1 1247:1 1660:1 
0 1 0.04963132981604097 0.8134668194857515 1:1 2:1 4:1 13:1 191:1 
0.1543369414373794 0 0 0 2:1 4:1 13:1 153:1 1267:1 1661:1 
0 1 1 1 2:1 4:1 13:1 19:1 48:1 97:1 184:1 224:1 1662:1 
0.290382431296802 0.635225694981712 1 0.4176969277063313 2:1 4:1 12:1 13:1 74:1 810:1 822:1 1663:1 
0.1419299624283813 1 0.835919574429252 1 1:1 2:1 4:1 13:1 19:1 48:1 67:1 76:1 313:1 596:1 771:1 1184:1 1664:1 1665:1 
0.563325020914978 0 0.4998495275793884 0.3297628548590519 2:1 4:1 13:1 64:1 223:1 224:1 232:1 380:1 873:1 1330:1 1471:1 1617:1 
0.3580158601245348 0 1 0.8495403546440686 1:1 2:1 4:1 9:1 12:1 13:1 47:1 222:1 371:1 1667:1 
1 1 0 1 1:1 2:1 4:1 5:1 13:1 19:1 47:1 48:1 49:1 57:1 96:1 109:1 169:1 223:1 437:1 438:1 597:1 642:1 907:1 956:1 960:1 
0 0 0 0.004107946549888141 1:1 2:1 4:1 13:1 19:1 52:1 56:1 63:1 103:1 149:1 1669:1 
1 1 1 1 2:1 4:1 13:1 33:1 42:1 47:1 48:1 101:1 347:1 349:1 368:1 415:1 1671:1 
0.4831098973850177 0.7182946615528498 0.6516324384649712 0.2735579183272254 2:1 4:1 13:1 67:1 86:1 511:1 1284:1 1673:1 1674:1 1675:1 1676:1 
1 1 1 1 2:1 4:1 13:1 1679:1 
0.5446930710665895 0 0 0 2:1 4:1 9:1 13:1 72:1 86:1 111:1 332:1 386:1 1133:1 1134:1 1136:1 1137:1 
0.1280834090055286 0 0.1623077668476649 0.1254721194241168 2:1 4:1 12:1 13:1 57:1 1681:1 1682:1 1683:1 1685:1 1686:1 1687:1 1688:1 1689:1 1690:1 1691:1 1692:1 1694:1 1695:1 1696:1 1697:1 1698:1 1699:1 1700:1 1701:1 
0.1156968485222379 0.08176263811349882 0.2763918887638784 0.2610779552345712 2:1 4:1 13:1 73:1 103:1 109:1 1155:1 1530:1 1702:1 1703:1 1704:1 1705:1 1706:1 1707:1 1708:1 1709:1 1711:1 1712:1 1713:1 1714:1 1715:1 
0.2520153013633912 0 0 0.1421878209171473 2:1 4:1 5:1 13:1 19:1 29:1 64:1 72:1 80:1 111:1 124:1 139:1 162:1 168:1 179:1 205:1 401:1 630:1 1479:1 1493:1 1716:1 1717:1 1718:1 
0 0 0 0.2364268789892364 2:1 4:1 13:1 69:1 76:1 126:1 720:1 1722:1 
1 0.2642324371525953 1 1 2:1 4:1 8:1 13:1 49:1 63:1 64:1 73:1 109:1 134:1 370:1 1723:1 1724:1 
0.150596770692211 0 0 0 2:1 4:1 13:1 47:1 73:1 76:1 120:1 174:1 319:1 1652:1 1653:1 
0 1 0 0 1:1 2:1 4:1 13:1 19:1 38:1 47:1 76:1 103:1 263:1 734:1 806:1 832:1 886:1 1062:1 1064:1 
0.8122796246147952 0.7197196862073539 1 1 2:1 4:1 13:1 19:1 73:1 109:1 135:1 313:1 1725:1 
0 0.1899263874202107 1 1 1:1 2:1 4:1 12:1 13:1 38:1 383:1 1726:1 1727:1 
1 1 1 1 2:1 4:1 13:1 111:1 1473:1 
0.8122832321179555 0 0.8087620627122664 0 2:1 4:1 10:1 12:1 13:1 64:1 252:1 264:1 520:1 711:1 770:1 860:1 1729:1 
1 1 1 1 1:1 2:1 4:1 13:1 578:1 
0.1698523205775873 0.12533169983258 0.3673378060466858 0.2393714695543974 2:1 4:1 13:1 16:1 86:1 103:1 107:1 849:1 1508:1 1730:1 1731:1 
0.3415767839440171 0.08585648687851684 0.04947320158209158 0.2680035201637659 2:1 4:1 13:1 32:1 66:1 69:1 86:1 96:1 687:1 1050:1 1732:1 1733:1 1734:1 1735:1 1736:1 1737:1 1738:1 
0.5588522991611098 0 1 0 2:1 4:1 13:1 47:1 64:1 110:1 111:1 114:1 178:1 319:1 380:1 660:1 1739:1 
0 1 1 1 1:1 2:1 4:1 12:1 13:1 52:1 63:1 67:1 103:1 134:1 135:1 
1 0 1 1 1:1 2:1 4:1 13:1 202:1 745:1 
1 0.2427782095816022 1 0 2:1 4:1 13:1 46:1 76:1 83:1 101:1 782:1 1741:1 
0 0.2554966686317407 0.8399472508614185 0.8834810723284878 1:1 2:1 4:1 13:1 19:1 153:1 1267:1 1661:1 
0.689362949827368 0.8707360553494579 0 0.67591114127146 1:1 2:1 4:1 8:1 13:1 32:1 77:1 111:1 205:1 252:1 342:1 390:1 600:1 793:1 856:1 1742:1 
0.1758949614483308 0.4104012020600628 0.4090510835169811 0.4068534490415087 1:1 2:1 4:1 10:1 13:1 668:1 1743:1 1744:1 
0.619313624977237 0.4450300782071669 0.6766963750481475 0.5533507997708217 2:1 4:1 9:1 13:1 40:1 162:1 172:1 341:1 347:1 349:1 415:1 505:1 785:1 1746:1 1747:1 
1 1 1 1 2:1 4:1 13:1 73:1 202:1 
0.4074028817438567 0 0 0 2:1 4:1 13:1 42:1 64:1 76:1 86:1 101:1 127:1 179:1 261:1 452:1 463:1 982:1 1019:1 1751:1 1752:1 1753:1 
0 0.891458837144967 0.5505811393352816 0.6253336732812602 1:1 2:1 4:1 13:1 48:1 64:1 94:1 139:1 184:1 222:1 313:1 609:1 
0.2158053549567499 0.8492919308427093 0 0 2:1 4:1 13:1 64:1 72:1 76:1 86:1 919:1 1477:1 1755:1 1756:1 1757:1 
0 0 1 0.05224264651477713 2:1 4:1 13:1 17:1 1200:1 1758:1 
0 0 1 1 2:1 4:1 13:1 145:1 383:1 
0.6043906884743495 0.1959956665921396 0.03114801343934009 0.7424974817174409 2:1 4:1 8:1 13:1 49:1 51:1 907:1 1673:1 1759:1 1760:1 1761:1 
1 1 1 0.4399451938312448 2:1 4:1 6:1 10:1 13:1 42:1 713:1 
0.388943132515485 1 0.4788024566943232 1 1:1 2:1 4:1 9:1 13:1 57:1 73:1 162:1 167:1 252:1 873:1 1762:1 1764:1 1765:1 1767:1 
0.110588402440546 0.5465525522974369 0.430305217117851 0.7531841911713588 1:1 2:1 4:1 6:1 9:1 12:1 13:1 27:1 46:1 69:1 86:1 120:1 235:1 322:1 475:1 483:1 853:1 886:1 890:1 1523:1 1768:1 1769:1 
0 0.5583387588686176 1 1 2:1 4:1 9:1 13:1 19:1 76:1 127:1 141:1 184:1 
1 1 1 1 1:1 2:1 4:1 12:1 13:1 74:1 243:1 654:1 
0.5881293187058914 0 0.3984441747347732 0 2:1 4:1 13:1 56:1 276:1 1776:1 1777:1 
0.1403189511237804 0.4891908954752041 0.5823809025474482 0.4822610009066575 1:1 2:1 4:1 13:1 19:1 73:1 76:1 86:1 635:1 1778:1 1780:1 
0.9048526702825569 0.3834752685261691 0.3287315537704524 0.1862119238790498 2:1 4:1 10:1 13:1 41:1 42:1 46:1 57:1 64:1 67:1 76:1 86:1 88:1 109:1 114:1 162:1 547:1 997:1 1191:1 1451:1 1782:1 1783:1 1784:1 1785:1 1786:1 
1 1 0.9898934952421751 0.9030055200487475 2:1 4:1 13:1 64:1 66:1 153:1 232:1 1788:1 1789:1 
1 1 1 1 2:1 4:1 9:1 12:1 13:1 19:1 42:1 83:1 130:1 
0.2087623895843672 0.3795533559739691 1 0.2087636558360532 1:1 2:1 4:1 13:1 19:1 38:1 42:1 72:1 76:1 162:1 267:1 1790:1 1791:1 
0 0 1 0 2:1 4:1 12:1 13:1 663:1 1278:1 
0.5183132681703198 0.2247231200816436 0 1 2:1 4:1 6:1 13:1 64:1 72:1 299:1 344:1 636:1 1301:1 1796:1 1797:1 
0.1455466455189857 0.1509297004114657 1 1 2:1 4:1 13:1 29:1 46:1 63:1 64:1 65:1 86:1 204:1 216:1 370:1 371:1 642:1 1724:1 1798:1 1799:1 
0 1 0 0.2238517342842835 1:1 2:1 4:1 13:1 32:1 53:1 975:1 1754:1 1800:1 
0 0 0.9691816571914524 0.4173601293821983 2:1 4:1 6:1 13:1 52:1 224:1 507:1 1447:1 1520:1 1801:1 
0 1 1 1 1:1 2:1 4:1 12:1 13:1 57:1 604:1 
0.3453972003574389 0.129284977957011 0.6069381109848805 0.5429446925155385 2:1 4:1 13:1 67:1 76:1 216:1 347:1 349:1 408:1 415:1 840:1 860:1 1607:1 1803:1 1804:1 1805:1 1806:1 
0 0 0.218452305257003 0 1:1 2:1 4:1 9:1 12:1 13:1 19:1 29:1 32:1 42:1 49:1 94:1 109:1 122:1 169:1 328:1 337:1 913:1 1809:1 1810:1 1811:1 1812:1 
0 0.001848197847378911 0.3253771927267871 0 2:1 4:1 10:1 13:1 42:1 46:1 76:1 86:1 126:1 171:1 971:1 972:1 1813:1 1814:1 1815:1 1816:1 
0.8025575615744356 0 0 0.3701777461639911 2:1 4:1 13:1 47:1 48:1 76:1 578:1 1005:1 1817:1 1818:1 
0 1 1 1 1:1 2:1 4:1 13:1 29:1 660:1 
0.4400487719729876 0.8558898015177009 1 0.6074044141086458 1:1 2:1 4:1 13:1 19:1 76:1 113:1 162:1 401:1 403:1 464:1 753:1 
0 0 1 1 2:1 4:1 13:1 29:1 
0.04233293908191376 1 0.4604747338488303 0.3814612973869124 1:1 2:1 4:1 13:1 19:1 67:1 72:1 127:1 149:1 664:1 997:1 1823:1 
0.6341194709603354 0.3908180757627095 0.1642151196826709 0.5028573695797448 2:1 4:1 13:1 82:1 171:1 1827:1 
0.3123087471379505 0 0 0.2302141845341725 2:1 4:1 13:1 46:1 64:1 176:1 177:1 189:1 379:1 663:1 1828:1 1829:1 1831:1 
0 0 0.6485099379985235 0.9822778421532883 1:1 2:1 4:1 13:1 19:1 79:1 86:1 127:1 188:1 978:1 1163:1 1825:1 
0.6270297129015671 0 0.9895490094197137 1 2:1 4:1 13:1 53:1 79:1 101:1 109:1 111:1 151:1 298:1 333:1 375:1 475:1 1174:1 1832:1 1833:1 
0 0 0.3811207562747151 0 2:1 4:1 12:1 13:1 72:1 76:1 86:1 119:1 120:1 121:1 
1 0 0 0.6478479098997559 2:1 4:1 5:1 13:1 47:1 48:1 57:1 64:1 69:1 76:1 110:1 111:1 113:1 139:1 162:1 222:1 243:1 252:1 261:1 298:1 1828:1 1834:1 1835:1 1836:1 1837:1 1838:1 1839:1 
0 0 1 1 2:1 4:1 10:1 13:1 29:1 
1 0.3520950604642835 1 1 2:1 4:1 13:1 64:1 167:1 232:1 1268:1 1841:1 
0.08776790931480014 0 0 1 2:1 4:1 12:1 13:1 19:1 42:1 64:1 101:1 122:1 149:1 169:1 207:1 208:1 224:1 313:1 318:1 475:1 1459:1 
0.2742376928202884 0.1707917905272066 0.3419904695638436 0.0003474251876126958 1:1 2:1 4:1 13:1 19:1 42:1 55:1 62:1 79:1 113:1 153:1 205:1 401:1 554:1 689:1 1623:1 1842:1 1843:1 1844:1 1845:1 
0 0 0 0.435150528782806 2:1 4:1 9:1 13:1 38:1 46:1 49:1 64:1 76:1 97:1 101:1 272:1 401:1 440:1 810:1 1692:1 1846:1 1847:1 1848:1 
0.5342261849273942 0 0.003160874498304287 0.3539451350862509 2:1 4:1 13:1 38:1 42:1 46:1 56:1 63:1 64:1 72:1 76:1 103:1 139:1 264:1 553:1 1163:1 1850:1 1851:1 1852:1 1853:1 1854:1 1855:1 
1 0 1 1 2:1 4:1 12:1 13:1 145:1 
0.3015612992897878 1 1 1 1:1 2:1 4:1 12:1 13:1 64:1 179:1 312:1 1301:1 1860:1 
1 1 1 1 2:1 4:1 13:1 67:1 1862:1 
1 1 1 1 2:1 4:1 13:1 73:1 176:1 182:1 648:1 1066:1 1301:1 
0 0.5192663643297861 1 0.5888345556687288 2:1 4:1 13:1 34:1 97:1 117:1 145:1 169:1 873:1 1467:1 1863:1 
0 0.7342257461997175 0 0 2:1 4:1 13:1 174:1 379:1 
0.2906747762295101 0 0 0.3771862357915339 1:1 2:1 4:1 13:1 19:1 32:1 42:1 84:1 97:1 103:1 109:1 142:1 153:1 475:1 820:1 1865:1 
1 1 1 1 1:1 2:1 4:1 12:1 13:1 19:1 38:1 46:1 73:1 899:1 1866:1 1867:1 
0 0.5300449855688699 1 0.4080396516154513 2:1 4:1 13:1 34:1 1869:1 1870:1 
1 1 1 1 2:1 4:1 5:1 13:1 63:1 64:1 86:1 669:1 679:1 865:1 1269:1 1871:1 
1 0 1 1 2:1 4:1 12:1 13:1 46:1 61:1 319:1 
0.6312771178691582 0 0 0 2:1 4:1 13:1 79:1 86:1 127:1 188:1 978:1 1163:1 1825:1 
1 1 0 1 1:1 2:1 4:1 13:1 49:1 53:1 79:1 888:1 911:1 
1 0.5234964685174095 1 1 2:1 4:1 8:1 13:1 46:1 48:1 72:1 94:1 293:1 325:1 380:1 867:1 1233:1 
0.6569665264555543 1 1 0.9665853155985015 2:1 4:1 13:1 46:1 67:1 171:1 666:1 1874:1 1875:1 
1 1 1 1 1:1 2:1 4:1 13:1 52:1 134:1 179:1 303:1 811:1 
0 1 0 0 2:1 4:1 12:1 13:1 64:1 66:1 99:1 263:1 745:1 748:1 847:1 853:1 956:1 960:1 1880:1 1881:1 1882:1 1883:1 
0 0 1 0 2:1 4:1 12:1 13:1 29:1 1332:1 
1 1 1 1 1:1 2:1 4:1 12:1 13:1 19:1 34:1 49:1 103:1 117:1 
0 0 0.8129541699981433 0 2:1 4:1 12:1 13:1 52:1 64:1 72:1 79:1 101:1 103:1 134:1 398:1 1488:1 
0.08303398184498793 1 1 1 2:1 4:1 12:1 13:1 709:1 
0.1874816669351267 0 1 0 2:1 4:1 13:1 64:1 86:1 178:1 380:1 1884:1 1885:1 
0.4460189992337847 0.1394057663669991 0.03838960987782875 0 2:1 4:1 13:1 42:1 294:1 1887:1 1888:1 1889:1 1890:1 
1 1 1 0.9770835392771765 1:1 2:1 4:1 6:1 8:1 12:1 13:1 56:1 57:1 109:1 113:1 223:1 252:1 370:1 611:1 1892:1 
0.8473858464998258 0 0 1 2:1 4:1 13:1 64:1 86:1 97:1 111:1 222:1 298:1 366:1 1894:1 
0.3459813861805711 0 0 0.3152423617638681 2:1 4:1 10:1 13:1 72:1 86:1 171:1 299:1 344:1 524:1 810:1 1534:1 1896:1 1898:1 
0.1476932382753286 0.1852642723441571 0.2552900325762011 0.3508980262530886 2:1 4:1 13:1 42:1 73:1 385:1 1530:1 1550:1 1702:1 1714:1 1899:1 1900:1 1901:1 1902:1 1903:1 1904:1 1905:1 
0 0 1 0 2:1 4:1 12:1 13:1 29:1 109:1 533:1 1122:1 
0.2101829465129107 0 0 0 1:1 2:1 4:1 12:1 13:1 41:1 46:1 52:1 57:1 64:1 83:1 86:1 124:1 126:1 143:1 167:1 247:1 250:1 335:1 380:1 403:1 853:1 1268:1 1907:1 1908:1 1909:1 1910:1 
0.3625193241901213 0.457689264480552 1 0.6995062717806732 2:1 4:1 13:1 57:1 394:1 559:1 1915:1 
0 0.4816251255495204 1 0 1:1 2:1 4:1 13:1 19:1 80:1 86:1 131:1 184:1 209:1 210:1 323:1 434:1 956:1 959:1 960:1 
0 0.08133900941859343 0 0.1292394758448141 1:1 2:1 4:1 9:1 13:1 57:1 61:1 69:1 72:1 73:1 80:1 86:1 385:1 546:1 708:1 770:1 1145:1 1916:1 1917:1 1918:1 1919:1 1920:1 
0.5463078255459333 0 1 0.01845303794485342 2:1 4:1 13:1 34:1 48:1 76:1 163:1 209:1 210:1 541:1 1921:1 
0 0 1 0 1:1 2:1 4:1 12:1 13:1 19:1 29:1 264:1 328:1 337:1 1923:1 
0 0.9998061685526739 0 1 1:1 2:1 4:1 13:1 32:1 42:1 84:1 97:1 103:1 109:1 142:1 153:1 475:1 820:1 1865:1 
0.3042217210551481 1 1 1 2:1 4:1 13:1 1924:1 
1 1 0.4315504716638732 1 2:1 4:1 13:1 73:1 223:1 370:1 1119:1 1925:1 1926:1 
1 1 1 1 2:1 4:1 13:1 48:1 57:1 61:1 73:1 83:1 
1 0.8923985839749062 1 1 2:1 4:1 12:1 13:1 64:1 76:1 132:1 152:1 265:1 293:1 596:1 1928:1 1929:1 1932:1 
0.9270029526841456 0.180197577175944 0.2756821562366846 0.4686346178527256 2:1 4:1 13:1 64:1 153:1 232:1 366:1 1021:1 1933:1 1934:1 
1 0.9907121286782011 1 1 2:1 4:1 12:1 13:1 48:1 252:1 1935:1 
0.4831671567762014 0.2055243306257295 0.104497134399765 0.5301298926933375 2:1 4:1 13:1 38:1 42:1 46:1 48:1 62:1 80:1 101:1 109:1 162:1 202:1 552:1 933:1 993:1 1224:1 1347:1 1937:1 1938:1 1939:1 1940:1 
1 1 1 1 2:1 4:1 12:1 13:1 38:1 48:1 109:1 
1 1 1 1 2:1 4:1 13:1 19:1 149:1 252:1 809:1 
0.891348962232135 0.3139585613974604 0.6926558213944827 0.9477755653302502 2:1 4:1 13:1 711:1 1268:1 1941:1 1942:1 1943:1 
1 1 0.4843795833853276 1 1:1 2:1 4:1 13:1 19:1 64:1 76:1 97:1 111:1 313:1 579:1 802:1 1174:1 1272:1 1944:1 1945:1 
1 0.08301386937017127 1 1 2:1 4:1 13:1 38:1 127:1 1946:1 
0.6816185439581842 0.5250376843118939 1 0.06914222714061467 2:1 4:1 5:1 6:1 8:1 13:1 55:1 56:1 64:1 76:1 99:1 151:1 169:1 276:1 306:1 347:1 348:1 349:1 1910:1 1947:1 1948:1 1949:1 1950:1 
0 0 0.01627147379884342 0 2:1 4:1 12:1 13:1 29:1 1691:1 1952:1 
0 0 0.03828910178934215 0.1898670374371627 2:1 4:1 10:1 13:1 57:1 76:1 126:1 210:1 1953:1 1954:1 1955:1 1956:1 1957:1 
0 0 1 1 2:1 4:1 13:1 29:1 127:1 
0 0.257440190307296 0 0 1:1 2:1 4:1 13:1 73:1 362:1 390:1 599:1 600:1 
0.7913950390651018 1 1 1 1:1 2:1 4:1 13:1 19:1 57:1 563:1 
0 0 1 0 1:1 2:1 4:1 13:1 19:1 61:1 64:1 72:1 86:1 110:1 111:1 152:1 178:1 380:1 516:1 
0.9055110920543468 0.3198491546917143 1 1 2:1 4:1 13:1 187:1 299:1 1958:1 
0.7431646862542092 0.05083260467571395 0 0.1054131895552963 2:1 4:1 13:1 16:1 69:1 86:1 96:1 324:1 558:1 1959:1 1960:1 1961:1 1962:1 1963:1 
0 1 1 1 1:1 2:1 4:1 13:1 48:1 73:1 94:1 212:1 412:1 
1 1 1 1 2:1 4:1 13:1 
0.4789159521299675 0.06920081054654342 0.7655909051894151 0.3656018505424409 1:1 2:1 4:1 12:1 13:1 32:1 52:1 64:1 134:1 371:1 380:1 399:1 628:1 1965:1 1966:1 1967:1 1968:1 
0.4480178278408692 0 0.01739251672350383 0.2956673368717667 2:1 4:1 6:1 13:1 46:1 47:1 48:1 57:1 64:1 76:1 83:1 127:1 189:1 196:1 212:1 232:1 873:1 1230:1 1969:1 1970:1 1971:1 
1 1 1 1 2:1 4:1 13:1 103:1 210:1 
1 1 1 0.7719125187962106 1:1 2:1 4:1 13:1 19:1 21:1 952:1 
0.2425815710957213 0.6805374461244296 0 0.6763983732406174 1:1 2:1 4:1 12:1 13:1 48:1 56:1 57:1 74:1 97:1 168:1 579:1 695:1 696:1 697:1 698:1 699:1 700:1 701:1 
1 1 1 1 1:1 2:1 4:1 5:1 12:1 13:1 19:1 42:1 380:1 448:1 665:1 1448:1 
0 0 0.5561512736690676 0 2:1 4:1 13:1 29:1 126:1 232:1 252:1 1976:1 
0.9701331796087834 0.5613320015554982 0.4793015594448387 0 2:1 4:1 10:1 12:1 13:1 42:1 86:1 114:1 344:1 1347:1 1977:1 
0.345724337308823 0.7649960948474134 0.04213607148088933 1 2:1 4:1 9:1 12:1 13:1 38:1 40:1 46:1 64:1 76:1 101:1 120:1 130:1 171:1 514:1 726:1 1612:1 1978:1 1979:1 
0.1715061076801187 1 1 1 1:1 2:1 4:1 13:1 57:1 111:1 184:1 313:1 353:1 1692:1 1980:1 
0 0 1 0 2:1 4:1 13:1 57:1 266:1 478:1 
0 0.2932565446888959 0.931973658038392 0.5143883943194484 1:1 2:1 4:1 13:1 19:1 702:1 703:1 704:1 705:1 706:1 
0.4550527101610445 0 1 0.3064972837407025 1:1 2:1 4:1 13:1 16:1 19:1 38:1 171:1 226:1 246:1 299:1 439:1 452:1 726:1 
1 0 0.499596287834139 0.5897475166054591 2:1 4:1 9:1 12:1 13:1 41:1 64:1 76:1 109:1 252:1 418:1 541:1 660:1 731:1 
0.1021430020206137 1 1 0.8417669730207968 2:1 4:1 13:1 42:1 67:1 1989:1 1990:1 
0 0 1 0 2:1 4:1 6:1 12:1 13:1 72:1 76:1 86:1 212:1 223:1 224:1 326:1 380:1 615:1 1992:1 
1 1 1 1 2:1 4:1 13:1 1993:1 
1 1 1 1 2:1 4:1 12:1 13:1 34:1 49:1 103:1 117:1 
0.1542405562642145 0 0.6842742747798202 0.2613044278469505 2:1 4:1 13:1 47:1 64:1 76:1 94:1 163:1 179:1 1142:1 1994:1 1995:1 
0 0.5555188136929506 0 1 1:1 2:1 4:1 13:1 69:1 72:1 74:1 103:1 223:1 596:1 598:1 1633:1 1996:1 1997:1 
0.4006226851540692 1 1 1 1:1 2:1 4:1 13:1 244:1 579:1 1291:1 
1 1 1 1 2:1 4:1 10:1 13:1 103:1 139:1 
0.8296346957713001 0 1 0.2279128919796969 2:1 4:1 12:1 13:1 61:1 73:1 76:1 110:1 111:1 178:1 370:1 448:1 933:1 1999:1 2000:1 
0.7769531036161322 0.9901026118724162 0.654187830380346 0.5598012192179059 2:1 4:1 10:1 13:1 66:1 101:1 109:1 1303:1 2001:1 2002:1 
0.6657266835957104 0 0 0 2:1 4:1 13:1 42:1 43:1 46:1 48:1 57:1 67:1 72:1 73:1 83:1 86:1 97:1 109:1 261:1 264:1 341:1 344:1 2004:1 2005:1 
1 1 1 1 2:1 4:1 13:1 34:1 76:1 122:1 152:1 162:1 464:1 2006:1 
1 1 1 0.3396687254649713 2:1 4:1 12:1 13:1 19:1 72:1 86:1 127:1 184:1 352:1 2008:1 2009:1 
1 1 1 1 1:1 2:1 4:1 6:1 13:1 32:1 43:1 53:1 72:1 139:1 886:1 2012:1 
0 1 1 0 2:1 4:1 13:1 29:1 128:1 232:1 
0.7703244903274622 0 0.5052044668521406 0.3423030465905433 2:1 4:1 13:1 64:1 83:1 86:1 2013:1 2014:1 2015:1 2016:1 
0.01684356372757027 0.08049567545937468 0 0 13:1 53:1 69:1 795:1 2017:1 2018:1 2019:1 2020:1 2021:1 2022:1 2023:1 2024:1 2025:1 2026:1 2027:1 2028:1 
0 0.382780568687779 0 0.2018168912478135 1:1 2:1 4:1 13:1 38:1 46:1 76:1 101:1 162:1 223:1 533:1 579:1 661:1 665:1 899:1 2029:1 2030:1 2031:1 2032:1 2033:1 
0.57253636953986 0 0.4033412509472163 1 2:1 4:1 12:1 13:1 38:1 47:1 111:1 380:1 857:1 2034:1 2035:1 
0.2595020119815679 0 1 0 2:1 4:1 12:1 13:1 225:1 514:1 2036:1 
1 1 1 1 2:1 4:1 13:1 163:1 293:1 454:1 474:1 1268:1 
0 0 0.5718617300859724 0.2837270516256771 1:1 2:1 4:1 6:1 12:1 13:1 20:1 29:1 47:1 64:1 73:1 83:1 103:1 139:1 250:1 1622:1 2037:1 2039:1 2040:1 
1 1 1 1 2:1 4:1 13:1 1719:1 
1 1 1 0.8045162879681641 2:1 4:1 13:1 34:1 49:1 57:1 103:1 117:1 223:1 224:1 527:1 645:1 873:1 
0 0 0.292700388761774 1 1:1 2:1 4:1 13:1 34:1 64:1 135:1 145:1 265:1 321:1 346:1 520:1 597:1 
0 0.0902287652992651 0.07763392609297748 0.005114300949945302 1:1 2:1 4:1 9:1 13:1 19:1 42:1 46:1 56:1 61:1 73:1 86:1 109:1 224:1 247:1 265:1 516:1 811:1 1003:1 2041:1 2042:1 2043:1 2044:1 
0.3248986497285678 1 0.1327356264863145 0.5835814921977858 2:1 4:1 13:1 889:1 1211:1 2046:1 
0 1 0.2600847698139075 0 1:1 2:1 4:1 13:1 38:1 72:1 76:1 162:1 247:1 770:1 806:1 
0.5378184772727862 0.5808429725019254 1 1 1:1 2:1 4:1 12:1 13:1 64:1 111:1 176:1 178:1 179:1 200:1 326:1 665:1 853:1 1751:1 
0 0 1 0 2:1 4:1 12:1 13:1 29:1 219:1 
0.858560272384168 1 1 1 1:1 2:1 4:1 13:1 57:1 73:1 83:1 153:1 261:1 264:1 1434:1 2047:1 
0.8893678840670302 1 1 1 2:1 4:1 13:1 62:1 612:1 640:1 1832:1 2048:1 
0 1 1 0 1:1 2:1 4:1 13:1 47:1 73:1 109:1 776:1 
0 0.3663556180734518 0.3430637419577415 0.1380238564860539 2:1 4:1 13:1 34:1 46:1 76:1 111:1 134:1 185:1 628:1 795:1 861:1 2049:1 2050:1 2051:1 
0 0 0.3546627870212143 0 1:1 2:1 4:1 12:1 13:1 19:1 29:1 978:1 979:1 
0 0.7197340426657199 0.2016848263420537 0.4837586489874521 2:1 4:1 13:1 17:1 46:1 56:1 76:1 86:1 223:1 261:1 361:1 1726:1 2052:1 2053:1 
1 1 0 1 2:1 4:1 13:1 47:1 73:1 344:1 438:1 536:1 753:1 2054:1 
0.1892734962078902 0.3887952899380467 0.5652293432092553 0 1:1 2:1 4:1 13:1 19:1 32:1 38:1 73:1 188:1 1561:1 1562:1 1563:1 1564:1 
0.7083506613938578 1 0.7762689673844989 0.7253063390919096 2:1 4:1 13:1 76:1 2057:1 2058:1 
1 1 0 1 1:1 2:1 4:1 6:1 9:1 10:1 13:1 16:1 19:1 42:1 49:1 64:1 72:1 73:1 97:1 109:1 111:1 120:1 139:1 252:1 332:1 572:1 1107:1 1479:1 2059:1 2060:1 
1 0 0.5216393568528944 0.6863902943832346 2:1 4:1 13:1 34:1 64:1 72:1 111:1 174:1 366:1 481:1 2061:1 
1 0 1 0 2:1 4:1 12:1 13:1 72:1 111:1 145:1 178:1 
1 0.5590314252326629 1 1 2:1 4:1 13:1 73:1 76:1 151:1 293:1 711:1 1108:1 2063:1 2064:1 
0.4579401825406259 0.7510338009671496 0.6512026667521287 0.4717436115439708 2:1 4:1 13:1 67:1 69:1 86:1 127:1 542:1 2067:1 
1 1 1 1 2:1 4:1 13:1 347:1 348:1 349:1 
1 0 1 0.9434089987369046 2:1 4:1 13:1 64:1 72:1 221:1 2068:1 
1 1 1 1 2:1 4:1 13:1 86:1 223:1 370:1 2054:1 2069:1 
1 0.9094918095223383 1 1 2:1 4:1 12:1 13:1 47:1 2071:1 
1 0 0 0 2:1 4:1 13:1 34:1 38:1 42:1 49:1 57:1 64:1 69:1 73:1 97:1 111:1 122:1 127:1 162:1 189:1 344:1 380:1 729:1 956:1 960:1 1447:1 2073:1 2074:1 
0 0 0.97241240007901 0 1:1 2:1 4:1 5:1 12:1 13:1 19:1 57:1 72:1 110:1 111:1 178:1 312:1 606:1 956:1 960:1 1061:1 
0 0 0.2164231255428732 0.2479096438005539 2:1 4:1 13:1 42:1 69:1 72:1 76:1 103:1 109:1 162:1 184:1 313:1 324:1 867:1 878:1 1983:1 2075:1 2076:1 2077:1 2078:1 2079:1 2080:1 2081:1 
1 0 1 1 2:1 4:1 10:1 12:1 13:1 57:1 64:1 86:1 110:1 111:1 131:1 135:1 193:1 1003:1 1325:1 
0.2741887550513764 0.01210653349031109 0.4282951344973183 0.579920648566367 2:1 4:1 9:1 13:1 42:1 46:1 56:1 61:1 73:1 86:1 109:1 224:1 247:1 265:1 516:1 811:1 1003:1 2041:1 2042:1 2043:1 
0.3981048023809039 0.03149756543950947 0.5891641010795481 0 2:1 4:1 12:1 13:1 64:1 72:1 73:1 76:1 178:1 849:1 981:1 1787:1 2082:1 2083:1 2084:1 2085:1 2086:1 
1 0 0.8951069809920963 1 2:1 4:1 13:1 42:1 46:1 72:1 110:1 111:1 444:1 661:1 1154:1 2088:1 2089:1 2091:1 
0.07654219230540427 0.7165667500411659 0.1057521059547467 0 2:1 4:1 13:1 34:1 38:1 76:1 109:1 134:1 1400:1 2093:1 2094:1 2095:1 
1 1 1 1 2:1 4:1 13:1 38:1 72:1 73:1 299:1 1409:1 
0 0 1 1 2:1 4:1 13:1 64:1 162:1 840:1 2104:1 
1 1 1 1 2:1 4:1 13:1 223:1 344:1 665:1 857:1 
1 1 1 1 1:1 2:1 4:1 12:1 13:1 49:1 53:1 64:1 169:1 224:1 
0 0.2669099469097536 0.9858950971369901 1 2:1 4:1 13:1 73:1 79:1 83:1 212:1 1352:1 2111:1 2112:1 
0.8944362764464655 0.02054830271599959 0 1 2:1 4:1 13:1 51:1 69:1 86:1 109:1 111:1 204:1 239:1 584:1 718:1 1195:1 1441:1 2113:1 
1 1 1 1 2:1 4:1 13:1 73:1 2114:1 
0.9736920291278583 0.6446963321954446 0 0 2:1 4:1 13:1 17:1 73:1 86:1 162:1 202:1 279:1 2115:1 
1 1 1 1 2:1 4:1 13:1 57:1 2117:1 
0.3767461462086631 0.7924158668602337 0 0.09668259501172172 2:1 4:1 13:1 38:1 42:1 73:1 86:1 103:1 117:1 128:1 136:1 205:1 661:1 1174:1 2118:1 2119:1 2120:1 2121:1 
0 0 1 0 2:1 4:1 12:1 13:1 19:1 64:1 86:1 126:1 184:1 380:1 478:1 
1 0.01905291667737848 0.07716846579475407 1 2:1 4:1 13:1 19:1 110:1 111:1 139:1 149:1 1057:1 1180:1 
0.7348602393296267 1 0.05796522812966359 0.9255136965853044 2:1 4:1 10:1 13:1 42:1 73:1 95:1 109:1 385:1 806:1 2123:1 2124:1 
0.5291442407555008 0 0.7313663082258185 0 1:1 2:1 4:1 13:1 19:1 76:1 467:1 468:1 
1 1 0.5540014660297357 1 2:1 4:1 13:1 32:1 42:1 109:1 324:1 329:1 435:1 454:1 1058:1 2125:1 2126:1 2127:1 
0.635967372394731 0.1285699597595413 0 0.2609189942141227 2:1 4:1 13:1 34:1 73:1 97:1 111:1 150:1 180:1 210:1 358:1 2133:1 
0.5279379793007754 0 0.6432124658409503 0.1738118163615704 2:1 4:1 10:1 13:1 57:1 163:1 370:1 539:1 1233:1 2137:1 2138:1 
0 1 0.6231692471813347 0.8756848900654193 1:1 2:1 4:1 13:1 19:1 56:1 86:1 454:1 470:1 471:1 472:1 473:1 
1 0.2306322684497224 0.8697516010692443 0.4758027412611618 2:1 4:1 13:1 72:1 252:1 770:1 2139:1 
0.1628579878010305 1 1 0.7757290046010005 1:1 2:1 4:1 13:1 19:1 46:1 76:1 83:1 101:1 782:1 1741:1 
0 0.1710626058935161 0 0 2:1 4:1 6:1 13:1 49:1 72:1 252:1 521:1 536:1 742:1 1395:1 2140:1 
0.2882628576652368 0.7369309277553416 0 0.06293107371738786 2:1 4:1 6:1 12:1 13:1 86:1 153:1 188:1 405:1 493:1 590:1 2141:1 2142:1 2143:1 2144:1 2145:1 2146:1 
0 1 1 1 1:1 2:1 4:1 13:1 184:1 349:1 
0 0.04744805771848714 0.2037442843420705 0.1640991666323735 2:1 4:1 12:1 13:1 29:1 57:1 66:1 128:1 162:1 590:1 648:1 878:1 2147:1 2149:1 2150:1 
0 0 1 0 1:1 2:1 4:1 12:1 13:1 29:1 110:1 111:1 178:1 635:1 
1 0.1894969404415245 0.08497426839111025 1 2:1 4:1 10:1 13:1 19:1 38:1 48:1 73:1 76:1 86:1 103:1 313:1 397:1 2151:1 2152:1 
0.4071032417549691 0.1970285141230549 1 0.565842282081326 2:1 4:1 10:1 13:1 76:1 139:1 162:1 212:1 299:1 370:1 1523:1 2153:1 
1 0.3857885933889127 1 0.676815952972994 2:1 4:1 13:1 19:1 73:1 202:1 2159:1 
0 0 1 0 2:1 4:1 13:1 19:1 29:1 69:1 313:1 1004:1 2160:1 
0.2518374563438579 0.3643167053907903 0.1037563867330356 0.8570987493183868 1:1 2:1 4:1 13:1 49:1 109:1 151:1 187:1 252:1 380:1 503:1 505:1 2161:1 2163:1 2164:1 
1 0 0 1 2:1 4:1 6:1 13:1 19:1 97:1 103:1 153:1 176:1 313:1 342:1 344:1 418:1 1787:1 2165:1 2166:1 
0.7341374392827897 0 1 0 1:1 2:1 4:1 13:1 19:1 73:1 83:1 368:1 933:1 999:1 1000:1 1001:1 
1 0.7746589146039998 1 0.5967546779130093 2:1 4:1 12:1 13:1 64:1 380:1 2168:1 2169:1 
0.1907348422812214 0.652348705273665 0.5852855347446632 0 2:1 4:1 6:1 8:1 13:1 76:1 236:1 311:1 371:1 408:1 2170:1 
0 0 0 0.1115958326961983 1:1 2:1 4:1 8:1 12:1 13:1 19:1 34:1 49:1 57:1 64:1 110:1 111:1 139:1 148:1 149:1 311:1 328:1 337:1 533:1 840:1 1057:1 1180:1 1181:1 1182:1 1183:1 
0 0.6336824966958415 0 0 2:1 4:1 13:1 76:1 872:1 
0 0.808928722900654 1 1 2:1 4:1 13:1 29:1 
1 1 1 1 2:1 4:1 13:1 313:1 1024:1 
0.8975636014031885 0 1 0.005604372510235847 2:1 4:1 6:1 13:1 46:1 72:1 131:1 224:1 615:1 1999:1 2176:1 2177:1 2178:1 
1 1 1 1 2:1 4:1 6:1 9:1 12:1 13:1 86:1 669:1 
0.7552175663369917 0.1609327220636903 0.1254695838958143 0.002644478315431823 1:1 2:1 4:1 9:1 13:1 34:1 42:1 64:1 73:1 74:1 76:1 83:1 86:1 162:1 193:1 204:1 215:1 251:1 304:1 345:1 612:1 656:1 785:1 907:1 1154:1 1283:1 2181:1 2182:1 2183:1 2184:1 2185:1 2186:1 2187:1 2188:1 
1 1 1 1 2:1 4:1 13:1 47:1 511:1 1847:1 2189:1 
0.3672780174668803 0.2196034145136485 0 0.2037026723731645 1:1 2:1 4:1 8:1 13:1 34:1 64:1 72:1 94:1 97:1 103:1 124:1 2195:1 2196:1 
0.3513268372531586 1 0.7405889162680896 0.7048129833538244 1:1 2:1 4:1 12:1 13:1 42:1 57:1 84:1 86:1 96:1 97:1 103:1 162:1 329:1 1050:1 1483:1 2045:1 2199:1 2200:1 2201:1 
0 1 0 0 2:1 4:1 13:1 67:1 748:1 
0.2539098732713634 0.1257329157041211 0.2732358091447192 0.4312427233514231 2:1 4:1 13:1 73:1 83:1 1550:1 1703:1 2205:1 2206:1 2207:1 2208:1 2209:1 2210:1 
1 1 1 1 2:1 4:1 13:1 97:1 99:1 111:1 319:1 505:1 555:1 1325:1 2211:1 
0.9859989138170998 0.9585176378953681 1 1 2:1 4:1 13:1 72:1 2212:1 
1 1 1 1 2:1 4:1 10:1 12:1 13:1 97:1 111:1 169:1 188:1 696:1 860:1 
0 0.4045958439337739 0 0.5690606348711275 2:1 4:1 13:1 191:1 454:1 1764:1 1920:1 2215:1 
0.7314519263254542 0.1693469586403163 0.1557808098104979 0.3628355245314098 2:1 4:1 12:1 13:1 48:1 51:1 63:1 64:1 74:1 86:1 97:1 120:1 202:1 203:1 371:1 430:1 454:1 628:1 1191:1 1471:1 1692:1 1979:1 2216:1 2217:1 2218:1 2219:1 2220:1 
0.1366110616683114 0.6240009464014364 0.1527107251626149 0.9562538700766471 2:1 4:1 6:1 8:1 10:1 13:1 32:1 42:1 64:1 76:1 131:1 162:1 243:1 405:1 556:1 933:1 1467:1 1476:1 2221:1 2222:1 2223:1 2224:1 2225:1 
0.0225986151230686 0 1 0.410261727082554 1:1 2:1 4:1 8:1 12:1 13:1 34:1 61:1 64:1 72:1 73:1 83:1 101:1 134:1 146:1 216:1 218:1 223:1 224:1 665:1 867:1 1607:1 1633:1 2226:1 2227:1 2228:1 
0 0 0.2174087998707506 0.6904327690364123 2:1 4:1 12:1 13:1 19:1 111:1 135:1 153:1 250:1 313:1 368:1 533:1 629:1 2230:1 2231:1 2232:1 2233:1 2234:1 
0.9598679375136518 0.1015963178194108 0.9369792640082735 0.2652852392594297 2:1 4:1 13:1 188:1 329:1 2235:1 2236:1 2237:1 
0.280185071276858 0 1 0.7207809200520038 1:1 2:1 4:1 13:1 19:1 72:1 76:1 94:1 109:1 153:1 162:1 169:1 205:1 210:1 358:1 359:1 360:1 
1 1 1 1 1:1 2:1 4:1 12:1 13:1 
1 1 0.2621778514747878 1 2:1 4:1 13:1 49:1 111:1 380:1 584:1 2242:1 
1 0.7509977651577165 1 1 2:1 4:1 12:1 13:1 38:1 127:1 171:1 250:1 1607:1 
1 1 1 1 2:1 4:1 13:1 578:1 
0 0.8012471595064296 1 1 1:1 2:1 4:1 13:1 19:1 42:1 48:1 553:1 556:1 590:1 597:1 650:1 651:1 665:1 749:1 
0.3717791004426332 0.819450772516237 1 0.8029679681877625 2:1 4:1 8:1 13:1 25:1 26:1 86:1 223:1 293:1 2243:1 
0 0 0.8353945291150037 0 2:1 4:1 10:1 12:1 13:1 19:1 64:1 72:1 76:1 174:1 184:1 356:1 2244:1 2245:1 
0 0 0.3430963131512619 0.3516877116213861 2:1 4:1 13:1 76:1 101:1 111:1 134:1 162:1 212:1 226:1 401:1 782:1 2246:1 2247:1 2248:1 2249:1 
0.5035928066321502 0.5241170784399877 0.5553287133783229 0.5365061665882553 2:1 4:1 13:1 244:1 370:1 2250:1 2251:1 
1 1 0 1 2:1 4:1 13:1 1534:1 
0 0 0.4396211368030736 1 2:1 4:1 13:1 42:1 48:1 553:1 556:1 590:1 597:1 650:1 651:1 665:1 749:1 
1 1 1 1 2:1 4:1 13:1 
0.6115153055985437 0 0 0.05693075293538734 2:1 4:1 5:1 13:1 57:1 64:1 83:1 97:1 248:1 1576:1 2007:1 2254:1 2255:1 
1 0 0 0.4817380067699006 2:1 4:1 13:1 64:1 83:1 110:1 111:1 434:1 610:1 611:1 612:1 613:1 
1 0.3677544732948845 0.6487950810858778 1 2:1 4:1 12:1 13:1 57:1 76:1 83:1 95:1 97:1 101:1 103:1 111:1 115:1 162:1 223:1 343:1 344:1 407:1 475:1 1002:1 1050:1 1085:1 1086:1 1599:1 
0.2117910716343346 0.1275434330622917 0.008325627222606892 0.1133982853278688 1:1 2:1 4:1 13:1 47:1 64:1 109:1 176:1 202:1 418:1 915:1 2256:1 2257:1 2258:1 2259:1 
0.1578474526443265 0.05656212922618068 0.5430237791075068 0.3216641778740742 2:1 4:1 13:1 46:1 72:1 2261:1 2262:1 2263:1 2264:1 2265:1 2266:1 
1 1 1 1 1:1 2:1 4:1 13:1 19:1 64:1 99:1 124:1 182:1 838:1 
0.1767006934581007 0.3417019210571636 0 0.5028284539776777 2:1 4:1 6:1 13:1 38:1 48:1 74:1 76:1 126:1 162:1 170:1 171:1 217:1 218:1 252:1 344:1 1330:1 1891:1 2267:1 
0 0 1 0 2:1 4:1 12:1 13:1 48:1 162:1 163:1 217:1 218:1 663:1 
0.4441502870098324 0.2367102131870933 0.7143536501849146 0.1039446786911292 2:1 4:1 13:1 124:1 140:1 447:1 2268:1 
1 0 1 1 2:1 4:1 13:1 47:1 64:1 111:1 143:1 152:1 178:1 
0 1 1 1 2:1 4:1 13:1 329:1 332:1 556:1 640:1 744:1 
0 0.1830284535678884 0.6120793744706498 0 2:1 4:1 13:1 29:1 570:1 2272:1 
1 1 1 1 2:1 4:1 13:1 
0 0 0.4350548052294353 0 2:1 4:1 12:1 13:1 127:1 379:1 
1 0 0 0 2:1 4:1 13:1 128:1 202:1 1534:1 2273:1 
0.9271817475868597 0.39402025200901 1 0.7545717351313185 2:1 4:1 12:1 13:1 127:1 2278:1 
1 1 1 1 2:1 4:1 13:1 42:1 46:1 64:1 76:1 101:1 131:1 196:1 252:1 344:1 366:1 1278:1 1825:1 1835:1 2279:1 
0 0.1296001185417652 1 0.3902440093427857 2:1 4:1 13:1 34:1 134:1 966:1 2252:1 
0 0.5003690474876268 1 0 1:1 2:1 4:1 13:1 19:1 42:1 64:1 294:1 300:1 1942:1 
0 1 1 1 2:1 4:1 12:1 13:1 184:1 349:1 
0 1 1 0.8746936821601426 1:1 2:1 4:1 12:1 13:1 25:1 57:1 86:1 93:1 2240:1 2287:1 2288:1 
1 0.9207373025098673 0 1 2:1 4:1 13:1 41:1 47:1 61:1 64:1 86:1 95:1 97:1 101:1 111:1 223:1 612:1 1501:1 1534:1 
0.5921191408693091 0.7435343928272587 0.2476779586035087 0.6479923243997627 2:1 4:1 13:1 38:1 48:1 63:1 79:1 84:1 96:1 122:1 243:1 264:1 860:1 1066:1 2290:1 2291:1 2292:1 2293:1 
0.1084108252573645 0 1 0 2:1 4:1 13:1 72:1 86:1 127:1 132:1 220:1 412:1 481:1 1268:1 
1 0.6023738249690412 1 1 2:1 4:1 13:1 167:1 1108:1 2296:1 2297:1 
1 0.7261465956553057 0.3914315910336458 1 2:1 4:1 8:1 13:1 104:1 531:1 1396:1 2298:1 2299:1 2300:1 
1 1 1 1 2:1 4:1 13:1 34:1 47:1 64:1 69:1 74:1 76:1 101:1 222:1 370:1 511:1 933:1 1888:1 2301:1 
1 1 1 1 2:1 4:1 13:1 34:1 49:1 103:1 153:1 162:1 223:1 224:1 
0.2861606517481069 0 0.1893341943928016 0.03597691263573216 2:1 4:1 13:1 46:1 64:1 73:1 162:1 167:1 252:1 380:1 648:1 1403:1 2306:1 
0 0 0 0.7089751533500971 1:1 2:1 4:1 13:1 19:1 42:1 202:1 217:1 218:1 347:1 348:1 349:1 
0.508127926457358 0.5217544829183638 1 0.3029862363083036 2:1 4:1 12:1 13:1 32:1 46:1 56:1 62:1 76:1 250:1 732:1 2307:1 
0 0 0.01148113149292973 0 2:1 4:1 13:1 61:1 64:1 72:1 86:1 380:1 1200:1 2311:1 
1 1 1 1 2:1 4:1 13:1 48:1 552:1 665:1 732:1 
1 1 0.4834198834534966 1 1:1 2:1 4:1 13:1 32:1 97:1 111:1 252:1 701:1 2240:1 2313:1 
0 0.2277056678750262 0 0 2:1 4:1 10:1 13:1 42:1 2315:1 2316:1 2317:1 2318:1 
1 1 1 1 2:1 4:1 13:1 2319:1 
1 0.157054846402877 0 0 2:1 4:1 13:1 47:1 109:1 162:1 223:1 333:1 1475:1 2320:1 
1 0.7416865937674328 0.8828833707667817 1 2:1 4:1 13:1 46:1 66:1 73:1 208:1 507:1 952:1 1451:1 2321:1 2322:1 
0 0 0 0.03921982412393486 2:1 4:1 13:1 32:1 72:1 76:1 94:1 126:1 162:1 167:1 518:1 2323:1 2324:1 
0.7385196888444497 1 1 1 1:1 2:1 4:1 13:1 452:1 726:1 1152:1 
0 0 0 1 2:1 4:1 13:1 19:1 34:1 46:1 57:1 64:1 74:1 76:1 83:1 131:1 134:1 149:1 212:1 300:1 521:1 2331:1 2332:1 
0.2785236212105071 0.2002510601775698 0.383635105990081 0.1934282465542892 2:1 4:1 12:1 13:1 38:1 46:1 47:1 52:1 65:1 94:1 241:1 247:1 252:1 347:1 349:1 380:1 415:1 439:1 454:1 744:1 782:1 858:1 1050:1 2335:1 2337:1 
0.3531634789611441 0 1 1 2:1 4:1 13:1 19:1 313:1 383:1 2338:1 2339:1 
0.2033230731163788 0.6001220906624576 1 0 2:1 4:1 12:1 13:1 67:1 76:1 130:1 162:1 543:1 2340:1 2342:1 2343:1 2344:1 
1 0 1 0.455231745190801 1:1 2:1 4:1 13:1 64:1 153:1 434:1 770:1 1233:1 
0.9897461839465147 0.2619834793018904 0.9202923891516366 0.2556966156954023 2:1 4:1 10:1 12:1 13:1 42:1 64:1 67:1 76:1 152:1 153:1 212:1 1145:1 2345:1 2346:1 
1 0.6180475988205095 0.2145917815850014 0.8950301549748412 2:1 4:1 13:1 42:1 46:1 64:1 72:1 73:1 79:1 86:1 99:1 131:1 151:1 183:1 329:1 355:1 381:1 438:1 669:1 1107:1 2282:1 2347:1 2348:1 2349:1 
0.2798669480318083 0.3697276252511695 0.563059458773201 0.3322023728433388 2:1 4:1 13:1 67:1 86:1 2351:1 2352:1 2353:1 
1 1 1 1 1:1 2:1 4:1 13:1 19:1 32:1 47:1 53:1 97:1 103:1 
1 1 1 1 2:1 4:1 13:1 404:1 
0 0 0 0.2525881148061601 1:1 2:1 4:1 13:1 19:1 69:1 76:1 103:1 2011:1 2357:1 2358:1 
1 1 1 1 2:1 4:1 13:1 
0 0 0.7121569462845934 0 1:1 2:1 4:1 9:1 12:1 13:1 19:1 86:1 117:1 182:1 319:1 2365:1 2366:1 
1 1 1 1 1:1 2:1 4:1 13:1 67:1 243:1 289:1 936:1 1122:1 2219:1 2372:1 
1 1 1 1 1:1 2:1 4:1 12:1 13:1 67:1 86:1 145:1 152:1 
0 0 1 0 1:1 2:1 4:1 12:1 13:1 19:1 52:1 178:1 
1 0 1 0.2539681398194024 2:1 4:1 12:1 13:1 19:1 64:1 111:1 178:1 313:1 611:1 2383:1 
0 1 1 0.2094033660332847 1:1 2:1 4:1 13:1 19:1 34:1 64:1 73:1 184:1 1122:1 2384:1 
1 0.09054357538166063 0.3341884686453507 1 2:1 4:1 13:1 61:1 83:1 810:1 822:1 2389:1 
1 0 0.0217646678005157 0 2:1 4:1 13:1 64:1 86:1 272:1 434:1 2390:1 
1 0 0 0 2:1 4:1 13:1 252:1 906:1 919:1 2391:1 
0.987485455084874 1 0 0.01008332167378882 2:1 4:1 13:1 47:1 48:1 73:1 109:1 153:1 438:1 982:1 2393:1 
0.5654037164796074 1 0.4300803284870446 0.9752393533654907 2:1 4:1 13:1 42:1 48:1 73:1 648:1 956:1 960:1 2397:1 2398:1 
0 0 1 1 2:1 4:1 13:1 42:1 43:1 73:1 79:1 101:1 202:1 536:1 857:1 886:1 
1 0.2970849626117641 1 1 2:1 4:1 13:1 49:1 103:1 362:1 452:1 
0.2222602366475257 0 0 0.09797147273521331 1:1 2:1 4:1 8:1 12:1 13:1 34:1 51:1 64:1 76:1 103:1 134:1 243:1 1791:1 2405:1 2406:1 
0 0 1 0 2:1 4:1 13:1 20:1 64:1 66:1 864:1 1471:1 
0.2503229673303533 0.1197137721201571 0.4106768529384809 0.3586234823997159 2:1 4:1 9:1 12:1 13:1 38:1 47:1 64:1 101:1 458:1 865:1 2408:1 2409:1 2410:1 2411:1 2412:1 
1 1 0.7632357274559461 1 2:1 4:1 13:1 38:1 56:1 74:1 76:1 86:1 99:1 162:1 324:1 1260:1 1532:1 
0.5982036834189536 1 1 1 1:1 2:1 4:1 13:1 2413:1 
0.9335972508919921 1 1 0.4577829487399585 2:1 4:1 12:1 13:1 167:1 2417:1 
0 0.8322356206684582 1 0 2:1 4:1 12:1 13:1 1536:1 
0 0.05003160356323132 0 0.1172914156736085 2:1 4:1 6:1 13:1 46:1 223:1 356:1 2421:1 
0.5369356239770772 1 1 1 2:1 4:1 13:1 2422:1 
0.08505840962812142 0 0.4755017743394845 0.1751592922389979 2:1 4:1 6:1 10:1 12:1 13:1 20:1 46:1 48:1 76:1 139:1 162:1 252:1 330:1 514:1 2423:1 2424:1 2425:1 2427:1 2428:1 
1 0.2759682868925928 0 1 2:1 4:1 8:1 13:1 86:1 97:1 111:1 771:1 800:1 1511:1 
1 0.5332331441377465 0.08941776459567582 0.175139897332609 2:1 4:1 13:1 42:1 57:1 66:1 162:1 906:1 2429:1 2430:1 
0.6424930476610899 0.1948149826302796 0.6959822503471017 1 2:1 4:1 13:1 34:1 42:1 47:1 64:1 95:1 111:1 116:1 222:1 452:1 952:1 1003:1 1201:1 2431:1 2432:1 2433:1 
0.6822264989835038 1 1 1 2:1 4:1 13:1 73:1 79:1 83:1 805:1 1604:1 2434:1 
1 1 1 1 2:1 4:1 13:1 
0 0.5020639981552147 0.3486330606654157 1 2:1 4:1 5:1 13:1 46:1 51:1 53:1 69:1 76:1 84:1 97:1 103:1 122:1 196:1 252:1 386:1 1514:1 1542:1 2018:1 2079:1 2441:1 2442:1 
0 1 0 1 1:1 2:1 4:1 8:1 10:1 13:1 42:1 46:1 63:1 84:1 96:1 97:1 101:1 111:1 131:1 134:1 169:1 244:1 304:1 322:1 380:1 810:1 
0 0 0.345241695814196 0 2:1 4:1 13:1 29:1 42:1 64:1 72:1 76:1 86:1 126:1 162:1 167:1 438:1 733:1 829:1 2448:1 2449:1 
0.4223493811307091 0.09461011830108697 0.3318354335463227 0.1947713352399573 1:1 2:1 4:1 13:1 19:1 76:1 289:1 2450:1 2451:1 2452:1 2453:1 
1 0.6901874564860534 1 0.8335628281774751 2:1 4:1 13:1 167:1 2454:1 
1 0.186777868051766 0.2766883502314183 0 1:1 2:1 4:1 12:1 13:1 19:1 57:1 86:1 136:1 153:1 1116:1 2391:1 
1 0 0 0.1860334108387515 2:1 4:1 10:1 13:1 42:1 46:1 48:1 64:1 76:1 122:1 344:1 381:1 514:1 556:1 888:1 1003:1 1057:1 2455:1 2456:1 
1 1 1 1 2:1 4:1 13:1 19:1 313:1 
0 0 1 0 2:1 4:1 12:1 13:1 64:1 72:1 76:1 126:1 166:1 167:1 2457:1 
0 0 1 1 2:1 4:1 12:1 13:1 64:1 72:1 86:1 109:1 220:1 868:1 1542:1 
1 1 1 1 1:1 2:1 4:1 12:1 13:1 19:1 46:1 66:1 109:1 261:1 368:1 2094:1 
0 0 1 0.05177301611734925 2:1 4:1 12:1 13:1 73:1 385:1 439:1 514:1 1107:1 
1 0 0.35020458170017 0 2:1 4:1 10:1 13:1 64:1 76:1 83:1 86:1 1542:1 2459:1 
1 1 1 1 1:1 2:1 4:1 13:1 19:1 38:1 69:1 73:1 76:1 188:1 1100:1 
1 1 1 1 2:1 4:1 13:1 88:1 179:1 243:1 261:1 265:1 408:1 955:1 2463:1 
0.4027428474172545 0.2275620413082215 0.3361956389406201 0.2241352498736202 2:1 4:1 13:1 42:1 47:1 67:1 86:1 2464:1 2465:1 2466:1 2467:1 
0 0.5450576704464943 1 0.3916955813306188 2:1 4:1 13:1 2468:1 
0 0 0.3022723117599408 0 2:1 4:1 10:1 13:1 86:1 126:1 478:1 541:1 2469:1 
0.08653698037105295 0.2440899300571397 0.4232603822660334 0.5052819168324563 1:1 2:1 4:1 13:1 34:1 49:1 57:1 64:1 76:1 83:1 250:1 277:1 304:1 332:1 631:1 2470:1 2471:1 2472:1 
0 0 0.9665849516991329 0 2:1 4:1 13:1 19:1 126:1 184:1 202:1 383:1 2473:1 
0.1952283304855834 0 0.2896065986313627 0.1811693255515934 2:1 4:1 13:1 72:1 76:1 126:1 167:1 541:1 2476:1 2477:1 
1 1 1 1 2:1 4:1 13:1 42:1 73:1 83:1 223:1 665:1 1293:1 2053:1 2478:1 2479:1 
1 1 1 1 2:1 4:1 13:1 
0 1 0.7760666012887877 0.5453107677402256 2:1 4:1 12:1 13:1 57:1 130:1 132:1 174:1 701:1 2087:1 2481:1 
0.2548192626942902 0 1 1 2:1 4:1 13:1 38:1 64:1 86:1 126:1 127:1 327:1 
0.4731373931040343 0.4793162244619328 0.9999999999999999 0.8221649471266598 2:1 4:1 12:1 13:1 2475:1 2482:1 
0.8140610362745774 0.4417280792657621 0.5168671745872081 0.5672283499485395 2:1 4:1 13:1 224:1 344:1 924:1 2483:1 2484:1 2485:1 
0 0 1 0 2:1 4:1 13:1 29:1 57:1 69:1 127:1 2488:1 
0 0 1 0.1199515747475639 2:1 4:1 13:1 46:1 64:1 72:1 86:1 276:1 1824:1 1825:1 2489:1 
1 0 1 1 2:1 4:1 13:1 19:1 250:1 514:1 2490:1 
0.2117435673533627 1 1 1 2:1 4:1 13:1 47:1 64:1 73:1 75:1 94:1 464:1 679:1 865:1 
1 1 0 1 1:1 2:1 4:1 13:1 19:1 51:1 64:1 109:1 124:1 143:1 860:1 907:1 956:1 960:1 2491:1 2492:1 
0 0 0.1077253510619045 0 2:1 4:1 12:1 13:1 29:1 79:1 86:1 151:1 630:1 999:1 
0.9461965729490025 0.9583903110336059 1 0.9059132616947062 2:1 4:1 12:1 13:1 2499:1 
1 1 1 1 2:1 4:1 13:1 
0.1685871038039733 0.1159546347216161 0.4947737831211175 0.1835688188012081 2:1 4:1 12:1 13:1 1493:1 2502:1 2503:1 2505:1 2508:1 
0.6437575383058807 0.4877590012959792 1 0.8133337039034474 1:1 2:1 4:1 5:1 8:1 12:1 13:1 19:1 56:1 57:1 74:1 127:1 151:1 1832:1 2004:1 2509:1 
1 0 0 0 2:1 4:1 13:1 38:1 48:1 73:1 86:1 126:1 127:1 128:1 202:1 922:1 
0.9174175294455648 0.65985338597791 0.5991677298319202 0.7227900178905416 2:1 4:1 13:1 38:1 46:1 48:1 174:1 235:1 2511:1 2512:1 
0 1 1 0.9964252786268634 1:1 2:1 4:1 6:1 13:1 19:1 64:1 139:1 2513:1 
1 0 0 0.3549530629167265 2:1 4:1 13:1 19:1 42:1 46:1 62:1 64:1 69:1 86:1 101:1 111:1 131:1 139:1 261:1 313:1 520:1 584:1 628:1 694:1 732:1 1107:1 1154:1 1607:1 2214:1 2514:1 2515:1 
0.02374476146704744 0.3088473794899491 1 0.4844167552359471 2:1 4:1 13:1 42:1 383:1 689:1 1472:1 2516:1 
0.9840220190818858 0.8162660661138236 1 0.9581760997432718 2:1 4:1 12:1 13:1 64:1 2521:1 
0.8736034011887334 1 1 1 1:1 2:1 4:1 6:1 12:1 13:1 49:1 56:1 67:1 97:1 109:1 152:1 153:1 209:1 210:1 252:1 299:1 309:1 399:1 470:1 886:1 899:1 1662:1 2073:1 2522:1 2523:1 
0 1 1 0.6102501222210085 1:1 2:1 4:1 9:1 13:1 19:1 49:1 103:1 184:1 313:1 362:1 1767:1 
1 0 1 1 2:1 4:1 12:1 13:1 76:1 86:1 541:1 899:1 1101:1 1898:1 
0 0 1 0 1:1 2:1 4:1 6:1 12:1 13:1 19:1 57:1 209:1 210:1 232:1 250:1 265:1 514:1 693:1 2455:1 
1 1 1 1 2:1 4:1 12:1 13:1 131:1 
0 0 0.08263553221483236 0 2:1 4:1 13:1 56:1 67:1 76:1 105:1 205:1 276:1 490:1 563:1 1204:1 2534:1 2535:1 2536:1 
0.4525451935064662 0.1627250150660597 0.9400298208093579 0.2531157027557715 1:1 2:1 4:1 12:1 13:1 19:1 32:1 47:1 53:1 72:1 97:1 101:1 111:1 202:1 524:1 2537:1 2538:1 
0 0 0.3395336916743235 0 2:1 4:1 13:1 64:1 73:1 174:1 178:1 207:1 628:1 1576:1 2540:1 2541:1 
0 0 0.398960892544688 0 2:1 4:1 13:1 47:1 86:1 162:1 857:1 889:1 
1 1 1 1 1:1 2:1 4:1 12:1 13:1 19:1 27:1 745:1 
0.8672464644663367 0.7502067756270316 1 1 2:1 4:1 13:1 72:1 73:1 86:1 2546:1 
1 0.5592646464845881 0 1 2:1 4:1 8:1 10:1 13:1 47:1 64:1 74:1 86:1 109:1 113:1 131:1 252:1 726:1 761:1 907:1 2547:1 
0.4137594160159729 0.4759831464790113 0.1873426825089711 0.7373207490892755 2:1 4:1 8:1 9:1 13:1 38:1 42:1 46:1 56:1 57:1 103:1 162:1 182:1 532:1 1199:1 2548:1 2549:1 2550:1 2551:1 2552:1 
1 0 0 0 2:1 4:1 13:1 103:1 362:1 386:1 505:1 1008:1 2553:1 2554:1 
1 1 1 1 2:1 4:1 13:1 48:1 73:1 86:1 162:1 183:1 1303:1 
1 1 1 1 2:1 4:1 13:1 19:1 313:1 
0 0 0.8215915454400911 0 2:1 4:1 12:1 13:1 16:1 32:1 53:1 64:1 101:1 178:1 179:1 252:1 261:1 329:1 475:1 663:1 1406:1 1438:1 2560:1 
1 0 1 1 2:1 4:1 13:1 202:1 383:1 
0 0 0.2708757256028708 0 2:1 4:1 10:1 13:1 29:1 42:1 64:1 69:1 80:1 101:1 135:1 145:1 635:1 668:1 1476:1 1538:1 2562:1 2563:1 2564:1 
0 1 0.3861723034130374 0 2:1 4:1 13:1 202:1 1865:1 2082:1 
0 0 1 0 2:1 4:1 6:1 13:1 514:1 635:1 2455:1 2565:1 
0 0 1 0 2:1 4:1 12:1 13:1 341:1 
1 1 1 1 2:1 4:1 12:1 13:1 48:1 86:1 598:1 1250:1 
1 0 0 0 2:1 4:1 13:1 19:1 48:1 294:1 408:1 1825:1 2567:1 2568:1 
0 0 0 0.04445335482403424 2:1 4:1 13:1 82:1 202:1 
1 0 1 0.02338777981017596 2:1 4:1 13:1 48:1 69:1 215:1 507:1 711:1 
0.2239339226326063 0.5540959303265574 0 0.2001437016400025 2:1 4:1 13:1 1639:1 2570:1 
1 0.7995362316467896 0.08291642068201137 0.03304189648046702 2:1 4:1 12:1 13:1 38:1 94:1 96:1 97:1 101:1 111:1 223:1 224:1 300:1 368:1 370:1 553:1 2038:1 
0.3036983377093651 1 0.7488718699043735 0.2355660915960083 1:1 2:1 4:1 9:1 13:1 19:1 2571:1 
0 0 1 0 2:1 4:1 12:1 13:1 19:1 184:1 202:1 218:1 2177:1 
0.4730788842446476 0.4792150230964521 1 0.4531018580507528 2:1 4:1 12:1 13:1 2334:1 2575:1 
0 0.7220787438886661 0 0.5044246716346816 2:1 4:1 12:1 13:1 32:1 49:1 53:1 86:1 95:1 252:1 272:1 689:1 810:1 1438:1 2576:1 
1 1 1 1 2:1 4:1 12:1 13:1 202:1 
0.3327289410146403 0.05972996572466143 0 0 2:1 4:1 12:1 13:1 64:1 86:1 246:1 272:1 434:1 958:1 
0 0 0.1895066852431457 0 2:1 4:1 13:1 272:1 1017:1 2581:1 
0.05747576990052364 0.4484075311156062 0.5388487196720804 0.2754222704603843 2:1 4:1 13:1 67:1 146:1 435:1 969:1 1441:1 2582:1 2583:1 
0 0 1 0 2:1 4:1 13:1 42:1 64:1 72:1 101:1 220:1 324:1 326:1 327:1 
0 0.3392157119841096 0 0 1:1 2:1 4:1 10:1 13:1 19:1 46:1 64:1 73:1 86:1 103:1 162:1 167:1 252:1 380:1 510:1 596:1 629:1 956:1 960:1 1403:1 2306:1 2584:1 2585:1 2586:1 2587:1 2588:1 
0 0 0.1527850860473555 0 2:1 4:1 12:1 13:1 19:1 57:1 69:1 72:1 76:1 126:1 167:1 313:1 319:1 474:1 729:1 782:1 887:1 2590:1 2591:1 2592:1 2593:1 2594:1 2595:1 2596:1 2597:1 
0.5885365643922559 0.3794206796241856 0 0 2:1 4:1 13:1 64:1 103:1 153:1 204:1 235:1 244:1 805:1 909:1 1022:1 2599:1 2600:1 2601:1 
0.03059108501387391 1 1 1 2:1 4:1 13:1 2492:1 
0.4173604606940722 0 0.4742126714815956 1 2:1 4:1 13:1 48:1 76:1 770:1 1150:1 2603:1 
1 1 1 1 2:1 4:1 5:1 13:1 1114:1 
0.2731659754473957 0 1 1 2:1 4:1 13:1 190:1 669:1 720:1 
0.02901376494441062 0.2366826760957824 0 0 2:1 4:1 12:1 13:1 42:1 46:1 56:1 57:1 99:1 294:1 332:1 2604:1 2605:1 2606:1 2607:1 2608:1 
0.6476215060766518 1 1 1 2:1 4:1 13:1 64:1 76:1 1542:1 2611:1 
0 0 0.1644531028462329 0 1:1 2:1 4:1 9:1 12:1 13:1 48:1 49:1 64:1 76:1 86:1 101:1 139:1 202:1 239:1 252:1 612:1 628:1 953:1 1434:1 2375:1 2613:1 2614:1 
0 0.3956879740897788 1 0.2450493842792214 1:1 2:1 4:1 12:1 13:1 86:1 151:1 162:1 202:1 852:1 1523:1 2615:1 
1 1 1 1 2:1 4:1 13:1 439:1 
1 0.08628610538248974 0.8364793628606279 0.3238039139922862 2:1 4:1 13:1 38:1 127:1 128:1 202:1 2616:1 
0.1030334943326299 0 0.4948701064694812 1 2:1 4:1 10:1 13:1 19:1 58:1 64:1 73:1 313:1 355:1 418:1 492:1 2617:1 
1 0 1 0.2619248901370599 2:1 4:1 10:1 13:1 34:1 48:1 139:1 209:1 210:1 370:1 408:1 966:1 2567:1 
0.3921306610479552 0 0.01301839575716142 0 2:1 4:1 13:1 127:1 250:1 852:1 1066:1 2618:1 
0.03625095721441107 0.115233612340343 0 0 2:1 4:1 13:1 218:1 2473:1 2619:1 2620:1 
0.1697637275757051 0 0.7794392510071806 0.2312356838594042 2:1 4:1 13:1 42:1 46:1 72:1 86:1 128:1 142:1 162:1 163:1 380:1 439:1 440:1 933:1 1224:1 2622:1 2623:1 
0.6772723319880568 0.7408952868149445 0.266943818549849 0.9687978378301556 2:1 4:1 9:1 10:1 13:1 33:1 34:1 42:1 46:1 48:1 64:1 76:1 80:1 204:1 235:1 252:1 299:1 344:1 412:1 524:1 1644:1 2625:1 2627:1 2628:1 
0.334744858446028 0 1 1 2:1 4:1 12:1 13:1 64:1 167:1 383:1 1824:1 
0 0 0.04106512244073782 0 2:1 4:1 13:1 34:1 73:1 103:1 2631:1 
1 1 1 1 2:1 4:1 13:1 128:1 
1 1 1 1 2:1 4:1 13:1 109:1 611:1 
1 0 0 1 2:1 4:1 13:1 153:1 176:1 202:1 380:1 1511:1 2632:1 
1 1 1 1 2:1 4:1 13:1 2634:1 
0 0 0.7703087149332766 0.3449470817333841 2:1 4:1 13:1 56:1 86:1 239:1 250:1 933:1 2635:1 2636:1 2638:1 
0.2039357631904401 0 1 0 2:1 4:1 10:1 13:1 47:1 86:1 829:1 2639:1 2640:1 
0 0 1 0 2:1 4:1 12:1 13:1 79:1 252:1 329:1 982:1 1139:1 2641:1 
0.04309244329025949 0.3430737951267442 0.8871613224303605 0 2:1 4:1 13:1 114:1 398:1 2642:1 
1 1 1 1 2:1 4:1 13:1 56:1 83:1 2644:1 
0.3624116002149951 0 0.4482489882943336 0 2:1 4:1 13:1 19:1 34:1 47:1 48:1 64:1 73:1 76:1 139:1 640:1 903:1 966:1 2343:1 2646:1 2647:1 2648:1 
1 0 0 0 2:1 4:1 10:1 13:1 32:1 42:1 86:1 174:1 376:1 377:1 1067:1 1940:1 
0.6489950786263832 0.734726140831207 0 0.5895551826911311 2:1 4:1 13:1 525:1 826:1 1428:1 
0 0.06684500567818359 0.6430085446470624 0 2:1 4:1 13:1 323:1 635:1 1447:1 2651:1 
0 0 1 0 1:1 2:1 4:1 12:1 13:1 48:1 276:1 605:1 1824:1 
1 1 1 0 2:1 4:1 13:1 38:1 126:1 127:1 128:1 1000:1 
0.6572603806124339 1 1 0.7285869326093604 2:1 4:1 10:1 13:1 48:1 76:1 139:1 2653:1 
0.7802700550434488 1 1 1 1:1 2:1 4:1 9:1 13:1 40:1 46:1 47:1 48:1 1064:1 1476:1 2657:1 
0 0 0.08686466608353011 0 1:1 2:1 4:1 10:1 12:1 13:1 34:1 61:1 69:1 134:1 152:1 195:1 2658:1 2659:1 
0.9461321340436302 0.9585148041291822 1 0.9061699436208783 2:1 4:1 12:1 13:1 2660:1 
1 1 1 1 2:1 4:1 8:1 13:1 56:1 73:1 103:1 
0.7741456721172422 1 0.622277394126783 0 2:1 4:1 13:1 76:1 162:1 438:1 1384:1 2664:1 
0 0.5203618683360215 0.3199570856789664 0.1861852813922393 1:1 2:1 4:1 13:1 19:1 69:1 76:1 80:1 171:1 495:1 1681:1 2106:1 2665:1 2666:1 2667:1 
0.8178350203329531 0 0 0 2:1 4:1 13:1 42:1 86:1 107:1 162:1 191:1 299:1 431:1 2279:1 2389:1 2669:1 2670:1 
0.5160399083520094 0.1782702585784226 1 0.4252309123461396 1:1 2:1 4:1 8:1 13:1 51:1 76:1 103:1 134:1 2672:1 2673:1 
0.393895209060028 1 1 1 1:1 2:1 4:1 13:1 42:1 689:1 810:1 1003:1 2674:1 
0 1 1 1 1:1 2:1 4:1 13:1 73:1 109:1 2675:1 
0.1256183257011383 0.883356697483591 0.4578017428636767 0.3844552292881395 2:1 4:1 9:1 13:1 57:1 72:1 335:1 628:1 829:1 2676:1 2678:1 2679:1 
0 0.6994386144347723 0.4115058722829553 0.3479458414002902 1:1 2:1 4:1 8:1 13:1 34:1 42:1 46:1 62:1 64:1 79:1 94:1 95:1 97:1 151:1 252:1 911:1 931:1 956:1 960:1 1050:1 1913:1 2163:1 2680:1 2681:1 2682:1 
0.4299941163447458 0.1982257807704058 0.4338924564931524 0.3444826309174789 1:1 2:1 4:1 5:1 13:1 46:1 47:1 101:1 130:1 202:1 243:1 289:1 2017:1 2683:1 2684:1 2685:1 2686:1 
0.1565068819507262 0 0.1003431275367243 0 2:1 4:1 13:1 28:1 72:1 73:1 83:1 176:1 342:1 514:1 665:1 770:1 2690:1 
0 1 0.7233089580334172 1 2:1 4:1 12:1 13:1 964:1 
0 0 0.05661894700165113 0 2:1 4:1 13:1 29:1 219:1 2692:1 
0 0.2584719493483398 1 0.07518960865433429 2:1 4:1 13:1 47:1 290:1 1189:1 
0 1 0.6620113551523555 1 1:1 2:1 4:1 12:1 13:1 19:1 38:1 76:1 103:1 328:1 337:1 516:1 2696:1 
1 0.8567590824117053 1 1 2:1 4:1 13:1 38:1 47:1 95:1 151:1 344:1 438:1 477:1 1062:1 1154:1 1283:1 1891:1 2697:1 
0 0.1228726922227833 0 0 1:1 2:1 4:1 6:1 12:1 13:1 49:1 79:1 153:1 189:1 344:1 975:1 1832:1 
1 1 0.9739584348556664 1 2:1 4:1 13:1 109:1 151:1 347:1 348:1 349:1 956:1 960:1 1880:1 2698:1 2699:1 
0 0 0.007878966728476064 0 1:1 2:1 4:1 12:1 13:1 19:1 32:1 48:1 64:1 73:1 79:1 130:1 222:1 252:1 342:1 856:1 857:1 1003:1 1089:1 
0.1660977773312391 0.4545450710135497 0.3775298947188711 0.4273469217864024 2:1 4:1 13:1 162:1 1029:1 2703:1 2704:1 2705:1 2706:1 
1 1 1 1 2:1 4:1 13:1 64:1 76:1 86:1 1542:1 2707:1 
0.1531115799990614 1 1 0 2:1 4:1 13:1 34:1 42:1 48:1 209:1 210:1 264:1 536:1 553:1 665:1 1787:1 2708:1 
1 0.2203772273189264 0 0 2:1 4:1 9:1 13:1 2571:1 
1 1 1 1 2:1 4:1 13:1 1476:1 2710:1 
0.2711812028083083 0.6836581987492769 1 0.2820573951074141 1:1 2:1 4:1 12:1 13:1 19:1 86:1 900:1 2711:1 
0.910157085223458 1 1 1 2:1 4:1 10:1 13:1 2713:1 
1 1 1 1 2:1 4:1 12:1 13:1 64:1 103:1 130:1 139:1 491:1 
0.7988751861569277 0.3005666746148712 0.6559917734892197 0.847945977922421 2:1 4:1 6:1 13:1 165:1 166:1 
0 0 0.4622372015652866 0 2:1 4:1 6:1 12:1 13:1 57:1 64:1 72:1 83:1 103:1 250:1 299:1 1301:1 2252:1 2269:1 2631:1 2716:1 2718:1 2719:1 
0.7528263274387264 0 0 0 2:1 4:1 13:1 64:1 83:1 86:1 205:1 661:1 839:1 2325:1 
0.82211193389269 0.6115951497559303 0.7775633352341984 0.4099996511988202 2:1 4:1 13:1 42:1 62:1 64:1 109:1 151:1 152:1 153:1 805:1 1656:1 1767:1 2726:1 2727:1 
0.4538119821757882 0.1618297674677512 0.06532001896710894 0 2:1 4:1 10:1 13:1 49:1 73:1 76:1 114:1 188:1 250:1 333:1 860:1 1465:1 1514:1 2728:1 2729:1 2730:1 2731:1 2732:1 
1 1 1 1 2:1 4:1 8:1 13:1 34:1 64:1 180:1 611:1 
0 0 1 0 2:1 4:1 12:1 13:1 42:1 202:1 478:1 
0.4462985421756592 0.01416386687872256 0.3114340232294999 0 2:1 4:1 10:1 13:1 86:1 1776:1 2734:1 
1 1 0.1382094629062468 1 2:1 4:1 10:1 13:1 42:1 64:1 86:1 95:1 153:1 246:1 344:1 363:1 383:1 475:1 495:1 1580:1 2735:1 2736:1 
0.6489420501003796 0 1 0.2304559153706738 2:1 4:1 13:1 16:1 42:1 72:1 86:1 101:1 163:1 196:1 212:1 1111:1 1481:1 2739:1 2740:1 
0 1 0 0.1323741693886344 1:1 2:1 4:1 9:1 12:1 13:1 57:1 101:1 159:1 204:1 249:1 332:1 368:1 598:1 989:1 2741:1 
1 1 1 1 1:1 2:1 4:1 13:1 19:1 223:1 2742:1 
1 0.6770714878967161 1 1 2:1 4:1 13:1 86:1 128:1 174:1 1294:1 2567:1 
0.1157512331774952 0.5829231854129311 0.8852475903758859 0.4753127987393487 2:1 4:1 8:1 13:1 42:1 47:1 73:1 83:1 162:1 180:1 490:1 794:1 811:1 2424:1 2491:1 2672:1 2744:1 2745:1 
0.09100758095121188 0.5862867270884567 1 1 2:1 4:1 13:1 42:1 101:1 111:1 163:1 212:1 235:1 502:1 1435:1 1814:1 
0.6511216329104151 0 0.5483129859096275 0.4086434368185944 2:1 4:1 12:1 13:1 34:1 57:1 61:1 64:1 97:1 139:1 223:1 344:1 433:1 435:1 520:1 2747:1 2748:1 
0 0.001709503307123621 0 0.4058507825058743 1:1 2:1 4:1 13:1 38:1 41:1 49:1 51:1 52:1 76:1 103:1 120:1 134:1 169:1 188:1 261:1 265:1 1727:1 2367:1 2368:1 2369:1 
0 0 0 1 1:1 2:1 4:1 9:1 13:1 19:1 103:1 149:1 343:1 2675:1 
1 1 1 1 1:1 2:1 4:1 13:1 19:1 
1 1 1 0 2:1 4:1 13:1 34:1 64:1 94:1 97:1 114:1 1471:1 
0 0 1 0 2:1 4:1 13:1 46:1 76:1 141:1 162:1 212:1 223:1 226:1 517:1 1199:1 2031:1 2756:1 
1 0 1 0 2:1 4:1 12:1 13:1 122:1 167:1 250:1 383:1 552:1 635:1 
0.08946461309186529 0 0.2988569589336701 0.07354318211036991 2:1 4:1 10:1 13:1 42:1 43:1 46:1 48:1 57:1 72:1 79:1 86:1 180:1 205:1 252:1 265:1 628:1 886:1 931:1 956:1 960:1 2757:1 2758:1 2759:1 2760:1 2761:1 2762:1 
0 0 0.4859382034243813 0.1968725764779115 2:1 4:1 13:1 79:1 86:1 2765:1 2766:1 2767:1 
0 0 0.3940135515427034 0.7978775862200373 2:1 4:1 13:1 16:1 63:1 103:1 109:1 250:1 514:1 1185:1 1459:1 2031:1 
1 1 0.5525048640060792 1 1:1 2:1 4:1 6:1 12:1 13:1 2770:1 2771:1 
0 0 0 0.5845167690491954 2:1 4:1 6:1 9:1 13:1 20:1 32:1 48:1 57:1 126:1 127:1 171:1 176:1 204:1 344:1 347:1 349:1 415:1 438:1 584:1 758:1 810:1 857:1 1247:1 2772:1 2773:1 2775:1 
0.7269312500422467 0.8383543796902313 0 1 1:1 2:1 4:1 13:1 19:1 27:1 42:1 347:1 349:1 415:1 956:1 960:1 1508:1 1607:1 1926:1 2776:1 2777:1 
1 1 0 1 2:1 4:1 13:1 83:1 243:1 598:1 1441:1 
0.5974241532649869 1 1 1 1:1 2:1 4:1 12:1 13:1 19:1 669:1 2779:1 
0.5672416253832513 0.7437272989386852 0.1518189260523166 0.8120992025134646 2:1 4:1 13:1 27:1 33:1 42:1 47:1 58:1 64:1 72:1 83:1 116:1 152:1 167:1 332:1 689:1 810:1 2565:1 2780:1 
0 0 0.6770824930268929 0 1:1 2:1 4:1 13:1 19:1 64:1 109:1 180:1 997:1 1301:1 1896:1 2324:1 2782:1 2783:1 
0.7244169018425493 0.231072925703498 1 0 2:1 4:1 10:1 13:1 47:1 64:1 76:1 111:1 224:1 332:1 1944:1 2661:1 2784:1 
0.8390108869430291 0.3937953346332256 0 0.2714053143004622 2:1 4:1 13:1 76:1 615:1 872:1 2785:1 
1 1 1 1 2:1 4:1 13:1 132:1 2786:1 
1 1 1 1 2:1 4:1 13:1 
0 0 0.009613802646586076 0.4316106629210578 2:1 4:1 12:1 13:1 73:1 76:1 265:1 370:1 829:1 2787:1 2788:1 2789:1 2790:1 
1 0 0 0 2:1 4:1 9:1 12:1 13:1 32:1 42:1 61:1 66:1 73:1 76:1 109:1 174:1 205:1 578:1 770:1 864:1 1270:1 
0 0 0.1447433577454097 0.1046031283090128 2:1 4:1 12:1 13:1 64:1 67:1 76:1 86:1 131:1 217:1 218:1 252:1 454:1 647:1 2793:1 2794:1 2795:1 
0 0 0.3388489377477021 0 1:1 2:1 4:1 12:1 13:1 19:1 38:1 86:1 120:1 226:1 726:1 2490:1 2797:1 
0 0.1646589187168538 0.3619660833851491 1 1:1 2:1 4:1 13:1 34:1 57:1 96:1 134:1 252:1 345:1 521:1 1847:1 2045:1 2800:1 2801:1 
0.05493617191836316 0 1 0 2:1 4:1 12:1 13:1 202:1 383:1 2802:1 
0.06251606691290938 0.7584308112045529 0.06839005674112998 0.3391155663995025 1:1 2:1 4:1 13:1 38:1 41:1 72:1 76:1 95:1 111:1 193:1 222:1 349:1 532:1 956:1 960:1 1122:1 1239:1 2803:1 2804:1 2805:1 
0.9219664345984563 0 1 0 2:1 4:1 13:1 47:1 64:1 111:1 178:1 380:1 2806:1 
0.8253293750525784 0.1788356911344451 0.7936525117887892 1 2:1 4:1 12:1 13:1 64:1 166:1 699:1 2809:1 
0 0 0.285366763386885 0 2:1 4:1 13:1 29:1 47:1 64:1 69:1 732:1 1142:1 2700:1 2810:1 2811:1 
0.0595224086006482 0 1 0 2:1 4:1 13:1 34:1 42:1 47:1 73:1 134:1 660:1 665:1 1113:1 
0 0 0 0.248503760461289 2:1 4:1 13:1 34:1 64:1 73:1 76:1 97:1 111:1 162:1 169:1 264:1 366:1 434:1 477:1 1116:1 1748:1 2680:1 2812:1 2813:1 
