svm_type c_svc
kernel_type linear
nr_class 2
total_sv 10846
rho -0.999676
label 0 1
probA -1.44532
probB -0.445874
nr_sv 6869 3977
SV
0.1969055087705239 1:1 2:1 3:1 4:1 5:1 6:1 7:1 8:1 9:1 10:1 11:1 12:1 13:1 14:1 
0.05369990788738919 2:1 4:1 5:1 13:1 14:1 27:1 40:1 41:1 42:1 43:1 44:1 45:1 46:1 47:1 48:1 49:1 
0.5680419772435175 2:1 4:1 10:1 13:1 14:1 30:1 50:1 51:1 52:1 53:1 54:1 55:1 56:1 57:1 58:1 59:1 60:1 61:1 62:1 63:1 64:1 65:1 66:1 
0.05516273308620381 1:1 2:1 3:1 4:1 5:1 6:1 12:1 13:1 14:1 46:1 48:1 56:1 67:1 68:1 69:1 70:1 71:1 72:1 73:1 74:1 75:1 76:1 77:1 78:1 79:1 80:1 81:1 82:1 
0.6132573172203806 2:1 4:1 10:1 13:1 14:1 30:1 31:1 75:1 83:1 84:1 85:1 86:1 87:1 88:1 89:1 
0.3309746544239053 1:1 2:1 3:1 4:1 9:1 13:1 14:1 19:1 25:1 30:1 63:1 73:1 90:1 91:1 92:1 93:1 94:1 95:1 96:1 97:1 98:1 99:1 100:1 101:1 
0.05854400401397217 2:1 4:1 5:1 6:1 13:1 14:1 46:1 63:1 71:1 82:1 84:1 150:1 151:1 152:1 153:1 154:1 155:1 156:1 
0.2830415742303606 1:1 2:1 3:1 4:1 8:1 13:1 14:1 47:1 55:1 72:1 92:1 95:1 101:1 134:1 148:1 158:1 164:1 165:1 166:1 167:1 168:1 169:1 
0.176875556761979 1:1 2:1 3:1 4:1 12:1 13:1 14:1 30:1 48:1 159:1 185:1 186:1 187:1 188:1 
0.3683601497699188 1:1 2:1 3:1 4:1 13:1 14:1 48:1 109:1 195:1 196:1 197:1 198:1 
1 1:1 2:1 3:1 4:1 8:1 13:1 14:1 48:1 63:1 92:1 93:1 95:1 101:1 206:1 207:1 208:1 
1 2:1 4:1 5:1 8:1 12:1 13:1 14:1 63:1 71:1 72:1 84:1 224:1 225:1 226:1 227:1 228:1 229:1 230:1 231:1 232:1 233:1 234:1 235:1 236:1 
1 2:1 4:1 5:1 13:1 14:1 92:1 93:1 165:1 237:1 
1 2:1 4:1 5:1 13:1 14:1 27:1 156:1 196:1 205:1 207:1 215:1 237:1 239:1 247:1 248:1 249:1 250:1 251:1 
0.7047176235011816 1:1 2:1 3:1 4:1 5:1 8:1 12:1 13:1 14:1 71:1 79:1 92:1 99:1 156:1 159:1 182:1 286:1 287:1 288:1 289:1 290:1 
0.125680793281805 1:1 2:1 3:1 4:1 5:1 8:1 10:1 12:1 13:1 14:1 19:1 47:1 95:1 111:1 114:1 249:1 291:1 292:1 293:1 294:1 295:1 296:1 297:1 298:1 299:1 
0.07847585115463507 1:1 2:1 3:1 4:1 5:1 13:1 14:1 19:1 27:1 31:1 56:1 75:1 101:1 107:1 194:1 267:1 282:1 311:1 312:1 313:1 314:1 315:1 316:1 317:1 318:1 319:1 320:1 321:1 322:1 323:1 
1 1:1 2:1 3:1 4:1 12:1 13:1 14:1 57:1 71:1 75:1 158:1 345:1 346:1 
1 2:1 4:1 13:1 14:1 30:1 
0.8789291927513524 2:1 4:1 5:1 13:1 14:1 47:1 73:1 111:1 210:1 379:1 380:1 381:1 
0.467044776215261 2:1 4:1 9:1 12:1 13:1 14:1 68:1 122:1 123:1 213:1 443:1 
0.6174341171077558 2:1 4:1 5:1 10:1 13:1 14:1 42:1 48:1 63:1 75:1 204:1 302:1 347:1 459:1 460:1 461:1 462:1 
1 2:1 4:1 5:1 13:1 14:1 84:1 98:1 463:1 464:1 465:1 
1 1:1 2:1 3:1 4:1 10:1 13:1 14:1 63:1 71:1 72:1 106:1 135:1 230:1 232:1 249:1 250:1 324:1 368:1 487:1 
0.5828043771895154 1:1 2:1 3:1 4:1 9:1 12:1 13:1 14:1 92:1 325:1 
0.06852034610139215 2:1 4:1 5:1 6:1 13:1 14:1 63:1 71:1 78:1 84:1 159:1 524:1 525:1 526:1 527:1 
0.7290033582618887 2:1 4:1 5:1 6:1 13:1 14:1 27:1 29:1 150:1 463:1 515:1 544:1 545:1 
0.04194988115736408 2:1 4:1 5:1 8:1 10:1 12:1 13:1 14:1 46:1 60:1 61:1 63:1 84:1 127:1 150:1 159:1 196:1 197:1 203:1 216:1 382:1 410:1 413:1 421:1 553:1 554:1 555:1 556:1 557:1 558:1 559:1 560:1 561:1 
1 1:1 2:1 3:1 4:1 13:1 14:1 19:1 48:1 63:1 90:1 92:1 135:1 177:1 214:1 295:1 564:1 
0.164658243540462 2:1 4:1 13:1 14:1 20:1 38:1 47:1 48:1 107:1 351:1 607:1 608:1 609:1 610:1 611:1 612:1 613:1 
0.3980399284276737 2:1 4:1 13:1 14:1 63:1 84:1 135:1 262:1 615:1 616:1 617:1 
1 1:1 2:1 3:1 4:1 13:1 14:1 30:1 
1 2:1 4:1 13:1 14:1 19:1 30:1 122:1 381:1 621:1 
0.09261081514142584 2:1 4:1 13:1 14:1 249:1 643:1 
1 1:1 2:1 3:1 4:1 8:1 13:1 14:1 62:1 84:1 101:1 159:1 262:1 318:1 646:1 
0.8805015329917386 2:1 4:1 13:1 14:1 27:1 252:1 680:1 681:1 682:1 683:1 
0.1646306240943991 2:1 4:1 8:1 13:1 14:1 50:1 55:1 63:1 68:1 97:1 124:1 158:1 199:1 302:1 329:1 330:1 331:1 689:1 690:1 
1 2:1 4:1 10:1 13:1 14:1 19:1 47:1 72:1 109:1 239:1 283:1 522:1 554:1 691:1 692:1 693:1 694:1 
0.25842006066886 1:1 2:1 3:1 4:1 13:1 14:1 27:1 71:1 170:1 177:1 262:1 287:1 331:1 424:1 487:1 564:1 721:1 722:1 723:1 724:1 
1 1:1 2:1 3:1 4:1 8:1 12:1 13:1 14:1 56:1 101:1 107:1 148:1 164:1 445:1 622:1 735:1 736:1 
0.3130682434061484 1:1 2:1 3:1 4:1 8:1 13:1 14:1 42:1 47:1 48:1 63:1 71:1 79:1 101:1 107:1 127:1 248:1 493:1 737:1 738:1 739:1 740:1 741:1 742:1 
0.4941007580683477 1:1 2:1 3:1 4:1 5:1 13:1 14:1 30:1 34:1 63:1 75:1 111:1 186:1 197:1 366:1 675:1 
0.1045272680914694 1:1 2:1 3:1 4:1 5:1 13:1 14:1 19:1 56:1 63:1 75:1 90:1 107:1 139:1 148:1 326:1 347:1 487:1 627:1 628:1 629:1 630:1 
1 1:1 2:1 3:1 4:1 9:1 13:1 14:1 75:1 92:1 101:1 350:1 
1 1:1 2:1 3:1 4:1 5:1 6:1 13:1 14:1 19:1 107:1 122:1 150:1 249:1 250:1 267:1 295:1 299:1 326:1 362:1 376:1 768:1 769:1 770:1 771:1 772:1 
1 2:1 4:1 5:1 13:1 14:1 42:1 47:1 52:1 78:1 95:1 99:1 109:1 164:1 165:1 282:1 778:1 779:1 
0.6472886936095554 2:1 4:1 13:1 14:1 56:1 60:1 68:1 71:1 75:1 84:1 94:1 150:1 226:1 367:1 789:1 790:1 791:1 792:1 793:1 
1 2:1 4:1 13:1 14:1 63:1 78:1 127:1 457:1 509:1 801:1 802:1 
0.6321792854333788 1:1 2:1 3:1 4:1 9:1 13:1 14:1 84:1 107:1 131:1 159:1 196:1 201:1 202:1 280:1 738:1 803:1 
0.3760449130814443 2:1 4:1 13:1 14:1 71:1 163:1 690:1 816:1 
1 2:1 4:1 13:1 14:1 30:1 
1 2:1 4:1 13:1 14:1 30:1 122:1 381:1 
0.7411933850635306 2:1 4:1 12:1 13:1 14:1 56:1 84:1 175:1 209:1 312:1 329:1 331:1 392:1 464:1 840:1 841:1 842:1 
0.3932992604186469 2:1 4:1 5:1 13:1 14:1 27:1 75:1 84:1 97:1 159:1 264:1 413:1 715:1 817:1 856:1 857:1 858:1 859:1 860:1 
1 2:1 4:1 13:1 14:1 38:1 122:1 123:1 124:1 873:1 
1 2:1 4:1 12:1 13:1 14:1 38:1 46:1 68:1 75:1 111:1 150:1 159:1 240:1 283:1 327:1 362:1 379:1 529:1 598:1 649:1 675:1 888:1 889:1 890:1 891:1 892:1 893:1 
0.8255409028208381 1:1 2:1 3:1 4:1 10:1 13:1 14:1 19:1 34:1 46:1 50:1 63:1 75:1 94:1 145:1 149:1 307:1 473:1 474:1 475:1 
0.006042098770723077 1:1 2:1 3:1 4:1 13:1 14:1 72:1 82:1 249:1 349:1 845:1 899:1 900:1 901:1 902:1 
1 2:1 4:1 13:1 14:1 108:1 109:1 131:1 
1 2:1 4:1 13:1 14:1 41:1 42:1 47:1 72:1 246:1 502:1 519:1 
0.09948479759800476 2:1 4:1 10:1 13:1 14:1 19:1 63:1 75:1 145:1 149:1 933:1 934:1 935:1 936:1 937:1 
0.2753689575900666 2:1 4:1 13:1 14:1 42:1 159:1 362:1 946:1 947:1 948:1 
1 2:1 4:1 13:1 14:1 38:1 47:1 48:1 75:1 101:1 249:1 250:1 677:1 684:1 685:1 739:1 760:1 805:1 955:1 
0.5771307612315468 1:1 2:1 3:1 4:1 13:1 14:1 19:1 63:1 84:1 90:1 159:1 199:1 302:1 658:1 960:1 961:1 962:1 
0.09743464096466353 1:1 2:1 3:1 4:1 13:1 14:1 76:1 262:1 560:1 658:1 969:1 970:1 971:1 
1 1:1 2:1 3:1 4:1 12:1 13:1 14:1 249:1 250:1 507:1 604:1 739:1 989:1 
0.5253361436053324 1:1 2:1 3:1 4:1 10:1 13:1 14:1 19:1 34:1 66:1 72:1 84:1 177:1 178:1 262:1 334:1 429:1 616:1 694:1 1020:1 1021:1 
1 2:1 4:1 13:1 14:1 38:1 55:1 73:1 158:1 208:1 410:1 615:1 690:1 1046:1 1047:1 
0.06696166502493821 2:1 4:1 10:1 13:1 14:1 31:1 32:1 48:1 63:1 65:1 75:1 78:1 95:1 107:1 109:1 148:1 204:1 367:1 436:1 590:1 1060:1 
0.6947046046937223 1:1 2:1 3:1 4:1 12:1 13:1 14:1 30:1 60:1 63:1 71:1 84:1 150:1 312:1 1061:1 1062:1 1063:1 1064:1 
0.1978684685281931 1:1 2:1 3:1 4:1 13:1 14:1 19:1 63:1 233:1 425:1 1074:1 1075:1 1076:1 
0.07209742502081747 2:1 4:1 12:1 13:1 14:1 30:1 1077:1 
0.06246175829803011 2:1 4:1 12:1 13:1 14:1 52:1 101:1 251:1 385:1 807:1 904:1 1078:1 1079:1 1080:1 1081:1 1082:1 
0.2081499034201795 2:1 4:1 5:1 8:1 13:1 14:1 99:1 109:1 366:1 1116:1 1117:1 
0.09440971577453482 2:1 4:1 5:1 13:1 14:1 34:1 42:1 46:1 48:1 63:1 71:1 99:1 101:1 113:1 127:1 147:1 175:1 196:1 201:1 202:1 267:1 402:1 865:1 869:1 1118:1 1119:1 1120:1 1121:1 1122:1 1123:1 1124:1 1125:1 1126:1 
0.1523587761406126 1:1 2:1 3:1 4:1 5:1 13:1 14:1 19:1 84:1 90:1 229:1 966:1 997:1 998:1 
1 2:1 4:1 13:1 14:1 30:1 46:1 142:1 522:1 
0.2143016652952991 1:1 2:1 3:1 4:1 5:1 8:1 12:1 13:1 14:1 27:1 42:1 99:1 312:1 715:1 1143:1 
0.2704719016229025 2:1 4:1 5:1 12:1 13:1 14:1 29:1 71:1 235:1 438:1 1150:1 1151:1 
0.2493008496100849 2:1 4:1 13:1 14:1 42:1 56:1 68:1 75:1 150:1 1155:1 1156:1 1157:1 1158:1 
1 2:1 4:1 13:1 14:1 30:1 
1 2:1 4:1 13:1 14:1 42:1 137:1 159:1 316:1 1031:1 1178:1 
0.4909939570887057 2:1 4:1 5:1 13:1 14:1 27:1 31:1 56:1 75:1 107:1 194:1 282:1 312:1 313:1 314:1 315:1 316:1 317:1 318:1 319:1 
1 1:1 2:1 3:1 4:1 8:1 12:1 13:1 14:1 55:1 101:1 164:1 318:1 
1 2:1 4:1 13:1 14:1 72:1 108:1 109:1 131:1 
1 1:1 2:1 3:1 4:1 5:1 12:1 13:1 14:1 27:1 93:1 911:1 
0.5409614952925085 2:1 4:1 13:1 14:1 31:1 32:1 75:1 107:1 147:1 159:1 277:1 712:1 1188:1 1189:1 1190:1 1191:1 1192:1 
0.6032459477595566 2:1 4:1 5:1 6:1 13:1 14:1 17:1 38:1 71:1 75:1 84:1 225:1 454:1 564:1 1206:1 1207:1 
0.01766229192321522 1:1 2:1 3:1 4:1 5:1 8:1 13:1 14:1 42:1 63:1 75:1 95:1 106:1 109:1 111:1 150:1 181:1 282:1 347:1 366:1 678:1 1090:1 1211:1 1212:1 1213:1 1214:1 
1 1:1 2:1 3:1 4:1 13:1 14:1 38:1 63:1 163:1 283:1 337:1 625:1 1026:1 
0.1222593026312445 2:1 4:1 5:1 13:1 14:1 19:1 120:1 177:1 1219:1 1220:1 
0.9181059807820671 2:1 4:1 5:1 13:1 14:1 19:1 38:1 42:1 46:1 56:1 71:1 72:1 75:1 89:1 99:1 114:1 142:1 159:1 239:1 295:1 299:1 628:1 852:1 1189:1 1221:1 1222:1 1223:1 1224:1 
1 1:1 2:1 3:1 4:1 5:1 13:1 14:1 99:1 231:1 349:1 455:1 1230:1 1231:1 1232:1 
0.07171628419970022 2:1 4:1 13:1 14:1 30:1 34:1 38:1 47:1 75:1 130:1 472:1 1236:1 1237:1 1238:1 1239:1 
0.4006517606210634 1:1 2:1 3:1 4:1 10:1 12:1 13:1 14:1 19:1 42:1 47:1 48:1 66:1 210:1 311:1 318:1 320:1 504:1 515:1 739:1 1252:1 1253:1 
0.8585312599900486 2:1 4:1 8:1 13:1 14:1 34:1 42:1 56:1 72:1 101:1 109:1 121:1 150:1 159:1 172:1 240:1 293:1 335:1 631:1 649:1 1151:1 1256:1 1257:1 1258:1 1259:1 1260:1 
0.0951785489572296 2:1 4:1 13:1 14:1 148:1 150:1 158:1 283:1 532:1 847:1 1261:1 1262:1 1263:1 
0.1130422464929626 2:1 4:1 13:1 14:1 30:1 68:1 922:1 1264:1 1265:1 
0.6072557116532028 1:1 2:1 3:1 4:1 13:1 14:1 30:1 128:1 293:1 561:1 590:1 1272:1 
0.4867295348815683 2:1 4:1 13:1 14:1 42:1 84:1 692:1 1273:1 1274:1 1275:1 
0.7113353802089987 1:1 2:1 3:1 4:1 19:1 66:1 68:1 72:1 90:1 92:1 115:1 225:1 1189:1 1288:1 1289:1 1290:1 1291:1 1292:1 
1 2:1 4:1 5:1 12:1 13:1 14:1 27:1 93:1 911:1 
0.1489588959690819 1:1 2:1 3:1 4:1 5:1 9:1 10:1 13:1 14:1 27:1 42:1 46:1 56:1 94:1 147:1 823:1 997:1 1103:1 1302:1 1303:1 1304:1 1305:1 1306:1 1307:1 1308:1 
0.2554933671351456 2:1 4:1 13:1 14:1 48:1 84:1 164:1 327:1 778:1 1135:1 1309:1 
0.1806059544567392 2:1 4:1 13:1 14:1 30:1 48:1 64:1 84:1 110:1 122:1 1317:1 1318:1 
0.04231149403316276 2:1 4:1 13:1 14:1 27:1 42:1 46:1 47:1 71:1 84:1 107:1 141:1 158:1 163:1 185:1 227:1 266:1 283:1 287:1 554:1 713:1 793:1 873:1 885:1 1323:1 1324:1 1325:1 
1 2:1 4:1 13:1 14:1 42:1 45:1 385:1 641:1 1333:1 1334:1 
0.2442668511582545 2:1 4:1 10:1 13:1 14:1 27:1 40:1 41:1 42:1 84:1 150:1 282:1 503:1 602:1 759:1 863:1 1338:1 1339:1 1340:1 
0.2294912971286197 2:1 4:1 10:1 12:1 13:1 14:1 63:1 729:1 1357:1 1358:1 
0.4671392327087478 1:1 2:1 3:1 4:1 12:1 13:1 14:1 38:1 73:1 75:1 78:1 92:1 97:1 561:1 609:1 1388:1 1389:1 
0.009097004342581016 1:1 2:1 3:1 4:1 5:1 13:1 14:1 379:1 408:1 1390:1 1391:1 1392:1 1393:1 
0.04228192594111212 2:1 4:1 13:1 14:1 302:1 364:1 1226:1 1394:1 1395:1 1396:1 1397:1 1398:1 1399:1 1400:1 1401:1 
1 2:1 4:1 13:1 14:1 30:1 47:1 48:1 71:1 108:1 109:1 205:1 248:1 1227:1 1402:1 1403:1 
0.1154096272870029 2:1 4:1 13:1 14:1 75:1 159:1 1174:1 1406:1 1407:1 
1 2:1 4:1 5:1 6:1 10:1 13:1 14:1 56:1 63:1 72:1 107:1 114:1 194:1 197:1 214:1 240:1 249:1 250:1 262:1 282:1 344:1 508:1 564:1 957:1 1281:1 1423:1 
0.2895940484257903 2:1 4:1 13:1 14:1 19:1 30:1 48:1 73:1 84:1 123:1 131:1 329:1 331:1 379:1 392:1 483:1 497:1 807:1 817:1 1312:1 1434:1 
1 2:1 4:1 13:1 14:1 1448:1 
0.3142434535304739 1:1 2:1 3:1 4:1 13:1 14:1 19:1 47:1 72:1 75:1 90:1 114:1 158:1 302:1 1451:1 1452:1 1453:1 
0.161564593582279 1:1 2:1 3:1 4:1 13:1 14:1 184:1 
0.7050553872170934 2:1 4:1 13:1 14:1 33:1 42:1 47:1 48:1 99:1 249:1 329:1 331:1 349:1 392:1 1467:1 1468:1 
0.08736186727290501 2:1 4:1 13:1 14:1 66:1 84:1 479:1 480:1 1149:1 1469:1 1470:1 1471:1 1472:1 1473:1 
1 1:1 2:1 3:1 4:1 13:1 14:1 19:1 38:1 47:1 48:1 75:1 90:1 101:1 249:1 250:1 677:1 684:1 685:1 739:1 760:1 805:1 955:1 
0.1401496082466446 2:1 4:1 13:1 14:1 32:1 65:1 68:1 75:1 84:1 94:1 593:1 639:1 944:1 1522:1 1523:1 1524:1 1525:1 1526:1 1527:1 
0.0363615209718342 1:1 2:1 3:1 4:1 12:1 13:1 14:1 51:1 62:1 66:1 101:1 129:1 130:1 131:1 
1 1:1 2:1 3:1 4:1 8:1 13:1 14:1 32:1 76:1 99:1 109:1 197:1 240:1 324:1 326:1 368:1 564:1 778:1 1529:1 
0.01166341476461602 1:1 2:1 3:1 4:1 10:1 13:1 14:1 624:1 1530:1 1531:1 
0.02594882557021888 2:1 4:1 5:1 13:1 14:1 29:1 48:1 50:1 75:1 84:1 111:1 123:1 158:1 199:1 205:1 215:1 966:1 1127:1 1535:1 1536:1 
1 1:1 2:1 3:1 4:1 13:1 14:1 48:1 63:1 92:1 135:1 177:1 214:1 295:1 564:1 
0.2017970949557726 2:1 4:1 5:1 8:1 13:1 14:1 27:1 50:1 823:1 983:1 1470:1 1544:1 1545:1 
0.8961525118222765 1:1 2:1 3:1 4:1 9:1 13:1 14:1 27:1 30:1 56:1 72:1 159:1 163:1 240:1 793:1 1546:1 1547:1 1548:1 1549:1 1550:1 1551:1 
0.07354215857529053 1:1 2:1 3:1 4:1 5:1 6:1 9:1 12:1 13:1 14:1 27:1 46:1 68:1 84:1 114:1 225:1 239:1 305:1 456:1 647:1 805:1 809:1 1337:1 1552:1 1553:1 
1 1:1 2:1 3:1 4:1 12:1 13:1 14:1 73:1 232:1 612:1 
0.000889911329686611 1:1 2:1 3:1 4:1 13:1 14:1 19:1 25:1 72:1 75:1 84:1 90:1 434:1 1559:1 1560:1 1561:1 
0.1091338255801302 2:1 4:1 10:1 13:1 14:1 41:1 42:1 46:1 56:1 63:1 66:1 75:1 84:1 86:1 107:1 112:1 159:1 192:1 513:1 898:1 1061:1 1119:1 1281:1 1562:1 1563:1 1564:1 1565:1 
1 2:1 4:1 5:1 9:1 12:1 13:1 14:1 19:1 30:1 34:1 42:1 82:1 126:1 194:1 
0.5993514229201375 1:1 2:1 3:1 4:1 13:1 14:1 19:1 38:1 42:1 71:1 75:1 90:1 159:1 253:1 512:1 919:1 1569:1 1570:1 1571:1 1572:1 1573:1 
1 1:1 2:1 3:1 4:1 5:1 13:1 14:1 32:1 52:1 649:1 1539:1 1578:1 
0.6262408682231539 1:1 2:1 3:1 4:1 13:1 14:1 19:1 75:1 90:1 111:1 159:1 210:1 379:1 438:1 694:1 1594:1 
0.1132806279779767 1:1 2:1 3:1 4:1 13:1 14:1 19:1 66:1 71:1 90:1 123:1 145:1 621:1 898:1 1595:1 1596:1 
0.09500163345342226 1:1 2:1 3:1 4:1 13:1 14:1 19:1 42:1 54:1 61:1 78:1 90:1 111:1 150:1 197:1 379:1 520:1 641:1 1221:1 1430:1 1610:1 1611:1 1612:1 
0.04500461812208893 1:1 2:1 3:1 4:1 5:1 13:1 14:1 19:1 30:1 31:1 32:1 42:1 90:1 95:1 101:1 107:1 138:1 150:1 239:1 733:1 1629:1 1630:1 
0.5753016771749616 2:1 4:1 13:1 14:1 34:1 47:1 1634:1 1635:1 
1 1:1 2:1 3:1 4:1 5:1 13:1 14:1 27:1 52:1 78:1 315:1 807:1 
0.2080092813207114 2:1 4:1 13:1 14:1 46:1 66:1 167:1 227:1 343:1 509:1 623:1 1638:1 1639:1 
1 1:1 2:1 3:1 4:1 5:1 13:1 14:1 51:1 130:1 173:1 286:1 744:1 
1 2:1 4:1 5:1 12:1 13:1 14:1 42:1 63:1 65:1 97:1 249:1 250:1 302:1 600:1 647:1 690:1 865:1 869:1 879:1 1600:1 1642:1 1643:1 
1 2:1 4:1 12:1 13:1 14:1 30:1 656:1 1216:1 
0.5590188853641372 2:1 4:1 10:1 13:1 14:1 71:1 84:1 156:1 167:1 282:1 326:1 490:1 743:1 913:1 1348:1 1652:1 1653:1 
0.09096419238405382 2:1 4:1 13:1 14:1 42:1 72:1 364:1 1344:1 1365:1 1400:1 1495:1 1505:1 1654:1 1655:1 1656:1 1657:1 1658:1 1659:1 
1 1:1 2:1 3:1 4:1 9:1 13:1 14:1 56:1 60:1 68:1 71:1 72:1 79:1 84:1 172:1 364:1 512:1 655:1 1020:1 1668:1 1669:1 1670:1 1671:1 
1 1:1 2:1 3:1 4:1 5:1 13:1 14:1 30:1 31:1 32:1 42:1 95:1 101:1 107:1 138:1 150:1 239:1 733:1 1629:1 1630:1 
0.8634226599046063 2:1 4:1 13:1 14:1 1675:1 
1 1:1 2:1 3:1 4:1 5:1 13:1 14:1 48:1 72:1 194:1 201:1 202:1 248:1 408:1 564:1 
0.5873474175249511 1:1 2:1 3:1 4:1 5:1 13:1 14:1 19:1 63:1 75:1 95:1 109:1 295:1 299:1 544:1 735:1 1046:1 1140:1 1690:1 1691:1 
0.1153667225507454 2:1 4:1 10:1 13:1 14:1 56:1 75:1 122:1 201:1 202:1 1316:1 1697:1 1698:1 1699:1 1700:1 
0.8743850657596877 1:1 2:1 3:1 4:1 13:1 14:1 72:1 344:1 368:1 563:1 564:1 
0.2759282279818633 1:1 2:1 3:1 4:1 13:1 14:1 19:1 56:1 90:1 259:1 260:1 528:1 529:1 
0.1916815706396627 2:1 4:1 5:1 13:1 14:1 16:1 50:1 68:1 84:1 94:1 307:1 412:1 524:1 1670:1 1702:1 1703:1 1704:1 
0.7245057514616186 1:1 2:1 3:1 4:1 13:1 14:1 25:1 48:1 72:1 92:1 204:1 389:1 
0.1488276568720358 1:1 2:1 3:1 4:1 12:1 13:1 14:1 32:1 51:1 63:1 130:1 262:1 316:1 377:1 590:1 832:1 1705:1 1706:1 1707:1 1708:1 
0.4552925781297565 2:1 4:1 13:1 14:1 42:1 66:1 68:1 1726:1 1727:1 1728:1 
1 1:1 2:1 3:1 4:1 13:1 14:1 68:1 71:1 73:1 101:1 215:1 486:1 560:1 562:1 1402:1 1436:1 1732:1 1733:1 
1 1:1 2:1 3:1 4:1 13:1 14:1 233:1 544:1 1154:1 
0.1611058695282322 2:1 4:1 10:1 13:1 14:1 65:1 99:1 102:1 107:1 1164:1 1736:1 1737:1 
1 1:1 2:1 3:1 4:1 5:1 6:1 13:1 14:1 32:1 43:1 52:1 71:1 135:1 805:1 1747:1 
0.11458464118613 5:1 13:1 52:1 68:1 170:1 247:1 253:1 368:1 729:1 1751:1 1752:1 1753:1 1754:1 1755:1 1756:1 1757:1 1758:1 1759:1 
1 1:1 2:1 3:1 4:1 5:1 12:1 13:1 14:1 19:1 29:1 126:1 145:1 149:1 165:1 222:1 1166:1 1773:1 
1 2:1 4:1 13:1 14:1 84:1 808:1 1081:1 1774:1 
1 1:1 2:1 3:1 4:1 13:1 14:1 38:1 71:1 75:1 159:1 172:1 236:1 739:1 
1 1:1 2:1 3:1 4:1 13:1 14:1 30:1 47:1 72:1 107:1 715:1 
0.7905712269855069 2:1 4:1 13:1 14:1 30:1 34:1 46:1 75:1 108:1 109:1 130:1 179:1 590:1 729:1 782:1 1378:1 1777:1 1778:1 
0.1903435911372314 1:1 2:1 3:1 4:1 13:1 14:1 19:1 30:1 32:1 38:1 48:1 72:1 90:1 181:1 1375:1 1376:1 1377:1 1378:1 
0.3173034379920117 1:1 2:1 3:1 4:1 5:1 6:1 9:1 10:1 13:1 14:1 16:1 19:1 27:1 42:1 63:1 71:1 72:1 90:1 95:1 107:1 109:1 114:1 135:1 240:1 315:1 538:1 992:1 1127:1 1300:1 1784:1 
1 2:1 4:1 13:1 14:1 34:1 48:1 73:1 116:1 158:1 194:1 248:1 544:1 694:1 743:1 828:1 1575:1 
0.1025084039879927 2:1 4:1 13:1 14:1 63:1 159:1 235:1 767:1 1443:1 1817:1 
1 1:1 2:1 3:1 4:1 5:1 12:1 13:1 14:1 27:1 52:1 63:1 165:1 216:1 
0.7128828296511148 2:1 4:1 5:1 13:1 14:1 27:1 32:1 50:1 56:1 68:1 97:1 107:1 233:1 239:1 316:1 774:1 1670:1 1823:1 1824:1 
0.2061356404513182 2:1 4:1 13:1 14:1 38:1 42:1 46:1 72:1 84:1 101:1 115:1 124:1 132:1 197:1 239:1 618:1 1046:1 1825:1 1826:1 1827:1 1828:1 
1 2:1 4:1 10:1 13:1 14:1 42:1 72:1 84:1 93:1 107:1 249:1 250:1 364:1 739:1 1829:1 1830:1 
0.2232599205146484 2:1 4:1 13:1 14:1 32:1 42:1 84:1 107:1 307:1 312:1 410:1 429:1 733:1 1273:1 1831:1 1832:1 
0.8172446334480206 1:1 2:1 3:1 4:1 13:1 14:1 19:1 55:1 84:1 90:1 429:1 444:1 445:1 446:1 447:1 
0.1137812998603924 2:1 4:1 5:1 6:1 12:1 13:1 14:1 84:1 150:1 181:1 382:1 465:1 554:1 1841:1 1842:1 1843:1 1844:1 1845:1 1846:1 
1 1:1 2:1 3:1 4:1 13:1 14:1 177:1 331:1 424:1 
0.04348548803691957 2:1 4:1 5:1 6:1 13:1 14:1 19:1 92:1 93:1 95:1 101:1 150:1 170:1 214:1 229:1 267:1 295:1 299:1 324:1 326:1 1566:1 1862:1 1863:1 
1 2:1 4:1 13:1 14:1 38:1 47:1 117:1 480:1 1885:1 
0.07764797199977556 1:1 2:1 3:1 4:1 5:1 10:1 13:1 14:1 25:1 27:1 32:1 52:1 68:1 75:1 108:1 109:1 172:1 227:1 315:1 576:1 1298:1 1886:1 1887:1 1888:1 1889:1 
0.3554065617696056 1:1 2:1 3:1 4:1 5:1 12:1 13:1 14:1 31:1 42:1 56:1 84:1 94:1 95:1 99:1 101:1 159:1 312:1 944:1 1303:1 1773:1 1893:1 1894:1 1895:1 
0.3159415858624158 2:1 4:1 13:1 14:1 66:1 690:1 1896:1 1897:1 
0.1212858031276542 2:1 4:1 13:1 14:1 42:1 72:1 82:1 1365:1 1496:1 1898:1 1899:1 1900:1 1901:1 1902:1 1903:1 
0.838588703069602 2:1 4:1 13:1 14:1 84:1 184:1 429:1 1548:1 1671:1 1782:1 
0.5576374765552931 2:1 4:1 5:1 6:1 8:1 10:1 13:1 14:1 31:1 32:1 42:1 63:1 75:1 104:1 127:1 131:1 159:1 199:1 232:1 382:1 522:1 845:1 1281:1 1297:1 1908:1 1909:1 1910:1 
0.2563164273946569 1:1 2:1 3:1 4:1 12:1 13:1 14:1 84:1 91:1 240:1 1029:1 1922:1 
0.1340326020920553 1:1 2:1 3:1 4:1 13:1 14:1 19:1 42:1 48:1 90:1 283:1 519:1 522:1 554:1 561:1 608:1 609:1 622:1 
0.2334634884199518 2:1 4:1 5:1 8:1 13:1 14:1 25:1 26:1 84:1 215:1 277:1 1924:1 
0.4893534055035356 2:1 4:1 5:1 13:1 14:1 75:1 99:1 109:1 130:1 159:1 160:1 204:1 248:1 379:1 719:1 1926:1 1927:1 1928:1 1929:1 
0.5169858843418492 2:1 4:1 5:1 13:1 14:1 233:1 351:1 1930:1 1931:1 
0.4176938081283921 2:1 4:1 12:1 13:1 14:1 42:1 60:1 159:1 177:1 331:1 424:1 1957:1 1958:1 1959:1 1960:1 1961:1 
1 1:1 2:1 3:1 4:1 12:1 13:1 14:1 25:1 56:1 84:1 91:1 240:1 1962:1 1963:1 
0.25046800098521 2:1 4:1 13:1 14:1 163:1 936:1 993:1 1971:1 1972:1 
0.1146087408723532 2:1 4:1 13:1 14:1 28:1 46:1 63:1 72:1 159:1 163:1 240:1 262:1 446:1 1240:1 1981:1 
1 1:1 2:1 3:1 4:1 5:1 13:1 14:1 32:1 95:1 109:1 240:1 649:1 1988:1 
0.6063986986471797 2:1 4:1 10:1 13:1 14:1 42:1 172:1 226:1 232:1 1989:1 1990:1 1991:1 1992:1 
0.4599669064112429 2:1 4:1 5:1 12:1 13:1 14:1 23:1 66:1 75:1 126:1 159:1 475:1 494:1 508:1 509:1 2010:1 2011:1 
0.04110491498394069 2:1 4:1 13:1 14:1 2023:1 2024:1 2025:1 
0.2893152944890733 1:1 2:1 3:1 4:1 9:1 12:1 13:1 14:1 19:1 84:1 90:1 115:1 175:1 216:1 302:1 2026:1 2027:1 2028:1 2029:1 
0.1473561584863673 2:1 4:1 13:1 14:1 60:1 82:1 743:1 754:1 2050:1 
0.6773591925497037 2:1 4:1 13:1 14:1 47:1 48:1 72:1 107:1 150:1 367:1 413:1 887:1 2053:1 
0.4342910335361433 2:1 4:1 13:1 14:1 42:1 48:1 72:1 446:1 865:1 869:1 1406:1 2055:1 2056:1 
0.1002923389057562 2:1 4:1 13:1 14:1 38:1 42:1 48:1 63:1 78:1 214:1 484:1 685:1 690:1 759:1 1162:1 1666:1 
1 2:1 4:1 13:1 14:1 38:1 55:1 73:1 75:1 84:1 97:1 159:1 307:1 1129:1 1346:1 
0.04260234915126847 2:1 4:1 12:1 13:1 14:1 163:1 822:1 2069:1 
0.1981023273768192 2:1 4:1 10:1 13:1 14:1 41:1 42:1 63:1 79:1 150:1 159:1 181:1 368:1 641:1 781:1 1237:1 1357:1 1446:1 2084:1 2085:1 2086:1 2087:1 
0.2078385103576551 2:1 4:1 10:1 12:1 13:1 14:1 63:1 71:1 84:1 107:1 212:1 226:1 544:1 789:1 1357:1 
1 2:1 4:1 5:1 10:1 13:1 14:1 86:1 173:1 232:1 248:1 251:1 385:1 864:1 2106:1 
0.2596896749411491 1:1 2:1 3:1 4:1 5:1 13:1 14:1 27:1 34:1 56:1 63:1 75:1 82:1 238:1 263:1 287:1 315:1 593:1 743:1 2112:1 2113:1 
0.07079971869293837 2:1 4:1 13:1 14:1 216:1 326:1 837:1 1765:1 2124:1 2125:1 
0.3822177409226885 2:1 4:1 5:1 13:1 14:1 47:1 63:1 72:1 74:1 92:1 326:1 347:1 438:1 786:1 
1 1:1 2:1 3:1 4:1 5:1 13:1 14:1 19:1 50:1 51:1 63:1 90:1 107:1 120:1 139:1 573:1 781:1 823:1 865:1 869:1 2131:1 
0.6840571907729174 1:1 2:1 3:1 4:1 5:1 6:1 13:1 14:1 19:1 63:1 90:1 135:1 2149:1 
0.06823765563603702 1:1 2:1 3:1 4:1 9:1 13:1 14:1 19:1 27:1 30:1 48:1 90:1 101:1 177:1 295:1 339:1 344:1 900:1 1551:1 2157:1 2158:1 2159:1 2160:1 
0.01086783290279554 2:1 4:1 5:1 12:1 13:1 14:1 75:1 84:1 240:1 507:1 817:1 913:1 989:1 2163:1 2164:1 2165:1 
0.1155340652478618 2:1 4:1 5:1 13:1 14:1 46:1 55:1 66:1 75:1 102:1 103:1 197:1 262:1 462:1 529:1 1073:1 2166:1 2167:1 2168:1 
1 2:1 4:1 13:1 14:1 47:1 52:1 84:1 159:1 808:1 823:1 
0.3510055734374015 2:1 4:1 5:1 8:1 10:1 13:1 14:1 47:1 63:1 73:1 84:1 107:1 111:1 127:1 240:1 671:1 701:1 823:1 2178:1 
0.5217558073802631 2:1 4:1 8:1 9:1 13:1 14:1 30:1 38:1 42:1 46:1 55:1 56:1 60:1 92:1 101:1 159:1 175:1 498:1 1068:1 2179:1 2180:1 2181:1 2182:1 
1 2:1 4:1 13:1 14:1 194:1 621:1 1589:1 1630:1 
0.05070569183138362 2:1 4:1 13:1 14:1 1441:1 2197:1 2198:1 
0.1471370474370209 2:1 4:1 5:1 12:1 13:1 14:1 38:1 92:1 94:1 95:1 99:1 109:1 215:1 216:1 283:1 349:1 351:1 519:1 1768:1 
1 1:1 2:1 3:1 4:1 9:1 13:1 14:1 19:1 90:1 240:1 2199:1 
0.1787798911492939 2:1 4:1 13:1 14:1 66:1 142:1 159:1 410:1 876:1 1273:1 2120:1 2208:1 2209:1 
0.6518697263891937 1:1 2:1 3:1 4:1 10:1 13:1 14:1 19:1 28:1 46:1 63:1 72:1 84:1 90:1 101:1 159:1 163:1 240:1 262:1 479:1 560:1 591:1 865:1 869:1 983:1 1240:1 1981:1 2210:1 2211:1 2212:1 
1 2:1 4:1 13:1 14:1 2131:1 
0.4619180622721883 2:1 4:1 13:1 14:1 81:1 690:1 1051:1 2004:1 
0.9509781870706815 2:1 4:1 12:1 13:1 14:1 42:1 46:1 55:1 56:1 97:1 248:1 278:1 315:1 2225:1 2226:1 2227:1 
0.0303362424583167 2:1 4:1 13:1 14:1 63:1 68:1 84:1 212:1 503:1 917:1 1408:1 2228:1 
1 1:1 2:1 3:1 4:1 12:1 13:1 14:1 84:1 147:1 159:1 194:1 229:1 302:1 1337:1 2233:1 
0.3909689705658912 2:1 4:1 5:1 13:1 14:1 55:1 84:1 229:1 238:1 845:1 1589:1 2249:1 2250:1 2251:1 
0.3065649088546814 2:1 4:1 10:1 13:1 14:1 30:1 47:1 84:1 249:1 262:1 759:1 2252:1 2253:1 
0.1291186326344816 2:1 4:1 13:1 14:1 39:1 491:1 1262:1 2262:1 
0.3880221472239317 1:1 2:1 3:1 4:1 9:1 13:1 14:1 30:1 40:1 46:1 47:1 48:1 684:1 1297:1 2268:1 
1 2:1 4:1 13:1 14:1 75:1 150:1 159:1 413:1 1224:1 2274:1 
0.1460887937106443 1:1 2:1 3:1 4:1 13:1 14:1 19:1 68:1 75:1 76:1 79:1 90:1 167:1 538:1 708:1 761:1 1477:1 1821:1 2275:1 2276:1 
0.3691500041504194 1:1 2:1 3:1 4:1 13:1 14:1 42:1 99:1 474:1 641:1 743:1 2280:1 
1 1:1 2:1 3:1 4:1 13:1 14:1 25:1 72:1 107:1 2281:1 
0.7461904277594471 1:1 2:1 3:1 4:1 8:1 13:1 14:1 34:1 42:1 46:1 61:1 63:1 78:1 92:1 93:1 95:1 147:1 240:1 262:1 315:1 412:1 500:1 600:1 865:1 869:1 944:1 1637:1 2284:1 2285:1 
0.4333552453656231 2:1 4:1 12:1 13:1 14:1 873:1 2294:1 
0.2564574454825406 1:1 2:1 3:1 4:1 12:1 13:1 14:1 19:1 38:1 75:1 101:1 106:1 311:1 320:1 483:1 2299:1 
0.5622106476305824 2:1 4:1 13:1 14:1 50:1 107:1 147:1 329:1 330:1 331:1 865:1 869:1 879:1 1980:1 2301:1 2302:1 
0.1890975754179238 2:1 4:1 13:1 14:1 159:1 826:1 926:1 2305:1 2306:1 2307:1 2308:1 
0.1310911326657068 2:1 4:1 13:1 14:1 34:1 42:1 48:1 141:1 201:1 202:1 205:1 502:1 519:1 622:1 1566:1 2310:1 
0.7565992798955037 2:1 4:1 9:1 13:1 14:1 240:1 2199:1 
0.5364746215739754 1:1 2:1 3:1 4:1 12:1 13:1 14:1 19:1 84:1 312:1 370:1 2312:1 2313:1 
1 2:1 4:1 10:1 13:1 14:1 302:1 2314:1 
1 2:1 4:1 5:1 12:1 13:1 14:1 63:1 92:1 101:1 126:1 135:1 463:1 
1 1:1 2:1 3:1 4:1 5:1 9:1 12:1 13:1 14:1 25:1 56:1 99:1 156:1 196:1 222:1 315:1 318:1 349:1 562:1 892:1 2338:1 
1 1:1 2:1 3:1 4:1 13:1 14:1 19:1 30:1 90:1 215:1 2339:1 
0.0896335003276353 2:1 4:1 8:1 13:1 14:1 42:1 47:1 60:1 72:1 82:1 159:1 462:1 573:1 728:1 744:1 2075:1 2106:1 2279:1 2340:1 
0.1487669383641413 2:1 4:1 12:1 13:1 14:1 34:1 56:1 60:1 63:1 95:1 135:1 150:1 215:1 326:1 409:1 410:1 487:1 2341:1 2342:1 
0.005362561814178661 2:1 4:1 10:1 13:1 14:1 42:1 43:1 46:1 48:1 56:1 60:1 71:1 77:1 78:1 84:1 197:1 240:1 251:1 444:1 590:1 600:1 805:1 865:1 869:1 2349:1 2350:1 2351:1 2352:1 2353:1 2354:1 2355:1 
0.49170650627266 1:1 2:1 3:1 4:1 13:1 14:1 19:1 27:1 42:1 185:1 215:1 329:1 331:1 392:1 865:1 869:1 901:1 1418:1 2365:1 2366:1 
1 1:1 2:1 3:1 4:1 12:1 13:1 14:1 19:1 30:1 90:1 437:1 625:1 2367:1 
0.1346523545361087 2:1 4:1 5:1 13:1 14:1 27:1 33:1 42:1 47:1 57:1 63:1 71:1 82:1 114:1 148:1 163:1 172:1 315:1 641:1 743:1 2192:1 2368:1 
0.3580696558593623 2:1 4:1 5:1 10:1 13:1 14:1 47:1 63:1 75:1 95:1 109:1 216:1 315:1 1690:1 2272:1 2371:1 
0.1081569198525164 2:1 4:1 13:1 14:1 30:1 128:1 2373:1 
1 2:1 4:1 13:1 14:1 30:1 
0.1929379855459523 2:1 4:1 12:1 13:1 14:1 30:1 58:1 72:1 75:1 84:1 251:1 326:1 351:1 759:1 2374:1 2375:1 2376:1 
0.5626083869082341 1:1 2:1 3:1 4:1 10:1 12:1 13:1 14:1 19:1 38:1 84:1 90:1 114:1 160:1 671:1 2130:1 2379:1 2380:1 
0.05843973729858008 1:1 2:1 3:1 4:1 13:1 14:1 34:1 56:1 94:1 106:1 117:1 130:1 240:1 327:1 1773:1 2381:1 2382:1 2383:1 2384:1 
0.10921690383728 1:1 2:1 3:1 4:1 5:1 13:1 14:1 38:1 41:1 71:1 75:1 93:1 109:1 124:1 186:1 214:1 229:1 331:1 498:1 865:1 869:1 1003:1 1109:1 2386:1 
1 2:1 4:1 12:1 13:1 14:1 72:1 74:1 99:1 158:1 240:1 287:1 379:1 715:1 1298:1 2055:1 
0.09842877980398529 1:1 2:1 3:1 4:1 13:1 14:1 19:1 71:1 82:1 92:1 865:1 869:1 1196:1 2397:1 
1 1:1 2:1 3:1 4:1 5:1 13:1 14:1 108:1 109:1 110:1 150:1 240:1 446:1 2398:1 
0.2202287471872025 2:1 4:1 13:1 14:1 41:1 42:1 56:1 71:1 107:1 137:1 239:1 240:1 1031:1 2128:1 
0.1437068260733123 2:1 4:1 9:1 13:1 14:1 27:1 30:1 42:1 71:1 84:1 123:1 212:1 1977:1 2106:1 2393:1 2410:1 
0.5549657117947235 1:1 2:1 3:1 4:1 9:1 13:1 14:1 19:1 27:1 42:1 48:1 66:1 90:1 101:1 123:1 158:1 248:1 379:1 408:1 562:1 1068:1 1194:1 1322:1 1656:1 2411:1 
0.3216827273729828 2:1 4:1 5:1 13:1 14:1 42:1 112:1 140:1 349:1 618:1 926:1 1496:1 1505:1 2412:1 2413:1 2414:1 2415:1 2416:1 2417:1 2418:1 
1 1:1 2:1 3:1 4:1 8:1 13:1 14:1 99:1 112:1 215:1 351:1 
0.08614340101104716 2:1 4:1 9:1 10:1 13:1 14:1 38:1 40:1 46:1 47:1 79:1 159:1 215:1 240:1 379:1 385:1 532:1 561:1 600:1 749:1 818:1 865:1 869:1 1974:1 2419:1 2420:1 2421:1 2422:1 2423:1 2424:1 2425:1 
0.06942954208786721 2:1 4:1 13:1 14:1 32:1 57:1 71:1 158:1 498:1 2426:1 
0.2947954768821443 2:1 4:1 5:1 13:1 14:1 38:1 75:1 106:1 150:1 158:1 159:1 181:1 315:1 360:1 781:1 847:1 1046:1 2427:1 2428:1 2429:1 
0.2214654718309228 2:1 4:1 13:1 14:1 42:1 52:1 63:1 92:1 107:1 137:1 148:1 215:1 217:1 316:1 622:1 879:1 1186:1 1357:1 2432:1 2433:1 
1 2:1 4:1 13:1 14:1 55:1 56:1 84:1 94:1 102:1 107:1 159:1 316:1 944:1 1234:1 1766:1 2434:1 2435:1 
0.3322008008416992 2:1 4:1 13:1 14:1 71:1 141:1 362:1 2448:1 2449:1 
0.399432705276527 1:1 2:1 3:1 4:1 8:1 13:1 14:1 46:1 202:1 232:1 248:1 340:1 865:1 869:1 1003:1 1047:1 2446:1 2454:1 2455:1 
1 1:1 2:1 3:1 4:1 5:1 13:1 14:1 65:1 71:1 72:1 75:1 518:1 877:1 1099:1 
1 2:1 4:1 13:1 14:1 30:1 690:1 
0.1050132797489798 2:1 4:1 13:1 14:1 63:1 75:1 78:1 95:1 344:1 498:1 1383:1 2464:1 2465:1 
0.06039118329696608 2:1 4:1 5:1 10:1 13:1 14:1 92:1 93:1 101:1 182:1 262:1 346:1 624:1 733:1 2467:1 
0.08713349429337817 2:1 4:1 5:1 9:1 10:1 13:1 14:1 40:1 46:1 48:1 50:1 63:1 75:1 84:1 94:1 95:1 99:1 216:1 316:1 823:1 971:1 1061:1 1267:1 1281:1 2469:1 2470:1 
0.09543542074447002 2:1 4:1 13:1 14:1 22:1 68:1 82:1 329:1 330:1 331:1 726:1 2478:1 
0.249164392800797 2:1 4:1 5:1 13:1 14:1 50:1 51:1 63:1 107:1 120:1 139:1 573:1 781:1 823:1 865:1 869:1 2131:1 
0.07161202870195833 2:1 4:1 8:1 13:1 14:1 30:1 38:1 48:1 55:1 72:1 75:1 101:1 215:1 267:1 1003:1 2398:1 2484:1 2485:1 2486:1 2487:1 2488:1 
0.4372420227081018 2:1 4:1 13:1 14:1 31:1 47:1 63:1 239:1 258:1 326:1 376:1 613:1 1018:1 1456:1 
1 1:1 2:1 3:1 4:1 13:1 14:1 19:1 2493:1 
0.2166047584989761 2:1 4:1 12:1 13:1 14:1 30:1 437:1 625:1 2367:1 
1 1:1 2:1 3:1 4:1 10:1 13:1 14:1 19:1 68:1 86:1 90:1 215:1 351:1 729:1 1749:1 2494:1 2495:1 2496:1 2497:1 
0.1914977884843495 1:1 2:1 3:1 4:1 13:1 14:1 66:1 205:1 349:1 444:1 774:1 2499:1 
1 2:1 4:1 12:1 13:1 14:1 84:1 262:1 690:1 759:1 2386:1 
0.2951120301308792 2:1 4:1 13:1 14:1 84:1 2500:1 2501:1 
1 2:1 4:1 5:1 13:1 14:1 78:1 95:1 97:1 109:1 150:1 165:1 805:1 
0.1861685028339795 1:1 2:1 3:1 4:1 12:1 13:1 14:1 38:1 75:1 94:1 347:1 1947:1 2509:1 2510:1 
1 2:1 4:1 5:1 13:1 14:1 68:1 71:1 809:1 1281:1 2120:1 
0.3837708632934038 1:1 2:1 3:1 4:1 5:1 13:1 14:1 119:1 162:1 590:1 600:1 
0.2226894618331328 2:1 4:1 10:1 13:1 14:1 56:1 75:1 573:1 1768:1 2024:1 2221:1 2525:1 2526:1 
0.2830974450509368 2:1 4:1 12:1 13:1 14:1 30:1 47:1 48:1 160:1 262:1 2545:1 2546:1 2547:1 
0.2035270896885698 2:1 4:1 13:1 14:1 48:1 84:1 159:1 176:1 324:1 1878:1 2548:1 
1 2:1 4:1 5:1 6:1 10:1 13:1 14:1 48:1 75:1 78:1 84:1 186:1 227:1 240:1 251:1 385:1 1578:1 
1 1:1 2:1 3:1 4:1 12:1 13:1 14:1 2553:1 
0.4668930410396986 2:1 4:1 12:1 13:1 14:1 32:1 42:1 48:1 119:1 150:1 177:1 282:1 331:1 424:1 1298:1 2554:1 2555:1 2556:1 
1 2:1 4:1 13:1 14:1 42:1 84:1 92:1 122:1 337:1 507:1 778:1 2557:1 2558:1 2559:1 
0.5113359745091681 1:1 2:1 3:1 4:1 13:1 14:1 68:1 92:1 214:1 2375:1 2576:1 
0.04335428596633314 2:1 4:1 13:1 14:1 101:1 119:1 2024:1 2580:1 
0.005713788942129397 2:1 4:1 13:1 14:1 38:1 48:1 73:1 75:1 989:1 2581:1 2582:1 
1 1:1 2:1 3:1 4:1 13:1 14:1 56:1 66:1 148:1 164:1 326:1 663:1 1226:1 1267:1 1297:1 1593:1 2588:1 
1 2:1 4:1 5:1 13:1 14:1 56:1 63:1 71:1 75:1 82:1 84:1 249:1 262:1 293:1 364:1 573:1 647:1 743:1 2597:1 2598:1 2599:1 
1 1:1 2:1 3:1 4:1 13:1 14:1 2603:1 
1 2:1 4:1 10:1 13:1 14:1 42:1 68:1 75:1 78:1 79:1 84:1 107:1 159:1 176:1 192:1 379:1 433:1 521:1 544:1 778:1 805:1 817:1 1333:1 1841:1 2579:1 2604:1 2605:1 2606:1 
0.2282777169042078 1:1 2:1 3:1 4:1 5:1 13:1 14:1 27:1 34:1 48:1 56:1 63:1 75:1 305:1 315:1 507:1 738:1 742:1 865:1 869:1 1245:1 2607:1 2608:1 
0.433834910126059 2:1 4:1 5:1 10:1 13:1 14:1 34:1 56:1 57:1 63:1 66:1 75:1 84:1 150:1 159:1 165:1 192:1 237:1 240:1 248:1 326:1 487:1 740:1 865:1 869:1 1136:1 1154:1 1336:1 1378:1 2610:1 2611:1 2612:1 
0.8779099097842709 1:1 2:1 3:1 4:1 5:1 8:1 13:1 14:1 72:1 78:1 92:1 95:1 109:1 139:1 165:1 507:1 944:1 1962:1 2614:1 
1 1:1 2:1 3:1 4:1 5:1 13:1 14:1 19:1 32:1 52:1 78:1 90:1 107:1 165:1 236:1 240:1 324:1 462:1 809:1 852:1 2616:1 
1 2:1 4:1 5:1 6:1 13:1 14:1 27:1 63:1 111:1 150:1 205:1 326:1 368:1 465:1 512:1 1267:1 1535:1 1959:1 2075:1 2630:1 
0.2736032392290949 2:1 4:1 5:1 13:1 14:1 34:1 75:1 93:1 109:1 130:1 165:1 173:1 215:1 236:1 262:1 300:1 301:1 463:1 479:1 864:1 938:1 2632:1 
0.8522552100013595 1:1 2:1 3:1 4:1 13:1 14:1 63:1 68:1 78:1 92:1 107:1 492:1 604:1 
0.06122541746199743 1:1 2:1 3:1 4:1 8:1 13:1 14:1 55:1 478:1 852:1 2634:1 
0.4750423966177127 2:1 4:1 13:1 14:1 66:1 72:1 84:1 210:1 1592:1 1693:1 
0.02126335189286392 1:1 2:1 3:1 4:1 9:1 12:1 13:1 14:1 19:1 29:1 71:1 90:1 252:1 615:1 616:1 2640:1 
1 1:1 2:1 3:1 4:1 13:1 14:1 19:1 311:1 320:1 
0.1719965304727308 2:1 4:1 13:1 14:1 19:1 57:1 71:1 158:1 194:1 1742:1 1744:1 2657:1 2658:1 
1 1:1 2:1 3:1 4:1 13:1 14:1 42:1 79:1 99:1 109:1 147:1 159:1 446:1 817:1 1068:1 2679:1 2680:1 
0.1779426550405756 1:1 2:1 3:1 4:1 5:1 12:1 13:1 14:1 19:1 30:1 38:1 42:1 47:1 72:1 90:1 101:1 150:1 159:1 1031:1 1339:1 2057:1 2058:1 2059:1 2060:1 
1 1:1 2:1 3:1 4:1 5:1 6:1 10:1 12:1 13:1 14:1 19:1 52:1 55:1 60:1 78:1 92:1 101:1 141:1 150:1 408:1 604:1 1742:1 1744:1 1954:1 2490:1 2695:1 
1 1:1 2:1 3:1 4:1 5:1 6:1 13:1 14:1 48:1 68:1 72:1 200:1 2705:1 
0.003011728447103108 2:1 4:1 13:1 14:1 72:1 82:1 210:1 337:1 522:1 729:1 1812:1 2706:1 
0.0309569718880249 2:1 4:1 8:1 10:1 13:1 14:1 30:1 75:1 84:1 144:1 165:1 199:1 248:1 367:1 368:1 497:1 621:1 733:1 1194:1 1291:1 1641:1 2644:1 
0.2475917256002447 2:1 4:1 13:1 14:1 38:1 46:1 63:1 84:1 102:1 113:1 150:1 158:1 215:1 262:1 360:1 808:1 1549:1 1766:1 2398:1 
1 2:1 4:1 10:1 13:1 14:1 46:1 55:1 63:1 84:1 107:1 207:1 215:1 262:1 318:1 729:1 805:1 2282:1 2596:1 2716:1 2717:1 
0.1158295936890502 2:1 4:1 13:1 14:1 107:1 926:1 2729:1 2730:1 2731:1 2732:1 
1 1:1 2:1 3:1 4:1 13:1 14:1 38:1 48:1 107:1 251:1 446:1 2736:1 2737:1 2738:1 
1 2:1 4:1 13:1 14:1 30:1 
0.069081093656744 2:1 4:1 13:1 14:1 1322:1 
1 2:1 4:1 5:1 13:1 14:1 38:1 47:1 130:1 159:1 171:1 463:1 464:1 561:1 1025:1 2744:1 
0.9450270202810087 1:1 2:1 3:1 4:1 13:1 14:1 46:1 107:1 729:1 858:1 2591:1 
0.23857616060606 2:1 4:1 5:1 13:1 14:1 27:1 99:1 109:1 164:1 185:1 215:1 385:1 561:1 754:1 1032:1 2194:1 2574:1 2737:1 2750:1 
0.1189936482876394 1:1 2:1 3:1 4:1 13:1 14:1 75:1 90:1 107:1 628:1 733:1 865:1 
1 1:1 2:1 3:1 4:1 13:1 14:1 48:1 50:1 107:1 446:1 722:1 2750:1 2766:1 
0.5314473521818113 1:1 2:1 3:1 4:1 12:1 13:1 14:1 1298:1 2773:1 
0.2094676643236966 1:1 2:1 3:1 4:1 5:1 13:1 14:1 15:1 34:1 42:1 50:1 54:1 75:1 99:1 101:1 120:1 130:1 452:1 472:1 486:1 507:1 1124:1 1989:1 2776:1 2777:1 2778:1 2779:1 
1 2:1 4:1 5:1 13:1 14:1 32:1 52:1 78:1 107:1 165:1 236:1 240:1 324:1 462:1 809:1 852:1 2616:1 
0.04019663120999819 1:1 2:1 3:1 4:1 12:1 13:1 14:1 42:1 56:1 72:1 82:1 286:1 1496:1 2799:1 2800:1 2801:1 2802:1 2803:1 2804:1 2805:1 
0.5216566823969534 2:1 4:1 13:1 14:1 690:1 2810:1 
0.530625338670224 2:1 4:1 13:1 14:1 82:1 97:1 101:1 102:1 164:1 1600:1 1670:1 
0.1070523101857553 2:1 4:1 5:1 10:1 13:1 14:1 48:1 50:1 66:1 68:1 233:1 262:1 302:1 371:1 1042:1 1591:1 2821:1 2822:1 
1 1:1 2:1 3:1 4:1 13:1 14:1 50:1 203:1 647:1 
0.4128715860921627 2:1 4:1 8:1 10:1 13:1 14:1 42:1 52:1 68:1 75:1 93:1 109:1 142:1 165:1 232:1 368:1 389:1 462:1 488:1 956:1 981:1 2844:1 2845:1 2846:1 
0.08920531158193185 2:1 4:1 13:1 14:1 30:1 2847:1 2848:1 
0.1857890884323783 1:1 2:1 3:1 4:1 5:1 13:1 14:1 41:1 46:1 63:1 107:1 159:1 199:1 200:1 216:1 251:1 573:1 622:1 1566:1 1693:1 2260:1 2596:1 2854:1 2855:1 
0.02895984774782478 2:1 4:1 13:1 14:1 30:1 63:1 262:1 410:1 429:1 2862:1 2863:1 
0.007929817380040899 2:1 4:1 13:1 14:1 2130:1 2709:1 
0.4739242036974703 2:1 4:1 5:1 6:1 13:1 14:1 201:1 202:1 315:1 318:1 1676:1 
1 1:1 2:1 3:1 4:1 5:1 13:1 14:1 19:1 77:1 90:1 233:1 1509:1 
0.846425342018155 1:1 2:1 3:1 4:1 9:1 12:1 13:1 14:1 39:1 40:1 56:1 71:1 95:1 127:1 215:1 231:1 240:1 292:1 367:1 544:1 864:1 1418:1 1762:1 2090:1 2126:1 
0.3667424375526773 2:1 4:1 5:1 13:1 14:1 82:1 84:1 86:1 111:1 159:1 177:1 295:1 2594:1 2877:1 2889:1 2890:1 
0.02981080378792032 1:1 2:1 3:1 4:1 5:1 13:1 14:1 19:1 27:1 42:1 48:1 135:1 150:1 167:1 181:1 233:1 311:1 315:1 440:1 694:1 1418:1 2896:1 2897:1 2898:1 
0.0541550992542758 2:1 4:1 13:1 14:1 30:1 128:1 2899:1 2900:1 
0.2038388244317934 1:1 2:1 3:1 4:1 5:1 6:1 12:1 13:1 14:1 33:1 63:1 92:1 101:1 135:1 600:1 2378:1 2908:1 2909:1 2910:1 
1 1:1 2:1 3:1 4:1 5:1 12:1 13:1 14:1 215:1 229:1 873:1 1090:1 
0.5573000941658255 2:1 4:1 13:1 14:1 2913:1 
0.1501178150077518 2:1 4:1 8:1 13:1 14:1 43:1 47:1 50:1 63:1 68:1 71:1 72:1 75:1 108:1 109:1 150:1 159:1 267:1 282:1 318:1 344:1 347:1 382:1 412:1 781:1 792:1 805:1 
1 1:1 2:1 3:1 4:1 5:1 6:1 9:1 10:1 12:1 13:1 14:1 27:1 37:1 38:1 47:1 107:1 113:1 159:1 240:1 283:1 325:1 362:1 788:1 2668:1 
0.3992616978681057 2:1 4:1 12:1 13:1 14:1 122:1 1874:1 2272:1 
0.03766885032564821 1:1 2:1 3:1 4:1 13:1 14:1 30:1 38:1 68:1 75:1 181:1 262:1 429:1 988:1 2103:1 2104:1 2105:1 
1 2:1 4:1 5:1 13:1 14:1 95:1 109:1 229:1 239:1 600:1 2917:1 2918:1 
0.3544007518095837 1:1 2:1 3:1 4:1 5:1 9:1 10:1 13:1 14:1 19:1 48:1 50:1 75:1 170:1 196:1 262:1 302:1 315:1 458:1 463:1 505:1 507:1 1866:1 2922:1 2923:1 
0.8339128806864428 1:1 2:1 3:1 4:1 13:1 14:1 51:1 62:1 63:1 93:1 101:1 147:1 262:1 361:1 2723:1 2929:1 2930:1 
0.5923734287899908 2:1 4:1 5:1 13:1 14:1 30:1 75:1 99:1 113:1 130:1 163:1 215:1 337:1 2845:1 2946:1 2947:1 
1 2:1 4:1 13:1 14:1 29:1 68:1 71:1 75:1 490:1 509:1 2309:1 2957:1 2958:1 
0.3096203591048499 2:1 4:1 13:1 14:1 19:1 46:1 50:1 65:1 72:1 75:1 79:1 396:1 886:1 1297:1 1600:1 1891:1 2959:1 2960:1 2961:1 2962:1 2963:1 
0.1270711964010593 1:1 2:1 3:1 4:1 5:1 13:1 14:1 19:1 30:1 71:1 75:1 90:1 126:1 150:1 172:1 204:1 2263:1 
0.09165616152992029 1:1 2:1 3:1 4:1 10:1 13:1 14:1 19:1 63:1 75:1 82:1 84:1 90:1 1357:1 2102:1 
0.3343112591743758 2:1 4:1 5:1 13:1 14:1 77:1 233:1 1509:1 
1 1:1 2:1 3:1 4:1 5:1 13:1 14:1 27:1 52:1 90:1 158:1 248:1 
0.09047445518772264 2:1 4:1 5:1 10:1 13:1 14:1 27:1 63:1 75:1 108:1 109:1 173:1 205:1 368:1 823:1 1046:1 1103:1 1690:1 1918:1 2526:1 3002:1 3003:1 
0.9298060332020964 2:1 4:1 13:1 14:1 31:1 60:1 68:1 72:1 75:1 107:1 108:1 109:1 240:1 251:1 293:1 335:1 421:1 573:1 590:1 1138:1 1154:1 2170:1 3029:1 
1 2:1 4:1 13:1 14:1 72:1 84:1 150:1 364:1 1273:1 2346:1 
0.5169521839871096 1:1 2:1 3:1 4:1 13:1 14:1 30:1 47:1 75:1 107:1 524:1 3036:1 
0.2180433386400437 1:1 2:1 3:1 4:1 9:1 12:1 13:1 14:1 19:1 78:1 90:1 98:1 164:1 232:1 248:1 349:1 2831:1 2832:1 2833:1 2834:1 2835:1 
0.821458078295799 2:1 4:1 13:1 14:1 65:1 84:1 337:1 1233:1 1588:1 3045:1 
0.2477696817081221 1:1 2:1 3:1 4:1 8:1 13:1 14:1 19:1 90:1 94:1 102:1 215:1 282:1 347:1 908:1 1233:1 1298:1 3046:1 3047:1 3048:1 
0.5064097409725535 1:1 2:1 3:1 4:1 10:1 13:1 14:1 29:1 63:1 71:1 75:1 185:1 410:1 422:1 674:1 2044:1 2302:1 3050:1 3051:1 3052:1 
1 1:1 2:1 3:1 4:1 5:1 9:1 13:1 14:1 19:1 27:1 42:1 50:1 78:1 90:1 101:1 315:1 462:1 508:1 602:1 781:1 3053:1 
0.002564494266344142 1:1 2:1 3:1 4:1 5:1 12:1 13:1 14:1 27:1 41:1 239:1 318:1 622:1 1090:1 1935:1 2628:1 2910:1 
0.02432867578914095 2:1 4:1 13:1 14:1 42:1 62:1 71:1 109:1 150:1 160:1 197:1 590:1 817:1 3057:1 3058:1 3059:1 3060:1 
1 2:1 4:1 9:1 12:1 13:1 14:1 30:1 47:1 95:1 128:1 287:1 3061:1 
0.05494937676864493 2:1 4:1 5:1 13:1 14:1 56:1 95:1 101:1 126:1 182:1 272:1 743:1 865:1 869:1 1297:1 1539:1 1566:1 2499:1 2669:1 3063:1 3064:1 3065:1 
0.5344646462580983 1:1 2:1 3:1 4:1 9:1 13:1 14:1 27:1 56:1 75:1 142:1 211:1 379:1 446:1 622:1 3071:1 3072:1 3073:1 
1 2:1 4:1 5:1 13:1 14:1 38:1 63:1 75:1 82:1 95:1 98:1 126:1 156:1 165:1 194:1 282:1 410:1 487:1 492:1 529:1 695:1 889:1 901:1 1028:1 1346:1 1957:1 
0.4603932986648407 2:1 4:1 13:1 14:1 30:1 56:1 63:1 72:1 84:1 127:1 364:1 835:1 3091:1 3092:1 
0.2873453750203355 1:1 2:1 3:1 4:1 12:1 13:1 14:1 107:1 2310:1 
0.04694603121428815 2:1 4:1 8:1 13:1 14:1 27:1 38:1 50:1 56:1 63:1 71:1 119:1 172:1 232:1 412:1 503:1 524:1 701:1 781:1 959:1 1201:1 1316:1 3112:1 
0.1382914312100039 2:1 4:1 10:1 12:1 13:1 14:1 16:1 29:1 42:1 46:1 56:1 64:1 66:1 76:1 79:1 84:1 163:1 306:1 337:1 532:1 601:1 845:1 1078:1 1094:1 1438:1 3113:1 
1 1:1 2:1 3:1 4:1 13:1 14:1 46:1 84:1 287:1 759:1 1185:1 
0.7252830884538142 1:1 2:1 3:1 4:1 12:1 13:1 14:1 240:1 337:1 625:1 817:1 2179:1 
0.05453368135735364 2:1 4:1 10:1 13:1 14:1 63:1 1137:1 1300:1 3124:1 
1 2:1 4:1 5:1 13:1 14:1 108:1 109:1 159:1 306:1 512:1 2130:1 3135:1 
0.2708260212724208 1:1 2:1 3:1 4:1 8:1 13:1 14:1 42:1 46:1 71:1 75:1 99:1 101:1 107:1 109:1 113:1 159:1 366:1 2309:1 2590:1 
1 1:1 2:1 3:1 4:1 5:1 13:1 14:1 40:1 51:1 56:1 111:1 183:1 235:1 251:1 421:1 467:1 503:1 694:1 729:1 743:1 809:1 944:1 1297:1 3138:1 3139:1 
0.2543712439027976 1:1 2:1 3:1 4:1 12:1 13:1 14:1 65:1 71:1 75:1 130:1 150:1 229:1 360:1 437:1 697:1 805:1 848:1 877:1 926:1 1162:1 1549:1 3141:1 
0.1205256130803658 2:1 4:1 5:1 9:1 13:1 14:1 27:1 32:1 84:1 101:1 121:1 122:1 126:1 163:1 164:1 215:1 326:1 3146:1 
0.1080600639847136 1:1 2:1 3:1 4:1 12:1 13:1 14:1 48:1 55:1 3149:1 3150:1 3151:1 3152:1 3153:1 3154:1 3155:1 
0.1527480000174385 2:1 4:1 5:1 8:1 13:1 14:1 30:1 32:1 78:1 237:1 282:1 3164:1 
1 2:1 4:1 13:1 14:1 131:1 150:1 201:1 202:1 251:1 
1 1:1 2:1 3:1 4:1 8:1 13:1 14:1 19:1 48:1 62:1 63:1 93:1 101:1 192:1 311:1 329:1 331:1 392:1 489:1 590:1 733:1 798:1 865:1 1749:1 3178:1 3179:1 
0.02758102616685596 2:1 4:1 8:1 13:1 14:1 91:1 119:1 329:1 330:1 331:1 719:1 3188:1 3189:1 
0.1894871823051983 2:1 4:1 5:1 6:1 13:1 14:1 32:1 52:1 159:1 326:1 823:1 3194:1 3195:1 
0.3461166732570269 1:1 2:1 3:1 4:1 5:1 12:1 13:1 14:1 19:1 41:1 75:1 90:1 150:1 165:1 186:1 315:1 911:1 938:1 
1 1:1 2:1 3:1 4:1 5:1 12:1 13:1 14:1 47:1 51:1 55:1 110:1 216:1 326:1 788:1 
0.6475113412408136 2:1 4:1 13:1 14:1 38:1 42:1 63:1 78:1 124:1 733:1 2336:1 2902:1 3206:1 
0.03131808290808983 1:1 2:1 3:1 4:1 12:1 13:1 14:1 27:1 29:1 46:1 101:1 147:1 159:1 362:1 484:1 2023:1 2221:1 2606:1 3121:1 3207:1 3208:1 3209:1 3210:1 
0.0424986623779996 1:1 2:1 3:1 4:1 12:1 13:1 14:1 46:1 66:1 135:1 159:1 318:1 1632:1 3213:1 3214:1 3215:1 
0.3076311920074042 2:1 4:1 13:1 14:1 48:1 68:1 72:1 75:1 84:1 1129:1 2282:1 3222:1 
0.2647232733169708 2:1 4:1 12:1 13:1 14:1 22:1 63:1 123:1 127:1 
1 1:1 2:1 3:1 4:1 9:1 10:1 12:1 13:1 14:1 42:1 66:1 84:1 140:1 3223:1 3224:1 3225:1 
0.02625744317200046 1:1 2:1 3:1 4:1 13:1 14:1 19:1 72:1 90:1 1144:1 1400:1 3235:1 3236:1 3237:1 
1 2:1 4:1 10:1 13:1 14:1 992:1 3245:1 
0.08305599787956969 1:1 2:1 3:1 4:1 5:1 13:1 14:1 40:1 55:1 63:1 66:1 75:1 92:1 95:1 113:1 126:1 135:1 159:1 163:1 456:1 828:1 3249:1 3250:1 3251:1 
0.4295724448314809 2:1 4:1 5:1 8:1 9:1 12:1 13:1 14:1 27:1 34:1 63:1 71:1 84:1 135:1 159:1 164:1 165:1 172:1 194:1 215:1 240:1 293:1 489:1 522:1 615:1 616:1 1189:1 1981:1 3252:1 
0.2682136573794787 2:1 4:1 9:1 13:1 14:1 34:1 46:1 63:1 71:1 78:1 177:1 181:1 182:1 295:1 370:1 454:1 745:1 1826:1 1918:1 3026:1 3027:1 3254:1 3255:1 3256:1 
0.1025981981953267 2:1 4:1 5:1 10:1 12:1 13:1 14:1 34:1 72:1 75:1 107:1 159:1 185:1 282:1 293:1 375:1 509:1 515:1 684:1 691:1 1516:1 1637:1 2124:1 2125:1 
1 2:1 4:1 5:1 10:1 13:1 14:1 38:1 150:1 216:1 239:1 281:1 337:1 409:1 625:1 2845:1 
1 1:1 2:1 3:1 4:1 13:1 14:1 350:1 
0.02313446122250957 2:1 4:1 10:1 12:1 13:1 14:1 30:1 75:1 79:1 122:1 123:1 547:1 641:1 690:1 1585:1 3282:1 3283:1 
1 2:1 4:1 8:1 13:1 14:1 34:1 240:1 326:1 694:1 3290:1 3291:1 
0.3799330288375855 2:1 4:1 13:1 14:1 30:1 47:1 75:1 107:1 524:1 3301:1 
0.6238718968204738 2:1 4:1 5:1 13:1 14:1 34:1 38:1 42:1 43:1 63:1 66:1 71:1 104:1 107:1 159:1 216:1 227:1 248:1 429:1 448:1 480:1 658:1 781:1 1155:1 1710:1 2590:1 2678:1 3313:1 3314:1 3315:1 3316:1 
0.1302277989272829 1:1 2:1 3:1 4:1 13:1 14:1 19:1 38:1 48:1 84:1 90:1 239:1 3322:1 3323:1 
0.2031778370658461 1:1 2:1 3:1 4:1 5:1 10:1 13:1 14:1 19:1 27:1 31:1 38:1 42:1 46:1 48:1 50:1 56:1 72:1 84:1 90:1 107:1 173:1 236:1 249:1 315:1 817:1 1116:1 1600:1 2346:1 3325:1 3326:1 3327:1 
1 1:1 2:1 3:1 4:1 13:1 14:1 75:1 107:1 186:1 573:1 3332:1 
0.1146694301958503 2:1 4:1 10:1 13:1 14:1 119:1 3120:1 3333:1 3334:1 
0.07416306077146562 13:1 38:1 47:1 351:1 362:1 1069:1 3336:1 3337:1 3338:1 3339:1 3340:1 
0.7356062210768246 2:1 4:1 5:1 13:1 14:1 27:1 46:1 65:1 72:1 93:1 3345:1 
0.5121359609331303 1:1 2:1 3:1 4:1 5:1 13:1 14:1 19:1 23:1 30:1 47:1 63:1 72:1 84:1 95:1 142:1 311:1 320:1 364:1 480:1 1119:1 1232:1 3350:1 3351:1 
1 2:1 4:1 10:1 12:1 13:1 14:1 42:1 47:1 48:1 76:1 78:1 92:1 148:1 173:1 196:1 208:1 215:1 216:1 600:1 748:1 1103:1 1962:1 2346:1 3356:1 3357:1 
1 2:1 4:1 5:1 12:1 13:1 14:1 19:1 63:1 72:1 75:1 211:1 251:1 295:1 312:1 429:1 544:1 2309:1 3358:1 
0.1437319270355936 2:1 4:1 10:1 13:1 14:1 27:1 29:1 56:1 75:1 154:1 156:1 305:1 845:1 1812:1 1833:1 2055:1 
0.3521822138308522 2:1 4:1 5:1 13:1 14:1 38:1 52:1 75:1 84:1 150:1 159:1 312:1 989:1 3366:1 3367:1 
0.2478828423496891 2:1 4:1 5:1 13:1 14:1 63:1 84:1 173:1 312:1 946:1 1637:1 3348:1 3371:1 
1 2:1 4:1 5:1 13:1 14:1 71:1 204:1 222:1 694:1 744:1 1812:1 3372:1 
0.6200491801330583 1:1 2:1 3:1 4:1 12:1 13:1 14:1 19:1 311:1 3376:1 
0.04437684563933422 1:1 2:1 3:1 4:1 12:1 13:1 14:1 19:1 42:1 56:1 311:1 320:1 487:1 1891:1 3380:1 3381:1 3382:1 3383:1 
1 1:1 2:1 3:1 4:1 5:1 12:1 13:1 14:1 41:1 75:1 150:1 165:1 186:1 315:1 911:1 938:1 
0.3130337940766327 1:1 2:1 3:1 4:1 8:1 12:1 13:1 14:1 27:1 31:1 32:1 63:1 92:1 101:1 130:1 248:1 294:1 318:1 408:1 487:1 490:1 793:1 1166:1 1269:1 1678:1 3384:1 
0.4857596293194391 1:1 2:1 3:1 4:1 8:1 10:1 12:1 13:1 14:1 19:1 40:1 55:1 56:1 76:1 84:1 239:1 262:1 267:1 326:1 502:1 580:1 936:1 1003:1 1237:1 1456:1 1972:1 2530:1 3385:1 3386:1 
0.1091927709043834 2:1 4:1 5:1 13:1 14:1 50:1 52:1 62:1 72:1 74:1 84:1 177:1 186:1 216:1 233:1 240:1 295:1 326:1 487:1 894:1 3069:1 3394:1 3395:1 3396:1 3397:1 3398:1 
1 1:1 2:1 3:1 4:1 5:1 12:1 13:1 14:1 63:1 73:1 74:1 147:1 150:1 240:1 347:1 
0.3469538165560428 2:1 4:1 10:1 13:1 14:1 27:1 34:1 63:1 66:1 71:1 72:1 115:1 142:1 368:1 433:1 690:1 1478:1 3400:1 3401:1 3402:1 
1 1:1 2:1 3:1 4:1 13:1 14:1 32:1 51:1 75:1 95:1 109:1 859:1 3403:1 3404:1 
0.1315796057357138 2:1 4:1 12:1 13:1 14:1 25:1 30:1 38:1 72:1 84:1 123:1 337:1 783:1 3406:1 
0.35999194491906 2:1 4:1 5:1 9:1 13:1 14:1 27:1 95:1 158:1 244:1 324:1 334:1 448:1 561:1 3411:1 3412:1 
1 2:1 4:1 12:1 13:1 14:1 47:1 487:1 649:1 1716:1 3414:1 
0.1545736224814671 2:1 4:1 10:1 13:1 14:1 186:1 360:1 1226:1 1762:1 3421:1 
1 1:1 2:1 3:1 4:1 5:1 8:1 12:1 13:1 14:1 31:1 42:1 50:1 93:1 106:1 421:1 497:1 1962:1 3422:1 
0.8428568858480676 2:1 4:1 13:1 14:1 25:1 30:1 47:1 48:1 91:1 2935:1 
0.1673057049144031 2:1 4:1 10:1 13:1 14:1 46:1 48:1 56:1 84:1 186:1 600:1 896:1 1135:1 3428:1 3429:1 
0.1471883002186558 1:1 2:1 3:1 4:1 5:1 13:1 14:1 42:1 63:1 78:1 99:1 886:1 1566:1 2286:1 2346:1 2596:1 3434:1 
0.3289808999515059 2:1 4:1 10:1 13:1 14:1 27:1 41:1 42:1 46:1 79:1 109:1 150:1 282:1 411:1 781:1 1180:1 1302:1 1770:1 3435:1 3436:1 3437:1 3438:1 3439:1 
0.8019710548285914 2:1 4:1 13:1 14:1 75:1 84:1 159:1 329:1 330:1 331:1 808:1 3397:1 
1 2:1 4:1 10:1 12:1 13:1 14:1 46:1 66:1 68:1 73:1 124:1 484:1 1007:1 1608:1 2716:1 3442:1 
0.6418510707268753 2:1 4:1 13:1 14:1 27:1 34:1 56:1 63:1 92:1 109:1 225:1 232:1 347:1 590:1 600:1 2066:1 2346:1 3444:1 3445:1 
1 1:1 2:1 3:1 4:1 13:1 14:1 19:1 42:1 311:1 845:1 2112:1 3442:1 3453:1 
0.05071949761917553 1:1 2:1 3:1 4:1 9:1 13:1 14:1 71:1 150:1 1302:1 1695:1 2509:1 3463:1 3464:1 
1 2:1 4:1 5:1 10:1 12:1 13:1 14:1 56:1 75:1 84:1 86:1 312:1 813:1 939:1 951:1 1516:1 1749:1 2310:1 
1 1:1 2:1 3:1 4:1 5:1 13:1 14:1 93:1 101:1 109:1 240:1 600:1 
0.2202010602032027 2:1 4:1 13:1 14:1 30:1 359:1 2122:1 
1 1:1 2:1 3:1 4:1 13:1 14:1 19:1 32:1 51:1 75:1 90:1 95:1 109:1 859:1 3403:1 3404:1 
0.01686092036252878 2:1 4:1 13:1 14:1 42:1 532:1 1102:1 3472:1 3473:1 3474:1 
0.4211197893549267 2:1 4:1 13:1 14:1 60:1 743:1 754:1 1281:1 
0.5485899538526162 2:1 4:1 5:1 13:1 14:1 22:1 31:1 32:1 42:1 46:1 61:1 101:1 114:1 126:1 181:1 262:1 406:1 474:1 2490:1 3007:1 3475:1 3476:1 3477:1 3478:1 3479:1 3480:1 3481:1 
0.03222929152451107 2:1 4:1 13:1 14:1 101:1 119:1 2556:1 
0.2592547662710746 2:1 4:1 13:1 14:1 42:1 46:1 71:1 73:1 75:1 82:1 107:1 150:1 177:1 295:1 368:1 497:1 532:1 625:1 631:1 805:1 1241:1 1270:1 1957:1 3416:1 3505:1 3506:1 3507:1 3508:1 3509:1 
0.1783697215711905 2:1 4:1 13:1 14:1 30:1 3513:1 
0.1282804843104683 2:1 4:1 12:1 13:1 14:1 222:1 752:1 793:1 1597:1 1962:1 
0.4340112513824921 2:1 4:1 13:1 14:1 30:1 3139:1 3521:1 3522:1 
0.7405664630064773 1:1 2:1 3:1 4:1 9:1 13:1 14:1 84:1 240:1 1378:1 3525:1 
0.02391928137801075 1:1 2:1 3:1 4:1 8:1 12:1 13:1 14:1 19:1 90:1 95:1 141:1 267:1 293:1 311:1 320:1 389:1 569:1 1129:1 2200:1 2201:1 3531:1 
0.1315009917632351 2:1 4:1 9:1 12:1 13:1 14:1 86:1 147:1 159:1 1670:1 1671:1 1958:1 3533:1 3534:1 3535:1 3536:1 
1 2:1 4:1 13:1 14:1 163:1 358:1 3537:1 
0.05106888066445921 1:1 2:1 3:1 4:1 13:1 14:1 215:1 3538:1 3539:1 3540:1 3541:1 3542:1 3543:1 3544:1 3545:1 3546:1 3547:1 3548:1 3549:1 
1 2:1 4:1 13:1 14:1 63:1 84:1 258:1 503:1 690:1 1127:1 1597:1 
0.04704111795121615 2:1 4:1 13:1 14:1 82:1 1746:1 3555:1 3556:1 
1 1:1 2:1 3:1 4:1 13:1 14:1 63:1 107:1 150:1 429:1 573:1 956:1 
0.590815024248455 1:1 2:1 3:1 4:1 13:1 14:1 19:1 63:1 90:1 120:1 474:1 690:1 1470:1 1884:1 3417:1 3581:1 
1 2:1 4:1 13:1 14:1 3583:1 3584:1 
0.8678014900634793 2:1 4:1 13:1 14:1 71:1 950:1 1039:1 3586:1 3587:1 
1 1:1 2:1 3:1 4:1 10:1 13:1 14:1 84:1 99:1 109:1 249:1 344:1 817:1 
0.2717203967807376 1:1 2:1 3:1 4:1 13:1 14:1 19:1 38:1 66:1 84:1 90:1 138:1 159:1 194:1 317:1 349:1 404:1 428:1 962:1 1189:1 2750:1 3602:1 3603:1 
0.5003185859913653 1:1 2:1 4:1 12:1 13:1 14:1 209:1 210:1 1402:1 3607:1 
0.1525102098922868 2:1 4:1 13:1 14:1 316:1 808:1 1849:1 3608:1 
0.1846122318258372 1:1 2:1 3:1 4:1 13:1 14:1 19:1 27:1 42:1 51:1 56:1 78:1 144:1 311:1 315:1 845:1 1015:1 2112:1 2156:1 2512:1 3442:1 3453:1 3612:1 3613:1 
0.07440464205572923 2:1 4:1 9:1 13:1 14:1 46:1 56:1 63:1 66:1 75:1 127:1 173:1 253:1 410:1 444:1 612:1 2434:1 2782:1 2958:1 3623:1 3624:1 
0.2341748895249451 2:1 4:1 13:1 14:1 34:1 42:1 48:1 63:1 78:1 95:1 101:1 107:1 109:1 130:1 183:1 214:1 240:1 262:1 384:1 412:1 476:1 600:1 680:1 865:1 869:1 3414:1 3626:1 
1 1:1 2:1 3:1 4:1 13:1 14:1 42:1 56:1 150:1 177:1 326:1 331:1 424:1 486:1 631:1 2823:1 
0.0100631371118277 2:1 4:1 13:1 14:1 27:1 30:1 34:1 48:1 56:1 63:1 82:1 95:1 109:1 159:1 422:1 560:1 845:1 3634:1 
1 1:1 2:1 3:1 4:1 13:1 14:1 19:1 30:1 48:1 90:1 101:1 205:1 
1 2:1 4:1 5:1 10:1 13:1 14:1 42:1 46:1 56:1 63:1 107:1 120:1 131:1 150:1 205:1 216:1 227:1 239:1 281:1 327:1 582:1 768:1 951:1 997:1 1128:1 3653:1 
0.3657790033390647 2:1 4:1 9:1 13:1 14:1 42:1 56:1 63:1 84:1 196:1 251:1 262:1 368:1 619:1 2967:1 3654:1 3655:1 3656:1 
1 1:1 2:1 3:1 4:1 13:1 14:1 42:1 46:1 124:1 159:1 240:1 318:1 508:1 1884:1 
0.2030756698849322 2:1 4:1 13:1 14:1 30:1 31:1 39:1 63:1 68:1 71:1 75:1 488:1 604:1 1018:1 1043:1 1874:1 3665:1 3666:1 
1 2:1 4:1 13:1 14:1 30:1 84:1 148:1 3668:1 
0.1414672498458214 2:1 4:1 13:1 14:1 51:1 63:1 105:1 120:1 213:1 2124:1 3670:1 
0.2665826381925738 1:1 2:1 3:1 4:1 12:1 13:1 14:1 19:1 48:1 50:1 101:1 141:1 158:1 199:1 267:1 302:1 311:1 569:1 1129:1 2200:1 2201:1 3243:1 
0.3332948945689865 2:1 4:1 13:1 14:1 63:1 68:1 71:1 75:1 84:1 107:1 172:1 212:1 733:1 3675:1 3676:1 3677:1 
0.09318962214551914 1:1 2:1 3:1 4:1 13:1 14:1 19:1 63:1 84:1 311:1 320:1 760:1 1185:1 1208:1 3678:1 3679:1 
0.05102931601558258 2:1 4:1 5:1 13:1 14:1 16:1 46:1 56:1 63:1 68:1 72:1 75:1 79:1 84:1 95:1 111:1 130:1 147:1 163:1 194:1 215:1 262:1 429:1 820:1 887:1 956:1 1478:1 3184:1 3683:1 3684:1 
0.1578114540319592 2:1 4:1 8:1 13:1 14:1 27:1 38:1 48:1 50:1 52:1 75:1 108:1 109:1 150:1 158:1 159:1 165:1 232:1 240:1 282:1 324:1 329:1 330:1 331:1 385:1 808:1 3366:1 3441:1 
1 2:1 4:1 13:1 14:1 142:1 240:1 524:1 837:1 1153:1 3686:1 
1 2:1 4:1 5:1 13:1 14:1 46:1 79:1 84:1 95:1 99:1 109:1 156:1 159:1 788:1 808:1 1643:1 1766:1 2933:1 3693:1 3694:1 
0.01422932310302153 2:1 4:1 5:1 9:1 12:1 13:1 14:1 47:1 60:1 63:1 95:1 109:1 229:1 3118:1 3700:1 
0.0561978458313433 1:1 2:1 3:1 4:1 13:1 14:1 83:1 108:1 109:1 135:1 951:1 2958:1 3701:1 
0.1705050616446755 2:1 4:1 13:1 14:1 32:1 42:1 68:1 84:1 1670:1 3575:1 3703:1 
1 1:1 2:1 3:1 4:1 10:1 12:1 13:1 14:1 68:1 71:1 158:1 240:1 414:1 1538:1 
0.08129899743650318 2:1 4:1 13:1 14:1 38:1 42:1 62:1 63:1 127:1 147:1 159:1 186:1 216:1 464:1 768:1 1154:1 2464:1 2639:1 3706:1 3707:1 
0.1929584694705157 2:1 4:1 13:1 14:1 71:1 334:1 625:1 3708:1 
0.2494537334868409 2:1 4:1 13:1 14:1 30:1 65:1 72:1 107:1 316:1 507:1 1435:1 3711:1 
1 2:1 4:1 13:1 14:1 22:1 84:1 262:1 413:1 646:1 690:1 1156:1 
0.1772661820744615 2:1 4:1 9:1 13:1 14:1 34:1 63:1 141:1 518:1 625:1 1635:1 3715:1 
0.0003636154954204744 1:1 2:1 3:1 4:1 13:1 14:1 19:1 90:1 215:1 883:1 1762:1 3716:1 3717:1 
1 1:1 2:1 3:1 4:1 12:1 13:1 14:1 215:1 3718:1 
1 1:1 2:1 3:1 4:1 8:1 13:1 14:1 19:1 48:1 62:1 63:1 72:1 90:1 93:1 101:1 126:1 192:1 311:1 329:1 489:1 590:1 733:1 798:1 865:1 1749:1 3178:1 
0.3475393371362039 2:1 4:1 5:1 10:1 13:1 14:1 72:1 84:1 106:1 159:1 215:1 239:1 312:1 379:1 561:1 618:1 880:1 1178:1 1841:1 2119:1 2590:1 3425:1 3721:1 3722:1 3723:1 
1 2:1 4:1 5:1 13:1 14:1 73:1 111:1 122:1 123:1 512:1 858:1 
0.8679471313768742 2:1 4:1 13:1 14:1 30:1 71:1 72:1 235:1 3485:1 
0.08016124373317965 2:1 4:1 13:1 14:1 122:1 1874:1 2186:1 
0.3807924011336618 2:1 4:1 5:1 13:1 14:1 42:1 63:1 95:1 150:1 312:1 2346:1 2371:1 3727:1 
0.6441208863653545 2:1 4:1 13:1 14:1 72:1 82:1 186:1 360:1 609:1 701:1 1226:1 1762:1 
1 1:1 2:1 3:1 4:1 13:1 14:1 101:1 197:1 365:1 366:1 729:1 3728:1 
1 1:1 2:1 3:1 4:1 13:1 14:1 48:1 205:1 729:1 781:1 893:1 1566:1 2147:1 2423:1 3298:1 3650:1 
0.8195808210032138 2:1 4:1 13:1 14:1 42:1 72:1 82:1 95:1 109:1 150:1 158:1 230:1 623:1 713:1 761:1 936:1 3729:1 
1 2:1 4:1 5:1 9:1 13:1 14:1 27:1 42:1 50:1 78:1 101:1 315:1 462:1 508:1 602:1 781:1 3053:1 
1 1:1 2:1 3:1 4:1 13:1 14:1 51:1 73:1 130:1 315:1 318:1 
0.02942887404500254 2:1 4:1 5:1 13:1 14:1 84:1 99:1 159:1 306:1 786:1 903:1 974:1 1630:1 
0.1075302841198644 2:1 4:1 5:1 8:1 13:1 14:1 42:1 46:1 50:1 51:1 63:1 68:1 71:1 72:1 73:1 99:1 101:1 107:1 127:1 139:1 158:1 267:1 798:1 841:1 1812:1 2590:1 3747:1 3748:1 3749:1 
0.2640394628382776 1:1 2:1 3:1 4:1 12:1 13:1 14:1 19:1 27:1 63:1 107:1 177:1 178:1 208:1 215:1 216:1 326:1 329:1 330:1 331:1 580:1 581:1 715:1 719:1 951:1 1690:1 2404:1 
0.563321045944682 1:1 2:1 3:1 4:1 5:1 8:1 13:1 14:1 78:1 107:1 156:1 205:1 232:1 240:1 247:1 326:1 459:1 600:1 1535:1 1684:1 3298:1 3705:1 3753:1 
0.436197139002083 1:1 2:1 3:1 4:1 13:1 14:1 63:1 84:1 760:1 1185:1 1208:1 
0.1115474050973757 2:1 4:1 13:1 14:1 71:1 82:1 150:1 950:1 1677:1 1692:1 2448:1 3418:1 3754:1 
0.04768848967620814 2:1 4:1 10:1 13:1 14:1 63:1 66:1 76:1 78:1 84:1 122:1 229:1 507:1 560:1 618:1 1102:1 1346:1 1892:1 3155:1 3619:1 3755:1 3756:1 3757:1 
0.3506713513579054 1:1 2:1 3:1 4:1 13:1 14:1 56:1 71:1 75:1 84:1 108:1 109:1 122:1 138:1 141:1 159:1 163:1 185:1 318:1 410:1 497:1 521:1 951:1 2287:1 3770:1 3771:1 
0.7065729518729732 2:1 4:1 5:1 10:1 13:1 14:1 30:1 72:1 75:1 92:1 95:1 101:1 515:1 2375:1 3778:1 3779:1 3780:1 
0.1090361904796743 2:1 4:1 12:1 13:1 14:1 29:1 68:1 212:1 2027:1 3781:1 
1 2:1 4:1 5:1 6:1 9:1 13:1 14:1 56:1 98:1 106:1 437:1 507:1 529:1 889:1 890:1 1116:1 1194:1 2557:1 3798:1 
0.02740150436724517 2:1 4:1 13:1 14:1 55:1 63:1 75:1 159:1 176:1 262:1 277:1 312:1 326:1 327:1 328:1 687:1 809:1 847:1 3323:1 3799:1 
1 1:1 2:1 3:1 4:1 5:1 13:1 14:1 27:1 40:1 72:1 75:1 163:1 181:1 225:1 262:1 1657:1 1989:1 
0.4393583403627167 1:1 2:1 3:1 4:1 12:1 13:1 14:1 253:1 742:1 3808:1 
0.2171011754118209 1:1 2:1 3:1 4:1 12:1 13:1 14:1 19:1 29:1 71:1 84:1 122:1 311:1 320:1 499:1 622:1 788:1 873:1 2155:1 3631:1 3632:1 
0.1917995181797495 2:1 4:1 13:1 14:1 767:1 3819:1 
0.2380942825209345 2:1 4:1 13:1 14:1 30:1 48:1 101:1 205:1 
0.8972038065192378 2:1 4:1 13:1 14:1 38:1 46:1 50:1 63:1 65:1 94:1 144:1 240:1 282:1 316:1 353:1 550:1 560:1 696:1 722:1 1297:1 1851:1 2006:1 2155:1 2541:1 3824:1 3825:1 
0.2086727094575837 2:1 4:1 5:1 6:1 13:1 14:1 46:1 55:1 239:1 240:1 251:1 376:1 604:1 835:1 1297:1 3032:1 3826:1 3827:1 
0.2119824786674538 1:1 2:1 3:1 4:1 8:1 10:1 13:1 14:1 31:1 71:1 84:1 101:1 147:1 150:1 185:1 307:1 364:1 788:1 805:1 2577:1 2605:1 3828:1 3829:1 3830:1 3831:1 3832:1 
0.1049674311134867 2:1 4:1 10:1 13:1 14:1 63:1 84:1 358:1 759:1 1357:1 3842:1 
0.04627227008686793 2:1 4:1 6:1 13:1 14:1 30:1 3847:1 3848:1 
0.1639656503808329 1:1 2:1 3:1 4:1 5:1 12:1 13:1 14:1 73:1 150:1 347:1 446:1 472:1 560:1 2971:1 3849:1 
0.1264429114599858 2:1 4:1 5:1 13:1 14:1 31:1 32:1 34:1 222:1 293:1 767:1 3857:1 3858:1 
0.004174830999014455 1:1 2:1 3:1 4:1 13:1 14:1 19:1 27:1 40:1 46:1 55:1 97:1 145:1 149:1 337:1 729:1 1812:1 3860:1 
1 2:1 4:1 5:1 6:1 13:1 14:1 19:1 42:1 46:1 66:1 107:1 141:1 148:1 158:1 177:1 178:1 189:1 196:1 244:1 279:1 337:1 625:1 1297:1 1917:1 2723:1 2769:1 3384:1 3861:1 3862:1 
0.8334363863007702 1:1 2:1 3:1 4:1 5:1 13:1 14:1 19:1 34:1 38:1 46:1 72:1 73:1 75:1 90:1 130:1 147:1 283:1 315:1 869:1 1346:1 2309:1 3055:1 3056:1 
0.7284805364322616 2:1 4:1 8:1 12:1 13:1 14:1 42:1 56:1 65:1 71:1 99:1 137:1 248:1 316:1 324:1 944:1 2974:1 3864:1 
0.07014740962013596 1:1 2:1 3:1 4:1 8:1 12:1 13:1 14:1 19:1 27:1 30:1 48:1 60:1 75:1 158:1 229:1 236:1 311:1 320:1 956:1 1860:1 3062:1 3871:1 3872:1 
1 1:1 2:1 3:1 4:1 5:1 12:1 13:1 14:1 46:1 165:1 
0.1601445052332676 2:1 4:1 10:1 13:1 14:1 72:1 84:1 150:1 287:1 307:1 3507:1 
0.7815294467855607 2:1 4:1 5:1 13:1 14:1 41:1 42:1 47:1 109:1 229:1 3878:1 
1 1:1 2:1 3:1 4:1 5:1 8:1 12:1 13:1 14:1 32:1 51:1 63:1 93:1 99:1 109:1 229:1 232:1 239:1 262:1 281:1 282:1 293:1 544:1 
1 2:1 4:1 5:1 6:1 13:1 14:1 56:1 95:1 107:1 109:1 159:1 165:1 182:1 326:1 618:1 733:1 3881:1 3882:1 3883:1 
0.7978259422387689 2:1 4:1 5:1 9:1 10:1 12:1 13:1 14:1 41:1 46:1 63:1 78:1 92:1 107:1 127:1 200:1 214:1 215:1 476:1 561:1 641:1 767:1 835:1 1282:1 1509:1 1758:1 3504:1 3885:1 
0.04043317791820201 2:1 4:1 12:1 13:1 14:1 61:1 62:1 63:1 74:1 172:1 212:1 307:1 1270:1 3886:1 
0.6651956159387441 2:1 4:1 12:1 13:1 14:1 122:1 362:1 507:1 3523:1 3890:1 
1 1:1 2:1 3:1 4:1 5:1 13:1 14:1 165:1 1630:1 2628:1 
1 2:1 4:1 13:1 14:1 232:1 326:1 739:1 2211:1 3904:1 
0.2138347350792145 2:1 4:1 13:1 14:1 194:1 680:1 2004:1 3056:1 3521:1 3905:1 
0.02700550080443958 1:1 2:1 3:1 4:1 13:1 14:1 19:1 48:1 90:1 240:1 247:1 612:1 3906:1 3907:1 
1 2:1 4:1 13:1 14:1 72:1 78:1 337:1 472:1 625:1 1136:1 3901:1 
0.2592336911054258 2:1 4:1 5:1 13:1 14:1 63:1 75:1 99:1 203:1 240:1 409:1 1606:1 2004:1 2027:1 3008:1 3921:1 3922:1 
0.01129798001386673 1:1 2:1 3:1 4:1 12:1 13:1 14:1 27:1 46:1 71:1 159:1 444:1 507:1 729:1 858:1 1764:1 3919:1 3925:1 3926:1 
0.3884834910063793 1:1 2:1 3:1 4:1 8:1 9:1 13:1 14:1 47:1 93:1 127:1 251:1 379:1 434:1 462:1 590:1 701:1 736:1 2513:1 3106:1 
0.07631951851287444 1:1 2:1 3:1 4:1 5:1 6:1 13:1 14:1 19:1 42:1 50:1 58:1 75:1 84:1 90:1 159:1 329:1 330:1 331:1 392:1 754:1 792:1 847:1 1061:1 2004:1 3936:1 
0.8662422301636471 2:1 4:1 13:1 14:1 30:1 34:1 38:1 95:1 109:1 
0.1737428615809106 2:1 4:1 5:1 8:1 13:1 14:1 27:1 42:1 63:1 66:1 92:1 101:1 120:1 164:1 214:1 232:1 480:1 600:1 645:1 865:1 869:1 1003:1 2605:1 2864:1 3942:1 
0.5784576030845382 1:1 2:1 3:1 4:1 5:1 12:1 13:1 14:1 19:1 41:1 42:1 65:1 72:1 75:1 90:1 107:1 131:1 170:1 240:1 267:1 329:1 331:1 392:1 759:1 762:1 817:1 825:1 913:1 1112:1 1129:1 1986:1 2590:1 3471:1 3501:1 3945:1 3946:1 3947:1 
0.4461671608059223 2:1 4:1 13:1 14:1 30:1 34:1 63:1 82:1 326:1 1551:1 3955:1 
1 1:1 2:1 3:1 4:1 5:1 13:1 14:1 19:1 90:1 150:1 165:1 326:1 823:1 
0.08908434502059208 1:1 2:1 3:1 4:1 5:1 10:1 13:1 14:1 38:1 41:1 46:1 66:1 75:1 82:1 176:1 271:1 324:1 863:1 2514:1 2660:1 2854:1 3956:1 3957:1 3958:1 3959:1 
0.1503248649386482 1:1 2:1 3:1 4:1 5:1 12:1 13:1 14:1 30:1 38:1 63:1 92:1 147:1 181:1 215:1 347:1 502:1 604:1 793:1 1040:1 1303:1 3478:1 3960:1 3961:1 
0.415282536351177 2:1 4:1 13:1 14:1 27:1 32:1 38:1 72:1 82:1 84:1 639:1 1329:1 1342:1 1661:1 3962:1 
0.9564057667410581 2:1 4:1 5:1 6:1 12:1 13:1 14:1 27:1 42:1 50:1 55:1 56:1 107:1 148:1 240:1 318:1 500:1 578:1 845:1 2315:1 3963:1 3964:1 
0.3217093973782012 2:1 4:1 5:1 13:1 14:1 38:1 81:1 84:1 99:1 159:1 349:1 642:1 966:1 2786:1 3159:1 
0.817449438520401 2:1 4:1 5:1 8:1 13:1 14:1 92:1 479:1 1436:1 2031:1 3970:1 
0.00600169008349966 1:1 2:1 3:1 4:1 12:1 13:1 14:1 51:1 63:1 99:1 339:1 1549:1 3971:1 
0.1052816252967665 2:1 4:1 12:1 13:1 14:1 46:1 51:1 55:1 56:1 63:1 71:1 135:1 179:1 518:1 2182:1 2393:1 3972:1 3973:1 3974:1 3975:1 
0.4728224382360333 2:1 4:1 5:1 13:1 14:1 38:1 42:1 84:1 99:1 109:1 170:1 225:1 398:1 618:1 701:1 1116:1 1194:1 2083:1 3978:1 3979:1 3980:1 
1 2:1 4:1 13:1 14:1 63:1 72:1 78:1 82:1 84:1 112:1 262:1 2958:1 
0.2234535593707856 2:1 4:1 12:1 13:1 14:1 30:1 121:1 128:1 1505:1 2647:1 3986:1 3987:1 
0.04789153528257191 2:1 4:1 13:1 14:1 56:1 89:1 123:1 159:1 719:1 1765:1 2071:1 3996:1 3997:1 
1 2:1 4:1 9:1 10:1 13:1 14:1 72:1 92:1 135:1 690:1 
0.0003634866387962224 1:1 2:1 3:1 4:1 5:1 8:1 12:1 13:1 14:1 19:1 27:1 31:1 32:1 42:1 63:1 66:1 101:1 107:1 251:1 282:1 302:1 385:1 480:1 515:1 1030:1 1737:1 3998:1 3999:1 4000:1 4001:1 4002:1 4003:1 
1 2:1 4:1 13:1 14:1 41:1 75:1 84:1 159:1 262:1 283:1 618:1 619:1 1329:1 3684:1 
0.06684360603902904 1:1 2:1 3:1 4:1 5:1 6:1 8:1 13:1 14:1 19:1 30:1 42:1 46:1 72:1 82:1 90:1 201:1 202:1 262:1 267:1 958:1 1144:1 1767:1 4004:1 
1 1:1 2:1 3:1 4:1 5:1 13:1 14:1 19:1 46:1 177:1 178:1 216:1 248:1 256:1 277:1 282:1 515:1 544:1 1402:1 4009:1 
0.3682815619523574 2:1 4:1 12:1 13:1 14:1 238:1 433:1 1478:1 4010:1 
0.1893832474242996 2:1 4:1 13:1 14:1 19:1 30:1 177:1 178:1 4011:1 4012:1 
0.9744281018885553 2:1 4:1 13:1 14:1 42:1 48:1 1069:1 3810:1 4016:1 4017:1 
0.09423119601704202 2:1 4:1 9:1 10:1 13:1 14:1 27:1 63:1 71:1 84:1 105:1 173:1 493:1 1154:1 2119:1 2337:1 3801:1 4019:1 4020:1 
0.6925704398048853 2:1 4:1 13:1 14:1 29:1 68:1 71:1 72:1 122:1 123:1 124:1 229:1 413:1 743:1 754:1 4027:1 4028:1 4029:1 
0.03973751904994709 2:1 4:1 13:1 14:1 66:1 71:1 75:1 122:1 158:1 781:1 4033:1 4034:1 
0.3462584933413203 2:1 4:1 13:1 14:1 51:1 60:1 127:1 282:1 318:1 1309:1 1513:1 1606:1 
1 2:1 4:1 8:1 13:1 14:1 56:1 78:1 92:1 101:1 107:1 199:1 240:1 248:1 548:1 600:1 1297:1 4061:1 
0.8060157865091461 1:1 2:1 3:1 4:1 13:1 14:1 197:1 215:1 325:1 379:1 561:1 2088:1 
0.04802964495467966 2:1 4:1 5:1 13:1 14:1 19:1 42:1 47:1 56:1 71:1 75:1 122:1 159:1 177:1 178:1 222:1 479:1 497:1 499:1 622:1 623:1 631:1 1278:1 2970:1 3964:1 4066:1 
1 2:1 4:1 9:1 13:1 14:1 30:1 38:1 99:1 102:1 590:1 2889:1 
0.5913331163949375 2:1 4:1 13:1 14:1 72:1 84:1 159:1 421:1 480:1 590:1 759:1 1061:1 1185:1 3265:1 
0.06768579401930967 2:1 4:1 13:1 14:1 60:1 68:1 84:1 176:1 835:1 4072:1 
0.2060336201470953 2:1 4:1 13:1 14:1 159:1 1761:1 4077:1 4078:1 4079:1 
0.525564586904039 1:1 2:1 3:1 4:1 5:1 10:1 13:1 14:1 42:1 60:1 92:1 135:1 237:1 283:1 312:1 347:1 573:1 687:1 4080:1 
1 1:1 2:1 3:1 4:1 13:1 14:1 51:1 62:1 159:1 240:1 312:1 326:1 507:1 1267:1 1779:1 
1 2:1 4:1 13:1 14:1 25:1 42:1 50:1 63:1 119:1 232:1 329:1 330:1 331:1 524:1 743:1 1585:1 3472:1 3819:1 4092:1 
0.1064044740338589 2:1 4:1 13:1 14:1 793:1 1186:1 1391:1 
0.1643536563124479 2:1 4:1 5:1 13:1 14:1 68:1 84:1 93:1 212:1 315:1 622:1 
1 1:1 2:1 3:1 4:1 13:1 14:1 76:1 389:1 2411:1 
0.06465742373861599 1:1 2:1 3:1 4:1 10:1 13:1 14:1 19:1 42:1 90:1 232:1 515:1 1003:1 1155:1 1600:1 1832:1 4111:1 4112:1 4113:1 
0.3887358234304408 1:1 2:1 3:1 4:1 5:1 13:1 14:1 19:1 75:1 90:1 417:1 1357:1 2464:1 2653:1 
0.1199577244913024 2:1 4:1 12:1 13:1 14:1 30:1 73:1 1485:1 4131:1 4132:1 
0.1074974660591251 1:1 2:1 3:1 4:1 12:1 13:1 14:1 19:1 30:1 63:1 75:1 90:1 127:1 287:1 306:1 389:1 434:1 532:1 805:1 845:1 974:1 1094:1 4133:1 4134:1 4135:1 
1 1:1 2:1 3:1 4:1 5:1 12:1 13:1 14:1 48:1 52:1 99:1 170:1 225:1 231:1 238:1 249:1 456:1 507:1 560:1 564:1 690:1 1151:1 4143:1 
0.2693881398232912 2:1 4:1 13:1 14:1 57:1 158:1 359:1 535:1 
1 2:1 4:1 5:1 13:1 14:1 32:1 47:1 72:1 75:1 93:1 204:1 205:1 229:1 238:1 337:1 351:1 618:1 641:1 845:1 
0.4710692713059323 1:1 2:1 3:1 4:1 13:1 71:1 77:1 159:1 204:1 301:1 1549:1 2541:1 4157:1 4158:1 4159:1 4160:1 
0.1068033459750037 2:1 4:1 5:1 13:1 14:1 84:1 111:1 215:1 351:1 360:1 561:1 701:1 817:1 3790:1 
0.3201297554100555 2:1 4:1 13:1 14:1 41:1 54:1 63:1 73:1 75:1 107:1 240:1 664:1 1357:1 2004:1 2302:1 4161:1 4162:1 
1 2:1 4:1 13:1 14:1 38:1 68:1 84:1 805:1 1402:1 4175:1 4176:1 4177:1 
0.2385015952776243 1:1 2:1 3:1 4:1 13:1 14:1 31:1 63:1 79:1 267:1 398:1 1018:1 4179:1 4180:1 4181:1 
1 2:1 4:1 13:1 14:1 421:1 590:1 1056:1 
0.06472655856800678 1:1 2:1 3:1 4:1 13:1 14:1 1192:1 1298:1 1312:1 1496:1 3283:1 3567:1 4166:1 4167:1 4168:1 4169:1 
0.2670370275386406 2:1 4:1 5:1 13:1 14:1 29:1 68:1 72:1 79:1 99:1 212:1 4183:1 
0.08106088583027912 1:1 2:1 3:1 4:1 5:1 12:1 13:1 14:1 42:1 48:1 99:1 109:1 159:1 163:1 190:1 205:1 248:1 281:1 366:1 408:1 774:1 1194:1 4196:1 
0.06968927118987721 1:1 2:1 3:1 4:1 8:1 10:1 13:1 14:1 31:1 32:1 56:1 63:1 99:1 135:1 248:1 462:1 944:1 4200:1 4201:1 
1 2:1 4:1 13:1 14:1 30:1 128:1 
1 1:1 2:1 3:1 4:1 8:1 13:1 14:1 47:1 68:1 163:1 200:1 203:1 573:1 2260:1 
1 1:1 2:1 3:1 4:1 13:1 14:1 227:1 4045:1 
0.3230610397691972 2:1 4:1 13:1 14:1 38:1 42:1 72:1 324:1 325:1 327:1 847:1 1070:1 4215:1 4216:1 4217:1 4218:1 
0.07750802138625235 2:1 4:1 13:1 14:1 46:1 63:1 68:1 71:1 72:1 75:1 122:1 141:1 159:1 163:1 176:1 227:1 729:1 781:1 1028:1 1116:1 1914:1 4222:1 4223:1 
0.02255106815938262 2:1 4:1 5:1 6:1 13:1 14:1 46:1 73:1 111:1 123:1 326:1 817:1 1267:1 4229:1 4230:1 
0.04113708235427051 2:1 4:1 13:1 14:1 42:1 57:1 63:1 4231:1 4232:1 
1 1:1 2:1 3:1 4:1 13:1 14:1 30:1 
0.2471324761826511 2:1 4:1 8:1 13:1 14:1 27:1 32:1 72:1 111:1 232:1 364:1 367:1 719:1 1162:1 1985:1 3246:1 3618:1 4236:1 4237:1 
0.002551113111306958 1:1 2:1 3:1 4:1 8:1 13:1 14:1 46:1 84:1 101:1 158:1 159:1 216:1 396:1 805:1 1028:1 1435:1 2042:1 2157:1 4238:1 4239:1 4240:1 4241:1 
0.7655789156916513 1:1 2:1 3:1 4:1 8:1 13:1 14:1 93:1 101:1 109:1 1194:1 1545:1 2688:1 
1 2:1 4:1 13:1 14:1 30:1 128:1 
1 2:1 4:1 5:1 12:1 13:1 14:1 41:1 42:1 47:1 63:1 95:1 102:1 111:1 135:1 347:1 497:1 684:1 1116:1 4244:1 
1 2:1 4:1 13:1 14:1 63:1 78:1 84:1 600:1 759:1 767:1 1084:1 1408:1 1653:1 4246:1 
0.2396900574319394 2:1 4:1 13:1 14:1 30:1 31:1 57:1 63:1 84:1 253:1 2782:1 4250:1 
1 1:1 2:1 3:1 4:1 5:1 12:1 13:1 14:1 75:1 93:1 101:1 316:1 358:1 
1 2:1 4:1 13:1 14:1 30:1 
0.2229566441670223 2:1 4:1 5:1 13:1 14:1 42:1 56:1 66:1 68:1 75:1 92:1 95:1 99:1 109:1 165:1 282:1 293:1 312:1 500:1 1103:1 4042:1 4267:1 4268:1 4269:1 
0.9110189580898695 2:1 4:1 13:1 14:1 68:1 75:1 824:1 
0.05701683534472307 1:1 2:1 3:1 4:1 8:1 12:1 13:1 14:1 19:1 55:1 95:1 251:1 293:1 311:1 320:1 385:1 389:1 536:1 873:1 896:1 911:1 3204:1 
1 2:1 4:1 9:1 10:1 12:1 13:1 14:1 60:1 590:1 1357:1 
0.6701571617374114 1:1 2:1 3:1 4:1 8:1 13:1 14:1 31:1 32:1 42:1 147:1 159:1 240:1 279:1 324:1 337:1 1338:1 2935:1 4272:1 
1 1:1 2:1 3:1 4:1 8:1 13:1 14:1 19:1 50:1 54:1 55:1 90:1 95:1 97:1 109:1 165:1 329:1 330:1 331:1 3053:1 
0.2956515445983504 2:1 4:1 5:1 13:1 14:1 46:1 65:1 68:1 71:1 72:1 123:1 150:1 302:1 434:1 597:1 690:1 877:1 2829:1 3443:1 3890:1 4273:1 4274:1 
1 1:1 2:1 3:1 4:1 5:1 13:1 14:1 196:1 266:1 647:1 733:1 
0.104665735065643 2:1 4:1 13:1 14:1 63:1 86:1 99:1 326:1 894:1 1194:1 4286:1 
1 2:1 4:1 13:1 14:1 31:1 32:1 38:1 50:1 94:1 95:1 97:1 101:1 164:1 189:1 240:1 318:1 3478:1 4296:1 
0.06442729268797405 2:1 4:1 5:1 6:1 13:1 14:1 27:1 30:1 51:1 56:1 72:1 112:1 120:1 150:1 429:1 694:1 712:1 728:1 1538:1 2348:1 
0.3952723581098717 2:1 4:1 13:1 14:1 38:1 48:1 63:1 77:1 131:1 291:1 326:1 327:1 328:1 809:1 896:1 
1 1:1 2:1 3:1 4:1 13:1 14:1 19:1 92:1 181:1 240:1 337:1 408:1 446:1 1282:1 1312:1 
0.1783946507486783 2:1 4:1 13:1 14:1 30:1 4303:1 
0.1436117177595066 2:1 4:1 13:1 14:1 122:1 1348:1 1438:1 
1 2:1 4:1 5:1 13:1 14:1 50:1 65:1 159:1 364:1 1016:1 1254:1 
0.4852688512039767 2:1 4:1 10:1 13:1 14:1 68:1 72:1 212:1 339:1 743:1 4311:1 
0.6807600205772313 2:1 4:1 13:1 14:1 1696:1 
1 2:1 4:1 13:1 14:1 23:1 46:1 65:1 83:1 159:1 316:1 759:1 4316:1 
1 1:1 2:1 3:1 4:1 10:1 12:1 13:1 14:1 50:1 86:1 196:1 283:1 507:1 1273:1 1378:1 1908:1 
0.4737545472927399 2:1 4:1 13:1 14:1 42:1 50:1 84:1 107:1 312:1 329:1 330:1 331:1 353:1 412:1 524:1 573:1 3173:1 4330:1 
0.1721521370535424 2:1 4:1 12:1 13:1 14:1 338:1 1129:1 2548:1 
0.5888772188566155 1:1 2:1 3:1 4:1 5:1 8:1 13:1 14:1 19:1 23:1 50:1 56:1 60:1 63:1 99:1 247:1 262:1 293:1 295:1 944:1 1212:1 3755:1 4356:1 4357:1 
0.5316269963770812 1:1 2:1 3:1 4:1 9:1 13:1 14:1 46:1 73:1 107:1 329:1 331:1 726:1 2612:1 4035:1 
1 1:1 2:1 3:1 4:1 8:1 13:1 14:1 19:1 311:1 320:1 421:1 809:1 1436:1 3028:1 
0.3978994437561452 2:1 4:1 5:1 13:1 14:1 31:1 38:1 75:1 95:1 109:1 111:1 197:1 282:1 498:1 507:1 805:1 2106:1 3027:1 4359:1 4360:1 4361:1 
0.3709928758020909 1:1 2:1 3:1 4:1 5:1 13:1 14:1 63:1 84:1 230:1 231:1 1189:1 2097:1 4362:1 
0.1296022388608578 1:1 2:1 3:1 4:1 13:1 14:1 19:1 41:1 42:1 56:1 90:1 240:1 305:1 678:1 1103:1 1297:1 1677:1 1971:1 2662:1 3892:1 
0.8150861917384137 1:1 2:1 3:1 4:1 13:1 14:1 188:1 
0.1013118055229459 1:1 2:1 3:1 4:1 9:1 10:1 13:1 14:1 19:1 30:1 46:1 79:1 92:1 128:1 147:1 159:1 371:1 437:1 618:1 865:1 869:1 1232:1 1592:1 1693:1 3242:1 4365:1 4366:1 
0.2161952593249594 2:1 4:1 10:1 13:1 14:1 41:1 42:1 46:1 73:1 75:1 84:1 147:1 170:1 242:1 382:1 1390:1 1603:1 2277:1 2278:1 3299:1 3608:1 3771:1 4367:1 4368:1 
0.4983822811221887 2:1 4:1 5:1 12:1 13:1 14:1 92:1 215:1 232:1 600:1 1154:1 4372:1 
1 1:1 2:1 3:1 4:1 13:1 14:1 38:1 55:1 74:1 75:1 78:1 101:1 232:1 625:1 805:1 2678:1 2782:1 4373:1 
1 2:1 4:1 13:1 14:1 802:1 
0.2498172107979413 2:1 4:1 5:1 6:1 12:1 13:1 14:1 42:1 46:1 64:1 68:1 75:1 183:1 203:1 751:1 1249:1 2346:1 2447:1 3996:1 4376:1 4377:1 
1 2:1 4:1 5:1 10:1 13:1 14:1 27:1 38:1 62:1 63:1 65:1 75:1 84:1 101:1 107:1 163:1 573:1 694:1 863:1 1194:1 1608:1 4378:1 4379:1 
1 2:1 4:1 9:1 13:1 14:1 27:1 30:1 128:1 214:1 239:1 1630:1 
0.5048900406585174 1:1 2:1 3:1 4:1 13:1 14:1 30:1 50:1 75:1 128:1 174:1 590:1 1339:1 1957:1 4390:1 
0.1647988152547779 1:1 2:1 3:1 4:1 9:1 13:1 14:1 19:1 27:1 42:1 63:1 90:1 153:1 262:1 327:1 622:1 894:1 3314:1 4395:1 4396:1 
0.506853883689406 2:1 4:1 13:1 14:1 30:1 128:1 620:1 
0.1009802615190108 1:1 2:1 3:1 4:1 8:1 9:1 13:1 14:1 27:1 48:1 54:1 56:1 60:1 63:1 101:1 262:1 326:1 329:1 331:1 351:1 392:1 396:1 507:1 865:1 869:1 1430:1 1436:1 1856:1 3401:1 4399:1 4400:1 4401:1 4402:1 
0.8913276334570264 1:1 2:1 3:1 4:1 5:1 13:1 14:1 41:1 46:1 61:1 65:1 66:1 105:1 107:1 232:1 1520:1 2079:1 4407:1 
0.02136814715696355 2:1 4:1 10:1 13:1 14:1 27:1 42:1 63:1 64:1 71:1 72:1 87:1 101:1 107:1 194:1 196:1 197:1 240:1 324:1 410:1 435:1 2570:1 3623:1 4411:1 4412:1 4413:1 4414:1 4415:1 
1 1:1 2:1 3:1 4:1 5:1 13:1 14:1 19:1 90:1 202:1 262:1 340:1 641:1 642:1 4419:1 
1 2:1 4:1 8:1 13:1 14:1 50:1 54:1 55:1 95:1 97:1 109:1 165:1 329:1 330:1 331:1 3053:1 
1 2:1 4:1 5:1 13:1 14:1 150:1 165:1 326:1 823:1 
1 1:1 2:1 3:1 4:1 9:1 13:1 14:1 27:1 42:1 63:1 153:1 262:1 327:1 622:1 894:1 3314:1 4395:1 4396:1 
0.890159468405769 2:1 4:1 5:1 6:1 13:1 14:1 34:1 38:1 50:1 65:1 92:1 201:1 202:1 1918:1 2512:1 4427:1 4428:1 
0.05117680131799082 1:1 2:1 3:1 4:1 13:1 14:1 73:1 107:1 159:1 326:1 671:1 1319:1 1991:1 4429:1 
0.1898248701168158 2:1 4:1 13:1 14:1 150:1 235:1 952:1 4438:1 
0.839451605806942 2:1 4:1 13:1 14:1 135:1 413:1 4246:1 4441:1 
0.2604463656087348 2:1 4:1 13:1 14:1 38:1 48:1 63:1 78:1 84:1 150:1 158:1 1135:1 1446:1 2931:1 4445:1 
0.3512567733725885 1:1 2:1 3:1 4:1 13:1 14:1 57:1 63:1 107:1 197:1 262:1 645:1 3362:1 
0.6392436404982472 2:1 4:1 5:1 13:1 14:1 63:1 120:1 215:1 216:1 222:1 232:1 445:1 952:1 983:1 1119:1 2661:1 4106:1 4449:1 
0.5483561826978682 2:1 4:1 13:1 14:1 42:1 46:1 301:1 312:1 358:1 805:1 962:1 1293:1 4450:1 
0.3770674739823865 1:1 2:1 3:1 4:1 13:1 14:1 19:1 42:1 51:1 63:1 302:1 316:1 318:1 544:1 1063:1 1742:1 1744:1 4454:1 4455:1 4456:1 4457:1 4458:1 
1 1:1 2:1 3:1 4:1 8:1 13:1 14:1 421:1 809:1 1436:1 3028:1 
1 1:1 2:1 3:1 4:1 13:1 14:1 27:1 42:1 48:1 101:1 107:1 240:1 248:1 778:1 1192:1 3984:1 
1 2:1 4:1 13:1 14:1 30:1 128:1 
0.5949742687460948 2:1 4:1 13:1 14:1 73:1 84:1 376:1 429:1 759:1 3630:1 
0.09063630328717528 2:1 4:1 5:1 9:1 13:1 14:1 32:1 38:1 41:1 42:1 52:1 75:1 84:1 107:1 279:1 316:1 429:1 742:1 790:1 1315:1 2583:1 4021:1 4217:1 4467:1 4468:1 
0.103669339358781 1:1 2:1 3:1 4:1 5:1 12:1 13:1 14:1 23:1 63:1 75:1 84:1 95:1 99:1 159:1 232:1 277:1 759:1 1185:1 1189:1 2906:1 4469:1 4470:1 
0.3815928208968626 2:1 4:1 5:1 12:1 13:1 14:1 29:1 34:1 46:1 54:1 55:1 84:1 92:1 130:1 158:1 159:1 199:1 227:1 382:1 2659:1 
1 1:1 2:1 3:1 4:1 13:1 14:1 31:1 32:1 38:1 75:1 232:1 446:1 1920:1 4396:1 
0.3768885617262127 2:1 4:1 5:1 13:1 14:1 202:1 262:1 340:1 641:1 642:1 4419:1 
0.4366310073603148 2:1 4:1 13:1 14:1 38:1 84:1 331:1 823:1 957:1 1025:1 2374:1 2770:1 4476:1 
1 1:1 2:1 3:1 4:1 5:1 12:1 13:1 14:1 46:1 56:1 66:1 72:1 108:1 109:1 172:1 240:1 283:1 337:1 434:1 444:1 684:1 2200:1 
0.1191219882166137 2:1 4:1 13:1 14:1 38:1 42:1 46:1 56:1 63:1 75:1 120:1 150:1 163:1 195:1 502:1 701:1 1067:1 1068:1 1383:1 1972:1 2398:1 3078:1 4316:1 4498:1 4499:1 
0.1399441114036129 2:1 4:1 13:1 14:1 46:1 63:1 75:1 226:1 364:1 429:1 3112:1 3947:1 4501:1 4502:1 4503:1 
0.6129267563623656 1:1 2:1 3:1 4:1 13:1 14:1 66:1 788:1 3725:1 4507:1 
0.6008259790025836 1:1 2:1 3:1 4:1 13:1 14:1 19:1 62:1 63:1 90:1 1553:1 3740:1 
1 1:1 2:1 3:1 4:1 13:1 14:1 19:1 38:1 48:1 63:1 77:1 90:1 131:1 291:1 326:1 327:1 328:1 809:1 896:1 
1 1:1 2:1 3:1 4:1 5:1 13:1 14:1 126:1 318:1 487:1 1947:1 4524:1 
0.1358359138550629 2:1 4:1 5:1 13:1 14:1 60:1 573:1 690:1 694:1 744:1 4525:1 
0.1645222911726823 2:1 4:1 13:1 14:1 766:1 2871:1 4526:1 
0.372034516910671 2:1 4:1 13:1 14:1 19:1 63:1 78:1 84:1 145:1 149:1 262:1 2574:1 4076:1 
0.6454869074945828 1:1 2:1 3:1 4:1 5:1 13:1 14:1 52:1 75:1 115:1 165:1 216:1 544:1 4530:1 
1 2:1 4:1 9:1 12:1 13:1 14:1 30:1 72:1 79:1 249:1 250:1 326:1 739:1 742:1 
0.09541263587125552 2:1 4:1 5:1 13:1 14:1 23:1 38:1 42:1 63:1 75:1 84:1 89:1 99:1 163:1 302:1 957:1 1074:1 1135:1 1563:1 1724:1 1795:1 1918:1 4532:1 4533:1 
0.5821865531352362 1:1 2:1 3:1 4:1 12:1 13:1 14:1 19:1 30:1 311:1 320:1 507:1 1962:1 2238:1 2782:1 3268:1 
0.3158751128233621 2:1 4:1 13:1 14:1 46:1 126:1 148:1 159:1 347:1 632:1 641:1 729:1 865:1 869:1 1678:1 2423:1 2699:1 4536:1 
0.5824144098555427 2:1 4:1 13:1 14:1 25:1 30:1 44:1 56:1 91:1 602:1 2476:1 4538:1 
0.4181491231590668 2:1 4:1 13:1 14:1 27:1 60:1 4542:1 4543:1 
1 1:1 2:1 3:1 4:1 13:1 14:1 19:1 25:1 2493:1 4548:1 
1 2:1 4:1 12:1 13:1 14:1 46:1 56:1 57:1 63:1 84:1 150:1 196:1 215:1 382:1 532:1 754:1 842:1 847:1 865:1 869:1 1046:1 1119:1 1227:1 1957:1 2750:1 4549:1 
0.1922538746864651 1:1 2:1 3:1 4:1 9:1 13:1 14:1 65:1 92:1 101:1 1773:1 4553:1 
0.3915710331506029 2:1 4:1 5:1 10:1 13:1 14:1 17:1 47:1 48:1 63:1 72:1 75:1 84:1 99:1 159:1 215:1 316:1 852:1 1227:1 1516:1 1779:1 
0.02615915314732156 2:1 4:1 9:1 13:1 14:1 51:1 56:1 63:1 66:1 135:1 140:1 177:1 295:1 708:1 735:1 865:1 869:1 944:1 4545:1 4569:1 4570:1 4571:1 
0.09888081788228974 2:1 4:1 13:1 14:1 854:1 1485:1 4572:1 4573:1 4574:1 
1 1:1 2:1 3:1 4:1 13:1 14:1 19:1 27:1 48:1 101:1 344:1 865:1 869:1 1042:1 1517:1 
1 2:1 4:1 13:1 14:1 66:1 75:1 396:1 684:1 1189:1 1891:1 
0.1343162922118197 2:1 4:1 5:1 13:1 14:1 27:1 42:1 46:1 47:1 48:1 72:1 73:1 99:1 101:1 102:1 147:1 283:1 344:1 438:1 1042:1 1346:1 1517:1 1595:1 2286:1 2478:1 4580:1 
0.2547903757506758 2:1 4:1 12:1 13:1 14:1 306:1 431:1 433:1 491:1 620:1 4581:1 
1 2:1 4:1 13:1 14:1 30:1 68:1 1972:1 3220:1 4582:1 
0.05835729657282827 2:1 4:1 5:1 12:1 13:1 14:1 16:1 42:1 46:1 47:1 66:1 75:1 135:1 429:1 438:1 544:1 631:1 2910:1 4583:1 4584:1 4585:1 4586:1 4587:1 4588:1 
0.1028964084193487 2:1 4:1 13:1 14:1 30:1 42:1 101:1 641:1 1029:1 1505:1 3514:1 4589:1 4590:1 4591:1 
0.1496492224712738 2:1 4:1 13:1 14:1 56:1 60:1 72:1 743:1 754:1 1281:1 
0.1493803705378221 2:1 4:1 13:1 14:1 630:1 4595:1 4596:1 4597:1 
0.3296206408228159 1:1 2:1 3:1 4:1 13:1 14:1 25:1 42:1 84:1 91:1 101:1 235:1 326:1 2556:1 4598:1 4599:1 
0.5517888760791431 2:1 4:1 13:1 14:1 41:1 68:1 75:1 1841:1 4602:1 4603:1 4604:1 
0.2888202850020378 1:1 2:1 3:1 4:1 10:1 13:1 14:1 19:1 34:1 56:1 82:1 90:1 326:1 1439:1 4614:1 
1 1:1 2:1 3:1 4:1 10:1 13:1 14:1 19:1 55:1 72:1 75:1 82:1 84:1 140:1 215:1 658:1 865:1 869:1 1357:1 4310:1 
0.04606347373511639 2:1 4:1 13:1 14:1 30:1 46:1 75:1 240:1 3638:1 4615:1 4616:1 
0.1822180533829733 1:1 2:1 3:1 4:1 10:1 12:1 13:1 14:1 38:1 163:1 170:1 277:1 456:1 508:1 750:1 1136:1 2046:1 3112:1 3579:1 4617:1 4618:1 4619:1 
1 2:1 4:1 13:1 14:1 19:1 47:1 56:1 62:1 173:1 189:1 287:1 410:1 487:1 754:1 1693:1 1742:1 1744:1 
0.4818657584754193 1:1 2:1 3:1 4:1 8:1 13:1 14:1 47:1 72:1 78:1 82:1 165:1 233:1 351:1 364:1 817:1 1216:1 4625:1 4626:1 4627:1 
0.1121806528891904 1:1 2:1 3:1 4:1 5:1 13:1 14:1 19:1 54:1 63:1 90:1 130:1 135:1 376:1 408:1 413:1 690:1 3273:1 4632:1 
0.3569542249276551 2:1 4:1 5:1 6:1 13:1 14:1 30:1 159:1 215:1 4639:1 
1 1:1 2:1 3:1 4:1 9:1 13:1 14:1 71:1 119:1 135:1 139:1 205:1 251:1 368:1 590:1 852:1 2346:1 2422:1 2716:1 3812:1 
0.5532390262905437 1:1 2:1 3:1 4:1 13:1 14:1 51:1 63:1 73:1 135:1 276:1 743:1 838:1 944:1 4643:1 
0.1161753361962555 2:1 4:1 13:1 14:1 19:1 46:1 52:1 62:1 63:1 78:1 84:1 145:1 149:1 326:1 454:1 463:1 1267:1 1302:1 1611:1 4644:1 4645:1 4646:1 
1 2:1 4:1 5:1 13:1 14:1 25:1 72:1 91:1 92:1 99:1 112:1 318:1 
1 1:1 2:1 3:1 4:1 5:1 13:1 14:1 19:1 63:1 66:1 84:1 90:1 108:1 109:1 172:1 177:1 178:1 236:1 2027:1 2591:1 
0.3203899948153281 2:1 4:1 5:1 8:1 10:1 13:1 14:1 38:1 42:1 48:1 56:1 74:1 84:1 92:1 123:1 147:1 150:1 159:1 216:1 294:1 315:1 316:1 503:1 798:1 4653:1 4654:1 
1 1:1 2:1 3:1 4:1 5:1 9:1 13:1 14:1 27:1 34:1 37:1 38:1 63:1 68:1 114:1 130:1 166:1 204:1 240:1 315:1 761:1 4667:1 
0.6562802909174896 2:1 4:1 13:1 14:1 66:1 620:1 1315:1 1316:1 3489:1 
1 2:1 4:1 13:1 14:1 177:1 331:1 424:1 438:1 622:1 
0.09495201995974979 2:1 4:1 5:1 12:1 13:1 14:1 75:1 99:1 150:1 366:1 507:1 1190:1 1339:1 1516:1 2014:1 2287:1 3771:1 
0.5139493679442431 1:1 2:1 3:1 4:1 8:1 13:1 14:1 47:1 50:1 64:1 84:1 86:1 99:1 107:1 366:1 446:1 694:1 4694:1 4695:1 
1 2:1 4:1 5:1 10:1 13:1 14:1 42:1 66:1 73:1 75:1 278:1 768:1 809:1 817:1 913:1 1189:1 2457:1 
0.1141288641057949 2:1 4:1 12:1 13:1 14:1 87:1 1397:1 1399:1 1505:1 1912:1 3002:1 3023:1 4697:1 4698:1 4699:1 4700:1 4701:1 4702:1 4703:1 4704:1 
0.3208714897423224 1:1 2:1 3:1 4:1 8:1 12:1 13:1 14:1 55:1 73:1 101:1 109:1 123:1 147:1 200:1 208:1 267:1 277:1 283:1 335:1 410:1 529:1 889:1 1028:1 1603:1 4705:1 
0.5817048734458951 1:1 2:1 3:1 4:1 13:1 14:1 19:1 56:1 84:1 90:1 615:1 1386:1 2516:1 
1 2:1 4:1 5:1 10:1 12:1 13:1 14:1 38:1 75:1 98:1 99:1 101:1 111:1 150:1 164:1 186:1 240:1 283:1 366:1 507:1 529:1 793:1 889:1 989:1 1028:1 4711:1 
1 2:1 4:1 13:1 14:1 107:1 316:1 1357:1 
0.2753912852996996 2:1 4:1 10:1 13:1 14:1 47:1 84:1 2509:1 2854:1 3417:1 4729:1 
1 2:1 4:1 10:1 13:1 14:1 55:1 72:1 75:1 82:1 84:1 140:1 215:1 658:1 1357:1 
0.02511971448528015 2:1 4:1 13:1 14:1 82:1 4736:1 4737:1 4738:1 4739:1 4740:1 
0.004908425986625946 2:1 4:1 5:1 9:1 13:1 14:1 27:1 48:1 84:1 101:1 107:1 109:1 154:1 158:1 195:1 225:1 240:1 282:1 327:1 823:1 841:1 1232:1 4741:1 
0.7639494051318335 1:1 2:1 3:1 4:1 5:1 6:1 9:1 13:1 14:1 19:1 62:1 75:1 90:1 97:1 159:1 190:1 408:1 879:1 1762:1 4746:1 4747:1 
0.8785700709004099 1:1 2:1 3:1 4:1 5:1 10:1 13:1 14:1 42:1 50:1 127:1 202:1 248:1 329:1 331:1 340:1 392:1 726:1 733:1 1765:1 2346:1 4103:1 4749:1 
1 2:1 4:1 13:1 14:1 68:1 72:1 82:1 150:1 158:1 159:1 410:1 719:1 749:1 2464:1 2585:1 2958:1 2960:1 4163:1 
0.1604709015635286 1:1 2:1 3:1 4:1 13:1 14:1 646:1 
1 2:1 4:1 13:1 14:1 72:1 75:1 84:1 159:1 186:1 240:1 503:1 1100:1 1891:1 
1 1:1 2:1 3:1 4:1 13:1 14:1 46:1 55:1 63:1 72:1 75:1 82:1 84:1 107:1 159:1 382:1 436:1 690:1 712:1 1418:1 1523:1 2770:1 4434:1 4762:1 
1 1:1 2:1 3:1 4:1 13:1 14:1 19:1 27:1 48:1 90:1 101:1 344:1 865:1 869:1 1042:1 1517:1 
0.2201249245905276 2:1 4:1 13:1 14:1 56:1 72:1 78:1 182:1 476:1 1183:1 1605:1 1851:1 4766:1 
0.8617054450717814 2:1 4:1 5:1 13:1 14:1 41:1 112:1 479:1 729:1 2119:1 2337:1 
0.01015525140509462 1:1 2:1 3:1 4:1 8:1 13:1 14:1 32:1 54:1 95:1 97:1 232:1 239:1 262:1 713:1 778:1 1430:1 1809:1 4666:1 
0.3274532868517113 2:1 4:1 13:1 14:1 30:1 42:1 251:1 1122:1 4782:1 
0.07742496463084338 2:1 4:1 13:1 14:1 160:1 204:1 329:1 330:1 331:1 392:1 2265:1 4786:1 4787:1 4788:1 4789:1 
0.1779275979380032 2:1 4:1 13:1 14:1 30:1 213:1 4793:1 
1 2:1 4:1 10:1 13:1 14:1 30:1 38:1 46:1 82:1 92:1 127:1 128:1 327:1 864:1 
0.2223852750599991 1:1 2:1 3:1 4:1 12:1 13:1 14:1 21:1 48:1 72:1 75:1 92:1 95:1 101:1 130:1 207:1 232:1 248:1 267:1 326:1 845:1 974:1 992:1 1094:1 1164:1 1194:1 1300:1 2211:1 3290:1 
0.9105293725650697 1:1 2:1 3:1 4:1 12:1 13:1 14:1 135:1 262:1 1046:1 4797:1 4798:1 
0.1667609869320648 2:1 4:1 5:1 6:1 8:1 13:1 14:1 38:1 42:1 48:1 95:1 107:1 109:1 150:1 289:1 476:1 944:1 1103:1 1194:1 1267:1 1575:1 1653:1 4802:1 4803:1 4804:1 4805:1 
0.07730514391024756 2:1 4:1 5:1 9:1 13:1 14:1 29:1 31:1 42:1 48:1 63:1 68:1 79:1 84:1 99:1 167:1 208:1 302:1 555:1 628:1 1573:1 4806:1 4807:1 
0.6384342935417655 1:1 2:1 3:1 4:1 12:1 13:1 14:1 19:1 90:1 262:1 806:1 
0.07177047115214231 2:1 4:1 13:1 14:1 84:1 808:1 1585:1 4808:1 
0.5243272475395142 2:1 4:1 5:1 13:1 14:1 27:1 38:1 42:1 44:1 46:1 65:1 66:1 68:1 75:1 92:1 130:1 136:1 189:1 208:1 248:1 282:1 446:1 865:1 869:1 1312:1 1344:1 2541:1 4809:1 4810:1 4811:1 
0.5431894936654974 1:1 2:1 3:1 4:1 5:1 13:1 14:1 30:1 41:1 47:1 48:1 62:1 75:1 78:1 92:1 101:1 139:1 173:1 390:1 845:1 1094:1 4812:1 4813:1 
0.005351676633146531 2:1 4:1 5:1 6:1 13:1 14:1 63:1 127:1 135:1 315:1 554:1 1575:1 4818:1 
0.4496701529593139 1:1 2:1 3:1 4:1 5:1 6:1 13:1 14:1 71:1 158:1 181:1 233:1 603:1 3552:1 
0.2504174567037377 2:1 4:1 5:1 12:1 13:1 14:1 16:1 27:1 42:1 46:1 84:1 95:1 109:1 131:1 165:1 200:1 251:1 515:1 612:1 823:1 1032:1 1190:1 1339:1 1957:1 2523:1 4821:1 4822:1 4823:1 
0.5232011250122505 2:1 4:1 13:1 14:1 34:1 47:1 56:1 91:1 95:1 109:1 131:1 233:1 287:1 367:1 509:1 625:1 2248:1 2281:1 4825:1 
0.003132324406029532 2:1 4:1 13:1 14:1 42:1 63:1 139:1 147:1 954:1 2004:1 4826:1 4827:1 
1 2:1 4:1 13:1 14:1 48:1 60:1 66:1 75:1 107:1 131:1 147:1 148:1 159:1 1189:1 1190:1 1191:1 1895:1 4828:1 
1 2:1 4:1 8:1 13:1 14:1 41:1 46:1 50:1 56:1 66:1 75:1 140:1 159:1 197:1 200:1 232:1 234:1 240:1 353:1 507:1 508:1 560:1 817:1 944:1 1128:1 1436:1 1957:1 3618:1 4829:1 
0.01379090822070507 2:1 4:1 12:1 13:1 14:1 3857:1 4830:1 4831:1 4832:1 
0.4556842134471106 2:1 4:1 13:1 14:1 65:1 73:1 107:1 817:1 4840:1 4841:1 
1 2:1 4:1 10:1 13:1 14:1 19:1 38:1 47:1 48:1 75:1 93:1 101:1 150:1 196:1 239:1 362:1 384:1 600:1 685:1 1664:1 2151:1 4842:1 
0.1752492077776441 1:1 2:1 3:1 4:1 5:1 13:1 14:1 19:1 57:1 99:1 107:1 150:1 158:1 160:1 165:1 202:1 204:1 240:1 316:1 340:1 436:1 535:1 865:1 869:1 1994:1 
1 1:1 2:1 3:1 4:1 5:1 8:1 13:1 14:1 19:1 31:1 32:1 46:1 56:1 95:1 101:1 109:1 148:1 164:1 190:1 240:1 270:1 311:1 320:1 507:1 701:1 865:1 869:1 2346:1 4865:1 4866:1 
1 2:1 4:1 13:1 14:1 34:1 47:1 359:1 694:1 828:1 
0.1059169814460243 1:1 2:1 3:1 4:1 8:1 10:1 13:1 14:1 19:1 42:1 75:1 84:1 101:1 233:1 312:1 315:1 351:1 483:1 609:1 865:1 869:1 1357:1 3390:1 4623:1 
0.5977131933983311 1:1 2:1 3:1 4:1 13:1 14:1 56:1 72:1 107:1 150:1 222:1 743:1 2302:1 
0.6301316920770382 2:1 4:1 5:1 12:1 13:1 14:1 31:1 32:1 42:1 66:1 68:1 75:1 84:1 148:1 159:1 215:1 318:1 421:1 560:1 759:1 774:1 1273:1 2004:1 2541:1 4881:1 
0.1037499959642367 2:1 4:1 13:1 14:1 66:1 84:1 1406:1 1812:1 4888:1 4889:1 
0.3663307254287033 2:1 4:1 5:1 10:1 13:1 14:1 23:1 27:1 34:1 42:1 63:1 65:1 75:1 93:1 95:1 99:1 159:1 170:1 282:1 471:1 553:1 956:1 1334:1 
0.5722832532836397 1:1 2:1 3:1 4:1 5:1 13:1 14:1 318:1 3846:1 4891:1 
0.5338257192560246 2:1 4:1 5:1 13:1 14:1 41:1 56:1 107:1 197:1 497:1 507:1 1116:1 2464:1 4892:1 
1 1:1 2:1 3:1 4:1 5:1 10:1 12:1 13:1 14:1 27:1 42:1 56:1 63:1 66:1 73:1 99:1 107:1 120:1 139:1 150:1 239:1 247:1 262:1 282:1 318:1 512:1 531:1 805:1 813:1 1913:1 
1 2:1 4:1 5:1 9:1 13:1 14:1 32:1 52:1 493:1 729:1 976:1 1587:1 
1 2:1 4:1 10:1 13:1 14:1 84:1 137:1 312:1 324:1 372:1 4544:1 
0.2473461118764707 2:1 4:1 13:1 14:1 71:1 72:1 75:1 122:1 150:1 163:1 896:1 1116:1 3980:1 4600:1 
0.03179548494332576 2:1 4:1 12:1 13:1 14:1 63:1 66:1 68:1 75:1 99:1 123:1 124:1 170:1 204:1 210:1 318:1 1068:1 2864:1 4045:1 4902:1 
1 1:1 2:1 3:1 4:1 13:1 14:1 56:1 107:1 233:1 266:1 1061:1 
0.0386463711225852 2:1 4:1 9:1 13:1 14:1 19:1 34:1 46:1 66:1 75:1 196:1 201:1 202:1 368:1 376:1 580:1 843:1 911:1 1337:1 1436:1 1812:1 3056:1 4428:1 4908:1 4909:1 
1 2:1 4:1 9:1 13:1 14:1 27:1 48:1 54:1 63:1 75:1 84:1 127:1 147:1 207:1 240:1 315:1 355:1 413:1 1566:1 2501:1 4913:1 4914:1 4915:1 
0.9064408797299746 2:1 4:1 13:1 14:1 30:1 63:1 84:1 101:1 1589:1 3837:1 4919:1 4920:1 4921:1 
0.3491410680724037 2:1 4:1 5:1 10:1 12:1 13:1 14:1 42:1 48:1 60:1 63:1 65:1 72:1 75:1 84:1 93:1 101:1 138:1 163:1 194:1 312:1 590:1 692:1 696:1 1171:1 2101:1 2269:1 2889:1 3862:1 4925:1 
0.02781644595207415 1:1 2:1 3:1 4:1 5:1 13:1 14:1 47:1 159:1 230:1 247:1 267:1 327:1 573:1 1136:1 1251:1 1357:1 1600:1 4531:1 4932:1 
0.08304568207759676 1:1 2:1 3:1 4:1 13:1 14:1 19:1 56:1 90:1 306:1 719:1 901:1 4893:1 4894:1 4895:1 
0.3254415072747988 2:1 4:1 5:1 13:1 14:1 34:1 63:1 131:1 141:1 293:1 328:1 4936:1 
1 2:1 4:1 13:1 14:1 30:1 34:1 38:1 72:1 
1 2:1 4:1 12:1 13:1 14:1 30:1 38:1 124:1 1151:1 
0.4909211430612896 2:1 4:1 12:1 13:1 14:1 29:1 68:1 75:1 429:1 733:1 791:1 4939:1 4940:1 
0.4441723103557074 2:1 4:1 13:1 14:1 42:1 48:1 64:1 278:1 353:1 1129:1 
0.5141385422149962 2:1 4:1 5:1 13:1 14:1 32:1 42:1 52:1 63:1 72:1 84:1 139:1 678:1 1826:1 
0.1654271157880679 2:1 4:1 5:1 13:1 14:1 68:1 84:1 92:1 214:1 349:1 350:1 820:1 1914:1 4964:1 
0.7368491310497649 2:1 4:1 13:1 14:1 84:1 147:1 225:1 329:1 331:1 337:1 392:1 487:1 625:1 690:1 913:1 2015:1 
0.21342230034922 1:1 2:1 3:1 4:1 13:1 14:1 19:1 32:1 42:1 52:1 90:1 199:1 253:1 382:1 3417:1 3931:1 
1 1:1 2:1 3:1 4:1 5:1 6:1 13:1 14:1 42:1 65:1 66:1 84:1 159:1 170:1 503:1 1606:1 3081:1 4966:1 
0.4842212765055919 2:1 4:1 5:1 8:1 13:1 14:1 71:1 75:1 78:1 126:1 159:1 433:1 2992:1 4967:1 
1 1:1 2:1 3:1 4:1 5:1 10:1 13:1 14:1 41:1 42:1 71:1 82:1 240:1 565:1 817:1 2639:1 2925:1 
0.05182174898350099 1:1 2:1 3:1 4:1 5:1 8:1 10:1 12:1 13:1 14:1 19:1 42:1 46:1 68:1 71:1 177:1 178:1 565:1 641:1 863:1 1436:1 1965:1 2539:1 2720:1 4972:1 4973:1 4974:1 4975:1 
0.01635092959819684 1:1 2:1 3:1 4:1 13:1 14:1 56:1 72:1 94:1 246:1 282:1 743:1 944:1 4983:1 
0.08695437698403002 2:1 4:1 10:1 13:1 14:1 159:1 518:1 1864:1 3441:1 4106:1 4984:1 
1 1:1 2:1 3:1 4:1 5:1 13:1 14:1 34:1 41:1 248:1 480:1 1046:1 
0.8273270225681765 2:1 4:1 8:1 9:1 13:1 14:1 27:1 72:1 84:1 159:1 421:1 793:1 865:1 869:1 1135:1 1870:1 
1 1:1 2:1 3:1 4:1 13:1 14:1 19:1 30:1 90:1 
0.236504987718274 2:1 4:1 13:1 14:1 194:1 2926:1 4992:1 
0.4922799431962092 2:1 4:1 9:1 12:1 13:1 14:1 60:1 63:1 71:1 215:1 262:1 505:1 3173:1 4993:1 
1 2:1 4:1 8:1 13:1 14:1 32:1 42:1 63:1 158:1 841:1 1281:1 1825:1 2179:1 2662:1 
0.07070324980529734 2:1 4:1 13:1 14:1 19:1 30:1 48:1 91:1 177:1 178:1 364:1 622:1 865:1 869:1 5012:1 5013:1 
0.04222630165877225 2:1 4:1 5:1 6:1 13:1 14:1 50:1 65:1 75:1 127:1 130:1 181:1 225:1 408:1 618:1 992:1 1153:1 2119:1 3901:1 3980:1 5014:1 
0.4049803504038634 2:1 4:1 13:1 14:1 30:1 63:1 78:1 84:1 122:1 318:1 358:1 1088:1 5018:1 
0.1851766103664003 1:1 2:1 3:1 4:1 13:1 14:1 19:1 56:1 90:1 91:1 3857:1 4460:1 4461:1 4462:1 4463:1 4464:1 
0.1138885884722566 1:1 2:1 3:1 4:1 12:1 13:1 14:1 107:1 326:1 658:1 5020:1 5021:1 
1 1:1 2:1 3:1 4:1 13:1 14:1 544:1 
0.3046980533548577 1:1 2:1 3:1 4:1 12:1 13:1 14:1 19:1 30:1 448:1 869:1 1578:1 4768:1 4769:1 4770:1 
0.1257732693981907 2:1 4:1 5:1 13:1 14:1 30:1 63:1 84:1 132:1 867:1 1119:1 3984:1 5027:1 
0.03590509995782327 1:1 2:1 3:1 4:1 5:1 6:1 13:1 14:1 34:1 41:1 46:1 57:1 63:1 72:1 99:1 150:1 251:1 3499:1 5035:1 5036:1 
1 2:1 4:1 8:1 13:1 14:1 30:1 216:1 600:1 
0.07971547622433965 2:1 4:1 5:1 13:1 14:1 30:1 34:1 47:1 61:1 62:1 63:1 72:1 101:1 150:1 216:1 251:1 315:1 368:1 512:1 641:1 1233:1 1278:1 1430:1 3478:1 5037:1 5038:1 
0.3427894764020595 2:1 4:1 13:1 14:1 68:1 72:1 258:1 690:1 5042:1 
0.02868227642585106 1:1 2:1 3:1 4:1 13:1 14:1 19:1 160:1 204:1 311:1 329:1 330:1 331:1 392:1 2265:1 4786:1 4787:1 4788:1 5047:1 
1 1:1 2:1 3:1 4:1 13:1 14:1 25:1 649:1 
0.1209329422036108 2:1 4:1 12:1 13:1 14:1 29:1 38:1 48:1 63:1 68:1 84:1 108:1 109:1 122:1 123:1 172:1 463:1 509:1 5051:1 5052:1 
0.06639346370914301 2:1 4:1 13:1 14:1 56:1 177:1 295:1 938:1 3941:1 5054:1 5055:1 5056:1 5057:1 5058:1 
0.4102262083471205 2:1 4:1 5:1 6:1 10:1 12:1 13:1 14:1 29:1 42:1 66:1 84:1 108:1 109:1 111:1 131:1 150:1 262:1 409:1 641:1 831:1 1067:1 1175:1 2109:1 2448:1 4914:1 
1 1:1 2:1 3:1 4:1 13:1 14:1 101:1 164:1 1962:1 
0.1005809200546309 2:1 4:1 12:1 13:1 14:1 72:1 127:1 262:1 287:1 5071:1 5072:1 
0.03294610521031735 2:1 4:1 12:1 13:1 14:1 56:1 101:1 202:1 243:1 613:1 983:1 2394:1 3567:1 4755:1 4831:1 5076:1 5077:1 5078:1 5079:1 5080:1 5081:1 5082:1 5083:1 5084:1 5085:1 5086:1 5087:1 
0.06837785597878947 1:1 2:1 3:1 4:1 5:1 13:1 14:1 56:1 63:1 66:1 124:1 215:1 216:1 370:1 476:1 497:1 788:1 861:1 1693:1 2281:1 4520:1 5088:1 
1 1:1 2:1 3:1 4:1 5:1 11:1 13:1 14:1 41:1 46:1 84:1 170:1 538:1 793:1 2279:1 5089:1 5090:1 
1 2:1 4:1 8:1 10:1 11:1 13:1 14:1 50:1 68:1 72:1 82:1 159:1 239:1 632:1 690:1 1297:1 1545:1 1670:1 3618:1 5094:1 
0.9126382186573435 2:1 4:1 5:1 8:1 13:1 14:1 34:1 63:1 150:1 347:1 944:1 1267:1 5096:1 
1 2:1 4:1 13:1 14:1 20:1 34:1 41:1 46:1 63:1 68:1 71:1 74:1 84:1 124:1 142:1 147:1 176:1 196:1 306:1 326:1 329:1 330:1 331:1 429:1 894:1 3296:1 5104:1 
0.2240547985200536 1:1 2:1 3:1 4:1 8:1 10:1 13:1 14:1 19:1 47:1 48:1 50:1 51:1 73:1 177:1 295:1 318:1 331:1 458:1 694:1 696:1 1154:1 3705:1 5105:1 5106:1 5107:1 
0.1033952636404157 2:1 4:1 13:1 14:1 41:1 66:1 84:1 122:1 132:1 159:1 306:1 396:1 893:1 3857:1 5110:1 5111:1 5112:1 5113:1 
0.6639093059861061 2:1 4:1 13:1 14:1 42:1 192:1 429:1 477:1 879:1 1418:1 3009:1 4952:1 
1 2:1 4:1 5:1 13:1 14:1 32:1 42:1 46:1 52:1 68:1 94:1 97:1 222:1 382:1 459:1 532:1 602:1 847:1 944:1 1749:1 
0.1438216027755373 2:1 4:1 13:1 14:1 30:1 42:1 55:1 122:1 253:1 267:1 462:1 497:1 5122:1 
0.8603754007812281 1:1 2:1 3:1 4:1 13:1 14:1 19:1 34:1 47:1 48:1 51:1 56:1 71:1 75:1 90:1 123:1 172:1 204:1 267:1 301:1 337:1 362:1 463:1 488:1 1046:1 1297:1 1750:1 5129:1 5130:1 
0.7110846140861138 2:1 4:1 13:1 14:1 19:1 48:1 56:1 123:1 170:1 177:1 178:1 236:1 267:1 331:1 420:1 424:1 438:1 622:1 625:1 
0.8982325851918903 2:1 4:1 13:1 14:1 42:1 84:1 150:1 189:1 692:1 1119:1 5137:1 
0.8863921572708156 2:1 4:1 13:1 14:1 48:1 50:1 56:1 72:1 84:1 107:1 144:1 150:1 240:1 367:1 690:1 1061:1 2004:1 2281:1 2285:1 2346:1 5139:1 
1 1:1 2:1 3:1 4:1 9:1 13:1 14:1 47:1 54:1 63:1 71:1 75:1 97:1 101:1 214:1 324:1 446:1 560:1 805:1 2974:1 
1 1:1 2:1 3:1 4:1 12:1 13:1 14:1 42:1 52:1 75:1 107:1 165:1 175:1 211:1 222:1 641:1 938:1 2769:1 4326:1 
0.1081006657755498 2:1 4:1 5:1 8:1 10:1 12:1 13:1 14:1 55:1 65:1 68:1 84:1 95:1 101:1 109:1 164:1 165:1 185:1 329:1 331:1 392:1 444:1 507:1 649:1 749:1 805:1 2490:1 2782:1 4971:1 5151:1 5152:1 5153:1 
1 2:1 4:1 13:1 14:1 30:1 42:1 63:1 123:1 128:1 2106:1 4398:1 
0.08266330169064154 1:1 2:1 3:1 4:1 13:1 14:1 19:1 62:1 66:1 90:1 105:1 159:1 225:1 329:1 331:1 392:1 532:1 1159:1 1860:1 2323:1 5073:1 5074:1 
0.7048245416424717 2:1 4:1 5:1 6:1 13:1 14:1 34:1 48:1 84:1 205:1 240:1 248:1 326:1 694:1 865:1 869:1 1267:1 2723:1 5160:1 5161:1 5162:1 5163:1 
1 2:1 4:1 9:1 13:1 14:1 25:1 27:1 84:1 95:1 101:1 156:1 177:1 196:1 201:1 202:1 331:1 424:1 
1 2:1 4:1 5:1 13:1 14:1 27:1 71:1 72:1 82:1 101:1 127:1 248:1 256:1 694:1 
1 2:1 4:1 13:1 14:1 56:1 108:1 109:1 131:1 5165:1 
0.4631244343688032 2:1 4:1 5:1 13:1 14:1 25:1 63:1 84:1 95:1 835:1 1542:1 5166:1 
0.5485961358768866 2:1 4:1 5:1 13:1 14:1 47:1 72:1 124:1 229:1 1643:1 1943:1 
0.01520852031246463 1:1 2:1 3:1 4:1 8:1 13:1 14:1 30:1 38:1 68:1 71:1 75:1 176:1 389:1 1090:1 5171:1 5172:1 
0.4962168653901457 1:1 2:1 3:1 4:1 13:1 14:1 39:1 84:1 283:1 2024:1 4190:1 5174:1 5175:1 5176:1 
0.17677379366176 2:1 4:1 13:1 14:1 47:1 318:1 437:1 1812:1 2301:1 3896:1 
0.01949399401496277 2:1 4:1 13:1 14:1 75:1 339:1 360:1 486:1 690:1 2055:1 2877:1 
0.151701327496584 2:1 4:1 5:1 6:1 13:1 14:1 47:1 56:1 62:1 63:1 73:1 99:1 163:1 170:1 282:1 360:1 463:1 793:1 826:1 1553:1 5190:1 
1 2:1 4:1 13:1 14:1 108:1 109:1 131:1 
0.3741053267927758 1:1 2:1 3:1 4:1 5:1 8:1 12:1 13:1 14:1 56:1 277:1 1090:1 1151:1 5191:1 
0.3132606988403909 2:1 4:1 5:1 13:1 14:1 42:1 46:1 47:1 48:1 56:1 71:1 126:1 150:1 229:1 247:1 544:1 576:1 641:1 1281:1 2290:1 2427:1 3412:1 5199:1 5200:1 
1 1:1 2:1 3:1 4:1 13:1 14:1 23:1 48:1 60:1 345:1 582:1 845:1 
0.9205883007055867 1:1 2:1 3:1 4:1 5:1 9:1 10:1 13:1 14:1 30:1 32:1 52:1 60:1 71:1 172:1 4093:1 4810:1 5207:1 5208:1 
1 1:1 2:1 3:1 4:1 13:1 14:1 72:1 82:1 215:1 512:1 1155:1 2055:1 
0.02428589112258401 2:1 4:1 5:1 13:1 14:1 30:1 34:1 56:1 66:1 71:1 82:1 95:1 109:1 126:1 130:1 232:1 326:1 472:1 5220:1 
0.06576093758832471 2:1 4:1 10:1 13:1 14:1 41:1 42:1 48:1 57:1 72:1 75:1 229:1 287:1 478:1 565:1 1536:1 3419:1 
1 2:1 4:1 13:1 14:1 30:1 128:1 
1 2:1 4:1 5:1 13:1 14:1 19:1 63:1 66:1 84:1 108:1 109:1 172:1 177:1 178:1 236:1 2027:1 2591:1 
0.3102555559891781 2:1 4:1 12:1 13:1 14:1 42:1 132:1 159:1 167:1 544:1 2590:1 5232:1 
1 2:1 4:1 9:1 13:1 14:1 27:1 41:1 50:1 56:1 71:1 73:1 75:1 93:1 148:1 474:1 548:1 649:1 823:1 1154:1 1657:1 2156:1 3049:1 
1 2:1 4:1 5:1 13:1 14:1 27:1 30:1 108:1 109:1 110:1 
1 1:1 2:1 3:1 4:1 5:1 13:1 14:1 42:1 47:1 48:1 72:1 108:1 109:1 205:1 248:1 326:1 573:1 739:1 
1 2:1 4:1 9:1 13:1 14:1 63:1 71:1 75:1 78:1 79:1 122:1 156:1 159:1 163:1 240:1 371:1 529:1 889:1 890:1 1116:1 1180:1 1697:1 5237:1 
0.7894527047973858 1:1 2:1 3:1 4:1 8:1 13:1 14:1 42:1 93:1 101:1 109:1 165:1 768:1 1436:1 2490:1 5239:1 5240:1 
0.2835927882962303 1:1 2:1 3:1 4:1 5:1 8:1 13:1 14:1 27:1 48:1 56:1 63:1 66:1 74:1 101:1 110:1 237:1 240:1 282:1 742:1 1436:1 1600:1 3012:1 5244:1 5245:1 5246:1 
0.02400418565212109 1:1 2:1 3:1 4:1 13:1 14:1 19:1 29:1 34:1 46:1 56:1 63:1 66:1 68:1 84:1 90:1 91:1 107:1 120:1 126:1 353:1 1408:1 1478:1 4817:1 
1 1:1 2:1 3:1 4:1 8:1 10:1 13:1 14:1 93:1 101:1 205:1 232:1 262:1 324:1 363:1 658:1 690:1 1357:1 
0.1902426251198305 2:1 4:1 5:1 12:1 13:1 14:1 71:1 110:1 123:1 159:1 216:1 235:1 326:1 1597:1 5256:1 
1 1:1 2:1 3:1 4:1 5:1 8:1 13:1 14:1 72:1 93:1 101:1 412:1 413:1 898:1 
0.6564276266994946 2:1 4:1 5:1 13:1 14:1 52:1 237:1 5262:1 
0.03347734739967194 2:1 4:1 12:1 13:1 14:1 82:1 101:1 154:1 600:1 3546:1 5263:1 5264:1 5265:1 5266:1 5267:1 5268:1 5269:1 
0.2041277196833335 2:1 4:1 13:1 14:1 42:1 66:1 316:1 422:1 561:1 690:1 5273:1 5274:1 
0.02754680749826742 1:1 2:1 3:1 4:1 5:1 6:1 12:1 13:1 14:1 27:1 46:1 47:1 48:1 57:1 68:1 78:1 92:1 101:1 202:1 227:1 240:1 326:1 340:1 622:1 1074:1 1194:1 1566:1 5275:1 
0.9164930414641769 2:1 4:1 5:1 6:1 13:1 14:1 1078:1 3320:1 3913:1 
0.7453177537911697 2:1 4:1 9:1 13:1 14:1 40:1 42:1 48:1 63:1 71:1 92:1 99:1 170:1 214:1 232:1 326:1 845:1 1281:1 1908:1 3194:1 3810:1 5280:1 
0.7040848568568924 1:1 2:1 3:1 4:1 13:1 14:1 66:1 279:1 625:1 
1 1:1 2:1 3:1 4:1 5:1 13:1 14:1 84:1 93:1 122:1 163:1 318:1 1994:1 
1 2:1 4:1 5:1 8:1 13:1 14:1 31:1 32:1 46:1 56:1 95:1 101:1 109:1 148:1 164:1 190:1 240:1 507:1 701:1 865:1 869:1 2346:1 4865:1 
1 1:1 2:1 3:1 4:1 8:1 13:1 14:1 54:1 55:1 101:1 239:1 457:1 507:1 
0.05838085464194499 2:1 4:1 13:1 14:1 202:1 5301:1 5302:1 
1 2:1 4:1 5:1 13:1 14:1 42:1 164:1 315:1 326:1 408:1 502:1 590:1 4904:1 4947:1 
1 2:1 4:1 13:1 14:1 108:1 109:1 131:1 
0.03988681369282392 2:1 4:1 10:1 13:1 14:1 62:1 78:1 102:1 127:1 548:1 2346:1 5314:1 
0.1488612284178273 1:1 2:1 3:1 4:1 13:1 14:1 101:1 154:1 192:1 938:1 2647:1 5315:1 5316:1 5317:1 
1 2:1 4:1 13:1 14:1 30:1 46:1 65:1 112:1 316:1 759:1 
0.01059008884074649 1:1 2:1 3:1 4:1 13:1 14:1 57:1 84:1 2068:1 2782:1 5318:1 5319:1 
0.5584305739850367 2:1 4:1 5:1 13:1 14:1 72:1 74:1 93:1 109:1 479:1 5322:1 5323:1 
0.12739595534701 2:1 4:1 13:1 14:1 84:1 194:1 1180:1 1630:1 2591:1 3401:1 5324:1 
0.3519240664314754 1:1 2:1 3:1 4:1 10:1 12:1 13:1 14:1 25:1 130:1 232:1 238:1 248:1 267:1 287:1 544:1 590:1 958:1 2156:1 5328:1 
1 1:1 2:1 3:1 4:1 13:1 14:1 46:1 86:1 240:1 329:1 330:1 331:1 1749:1 
0.1702901688073774 2:1 4:1 8:1 13:1 14:1 42:1 56:1 158:1 216:1 282:1 561:1 2275:1 3404:1 3441:1 
0.3419838173046038 2:1 4:1 9:1 13:1 14:1 46:1 55:1 73:1 75:1 84:1 87:1 94:1 159:1 165:1 176:1 234:1 286:1 466:1 486:1 684:1 865:1 869:1 1455:1 1589:1 1812:1 2496:1 5332:1 5333:1 5334:1 
0.3203584407016784 2:1 4:1 13:1 14:1 75:1 131:1 233:1 360:1 609:1 701:1 863:1 1762:1 2760:1 
0.1010255021327258 2:1 4:1 5:1 6:1 13:1 14:1 27:1 42:1 46:1 56:1 63:1 71:1 75:1 84:1 107:1 150:1 279:1 283:1 497:1 518:1 600:1 817:1 865:1 869:1 4045:1 5337:1 5338:1 5339:1 
0.08516085797248081 2:1 4:1 5:1 10:1 13:1 14:1 46:1 56:1 63:1 73:1 82:1 84:1 107:1 126:1 150:1 172:1 215:1 251:1 287:1 312:1 641:1 642:1 715:1 1046:1 1652:1 3278:1 5340:1 5341:1 5342:1 
0.1734470857373774 1:1 2:1 3:1 4:1 13:1 14:1 19:1 41:1 42:1 46:1 73:1 75:1 92:1 107:1 123:1 148:1 216:1 295:1 299:1 379:1 487:1 573:1 781:1 809:1 2279:1 3231:1 3425:1 5065:1 5343:1 5344:1 
1 2:1 4:1 13:1 14:1 42:1 84:1 147:1 159:1 1699:1 1846:1 3778:1 3779:1 4469:1 5349:1 
1 2:1 4:1 13:1 14:1 71:1 75:1 122:1 163:1 283:1 4442:1 5350:1 
0.6370769422136103 2:1 4:1 8:1 13:1 14:1 68:1 72:1 75:1 101:1 164:1 463:1 480:1 774:1 962:1 2309:1 5353:1 5354:1 
0.6647187412166882 1:1 2:1 3:1 4:1 5:1 13:1 14:1 38:1 42:1 75:1 101:1 111:1 150:1 500:1 507:1 690:1 762:1 885:1 1671:1 2662:1 3009:1 4272:1 5355:1 5356:1 
1 2:1 4:1 5:1 6:1 13:1 14:1 47:1 65:1 159:1 233:1 262:1 692:1 896:1 5366:1 
0.132871724556873 1:1 2:1 3:1 4:1 5:1 8:1 12:1 13:1 14:1 19:1 29:1 95:1 122:1 277:1 293:1 311:1 362:1 873:1 918:1 2819:1 5369:1 5370:1 5371:1 
0.1562758551353265 1:1 2:1 3:1 4:1 12:1 13:1 14:1 19:1 90:1 127:1 287:1 4440:1 
0.1364825706935515 1:1 2:1 3:1 4:1 9:1 10:1 13:1 14:1 27:1 39:1 46:1 48:1 63:1 71:1 72:1 75:1 92:1 95:1 113:1 163:1 240:1 251:1 267:1 1056:1 1233:1 1446:1 3881:1 4209:1 5141:1 5374:1 5375:1 5376:1 5377:1 
1 2:1 4:1 13:1 14:1 30:1 72:1 
0.4451370929450449 1:1 2:1 3:1 4:1 5:1 10:1 13:1 14:1 19:1 31:1 32:1 38:1 42:1 56:1 90:1 99:1 248:1 282:1 346:1 448:1 599:1 1138:1 2302:1 3206:1 3694:1 5382:1 5383:1 
0.8829980987724563 2:1 4:1 5:1 9:1 12:1 13:1 14:1 19:1 27:1 92:1 95:1 113:1 114:1 145:1 379:1 463:1 
0.0252988862733073 2:1 4:1 8:1 13:1 14:1 50:1 158:1 199:1 232:1 989:1 5390:1 
1 1:1 2:1 3:1 4:1 5:1 12:1 13:1 14:1 54:1 55:1 63:1 84:1 150:1 165:1 347:1 359:1 382:1 
0.3988288611558036 2:1 4:1 5:1 8:1 13:1 14:1 27:1 38:1 42:1 56:1 75:1 84:1 92:1 101:1 107:1 165:1 190:1 215:1 444:1 733:1 823:1 865:1 869:1 1457:1 4272:1 5395:1 
0.5282025978040954 2:1 4:1 13:1 14:1 30:1 126:1 188:1 232:1 926:1 1183:1 1344:1 1825:1 5398:1 5399:1 
0.07816356740459725 2:1 4:1 5:1 13:1 14:1 32:1 42:1 46:1 48:1 52:1 63:1 72:1 75:1 107:1 150:1 170:1 186:1 196:1 251:1 600:1 938:1 946:1 2823:1 5400:1 
0.1037144089039757 2:1 4:1 9:1 12:1 13:1 14:1 20:1 27:1 72:1 127:1 158:1 251:1 262:1 267:1 287:1 828:1 992:1 4595:1 5401:1 
0.06875658364397394 2:1 4:1 9:1 12:1 13:1 14:1 51:1 113:1 123:1 165:1 196:1 238:1 248:1 434:1 1408:1 1699:1 
1 1:1 2:1 3:1 4:1 13:1 14:1 19:1 50:1 63:1 232:1 311:1 320:1 360:1 538:1 620:1 1972:1 4668:1 5406:1 
0.6228278996272927 2:1 4:1 13:1 14:1 30:1 72:1 5411:1 
0.6481780157591951 2:1 4:1 5:1 6:1 8:1 13:1 14:1 63:1 82:1 92:1 165:1 282:1 315:1 479:1 1100:1 1297:1 1436:1 2031:1 
0.9532450961145634 2:1 4:1 5:1 13:1 14:1 42:1 63:1 99:1 123:1 158:1 199:1 205:1 238:1 248:1 262:1 329:1 331:1 392:1 555:1 1216:1 2068:1 2522:1 
0.2204344498540474 1:1 2:1 3:1 4:1 5:1 10:1 13:1 14:1 19:1 46:1 75:1 84:1 90:1 99:1 159:1 202:1 233:1 340:1 351:1 436:1 808:1 1326:1 1516:1 1994:1 3397:1 
0.2804184797700793 1:1 2:1 3:1 4:1 12:1 13:1 14:1 30:1 163:1 865:1 1199:1 2603:1 5403:1 5404:1 
1 1:1 2:1 3:1 4:1 13:1 14:1 318:1 1138:1 
1 1:1 2:1 3:1 4:1 5:1 12:1 13:1 14:1 92:1 95:1 109:1 165:1 239:1 421:1 544:1 
0.3115174588964834 2:1 4:1 5:1 13:1 14:1 34:1 46:1 55:1 56:1 66:1 84:1 262:1 374:1 487:1 603:1 694:1 759:1 761:1 1512:1 1877:1 1895:1 3471:1 5441:1 
0.1574269690977916 2:1 4:1 13:1 14:1 329:1 331:1 392:1 5443:1 5444:1 
0.1800916113461407 2:1 4:1 5:1 8:1 10:1 13:1 14:1 95:1 109:1 150:1 173:1 240:1 446:1 472:1 684:1 1737:1 2156:1 5445:1 
1 1:1 2:1 3:1 4:1 13:1 14:1 63:1 75:1 107:1 109:1 196:1 287:1 480:1 544:1 1690:1 1710:1 
0.1634078737272546 1:1 2:1 3:1 4:1 13:1 14:1 3262:1 
0.4308249965135747 2:1 4:1 5:1 13:1 14:1 84:1 94:1 139:1 248:1 408:1 480:1 864:1 2027:1 5452:1 5453:1 
0.5602793565407947 1:1 2:1 3:1 4:1 5:1 13:1 14:1 19:1 27:1 50:1 75:1 77:1 107:1 142:1 173:1 205:1 311:1 320:1 604:1 685:1 890:1 1194:1 2002:1 2557:1 
