solver_type L2R_LR
nr_class 5
label 4 0 3 1 2
nr_feature 24004
bias -1
w
0.1095043306988231 -0.09934909393630945 0.1871887568279317 0.07732042880249812 -0.3889005902004605 
-0.3302944454988478 0.1769044115556175 -0.4791385706378901 0.6543753237973385 -0.2966777145326324 
0.4961496603843048 -0.1526727760752672 -0.4475096896208393 -0.01344861138141887 -0.01426792072557429 
0.2750260724058697 0.1303666809569814 -0.5240056623990744 -0.08545362364148308 -0.0006981947408273986 
0.4807208128477577 -0.008442737103321144 -0.2316495086208709 0.2572731318766994 -0.4485934439089073 
-0.02527301117761146 0.09295653323857724 0.2879869066882305 -0.289685959458573 -0.6835060446684015 
0.1325006794334055 -0.602094516536398 0.2230425951024075 -0.008981247007575518 0.04586290008048845 
-0.2798677116142159 0.1433348401988615 -0.4712245727308498 -0.2904228605486776 0.4857479757544581 
-0.01082522689125537 -0.03702481600092043 -0.09133751777029199 0.05494886691074134 -0.06738835531547135 
-0.1067599908669623 0.1836763879318671 -0.2638577671594081 -0.1420158211351308 -0.04064442040753181 
-0.4272285041597725 0.8175874807211586 -0.05469837948864923 -0.8575976493455869 0.2775637729891952 
0.3015817952457646 0.5739622008545739 -0.1045791357821274 -0.01819556665407332 -0.2188055627476556 
-0.4236973874421944 -0.2204661660981969 -0.3451609610582835 1.030931816203761 -0.05912097455305875 
1.215448713758699 -0.9580844552496933 0.1138640820452524 0.0584512385408564 -0.2867942069814256 
-0.1539403951891055 0.1118924731879152 0.1217169979916284 0.0442464635629761 -0.2446033080308818 
-0.3286133238602623 0.3950075465365672 -0.3482644943010091 -0.02982419792571241 -0.1279059289629496 
-0.5603826038851368 -0.5275048109140837 0.4506569640439301 0.06086776769766507 0.6762044623851815 
0.1626146340686432 0.1554289142214519 0.3679509389635749 -0.6700231387241354 -0.04526134481556896 
-0.06338503542902961 -0.6745075582157494 0.4226171945570815 -0.318465837032772 0.6907037035796239 
-0.2896606376323417 0.147329660409575 0.07628210320387165 -0.2844978112937613 0.2651034008040588 
-0.2218950158821365 0.3164431674015746 0.3972011374279556 -0.6239574451060228 0.1238239005306649 
-0.06425484888933711 0.2249515292841658 -0.2069989402899376 0.4928607400981918 -0.6113809206770513 
-0.1084024802667538 0.6720577195974076 0.3290743581355997 -0.7726599877417072 -0.09089388895477477 
0.3863041820654404 0.1529609448389568 -0.003117205691947227 -0.6178830504804199 0.1343112297413237 
-0.2444886042681157 1.068656841370566 -0.3952473319327249 -0.3405084967475459 0.08625838758743881 
0.06615883026425758 0.6052407073672115 -1.279780016500688 -0.1546953860485989 -0.01215333738830449 
-0.3143012572367233 1.089761168136594 -0.5061693569307461 -0.4498200158929895 0.06200072508135288 
-0.1747584989574811 -0.521078999578369 0.3098734643337835 -0.1647368370541232 0.3048652904077365 
0.3386730251866772 -0.3808964340746648 -0.1073779683363874 -0.08732445939308811 0.06184322788729198 
-0.05567654061214429 -0.2623867136653992 0.7616538455845336 -0.1559008896736115 -0.1658578639462876 
-0.3687751656974815 0.2631704479332732 -0.2585862169425119 -0.5995479101263662 -0.01723488866377541 
0.3964648823258563 0.02190271810822918 -0.7228877513058954 -0.3154730800380266 -0.02443249437496943 
0.1135015743449568 -0.05525317880003192 -0.0551617909493361 -0.5146617123567987 0.6110173697672738 
0.1989553818866037 -0.003863228811106557 0.2168456369565037 -0.2301923760886348 -0.1771655841810003 
0.275202264482965 -1.308227890659301 0.04712471790952571 0.1155986678343206 0.4935509638099481 
-0.4233585960305489 -0.1156104576590978 -0.03191340862450971 -0.1029821790201049 0.4184018427417857 
-0.3855026737742926 0.1712033928195048 0.4324843709821057 -0.002517830198009233 -0.4047198560724271 
-0.05285375710915047 -0.07388965957742466 0.6684969329608413 -0.2586760623534058 -0.8276798625196539 
-0.1939832875046688 0.4748845232660048 0.1179124424482223 -0.6172680642149173 0.1645284886362896 
0.09206480617316529 0.3547482680278142 -0.0164146207523222 -0.2765140102133994 -0.01752218750369689 
-0.4271089301557395 -0.3157113160999215 0.3558359485621708 0.09664456878719742 -0.267200574066628 
0.7043418234931428 -0.4331598738908209 -0.08680577978952218 -0.1291194704963102 0.472722513228004 
0.1800691795193681 0.005665998068140377 0.1581938968118566 -0.3394140239920043 -0.03209707557604963 
-0.0774724853889982 -0.001870572034973463 0.310036264812978 -0.2890945298133412 0.211231539658741 
-0.1442568076015726 0.5097742545779105 -0.2633691809931345 -0.2452148274845529 -0.08595383343240341 
-0.508006502862002 -0.169050102040911 0.5333381379935905 0.1172246572287914 0.1623041547545125 
0.02592964614754525 0.1044088547640029 0.1039233486100126 -0.7084705764540907 0.7429093748388846 
0.5970926992571843 -0.03907863948620412 -0.5330364392698402 0.2836865363477538 -0.7586383712763736 
-0.5217754156139357 0.2329579013701261 1.105069785734953 -0.3978425421622303 -0.1171043363253835 
-0.2390010744686528 -0.1581577747031993 0.2736828025385547 -0.1435112627762184 0.252624831828524 
-0.7565375756839023 0.6988353672083741 0.2671516304172665 0.06671486980270884 -0.236732274435892 
-1.200131059112973 -0.1391854191631557 0.6525317297909419 0.751354103815319 -0.6237611200841506 
-0.5742518794028456 -0.2311525688330854 0.4951866675497371 0.6980130151217501 -0.5270566382152279 
0.825418434841988 -0.3207632496000825 -0.04430307474472914 -0.3164731837772463 0.4760130075976312 
-0.01639483156302984 -0.2104737942196561 -0.6869746676056082 -0.3274562701144395 0.5522782640204533 
0.601585978735007 -1.376107355670981 0.7451982234098263 0.2714939728670015 0.5757610005940164 
-0.1412321546200122 0.4461551943168887 0.2990496902905991 -0.4618452293915684 0.1499174316649744 
0.08199705041141482 0.157165486246681 -0.673063652918117 0.8067167916240806 -0.4073530173665233 
0.1058029999476587 0.3960861287460514 -0.2020620016209984 -0.4477674061028757 0.2230450732528444 
-0.6269958386662026 0.2747980935987062 -0.0961854392057622 -0.07057797146703552 0.1793503057176378 
-0.2326571628408157 0.3153659282611807 0.4087584443067055 -0.1654077494985804 -0.2217135384311553 
0.3879270839586147 0.5839864790710368 -0.4882835040433033 -0.0482909887749467 -0.3275000181154629 
0.1913714462945756 -0.0380968708450292 -0.3005867549623044 -0.2094551625522036 0.03185130930981356 
-0.06688073201302097 0.4454022781524108 0.02945787508429442 -0.6662785223960999 -0.6498060545442204 
0.004221617506362459 -0.359679536733382 -0.2888005072267641 0.3879949291724061 0.374941220189812 
0.1832118892119529 -0.2179732222105332 0.07607644708658297 -0.1971692685968648 0.1425687371346905 
-0.354385885396747 -1.019488040251378 -0.04797726778196811 1.580197975994633 0.09720777369069793 
-0.01151450816846137 -0.385097327382553 -0.1386521223277341 0.1706589863467957 0.3211114195757123 
-0.5052982359277473 -0.5660595857654201 0.1068160393083803 0.5808675857354961 0.3579963551136445 
0.01028852201692192 -0.7930704200642403 0.2759910268433211 -0.2801629410063775 0.3828786055530331 
-0.1958228471241999 -0.1314714363148765 -0.5674311827275363 -0.2479916238264494 0.297087701891197 
0.506460690172022 0.01701466894309505 -0.2769448076894719 0.3882363837060326 -0.6543759084238702 
-1.586153085421759 0.8297605066202917 -0.07764687650864603 0.6296770454402426 0.3988422019320483 
-0.06459330140531488 -0.08119421250508253 -0.3088110860247634 0.5455449892922349 -0.3095071782523207 
0.40737860538093 -0.5174917870323902 -0.5663116276071022 0.4661666324715026 0.2382051284975272 
-0.1878179356735019 0.02352277355451835 -0.2538709322458906 0.2798982247995609 0.07200701884832364 
0 0 0 0 0 
-0.2603133772098221 -0.1668534302756512 0.3953230772784894 -0.05791746930659919 0.212908531547912 
-0.1841441570104293 0.08163586178940894 0.4443249314372064 -0.3507937151132862 -0.1771250736987441 
-0.1739300984415706 0.4335963712468662 -0.3298336085745091 0.1672073304390343 -0.2726300266817953 
0.370462687957729 -0.2315655788302638 -0.04279836975409312 -0.2976659792556089 -0.05492516372117345 
-0.561876180198901 -0.2331330210263866 -0.2262777644507916 -0.03182203561516066 0.6330460478189339 
-0.6249088939264198 -0.04578198473298904 0.2595547779750007 -0.7050813946218726 0.4095464615920182 
0.8085921041522891 0.2066323495651561 0.02071957915245294 -0.5218976380350905 -0.429814297082565 
0.6294468348597915 -0.3886515651257125 0.08055797338818148 0.144630331488277 -0.01814666088061406 
0.5326065455470271 -0.3044142572630449 -0.6909410599342932 -0.190547413292489 0.4598012417537665 
-0.04866847999659059 0.311116169086088 -0.7760987377145834 0.1202899859749137 -0.1288911185600892 
0.07861597952418814 -0.9554891838929206 0.6023985551657092 0.1926004795108798 -0.8627721634810759 
0.1059813707451823 0.5113544611021787 -0.4429033127727719 -0.296404993758836 -0.2081336882807048 
-0.4268743648129324 0.6850206556047426 0.8456964160722856 -0.331955632417099 -0.4211053853203052 
0.04499688525807212 -0.7200192715198781 -0.1745791786589804 -0.2278688868376337 1.100404114093642 
-0.6599953903951953 -0.4202850901580279 0.3079429907615116 0.156757251282848 0.1286829694002713 
-0.1253058047224058 -0.7577743443528091 -0.03475190903250838 -0.5985698553228593 1.204042580594204 
0.4408964783953061 -0.06822224422323472 -0.225711328349225 -0.03648592950884731 0.2811070728271516 
0.08066368195653088 0.108398015036852 -0.2258220763252871 0.3013173355478872 0.05117919015781539 
-0.6236250544860319 -0.05325542478875976 0.1378906075558944 0.3563117955586496 -0.1707500813125183 
-0.2438536949060744 0.05649466271520648 -0.2134588581752927 0.8728127059698308 -0.215463329794166 
-0.6689931456331439 0.1296345386667713 -0.246464556392848 0.7437472575420466 0.4872168914453021 
-0.01395137185730652 0.07350982434928738 -0.4111854653169728 0.7239789715681225 -0.07342526041093092 
0.4873117173722173 -0.39967177694242 0.2300680755306601 0.1186067491079164 -0.1791542994186724 
0.3630048704756047 -0.1162955302240042 -0.04279851695237594 -0.02653714211475213 0.1432730191576211 
0.04206454160157801 -0.6139963074943332 0.7729812945736706 -0.2886215681074233 -0.1720235443437952 
-0.1313404717263381 -0.0564201950811896 -0.1005138054206631 0.1503253945125927 -0.02813039161098824 
-0.3057090536785807 -0.8525796878821962 -0.06729412147331332 -0.04965757209810207 0.9646795108253592 
0.4185267567916464 -0.5129698619762391 0.5800644962034013 -0.09135556764046714 -0.2062375004943883 
0.117319883337837 -0.1125272772349131 -0.2681559031485373 0.559156583739797 -0.2046480731126662 
-0.2397962416963498 -0.8320789798892527 -0.5056733241708555 1.049346972254983 -0.4880426720454877 
-0.4279619773558646 0.4067404302086639 -0.311088013564278 0.2001574580251227 0.4478554770288212 
-0.292419058425708 0.2287268543613146 -0.2606988770657218 0.3849671794844605 0.2136350019257825 
-0.4196481179771741 0.674598751284763 -0.1426225410305929 0.5875513726637966 -0.6137796755150269 
-0.225794793269251 0.5872270376373211 0.1523297854666699 0.3269943699349339 -0.6246997051112843 
-0.7064133883065438 1.412150871646655 -0.3109350922614886 0.08970756578898727 -0.3747227104843193 
0.1930343511419662 -0.1803114908833828 -0.983491062354595 0.9002767448294098 0.1102982654334979 
-0.4134177741856864 -0.4215102653374737 0.7899002413709949 -0.08866391362460754 0.6025599203636517 
0.2039695904768043 -0.3882375002638789 -0.8664072026013975 -0.2910830622103291 0.8496182096930761 
0.4008407758841011 0.2567095767160363 -0.3956506528743904 -0.7867925452764197 0.1983876210660394 
0.5133954064863503 0.657027085178953 1.643741750775746 -1.842387153191604 -1.349534496306886 
-0.4581566824337587 0.2251650479291405 0.7733016385948953 -0.3047829107060419 -0.01512563461710147 
-0.2987740513572732 -0.01058404845902534 -0.5023798454994126 0.3280473419231008 0.3841730079443479 
-0.3910510101564471 0.6893342720917239 -0.2448321874759349 0.4164943905353292 -0.6508683638088631 
0.2607578733579933 0.2795785382015328 -0.1139852321193775 0.5863943532370296 -0.273562133737043 
0.0783245344354548 -0.08111779560687191 -0.2225095619623889 0.3579694335746271 -0.151245574222915 
0.103671663259715 0.1813761090014943 -0.3650878191185105 0.2756266605780702 -0.1541346353065549 
0.7606933975748164 -0.5753379783227441 -0.3576428908423205 -0.5986490627679184 0.4679954603460438 
0.5454025958257125 0.07867546626966315 0.1911919157987535 -0.3816694649118413 -0.557090335586641 
0.5180396323857017 0.4011581017379637 0.5749048232808971 -0.8985719340577988 -0.5842684689652059 
-0.157362027801986 0.562828964732358 -0.3941467684938288 0.2302771000806017 -0.1296040349828949 
0.1574968905263145 -0.1951617853950621 0.1127172144034165 0.3301540722135522 -0.001088708807728087 
-0.2517037627523586 0.4930895127871098 -0.3519378304992002 0.4555869138541428 -0.0693005963539092 
-0.1896056045006874 1.16646325286518 -0.4862430314920935 0.07601828291521667 -0.8387606851930107 
-0.4816102460056795 0.4045733532875302 0.1545175893649304 -0.06337593342436064 -0.1825123427739329 
-0.2912700667833019 -0.3923812130560505 0.8998979829699686 -0.5656912333104264 0.245548887019147 
-0.8458849922832696 -0.5927639347745162 0.1014383856661742 -0.1526382372656516 1.075211895028903 
0.6327365968736595 -0.4139014285398658 -0.4679943497947018 -0.4269847981428114 0.3116292087124529 
-0.03577582720468439 -0.121038039300738 -0.1656220982514946 0.1661206249399692 0.6415413927657798 
0.08837031378086717 -0.3723488891297517 -0.1524230879148692 0.08886349563090072 -0.1964425462756875 
-0.316255902138548 -0.5505753963579693 0.2669197979453297 -0.1091091813661738 0.2654753322222487 
0.1369406909227828 0.5073887406471074 -0.04205409672115862 -0.2441426135897774 -0.2942199688526179 
-0.3284157846087366 -0.3307192324469541 -0.1948556596815758 0.6271358556575828 -0.5557840866752315 
-0.9650750082945796 -0.0005560323447831791 0.360245327106733 0.5553628131283253 0.04356415729551727 
0.09179198504562575 0.6560961368462865 0.5639422569727599 -1.127323030390056 -0.212570323363909 
0.269748336047536 0.1565902527601633 0.1262883607615062 -0.2239209771193499 0.3741090353121759 
-0.1275656409725803 0.4139038750741174 -0.2675362281776088 0.0836363379402064 0.1047882158781005 
0.3516762545808335 0.735981820367422 0.1248280901777928 -0.6513758682256059 -0.2467147009376701 
-0.01467322692845917 -0.03055686738725677 0.06185701665166467 -0.047080953187967 0.2046430897079833 
-0.6289050648234109 0.01380431513102992 1.680414094440432 -0.5199885069604541 -0.7227857402408367 
-0.1200799436242604 0.1888128177085911 -1.034521869323439 1.090864550186785 -0.5422474004640022 
0.7079167842732876 -0.8799204829054871 1.631904497960167 -1.026906375898173 -1.018072338716074 
0.559590180736622 -0.2804053747751289 -0.04517348574469533 -0.156437797151619 0.1235931668309128 
0.5954074877337582 -0.06603497722403773 -0.3998323604007589 0.3196282546707158 -0.2650951767970842 
-0.3956747951978324 -0.06713535826900953 0.9838473109369945 -0.2514358142192415 0.1211120494404185 
-0.7927774597802527 -0.563713883230769 0.5004426300616346 0.3198312121315439 0.1585178410092843 
0.205882271611866 0.337721634427516 0.2825821338312942 -0.5890965870428873 -0.3127938324544335 
0.3925066180774209 -0.6458312816728863 -0.3130215051784457 0.2197078774488573 0.4151304210258486 
-0.2961603794280948 0.1376139987705798 0.0572015213201942 -0.217021056109625 -0.03292425399276714 
-0.06449448005479798 0.5287635526115583 -0.6760934331964584 -0.209916003086167 0.3063885862293518 
0.6385842575089771 0.6269956243858064 -0.8890116232895635 -0.8702793934364899 0.3765423289786577 
-0.06184334126404063 -0.2527135061349958 0.6292898355628755 -0.3681911275916005 -0.169226791056739 
-0.1070513691642794 -0.2103172962743685 -0.2620306581895929 0.6382879815396179 -0.4877105357229381 
0.6436507687409312 -0.441283881433837 0.05008561118380985 -0.5063572980629715 0.4924229939981838 
0.04819303105906671 -0.1934448596515001 0.1857606109308104 -0.007853679168261914 -0.4262952052532517 
-1.321336243619474 0.4183008427850667 -0.2638145496728808 1.05103352029313 0.1495534315752578 
-0.3181914481421948 -0.6191694130268253 0.4614970746988363 0.3257825242633988 0.5736915287067648 
-0.4033036540671335 -0.122126247686459 0.2287245443948444 0.640102358280403 -0.3291951621710175 
-0.3497837803538295 1.328772096283331 -0.3944504445311706 -0.5247209126085778 -0.2429873169386144 
-0.05769848227631697 0.3668718542688588 -0.3628741232840659 0.1233404769783963 -0.005749090243048538 
0.7237252838272999 -0.4701798741727785 -0.1627720813676534 -0.3505127655058832 -0.02408937502706021 
0.2648076183933183 0.3225048040540802 -0.064590354796701 -0.5178113398374253 -0.1906828318030367 
-0.3106946064090144 -0.1330726753025875 -0.7048362940250178 -1.233876147208484 1.365092688807543 
-0.1948357762905586 0.2052218119519724 -0.3187651425134276 0.3556252020392971 -0.1349668403106212 
-0.009395473289718407 -0.9110177364560633 0.618894594480405 -0.8106643781865707 0.4892286584701198 
0.3940919778839365 0.691578970903997 0.216015124544266 -0.321863584515827 -0.5451709483537956 
0.1898168399541524 -0.2861934811616983 -0.3599218706102695 0.4241415791346803 -0.3485624941302201 
-0.1736704451969499 0.8087877516695435 -0.1072205756422463 -0.3942884521746463 0.2603619728811287 
0.09071747772665315 0.08890706495158025 -0.09216763784046113 0.1044995407773854 0.02776711314577266 
-0.223392116199174 0.3256953955835266 -0.5206426880697438 0.4780975883895787 0.02625373697067092 
-0.2654800807799164 0.2072588264189585 0.1582622197097002 0.5371312716518446 -0.6257873523454345 
0.8389985525197804 -0.3241195199506261 0.5445375238744438 -0.2818399409234221 -0.5315215350387947 
0.1484437693146039 -0.2552547022712063 -0.5232628921864181 -0.2495636918880537 0.3354841157601953 
-0.2056994224501799 -0.4284657243084626 -0.02629310929901889 0.3281942818519714 0.002238133221045234 
-0.5991642202574464 0.5011150940646955 -0.4252413459408098 0.4166295840629917 0.2072706445315406 
-0.3179201856211727 -0.2232636602950524 0.4292407110630629 -0.4254517930325392 0.2133064997961414 
0.01705069474017698 -0.4243956494259253 0.2572645727414891 0.1733720757516901 0.03560947394083493 
0.219598740320142 -0.1968844967707944 -0.5454027276050224 0.36227862854476 -0.1540223067967352 
0.5817608928141773 0.1349055488397791 -0.619811131709916 -0.0325164015198309 -0.2973144072443079 
0.2739259130975609 0.106206302390236 0.1730389185307233 -0.2348967042865947 -0.06117340292223872 
-0.4461712114739078 0.6695411295703406 -0.6029675460245983 -0.08709027986570894 0.2759629810066949 
-0.3890190040007337 0.3353694058779002 0.4922203329099422 -0.6021649308202566 0.2335797662893901 
-0.4610691876459411 0.4856902159099981 0.3526498644518444 -0.3823104998602805 -0.3044596072731116 
0.2622929179394683 -0.4130793574500207 -0.4586301754851298 1.048929386387177 -0.5752522678936738 
0.4098754654734829 -0.3672039032886611 0.4312299892459561 -0.4586468449641621 -0.2622665578548943 
0.8602443285643233 -0.09883230296349145 -0.3540301705946159 0.1828020282006792 -0.2590610862545675 
0.05586807716370486 0.5419637109721688 -0.4875403601362169 -0.607541750045093 0.6488652031973163 
-0.4344519538378815 -0.2224854411926707 -0.3106825243868919 0.1190860076765468 -0.7652464641757261 
-0.1482114352498374 -0.497078198464861 0.02070012193242753 0.4047281014375033 0.4160796280752752 
0.3132460863252193 -0.2501123677480003 -0.03447918667906753 -0.3206700732237313 0.2074157715263679 
-0.285466832562805 -0.7557046705256214 -0.3125791481880525 0.6201381351968214 0.06706125711054459 
-0.9532201268164424 -0.7995432369647107 0.448153685064208 0.7020101969678466 -0.03494605348845767 
0.1417996305812846 0.1243549815420883 -0.2911931827648664 -0.4268547501677302 0.234529712522166 
-0.3143645352936506 0.0008298776137651587 0.0849389225494754 -0.6952793990813489 0.5418146427198276 
0.1909932439119419 -0.8483487238448681 -0.04358905337484131 -0.3195652946533888 1.215413179773618 
1.024909038679767 0.2242458399219784 0.2213730577226793 -0.5553049296035224 -0.744408420679575 
0.0905722059569823 -1.383410268558008 0.1989966196930454 0.63354318033094 -0.2192263084304664 
-0.2943256012092071 0.02047444768978537 -0.2160079000644783 0.7797337681067875 -0.1497530047498828 
0.2889287545534387 -0.3540353403256701 0.5263052631116727 -0.1107738296063394 -0.1609586583302308 
-0.5884189066973537 -0.008416675009017435 0.7065303802391817 -0.2998251093949769 -0.1008090684482448 
0.2762153973292094 0.0522237050798085 -0.07577856047461987 -0.3997555103813289 -0.05197439288123362 
0.0782796540022828 0.02556632102170395 0.0527605952859742 -0.4059119811646552 0.1816976908674681 
0.5782406103613877 -0.2962557773297259 0.1752986428933281 0.02581321220316029 -0.9466239057041113 
0.1715210594863412 0.5229137595674691 0.4733777249335302 -1.135521404604644 -0.3338573607011788 
-0.500311137439716 -0.5800845091329276 0.4951263020892951 0.2008462953649121 0.4460007954898512 
-0.08713901441039529 0.2972178055591483 0.8456935681413743 -0.480813731429294 -0.5878765701233477 
1.249208670627013 0.1992163192094634 -0.6494077463772638 -0.4065522833527118 -0.2439947861617735 
-0.07935709056226756 -0.06342078179304948 -0.04031971411091713 -0.4903315214413432 0.379199534457615 
-0.1693655165574025 -0.09841070826527357 -0.3053791715711374 1.138456351749214 -0.6154544647617015 
0.1726609224023842 -0.9020691436485236 0.06972294591927519 0.6988475122914369 0.1060011550959531 
0.3835895228105808 0.5166384116683046 -0.5245522891749044 -0.2579398604551867 -0.01727054582764697 
-0.1153000375746046 -0.3377389091660526 -0.176597692190848 -0.3668958433574313 0.5602753861082863 
-0.1702222639741559 -0.1067597561027529 0.6048689947740603 -0.5731900293508086 -0.1177394291543456 
-0.5557154720328563 0.5937364700909886 -0.7633986454217464 0.1232440012676426 0.4728273830500409 
-0.9668996842301217 0.8407752768349184 -0.1691634720518995 -0.02108615449080187 -0.06501903179467704 
-0.308738437470979 -0.01961108737152478 0.8222163504203043 -0.04904120372418028 0.3219266475962155 
0.8431457938831006 -0.2134249597096746 -0.02592976372893024 0.06554871434204537 -0.5589815377809955 
0.2008364394423746 0.4082245208769206 -0.5111126711561685 -0.4152257522500781 0.326226103939739 
-0.09762313646490357 -0.3083363985177782 -0.09282494868003552 0.09366461618163183 -0.09923308656025295 
-0.1826558726746815 -0.3721296630423134 -0.388385029048772 1.190580222103417 -0.7387123094695862 
-0.3265521575379187 0.4426904233091568 -0.5076237156659401 0.2429031228353866 -0.05704533566336148 
0.4629527304889685 0.03275964112613002 0.09177511871911587 -0.2411335647784646 0.2697349889993228 
-0.252815471409967 0.4006738828807084 0.03982731200856923 -0.763932646229296 0.3143757230993627 
0.1525806224198131 -0.1791335047883661 0.3793525208557705 0.1368539190293908 -0.1898968633742965 
-0.3662964711701663 -0.1268775494001897 0.339545693135607 0.1097128933984256 0.07978977744963364 
0.3951893262700827 -0.6021554734802772 -0.4632821233126597 0.359764999818823 -0.2888169740818015 
-0.2742710828993891 -0.4679135992520945 -0.2221808360001715 0.8011711196587499 -0.3752669048482227 
-0.6476210383400092 0.2129893250174 0.4240055001970725 -0.324296446559463 -0.2795530544320308 
-0.4900150990998802 0.9458763055802075 0.3453437974224366 -0.06255902713327524 0.5119317297870474 
0.01782690549432296 0.03785259520230314 -0.3626500294956836 -0.1045675556940118 0.4590154481836171 
0.08489199962073818 1.199391986349026 -0.06801560601536664 -0.4050390631725643 -1.472376017883815 
0.3372797297349772 -0.3458011152811215 -0.5894473752918066 0.4220503702507062 -0.3494546679672073 
1.043731022116816 -0.3742700503492665 -0.3237099773369495 -0.3177441398505995 -0.7642208688168119 
-0.170268574696394 -0.0657925174479045 -0.08415874046363084 0.5451486688554162 -0.0637799519001275 
-0.02857327527910659 -0.3015742493120491 -0.5281165792585192 0.4572227055173815 0.1576530654759968 
0.2719924904068571 0.1969161709426036 -0.6430920771466475 -0.3751119804413148 0.1756212706686862 
-0.2608032431293922 0.01483131042070682 -0.169515854425963 -0.05322659640200759 0.6682308653093509 
0.4220896029166374 0.05284714278589186 -0.1193180933305714 -0.5127431127461142 0.4410181528733691 
-0.393800816764882 0.01023210454563959 0.1508476406903253 0.3726126234073212 -0.04720624967201203 
0.6287051821341472 -0.9810804241101698 0.03053326497297901 -0.05113240532587192 0.0463309770581951 
-0.05832213340636237 -0.2450546468679762 0.742773381030482 -0.02260382746958595 -0.5685430091427888 
0.1628966734408427 -0.26749487527569 -0.1050241291538 -0.4739295373724743 -0.2124385321013895 
0.8443746287431476 -1.113668722671628 -0.1885104370589163 -0.1652767968207532 0.1805560712442479 
0.1985722185652041 -0.664764323420287 -0.3404077391416088 0.1774829590100369 0.6125533166970125 
0.2588431106258053 -0.006904556046949371 -0.3637141791338215 0.4101402501452112 -0.8652022656822616 
0.615737782763085 0.508779080504441 -1.005057685445513 0.04930058144786213 -0.545508351955847 
0.363138656399563 -0.3030866869848285 -0.0003001356534146436 -0.1758482834282351 0.1481957481082529 
-0.6017615990004496 1.629225747805352 -0.6940975774906608 -0.2513653891682572 -0.8605648602384747 
-0.8934638642642623 0.06889774534271495 -0.2452919475500778 0.7978697148131186 0.3535920923187742 
0.2286937443422672 0.00465950531973794 -0.3384302635600835 0.1344185961849591 0.3704643673427533 
-0.477172186814862 -0.6692199509054385 -0.1804355666951722 0.8278050814717871 -0.3607309773047394 
-0.2197964521066792 0.008554678392482487 -0.1724228563920003 0.4822290475024463 -0.1663348713479675 
-0.09991084867721192 -0.6561571047822911 -0.2197270578902545 0.5992343358681033 0.6281071928178668 
-0.3217583993559603 -0.3676448547025529 0.5605238783049485 0.2032426913615058 0.01031829832631565 
0.2470830804361874 0.9470852546864604 0.08730307299025823 -0.5070150025859281 -0.3000683112347628 
-0.4336390915618153 -0.1471111416965681 0.0294251238103261 0.2222301462543246 0.3330183972351177 
-0.08993616483479346 -0.3801853881179045 -0.6342306145074348 0.753884518889445 -1.064955009584111 
0.4286738019548749 -0.1626570943528937 -0.05816550444801283 0.2292568193256811 0.181490389642689 
0.2145547348922339 -0.02143644219959511 0.1510454965588203 -0.691421485317095 0.288341453976807 
1.425921391642405 -0.7803319651195166 -0.6745913054750657 -0.1847722018083706 0.5442402666244545 
0.1151188723413707 -0.4150432525648363 0.3095214765297329 0.403623506213343 -0.93516904150473 
-0.01291945934238946 0.4239066836910776 -0.2355565856947071 -0.7135163651978959 0.3979330085164766 
-0.4526117898547093 0.5738480079449143 0.2110567187604981 0.09338768534284504 -0.3304922944385829 
-0.7357695223196775 -0.291956796853364 0.09004704210244269 -0.1233029450309629 0.4679345748756564 
-0.2127120337431156 -0.8081651380622527 -1.725382882063405 -0.1047393293676233 1.768785420206014 
0.2471568541919671 -0.6370734341334575 0.2446239254198936 -0.1794881511371854 0.8126358107116912 
0.7189699663914303 -0.3177339479723005 -0.2376725887357172 -0.3112255887205091 0.2803720338899546 
0.3661816134936987 -0.1269544687364547 1.148992246212374 -0.5465143648911996 -0.07258688012673142 
0.2711622001136829 0.7374871808032196 -0.04445119524053463 -0.4389195301475818 -0.5080708972639086 
0.09328912845084412 -0.2493020501485673 -0.03104251875324006 -0.2050622662488824 0.2324534134047786 
-0.2167162722754026 -0.769552908074097 -0.05288664259426709 -0.07146034160408596 0.5003282389806666 
0.4617971552681962 -0.6371710290098036 -0.0377007520072984 -0.2539529707864196 0.1167858244105705 
0.4524471697609843 -0.4762907763757628 0.1733760154751826 -0.1498785958447069 -0.09403877779601461 
0.7812445863973753 0.3925907291175948 -0.9941672111872512 -0.2781015070227754 -0.2792590780248227 
0.1334865042973163 0.4749694775338968 -0.4605803930864478 -0.03295776873898977 -0.4479963561595407 
-0.3461416477196769 0.3696694053703953 0.1351103360948097 -0.2072203764517007 -0.1980329009989561 
-0.0403622304789561 0.8966180094871451 0.2206996536115842 -0.3969918132543129 -0.1185218698013687 
0.03065391922502419 0.07223318729579106 -0.869602869244342 0.2795272469060832 0.7332128562850574 
0.4313700008143477 0.784507144330294 -0.5152729047411125 0.04439619491630854 -0.5851635795876035 
0.5463414835510455 0.3701197963205294 -0.2288024351099982 -1.411450382832078 0.2296850041857599 
0.7297585551867418 -0.5092440031517315 -0.2012543199051121 0.05064289841683624 0.08007093441683805 
0.06174743683308409 -0.2183828534458351 0.4676501104818511 -0.705996914021131 0.01206374737373024 
-0.313958334600737 -0.106416086096303 0.5138275496962316 0.05865568215074905 -0.0615895764601203 
0.1337824617802506 0.2277096996227581 0.4038548149724185 0.5284356752471222 -0.8643357066036778 
-0.0007121301067986655 -0.05113456685220686 -0.2084190356875035 -0.7399546531310826 0.2343327204735413 
0.4523901834382793 0.02694599802619511 0.2295257265743328 -0.5804597734678727 -0.4152287897497063 
0.886129224461531 -0.1796103156754991 -0.6234575924860838 -0.5709854532788057 -0.1519003548566008 
-0.4360414903602839 0.9850205771970876 -0.08022569281706309 0.8084365517480112 -1.017582624546103 
0.1116810680127713 -0.09027711526418249 -0.7963854163728006 -0.2526572311840308 0.5981920138580693 
-0.267571705627126 0.03810054634177833 -0.4019652589219264 -0.0972892438334852 0.6606044087766347 
0.05792981488855944 0.2496340725132289 0.1694032693761811 -1.087924215815945 0.3210646043141457 
0.7333130510521575 -0.3975440741798816 -0.4813249138803176 -0.1562879733745722 0.090376944461489 
0.8816859831665018 -0.1919226832660106 0.7312733770994345 -1.433927398986876 0.171013189296518 
0.733454128329078 0.1987587868542717 0.08887330775101264 -0.489795472610511 -0.4857221235045363 
0.4731396872769931 -0.3067121723214822 0.4372218629644371 -0.5496833006114419 -0.3342388431395926 
0.2990595396773569 -0.7534597836691552 -0.2312537709200849 -0.02461523575303328 0.683353232711136 
-0.1044657881932813 0.3730489861555917 -0.6300221702235147 -0.1784952344860125 0.4076710215367642 
0.0885946030133235 0.5374842815804923 -0.31530107326312 0.3972623675475378 -0.7133826575185878 
-1.101179662981741 0.06754845246543019 0.4397373818183282 0.3979859360270763 -0.2409325812029266 
-0.4274673706680196 0.2820667885728244 -0.5044884973250663 0.4253880982100234 -0.08408091995691251 
0.08562662572762804 -0.5710730804172881 0.3500485262054235 0.1950600766273313 0.263122609591656 
0.3319570144372577 -0.2749635000174626 -0.2459079036317675 1.04423714850286 -0.8175818802251453 
0.7521137722841855 -0.2981287443044601 -0.3912832498283448 0.2061548661618222 -0.1958524928022731 
0 0 0 0 0 
0.07977534966410524 0.08600005541459889 0.5090427804452711 -0.09441505993552105 -0.6254047814472213 
0.07457108751929996 0.7335178848614888 -0.9209256986900118 0.3715780464530619 -0.2098940795333719 
-0.1278922125662272 0.175048751208816 0.09759552544471722 -0.7841192435392876 0.2852846185734744 
-0.576356988907508 0.687168167046867 -0.1602621075836674 -0.1261084540717307 0.3318550864034996 
0.4176763164567402 0.1044820869313078 -0.5562812548156144 0.1458701804251729 0.2207001282462327 
-0.4024089000604396 0.6915486825055588 0.5336539107448807 -0.09125451601302603 -0.1237263644859942 
-0.2940419640019808 -0.210509891039457 0.1932038484804774 0.4105404668929402 -0.231072059796149 
-0.1409775904265165 0.04708196118289318 0.1429360532452927 0.02487401512520118 -0.52452909047135 
0.2747119097677192 0.557333101739775 0.09069955791548456 0.01362618225604649 -0.1993456513543026 
-0.3970230787549634 -0.2218845934015151 0.8464435082400027 -0.0827619232942232 -0.8614355537159634 
0.1725214667164502 0.03604476589274108 -0.08740223034606952 -0.4197934344643047 0.0773320148179656 
-0.4276926665093899 -1.355573500467024 -0.2477110985490326 0.6163336708196282 -0.08246471839566342 
-0.2313784973448821 0.3161122029029739 0.6541170654782623 -0.5039664323437663 -0.2249274500244385 
-0.5925457292664327 0.0585401686871144 -0.771484470115741 0.5247912966810359 0.2698942153132721 
-0.4826981571882494 -0.8087713884796538 0.8650599375270945 -1.044344128951585 0.764205001373795 
0.4498356035873851 0.2898006075051277 0.3520468799510232 0.4123408432693551 -1.072340024379812 
0.3976645089882787 -0.07516533735620382 0.2161374713889672 -0.6871121702125643 -0.4459525380880491 
0.5642265971505809 0.1032885385507417 0.06493144054079319 -0.3948793118623823 -0.002710743477538816 
-0.5185592237592094 -0.07187563188250615 0.1252694815012441 -0.1969642505377845 0.6978384674749992 
-0.2007401635375339 0.1749459942030321 0.1465159851635991 -0.3558329867897769 -0.1599632089537678 
0.2688389603213131 -0.09642537420176187 -0.3918704929199502 -0.2274260101831949 0.08045982850206408 
-0.5408489099710333 0.2771573144043711 0.3288594510203725 -0.1028536117132097 0.4838753850691644 
0.4053420310212366 -0.484223862947217 -0.3936108185609634 0.2294189132600589 0.4290721212166975 
0.3366986940577533 -0.04199542972539398 0.1065632284608058 -0.6064120776459851 0.2487402492073175 
0.06309277838833163 0.7700002894882028 -0.526326217457514 -0.2390676318964653 0.1302765743771623 
-0.2664209745875974 0.181526880066581 0.4335852430043826 0.1078145839645742 -0.3737015128513075 
0.05672951379982343 -0.08051989744866284 -1.103767480640355 0.9906010179455227 0.08690298193556231 
-0.3025894628594005 -0.1691538552729508 0.06275047404521297 0.2779924345334643 -0.5983958989175846 
-0.6704433502193309 0.3971505172126197 0.2015359739447689 -0.1075633925487768 0.2317389219570251 
0.3674058397221752 1.073767417723669 -0.7254423130384196 -0.04726086009459531 -0.4587662012031015 
-0.7269845499291496 -0.6992981456142585 -0.1624683880291551 1.316390420476356 0.4962686581749365 
0.143539647915567 -0.4965201516203555 -0.1062868959814593 0.8394301565381347 -0.7296174239476289 
0.9698101098255421 -0.4354889258918307 -0.1332162783828737 -0.3984063239291364 -0.3256873832826828 
-0.2854052526486571 -0.2790987982492928 -0.02460250830259158 0.1453542493145886 0.3593226056877968 
-0.07120060598827348 0.9130723446820848 0.1214039280942188 -1.1809618009189 0.6652778869874938 
-0.6027359045180798 0.3851531160584843 -0.2827293717712226 -0.7561547206947596 0.5278207523926927 
-0.1863487981716531 0.02497902204488649 -0.5428246310196841 1.147231509593595 -0.6526021292042236 
0.2228277703498201 -0.184692366422547 -0.8500896492641603 0.2798971504618189 0.2374672640190691 
0.6276030482455421 -0.6086614686747581 0.2726650140656936 -0.4966643710285064 0.368057471884544 
0.05110624382714569 0.08902570199042792 0.1951500743448542 0.2042561255151316 -0.09984413892427452 
-0.100571134227939 -0.062436194895215 0.2070808478054653 0.2925837132741704 0.03849381202936451 
-0.1626747405985443 0.4364462176321624 -0.5599073829931878 0.3310467028002195 -0.0740292546650495 
-0.08593760216410598 -0.7157856038625826 -0.1834570150416459 -0.03905242444825904 0.5839004800224119 
0.09033425865920879 -0.1831783968926741 -0.6006913452029994 0.01510867633022827 0.4518058371072344 
0.2787130621608953 -0.9257340322045543 -0.2716209051590096 0.8338995289136961 -0.5843454437579013 
1.091112288080914 -0.2867670190861645 -0.8530347055844688 -0.7298119342073417 -0.6463350967584984 
-0.5354783354752314 0.2677144380817787 0.05214292702764685 0.438630501727864 -0.0648102819387662 
-0.1367656756529363 0.4837294381379473 -0.7319557374442088 -0.2022143461780086 0.1899567682755495 
0.1335989520848736 -0.2722270171749668 -0.02895970166151849 0.007445465391447709 -0.06183621911350295 
0.8094167625880878 0.2484303130128206 -0.238874501242865 -1.248234960146391 0.2904415860859518 
0.4411004786220651 0.4008283223394477 -0.8679738476280535 0.3978823602834857 -0.6140733508718116 
-0.3347192277603714 0.7193713624369418 -0.3053818160145451 -0.1223959828773455 0.01264858355182024 
-0.1691743503817005 0.2559426172031767 -0.007049310061681979 -0.03393886239411087 0.2247792131745788 
0.3657248893132294 0.08317478709642545 -0.1894065749492694 -0.1401862222521628 0.0296273568717329 
-0.7212935675107488 0.02312389980384263 0.02977187261703202 -0.8238581062015136 1.388044027827455 
0.6161601438537121 0.1256156895171411 0.0604128524473343 -0.1518899461502788 -0.07104702995776191 
0.7970741084034125 -0.338902953464821 0.8896742974527313 -0.3268276390634631 -0.5870189199296586 
-0.4774199322456599 0.2587867094260059 -0.348065317922948 -0.1265833328409672 0.2149039336836022 
-0.4871503209169809 -0.2126787495218601 -0.3878458963632218 0.3563300187145691 0.5257658836629152 
0.2357559927680539 -0.08924965472709168 0.3398355424586642 -0.2591033556904287 0.1995069954591462 
-0.4770797484793464 -0.01932464856454627 0.4610298871699017 -0.232422430488967 0.547862721948928 
0.7213900235592882 -0.2380019106166597 -0.06906389628457503 0.5645714603578235 -0.6328939288538588 
-0.9433206844896012 -0.5879770757144219 -0.8644162525710105 0.3301689164401492 1.041506288247516 
-0.4201147166017344 0.1807371003194432 -0.04488240099962926 -0.5696161330079701 0.7011800583246168 
0.1889762985333393 0.5524871188821863 -0.2259457396296922 -0.1538706174673748 -0.224217480122046 
-0.6379250048630185 1.101024183665082 0.3814942332828873 -1.234557845451756 -0.3217715347121337 
0.2281903837470186 -0.4808141196095146 -0.2536495513338066 -0.4158866079353666 0.4523790354485893 
-0.9382332479749842 0.9270716246448375 -0.2105372690570388 0.489082043232911 -0.02028448766617453 
0.515337586637856 -0.9611376386385939 -0.7731893043282276 -0.1350152758799296 -0.2983506369303025 
0.1795179234249237 -0.3286810208786378 0.2905204325899823 0.5974988405682297 -0.9002146341529301 
-0.6276090873925508 -0.7746436619968609 0.02348224666283801 0.4096241162299096 0.5703733652391019 
0.3968808150323928 -0.3049234868610468 -0.842526212888616 0.7251165301669386 -0.3108011980418209 
-0.636262525417892 -1.106693213495429 -0.03139126661374479 0.2731372660376254 0.6758599030505645 
0.1076648974540266 1.230974658967857 -0.2341631958845895 -0.9350912169308256 0.1489556370419424 
-0.1698319526730299 -0.6339543289274772 0.6184909746910563 -0.5002320063648377 0.1746012752131109 
-0.5960477644119061 -0.2260717646964669 0.2450175271531463 0.4690250725076952 -0.4966039640161378 
-0.1475596878823249 -0.3254947345301689 -0.7548397025261736 1.133390355048425 0.04806768155988255 
0.08573619180032385 0.06635170291008922 0.2399880088779269 0.347833896713384 -0.5252963570089242 
-0.1962180214753936 -0.4908121730019775 -0.6534560709892623 0.6889380724438174 0.05981327917917766 
0.4811463788271613 -0.5833093599439504 -0.2100024375742218 0.7041880053754116 -0.08854870857480365 
-0.2645987517280795 -0.4692705082909738 -0.3543124918673883 0.06473929225832498 0.7042739075279779 
0.1334302780972467 0.06166113262028546 -0.4440531218380938 -0.2802573718010232 0.510870557298071 
0.3054090841506489 0.2065262693911086 -0.03981820346790187 0.2088739885329135 -0.7476953767448642 
0.0765249543839825 0.5965469823543933 -0.1181119369513269 -0.5191287081179968 0.04599229128606935 
0.2544252775311656 -0.9806414435334171 0.6118816698002258 -0.6109982693650982 0.7175802464513343 
-0.2458850716969196 -0.09912469439810122 -0.2569771449459181 0.361251097927951 0.0934517144138101 
0.6059138756211453 -0.2642475535587962 0.1677742821083354 -0.6788602972782287 0.226491143973325 
0.3945862052790337 -0.1031736698446204 0.4217239705077134 -0.3637472936185301 -0.2144315222541508 
-0.04196810834508313 -0.1557820316912716 0.2724700191002707 0.8261088310304313 -0.8168940495997391 
-0.01497132554252962 -0.02163495552565868 -0.3173511580435405 0.163468709319325 0.6624838892993894 
0.1420250774186825 0.1670083309491004 0.6159009726307789 -0.6333516658852327 -0.3774315594704812 
0.3280514412568916 -0.536714684599061 0.3362429608806041 -0.2236141793402711 -0.0200257983710279 
0.3518645546924621 0.3244065365093898 -0.2420890632481343 -0.3853153459280811 -0.5448409566022737 
-0.2740157336533207 0.3088868723060662 -0.203405654694338 0.7866382747432321 -0.4465137914517996 
0.2103709141368496 -0.4809510657053413 -0.2223297005475625 -0.2723161351390997 0.330495105257733 
0.3587435713903952 -0.0393246600982337 0.2905698117058952 -0.02330122303425387 -0.449396385704637 
0.3924561726650665 0.2880430060812106 0.1431436960576383 0.4605668617776192 -1.081351260284186 
0.357363063999957 -0.7112157953254374 -0.4486209433162442 -0.166432744311466 0.7108206655570469 
0.0674155660164453 -0.3033461667769692 -0.001487413534085929 -0.2425244886441827 0.04432396291096301 
-0.07816529274156465 0.05538374639173214 -0.6384884196579087 0.4042021384548866 0.4853560204256776 
-1.091708599317881 0.6660251365015335 0.6336250098992056 -0.06215388328826462 -0.03015325404429202 
0.1590746562300407 -0.4024961618267328 -0.2646311178362249 0.4461702251972492 0.1133208634905389 
0.4946550748277679 -0.2489938151665264 0.2351833217233773 -0.5148877594679113 0.1204792698723389 
-0.7807402107245369 0.8291567707301639 0.4292582215889004 -0.1711382087255735 -0.9809089547690766 
-0.8493903748862525 -0.4166056934553609 -0.2424184567061674 0.6304311760068974 -0.003603954894826039 
-0.6322268597813333 0.1113542852192169 -0.3100458534613493 0.159485769069945 0.4907357189936091 
-0.4671269231540734 -0.04572145612875478 -0.1310254596166901 -0.06264406819237511 0.3535506441992919 
0.5888232372348043 -0.24351630202342 -0.7582966569338706 -0.01150240622565882 0.2002798056006079 
0.2287790968208348 0.1727240584311702 -0.0885742054735919 -0.6890852939480222 0.2041524025131795 
0.4987399170431762 -0.1997199779034498 0.5809755959742333 0.1271057361110954 -0.7027174725848179 
0.5000160228824314 -0.978851644783577 -0.01057869435034372 1.081707246282658 0.08304821642682021 
-0.04377215060377537 -0.1729035339724603 -0.3911688830176972 0.5303431289636749 0.008445459872561074 
-0.5234687835218093 -0.371548551085338 -0.1771996615935404 0.630876722152251 0.6626967653411843 
-0.2940217783735439 -0.3254829777187945 -0.02712315432926469 0.01773672424358295 -0.07733810994178798 
0.6735297685456808 -0.3833141018572045 -0.1341479509392507 -0.3356793788168128 -0.0617348153024804 
-0.2448116597684809 -0.255250535393606 0.004120463836607496 0.03670724264679977 0.1502733426067617 
-0.2491989453008962 -0.09903977397419542 -0.2596845712983624 0.5897738568655174 0.1809963745462634 
0.01716859664055017 0.004309226796254407 0.7276565767548083 -0.743810509256261 -0.02213771089359877 
0.7500695512487051 0.3473925628143768 0.2952083166780595 -0.8453183149517366 -0.8773001686821056 
-0.009414132142972129 -0.3799002604164256 1.084422051755602 -0.6171115274913279 -0.2384595223836835 
0.2448158603795734 -0.5842076006122702 -0.8172391085986753 -0.1569981678805873 0.8066627877003454 
0.2870658069247121 0.316584088663686 0.6671613490051279 -0.853906717223214 -0.1342459132630992 
0.3796106819063777 0.08821902403429993 0.05075676563440028 -0.1892181740544596 -0.4874625026206087 
-0.3555967165295806 -0.6579648455314411 0.5478103741470703 0.4430527866256176 -0.2356104380158623 
0.5457600571254682 -0.7446339745947241 -0.3113027425907751 -0.6201606344334664 0.6217471006498584 
-0.4463728263652897 0.5633590110632184 -0.3840269928157636 0.7030055294671557 -0.3552445655208512 
-0.26007138848814 0.05085132156020124 0.2763407219495519 0.1251120641504662 0.1796330665158296 
-0.02671351466498923 -0.1650699295274871 0.4573329828031095 -0.1978333378644815 0.2215049311275903 
-0.5560827620301136 0.2468514163599728 0.05200475540903094 0.1196676549547796 0.3231345120148293 
-0.2713282583701795 -0.205425171113614 -0.2829075870052326 0.1015340206962203 0.4267725363065111 
0.4598564641036085 0.4169047357242592 -0.191689134851093 -0.07275193026112226 -0.7803663739834266 
0.5043441989550108 -0.3385298705469522 0.2522057341864942 -0.07109178228765753 -0.4148532359905392 
0.02449539626393293 -0.2277730317024397 0.5758414732241806 0.3148065005777149 -0.6939580559732962 
0.2689957028139389 0.7263168979852606 0.259980056228433 -0.4313407769119744 -0.4255800754703864 
-0.1563733927198436 0.390763135940747 0.1493208574316616 0.2837465136519403 -0.3757668211194335 
-0.7243352033828783 0.4752872475743047 -0.5303135187552329 -0.01426472086116682 0.5198401992901565 
0.4935831858483617 -0.5640126260671375 0.2495686906708182 0.1758649685598323 -0.09026290802541309 
-0.3569733851469715 -0.0519026902910804 -0.2429674632000887 -0.01474797179815011 0.7174284007463729 
0.01168453381235434 -0.2068980315347721 0.1683459714978079 -0.1445281027288426 0.3155257327774129 
0.08772834792169625 0.06870159178686894 0.225193976162401 0.1180105452864634 -0.4254935681224284 
-0.01830440262254175 -0.6409643799023957 0.1387668044661179 0.5694301461574717 -0.1072493534849244 
0.3537300420559635 -0.3709046127806729 0.7634697586404172 -0.2650825685786384 -0.4712621778216014 
0.6486760687387194 0.1635780834835899 0.503150077336345 -0.2962207113995114 -0.7044656935520839 
0.007194131304055593 -0.4838236344477307 -0.05301956435278217 0.1107975305117891 0.1095833352830367 
0.4297631765187622 -0.3173195574027149 0.4369330882427787 -0.5925153997039447 0.07196147708362302 
0.3527419482827061 -0.4558646418094484 -0.6198269087138373 0.5496253679777348 -0.03482414199736668 
-0.3087001523583199 0.2897609304545047 -0.3354245067871146 0.1154696419202452 0.3277841864121529 
-0.2895910866506504 0.163385719161985 0.6478933454204151 0.1318317541789517 -0.5293128057931664 
0.1071476596204981 -0.1139691072026286 -0.6497233406545233 -0.4998832670264683 0.7350092073938578 
0.233560557288127 -0.08179716587741542 -0.1573576665734811 -0.7954243098758633 0.5779629349880777 
-0.1411648468359172 0.6740380580035851 0.1330852407809373 -0.8169538293153261 0.5832952944961833 
0.1557848386419098 0.6266331181712245 -0.1599601703351514 -0.3831217272432675 -0.5744877117674079 
-0.4468034038219889 0.01245523659045263 0.2338780832005824 -0.01368045440877406 0.1766906628304774 
0.276165895305025 -0.2034268412912416 -0.666853754970787 0.6002523409002369 -0.171023449643996 
0.4090925654086878 0.08691844996938633 -0.2852404537453889 -0.2695185006247673 -0.08327230550752808 
-0.2382725879233098 -0.2690786934648778 -0.6878419472036155 0.2085377917968808 0.1279594450452102 
-0.3058567150756646 0.6377134008806681 -0.3252582363589378 -0.02341746450251195 0.07214318162891972 
-1.529268217569141 0.1524254932547143 0.4344370029181733 -0.290390806091055 0.62019246663463 
-0.7042731327521536 -0.03862681044172493 0.3219170716941828 0.05516933351693827 0.02298339984254091 
0.2182156905354699 -0.571626262419609 -0.4231159646881411 0.1928757658356572 0.8681290536448519 
0.4984921380846291 -0.8351418204533735 0.2343712448571346 0.148665803235922 0.1775628379331187 
0.8057937240931481 0.2480601590803562 0.4656764140464228 -0.0006986537680014303 -1.013231457250557 
-0.05393181339065693 -0.07534877580716864 0.5378075706175842 -0.7823504096949959 0.1919655387427438 
-0.4743731389628437 -0.1657843254381515 -0.4437972528898222 0.2969927076434969 0.8390164413401803 
-0.1889335692166752 0.2872072786329963 -0.2052759429768436 -0.07127308678431539 0.1545038800736979 
-0.4530578978832851 -0.2587984437740041 -0.160378333412432 1.318581944153281 -0.4661264270250358 
-0.2818455792871715 -0.1194255560225743 0.205834736168265 0.3577264629383258 0.2752155206583233 
-0.9479486938544996 0.5410852146374602 -0.2955325502613277 0.284131663820834 -0.1335203627092508 
0.4163142565093284 -0.05330629460969762 0.4058122873438602 -0.3849711750639949 -0.4443116607782619 
-0.09760679932606761 -0.348513835495968 0.1474153586566978 -0.4051821150783179 0.6243243120516925 
-0.2085921426594541 -0.6026971860349373 0.1476968317232058 0.1159339591889665 0.05416365701801795 
-0.6194073988836497 0.6840125187012047 -0.233420059942265 0.4127017055978781 -0.6560015448877827 
-0.8667799831384159 0.9471370743507224 0.1650857813797703 -0.1018260508595709 -0.5068181124221723 
0.308585774962517 -0.2765025804312217 -0.128404081475107 -0.1931899771840984 0.1149734438629106 
-0.9979554922206378 0.215875438828909 0.1084596283939884 1.153042327129836 -0.7762975664678412 
0.2320651301810341 1.117673612392477 -0.6191451488200445 0.48014675061641 -0.8765097170063496 
-0.3186140446819116 0.1216607947362321 0.3185014687156449 -0.4013298876198482 -0.167145740025407 
-0.6830168283695066 0.08027604060636434 -0.664650551057174 0.808821721708097 0.09455958761939955 
0.5030178561790559 -0.6077144717967853 -0.3627865835945358 -0.7358630514110278 1.402142583990226 
-0.2379976673911353 -0.06516453684690923 -0.2027035404357986 -0.2538324731801069 0.3583372598782215 
-0.1386695360730741 0.0658305838777614 -0.330820878482131 0.569260216040979 -0.1898235015347104 
0.1253533782069686 -0.1302564751322177 0.1822561593157606 -0.6687736596905836 0.6715903515189816 
0.4500565854037911 -1.159700677104688 -0.4577158309793702 0.1104199840139755 0.8942231609888188 
-0.3843293463575337 0.4360198500343483 0.3051320472866336 -0.0500367676584514 -0.462293259217149 
0.5038071667205433 -0.46361313758997 -0.2989610792286319 -0.102972766333808 0.4572787802599707 
-0.5104663539880253 -0.3460384197947241 -0.03442490500784417 0.5346909356071841 0.1098197657484385 
-0.2262045952011857 0.1680138504612104 -0.6092976531104461 0.1470618061981585 -0.04404219810357307 
-0.6163865840556938 -0.003092080376252423 -0.9498797222220848 0.4235435233540069 0.1472086420922267 
-0.3858845184842228 -0.2679694603827169 0.2945759268290787 0.2855246368777893 -0.226970110706694 
0.2713500111218925 0.5760610290418353 -0.3308445880516335 0.2831378186521784 -0.458150456205433 
0.3996845688849798 -0.6444379728806691 0.2601320318972901 -0.3472925663855415 0.46989930982344 
-0.003345449505486015 -0.5527001583126299 -0.02912745660854352 0.06357315516217595 0.06342530959515853 
0.07668723389895056 -0.2103431184937724 0.01510759893530106 0.3565618500571885 0.2300775282694299 
-0.5877875706407735 0.1274252113896394 0.2423235120988885 0.2395944694583663 0.04345275270078425 
-0.1538121158790426 -0.3232754332183834 -0.7641296746437114 -0.0436924663678734 0.7729407144176084 
-0.5079044734933975 0.2791651204311713 0.1540170786835077 0.7560660034950802 -0.5600243476356371 
0.02464254050426355 0.3161891805833505 -0.07480635364928725 0.113022145750371 -0.09192743312186853 
-0.6337199997960986 -0.5337874945939823 0.4279538869633404 1.154947532089725 -0.5182450008897427 
0.1157443687983633 0.5739862220897675 0.1525214956136148 -0.55217832202648 -0.2272016418240348 
0.2354675054005479 0.8215138466846728 -0.4791810407778404 -0.6517980362831926 -0.1197754761771477 
0.0003653975904729032 -0.1783206230732117 0.6586177975770181 0.007080639204403723 -0.5818372154750957 
0.6436773553712767 0.5514473868603046 0.2885719758881249 -0.4320981655264545 -0.9188309378931899 
0.2459882008847525 0.3618790280012298 -0.6816319987229471 0.1513918241846972 -0.208113403267758 
-0.1336652461120784 -0.7378468152540052 0.5426449587425985 0.01272163330407176 -0.3099727192961645 
0.3416567541540432 2.411832557775256 -0.3030519282851674 -1.032186591654253 -0.4457681175068769 
-0.6363991344999325 -1.311350753379432 0.001595605013211751 2.358990001140826 -1.536030863716546 
0.138503860958106 0.06026481178981378 -0.9043470073894312 0.6982262271675106 -0.5487449799691078 
0.3317374679293638 0.9161727285127382 -0.02228757943208283 -0.6672251553762532 -0.9814584704815306 
0.05216080996603299 -0.04013743551256623 0.7709695006659438 -0.7387276056534485 0.1097484641913298 
-0.3240672359557479 -0.5150589263962642 -0.5397169068091027 0.3382000814927914 0.1037332239542736 
0 0 0 0 0 
-0.5661133496054476 0.5537227908301207 0.01057666029790916 -0.9849522651510623 0.5991455019709221 
0.8318192939817338 -0.07841075883248284 -0.3313535765630504 -0.7332469643060813 0.1737388489374156 
0.03365697183307756 0.30993203770341 -0.3509817875108694 0.04796437820468091 -0.4190683745735436 
-0.1170846592381704 -0.7352912176541231 -0.546510751307641 -0.3450033347426665 1.468161594268903 
-0.3906103192148764 0.09791424403532756 -0.2175994952454894 0.1445121996076925 0.2757586486323541 
-0.8699132093113839 0.783066474400957 0.6350576742592735 -0.4909769062448873 0.3889204538929206 
-0.2055683873047111 -0.1624815081537793 0.0572616711748094 0.2063165393582121 0.1797410614488403 
-0.3698287364914165 0.1366613991751768 0.1138510315604323 -0.0006565008034514139 0.1139983177649395 
0.5760046622471631 -0.6886791182571848 1.077285590297068 -0.6722886631580129 -0.5225856856189957 
-0.6658360610293459 0.08870568300017995 0.07193857050728261 -0.3824531952065253 0.7868216053711037 
-0.1950270637403179 0.2987578069120671 0.4664847431671882 -0.009818846722042264 -0.539947802568739 
-0.2642994886833511 0.1045023713964794 0.6331075503134125 -0.3347519877684769 -0.3382870460785548 
-0.1554459929861995 0.4973933969072205 0.6636888108784483 -0.03559263352476792 -0.7064756443827463 
0.5572532029514348 -0.5101982785908792 -0.3747621782642051 -0.3391299227130807 0.4173623109169782 
-0.001545876736904827 0.3290635652049931 -0.1826675265430654 -0.6095076739842732 -0.05425507169578397 
-0.1561244007228061 -0.2721436036038977 -0.5316955520169118 0.8031748763527335 0.1045439790625857 
0.3492553021664878 -0.8681212137095814 0.5345027948561278 0.184022548761218 0.07371599055220752 
0.2511945241820432 -0.02278277672942171 0.141647426990277 0.227351439162883 -0.5958718515109082 
0.3560919555806881 0.4112484644658899 0.06246761090677427 0.07435054730791678 0.08250566549296226 
-0.5526345441626173 -0.1174182944973696 0.04938779479017008 -0.09592478819399981 0.5189560920552523 
-0.6104093447637573 0.1991612183714049 -0.3459273252271234 0.7734498553329905 -0.5597681723851163 
0.5877134788557368 -0.1206141946346267 0.3977620607964296 -0.4234847581134697 -0.7727127665753809 
0.6246583192677236 0.2382555188093519 0.08311786380993813 -1.131132423708567 0.3071162794235002 
0.4288334193901472 0.1201974038865037 0.1727099727970218 -0.4147868793481932 -0.411664326059791 
-0.03204493787202065 0.269688043425674 -0.1717831684046865 -0.158368144834656 0.3802070201448469 
0.4345678633116742 -0.09828241202566113 -0.6085026014816918 -0.178271544927998 0.1519175395558989 
-0.3902907117284328 0.965198146971418 -0.5559601238847391 -0.3643912433975007 -0.5313368175583112 
0.1824530338771152 0.4870270915642435 -1.088313501828747 -0.3433221134425692 0.2513865133226496 
-0.1965129440662677 0.843697998438442 0.04924940206357073 0.2606880207658423 -0.8561499418108234 
0.2337336776781696 -0.6188231114336784 0.007615791408417451 -0.07090033178753628 0.3998295655539021 
0.8345617633105411 -0.007546761305435835 0.347512381959613 -0.3882402939275485 -0.1867077059405636 
-0.3417227689185747 0.7436188198354104 -0.3256022574045739 -0.04265810419120905 -0.4237244223202133 
0.3251484635090655 0.211625164119597 -0.1229253784007325 -0.4967147000847168 -0.2259553710978379 
0.319819732421612 0.2354689082196674 0.1665126954743658 -0.3508680405494167 -0.5621868129597847 
-0.3169912887921462 -0.1479209991739582 0.08111451750602858 0.7039318644628461 -0.09435427502380643 
-1.02465705395538 0.600951019022064 -0.8256567381965568 0.293322088528275 0.7865466648829368 
-0.2047747809155687 -0.07675105598583279 -0.1156683407395906 -0.08588271379331393 0.5290213614671611 
-0.5964402861356104 0.4293790952077824 0.7919983689546268 0.2554604891456856 -0.9498952165968245 
0.1503820089889852 -0.1337923123877733 -0.1390963797251072 0.1852579546811847 -0.6649435823928729 
-0.2102191076527455 -0.6116566751439961 -0.0523287175897425 0.3225750648572071 -0.0989091549785715 
0.5315319608174536 -1.251464566338471 -0.1418792561671813 -0.2694649875076036 0.9087795835734285 
0.01205509551056448 -0.1494447618325293 -0.4588737178533343 0.05827875938195039 0.7300664878188858 
-0.001025110429982837 0.378905976286207 0.007054261177336767 -0.236508616587093 -0.07076007701733886 
-0.2667615474148069 -0.1965488272599006 -0.44629052265685 0.06039620161871546 0.6213513796405564 
-0.8009826116711239 -0.3086664298830889 -0.06741918846823018 -0.2343640530016483 1.093738476406058 
-0.6922531573685061 0.05511598895093327 -0.3227853212146521 1.007648005200347 -0.1650993403765468 
0.1877237188486054 -0.1628473164236205 0.2189756943513579 -0.2162525194706675 -0.06442845995920846 
0.5459173253687504 0.09579392046778917 -0.05048817110416692 -0.5940536202563316 -0.3789860790743995 
-0.111779165596319 0.2459732918813846 -0.3562263579663652 -0.4352060882251873 0.4982432328341372 
0.6068194274745614 0.2597291891742138 -0.1976525679128336 -0.2500491732328133 -0.3644449594631103 
0.9154995827247168 0.1138790330465525 0.2559805523637971 -0.1003012403699293 -1.039029214628421 
0.06199701143055726 0.6240368888376773 -0.01451978484217481 -0.2956127104322842 -0.3139112633754884 
0.06323415942910778 -0.232050918574519 0.3460575023558847 -0.6041171151576097 -0.4632337453215411 
-0.2174924000943865 -0.2779266744482513 -0.3763045577712623 0.7554284887156302 0.1525537941309534 
-0.2763276599784764 -0.5308015648930169 -0.6150959840391959 0.1275903400858128 -0.3343703950682593 
-0.6453147095164538 0.6340313307715635 -0.05845537696381159 -0.519577715868379 0.4175511196500086 
-0.6604150335711456 0.08484960799420839 0.6076712190728264 -0.4591045204607712 0.05586994879581361 
0.4067090343853565 -0.3417854779930055 0.6252439311177189 0.3275955984303461 -0.5921501206478064 
0.02724491369287528 0.5785324850727641 -0.0593850392205097 -0.2690419901750276 -0.1187863686622206 
-0.4164578877010069 -0.02509682009444522 -0.3997849630284275 -0.2270486135659524 0.4045658843540195 
0.6906244995118301 -0.3288163290664141 -0.4083755266439001 -0.4343260460212592 0.08980759630435951 
0.2507449183483335 -0.2870980512385812 0.3930375393946139 -0.2466447663173554 -0.1821421337436132 
0.1059195559620039 -0.1089072084720684 -0.8480438444655805 -0.06502059349903221 0.2537340062411071 
0.05059478473091422 0.5047825087219334 -0.2144681427162955 -0.4739928315325183 -0.005699921735448229 
-0.0107848254262396 0.1309805288099775 0.2430065642656543 -0.1955660212002142 -0.1114492555127734 
-0.009056612591721074 0.2300024548041769 -0.2391284553309903 0.2609390040021594 -0.6133324336456878 
-0.03595622275533034 0.186045394035916 -0.2115599204588273 0.09100525009958695 -0.08778515860733818 
-0.0004124854826186228 0.06222526206319673 0.4608894284638002 0.1444348658510145 -0.5221958725837038 
-0.4896710536918233 0.3981423904203368 -0.4066458953126366 -0.3585594995619332 0.1027703660732796 
-0.3272743524947414 0.06543637847633078 0.06530691688091947 0.6060208893763513 -0.8218725474576019 
0.7912420817280469 -0.4649502507713765 -0.2431141067347055 -0.3224499429461914 0.03013033912444352 
0.1480116633606063 -0.140646202360381 -0.1269725624093685 0.002510332990084171 0.4989559147769457 
1.361829918921193 -0.6554476035759622 -0.7135548347424489 -0.1338055593499598 -0.04476768527905757 
-0.07577959568988772 0.1331682880622224 0.3165711784007851 -0.5104492246217662 0.3254926728853913 
0.04098256902496112 0.04908711493486248 -0.3068306515929026 0.212430694308786 0.1613336700202869 
0 0 0 0 0 
-0.09228048816315369 -0.4688895206090357 -0.3410591555715916 -0.01480514531696342 0.4393250846170751 
-0.03480387444931783 -0.08905403311697452 0.5823433157245516 -0.6700361830126901 0.1730815562640876 
0.5724429581462355 -0.3009673203643999 0.03087210659935 -0.4557987577213717 -0.05706600656677197 
0.1671346513760071 -0.1826697355018993 0.7837977684979788 -0.465691914026092 -0.128977360647123 
0.457176697552703 0.121910154024247 0.08976996565317624 -0.9590902607709855 0.5315745347949123 
1.038340993001287 -0.1203319357772826 0.04035832046772287 -1.130834084050243 0.2559009463571512 
0.17729493549603 -1.23550813983917 0.8118397705743921 -0.2028823337505496 0.09334710422585701 
0.2333239065487266 -0.02354707187343788 0.3094572917577851 -0.1170106587153745 -0.0521045049786894 
0.1917564927741411 -0.3019085034687607 0.3528800194531688 -0.1708291240984111 0.1652748083385001 
0.04810503449589168 -0.2860643235854504 -0.02293082210816931 0.2758347795699816 0.3357169192658347 
-0.5404899665318982 -0.4760902357348796 0.9331208162689045 -0.4057829201814424 -0.1760485863958218 
0.09803356949682512 -0.5342243499957621 0.7393473191062152 0.03075965205072486 -0.2543538385634667 
-0.2451032302691843 0.8029058588766581 -0.1883401752849287 -0.7656317615529007 -0.3500279764204964 
1.123577300180724 -0.472333468355896 0.1273852963599468 -0.2736027589440814 -0.08824351788039232 
-0.2881219738941516 0.7589385037262339 -1.114698496000165 0.2427421378031662 0.2609223767421889 
0.539538906055413 0.2415984938784192 -0.360181610704699 -0.1020210904849596 -0.1411155638794566 
-0.1265904785252397 0.05658710606696246 0.352633341882221 0.01320877102407832 -0.6902433476966257 
0.2354117127809774 0.2757342717068821 -0.5587658352706054 0.001770826011932139 -0.8236665929276374 
-0.4052593623994007 -0.5117851480214034 0.0503348234952394 0.4876476788835405 0.3672504825323504 
-0.09532563768291633 -1.28185627574172 -0.2950606510406062 0.1035773164883706 0.7653000245522317 
-0.4500489720963609 -0.6194034855514887 -0.03716487703464028 0.8774750425142925 0.2138794591584487 
-0.2839740500661081 0.2315582744631672 -0.9681426733750036 0.204587042898715 0.6097658953307026 
0.177073877960801 0.136624688468752 0.2298172123182579 -0.173067876535791 0.5756453287152213 
-0.2779674480113026 0.4637460617409837 -0.8285273275820149 0.5104771264545398 -0.4594987549931248 
0.1428602476327044 0.7131657605606897 0.1306354097134073 -0.4131363451974243 -0.9003905824017756 
-0.3938129601152803 -0.102535594117793 0.6285021909466776 -0.02418830778555476 -0.1739480061049936 
-0.9291092801188745 -0.1751643647822907 0.3286055744802001 0.5468451008414292 0.04180773954350784 
-0.3295575890393576 0.2245212258573448 0.175965964877092 0.1199078811849851 -0.02850218870068958 
0.6316794545015944 0.1139478986426453 0.3404506951103917 0.05583231391004307 -0.4295703364670218 
0.3766222020774742 -0.06724259555496409 -0.01792044525888609 -0.8698604614894884 0.6846363706150813 
-0.5614909226106871 0.05837170808412193 0.3672366702142933 -0.3046414555069882 0.3942221461876662 
0.4809902432766504 0.1893553921237517 -0.4795805033976824 -0.1204752423021868 -0.422553159163807 
-0.1289070897894412 0.1634314709230927 0.05832213826928588 0.3692914935580346 -0.2325298643403847 
0.6231906799674047 0.1403703038533565 -0.4837980123212542 -0.2361860618364927 0.04380192386379669 
1.086140359915809 -0.7753746686373995 0.1601184854752113 -0.1281644489602924 0.06108635467825423 
0.2696790207359012 -0.1078952021760797 -0.6147878780822557 0.2480674859938243 0.3356500072858487 
-0.1675695325649539 0.7338645629029911 0.2141334217041528 0.07634977860853512 -0.1643306080941608 
-0.1187393190435878 0.1147362861093302 0.7536836958013552 -0.4934188270790619 0.1642505978313645 
-0.5218769447316781 0.3963565630426671 -0.2379779206603092 -0.0353365785646602 0.1334092386634861 
0.2812486658611472 0.03787638407418265 0.2329695483989601 -0.2300117839301482 -0.169333388868902 
-0.5956906072458893 -0.2949799995130624 0.4324204970134912 -0.3164442065501717 0.3127902537821106 
-0.6138456191993167 0.07460214498315321 0.5637044258792786 -0.1522476518829716 0.3116574864475796 
0.4628855406419299 0.2976793401123525 -0.2333044564402129 0.1645338009643975 -0.5414595641898656 
-0.5915885414139196 0.2627299965780047 0.1535745791156532 -0.005703734860738583 0.1647625465645307 
0.3343173144151786 -0.1463374052850878 -0.6240781626989554 -0.7305445045131176 0.4156651609726602 
-0.3483557948985765 0.4087740930211885 -0.2861560423222679 0.4063383221914196 -0.1324978354966021 
-0.3446179100901478 0.1191113236521372 -0.1879942872095008 -0.4859056708414501 0.4034261382294327 
0.1025149455959132 -0.5695244114283884 -0.02710272375111923 0.3905277421105748 -0.1153759146655786 
0.3213936125371026 0.2328077909668712 0.4923190431681072 -1.08410890410696 0.3663366623796712 
-0.5865985027452398 -0.1504419770028555 0.4299271142555216 0.2989037890218634 0.2362974977405 
0.9885429787089202 -0.5259054390525572 -0.7241057787309285 0.7359330215877308 -0.4204952696078486 
0.3107366590139284 -0.4661994048432864 0.8411158097418581 -0.1942412288811325 -0.4417622236889708 
0.3112585429926997 -0.1840079781250691 0.5635871474437122 -0.2716888240213665 -0.02009626850644875 
0.7122871856875039 -0.4739332178931039 1.191802414304187 -0.9993249542445241 -0.5079744579057087 
0.3580018607284756 0.0621730248786993 0.08153759273618234 -0.2955567333333549 -0.07416139645586717 
-0.09320866844450203 -0.4717996904384881 -0.2268516202884956 0.1198620541595325 0.839144480502517 
0.2916107160815431 -0.6064118571536388 0.4543822162031995 0.0856637783093266 0.07770372714501091 
0.7986965622853762 0.1483331066470299 -0.5814054183833764 0.3167024941169232 -0.9187407724716014 
0.2356067252568623 -0.4071680149802722 -0.7828668003046052 0.01238040053367176 0.370696706160268 
0.5475401998321308 0.2450698455472015 -0.1332618656915744 0.5274359258768395 -0.9894668224652717 
-0.133471498420809 -0.1058822481843754 -0.4492618602755426 0.3726862169824304 0.1450181472151197 
-0.430275296760757 -0.2817082838012606 0.00293471325092935 0.4183597886615218 -0.1304968992215433 
0.5913641432903504 0.3979788266058787 -0.4542120493333174 -0.1395373761013474 0.0912128905917886 
-0.1534741513829703 -1.008278867488383 0.3465456701096937 -0.2430848404505266 0.9035591296429233 
-0.5308769896570825 -0.3235135328682791 0.3969904324180997 0.08462974004746125 -0.04138280357838563 
0.05426515689419852 0.3579533279215531 0.6103144587423637 -0.3333619388833843 -0.3331825713864638 
-0.5413607635970653 -0.3335464266404308 0.9305046979972795 0.2340980068398572 0.123849759443679 
-0.3633603120148851 -0.2217689656967387 0.5659406991476282 0.04753603630447557 -0.1044733335829968 
-0.241820488165052 -0.01848188064842838 -0.05801059878666304 -0.1069523597588034 0.4772440169967429 
-0.1040123445912083 0.1150609302387243 0.2839323245431046 -0.5954792863584353 -0.2468011069551839 
-0.4237760405670252 0.11611124476514 -0.5116553607286988 0.3159852943108862 0.2293744123147694 
0.1470314142278744 0.3202471153610654 -0.0583761834439439 0.0221583529387156 0.1243139894245154 
-0.1702856033433353 -0.5809846414754295 -0.04287015829297846 -0.01793935467149804 1.135153989365912 
-0.4904493458439617 -0.1118917735465459 0.3652163589670871 -0.4919667098594295 0.6234808570898767 
-0.600773138382099 0.6262467407082084 -0.3628412315010561 0.1992467092450818 -0.3744083485056666 
-0.7237565410465496 0.5160319387278952 -0.2830217777342142 0.6190668178261096 -0.35544515530311 
-0.09217981381791709 0.0848820682347988 0.09110317302627083 -0.158581002062977 -0.3158057904518735 
0.2852365803274653 -0.6050678449143773 0.447178405562906 0.5314425623728896 -0.5367335223877945 
0.6387552651481713 1.070060687573335 -0.8322538490630202 -0.4094056741805974 -0.515093593544802 
-0.2789245649805418 0.04916051086801771 0.06253727015152374 0.002667483034700699 0.4223664240256363 
0.3239536689126675 -0.4800623275556275 -0.3829848312434448 -0.1261159385389199 0.3455582601366171 
-0.6116225401337918 -0.2517478664224179 0.6256853975422438 0.06266829375722549 0.0998570845663185 
-0.08128002165395656 0.1848693015028686 0.1064581572296917 0.5038614389708768 -0.5422062730353884 
-0.1014132464437712 0.2106265562750549 -0.01259047481250499 0.2046001459377328 -0.281661798488985 
0.1663409411853788 -0.1103045063322231 0.4668273628500378 -0.3308575319543108 -0.0346067705390315 
-1.032549283298732 -0.1318849560319727 -0.1700552417079608 0.1227870815934825 1.183845293244218 
-0.1635986370788676 0.02937386575777665 0.1704287933471898 -0.1264787523610647 0.1367204416683228 
-0.4020855888609156 0.568030087705394 0.001707592029361186 0.3497121488044609 -0.2655758356803861 
-0.3774145511405129 0.1495447513566806 0.05334998967910895 -0.01467179306470748 -0.1372146927189699 
-0.4860258082029095 0.5689747504080955 0.2262399747500923 0.52197549607316 -0.3502204009702923 
0.3261292885206263 0.3679942421853024 -0.1789929383582968 -0.3100940213317647 -0.2548299870406974 
-0.4952060000443969 -0.5792305596805861 0.8213339512839397 0.3675681908927095 -0.2113588301730984 
0.08032379621372261 -0.2478859076400626 0.08454828938005217 0.2793469240095777 -0.7354986708034053 
-0.06398311349719887 -0.4202637642457228 0.6180844277484081 -0.6353786759067506 0.7928875224987055 
0.0521233481370529 -0.1178616136303612 0.9452351931437191 -0.2335877100996595 -0.3805898990934972 
0.2315956283964308 -0.2419377488154539 0.1588848864861899 -0.3854028094217167 0.2218414689841446 
-0.4790399063216975 -0.4156514243132139 0.1280745164724277 -0.005468154616366978 -0.04786910787892273 
-0.3018797045460614 -0.509951670736291 0.0294192340451194 -0.405417188230877 0.7242610748038014 
0.1656338384605806 -0.09463696095640446 -0.3821653771938953 0.8026123148089147 -0.4386396984680211 
0.4254671700519096 -0.6353523473200509 -0.2882969871610753 -0.3114977355378202 0.6265940853209911 
0.3372567222000946 0.628870157175623 -0.1191176363178117 -0.8559820667181722 -0.1735470773551397 
0.2820726632805057 0.3471611572532129 -0.1431140728692456 0.4372532190479248 -0.8119526304474889 
0.1775896744831699 0.1380728173815925 0.2330109281691476 0.1212735642877558 0.09611145756808673 
0.4781337746121041 0.4761151881411085 -0.1087616674016378 -0.8359349262144333 -0.1498365286338009 
0.1249614816465966 -0.3290274503158093 -0.2948150152308481 -0.3311281894855075 0.5175472515537289 
0.5564564328218633 -0.1944505186769389 -0.04420439077278242 -0.2950883089338521 -0.2321893123436157 
0.05022612132131556 0.5551790192614258 -0.5002169603620792 -0.08701028716069471 -0.2157138585417833 
-0.4421570012102153 0.2726369437826026 -0.4552505825756155 -0.6800415391814226 0.4946997195773776 
-0.1512690598729189 0.3706299824924629 -0.0114967656223626 0.1891002918242422 -0.2149435217734542 
0.2614344126299821 -0.3960587863659703 0.1454127245559336 -0.3010001590026679 0.0454981287717825 
0.4547248946928903 0.9079872433173286 -0.7500857302578907 0.07328136781914746 -1.14145060135003 
0.133189373225046 0.5501107125952004 0.2808094307771242 -0.571647648162085 -0.01930039221162822 
-0.1382769039818896 -0.5168358106084378 -0.5171355220143146 0.2332204868487766 0.3865611415160781 
0.1617826930525252 0.3272701981769011 -0.6004995766964497 0.6193343262849592 -0.1957519663957648 
-1.681801263062038 -0.1919759668225999 -0.2708036859113401 1.246667578554339 0.2379304341163618 
-0.1336343538786384 0.3760966314915676 -0.3431673502229666 0.2000866033249004 0.07196768513534835 
-0.1785314064517367 0.5494974263395338 0.2924152435911059 -0.3860301150284535 0.06391522495776382 
0.2401457883901607 -0.2505397880840461 -0.5955845094822058 0.4490728312269959 -0.1334410703965193 
0.4611923123409046 -0.03797844699622334 0.6349565350777394 0.2295615260974728 -1.02790777054613 
0.409607742034811 -0.01518443670545975 -0.3062808519171809 0.5218521458678577 -0.159104017724505 
-0.1464131350166317 0.06975107484438516 -0.9979081947151853 0.2173537592844118 0.3090193277062862 
0.3016196266844349 -0.1299275310468209 -0.242570851361795 0.3956398520408001 -0.2592238385397462 
-0.7814970678299551 0.4394205269267658 0.5819988710588833 -0.7854143508661083 1.171590242774638 
0.06306411936541501 -0.4062905749655897 0.2751033626664136 -0.246899135994499 0.5177047577496965 
0.3317420387653328 0.2640651638148648 0.07189205258208788 0.2684741298040139 -0.4558379810353302 
-0.08543104017687404 0.009666362548909261 0.2616111508168403 -0.4800353996600354 -0.3358989193914148 
0.4754982470153467 -0.2263639390873938 -0.8986889051968947 0.01262139162529315 0.4135507877380468 
-0.2517326713893813 0.07494425244873573 -0.291151614378945 0.5200140471084539 0.04328596187554901 
-0.2082070550505934 0.2585797558009383 -0.1299014845097283 -0.3838560007697508 0.6115928829520366 
0.2715507867416463 -0.1707931348899061 -0.8753983501991405 0.5979421310133589 -0.3019153778756735 
0.07869637811315991 0.1468009727165888 0.2491350611181197 -0.201235361320369 -0.08449321575354149 
0.3248388773334821 -0.7340173757718027 -1.40571920130643 1.216972684195238 -0.2218978234148191 
0.1197488979654152 0.3417681178806141 -0.3795155520398915 0.1632725589353026 0.1229634937112858 
0.9805185381228241 -0.5076384739221972 0.3235598232601234 0.2164051203443405 -0.9321607664754471 
-0.1243816862166554 0.5968801172544607 -0.1140969791216 0.4545688105748573 -0.6837154724376387 
0.08833050364959918 0.13670407973782 -0.4960845144696873 0.2699455237147544 -0.1403967679495514 
0.1026084799815165 -0.05992771886729911 -0.3398495381721564 0.2414314518708831 0.2191774419355951 
-0.03243809352185714 -0.7410811442193173 0.331771127767476 -0.1710228417252526 0.01822731795157263 
0.2427388339466774 -0.05337776997674672 -0.9377927714887706 0.4841053149869837 0.1467216489935543 
0.5385204288911795 -0.228967910902596 0.2175128002141541 -0.9293952194518089 0.429180857075493 
0.6136151959971669 -0.05069161722644881 -0.2257730584177668 -0.2350546251199837 -0.1145159579363918 
0.5753802256319198 0.2501506978764493 0.5890111181523615 -0.1994376539559084 -0.4388361894527852 
-0.224047708859082 0.8432379937197866 -0.272191486064406 -0.3163294275048928 -0.001524630597708933 
0.09255019706161871 0.4144576070160459 -0.09766413021745636 0.2453732930168985 -0.2518727938677348 
0.1600167911618117 -0.8941831843003761 -0.3714236894330853 0.6418092958545237 0.241556928912058 
-0.2482525821662936 0.1058736980871333 -0.7652550885695258 -0.4103948004316674 0.9040729317063524 
-0.5076410020161438 0.3688984154937878 0.780263285679013 -0.1984924363984859 -0.6211777678816816 
0.03366429958212097 0.05559809898272704 -0.1245738782012745 -0.002455587897965107 -0.2469346521706175 
0.7605016993521994 -0.1310241288719716 -0.06399961317477378 -0.1949130532501138 -0.2979964768045947 
0.8613497862628305 -1.068530710424265 -0.1263133509286555 0.4647226184569488 -0.06317926549916413 
-0.5152828523762963 0.9823479070555059 -0.411112242690902 0.1642422889934869 -0.3495149691746513 
-0.1872813123329586 0.7131728683349571 0.03936018963420473 0.02082914020731275 -0.5638209244340597 
0.02670784309443481 0.1468384970521063 0.1148996581950841 0.1755112146243288 -0.3515508532503342 
-0.09880465211499583 0.05659138546654836 0.284245848899674 -0.861162447071948 0.6558645143115464 
-0.2864190147605887 0.3199344581456274 -0.266675893791837 -0.06321416057110124 0.2471154977731378 
0.6989287606361528 0.2628824225486485 -0.4107544483921853 -0.5341500872844489 0.1993524521835143 
-0.2900664338203888 -0.9724547840989006 1.397799306944985 -0.1850180901836544 -0.3706587539498671 
-0.8603660530166409 -1.151029260408198 -0.107700537315366 1.446329602544494 -0.9542586998970223 
0.4360950445596992 0.4792178716967009 -0.681242573234339 -0.4777547991227926 0.6236653819296121 
0.03518488461932579 0.9798057159472316 -0.001397228764145631 -0.1447243469945856 -0.4561068648504036 
0.4534012157927783 -0.03374031158391429 -0.4057842858148637 -0.05045682947193688 -0.09843296998222102 
-0.6543790627135951 -0.4471167799204067 -0.6172700920043869 0.985553150978016 -0.09515545723110366 
-0.2221187736220362 -0.3658976407921118 0.7706709423834565 0.4949138497823219 -0.6713857305029924 
1.32820470546893 -0.2679661404717551 -0.2368681197574115 -0.4615009284708004 -0.1543386921221008 
-0.2183945674964449 -0.6130548616978457 0.3331821955279969 -0.01147169301113497 -0.4074952631692111 
0.2165537988820692 0.177267292752837 0.7707928318781559 -0.5396799907052603 -0.2276420828338538 
-0.3925770759540703 -0.01714555622710073 0.2019927907370793 0.5066990720936979 -0.2753685736352105 
-0.09795804982282298 -0.6082980597405934 -0.07707318268725509 0.2405478946731516 0.4051810059600241 
0.1396901049430869 0.02387427440969861 -0.5372013473585916 0.4734978291192825 -0.3109642602172364 
-0.05972966259768546 0.3197730224696623 0.717867027604184 -0.1155105013753193 -0.8072295479105472 
0.5418452395354879 -0.6208069095559099 -0.1971818138519167 0.203075389508888 -0.0245856685927246 
0.444636832652667 0.8290893778631352 -0.7299377956072465 -0.1754018270179882 -0.3377598075072308 
-0.2455010801509075 0.2256778076439942 -0.3018798967528123 0.2605449251367788 0.3467135181220765 
-0.7500676797099471 0.1353062416459676 -0.2264244431788022 -0.2222702278640042 0.1809807193671623 
0.3007738459890674 -0.5812003801799277 -0.1700781022939017 -0.05622378106006249 0.7807596467759707 
0.006925168462597615 -0.4896495980415858 0.9022610580393651 0.09557398751595178 -0.1708305158102643 
-0.3937641992237354 0.9019416867397302 -0.05791997977980033 -1.060224911404122 -0.658178765878311 
-0.1728514739157468 0.6713484466400358 -0.5846170734247074 1.074953261679781 -1.196700288304347 
-0.5572282146849032 0.1751830849879558 0.5757385054693943 -0.1297799150279647 -0.0508681982537631 
0.1372944094593068 0.590638460458905 -0.2652939432236383 -0.4192632777534467 -0.2615745738713292 
-0.3570066956468082 0.3131222604982393 -0.3241632271035388 -0.05934740731184028 0.2390928097790381 
0.6571753806857767 -0.2116276573726815 -0.1821069626355967 -0.2647376050202535 0.435275293315081 
-0.167925985614031 -0.2527980217240892 0.818638458375913 -0.2604419975607564 0.1329867019888658 
0.1253982664153059 -0.0905057017007416 0.3081476926578758 -0.2897176421722344 0.1333895237405335 
0.2072161891004491 -0.1805624545860761 -0.2041806540936275 0.2513117649406393 0.07331514804885644 
0.5088093899538327 0.05342092185198519 0.08844727754777759 0.3278544336431795 -0.876208598876514 
0.2166161837162455 -0.09839616126980034 -0.239870144887878 0.0200436128567488 0.1102234870775839 
0 0 0 0 0 
-0.1365109893717856 0.2125124174235136 -0.3615870047038801 0.5048940539250486 -0.08993941714235293 
-0.647020311971354 0.6228220794039152 -0.3549773704396504 0.4674972068345886 0.01126846935516795 
-0.24339153601547 0.3297473957389389 0.3414200165503311 -0.1986880652287087 -0.002101586147796923 
-0.4349739928459956 -0.2276172056600572 0.449901076727358 -0.2278103098259962 0.06634989093858976 
-0.4241022277224259 0.9883263197712421 0.3240107811981027 -0.2406063689207058 -0.9689675693670837 
-0.2966774237436655 0.3013810253078307 0.4234921373077992 0.03226512301359283 -0.5745459530740965 
0 0 0 0 0 
-0.01272102826730628 -0.05324390218458948 -0.1799475998150268 0.2666895061397297 -0.05578498762437437 
-0.1246574325963024 -0.04168990915799992 0.07103256088997009 0.6686982042304742 -0.4579293156168494 
-0.09198470076046315 0.1025113229581323 0.5712901127022277 -0.6764917570054482 -0.2159256149450648 
-0.1166932928229387 -0.6300726723565896 0.2020796997496014 0.5685912144972256 -0.3559891209857045 
-0.3691954345934178 -0.2777686970335571 0.52395547122655 -0.6943827445123552 0.472471310157713 
-0.3797044856068361 0.6067070234958661 0.3389987261515089 0.1057541674416261 -0.2328759940535796 
0.488768547120259 -0.07339217389675991 -0.9480021007060129 -0.0946051915632542 0.4147795969271599 
-0.4111642512613695 -0.7091848016963527 0.979850826766012 -0.837488134927432 0.1653676774503685 
-0.2924306471140571 0.3866315872738017 -0.7740462139578176 0.6652402841566204 -0.0008295439765163264 
-0.07616784972271888 -0.2692395455296784 -0.1405762779468164 0.3501441118764591 -0.09171067598124102 
0.01755048025938404 0.2489227184501997 -0.6240238846265436 0.2001854087211707 0.1029283464817139 
-0.07766170265264258 -0.0332707305352841 -0.1081189451595985 0.612315798086729 -0.2180244125742629 
0.1023426540120515 0.4248371464796101 -0.7969707923806432 -1.235215502392349 1.029369807934577 
0.2174172956042853 -0.014742055214071 -0.05808523245043367 -0.5651127423410027 0.5285628457912657 
0.4806981813224893 -0.4310200272836833 0.2883998179645383 -0.02979056717628402 -0.4004703221736423 
-0.5764685420883044 0.5558630457830882 0.1394448402337553 0.9067713614812831 -0.5660300686712108 
0.07122361087789184 0.4568245516394693 0.1252635280877631 -0.2758816875735985 0.09571446844564932 
0.4013333311952255 0.03690894455060529 -0.6420723354798036 0.2903180239571629 -0.3662913654161727 
-0.08491639611009322 0.1578699666097475 -0.6794343681044912 -0.4687269162729352 0.4679509229591742 
0.3433350005998816 -0.3058880656992792 -0.6260936223095311 0.4244120643619363 0.3351332777789066 
0.9376002937473642 0.0763857015523583 -0.3728047287513981 -0.4850083760060771 -0.2250771168463038 
-0.76823257204309 -0.3928405433023769 0.0147674590916267 0.09317375878334562 0.5509571413164409 
-0.2651221689719608 -0.2545193771442769 -0.1868828845250592 1.038292170215313 0.02505159713804756 
-0.8657131185607503 0.4451174136025426 0.07227126143622167 -0.3369695505179706 0.9448005957531139 
0.04884845834524457 0.288460907559469 -0.41592694437262 -0.1383194311889078 0.1942278114017735 
0.6631510426333709 -0.4481619116110326 -0.4151756182441381 0.08751057882275168 0.1554343029298972 
0.3901170116499263 -0.3660675110519863 -0.4828440827981833 0.3557795748763966 0.5206086082598537 
0.2337741653406183 0.4291229089895576 0.158313224466134 -0.05761680311418064 -0.8379987391117396 
-0.2378053012785967 0.03824176814157026 -0.3965329369904197 0.2654469073080885 0.5179325229530295 
0.5622111340851721 -0.1650280955222971 -0.9592898087553527 -0.1684805524058324 0.1493890880295657 
-0.7010246417679984 -0.1032430185690486 0.148458330124303 0.526607269810821 -0.1967066017756499 
0.5461101090768493 -1.053158256353405 -0.6377726987274668 0.6466562707408893 -0.03830259392614256 
0.2862224852280817 -0.5217241325507952 0.6059505903276453 -0.02207351234511587 -0.1969839933097518 
-0.1653052643508136 -0.2064339646993133 0.4098288719708483 0.1551026654271704 0.2320407654446461 
-0.870217397256453 0.2168737653488285 0.4806754725459139 -0.2334901247365299 0.4837608927292777 
0.05268675489836061 -0.06444066422194093 0.09618887370089252 0.429711896147688 -0.05951704830318674 
0.03165099294971323 0.6989381533628823 -0.5224834810131005 -0.07591973217131473 -0.1560238369913407 
0.7406414412438352 -0.8777413275987563 -0.1383892479842861 0.5289111069462772 -0.3987357732901388 
0.04764711031048641 0.3938822646887042 -1.119002957227709 0.6106848384007284 -0.4412898245627226 
-0.08869008719502883 -0.4582311963622706 -0.7007857158068587 0.4650719868220531 0.7035997224912406 
-0.5079491706351759 0.9331795780378823 -0.1333505333620652 -0.2881284391919218 -0.6015862641317646 
-1.079500268012682 1.006854548699448 -0.5339577824037212 0.4882253264999691 -0.2484847163235811 
-0.1769559060761318 0.1546669929999725 -0.4371069163280554 -0.3255550557238135 0.6916454585726481 
0.2069936380090522 0.2235137336987741 -0.3561799170540442 0.02792222544445062 -0.004700808723422767 
-0.2929065738101485 0.3155041866312755 0.5724258361608365 -0.1471084586964062 -0.362194512527942 
0 0 0 0 0 
0 0 0 0 0 
0.5189205236865906 0.2454366545209225 -0.4169353081865598 -0.4779934127747393 -0.1362118851834186 
-0.5076905031240464 -0.5388876987742256 0.7938691956509109 0.1567705543758199 0.3971515982277221 
-0.3697142812154137 0.5518422761404973 0.1092532126830472 0.1039615447302858 -0.3319337888213991 
0.06991960549034322 -0.7081963990498047 -0.0905034678412725 0.1644127174730352 0.891698371085883 
0.5807005834372756 -0.3522555496463216 -0.4458978560150181 0.01684492726966205 0.05583687587413878 
-0.3351398073474084 -0.02655739432967039 0.864391432129904 -0.052743310183099 -0.8593887764793926 
-0.7092611354386041 1.098991329716147 -0.5616713183178297 -0.4189753697893187 0.09540997257466 
-0.1654830394003499 -0.2848995544975988 0.4360631727610921 -0.06352462791045194 -0.1545305678151628 
-0.02885845302239121 0.2716619839897957 -0.3012030135521007 0.2528312072070656 -0.32657953191931 
-0.228717427396089 -0.1422762474775767 1.192664211851625 -0.2907228037425455 -0.9106251430432769 
0.2693954331244613 -0.5535942509456807 0.2842201226903804 -0.1515132316022515 0.3446507998775079 
0.01332396225213105 0.9806670514436869 -0.2827041579565994 -0.3988831564224124 -0.104014893425445 
-0.5355972370635205 0.4458782035030149 0.05978233285769535 0.2034894665976214 -0.1452661917251658 
-0.3685067082663696 0.3963929630153996 0.4584780367329798 0.1067914738588701 -0.228021580755085 
-0.3118879453312045 0.1851101170068618 0.1153429227661918 -0.1116246610719979 -0.1240029954255847 
0.142635608979576 0.2224760976298562 0.7058874435080513 -0.1232205231397731 -0.9011820062657772 
-0.1368265813549574 0.07393086901077717 0.5016706919728278 -0.2353118179033782 -0.4493199595498683 
-0.3051679563214803 -0.4492402624539699 0.8185145177278434 -0.142329813921715 -0.1696858248790717 
-0.1171534972226789 -0.1088077774121878 -0.38432792652587 -0.5958280646460115 0.6913061672201285 
-0.3283458924519554 -0.09522667989448508 0.6250207147751309 0.064825267050079 0.02931164388731965 
-0.4159070814900732 -0.7530354499341548 -0.2863839271128659 0.09402136975722582 0.8456627652920772 
1.080637009801595 0.2274013848116782 -0.1280329883713246 -0.6849469017477584 -0.6098966980293489 
0.08688039205123105 -0.2987743795783694 -0.3307075492509404 0.217466622826997 0.2849608256751799 
-0.4739148747052508 0.5402729360382966 -0.1126063470654401 -0.288751770010462 0.05615695965860389 
0.1549924474015604 0.7078646982154156 -0.2780849660254182 -0.8533783680744232 0.5079594256055979 
-0.0470653357790906 0.7561143873734287 -0.5896226318374713 -0.04269520126494422 -0.06361162055710577 
-0.09645765019313178 0.08085538123029634 -0.08678257332812239 0.3417172552723736 -0.005492590301026487 
-0.3181358025657754 -0.1275813175944145 0.04097497137658543 -0.3289748112295948 1.008417099976834 
0.4847757690383567 -0.3556304453122031 0.5687866732582413 -0.4729520338093019 -0.3932072346247644 
-0.633274172650353 -0.03654173063749865 0.4382601053685105 1.138252267595501 -0.6927822298073004 
0.02587696383243802 0.2490466924702707 0.8623378813540277 -1.043123753157976 0.6393435591179178 
1.345556544975258 -0.1278956163558112 0.06175391702173096 -0.8079455878084202 -0.6481938798701689 
-0.2117371593890229 1.314724274393205 0.07252331736630366 -1.405824837481612 0.1034391950609775 
-0.1097518271453304 0.6748669285069675 0.1601766714352436 0.4308758838873124 -0.9140924332039364 
0.8679466835031304 -0.1621108141199294 0.5070501114743805 -0.425325718382209 -0.3827870997996504 
0.3328148863041882 -0.131757234253659 -0.7189836169387154 -0.5722463402587303 0.7561114895448043 
1.027867899844821 0.2372800392094962 -0.7891940075031182 0.2921106066307568 -0.09963775662203359 
-0.6420453164893735 -0.321487860856371 1.295043236199827 0.2124058390243383 -0.5746453451882785 
-0.413999411652893 0.1029530998983507 0.1027370660966146 -0.3476684198527771 0.4173368475292895 
-0.04039184913427166 -0.03608914451827541 -0.5431816314558489 -0.03132127811007854 0.792758734175224 
0.1533231245196375 0.04596058551891632 -0.1503074234082079 0.1731178640392383 0.1363209036987361 
0 0 0 0 0 
0.7964768808114904 -0.9296220837822227 -0.1213491596207762 -0.4870458451215863 0.6325852844805691 
0.6227890732945196 -0.3905586555342483 -0.1596926927522898 0.0431018886955518 -0.7426377241072586 
-0.64430356891739 0.357156484947519 0.02081012542455797 -0.07687450752644434 0.1645164045668149 
0.0500590845470647 -0.8327355347404597 0.47736669943101 0.3161413624469464 -0.6619323463840564 
-0.3903857112661855 0.131333386051339 0.1774661063282225 0.1272598623493306 -0.2922575833620463 
-0.7029220576669254 0.1766910323208139 0.5074811734500436 -0.7959600377798144 0.01686926938747595 
-0.3681613331085981 -0.003468007959730051 -0.01694397219639986 -0.4520616329093545 0.4139112880130685 
-0.4552117159314777 0.1281820778309506 -0.3027279606766883 0.2606807947434766 0.4030674460327085 
0.7548337585401272 -1.380846732395813 -0.2024042463535838 0.4048550510810293 0.5096028608191855 
0.2089741591849897 0.1005562010471286 0.1264444047022093 -0.3277186038827821 -0.1083688819420664 
0.1542678960442685 -0.512817622990478 -0.176540062202066 0.1582421331089497 0.1914771353639113 
-0.4499556838044027 -0.159288103148012 0.3932984692969216 0.4022051798189029 -0.07366527326170476 
-0.1619605864265067 0.1883430940582365 0.2794831123560668 -0.4541863549839906 -0.07214018889696995 
-0.5018912503649358 -0.7057447987868447 0.312825203069785 0.6018579217476461 -0.3736537824539993 
-0.3866129529699865 -0.7429317615702882 0.7583391973487255 -0.2468876754260476 0.488793097690001 
-0.2387468781938979 -0.9073087943994962 0.2746695888885979 0.8579112392985853 0.1164989611134292 
0 0 0 0 0 
0.4131811731110548 -0.1579946617888187 0.1171522902920074 -0.1325425278621648 0.1679811790753786 
1.230568133371421 -1.125596357042986 -0.7138630896693122 0.5681452637648393 -0.5726703430546199 
-0.07770151097781618 0.3239939088919965 -0.4268365957682491 -0.2403197746560032 0.1263755742772676 
-0.846521395633583 0.442019181031775 -0.5510989544186029 -0.25188479929032 0.78847568178177 
0.4762237275077534 -0.3981093889919424 -0.6101219153294956 -0.40619505237541 0.7132760340475567 
0.2938729754330808 -0.8085118513789197 -0.4420997402216194 -0.2681823788967 0.9385778150247852 
0.4976870907481204 -0.1698319584364285 -0.01186967992059659 0.3112224549036491 -0.6901564344258877 
-0.7626664976872267 0.2624941785303467 0.25752011790742 0.4863412786792772 -0.0631530703291083 
-0.4177683370426495 0.3721862328305054 0.1035060261184265 0.2738587892200226 -0.7681343048223156 
-0.7351698262388553 -0.5051698052911593 0.2080375503541284 0.7030195409001153 0.2269426685088567 
-0.5043682525483172 -0.3285743119040233 -0.4668736558933376 0.8801322386071959 -0.2665239927873251 
-0.01593115964409506 -0.06322032805032926 0.03970314370685889 0.2928729908419104 -0.4331071549145742 
-0.2470593727334048 -0.6512386704751653 -0.816362803650158 0.6015589845285824 0.3622637011381952 
-0.7672407752958246 -0.3254378688390099 0.08092663091518555 -0.2749717998220193 0.6702928152066362 
1.120003200301894 0.08642330852175888 -0.6152007570369722 -0.3728693305291707 0.0785101911805727 
0.01864322102065295 0.1713836150015892 -0.7977390956079788 0.656677464038797 -0.547975338109624 
-0.1810083802778492 -0.6287467724633554 0.802714769753899 0.09331733346467726 0.3062753562306643 
0.3815246661667029 -0.1818994756833804 -0.5442871986720912 0.08890205352492835 -0.6474331773695754 
0.7405190322376012 -0.4998218809705358 -0.170116227799576 -0.2899839972820092 0.01536221717904541 
-0.03385864760030403 0.1675981363345652 1.016687111419069 -0.9419368953118089 -0.3480630001719777 
0.1623059913493017 0.1595481472568231 -0.5426161277174417 -0.8577117008039402 -0.3994304443188464 
-0.3438475384982628 -0.1158173105570433 0.7642622912214728 -0.3350094466710919 0.4029273657318602 
0.4365440177092945 0.04255506687673086 -0.4607690330216394 0.1518418466236499 0.004468885214088565 
0.6368142241565827 -0.4213873590432421 0.4343949789005223 0.05265982306570031 -0.2637903596211468 
-0.405564244517998 -0.6431806724766844 0.04678983142282126 0.7046902653431447 -0.9308461846042153 
0.00750092611304894 -0.8599833203948717 -0.3935752725202841 0.6031622942839627 0.466792887900213 
0.106206137621071 -0.7564579531339908 -0.4424964522156247 0.2089220737838403 0.7782612534417729 
-0.2134858413315718 0.944959184035671 -0.757526696295866 0.1414538201499526 0.4996344072311366 
0.5064041245388936 -0.296826729246442 -0.5905157572056994 -0.2328166761353925 0.7784320060474952 
-0.2010086490944198 -0.4638304287223266 0.4610323937983464 -0.06994747823929 -0.0002159020667504077 
-0.2880581297411885 0.7108029788774841 -0.1407208130198053 0.3608833182383349 -0.08916314675057146 
-0.2212871960683098 -0.7166867528770364 0.8587555539766331 -0.1578478540868934 0.4657915372318954 
-0.08065669394983102 -0.5126183470873433 0.001284386970101737 0.1528703020615564 0.1511733514346175 
-0.65365171891986 -0.3340896208794821 -0.7988830187478287 1.216305273839284 -0.3399909021113737 
0.7748463397278882 -0.228980989265887 -0.1365679735444291 -0.6706108721660968 0.423254015155934 
-0.2063311591236556 0.1930022624075887 -0.2173039253652237 -0.8531836011059643 0.6038536655165667 
-0.4176592824791514 0.2774152310408768 0.2858430853289095 0.6010616259750114 -0.6475342273125795 
1.062168739683776 -0.10318193610236 -1.061147358698533 -0.2893426254594864 0.36394181434968 
-0.06146041307982055 0.6431603063189643 -0.4596000277623551 -0.5399032554748012 -0.05193851536264529 
-0.02211696809381567 0.4398924213052667 -0.3084067823568014 -0.7756953299635285 0.1157569792086288 
0.2409746133042122 0.4468754906036576 -0.02063783994208754 -1.05498045003626 0.3906132609185148 
0.1267979416220117 0.8598897582573483 -0.0194992203950577 -0.7581614815749964 0.1302503322379934 
0.8197462952247011 -0.7247972168649838 0.1793987382780738 0.3097577202348817 -0.4054336601854586 
-0.8609932690777092 0.19250799951393 -0.1633404756753442 0.9161358258965496 0.2729926117867948 
-0.1162310085621996 -0.330077742320059 0.2316542262064364 -0.275375321399928 0.5872104255306247 
0.1627791356016362 -1.313841843378506 -0.432159215951756 0.3413138306455075 -0.4869158373400929 
-0.1070859812744916 -0.4668505281620296 0.4052095486794743 0.9631888652596532 -0.2435248566684235 
0.335048083730649 -0.5759521024687079 -0.1394683908813832 -0.4535356099676785 0.6322973438324814 
-0.7454646145323771 1.098367386890364 0.4026810940529065 -0.5576553163639681 0.0825918807870662 
-1.079173440465471 0.9057774972090048 0.07032576930927115 -0.4515124562536948 0.1183040316634684 
-0.8829942649870814 0.1567211741594312 0.07041634146271926 -0.3109096166189174 0.890991065620291 
0.2898303552738556 -0.3661497185140865 -0.387309235597384 -0.4232215941151454 0.5151215763744637 
0.08524551793448062 0.2614739825223789 -0.2060744463031559 0.005145809982947645 -0.1850701299067065 
-0.1155825568856189 0.2978756657742104 0.396299180389686 -0.4690641626169511 -0.2719447927129647 
1.246314203391565 -0.5600069597251393 -0.2669945105335122 -0.4641797240771623 -0.2645249777500175 
0.5767067755164176 0.04028155481541903 -0.03298899741443311 -0.1387781118178319 -0.2898000524791319 
0.2152409904089583 -0.4752622456149712 -0.4285887440383948 -0.09108016267984065 0.1659365953828553 
-0.001148027736587329 -0.3562310167323128 -0.8565395098741923 -0.02184254599927607 0.8262938966992875 
0.2546821963572722 0.01455110373121415 -0.315720681612194 0.1472136041558462 0.3340379844561623 
-0.5893594082444166 0.3487252061347021 0.2658326381271247 -0.1776001607695322 -0.03540591353830813 
0.2018773542506785 -0.3631762818532813 0.001634844829119477 -0.4108535377149381 0.5639036351116951 
0.8458667116576195 0.006828308524069316 -0.2263332727565554 -0.6539438706793912 -0.6130200336378311 
-6.694432762236087e-05 -0.1048115827699744 -0.7147096198382048 1.045853858636678 -0.07197221322263955 
-0.1586672381777063 0.1971262518845176 -0.5427301072327367 0.5414241249681748 0.08907443902577339 
-0.2565643213971266 -0.5433467100051536 0.3210740606052005 0.6253603601844047 -0.3003941040920222 
0.2777048203898155 -0.6547256239662981 0.1078364525661585 -0.2452942110221508 0.6029453327462261 
-0.5899903907663273 -0.06075072888384575 -0.5543178842512196 0.7475870690951196 0.3832870580220675 
-0.3324878238203573 0.1316310535341981 0.1758167608300152 0.2601850561791761 -0.2134079867786929 
-0.06204093811147005 0.5162613548402247 0.8825869221235114 -0.04025651198975213 -1.169736565817051 
0.522733967834053 -0.3087892663556734 -0.291415930532381 0.234669638149637 -0.2013167685354962 
-0.3858845184842228 -0.2679694603827169 0.2945759268290787 0.2855246368777893 -0.226970110706694 
-0.1035101202292648 0.1755699603955394 0.06827393078011428 -0.4524563684320805 0.5548895935188798 
0.09071747772665315 0.08890706495158025 -0.09216763784046113 0.1044995407773854 0.02776711314577266 
-0.3480087715766585 -0.1867234438798466 0.07342635060811126 0.3143215991760682 -0.006743750498951019 
0.5552027060960413 0.442799087956825 -0.0345058953198364 -0.07643502044086435 -0.4974191454870267 
-0.2353203910520491 0.3132880932596679 0.07012813257900248 0.1600558947657493 -0.1161807363976569 
0.8658671701322327 -0.205475950760592 -1.029478632409741 0.02046802636870049 0.6386051342802337 
0.5174278080817963 0.01087570607603209 -0.4608480283491834 -0.5144472691758556 0.06646116285130528 
-0.789885003194128 -0.8508255870193717 -0.5484864362325644 1.536310930278847 -0.1332301713541859 
-0.5645078204772663 0.652816243732478 -0.3596713042345866 -0.4388465952846982 0.1531771467187598 
1.166212206294672 0.637684691403625 -0.8729805408453344 -0.01583148809889731 -0.6267783548786756 
0.4624461918764785 -1.421322273826168 0.1929203463553142 -0.06400323662528445 0.5095919207430548 
0.5865919999204591 -0.408176511948333 -0.3830099289079114 0.07253680209852928 0.4844034203265316 
0.4902894817769647 0.134513903055635 0.1003352020242204 -0.5769574577702414 0.08808340633491786 
0.2354188685267361 0.1162507386903123 -0.2038166409235622 -0.2959321310438712 0.2227710209148168 
-0.282550816371862 0.2714519722166175 0.3098400764520921 -0.07056760737832055 -0.1228141482217954 
0.897880313908524 -0.6165311667078387 -0.1119173864501652 -0.2572503667107471 0.1380308367784467 
-0.1460766679884089 0.05621686736732233 -0.242409053290644 0.1307264569498943 0.4559334936351749 
0.3368440291120077 -0.1679995686729991 0.2259843282736351 -0.7946434082764208 0.7280405058896514 
0.2385200364236162 -0.1613676052538605 -0.1769866890320599 -0.189655582111622 -0.07241488862411542 
0.1328185522002307 0.2785118954842332 -0.4856398363770866 -0.05492956327106038 -0.2695234797636025 
-0.5849554242862948 0.02562231788977441 -0.07242453799536482 0.2441740634435918 0.503766627876622 
0.004333320644411439 0.3601597782008915 -0.5593304808145743 -0.261087327388529 0.3813373432594724 
0.1729578561281095 -0.07821488524733042 -0.2688132944935482 -0.1260835205451514 -0.08408642550071753 
-0.01497751140445941 0.5747492534013424 -0.566180288095624 0.4295426975015855 -0.6568513033019062 
-0.3498674518554554 0.7245380668369639 -0.01948767787830829 0.4361714907726985 -0.3502492591677681 
0.2354975061788124 0.5354971972688137 -0.06837656545896592 -0.2477468654245636 0.05135481540350697 
0.3316478153175679 0.08752425691932339 -0.8833809852611051 0.2809486824827925 -0.04369748768634504 
-0.02843306725712257 -0.6719932680023175 -0.1177139082463964 -0.1456651549372951 -0.1044765344600015 
-0.1039312303292203 0.1390788451658151 -0.5257128071100059 -0.156863389279898 0.9262288782426776 
1.207358359545618 -0.2456149814592529 0.2036030096019606 -1.181039577673602 0.03135969810513201 
-0.06678187696155266 -0.02164347298041446 -0.1090300135874551 -0.7159975112240446 1.059657017014569 
0.771541061222463 -0.04645018017318876 -1.017184519323795 -0.0936143061428082 0.2876084571536587 
-0.2620285176144099 0.4335176336022251 -0.7600390523668676 -0.1549965946839325 0.446892507811664 
-0.06814771128175991 0.2835117796086659 0.02504891101996382 -0.6614727941640088 -0.07010845697091644 
-0.0364418079170561 0.3258872265911233 -0.2742576334672068 -0.07380818936814064 0.1833776536627581 
-0.3575945624616438 -0.1473013969642922 -0.1678122958340117 -0.04579216184928479 0.2852973426125588 
0.1115869737303808 0.006256166226805716 -0.6986315792393692 -0.1056074757008156 0.220125585675243 
-0.3153787789101139 0.3499965798415683 -0.3680861105250091 0.1160508364139387 -0.02479134651756914 
0.8871841729534818 -0.4901480667391377 -0.008572068290015935 0.4041340931096269 -0.6482167963672117 
-0.2579901244533068 0.1206359990078782 0.08803413530090355 -0.1442739060687009 0.04203405714170486 
0.4664207758885915 0.1518619235441835 0.5284651897729741 -0.8372038812673738 -0.2040028481102105 
-0.1808102694432144 -0.08746029422966294 -0.2304030275723876 0.489226833536811 -0.5087908222228393 
-0.3973103225268408 -0.3910149885190362 -0.7595206280671004 0.315266965137929 0.8328122794094389 
-1.174909604083399 0.7035294299252919 -0.4325805405677561 0.1381939698138325 0.02279022126361616 
-0.0001366220962382148 0.06224642877099732 -0.4109591554966567 -0.6988741680317405 1.089552859106737 
0.9819266621597014 -0.4653107068757821 -0.3966535779962746 -0.1584697627287047 -0.147844339322468 
0.5235219537483108 -0.9584194528905738 -0.5675017976195212 -0.3380400063426597 0.9219606976798287 
0.3307318857759645 0.09691087092585982 0.022618620013586 -0.1643637344954706 0.007988256475023887 
0.05230692276509662 -0.414241923399111 0.1314879421993579 -0.2559388439032315 0.3417933488204584 
-0.1975236575674339 -0.1532563968054488 -0.2679171085427349 0.8068126124385523 -0.3453939258169687 
