svm_type c_svc
kernel_type linear
nr_class 2
total_sv 11759
rho 1.00006
label 1 0
probA -1.42361
probB 0.404685
nr_sv 4457 7302
SV
1 1:1 2:1 3:1 4:1 5:1 6:1 7:1 8:1 9:1 10:1 11:1 12:1 13:1 14:1 
0.634763196717602 2:1 4:1 13:1 14:1 15:1 16:1 17:1 18:1 19:1 20:1 21:1 22:1 23:1 24:1 
1 2:1 4:1 13:1 14:1 25:1 26:1 27:1 28:1 29:1 30:1 
1 2:1 4:1 5:1 13:1 14:1 31:1 32:1 33:1 34:1 35:1 36:1 37:1 38:1 39:1 
1 2:1 4:1 5:1 13:1 14:1 27:1 40:1 41:1 42:1 43:1 44:1 45:1 46:1 47:1 48:1 49:1 
1 2:1 4:1 10:1 13:1 14:1 30:1 50:1 51:1 52:1 53:1 54:1 55:1 56:1 57:1 58:1 59:1 60:1 61:1 62:1 63:1 64:1 65:1 66:1 
0.1294656672417416 1:1 2:1 3:1 4:1 5:1 6:1 12:1 13:1 14:1 46:1 48:1 56:1 67:1 68:1 69:1 70:1 71:1 72:1 73:1 74:1 75:1 76:1 77:1 78:1 79:1 80:1 81:1 82:1 
1 2:1 4:1 10:1 13:1 14:1 30:1 31:1 75:1 83:1 84:1 85:1 86:1 87:1 88:1 89:1 
1 1:1 2:1 3:1 4:1 9:1 13:1 14:1 19:1 25:1 30:1 63:1 73:1 90:1 91:1 92:1 93:1 94:1 95:1 96:1 97:1 98:1 99:1 100:1 101:1 
0.9907698013624694 1:1 2:1 3:1 4:1 12:1 13:1 14:1 19:1 51:1 71:1 72:1 75:1 84:1 90:1 108:1 109:1 110:1 111:1 112:1 113:1 114:1 115:1 116:1 117:1 118:1 
1 1:1 2:1 3:1 4:1 5:1 10:1 12:1 13:1 14:1 19:1 48:1 73:1 90:1 119:1 120:1 
0.4342328213939763 1:1 2:1 3:1 4:1 12:1 13:1 14:1 19:1 51:1 62:1 66:1 90:1 101:1 129:1 130:1 131:1 
1 2:1 4:1 13:1 14:1 66:1 84:1 137:1 138:1 139:1 140:1 141:1 142:1 143:1 
1 1:1 2:1 3:1 4:1 13:1 14:1 19:1 47:1 90:1 107:1 144:1 145:1 146:1 147:1 148:1 149:1 
1 2:1 4:1 5:1 6:1 13:1 14:1 46:1 63:1 71:1 82:1 84:1 150:1 151:1 152:1 153:1 154:1 155:1 156:1 
0.1826275724718149 2:1 4:1 12:1 13:1 14:1 42:1 55:1 57:1 157:1 158:1 159:1 160:1 161:1 
1 1:1 2:1 3:1 4:1 13:1 14:1 66:1 71:1 75:1 112:1 122:1 162:1 163:1 
0.4972399504620756 1:1 2:1 3:1 4:1 8:1 13:1 14:1 47:1 55:1 72:1 92:1 95:1 101:1 134:1 148:1 158:1 164:1 165:1 166:1 167:1 168:1 169:1 
1 2:1 4:1 9:1 13:1 14:1 27:1 32:1 38:1 73:1 75:1 122:1 123:1 167:1 170:1 171:1 
1 2:1 4:1 5:1 13:1 14:1 19:1 38:1 60:1 63:1 108:1 109:1 172:1 173:1 174:1 175:1 176:1 177:1 178:1 
1 1:1 2:1 3:1 4:1 12:1 13:1 14:1 30:1 48:1 159:1 185:1 186:1 187:1 188:1 
0.9381342422703323 1:1 2:1 3:1 4:1 5:1 6:1 10:1 13:1 14:1 19:1 71:1 72:1 75:1 90:1 159:1 189:1 190:1 191:1 192:1 193:1 194:1 
1 1:1 2:1 3:1 4:1 13:1 14:1 48:1 109:1 195:1 196:1 197:1 198:1 
1 1:1 2:1 3:1 4:1 12:1 13:1 14:1 19:1 51:1 55:1 63:1 78:1 90:1 114:1 158:1 199:1 200:1 201:1 202:1 203:1 204:1 
1 1:1 2:1 3:1 4:1 8:1 13:1 14:1 48:1 63:1 92:1 93:1 95:1 101:1 206:1 207:1 208:1 
1 2:1 4:1 5:1 12:1 13:1 14:1 27:1 34:1 63:1 66:1 71:1 108:1 109:1 170:1 172:1 213:1 214:1 215:1 216:1 
1 2:1 4:1 13:1 14:1 20:1 159:1 160:1 217:1 
1 1:1 2:1 3:1 4:1 5:1 12:1 13:1 14:1 19:1 29:1 71:1 90:1 108:1 109:1 172:1 218:1 219:1 
1 2:1 4:1 13:1 14:1 29:1 34:1 56:1 58:1 220:1 221:1 222:1 223:1 
0.5169519467617987 2:1 4:1 5:1 8:1 12:1 13:1 14:1 63:1 71:1 72:1 84:1 224:1 225:1 226:1 227:1 228:1 229:1 230:1 231:1 232:1 233:1 234:1 235:1 236:1 
1 2:1 4:1 5:1 13:1 14:1 92:1 93:1 165:1 237:1 
1 2:1 4:1 13:1 14:1 46:1 47:1 48:1 52:1 63:1 72:1 222:1 238:1 239:1 
1 2:1 4:1 9:1 12:1 13:1 14:1 27:1 78:1 163:1 240:1 241:1 
1 1:1 2:1 3:1 4:1 12:1 13:1 14:1 101:1 194:1 242:1 243:1 244:1 245:1 246:1 
1 2:1 4:1 5:1 13:1 14:1 27:1 156:1 196:1 205:1 207:1 215:1 237:1 239:1 247:1 248:1 249:1 250:1 251:1 
1 2:1 4:1 12:1 13:1 14:1 75:1 252:1 253:1 
1 2:1 4:1 8:1 13:1 14:1 55:1 101:1 200:1 
0.9780084119467631 2:1 4:1 13:1 14:1 66:1 254:1 255:1 
1 2:1 4:1 13:1 14:1 47:1 78:1 256:1 257:1 258:1 
0.8115353095577645 1:1 2:1 3:1 4:1 13:1 14:1 19:1 47:1 48:1 56:1 63:1 75:1 90:1 99:1 222:1 259:1 260:1 261:1 262:1 263:1 264:1 265:1 266:1 267:1 
0.4280169006855688 2:1 4:1 13:1 14:1 27:1 47:1 48:1 55:1 75:1 84:1 147:1 159:1 197:1 268:1 269:1 270:1 271:1 272:1 273:1 274:1 275:1 276:1 
0.3969556866179489 2:1 4:1 5:1 13:1 14:1 56:1 108:1 109:1 176:1 277:1 278:1 279:1 280:1 281:1 282:1 283:1 284:1 285:1 
1 1:1 2:1 3:1 4:1 5:1 8:1 12:1 13:1 14:1 71:1 79:1 92:1 99:1 156:1 159:1 182:1 286:1 287:1 288:1 289:1 290:1 
0.879053307465009 1:1 2:1 3:1 4:1 5:1 8:1 10:1 12:1 13:1 14:1 19:1 47:1 95:1 111:1 114:1 249:1 291:1 292:1 293:1 294:1 295:1 296:1 297:1 298:1 299:1 
1 2:1 4:1 13:1 14:1 32:1 84:1 101:1 159:1 216:1 300:1 301:1 302:1 303:1 
1 2:1 4:1 13:1 14:1 29:1 34:1 304:1 305:1 
1 2:1 4:1 10:1 12:1 13:1 14:1 16:1 42:1 66:1 71:1 84:1 212:1 306:1 307:1 308:1 309:1 310:1 
0.157236233181679 1:1 2:1 3:1 4:1 5:1 13:1 14:1 19:1 27:1 31:1 56:1 75:1 101:1 107:1 194:1 267:1 282:1 311:1 312:1 313:1 314:1 315:1 316:1 317:1 318:1 319:1 320:1 321:1 322:1 323:1 
1 2:1 4:1 13:1 14:1 27:1 46:1 48:1 63:1 78:1 139:1 165:1 324:1 325:1 326:1 327:1 328:1 329:1 330:1 331:1 
0.5895424049159098 2:1 4:1 5:1 12:1 13:1 14:1 29:1 48:1 68:1 84:1 109:1 122:1 123:1 124:1 282:1 332:1 333:1 334:1 335:1 336:1 
1 2:1 4:1 12:1 13:1 14:1 337:1 338:1 339:1 
1 2:1 4:1 5:1 13:1 14:1 71:1 75:1 92:1 107:1 150:1 159:1 165:1 197:1 202:1 340:1 341:1 342:1 
1 2:1 4:1 13:1 14:1 27:1 48:1 101:1 343:1 344:1 
1 1:1 2:1 3:1 4:1 12:1 13:1 14:1 57:1 71:1 75:1 158:1 345:1 346:1 
1 2:1 4:1 5:1 13:1 14:1 150:1 347:1 348:1 
1 2:1 4:1 13:1 14:1 30:1 
1 2:1 4:1 5:1 6:1 8:1 13:1 14:1 62:1 63:1 108:1 109:1 135:1 139:1 159:1 167:1 182:1 315:1 316:1 349:1 350:1 351:1 352:1 
1 2:1 4:1 5:1 10:1 13:1 14:1 38:1 47:1 48:1 82:1 84:1 120:1 150:1 240:1 353:1 354:1 
1 1:1 2:1 3:1 4:1 12:1 13:1 14:1 42:1 46:1 47:1 262:1 360:1 361:1 362:1 
0.5709860897376403 2:1 4:1 12:1 13:1 14:1 63:1 71:1 73:1 75:1 84:1 122:1 137:1 372:1 373:1 374:1 375:1 376:1 
1 2:1 4:1 13:1 14:1 79:1 150:1 377:1 378:1 
1 2:1 4:1 5:1 13:1 14:1 47:1 73:1 111:1 210:1 379:1 380:1 381:1 
0.78394300952767 2:1 4:1 10:1 13:1 14:1 32:1 48:1 84:1 135:1 251:1 382:1 383:1 384:1 385:1 386:1 
1 2:1 4:1 13:1 14:1 29:1 48:1 62:1 75:1 123:1 278:1 
1 1:1 2:1 3:1 4:1 13:1 14:1 387:1 
0.03273135776132445 1:1 2:1 3:1 4:1 9:1 12:1 13:1 14:1 31:1 48:1 92:1 101:1 196:1 214:1 282:1 329:1 331:1 337:1 385:1 388:1 389:1 390:1 391:1 392:1 393:1 394:1 395:1 396:1 397:1 398:1 
0.3858549460675368 1:1 2:1 3:1 4:1 9:1 13:1 14:1 19:1 42:1 48:1 145:1 149:1 159:1 399:1 400:1 401:1 402:1 403:1 404:1 405:1 
1 2:1 4:1 5:1 13:1 14:1 27:1 32:1 63:1 84:1 92:1 135:1 173:1 251:1 406:1 407:1 408:1 
0.5033230667766703 2:1 4:1 5:1 13:1 14:1 19:1 63:1 189:1 196:1 229:1 295:1 299:1 409:1 410:1 411:1 
1 2:1 4:1 8:1 9:1 13:1 14:1 27:1 32:1 99:1 109:1 159:1 205:1 306:1 326:1 412:1 413:1 414:1 415:1 416:1 
1 2:1 4:1 8:1 13:1 14:1 19:1 51:1 55:1 63:1 64:1 65:1 72:1 75:1 94:1 115:1 130:1 165:1 177:1 178:1 331:1 417:1 418:1 419:1 420:1 421:1 422:1 423:1 424:1 
1 2:1 4:1 12:1 13:1 14:1 42:1 51:1 55:1 75:1 159:1 251:1 425:1 426:1 427:1 428:1 429:1 430:1 
0.1471376433094314 2:1 4:1 12:1 13:1 14:1 65:1 137:1 201:1 202:1 431:1 432:1 433:1 434:1 435:1 436:1 
1 2:1 4:1 13:1 14:1 75:1 159:1 222:1 437:1 438:1 
1 2:1 4:1 13:1 14:1 55:1 63:1 102:1 127:1 135:1 181:1 204:1 215:1 433:1 439:1 440:1 
1 1:1 2:1 3:1 4:1 5:1 13:1 14:1 75:1 441:1 442:1 
0.01738346769035062 2:1 4:1 9:1 12:1 13:1 14:1 68:1 122:1 123:1 213:1 443:1 
1 1:1 2:1 3:1 4:1 8:1 13:1 14:1 55:1 92:1 95:1 101:1 201:1 202:1 
0.4679287199959643 2:1 4:1 13:1 14:1 55:1 84:1 429:1 444:1 445:1 446:1 447:1 
1 2:1 4:1 5:1 12:1 13:1 14:1 32:1 84:1 115:1 159:1 239:1 248:1 448:1 449:1 450:1 
1 2:1 4:1 5:1 6:1 13:1 14:1 42:1 63:1 78:1 108:1 109:1 110:1 262:1 451:1 
0.295810803158801 1:1 2:1 3:1 4:1 13:1 14:1 19:1 34:1 38:1 75:1 84:1 92:1 130:1 209:1 225:1 277:1 349:1 377:1 452:1 453:1 454:1 455:1 456:1 457:1 458:1 
1 2:1 4:1 12:1 13:1 14:1 30:1 452:1 
1 2:1 4:1 5:1 10:1 13:1 14:1 42:1 48:1 63:1 75:1 204:1 302:1 347:1 459:1 460:1 461:1 462:1 
1 2:1 4:1 5:1 13:1 14:1 84:1 98:1 463:1 464:1 465:1 
0.7210150121781072 2:1 4:1 8:1 9:1 10:1 13:1 14:1 25:1 30:1 32:1 47:1 48:1 66:1 75:1 76:1 79:1 92:1 95:1 98:1 101:1 107:1 109:1 240:1 267:1 325:1 466:1 467:1 468:1 469:1 470:1 471:1 472:1 
1 1:1 2:1 3:1 4:1 10:1 13:1 14:1 19:1 34:1 46:1 50:1 63:1 75:1 90:1 94:1 145:1 149:1 307:1 473:1 474:1 475:1 
1 2:1 4:1 5:1 13:1 14:1 158:1 229:1 476:1 477:1 478:1 
1 2:1 4:1 13:1 14:1 196:1 479:1 480:1 481:1 
1 1:1 2:1 3:1 4:1 9:1 13:1 14:1 16:1 17:1 19:1 84:1 90:1 123:1 482:1 483:1 484:1 485:1 486:1 
1 1:1 2:1 3:1 4:1 10:1 13:1 14:1 63:1 71:1 72:1 106:1 135:1 230:1 232:1 249:1 250:1 324:1 368:1 487:1 
1 1:1 2:1 3:1 4:1 9:1 12:1 13:1 14:1 92:1 325:1 
1 2:1 4:1 13:1 14:1 75:1 216:1 302:1 326:1 488:1 489:1 490:1 491:1 
1 2:1 4:1 5:1 8:1 13:1 14:1 41:1 56:1 63:1 215:1 267:1 492:1 493:1 494:1 495:1 
0.1620422327822973 2:1 4:1 5:1 6:1 10:1 13:1 14:1 42:1 47:1 63:1 71:1 72:1 92:1 101:1 121:1 194:1 238:1 267:1 463:1 496:1 497:1 
1 2:1 4:1 13:1 14:1 63:1 72:1 78:1 500:1 501:1 
1 2:1 4:1 13:1 14:1 19:1 295:1 299:1 502:1 503:1 
1 1:1 2:1 3:1 4:1 12:1 13:1 14:1 62:1 504:1 505:1 506:1 
0.4102718318904617 2:1 4:1 5:1 6:1 13:1 14:1 29:1 46:1 56:1 60:1 63:1 68:1 126:1 135:1 329:1 331:1 392:1 438:1 456:1 507:1 508:1 509:1 510:1 511:1 512:1 513:1 514:1 515:1 516:1 
1 1:1 2:1 3:1 4:1 12:1 13:1 14:1 19:1 60:1 63:1 68:1 108:1 109:1 122:1 141:1 172:1 189:1 311:1 320:1 517:1 518:1 
0.05977683715531734 2:1 4:1 5:1 6:1 13:1 14:1 63:1 71:1 78:1 84:1 159:1 524:1 525:1 526:1 527:1 
0.2560082491439054 2:1 4:1 13:1 14:1 56:1 259:1 260:1 528:1 529:1 
1 2:1 4:1 13:1 14:1 48:1 101:1 200:1 530:1 531:1 
0.8548409477208985 1:1 2:1 3:1 4:1 5:1 6:1 13:1 14:1 75:1 150:1 222:1 532:1 533:1 
0.02979792652130953 1:1 2:1 3:1 4:1 13:1 14:1 19:1 25:1 55:1 56:1 90:1 534:1 535:1 536:1 537:1 
1 2:1 4:1 13:1 14:1 16:1 124:1 150:1 204:1 349:1 538:1 539:1 540:1 541:1 542:1 543:1 
1 2:1 4:1 5:1 6:1 13:1 14:1 27:1 29:1 150:1 463:1 515:1 544:1 545:1 
1 2:1 4:1 5:1 13:1 14:1 63:1 71:1 72:1 75:1 82:1 84:1 159:1 172:1 216:1 271:1 302:1 326:1 546:1 547:1 
1 2:1 4:1 12:1 13:1 14:1 
1 2:1 4:1 13:1 14:1 29:1 30:1 71:1 75:1 362:1 552:1 
0.9605907869147801 2:1 4:1 5:1 8:1 10:1 12:1 13:1 14:1 46:1 60:1 61:1 63:1 84:1 127:1 150:1 159:1 196:1 197:1 203:1 216:1 382:1 410:1 413:1 421:1 553:1 554:1 555:1 556:1 557:1 558:1 559:1 560:1 561:1 
1 1:1 2:1 3:1 4:1 9:1 12:1 13:1 14:1 27:1 42:1 253:1 562:1 
1 2:1 4:1 13:1 14:1 84:1 159:1 262:1 334:1 565:1 566:1 567:1 
0.5065387482170255 2:1 4:1 5:1 10:1 12:1 13:1 14:1 47:1 215:1 316:1 339:1 347:1 422:1 568:1 569:1 570:1 571:1 
1 1:1 2:1 3:1 4:1 13:1 14:1 19:1 48:1 63:1 90:1 92:1 135:1 177:1 214:1 295:1 564:1 
1 2:1 4:1 12:1 13:1 14:1 63:1 131:1 135:1 141:1 326:1 
1 1:1 2:1 3:1 4:1 13:1 14:1 19:1 27:1 63:1 82:1 90:1 108:1 109:1 163:1 189:1 239:1 353:1 572:1 573:1 574:1 
0.9942688104974378 2:1 4:1 12:1 13:1 14:1 29:1 30:1 71:1 73:1 575:1 576:1 577:1 
1 2:1 4:1 13:1 14:1 
1 2:1 4:1 13:1 14:1 19:1 75:1 95:1 159:1 202:1 239:1 240:1 309:1 340:1 578:1 579:1 580:1 581:1 
0.5070221823376365 2:1 4:1 5:1 10:1 13:1 14:1 34:1 41:1 42:1 48:1 63:1 126:1 135:1 150:1 159:1 208:1 239:1 248:1 367:1 381:1 533:1 582:1 583:1 584:1 585:1 586:1 
1 2:1 4:1 13:1 14:1 84:1 189:1 213:1 587:1 
0.5657542486630984 2:1 4:1 13:1 14:1 63:1 194:1 222:1 492:1 588:1 589:1 
1 2:1 4:1 12:1 13:1 14:1 594:1 595:1 
0.2057600019414068 2:1 4:1 5:1 13:1 14:1 75:1 101:1 123:1 163:1 197:1 200:1 201:1 267:1 434:1 596:1 597:1 598:1 599:1 
1 2:1 4:1 5:1 13:1 14:1 19:1 63:1 72:1 82:1 99:1 145:1 149:1 215:1 351:1 600:1 
1 1:1 2:1 3:1 4:1 13:1 14:1 34:1 63:1 122:1 123:1 376:1 601:1 602:1 
0.7640264060977359 1:1 2:1 3:1 4:1 13:1 14:1 19:1 47:1 51:1 71:1 75:1 90:1 160:1 215:1 362:1 603:1 604:1 605:1 
1 2:1 4:1 13:1 14:1 42:1 109:1 159:1 197:1 306:1 446:1 566:1 606:1 
0.5172399566905493 2:1 4:1 13:1 14:1 20:1 38:1 47:1 48:1 107:1 351:1 607:1 608:1 609:1 610:1 611:1 612:1 613:1 
1 2:1 4:1 13:1 14:1 29:1 380:1 614:1 
0.8267785021181634 2:1 4:1 13:1 14:1 63:1 84:1 135:1 262:1 615:1 616:1 617:1 
1 2:1 4:1 12:1 13:1 14:1 29:1 78:1 
1 2:1 4:1 5:1 12:1 13:1 14:1 34:1 63:1 71:1 84:1 108:1 109:1 172:1 618:1 619:1 
1 1:1 2:1 3:1 4:1 13:1 14:1 30:1 
1 2:1 4:1 13:1 14:1 19:1 30:1 122:1 381:1 621:1 
1 1:1 2:1 3:1 4:1 8:1 9:1 10:1 12:1 13:1 14:1 29:1 63:1 75:1 82:1 294:1 381:1 499:1 622:1 623:1 624:1 625:1 
1 2:1 4:1 13:1 14:1 32:1 38:1 47:1 68:1 73:1 75:1 82:1 326:1 639:1 640:1 
1 2:1 4:1 13:1 14:1 82:1 641:1 642:1 
1 2:1 4:1 13:1 14:1 249:1 643:1 
1 2:1 4:1 12:1 13:1 14:1 29:1 30:1 71:1 115:1 575:1 644:1 
1 2:1 4:1 5:1 13:1 14:1 47:1 101:1 126:1 164:1 170:1 645:1 
1 1:1 2:1 3:1 4:1 8:1 13:1 14:1 62:1 84:1 101:1 159:1 262:1 318:1 646:1 
1 1:1 2:1 3:1 4:1 12:1 13:1 14:1 19:1 48:1 55:1 56:1 72:1 73:1 90:1 95:1 164:1 350:1 368:1 507:1 544:1 628:1 647:1 648:1 649:1 
0.2223861122700665 2:1 4:1 13:1 14:1 350:1 634:1 650:1 651:1 652:1 653:1 
1 1:1 2:1 3:1 4:1 6:1 13:1 14:1 34:1 75:1 130:1 229:1 232:1 622:1 654:1 655:1 
1 2:1 4:1 10:1 13:1 14:1 27:1 48:1 84:1 101:1 239:1 414:1 434:1 656:1 657:1 658:1 
0.8791627039605451 2:1 4:1 5:1 13:1 14:1 42:1 46:1 63:1 66:1 71:1 116:1 123:1 159:1 262:1 267:1 349:1 434:1 659:1 660:1 661:1 662:1 663:1 664:1 665:1 
0.2018784572066535 2:1 4:1 8:1 13:1 14:1 68:1 75:1 122:1 173:1 625:1 666:1 667:1 668:1 669:1 670:1 
1 2:1 4:1 5:1 13:1 14:1 84:1 150:1 165:1 202:1 340:1 579:1 
0.3067876422330912 2:1 4:1 13:1 14:1 31:1 63:1 75:1 150:1 159:1 173:1 349:1 375:1 417:1 671:1 672:1 673:1 674:1 675:1 676:1 
1 2:1 4:1 13:1 14:1 677:1 
1 1:1 2:1 3:1 4:1 13:1 14:1 19:1 46:1 47:1 48:1 52:1 63:1 72:1 90:1 222:1 238:1 239:1 
1 1:1 2:1 3:1 4:1 13:1 14:1 56:1 63:1 68:1 123:1 137:1 163:1 554:1 562:1 678:1 679:1 
1 2:1 4:1 13:1 14:1 27:1 252:1 680:1 681:1 682:1 683:1 
1 2:1 4:1 8:1 13:1 14:1 50:1 55:1 63:1 68:1 97:1 124:1 158:1 199:1 302:1 329:1 330:1 331:1 689:1 690:1 
1 2:1 4:1 10:1 13:1 14:1 19:1 47:1 72:1 109:1 239:1 283:1 522:1 554:1 691:1 692:1 693:1 694:1 
0.08152432482299532 2:1 4:1 5:1 6:1 13:1 14:1 47:1 71:1 95:1 109:1 165:1 205:1 248:1 376:1 576:1 695:1 696:1 697:1 698:1 
0.1469771117085922 2:1 4:1 10:1 13:1 14:1 46:1 56:1 73:1 75:1 84:1 228:1 229:1 232:1 239:1 497:1 699:1 700:1 701:1 702:1 703:1 704:1 705:1 706:1 707:1 
1 2:1 4:1 13:1 14:1 141:1 239:1 708:1 709:1 
1 2:1 4:1 13:1 14:1 71:1 72:1 172:1 225:1 240:1 710:1 
0.4882120402312451 2:1 4:1 5:1 13:1 14:1 47:1 75:1 159:1 248:1 408:1 480:1 711:1 712:1 713:1 714:1 
1 2:1 4:1 13:1 14:1 42:1 60:1 63:1 72:1 150:1 389:1 715:1 716:1 
1 1:1 2:1 3:1 4:1 13:1 14:1 300:1 349:1 527:1 
1 1:1 2:1 3:1 4:1 13:1 14:1 19:1 90:1 123:1 329:1 330:1 331:1 434:1 718:1 719:1 
1 1:1 2:1 3:1 4:1 13:1 14:1 31:1 48:1 109:1 233:1 622:1 720:1 
0.6801899319959834 1:1 2:1 3:1 4:1 13:1 14:1 27:1 71:1 170:1 177:1 262:1 287:1 331:1 424:1 487:1 564:1 721:1 722:1 723:1 724:1 
0.2247469244791959 1:1 2:1 3:1 4:1 5:1 8:1 13:1 14:1 55:1 97:1 101:1 111:1 130:1 150:1 173:1 216:1 232:1 240:1 326:1 357:1 492:1 595:1 728:1 729:1 730:1 731:1 732:1 
0.7233665086817281 2:1 4:1 13:1 14:1 42:1 132:1 150:1 160:1 170:1 258:1 434:1 
1 2:1 4:1 10:1 12:1 13:1 14:1 42:1 75:1 147:1 172:1 307:1 733:1 734:1 
1 1:1 2:1 3:1 4:1 8:1 12:1 13:1 14:1 56:1 101:1 107:1 148:1 164:1 445:1 622:1 735:1 736:1 
1 1:1 2:1 3:1 4:1 8:1 13:1 14:1 42:1 47:1 48:1 63:1 71:1 79:1 101:1 107:1 127:1 248:1 493:1 737:1 738:1 739:1 740:1 741:1 742:1 
1 2:1 4:1 5:1 13:1 14:1 48:1 63:1 75:1 82:1 107:1 353:1 376:1 743:1 744:1 745:1 746:1 
1 2:1 4:1 13:1 14:1 19:1 63:1 75:1 127:1 194:1 295:1 299:1 312:1 747:1 
1 1:1 2:1 3:1 4:1 5:1 13:1 14:1 50:1 262:1 312:1 664:1 687:1 748:1 
1 2:1 4:1 5:1 13:1 14:1 108:1 109:1 507:1 749:1 750:1 
1 2:1 4:1 10:1 13:1 14:1 75:1 101:1 164:1 344:1 362:1 393:1 751:1 
1 1:1 2:1 3:1 4:1 5:1 13:1 14:1 30:1 34:1 63:1 75:1 111:1 186:1 197:1 366:1 675:1 
0.0009222070913722107 1:1 2:1 3:1 4:1 5:1 13:1 14:1 19:1 56:1 63:1 75:1 90:1 107:1 139:1 148:1 326:1 347:1 487:1 627:1 628:1 629:1 630:1 
1 1:1 2:1 3:1 4:1 13:1 14:1 19:1 90:1 
1 1:1 2:1 3:1 4:1 9:1 13:1 14:1 75:1 92:1 101:1 350:1 
1 2:1 4:1 13:1 14:1 39:1 46:1 66:1 68:1 84:1 141:1 604:1 756:1 757:1 
1 2:1 4:1 12:1 13:1 14:1 29:1 175:1 211:1 222:1 
1 2:1 4:1 13:1 14:1 84:1 358:1 464:1 685:1 758:1 759:1 
1 2:1 4:1 5:1 9:1 13:1 14:1 27:1 41:1 42:1 56:1 72:1 84:1 92:1 109:1 123:1 158:1 159:1 194:1 199:1 240:1 251:1 282:1 312:1 329:1 331:1 342:1 364:1 392:1 502:1 685:1 687:1 761:1 762:1 763:1 764:1 765:1 
1 2:1 4:1 5:1 13:1 14:1 63:1 97:1 120:1 175:1 766:1 
1 1:1 2:1 3:1 4:1 5:1 6:1 13:1 14:1 63:1 132:1 176:1 201:1 202:1 410:1 767:1 
1 1:1 2:1 3:1 4:1 5:1 6:1 13:1 14:1 19:1 107:1 122:1 150:1 249:1 250:1 267:1 295:1 299:1 326:1 362:1 376:1 768:1 769:1 770:1 771:1 772:1 
0.2187692935946906 2:1 4:1 13:1 14:1 19:1 30:1 31:1 47:1 62:1 63:1 72:1 84:1 158:1 172:1 173:1 175:1 302:1 600:1 621:1 773:1 774:1 775:1 776:1 
1 1:1 2:1 3:1 4:1 13:1 14:1 123:1 202:1 647:1 777:1 
1 2:1 4:1 5:1 13:1 14:1 42:1 47:1 52:1 78:1 95:1 99:1 109:1 164:1 165:1 282:1 778:1 779:1 
1 1:1 2:1 3:1 4:1 5:1 13:1 14:1 19:1 63:1 75:1 90:1 95:1 109:1 163:1 164:1 197:1 316:1 780:1 781:1 782:1 783:1 
0.9694439727503512 2:1 4:1 12:1 13:1 14:1 65:1 71:1 116:1 172:1 208:1 329:1 331:1 392:1 784:1 785:1 
0.940721254275325 1:1 2:1 3:1 4:1 9:1 13:1 14:1 51:1 60:1 75:1 99:1 248:1 326:1 363:1 364:1 365:1 366:1 367:1 368:1 369:1 370:1 371:1 
1 2:1 4:1 13:1 14:1 30:1 47:1 48:1 63:1 84:1 92:1 602:1 786:1 787:1 788:1 
1 2:1 4:1 5:1 13:1 14:1 27:1 63:1 95:1 109:1 120:1 131:1 135:1 141:1 142:1 239:1 282:1 315:1 794:1 
0.1807407627582543 2:1 4:1 9:1 13:1 14:1 63:1 71:1 75:1 122:1 163:1 316:1 795:1 796:1 797:1 798:1 799:1 800:1 
1 2:1 4:1 13:1 14:1 63:1 78:1 127:1 457:1 509:1 801:1 802:1 
1 1:1 2:1 3:1 4:1 9:1 13:1 14:1 84:1 107:1 131:1 159:1 196:1 201:1 202:1 280:1 738:1 803:1 
0.5888445156996435 2:1 4:1 13:1 14:1 19:1 177:1 178:1 262:1 804:1 805:1 806:1 
1 2:1 4:1 5:1 6:1 13:1 14:1 63:1 84:1 99:1 127:1 141:1 807:1 808:1 809:1 
0.9136970139531891 1:1 2:1 3:1 4:1 5:1 12:1 13:1 14:1 30:1 71:1 73:1 75:1 84:1 90:1 101:1 120:1 153:1 216:1 262:1 810:1 811:1 812:1 813:1 814:1 815:1 
0.9794814935855474 2:1 4:1 13:1 14:1 71:1 163:1 690:1 816:1 
0.9905841548133829 2:1 4:1 5:1 13:1 14:1 46:1 68:1 72:1 84:1 99:1 326:1 344:1 370:1 499:1 561:1 781:1 817:1 818:1 819:1 820:1 
1 2:1 4:1 12:1 13:1 14:1 42:1 160:1 194:1 
1 2:1 4:1 5:1 10:1 12:1 13:1 14:1 48:1 73:1 119:1 120:1 
1 2:1 4:1 12:1 13:1 14:1 29:1 42:1 173:1 695:1 
0.1437535821394537 1:1 2:1 3:1 4:1 8:1 19:1 38:1 42:1 46:1 55:1 56:1 63:1 72:1 90:1 99:1 156:1 158:1 248:1 349:1 600:1 667:1 746:1 828:1 829:1 830:1 831:1 832:1 833:1 
1 2:1 4:1 13:1 14:1 30:1 
1 2:1 4:1 5:1 13:1 14:1 32:1 52:1 107:1 316:1 324:1 326:1 327:1 834:1 835:1 
1 2:1 4:1 13:1 14:1 30:1 122:1 381:1 
0.2252422855300488 2:1 4:1 13:1 14:1 55:1 215:1 462:1 535:1 569:1 839:1 
1 2:1 4:1 12:1 13:1 14:1 56:1 84:1 175:1 209:1 312:1 329:1 331:1 392:1 464:1 840:1 841:1 842:1 
1 2:1 4:1 12:1 13:1 14:1 17:1 19:1 42:1 48:1 203:1 239:1 240:1 282:1 422:1 464:1 561:1 600:1 627:1 843:1 844:1 845:1 846:1 
1 1:1 2:1 3:1 4:1 13:1 14:1 743:1 851:1 852:1 
0.4455169890935313 2:1 4:1 13:1 14:1 578:1 853:1 854:1 855:1 
0.5669666454650235 2:1 4:1 5:1 13:1 14:1 27:1 75:1 84:1 97:1 159:1 264:1 413:1 715:1 817:1 856:1 857:1 858:1 859:1 860:1 
1 2:1 4:1 13:1 14:1 84:1 122:1 135:1 847:1 
0.5817738555303763 13:1 77:1 861:1 862:1 
1 2:1 4:1 13:1 14:1 38:1 353:1 359:1 742:1 
1 1:1 2:1 3:1 4:1 13:1 14:1 27:1 63:1 75:1 107:1 150:1 214:1 240:1 863:1 864:1 
0.4973276363484598 2:1 4:1 13:1 14:1 30:1 48:1 71:1 75:1 79:1 183:1 197:1 362:1 410:1 576:1 870:1 871:1 872:1 
1 2:1 4:1 5:1 13:1 14:1 47:1 52:1 874:1 
1 2:1 4:1 13:1 14:1 
1 2:1 4:1 13:1 14:1 29:1 68:1 122:1 123:1 124:1 
1 2:1 4:1 13:1 14:1 29:1 34:1 201:1 202:1 828:1 
1 2:1 4:1 13:1 14:1 72:1 82:1 92:1 421:1 813:1 875:1 876:1 
1 1:1 2:1 3:1 4:1 12:1 13:1 14:1 19:1 71:1 75:1 90:1 114:1 176:1 204:1 429:1 729:1 877:1 878:1 
1 2:1 4:1 12:1 13:1 14:1 29:1 68:1 122:1 123:1 124:1 
1 2:1 4:1 13:1 14:1 30:1 47:1 48:1 82:1 233:1 262:1 267:1 
0.5955398745896129 2:1 4:1 5:1 6:1 13:1 14:1 29:1 34:1 71:1 84:1 165:1 201:1 202:1 231:1 267:1 312:1 507:1 649:1 879:1 880:1 881:1 882:1 
0.6208246428415318 2:1 4:1 12:1 13:1 14:1 19:1 29:1 84:1 222:1 836:1 883:1 884:1 
0.950806024587993 2:1 4:1 9:1 10:1 13:1 14:1 38:1 75:1 150:1 498:1 507:1 715:1 885:1 886:1 887:1 
0.7031216039289148 2:1 4:1 12:1 13:1 14:1 38:1 46:1 68:1 75:1 111:1 150:1 159:1 240:1 283:1 327:1 362:1 379:1 529:1 598:1 649:1 675:1 888:1 889:1 890:1 891:1 892:1 893:1 
1 1:1 2:1 3:1 4:1 10:1 13:1 14:1 19:1 34:1 46:1 50:1 63:1 75:1 94:1 145:1 149:1 307:1 473:1 474:1 475:1 
1 2:1 4:1 13:1 14:1 34:1 38:1 42:1 47:1 63:1 74:1 78:1 413:1 678:1 779:1 894:1 895:1 896:1 
0.9625012085325947 1:1 2:1 3:1 4:1 12:1 13:1 14:1 19:1 84:1 90:1 122:1 252:1 897:1 898:1 
1 1:1 2:1 3:1 4:1 13:1 14:1 72:1 82:1 249:1 349:1 845:1 899:1 900:1 901:1 902:1 
1 2:1 4:1 13:1 14:1 108:1 109:1 131:1 
0.4445852758018779 2:1 4:1 12:1 13:1 14:1 45:1 63:1 93:1 109:1 122:1 167:1 238:1 262:1 287:1 347:1 602:1 744:1 905:1 906:1 907:1 908:1 909:1 910:1 
1 2:1 4:1 5:1 6:1 13:1 14:1 38:1 46:1 48:1 121:1 141:1 911:1 912:1 913:1 
0.9487891315304454 2:1 4:1 5:1 6:1 13:1 14:1 34:1 47:1 48:1 57:1 63:1 107:1 158:1 239:1 282:1 413:1 841:1 890:1 914:1 
1 2:1 4:1 13:1 14:1 68:1 84:1 122:1 123:1 175:1 916:1 
1 2:1 4:1 12:1 13:1 14:1 122:1 141:1 177:1 362:1 918:1 920:1 921:1 
1 2:1 4:1 13:1 14:1 29:1 71:1 922:1 
1 1:1 2:1 3:1 4:1 13:1 14:1 19:1 27:1 48:1 90:1 101:1 344:1 923:1 
0.5976279573984593 2:1 4:1 13:1 14:1 61:1 72:1 641:1 708:1 924:1 925:1 926:1 927:1 928:1 929:1 930:1 931:1 932:1 
1 2:1 4:1 13:1 14:1 41:1 42:1 47:1 72:1 246:1 502:1 519:1 
0.3142745260857789 2:1 4:1 10:1 13:1 14:1 19:1 63:1 75:1 145:1 149:1 933:1 934:1 935:1 936:1 937:1 
1 2:1 4:1 13:1 14:1 46:1 48:1 54:1 56:1 63:1 68:1 75:1 131:1 139:1 148:1 938:1 939:1 940:1 941:1 942:1 943:1 
1 2:1 4:1 5:1 9:1 13:1 14:1 150:1 229:1 232:1 307:1 612:1 
1 1:1 2:1 3:1 4:1 10:1 13:1 14:1 56:1 63:1 68:1 94:1 107:1 302:1 347:1 349:1 507:1 944:1 945:1 
1 2:1 4:1 5:1 6:1 13:1 14:1 27:1 29:1 71:1 649:1 
1 2:1 4:1 13:1 14:1 42:1 159:1 362:1 946:1 947:1 948:1 
0.06772829928278243 2:1 4:1 13:1 14:1 38:1 47:1 48:1 75:1 101:1 249:1 250:1 677:1 684:1 685:1 739:1 760:1 805:1 955:1 
1 1:1 2:1 3:1 4:1 13:1 14:1 63:1 72:1 84:1 173:1 197:1 248:1 306:1 887:1 956:1 957:1 958:1 959:1 
1 1:1 2:1 3:1 4:1 13:1 14:1 19:1 63:1 84:1 90:1 159:1 199:1 302:1 658:1 960:1 961:1 962:1 
1 2:1 4:1 13:1 14:1 84:1 122:1 150:1 159:1 949:1 968:1 
0.9594558699407298 1:1 2:1 3:1 4:1 13:1 14:1 76:1 262:1 560:1 658:1 969:1 970:1 971:1 
1 2:1 4:1 5:1 10:1 12:1 13:1 14:1 27:1 29:1 48:1 63:1 215:1 216:1 239:1 283:1 334:1 372:1 450:1 479:1 972:1 
1 2:1 4:1 13:1 14:1 19:1 132:1 133:1 458:1 973:1 
1 2:1 4:1 13:1 14:1 974:1 975:1 
1 2:1 4:1 5:1 10:1 13:1 14:1 56:1 66:1 97:1 99:1 107:1 126:1 170:1 215:1 239:1 251:1 351:1 429:1 515:1 818:1 976:1 977:1 978:1 979:1 
0.8441920217625817 2:1 4:1 13:1 14:1 19:1 20:1 38:1 177:1 178:1 454:1 980:1 981:1 982:1 983:1 984:1 985:1 986:1 987:1 988:1 
1 1:1 2:1 3:1 4:1 12:1 13:1 14:1 249:1 250:1 507:1 604:1 739:1 989:1 
1 2:1 4:1 5:1 13:1 14:1 27:1 29:1 34:1 63:1 150:1 216:1 347:1 604:1 805:1 918:1 
1 1:1 2:1 3:1 4:1 5:1 13:1 14:1 101:1 144:1 216:1 
1 2:1 4:1 13:1 14:1 63:1 71:1 72:1 309:1 310:1 429:1 524:1 680:1 805:1 950:1 
0.5081938071372865 2:1 4:1 5:1 12:1 13:1 14:1 47:1 84:1 112:1 124:1 150:1 158:1 202:1 215:1 216:1 239:1 258:1 262:1 283:1 329:1 331:1 340:1 392:1 604:1 990:1 991:1 
1 1:1 2:1 3:1 4:1 13:1 14:1 63:1 75:1 78:1 114:1 240:1 283:1 406:1 520:1 992:1 993:1 994:1 
1 2:1 4:1 12:1 13:1 14:1 68:1 122:1 124:1 413:1 666:1 996:1 
1 2:1 4:1 5:1 13:1 14:1 84:1 229:1 966:1 997:1 998:1 
1 1:1 2:1 3:1 4:1 12:1 13:1 14:1 91:1 999:1 
0.7814326807063132 2:1 4:1 12:1 13:1 14:1 48:1 84:1 192:1 196:1 229:1 294:1 486:1 497:1 562:1 1000:1 1001:1 
1 1:1 2:1 3:1 4:1 5:1 10:1 13:1 14:1 19:1 56:1 66:1 72:1 90:1 97:1 99:1 107:1 126:1 170:1 215:1 239:1 251:1 351:1 429:1 515:1 818:1 976:1 977:1 978:1 979:1 
0.6117175386073737 2:1 4:1 13:1 14:1 42:1 56:1 63:1 159:1 167:1 262:1 429:1 631:1 1008:1 1009:1 
1 2:1 4:1 5:1 12:1 13:1 14:1 20:1 27:1 34:1 108:1 109:1 110:1 147:1 159:1 203:1 293:1 454:1 656:1 1010:1 1011:1 
0.9461629764505392 1:1 2:1 3:1 4:1 9:1 13:1 14:1 19:1 71:1 84:1 90:1 95:1 109:1 315:1 365:1 505:1 780:1 1012:1 1013:1 1014:1 
1 2:1 4:1 5:1 13:1 14:1 34:1 42:1 50:1 65:1 130:1 175:1 222:1 916:1 1016:1 1017:1 
1 2:1 4:1 5:1 13:1 14:1 47:1 56:1 107:1 196:1 229:1 262:1 287:1 451:1 
1 1:1 2:1 3:1 4:1 10:1 13:1 14:1 19:1 34:1 66:1 72:1 84:1 177:1 178:1 262:1 334:1 429:1 616:1 694:1 1020:1 1021:1 
1 2:1 4:1 5:1 6:1 13:1 14:1 47:1 63:1 84:1 135:1 628:1 1022:1 1023:1 1024:1 
1 2:1 4:1 5:1 12:1 13:1 14:1 16:1 20:1 38:1 63:1 84:1 127:1 167:1 306:1 625:1 905:1 1025:1 
1 2:1 4:1 13:1 14:1 19:1 38:1 414:1 671:1 1026:1 1027:1 1028:1 1029:1 1030:1 
1 1:1 2:1 3:1 4:1 5:1 6:1 8:1 13:1 14:1 72:1 101:1 107:1 109:1 239:1 251:1 318:1 413:1 441:1 562:1 847:1 1031:1 1032:1 
1 2:1 4:1 13:1 14:1 109:1 196:1 480:1 1033:1 
1 2:1 4:1 5:1 12:1 13:1 14:1 63:1 95:1 109:1 186:1 347:1 368:1 484:1 1036:1 1037:1 
1 2:1 4:1 13:1 14:1 29:1 48:1 75:1 381:1 
0.5143379974077817 2:1 4:1 13:1 14:1 66:1 122:1 183:1 509:1 510:1 1040:1 1041:1 1042:1 1043:1 
1 2:1 4:1 13:1 14:1 38:1 55:1 73:1 158:1 208:1 410:1 615:1 690:1 1046:1 1047:1 
0.8099199236093538 2:1 4:1 13:1 14:1 267:1 1048:1 1049:1 1050:1 1051:1 
1 2:1 4:1 5:1 13:1 14:1 63:1 98:1 99:1 120:1 165:1 349:1 464:1 610:1 1056:1 1057:1 
1 2:1 4:1 5:1 12:1 13:1 14:1 47:1 56:1 95:1 109:1 111:1 216:1 240:1 315:1 324:1 347:1 351:1 476:1 507:1 641:1 1058:1 
0.1072352960039394 2:1 4:1 13:1 14:1 29:1 34:1 46:1 63:1 66:1 71:1 84:1 112:1 159:1 170:1 172:1 211:1 267:1 347:1 733:1 1059:1 
1 2:1 4:1 5:1 13:1 14:1 229:1 287:1 
0.2091482072143717 2:1 4:1 10:1 13:1 14:1 31:1 32:1 48:1 63:1 65:1 75:1 78:1 95:1 107:1 109:1 148:1 204:1 367:1 436:1 590:1 1060:1 
1 1:1 2:1 3:1 4:1 12:1 13:1 14:1 30:1 60:1 63:1 71:1 84:1 150:1 312:1 1061:1 1062:1 1063:1 1064:1 
1 2:1 4:1 8:1 9:1 13:1 14:1 27:1 32:1 56:1 215:1 1070:1 1071:1 1072:1 1073:1 
0.2993256889308927 1:1 2:1 3:1 4:1 13:1 14:1 19:1 63:1 233:1 425:1 1074:1 1075:1 1076:1 
1 2:1 4:1 12:1 13:1 14:1 30:1 1077:1 
0.4535817237133185 2:1 4:1 12:1 13:1 14:1 52:1 101:1 251:1 385:1 807:1 904:1 1078:1 1079:1 1080:1 1081:1 1082:1 
1 2:1 4:1 12:1 13:1 14:1 27:1 34:1 101:1 115:1 150:1 216:1 343:1 
1 2:1 4:1 13:1 14:1 42:1 46:1 63:1 71:1 75:1 95:1 123:1 137:1 175:1 454:1 600:1 1084:1 1085:1 1086:1 1087:1 1088:1 1089:1 
0.7964200678790132 1:1 2:1 3:1 4:1 12:1 13:1 14:1 19:1 42:1 55:1 57:1 90:1 157:1 158:1 159:1 160:1 161:1 
1 1:1 2:1 3:1 4:1 13:1 14:1 63:1 109:1 237:1 685:1 1090:1 1091:1 1092:1 1093:1 
0.58696340638802 2:1 4:1 12:1 13:1 14:1 29:1 158:1 356:1 357:1 
1 2:1 4:1 5:1 12:1 13:1 14:1 34:1 46:1 130:1 159:1 203:1 427:1 656:1 845:1 1094:1 1095:1 1096:1 
1 2:1 4:1 5:1 6:1 12:1 13:1 14:1 32:1 42:1 52:1 1097:1 1098:1 
1 2:1 4:1 13:1 14:1 38:1 42:1 72:1 109:1 127:1 267:1 294:1 480:1 515:1 631:1 663:1 1099:1 1100:1 
1 2:1 4:1 13:1 14:1 29:1 63:1 66:1 72:1 170:1 262:1 576:1 
0.6898230930752436 1:1 2:1 3:1 4:1 13:1 14:1 32:1 75:1 94:1 95:1 109:1 156:1 805:1 1101:1 1102:1 1103:1 1104:1 1105:1 1106:1 1107:1 1108:1 1109:1 1110:1 1111:1 
1 2:1 4:1 13:1 14:1 16:1 23:1 83:1 123:1 439:1 1115:1 
1 2:1 4:1 5:1 8:1 13:1 14:1 99:1 109:1 366:1 1116:1 1117:1 
0.7810020016936549 2:1 4:1 5:1 13:1 14:1 34:1 42:1 46:1 48:1 63:1 71:1 99:1 101:1 113:1 127:1 147:1 175:1 196:1 201:1 202:1 267:1 402:1 865:1 869:1 1118:1 1119:1 1120:1 1121:1 1122:1 1123:1 1124:1 1125:1 1126:1 
1 2:1 4:1 13:1 14:1 51:1 95:1 109:1 135:1 165:1 200:1 823:1 1127:1 1128:1 
1 2:1 4:1 12:1 13:1 14:1 29:1 312:1 579:1 1129:1 1130:1 
0.782666620468879 2:1 4:1 9:1 13:1 14:1 75:1 194:1 1131:1 1132:1 
1 1:1 2:1 3:1 4:1 12:1 13:1 14:1 19:1 30:1 90:1 122:1 194:1 210:1 
1 2:1 4:1 13:1 14:1 47:1 160:1 1133:1 1134:1 
1 2:1 4:1 5:1 12:1 13:1 14:1 27:1 40:1 46:1 48:1 111:1 112:1 135:1 251:1 349:1 413:1 680:1 
1 1:1 2:1 3:1 4:1 5:1 13:1 14:1 19:1 84:1 90:1 229:1 966:1 997:1 998:1 
1 2:1 4:1 13:1 14:1 30:1 46:1 142:1 522:1 
1 2:1 4:1 10:1 12:1 13:1 14:1 84:1 150:1 204:1 258:1 312:1 1135:1 1136:1 1137:1 
0.7838834233451994 1:1 2:1 3:1 4:1 5:1 10:1 13:1 14:1 34:1 46:1 63:1 75:1 84:1 158:1 229:1 262:1 294:1 413:1 622:1 756:1 1138:1 1139:1 1140:1 1141:1 1142:1 
1 2:1 4:1 12:1 13:1 14:1 68:1 84:1 122:1 123:1 175:1 211:1 
1 1:1 2:1 3:1 4:1 5:1 8:1 12:1 13:1 14:1 27:1 42:1 99:1 312:1 715:1 1143:1 
0.9904175641459058 2:1 4:1 10:1 12:1 13:1 14:1 147:1 194:1 786:1 1144:1 1145:1 
0.5388131757381435 2:1 4:1 13:1 14:1 84:1 150:1 1112:1 1146:1 1147:1 
1 2:1 4:1 5:1 13:1 14:1 34:1 47:1 78:1 79:1 84:1 114:1 175:1 240:1 262:1 312:1 694:1 779:1 887:1 1100:1 1127:1 1148:1 1149:1 
1 2:1 4:1 5:1 12:1 13:1 14:1 29:1 71:1 235:1 438:1 1150:1 1151:1 
1 2:1 4:1 5:1 6:1 13:1 14:1 326:1 507:1 1152:1 1153:1 1154:1 
1 2:1 4:1 13:1 14:1 42:1 56:1 68:1 75:1 150:1 1155:1 1156:1 1157:1 1158:1 
1 2:1 4:1 5:1 13:1 14:1 42:1 94:1 377:1 479:1 1159:1 1160:1 1161:1 
1 2:1 4:1 13:1 14:1 30:1 
1 2:1 4:1 12:1 13:1 14:1 19:1 29:1 84:1 177:1 178:1 215:1 262:1 505:1 759:1 1162:1 
1 1:1 2:1 3:1 4:1 13:1 14:1 
1 2:1 4:1 10:1 12:1 13:1 14:1 29:1 48:1 75:1 159:1 437:1 1163:1 1164:1 1165:1 1166:1 
0.3973738803567431 2:1 4:1 5:1 6:1 10:1 13:1 14:1 42:1 46:1 56:1 60:1 65:1 71:1 109:1 116:1 141:1 208:1 248:1 262:1 282:1 335:1 774:1 1167:1 1168:1 1169:1 1170:1 1171:1 1172:1 1173:1 
0.9502403156229327 2:1 4:1 13:1 14:1 63:1 75:1 189:1 353:1 1174:1 
1 2:1 4:1 10:1 13:1 14:1 42:1 60:1 99:1 101:1 164:1 413:1 548:1 1175:1 1176:1 
1 2:1 4:1 13:1 14:1 42:1 137:1 159:1 316:1 1031:1 1178:1 
0.5080973071300183 2:1 4:1 13:1 14:1 48:1 278:1 649:1 805:1 1179:1 1180:1 
1 2:1 4:1 8:1 13:1 14:1 19:1 50:1 75:1 108:1 109:1 145:1 149:1 502:1 863:1 951:1 
1 2:1 4:1 5:1 13:1 14:1 27:1 31:1 56:1 75:1 107:1 194:1 282:1 312:1 313:1 314:1 315:1 316:1 317:1 318:1 319:1 
1 1:1 2:1 3:1 4:1 8:1 12:1 13:1 14:1 55:1 101:1 164:1 318:1 
1 2:1 4:1 13:1 14:1 72:1 108:1 109:1 131:1 
0.7913434741375484 2:1 4:1 13:1 14:1 34:1 42:1 60:1 95:1 101:1 107:1 159:1 216:1 312:1 315:1 590:1 609:1 712:1 1181:1 1182:1 
1 1:1 2:1 3:1 4:1 5:1 12:1 13:1 14:1 27:1 93:1 911:1 
1 2:1 4:1 12:1 13:1 14:1 48:1 84:1 101:1 200:1 1183:1 1184:1 
1 2:1 4:1 13:1 14:1 
1 1:1 2:1 3:1 4:1 13:1 14:1 19:1 84:1 90:1 215:1 251:1 351:1 360:1 385:1 503:1 701:1 
1 2:1 4:1 13:1 14:1 57:1 123:1 158:1 620:1 1187:1 
1 2:1 4:1 13:1 14:1 31:1 32:1 75:1 107:1 147:1 159:1 277:1 712:1 1188:1 1189:1 1190:1 1191:1 1192:1 
1 2:1 4:1 13:1 14:1 63:1 65:1 141:1 262:1 852:1 1193:1 
0.641845708728204 2:1 4:1 13:1 14:1 29:1 63:1 122:1 135:1 159:1 160:1 163:1 167:1 413:1 1198:1 1199:1 
1 1:1 2:1 3:1 4:1 5:1 12:1 13:1 14:1 19:1 56:1 63:1 71:1 75:1 90:1 99:1 109:1 163:1 229:1 235:1 267:1 270:1 448:1 548:1 580:1 581:1 590:1 883:1 918:1 1047:1 1136:1 1200:1 1201:1 1202:1 1203:1 
1 2:1 4:1 12:1 13:1 14:1 47:1 71:1 215:1 362:1 505:1 1204:1 1205:1 
1 2:1 4:1 5:1 6:1 13:1 14:1 17:1 38:1 71:1 75:1 84:1 225:1 454:1 564:1 1206:1 1207:1 
0.294770121891765 2:1 4:1 12:1 13:1 14:1 30:1 84:1 163:1 277:1 456:1 759:1 919:1 1208:1 1209:1 
1 2:1 4:1 12:1 13:1 14:1 19:1 42:1 122:1 123:1 179:1 580:1 581:1 641:1 1210:1 
0.1669285075825637 1:1 2:1 3:1 4:1 5:1 8:1 13:1 14:1 42:1 63:1 75:1 95:1 106:1 109:1 111:1 150:1 181:1 282:1 347:1 366:1 678:1 1090:1 1211:1 1212:1 1213:1 1214:1 
1 2:1 4:1 13:1 14:1 17:1 29:1 159:1 175:1 222:1 337:1 625:1 729:1 1217:1 
1 1:1 2:1 3:1 4:1 13:1 14:1 262:1 283:1 1218:1 
1 2:1 4:1 12:1 13:1 14:1 71:1 240:1 362:1 576:1 990:1 
1 1:1 2:1 3:1 4:1 13:1 14:1 38:1 63:1 163:1 283:1 337:1 625:1 1026:1 
1 2:1 4:1 5:1 13:1 14:1 19:1 120:1 177:1 1219:1 1220:1 
1 2:1 4:1 13:1 14:1 29:1 47:1 211:1 222:1 
1 2:1 4:1 5:1 13:1 14:1 19:1 38:1 42:1 46:1 56:1 71:1 72:1 75:1 89:1 99:1 114:1 142:1 159:1 239:1 295:1 299:1 628:1 852:1 1189:1 1221:1 1222:1 1223:1 1224:1 
1 1:1 2:1 3:1 4:1 8:1 12:1 13:1 14:1 19:1 34:1 63:1 72:1 75:1 94:1 95:1 107:1 148:1 240:1 267:1 347:1 865:1 869:1 1225:1 1226:1 1227:1 1228:1 
1 2:1 4:1 13:1 14:1 123:1 238:1 1229:1 
1 1:1 2:1 3:1 4:1 5:1 6:1 9:1 13:1 14:1 19:1 20:1 27:1 32:1 34:1 63:1 75:1 90:1 135:1 156:1 159:1 189:1 215:1 315:1 778:1 1120:1 
1 1:1 2:1 3:1 4:1 5:1 13:1 14:1 99:1 231:1 349:1 455:1 1230:1 1231:1 1232:1 
0.4930038378800311 2:1 4:1 13:1 14:1 30:1 34:1 38:1 47:1 75:1 130:1 472:1 1236:1 1237:1 1238:1 1239:1 
1 2:1 4:1 13:1 14:1 30:1 63:1 262:1 1233:1 1240:1 
1 2:1 4:1 13:1 14:1 19:1 29:1 38:1 75:1 122:1 123:1 145:1 149:1 1241:1 1242:1 
0.5172873244780202 2:1 4:1 13:1 14:1 680:1 1243:1 1244:1 1245:1 
1 2:1 4:1 13:1 14:1 123:1 329:1 330:1 331:1 434:1 718:1 719:1 
1 2:1 4:1 13:1 14:1 63:1 150:1 950:1 1246:1 1247:1 
1 2:1 4:1 5:1 13:1 14:1 27:1 50:1 84:1 823:1 951:1 1248:1 1249:1 1250:1 1251:1 
1 2:1 4:1 8:1 13:1 14:1 50:1 52:1 240:1 823:1 944:1 
0.7909954035274995 1:1 2:1 3:1 4:1 10:1 12:1 13:1 14:1 66:1 210:1 318:1 504:1 1252:1 1253:1 
1 2:1 4:1 13:1 14:1 148:1 150:1 158:1 283:1 532:1 847:1 1261:1 1262:1 1263:1 
1 2:1 4:1 13:1 14:1 30:1 68:1 922:1 1264:1 1265:1 
1 2:1 4:1 12:1 13:1 14:1 72:1 132:1 167:1 452:1 755:1 
0.4386648961328068 2:1 4:1 5:1 10:1 13:1 14:1 42:1 63:1 68:1 79:1 81:1 84:1 99:1 120:1 316:1 343:1 641:1 680:1 820:1 1266:1 1267:1 1268:1 
1 2:1 4:1 5:1 12:1 13:1 14:1 42:1 79:1 165:1 207:1 225:1 232:1 307:1 312:1 733:1 1269:1 
1 2:1 4:1 13:1 14:1 46:1 48:1 66:1 84:1 112:1 158:1 225:1 326:1 444:1 1270:1 1271:1 
1 1:1 2:1 3:1 4:1 13:1 14:1 30:1 128:1 293:1 561:1 590:1 1272:1 
0.9565021343274525 2:1 4:1 13:1 14:1 42:1 84:1 692:1 1273:1 1274:1 1275:1 
1 2:1 4:1 13:1 14:1 27:1 47:1 48:1 72:1 
1 2:1 4:1 8:1 13:1 14:1 17:1 20:1 38:1 42:1 63:1 75:1 78:1 99:1 114:1 159:1 204:1 232:1 316:1 414:1 656:1 1227:1 
1 1:1 2:1 3:1 4:1 5:1 13:1 14:1 19:1 63:1 95:1 107:1 130:1 145:1 149:1 251:1 324:1 1029:1 1030:1 1276:1 
1 2:1 4:1 8:1 10:1 12:1 13:1 14:1 63:1 71:1 75:1 78:1 84:1 86:1 122:1 159:1 173:1 262:1 306:1 1199:1 1277:1 1278:1 
1 2:1 4:1 5:1 12:1 13:1 14:1 42:1 262:1 382:1 422:1 622:1 
0.818584968573966 2:1 4:1 5:1 13:1 14:1 42:1 48:1 73:1 347:1 1279:1 1280:1 
1 2:1 4:1 13:1 14:1 60:1 107:1 479:1 499:1 754:1 1281:1 
1 2:1 4:1 5:1 6:1 13:1 14:1 63:1 65:1 135:1 315:1 436:1 
0.7954766438345249 2:1 4:1 13:1 14:1 47:1 63:1 68:1 75:1 107:1 197:1 226:1 238:1 385:1 561:1 845:1 1182:1 1282:1 1283:1 
0.2609667811726647 2:1 4:1 13:1 14:1 29:1 84:1 175:1 211:1 222:1 1284:1 1285:1 
1 2:1 4:1 13:1 14:1 75:1 159:1 175:1 211:1 222:1 438:1 
1 2:1 4:1 13:1 14:1 329:1 330:1 331:1 
0.9145238305424964 2:1 4:1 12:1 13:1 14:1 16:1 19:1 60:1 123:1 177:1 295:1 597:1 883:1 993:1 1201:1 1286:1 1287:1 
1 2:1 4:1 13:1 14:1 84:1 215:1 251:1 351:1 360:1 385:1 503:1 701:1 
1 1:1 2:1 3:1 4:1 19:1 66:1 68:1 72:1 90:1 92:1 115:1 225:1 1189:1 1288:1 1289:1 1290:1 1291:1 1292:1 
1 2:1 4:1 10:1 12:1 13:1 14:1 38:1 42:1 71:1 75:1 78:1 114:1 122:1 131:1 159:1 163:1 554:1 1293:1 1294:1 1295:1 
1 1:1 2:1 3:1 4:1 5:1 9:1 12:1 13:1 14:1 27:1 38:1 46:1 56:1 57:1 63:1 65:1 71:1 75:1 84:1 109:1 115:1 120:1 175:1 215:1 216:1 262:1 267:1 306:1 353:1 429:1 489:1 576:1 658:1 785:1 842:1 980:1 1018:1 1032:1 1296:1 
0.4876929025912192 2:1 4:1 5:1 6:1 13:1 14:1 27:1 29:1 38:1 46:1 63:1 65:1 71:1 75:1 79:1 135:1 142:1 156:1 160:1 185:1 192:1 307:1 429:1 822:1 824:1 
1 2:1 4:1 13:1 14:1 38:1 122:1 123:1 124:1 
1 2:1 4:1 5:1 8:1 13:1 14:1 52:1 71:1 72:1 215:1 502:1 
1 2:1 4:1 5:1 12:1 13:1 14:1 27:1 93:1 911:1 
1 2:1 4:1 13:1 14:1 38:1 47:1 68:1 75:1 84:1 158:1 176:1 550:1 1300:1 1301:1 
0.4916341987697701 1:1 2:1 3:1 4:1 5:1 9:1 10:1 13:1 14:1 27:1 42:1 46:1 56:1 94:1 147:1 823:1 997:1 1103:1 1302:1 1303:1 1304:1 1305:1 1306:1 1307:1 1308:1 
1 2:1 4:1 13:1 14:1 48:1 84:1 164:1 327:1 778:1 1135:1 1309:1 
1 1:1 2:1 3:1 4:1 12:1 13:1 14:1 25:1 107:1 232:1 282:1 326:1 349:1 487:1 1298:1 1310:1 1311:1 
1 1:1 2:1 3:1 4:1 10:1 12:1 13:1 14:1 19:1 56:1 63:1 84:1 90:1 99:1 108:1 109:1 127:1 131:1 186:1 609:1 823:1 
1 2:1 4:1 5:1 6:1 10:1 13:1 14:1 47:1 71:1 72:1 82:1 95:1 109:1 210:1 315:1 339:1 576:1 
1 2:1 4:1 5:1 8:1 13:1 14:1 50:1 108:1 109:1 139:1 1312:1 
1 2:1 4:1 13:1 14:1 1103:1 1313:1 1314:1 
1 2:1 4:1 13:1 14:1 107:1 121:1 172:1 316:1 
1 2:1 4:1 13:1 14:1 515:1 598:1 1315:1 1316:1 
1 2:1 4:1 13:1 14:1 30:1 48:1 64:1 84:1 110:1 122:1 1317:1 1318:1 
0.9008647461616116 2:1 4:1 13:1 14:1 47:1 63:1 73:1 107:1 163:1 197:1 351:1 628:1 1319:1 1320:1 1321:1 1322:1 
0.2507316625905649 2:1 4:1 13:1 14:1 27:1 42:1 46:1 47:1 71:1 84:1 107:1 141:1 158:1 163:1 185:1 227:1 266:1 283:1 287:1 554:1 713:1 793:1 873:1 885:1 1323:1 1324:1 1325:1 
1 2:1 4:1 5:1 9:1 10:1 13:1 14:1 27:1 38:1 63:1 77:1 84:1 92:1 107:1 120:1 135:1 158:1 522:1 573:1 781:1 841:1 1053:1 1326:1 1327:1 
1 2:1 4:1 5:1 13:1 14:1 27:1 34:1 47:1 73:1 130:1 165:1 205:1 326:1 422:1 488:1 549:1 1329:1 1330:1 1331:1 
1 1:1 2:1 3:1 4:1 5:1 10:1 12:1 13:1 14:1 63:1 71:1 172:1 216:1 302:1 326:1 413:1 
0.9366664439342822 2:1 4:1 13:1 14:1 30:1 31:1 47:1 62:1 63:1 84:1 108:1 109:1 158:1 172:1 173:1 175:1 302:1 600:1 773:1 774:1 775:1 1332:1 
1 2:1 4:1 13:1 14:1 42:1 45:1 385:1 641:1 1333:1 1334:1 
1 2:1 4:1 5:1 6:1 9:1 13:1 14:1 20:1 27:1 32:1 34:1 63:1 75:1 135:1 156:1 159:1 189:1 215:1 315:1 778:1 1120:1 
1 2:1 4:1 5:1 13:1 14:1 60:1 1335:1 
1 1:1 2:1 3:1 4:1 13:1 14:1 19:1 90:1 
1 1:1 2:1 3:1 4:1 5:1 13:1 14:1 63:1 84:1 120:1 215:1 216:1 302:1 658:1 1302:1 1336:1 1337:1 
1 1:1 2:1 3:1 4:1 13:1 14:1 19:1 90:1 141:1 239:1 708:1 709:1 
1 2:1 4:1 13:1 14:1 107:1 148:1 150:1 316:1 805:1 1341:1 1342:1 
0.7625865778765128 2:1 4:1 13:1 14:1 926:1 1343:1 1344:1 1345:1 1346:1 1347:1 
1 2:1 4:1 5:1 13:1 14:1 63:1 75:1 95:1 109:1 127:1 202:1 239:1 340:1 746:1 1327:1 
1 1:1 2:1 3:1 4:1 12:1 13:1 14:1 19:1 90:1 1348:1 
1 2:1 4:1 13:1 14:1 212:1 1278:1 
1 2:1 4:1 13:1 14:1 46:1 75:1 158:1 364:1 450:1 742:1 
1 2:1 4:1 13:1 14:1 19:1 48:1 61:1 84:1 108:1 109:1 131:1 192:1 229:1 295:1 562:1 1003:1 1356:1 
1 2:1 4:1 10:1 12:1 13:1 14:1 63:1 729:1 1357:1 1358:1 
1 2:1 4:1 5:1 13:1 14:1 20:1 84:1 123:1 175:1 211:1 222:1 238:1 434:1 
1 2:1 4:1 5:1 13:1 14:1 20:1 211:1 222:1 376:1 
1 2:1 4:1 12:1 13:1 14:1 29:1 123:1 1359:1 
0.1513492668479464 2:1 4:1 12:1 13:1 14:1 42:1 56:1 634:1 1053:1 1344:1 1360:1 1361:1 1362:1 1363:1 1364:1 1365:1 1366:1 1367:1 1368:1 1369:1 1370:1 1371:1 1372:1 1373:1 1374:1 
0.552767669501311 1:1 2:1 3:1 4:1 13:1 14:1 30:1 32:1 38:1 46:1 48:1 101:1 181:1 1375:1 1376:1 1377:1 1378:1 
0.8507840341778773 1:1 2:1 3:1 4:1 8:1 12:1 13:1 14:1 27:1 48:1 51:1 56:1 62:1 63:1 71:1 75:1 99:1 108:1 109:1 165:1 172:1 213:1 344:1 710:1 778:1 
1 2:1 4:1 9:1 13:1 14:1 29:1 68:1 71:1 73:1 210:1 326:1 576:1 1379:1 
1 2:1 4:1 13:1 14:1 27:1 66:1 150:1 170:1 262:1 287:1 
0.796498128371987 2:1 4:1 10:1 13:1 14:1 72:1 79:1 788:1 1382:1 1383:1 1384:1 1385:1 
0.7393905784883791 2:1 4:1 13:1 14:1 1386:1 1387:1 
1 1:1 2:1 3:1 4:1 12:1 13:1 14:1 38:1 73:1 75:1 78:1 92:1 97:1 561:1 609:1 1388:1 1389:1 
1 1:1 2:1 3:1 4:1 5:1 13:1 14:1 379:1 408:1 1390:1 1391:1 1392:1 1393:1 
0.3334475808368161 2:1 4:1 13:1 14:1 302:1 364:1 1226:1 1394:1 1395:1 1396:1 1397:1 1398:1 1399:1 1400:1 1401:1 
1 2:1 4:1 13:1 14:1 30:1 47:1 48:1 71:1 108:1 109:1 205:1 248:1 1227:1 1402:1 1403:1 
1 2:1 4:1 13:1 14:1 16:1 46:1 306:1 433:1 719:1 1404:1 1405:1 
0.01015688044886627 2:1 4:1 13:1 14:1 75:1 159:1 1174:1 1406:1 1407:1 
1 2:1 4:1 13:1 14:1 30:1 71:1 159:1 172:1 175:1 226:1 349:1 502:1 1409:1 1410:1 
1 2:1 4:1 5:1 13:1 14:1 63:1 82:1 84:1 99:1 109:1 139:1 140:1 1327:1 1411:1 
1 1:1 2:1 3:1 4:1 5:1 13:1 14:1 19:1 50:1 90:1 262:1 312:1 664:1 687:1 748:1 
1 1:1 2:1 3:1 4:1 10:1 12:1 13:1 14:1 19:1 38:1 42:1 48:1 75:1 90:1 123:1 159:1 210:1 518:1 1189:1 1412:1 
0.5650949931574595 2:1 4:1 10:1 13:1 14:1 20:1 57:1 258:1 343:1 911:1 1413:1 
1 2:1 4:1 13:1 14:1 29:1 175:1 211:1 222:1 
1 2:1 4:1 13:1 14:1 
1 1:1 2:1 3:1 4:1 9:1 13:1 14:1 62:1 101:1 1415:1 1416:1 
1 1:1 2:1 4:1 13:1 14:1 30:1 72:1 75:1 123:1 128:1 302:1 489:1 837:1 854:1 1417:1 1418:1 1419:1 1420:1 1421:1 1422:1 
1 2:1 4:1 5:1 6:1 10:1 13:1 14:1 56:1 63:1 72:1 107:1 114:1 194:1 197:1 214:1 240:1 249:1 250:1 262:1 282:1 344:1 508:1 564:1 957:1 1281:1 1423:1 
1 2:1 4:1 13:1 14:1 25:1 29:1 349:1 792:1 
1 1:1 2:1 3:1 4:1 5:1 8:1 10:1 12:1 13:1 14:1 46:1 55:1 56:1 71:1 92:1 95:1 107:1 109:1 123:1 165:1 194:1 282:1 293:1 324:1 326:1 809:1 922:1 1154:1 1427:1 
0.3945630322464118 2:1 4:1 13:1 14:1 38:1 46:1 63:1 65:1 71:1 72:1 75:1 78:1 84:1 108:1 109:1 122:1 159:1 163:1 229:1 239:1 360:1 368:1 419:1 674:1 1199:1 1428:1 1429:1 1430:1 1431:1 1432:1 1433:1 
1 1:1 2:1 3:1 4:1 5:1 13:1 14:1 23:1 99:1 109:1 312:1 
1 2:1 4:1 13:1 14:1 19:1 30:1 48:1 73:1 84:1 123:1 131:1 329:1 331:1 379:1 392:1 483:1 497:1 807:1 817:1 1312:1 1434:1 
0.5490754686610119 1:1 2:1 3:1 4:1 5:1 10:1 19:1 29:1 56:1 63:1 71:1 72:1 75:1 84:1 90:1 108:1 109:1 110:1 111:1 127:1 156:1 312:1 414:1 521:1 522:1 561:1 817:1 824:1 1435:1 
1 2:1 4:1 5:1 10:1 13:1 14:1 29:1 41:1 47:1 63:1 75:1 99:1 122:1 210:1 522:1 894:1 1116:1 1436:1 1437:1 
0.6561772213008591 2:1 4:1 5:1 6:1 10:1 13:1 14:1 71:1 72:1 75:1 159:1 189:1 190:1 191:1 192:1 193:1 194:1 
0.1937330124677686 2:1 4:1 13:1 14:1 63:1 84:1 106:1 262:1 413:1 1439:1 1440:1 
1 2:1 4:1 13:1 14:1 215:1 
1 2:1 4:1 13:1 14:1 72:1 163:1 936:1 
1 2:1 4:1 13:1 14:1 20:1 1441:1 
1 1:1 2:1 3:1 4:1 12:1 13:1 14:1 19:1 51:1 71:1 75:1 84:1 90:1 108:1 109:1 110:1 111:1 112:1 113:1 114:1 115:1 116:1 117:1 118:1 
1 2:1 4:1 13:1 14:1 32:1 42:1 52:1 215:1 1445:1 1446:1 1447:1 
1 2:1 4:1 13:1 14:1 1448:1 
1 2:1 4:1 13:1 14:1 133:1 345:1 1449:1 
1 2:1 4:1 8:1 13:1 14:1 55:1 150:1 165:1 200:1 202:1 340:1 
1 1:1 2:1 3:1 4:1 13:1 14:1 40:1 72:1 82:1 197:1 224:1 240:1 379:1 522:1 743:1 1116:1 1450:1 
1 2:1 4:1 9:1 13:1 14:1 19:1 29:1 34:1 42:1 123:1 177:1 178:1 201:1 202:1 282:1 622:1 768:1 834:1 
0.508375321319775 1:1 2:1 3:1 4:1 13:1 14:1 19:1 47:1 72:1 75:1 90:1 114:1 158:1 302:1 1451:1 1452:1 1453:1 
1 2:1 4:1 13:1 14:1 46:1 65:1 68:1 71:1 382:1 660:1 877:1 1454:1 
1 2:1 4:1 9:1 13:1 14:1 27:1 34:1 42:1 159:1 170:1 175:1 201:1 202:1 222:1 278:1 1458:1 
1 2:1 4:1 5:1 6:1 13:1 14:1 19:1 29:1 32:1 52:1 63:1 78:1 121:1 127:1 167:1 215:1 295:1 299:1 326:1 413:1 576:1 
1 2:1 4:1 13:1 14:1 51:1 84:1 156:1 197:1 215:1 312:1 379:1 658:1 713:1 1116:1 1459:1 
1 1:1 2:1 3:1 4:1 13:1 14:1 184:1 
0.2658493456894256 2:1 4:1 13:1 14:1 84:1 150:1 1135:1 1460:1 
1 2:1 4:1 5:1 13:1 14:1 19:1 30:1 48:1 73:1 95:1 177:1 178:1 216:1 939:1 
0.4371668813685566 2:1 4:1 12:1 13:1 14:1 73:1 229:1 743:1 754:1 1461:1 
1 1:1 2:1 3:1 4:1 5:1 13:1 14:1 19:1 48:1 66:1 75:1 295:1 299:1 560:1 710:1 1056:1 1462:1 1463:1 
1 2:1 4:1 5:1 13:1 14:1 27:1 63:1 120:1 215:1 216:1 222:1 262:1 360:1 793:1 1426:1 
1 1:1 2:1 3:1 4:1 9:1 12:1 13:1 14:1 47:1 84:1 214:1 287:1 316:1 1464:1 1465:1 
1 1:1 2:1 3:1 4:1 5:1 13:1 14:1 19:1 27:1 47:1 48:1 56:1 94:1 107:1 165:1 215:1 412:1 413:1 508:1 561:1 602:1 823:1 865:1 869:1 1466:1 
1 1:1 2:1 3:1 4:1 13:1 14:1 19:1 51:1 55:1 62:1 101:1 145:1 149:1 976:1 
1 2:1 4:1 13:1 14:1 33:1 42:1 47:1 48:1 99:1 249:1 329:1 331:1 349:1 392:1 1467:1 1468:1 
0.9618094695653102 2:1 4:1 13:1 14:1 66:1 84:1 479:1 480:1 1149:1 1469:1 1470:1 1471:1 1472:1 1473:1 
1 2:1 4:1 13:1 14:1 30:1 999:1 1475:1 
0.352077488959523 2:1 4:1 13:1 14:1 72:1 101:1 107:1 232:1 1029:1 1182:1 1344:1 1495:1 1496:1 1497:1 1498:1 1499:1 1500:1 1501:1 1502:1 1503:1 1504:1 1505:1 1506:1 
0.1835617977221789 2:1 4:1 5:1 13:1 14:1 19:1 29:1 63:1 71:1 79:1 109:1 120:1 135:1 159:1 164:1 173:1 197:1 379:1 592:1 1300:1 1312:1 1507:1 1508:1 1509:1 
1 2:1 4:1 8:1 13:1 14:1 27:1 47:1 62:1 63:1 72:1 107:1 130:1 289:1 351:1 1514:1 
0.1748897951338324 2:1 4:1 13:1 14:1 47:1 72:1 75:1 114:1 158:1 302:1 1451:1 1452:1 1453:1 
1 1:1 2:1 3:1 4:1 13:1 14:1 19:1 38:1 47:1 48:1 75:1 90:1 101:1 249:1 250:1 677:1 684:1 685:1 739:1 760:1 805:1 955:1 
1 2:1 4:1 13:1 14:1 19:1 30:1 72:1 107:1 131:1 287:1 295:1 299:1 1515:1 
1 1:1 2:1 3:1 4:1 12:1 13:1 14:1 38:1 362:1 1516:1 1517:1 
1 2:1 4:1 13:1 14:1 108:1 109:1 1296:1 
1 2:1 4:1 10:1 12:1 13:1 14:1 63:1 68:1 172:1 205:1 240:1 487:1 658:1 733:1 743:1 781:1 1518:1 1519:1 
1 1:1 2:1 3:1 4:1 13:1 14:1 515:1 
1 2:1 4:1 5:1 13:1 14:1 16:1 62:1 84:1 101:1 105:1 185:1 774:1 1520:1 1521:1 
1 2:1 4:1 13:1 14:1 32:1 65:1 68:1 75:1 84:1 94:1 593:1 639:1 944:1 1522:1 1523:1 1524:1 1525:1 1526:1 1527:1 
1 2:1 4:1 5:1 13:1 14:1 47:1 63:1 108:1 109:1 112:1 172:1 186:1 262:1 302:1 1528:1 
1 1:1 2:1 3:1 4:1 12:1 13:1 14:1 51:1 62:1 66:1 101:1 129:1 130:1 131:1 
1 1:1 2:1 3:1 4:1 13:1 14:1 175:1 194:1 302:1 
1 2:1 4:1 5:1 13:1 14:1 46:1 75:1 82:1 99:1 154:1 156:1 258:1 719:1 
1 1:1 2:1 3:1 4:1 13:1 14:1 19:1 84:1 90:1 150:1 1135:1 1460:1 
1 1:1 2:1 3:1 4:1 8:1 13:1 14:1 32:1 76:1 99:1 109:1 197:1 240:1 324:1 326:1 368:1 564:1 778:1 1529:1 
0.4207027894347729 1:1 2:1 3:1 4:1 10:1 13:1 14:1 624:1 1530:1 1531:1 
1 2:1 4:1 9:1 13:1 14:1 40:1 148:1 150:1 159:1 165:1 329:1 331:1 392:1 474:1 722:1 1532:1 1533:1 1534:1 
1 2:1 4:1 5:1 13:1 14:1 29:1 48:1 50:1 75:1 84:1 111:1 123:1 158:1 199:1 205:1 215:1 966:1 1127:1 1535:1 1536:1 
1 2:1 4:1 13:1 14:1 72:1 194:1 1537:1 
1 2:1 4:1 8:1 13:1 14:1 42:1 63:1 75:1 84:1 99:1 123:1 163:1 173:1 248:1 427:1 887:1 956:1 1538:1 
1 1:1 2:1 3:1 4:1 13:1 14:1 48:1 63:1 92:1 135:1 177:1 214:1 295:1 564:1 
0.9363398226562238 2:1 4:1 13:1 14:1 17:1 1069:1 1543:1 
1 2:1 4:1 13:1 14:1 122:1 141:1 362:1 
1 2:1 4:1 5:1 8:1 13:1 14:1 27:1 50:1 823:1 983:1 1470:1 1544:1 1545:1 
1 2:1 4:1 5:1 6:1 10:1 13:1 14:1 42:1 116:1 
0.6274708042735024 1:1 2:1 3:1 4:1 9:1 13:1 14:1 27:1 30:1 56:1 72:1 159:1 163:1 240:1 793:1 1546:1 1547:1 1548:1 1549:1 1550:1 1551:1 
1 1:1 2:1 3:1 4:1 5:1 6:1 9:1 12:1 13:1 14:1 27:1 46:1 68:1 84:1 114:1 225:1 239:1 305:1 456:1 647:1 805:1 809:1 1337:1 1552:1 1553:1 
1 2:1 4:1 9:1 13:1 14:1 19:1 29:1 75:1 123:1 137:1 177:1 178:1 
1 1:1 2:1 3:1 4:1 12:1 13:1 14:1 73:1 232:1 612:1 
1 2:1 4:1 13:1 14:1 55:1 84:1 262:1 949:1 1558:1 
0.461603968253653 1:1 2:1 3:1 4:1 13:1 14:1 19:1 25:1 72:1 75:1 84:1 90:1 434:1 1559:1 1560:1 1561:1 
0.9896114673365886 2:1 4:1 10:1 13:1 14:1 41:1 42:1 46:1 56:1 63:1 66:1 75:1 84:1 86:1 107:1 112:1 159:1 192:1 513:1 898:1 1061:1 1119:1 1281:1 1562:1 1563:1 1564:1 1565:1 
1 2:1 4:1 13:1 14:1 63:1 65:1 150:1 222:1 1566:1 1567:1 1568:1 
1 2:1 4:1 5:1 9:1 12:1 13:1 14:1 19:1 30:1 34:1 42:1 82:1 126:1 194:1 
1 1:1 2:1 3:1 4:1 13:1 14:1 19:1 38:1 42:1 71:1 75:1 90:1 159:1 253:1 512:1 919:1 1569:1 1570:1 1571:1 1572:1 1573:1 
1 2:1 4:1 12:1 13:1 14:1 30:1 620:1 1144:1 
1 2:1 4:1 5:1 6:1 13:1 14:1 63:1 71:1 282:1 326:1 505:1 597:1 1574:1 1575:1 
1 2:1 4:1 13:1 14:1 29:1 46:1 62:1 63:1 64:1 84:1 135:1 196:1 208:1 289:1 316:1 351:1 602:1 1576:1 1577:1 
1 1:1 2:1 3:1 4:1 5:1 13:1 14:1 32:1 52:1 649:1 1539:1 1578:1 
1 1:1 2:1 3:1 4:1 10:1 12:1 13:1 14:1 47:1 56:1 65:1 567:1 1579:1 
0.7459570909158665 2:1 4:1 13:1 14:1 66:1 75:1 91:1 208:1 226:1 329:1 331:1 385:1 392:1 710:1 767:1 781:1 1418:1 1580:1 1581:1 1582:1 
1 1:1 2:1 3:1 4:1 5:1 9:1 10:1 12:1 13:1 14:1 19:1 27:1 29:1 32:1 42:1 92:1 107:1 165:1 173:1 252:1 311:1 320:1 340:1 695:1 1585:1 1586:1 
1 2:1 4:1 13:1 14:1 47:1 48:1 50:1 55:1 75:1 515:1 904:1 1591:1 
1 1:1 2:1 3:1 4:1 13:1 14:1 29:1 186:1 1592:1 1593:1 
1 1:1 2:1 3:1 4:1 13:1 14:1 19:1 75:1 90:1 111:1 159:1 210:1 379:1 438:1 694:1 1594:1 
1 2:1 4:1 13:1 14:1 29:1 84:1 262:1 616:1 1234:1 1235:1 
1 1:1 2:1 3:1 4:1 13:1 14:1 19:1 66:1 71:1 90:1 123:1 145:1 621:1 898:1 1595:1 1596:1 
1 2:1 4:1 10:1 13:1 14:1 42:1 63:1 316:1 1031:1 1074:1 1227:1 1597:1 
0.07845757968205468 2:1 4:1 13:1 14:1 81:1 167:1 1598:1 1599:1 
0.1182584664105959 2:1 4:1 5:1 13:1 14:1 46:1 63:1 170:1 171:1 182:1 359:1 475:1 620:1 1600:1 1601:1 1602:1 
1 1:1 2:1 3:1 4:1 13:1 14:1 19:1 78:1 84:1 90:1 123:1 181:1 484:1 883:1 1597:1 
1 2:1 4:1 5:1 13:1 14:1 52:1 75:1 78:1 99:1 107:1 109:1 147:1 239:1 281:1 316:1 355:1 1046:1 1603:1 1604:1 
1 2:1 4:1 5:1 13:1 14:1 47:1 48:1 56:1 63:1 68:1 75:1 108:1 109:1 111:1 135:1 159:1 214:1 232:1 240:1 248:1 281:1 428:1 1227:1 1600:1 1605:1 1606:1 1607:1 
1 2:1 4:1 10:1 13:1 14:1 29:1 1608:1 
1 2:1 4:1 13:1 14:1 63:1 163:1 222:1 1136:1 1609:1 
1 2:1 4:1 5:1 10:1 12:1 13:1 14:1 19:1 42:1 63:1 99:1 145:1 149:1 165:1 199:1 200:1 216:1 239:1 295:1 299:1 301:1 365:1 597:1 
0.4682730430000434 1:1 2:1 3:1 4:1 13:1 14:1 19:1 42:1 54:1 61:1 78:1 90:1 111:1 150:1 197:1 379:1 520:1 641:1 1221:1 1430:1 1610:1 1611:1 1612:1 
0.4287665290471379 2:1 4:1 9:1 13:1 14:1 27:1 38:1 46:1 63:1 75:1 95:1 99:1 117:1 258:1 267:1 306:1 337:1 379:1 743:1 1487:1 1613:1 1614:1 1615:1 
0.8002132795486882 2:1 4:1 13:1 14:1 30:1 38:1 42:1 46:1 48:1 55:1 62:1 63:1 71:1 75:1 101:1 135:1 205:1 484:1 519:1 695:1 1616:1 1617:1 1618:1 1619:1 1620:1 1621:1 1622:1 1623:1 
1 2:1 4:1 12:1 13:1 14:1 141:1 1624:1 
1 1:1 2:1 3:1 4:1 12:1 13:1 14:1 63:1 173:1 223:1 294:1 505:1 1625:1 
1 2:1 4:1 13:1 14:1 66:1 1626:1 1627:1 
1 2:1 4:1 13:1 14:1 72:1 170:1 175:1 262:1 446:1 505:1 957:1 
1 2:1 4:1 5:1 13:1 14:1 34:1 95:1 115:1 131:1 141:1 164:1 165:1 793:1 1628:1 
0.2724143165354347 1:1 2:1 3:1 4:1 5:1 13:1 14:1 19:1 30:1 31:1 32:1 42:1 90:1 95:1 101:1 107:1 138:1 150:1 239:1 733:1 1629:1 1630:1 
1 1:1 2:1 3:1 4:1 12:1 13:1 14:1 19:1 38:1 46:1 72:1 90:1 817:1 938:1 1631:1 1632:1 1633:1 
0.6425571827016124 2:1 4:1 13:1 14:1 34:1 47:1 1634:1 1635:1 
1 2:1 4:1 5:1 13:1 14:1 62:1 63:1 84:1 326:1 347:1 625:1 786:1 1137:1 1636:1 
1 2:1 4:1 13:1 14:1 78:1 84:1 123:1 181:1 484:1 883:1 1597:1 
1 1:1 2:1 3:1 4:1 5:1 13:1 14:1 27:1 52:1 78:1 315:1 807:1 
1 2:1 4:1 8:1 13:1 14:1 46:1 48:1 71:1 92:1 262:1 277:1 308:1 788:1 1103:1 1637:1 
1 2:1 4:1 13:1 14:1 46:1 66:1 167:1 227:1 343:1 509:1 623:1 1638:1 1639:1 
1 1:1 2:1 3:1 4:1 5:1 13:1 14:1 51:1 130:1 173:1 286:1 744:1 
0.8985047405676514 2:1 4:1 10:1 13:1 14:1 68:1 71:1 84:1 172:1 364:1 618:1 805:1 961:1 1640:1 1641:1 
1 2:1 4:1 5:1 12:1 13:1 14:1 42:1 63:1 65:1 97:1 249:1 250:1 302:1 600:1 647:1 690:1 865:1 869:1 879:1 1600:1 1642:1 1643:1 
1 1:1 2:1 3:1 4:1 13:1 14:1 29:1 51:1 55:1 92:1 95:1 101:1 165:1 304:1 365:1 
1 2:1 4:1 12:1 13:1 14:1 29:1 135:1 1186:1 
1 1:1 2:1 3:1 4:1 12:1 13:1 14:1 19:1 27:1 34:1 90:1 101:1 115:1 216:1 339:1 
1 2:1 4:1 12:1 13:1 14:1 30:1 656:1 1216:1 
1 2:1 4:1 13:1 14:1 63:1 84:1 172:1 262:1 813:1 1240:1 1644:1 
1 2:1 4:1 12:1 13:1 14:1 27:1 42:1 71:1 75:1 82:1 239:1 262:1 358:1 376:1 464:1 759:1 1649:1 
1 1:1 2:1 3:1 4:1 5:1 6:1 8:1 12:1 13:1 14:1 55:1 56:1 107:1 111:1 215:1 240:1 294:1 351:1 562:1 573:1 680:1 1650:1 
1 2:1 4:1 5:1 13:1 14:1 63:1 84:1 95:1 109:1 214:1 281:1 347:1 1651:1 
1 2:1 4:1 10:1 13:1 14:1 71:1 84:1 156:1 167:1 282:1 326:1 490:1 743:1 913:1 1348:1 1652:1 1653:1 
0.995252184241778 2:1 4:1 13:1 14:1 42:1 72:1 364:1 1344:1 1365:1 1400:1 1495:1 1505:1 1654:1 1655:1 1656:1 1657:1 1658:1 1659:1 
0.07056632434702141 2:1 4:1 12:1 13:1 14:1 29:1 107:1 479:1 499:1 1003:1 1660:1 
1 1:1 2:1 3:1 4:1 5:1 12:1 13:1 14:1 41:1 46:1 51:1 56:1 63:1 82:1 84:1 120:1 122:1 139:1 163:1 210:1 236:1 238:1 262:1 318:1 391:1 647:1 1056:1 1136:1 1661:1 1662:1 1663:1 
0.4537302738874361 2:1 4:1 12:1 13:1 14:1 48:1 63:1 71:1 72:1 99:1 107:1 135:1 159:1 281:1 358:1 500:1 759:1 774:1 788:1 1003:1 1227:1 1664:1 1665:1 1666:1 
0.8649370582058993 2:1 4:1 13:1 14:1 56:1 372:1 525:1 822:1 1667:1 
1 1:1 2:1 3:1 4:1 9:1 13:1 14:1 56:1 60:1 68:1 71:1 72:1 79:1 84:1 172:1 364:1 512:1 655:1 1020:1 1668:1 1669:1 1670:1 1671:1 
1 2:1 4:1 13:1 14:1 34:1 47:1 48:1 75:1 160:1 201:1 202:1 507:1 1672:1 
1 1:1 2:1 3:1 4:1 5:1 13:1 14:1 30:1 31:1 32:1 42:1 95:1 101:1 107:1 138:1 150:1 239:1 733:1 1629:1 1630:1 
1 2:1 4:1 13:1 14:1 1675:1 
1 2:1 4:1 13:1 14:1 72:1 215:1 351:1 379:1 901:1 1000:1 1676:1 
1 2:1 4:1 13:1 14:1 48:1 56:1 60:1 72:1 82:1 249:1 1677:1 
1 2:1 4:1 5:1 12:1 13:1 14:1 30:1 63:1 75:1 128:1 148:1 251:1 277:1 503:1 560:1 1678:1 1679:1 1680:1 1681:1 
1 2:1 4:1 5:1 13:1 14:1 63:1 150:1 222:1 347:1 918:1 1682:1 1683:1 
1 2:1 4:1 12:1 13:1 14:1 48:1 240:1 743:1 1684:1 
1 1:1 2:1 3:1 4:1 5:1 13:1 14:1 48:1 72:1 194:1 201:1 202:1 248:1 408:1 564:1 
1 2:1 4:1 5:1 13:1 14:1 38:1 42:1 46:1 48:1 61:1 79:1 84:1 99:1 107:1 159:1 194:1 518:1 678:1 845:1 1094:1 1105:1 1197:1 1685:1 1686:1 1687:1 
1 2:1 4:1 12:1 13:1 14:1 38:1 48:1 107:1 487:1 
1 2:1 4:1 13:1 14:1 19:1 30:1 145:1 149:1 240:1 742:1 
1 2:1 4:1 13:1 14:1 279:1 283:1 658:1 1136:1 1688:1 1689:1 
1 1:1 2:1 3:1 4:1 5:1 13:1 14:1 19:1 63:1 75:1 95:1 109:1 295:1 299:1 544:1 735:1 1046:1 1140:1 1690:1 1691:1 
1 2:1 4:1 13:1 14:1 38:1 122:1 123:1 1692:1 
1 2:1 4:1 5:1 6:1 8:1 13:1 14:1 54:1 55:1 63:1 75:1 97:1 107:1 147:1 165:1 262:1 277:1 289:1 329:1 330:1 331:1 1056:1 1090:1 1663:1 1693:1 1694:1 
1 2:1 4:1 12:1 13:1 14:1 29:1 437:1 1695:1 1696:1 
0.2710592183754741 2:1 4:1 10:1 13:1 14:1 56:1 75:1 122:1 201:1 202:1 1316:1 1697:1 1698:1 1699:1 1700:1 
1 2:1 4:1 13:1 14:1 29:1 123:1 137:1 
1 1:1 2:1 3:1 4:1 13:1 14:1 19:1 56:1 90:1 259:1 260:1 528:1 529:1 
1 1:1 2:1 3:1 4:1 5:1 13:1 14:1 19:1 60:1 63:1 71:1 84:1 90:1 108:1 109:1 148:1 172:1 262:1 483:1 
0.5222712716464786 2:1 4:1 13:1 14:1 122:1 132:1 133:1 282:1 1701:1 
0.6057873718609956 2:1 4:1 5:1 13:1 14:1 16:1 50:1 68:1 84:1 94:1 307:1 412:1 524:1 1670:1 1702:1 1703:1 1704:1 
1 1:1 2:1 3:1 4:1 13:1 14:1 25:1 48:1 72:1 92:1 204:1 389:1 
1 2:1 4:1 13:1 14:1 
1 1:1 2:1 3:1 4:1 12:1 13:1 14:1 32:1 51:1 63:1 130:1 262:1 316:1 377:1 590:1 832:1 1705:1 1706:1 1707:1 1708:1 
1 2:1 4:1 5:1 6:1 10:1 13:1 14:1 46:1 47:1 48:1 50:1 56:1 63:1 75:1 82:1 123:1 182:1 204:1 222:1 793:1 1100:1 1709:1 1710:1 1711:1 
1 2:1 4:1 5:1 13:1 14:1 101:1 126:1 173:1 201:1 202:1 208:1 793:1 
1 1:1 2:1 3:1 4:1 13:1 14:1 19:1 21:1 90:1 353:1 680:1 
1 1:1 2:1 3:1 4:1 12:1 13:1 14:1 48:1 55:1 56:1 73:1 95:1 164:1 350:1 368:1 507:1 544:1 628:1 647:1 648:1 649:1 
1 1:1 2:1 3:1 4:1 5:1 12:1 13:1 14:1 19:1 42:1 90:1 262:1 382:1 422:1 622:1 
1 1:1 2:1 3:1 4:1 10:1 13:1 14:1 63:1 107:1 116:1 122:1 163:1 181:1 189:1 253:1 729:1 1712:1 
0.808144565380341 2:1 4:1 13:1 14:1 46:1 47:1 52:1 78:1 92:1 130:1 204:1 326:1 1144:1 1164:1 1713:1 1714:1 
1 2:1 4:1 5:1 9:1 10:1 12:1 13:1 14:1 38:1 40:1 46:1 63:1 75:1 95:1 99:1 114:1 123:1 126:1 150:1 167:1 215:1 351:1 409:1 671:1 1422:1 1717:1 
1 1:1 2:1 3:1 4:1 8:1 13:1 14:1 47:1 56:1 109:1 166:1 167:1 177:1 295:1 335:1 1487:1 1718:1 
1 2:1 4:1 13:1 14:1 30:1 56:1 122:1 252:1 451:1 
0.4963531611276074 1:1 2:1 3:1 4:1 13:1 14:1 19:1 90:1 350:1 634:1 650:1 651:1 652:1 653:1 
1 1:1 2:1 3:1 4:1 5:1 13:1 14:1 16:1 19:1 38:1 90:1 160:1 167:1 235:1 282:1 414:1 427:1 671:1 
0.902013318088309 2:1 4:1 9:1 12:1 13:1 14:1 30:1 41:1 63:1 75:1 107:1 186:1 214:1 240:1 507:1 675:1 1719:1 
1 1:1 2:1 3:1 4:1 13:1 14:1 19:1 34:1 38:1 72:1 75:1 84:1 90:1 92:1 130:1 209:1 225:1 277:1 349:1 377:1 452:1 453:1 454:1 455:1 456:1 457:1 
0.9062971986791484 2:1 4:1 13:1 14:1 29:1 68:1 84:1 123:1 175:1 211:1 1720:1 
1 2:1 4:1 13:1 14:1 42:1 66:1 68:1 1726:1 1727:1 1728:1 
1 2:1 4:1 5:1 6:1 12:1 13:1 14:1 71:1 75:1 84:1 204:1 215:1 216:1 262:1 309:1 576:1 1729:1 
1 2:1 4:1 13:1 14:1 502:1 1730:1 
1 2:1 4:1 12:1 13:1 14:1 27:1 34:1 101:1 115:1 216:1 339:1 
1 2:1 4:1 13:1 14:1 31:1 47:1 63:1 75:1 92:1 160:1 173:1 1018:1 1608:1 1731:1 
1 1:1 2:1 3:1 4:1 13:1 14:1 68:1 71:1 73:1 101:1 215:1 486:1 560:1 562:1 1402:1 1436:1 1732:1 1733:1 
1 1:1 2:1 3:1 4:1 13:1 14:1 233:1 544:1 1154:1 
1 2:1 4:1 10:1 13:1 14:1 92:1 101:1 135:1 
1 2:1 4:1 5:1 12:1 13:1 14:1 30:1 60:1 72:1 75:1 108:1 109:1 172:1 215:1 351:1 422:1 845:1 1734:1 1735:1 
1 2:1 4:1 10:1 13:1 14:1 65:1 99:1 102:1 107:1 1164:1 1736:1 1737:1 
1 2:1 4:1 13:1 14:1 42:1 43:1 46:1 48:1 56:1 66:1 71:1 72:1 73:1 82:1 84:1 95:1 107:1 165:1 205:1 248:1 326:1 864:1 1738:1 1739:1 
1 2:1 4:1 10:1 13:1 14:1 34:1 75:1 148:1 159:1 304:1 438:1 1740:1 
1 2:1 4:1 12:1 13:1 14:1 19:1 71:1 84:1 122:1 123:1 177:1 178:1 334:1 1741:1 1742:1 1743:1 1744:1 
1 1:1 2:1 3:1 4:1 5:1 6:1 13:1 14:1 32:1 43:1 52:1 71:1 135:1 805:1 1747:1 
1 2:1 4:1 13:1 14:1 29:1 124:1 222:1 
1 2:1 4:1 13:1 14:1 63:1 82:1 84:1 326:1 696:1 1748:1 1749:1 1750:1 
0.1007931687017402 5:1 13:1 52:1 68:1 170:1 247:1 253:1 368:1 729:1 1751:1 1752:1 1753:1 1754:1 1755:1 1756:1 1757:1 1758:1 1759:1 
0.4954273938376056 1:1 2:1 3:1 4:1 13:1 14:1 38:1 46:1 75:1 99:1 159:1 215:1 499:1 544:1 618:1 622:1 817:1 1760:1 1761:1 1762:1 1763:1 1764:1 
1 2:1 4:1 12:1 13:1 14:1 38:1 47:1 52:1 108:1 109:1 262:1 1765:1 1766:1 
1 2:1 4:1 12:1 13:1 14:1 123:1 217:1 676:1 1767:1 
1 2:1 4:1 5:1 13:1 14:1 160:1 277:1 429:1 448:1 1136:1 
1 2:1 4:1 13:1 14:1 1510:1 
1 2:1 4:1 5:1 13:1 14:1 27:1 34:1 56:1 101:1 115:1 215:1 216:1 247:1 493:1 604:1 793:1 
1 1:1 2:1 3:1 4:1 13:1 14:1 34:1 63:1 131:1 141:1 251:1 304:1 328:1 487:1 561:1 
1 1:1 2:1 3:1 4:1 5:1 12:1 13:1 14:1 19:1 29:1 126:1 145:1 149:1 165:1 222:1 1166:1 1773:1 
1 2:1 4:1 13:1 14:1 84:1 808:1 1081:1 1774:1 
1 1:1 2:1 3:1 4:1 13:1 14:1 38:1 71:1 75:1 159:1 172:1 236:1 739:1 
1 1:1 2:1 3:1 4:1 12:1 13:1 14:1 63:1 108:1 109:1 163:1 170:1 172:1 173:1 192:1 309:1 622:1 647:1 
1 2:1 4:1 12:1 13:1 14:1 29:1 175:1 211:1 
1 1:1 2:1 3:1 4:1 13:1 14:1 56:1 72:1 82:1 150:1 205:1 248:1 267:1 326:1 1267:1 1775:1 
1 2:1 4:1 13:1 14:1 61:1 150:1 353:1 600:1 1603:1 1776:1 
1 1:1 2:1 3:1 4:1 13:1 14:1 30:1 47:1 72:1 107:1 715:1 
1 2:1 4:1 13:1 14:1 30:1 34:1 46:1 75:1 108:1 109:1 130:1 179:1 590:1 729:1 782:1 1378:1 1777:1 1778:1 
1 2:1 4:1 13:1 14:1 17:1 46:1 55:1 75:1 84:1 215:1 248:1 339:1 343:1 1516:1 1549:1 1779:1 
1 2:1 4:1 13:1 14:1 47:1 72:1 84:1 326:1 413:1 502:1 694:1 1774:1 
0.5316472711607571 2:1 4:1 13:1 14:1 75:1 1780:1 1781:1 1782:1 1783:1 
1 1:1 2:1 3:1 4:1 5:1 6:1 9:1 10:1 13:1 14:1 16:1 19:1 27:1 42:1 63:1 71:1 72:1 90:1 95:1 107:1 109:1 114:1 135:1 240:1 315:1 538:1 992:1 1127:1 1300:1 1784:1 
1 2:1 4:1 13:1 14:1 34:1 63:1 71:1 95:1 109:1 158:1 249:1 283:1 347:1 454:1 1785:1 1786:1 
1 2:1 4:1 12:1 13:1 14:1 71:1 108:1 109:1 141:1 172:1 
1 2:1 4:1 13:1 14:1 72:1 75:1 147:1 156:1 277:1 433:1 532:1 658:1 993:1 1787:1 
1 2:1 4:1 13:1 14:1 34:1 48:1 73:1 116:1 158:1 194:1 248:1 544:1 694:1 743:1 828:1 1575:1 
0.7879606151403458 2:1 4:1 13:1 14:1 66:1 68:1 84:1 122:1 123:1 508:1 1788:1 1789:1 
1 2:1 4:1 13:1 14:1 329:1 330:1 331:1 1153:1 
1 2:1 4:1 13:1 14:1 63:1 71:1 120:1 213:1 922:1 
1 2:1 4:1 13:1 14:1 84:1 215:1 351:1 1774:1 1790:1 
1 2:1 4:1 12:1 13:1 14:1 47:1 251:1 601:1 680:1 1791:1 
0.5945706637415865 2:1 4:1 10:1 13:1 14:1 27:1 34:1 38:1 42:1 56:1 63:1 68:1 72:1 73:1 95:1 109:1 123:1 159:1 182:1 189:1 262:1 326:1 610:1 674:1 865:1 869:1 1278:1 1792:1 1793:1 1794:1 
0.3766163025356933 1:1 2:1 3:1 4:1 5:1 12:1 13:1 14:1 19:1 56:1 71:1 108:1 109:1 172:1 294:1 569:1 865:1 869:1 954:1 1056:1 
0.3312829393397518 2:1 4:1 13:1 14:1 42:1 52:1 68:1 71:1 75:1 101:1 107:1 159:1 177:1 212:1 295:1 307:1 788:1 798:1 1194:1 1795:1 1796:1 1797:1 1798:1 1799:1 1800:1 
1 2:1 4:1 10:1 12:1 13:1 14:1 56:1 63:1 84:1 99:1 108:1 109:1 127:1 131:1 186:1 609:1 823:1 
0.8913910888560111 2:1 4:1 5:1 9:1 13:1 14:1 30:1 42:1 46:1 55:1 60:1 72:1 84:1 99:1 107:1 216:1 224:1 236:1 251:1 483:1 743:1 744:1 1570:1 1770:1 1771:1 
1 2:1 4:1 12:1 13:1 14:1 63:1 71:1 72:1 75:1 172:1 621:1 774:1 805:1 886:1 928:1 1302:1 1566:1 1801:1 1802:1 
1 2:1 4:1 13:1 14:1 42:1 46:1 71:1 107:1 108:1 109:1 418:1 618:1 1028:1 1803:1 1804:1 1805:1 1806:1 1807:1 
1 2:1 4:1 5:1 8:1 13:1 14:1 34:1 71:1 75:1 210:1 282:1 376:1 448:1 573:1 864:1 880:1 1808:1 
1 2:1 4:1 13:1 14:1 34:1 38:1 75:1 107:1 130:1 825:1 1237:1 1430:1 1809:1 1810:1 
1 2:1 4:1 13:1 14:1 38:1 71:1 72:1 150:1 282:1 560:1 950:1 1772:1 
0.3669476528032538 2:1 4:1 13:1 14:1 42:1 159:1 262:1 439:1 451:1 1441:1 1814:1 1815:1 1816:1 
1 2:1 4:1 13:1 14:1 63:1 159:1 235:1 767:1 1443:1 1817:1 
1 2:1 4:1 13:1 14:1 52:1 215:1 326:1 622:1 1466:1 
1 1:1 2:1 3:1 4:1 5:1 12:1 13:1 14:1 27:1 52:1 63:1 165:1 216:1 
1 2:1 4:1 13:1 14:1 52:1 72:1 78:1 82:1 204:1 1201:1 1819:1 1820:1 
1 2:1 4:1 5:1 13:1 14:1 50:1 68:1 84:1 107:1 109:1 196:1 229:1 262:1 548:1 664:1 1273:1 1821:1 
1 2:1 4:1 13:1 14:1 47:1 72:1 769:1 
1 2:1 4:1 13:1 14:1 17:1 72:1 84:1 159:1 175:1 194:1 222:1 1822:1 
1 2:1 4:1 12:1 13:1 14:1 63:1 75:1 209:1 210:1 429:1 
1 2:1 4:1 5:1 13:1 14:1 27:1 32:1 50:1 56:1 68:1 97:1 107:1 233:1 239:1 316:1 774:1 1670:1 1823:1 1824:1 
0.9268605241984761 2:1 4:1 13:1 14:1 38:1 42:1 46:1 72:1 84:1 101:1 115:1 124:1 132:1 197:1 239:1 618:1 1046:1 1825:1 1826:1 1827:1 1828:1 
1 2:1 4:1 12:1 13:1 14:1 19:1 63:1 84:1 122:1 135:1 177:1 178:1 262:1 451:1 
1 2:1 4:1 5:1 13:1 14:1 19:1 108:1 109:1 135:1 145:1 149:1 951:1 1052:1 
1 2:1 4:1 10:1 13:1 14:1 42:1 72:1 84:1 93:1 107:1 249:1 250:1 364:1 739:1 1829:1 1830:1 
0.4018679116528294 1:1 2:1 3:1 4:1 5:1 13:1 14:1 19:1 75:1 90:1 441:1 442:1 
1 2:1 4:1 13:1 14:1 32:1 42:1 84:1 107:1 307:1 312:1 410:1 429:1 733:1 1273:1 1831:1 1832:1 
0.5140556517578055 2:1 4:1 6:1 13:1 14:1 29:1 63:1 72:1 81:1 135:1 160:1 427:1 766:1 1536:1 1833:1 1834:1 
1 2:1 4:1 13:1 14:1 30:1 34:1 60:1 72:1 95:1 109:1 146:1 202:1 340:1 1835:1 1836:1 
0.2880297780304751 1:1 2:1 3:1 4:1 5:1 12:1 13:1 14:1 19:1 34:1 75:1 90:1 101:1 123:1 130:1 163:1 189:1 197:1 200:1 201:1 267:1 434:1 544:1 596:1 597:1 598:1 599:1 729:1 767:1 994:1 1837:1 
1 2:1 4:1 10:1 13:1 14:1 56:1 160:1 215:1 351:1 505:1 598:1 1103:1 1765:1 1838:1 
1 1:1 2:1 3:1 4:1 13:1 14:1 19:1 55:1 84:1 90:1 429:1 444:1 445:1 446:1 447:1 
1 2:1 4:1 13:1 14:1 71:1 172:1 240:1 1839:1 
1 1:1 2:1 3:1 4:1 5:1 13:1 14:1 19:1 46:1 75:1 82:1 90:1 99:1 154:1 156:1 258:1 719:1 
1 2:1 4:1 5:1 6:1 12:1 13:1 14:1 84:1 150:1 181:1 382:1 465:1 554:1 1841:1 1842:1 1843:1 1844:1 1845:1 1846:1 
1 1:1 2:1 3:1 4:1 13:1 14:1 177:1 331:1 424:1 
0.3277420837247468 2:1 4:1 12:1 13:1 14:1 29:1 56:1 65:1 124:1 159:1 286:1 446:1 554:1 798:1 1847:1 1848:1 1849:1 1850:1 
1 1:1 2:1 3:1 4:1 5:1 12:1 13:1 14:1 29:1 108:1 109:1 172:1 434:1 
1 2:1 4:1 10:1 13:1 14:1 19:1 38:1 48:1 72:1 75:1 84:1 101:1 164:1 295:1 299:1 375:1 694:1 1851:1 
1 2:1 4:1 10:1 13:1 14:1 75:1 135:1 159:1 204:1 233:1 282:1 351:1 1337:1 1852:1 
1 2:1 4:1 13:1 14:1 19:1 72:1 149:1 194:1 244:1 1857:1 1858:1 
1 2:1 4:1 13:1 14:1 19:1 29:1 68:1 99:1 295:1 299:1 903:1 1859:1 
1 1:1 2:1 3:1 4:1 13:1 14:1 27:1 107:1 133:1 147:1 179:1 240:1 262:1 412:1 472:1 474:1 1860:1 1861:1 
0.7532312659954994 2:1 4:1 5:1 6:1 13:1 14:1 19:1 92:1 93:1 95:1 101:1 150:1 170:1 214:1 229:1 267:1 295:1 299:1 324:1 326:1 1566:1 1862:1 1863:1 
0.6755896467952541 1:1 2:1 3:1 4:1 13:1 14:1 19:1 72:1 82:1 90:1 249:1 349:1 845:1 899:1 900:1 901:1 902:1 
1 2:1 4:1 12:1 13:1 14:1 63:1 135:1 262:1 1865:1 1866:1 
1 2:1 4:1 5:1 6:1 8:1 13:1 14:1 75:1 226:1 293:1 316:1 385:1 1867:1 
0.1274993912918146 1:1 2:1 3:1 4:1 5:1 8:1 12:1 13:1 14:1 19:1 27:1 34:1 56:1 63:1 108:1 109:1 135:1 144:1 145:1 149:1 293:1 311:1 320:1 499:1 622:1 767:1 951:1 1052:1 1053:1 1054:1 1055:1 
1 2:1 4:1 13:1 14:1 75:1 159:1 792:1 
1 2:1 4:1 13:1 14:1 29:1 903:1 
1 2:1 4:1 13:1 14:1 295:1 920:1 1869:1 
1 2:1 4:1 5:1 6:1 13:1 14:1 46:1 47:1 71:1 127:1 216:1 576:1 1734:1 1873:1 1874:1 1875:1 
1 2:1 4:1 5:1 6:1 9:1 12:1 13:1 14:1 27:1 29:1 46:1 84:1 215:1 625:1 1876:1 1877:1 
0.4810572103859779 1:1 2:1 3:1 4:1 5:1 9:1 13:1 14:1 34:1 42:1 63:1 72:1 73:1 75:1 78:1 82:1 84:1 159:1 175:1 186:1 196:1 207:1 239:1 267:1 287:1 327:1 353:1 614:1 722:1 823:1 901:1 1028:1 1878:1 1879:1 1880:1 1881:1 1882:1 1883:1 1884:1 
1 2:1 4:1 13:1 14:1 38:1 47:1 117:1 480:1 1885:1 
0.1850612518868779 1:1 2:1 3:1 4:1 5:1 10:1 13:1 14:1 25:1 27:1 32:1 52:1 68:1 75:1 108:1 109:1 172:1 227:1 315:1 576:1 1298:1 1886:1 1887:1 1888:1 1889:1 
1 1:1 2:1 3:1 4:1 8:1 13:1 14:1 34:1 63:1 71:1 92:1 95:1 101:1 120:1 1160:1 1891:1 
1 1:1 2:1 3:1 4:1 5:1 12:1 13:1 14:1 31:1 42:1 56:1 84:1 94:1 95:1 99:1 101:1 159:1 312:1 944:1 1303:1 1773:1 1893:1 1894:1 1895:1 
1 2:1 4:1 13:1 14:1 66:1 690:1 1896:1 1897:1 
0.4670206416619474 2:1 4:1 13:1 14:1 42:1 72:1 82:1 1365:1 1496:1 1898:1 1899:1 1900:1 1901:1 1902:1 1903:1 
1 2:1 4:1 13:1 14:1 62:1 95:1 97:1 109:1 302:1 474:1 521:1 609:1 834:1 
1 2:1 4:1 13:1 14:1 71:1 339:1 515:1 1455:1 
1 2:1 4:1 5:1 7:1 10:1 12:1 13:1 14:1 95:1 109:1 165:1 181:1 507:1 781:1 1904:1 
1 2:1 4:1 13:1 14:1 84:1 184:1 429:1 1548:1 1671:1 1782:1 
1 2:1 4:1 5:1 12:1 13:1 14:1 46:1 48:1 50:1 62:1 63:1 73:1 84:1 95:1 114:1 120:1 194:1 195:1 251:1 316:1 406:1 409:1 429:1 477:1 590:1 1061:1 1487:1 1669:1 1905:1 1906:1 1907:1 
1 2:1 4:1 5:1 6:1 8:1 10:1 13:1 14:1 31:1 32:1 42:1 63:1 75:1 104:1 127:1 131:1 159:1 199:1 232:1 382:1 522:1 845:1 1281:1 1297:1 1908:1 1909:1 1910:1 
1 1:1 2:1 3:1 4:1 8:1 12:1 13:1 14:1 34:1 51:1 60:1 63:1 71:1 72:1 82:1 99:1 130:1 142:1 163:1 208:1 210:1 215:1 216:1 622:1 788:1 1418:1 1436:1 1911:1 1912:1 1913:1 
0.3735631660585482 2:1 4:1 12:1 13:1 14:1 19:1 108:1 109:1 131:1 150:1 238:1 295:1 299:1 349:1 499:1 591:1 603:1 1315:1 1914:1 1915:1 1916:1 1917:1 
1 2:1 4:1 13:1 14:1 28:1 181:1 312:1 1098:1 1918:1 1919:1 
1 1:1 2:1 3:1 4:1 5:1 13:1 14:1 19:1 71:1 75:1 90:1 92:1 107:1 150:1 159:1 165:1 197:1 202:1 340:1 341:1 342:1 
1 1:1 2:1 3:1 4:1 12:1 13:1 14:1 84:1 91:1 240:1 1029:1 1922:1 
0.8060527144915977 2:1 4:1 13:1 14:1 27:1 109:1 229:1 262:1 548:1 1923:1 
1 2:1 4:1 10:1 12:1 13:1 14:1 38:1 123:1 167:1 238:1 1418:1 
1 2:1 4:1 13:1 14:1 515:1 999:1 
1 1:1 2:1 3:1 4:1 13:1 14:1 19:1 42:1 48:1 90:1 283:1 519:1 522:1 554:1 561:1 608:1 609:1 622:1 
1 2:1 4:1 5:1 8:1 13:1 14:1 25:1 26:1 84:1 215:1 277:1 1924:1 
1 2:1 4:1 10:1 12:1 13:1 14:1 19:1 57:1 63:1 71:1 75:1 158:1 177:1 178:1 338:1 355:1 486:1 1925:1 
1 2:1 4:1 5:1 13:1 14:1 75:1 99:1 109:1 130:1 159:1 160:1 204:1 248:1 379:1 719:1 1926:1 1927:1 1928:1 1929:1 
1 2:1 4:1 5:1 13:1 14:1 233:1 351:1 1930:1 1931:1 
1 2:1 4:1 13:1 14:1 1348:1 1748:1 
1 2:1 4:1 13:1 14:1 42:1 48:1 283:1 519:1 522:1 554:1 561:1 608:1 609:1 622:1 
1 2:1 4:1 5:1 13:1 14:1 56:1 63:1 82:1 95:1 237:1 1390:1 1741:1 1933:1 1934:1 
1 2:1 4:1 13:1 14:1 27:1 63:1 82:1 108:1 109:1 163:1 189:1 239:1 353:1 572:1 573:1 574:1 
1 2:1 4:1 5:1 12:1 13:1 14:1 32:1 51:1 56:1 75:1 82:1 92:1 93:1 95:1 99:1 101:1 109:1 113:1 139:1 159:1 215:1 239:1 325:1 326:1 384:1 818:1 944:1 975:1 
0.2983748217100632 1:1 2:1 3:1 4:1 5:1 13:1 14:1 47:1 63:1 107:1 170:1 194:1 214:1 230:1 829:1 1935:1 1936:1 1937:1 
0.2592702138349349 2:1 4:1 13:1 14:1 46:1 71:1 1938:1 1939:1 1940:1 1941:1 1942:1 1943:1 1944:1 
1 1:1 2:1 3:1 4:1 5:1 13:1 14:1 19:1 63:1 90:1 97:1 120:1 175:1 766:1 
1 2:1 4:1 5:1 13:1 14:1 84:1 120:1 136:1 421:1 1946:1 
0.3486975363888006 2:1 4:1 5:1 6:1 13:1 14:1 34:1 50:1 56:1 65:1 75:1 78:1 101:1 130:1 253:1 262:1 1069:1 1947:1 1948:1 
1 2:1 4:1 13:1 14:1 47:1 63:1 108:1 109:1 139:1 148:1 172:1 
1 2:1 4:1 5:1 13:1 14:1 312:1 315:1 522:1 600:1 687:1 
1 2:1 4:1 13:1 14:1 29:1 535:1 536:1 1225:1 
1 2:1 4:1 13:1 14:1 
0.5647914132549553 2:1 4:1 13:1 14:1 122:1 124:1 194:1 1348:1 1949:1 
1 2:1 4:1 12:1 13:1 14:1 123:1 1952:1 1953:1 
1 2:1 4:1 5:1 10:1 13:1 14:1 42:1 46:1 63:1 75:1 99:1 127:1 225:1 240:1 326:1 347:1 1144:1 1227:1 1597:1 1954:1 
1 2:1 4:1 13:1 14:1 29:1 34:1 130:1 828:1 1748:1 
1 1:1 2:1 3:1 4:1 13:1 14:1 19:1 42:1 63:1 78:1 90:1 278:1 279:1 283:1 
1 2:1 4:1 12:1 13:1 14:1 42:1 60:1 159:1 177:1 331:1 424:1 1957:1 1958:1 1959:1 1960:1 1961:1 
1 1:1 2:1 3:1 4:1 12:1 13:1 14:1 25:1 56:1 84:1 91:1 240:1 1962:1 1963:1 
1 2:1 4:1 5:1 13:1 14:1 41:1 47:1 60:1 63:1 84:1 93:1 95:1 99:1 109:1 215:1 353:1 479:1 1319:1 1348:1 
1 2:1 4:1 10:1 13:1 14:1 31:1 38:1 48:1 62:1 78:1 94:1 205:1 232:1 781:1 957:1 1965:1 1966:1 1967:1 1968:1 
0.1309042775182493 2:1 4:1 13:1 14:1 68:1 84:1 212:1 565:1 1969:1 
1 2:1 4:1 13:1 14:1 163:1 936:1 993:1 1971:1 1972:1 
1 2:1 4:1 8:1 13:1 14:1 102:1 282:1 497:1 1233:1 1973:1 1974:1 1975:1 
1 2:1 4:1 5:1 13:1 14:1 34:1 47:1 63:1 68:1 73:1 75:1 99:1 214:1 351:1 480:1 845:1 1646:1 1976:1 
1 2:1 4:1 5:1 13:1 14:1 27:1 34:1 101:1 150:1 159:1 215:1 216:1 343:1 1980:1 
1 2:1 4:1 13:1 14:1 28:1 46:1 63:1 72:1 159:1 163:1 240:1 262:1 446:1 1240:1 1981:1 
1 1:1 2:1 3:1 4:1 13:1 14:1 19:1 42:1 90:1 99:1 194:1 209:1 210:1 329:1 330:1 331:1 
0.8196645045510248 2:1 4:1 12:1 13:1 14:1 31:1 32:1 46:1 55:1 61:1 75:1 238:1 743:1 1982:1 1983:1 
1 2:1 4:1 13:1 14:1 31:1 48:1 175:1 518:1 622:1 1987:1 
1 1:1 2:1 3:1 4:1 5:1 13:1 14:1 32:1 95:1 109:1 240:1 649:1 1988:1 
1 2:1 4:1 13:1 14:1 30:1 52:1 1993:1 
1 2:1 4:1 13:1 14:1 47:1 107:1 159:1 215:1 316:1 429:1 824:1 1189:1 
1 2:1 4:1 13:1 14:1 46:1 65:1 72:1 200:1 240:1 353:1 476:1 1281:1 1545:1 1994:1 
1 1:1 2:1 3:1 4:1 13:1 14:1 427:1 671:1 1026:1 
0.03128159154926672 2:1 4:1 5:1 13:1 14:1 19:1 34:1 46:1 56:1 63:1 73:1 75:1 82:1 106:1 127:1 130:1 145:1 149:1 204:1 248:1 283:1 891:1 1997:1 1998:1 1999:1 2000:1 2001:1 2002:1 2003:1 
1 2:1 4:1 12:1 13:1 14:1 38:1 46:1 47:1 51:1 64:1 92:1 230:1 236:1 240:1 262:1 312:1 329:1 331:1 392:1 414:1 429:1 604:1 687:1 719:1 779:1 944:1 1888:1 2004:1 2005:1 2006:1 2007:1 
1 2:1 4:1 13:1 14:1 19:1 122:1 295:1 362:1 2008:1 2009:1 
1 2:1 4:1 5:1 12:1 13:1 14:1 23:1 66:1 75:1 126:1 159:1 475:1 494:1 508:1 509:1 2010:1 2011:1 
1 1:1 2:1 3:1 4:1 13:1 14:1 63:1 150:1 172:1 189:1 1103:1 
1 2:1 4:1 5:1 10:1 12:1 13:1 14:1 42:1 63:1 66:1 75:1 148:1 150:1 204:1 411:1 1020:1 2012:1 
1 2:1 4:1 5:1 13:1 14:1 42:1 46:1 63:1 71:1 72:1 78:1 84:1 97:1 127:1 147:1 176:1 312:1 337:1 360:1 413:1 625:1 826:1 992:1 1957:1 2013:1 2014:1 
0.3690528587580763 2:1 4:1 13:1 14:1 66:1 84:1 210:1 2016:1 2017:1 2018:1 
1 1:1 2:1 3:1 4:1 5:1 13:1 14:1 19:1 32:1 47:1 52:1 90:1 95:1 101:1 164:1 
1 2:1 4:1 13:1 14:1 362:1 381:1 
0.7130079455218331 2:1 4:1 13:1 14:1 2023:1 2024:1 2025:1 
1 1:1 2:1 3:1 4:1 9:1 12:1 13:1 14:1 19:1 84:1 90:1 115:1 175:1 216:1 302:1 2026:1 2027:1 2028:1 2029:1 
1 1:1 2:1 3:1 4:1 13:1 14:1 19:1 27:1 38:1 41:1 50:1 51:1 66:1 75:1 90:1 101:1 114:1 130:1 165:1 181:1 248:1 251:1 337:1 680:1 1517:1 2030:1 2031:1 
1 1:1 2:1 3:1 4:1 13:1 14:1 30:1 66:1 232:1 273:1 477:1 847:1 1003:1 2034:1 
1 1:1 2:1 3:1 4:1 12:1 13:1 14:1 66:1 84:1 141:1 148:1 
1 1:1 2:1 3:1 4:1 12:1 13:1 14:1 19:1 46:1 51:1 90:1 172:1 
1 2:1 4:1 13:1 14:1 71:1 72:1 75:1 172:1 225:1 733:1 
1 2:1 4:1 12:1 13:1 14:1 19:1 63:1 108:1 109:1 172:1 295:1 573:1 2044:1 
0.369142429863383 1:1 2:1 4:1 13:1 14:1 19:1 30:1 34:1 63:1 72:1 172:1 177:1 212:1 1003:1 2045:1 2046:1 2047:1 2048:1 2049:1 
1 2:1 4:1 13:1 14:1 60:1 82:1 743:1 754:1 2050:1 
1 2:1 4:1 13:1 14:1 63:1 78:1 84:1 189:1 258:1 1353:1 
1 2:1 4:1 13:1 14:1 150:1 240:1 746:1 822:1 2051:1 
1 2:1 4:1 10:1 13:1 14:1 63:1 71:1 84:1 212:1 1357:1 2052:1 
1 2:1 4:1 13:1 14:1 47:1 48:1 72:1 107:1 150:1 367:1 413:1 887:1 2053:1 
1 2:1 4:1 12:1 13:1 14:1 42:1 48:1 63:1 72:1 108:1 109:1 160:1 263:1 418:1 694:1 719:1 903:1 1028:1 1070:1 2054:1 
1 2:1 4:1 13:1 14:1 42:1 48:1 72:1 446:1 865:1 869:1 1406:1 2055:1 2056:1 
1 2:1 4:1 5:1 13:1 14:1 42:1 43:1 52:1 71:1 72:1 78:1 99:1 194:1 502:1 805:1 
1 2:1 4:1 13:1 14:1 27:1 48:1 101:1 344:1 427:1 
0.9414510952740457 1:1 2:1 3:1 4:1 8:1 12:1 13:1 14:1 34:1 50:1 63:1 75:1 101:1 130:1 232:1 361:1 1570:1 2061:1 
1 2:1 4:1 13:1 14:1 20:1 63:1 65:1 107:1 120:1 785:1 2062:1 
0.691771318240412 2:1 4:1 5:1 9:1 12:1 13:1 14:1 38:1 47:1 63:1 99:1 433:1 619:1 786:1 2063:1 2064:1 2065:1 2066:1 
1 2:1 4:1 13:1 14:1 38:1 55:1 73:1 75:1 84:1 97:1 159:1 307:1 1129:1 1346:1 
1 1:1 2:1 3:1 4:1 13:1 14:1 2067:1 
1 2:1 4:1 12:1 13:1 14:1 163:1 822:1 2069:1 
0.5478983348165137 2:1 4:1 12:1 13:1 14:1 258:1 2070:1 
0.3621448285529777 2:1 4:1 5:1 6:1 13:1 14:1 46:1 215:1 338:1 343:1 2072:1 
1 2:1 4:1 13:1 14:1 262:1 2073:1 
0.3758819060501312 2:1 4:1 5:1 6:1 10:1 12:1 13:1 14:1 20:1 46:1 48:1 75:1 123:1 135:1 159:1 240:1 258:1 313:1 2074:1 2075:1 2076:1 2077:1 2078:1 
1 2:1 4:1 8:1 13:1 14:1 50:1 84:1 95:1 109:1 710:1 733:1 1327:1 
1 2:1 4:1 13:1 14:1 42:1 56:1 65:1 150:1 159:1 822:1 2079:1 2080:1 
1 2:1 4:1 5:1 13:1 14:1 34:1 42:1 47:1 63:1 93:1 99:1 109:1 114:1 214:1 353:1 427:1 1070:1 2081:1 2082:1 2083:1 
1 2:1 4:1 13:1 14:1 72:1 78:1 82:1 84:1 616:1 680:1 738:1 1415:1 
0.6568454719848799 2:1 4:1 10:1 13:1 14:1 41:1 42:1 63:1 79:1 150:1 159:1 181:1 368:1 641:1 781:1 1237:1 1357:1 1446:1 2084:1 2085:1 2086:1 2087:1 
1 2:1 4:1 5:1 10:1 13:1 14:1 31:1 46:1 50:1 52:1 68:1 75:1 95:1 101:1 126:1 240:1 336:1 365:1 548:1 1330:1 1357:1 1751:1 2088:1 
1 1:1 2:1 3:1 4:1 5:1 8:1 10:1 13:1 14:1 31:1 42:1 46:1 62:1 94:1 95:1 99:1 109:1 127:1 130:1 165:1 233:1 262:1 287:1 305:1 743:1 
0.2389632896351302 1:1 2:1 3:1 4:1 13:1 14:1 19:1 75:1 90:1 273:1 1443:1 2095:1 2096:1 2097:1 
1 2:1 4:1 13:1 14:1 163:1 2098:1 
1 2:1 4:1 10:1 13:1 14:1 42:1 46:1 48:1 63:1 75:1 99:1 123:1 326:1 327:1 360:1 522:1 807:1 951:1 2099:1 2100:1 
1 2:1 4:1 13:1 14:1 19:1 215:1 295:1 299:1 
1 2:1 4:1 12:1 13:1 14:1 63:1 71:1 75:1 78:1 112:1 122:1 162:1 163:1 
1 1:1 2:1 3:1 4:1 12:1 13:1 14:1 19:1 25:1 30:1 46:1 65:1 92:1 107:1 248:1 349:1 458:1 825:1 2101:1 
1 2:1 4:1 12:1 13:1 14:1 72:1 123:1 364:1 414:1 992:1 
1 2:1 4:1 10:1 13:1 14:1 63:1 75:1 82:1 84:1 1357:1 2102:1 
1 2:1 4:1 5:1 10:1 13:1 14:1 38:1 84:1 95:1 109:1 122:1 123:1 124:1 229:1 1455:1 
1 2:1 4:1 5:1 10:1 13:1 14:1 86:1 173:1 232:1 248:1 251:1 385:1 864:1 2106:1 
0.640588912729351 2:1 4:1 13:1 14:1 42:1 47:1 66:1 84:1 262:1 2107:1 2108:1 2109:1 2110:1 
1 2:1 4:1 13:1 14:1 598:1 1766:1 
0.5530337971934202 2:1 4:1 10:1 13:1 14:1 84:1 122:1 262:1 339:1 451:1 507:1 2111:1 
1 1:1 2:1 3:1 4:1 5:1 13:1 14:1 27:1 34:1 56:1 63:1 75:1 82:1 238:1 263:1 287:1 315:1 593:1 743:1 2112:1 2113:1 
0.8546317307289946 2:1 4:1 13:1 14:1 19:1 122:1 177:1 178:1 194:1 362:1 2114:1 2115:1 
0.1628819998041889 2:1 4:1 13:1 14:1 71:1 75:1 122:1 163:1 507:1 2116:1 2117:1 2118:1 
1 2:1 4:1 13:1 14:1 42:1 68:1 72:1 82:1 150:1 215:1 622:1 1779:1 2119:1 2120:1 
1 2:1 4:1 13:1 14:1 75:1 107:1 109:1 164:1 197:1 733:1 1529:1 2121:1 
1 2:1 4:1 5:1 12:1 13:1 14:1 30:1 56:1 126:1 128:1 158:1 598:1 649:1 1803:1 2122:1 
1 2:1 4:1 13:1 14:1 38:1 63:1 84:1 122:1 123:1 310:1 429:1 
1 2:1 4:1 12:1 13:1 14:1 135:1 2116:1 2123:1 
1 2:1 4:1 13:1 14:1 216:1 326:1 837:1 1765:1 2124:1 2125:1 
0.09220648849427575 2:1 4:1 13:1 14:1 29:1 56:1 68:1 123:1 509:1 2126:1 2127:1 2128:1 
1 2:1 4:1 13:1 14:1 46:1 63:1 71:1 84:1 262:1 1074:1 1597:1 2129:1 
1 2:1 4:1 13:1 14:1 15:1 19:1 81:1 123:1 238:1 2130:1 
1 2:1 4:1 5:1 13:1 14:1 47:1 63:1 72:1 74:1 92:1 326:1 347:1 438:1 786:1 
1 1:1 2:1 3:1 4:1 5:1 13:1 14:1 19:1 50:1 51:1 63:1 90:1 107:1 120:1 139:1 573:1 781:1 823:1 865:1 869:1 2131:1 
1 2:1 4:1 12:1 13:1 14:1 2135:1 2136:1 
1 2:1 4:1 12:1 13:1 14:1 108:1 109:1 172:1 873:1 
0.6737173703598984 2:1 4:1 13:1 14:1 226:1 267:1 2138:1 
0.2639922817712704 2:1 4:1 12:1 13:1 14:1 1312:1 2139:1 2140:1 2141:1 2142:1 2143:1 2144:1 2145:1 
1 2:1 4:1 13:1 14:1 19:1 31:1 47:1 63:1 135:1 194:1 295:1 299:1 326:1 746:1 822:1 1018:1 
1 1:1 2:1 3:1 4:1 5:1 8:1 12:1 13:1 14:1 19:1 55:1 56:1 73:1 90:1 99:1 123:1 147:1 1603:1 
1 2:1 4:1 5:1 13:1 14:1 38:1 48:1 72:1 84:1 122:1 123:1 124:1 194:1 835:1 911:1 
1 2:1 4:1 5:1 8:1 9:1 13:1 14:1 27:1 32:1 42:1 46:1 50:1 52:1 65:1 95:1 99:1 109:1 165:1 258:1 302:1 391:1 560:1 778:1 1103:1 1605:1 
0.6571258522058979 2:1 4:1 13:1 14:1 38:1 46:1 48:1 158:1 225:1 2146:1 2147:1 2148:1 
1 1:1 2:1 3:1 4:1 5:1 6:1 13:1 14:1 19:1 63:1 90:1 135:1 2149:1 
1 2:1 4:1 13:1 14:1 19:1 31:1 42:1 46:1 61:1 63:1 68:1 84:1 99:1 109:1 127:1 135:1 239:1 248:1 295:1 384:1 487:1 548:1 590:1 646:1 696:1 992:1 1028:1 1418:1 1904:1 
0.6424313343597852 2:1 4:1 13:1 14:1 42:1 122:1 362:1 429:1 641:1 2150:1 
1 1:1 2:1 3:1 4:1 5:1 6:1 12:1 13:1 14:1 27:1 40:1 55:1 66:1 95:1 107:1 148:1 150:1 201:1 202:1 240:1 282:1 291:1 349:1 377:1 444:1 805:1 817:1 939:1 1090:1 1793:1 2155:1 2156:1 
0.3719010144692637 1:1 2:1 3:1 4:1 9:1 13:1 14:1 19:1 27:1 30:1 48:1 90:1 101:1 177:1 295:1 339:1 344:1 900:1 1551:1 2157:1 2158:1 2159:1 2160:1 
1 2:1 4:1 5:1 12:1 13:1 14:1 75:1 84:1 240:1 507:1 817:1 913:1 989:1 2163:1 2164:1 2165:1 
1 2:1 4:1 5:1 12:1 13:1 14:1 20:1 72:1 159:1 160:1 172:1 216:1 219:1 305:1 451:1 845:1 1094:1 
1 2:1 4:1 5:1 12:1 13:1 14:1 60:1 127:1 
1 2:1 4:1 5:1 13:1 14:1 46:1 55:1 66:1 75:1 102:1 103:1 197:1 262:1 462:1 529:1 1073:1 2166:1 2167:1 2168:1 
1 1:1 2:1 3:1 4:1 5:1 12:1 13:1 14:1 19:1 32:1 47:1 52:1 71:1 90:1 95:1 99:1 109:1 194:1 490:1 1568:1 2169:1 
1 2:1 4:1 13:1 14:1 63:1 72:1 158:1 172:1 199:1 590:1 1390:1 2170:1 2171:1 2172:1 
1 2:1 4:1 13:1 14:1 47:1 52:1 84:1 159:1 808:1 823:1 
1 2:1 4:1 13:1 14:1 71:1 72:1 84:1 1351:1 2176:1 2177:1 
1 2:1 4:1 13:1 14:1 63:1 78:1 84:1 189:1 258:1 1127:1 
1 2:1 4:1 5:1 8:1 10:1 13:1 14:1 47:1 63:1 73:1 84:1 107:1 111:1 127:1 240:1 671:1 701:1 823:1 2178:1 
1 2:1 4:1 8:1 9:1 13:1 14:1 30:1 38:1 42:1 46:1 55:1 56:1 60:1 92:1 101:1 159:1 175:1 498:1 1068:1 2179:1 2180:1 2181:1 2182:1 
1 2:1 4:1 13:1 14:1 101:1 197:1 287:1 344:1 365:1 474:1 2183:1 2184:1 
1 2:1 4:1 5:1 12:1 13:1 14:1 75:1 108:1 109:1 111:1 115:1 158:1 163:1 164:1 194:1 302:1 427:1 791:1 900:1 956:1 2185:1 
0.9727456332383395 2:1 4:1 13:1 14:1 29:1 48:1 84:1 353:1 903:1 
1 2:1 4:1 13:1 14:1 48:1 72:1 84:1 159:1 176:1 781:1 1164:1 
1 2:1 4:1 13:1 14:1 19:1 30:1 122:1 166:1 167:1 209:1 210:1 295:1 
0.8197134239418691 2:1 4:1 5:1 12:1 13:1 14:1 16:1 32:1 52:1 63:1 99:1 172:1 173:1 239:1 240:1 248:1 251:1 312:1 620:1 1243:1 1270:1 2187:1 2188:1 
1 2:1 4:1 13:1 14:1 194:1 362:1 918:1 
1 2:1 4:1 13:1 14:1 194:1 621:1 1589:1 1630:1 
1 2:1 4:1 5:1 6:1 13:1 14:1 123:1 434:1 2099:1 2192:1 
1 2:1 4:1 12:1 13:1 14:1 165:1 326:1 
1 2:1 4:1 12:1 13:1 14:1 48:1 84:1 229:1 562:1 1119:1 
0.04650810744964815 2:1 4:1 13:1 14:1 19:1 47:1 48:1 68:1 278:1 385:1 1597:1 2193:1 2194:1 2195:1 2196:1 
1 2:1 4:1 13:1 14:1 81:1 194:1 565:1 
1 2:1 4:1 13:1 14:1 48:1 68:1 207:1 229:1 476:1 658:1 
0.3659855158612748 2:1 4:1 13:1 14:1 1441:1 2197:1 2198:1 
1 2:1 4:1 5:1 12:1 13:1 14:1 38:1 92:1 94:1 95:1 99:1 109:1 215:1 216:1 283:1 349:1 351:1 519:1 1768:1 
1 1:1 2:1 3:1 4:1 9:1 13:1 14:1 19:1 90:1 240:1 2199:1 
1 2:1 4:1 12:1 13:1 14:1 19:1 122:1 177:1 178:1 194:1 210:1 1874:1 
1 2:1 4:1 12:1 13:1 14:1 1888:1 2202:1 2203:1 
1 2:1 4:1 12:1 13:1 14:1 194:1 2205:1 
0.5653241634217456 1:1 2:1 3:1 4:1 5:1 6:1 10:1 12:1 13:1 14:1 46:1 55:1 63:1 92:1 101:1 124:1 158:1 172:1 199:1 560:1 2109:1 2206:1 
0.4930601753069451 2:1 4:1 13:1 14:1 258:1 915:1 2207:1 
0.7168978754992156 2:1 4:1 13:1 14:1 66:1 142:1 159:1 410:1 876:1 1273:1 2120:1 2208:1 2209:1 
0.0510554690632993 2:1 4:1 13:1 14:1 42:1 63:1 71:1 78:1 99:1 212:1 307:1 309:1 310:1 
0.2019821471382658 1:1 2:1 3:1 4:1 10:1 13:1 14:1 19:1 28:1 46:1 63:1 72:1 84:1 90:1 101:1 159:1 163:1 240:1 262:1 479:1 560:1 591:1 865:1 869:1 983:1 1240:1 1981:1 2210:1 2211:1 2212:1 
1 2:1 4:1 13:1 14:1 2131:1 
1 2:1 4:1 13:1 14:1 48:1 75:1 172:1 1025:1 2224:1 
1 2:1 4:1 5:1 13:1 14:1 229:1 966:1 
1 2:1 4:1 13:1 14:1 183:1 222:1 625:1 666:1 
0.3340196476834687 2:1 4:1 12:1 13:1 14:1 42:1 46:1 55:1 56:1 97:1 248:1 278:1 315:1 2225:1 2226:1 2227:1 
1 2:1 4:1 10:1 13:1 14:1 63:1 75:1 1357:1 2230:1 
1 1:1 2:1 3:1 4:1 5:1 9:1 12:1 13:1 14:1 27:1 48:1 63:1 75:1 84:1 99:1 135:1 194:1 229:1 240:1 282:1 315:1 353:1 590:1 742:1 1267:1 1773:1 2037:1 2231:1 2232:1 
1 1:1 2:1 3:1 4:1 12:1 13:1 14:1 84:1 147:1 159:1 194:1 229:1 302:1 1337:1 2233:1 
1 2:1 4:1 13:1 14:1 34:1 414:1 
0.7041528612692876 2:1 4:1 13:1 14:1 38:1 122:1 123:1 124:1 194:1 2234:1 
1 2:1 4:1 10:1 13:1 14:1 19:1 57:1 63:1 72:1 150:1 214:1 295:1 299:1 309:1 337:1 464:1 
1 2:1 4:1 10:1 13:1 14:1 29:1 34:1 48:1 135:1 201:1 202:1 233:1 351:1 385:1 828:1 2194:1 
1 2:1 4:1 13:1 14:1 66:1 123:1 238:1 302:1 957:1 2235:1 
0.009649768449063404 2:1 4:1 13:1 14:1 122:1 210:1 2114:1 2236:1 2237:1 
0.2823770768806327 2:1 4:1 13:1 14:1 42:1 46:1 71:1 84:1 124:1 138:1 159:1 160:1 262:1 306:1 414:1 680:1 845:1 1094:1 2238:1 2239:1 
0.7799036833228001 2:1 4:1 9:1 10:1 13:1 14:1 33:1 34:1 42:1 46:1 48:1 63:1 75:1 79:1 196:1 225:1 240:1 282:1 326:1 389:1 490:1 496:1 1446:1 2200:1 2240:1 2241:1 2242:1 2243:1 2244:1 2245:1 
1 2:1 4:1 12:1 13:1 14:1 63:1 163:1 262:1 362:1 1074:1 
1 2:1 4:1 5:1 13:1 14:1 34:1 72:1 101:1 694:1 1684:1 
1 2:1 4:1 13:1 14:1 124:1 
1 2:1 4:1 13:1 14:1 107:1 573:1 
1 2:1 4:1 13:1 14:1 150:1 170:1 194:1 262:1 287:1 1327:1 2246:1 
1 2:1 4:1 13:1 14:1 123:1 2247:1 2248:1 
1 2:1 4:1 5:1 13:1 14:1 55:1 84:1 229:1 238:1 845:1 1589:1 2249:1 2250:1 2251:1 
1 2:1 4:1 10:1 13:1 14:1 30:1 47:1 84:1 249:1 262:1 759:1 2252:1 2253:1 
1 2:1 4:1 13:1 14:1 112:1 376:1 451:1 2254:1 
0.2197196027911304 2:1 4:1 13:1 14:1 55:1 82:1 2255:1 2256:1 
0.5530779553117252 2:1 4:1 13:1 14:1 19:1 34:1 47:1 48:1 63:1 72:1 75:1 135:1 600:1 820:1 828:1 1742:1 1744:1 2011:1 2257:1 2258:1 2259:1 2260:1 
0.9475849449069791 2:1 4:1 5:1 12:1 13:1 14:1 48:1 73:1 75:1 78:1 141:1 194:1 216:1 315:1 326:1 362:1 2261:1 
0.9612767275360233 2:1 4:1 10:1 13:1 14:1 32:1 42:1 84:1 158:1 262:1 356:1 357:1 958:1 1687:1 
1 2:1 4:1 13:1 14:1 79:1 306:1 434:1 1278:1 1549:1 
1 1:1 2:1 3:1 4:1 12:1 13:1 14:1 48:1 262:1 568:1 1074:1 
0.5504365751144393 2:1 4:1 5:1 13:1 14:1 71:1 75:1 126:1 150:1 172:1 204:1 2263:1 
1 2:1 4:1 13:1 14:1 38:1 122:1 123:1 124:1 901:1 
1 2:1 4:1 10:1 13:1 14:1 48:1 75:1 135:1 2264:1 
1 1:1 2:1 3:1 4:1 9:1 13:1 14:1 30:1 40:1 46:1 47:1 48:1 684:1 1297:1 2268:1 
1 1:1 2:1 3:1 4:1 10:1 12:1 13:1 14:1 34:1 60:1 68:1 130:1 148:1 188:1 343:1 729:1 2269:1 2270:1 
0.1962099317661453 2:1 4:1 12:1 13:1 14:1 2255:1 2271:1 
0.7656137206409048 2:1 4:1 13:1 14:1 84:1 158:1 199:1 204:1 329:1 330:1 331:1 726:1 1144:1 1652:1 2273:1 
1 2:1 4:1 8:1 13:1 14:1 55:1 72:1 101:1 200:1 
1 2:1 4:1 13:1 14:1 75:1 150:1 159:1 413:1 1224:1 2274:1 
1 1:1 2:1 3:1 4:1 13:1 14:1 19:1 68:1 75:1 76:1 79:1 90:1 167:1 538:1 708:1 761:1 1477:1 1821:1 2275:1 2276:1 
0.6540827383575664 2:1 4:1 13:1 14:1 31:1 42:1 84:1 105:1 159:1 184:1 282:1 407:1 1603:1 1954:1 2050:1 2277:1 2278:1 
1 1:1 2:1 3:1 4:1 8:1 13:1 14:1 50:1 75:1 101:1 130:1 361:1 2279:1 
1 1:1 2:1 3:1 4:1 13:1 14:1 42:1 99:1 474:1 641:1 743:1 2280:1 
1 1:1 2:1 3:1 4:1 13:1 14:1 25:1 72:1 107:1 2281:1 
1 2:1 4:1 9:1 13:1 14:1 56:1 71:1 318:1 590:1 759:1 760:1 788:1 2060:1 2282:1 2283:1 
0.4639726102480932 2:1 4:1 12:1 13:1 14:1 19:1 47:1 71:1 73:1 175:1 194:1 219:1 248:1 295:1 299:1 326:1 487:1 576:1 746:1 1267:1 
1 1:1 2:1 3:1 4:1 8:1 13:1 14:1 34:1 42:1 46:1 61:1 63:1 78:1 92:1 93:1 95:1 147:1 240:1 262:1 315:1 412:1 500:1 600:1 865:1 869:1 944:1 1637:1 2284:1 2285:1 
0.2608728078042432 1:1 2:1 3:1 4:1 5:1 13:1 14:1 46:1 47:1 99:1 126:1 194:1 209:1 210:1 232:1 247:1 267:1 273:1 2286:1 2287:1 2288:1 2289:1 
1 2:1 4:1 13:1 14:1 28:1 71:1 72:1 75:1 82:1 123:1 170:1 172:1 324:1 622:1 2293:1 
1 2:1 4:1 12:1 13:1 14:1 873:1 2294:1 
0.8637055712599973 2:1 4:1 13:1 14:1 29:1 175:1 211:1 2295:1 
0.5839813940139921 2:1 4:1 13:1 14:1 47:1 68:1 274:1 1059:1 2296:1 2297:1 2298:1 
1 1:1 2:1 3:1 4:1 12:1 13:1 14:1 19:1 38:1 75:1 101:1 106:1 311:1 320:1 483:1 2299:1 
1 2:1 4:1 5:1 13:1 14:1 38:1 47:1 50:1 93:1 147:1 175:1 326:1 413:1 450:1 685:1 1028:1 1649:1 2300:1 
1 1:1 2:1 3:1 4:1 5:1 6:1 12:1 13:1 14:1 27:1 78:1 150:1 182:1 326:1 649:1 1603:1 
1 2:1 4:1 13:1 14:1 50:1 107:1 147:1 329:1 330:1 331:1 865:1 869:1 879:1 1980:1 2301:1 2302:1 
1 1:1 2:1 3:1 4:1 5:1 12:1 13:1 14:1 19:1 32:1 48:1 52:1 63:1 72:1 78:1 90:1 99:1 126:1 214:1 240:1 324:1 778:1 977:1 
0.1976106176153121 2:1 4:1 12:1 13:1 14:1 76:1 107:1 194:1 499:1 743:1 2303:1 2304:1 
0.6905957798023357 2:1 4:1 13:1 14:1 159:1 826:1 926:1 2305:1 2306:1 2307:1 2308:1 
1 2:1 4:1 10:1 13:1 14:1 63:1 75:1 84:1 1357:1 2309:1 
1 2:1 4:1 13:1 14:1 34:1 42:1 48:1 141:1 201:1 202:1 205:1 502:1 519:1 622:1 1566:1 2310:1 
1 2:1 4:1 9:1 13:1 14:1 240:1 2199:1 
1 2:1 4:1 5:1 13:1 14:1 19:1 51:1 194:1 248:1 262:1 408:1 413:1 729:1 1029:1 1030:1 2311:1 
1 2:1 4:1 13:1 14:1 124:1 296:1 1297:1 
1 1:1 2:1 3:1 4:1 12:1 13:1 14:1 19:1 84:1 312:1 370:1 2312:1 2313:1 
1 2:1 4:1 10:1 13:1 14:1 302:1 2314:1 
1 2:1 4:1 5:1 12:1 13:1 14:1 63:1 92:1 101:1 126:1 135:1 463:1 
1 2:1 4:1 5:1 6:1 13:1 14:1 112:1 162:1 
0.3933575967263727 2:1 4:1 13:1 14:1 42:1 61:1 63:1 107:1 147:1 148:1 150:1 738:1 1455:1 1551:1 2323:1 2324:1 2325:1 2326:1 
0.5978254872344542 2:1 4:1 10:1 13:1 14:1 27:1 72:1 75:1 112:1 121:1 181:1 238:1 316:1 591:1 781:1 1291:1 1330:1 2327:1 2328:1 2329:1 2330:1 
1 2:1 4:1 8:1 13:1 14:1 34:1 60:1 63:1 237:1 573:1 
1 2:1 4:1 9:1 10:1 12:1 13:1 14:1 62:1 63:1 72:1 75:1 84:1 107:1 173:1 479:1 499:1 746:1 788:1 888:1 1357:1 
1 2:1 4:1 12:1 13:1 14:1 42:1 194:1 262:1 451:1 
1 2:1 4:1 10:1 13:1 14:1 84:1 949:1 1189:1 2331:1 
1 2:1 4:1 10:1 13:1 14:1 42:1 57:1 63:1 76:1 84:1 93:1 150:1 235:1 239:1 302:1 326:1 362:1 2332:1 2333:1 
1 2:1 4:1 5:1 10:1 13:1 14:1 16:1 42:1 71:1 84:1 99:1 160:1 204:1 518:1 598:1 1301:1 2336:1 2337:1 
1 1:1 2:1 3:1 4:1 5:1 9:1 12:1 13:1 14:1 25:1 56:1 99:1 156:1 196:1 222:1 315:1 318:1 349:1 562:1 892:1 2338:1 
1 1:1 2:1 3:1 4:1 13:1 14:1 19:1 30:1 90:1 215:1 2339:1 
1 2:1 4:1 13:1 14:1 84:1 124:1 158:1 1156:1 1435:1 2194:1 
1 2:1 4:1 8:1 13:1 14:1 42:1 47:1 60:1 72:1 82:1 159:1 462:1 573:1 728:1 744:1 2075:1 2106:1 2279:1 2340:1 
1 2:1 4:1 13:1 14:1 42:1 99:1 109:1 160:1 204:1 225:1 471:1 680:1 1588:1 
1 2:1 4:1 12:1 13:1 14:1 34:1 56:1 60:1 63:1 95:1 135:1 150:1 215:1 326:1 409:1 410:1 487:1 2341:1 2342:1 
1 1:1 2:1 3:1 4:1 13:1 14:1 27:1 38:1 41:1 50:1 51:1 66:1 75:1 101:1 114:1 130:1 165:1 181:1 248:1 251:1 337:1 680:1 1517:1 2030:1 2031:1 
1 1:1 2:1 3:1 4:1 9:1 13:1 14:1 19:1 92:1 101:1 145:1 325:1 2281:1 
1 1:1 2:1 3:1 4:1 13:1 14:1 19:1 90:1 
0.04993986658206936 2:1 4:1 5:1 6:1 8:1 13:1 14:1 27:1 42:1 46:1 52:1 72:1 84:1 94:1 95:1 99:1 201:1 202:1 248:1 282:1 364:1 647:1 743:1 944:1 1196:1 2345:1 2346:1 2347:1 2348:1 
1 2:1 4:1 13:1 14:1 34:1 63:1 92:1 95:1 99:1 112:1 120:1 
1 2:1 4:1 13:1 14:1 46:1 75:1 116:1 137:1 159:1 160:1 204:1 215:1 484:1 1068:1 1762:1 
1 2:1 4:1 10:1 12:1 13:1 14:1 163:1 238:1 362:1 434:1 518:1 
0.1546319058606606 2:1 4:1 10:1 13:1 14:1 42:1 43:1 46:1 48:1 56:1 60:1 71:1 77:1 78:1 84:1 197:1 240:1 251:1 444:1 590:1 600:1 805:1 865:1 869:1 2349:1 2350:1 2351:1 2352:1 2353:1 2354:1 2355:1 
0.8818662775761117 2:1 4:1 13:1 14:1 77:1 78:1 84:1 239:1 2356:1 2357:1 
1 2:1 4:1 13:1 14:1 16:1 62:1 101:1 107:1 123:1 238:1 597:1 610:1 781:1 1762:1 
0.5031953035752893 2:1 4:1 5:1 13:1 14:1 27:1 56:1 71:1 75:1 84:1 150:1 229:1 262:1 312:1 576:1 687:1 754:1 788:1 1059:1 1297:1 1309:1 1523:1 1991:1 2358:1 2359:1 
1 1:1 2:1 3:1 4:1 5:1 6:1 12:1 13:1 14:1 2360:1 2361:1 
0.1542688720747077 2:1 4:1 5:1 6:1 9:1 13:1 14:1 20:1 32:1 48:1 52:1 56:1 84:1 122:1 123:1 167:1 170:1 196:1 229:1 326:1 329:1 331:1 392:1 413:1 548:1 743:1 1116:1 1712:1 2362:1 2363:1 2364:1 
1 1:1 2:1 3:1 4:1 13:1 14:1 19:1 27:1 42:1 185:1 215:1 329:1 331:1 392:1 865:1 869:1 901:1 1418:1 2365:1 2366:1 
1 2:1 4:1 13:1 14:1 82:1 229:1 232:1 562:1 1273:1 
1 1:1 2:1 3:1 4:1 12:1 13:1 14:1 19:1 30:1 90:1 437:1 625:1 2367:1 
1 2:1 4:1 5:1 13:1 14:1 27:1 33:1 42:1 47:1 57:1 63:1 71:1 82:1 114:1 148:1 163:1 172:1 315:1 641:1 743:1 2192:1 2368:1 
0.1754434513179275 1:1 2:1 3:1 4:1 13:1 14:1 19:1 60:1 63:1 90:1 107:1 505:1 898:1 1070:1 1653:1 2369:1 2370:1 
1 2:1 4:1 5:1 10:1 13:1 14:1 47:1 63:1 75:1 95:1 109:1 216:1 315:1 1690:1 2272:1 2371:1 
1 2:1 4:1 13:1 14:1 75:1 262:1 576:1 792:1 2372:1 
1 2:1 4:1 13:1 14:1 30:1 128:1 2373:1 
1 2:1 4:1 13:1 14:1 30:1 
0.7520621033144733 2:1 4:1 12:1 13:1 14:1 30:1 58:1 72:1 75:1 84:1 251:1 326:1 351:1 759:1 2374:1 2375:1 2376:1 
0.8668449026008829 2:1 4:1 9:1 12:1 13:1 14:1 32:1 42:1 60:1 65:1 72:1 75:1 107:1 158:1 172:1 197:1 515:1 785:1 1138:1 1180:1 2377:1 
0.7686991280881859 2:1 4:1 12:1 13:1 14:1 63:1 66:1 75:1 84:1 127:1 209:1 210:1 240:1 282:1 429:1 505:1 606:1 1078:1 2378:1 
1 1:1 2:1 3:1 4:1 10:1 12:1 13:1 14:1 19:1 38:1 84:1 90:1 114:1 160:1 671:1 2130:1 2379:1 2380:1 
0.0008477256757140447 1:1 2:1 3:1 4:1 13:1 14:1 34:1 56:1 94:1 106:1 117:1 130:1 240:1 327:1 1773:1 2381:1 2382:1 2383:1 2384:1 
1 2:1 4:1 12:1 13:1 14:1 122:1 194:1 362:1 2385:1 
1 1:1 2:1 3:1 4:1 5:1 13:1 14:1 38:1 41:1 71:1 75:1 93:1 109:1 124:1 186:1 214:1 229:1 331:1 498:1 865:1 869:1 1003:1 1109:1 2386:1 
1 2:1 4:1 13:1 14:1 47:1 63:1 108:1 109:1 172:1 262:1 1240:1 
1 2:1 4:1 13:1 14:1 194:1 258:1 1099:1 
1 2:1 4:1 12:1 13:1 14:1 63:1 78:1 162:1 628:1 2388:1 
1 2:1 4:1 13:1 14:1 34:1 42:1 47:1 72:1 130:1 186:1 229:1 622:1 743:1 
0.2183584889410801 2:1 4:1 5:1 13:1 14:1 30:1 34:1 63:1 72:1 75:1 84:1 95:1 109:1 154:1 159:1 165:1 189:1 205:1 347:1 450:1 998:1 1535:1 1637:1 2391:1 2392:1 
1 2:1 4:1 12:1 13:1 14:1 72:1 74:1 99:1 158:1 240:1 287:1 379:1 715:1 1298:1 2055:1 
1 2:1 4:1 5:1 13:1 14:1 27:1 71:1 84:1 95:1 107:1 108:1 109:1 130:1 202:1 437:1 444:1 2250:1 2394:1 2395:1 2396:1 
0.2489676332618653 1:1 2:1 3:1 4:1 13:1 14:1 19:1 71:1 82:1 92:1 865:1 869:1 1196:1 2397:1 
1 1:1 2:1 3:1 4:1 5:1 13:1 14:1 108:1 109:1 110:1 150:1 240:1 446:1 2398:1 
1 1:1 2:1 3:1 4:1 13:1 14:1 47:1 63:1 107:1 173:1 347:1 377:1 436:1 446:1 544:1 1994:1 2399:1 
1 2:1 4:1 13:1 14:1 41:1 42:1 56:1 71:1 107:1 137:1 239:1 240:1 1031:1 2128:1 
1 2:1 4:1 5:1 10:1 13:1 14:1 38:1 46:1 47:1 93:1 126:1 170:1 215:1 262:1 316:1 326:1 413:1 476:1 479:1 700:1 809:1 989:1 1069:1 1605:1 1748:1 2037:1 2400:1 
0.3037071765094426 2:1 4:1 5:1 13:1 14:1 27:1 46:1 48:1 63:1 68:1 75:1 84:1 135:1 315:1 500:1 508:1 602:1 710:1 713:1 865:1 869:1 1103:1 1600:1 2282:1 2401:1 2402:1 2403:1 2404:1 2405:1 
1 2:1 4:1 5:1 12:1 13:1 14:1 47:1 48:1 56:1 109:1 126:1 164:1 215:1 1616:1 1740:1 2406:1 
1 1:1 2:1 3:1 4:1 9:1 12:1 13:1 14:1 19:1 27:1 71:1 90:1 114:1 177:1 178:1 204:1 215:1 489:1 505:1 580:1 581:1 2407:1 
1 2:1 4:1 5:1 12:1 13:1 14:1 61:1 84:1 347:1 1728:1 1803:1 
0.2204102700407438 2:1 4:1 13:1 14:1 15:1 84:1 329:1 331:1 359:1 392:1 420:1 
0.1609110540824155 1:1 2:1 3:1 4:1 8:1 9:1 12:1 13:1 14:1 16:1 19:1 27:1 50:1 78:1 90:1 107:1 108:1 109:1 158:1 302:1 326:1 573:1 2122:1 2408:1 2409:1 
1 1:1 2:1 3:1 4:1 9:1 13:1 14:1 19:1 27:1 42:1 48:1 66:1 90:1 101:1 123:1 158:1 248:1 379:1 408:1 562:1 1068:1 1194:1 1322:1 1656:1 2411:1 
0.7632315562734747 2:1 4:1 5:1 13:1 14:1 42:1 112:1 140:1 349:1 618:1 926:1 1496:1 1505:1 2412:1 2413:1 2414:1 2415:1 2416:1 2417:1 2418:1 
1 1:1 2:1 3:1 4:1 8:1 13:1 14:1 99:1 112:1 215:1 351:1 
1 2:1 4:1 9:1 10:1 13:1 14:1 38:1 40:1 46:1 47:1 79:1 159:1 215:1 240:1 379:1 385:1 532:1 561:1 600:1 749:1 818:1 865:1 869:1 1974:1 2419:1 2420:1 2421:1 2422:1 2423:1 2424:1 2425:1 
1 2:1 4:1 13:1 14:1 32:1 57:1 71:1 158:1 498:1 2426:1 
1 2:1 4:1 12:1 13:1 14:1 30:1 209:1 210:1 
0.5244571013498799 2:1 4:1 5:1 6:1 13:1 14:1 31:1 60:1 62:1 63:1 71:1 82:1 84:1 215:1 316:1 408:1 454:1 759:1 1129:1 1538:1 2430:1 
1 2:1 4:1 8:1 12:1 13:1 14:1 50:1 99:1 109:1 159:1 170:1 366:1 384:1 781:1 2431:1 
1 2:1 4:1 13:1 14:1 42:1 52:1 63:1 92:1 107:1 137:1 148:1 215:1 217:1 316:1 622:1 879:1 1186:1 1357:1 2432:1 2433:1 
1 2:1 4:1 12:1 13:1 14:1 48:1 123:1 194:1 196:1 649:1 1056:1 1298:1 
0.366979923176985 2:1 4:1 13:1 14:1 55:1 56:1 84:1 94:1 102:1 107:1 159:1 316:1 944:1 1234:1 1766:1 2434:1 2435:1 
1 2:1 4:1 12:1 13:1 14:1 107:1 115:1 2346:1 2436:1 
0.2431544720392378 2:1 4:1 5:1 13:1 14:1 31:1 38:1 48:1 52:1 56:1 71:1 75:1 79:1 181:1 201:1 202:1 222:1 231:1 262:1 306:1 845:1 1094:1 1412:1 2437:1 2438:1 2439:1 2440:1 2441:1 2442:1 
1 2:1 4:1 13:1 14:1 84:1 127:1 479:1 480:1 848:1 992:1 
1 2:1 4:1 13:1 14:1 68:1 86:1 141:1 232:1 277:1 865:1 869:1 2443:1 2444:1 2445:1 2446:1 2447:1 
0.009840791775955227 2:1 4:1 13:1 14:1 71:1 141:1 362:1 2448:1 2449:1 
1 2:1 4:1 9:1 13:1 14:1 30:1 40:1 66:1 324:1 325:1 410:1 497:1 2450:1 2451:1 
0.5670948777929193 2:1 4:1 13:1 14:1 48:1 60:1 66:1 68:1 72:1 84:1 385:1 790:1 1895:1 2121:1 2452:1 2453:1 
1 1:1 2:1 3:1 4:1 8:1 13:1 14:1 46:1 202:1 232:1 248:1 340:1 865:1 869:1 1003:1 1047:1 2446:1 2454:1 2455:1 
1 2:1 4:1 12:1 13:1 14:1 163:1 936:1 
0.08504626001305275 2:1 4:1 12:1 13:1 14:1 46:1 63:1 72:1 81:1 135:1 409:1 429:1 477:1 554:1 625:1 1138:1 2456:1 2457:1 2458:1 2459:1 2460:1 2461:1 2462:1 
1 1:1 2:1 3:1 4:1 5:1 13:1 14:1 65:1 71:1 72:1 75:1 518:1 877:1 1099:1 
1 2:1 4:1 13:1 14:1 63:1 72:1 172:1 748:1 1478:1 1896:1 
1 2:1 4:1 13:1 14:1 30:1 690:1 
1 2:1 4:1 12:1 13:1 14:1 68:1 75:1 124:1 141:1 362:1 2463:1 
1 2:1 4:1 9:1 10:1 13:1 14:1 84:1 107:1 132:1 185:1 353:1 978:1 
1 2:1 4:1 5:1 10:1 13:1 14:1 92:1 93:1 101:1 182:1 262:1 346:1 624:1 733:1 2467:1 
1 2:1 4:1 8:1 13:1 14:1 48:1 56:1 101:1 240:1 2468:1 
1 2:1 4:1 13:1 14:1 54:1 73:1 75:1 99:1 107:1 150:1 316:1 746:1 883:1 
1 2:1 4:1 5:1 9:1 10:1 13:1 14:1 40:1 46:1 48:1 50:1 63:1 75:1 84:1 94:1 95:1 99:1 216:1 316:1 823:1 971:1 1061:1 1267:1 1281:1 2469:1 2470:1 
0.7692118171561521 2:1 4:1 5:1 13:1 14:1 41:1 47:1 48:1 50:1 51:1 60:1 63:1 71:1 84:1 92:1 99:1 109:1 256:1 366:1 1061:1 1295:1 1300:1 1321:1 2094:1 2130:1 2471:1 2472:1 2473:1 
1 2:1 4:1 13:1 14:1 60:1 75:1 302:1 2474:1 2475:1 
1 2:1 4:1 13:1 14:1 212:1 1278:1 
0.9914986057732951 2:1 4:1 5:1 10:1 13:1 14:1 25:1 47:1 95:1 229:1 743:1 2311:1 2476:1 2477:1 
1 2:1 4:1 12:1 13:1 14:1 68:1 82:1 122:1 123:1 175:1 211:1 
1 2:1 4:1 13:1 14:1 22:1 68:1 82:1 329:1 330:1 331:1 726:1 2478:1 
1 2:1 4:1 5:1 13:1 14:1 50:1 51:1 63:1 107:1 120:1 139:1 573:1 781:1 823:1 865:1 869:1 2131:1 
0.2705983638089707 2:1 4:1 5:1 6:1 13:1 14:1 32:1 42:1 47:1 48:1 65:1 71:1 94:1 101:1 109:1 215:1 222:1 318:1 362:1 562:1 631:1 993:1 2114:1 2200:1 2480:1 2481:1 2482:1 
1 2:1 4:1 12:1 13:1 14:1 68:1 194:1 2424:1 2483:1 
1 2:1 4:1 13:1 14:1 75:1 112:1 262:1 759:1 767:1 
0.9187782115536963 2:1 4:1 8:1 13:1 14:1 30:1 38:1 48:1 55:1 72:1 75:1 101:1 215:1 267:1 1003:1 2398:1 2484:1 2485:1 2486:1 2487:1 2488:1 
0.1850352542030842 2:1 4:1 13:1 14:1 31:1 47:1 63:1 239:1 258:1 326:1 376:1 613:1 1018:1 1456:1 
1 2:1 4:1 5:1 10:1 13:1 14:1 50:1 75:1 97:1 107:1 385:1 466:1 823:1 1765:1 2275:1 2489:1 
0.31091786281534 1:1 2:1 3:1 4:1 12:1 13:1 14:1 71:1 72:1 75:1 646:1 900:1 977:1 1305:1 2490:1 2491:1 
1 1:1 2:1 3:1 4:1 13:1 14:1 267:1 1780:1 2090:1 2492:1 
1 1:1 2:1 3:1 4:1 13:1 14:1 19:1 2493:1 
0.2591630810423496 1:1 2:1 3:1 4:1 13:1 14:1 19:1 29:1 34:1 38:1 63:1 72:1 75:1 84:1 90:1 124:1 130:1 167:1 326:1 329:1 331:1 339:1 364:1 392:1 696:1 746:1 822:1 1237:1 1251:1 2361:1 
1 2:1 4:1 12:1 13:1 14:1 30:1 437:1 625:1 2367:1 
0.7621747805054748 1:1 2:1 3:1 4:1 10:1 13:1 14:1 19:1 68:1 86:1 90:1 215:1 351:1 729:1 1749:1 2494:1 2495:1 2496:1 2497:1 
1 2:1 4:1 5:1 12:1 13:1 14:1 30:1 75:1 211:1 226:1 262:1 
1 1:1 2:1 3:1 4:1 13:1 14:1 66:1 205:1 349:1 444:1 774:1 2499:1 
1 1:1 2:1 3:1 4:1 10:1 12:1 13:1 14:1 19:1 90:1 163:1 238:1 362:1 434:1 518:1 
1 2:1 4:1 13:1 14:1 84:1 2500:1 2501:1 
1 2:1 4:1 5:1 13:1 14:1 78:1 95:1 97:1 109:1 150:1 165:1 805:1 
1 2:1 4:1 13:1 14:1 30:1 66:1 84:1 128:1 163:1 209:1 2502:1 
1 2:1 4:1 13:1 14:1 84:1 358:1 464:1 759:1 1653:1 
1 2:1 4:1 13:1 14:1 63:1 78:1 229:1 262:1 2503:1 
1 2:1 4:1 5:1 13:1 14:1 19:1 71:1 172:1 580:1 581:1 813:1 911:1 1965:1 2504:1 
1 2:1 4:1 12:1 13:1 14:1 84:1 159:1 175:1 194:1 222:1 324:1 518:1 1017:1 2505:1 
1 2:1 4:1 13:1 14:1 32:1 34:1 47:1 48:1 63:1 71:1 112:1 172:1 1450:1 1523:1 
1 2:1 4:1 13:1 14:1 19:1 42:1 145:1 149:1 312:1 746:1 822:1 901:1 
1 2:1 4:1 5:1 12:1 13:1 14:1 34:1 47:1 48:1 50:1 130:1 170:1 505:1 936:1 
1 2:1 4:1 13:1 14:1 42:1 72:1 79:1 81:1 159:1 262:1 413:1 433:1 1068:1 
1 1:1 2:1 3:1 4:1 12:1 13:1 14:1 38:1 75:1 94:1 347:1 1947:1 2509:1 2510:1 
1 2:1 4:1 5:1 6:1 13:1 14:1 127:1 201:1 202:1 1676:1 2194:1 
1 2:1 4:1 13:1 14:1 34:1 63:1 65:1 99:1 101:1 164:1 215:1 548:1 2512:1 2513:1 
1 2:1 4:1 12:1 13:1 14:1 71:1 122:1 159:1 204:1 252:1 343:1 2514:1 
1 2:1 4:1 13:1 14:1 518:1 2515:1 
1 2:1 4:1 5:1 13:1 14:1 68:1 71:1 809:1 1281:1 2120:1 
0.5622533431618949 2:1 4:1 10:1 13:1 14:1 47:1 51:1 120:1 302:1 361:1 2255:1 
1 1:1 2:1 3:1 4:1 5:1 13:1 14:1 119:1 162:1 590:1 600:1 
1 1:1 2:1 3:1 4:1 13:1 14:1 60:1 63:1 107:1 505:1 898:1 1070:1 1653:1 2369:1 2370:1 
1 2:1 4:1 5:1 6:1 13:1 14:1 36:1 63:1 75:1 95:1 109:1 135:1 182:1 247:1 248:1 262:1 267:1 362:1 649:1 1888:1 
0.6624328535576154 2:1 4:1 5:1 13:1 14:1 27:1 32:1 52:1 84:1 111:1 112:1 236:1 248:1 258:1 325:1 462:1 522:1 680:1 1330:1 1348:1 1357:1 
1 2:1 4:1 13:1 14:1 47:1 229:1 239:1 754:1 965:1 
0.9420148102762116 2:1 4:1 5:1 10:1 13:1 14:1 19:1 63:1 99:1 115:1 158:1 165:1 172:1 177:1 178:1 199:1 205:1 248:1 302:1 347:1 544:1 555:1 813:1 911:1 1136:1 2068:1 2522:1 
1 2:1 4:1 5:1 6:1 13:1 14:1 19:1 32:1 47:1 52:1 56:1 63:1 73:1 123:1 135:1 145:1 170:1 379:1 807:1 1676:1 2523:1 
1 2:1 4:1 5:1 12:1 13:1 14:1 16:1 48:1 54:1 84:1 158:1 199:1 306:1 1061:1 1487:1 2524:1 
1 1:1 2:1 3:1 4:1 13:1 14:1 63:1 78:1 92:1 492:1 604:1 
1 2:1 4:1 13:1 14:1 2527:1 
1 2:1 4:1 13:1 14:1 72:1 302:1 306:1 367:1 2528:1 2529:1 
1 2:1 4:1 5:1 13:1 14:1 47:1 48:1 108:1 109:1 110:1 488:1 1129:1 2100:1 
1 1:1 2:1 3:1 4:1 8:1 13:1 14:1 19:1 55:1 82:1 101:1 145:1 267:1 323:1 422:1 483:1 641:1 2530:1 
0.1591084055060818 2:1 4:1 13:1 14:1 38:1 47:1 75:1 99:1 410:1 903:1 1273:1 2253:1 2531:1 
1 2:1 4:1 5:1 13:1 14:1 47:1 62:1 63:1 68:1 95:1 99:1 109:1 116:1 165:1 183:1 385:1 507:1 820:1 2194:1 2532:1 
1 2:1 4:1 13:1 14:1 612:1 2434:1 
0.04532302048919556 2:1 4:1 13:1 14:1 29:1 71:1 75:1 84:1 122:1 135:1 142:1 159:1 175:1 222:1 512:1 1254:1 2533:1 
1 2:1 4:1 5:1 13:1 14:1 63:1 76:1 84:1 262:1 413:1 451:1 479:1 480:1 1251:1 
0.8969607899217046 2:1 4:1 13:1 14:1 42:1 46:1 66:1 84:1 150:1 175:1 177:1 182:1 295:1 377:1 1153:1 2534:1 2535:1 2536:1 2537:1 2538:1 2539:1 
1 1:1 2:1 3:1 4:1 8:1 12:1 13:1 14:1 19:1 42:1 55:1 71:1 101:1 109:1 123:1 177:1 178:1 251:1 446:1 562:1 2119:1 2540:1 2541:1 
0.9931051363542452 1:1 2:1 3:1 4:1 5:1 6:1 13:1 14:1 19:1 60:1 82:1 101:1 164:1 267:1 385:1 865:1 869:1 2542:1 2543:1 
1 2:1 4:1 13:1 14:1 42:1 71:1 72:1 82:1 159:1 625:1 2544:1 
1 2:1 4:1 12:1 13:1 14:1 30:1 47:1 48:1 160:1 262:1 2545:1 2546:1 2547:1 
1 2:1 4:1 13:1 14:1 48:1 84:1 159:1 176:1 324:1 1878:1 2548:1 
1 2:1 4:1 5:1 6:1 10:1 13:1 14:1 48:1 75:1 78:1 84:1 186:1 227:1 240:1 251:1 385:1 1578:1 
1 2:1 4:1 12:1 13:1 14:1 124:1 158:1 282:1 476:1 1058:1 1724:1 
0.5235796430835038 2:1 4:1 5:1 12:1 13:1 14:1 19:1 42:1 61:1 63:1 75:1 84:1 175:1 199:1 214:1 251:1 262:1 295:1 368:1 508:1 759:1 1074:1 1127:1 2549:1 2550:1 2551:1 2552:1 
1 1:1 2:1 3:1 4:1 12:1 13:1 14:1 2553:1 
1 2:1 4:1 12:1 13:1 14:1 32:1 42:1 48:1 119:1 150:1 177:1 282:1 331:1 424:1 1298:1 2554:1 2555:1 2556:1 
1 2:1 4:1 13:1 14:1 42:1 84:1 92:1 122:1 337:1 507:1 778:1 2557:1 2558:1 2559:1 
1 2:1 4:1 5:1 13:1 14:1 41:1 46:1 56:1 63:1 72:1 75:1 163:1 172:1 251:1 329:1 331:1 392:1 845:1 847:1 863:1 1063:1 1078:1 1677:1 2560:1 2561:1 2562:1 2563:1 
1 1:1 2:1 3:1 4:1 13:1 14:1 19:1 90:1 360:1 421:1 756:1 1608:1 2564:1 
1 2:1 4:1 5:1 12:1 13:1 14:1 38:1 54:1 55:1 75:1 92:1 140:1 229:1 262:1 312:1 329:1 331:1 392:1 474:1 692:1 712:1 1056:1 1199:1 2199:1 2565:1 2566:1 2567:1 
1 2:1 4:1 13:1 14:1 46:1 63:1 215:1 305:1 886:1 1227:1 1762:1 2568:1 
1 2:1 4:1 5:1 6:1 12:1 13:1 14:1 27:1 42:1 46:1 51:1 55:1 72:1 78:1 99:1 156:1 163:1 172:1 194:1 215:1 240:1 326:1 327:1 351:1 979:1 2569:1 2570:1 2571:1 
0.5127225316384589 2:1 4:1 13:1 14:1 63:1 262:1 1766:1 2572:1 
1 2:1 4:1 13:1 14:1 113:1 123:1 132:1 159:1 258:1 
0.8028683025533245 2:1 4:1 13:1 14:1 30:1 42:1 46:1 75:1 103:1 107:1 109:1 123:1 128:1 233:1 287:1 502:1 768:1 823:1 1032:1 2106:1 2573:1 2574:1 2575:1 
0.9303838901613382 1:1 2:1 3:1 4:1 13:1 14:1 68:1 92:1 214:1 2375:1 2576:1 
1 1:1 2:1 3:1 4:1 5:1 12:1 13:1 14:1 30:1 38:1 47:1 52:1 82:1 216:1 316:1 326:1 329:1 331:1 392:1 507:1 967:1 1446:1 1690:1 2277:1 2577:1 
1 2:1 4:1 8:1 13:1 14:1 42:1 56:1 91:1 107:1 144:1 240:1 293:1 316:1 367:1 760:1 1357:1 
1 1:1 2:1 3:1 4:1 5:1 12:1 13:1 14:1 19:1 48:1 73:1 75:1 78:1 90:1 141:1 194:1 216:1 315:1 326:1 362:1 2261:1 
1 2:1 4:1 12:1 13:1 14:1 16:1 23:1 42:1 56:1 63:1 72:1 75:1 79:1 99:1 127:1 141:1 150:1 267:1 306:1 362:1 429:1 671:1 2114:1 2448:1 2518:1 2525:1 2578:1 2579:1 
1 2:1 4:1 13:1 14:1 101:1 119:1 2024:1 2580:1 
1 2:1 4:1 13:1 14:1 38:1 48:1 73:1 75:1 989:1 2581:1 2582:1 
1 2:1 4:1 5:1 13:1 14:1 63:1 68:1 78:1 79:1 99:1 160:1 167:1 186:1 820:1 883:1 976:1 2583:1 2584:1 2585:1 
1 2:1 4:1 13:1 14:1 56:1 82:1 204:1 487:1 911:1 
1 2:1 4:1 13:1 14:1 52:1 240:1 938:1 957:1 2191:1 
1 1:1 2:1 3:1 4:1 5:1 13:1 14:1 19:1 63:1 90:1 150:1 347:1 2587:1 
1 1:1 2:1 3:1 4:1 13:1 14:1 56:1 66:1 148:1 164:1 326:1 663:1 1226:1 1267:1 1297:1 1593:1 2588:1 
0.4097267162028853 2:1 4:1 5:1 13:1 14:1 19:1 41:1 42:1 52:1 137:1 145:1 149:1 240:1 262:1 324:1 495:1 1154:1 2589:1 2590:1 
1 1:1 2:1 3:1 4:1 13:1 14:1 19:1 46:1 90:1 107:1 729:1 858:1 2591:1 
0.5831978604581028 2:1 4:1 13:1 14:1 467:1 701:1 2360:1 2592:1 2593:1 
1 2:1 4:1 13:1 14:1 63:1 172:1 262:1 2595:1 2596:1 
1 2:1 4:1 5:1 13:1 14:1 20:1 47:1 62:1 63:1 95:1 101:1 122:1 124:1 159:1 413:1 625:1 793:1 1120:1 
1 2:1 4:1 5:1 13:1 14:1 56:1 63:1 71:1 75:1 82:1 84:1 249:1 262:1 293:1 364:1 573:1 647:1 743:1 2597:1 2598:1 2599:1 
1 2:1 4:1 5:1 6:1 13:1 14:1 42:1 583:1 2601:1 
1 2:1 4:1 12:1 13:1 14:1 34:1 74:1 79:1 159:1 226:1 306:1 480:1 2602:1 
