svm_type c_svc
kernel_type linear
nr_class 2
total_sv 12510
rho -0.999685
label 0 1
probA -1.30902
probB -0.385153
nr_sv 7473 5037
SV
1 1:1 2:1 3:1 4:1 5:1 6:1 7:1 8:1 9:1 10:1 11:1 12:1 13:1 14:1 
0.2388389869546922 2:1 4:1 13:1 14:1 15:1 16:1 17:1 18:1 19:1 20:1 21:1 22:1 23:1 24:1 
0.8766333514840976 2:1 4:1 5:1 13:1 14:1 31:1 32:1 33:1 34:1 35:1 36:1 37:1 38:1 39:1 
0.2267413811914251 2:1 4:1 10:1 13:1 14:1 30:1 50:1 51:1 52:1 53:1 54:1 55:1 56:1 57:1 58:1 59:1 60:1 61:1 62:1 63:1 64:1 65:1 66:1 
0.04549735651904292 1:1 2:1 3:1 4:1 9:1 13:1 14:1 19:1 25:1 30:1 63:1 73:1 90:1 91:1 92:1 93:1 94:1 95:1 96:1 97:1 98:1 99:1 100:1 101:1 
1 1:1 2:1 3:1 4:1 5:1 10:1 12:1 13:1 14:1 19:1 48:1 73:1 90:1 119:1 120:1 
1 2:1 4:1 13:1 14:1 66:1 84:1 137:1 138:1 139:1 140:1 141:1 142:1 143:1 
0.1831688453220604 2:1 4:1 12:1 13:1 14:1 42:1 55:1 57:1 157:1 158:1 159:1 160:1 161:1 
0.5580962872937496 1:1 2:1 3:1 4:1 8:1 13:1 14:1 47:1 55:1 72:1 92:1 95:1 101:1 134:1 148:1 158:1 164:1 165:1 166:1 167:1 168:1 169:1 
1 2:1 4:1 9:1 13:1 14:1 27:1 32:1 38:1 73:1 75:1 122:1 123:1 167:1 170:1 171:1 
0.01820678665049923 2:1 4:1 13:1 14:1 71:1 75:1 122:1 133:1 163:1 179:1 180:1 181:1 182:1 183:1 184:1 
0.05059091248401498 13:1 81:1 121:1 194:1 205:1 
1 2:1 4:1 5:1 13:1 14:1 92:1 93:1 165:1 237:1 
0.01352385156693003 2:1 4:1 9:1 12:1 13:1 14:1 27:1 78:1 163:1 240:1 241:1 
0.4006024037994999 1:1 2:1 3:1 4:1 12:1 13:1 14:1 101:1 194:1 242:1 243:1 244:1 245:1 246:1 
1 2:1 4:1 8:1 13:1 14:1 55:1 101:1 200:1 
0.0115595716966591 2:1 4:1 13:1 14:1 66:1 254:1 255:1 
0.367131587481437 2:1 4:1 13:1 14:1 27:1 47:1 48:1 55:1 75:1 84:1 147:1 159:1 197:1 268:1 269:1 270:1 271:1 272:1 273:1 274:1 275:1 276:1 
0.1318692919004 1:1 2:1 3:1 4:1 5:1 8:1 12:1 13:1 14:1 71:1 79:1 92:1 99:1 156:1 159:1 182:1 286:1 287:1 288:1 289:1 290:1 
0.1056360655936155 1:1 2:1 3:1 4:1 5:1 13:1 14:1 19:1 27:1 31:1 56:1 75:1 101:1 107:1 194:1 267:1 282:1 311:1 312:1 313:1 314:1 315:1 316:1 317:1 318:1 319:1 320:1 321:1 322:1 323:1 
1 2:1 4:1 13:1 14:1 27:1 46:1 48:1 63:1 78:1 139:1 165:1 324:1 325:1 326:1 327:1 328:1 329:1 330:1 331:1 
1 2:1 4:1 5:1 13:1 14:1 71:1 75:1 92:1 107:1 150:1 159:1 165:1 197:1 202:1 340:1 341:1 342:1 
1 1:1 2:1 3:1 4:1 12:1 13:1 14:1 57:1 71:1 75:1 158:1 345:1 346:1 
0.1295102139896924 2:1 4:1 5:1 13:1 14:1 150:1 347:1 348:1 
0.7105886682723672 2:1 4:1 5:1 6:1 8:1 13:1 14:1 62:1 63:1 108:1 109:1 135:1 139:1 159:1 167:1 182:1 315:1 316:1 349:1 350:1 351:1 352:1 
0.7496736571208878 2:1 4:1 5:1 10:1 13:1 14:1 38:1 47:1 48:1 82:1 84:1 120:1 150:1 240:1 353:1 354:1 
0.5185093349809712 1:1 2:1 3:1 4:1 9:1 13:1 14:1 19:1 51:1 60:1 75:1 90:1 99:1 248:1 326:1 363:1 364:1 365:1 366:1 367:1 368:1 369:1 370:1 371:1 
0.8944680967884295 2:1 4:1 13:1 14:1 79:1 150:1 377:1 378:1 
1 2:1 4:1 5:1 13:1 14:1 47:1 73:1 111:1 210:1 379:1 380:1 381:1 
0.4256629274596294 2:1 4:1 10:1 13:1 14:1 32:1 48:1 84:1 135:1 251:1 382:1 383:1 384:1 385:1 386:1 
1 2:1 4:1 5:1 13:1 14:1 27:1 32:1 63:1 84:1 92:1 135:1 173:1 251:1 406:1 407:1 408:1 
0.2203581477314528 2:1 4:1 8:1 9:1 13:1 14:1 27:1 32:1 99:1 109:1 159:1 205:1 306:1 326:1 412:1 413:1 414:1 415:1 416:1 
0.8759963194792917 2:1 4:1 12:1 13:1 14:1 42:1 51:1 55:1 75:1 159:1 251:1 425:1 426:1 427:1 428:1 429:1 430:1 
1 2:1 4:1 13:1 14:1 55:1 63:1 102:1 127:1 135:1 181:1 204:1 215:1 433:1 439:1 440:1 
1 1:1 2:1 3:1 4:1 8:1 13:1 14:1 55:1 92:1 95:1 101:1 201:1 202:1 
0.9186954387794364 2:1 4:1 5:1 12:1 13:1 14:1 32:1 84:1 115:1 159:1 239:1 248:1 448:1 449:1 450:1 
0.7037951374058045 2:1 4:1 5:1 10:1 13:1 14:1 42:1 48:1 63:1 75:1 204:1 302:1 347:1 459:1 460:1 461:1 462:1 
0.6001153829824714 2:1 4:1 8:1 9:1 10:1 13:1 14:1 25:1 30:1 32:1 47:1 48:1 66:1 75:1 76:1 79:1 92:1 95:1 98:1 101:1 107:1 109:1 240:1 267:1 325:1 466:1 467:1 468:1 469:1 470:1 471:1 472:1 
0.6808844980076181 1:1 2:1 3:1 4:1 10:1 13:1 14:1 19:1 34:1 46:1 50:1 63:1 75:1 90:1 94:1 145:1 149:1 307:1 473:1 474:1 475:1 
1 2:1 4:1 13:1 14:1 196:1 479:1 480:1 481:1 
1 2:1 4:1 5:1 6:1 10:1 13:1 14:1 42:1 47:1 63:1 71:1 72:1 92:1 101:1 121:1 194:1 238:1 267:1 463:1 496:1 497:1 
0.7046889093173569 2:1 4:1 13:1 14:1 63:1 72:1 78:1 500:1 501:1 
0.08269720770282182 2:1 4:1 5:1 6:1 13:1 14:1 29:1 46:1 56:1 60:1 63:1 68:1 126:1 135:1 329:1 331:1 392:1 438:1 456:1 507:1 508:1 509:1 510:1 511:1 512:1 513:1 514:1 515:1 516:1 
0.625668968436969 2:1 4:1 13:1 14:1 48:1 101:1 200:1 530:1 531:1 
0.1779715711781716 2:1 4:1 13:1 14:1 16:1 124:1 150:1 204:1 349:1 538:1 539:1 540:1 541:1 542:1 543:1 
0.3658328154722422 2:1 4:1 5:1 13:1 14:1 63:1 71:1 72:1 75:1 82:1 84:1 159:1 172:1 216:1 271:1 302:1 326:1 546:1 547:1 
1 2:1 4:1 12:1 13:1 14:1 
0.4367390414605632 2:1 4:1 5:1 8:1 10:1 12:1 13:1 14:1 46:1 60:1 61:1 63:1 84:1 127:1 150:1 159:1 196:1 197:1 203:1 216:1 382:1 410:1 413:1 421:1 553:1 554:1 555:1 556:1 557:1 558:1 559:1 560:1 561:1 
0.1449394872429388 2:1 4:1 13:1 14:1 84:1 159:1 262:1 334:1 565:1 566:1 567:1 
1 2:1 4:1 13:1 14:1 
0.1690791611730174 2:1 4:1 5:1 10:1 13:1 14:1 34:1 41:1 42:1 48:1 63:1 126:1 135:1 150:1 159:1 208:1 239:1 248:1 367:1 381:1 533:1 582:1 583:1 584:1 585:1 586:1 
1 2:1 4:1 5:1 12:1 13:1 14:1 34:1 63:1 71:1 84:1 108:1 109:1 172:1 618:1 619:1 
0.3939693452289697 2:1 4:1 13:1 14:1 32:1 38:1 47:1 68:1 73:1 75:1 82:1 326:1 639:1 640:1 
1 2:1 4:1 13:1 14:1 82:1 641:1 642:1 
0.2665768003734347 2:1 4:1 13:1 14:1 249:1 643:1 
0.1208185579205103 2:1 4:1 5:1 13:1 14:1 47:1 101:1 126:1 164:1 170:1 645:1 
1 1:1 2:1 3:1 4:1 12:1 13:1 14:1 19:1 48:1 55:1 56:1 72:1 73:1 90:1 95:1 164:1 350:1 368:1 507:1 544:1 628:1 647:1 648:1 649:1 
0.1425190579407062 2:1 4:1 5:1 13:1 14:1 84:1 150:1 165:1 202:1 340:1 579:1 
0.74664219008773 2:1 4:1 8:1 13:1 14:1 50:1 55:1 63:1 68:1 97:1 124:1 158:1 199:1 302:1 329:1 330:1 331:1 689:1 690:1 
0.211098933793213 2:1 4:1 5:1 6:1 13:1 14:1 47:1 71:1 95:1 109:1 165:1 205:1 248:1 376:1 576:1 695:1 696:1 697:1 698:1 
0.7101549945790104 2:1 4:1 13:1 14:1 141:1 239:1 708:1 709:1 
0.05454822066501356 2:1 4:1 5:1 13:1 14:1 47:1 75:1 159:1 248:1 408:1 480:1 711:1 712:1 713:1 714:1 
1 2:1 4:1 13:1 14:1 42:1 60:1 63:1 72:1 150:1 389:1 715:1 716:1 
0.1491474245891325 1:1 2:1 3:1 4:1 5:1 8:1 13:1 14:1 55:1 97:1 101:1 111:1 130:1 150:1 173:1 216:1 232:1 240:1 326:1 357:1 492:1 595:1 728:1 729:1 730:1 731:1 732:1 
0.04213581742706139 2:1 4:1 10:1 12:1 13:1 14:1 42:1 75:1 147:1 172:1 307:1 733:1 734:1 
0.08906895372579576 2:1 4:1 5:1 13:1 14:1 48:1 63:1 75:1 82:1 107:1 353:1 376:1 743:1 744:1 745:1 746:1 
0.945455224569522 2:1 4:1 5:1 13:1 14:1 108:1 109:1 507:1 749:1 750:1 
0.09162270076489309 2:1 4:1 10:1 13:1 14:1 75:1 101:1 164:1 344:1 362:1 393:1 751:1 
1 2:1 4:1 13:1 14:1 84:1 358:1 464:1 685:1 758:1 759:1 
0.7267287244809517 2:1 4:1 5:1 9:1 13:1 14:1 27:1 41:1 42:1 56:1 72:1 84:1 92:1 109:1 123:1 158:1 159:1 194:1 199:1 240:1 251:1 282:1 312:1 329:1 331:1 342:1 364:1 392:1 502:1 685:1 687:1 761:1 762:1 763:1 764:1 765:1 
1 2:1 4:1 5:1 13:1 14:1 63:1 97:1 120:1 175:1 766:1 
1 2:1 4:1 5:1 13:1 14:1 42:1 47:1 52:1 78:1 95:1 99:1 109:1 164:1 165:1 282:1 778:1 779:1 
1 1:1 2:1 3:1 4:1 5:1 13:1 14:1 19:1 63:1 75:1 90:1 95:1 109:1 163:1 164:1 197:1 316:1 780:1 781:1 782:1 783:1 
0.3903827601598169 2:1 4:1 13:1 14:1 30:1 47:1 48:1 63:1 84:1 92:1 602:1 786:1 787:1 788:1 
0.01118702458878648 2:1 4:1 9:1 13:1 14:1 63:1 71:1 75:1 122:1 163:1 316:1 795:1 796:1 797:1 798:1 799:1 800:1 
1 2:1 4:1 13:1 14:1 63:1 78:1 127:1 457:1 509:1 801:1 802:1 
1 2:1 4:1 5:1 6:1 13:1 14:1 63:1 84:1 99:1 127:1 141:1 807:1 808:1 809:1 
0.1993334201393449 1:1 2:1 3:1 4:1 5:1 12:1 13:1 14:1 30:1 71:1 73:1 75:1 84:1 90:1 101:1 120:1 153:1 216:1 262:1 810:1 811:1 812:1 813:1 814:1 815:1 
1 2:1 4:1 5:1 13:1 14:1 46:1 68:1 72:1 84:1 99:1 326:1 344:1 370:1 499:1 561:1 781:1 817:1 818:1 819:1 820:1 
1 2:1 4:1 5:1 10:1 12:1 13:1 14:1 48:1 73:1 119:1 120:1 
0.2510254379683897 2:1 4:1 5:1 10:1 13:1 14:1 19:1 27:1 42:1 56:1 71:1 72:1 78:1 99:1 107:1 108:1 109:1 145:1 149:1 216:1 315:1 316:1 339:1 357:1 821:1 822:1 823:1 824:1 825:1 826:1 827:1 
1 2:1 4:1 5:1 13:1 14:1 32:1 52:1 107:1 316:1 324:1 326:1 327:1 834:1 835:1 
0.09195413086542194 1:1 2:1 3:1 4:1 13:1 14:1 19:1 46:1 55:1 57:1 63:1 66:1 82:1 90:1 107:1 135:1 141:1 158:1 690:1 836:1 837:1 838:1 
1 2:1 4:1 12:1 13:1 14:1 47:1 63:1 94:1 107:1 127:1 172:1 192:1 212:1 215:1 267:1 351:1 823:1 847:1 848:1 849:1 850:1 
0.1316089831312156 2:1 4:1 5:1 13:1 14:1 27:1 75:1 84:1 97:1 159:1 264:1 413:1 715:1 817:1 856:1 857:1 858:1 859:1 860:1 
1 2:1 4:1 13:1 14:1 
0.444665883606967 2:1 4:1 13:1 14:1 72:1 82:1 92:1 421:1 813:1 875:1 876:1 
0.1173499258201905 1:1 2:1 3:1 4:1 12:1 13:1 14:1 19:1 71:1 75:1 90:1 114:1 176:1 204:1 429:1 729:1 877:1 878:1 
0.3471714580504791 2:1 4:1 13:1 14:1 34:1 38:1 42:1 47:1 63:1 74:1 78:1 413:1 678:1 779:1 894:1 895:1 896:1 
1 2:1 4:1 5:1 6:1 13:1 14:1 34:1 47:1 48:1 57:1 63:1 107:1 158:1 239:1 282:1 413:1 841:1 890:1 914:1 
0.173605224524868 2:1 4:1 13:1 14:1 68:1 84:1 122:1 123:1 175:1 916:1 
0.1270443551511042 1:1 2:1 3:1 4:1 13:1 14:1 19:1 27:1 48:1 90:1 101:1 344:1 923:1 
0.01017144340913053 2:1 4:1 13:1 14:1 61:1 72:1 641:1 708:1 924:1 925:1 926:1 927:1 928:1 929:1 930:1 931:1 932:1 
1 2:1 4:1 13:1 14:1 41:1 42:1 47:1 72:1 246:1 502:1 519:1 
0.0418041305842525 1:1 2:1 3:1 4:1 10:1 13:1 14:1 56:1 63:1 68:1 94:1 107:1 302:1 347:1 349:1 507:1 944:1 945:1 
0.7313835123145852 2:1 4:1 13:1 14:1 42:1 159:1 362:1 946:1 947:1 948:1 
0.4950810798221459 2:1 4:1 5:1 13:1 14:1 63:1 75:1 78:1 99:1 147:1 150:1 159:1 182:1 211:1 239:1 282:1 339:1 733:1 949:1 950:1 951:1 952:1 953:1 
1 1:1 2:1 3:1 4:1 13:1 14:1 63:1 72:1 84:1 173:1 197:1 248:1 306:1 887:1 956:1 957:1 958:1 959:1 
0.3297143610856765 1:1 2:1 3:1 4:1 13:1 14:1 19:1 63:1 84:1 90:1 159:1 199:1 302:1 658:1 960:1 961:1 962:1 
0.3843097343705175 2:1 4:1 13:1 14:1 84:1 122:1 150:1 159:1 949:1 968:1 
0.2198861984944921 2:1 4:1 13:1 14:1 19:1 132:1 133:1 458:1 973:1 
1 2:1 4:1 5:1 10:1 13:1 14:1 56:1 66:1 97:1 99:1 107:1 126:1 170:1 215:1 239:1 251:1 351:1 429:1 515:1 818:1 976:1 977:1 978:1 979:1 
1 1:1 2:1 3:1 4:1 5:1 13:1 14:1 101:1 144:1 216:1 
0.342323731226489 2:1 4:1 5:1 12:1 13:1 14:1 47:1 84:1 112:1 124:1 150:1 158:1 202:1 215:1 216:1 239:1 258:1 262:1 283:1 329:1 331:1 340:1 392:1 604:1 990:1 991:1 
0.8602088751748339 2:1 4:1 12:1 13:1 14:1 68:1 122:1 124:1 413:1 666:1 996:1 
0.302796826118083 1:1 2:1 3:1 4:1 13:1 14:1 40:1 55:1 63:1 135:1 215:1 232:1 316:1 317:1 677:1 742:1 809:1 1002:1 1003:1 1004:1 1005:1 1006:1 1007:1 
1 1:1 2:1 3:1 4:1 5:1 10:1 13:1 14:1 19:1 56:1 66:1 72:1 90:1 97:1 99:1 107:1 126:1 170:1 215:1 239:1 251:1 351:1 429:1 515:1 818:1 976:1 977:1 978:1 979:1 
0.1936744470692886 2:1 4:1 13:1 14:1 42:1 56:1 63:1 159:1 167:1 262:1 429:1 631:1 1008:1 1009:1 
0.06098826860661762 1:1 2:1 3:1 4:1 5:1 6:1 8:1 13:1 14:1 72:1 101:1 107:1 109:1 239:1 251:1 318:1 413:1 441:1 562:1 847:1 1031:1 1032:1 
0.7436206753645638 2:1 4:1 13:1 14:1 75:1 82:1 197:1 1034:1 1035:1 
0.4445365338530012 2:1 4:1 5:1 13:1 14:1 63:1 98:1 99:1 120:1 165:1 349:1 464:1 610:1 1056:1 1057:1 
0.3513542332318262 2:1 4:1 5:1 12:1 13:1 14:1 47:1 56:1 95:1 109:1 111:1 216:1 240:1 315:1 324:1 347:1 351:1 476:1 507:1 641:1 1058:1 
0.5423653005015804 2:1 4:1 8:1 9:1 13:1 14:1 27:1 32:1 56:1 215:1 1070:1 1071:1 1072:1 1073:1 
0.8356916640644793 2:1 4:1 12:1 13:1 14:1 27:1 34:1 101:1 115:1 150:1 216:1 343:1 
0.6973625034577841 1:1 2:1 3:1 4:1 13:1 14:1 63:1 109:1 237:1 685:1 1090:1 1091:1 1092:1 1093:1 
1 2:1 4:1 5:1 6:1 12:1 13:1 14:1 32:1 42:1 52:1 1097:1 1098:1 
1 2:1 4:1 13:1 14:1 38:1 42:1 72:1 109:1 127:1 267:1 294:1 480:1 515:1 631:1 663:1 1099:1 1100:1 
0.08489461370742636 2:1 4:1 12:1 13:1 14:1 71:1 75:1 84:1 122:1 163:1 262:1 759:1 1112:1 1113:1 1114:1 
0.09416837228794571 2:1 4:1 13:1 14:1 16:1 23:1 83:1 123:1 439:1 1115:1 
0.8700675542388692 2:1 4:1 13:1 14:1 51:1 95:1 109:1 135:1 165:1 200:1 823:1 1127:1 1128:1 
0.05118704112478938 2:1 4:1 9:1 13:1 14:1 75:1 194:1 1131:1 1132:1 
0.2038172873996266 2:1 4:1 13:1 14:1 47:1 160:1 1133:1 1134:1 
0.6616927840136645 2:1 4:1 13:1 14:1 79:1 81:1 84:1 127:1 159:1 189:1 201:1 202:1 306:1 866:1 867:1 868:1 
0.2526905025825245 1:1 2:1 3:1 4:1 5:1 8:1 12:1 13:1 14:1 27:1 42:1 99:1 312:1 715:1 1143:1 
1 2:1 4:1 5:1 12:1 13:1 14:1 75:1 84:1 108:1 109:1 172:1 215:1 347:1 359:1 451:1 502:1 825:1 
0.2328094586404194 2:1 4:1 13:1 14:1 84:1 150:1 1112:1 1146:1 1147:1 
0.3283007289998168 2:1 4:1 5:1 6:1 13:1 14:1 326:1 507:1 1152:1 1153:1 1154:1 
0.3337751204410888 2:1 4:1 13:1 14:1 42:1 56:1 68:1 75:1 150:1 1155:1 1156:1 1157:1 1158:1 
0.275468466917246 2:1 4:1 5:1 6:1 10:1 13:1 14:1 42:1 46:1 56:1 60:1 65:1 71:1 109:1 116:1 141:1 208:1 248:1 262:1 282:1 335:1 774:1 1167:1 1168:1 1169:1 1170:1 1171:1 1172:1 1173:1 
0.407053056919026 2:1 4:1 13:1 14:1 63:1 75:1 189:1 353:1 1174:1 
0.4913582550461537 2:1 4:1 10:1 13:1 14:1 42:1 60:1 99:1 101:1 164:1 413:1 548:1 1175:1 1176:1 
0.1364962103436507 2:1 4:1 13:1 14:1 48:1 278:1 649:1 805:1 1179:1 1180:1 
1 2:1 4:1 8:1 13:1 14:1 19:1 50:1 75:1 108:1 109:1 145:1 149:1 502:1 863:1 951:1 
1 1:1 2:1 3:1 4:1 8:1 12:1 13:1 14:1 55:1 101:1 164:1 318:1 
0.2765950312790164 2:1 4:1 12:1 13:1 14:1 48:1 84:1 101:1 200:1 1183:1 1184:1 
1 2:1 4:1 13:1 14:1 
0.4166802311676822 2:1 4:1 13:1 14:1 57:1 123:1 158:1 620:1 1187:1 
0.3185626587379589 2:1 4:1 13:1 14:1 31:1 32:1 75:1 107:1 147:1 159:1 277:1 712:1 1188:1 1189:1 1190:1 1191:1 1192:1 
1 2:1 4:1 13:1 14:1 63:1 65:1 141:1 262:1 852:1 1193:1 
0.1086200472995271 2:1 4:1 5:1 13:1 14:1 19:1 120:1 177:1 1219:1 1220:1 
1 2:1 4:1 13:1 14:1 123:1 238:1 1229:1 
0.202443118300746 2:1 4:1 13:1 14:1 63:1 84:1 184:1 262:1 616:1 1233:1 1234:1 1235:1 
0.5096324830116249 2:1 4:1 5:1 13:1 14:1 27:1 50:1 84:1 823:1 951:1 1248:1 1249:1 1250:1 1251:1 
1 2:1 4:1 8:1 13:1 14:1 50:1 52:1 240:1 823:1 944:1 
1 2:1 4:1 13:1 14:1 148:1 150:1 158:1 283:1 532:1 847:1 1261:1 1262:1 1263:1 
0.02072866375072407 2:1 4:1 13:1 14:1 30:1 68:1 922:1 1264:1 1265:1 
0.1007521401159725 2:1 4:1 5:1 10:1 13:1 14:1 42:1 63:1 68:1 79:1 81:1 84:1 99:1 120:1 316:1 343:1 641:1 680:1 820:1 1266:1 1267:1 1268:1 
0.6606417888275488 2:1 4:1 13:1 14:1 46:1 48:1 66:1 84:1 112:1 158:1 225:1 326:1 444:1 1270:1 1271:1 
1 2:1 4:1 13:1 14:1 27:1 47:1 48:1 72:1 
0.2392346369123644 2:1 4:1 13:1 14:1 47:1 63:1 68:1 75:1 107:1 197:1 226:1 238:1 385:1 561:1 845:1 1182:1 1282:1 1283:1 
0.54187488788216 2:1 4:1 8:1 13:1 14:1 38:1 42:1 46:1 55:1 56:1 63:1 99:1 101:1 156:1 158:1 248:1 349:1 600:1 667:1 746:1 828:1 829:1 830:1 831:1 832:1 833:1 
1 2:1 4:1 13:1 14:1 329:1 330:1 331:1 
0.258728270323821 2:1 4:1 13:1 14:1 84:1 215:1 251:1 351:1 360:1 385:1 503:1 701:1 
1 1:1 2:1 3:1 4:1 5:1 9:1 12:1 13:1 14:1 27:1 38:1 46:1 56:1 57:1 63:1 65:1 71:1 75:1 84:1 109:1 115:1 120:1 175:1 215:1 216:1 262:1 267:1 306:1 353:1 429:1 489:1 576:1 658:1 785:1 842:1 980:1 1018:1 1032:1 1296:1 
1 2:1 4:1 5:1 12:1 13:1 14:1 27:1 93:1 911:1 
0.8188747891626885 2:1 4:1 12:1 13:1 14:1 71:1 84:1 122:1 150:1 159:1 211:1 715:1 905:1 968:1 1298:1 1299:1 
1 2:1 4:1 13:1 14:1 38:1 47:1 68:1 75:1 84:1 158:1 176:1 550:1 1300:1 1301:1 
0.07024460916447765 1:1 2:1 3:1 4:1 5:1 9:1 10:1 13:1 14:1 27:1 42:1 46:1 56:1 94:1 147:1 823:1 997:1 1103:1 1302:1 1303:1 1304:1 1305:1 1306:1 1307:1 1308:1 
1 2:1 4:1 13:1 14:1 48:1 84:1 164:1 327:1 778:1 1135:1 1309:1 
1 1:1 2:1 3:1 4:1 10:1 12:1 13:1 14:1 19:1 56:1 63:1 84:1 90:1 99:1 108:1 109:1 127:1 131:1 186:1 609:1 823:1 
1 2:1 4:1 5:1 8:1 13:1 14:1 50:1 108:1 109:1 139:1 1312:1 
0.3079489992049099 2:1 4:1 13:1 14:1 1103:1 1313:1 1314:1 
1 2:1 4:1 13:1 14:1 107:1 121:1 172:1 316:1 
1 2:1 4:1 13:1 14:1 515:1 598:1 1315:1 1316:1 
0.07232007659348931 2:1 4:1 13:1 14:1 30:1 48:1 64:1 84:1 110:1 122:1 1317:1 1318:1 
1 2:1 4:1 5:1 9:1 10:1 13:1 14:1 27:1 38:1 63:1 77:1 84:1 92:1 107:1 120:1 135:1 158:1 522:1 573:1 781:1 841:1 1053:1 1326:1 1327:1 
0.06612938722782689 2:1 4:1 5:1 13:1 14:1 27:1 34:1 47:1 73:1 130:1 165:1 205:1 326:1 422:1 488:1 549:1 1329:1 1330:1 1331:1 
1 1:1 2:1 3:1 4:1 5:1 13:1 14:1 63:1 84:1 120:1 215:1 216:1 302:1 658:1 1302:1 1336:1 1337:1 
1 2:1 4:1 5:1 13:1 14:1 63:1 75:1 95:1 109:1 127:1 202:1 239:1 340:1 746:1 1327:1 
1 1:1 2:1 3:1 4:1 12:1 13:1 14:1 19:1 90:1 1348:1 
0.3202941580916663 2:1 4:1 10:1 12:1 13:1 14:1 63:1 729:1 1357:1 1358:1 
1 2:1 4:1 13:1 14:1 27:1 66:1 150:1 170:1 262:1 287:1 
0.2528009549801386 2:1 4:1 10:1 13:1 14:1 72:1 79:1 788:1 1382:1 1383:1 1384:1 1385:1 
0.0134473546731885 2:1 4:1 13:1 14:1 1386:1 1387:1 
1 1:1 2:1 3:1 4:1 12:1 13:1 14:1 38:1 73:1 75:1 78:1 92:1 97:1 561:1 609:1 1388:1 1389:1 
0.2327168207249959 2:1 4:1 13:1 14:1 16:1 46:1 306:1 433:1 719:1 1404:1 1405:1 
0.1169876637930873 2:1 4:1 5:1 13:1 14:1 63:1 82:1 84:1 99:1 109:1 139:1 140:1 1327:1 1411:1 
1 1:1 2:1 3:1 4:1 10:1 12:1 13:1 14:1 19:1 38:1 42:1 48:1 75:1 90:1 123:1 159:1 210:1 518:1 1189:1 1412:1 
1 2:1 4:1 13:1 14:1 
0.3208772267567618 1:1 2:1 3:1 4:1 5:1 8:1 10:1 12:1 13:1 14:1 46:1 55:1 56:1 71:1 92:1 95:1 107:1 109:1 123:1 165:1 194:1 282:1 293:1 324:1 326:1 809:1 922:1 1154:1 1427:1 
0.2134027607242857 2:1 4:1 13:1 14:1 38:1 46:1 63:1 65:1 71:1 72:1 75:1 78:1 84:1 108:1 109:1 122:1 159:1 163:1 229:1 239:1 360:1 368:1 419:1 674:1 1199:1 1428:1 1429:1 1430:1 1431:1 1432:1 1433:1 
1 2:1 4:1 13:1 14:1 215:1 
0.8283641133287125 1:1 2:1 3:1 4:1 12:1 13:1 14:1 19:1 51:1 71:1 75:1 84:1 90:1 108:1 109:1 110:1 111:1 112:1 113:1 114:1 115:1 116:1 117:1 118:1 
0.02685764982489038 2:1 4:1 13:1 14:1 1448:1 
0.06158052206829059 2:1 4:1 13:1 14:1 133:1 345:1 1449:1 
1 2:1 4:1 8:1 13:1 14:1 55:1 150:1 165:1 200:1 202:1 340:1 
0.5142972448829999 2:1 4:1 13:1 14:1 46:1 65:1 68:1 71:1 382:1 660:1 877:1 1454:1 
0.772114882697484 2:1 4:1 13:1 14:1 51:1 84:1 156:1 197:1 215:1 312:1 379:1 658:1 713:1 1116:1 1459:1 
1 2:1 4:1 5:1 13:1 14:1 27:1 63:1 120:1 215:1 216:1 222:1 262:1 360:1 793:1 1426:1 
0.0358583996751058 2:1 4:1 13:1 14:1 66:1 84:1 479:1 480:1 1149:1 1469:1 1470:1 1471:1 1472:1 1473:1 
0.2902484110399033 2:1 4:1 9:1 13:1 14:1 71:1 84:1 95:1 109:1 315:1 365:1 505:1 780:1 1012:1 1013:1 1014:1 
0.05643640185426219 2:1 4:1 13:1 14:1 72:1 101:1 107:1 232:1 1029:1 1182:1 1344:1 1495:1 1496:1 1497:1 1498:1 1499:1 1500:1 1501:1 1502:1 1503:1 1504:1 1505:1 1506:1 
0.1355218773282786 2:1 4:1 5:1 13:1 14:1 19:1 29:1 63:1 71:1 79:1 109:1 120:1 135:1 159:1 164:1 173:1 197:1 379:1 592:1 1300:1 1312:1 1507:1 1508:1 1509:1 
1 2:1 4:1 8:1 13:1 14:1 27:1 47:1 62:1 63:1 72:1 107:1 130:1 289:1 351:1 1514:1 
0.1037555038194067 2:1 4:1 10:1 12:1 13:1 14:1 63:1 68:1 172:1 205:1 240:1 487:1 658:1 733:1 743:1 781:1 1518:1 1519:1 
1 1:1 2:1 3:1 4:1 13:1 14:1 515:1 
0.340714986658598 2:1 4:1 13:1 14:1 32:1 65:1 68:1 75:1 84:1 94:1 593:1 639:1 944:1 1522:1 1523:1 1524:1 1525:1 1526:1 1527:1 
1 2:1 4:1 13:1 14:1 72:1 194:1 1537:1 
0.2632500304589149 2:1 4:1 13:1 14:1 63:1 71:1 75:1 84:1 135:1 746:1 1298:1 1540:1 1541:1 1542:1 
0.9865024638928533 2:1 4:1 5:1 8:1 13:1 14:1 27:1 50:1 823:1 983:1 1470:1 1544:1 1545:1 
1 2:1 4:1 5:1 6:1 10:1 13:1 14:1 42:1 116:1 
0.3591630988769703 2:1 4:1 13:1 14:1 55:1 84:1 262:1 949:1 1558:1 
0.2308508124739235 2:1 4:1 10:1 13:1 14:1 41:1 42:1 46:1 56:1 63:1 66:1 75:1 84:1 86:1 107:1 112:1 159:1 192:1 513:1 898:1 1061:1 1119:1 1281:1 1562:1 1563:1 1564:1 1565:1 
0.8315538933378731 2:1 4:1 13:1 14:1 63:1 65:1 150:1 222:1 1566:1 1567:1 1568:1 
0.03359643806689985 1:1 2:1 3:1 4:1 13:1 14:1 15:1 16:1 17:1 18:1 19:1 20:1 21:1 22:1 23:1 24:1 90:1 
0.162152494044799 1:1 2:1 3:1 4:1 5:1 13:1 14:1 32:1 52:1 649:1 1539:1 1578:1 
0.142557282310651 2:1 4:1 13:1 14:1 47:1 48:1 50:1 55:1 75:1 515:1 904:1 1591:1 
1 1:1 2:1 3:1 4:1 13:1 14:1 19:1 75:1 90:1 111:1 159:1 210:1 379:1 438:1 694:1 1594:1 
0.3880691736173356 1:1 2:1 3:1 4:1 13:1 14:1 19:1 66:1 71:1 90:1 123:1 145:1 621:1 898:1 1595:1 1596:1 
0.8472014801439608 2:1 4:1 5:1 13:1 14:1 47:1 48:1 56:1 63:1 68:1 75:1 108:1 109:1 111:1 135:1 159:1 214:1 232:1 240:1 248:1 281:1 428:1 1227:1 1600:1 1605:1 1606:1 1607:1 
0.2780164560162413 2:1 4:1 13:1 14:1 63:1 163:1 222:1 1136:1 1609:1 
0.4066930474205707 2:1 4:1 13:1 14:1 30:1 38:1 42:1 46:1 48:1 55:1 62:1 63:1 71:1 75:1 101:1 135:1 205:1 484:1 519:1 695:1 1616:1 1617:1 1618:1 1619:1 1620:1 1621:1 1622:1 1623:1 
0.01230625711109798 2:1 4:1 13:1 14:1 66:1 1626:1 1627:1 
1 2:1 4:1 5:1 13:1 14:1 34:1 95:1 115:1 131:1 141:1 164:1 165:1 793:1 1628:1 
1 2:1 4:1 5:1 13:1 14:1 62:1 63:1 84:1 326:1 347:1 625:1 786:1 1137:1 1636:1 
1 2:1 4:1 8:1 13:1 14:1 46:1 48:1 71:1 92:1 262:1 277:1 308:1 788:1 1103:1 1637:1 
0.1709865310821566 2:1 4:1 13:1 14:1 46:1 66:1 167:1 227:1 343:1 509:1 623:1 1638:1 1639:1 
1 1:1 2:1 3:1 4:1 12:1 13:1 14:1 19:1 27:1 34:1 90:1 101:1 115:1 216:1 339:1 
0.03532213123610009 2:1 4:1 13:1 14:1 42:1 159:1 278:1 1180:1 1645:1 1646:1 1647:1 1648:1 
1 1:1 2:1 3:1 4:1 5:1 6:1 8:1 12:1 13:1 14:1 55:1 56:1 107:1 111:1 215:1 240:1 294:1 351:1 562:1 573:1 680:1 1650:1 
0.0739558204961121 2:1 4:1 5:1 13:1 14:1 63:1 84:1 95:1 109:1 214:1 281:1 347:1 1651:1 
0.282093731615159 2:1 4:1 13:1 14:1 42:1 72:1 364:1 1344:1 1365:1 1400:1 1495:1 1505:1 1654:1 1655:1 1656:1 1657:1 1658:1 1659:1 
0.002190276013082163 2:1 4:1 12:1 13:1 14:1 48:1 63:1 71:1 72:1 99:1 107:1 135:1 159:1 281:1 358:1 500:1 759:1 774:1 788:1 1003:1 1227:1 1664:1 1665:1 1666:1 
1 2:1 4:1 13:1 14:1 34:1 47:1 48:1 75:1 160:1 201:1 202:1 507:1 1672:1 
0.3592835603394938 2:1 4:1 13:1 14:1 72:1 215:1 351:1 379:1 901:1 1000:1 1676:1 
1 2:1 4:1 5:1 12:1 13:1 14:1 30:1 63:1 75:1 128:1 148:1 251:1 277:1 503:1 560:1 1678:1 1679:1 1680:1 1681:1 
0.8023211801513135 2:1 4:1 5:1 13:1 14:1 38:1 42:1 46:1 48:1 61:1 79:1 84:1 99:1 107:1 159:1 194:1 518:1 678:1 845:1 1094:1 1105:1 1197:1 1685:1 1686:1 1687:1 
1 2:1 4:1 12:1 13:1 14:1 38:1 48:1 107:1 487:1 
0.1684851064873222 2:1 4:1 13:1 14:1 279:1 283:1 658:1 1136:1 1688:1 1689:1 
0.5672677139530515 1:1 2:1 3:1 4:1 5:1 13:1 14:1 19:1 63:1 75:1 95:1 109:1 295:1 299:1 544:1 735:1 1046:1 1140:1 1690:1 1691:1 
0.828919820862012 2:1 4:1 5:1 6:1 8:1 13:1 14:1 54:1 55:1 63:1 75:1 97:1 107:1 147:1 165:1 262:1 277:1 289:1 329:1 330:1 331:1 1056:1 1090:1 1663:1 1693:1 1694:1 
0.193224457038792 2:1 4:1 5:1 13:1 14:1 16:1 50:1 68:1 84:1 94:1 307:1 412:1 524:1 1670:1 1702:1 1703:1 1704:1 
1 2:1 4:1 13:1 14:1 
0.09203312305587237 2:1 4:1 5:1 6:1 10:1 13:1 14:1 46:1 47:1 48:1 50:1 56:1 63:1 75:1 82:1 123:1 182:1 204:1 222:1 793:1 1100:1 1709:1 1710:1 1711:1 
1 2:1 4:1 5:1 13:1 14:1 101:1 126:1 173:1 201:1 202:1 208:1 793:1 
1 1:1 2:1 3:1 4:1 12:1 13:1 14:1 48:1 55:1 56:1 73:1 95:1 164:1 350:1 368:1 507:1 544:1 628:1 647:1 648:1 649:1 
0.5715051802608067 2:1 4:1 5:1 9:1 10:1 12:1 13:1 14:1 38:1 40:1 46:1 63:1 75:1 95:1 99:1 114:1 123:1 126:1 150:1 167:1 215:1 351:1 409:1 671:1 1422:1 1717:1 
1 1:1 2:1 3:1 4:1 5:1 13:1 14:1 16:1 19:1 38:1 90:1 160:1 167:1 235:1 282:1 414:1 427:1 671:1 
1 2:1 4:1 12:1 13:1 14:1 27:1 34:1 101:1 115:1 216:1 339:1 
0.01704808352302054 2:1 4:1 10:1 13:1 14:1 65:1 99:1 102:1 107:1 1164:1 1736:1 1737:1 
1 2:1 4:1 13:1 14:1 42:1 43:1 46:1 48:1 56:1 66:1 71:1 72:1 73:1 82:1 84:1 95:1 107:1 165:1 205:1 248:1 326:1 864:1 1738:1 1739:1 
1 2:1 4:1 10:1 13:1 14:1 34:1 75:1 148:1 159:1 304:1 438:1 1740:1 
0.9013546684555466 2:1 4:1 13:1 14:1 63:1 82:1 84:1 326:1 696:1 1748:1 1749:1 1750:1 
0.02699821556373935 2:1 4:1 13:1 14:1 1510:1 
1 2:1 4:1 5:1 13:1 14:1 27:1 34:1 56:1 101:1 115:1 215:1 216:1 247:1 493:1 604:1 793:1 
0.1695367291647376 2:1 4:1 13:1 14:1 34:1 63:1 71:1 95:1 109:1 158:1 249:1 283:1 347:1 454:1 1785:1 1786:1 
0.9788332539562328 2:1 4:1 13:1 14:1 72:1 75:1 147:1 156:1 277:1 433:1 532:1 658:1 993:1 1787:1 
1 2:1 4:1 13:1 14:1 34:1 48:1 73:1 116:1 158:1 194:1 248:1 544:1 694:1 743:1 828:1 1575:1 
1 2:1 4:1 10:1 13:1 14:1 27:1 34:1 38:1 42:1 56:1 63:1 68:1 72:1 73:1 95:1 109:1 123:1 159:1 182:1 189:1 262:1 326:1 610:1 674:1 865:1 869:1 1278:1 1792:1 1793:1 1794:1 
1 2:1 4:1 10:1 12:1 13:1 14:1 56:1 63:1 84:1 99:1 108:1 109:1 127:1 131:1 186:1 609:1 823:1 
0.2410887334499838 2:1 4:1 13:1 14:1 42:1 46:1 71:1 107:1 108:1 109:1 418:1 618:1 1028:1 1803:1 1804:1 1805:1 1806:1 1807:1 
1 2:1 4:1 13:1 14:1 34:1 38:1 75:1 107:1 130:1 825:1 1237:1 1430:1 1809:1 1810:1 
0.6139171372675768 2:1 4:1 13:1 14:1 63:1 72:1 84:1 99:1 109:1 201:1 359:1 496:1 538:1 1116:1 1812:1 1818:1 
1 2:1 4:1 13:1 14:1 47:1 72:1 769:1 
1 2:1 4:1 5:1 13:1 14:1 27:1 32:1 50:1 56:1 68:1 97:1 107:1 233:1 239:1 316:1 774:1 1670:1 1823:1 1824:1 
0.09612095661125197 2:1 4:1 13:1 14:1 38:1 42:1 46:1 72:1 84:1 101:1 115:1 124:1 132:1 197:1 239:1 618:1 1046:1 1825:1 1826:1 1827:1 1828:1 
0.2751841460903449 2:1 4:1 5:1 13:1 14:1 19:1 108:1 109:1 135:1 145:1 149:1 951:1 1052:1 
0.3248212774231432 1:1 2:1 3:1 4:1 5:1 13:1 14:1 19:1 75:1 90:1 441:1 442:1 
0.1174740930997447 2:1 4:1 13:1 14:1 32:1 42:1 84:1 107:1 307:1 312:1 410:1 429:1 733:1 1273:1 1831:1 1832:1 
0.5899100256757783 2:1 4:1 13:1 14:1 30:1 34:1 60:1 72:1 95:1 109:1 146:1 202:1 340:1 1835:1 1836:1 
0.7692673967457991 2:1 4:1 13:1 14:1 71:1 172:1 240:1 1839:1 
1 2:1 4:1 5:1 6:1 12:1 13:1 14:1 84:1 150:1 181:1 382:1 465:1 554:1 1841:1 1842:1 1843:1 1844:1 1845:1 1846:1 
1 2:1 4:1 10:1 13:1 14:1 19:1 38:1 48:1 72:1 75:1 84:1 101:1 164:1 295:1 299:1 375:1 694:1 1851:1 
0.7584002876906418 2:1 4:1 13:1 14:1 19:1 72:1 149:1 194:1 244:1 1857:1 1858:1 
0.1901649732800407 1:1 2:1 3:1 4:1 13:1 14:1 27:1 107:1 133:1 147:1 179:1 240:1 262:1 412:1 472:1 474:1 1860:1 1861:1 
0.6161129681775032 2:1 4:1 13:1 14:1 295:1 920:1 1869:1 
0.2282140256614499 2:1 4:1 5:1 6:1 13:1 14:1 46:1 47:1 71:1 127:1 216:1 576:1 1734:1 1873:1 1874:1 1875:1 
0.4840422615560682 1:1 2:1 3:1 4:1 5:1 9:1 13:1 14:1 34:1 42:1 63:1 72:1 73:1 75:1 78:1 82:1 84:1 159:1 175:1 186:1 196:1 207:1 239:1 267:1 287:1 327:1 353:1 614:1 722:1 823:1 901:1 1028:1 1878:1 1879:1 1880:1 1881:1 1882:1 1883:1 1884:1 
0.9148691510680496 2:1 4:1 13:1 14:1 38:1 47:1 117:1 480:1 1885:1 
0.5681051513942078 1:1 2:1 3:1 4:1 8:1 13:1 14:1 34:1 63:1 71:1 92:1 95:1 101:1 120:1 1160:1 1891:1 
1 2:1 4:1 13:1 14:1 62:1 95:1 97:1 109:1 302:1 474:1 521:1 609:1 834:1 
1 2:1 4:1 13:1 14:1 71:1 339:1 515:1 1455:1 
1 2:1 4:1 5:1 7:1 10:1 12:1 13:1 14:1 95:1 109:1 165:1 181:1 507:1 781:1 1904:1 
1 2:1 4:1 5:1 12:1 13:1 14:1 46:1 48:1 50:1 62:1 63:1 73:1 84:1 95:1 114:1 120:1 194:1 195:1 251:1 316:1 406:1 409:1 429:1 477:1 590:1 1061:1 1487:1 1669:1 1905:1 1906:1 1907:1 
0.6264567451657445 2:1 4:1 13:1 14:1 28:1 181:1 312:1 1098:1 1918:1 1919:1 
0.2607640697496867 1:1 2:1 3:1 4:1 5:1 13:1 14:1 19:1 71:1 75:1 90:1 92:1 107:1 150:1 159:1 165:1 197:1 202:1 340:1 341:1 342:1 
0.3944429459522842 2:1 4:1 10:1 12:1 13:1 14:1 38:1 123:1 167:1 238:1 1418:1 
0.003051082842258311 2:1 4:1 5:1 13:1 14:1 233:1 351:1 1930:1 1931:1 
0.9412438985356537 2:1 4:1 5:1 13:1 14:1 56:1 63:1 82:1 95:1 237:1 1390:1 1741:1 1933:1 1934:1 
0.5905990938114346 2:1 4:1 13:1 14:1 27:1 63:1 82:1 108:1 109:1 163:1 189:1 239:1 353:1 572:1 573:1 574:1 
1 2:1 4:1 5:1 12:1 13:1 14:1 32:1 51:1 56:1 75:1 82:1 92:1 93:1 95:1 99:1 101:1 109:1 113:1 139:1 159:1 215:1 239:1 325:1 326:1 384:1 818:1 944:1 975:1 
0.4644914770884755 1:1 2:1 3:1 4:1 5:1 13:1 14:1 47:1 63:1 107:1 170:1 194:1 214:1 230:1 829:1 1935:1 1936:1 1937:1 
1 1:1 2:1 3:1 4:1 5:1 13:1 14:1 19:1 63:1 90:1 97:1 120:1 175:1 766:1 
0.3325233489056439 2:1 4:1 5:1 13:1 14:1 84:1 120:1 136:1 421:1 1946:1 
1 2:1 4:1 13:1 14:1 47:1 63:1 108:1 109:1 139:1 148:1 172:1 
1 2:1 4:1 13:1 14:1 
1 2:1 4:1 13:1 14:1 122:1 124:1 194:1 1348:1 1949:1 
0.4567200814302045 2:1 4:1 12:1 13:1 14:1 123:1 1952:1 1953:1 
0.02264740646627759 2:1 4:1 5:1 6:1 12:1 13:1 14:1 30:1 56:1 57:1 71:1 75:1 121:1 122:1 163:1 513:1 1955:1 1956:1 
0.4288995817279554 5:1 13:1 27:1 63:1 75:1 78:1 121:1 163:1 315:1 353:1 385:1 573:1 1770:1 1964:1 
1 2:1 4:1 5:1 13:1 14:1 41:1 47:1 60:1 63:1 84:1 93:1 95:1 99:1 109:1 215:1 353:1 479:1 1319:1 1348:1 
0.4345678155600605 2:1 4:1 10:1 13:1 14:1 31:1 38:1 48:1 62:1 78:1 94:1 205:1 232:1 781:1 957:1 1965:1 1966:1 1967:1 1968:1 
1 2:1 4:1 8:1 13:1 14:1 102:1 282:1 497:1 1233:1 1973:1 1974:1 1975:1 
0.1948106856709411 2:1 4:1 5:1 13:1 14:1 34:1 47:1 63:1 68:1 73:1 75:1 99:1 214:1 351:1 480:1 845:1 1646:1 1976:1 
0.9261948121375205 2:1 4:1 13:1 14:1 71:1 132:1 240:1 258:1 262:1 576:1 
0.7737096744630586 1:1 2:1 3:1 4:1 5:1 13:1 14:1 32:1 95:1 109:1 240:1 649:1 1988:1 
1 2:1 4:1 13:1 14:1 47:1 107:1 159:1 215:1 316:1 429:1 824:1 1189:1 
1 2:1 4:1 13:1 14:1 46:1 65:1 72:1 200:1 240:1 353:1 476:1 1281:1 1545:1 1994:1 
0.0136956223728911 2:1 4:1 12:1 13:1 14:1 38:1 46:1 47:1 51:1 64:1 92:1 230:1 236:1 240:1 262:1 312:1 329:1 331:1 392:1 414:1 429:1 604:1 687:1 719:1 779:1 944:1 1888:1 2004:1 2005:1 2006:1 2007:1 
0.5297108338756045 2:1 4:1 5:1 12:1 13:1 14:1 23:1 66:1 75:1 126:1 159:1 475:1 494:1 508:1 509:1 2010:1 2011:1 
1 1:1 2:1 3:1 4:1 13:1 14:1 63:1 150:1 172:1 189:1 1103:1 
1 2:1 4:1 5:1 10:1 12:1 13:1 14:1 42:1 63:1 66:1 75:1 148:1 150:1 204:1 411:1 1020:1 2012:1 
1 1:1 2:1 3:1 4:1 5:1 13:1 14:1 19:1 32:1 47:1 52:1 90:1 95:1 101:1 164:1 
1 2:1 4:1 13:1 14:1 362:1 381:1 
0.9483874808989314 2:1 4:1 13:1 14:1 60:1 82:1 743:1 754:1 2050:1 
1 2:1 4:1 13:1 14:1 63:1 78:1 84:1 189:1 258:1 1353:1 
1 2:1 4:1 13:1 14:1 150:1 240:1 746:1 822:1 2051:1 
1 2:1 4:1 13:1 14:1 47:1 48:1 72:1 107:1 150:1 367:1 413:1 887:1 2053:1 
0.2248561626820237 2:1 4:1 5:1 12:1 13:1 14:1 30:1 38:1 42:1 47:1 101:1 150:1 159:1 1031:1 1339:1 2057:1 2058:1 2059:1 2060:1 
1 2:1 4:1 13:1 14:1 27:1 48:1 101:1 344:1 427:1 
0.8811651789398114 2:1 4:1 13:1 14:1 20:1 63:1 65:1 107:1 120:1 785:1 2062:1 
0.4072345468198327 2:1 4:1 5:1 9:1 12:1 13:1 14:1 38:1 47:1 63:1 99:1 433:1 619:1 786:1 2063:1 2064:1 2065:1 2066:1 
1 2:1 4:1 13:1 14:1 38:1 55:1 73:1 75:1 84:1 97:1 159:1 307:1 1129:1 1346:1 
0.4146348984052379 2:1 4:1 12:1 13:1 14:1 163:1 822:1 2069:1 
1 2:1 4:1 8:1 13:1 14:1 50:1 84:1 95:1 109:1 710:1 733:1 1327:1 
0.9951608007438888 2:1 4:1 13:1 14:1 42:1 56:1 65:1 150:1 159:1 822:1 2079:1 2080:1 
0.2211130438840294 2:1 4:1 5:1 13:1 14:1 34:1 42:1 47:1 63:1 93:1 99:1 109:1 114:1 214:1 353:1 427:1 1070:1 2081:1 2082:1 2083:1 
0.2154076113631074 2:1 4:1 10:1 13:1 14:1 41:1 42:1 63:1 79:1 150:1 159:1 181:1 368:1 641:1 781:1 1237:1 1357:1 1446:1 2084:1 2085:1 2086:1 2087:1 
1 1:1 2:1 3:1 4:1 5:1 12:1 13:1 14:1 19:1 56:1 84:1 90:1 132:1 150:1 743:1 998:1 1466:1 2051:1 
1 2:1 4:1 10:1 13:1 14:1 42:1 46:1 48:1 63:1 75:1 99:1 123:1 326:1 327:1 360:1 522:1 807:1 951:1 2099:1 2100:1 
1 1:1 2:1 3:1 4:1 12:1 13:1 14:1 19:1 25:1 30:1 46:1 65:1 92:1 107:1 248:1 349:1 458:1 825:1 2101:1 
0.1888278792852535 2:1 4:1 10:1 13:1 14:1 63:1 75:1 82:1 84:1 1357:1 2102:1 
0.1873251868031502 1:1 2:1 3:1 4:1 13:1 14:1 19:1 30:1 38:1 68:1 72:1 75:1 90:1 181:1 262:1 429:1 988:1 2103:1 2104:1 2105:1 
1 2:1 4:1 5:1 10:1 13:1 14:1 86:1 173:1 232:1 248:1 251:1 385:1 864:1 2106:1 
0.7373131442936702 2:1 4:1 13:1 14:1 42:1 47:1 66:1 84:1 262:1 2107:1 2108:1 2109:1 2110:1 
0.7621165185569089 2:1 4:1 13:1 14:1 42:1 68:1 72:1 82:1 150:1 215:1 622:1 1779:1 2119:1 2120:1 
1 2:1 4:1 13:1 14:1 75:1 107:1 109:1 164:1 197:1 733:1 1529:1 2121:1 
1 2:1 4:1 13:1 14:1 216:1 326:1 837:1 1765:1 2124:1 2125:1 
1 2:1 4:1 5:1 13:1 14:1 47:1 63:1 72:1 74:1 92:1 326:1 347:1 438:1 786:1 
1 1:1 2:1 3:1 4:1 5:1 13:1 14:1 19:1 50:1 51:1 63:1 90:1 107:1 120:1 139:1 573:1 781:1 823:1 865:1 869:1 2131:1 
1 2:1 4:1 13:1 14:1 19:1 31:1 47:1 63:1 135:1 194:1 295:1 299:1 326:1 746:1 822:1 1018:1 
1 2:1 4:1 5:1 13:1 14:1 38:1 48:1 72:1 84:1 122:1 123:1 124:1 194:1 835:1 911:1 
0.1042781520158025 2:1 4:1 13:1 14:1 38:1 46:1 48:1 158:1 225:1 2146:1 2147:1 2148:1 
1 2:1 4:1 13:1 14:1 19:1 31:1 42:1 46:1 61:1 63:1 68:1 84:1 99:1 109:1 127:1 135:1 239:1 248:1 295:1 384:1 487:1 548:1 590:1 646:1 696:1 992:1 1028:1 1418:1 1904:1 
0.1382235037477868 2:1 4:1 13:1 14:1 16:1 72:1 84:1 306:1 822:1 2161:1 2162:1 
1 2:1 4:1 5:1 12:1 13:1 14:1 60:1 127:1 
0.238368482883239 2:1 4:1 5:1 13:1 14:1 46:1 55:1 66:1 75:1 102:1 103:1 197:1 262:1 462:1 529:1 1073:1 2166:1 2167:1 2168:1 
0.01420177846572668 1:1 2:1 3:1 4:1 12:1 13:1 14:1 19:1 27:1 90:1 302:1 2173:1 2174:1 
0.179081269414522 2:1 4:1 5:1 8:1 10:1 13:1 14:1 47:1 63:1 73:1 84:1 107:1 111:1 127:1 240:1 671:1 701:1 823:1 2178:1 
1 2:1 4:1 13:1 14:1 101:1 197:1 287:1 344:1 365:1 474:1 2183:1 2184:1 
0.2471902910822113 2:1 4:1 5:1 12:1 13:1 14:1 75:1 108:1 109:1 111:1 115:1 158:1 163:1 164:1 194:1 302:1 427:1 791:1 900:1 956:1 2185:1 
1 2:1 4:1 13:1 14:1 48:1 72:1 84:1 159:1 176:1 781:1 1164:1 
1 2:1 4:1 12:1 13:1 14:1 165:1 326:1 
0.5579982509810945 2:1 4:1 13:1 14:1 19:1 47:1 48:1 68:1 278:1 385:1 1597:1 2193:1 2194:1 2195:1 2196:1 
0.8246133418297708 2:1 4:1 13:1 14:1 81:1 194:1 565:1 
0.9627755011752452 2:1 4:1 5:1 12:1 13:1 14:1 38:1 92:1 94:1 95:1 99:1 109:1 215:1 216:1 283:1 349:1 351:1 519:1 1768:1 
0.2446090548268829 1:1 2:1 3:1 4:1 9:1 13:1 14:1 19:1 90:1 240:1 2199:1 
0.5630552358301705 2:1 4:1 12:1 13:1 14:1 194:1 2205:1 
0.5089446143735389 1:1 2:1 3:1 4:1 5:1 6:1 10:1 12:1 13:1 14:1 46:1 55:1 63:1 92:1 101:1 124:1 158:1 172:1 199:1 560:1 2109:1 2206:1 
0.4744582231656171 2:1 4:1 12:1 13:1 14:1 63:1 78:1 84:1 189:1 235:1 258:1 867:1 
0.147821930611504 2:1 4:1 13:1 14:1 66:1 142:1 159:1 410:1 876:1 1273:1 2120:1 2208:1 2209:1 
0.06402767846128346 2:1 4:1 13:1 14:1 38:1 122:1 123:1 124:1 194:1 2234:1 
0.3223814958308729 2:1 4:1 13:1 14:1 66:1 123:1 238:1 302:1 957:1 2235:1 
0.007187975055703396 2:1 4:1 9:1 10:1 13:1 14:1 33:1 34:1 42:1 46:1 48:1 63:1 75:1 79:1 196:1 225:1 240:1 282:1 326:1 389:1 490:1 496:1 1446:1 2200:1 2240:1 2241:1 2242:1 2243:1 2244:1 2245:1 
1 2:1 4:1 13:1 14:1 124:1 
1 2:1 4:1 13:1 14:1 107:1 573:1 
1 2:1 4:1 13:1 14:1 150:1 170:1 194:1 262:1 287:1 1327:1 2246:1 
0.002156265687268637 2:1 4:1 13:1 14:1 19:1 34:1 47:1 48:1 63:1 72:1 75:1 135:1 600:1 820:1 828:1 1742:1 1744:1 2011:1 2257:1 2258:1 2259:1 2260:1 
0.2948932010642195 2:1 4:1 10:1 13:1 14:1 32:1 42:1 84:1 158:1 262:1 356:1 357:1 958:1 1687:1 
0.09842232557360651 2:1 4:1 13:1 14:1 39:1 491:1 1262:1 2262:1 
1 2:1 4:1 13:1 14:1 38:1 122:1 123:1 124:1 901:1 
0.1417666645115974 2:1 4:1 13:1 14:1 84:1 158:1 199:1 204:1 329:1 330:1 331:1 726:1 1144:1 1652:1 2273:1 
1 2:1 4:1 8:1 13:1 14:1 55:1 72:1 101:1 200:1 
1 2:1 4:1 13:1 14:1 75:1 150:1 159:1 413:1 1224:1 2274:1 
0.05474344586622757 2:1 4:1 13:1 14:1 31:1 42:1 84:1 105:1 159:1 184:1 282:1 407:1 1603:1 1954:1 2050:1 2277:1 2278:1 
1 2:1 4:1 12:1 13:1 14:1 19:1 47:1 71:1 73:1 175:1 194:1 219:1 248:1 295:1 299:1 326:1 487:1 576:1 746:1 1267:1 
0.6927572187727028 2:1 4:1 5:1 12:1 13:1 14:1 47:1 63:1 75:1 107:1 150:1 258:1 347:1 522:1 911:1 997:1 2290:1 2291:1 2292:1 
1 2:1 4:1 10:1 13:1 14:1 63:1 75:1 84:1 1357:1 2309:1 
0.5678060394330441 2:1 4:1 13:1 14:1 34:1 42:1 48:1 141:1 201:1 202:1 205:1 502:1 519:1 622:1 1566:1 2310:1 
1 2:1 4:1 9:1 13:1 14:1 240:1 2199:1 
1 2:1 4:1 5:1 13:1 14:1 19:1 51:1 194:1 248:1 262:1 408:1 413:1 729:1 1029:1 1030:1 2311:1 
1 2:1 4:1 13:1 14:1 124:1 296:1 1297:1 
1 2:1 4:1 5:1 6:1 13:1 14:1 112:1 162:1 
0.05196258290814411 2:1 4:1 13:1 14:1 42:1 61:1 63:1 107:1 147:1 148:1 150:1 738:1 1455:1 1551:1 2323:1 2324:1 2325:1 2326:1 
0.4814568351424774 2:1 4:1 10:1 13:1 14:1 27:1 72:1 75:1 112:1 121:1 181:1 238:1 316:1 591:1 781:1 1291:1 1330:1 2327:1 2328:1 2329:1 2330:1 
1 2:1 4:1 8:1 13:1 14:1 34:1 60:1 63:1 237:1 573:1 
0.3879572692714718 2:1 4:1 9:1 10:1 12:1 13:1 14:1 62:1 63:1 72:1 75:1 84:1 107:1 173:1 479:1 499:1 746:1 788:1 888:1 1357:1 
0.5560188623724733 2:1 4:1 10:1 13:1 14:1 84:1 949:1 1189:1 2331:1 
0.9419871202386507 2:1 4:1 10:1 13:1 14:1 42:1 57:1 63:1 76:1 84:1 93:1 150:1 235:1 239:1 302:1 326:1 362:1 2332:1 2333:1 
0.8737015937363014 2:1 4:1 5:1 6:1 13:1 14:1 31:1 32:1 41:1 46:1 47:1 63:1 75:1 78:1 84:1 95:1 122:1 132:1 163:1 438:1 618:1 998:1 1273:1 2334:1 2335:1 
0.4967610811412341 2:1 4:1 5:1 10:1 13:1 14:1 16:1 42:1 71:1 84:1 99:1 160:1 204:1 518:1 598:1 1301:1 2336:1 2337:1 
1 2:1 4:1 13:1 14:1 84:1 124:1 158:1 1156:1 1435:1 2194:1 
0.2441769754653977 2:1 4:1 12:1 13:1 14:1 34:1 56:1 60:1 63:1 95:1 135:1 150:1 215:1 326:1 409:1 410:1 487:1 2341:1 2342:1 
1 2:1 4:1 13:1 14:1 34:1 63:1 92:1 95:1 99:1 112:1 120:1 
1 2:1 4:1 10:1 12:1 13:1 14:1 163:1 238:1 362:1 434:1 518:1 
1 1:1 2:1 3:1 4:1 5:1 6:1 12:1 13:1 14:1 2360:1 2361:1 
1 2:1 4:1 13:1 14:1 75:1 262:1 576:1 792:1 2372:1 
0.6770747894051039 2:1 4:1 9:1 12:1 13:1 14:1 32:1 42:1 60:1 65:1 72:1 75:1 107:1 158:1 172:1 197:1 515:1 785:1 1138:1 1180:1 2377:1 
1 2:1 4:1 13:1 14:1 47:1 63:1 108:1 109:1 172:1 262:1 1240:1 
0.2184632819960793 2:1 4:1 5:1 13:1 14:1 27:1 71:1 84:1 95:1 107:1 108:1 109:1 130:1 202:1 437:1 444:1 2250:1 2394:1 2395:1 2396:1 
0.7550236490240199 2:1 4:1 5:1 10:1 13:1 14:1 38:1 46:1 47:1 93:1 126:1 170:1 215:1 262:1 316:1 326:1 413:1 476:1 479:1 700:1 809:1 989:1 1069:1 1605:1 1748:1 2037:1 2400:1 
0.5381456926480861 2:1 4:1 5:1 13:1 14:1 27:1 46:1 48:1 63:1 68:1 75:1 84:1 135:1 315:1 500:1 508:1 602:1 710:1 713:1 865:1 869:1 1103:1 1600:1 2282:1 2401:1 2402:1 2403:1 2404:1 2405:1 
1 2:1 4:1 5:1 12:1 13:1 14:1 47:1 48:1 56:1 109:1 126:1 164:1 215:1 1616:1 1740:1 2406:1 
0.1727119796067005 2:1 4:1 5:1 13:1 14:1 42:1 112:1 140:1 349:1 618:1 926:1 1496:1 1505:1 2412:1 2413:1 2414:1 2415:1 2416:1 2417:1 2418:1 
1 1:1 2:1 3:1 4:1 8:1 13:1 14:1 99:1 112:1 215:1 351:1 
0.2853428896682382 2:1 4:1 9:1 10:1 13:1 14:1 38:1 40:1 46:1 47:1 79:1 159:1 215:1 240:1 379:1 385:1 532:1 561:1 600:1 749:1 818:1 865:1 869:1 1974:1 2419:1 2420:1 2421:1 2422:1 2423:1 2424:1 2425:1 
0.06667898267652556 2:1 4:1 13:1 14:1 32:1 57:1 71:1 158:1 498:1 2426:1 
0.07225667716096131 2:1 4:1 5:1 13:1 14:1 38:1 75:1 106:1 150:1 158:1 159:1 181:1 315:1 360:1 781:1 847:1 1046:1 2427:1 2428:1 2429:1 
0.9436690804750101 2:1 4:1 8:1 12:1 13:1 14:1 50:1 99:1 109:1 159:1 170:1 366:1 384:1 781:1 2431:1 
0.05818951328073311 2:1 4:1 12:1 13:1 14:1 48:1 123:1 194:1 196:1 649:1 1056:1 1298:1 
0.2094932540462066 2:1 4:1 12:1 13:1 14:1 107:1 115:1 2346:1 2436:1 
1 2:1 4:1 13:1 14:1 84:1 127:1 479:1 480:1 848:1 992:1 
0.01600526988139282 2:1 4:1 12:1 13:1 14:1 46:1 63:1 72:1 81:1 135:1 409:1 429:1 477:1 554:1 625:1 1138:1 2456:1 2457:1 2458:1 2459:1 2460:1 2461:1 2462:1 
1 1:1 2:1 3:1 4:1 5:1 13:1 14:1 65:1 71:1 72:1 75:1 518:1 877:1 1099:1 
0.8637892265503481 2:1 4:1 13:1 14:1 63:1 75:1 78:1 95:1 344:1 498:1 1383:1 2464:1 2465:1 
0.7368591548898015 2:1 4:1 13:1 14:1 48:1 132:1 215:1 258:1 1074:1 2466:1 
0.1481980643674377 2:1 4:1 8:1 13:1 14:1 48:1 56:1 101:1 240:1 2468:1 
1 2:1 4:1 13:1 14:1 54:1 73:1 75:1 99:1 107:1 150:1 316:1 746:1 883:1 
0.9051952832413152 2:1 4:1 5:1 9:1 10:1 13:1 14:1 40:1 46:1 48:1 50:1 63:1 75:1 84:1 94:1 95:1 99:1 216:1 316:1 823:1 971:1 1061:1 1267:1 1281:1 2469:1 2470:1 
0.4383950246516349 2:1 4:1 13:1 14:1 60:1 75:1 302:1 2474:1 2475:1 
0.985369809662513 2:1 4:1 13:1 14:1 22:1 68:1 82:1 329:1 330:1 331:1 726:1 2478:1 
1 2:1 4:1 5:1 13:1 14:1 50:1 51:1 63:1 107:1 120:1 139:1 573:1 781:1 823:1 865:1 869:1 2131:1 
0.1492876620463394 2:1 4:1 5:1 6:1 13:1 14:1 32:1 42:1 47:1 48:1 65:1 71:1 94:1 101:1 109:1 215:1 222:1 318:1 362:1 562:1 631:1 993:1 2114:1 2200:1 2480:1 2481:1 2482:1 
0.7977153313787576 2:1 4:1 12:1 13:1 14:1 68:1 194:1 2424:1 2483:1 
0.1881410452792258 2:1 4:1 5:1 10:1 13:1 14:1 50:1 75:1 97:1 107:1 385:1 466:1 823:1 1765:1 2275:1 2489:1 
1 2:1 4:1 13:1 14:1 29:1 34:1 38:1 63:1 72:1 75:1 84:1 124:1 130:1 167:1 326:1 329:1 331:1 339:1 364:1 392:1 696:1 746:1 822:1 1237:1 1251:1 2361:1 
1 1:1 2:1 3:1 4:1 13:1 14:1 19:1 2493:1 
1 1:1 2:1 3:1 4:1 13:1 14:1 19:1 29:1 34:1 38:1 63:1 72:1 75:1 84:1 90:1 124:1 130:1 167:1 326:1 329:1 331:1 339:1 364:1 392:1 696:1 746:1 822:1 1237:1 1251:1 2361:1 
1 1:1 2:1 3:1 4:1 10:1 12:1 13:1 14:1 19:1 90:1 163:1 238:1 362:1 434:1 518:1 
0.349456215079074 2:1 4:1 13:1 14:1 84:1 2500:1 2501:1 
1 2:1 4:1 5:1 13:1 14:1 78:1 95:1 97:1 109:1 150:1 165:1 805:1 
1 2:1 4:1 13:1 14:1 63:1 78:1 229:1 262:1 2503:1 
0.7056735744696818 2:1 4:1 12:1 13:1 14:1 84:1 159:1 175:1 194:1 222:1 324:1 518:1 1017:1 2505:1 
1 2:1 4:1 13:1 14:1 19:1 42:1 145:1 149:1 312:1 746:1 822:1 901:1 
1 2:1 4:1 13:1 14:1 42:1 72:1 79:1 81:1 159:1 262:1 413:1 433:1 1068:1 
0.2300917596924122 1:1 2:1 3:1 4:1 12:1 13:1 14:1 38:1 75:1 94:1 347:1 1947:1 2509:1 2510:1 
0.2871011450438232 2:1 4:1 5:1 13:1 14:1 19:1 38:1 52:1 56:1 63:1 71:1 72:1 75:1 84:1 122:1 132:1 133:1 145:1 149:1 262:1 538:1 576:1 1249:1 1353:1 1365:1 1566:1 2511:1 
1 2:1 4:1 5:1 6:1 13:1 14:1 127:1 201:1 202:1 1676:1 2194:1 
1 2:1 4:1 13:1 14:1 34:1 63:1 65:1 99:1 101:1 164:1 215:1 548:1 2512:1 2513:1 
0.780425884546 2:1 4:1 13:1 14:1 518:1 2515:1 
1 2:1 4:1 5:1 13:1 14:1 68:1 71:1 809:1 1281:1 2120:1 
0.2008879266345469 2:1 4:1 5:1 13:1 14:1 55:1 63:1 84:1 121:1 122:1 222:1 262:1 641:1 2517:1 2518:1 2519:1 2520:1 
1 2:1 4:1 5:1 6:1 13:1 14:1 36:1 63:1 75:1 95:1 109:1 135:1 182:1 247:1 248:1 262:1 267:1 362:1 649:1 1888:1 
1 2:1 4:1 5:1 13:1 14:1 27:1 32:1 52:1 84:1 111:1 112:1 236:1 248:1 258:1 325:1 462:1 522:1 680:1 1330:1 1348:1 1357:1 
0.5304120274702601 2:1 4:1 5:1 12:1 13:1 14:1 16:1 48:1 54:1 84:1 158:1 199:1 306:1 1061:1 1487:1 2524:1 
0.02684150298509386 2:1 4:1 13:1 14:1 2527:1 
0.8122621036112964 2:1 4:1 13:1 14:1 72:1 302:1 306:1 367:1 2528:1 2529:1 
0.753062946732856 2:1 4:1 13:1 14:1 38:1 47:1 75:1 99:1 410:1 903:1 1273:1 2253:1 2531:1 
1 2:1 4:1 5:1 13:1 14:1 47:1 62:1 63:1 68:1 95:1 99:1 109:1 116:1 165:1 183:1 385:1 507:1 820:1 2194:1 2532:1 
0.0560253671883521 1:1 2:1 3:1 4:1 5:1 6:1 13:1 14:1 19:1 60:1 82:1 101:1 164:1 267:1 385:1 865:1 869:1 2542:1 2543:1 
0.4376191728286951 2:1 4:1 13:1 14:1 48:1 84:1 159:1 176:1 324:1 1878:1 2548:1 
0.7401593643054555 2:1 4:1 12:1 13:1 14:1 124:1 158:1 282:1 476:1 1058:1 1724:1 
0.5817806812689276 2:1 4:1 12:1 13:1 14:1 32:1 42:1 48:1 119:1 150:1 177:1 282:1 331:1 424:1 1298:1 2554:1 2555:1 2556:1 
1 2:1 4:1 5:1 6:1 12:1 13:1 14:1 27:1 42:1 46:1 51:1 55:1 72:1 78:1 99:1 156:1 163:1 172:1 194:1 215:1 240:1 326:1 327:1 351:1 979:1 2569:1 2570:1 2571:1 
0.1055573260161909 1:1 2:1 3:1 4:1 5:1 12:1 13:1 14:1 30:1 38:1 47:1 52:1 82:1 216:1 316:1 326:1 329:1 331:1 392:1 507:1 967:1 1446:1 1690:1 2277:1 2577:1 
1 2:1 4:1 8:1 13:1 14:1 42:1 56:1 91:1 107:1 144:1 240:1 293:1 316:1 367:1 760:1 1357:1 
0.983821039063039 2:1 4:1 12:1 13:1 14:1 16:1 23:1 42:1 56:1 63:1 72:1 75:1 79:1 99:1 127:1 141:1 150:1 267:1 306:1 362:1 429:1 671:1 2114:1 2448:1 2518:1 2525:1 2578:1 2579:1 
0.1099296626859642 1:1 2:1 3:1 4:1 13:1 14:1 56:1 66:1 148:1 164:1 326:1 663:1 1226:1 1267:1 1297:1 1593:1 2588:1 
0.101312389330613 2:1 4:1 13:1 14:1 63:1 172:1 262:1 2595:1 2596:1 
1 2:1 4:1 13:1 14:1 27:1 32:1 34:1 63:1 120:1 385:1 964:1 2194:1 
0.3322751592796494 2:1 4:1 13:1 14:1 63:1 641:1 774:1 961:1 1765:1 2012:1 2449:1 
0.8044147939318402 2:1 4:1 10:1 13:1 14:1 42:1 68:1 75:1 78:1 79:1 84:1 107:1 159:1 176:1 192:1 379:1 433:1 521:1 544:1 778:1 805:1 817:1 1333:1 1841:1 2579:1 2604:1 2605:1 2606:1 
1 2:1 4:1 5:1 10:1 13:1 14:1 34:1 56:1 57:1 63:1 66:1 75:1 84:1 150:1 159:1 165:1 192:1 237:1 240:1 248:1 326:1 487:1 740:1 865:1 869:1 1136:1 1154:1 1336:1 1378:1 2610:1 2611:1 2612:1 
1 1:1 2:1 3:1 4:1 5:1 8:1 13:1 14:1 72:1 78:1 92:1 95:1 109:1 139:1 165:1 507:1 944:1 1962:1 2614:1 
0.008053648719287945 2:1 4:1 5:1 13:1 14:1 46:1 47:1 66:1 84:1 99:1 109:1 326:1 353:1 438:1 590:1 710:1 733:1 1116:1 2610:1 
0.7464568935311745 2:1 4:1 13:1 14:1 19:1 47:1 48:1 156:1 251:1 262:1 458:1 2053:1 
0.2335668065061657 2:1 4:1 5:1 12:1 13:1 14:1 84:1 194:1 258:1 312:1 695:1 2621:1 
1 2:1 4:1 13:1 14:1 63:1 71:1 75:1 105:1 172:1 307:1 1189:1 2605:1 
1 2:1 4:1 13:1 14:1 75:1 163:1 197:1 302:1 1309:1 
0.4788191413504708 2:1 4:1 5:1 13:1 14:1 47:1 63:1 75:1 99:1 201:1 242:1 246:1 429:1 454:1 694:1 2191:1 2309:1 2629:1 
0.1624657443856258 2:1 4:1 5:1 13:1 14:1 63:1 150:1 347:1 2587:1 
0.02266398409483994 1:1 2:1 3:1 4:1 8:1 13:1 14:1 55:1 478:1 852:1 2634:1 
0.2152250555095064 2:1 4:1 5:1 6:1 9:1 12:1 13:1 14:1 27:1 42:1 47:1 63:1 71:1 78:1 107:1 108:1 109:1 120:1 135:1 160:1 165:1 172:1 211:1 248:1 312:1 645:1 712:1 951:1 1455:1 2119:1 
1 2:1 4:1 13:1 14:1 63:1 71:1 72:1 75:1 107:1 173:1 324:1 347:1 598:1 746:1 1409:1 1542:1 
1 2:1 4:1 12:1 13:1 14:1 42:1 120:1 211:1 247:1 422:1 
0.2006345744176615 2:1 4:1 13:1 14:1 66:1 72:1 84:1 210:1 1592:1 1693:1 
0.6698557581753291 2:1 4:1 5:1 10:1 13:1 14:1 42:1 99:1 109:1 116:1 159:1 215:1 359:1 379:1 774:1 
1 1:1 2:1 3:1 4:1 5:1 12:1 13:1 14:1 19:1 90:1 107:1 111:1 172:1 379:1 485:1 2310:1 
0.4978071385794156 1:1 2:1 3:1 4:1 13:1 14:1 38:1 47:1 50:1 107:1 610:1 1436:1 2641:1 
0.2117226608389172 2:1 4:1 13:1 14:1 469:1 1505:1 2646:1 2647:1 2648:1 2649:1 2650:1 
1 2:1 4:1 13:1 14:1 82:1 
0.2759391066060943 2:1 4:1 5:1 12:1 13:1 14:1 48:1 75:1 84:1 156:1 159:1 229:1 271:1 1652:1 2651:1 
0.03007816313275839 2:1 4:1 5:1 13:1 14:1 75:1 417:1 1357:1 2464:1 2653:1 
1 2:1 4:1 10:1 13:1 14:1 30:1 156:1 172:1 1652:1 
1 2:1 4:1 5:1 13:1 14:1 16:1 27:1 38:1 48:1 56:1 75:1 109:1 124:1 156:1 165:1 222:1 240:1 248:1 360:1 507:1 641:1 903:1 989:1 1025:1 1032:1 2654:1 2655:1 
0.9407411828472041 2:1 4:1 5:1 13:1 14:1 823:1 2656:1 
0.009239743472804367 2:1 4:1 13:1 14:1 19:1 57:1 71:1 158:1 194:1 1742:1 1744:1 2657:1 2658:1 
0.2408840553545681 2:1 4:1 5:1 13:1 14:1 46:1 72:1 84:1 262:1 382:1 641:1 658:1 767:1 1588:1 2659:1 
0.1560831324211232 2:1 4:1 13:1 14:1 63:1 72:1 75:1 173:1 429:1 792:1 2660:1 
0.1813511293971956 2:1 4:1 8:1 13:1 14:1 27:1 34:1 38:1 75:1 107:1 156:1 359:1 413:1 448:1 887:1 2661:1 2662:1 2663:1 2664:1 
0.2247369414794785 1:1 2:1 3:1 4:1 13:1 14:1 19:1 90:1 101:1 197:1 287:1 344:1 365:1 474:1 2183:1 2184:1 
1 1:1 2:1 3:1 4:1 5:1 6:1 8:1 12:1 13:1 14:1 41:1 48:1 50:1 56:1 65:1 232:1 715:1 837:1 1267:1 1337:1 1843:1 2665:1 2666:1 2667:1 
0.2926862901118438 1:1 2:1 3:1 4:1 5:1 10:1 19:1 56:1 57:1 63:1 66:1 72:1 75:1 84:1 90:1 150:1 159:1 165:1 192:1 237:1 240:1 248:1 326:1 487:1 740:1 865:1 869:1 1136:1 1336:1 1378:1 2610:1 2611:1 2612:1 
0.4005534329736112 2:1 4:1 13:1 14:1 68:1 75:1 76:1 79:1 167:1 538:1 708:1 761:1 1477:1 1821:1 2275:1 2276:1 
0.2947307717994131 2:1 4:1 5:1 13:1 14:1 38:1 42:1 95:1 109:1 139:1 159:1 202:1 340:1 768:1 2668:1 2669:1 2670:1 2671:1 
0.3272622123698231 2:1 4:1 10:1 13:1 14:1 48:1 63:1 68:1 75:1 215:1 327:1 351:1 362:1 845:1 1690:1 1908:1 2371:1 
0.2942416583657233 2:1 4:1 13:1 14:1 101:1 2672:1 2673:1 2674:1 2675:1 2676:1 
1 1:1 2:1 3:1 4:1 13:1 14:1 19:1 90:1 115:1 150:1 202:1 239:1 340:1 568:1 604:1 2677:1 
1 2:1 4:1 13:1 14:1 47:1 78:1 107:1 211:1 479:1 480:1 733:1 952:1 1188:1 
0.3701876573153638 1:1 2:1 3:1 4:1 8:1 12:1 13:1 14:1 19:1 55:1 71:1 78:1 90:1 99:1 101:1 109:1 433:1 446:1 562:1 2482:1 2579:1 
1 2:1 4:1 5:1 6:1 13:1 14:1 201:1 202:1 262:1 315:1 1081:1 2511:1 
0.263192846530885 2:1 4:1 12:1 13:1 14:1 68:1 141:1 179:1 1153:1 2688:1 
0.6860147929581372 2:1 4:1 13:1 14:1 30:1 34:1 42:1 63:1 163:1 179:1 2689:1 
0.02787848759342918 2:1 4:1 10:1 12:1 13:1 14:1 63:1 66:1 79:1 84:1 122:1 127:1 132:1 163:1 184:1 1407:1 
1 2:1 4:1 5:1 13:1 14:1 19:1 95:1 295:1 299:1 324:1 479:1 864:1 
0.4641287652961248 2:1 4:1 5:1 8:1 10:1 13:1 14:1 34:1 56:1 63:1 71:1 72:1 75:1 139:1 202:1 222:1 239:1 282:1 340:1 347:1 2585:1 2612:1 
1 2:1 4:1 13:1 14:1 34:1 47:1 108:1 109:1 171:1 622:1 649:1 2694:1 
0.04041056403490407 2:1 4:1 13:1 14:1 38:1 63:1 66:1 75:1 84:1 429:1 1293:1 2696:1 2697:1 2698:1 2699:1 2700:1 2701:1 
0.623272005939897 2:1 4:1 5:1 9:1 13:1 14:1 27:1 42:1 56:1 65:1 95:1 109:1 165:1 229:1 239:1 282:1 515:1 641:1 992:1 2590:1 2704:1 
0.2058798242458396 2:1 4:1 12:1 13:1 14:1 63:1 82:1 84:1 107:1 130:1 194:1 229:1 418:1 829:1 949:1 2707:1 
1 2:1 4:1 8:1 10:1 13:1 14:1 30:1 75:1 84:1 144:1 165:1 199:1 248:1 367:1 368:1 497:1 621:1 733:1 1194:1 1291:1 1641:1 2644:1 
1 1:1 2:1 3:1 4:1 8:1 13:1 14:1 19:1 50:1 68:1 72:1 90:1 326:1 429:1 622:1 979:1 2120:1 
1 2:1 4:1 5:1 6:1 12:1 13:1 14:1 30:1 66:1 75:1 194:1 2420:1 2710:1 
1 2:1 4:1 13:1 14:1 71:1 132:1 172:1 1407:1 
1 2:1 4:1 5:1 13:1 14:1 95:1 158:1 164:1 182:1 841:1 
1 2:1 4:1 10:1 13:1 14:1 46:1 55:1 63:1 84:1 107:1 207:1 215:1 262:1 318:1 729:1 805:1 2282:1 2596:1 2716:1 2717:1 
0.06571972851335632 2:1 4:1 5:1 12:1 13:1 14:1 84:1 175:1 194:1 211:1 222:1 2718:1 
1 2:1 4:1 13:1 14:1 211:1 212:1 454:1 1743:1 
0.4002447189357617 1:1 2:1 3:1 4:1 13:1 14:1 38:1 46:1 56:1 63:1 75:1 163:1 244:1 251:1 283:1 512:1 545:1 678:1 2605:1 2722:1 2723:1 
1 2:1 4:1 5:1 6:1 10:1 13:1 14:1 75:1 113:1 158:1 194:1 199:1 248:1 360:1 
0.07647874547673468 2:1 4:1 13:1 14:1 63:1 66:1 75:1 112:1 141:1 211:1 262:1 429:1 2678:1 2739:1 
1 2:1 4:1 13:1 14:1 19:1 120:1 295:1 299:1 903:1 
0.8243819349185114 2:1 4:1 5:1 13:1 14:1 25:1 47:1 95:1 202:1 326:1 340:1 2740:1 
0.1323114299785706 2:1 4:1 5:1 6:1 13:1 14:1 47:1 95:1 109:1 141:1 201:1 202:1 248:1 262:1 451:1 2741:1 
1 1:1 2:1 3:1 4:1 13:1 14:1 19:1 65:1 73:1 90:1 130:1 216:1 236:1 361:1 560:1 600:1 911:1 1843:1 2255:1 
1 2:1 4:1 13:1 14:1 65:1 73:1 130:1 216:1 236:1 361:1 560:1 600:1 911:1 1843:1 2255:1 
0.06975511270477891 2:1 4:1 8:1 13:1 14:1 99:1 150:1 216:1 233:1 351:1 421:1 561:1 1629:1 2749:1 
1 2:1 4:1 5:1 13:1 14:1 27:1 99:1 109:1 164:1 185:1 215:1 385:1 561:1 754:1 1032:1 2194:1 2574:1 2737:1 2750:1 
0.1370849170030595 1:1 2:1 3:1 4:1 13:1 14:1 19:1 90:1 150:1 170:1 194:1 262:1 287:1 1327:1 2246:1 
0.7947592449348119 1:1 2:1 3:1 4:1 12:1 13:1 14:1 42:1 46:1 71:1 84:1 101:1 135:1 194:1 439:1 487:1 1194:1 1946:1 2752:1 2753:1 
0.409982817882838 1:1 2:1 3:1 4:1 13:1 14:1 19:1 27:1 32:1 34:1 63:1 90:1 120:1 385:1 964:1 2194:1 
0.469592356424735 2:1 4:1 5:1 13:1 14:1 239:1 823:1 2761:1 
0.2866992587604086 2:1 4:1 9:1 13:1 14:1 27:1 56:1 63:1 75:1 84:1 94:1 108:1 109:1 111:1 159:1 166:1 171:1 262:1 329:1 331:1 392:1 410:1 413:1 432:1 792:1 993:1 1135:1 1297:1 1914:1 2020:1 2042:1 2764:1 2765:1 
0.6885864946625097 2:1 4:1 5:1 6:1 12:1 13:1 14:1 21:1 46:1 123:1 159:1 235:1 247:1 911:1 1487:1 2767:1 
0.9864587715675525 1:1 2:1 3:1 4:1 8:1 9:1 12:1 13:1 14:1 41:1 71:1 72:1 159:1 215:1 240:1 324:1 437:1 548:1 798:1 1281:1 1895:1 2300:1 2768:1 2769:1 
0.1905410946970092 2:1 4:1 5:1 10:1 12:1 13:1 14:1 42:1 65:1 84:1 124:1 347:1 422:1 2770:1 2771:1 
1 2:1 4:1 10:1 12:1 13:1 14:1 302:1 2744:1 
0.317745752609572 2:1 4:1 13:1 14:1 46:1 62:1 84:1 302:1 413:1 561:1 754:1 1061:1 2772:1 
0.07424999587754606 2:1 4:1 13:1 14:1 38:1 72:1 75:1 329:1 330:1 331:1 639:1 726:1 2774:1 2775:1 
1 2:1 4:1 5:1 13:1 14:1 27:1 48:1 108:1 109:1 135:1 163:1 181:1 189:1 194:1 215:1 440:1 
0.2005644212861389 2:1 4:1 13:1 14:1 51:1 65:1 127:1 194:1 248:1 361:1 1315:1 2449:1 
1 2:1 4:1 5:1 13:1 14:1 68:1 79:1 99:1 194:1 212:1 2781:1 
1 2:1 4:1 5:1 13:1 14:1 19:1 48:1 72:1 75:1 101:1 164:1 209:1 215:1 240:1 271:1 287:1 295:1 299:1 440:1 479:1 864:1 
1 2:1 4:1 13:1 14:1 42:1 63:1 99:1 282:1 316:1 1227:1 1920:1 
0.004809178183795243 2:1 4:1 12:1 13:1 14:1 157:1 270:1 302:1 469:1 708:1 926:1 1182:1 1374:1 1496:1 2340:1 2788:1 2789:1 2790:1 2791:1 2792:1 2793:1 2794:1 2795:1 2796:1 2797:1 2798:1 
1 2:1 4:1 13:1 14:1 82:1 97:1 101:1 102:1 164:1 1600:1 1670:1 
1 2:1 4:1 13:1 14:1 48:1 75:1 194:1 381:1 
0.1747385168319883 2:1 4:1 13:1 14:1 71:1 75:1 229:1 267:1 1725:1 2300:1 2812:1 
0.1501514680561077 2:1 4:1 13:1 14:1 63:1 127:1 2813:1 
1 1:1 2:1 3:1 4:1 5:1 13:1 14:1 19:1 38:1 75:1 90:1 97:1 519:1 823:1 2823:1 
0.520969463536861 2:1 4:1 5:1 13:1 14:1 20:1 34:1 46:1 66:1 68:1 75:1 112:1 114:1 130:1 150:1 205:1 211:1 377:1 649:1 805:1 837:1 852:1 2828:1 2829:1 2830:1 
0.3874141046214526 2:1 4:1 9:1 12:1 13:1 14:1 78:1 98:1 164:1 232:1 248:1 349:1 2831:1 2832:1 2833:1 2834:1 2835:1 
0.2580071811006698 2:1 4:1 8:1 10:1 13:1 14:1 42:1 52:1 68:1 75:1 93:1 109:1 142:1 165:1 232:1 368:1 389:1 462:1 488:1 956:1 981:1 2844:1 2845:1 2846:1 
1 2:1 4:1 13:1 14:1 46:1 52:1 63:1 68:1 75:1 95:1 101:1 107:1 163:1 316:1 422:1 462:1 938:1 1690:1 1908:1 
0.289438563103196 1:1 2:1 3:1 4:1 5:1 13:1 14:1 41:1 46:1 63:1 107:1 159:1 199:1 200:1 216:1 251:1 573:1 622:1 1566:1 1693:1 2260:1 2596:1 2854:1 2855:1 
0.5927988200586727 2:1 4:1 13:1 14:1 209:1 2186:1 
1 2:1 4:1 13:1 14:1 47:1 52:1 71:1 95:1 326:1 576:1 2186:1 
1 2:1 4:1 13:1 14:1 82:1 364:1 429:1 746:1 
1 1:1 2:1 3:1 4:1 13:1 14:1 19:1 82:1 90:1 
1 2:1 4:1 5:1 13:1 14:1 30:1 32:1 47:1 84:1 101:1 262:1 358:1 694:1 759:1 
0.9764310776030316 2:1 4:1 12:1 13:1 14:1 17:1 34:1 38:1 47:1 75:1 84:1 130:1 300:1 2857:1 2858:1 2859:1 
0.1614404563028695 2:1 4:1 12:1 13:1 14:1 60:1 115:1 262:1 2860:1 2861:1 
1 2:1 4:1 5:1 12:1 13:1 14:1 48:1 84:1 215:1 315:1 377:1 609:1 1994:1 
1 2:1 4:1 12:1 13:1 14:1 47:1 63:1 179:1 262:1 518:1 922:1 
1 2:1 4:1 13:1 14:1 132:1 133:1 204:1 258:1 454:1 743:1 779:1 1270:1 
1 2:1 4:1 5:1 12:1 13:1 14:1 71:1 75:1 84:1 215:1 229:1 239:1 262:1 353:1 1155:1 
0.2690165294408753 2:1 4:1 13:1 14:1 38:1 55:1 122:1 123:1 159:1 518:1 629:1 1712:1 2871:1 2872:1 
0.746749339754206 1:1 2:1 3:1 4:1 5:1 8:1 12:1 13:1 14:1 19:1 55:1 61:1 62:1 66:1 92:1 101:1 109:1 164:1 182:1 196:1 203:1 248:1 480:1 507:1 600:1 712:1 911:1 1029:1 1030:1 1032:1 1455:1 2874:1 2875:1 2876:1 
0.04505962725707737 2:1 4:1 13:1 14:1 65:1 2881:1 2882:1 2883:1 2884:1 
0.08212930957120794 1:1 2:1 3:1 4:1 13:1 14:1 19:1 63:1 72:1 82:1 90:1 95:1 172:1 282:1 671:1 1281:1 2886:1 
0.3043830743744724 2:1 4:1 13:1 14:1 48:1 201:1 202:1 712:1 2887:1 2888:1 
1 1:1 2:1 3:1 4:1 8:1 13:1 14:1 50:1 68:1 72:1 326:1 429:1 622:1 979:1 2120:1 
0.2385871164357664 2:1 4:1 13:1 14:1 66:1 71:1 84:1 122:1 124:1 2901:1 2902:1 
1 2:1 4:1 5:1 9:1 13:1 14:1 27:1 60:1 75:1 111:1 171:1 201:1 379:1 561:1 798:1 854:1 1116:1 1189:1 1300:1 2457:1 2488:1 2750:1 
0.7484189728076606 1:1 2:1 3:1 4:1 5:1 6:1 12:1 13:1 14:1 33:1 63:1 92:1 101:1 135:1 600:1 2378:1 2908:1 2909:1 2910:1 
0.6993607006047775 2:1 4:1 5:1 12:1 13:1 14:1 63:1 81:1 95:1 120:1 123:1 965:1 
0.6464857828872254 2:1 4:1 8:1 9:1 12:1 13:1 14:1 16:1 27:1 50:1 78:1 107:1 108:1 109:1 158:1 302:1 326:1 573:1 2122:1 2408:1 2409:1 
1 1:1 2:1 3:1 4:1 5:1 6:1 9:1 10:1 12:1 13:1 14:1 27:1 37:1 38:1 47:1 107:1 113:1 159:1 240:1 283:1 325:1 362:1 788:1 2668:1 
0.3061624783977204 2:1 4:1 5:1 10:1 13:1 14:1 47:1 95:1 109:1 202:1 203:1 340:1 572:1 2586:1 
0.07839659158625928 2:1 4:1 12:1 13:1 14:1 71:1 429:1 715:1 950:1 1505:1 2915:1 2916:1 
0.2901639727207688 2:1 4:1 12:1 13:1 14:1 84:1 159:1 312:1 518:1 1284:1 1441:1 2919:1 2920:1 2921:1 
1 2:1 4:1 13:1 14:1 38:1 42:1 82:1 327:1 1618:1 2941:1 2942:1 
0.1063842131869363 2:1 4:1 13:1 14:1 108:1 109:1 302:1 662:1 2944:1 
0.07351615890231647 2:1 4:1 5:1 13:1 14:1 30:1 75:1 99:1 113:1 130:1 163:1 215:1 337:1 2845:1 2946:1 2947:1 
0.4700081925062076 2:1 4:1 13:1 14:1 48:1 63:1 93:1 101:1 164:1 279:1 283:1 745:1 2935:1 2948:1 2949:1 2950:1 
0.3358798398098675 2:1 4:1 12:1 13:1 14:1 31:1 38:1 46:1 63:1 75:1 135:1 231:1 326:1 413:1 1018:1 1150:1 1189:1 2951:1 
0.4250935249881314 2:1 4:1 13:1 14:1 19:1 46:1 50:1 65:1 72:1 75:1 79:1 396:1 886:1 1297:1 1600:1 1891:1 2959:1 2960:1 2961:1 2962:1 2963:1 
1 1:1 2:1 3:1 4:1 8:1 13:1 14:1 19:1 50:1 84:1 90:1 95:1 109:1 710:1 733:1 1327:1 
0.4452720034025299 2:1 4:1 5:1 6:1 9:1 10:1 13:1 14:1 27:1 48:1 56:1 72:1 93:1 186:1 215:1 262:1 326:1 2968:1 2969:1 2970:1 
0.09519694224907112 1:1 2:1 3:1 4:1 12:1 13:1 14:1 42:1 101:1 1485:1 1496:1 2976:1 2977:1 2978:1 2979:1 2980:1 2981:1 
0.5795041926427944 2:1 4:1 5:1 6:1 13:1 14:1 20:1 46:1 75:1 97:1 102:1 158:1 222:1 226:1 350:1 1191:1 2983:1 
1 2:1 4:1 13:1 14:1 72:1 82:1 109:1 150:1 324:1 385:1 548:1 1070:1 
0.9133739816969122 2:1 4:1 12:1 13:1 14:1 42:1 63:1 68:1 75:1 262:1 364:1 824:1 1233:1 2985:1 
1 1:1 2:1 3:1 4:1 5:1 13:1 14:1 27:1 52:1 90:1 158:1 248:1 
1 2:1 4:1 5:1 13:1 14:1 20:1 63:1 71:1 78:1 84:1 111:1 158:1 172:1 302:1 379:1 1273:1 2709:1 
1 2:1 4:1 5:1 12:1 13:1 14:1 63:1 99:1 141:1 158:1 841:1 1443:1 2996:1 
0.1087519589661878 2:1 4:1 5:1 10:1 13:1 14:1 71:1 84:1 215:1 216:1 262:1 309:1 576:1 2764:1 2997:1 2998:1 
0.150980903001261 2:1 4:1 12:1 13:1 14:1 28:1 42:1 48:1 63:1 71:1 72:1 75:1 99:1 150:1 163:1 172:1 476:1 576:1 774:1 2639:1 2999:1 
0.4670569304805615 2:1 4:1 13:1 14:1 48:1 63:1 75:1 84:1 108:1 109:1 159:1 172:1 200:1 429:1 658:1 962:1 1300:1 3000:1 3001:1 
0.1322748194181943 2:1 4:1 5:1 10:1 13:1 14:1 27:1 63:1 75:1 108:1 109:1 173:1 205:1 368:1 823:1 1046:1 1103:1 1690:1 1918:1 2526:1 3002:1 3003:1 
0.4966383475735665 2:1 4:1 13:1 14:1 47:1 48:1 63:1 73:1 82:1 123:1 144:1 200:1 240:1 302:1 509:1 1003:1 3004:1 3005:1 3006:1 
1 2:1 4:1 9:1 12:1 13:1 14:1 47:1 62:1 173:1 207:1 287:1 754:1 
0.2650065417869645 1:1 2:1 3:1 4:1 13:1 14:1 19:1 30:1 38:1 48:1 79:1 90:1 101:1 164:1 210:1 2986:1 
1 2:1 4:1 13:1 14:1 63:1 75:1 429:1 822:1 
0.4406622852080022 2:1 4:1 5:1 9:1 13:1 14:1 63:1 71:1 73:1 84:1 99:1 108:1 109:1 159:1 231:1 262:1 507:1 660:1 750:1 966:1 1441:1 2992:1 3012:1 3013:1 3014:1 
0.0024581010225726 2:1 4:1 9:1 13:1 14:1 47:1 55:1 63:1 71:1 73:1 127:1 488:1 576:1 3018:1 3019:1 
0.0193047652102501 2:1 4:1 8:1 13:1 14:1 50:1 60:1 61:1 63:1 72:1 75:1 353:1 444:1 641:1 778:1 3020:1 3021:1 3022:1 
1 2:1 4:1 5:1 10:1 13:1 14:1 32:1 47:1 52:1 95:1 109:1 497:1 631:1 
0.623853417973264 2:1 4:1 5:1 13:1 14:1 60:1 743:1 3024:1 
1 2:1 4:1 13:1 14:1 27:1 48:1 72:1 75:1 79:1 196:1 282:1 406:1 410:1 477:1 565:1 680:1 1770:1 3026:1 3027:1 3028:1 
0.013307810169041 2:1 4:1 13:1 14:1 31:1 60:1 68:1 72:1 75:1 107:1 108:1 109:1 240:1 251:1 293:1 335:1 421:1 573:1 590:1 1138:1 1154:1 2170:1 3029:1 
0.2665894360256169 2:1 4:1 13:1 14:1 72:1 84:1 150:1 364:1 1273:1 2346:1 
0.5799412402427796 2:1 4:1 12:1 13:1 14:1 38:1 63:1 68:1 72:1 75:1 84:1 122:1 123:1 222:1 576:1 1191:1 3034:1 
1 2:1 4:1 13:1 14:1 207:1 215:1 232:1 1269:1 
0.252888623589163 2:1 4:1 13:1 14:1 48:1 101:1 200:1 3039:1 
1 2:1 4:1 9:1 13:1 14:1 66:1 92:1 101:1 107:1 194:1 325:1 
0.3731293951462916 1:1 2:1 3:1 4:1 5:1 8:1 13:1 14:1 19:1 46:1 51:1 56:1 63:1 72:1 90:1 95:1 109:1 127:1 158:1 165:1 247:1 282:1 347:1 367:1 494:1 622:1 628:1 641:1 3042:1 3043:1 3044:1 
0.1821388455650724 2:1 4:1 13:1 14:1 65:1 84:1 337:1 1233:1 1588:1 3045:1 
0.2235816359343513 2:1 4:1 13:1 14:1 42:1 62:1 71:1 109:1 150:1 160:1 197:1 590:1 817:1 3057:1 3058:1 3059:1 3060:1 
1 2:1 4:1 13:1 14:1 63:1 75:1 503:1 866:1 
1 2:1 4:1 13:1 14:1 27:1 56:1 63:1 84:1 150:1 515:1 759:1 1185:1 1227:1 
1 2:1 4:1 13:1 14:1 72:1 202:1 239:1 251:1 340:1 385:1 604:1 
1 2:1 4:1 13:1 14:1 39:1 63:1 75:1 135:1 194:1 746:1 
0.02941707055148387 2:1 4:1 5:1 13:1 14:1 56:1 95:1 101:1 126:1 182:1 272:1 743:1 865:1 869:1 1297:1 1539:1 1566:1 2499:1 2669:1 3063:1 3064:1 3065:1 
1 2:1 4:1 13:1 14:1 42:1 159:1 363:1 379:1 522:1 561:1 1191:1 
0.4504856414230044 2:1 4:1 13:1 14:1 71:1 135:1 159:1 903:1 973:1 
0.06350231260074218 2:1 4:1 12:1 13:1 14:1 34:1 63:1 71:1 170:1 190:1 576:1 3074:1 
1 2:1 4:1 12:1 13:1 14:1 27:1 71:1 84:1 121:1 141:1 229:1 743:1 754:1 915:1 1553:1 1678:1 3075:1 3076:1 
0.2020156086341093 2:1 4:1 13:1 14:1 84:1 122:1 179:1 339:1 518:1 625:1 3089:1 
1 2:1 4:1 12:1 13:1 14:1 47:1 63:1 95:1 115:1 123:1 287:1 1335:1 2675:1 
0.3965192443728253 2:1 4:1 5:1 13:1 14:1 34:1 95:1 101:1 108:1 109:1 164:1 216:1 315:1 433:1 1042:1 1136:1 2272:1 2532:1 2992:1 3104:1 
0.08043013062571844 2:1 4:1 10:1 13:1 14:1 75:1 135:1 215:1 351:1 3105:1 
0.08097331523332468 1:1 12:1 13:1 20:1 51:1 77:1 95:1 109:1 119:1 120:1 238:1 281:1 573:1 845:1 2060:1 3106:1 3107:1 3108:1 3109:1 3110:1 3111:1 
1 2:1 4:1 8:1 13:1 14:1 27:1 38:1 50:1 56:1 63:1 71:1 119:1 172:1 232:1 412:1 503:1 524:1 701:1 781:1 959:1 1201:1 1316:1 3112:1 
0.1901806944947448 2:1 4:1 5:1 13:1 14:1 38:1 52:1 75:1 82:1 109:1 142:1 229:1 548:1 1429:1 1470:1 3014:1 3116:1 3117:1 3118:1 
0.08530020080259966 2:1 4:1 13:1 14:1 2023:1 2221:1 3120:1 3121:1 
0.7384411602895055 2:1 4:1 10:1 13:1 14:1 63:1 1137:1 1300:1 3124:1 
0.5382558749060179 1:1 2:1 3:1 4:1 5:1 13:1 14:1 40:1 51:1 56:1 111:1 183:1 235:1 251:1 421:1 467:1 503:1 694:1 729:1 743:1 809:1 944:1 1297:1 3138:1 3139:1 
0.04135669902719124 2:1 4:1 13:1 14:1 46:1 55:1 63:1 75:1 471:1 1690:1 2987:1 2988:1 2989:1 
0.01151535706711925 2:1 4:1 13:1 14:1 27:1 38:1 41:1 109:1 123:1 215:1 248:1 277:1 376:1 480:1 620:1 719:1 756:1 1007:1 1388:1 2642:1 3142:1 3143:1 3144:1 
0.4799626659401528 2:1 4:1 5:1 9:1 13:1 14:1 27:1 32:1 84:1 101:1 121:1 122:1 126:1 163:1 164:1 215:1 326:1 3146:1 
0.2662630582325236 2:1 4:1 5:1 6:1 13:1 14:1 42:1 47:1 48:1 75:1 84:1 95:1 158:1 163:1 170:1 337:1 365:1 375:1 645:1 998:1 3159:1 3160:1 
1 2:1 4:1 12:1 13:1 14:1 63:1 78:1 84:1 112:1 262:1 759:1 
0.2416028993808265 2:1 4:1 5:1 10:1 12:1 13:1 14:1 47:1 48:1 194:1 229:1 258:1 282:1 326:1 339:1 3161:1 
0.1118322613595896 2:1 4:1 5:1 8:1 13:1 14:1 30:1 32:1 78:1 237:1 282:1 3164:1 
1 2:1 4:1 5:1 13:1 14:1 72:1 82:1 93:1 95:1 109:1 215:1 251:1 262:1 384:1 847:1 1589:1 1692:1 
0.5811102404149312 2:1 4:1 13:1 14:1 48:1 101:1 109:1 164:1 412:1 413:1 3177:1 
0.003342805569280947 2:1 4:1 13:1 14:1 194:1 219:1 451:1 3180:1 
0.6344972274506525 2:1 4:1 13:1 14:1 55:1 71:1 75:1 107:1 302:1 367:1 701:1 914:1 
1 2:1 4:1 13:1 14:1 27:1 63:1 105:1 163:1 477:1 
1 2:1 4:1 5:1 13:1 14:1 16:1 108:1 109:1 123:1 172:1 216:1 301:1 957:1 3183:1 
0.2304746225386604 2:1 4:1 13:1 14:1 56:1 72:1 1199:1 3190:1 3191:1 3192:1 3193:1 
0.5426659887624418 2:1 4:1 5:1 6:1 13:1 14:1 32:1 52:1 159:1 326:1 823:1 3194:1 3195:1 
0.6246939611730404 2:1 4:1 13:1 14:1 42:1 71:1 84:1 239:1 246:1 631:1 658:1 1319:1 3196:1 
0.4200320163730784 2:1 4:1 12:1 13:1 14:1 47:1 48:1 101:1 200:1 684:1 3197:1 
1 2:1 4:1 5:1 8:1 13:1 14:1 32:1 52:1 72:1 251:1 421:1 476:1 694:1 2286:1 
0.1609014380927615 2:1 4:1 13:1 14:1 240:1 743:1 2562:1 3198:1 3199:1 
1 2:1 4:1 9:1 13:1 14:1 63:1 127:1 287:1 642:1 
1 1:1 2:1 3:1 4:1 5:1 12:1 13:1 14:1 47:1 51:1 55:1 110:1 216:1 326:1 788:1 
1 2:1 4:1 13:1 14:1 38:1 46:1 63:1 65:1 75:1 124:1 215:1 327:1 428:1 1457:1 2727:1 3220:1 
0.3529808703800648 2:1 4:1 13:1 14:1 48:1 68:1 72:1 75:1 84:1 1129:1 2282:1 3222:1 
1 2:1 4:1 12:1 13:1 14:1 22:1 63:1 123:1 127:1 
0.5757307028275913 2:1 4:1 5:1 13:1 14:1 63:1 72:1 75:1 78:1 150:1 164:1 262:1 347:1 520:1 673:1 847:1 997:1 3228:1 
1 2:1 4:1 13:1 14:1 42:1 78:1 139:1 175:1 407:1 3242:1 
0.65232442287875 2:1 4:1 10:1 13:1 14:1 992:1 3245:1 
0.1055734612852414 2:1 4:1 12:1 13:1 14:1 42:1 175:1 197:1 211:1 3248:1 
1 2:1 4:1 13:1 14:1 27:1 34:1 47:1 48:1 63:1 84:1 248:1 256:1 774:1 894:1 1156:1 1456:1 1748:1 
1 2:1 4:1 12:1 13:1 14:1 84:1 122:1 132:1 189:1 194:1 509:1 518:1 3257:1 
1 2:1 4:1 5:1 13:1 14:1 38:1 84:1 126:1 158:1 307:1 1224:1 1697:1 2605:1 3258:1 
1 2:1 4:1 5:1 13:1 14:1 46:1 63:1 78:1 92:1 95:1 109:1 165:1 262:1 
0.2589041812668799 2:1 4:1 12:1 13:1 14:1 47:1 84:1 112:1 488:1 759:1 793:1 3269:1 
0.2055894968225122 2:1 4:1 5:1 10:1 13:1 14:1 38:1 150:1 216:1 239:1 281:1 337:1 409:1 625:1 2845:1 
0.2823001308856132 2:1 4:1 13:1 14:1 188:1 1747:1 3270:1 3271:1 3272:1 3273:1 3274:1 
1 2:1 4:1 5:1 13:1 14:1 63:1 75:1 108:1 109:1 170:1 172:1 222:1 309:1 518:1 3275:1 
1 2:1 4:1 13:1 14:1 150:1 232:1 316:1 367:1 2357:1 
0.06300594967955472 2:1 4:1 5:1 13:1 14:1 72:1 109:1 142:1 150:1 167:1 229:1 316:1 334:1 338:1 604:1 1032:1 1443:1 2724:1 2887:1 3280:1 3281:1 
1 2:1 4:1 5:1 8:1 13:1 14:1 33:1 50:1 172:1 240:1 349:1 573:1 1103:1 
0.4402868681764592 2:1 4:1 13:1 14:1 56:1 66:1 84:1 132:1 133:1 1273:1 3286:1 
0.350954661417692 2:1 4:1 5:1 13:1 14:1 38:1 46:1 54:1 75:1 84:1 95:1 107:1 109:1 119:1 126:1 159:1 165:1 222:1 352:1 444:1 590:1 865:1 869:1 3147:1 3148:1 
1 2:1 4:1 13:1 14:1 63:1 84:1 807:1 808:1 
0.4259742791498617 2:1 4:1 13:1 14:1 30:1 62:1 63:1 121:1 170:1 232:1 262:1 3302:1 
0.9187624377164232 2:1 4:1 5:1 13:1 14:1 27:1 52:1 158:1 248:1 
0.8430827617151884 2:1 4:1 5:1 9:1 13:1 14:1 48:1 63:1 84:1 92:1 99:1 101:1 107:1 112:1 119:1 164:1 165:1 174:1 231:1 294:1 325:1 349:1 590:1 1311:1 1739:1 2398:1 3003:1 
0.392355361428211 2:1 4:1 5:1 6:1 13:1 14:1 27:1 42:1 50:1 63:1 75:1 132:1 159:1 302:1 768:1 3311:1 3312:1 
0.3751982543823303 2:1 4:1 5:1 13:1 14:1 34:1 38:1 42:1 43:1 63:1 66:1 71:1 104:1 107:1 159:1 216:1 227:1 248:1 429:1 448:1 480:1 658:1 781:1 1155:1 1710:1 2590:1 2678:1 3313:1 3314:1 3315:1 3316:1 
0.01344470772569635 2:1 4:1 13:1 14:1 3317:1 3318:1 
0.3169766200958071 2:1 4:1 13:1 14:1 42:1 46:1 75:1 107:1 165:1 189:1 197:1 326:1 671:1 2547:1 3319:1 3320:1 3321:1 
1 1:1 2:1 3:1 4:1 5:1 12:1 13:1 14:1 19:1 63:1 90:1 99:1 141:1 158:1 841:1 1443:1 2996:1 
0.2920422083643295 2:1 4:1 13:1 14:1 63:1 75:1 93:1 163:1 262:1 759:1 3331:1 
0.07050914514103272 2:1 4:1 13:1 14:1 159:1 164:1 446:1 563:1 3112:1 3346:1 
1 2:1 4:1 5:1 13:1 14:1 27:1 41:1 46:1 50:1 194:1 248:1 312:1 674:1 2346:1 3347:1 
0.242122212073156 2:1 4:1 5:1 10:1 12:1 13:1 14:1 19:1 27:1 41:1 66:1 75:1 99:1 175:1 194:1 203:1 282:1 295:1 329:1 331:1 344:1 349:1 379:1 392:1 618:1 684:1 719:1 1003:1 1356:1 1566:1 1976:1 3348:1 3349:1 
0.6398427173763981 2:1 4:1 13:1 14:1 63:1 108:1 109:1 1690:1 2806:1 
1 2:1 4:1 13:1 14:1 46:1 63:1 84:1 95:1 99:1 189:1 258:1 422:1 743:1 1233:1 1351:1 1554:1 1974:1 2329:1 
0.1048406238674589 2:1 4:1 13:1 14:1 63:1 66:1 95:1 163:1 805:1 3352:1 3353:1 
0.09686157124229455 2:1 4:1 13:1 14:1 48:1 63:1 71:1 78:1 84:1 122:1 123:1 175:1 211:1 429:1 3354:1 
1 2:1 4:1 13:1 14:1 38:1 122:1 123:1 132:1 167:1 
0.02588426743713558 2:1 4:1 13:1 14:1 71:1 75:1 3359:1 3360:1 
0.1237518963168907 2:1 4:1 13:1 14:1 84:1 112:1 262:1 759:1 3364:1 3365:1 
0.1809910806443091 2:1 4:1 5:1 13:1 14:1 63:1 84:1 173:1 312:1 946:1 1637:1 3348:1 3371:1 
1 2:1 4:1 12:1 13:1 14:1 71:1 75:1 84:1 759:1 1162:1 1201:1 3375:1 
0.1885823594321884 2:1 4:1 13:1 14:1 48:1 84:1 262:1 410:1 437:1 1273:1 1327:1 3377:1 3378:1 3379:1 
0.173130016733735 2:1 4:1 5:1 6:1 9:1 13:1 14:1 27:1 46:1 63:1 65:1 135:1 262:1 478:1 769:1 3387:1 3388:1 
1 2:1 4:1 12:1 13:1 14:1 
0.05153444397855238 2:1 4:1 13:1 14:1 92:1 3389:1 
0.3629159860755582 2:1 4:1 5:1 13:1 14:1 50:1 52:1 62:1 72:1 74:1 84:1 177:1 186:1 216:1 233:1 240:1 295:1 326:1 487:1 894:1 3069:1 3394:1 3395:1 3396:1 3397:1 3398:1 
1 2:1 4:1 5:1 13:1 14:1 34:1 47:1 63:1 72:1 115:1 160:1 170:1 347:1 
0.0347663983146577 2:1 4:1 10:1 13:1 14:1 27:1 34:1 63:1 66:1 71:1 72:1 115:1 142:1 368:1 433:1 690:1 1478:1 3400:1 3401:1 3402:1 
0.3275162190812341 2:1 4:1 12:1 13:1 14:1 25:1 30:1 38:1 72:1 84:1 123:1 337:1 783:1 3406:1 
0.2122056632164012 1:1 2:1 3:1 4:1 5:1 10:1 13:1 14:1 63:1 75:1 95:1 101:1 120:1 126:1 165:1 315:1 471:1 631:1 894:1 1056:1 2119:1 2315:1 2492:1 3147:1 3410:1 
0.2352767348615543 2:1 4:1 5:1 9:1 13:1 14:1 27:1 95:1 158:1 244:1 324:1 334:1 448:1 561:1 3411:1 3412:1 
0.9117798997178594 2:1 4:1 12:1 13:1 14:1 30:1 42:1 47:1 48:1 305:1 768:1 1227:1 
0.0692810705360444 2:1 4:1 5:1 12:1 13:1 14:1 75:1 172:1 362:1 604:1 823:1 
0.09398705598916013 2:1 4:1 5:1 13:1 14:1 63:1 84:1 108:1 109:1 124:1 127:1 147:1 172:1 262:1 329:1 331:1 392:1 658:1 666:1 1909:1 3424:1 
1 2:1 4:1 5:1 12:1 13:1 14:1 34:1 42:1 46:1 75:1 99:1 159:1 326:1 375:1 479:1 618:1 684:1 793:1 864:1 1100:1 
1 2:1 4:1 10:1 13:1 14:1 46:1 48:1 56:1 84:1 186:1 600:1 896:1 1135:1 3428:1 3429:1 
0.4767555378279014 1:1 2:1 3:1 4:1 5:1 13:1 14:1 42:1 63:1 78:1 99:1 886:1 1566:1 2286:1 2346:1 2596:1 3434:1 
0.01497816904705274 2:1 4:1 10:1 13:1 14:1 27:1 41:1 42:1 46:1 79:1 109:1 150:1 282:1 411:1 781:1 1180:1 1302:1 1770:1 3435:1 3436:1 3437:1 3438:1 3439:1 
1 2:1 4:1 5:1 6:1 13:1 14:1 25:1 32:1 34:1 50:1 63:1 94:1 95:1 97:1 107:1 109:1 823:1 850:1 892:1 959:1 1046:1 
0.09293359398257754 2:1 4:1 13:1 14:1 56:1 107:1 926:1 1485:1 3446:1 3447:1 3448:1 3449:1 3450:1 3451:1 3452:1 
0.253409629897436 1:1 2:1 3:1 4:1 8:1 12:1 13:1 14:1 19:1 29:1 46:1 66:1 75:1 90:1 92:1 150:1 158:1 170:1 199:1 240:1 267:1 325:1 329:1 331:1 353:1 479:1 480:1 487:1 726:1 746:1 785:1 957:1 1063:1 1352:1 1965:1 3455:1 3456:1 
1 2:1 4:1 13:1 14:1 46:1 47:1 48:1 150:1 262:1 1908:1 2466:1 2655:1 
1 2:1 4:1 13:1 14:1 63:1 82:1 84:1 807:1 808:1 
1 2:1 4:1 13:1 14:1 63:1 84:1 172:1 262:1 3009:1 
1 2:1 4:1 12:1 13:1 14:1 27:1 48:1 63:1 101:1 137:1 164:1 215:1 305:1 316:1 768:1 1227:1 
0.3646896882978481 2:1 4:1 13:1 14:1 38:1 75:1 84:1 150:1 759:1 3469:1 3470:1 3471:1 
1 2:1 4:1 13:1 14:1 17:1 63:1 84:1 106:1 124:1 127:1 159:1 215:1 379:1 561:1 2933:1 
1 2:1 4:1 13:1 14:1 60:1 743:1 754:1 1281:1 
1 2:1 4:1 5:1 13:1 14:1 84:1 158:1 262:1 315:1 694:1 956:1 1197:1 
0.163681576503436 1:1 2:1 3:1 4:1 5:1 13:1 14:1 27:1 47:1 63:1 71:1 108:1 109:1 150:1 232:1 262:1 306:1 434:1 748:1 793:1 1136:1 1690:1 2851:1 3485:1 3486:1 3487:1 3488:1 3489:1 
0.19803251228011 2:1 4:1 13:1 14:1 159:1 824:1 1189:1 3494:1 
1 2:1 4:1 5:1 8:1 10:1 13:1 14:1 38:1 42:1 123:1 130:1 189:1 381:1 462:1 540:1 805:1 1272:1 
0.4774637771402727 2:1 4:1 13:1 14:1 30:1 42:1 48:1 51:1 55:1 62:1 63:1 65:1 78:1 84:1 139:1 156:1 324:1 327:1 1334:1 1357:1 3496:1 3497:1 
0.9771936746479805 2:1 4:1 5:1 13:1 14:1 27:1 108:1 109:1 248:1 251:1 347:1 616:1 896:1 1227:1 
1 2:1 4:1 13:1 14:1 101:1 119:1 2556:1 
0.1406334775367106 2:1 4:1 5:1 13:1 14:1 38:1 63:1 72:1 97:1 99:1 139:1 141:1 159:1 823:1 936:1 2668:1 3499:1 
0.3361336619573829 1:1 2:1 3:1 4:1 8:1 12:1 13:1 14:1 19:1 62:1 63:1 78:1 101:1 132:1 194:1 295:1 487:1 1029:1 1030:1 1553:1 3500:1 
0.3858023352725285 2:1 4:1 12:1 13:1 14:1 63:1 75:1 99:1 127:1 194:1 1626:1 
0.828163417061027 2:1 4:1 13:1 14:1 26:1 3503:1 
0.08384502747671907 2:1 4:1 13:1 14:1 42:1 46:1 71:1 73:1 75:1 82:1 107:1 150:1 177:1 295:1 368:1 497:1 532:1 625:1 631:1 805:1 1241:1 1270:1 1957:1 3416:1 3505:1 3506:1 3507:1 3508:1 3509:1 
1 1:1 2:1 3:1 4:1 5:1 13:1 14:1 19:1 46:1 63:1 78:1 90:1 92:1 95:1 109:1 165:1 262:1 
1 2:1 4:1 5:1 6:1 8:1 13:1 14:1 52:1 78:1 185:1 239:1 316:1 422:1 1269:1 1418:1 1794:1 2156:1 
1 2:1 4:1 12:1 13:1 14:1 903:1 1197:1 
0.0522682440999238 2:1 4:1 5:1 13:1 14:1 41:1 63:1 75:1 175:1 240:1 326:1 347:1 3520:1 
0.03412221559144248 2:1 4:1 13:1 14:1 30:1 3139:1 3521:1 3522:1 
0.05187010898191002 1:1 2:1 3:1 4:1 8:1 10:1 13:1 14:1 72:1 75:1 111:1 150:1 156:1 205:1 355:1 680:1 857:1 3530:1 
0.6471282149058978 2:1 4:1 13:1 14:1 45:1 262:1 680:1 837:1 2311:1 
1 2:1 4:1 5:1 6:1 13:1 14:1 326:1 
0.1380024081443454 2:1 4:1 5:1 13:1 14:1 32:1 63:1 120:1 1053:1 2011:1 3551:1 
0.3511243605995786 2:1 4:1 5:1 6:1 10:1 13:1 14:1 56:1 63:1 72:1 73:1 75:1 84:1 111:1 124:1 192:1 207:1 215:1 251:1 429:1 1588:1 2332:1 3570:1 3571:1 
0.9691009403831041 1:1 2:1 3:1 4:1 5:1 13:1 14:1 27:1 46:1 55:1 56:1 84:1 101:1 109:1 197:1 209:1 225:1 324:1 337:1 339:1 600:1 1034:1 1302:1 2661:1 
0.6668078464761225 2:1 4:1 13:1 14:1 20:1 84:1 159:1 358:1 759:1 774:1 1171:1 1457:1 2709:1 3573:1 
0.1347335151903666 2:1 4:1 5:1 8:1 13:1 14:1 46:1 51:1 56:1 63:1 95:1 109:1 127:1 158:1 165:1 247:1 282:1 347:1 367:1 494:1 622:1 628:1 641:1 3042:1 3043:1 3044:1 3582:1 
0.1119914805533279 2:1 4:1 13:1 14:1 3583:1 3584:1 
0.2645851825264484 2:1 4:1 9:1 10:1 12:1 13:1 14:1 48:1 75:1 92:1 107:1 135:1 573:1 712:1 876:1 1569:1 3585:1 
0.1154390464830046 2:1 4:1 12:1 13:1 14:1 262:1 1240:1 
0.0269269777064354 2:1 4:1 13:1 14:1 3590:1 
0.1797371850243988 1:1 2:1 3:1 4:1 8:1 9:1 13:1 14:1 62:1 93:1 101:1 199:1 240:1 282:1 2987:1 3591:1 3592:1 
1 2:1 4:1 13:1 14:1 30:1 121:1 148:1 515:1 1740:1 
1 2:1 4:1 5:1 12:1 13:1 14:1 19:1 47:1 101:1 127:1 295:1 299:1 507:1 628:1 694:1 1136:1 
1 2:1 4:1 5:1 13:1 14:1 27:1 66:1 95:1 109:1 127:1 150:1 216:1 239:1 282:1 315:1 347:1 451:1 701:1 793:1 1136:1 
0.3182050631772142 2:1 4:1 13:1 14:1 316:1 808:1 1849:1 3608:1 
0.9644494797095643 2:1 4:1 12:1 13:1 14:1 27:1 48:1 200:1 671:1 1418:1 3609:1 3610:1 3611:1 
1 1:1 2:1 3:1 4:1 5:1 8:1 9:1 13:1 14:1 19:1 46:1 56:1 63:1 90:1 99:1 109:1 150:1 164:1 229:1 239:1 446:1 454:1 476:1 478:1 641:1 834:1 944:1 
0.2162768983672359 2:1 4:1 10:1 13:1 14:1 36:1 42:1 46:1 63:1 65:1 72:1 115:1 120:1 175:1 267:1 302:1 562:1 680:1 785:1 1400:1 1888:1 1994:1 3617:1 3618:1 3619:1 
0.3854377004501822 1:1 2:1 3:1 4:1 5:1 6:1 10:1 13:1 14:1 46:1 150:1 267:1 326:1 347:1 357:1 454:1 476:1 1914:1 2298:1 2639:1 3465:1 
0.9856172712167111 1:1 2:1 3:1 4:1 5:1 10:1 12:1 13:1 14:1 38:1 120:1 139:1 2020:1 
0.02646599264407052 2:1 4:1 5:1 13:1 14:1 27:1 47:1 63:1 72:1 211:1 215:1 262:1 1074:1 3627:1 
0.7004175564335859 2:1 4:1 13:1 14:1 43:1 46:1 71:1 163:1 358:1 462:1 487:1 759:1 805:1 
1 2:1 4:1 8:1 10:1 13:1 14:1 42:1 46:1 48:1 50:1 63:1 99:1 232:1 240:1 262:1 329:1 330:1 331:1 467:1 674:1 3635:1 3636:1 3637:1 3638:1 
0.04781358359258101 2:1 4:1 13:1 14:1 39:1 158:1 194:1 302:1 3639:1 3640:1 
0.04097824875895437 2:1 4:1 5:1 6:1 12:1 13:1 14:1 55:1 63:1 66:1 72:1 75:1 94:1 158:1 199:1 215:1 302:1 505:1 865:1 869:1 2316:1 2317:1 3641:1 3642:1 
0.4230465322218994 2:1 4:1 13:1 14:1 42:1 189:1 3649:1 
0.7150600615822722 1:1 2:1 3:1 4:1 13:1 14:1 19:1 48:1 90:1 205:1 213:1 267:1 515:1 729:1 781:1 893:1 1309:1 1566:1 2147:1 2423:1 3230:1 3298:1 3650:1 
0.2316770555559194 2:1 4:1 5:1 6:1 13:1 14:1 31:1 63:1 75:1 326:1 1018:1 3651:1 3652:1 
1 2:1 4:1 5:1 10:1 13:1 14:1 42:1 46:1 56:1 63:1 107:1 120:1 131:1 150:1 205:1 216:1 227:1 239:1 281:1 327:1 582:1 768:1 951:1 997:1 1128:1 3653:1 
0.1238720691884702 2:1 4:1 9:1 13:1 14:1 42:1 56:1 63:1 84:1 196:1 251:1 262:1 368:1 619:1 2967:1 3654:1 3655:1 3656:1 
0.2473782281102821 1:1 2:1 3:1 4:1 13:1 14:1 41:1 42:1 79:1 147:1 181:1 327:1 538:1 837:1 992:1 1180:1 3662:1 3663:1 
0.0454419709862284 2:1 4:1 9:1 13:1 14:1 27:1 47:1 60:1 68:1 73:1 147:1 150:1 239:1 282:1 312:1 820:1 3667:1 
0.02456868775309466 2:1 4:1 13:1 14:1 55:1 56:1 1197:1 1520:1 3671:1 3672:1 3673:1 3674:1 
0.08552176585739521 1:1 2:1 3:1 4:1 13:1 14:1 19:1 63:1 84:1 311:1 320:1 760:1 1185:1 1208:1 3678:1 3679:1 
0.3712664811263708 1:1 2:1 3:1 4:1 12:1 13:1 14:1 47:1 79:1 107:1 109:1 158:1 159:1 170:1 197:1 214:1 306:1 412:1 413:1 561:1 841:1 1619:1 3682:1 
0.8563220771882802 2:1 4:1 5:1 13:1 14:1 16:1 46:1 56:1 63:1 68:1 72:1 75:1 79:1 84:1 95:1 111:1 130:1 147:1 163:1 194:1 215:1 262:1 429:1 820:1 887:1 956:1 1478:1 3184:1 3683:1 3684:1 
1 1:1 2:1 3:1 4:1 5:1 6:1 12:1 13:1 14:1 19:1 27:1 78:1 90:1 150:1 182:1 326:1 649:1 1603:1 
1 2:1 4:1 8:1 13:1 14:1 27:1 38:1 48:1 50:1 52:1 75:1 108:1 109:1 150:1 158:1 159:1 165:1 232:1 240:1 282:1 324:1 329:1 330:1 331:1 385:1 808:1 3366:1 3441:1 
0.4630699468111767 2:1 4:1 5:1 6:1 9:1 13:1 14:1 27:1 50:1 72:1 326:1 823:1 3403:1 3687:1 
1 2:1 4:1 12:1 13:1 14:1 46:1 68:1 148:1 347:1 623:1 3688:1 
0.3130169357910976 2:1 4:1 13:1 14:1 34:1 47:1 48:1 52:1 56:1 75:1 91:1 107:1 150:1 287:1 367:1 989:1 3691:1 
1 1:1 2:1 3:1 4:1 8:1 12:1 13:1 14:1 46:1 55:1 63:1 72:1 75:1 82:1 101:1 107:1 139:1 159:1 164:1 200:1 642:1 1628:1 
0.1007983989642122 2:1 4:1 5:1 6:1 13:1 14:1 38:1 46:1 48:1 66:1 75:1 124:1 150:1 194:1 312:1 622:1 746:1 938:1 983:1 3695:1 3696:1 3697:1 3698:1 
0.02694808837283725 2:1 4:1 13:1 14:1 3699:1 
1 2:1 4:1 5:1 13:1 14:1 34:1 63:1 84:1 189:1 448:1 483:1 792:1 823:1 
1 1:1 2:1 3:1 4:1 8:1 13:1 14:1 48:1 82:1 92:1 95:1 109:1 215:1 507:1 600:1 865:1 869:1 944:1 3702:1 
1 2:1 4:1 5:1 13:1 14:1 38:1 63:1 75:1 99:1 159:1 389:1 518:1 604:1 2668:1 
1 2:1 4:1 5:1 13:1 14:1 27:1 63:1 75:1 101:1 150:1 189:1 204:1 205:1 532:1 694:1 992:1 3143:1 
0.7661041008383209 2:1 4:1 13:1 14:1 38:1 42:1 62:1 63:1 127:1 147:1 159:1 186:1 216:1 464:1 768:1 1154:1 2464:1 2639:1 3706:1 3707:1 
1 2:1 4:1 13:1 14:1 30:1 65:1 72:1 107:1 316:1 507:1 1435:1 3711:1 
0.4336581303677006 2:1 4:1 5:1 13:1 14:1 23:1 32:1 56:1 65:1 75:1 95:1 109:1 173:1 211:1 229:1 238:1 315:1 550:1 1001:1 2433:1 3576:1 
1 2:1 4:1 12:1 13:1 14:1 38:1 122:1 123:1 509:1 
0.1027915931979835 2:1 4:1 5:1 13:1 14:1 42:1 56:1 77:1 327:1 768:1 823:1 
0.04410100281641652 2:1 4:1 13:1 14:1 42:1 72:1 82:1 95:1 109:1 150:1 158:1 230:1 623:1 713:1 761:1 936:1 3729:1 
1 2:1 4:1 12:1 13:1 14:1 27:1 32:1 60:1 63:1 65:1 71:1 101:1 115:1 164:1 262:1 485:1 548:1 785:1 1070:1 2130:1 
1 2:1 4:1 5:1 10:1 13:1 14:1 16:1 32:1 41:1 47:1 52:1 63:1 65:1 71:1 79:1 84:1 99:1 123:1 131:1 143:1 150:1 215:1 262:1 347:1 351:1 609:1 649:1 2336:1 3736:1 
1 2:1 4:1 12:1 13:1 14:1 20:1 30:1 42:1 58:1 63:1 71:1 107:1 189:1 216:1 316:1 329:1 331:1 367:1 392:1 565:1 620:1 671:1 1193:1 3737:1 
0.7915881777736848 2:1 4:1 13:1 14:1 63:1 120:1 474:1 690:1 1470:1 1884:1 3417:1 3581:1 
0.381857952196771 2:1 4:1 13:1 14:1 42:1 48:1 62:1 127:1 166:1 167:1 201:1 202:1 326:1 362:1 1267:1 3739:1 
1 2:1 4:1 13:1 14:1 63:1 82:1 84:1 163:1 358:1 2278:1 
0.3620001966247718 2:1 4:1 13:1 14:1 42:1 63:1 72:1 94:1 101:1 199:1 316:1 944:1 2316:1 2317:1 
1 2:1 4:1 5:1 13:1 14:1 62:1 95:1 109:1 165:1 216:1 351:1 774:1 3272:1 
0.1649146544152468 2:1 4:1 13:1 14:1 911:1 3741:1 
0.7595558677230152 2:1 4:1 13:1 14:1 46:1 63:1 75:1 84:1 150:1 377:1 461:1 477:1 646:1 817:1 1690:1 3742:1 3743:1 
0.02688968548395206 2:1 4:1 13:1 14:1 3746:1 
1 2:1 4:1 8:1 13:1 14:1 63:1 71:1 92:1 95:1 109:1 165:1 352:1 
0.03533613733161498 1:1 2:1 3:1 4:1 13:1 14:1 34:1 39:1 42:1 48:1 54:1 56:1 63:1 75:1 95:1 108:1 109:1 130:1 147:1 163:1 173:1 200:1 302:1 573:1 729:1 1232:1 1712:1 1918:1 2040:1 2782:1 3750:1 3751:1 
1 1:1 2:1 3:1 4:1 12:1 13:1 14:1 27:1 41:1 56:1 75:1 222:1 422:1 429:1 507:1 515:1 522:1 863:1 1090:1 2382:1 
0.317275236150679 2:1 4:1 10:1 13:1 14:1 63:1 66:1 76:1 78:1 84:1 122:1 229:1 507:1 560:1 618:1 1102:1 1346:1 1892:1 3155:1 3619:1 3755:1 3756:1 3757:1 
0.2957815389528782 2:1 4:1 13:1 14:1 46:1 48:1 65:1 75:1 84:1 92:1 94:1 95:1 156:1 159:1 164:1 382:1 428:1 462:1 550:1 1339:1 
0.7717884534970013 2:1 4:1 13:1 14:1 63:1 95:1 163:1 215:1 351:1 497:1 2906:1 
0.2194602799297659 2:1 4:1 9:1 13:1 14:1 42:1 46:1 48:1 56:1 84:1 101:1 148:1 160:1 197:1 222:1 240:1 590:1 1155:1 1229:1 1616:1 3761:1 
0.01234445331997342 2:1 4:1 13:1 14:1 211:1 267:1 3765:1 3766:1 
0.2240739029244829 1:1 2:1 3:1 4:1 5:1 9:1 13:1 14:1 16:1 41:1 63:1 72:1 75:1 113:1 182:1 189:1 248:1 433:1 480:1 562:1 662:1 680:1 712:1 865:1 869:1 957:1 1003:1 1436:1 3767:1 3768:1 3769:1 
0.1492816828307688 2:1 4:1 13:1 14:1 63:1 84:1 135:1 159:1 477:1 3774:1 
1 1:1 2:1 3:1 4:1 5:1 13:1 14:1 62:1 65:1 239:1 240:1 351:1 412:1 507:1 515:1 1662:1 
1 2:1 4:1 13:1 14:1 47:1 55:1 107:1 192:1 349:1 515:1 518:1 712:1 739:1 1301:1 
0.6309056398893981 2:1 4:1 13:1 14:1 47:1 63:1 65:1 71:1 76:1 84:1 170:1 172:1 251:1 306:1 379:1 414:1 680:1 2376:1 
0.6365875235681754 2:1 4:1 5:1 10:1 13:1 14:1 30:1 72:1 75:1 92:1 95:1 101:1 515:1 2375:1 3778:1 3779:1 3780:1 
0.8233962187392555 2:1 4:1 13:1 14:1 27:1 34:1 52:1 63:1 78:1 102:1 130:1 139:1 186:1 225:1 561:1 778:1 879:1 3783:1 3784:1 
0.2943958156194161 1:1 2:1 3:1 4:1 12:1 13:1 14:1 27:1 63:1 71:1 84:1 99:1 109:1 225:1 312:1 344:1 1773:1 2121:1 2910:1 3785:1 
1 2:1 4:1 8:1 13:1 14:1 34:1 54:1 55:1 66:1 71:1 84:1 95:1 107:1 109:1 189:1 215:1 282:1 288:1 647:1 733:1 944:1 1003:1 1291:1 1418:1 1556:1 1646:1 3287:1 3786:1 3787:1 
0.5793775834299275 1:1 2:1 3:1 4:1 12:1 13:1 14:1 19:1 50:1 63:1 71:1 75:1 84:1 90:1 158:1 159:1 199:1 235:1 267:1 444:1 894:1 1938:1 2127:1 2724:1 3793:1 3794:1 
1 2:1 4:1 5:1 6:1 13:1 14:1 65:1 99:1 109:1 201:1 202:1 205:1 248:1 436:1 1227:1 3795:1 
0.02696605525370803 2:1 4:1 13:1 14:1 3796:1 
1 1:1 2:1 3:1 4:1 5:1 8:1 12:1 13:1 14:1 32:1 42:1 52:1 66:1 95:1 99:1 101:1 107:1 111:1 248:1 312:1 367:1 573:1 2179:1 
1 2:1 4:1 13:1 14:1 55:1 75:1 2199:1 3783:1 3797:1 
1 2:1 4:1 5:1 13:1 14:1 72:1 92:1 95:1 101:1 364:1 694:1 3136:1 
0.6564079560875352 1:1 2:1 3:1 4:1 5:1 13:1 14:1 27:1 40:1 72:1 75:1 163:1 181:1 225:1 262:1 1657:1 1989:1 
0.3397515699665283 1:1 2:1 3:1 4:1 12:1 13:1 14:1 46:1 60:1 68:1 71:1 75:1 121:1 159:1 212:1 251:1 327:1 429:1 1189:1 2042:1 2919:1 3802:1 
1 1:1 2:1 3:1 4:1 13:1 14:1 1090:1 2075:1 
0.02701087489854841 2:1 4:1 13:1 14:1 3804:1 
0.01141752871485337 2:1 4:1 13:1 14:1 82:1 159:1 620:1 641:1 719:1 975:1 1762:1 2362:1 3810:1 3811:1 3812:1 3813:1 3814:1 
0.9452551431547297 1:1 2:1 3:1 4:1 8:1 13:1 14:1 55:1 101:1 478:1 
1 2:1 4:1 12:1 13:1 14:1 63:1 124:1 262:1 429:1 576:1 
0.02954812634459528 1:1 2:1 3:1 4:1 12:1 13:1 14:1 19:1 63:1 90:1 372:1 429:1 3490:1 3815:1 
0.4107018717291065 2:1 4:1 9:1 13:1 14:1 27:1 42:1 72:1 107:1 150:1 164:1 216:1 312:1 573:1 781:1 3816:1 3817:1 
0.7367601213825795 2:1 4:1 10:1 13:1 14:1 46:1 75:1 76:1 102:1 119:1 159:1 421:1 751:1 796:1 938:1 3820:1 3821:1 
0.0268383094809363 2:1 4:1 13:1 14:1 3822:1 
0.539170978103286 2:1 4:1 13:1 14:1 42:1 47:1 63:1 211:1 212:1 307:1 343:1 3015:1 3823:1 
0.3605166038528076 2:1 4:1 13:1 14:1 38:1 46:1 50:1 63:1 65:1 94:1 144:1 240:1 282:1 316:1 353:1 550:1 560:1 696:1 722:1 1297:1 1851:1 2006:1 2155:1 2541:1 3824:1 3825:1 
0.06477155089843314 1:1 2:1 3:1 4:1 8:1 10:1 13:1 14:1 31:1 71:1 84:1 101:1 147:1 150:1 185:1 307:1 364:1 788:1 805:1 2577:1 2605:1 3828:1 3829:1 3830:1 3831:1 3832:1 
0.4589735416658796 2:1 4:1 10:1 12:1 13:1 14:1 75:1 84:1 86:1 92:1 101:1 515:1 3834:1 3835:1 
0.1215218897022455 2:1 4:1 5:1 13:1 14:1 60:1 62:1 63:1 94:1 277:1 326:1 329:1 331:1 392:1 422:1 604:1 781:1 1330:1 1608:1 2026:1 3836:1 3837:1 3838:1 3839:1 
1 2:1 4:1 13:1 14:1 47:1 48:1 63:1 123:1 135:1 181:1 3840:1 
0.3052552428233066 2:1 4:1 13:1 14:1 115:1 262:1 3841:1 
0.08598083062101075 2:1 4:1 10:1 13:1 14:1 63:1 84:1 358:1 759:1 1357:1 3842:1 
1 2:1 4:1 5:1 10:1 13:1 14:1 27:1 84:1 101:1 176:1 197:1 283:1 365:1 521:1 522:1 694:1 913:1 3184:1 
0.02969484340446486 2:1 4:1 5:1 10:1 13:1 14:1 27:1 52:1 75:1 78:1 92:1 159:1 229:1 235:1 239:1 240:1 349:1 1249:1 1604:1 1731:1 2398:1 3844:1 3845:1 3846:1 
0.7530662156634828 1:1 2:1 3:1 4:1 5:1 13:1 14:1 19:1 38:1 63:1 90:1 114:1 135:1 150:1 165:1 167:1 200:1 202:1 204:1 340:1 368:1 487:1 544:1 3850:1 
0.4167423210271611 1:1 2:1 3:1 4:1 5:1 9:1 12:1 13:1 14:1 32:1 48:1 62:1 74:1 95:1 101:1 109:1 126:1 158:1 159:1 164:1 196:1 238:1 351:1 841:1 845:1 1151:1 2655:1 
1 2:1 4:1 10:1 13:1 14:1 38:1 48:1 75:1 107:1 186:1 240:1 273:1 1068:1 1418:1 3856:1 
0.5534556238856777 2:1 4:1 12:1 13:1 14:1 306:1 431:1 3859:1 
0.2639927888363544 1:1 2:1 3:1 4:1 13:1 14:1 19:1 27:1 40:1 46:1 55:1 97:1 145:1 149:1 337:1 729:1 1812:1 3860:1 
1 2:1 4:1 13:1 14:1 63:1 78:1 127:1 1994:1 
1 2:1 4:1 8:1 12:1 13:1 14:1 42:1 56:1 65:1 71:1 99:1 137:1 248:1 316:1 324:1 944:1 2974:1 3864:1 
0.07340174917634046 1:1 2:1 3:1 4:1 13:1 14:1 19:1 46:1 47:1 48:1 63:1 72:1 90:1 101:1 135:1 467:1 623:1 865:1 869:1 1124:1 3865:1 3866:1 3867:1 
1 2:1 4:1 12:1 13:1 14:1 122:1 518:1 636:1 
0.7605956748734307 1:1 2:1 3:1 4:1 8:1 10:1 13:1 14:1 27:1 32:1 52:1 55:1 63:1 75:1 78:1 84:1 92:1 101:1 232:1 248:1 267:1 326:1 493:1 949:1 1392:1 2156:1 2728:1 3874:1 3875:1 
0.7954586756308089 2:1 4:1 13:1 14:1 27:1 48:1 3095:1 3876:1 
0.06114362964393484 2:1 4:1 13:1 14:1 84:1 262:1 743:1 1065:1 3879:1 
1 1:1 2:1 3:1 4:1 12:1 13:1 14:1 19:1 47:1 48:1 90:1 107:1 165:1 172:1 202:1 340:1 712:1 
1 1:1 2:1 3:1 4:1 13:1 14:1 42:1 68:1 107:1 205:1 232:1 326:1 367:1 377:1 573:1 602:1 631:1 2727:1 
1 2:1 4:1 8:1 13:1 14:1 63:1 108:1 109:1 172:1 173:1 793:1 
1 2:1 4:1 13:1 14:1 82:1 
0.4565758481320807 2:1 4:1 5:1 13:1 14:1 42:1 52:1 63:1 71:1 75:1 120:1 126:1 127:1 239:1 326:1 622:1 746:1 3893:1 
0.646028601869682 2:1 4:1 8:1 9:1 13:1 14:1 109:1 165:1 196:1 282:1 324:1 325:1 573:1 1032:1 1996:1 
0.3711908892523702 2:1 4:1 13:1 14:1 47:1 109:1 123:1 262:1 864:1 1194:1 1923:1 
1 2:1 4:1 5:1 13:1 14:1 47:1 63:1 95:1 109:1 120:1 150:1 186:1 805:1 911:1 3278:1 3894:1 
0.05293889660140418 2:1 4:1 13:1 14:1 68:1 437:1 3895:1 3896:1 3897:1 3898:1 
1 2:1 4:1 13:1 14:1 48:1 54:1 84:1 150:1 158:1 175:1 382:1 1954:1 
0.1688606459938148 2:1 4:1 5:1 13:1 14:1 32:1 52:1 72:1 158:1 159:1 379:1 485:1 3777:1 
0.2648423492616146 2:1 4:1 13:1 14:1 27:1 210:1 229:1 641:1 686:1 688:1 754:1 2902:1 
1 2:1 4:1 13:1 14:1 1309:1 
1 2:1 4:1 13:1 14:1 72:1 306:1 433:1 620:1 2130:1 
0.2103707336950071 1:1 2:1 3:1 4:1 5:1 10:1 13:1 14:1 19:1 52:1 72:1 75:1 90:1 95:1 99:1 109:1 130:1 164:1 170:1 262:1 282:1 329:1 331:1 389:1 392:1 786:1 2768:1 3361:1 3914:1 3915:1 
0.1804440820760503 1:1 2:1 3:1 4:1 13:1 14:1 19:1 48:1 50:1 90:1 101:1 158:1 326:1 865:1 869:1 1570:1 3916:1 3917:1 
1 2:1 4:1 12:1 13:1 14:1 42:1 84:1 194:1 262:1 377:1 429:1 451:1 822:1 3918:1 
0.01198146587918632 2:1 4:1 5:1 13:1 14:1 32:1 101:1 104:1 107:1 164:1 181:1 182:1 610:1 793:1 3920:1 
0.6592976223252117 2:1 4:1 5:1 13:1 14:1 32:1 52:1 55:1 68:1 71:1 84:1 94:1 99:1 109:1 215:1 236:1 282:1 357:1 490:1 561:1 600:1 622:1 740:1 1100:1 1946:1 2390:1 
0.07865682714987424 1:1 2:1 3:1 4:1 12:1 13:1 14:1 27:1 46:1 71:1 159:1 444:1 507:1 729:1 858:1 1764:1 3919:1 3925:1 3926:1 
0.7704818464643785 2:1 4:1 12:1 13:1 14:1 63:1 84:1 108:1 109:1 114:1 127:1 172:1 413:1 3639:1 3665:1 
0.4601930930112855 1:1 2:1 3:1 4:1 8:1 9:1 13:1 14:1 47:1 93:1 127:1 251:1 379:1 434:1 462:1 590:1 701:1 736:1 2513:1 3106:1 
0.03829269787005073 2:1 4:1 8:1 13:1 14:1 72:1 99:1 107:1 267:1 561:1 743:1 3932:1 3933:1 3934:1 
1 2:1 4:1 13:1 14:1 48:1 84:1 239:1 327:1 2277:1 2717:1 
0.2485771491233381 2:1 4:1 5:1 8:1 13:1 14:1 27:1 42:1 63:1 66:1 92:1 101:1 120:1 164:1 214:1 232:1 480:1 600:1 645:1 865:1 869:1 1003:1 2605:1 2864:1 3942:1 
1 2:1 4:1 5:1 13:1 14:1 46:1 47:1 66:1 101:1 127:1 150:1 170:1 216:1 251:1 262:1 
0.2783348199609751 2:1 4:1 9:1 13:1 14:1 27:1 34:1 42:1 63:1 72:1 75:1 123:1 135:1 315:1 385:1 389:1 817:1 3948:1 
0.2836600606299148 2:1 4:1 12:1 13:1 14:1 25:1 38:1 71:1 75:1 80:1 84:1 122:1 132:1 159:1 163:1 618:1 2590:1 3949:1 3950:1 3951:1 
1 2:1 4:1 13:1 14:1 48:1 75:1 159:1 604:1 975:1 3004:1 
0.543989687864641 2:1 4:1 5:1 13:1 14:1 211:1 823:1 3952:1 
0.1919572606159699 2:1 4:1 13:1 14:1 34:1 42:1 63:1 113:1 123:1 159:1 222:1 569:1 2665:1 3891:1 3953:1 3954:1 
0.2364199693958837 2:1 4:1 13:1 14:1 30:1 34:1 63:1 82:1 326:1 1551:1 3955:1 
1 2:1 4:1 13:1 14:1 82:1 
1 1:1 2:1 3:1 4:1 5:1 13:1 14:1 19:1 90:1 150:1 165:1 326:1 823:1 
1 2:1 4:1 13:1 14:1 34:1 38:1 56:1 73:1 75:1 84:1 123:1 124:1 248:1 480:1 887:1 936:1 951:1 989:1 2434:1 
0.01612422303200088 1:1 2:1 3:1 4:1 5:1 10:1 13:1 14:1 38:1 41:1 46:1 66:1 75:1 82:1 176:1 271:1 324:1 863:1 2514:1 2660:1 2854:1 3956:1 3957:1 3958:1 3959:1 
0.8363277274524932 2:1 4:1 13:1 14:1 430:1 3965:1 
0.6835445165239747 2:1 4:1 5:1 13:1 14:1 38:1 81:1 84:1 99:1 159:1 349:1 642:1 966:1 2786:1 3159:1 
1 2:1 4:1 12:1 13:1 14:1 27:1 107:1 158:1 316:1 889:1 2147:1 3132:1 3175:1 3966:1 3967:1 
0.2589908067401438 2:1 4:1 5:1 8:1 13:1 14:1 92:1 479:1 1436:1 2031:1 3970:1 
0.1114017429268798 2:1 4:1 12:1 13:1 14:1 46:1 51:1 55:1 56:1 63:1 71:1 135:1 179:1 518:1 2182:1 2393:1 3972:1 3973:1 3974:1 3975:1 
0.5737650376063194 2:1 4:1 13:1 14:1 27:1 38:1 42:1 46:1 48:1 66:1 75:1 92:1 97:1 150:1 158:1 500:1 678:1 901:1 1378:1 1603:1 3976:1 3977:1 
0.1637734105393968 2:1 4:1 5:1 13:1 14:1 38:1 42:1 84:1 99:1 109:1 170:1 225:1 398:1 618:1 701:1 1116:1 1194:1 2083:1 3978:1 3979:1 3980:1 
1 2:1 4:1 5:1 13:1 14:1 63:1 95:1 109:1 127:1 347:1 658:1 
1 2:1 4:1 13:1 14:1 71:1 72:1 124:1 258:1 306:1 796:1 1199:1 1297:1 
0.2129517045965931 2:1 4:1 5:1 13:1 14:1 27:1 32:1 42:1 47:1 50:1 147:1 163:1 239:1 368:1 391:1 864:1 3983:1 
0.3318115216487741 2:1 4:1 5:1 13:1 14:1 248:1 408:1 966:1 1349:1 
1 2:1 4:1 13:1 14:1 48:1 84:1 101:1 164:1 462:1 807:1 1273:1 3995:1 
1 2:1 4:1 5:1 12:1 13:1 14:1 34:1 47:1 95:1 130:1 158:1 216:1 326:1 476:1 680:1 2075:1 
0.2270339110617716 1:1 2:1 3:1 4:1 5:1 8:1 12:1 13:1 14:1 19:1 27:1 31:1 32:1 42:1 63:1 66:1 101:1 107:1 251:1 282:1 302:1 385:1 480:1 515:1 1030:1 1737:1 3998:1 3999:1 4000:1 4001:1 4002:1 4003:1 
1 2:1 4:1 13:1 14:1 41:1 75:1 84:1 159:1 262:1 283:1 618:1 619:1 1329:1 3684:1 
1 2:1 4:1 13:1 14:1 46:1 72:1 158:1 201:1 649:1 658:1 957:1 1319:1 1696:1 2457:1 
1 2:1 4:1 5:1 6:1 9:1 13:1 14:1 56:1 72:1 123:1 158:1 238:1 429:1 719:1 841:1 
0.2742309864741328 2:1 4:1 11:1 12:1 13:1 14:1 19:1 30:1 38:1 42:1 63:1 72:1 82:1 84:1 150:1 326:1 458:1 528:1 621:1 678:1 1646:1 2279:1 
0.5104919254097068 2:1 4:1 12:1 13:1 14:1 238:1 433:1 1478:1 4010:1 
1 2:1 4:1 5:1 12:1 13:1 14:1 150:1 202:1 215:1 216:1 222:1 262:1 308:1 340:1 1337:1 1597:1 
1 2:1 4:1 5:1 12:1 13:1 14:1 27:1 38:1 84:1 104:1 109:1 111:1 127:1 158:1 181:1 379:1 382:1 497:1 521:1 805:1 850:1 992:1 1032:1 3537:1 4015:1 
1 2:1 4:1 13:1 14:1 82:1 329:1 330:1 331:1 726:1 
0.917302644224375 2:1 4:1 9:1 10:1 13:1 14:1 27:1 63:1 71:1 84:1 105:1 173:1 493:1 1154:1 2119:1 2337:1 3801:1 4019:1 4020:1 
0.2927594427893933 2:1 4:1 12:1 13:1 14:1 55:1 251:1 385:1 536:1 896:1 911:1 
1 2:1 4:1 13:1 14:1 
1 1:1 2:1 3:1 4:1 13:1 14:1 19:1 38:1 75:1 90:1 112:1 123:1 124:1 201:1 202:1 204:1 262:1 649:1 1068:1 1316:1 
1 2:1 4:1 13:1 14:1 27:1 34:1 48:1 56:1 63:1 75:1 78:1 84:1 95:1 109:1 114:1 130:1 159:1 315:1 347:1 413:1 507:1 549:1 1278:1 2004:1 2579:1 
0.2152104075367203 2:1 4:1 12:1 13:1 14:1 15:1 46:1 63:1 71:1 75:1 84:1 197:1 225:1 251:1 282:1 429:1 1035:1 1053:1 1300:1 1947:1 2334:1 4052:1 4053:1 4054:1 
0.07942540829077484 2:1 4:1 12:1 13:1 14:1 194:1 4057:1 4058:1 
0.09074007574420064 2:1 4:1 13:1 14:1 72:1 2605:1 4059:1 
1 2:1 4:1 8:1 13:1 14:1 56:1 78:1 92:1 101:1 107:1 199:1 240:1 248:1 548:1 600:1 1297:1 4061:1 
1 1:1 2:1 3:1 4:1 13:1 14:1 197:1 215:1 325:1 379:1 561:1 2088:1 
1 2:1 4:1 5:1 12:1 13:1 14:1 47:1 126:1 164:1 170:1 507:1 645:1 649:1 
0.8946786104759903 1:1 2:1 3:1 4:1 13:1 14:1 19:1 42:1 65:1 72:1 75:1 90:1 147:1 273:1 454:1 598:1 649:1 754:1 1144:1 
0.4136189696970907 1:1 2:1 3:1 4:1 5:1 13:1 14:1 19:1 27:1 42:1 48:1 90:1 135:1 150:1 167:1 181:1 233:1 315:1 440:1 694:1 1418:1 2896:1 2897:1 4063:1 
0.7953379698276575 2:1 4:1 13:1 14:1 72:1 84:1 159:1 421:1 480:1 590:1 759:1 1061:1 1185:1 3265:1 
1 1:1 2:1 3:1 4:1 13:1 14:1 19:1 63:1 90:1 102:1 186:1 262:1 602:1 1100:1 
0.2721988565975464 2:1 4:1 13:1 14:1 60:1 68:1 84:1 176:1 835:1 4072:1 
0.1113275251231084 2:1 4:1 12:1 13:1 14:1 29:1 38:1 42:1 48:1 62:1 121:1 158:1 201:1 202:1 240:1 262:1 329:1 331:1 392:1 477:1 497:1 2574:1 4076:1 
1 2:1 4:1 12:1 13:1 14:1 42:1 71:1 163:1 219:1 364:1 484:1 759:1 
0.2007304205235357 2:1 4:1 13:1 14:1 159:1 1761:1 4077:1 4078:1 4079:1 
0.08586795781172706 2:1 4:1 10:1 13:1 14:1 38:1 42:1 63:1 71:1 105:1 107:1 172:1 204:1 211:1 222:1 251:1 385:1 678:1 779:1 1189:1 1914:1 4081:1 
0.6874655252511633 2:1 4:1 13:1 14:1 42:1 101:1 163:1 2074:1 3419:1 
0.1497166891750515 2:1 4:1 12:1 13:1 14:1 71:1 950:1 1226:1 1505:1 4095:1 
1 1:1 2:1 3:1 4:1 13:1 14:1 19:1 42:1 68:1 90:1 107:1 205:1 232:1 326:1 367:1 377:1 573:1 602:1 631:1 2727:1 
0.07410879140927246 1:1 2:1 3:1 4:1 8:1 13:1 14:1 17:1 48:1 62:1 71:1 79:1 82:1 101:1 159:1 232:1 641:1 4096:1 4097:1 4098:1 
0.1395728551429007 2:1 4:1 13:1 14:1 194:1 4101:1 
0.2590551137154417 2:1 4:1 5:1 10:1 12:1 13:1 14:1 20:1 27:1 34:1 47:1 48:1 58:1 63:1 68:1 72:1 78:1 82:1 135:1 147:1 203:1 215:1 306:1 618:1 820:1 992:1 4102:1 
0.2974609369729201 2:1 4:1 5:1 13:1 14:1 32:1 46:1 51:1 56:1 63:1 72:1 73:1 75:1 82:1 99:1 116:1 418:1 1136:1 1707:1 4103:1 4104:1 4105:1 
0.836092993800629 1:1 2:1 3:1 4:1 13:1 14:1 19:1 90:1 
0.1623467239071841 1:1 2:1 3:1 4:1 10:1 13:1 14:1 19:1 42:1 90:1 232:1 515:1 1003:1 1155:1 1600:1 1832:1 4111:1 4112:1 4113:1 
0.5581859432577536 1:1 2:1 3:1 4:1 5:1 6:1 13:1 14:1 32:1 47:1 48:1 72:1 82:1 84:1 117:1 141:1 201:1 202:1 248:1 326:1 456:1 1267:1 4114:1 
0.07370068249525745 2:1 4:1 13:1 14:1 47:1 71:1 412:1 4118:1 
0.9354395137907781 2:1 4:1 5:1 12:1 13:1 14:1 42:1 101:1 239:1 368:1 540:1 864:1 
0.5503461386729038 2:1 4:1 13:1 14:1 57:1 141:1 222:1 793:1 4121:1 
0.6068651981574833 2:1 4:1 13:1 14:1 788:1 4122:1 4123:1 
0.4371394474354091 2:1 4:1 8:1 9:1 13:1 14:1 27:1 40:1 46:1 65:1 73:1 95:1 216:1 262:1 282:1 324:1 326:1 413:1 462:1 4129:1 4130:1 
0.1238123710055021 1:1 2:1 3:1 4:1 12:1 13:1 14:1 19:1 30:1 63:1 75:1 90:1 127:1 287:1 306:1 389:1 434:1 532:1 805:1 845:1 974:1 1094:1 4133:1 4134:1 4135:1 
0.4190229046860571 1:1 2:1 3:1 4:1 9:1 13:1 14:1 34:1 48:1 55:1 63:1 92:1 99:1 159:1 228:1 238:1 894:1 1300:1 1588:1 2227:1 4137:1 4138:1 4139:1 
0.2540706748200635 2:1 4:1 12:1 13:1 14:1 27:1 42:1 48:1 63:1 84:1 192:1 262:1 326:1 358:1 379:1 429:1 743:1 759:1 1116:1 4140:1 
1 1:1 2:1 3:1 4:1 5:1 13:1 14:1 19:1 32:1 47:1 72:1 90:1 107:1 197:1 273:1 315:1 364:1 847:1 3938:1 
0.08260183853308603 2:1 4:1 10:1 12:1 13:1 14:1 16:1 238:1 1812:1 4141:1 4142:1 
1 2:1 4:1 13:1 14:1 84:1 2034:1 
0.2481469513658913 2:1 4:1 5:1 8:1 13:1 14:1 54:1 56:1 62:1 68:1 71:1 93:1 95:1 97:1 101:1 194:1 315:1 535:1 569:1 1436:1 
0.1696433702829845 2:1 4:1 13:1 14:1 32:1 109:1 124:1 141:1 150:1 548:1 639:1 1194:1 4150:1 
0.558102119021039 2:1 4:1 12:1 13:1 14:1 47:1 55:1 62:1 66:1 75:1 101:1 262:1 992:1 4151:1 
1 2:1 4:1 13:1 14:1 19:1 63:1 141:1 145:1 149:1 817:1 1242:1 1437:1 2877:1 
0.02152021220865772 2:1 4:1 12:1 13:1 14:1 42:1 68:1 75:1 105:1 141:1 575:1 1068:1 1404:1 2747:1 4152:1 4153:1 4154:1 4155:1 4156:1 
0.333317433819258 2:1 4:1 5:1 13:1 14:1 84:1 111:1 215:1 351:1 360:1 561:1 701:1 817:1 3790:1 
0.1023197033533031 1:1 2:1 3:1 4:1 5:1 6:1 8:1 13:1 14:1 42:1 46:1 75:1 267:1 515:1 649:1 958:1 1144:1 1767:1 1909:1 4004:1 
0.02699938530676054 2:1 4:1 13:1 14:1 4170:1 
0.4837576251551284 2:1 4:1 5:1 8:1 13:1 14:1 20:1 38:1 56:1 71:1 84:1 99:1 108:1 109:1 159:1 232:1 240:1 379:1 759:1 1185:1 1189:1 2585:1 3275:1 4171:1 4172:1 4173:1 
0.1348400121906101 2:1 4:1 13:1 14:1 38:1 68:1 84:1 805:1 1402:1 4175:1 4176:1 4177:1 
1 2:1 4:1 8:1 10:1 13:1 14:1 43:1 48:1 60:1 75:1 82:1 232:1 733:1 809:1 4178:1 
1 2:1 4:1 5:1 6:1 13:1 14:1 82:1 
1 2:1 4:1 5:1 12:1 13:1 14:1 46:1 55:1 56:1 63:1 66:1 84:1 99:1 109:1 135:1 159:1 163:1 289:1 769:1 1032:1 1061:1 1194:1 1300:1 1539:1 1589:1 2037:1 2522:1 
0.3521369662247451 1:1 2:1 3:1 4:1 5:1 6:1 13:1 14:1 19:1 63:1 75:1 84:1 90:1 135:1 159:1 353:1 573:1 2191:1 
0.1099692747654696 2:1 4:1 13:1 14:1 63:1 71:1 326:1 1992:1 4185:1 4186:1 
1 2:1 4:1 5:1 13:1 14:1 47:1 124:1 158:1 229:1 
0.5661798231390941 2:1 4:1 5:1 10:1 13:1 14:1 34:1 38:1 56:1 71:1 75:1 95:1 109:1 123:1 126:1 204:1 205:1 367:1 719:1 1329:1 2222:1 2664:1 3403:1 4188:1 4189:1 4190:1 4191:1 
1 2:1 4:1 5:1 8:1 9:1 13:1 14:1 46:1 56:1 75:1 84:1 86:1 95:1 109:1 150:1 159:1 215:1 248:1 293:1 710:1 865:1 869:1 2286:1 2466:1 2826:1 4193:1 4194:1 4195:1 
0.3938648485392942 1:1 2:1 3:1 4:1 10:1 13:1 14:1 46:1 47:1 48:1 75:1 148:1 315:1 329:1 330:1 331:1 489:1 590:1 932:1 4199:1 
0.7544979675570642 1:1 2:1 3:1 4:1 8:1 10:1 13:1 14:1 31:1 32:1 56:1 63:1 99:1 135:1 248:1 462:1 944:1 4200:1 4201:1 
0.3232687007458831 2:1 4:1 5:1 13:1 14:1 46:1 63:1 82:1 150:1 172:1 173:1 212:1 248:1 262:1 312:1 1270:1 3647:1 4202:1 
1 2:1 4:1 8:1 12:1 13:1 14:1 38:1 71:1 75:1 84:1 121:1 316:1 521:1 1090:1 1830:1 2361:1 2699:1 
0.4506823820672577 1:1 2:1 3:1 4:1 13:1 14:1 38:1 47:1 48:1 75:1 204:1 3028:1 3143:1 
1 1:1 2:1 3:1 4:1 13:1 14:1 102:1 107:1 121:1 186:1 316:1 462:1 4204:1 
1 1:1 2:1 3:1 4:1 13:1 14:1 19:1 23:1 27:1 34:1 48:1 56:1 63:1 75:1 78:1 84:1 95:1 109:1 114:1 130:1 159:1 173:1 267:1 311:1 315:1 320:1 347:1 413:1 507:1 549:1 1278:1 2004:1 2579:1 
1 1:1 2:1 3:1 4:1 8:1 13:1 14:1 47:1 68:1 163:1 200:1 203:1 573:1 2260:1 
0.1306659205042214 2:1 4:1 12:1 13:1 14:1 72:1 1505:1 4208:1 4209:1 4210:1 
1 2:1 4:1 13:1 14:1 38:1 75:1 112:1 123:1 124:1 201:1 202:1 204:1 262:1 649:1 1068:1 1316:1 
1 2:1 4:1 5:1 6:1 13:1 14:1 63:1 75:1 84:1 135:1 159:1 353:1 573:1 2191:1 
0.2998236310546729 2:1 4:1 5:1 6:1 13:1 14:1 31:1 32:1 63:1 84:1 135:1 159:1 649:1 2269:1 3004:1 4213:1 
0.1699732258583617 2:1 4:1 13:1 14:1 38:1 42:1 72:1 324:1 325:1 327:1 847:1 1070:1 4215:1 4216:1 4217:1 4218:1 
1 2:1 4:1 9:1 10:1 13:1 14:1 92:1 101:1 107:1 109:1 135:1 164:1 573:1 590:1 1032:1 
0.859708903309611 2:1 4:1 9:1 13:1 14:1 31:1 32:1 38:1 42:1 101:1 365:1 548:1 1330:1 1334:1 2669:1 2770:1 2959:1 3471:1 4224:1 4225:1 4226:1 
1 1:1 2:1 3:1 4:1 8:1 12:1 13:1 14:1 42:1 50:1 56:1 72:1 95:1 101:1 124:1 440:1 462:1 497:1 694:1 834:1 1418:1 1710:1 4227:1 4228:1 
0.2423687506643463 2:1 4:1 13:1 14:1 42:1 57:1 63:1 4231:1 4232:1 
0.4651331520762286 1:1 2:1 3:1 4:1 5:1 13:1 14:1 16:1 19:1 71:1 90:1 123:1 159:1 235:1 338:1 1229:1 1309:1 4233:1 
1 2:1 4:1 13:1 14:1 63:1 102:1 186:1 262:1 602:1 1100:1 
1 2:1 4:1 5:1 13:1 14:1 93:1 95:1 101:1 324:1 
0.2620093144025136 2:1 4:1 8:1 13:1 14:1 27:1 32:1 72:1 111:1 232:1 364:1 367:1 719:1 1162:1 1985:1 3246:1 3618:1 4236:1 4237:1 
0.07247086635417792 1:1 2:1 3:1 4:1 8:1 13:1 14:1 46:1 84:1 101:1 158:1 159:1 216:1 396:1 805:1 1028:1 1435:1 2042:1 2157:1 4238:1 4239:1 4240:1 4241:1 
0.09509486954382708 2:1 4:1 13:1 14:1 47:1 71:1 158:1 326:1 358:1 1368:1 4242:1 
1 2:1 4:1 5:1 12:1 13:1 14:1 41:1 42:1 47:1 63:1 95:1 102:1 111:1 135:1 347:1 497:1 684:1 1116:1 4244:1 
1 2:1 4:1 5:1 13:1 14:1 108:1 109:1 110:1 123:1 159:1 1300:1 4192:1 
0.3430003007874533 2:1 4:1 5:1 6:1 13:1 14:1 57:1 63:1 135:1 222:1 2574:1 4251:1 
1 2:1 4:1 8:1 13:1 14:1 38:1 41:1 46:1 56:1 63:1 66:1 75:1 84:1 99:1 107:1 158:1 248:1 379:1 428:1 446:1 503:1 515:1 649:1 1297:1 4259:1 4260:1 
1 2:1 4:1 5:1 13:1 14:1 32:1 56:1 63:1 72:1 79:1 84:1 95:1 147:1 172:1 215:1 216:1 262:1 273:1 281:1 326:1 518:1 887:1 976:1 1330:1 1337:1 2420:1 4150:1 4262:1 
0.7512248595176949 2:1 4:1 12:1 13:1 14:1 42:1 68:1 72:1 141:1 150:1 179:1 518:1 608:1 4263:1 
1 2:1 4:1 12:1 13:1 14:1 46:1 63:1 84:1 97:1 107:1 164:1 197:1 216:1 781:1 2302:1 2490:1 2607:1 3702:1 
0.4372643242507889 2:1 4:1 13:1 14:1 47:1 63:1 107:1 159:1 367:1 413:1 829:1 1038:1 2281:1 2296:1 2374:1 
1 2:1 4:1 8:1 13:1 14:1 33:1 42:1 56:1 63:1 127:1 248:1 347:1 522:1 628:1 944:1 1383:1 1812:1 
0.1046970836316393 2:1 4:1 5:1 13:1 14:1 42:1 56:1 66:1 68:1 75:1 92:1 95:1 99:1 109:1 165:1 282:1 293:1 312:1 500:1 1103:1 4042:1 4267:1 4268:1 4269:1 
0.178382861601119 2:1 4:1 13:1 14:1 25:1 72:1 306:1 4270:1 4271:1 
1 2:1 4:1 13:1 14:1 48:1 141:1 158:1 215:1 302:1 476:1 
0.3444271672467977 2:1 4:1 12:1 13:1 14:1 20:1 159:1 438:1 622:1 2709:1 2735:1 
1 2:1 4:1 5:1 10:1 12:1 13:1 14:1 32:1 37:1 48:1 63:1 75:1 84:1 95:1 109:1 277:1 279:1 282:1 292:1 483:1 1116:1 1270:1 1690:1 3623:1 4275:1 4276:1 
0.2033730320300781 2:1 4:1 5:1 12:1 13:1 14:1 84:1 192:1 202:1 215:1 262:1 340:1 502:1 2398:1 4283:1 
0.04191180713946879 1:1 2:1 3:1 4:1 12:1 13:1 14:1 46:1 63:1 75:1 94:1 95:1 109:1 150:1 189:1 194:1 229:1 232:1 743:1 754:1 903:1 1227:1 1520:1 2119:1 
0.5991710629828721 2:1 4:1 5:1 13:1 14:1 52:1 215:1 364:1 807:1 
0.6114935895782651 2:1 4:1 13:1 14:1 63:1 86:1 99:1 326:1 894:1 1194:1 4286:1 
1 2:1 4:1 5:1 6:1 13:1 14:1 201:1 202:1 472:1 2346:1 
1 2:1 4:1 13:1 14:1 19:1 48:1 84:1 580:1 641:1 642:1 783:1 3183:1 3792:1 
0.3369009098076752 1:1 2:1 3:1 4:1 8:1 13:1 14:1 32:1 42:1 46:1 55:1 63:1 66:1 72:1 116:1 197:1 240:1 267:1 349:1 364:1 372:1 433:1 439:1 671:1 798:1 911:1 1046:1 2040:1 2710:1 3770:1 4037:1 4290:1 4291:1 
1 2:1 4:1 13:1 14:1 31:1 32:1 38:1 50:1 94:1 95:1 97:1 101:1 164:1 189:1 240:1 318:1 3478:1 4296:1 
0.5351003303463255 2:1 4:1 5:1 6:1 13:1 14:1 27:1 30:1 51:1 56:1 72:1 112:1 120:1 150:1 429:1 694:1 712:1 728:1 1538:1 2348:1 
0.2064471848641708 2:1 4:1 13:1 14:1 63:1 71:1 72:1 84:1 150:1 226:1 367:1 618:1 3609:1 3984:1 4301:1 
0.04369267341438664 2:1 4:1 5:1 13:1 14:1 71:1 150:1 156:1 479:1 2585:1 4306:1 4307:1 4308:1 4309:1 4310:1 
1 2:1 4:1 13:1 14:1 1696:1 
0.2929427776453774 2:1 4:1 13:1 14:1 54:1 63:1 94:1 95:1 97:1 101:1 164:1 781:1 2508:1 4312:1 4313:1 4314:1 
0.02286894944015395 2:1 4:1 13:1 14:1 23:1 46:1 65:1 83:1 159:1 316:1 759:1 4316:1 
0.5263894730558013 2:1 4:1 12:1 13:1 14:1 32:1 55:1 56:1 72:1 75:1 84:1 101:1 159:1 216:1 271:1 367:1 1801:1 4317:1 
0.2975431653216429 2:1 4:1 5:1 6:1 13:1 14:1 63:1 64:1 75:1 78:1 283:1 1589:1 4021:1 4321:1 
0.1298546811791723 2:1 4:1 5:1 13:1 14:1 19:1 84:1 99:1 159:1 295:1 299:1 433:1 845:1 1094:1 1383:1 1478:1 
0.2266153084499199 2:1 4:1 13:1 14:1 29:1 48:1 56:1 72:1 84:1 107:1 115:1 132:1 133:1 165:1 349:1 456:1 507:1 743:1 1079:1 1407:1 2488:1 2662:1 3759:1 4324:1 4325:1 4326:1 
1 2:1 4:1 10:1 13:1 14:1 17:1 19:1 27:1 34:1 42:1 63:1 72:1 84:1 101:1 108:1 109:1 120:1 124:1 159:1 240:1 248:1 293:1 295:1 299:1 743:1 1773:1 1874:1 2545:1 2597:1 2964:1 4327:1 4328:1 
1 2:1 4:1 5:1 6:1 13:1 14:1 38:1 42:1 63:1 72:1 82:1 97:1 127:1 135:1 139:1 159:1 767:1 2420:1 2668:1 
0.2023954004445701 2:1 4:1 13:1 14:1 65:1 97:1 107:1 175:1 202:1 210:1 316:1 340:1 436:1 
1 2:1 4:1 13:1 14:1 42:1 63:1 107:1 121:1 175:1 316:1 561:1 1346:1 1536:1 3755:1 3756:1 
