svm_type c_svc
kernel_type rbf
gamma 4.78446e-05
nr_class 5
total_sv 31975
rho 1.20759 -0.862592 0.80343 1.01408 -1.00549 0.393591 0.861855 0.754597 0.922493 -0.264547
label 4 0 3 1 2
nr_sv 5447 6138 4532 8219 7639
SV
1 1 1 1 4:1 5:1 7:1 
1 1 1 1 11:1 14:1 15:1 16:1 17:1 
1 1 1 1 19:1 20:1 21:1 22:1 
1 1 1 1 2:1 24:1 25:1 26:1 27:1 28:1 29:1 30:1 31:1 32:1 
1 1 1 1 34:1 35:1 36:1 37:1 40:1 41:1 42:1 
1 1 1 1 7:1 45:1 46:1 47:1 48:1 49:1 50:1 51:1 54:1 55:1 56:1 57:1 58:1 
1 1 1 1 39:1 41:1 59:1 60:1 61:1 62:1 63:1 64:1 65:1 66:1 67:1 68:1 69:1 70:1 71:1 72:1 
1 1 1 1 66:1 74:1 77:1 78:1 79:1 
1 1 1 1 55:1 64:1 81:1 82:1 83:1 84:1 85:1 87:1 88:1 89:1 90:1 
1 1 1 1 31:1 49:1 91:1 92:1 93:1 94:1 95:1 96:1 
1 1 1 1 45:1 63:1 66:1 75:1 98:1 100:1 101:1 102:1 103:1 105:1 106:1 
1 1 1 1 2:1 41:1 64:1 110:1 111:1 
1 0 1 1 53:1 60:1 63:1 75:1 113:1 114:1 115:1 118:1 119:1 
1 1 1 1 45:1 54:1 58:1 121:1 122:1 
1 0 1 1 22:1 123:1 124:1 
1 1 1 1 18:1 55:1 66:1 125:1 126:1 127:1 
1 1 1 1 58:1 75:1 129:1 130:1 131:1 132:1 133:1 
1 1 1 1 40:1 96:1 134:1 135:1 136:1 137:1 
1 1 1 1 39:1 55:1 63:1 75:1 139:1 140:1 141:1 142:1 144:1 
1 1 1 1 35:1 49:1 50:1 146:1 147:1 148:1 
1 1 1 1 58:1 63:1 66:1 113:1 150:1 151:1 
1 1 1 1 5:1 40:1 49:1 85:1 125:1 152:1 153:1 154:1 155:1 156:1 157:1 158:1 
1 1 1 1 25:1 31:1 64:1 66:1 113:1 114:1 155:1 159:1 
1 1 1 1 31:1 55:1 161:1 162:1 163:1 164:1 165:1 166:1 3714:1 
1 0 1 1 63:1 66:1 113:1 151:1 168:1 169:1 170:1 171:1 
1 1 1 1 41:1 147:1 172:1 173:1 174:1 
1 1 1 1 63:1 66:1 147:1 175:1 176:1 177:1 178:1 179:1 181:1 
1 1 1 1 41:1 261:1 
1 0 1 1 45:1 49:1 55:1 106:1 158:1 186:1 187:1 189:1 190:1 762:1 5756:1 
1 1 1 1 72:1 112:1 191:1 
1 1 1 1 5:1 41:1 55:1 83:1 85:1 193:1 194:1 
1 0 1 1 22:1 195:1 196:1 
1 0 1 1 22:1 198:1 
1 1 1 1 27:1 42:1 55:1 58:1 63:1 97:1 159:1 161:1 200:1 201:1 3714:1 
1 1 1 1 14:1 147:1 203:1 
1 1 1 1 63:1 161:1 204:1 205:1 206:1 3714:1 
1 0 1 1 22:1 27:1 51:1 209:1 210:1 
1 1 1 1 5:1 55:1 63:1 75:1 212:1 213:1 215:1 216:1 217:1 218:1 219:1 220:1 221:1 222:1 223:1 224:1 
1 1 1 1 2:1 82:1 83:1 153:1 
1 0 1 1 39:1 41:1 46:1 55:1 226:1 227:1 228:1 
1 1 1 1 69:1 151:1 229:1 
1 1 1 1 181:1 230:1 231:1 232:1 233:1 
1 1 1 1 2:1 20:1 183:1 193:1 201:1 225:1 228:1 235:1 236:1 237:1 238:1 239:1 240:1 241:1 
1 1 1 1 66:1 243:1 
1 1 1 1 5:1 49:1 
1 1 1 1 58:1 245:1 
1 1 1 1 40:1 69:1 247:1 248:1 
1 0 1 1 41:1 55:1 66:1 89:1 251:1 252:1 253:1 255:1 256:1 
1 1 1 1 41:1 42:1 66:1 75:1 136:1 147:1 259:1 261:1 262:1 263:1 264:1 265:1 266:1 
1 1 1 1 268:1 269:1 270:1 271:1 272:1 273:1 274:1 275:1 3714:1 
1 1 1 1 2:1 5:1 63:1 70:1 82:1 89:1 147:1 171:1 277:1 278:1 279:1 280:1 281:1 282:1 
1 1 1 1 5:1 7:1 40:1 85:1 106:1 283:1 284:1 286:1 287:1 288:1 289:1 
1 1 1 1 25:1 75:1 147:1 290:1 291:1 292:1 293:1 
1 1 1 1 27:1 294:1 295:1 
1 1 1 1 11:1 35:1 58:1 63:1 75:1 198:1 296:1 297:1 298:1 299:1 300:1 
1 1 1 1 2:1 42:1 66:1 73:1 96:1 181:1 274:1 301:1 303:1 304:1 305:1 306:1 
1 1 1 1 39:1 41:1 42:1 55:1 69:1 130:1 309:1 310:1 311:1 312:1 313:1 314:1 315:1 
1 1 1 1 
1 1 1 1 321:1 
1 1 1 1 63:1 66:1 82:1 96:1 138:1 147:1 153:1 261:1 324:1 325:1 762:1 1082:1 
1 1 1 1 42:1 327:1 
1 1 1 1 
1 1 1 1 2:1 138:1 331:1 
1 1 1 1 
1 1 1 1 5:1 54:1 55:1 126:1 130:1 147:1 155:1 171:1 304:1 334:1 335:1 336:1 337:1 3714:1 
1 1 1 1 2:1 31:1 41:1 75:1 109:1 111:1 138:1 229:1 338:1 
1 1 1 1 55:1 75:1 89:1 158:1 183:1 229:1 340:1 341:1 342:1 343:1 
1 1 1 1 35:1 39:1 40:1 344:1 345:1 346:1 347:1 
1 1 1 1 66:1 89:1 163:1 348:1 349:1 350:1 351:1 352:1 354:1 355:1 
1 0 1 1 55:1 63:1 66:1 75:1 113:1 128:1 208:1 356:1 357:1 358:1 
1 1 1 1 70:1 359:1 
1 1 1 1 40:1 64:1 361:1 362:1 363:1 
1 1 1 1 7:1 25:1 41:1 126:1 241:1 364:1 366:1 
1 0 1 1 22:1 41:1 54:1 66:1 114:1 
1 1 1 1 
1 1 1 1 41:1 82:1 183:1 274:1 320:1 366:1 369:1 371:1 372:1 373:1 375:1 376:1 377:1 378:1 379:1 
1 1 1 1 35:1 41:1 147:1 380:1 381:1 382:1 383:1 384:1 385:1 386:1 
1 1 1 1 20:1 25:1 55:1 75:1 82:1 162:1 241:1 387:1 388:1 
1 1 1 1 55:1 183:1 216:1 389:1 390:1 391:1 392:1 
1 1 1 1 5:1 25:1 38:1 89:1 147:1 240:1 312:1 394:1 395:1 396:1 
1 1 1 1 5:1 45:1 49:1 55:1 56:1 57:1 66:1 84:1 103:1 121:1 153:1 398:1 399:1 400:1 401:1 402:1 403:1 
1 1 1 1 35:1 49:1 66:1 147:1 241:1 404:1 405:1 406:1 407:1 408:1 409:1 
1 1 1 1 57:1 128:1 411:1 412:1 413:1 414:1 415:1 762:1 5756:1 
1 1 1 1 66:1 147:1 416:1 417:1 418:1 
1 0 1 1 49:1 55:1 91:1 119:1 126:1 170:1 190:1 201:1 412:1 419:1 420:1 
1 1 1 1 66:1 421:1 
1 1 1 1 60:1 114:1 
1 1 1 1 5:1 49:1 82:1 85:1 762:1 5756:1 
1 1 1 1 49:1 75:1 408:1 425:1 426:1 427:1 428:1 
1 1 1 1 25:1 75:1 103:1 147:1 237:1 430:1 432:1 
1 1 1 1 35:1 55:1 69:1 98:1 344:1 433:1 3714:1 
1 1 1 1 27:1 31:1 66:1 75:1 82:1 121:1 333:1 435:1 436:1 437:1 438:1 439:1 
1 1 1 1 
1 1 1 1 2:1 35:1 41:1 55:1 66:1 109:1 190:1 292:1 331:1 440:1 441:1 442:1 
1 1 1 1 75:1 443:1 444:1 445:1 446:1 
1 1 1 1 5:1 7:1 25:1 40:1 41:1 58:1 66:1 70:1 85:1 96:1 229:1 311:1 447:1 448:1 449:1 450:1 451:1 453:1 455:1 
1 1 1 1 27:1 39:1 44:1 55:1 66:1 84:1 297:1 456:1 457:1 458:1 
1 1 1 1 158:1 216:1 459:1 460:1 461:1 
1 1 1 1 183:1 463:1 
1 1 1 1 12:1 75:1 465:1 466:1 467:1 468:1 469:1 470:1 471:1 
1 1 1 1 7:1 55:1 63:1 126:1 218:1 220:1 238:1 239:1 310:1 352:1 472:1 473:1 
1 1 1 1 82:1 311:1 
1 1 1 1 97:1 292:1 312:1 474:1 476:1 477:1 
1 1 1 1 5:1 34:1 55:1 201:1 478:1 479:1 480:1 
1 1 1 1 35:1 40:1 55:1 63:1 109:1 112:1 181:1 227:1 443:1 482:1 483:1 
1 1 1 1 31:1 39:1 42:1 66:1 67:1 96:1 109:1 114:1 197:1 198:1 331:1 484:1 485:1 
1 1 1 1 55:1 486:1 
1 1 1 1 489:1 
1 1 1 1 54:1 490:1 491:1 
1 0 1 1 22:1 39:1 53:1 55:1 60:1 118:1 126:1 372:1 418:1 437:1 492:1 493:1 494:1 495:1 498:1 499:1 500:1 501:1 
1 0 1 1 55:1 60:1 113:1 132:1 161:1 163:1 390:1 503:1 504:1 
1 1 1 1 7:1 35:1 55:1 96:1 119:1 122:1 269:1 275:1 505:1 506:1 507:1 508:1 
1 0 1 1 55:1 63:1 69:1 75:1 147:1 509:1 510:1 
1 1 1 1 513:1 
1 1 1 1 41:1 
1 1 1 1 66:1 138:1 226:1 516:1 
1 1 1 1 18:1 49:1 518:1 519:1 
1 1 1 1 11:1 115:1 190:1 520:1 523:1 
1 1 1 1 22:1 42:1 138:1 524:1 525:1 526:1 
1 0 1 1 55:1 63:1 66:1 75:1 97:1 147:1 161:1 263:1 292:1 312:1 527:1 528:1 
1 1 1 1 35:1 147:1 198:1 483:1 
1 1 1 1 
1 0 1 1 40:1 41:1 60:1 70:1 198:1 216:1 240:1 273:1 301:1 530:1 531:1 1156:1 
1 0 1 1 22:1 63:1 66:1 347:1 
1 1 1 1 5:1 7:1 38:1 39:1 53:1 55:1 75:1 97:1 119:1 138:1 147:1 189:1 261:1 364:1 391:1 401:1 535:1 536:1 540:1 541:1 542:1 
1 1 1 1 35:1 42:1 243:1 543:1 
1 1 1 1 327:1 352:1 544:1 545:1 
1 1 1 1 75:1 147:1 546:1 547:1 548:1 
1 1 1 1 7:1 40:1 201:1 322:1 331:1 336:1 402:1 550:1 
1 0 1 1 41:1 55:1 82:1 126:1 200:1 552:1 
1 0 1 1 55:1 122:1 126:1 132:1 
1 1 1 1 55:1 339:1 390:1 553:1 3714:1 
1 0 1 1 22:1 63:1 64:1 374:1 
1 1 1 1 
1 1 1 1 66:1 85:1 147:1 229:1 299:1 555:1 556:1 762:1 1082:1 
1 1 1 1 27:1 34:1 35:1 41:1 55:1 109:1 118:1 126:1 138:1 147:1 194:1 237:1 430:1 557:1 558:1 560:1 
1 1 1 1 75:1 561:1 
1 0 1 1 55:1 181:1 209:1 
1 1 1 1 
1 1 1 1 568:1 
1 1 1 1 66:1 151:1 187:1 261:1 466:1 569:1 570:1 571:1 573:1 574:1 
1 1 1 1 55:1 89:1 201:1 335:1 575:1 
1 1 1 1 55:1 114:1 576:1 
1 0 1 1 40:1 45:1 63:1 66:1 148:1 577:1 578:1 579:1 580:1 
1 1 1 1 35:1 147:1 261:1 296:1 547:1 582:1 
1 1 1 1 14:1 31:1 40:1 41:1 96:1 335:1 517:1 584:1 585:1 586:1 587:1 588:1 
1 1 1 1 22:1 362:1 
1 0 1 1 55:1 75:1 344:1 590:1 591:1 
1 1 1 1 22:1 69:1 
1 1 1 1 592:1 
1 0 1 1 27:1 55:1 63:1 75:1 161:1 593:1 594:1 3714:1 
1 0 1 1 41:1 147:1 148:1 195:1 196:1 595:1 
1 1 1 1 
1 1 1 1 
1 1 1 1 5:1 7:1 22:1 55:1 66:1 485:1 598:1 600:1 601:1 
1 1 1 1 22:1 39:1 
1 1 1 1 55:1 66:1 96:1 130:1 137:1 312:1 331:1 602:1 603:1 604:1 
1 1 1 1 35:1 606:1 607:1 
1 1 1 1 63:1 88:1 132:1 391:1 610:1 611:1 612:1 613:1 
1 1 1 1 41:1 148:1 274:1 614:1 
1 1 1 1 31:1 40:1 60:1 64:1 66:1 615:1 616:1 
1 1 1 1 617:1 618:1 
1 1 1 1 619:1 
1 0 1 1 22:1 63:1 103:1 
1 1 1 1 40:1 118:1 159:1 620:1 
1 1 1 1 5:1 75:1 147:1 344:1 621:1 
1 1 1 1 41:1 49:1 64:1 85:1 152:1 524:1 622:1 623:1 624:1 625:1 626:1 627:1 628:1 
1 1 1 1 629:1 630:1 631:1 634:1 
1 1 1 1 27:1 66:1 121:1 216:1 220:1 597:1 636:1 
1 1 1 1 41:1 42:1 75:1 175:1 395:1 430:1 570:1 637:1 638:1 639:1 
1 1 1 1 35:1 39:1 55:1 58:1 63:1 147:1 333:1 344:1 466:1 570:1 640:1 641:1 642:1 643:1 644:1 645:1 
1 1 1 1 5:1 60:1 66:1 601:1 646:1 
1 1 1 1 75:1 138:1 153:1 556:1 762:1 1082:1 
1 1 1 1 55:1 66:1 138:1 147:1 358:1 651:1 652:1 653:1 654:1 655:1 656:1 657:1 658:1 659:1 
1 1 1 1 
1 1 1 1 39:1 41:1 46:1 55:1 226:1 227:1 228:1 
1 1 1 1 55:1 60:1 114:1 128:1 151:1 535:1 660:1 
1 0 1 1 22:1 196:1 
1 1 1 1 42:1 242:1 
1 1 1 1 5:1 22:1 26:1 44:1 57:1 66:1 195:1 196:1 312:1 415:1 508:1 553:1 664:1 
1 1 1 1 21:1 27:1 31:1 42:1 82:1 159:1 261:1 301:1 466:1 473:1 665:1 668:1 6907:1 
1 1 1 1 5:1 49:1 55:1 60:1 87:1 115:1 158:1 186:1 315:1 668:1 670:1 
1 1 1 1 40:1 275:1 430:1 508:1 535:1 1018:1 
1 0 1 1 40:1 63:1 85:1 153:1 237:1 240:1 374:1 676:1 677:1 678:1 
1 1 1 1 7:1 39:1 64:1 66:1 75:1 215:1 220:1 483:1 679:1 680:1 681:1 682:1 683:1 684:1 685:1 686:1 687:1 
1 1 1 1 132:1 228:1 690:1 
1 0 1 1 22:1 198:1 
1 1 1 1 63:1 229:1 464:1 691:1 
1 1 1 1 40:1 66:1 147:1 237:1 388:1 463:1 692:1 693:1 694:1 
1 1 1 1 35:1 55:1 138:1 163:1 695:1 696:1 
1 1 1 1 333:1 697:1 
1 0 1 1 63:1 82:1 163:1 216:1 344:1 613:1 698:1 699:1 
1 1 1 1 315:1 466:1 570:1 700:1 701:1 
1 1 1 1 41:1 221:1 597:1 658:1 702:1 
1 1 1 1 42:1 63:1 159:1 344:1 472:1 703:1 704:1 705:1 706:1 707:1 708:1 
1 1 1 1 40:1 75:1 248:1 315:1 710:1 711:1 
1 1 1 1 5:1 87:1 97:1 121:1 138:1 162:1 220:1 229:1 478:1 568:1 712:1 713:1 714:1 717:1 718:1 
1 1 1 1 35:1 123:1 148:1 159:1 248:1 570:1 
1 1 1 1 7:1 35:1 66:1 136:1 297:1 719:1 720:1 
1 1 1 1 5:1 96:1 137:1 152:1 426:1 597:1 721:1 
1 1 1 1 5:1 35:1 40:1 55:1 63:1 70:1 96:1 119:1 237:1 479:1 722:1 723:1 724:1 725:1 726:1 
1 1 1 1 41:1 55:1 66:1 96:1 339:1 728:1 729:1 730:1 
1 0 1 1 55:1 66:1 119:1 181:1 731:1 
1 1 1 1 44:1 344:1 732:1 6907:1 
1 1 1 1 623:1 734:1 3714:1 
1 1 1 1 7:1 66:1 327:1 347:1 373:1 735:1 
1 1 1 1 27:1 55:1 66:1 349:1 592:1 657:1 
1 0 1 1 22:1 195:1 196:1 
1 1 1 1 63:1 201:1 473:1 691:1 
1 0 1 1 22:1 42:1 54:1 63:1 70:1 147:1 162:1 198:1 301:1 727:1 736:1 737:1 
1 1 1 1 55:1 66:1 96:1 130:1 137:1 312:1 331:1 602:1 603:1 604:1 
1 1 1 1 
1 1 1 1 66:1 82:1 334:1 
1 1 1 1 39:1 58:1 60:1 75:1 132:1 551:1 739:1 
1 0 1 1 22:1 165:1 197:1 
1 1 1 1 75:1 343:1 665:1 742:1 743:1 
1 1 1 1 27:1 45:1 82:1 121:1 151:1 320:1 375:1 473:1 542:1 745:1 
1 1 1 1 34:1 35:1 75:1 82:1 114:1 147:1 158:1 186:1 229:1 241:1 274:1 301:1 325:1 372:1 488:1 665:1 746:1 747:1 748:1 6907:1 
1 1 1 1 55:1 87:1 111:1 165:1 751:1 
1 0 1 1 55:1 166:1 391:1 669:1 752:1 762:1 5756:1 
1 1 1 1 96:1 138:1 312:1 347:1 753:1 754:1 755:1 756:1 
1 0 1 1 40:1 54:1 55:1 73:1 75:1 158:1 161:1 162:1 165:1 758:1 759:1 761:1 
1 1 1 1 762:1 763:1 764:1 
1 1 1 1 35:1 40:1 69:1 85:1 89:1 152:1 153:1 274:1 766:1 767:1 
1 1 1 1 55:1 66:1 85:1 151:1 152:1 261:1 336:1 768:1 769:1 770:1 771:1 
1 1 1 1 57:1 63:1 194:1 372:1 641:1 691:1 
1 1 1 1 66:1 89:1 163:1 348:1 349:1 350:1 351:1 352:1 354:1 355:1 
1 0 1 1 41:1 43:1 55:1 75:1 82:1 773:1 774:1 
1 1 1 1 60:1 63:1 66:1 75:1 84:1 138:1 160:1 163:1 350:1 776:1 777:1 778:1 779:1 
1 0 1 1 20:1 55:1 85:1 111:1 122:1 126:1 132:1 274:1 304:1 430:1 
1 0 1 1 55:1 63:1 66:1 113:1 151:1 336:1 782:1 783:1 784:1 785:1 
1 1 1 1 55:1 119:1 439:1 494:1 786:1 787:1 
1 1 1 1 75:1 96:1 122:1 147:1 183:1 723:1 762:1 789:1 5756:1 
1 1 1 1 344:1 791:1 792:1 
1 0 1 1 2:1 55:1 75:1 89:1 119:1 132:1 793:1 794:1 795:1 
1 1 1 1 63:1 64:1 66:1 75:1 97:1 141:1 344:1 796:1 797:1 798:1 799:1 800:1 
1 1 1 1 63:1 
1 1 1 1 39:1 60:1 75:1 89:1 312:1 327:1 542:1 769:1 802:1 803:1 804:1 805:1 806:1 807:1 
1 1 1 1 148:1 181:1 
1 1 1 1 2:1 41:1 64:1 110:1 111:1 
1 1 1 1 7:1 35:1 42:1 63:1 69:1 89:1 96:1 305:1 322:1 342:1 360:1 808:1 809:1 810:1 811:1 812:1 813:1 814:1 815:1 3714:1 
1 1 1 1 22:1 35:1 816:1 
1 1 1 1 5:1 31:1 35:1 39:1 49:1 55:1 89:1 237:1 281:1 333:1 575:1 647:1 817:1 818:1 820:1 821:1 822:1 823:1 
1 1 1 1 
1 1 1 1 25:1 46:1 96:1 305:1 310:1 313:1 824:1 825:1 
1 1 1 1 
1 1 1 1 39:1 49:1 55:1 58:1 126:1 132:1 158:1 827:1 
1 1 1 1 49:1 201:1 442:1 550:1 
1 1 1 1 75:1 165:1 372:1 438:1 444:1 831:1 832:1 
1 1 1 1 12:1 35:1 41:1 229:1 274:1 402:1 430:1 542:1 743:1 834:1 835:1 836:1 
1 1 1 1 40:1 55:1 84:1 96:1 119:1 198:1 201:1 335:1 839:1 840:1 841:1 842:1 
1 1 1 1 727:1 843:1 844:1 
1 1 1 1 
1 1 1 1 38:1 42:1 75:1 87:1 147:1 695:1 803:1 848:1 850:1 851:1 852:1 
1 1 1 1 75:1 113:1 839:1 
1 1 1 1 68:1 854:1 
1 0 1 1 22:1 198:1 418:1 
1 1 1 1 31:1 856:1 
1 1 1 1 20:1 42:1 55:1 66:1 96:1 138:1 200:1 229:1 749:1 857:1 
1 1 1 1 70:1 75:1 119:1 296:1 390:1 762:1 5756:1 
1 0 1 1 41:1 63:1 66:1 70:1 261:1 347:1 374:1 391:1 
1 1 1 1 31:1 114:1 115:1 
1 1 1 1 40:1 767:1 
1 1 1 1 
1 0 1 1 22:1 60:1 113:1 114:1 115:1 
1 1 1 1 27:1 762:1 862:1 5756:1 
1 1 1 1 82:1 401:1 863:1 864:1 865:1 
1 1 1 1 7:1 72:1 199:1 
1 1 1 1 63:1 66:1 106:1 166:1 190:1 714:1 867:1 868:1 
1 0 1 1 22:1 60:1 114:1 115:1 
1 1 1 1 41:1 221:1 252:1 
1 0 1 1 22:1 27:1 63:1 75:1 153:1 219:1 301:1 623:1 762:1 870:1 871:1 5756:1 
1 1 1 1 22:1 873:1 
1 1 1 1 31:1 66:1 109:1 484:1 492:1 695:1 874:1 875:1 876:1 
1 1 1 1 31:1 39:1 60:1 66:1 147:1 229:1 313:1 347:1 361:1 657:1 877:1 878:1 881:1 884:1 
1 1 1 1 27:1 39:1 44:1 55:1 66:1 84:1 297:1 456:1 457:1 458:1 
1 0 1 1 40:1 45:1 63:1 66:1 148:1 577:1 578:1 579:1 580:1 
1 1 1 1 27:1 31:1 35:1 38:1 40:1 55:1 69:1 886:1 887:1 888:1 
1 1 1 1 75:1 113:1 891:1 
1 1 1 1 333:1 836:1 893:1 894:1 895:1 
1 0 1 1 55:1 69:1 75:1 131:1 897:1 898:1 
1 1 1 1 122:1 3714:1 
1 1 1 1 55:1 83:1 155:1 227:1 331:1 344:1 899:1 900:1 901:1 906:1 
1 1 1 1 31:1 39:1 41:1 112:1 132:1 908:1 909:1 
1 0 1 1 27:1 38:1 40:1 41:1 55:1 96:1 158:1 274:1 328:1 430:1 831:1 881:1 910:1 
1 1 1 1 7:1 54:1 75:1 83:1 112:1 248:1 911:1 
1 1 1 1 60:1 75:1 114:1 165:1 
1 1 1 1 2:1 138:1 241:1 912:1 913:1 914:1 915:1 916:1 
1 0 1 1 113:1 132:1 347:1 914:1 
1 0 1 1 22:1 63:1 
1 1 1 1 42:1 327:1 
1 1 1 1 919:1 921:1 922:1 923:1 924:1 925:1 928:1 
1 1 1 1 34:1 35:1 40:1 488:1 505:1 
1 1 1 1 7:1 55:1 66:1 930:1 931:1 932:1 
1 1 1 1 39:1 41:1 48:1 55:1 60:1 66:1 122:1 137:1 933:1 934:1 935:1 938:1 939:1 
1 1 1 1 138:1 216:1 220:1 297:1 517:1 
1 1 1 1 55:1 60:1 84:1 96:1 109:1 292:1 333:1 492:1 940:1 
1 1 1 1 22:1 42:1 63:1 871:1 
1 1 1 1 35:1 147:1 347:1 942:1 943:1 
1 1 1 1 55:1 66:1 69:1 89:1 136:1 138:1 147:1 171:1 197:1 274:1 430:1 937:1 944:1 945:1 946:1 
1 0 1 1 2:1 63:1 161:1 286:1 550:1 947:1 3714:1 
1 1 1 1 31:1 40:1 66:1 239:1 724:1 745:1 791:1 948:1 950:1 
1 0 1 1 55:1 75:1 162:1 237:1 261:1 296:1 876:1 951:1 952:1 953:1 954:1 
1 1 1 1 55:1 75:1 147:1 186:1 639:1 872:1 956:1 
1 0 1 1 40:1 55:1 66:1 67:1 72:1 85:1 89:1 176:1 216:1 958:1 
1 1 1 1 75:1 113:1 147:1 944:1 959:1 
1 1 1 1 67:1 344:1 541:1 639:1 960:1 961:1 
1 0 1 1 7:1 22:1 41:1 42:1 55:1 97:1 201:1 208:1 275:1 432:1 462:1 962:1 963:1 
1 1 1 1 124:1 964:1 
1 1 1 1 965:1 
1 1 1 1 7:1 58:1 87:1 89:1 96:1 118:1 159:1 201:1 241:1 335:1 408:1 430:1 966:1 967:1 968:1 969:1 970:1 971:1 
1 1 1 1 193:1 679:1 737:1 
1 1 1 1 14:1 31:1 973:1 975:1 976:1 979:1 980:1 
1 1 1 1 239:1 492:1 724:1 981:1 982:1 
1 0 1 1 22:1 27:1 42:1 55:1 138:1 331:1 579:1 791:1 914:1 
1 1 1 1 97:1 134:1 
1 1 1 1 55:1 63:1 299:1 408:1 509:1 791:1 945:1 984:1 
1 0 1 1 40:1 75:1 97:1 100:1 115:1 138:1 158:1 201:1 248:1 275:1 344:1 372:1 430:1 579:1 762:1 985:1 1082:1 
1 1 1 1 55:1 66:1 69:1 106:1 229:1 275:1 387:1 481:1 506:1 986:1 987:1 
1 1 1 1 31:1 96:1 114:1 462:1 485:1 988:1 989:1 
1 1 1 1 38:1 60:1 115:1 646:1 990:1 
1 1 1 1 75:1 992:1 
1 1 1 1 81:1 994:1 
1 1 1 1 41:1 75:1 179:1 183:1 216:1 471:1 483:1 543:1 
1 1 1 1 33:1 49:1 55:1 126:1 201:1 220:1 336:1 726:1 795:1 997:1 998:1 999:1 1000:1 
1 1 1 1 7:1 58:1 87:1 89:1 96:1 118:1 159:1 201:1 241:1 335:1 408:1 430:1 966:1 967:1 968:1 969:1 970:1 971:1 
1 1 1 1 35:1 55:1 147:1 155:1 252:1 606:1 1001:1 
1 1 1 1 14:1 27:1 42:1 98:1 136:1 147:1 637:1 1003:1 
1 1 1 1 63:1 75:1 304:1 348:1 1006:1 1007:1 1009:1 
1 0 1 1 39:1 69:1 75:1 112:1 114:1 227:1 344:1 1009:1 1012:1 
1 1 1 1 27:1 35:1 57:1 121:1 165:1 226:1 1013:1 1014:1 
1 0 1 1 63:1 113:1 155:1 195:1 196:1 274:1 658:1 1015:1 
1 0 1 1 40:1 96:1 183:1 216:1 278:1 344:1 433:1 
1 1 1 1 7:1 27:1 58:1 75:1 252:1 591:1 1016:1 1017:1 1019:1 
1 0 1 1 40:1 55:1 75:1 126:1 626:1 1020:1 
1 0 1 1 11:1 14:1 31:1 55:1 75:1 119:1 155:1 396:1 601:1 1022:1 1023:1 
1 1 1 1 31:1 395:1 652:1 927:1 1024:1 1025:1 1026:1 
1 1 1 1 5:1 38:1 96:1 241:1 307:1 543:1 839:1 1027:1 1028:1 1029:1 
1 1 1 1 463:1 
1 1 1 1 261:1 1032:1 1033:1 
1 1 1 1 55:1 85:1 331:1 352:1 592:1 1034:1 1035:1 
1 1 1 1 58:1 66:1 241:1 366:1 1036:1 
1 1 1 1 41:1 66:1 
1 1 1 1 58:1 113:1 494:1 495:1 1037:1 1038:1 1039:1 1040:1 
1 0 1 1 55:1 75:1 112:1 196:1 
1 1 1 1 31:1 49:1 64:1 158:1 194:1 391:1 590:1 1043:1 1044:1 
1 1 1 1 1045:1 1046:1 1048:1 
1 1 1 1 5:1 27:1 42:1 55:1 126:1 134:1 485:1 669:1 937:1 1049:1 1050:1 1052:1 3714:1 
1 1 1 1 2:1 55:1 88:1 89:1 111:1 153:1 333:1 743:1 1053:1 1054:1 
1 1 1 1 40:1 97:1 229:1 304:1 310:1 335:1 459:1 492:1 610:1 617:1 1055:1 1056:1 
1 0 1 1 22:1 27:1 39:1 55:1 58:1 63:1 75:1 100:1 147:1 159:1 197:1 736:1 
1 0 1 1 22:1 27:1 31:1 63:1 75:1 114:1 123:1 153:1 155:1 219:1 301:1 623:1 762:1 870:1 871:1 5756:1 
1 1 1 1 22:1 42:1 63:1 96:1 114:1 229:1 310:1 312:1 
1 1 1 1 901:1 
1 1 1 1 7:1 24:1 25:1 41:1 55:1 57:1 69:1 85:1 96:1 137:1 190:1 350:1 415:1 564:1 
1 1 1 1 55:1 63:1 138:1 163:1 301:1 1057:1 1058:1 1059:1 
1 1 1 1 35:1 39:1 147:1 391:1 396:1 1061:1 1062:1 1063:1 1064:1 1065:1 1066:1 
1 1 1 1 42:1 201:1 1067:1 1068:1 
1 1 1 1 55:1 221:1 404:1 1071:1 
1 1 1 1 
1 1 1 1 241:1 366:1 793:1 1072:1 
1 1 1 1 
1 0 1 1 55:1 75:1 113:1 566:1 
1 1 1 1 35:1 39:1 55:1 63:1 66:1 85:1 114:1 165:1 1074:1 1076:1 1077:1 1078:1 
1 1 1 1 22:1 
1 1 1 1 35:1 49:1 50:1 146:1 147:1 148:1 
1 1 1 1 55:1 225:1 665:1 8510:1 
1 0 1 1 22:1 158:1 341:1 342:1 
1 1 1 1 27:1 39:1 121:1 147:1 406:1 637:1 836:1 1003:1 
1 1 1 1 2:1 25:1 35:1 46:1 1086:1 
1 1 1 1 31:1 35:1 119:1 286:1 463:1 606:1 645:1 1069:1 1087:1 
1 0 1 1 22:1 55:1 58:1 159:1 344:1 
1 1 1 1 66:1 84:1 85:1 144:1 1088:1 1089:1 1091:1 1093:1 1094:1 1096:1 
1 0 1 1 63:1 66:1 75:1 113:1 151:1 252:1 742:1 1097:1 
1 1 1 1 11:1 410:1 419:1 466:1 
1 1 1 1 5:1 89:1 349:1 1099:1 
1 0 1 1 27:1 35:1 39:1 41:1 55:1 63:1 89:1 101:1 119:1 136:1 165:1 183:1 383:1 762:1 1101:1 1102:1 1103:1 1104:1 1106:1 5756:1 
1 1 1 1 45:1 85:1 126:1 153:1 187:1 810:1 1109:1 1110:1 
1 1 1 1 22:1 1111:1 1112:1 1113:1 
1 1 1 1 66:1 1114:1 
1 1 1 1 181:1 196:1 
1 1 1 1 40:1 148:1 1115:1 1116:1 
1 1 1 1 70:1 75:1 119:1 296:1 390:1 762:1 5756:1 
1 1 1 1 33:1 38:1 39:1 41:1 42:1 100:1 126:1 241:1 333:1 661:1 
1 1 1 1 75:1 992:1 
1 0 1 1 22:1 45:1 55:1 66:1 196:1 476:1 1015:1 
1 1 1 1 39:1 133:1 
1 1 1 1 75:1 109:1 190:1 248:1 301:1 1117:1 
1 0 1 1 7:1 27:1 38:1 39:1 55:1 66:1 75:1 158:1 344:1 597:1 599:1 1122:1 
1 0 1 1 60:1 75:1 114:1 165:1 197:1 
1 1 1 1 5:1 35:1 42:1 695:1 1124:1 
1 1 1 1 22:1 240:1 
1 1 1 1 41:1 476:1 668:1 
1 1 1 1 109:1 136:1 181:1 1125:1 
1 1 1 1 66:1 75:1 161:1 201:1 331:1 433:1 488:1 812:1 3714:1 
1 1 1 1 75:1 138:1 1097:1 1126:1 
1 1 1 1 27:1 40:1 69:1 70:1 75:1 106:1 229:1 252:1 876:1 1018:1 1128:1 1129:1 1130:1 1131:1 
1 0 1 1 22:1 63:1 223:1 418:1 
1 1 1 1 312:1 623:1 1134:1 1135:1 
1 1 1 1 35:1 138:1 1136:1 1137:1 1138:1 1139:1 
1 1 1 1 35:1 84:1 359:1 462:1 1140:1 1141:1 
1 1 1 1 
1 0 1 1 22:1 75:1 201:1 742:1 1142:1 1143:1 
1 1 1 1 
1 1 1 1 7:1 22:1 41:1 147:1 1144:1 1145:1 1148:1 
1 1 1 1 7:1 35:1 39:1 53:1 57:1 63:1 132:1 194:1 344:1 641:1 759:1 1153:1 1389:1 
1 1 1 1 55:1 66:1 339:1 
1 1 1 1 7:1 35:1 38:1 89:1 163:1 1156:1 1158:1 
1 0 1 1 22:1 196:1 617:1 
1 1 1 1 35:1 128:1 147:1 1160:1 
1 1 1 1 41:1 269:1 628:1 791:1 1162:1 
1 1 1 1 5:1 66:1 488:1 937:1 1163:1 3714:1 
1 1 1 1 2:1 42:1 66:1 73:1 96:1 181:1 274:1 301:1 303:1 304:1 305:1 306:1 
1 1 1 1 5:1 49:1 152:1 
1 1 1 1 122:1 
1 1 1 1 27:1 35:1 85:1 96:1 97:1 147:1 163:1 301:1 304:1 564:1 1165:1 1166:1 1167:1 
1 1 1 1 42:1 83:1 
1 1 1 1 41:1 75:1 1168:1 1169:1 
1 1 1 1 
1 1 1 1 75:1 201:1 241:1 335:1 366:1 489:1 682:1 1170:1 
1 0 1 1 55:1 75:1 742:1 1171:1 1172:1 
1 1 1 1 114:1 158:1 595:1 
1 1 1 1 24:1 25:1 66:1 96:1 136:1 147:1 1167:1 1174:1 1175:1 1176:1 
1 1 1 1 55:1 57:1 132:1 1179:1 1180:1 
1 1 1 1 27:1 55:1 58:1 141:1 150:1 463:1 626:1 1182:1 1183:1 
1 1 1 1 7:1 40:1 75:1 229:1 597:1 737:1 1186:1 
1 0 1 1 22:1 38:1 55:1 113:1 126:1 147:1 151:1 155:1 203:1 1187:1 1188:1 
1 0 1 1 55:1 63:1 66:1 89:1 216:1 223:1 564:1 873:1 914:1 1118:1 1156:1 1189:1 1190:1 1191:1 1192:1 
1 1 1 1 40:1 63:1 201:1 347:1 1143:1 1193:1 
1 1 1 1 12:1 31:1 63:1 66:1 75:1 212:1 552:1 1194:1 
1 1 1 1 75:1 151:1 437:1 742:1 916:1 
1 1 1 1 35:1 113:1 114:1 617:1 1196:1 1197:1 
1 1 1 1 5:1 35:1 55:1 66:1 85:1 138:1 170:1 274:1 331:1 349:1 887:1 1080:1 1199:1 1200:1 1201:1 
1 0 1 1 22:1 60:1 75:1 89:1 96:1 198:1 201:1 485:1 1143:1 1204:1 
1 1 1 1 12:1 147:1 165:1 601:1 714:1 1206:1 
1 1 1 1 63:1 242:1 248:1 
1 1 1 1 344:1 1208:1 
1 1 1 1 63:1 229:1 347:1 374:1 985:1 
1 1 1 1 31:1 55:1 275:1 320:1 1209:1 1210:1 
1 1 1 1 111:1 1211:1 1212:1 
1 0 1 1 22:1 40:1 197:1 
1 1 1 1 31:1 35:1 39:1 63:1 66:1 79:1 89:1 102:1 147:1 844:1 1213:1 1214:1 1215:1 1216:1 1217:1 1218:1 1219:1 1220:1 
1 1 1 1 5:1 27:1 55:1 66:1 85:1 96:1 229:1 331:1 1221:1 1223:1 1224:1 
1 1 1 1 227:1 466:1 1225:1 
1 1 1 1 14:1 25:1 27:1 55:1 66:1 126:1 147:1 176:1 201:1 304:1 766:1 
1 1 1 1 2:1 89:1 219:1 333:1 436:1 1227:1 1228:1 1229:1 
1 0 1 1 55:1 75:1 344:1 591:1 1231:1 1232:1 
1 1 1 1 27:1 31:1 40:1 66:1 121:1 1233:1 1234:1 
1 1 1 1 55:1 344:1 1237:1 
1 1 1 1 22:1 31:1 66:1 114:1 1238:1 1239:1 
1 1 1 1 1240:1 1242:1 
1 1 1 1 315:1 466:1 570:1 700:1 701:1 
1 1 1 1 55:1 1243:1 1244:1 1245:1 
1 1 1 1 42:1 44:1 75:1 810:1 1246:1 1247:1 1248:1 1249:1 
1 1 1 1 5:1 44:1 229:1 767:1 
1 1 1 1 7:1 58:1 307:1 363:1 
1 1 1 1 7:1 35:1 40:1 41:1 58:1 307:1 363:1 501:1 724:1 
1 1 1 1 55:1 96:1 126:1 171:1 485:1 1252:1 
1 1 1 1 5:1 27:1 35:1 112:1 147:1 161:1 229:1 628:1 1253:1 1256:1 1257:1 1258:1 1389:1 
1 1 1 1 138:1 156:1 158:1 275:1 839:1 1260:1 1261:1 
1 1 1 1 60:1 917:1 
1 1 1 1 155:1 434:1 
1 1 1 1 7:1 35:1 55:1 60:1 70:1 72:1 75:1 89:1 111:1 336:1 617:1 807:1 1267:1 1268:1 
1 1 1 1 35:1 70:1 153:1 193:1 212:1 220:1 297:1 301:1 719:1 
1 1 1 1 39:1 41:1 58:1 75:1 100:1 158:1 212:1 312:1 425:1 1271:1 1272:1 
1 1 1 1 542:1 
1 1 1 1 35:1 673:1 1273:1 
1 1 1 1 41:1 42:1 
1 1 1 1 12:1 14:1 31:1 35:1 55:1 66:1 69:1 89:1 102:1 147:1 190:1 220:1 336:1 395:1 637:1 1275:1 
1 0 1 1 55:1 85:1 96:1 121:1 241:1 310:1 927:1 1276:1 
1 1 1 1 5:1 7:1 55:1 63:1 66:1 75:1 77:1 113:1 147:1 344:1 396:1 1188:1 1277:1 
1 1 1 1 2:1 35:1 344:1 402:1 597:1 1278:1 
1 1 1 1 35:1 41:1 64:1 331:1 1279:1 
1 1 1 1 96:1 462:1 485:1 737:1 1280:1 
1 1 1 1 2:1 55:1 57:1 126:1 415:1 
1 1 1 1 40:1 55:1 60:1 96:1 227:1 261:1 366:1 542:1 836:1 1281:1 1282:1 1283:1 
1 0 1 1 22:1 75:1 165:1 197:1 209:1 
1 1 1 1 5:1 31:1 35:1 39:1 49:1 55:1 89:1 237:1 281:1 333:1 575:1 647:1 817:1 818:1 820:1 821:1 822:1 1285:1 
1 1 1 1 66:1 147:1 165:1 197:1 418:1 
1 1 1 1 315:1 
1 1 1 1 11:1 53:1 466:1 873:1 986:1 1098:1 1190:1 
1 1 1 1 75:1 201:1 241:1 335:1 366:1 489:1 682:1 1170:1 
1 1 1 1 3:1 58:1 60:1 82:1 212:1 1021:1 1174:1 1287:1 1288:1 1289:1 
1 1 1 1 7:1 31:1 35:1 63:1 66:1 69:1 102:1 113:1 147:1 151:1 535:1 1291:1 1292:1 1293:1 
1 0 1 1 31:1 39:1 55:1 57:1 63:1 66:1 75:1 97:1 103:1 165:1 201:1 339:1 344:1 374:1 396:1 639:1 772:1 832:1 1294:1 1296:1 
1 0 1 1 22:1 31:1 39:1 42:1 55:1 57:1 63:1 66:1 70:1 126:1 133:1 144:1 172:1 179:1 203:1 297:1 360:1 408:1 1297:1 
1 1 1 1 31:1 114:1 115:1 
1 1 1 1 7:1 22:1 39:1 115:1 150:1 898:1 1298:1 
1 1 1 1 5:1 46:1 63:1 201:1 488:1 
1 1 1 1 42:1 83:1 
1 0 1 1 63:1 75:1 113:1 147:1 197:1 695:1 959:1 
1 1 1 1 31:1 40:1 60:1 66:1 75:1 158:1 166:1 1300:1 1301:1 1302:1 
1 1 1 1 7:1 35:1 39:1 42:1 84:1 136:1 810:1 1303:1 1307:1 1308:1 1309:1 
1 0 1 1 63:1 75:1 161:1 197:1 198:1 324:1 
1 1 1 1 41:1 75:1 152:1 313:1 766:1 1117:1 
1 1 1 1 96:1 220:1 312:1 333:1 472:1 
1 0 1 1 7:1 55:1 75:1 119:1 122:1 173:1 897:1 1165:1 3714:1 
1 0 1 1 22:1 196:1 
1 0 1 1 7:1 40:1 63:1 196:1 304:1 374:1 
1 1 1 1 5:1 130:1 1313:1 3714:1 
1 1 1 1 
1 1 1 1 96:1 112:1 305:1 
1 1 1 1 308:1 572:1 1315:1 1316:1 
1 0 1 1 41:1 56:1 75:1 113:1 1318:1 1319:1 
1 1 1 1 40:1 55:1 96:1 151:1 261:1 335:1 1320:1 1321:1 1322:1 
1 1 1 1 35:1 39:1 40:1 42:1 63:1 75:1 96:1 132:1 151:1 158:1 160:1 214:1 275:1 278:1 535:1 694:1 874:1 1324:1 1325:1 
1 1 1 1 7:1 31:1 42:1 55:1 75:1 82:1 96:1 126:1 158:1 508:1 553:1 831:1 1050:1 1294:1 
1 1 1 1 132:1 550:1 
1 1 1 1 27:1 40:1 42:1 64:1 121:1 153:1 240:1 312:1 402:1 474:1 1327:1 1328:1 1329:1 1330:1 
1 0 1 1 7:1 38:1 55:1 63:1 97:1 161:1 292:1 312:1 
1 0 1 1 40:1 54:1 55:1 73:1 75:1 158:1 161:1 162:1 165:1 758:1 759:1 761:1 
1 1 1 1 35:1 366:1 617:1 1332:1 
1 1 1 1 14:1 25:1 27:1 55:1 66:1 126:1 147:1 176:1 201:1 304:1 766:1 
1 1 1 1 2:1 53:1 
1 1 1 1 
1 0.6514414678877856 1 1 55:1 75:1 97:1 111:1 201:1 292:1 639:1 1333:1 1334:1 1335:1 
1 1 1 1 132:1 228:1 690:1 
1 1 1 1 7:1 33:1 34:1 35:1 42:1 75:1 138:1 274:1 489:1 742:1 749:1 1337:1 1338:1 
1 1 1 1 96:1 138:1 156:1 336:1 1339:1 1340:1 
1 1 1 1 775:1 
1 0 1 1 55:1 66:1 85:1 119:1 430:1 730:1 762:1 1082:1 
1 1 1 1 
1 1 1 1 22:1 147:1 167:1 315:1 418:1 1345:1 1347:1 
1 0 1 1 22:1 66:1 75:1 113:1 123:1 124:1 136:1 214:1 301:1 408:1 1035:1 1348:1 1349:1 
1 1 1 1 
1 1 1 1 550:1 
1 1 1 1 66:1 158:1 432:1 856:1 
1 0 1 1 41:1 75:1 122:1 179:1 216:1 543:1 
1 1 1 1 55:1 714:1 1350:1 
1 0 1 1 14:1 75:1 165:1 197:1 209:1 227:1 466:1 570:1 
1 1 1 1 14:1 197:1 209:1 
1 0 1 1 22:1 114:1 
1 1 1 1 35:1 629:1 775:1 1352:1 1353:1 1354:1 1355:1 1356:1 1357:1 1359:1 1360:1 1361:1 1362:1 1363:1 1364:1 1365:1 1366:1 1367:1 
1 1 1 1 25:1 31:1 39:1 170:1 1369:1 1370:1 1371:1 
1 1 1 1 5:1 41:1 42:1 45:1 54:1 55:1 63:1 66:1 89:1 153:1 161:1 199:1 327:1 464:1 766:1 3714:1 
1 0 1 1 22:1 60:1 63:1 64:1 196:1 374:1 1372:1 
1 1 1 1 42:1 58:1 138:1 159:1 344:1 
1 0 1 1 40:1 63:1 64:1 66:1 75:1 97:1 141:1 216:1 344:1 796:1 797:1 798:1 799:1 800:1 1374:1 
1 1 1 1 7:1 70:1 1375:1 1376:1 1377:1 
1 1 1 1 1379:1 
1 1 1 1 69:1 82:1 542:1 1165:1 1381:1 1382:1 
1 1 1 1 361:1 388:1 1383:1 1384:1 1385:1 
1 1 1 1 1222:1 1390:1 1391:1 1393:1 1394:1 1395:1 
1 0 1 1 40:1 41:1 63:1 237:1 240:1 1397:1 
1 1 1 1 11:1 39:1 396:1 412:1 701:1 1400:1 1401:1 
1 0 1 1 2:1 63:1 161:1 286:1 550:1 947:1 3714:1 
1 1 1 1 66:1 147:1 
1 1 1 1 35:1 63:1 197:1 198:1 
1 1 1 1 7:1 66:1 85:1 138:1 229:1 597:1 776:1 
1 1 1 1 63:1 147:1 333:1 488:1 1128:1 1404:1 
1 1 1 1 55:1 75:1 89:1 131:1 1406:1 1407:1 
1 1 1 1 44:1 344:1 732:1 6907:1 
1 1 1 1 7:1 31:1 35:1 41:1 66:1 114:1 147:1 196:1 504:1 1408:1 
1 1 1 1 7:1 14:1 50:1 248:1 1409:1 
1 0 1 1 22:1 165:1 197:1 
1 1 1 1 
1 1 1 1 2:1 31:1 63:1 64:1 66:1 75:1 114:1 320:1 344:1 408:1 867:1 1130:1 1410:1 
1 1 1 1 54:1 1411:1 
1 1 1 1 66:1 292:1 466:1 1412:1 1413:1 1414:1 1416:1 1417:1 
1 1 1 1 7:1 55:1 96:1 106:1 181:1 200:1 229:1 261:1 274:1 327:1 545:1 952:1 1061:1 1280:1 1418:1 1419:1 
1 0 1 1 11:1 72:1 113:1 406:1 466:1 1421:1 
1 0 1 1 22:1 42:1 63:1 66:1 195:1 196:1 216:1 1422:1 
1 1 1 1 18:1 22:1 333:1 779:1 
1 1 1 1 5:1 49:1 63:1 82:1 85:1 96:1 109:1 114:1 153:1 181:1 274:1 310:1 312:1 795:1 1135:1 1423:1 1424:1 
1 0 1 1 31:1 39:1 55:1 57:1 63:1 66:1 69:1 75:1 113:1 147:1 151:1 216:1 622:1 655:1 1188:1 1425:1 1426:1 1427:1 1428:1 1429:1 1430:1 3714:1 
1 1 1 1 89:1 301:1 1431:1 
1 1 1 1 41:1 64:1 114:1 361:1 372:1 468:1 483:1 793:1 803:1 1290:1 1313:1 1432:1 
1 0 1 1 7:1 22:1 55:1 63:1 66:1 75:1 98:1 109:1 119:1 144:1 301:1 395:1 507:1 508:1 542:1 803:1 1297:1 1433:1 1434:1 3714:1 
1 1 1 1 22:1 34:1 40:1 55:1 66:1 89:1 196:1 508:1 885:1 1099:1 1435:1 1436:1 1437:1 
1 1 1 1 132:1 1438:1 
1 1 1 1 63:1 66:1 147:1 175:1 176:1 177:1 178:1 179:1 181:1 
1 0 1 1 38:1 55:1 75:1 344:1 473:1 1439:1 1440:1 
1 1 1 1 
1 1 1 1 151:1 
1 1 1 1 14:1 
1 1 1 1 321:1 1442:1 1443:1 1444:1 
1 1 1 1 45:1 63:1 66:1 75:1 98:1 100:1 101:1 102:1 103:1 105:1 106:1 
1 1 1 1 25:1 35:1 46:1 201:1 1446:1 
1 1 1 1 
1 1 1 1 169:1 
1 1 1 1 5:1 49:1 153:1 187:1 762:1 1082:1 
1 1 1 1 33:1 229:1 261:1 361:1 508:1 727:1 1099:1 1449:1 1450:1 
1 1 1 1 22:1 27:1 35:1 114:1 274:1 597:1 762:1 824:1 1451:1 5756:1 
1 1 1 1 40:1 66:1 106:1 158:1 292:1 1453:1 1454:1 
1 1 1 1 39:1 57:1 60:1 63:1 364:1 642:1 1456:1 
1 0 1 1 22:1 55:1 75:1 85:1 89:1 138:1 147:1 201:1 828:1 1441:1 
1 1 1 1 27:1 35:1 147:1 159:1 165:1 226:1 269:1 762:1 5756:1 
1 0 1 1 22:1 25:1 38:1 46:1 55:1 69:1 112:1 119:1 155:1 201:1 312:1 374:1 
1 1 1 1 45:1 75:1 201:1 235:1 261:1 301:1 361:1 639:1 694:1 1099:1 1458:1 
1 1 1 1 
1 1 1 1 138:1 1117:1 
1 1 1 1 41:1 85:1 97:1 1460:1 
1 1 1 1 64:1 727:1 737:1 1461:1 
1 1 1 1 41:1 58:1 66:1 464:1 541:1 1053:1 1462:1 1463:1 
1 1 1 1 55:1 97:1 160:1 201:1 209:1 344:1 1170:1 1294:1 1422:1 
1 1 1 1 40:1 200:1 336:1 1465:1 
1 1 1 1 2:1 38:1 40:1 41:1 42:1 84:1 96:1 153:1 201:1 394:1 542:1 810:1 
1 1 1 1 45:1 49:1 54:1 1467:1 
1 1 1 1 26:1 35:1 40:1 41:1 89:1 333:1 372:1 
1 1 1 1 58:1 75:1 463:1 1129:1 1470:1 1471:1 1472:1 1473:1 
1 0 1 1 16:1 22:1 63:1 66:1 69:1 75:1 113:1 147:1 165:1 197:1 201:1 207:1 226:1 296:1 418:1 473:1 646:1 651:1 762:1 5756:1 
1 1 1 1 
1 1 1 1 63:1 75:1 304:1 348:1 1006:1 1007:1 1009:1 
1 1 1 1 496:1 918:1 1477:1 1479:1 1480:1 1481:1 1482:1 1483:1 1484:1 1485:1 1487:1 1488:1 1489:1 1490:1 1491:1 1492:1 1493:1 1494:1 
1 1 1 1 96:1 775:1 927:1 1495:1 1496:1 1497:1 1498:1 1499:1 1500:1 1501:1 1502:1 1504:1 1505:1 1506:1 1507:1 1508:1 
1 0 1 1 2:1 22:1 55:1 63:1 70:1 111:1 126:1 147:1 152:1 162:1 261:1 361:1 566:1 1300:1 1313:1 1509:1 
1 1 1 1 33:1 41:1 66:1 165:1 187:1 240:1 310:1 311:1 1510:1 
1 1 1 1 60:1 66:1 113:1 646:1 1511:1 
1 1 1 1 5:1 42:1 54:1 55:1 96:1 121:1 335:1 1512:1 1513:1 
1 1 1 1 40:1 66:1 106:1 158:1 292:1 1453:1 1454:1 
1 1 1 1 31:1 40:1 66:1 239:1 724:1 745:1 791:1 948:1 950:1 
1 1 1 1 96:1 122:1 1514:1 
1 1 1 1 31:1 347:1 1515:1 1516:1 
1 1 1 1 35:1 66:1 112:1 248:1 344:1 430:1 508:1 601:1 
1 1 1 1 
1 1 1 1 7:1 55:1 229:1 240:1 472:1 639:1 691:1 769:1 1518:1 
1 1 1 1 308:1 
1 1 1 1 11:1 75:1 94:1 759:1 1325:1 1519:1 1520:1 
1 1 1 1 25:1 57:1 60:1 75:1 84:1 616:1 1521:1 1522:1 1523:1 1525:1 1526:1 
1 0 1 1 40:1 55:1 100:1 161:1 292:1 344:1 592:1 3714:1 
1 1 1 1 45:1 54:1 58:1 121:1 122:1 
1 1 1 1 181:1 668:1 
1 1 1 1 39:1 66:1 89:1 701:1 1529:1 
1 1 1 1 138:1 1117:1 
1 1 1 1 5:1 25:1 67:1 229:1 261:1 310:1 352:1 545:1 712:1 766:1 
1 1 1 1 7:1 600:1 
1 1 1 1 33:1 147:1 156:1 309:1 372:1 457:1 704:1 1532:1 1533:1 
1 0 1 1 22:1 41:1 44:1 66:1 75:1 114:1 158:1 186:1 240:1 992:1 1130:1 1534:1 1535:1 
1 1 1 1 181:1 
1 1 1 1 35:1 55:1 66:1 75:1 89:1 114:1 162:1 237:1 406:1 417:1 876:1 912:1 1537:1 1538:1 1539:1 
1 1 1 1 27:1 35:1 121:1 170:1 359:1 360:1 822:1 862:1 
1 0 1 1 41:1 55:1 82:1 126:1 200:1 552:1 
1 0 1 1 55:1 63:1 66:1 75:1 822:1 1127:1 1540:1 
1 1 1 1 12:1 1066:1 1541:1 
1 1 1 1 132:1 347:1 
1 1 1 1 5:1 42:1 44:1 810:1 1470:1 1542:1 1543:1 1544:1 
1 1 1 1 7:1 35:1 641:1 
1 1 1 1 147:1 151:1 160:1 229:1 1545:1 1547:1 1548:1 1550:1 
1 1 1 1 20:1 39:1 60:1 75:1 106:1 212:1 295:1 430:1 437:1 763:1 791:1 795:1 1335:1 1551:1 1552:1 
1 0 1 1 22:1 31:1 35:1 40:1 41:1 63:1 64:1 176:1 195:1 196:1 201:1 265:1 430:1 476:1 508:1 1553:1 1554:1 1555:1 
1 1 1 1 66:1 114:1 128:1 
1 1 1 1 64:1 220:1 517:1 
1 1 1 1 41:1 42:1 312:1 336:1 1376:1 1556:1 
1 1 1 1 49:1 252:1 1557:1 
1 1 1 1 66:1 75:1 570:1 1559:1 
1 1 1 1 7:1 34:1 35:1 39:1 55:1 58:1 66:1 75:1 77:1 96:1 100:1 147:1 499:1 891:1 1057:1 1280:1 1563:1 1564:1 1565:1 1566:1 1567:1 
1 1 1 1 55:1 57:1 138:1 209:1 1569:1 1570:1 
1 1 1 1 35:1 118:1 
1 1 1 1 31:1 35:1 63:1 66:1 147:1 243:1 1571:1 1572:1 
1 1 1 1 595:1 1125:1 
1 1 1 1 11:1 14:1 15:1 16:1 17:1 
1 1 1 1 55:1 63:1 274:1 312:1 571:1 1143:1 
1 1 1 1 22:1 39:1 54:1 55:1 56:1 75:1 183:1 194:1 335:1 336:1 1513:1 1578:1 1579:1 
1 1 1 1 25:1 46:1 871:1 1580:1 
1 1 1 1 45:1 97:1 459:1 1581:1 
1 1 1 1 
1 1 1 1 58:1 66:1 194:1 366:1 372:1 669:1 769:1 1413:1 1583:1 1584:1 1585:1 
1 0 1 1 60:1 63:1 66:1 96:1 112:1 114:1 165:1 197:1 485:1 794:1 1587:1 
1 0 1 1 6:1 63:1 75:1 112:1 113:1 124:1 138:1 147:1 359:1 593:1 1207:1 
1 1 1 1 22:1 25:1 35:1 42:1 82:1 96:1 109:1 153:1 816:1 1588:1 1590:1 1591:1 
1 1 1 1 7:1 35:1 39:1 66:1 75:1 113:1 155:1 867:1 868:1 1592:1 1593:1 1594:1 
1 1 1 1 40:1 41:1 66:1 308:1 1595:1 1596:1 
1 1 1 1 22:1 592:1 
1 1 1 1 66:1 147:1 361:1 363:1 418:1 1018:1 
1 1 1 1 22:1 
1 0 1 1 22:1 75:1 591:1 1231:1 1232:1 
1 1 1 1 58:1 63:1 114:1 596:1 891:1 
1 1 1 1 35:1 55:1 1159:1 1160:1 1275:1 1577:1 1601:1 
1 1 1 1 72:1 155:1 1603:1 
1 1 1 1 39:1 55:1 159:1 171:1 595:1 1604:1 1605:1 
1 1 1 1 69:1 75:1 114:1 170:1 873:1 1034:1 1577:1 
1 1 1 1 46:1 69:1 89:1 96:1 136:1 273:1 305:1 340:1 430:1 1043:1 1608:1 1609:1 
1 1 1 1 63:1 66:1 75:1 105:1 106:1 
1 1 1 1 2:1 40:1 41:1 55:1 60:1 66:1 126:1 147:1 200:1 220:1 229:1 237:1 273:1 1604:1 1610:1 1611:1 1612:1 1613:1 3714:1 
1 1 1 1 7:1 22:1 
1 1 1 1 55:1 151:1 209:1 1118:1 1616:1 
1 1 1 1 35:1 55:1 89:1 97:1 109:1 153:1 186:1 187:1 291:1 430:1 1098:1 
1 1 1 1 35:1 48:1 69:1 138:1 261:1 361:1 506:1 617:1 1426:1 1617:1 1618:1 
1 1 1 1 31:1 39:1 42:1 55:1 66:1 85:1 89:1 248:1 361:1 396:1 496:1 727:1 1619:1 1620:1 
1 1 1 1 31:1 35:1 39:1 49:1 54:1 55:1 63:1 66:1 126:1 240:1 505:1 1034:1 1622:1 1623:1 1624:1 1625:1 1626:1 1627:1 
1 1 1 1 132:1 
1 1 1 1 55:1 162:1 286:1 1143:1 
1 1 1 1 58:1 1633:1 
1 1 1 1 159:1 165:1 582:1 952:1 1143:1 
1 1 1 1 27:1 85:1 103:1 132:1 153:1 160:1 1290:1 1634:1 
1 1 1 1 158:1 
1 1 1 1 25:1 35:1 73:1 85:1 96:1 129:1 138:1 430:1 736:1 
1 1 1 1 31:1 39:1 803:1 1636:1 1637:1 
1 1 1 1 27:1 1639:1 
1 1 1 1 2:1 43:1 54:1 55:1 75:1 601:1 610:1 1119:1 1640:1 
1 1 1 1 39:1 53:1 292:1 
1 1 1 1 69:1 75:1 114:1 170:1 873:1 1034:1 1577:1 
1 1 1 1 42:1 46:1 69:1 793:1 814:1 
1 1 1 1 5:1 39:1 41:1 63:1 82:1 268:1 298:1 344:1 774:1 
1 1 1 1 39:1 58:1 155:1 598:1 1643:1 1644:1 
1 1 1 1 45:1 121:1 162:1 277:1 728:1 
1 1 1 1 7:1 60:1 63:1 75:1 593:1 691:1 791:1 1648:1 
1 1 1 1 55:1 57:1 87:1 239:1 668:1 757:1 763:1 1649:1 1650:1 1651:1 1652:1 
1 1 1 1 22:1 45:1 49:1 82:1 85:1 153:1 294:1 
1 1 1 1 22:1 1172:1 
1 1 1 1 27:1 42:1 103:1 
1 0 1 1 45:1 55:1 63:1 69:1 89:1 121:1 1309:1 
1 1 1 1 637:1 
1 0 1 1 55:1 75:1 161:1 344:1 1653:1 
1 1 1 1 35:1 269:1 1655:1 1656:1 1657:1 1658:1 
1 1 1 1 35:1 42:1 63:1 66:1 252:1 343:1 430:1 742:1 743:1 1079:1 
1 1 1 1 5:1 49:1 96:1 201:1 229:1 335:1 553:1 1659:1 
1 0 1 1 55:1 75:1 85:1 200:1 273:1 331:1 
1 1 1 1 7:1 63:1 75:1 155:1 274:1 312:1 477:1 727:1 1662:1 1664:1 
1 1 1 1 35:1 775:1 1357:1 1495:1 1507:1 1665:1 1666:1 1667:1 1668:1 1669:1 1670:1 1671:1 
1 1 1 1 39:1 41:1 59:1 60:1 61:1 62:1 63:1 64:1 65:1 66:1 67:1 68:1 69:1 70:1 71:1 72:1 
1 1 1 1 22:1 96:1 485:1 
1 1 1 1 34:1 39:1 45:1 55:1 75:1 111:1 113:1 130:1 151:1 224:1 227:1 307:1 344:1 363:1 763:1 1118:1 1673:1 1674:1 1675:1 1676:1 
1 0 1 1 41:1 55:1 89:1 96:1 147:1 273:1 343:1 742:1 759:1 774:1 1677:1 1678:1 1679:1 1680:1 
1 1 1 1 208:1 510:1 
1 1 1 1 70:1 75:1 119:1 296:1 390:1 762:1 5756:1 
1 1 1 1 53:1 60:1 63:1 70:1 75:1 498:1 636:1 691:1 1017:1 1681:1 1682:1 1683:1 1684:1 1685:1 
1 0 1 1 27:1 41:1 66:1 148:1 492:1 762:1 1686:1 5756:1 
1 1 1 1 22:1 240:1 
1 1 1 1 25:1 35:1 73:1 85:1 96:1 129:1 138:1 430:1 736:1 
1 1 1 1 
1 1 1 1 201:1 335:1 1386:1 1688:1 
1 1 1 1 41:1 53:1 
1 1 1 1 55:1 66:1 137:1 241:1 268:1 541:1 1690:1 1691:1 1695:1 
1 1 1 1 55:1 138:1 209:1 331:1 914:1 1696:1 
1 1 1 1 41:1 229:1 1697:1 
1 0 1 1 22:1 112:1 1072:1 
1 0 1 1 41:1 181:1 237:1 388:1 762:1 1698:1 5756:1 
1 1 1 1 31:1 35:1 39:1 41:1 70:1 89:1 96:1 147:1 181:1 504:1 836:1 887:1 1083:1 1186:1 1699:1 1700:1 1701:1 
1 1 1 1 31:1 41:1 96:1 
1 1 1 1 229:1 726:1 
1 1 1 1 639:1 1118:1 1702:1 1703:1 
1 1 1 1 55:1 66:1 85:1 524:1 721:1 1043:1 1121:1 1704:1 1705:1 
1 1 1 1 31:1 114:1 
1 1 1 1 2:1 5:1 48:1 49:1 55:1 66:1 87:1 136:1 153:1 252:1 280:1 315:1 1676:1 1706:1 1707:1 1708:1 1709:1 
1 1 1 1 22:1 1485:1 
1 1 1 1 7:1 66:1 113:1 762:1 1711:1 1712:1 1713:1 1714:1 
1 0 1 1 22:1 60:1 96:1 113:1 114:1 165:1 197:1 485:1 
1 0 1 1 22:1 114:1 
1 1 1 1 327:1 352:1 544:1 545:1 
1 1 1 1 513:1 
1 0 1 1 53:1 55:1 63:1 75:1 137:1 161:1 344:1 468:1 3714:1 
1 1 1 1 169:1 274:1 1715:1 
1 1 1 1 11:1 60:1 75:1 84:1 297:1 509:1 1716:1 1717:1 1718:1 
1 1 1 1 41:1 82:1 190:1 369:1 
1 1 1 1 
1 1 1 1 25:1 45:1 55:1 121:1 336:1 344:1 359:1 564:1 1721:1 1722:1 1723:1 1724:1 
1 0 1 1 39:1 40:1 41:1 55:1 66:1 114:1 160:1 171:1 175:1 190:1 209:1 1069:1 1725:1 1726:1 1727:1 
1 1 1 1 762:1 
1 1 1 1 15:1 855:1 
1 1 1 1 41:1 49:1 64:1 85:1 152:1 524:1 622:1 623:1 624:1 625:1 626:1 627:1 628:1 
1 1 1 1 2:1 35:1 344:1 402:1 597:1 1278:1 
1 1 1 1 7:1 55:1 96:1 113:1 170:1 243:1 390:1 666:1 714:1 1728:1 
1 0 1 1 39:1 40:1 69:1 82:1 121:1 190:1 767:1 1125:1 1729:1 
1 1 1 1 22:1 113:1 209:1 229:1 
1 1 1 1 7:1 35:1 75:1 100:1 312:1 1186:1 1730:1 
1 1 1 1 31:1 33:1 39:1 55:1 66:1 89:1 106:1 118:1 155:1 466:1 652:1 1731:1 1732:1 
1 1 1 1 496:1 1389:1 1733:1 
1 1 1 1 242:1 433:1 
1 1 1 1 629:1 630:1 631:1 634:1 
1 1 1 1 11:1 31:1 155:1 203:1 223:1 274:1 395:1 406:1 652:1 
1 1 1 1 34:1 55:1 66:1 96:1 229:1 375:1 492:1 592:1 657:1 
1 1 1 1 27:1 31:1 66:1 75:1 82:1 121:1 333:1 435:1 436:1 437:1 438:1 439:1 
1 0 1 1 22:1 60:1 75:1 114:1 165:1 197:1 
1 1 1 1 39:1 58:1 60:1 63:1 66:1 70:1 159:1 175:1 197:1 216:1 300:1 1026:1 1055:1 1735:1 
1 1 1 1 35:1 58:1 1740:1 1741:1 
1 0 1 1 63:1 66:1 75:1 97:1 190:1 201:1 299:1 344:1 374:1 1743:1 
1 1 1 1 
1 1 1 1 27:1 42:1 103:1 
1 0 1 1 40:1 55:1 66:1 82:1 148:1 162:1 1015:1 1744:1 
1 1 1 1 60:1 63:1 64:1 201:1 541:1 543:1 1436:1 1746:1 1747:1 
1 1 1 1 221:1 524:1 1135:1 
1 1 1 1 7:1 126:1 
1 1 1 1 53:1 66:1 161:1 335:1 402:1 836:1 1749:1 1750:1 3714:1 
1 1 1 1 7:1 57:1 89:1 96:1 1145:1 1751:1 1752:1 
1 1 1 1 35:1 36:1 39:1 41:1 58:1 63:1 75:1 85:1 96:1 237:1 240:1 309:1 312:1 1754:1 1755:1 
1 1 1 1 27:1 66:1 109:1 137:1 147:1 418:1 1756:1 
1 0 1 1 63:1 75:1 114:1 317:1 1693:1 
1 0 1 1 40:1 75:1 96:1 181:1 344:1 408:1 474:1 1165:1 1345:1 
1 1 1 1 25:1 36:1 46:1 63:1 126:1 791:1 
1 1 1 1 22:1 115:1 209:1 
1 1 1 1 55:1 75:1 1759:1 1760:1 1761:1 1762:1 
1 1 1 1 46:1 60:1 714:1 1763:1 1764:1 1765:1 1767:1 1768:1 1769:1 1770:1 1771:1 1772:1 1773:1 1774:1 
1 1 1 1 31:1 39:1 66:1 89:1 147:1 201:1 485:1 524:1 593:1 597:1 803:1 1775:1 1776:1 1777:1 1778:1 1779:1 
1 1 1 1 31:1 40:1 344:1 767:1 1780:1 1781:1 
1 1 1 1 202:1 466:1 
1 1 1 1 148:1 268:1 408:1 1118:1 
1 0 1 1 14:1 22:1 40:1 55:1 126:1 227:1 1782:1 1784:1 1785:1 
1 1 1 1 
1 1 1 1 27:1 42:1 97:1 103:1 160:1 201:1 479:1 579:1 
1 0 1 1 27:1 55:1 122:1 132:1 241:1 294:1 314:1 472:1 542:1 
1 1 1 1 35:1 39:1 49:1 53:1 75:1 96:1 97:1 224:1 241:1 468:1 728:1 897:1 1786:1 1787:1 1788:1 
1 1 1 1 22:1 118:1 153:1 226:1 1789:1 
1 1 1 1 794:1 1790:1 
1 1 1 1 31:1 63:1 66:1 147:1 224:1 691:1 724:1 
1 1 1 1 55:1 159:1 161:1 162:1 179:1 299:1 597:1 763:1 1537:1 
1 0 1 1 22:1 197:1 
1 1 1 1 138:1 237:1 240:1 1267:1 1791:1 
1 1 1 1 339:1 575:1 1608:1 
1 1 1 1 40:1 96:1 695:1 
1 1 1 1 27:1 39:1 66:1 121:1 167:1 564:1 714:1 770:1 1793:1 1794:1 
1 1 1 1 22:1 873:1 
1 1 1 1 12:1 39:1 49:1 66:1 75:1 201:1 237:1 326:1 1515:1 1796:1 1797:1 
1 1 1 1 38:1 40:1 312:1 488:1 1018:1 1798:1 
1 1 1 1 25:1 31:1 170:1 1369:1 1370:1 1371:1 
1 1 1 1 66:1 1801:1 1802:1 
1 1 1 1 7:1 11:1 35:1 42:1 55:1 63:1 85:1 96:1 106:1 126:1 229:1 304:1 481:1 520:1 1300:1 1803:1 1804:1 
1 0 1 1 27:1 55:1 63:1 158:1 331:1 1805:1 
1 0 1 1 63:1 132:1 161:1 
1 1 1 1 66:1 136:1 268:1 639:1 986:1 1807:1 1808:1 
1 1 1 1 27:1 41:1 64:1 158:1 237:1 524:1 666:1 727:1 862:1 1018:1 
1 1 1 1 58:1 60:1 75:1 114:1 493:1 
1 1 1 1 315:1 
1 1 1 1 55:1 63:1 199:1 1811:1 
1 1 1 1 75:1 201:1 335:1 1798:1 1812:1 
1 1 1 1 40:1 1814:1 
1 1 1 1 27:1 31:1 35:1 42:1 55:1 60:1 85:1 109:1 114:1 147:1 171:1 312:1 344:1 655:1 1816:1 
1 0 1 1 2:1 63:1 161:1 286:1 550:1 947:1 3714:1 
1 1 1 1 35:1 60:1 63:1 66:1 96:1 147:1 297:1 774:1 783:1 1735:1 1818:1 1819:1 1820:1 1821:1 1822:1 1823:1 
1 0 1 1 7:1 55:1 75:1 119:1 122:1 173:1 897:1 1165:1 3714:1 
1 1 1 1 35:1 39:1 49:1 53:1 75:1 96:1 97:1 224:1 241:1 468:1 728:1 897:1 1786:1 1787:1 
1 0 1 1 55:1 63:1 66:1 161:1 759:1 875:1 1568:1 1825:1 1826:1 1827:1 1828:1 
1 1 1 1 35:1 39:1 63:1 398:1 593:1 1026:1 1830:1 3714:1 
1 1 1 1 5:1 27:1 63:1 66:1 196:1 553:1 857:1 870:1 
1 1 1 1 27:1 31:1 66:1 96:1 121:1 1234:1 1834:1 1835:1 
1 1 1 1 31:1 63:1 274:1 1243:1 
1 1 1 1 14:1 113:1 175:1 227:1 714:1 1298:1 1837:1 1838:1 
1 1 1 1 35:1 147:1 252:1 419:1 433:1 1839:1 1840:1 1841:1 
1 1 1 1 55:1 147:1 669:1 1843:1 
1 1 1 1 201:1 312:1 597:1 767:1 
1 1 1 1 42:1 46:1 55:1 97:1 153:1 
1 0.2629173824226408 1 1 55:1 75:1 574:1 1099:1 1844:1 1845:1 1846:1 1847:1 
1 1 1 1 69:1 190:1 1154:1 1190:1 1849:1 
1 1 1 1 44:1 60:1 75:1 96:1 183:1 216:1 1061:1 1156:1 1273:1 1850:1 
1 1 1 1 1851:1 
1 1 1 1 12:1 75:1 147:1 181:1 255:1 1852:1 
1 0 1 1 55:1 66:1 195:1 196:1 
1 1 1 1 
1 1 1 1 31:1 35:1 75:1 103:1 115:1 123:1 261:1 593:1 1043:1 1855:1 1856:1 1857:1 1858:1 
1 0 1 1 55:1 75:1 113:1 344:1 433:1 
1 1 1 1 126:1 937:1 1049:1 3714:1 
1 0 1 1 22:1 66:1 165:1 197:1 209:1 372:1 1859:1 
1 1 1 1 7:1 35:1 83:1 96:1 724:1 1860:1 1861:1 
1 1 1 1 66:1 421:1 
1 1 1 1 25:1 35:1 96:1 297:1 301:1 391:1 408:1 946:1 1862:1 1863:1 1864:1 
1 0 1 1 22:1 55:1 72:1 126:1 203:1 406:1 1866:1 1867:1 
1 1 1 1 27:1 85:1 135:1 163:1 762:1 1082:1 
1 0 1 1 27:1 66:1 121:1 151:1 187:1 261:1 466:1 524:1 569:1 570:1 571:1 573:1 574:1 669:1 1870:1 1871:1 
1 1 1 1 7:1 148:1 335:1 491:1 1872:1 
1 1 1 1 49:1 75:1 408:1 425:1 426:1 427:1 428:1 
1 1 1 1 63:1 229:1 691:1 
1 1 1 1 39:1 66:1 89:1 701:1 1529:1 
1 1 1 1 42:1 63:1 229:1 473:1 488:1 665:1 1229:1 
1 1 1 1 75:1 138:1 170:1 364:1 445:1 535:1 1873:1 1874:1 1875:1 1876:1 1877:1 
1 1 1 1 
1 1 1 1 22:1 57:1 115:1 147:1 535:1 582:1 783:1 1878:1 1880:1 1881:1 
1 0 1 1 22:1 161:1 570:1 3714:1 
1 1 1 1 7:1 31:1 41:1 66:1 75:1 358:1 1051:1 1882:1 
1 1 1 1 7:1 66:1 126:1 147:1 190:1 274:1 335:1 1335:1 
1 1 1 1 42:1 63:1 66:1 69:1 113:1 151:1 201:1 261:1 366:1 1735:1 1884:1 1885:1 
1 1 1 1 181:1 
1 1 1 1 22:1 60:1 898:1 
1 1 1 1 42:1 96:1 136:1 169:1 229:1 344:1 457:1 1887:1 1889:1 
1 1 1 1 85:1 138:1 159:1 310:1 312:1 375:1 1568:1 
1 1 1 1 333:1 836:1 893:1 894:1 895:1 
1 0 1 1 40:1 41:1 113:1 195:1 196:1 
1 1 1 1 55:1 344:1 1892:1 1893:1 
1 1 1 1 5:1 35:1 55:1 66:1 85:1 138:1 170:1 274:1 331:1 349:1 887:1 1080:1 1199:1 1200:1 1201:1 
1 1 1 1 5:1 66:1 213:1 336:1 366:1 
1 1 1 1 5:1 27:1 42:1 55:1 126:1 134:1 485:1 669:1 937:1 1049:1 1050:1 1052:1 3714:1 
1 1 1 1 66:1 779:1 
1 1 1 1 550:1 
1 1 1 1 22:1 
1 1 1 1 
1 1 1 1 7:1 31:1 40:1 60:1 63:1 66:1 75:1 495:1 847:1 1125:1 
1 1 1 1 39:1 63:1 97:1 119:1 374:1 1749:1 1898:1 1899:1 1900:1 
1 1 1 1 75:1 601:1 
1 1 1 1 27:1 35:1 55:1 64:1 66:1 75:1 147:1 173:1 183:1 193:1 228:1 278:1 313:1 339:1 589:1 704:1 810:1 1026:1 1128:1 1903:1 1904:1 1905:1 1906:1 1907:1 1908:1 1909:1 1910:1 
1 1 1 1 40:1 463:1 1620:1 
1 1 1 1 2:1 18:1 25:1 42:1 60:1 66:1 161:1 175:1 214:1 304:1 374:1 1127:1 1822:1 3714:1 
1 1 1 1 347:1 352:1 485:1 914:1 
1 1 1 1 5:1 27:1 55:1 63:1 82:1 85:1 111:1 1914:1 1915:1 
1 0 1 1 41:1 45:1 49:1 55:1 60:1 75:1 106:1 113:1 114:1 158:1 186:1 187:1 189:1 190:1 762:1 5756:1 
1 1 1 1 35:1 73:1 75:1 84:1 85:1 147:1 301:1 1304:1 1789:1 1918:1 1919:1 1920:1 
1 1 1 1 58:1 
1 0 1 1 41:1 42:1 55:1 66:1 158:1 186:1 237:1 240:1 312:1 327:1 1104:1 1923:1 
1 1 1 1 1357:1 1496:1 1924:1 1926:1 1927:1 1928:1 1929:1 
1 1 1 1 85:1 87:1 292:1 457:1 507:1 1165:1 1930:1 
1 1 1 1 63:1 1931:1 
1 1 1 1 7:1 85:1 153:1 170:1 623:1 769:1 
1 1 1 1 408:1 1547:1 1685:1 1934:1 
1 1 1 1 41:1 44:1 54:1 55:1 64:1 75:1 85:1 106:1 181:1 336:1 387:1 408:1 496:1 564:1 1057:1 1294:1 1732:1 1935:1 1936:1 1937:1 1938:1 1939:1 
1 1 1 1 5:1 7:1 25:1 35:1 55:1 66:1 119:1 147:1 220:1 364:1 508:1 836:1 1290:1 1298:1 1940:1 1941:1 1942:1 1943:1 
1 1 1 1 5:1 27:1 53:1 55:1 63:1 89:1 97:1 121:1 133:1 194:1 196:1 201:1 597:1 774:1 1413:1 1436:1 1944:1 1945:1 1946:1 
1 1 1 1 122:1 138:1 227:1 333:1 485:1 565:1 926:1 1948:1 1949:1 1950:1 1951:1 
1 1 1 1 170:1 301:1 1952:1 1953:1 1954:1 
1 1 1 1 63:1 66:1 82:1 96:1 138:1 147:1 153:1 261:1 324:1 325:1 762:1 1082:1 
1 0 1 1 22:1 248:1 
1 1 1 1 
1 1 1 1 42:1 344:1 1156:1 
1 1 1 1 31:1 114:1 155:1 227:1 1413:1 
1 1 1 1 308:1 
1 1 1 1 35:1 41:1 505:1 508:1 535:1 542:1 584:1 585:1 597:1 671:1 
1 1 1 1 5:1 18:1 19:1 75:1 201:1 268:1 
1 0 1 1 7:1 55:1 63:1 66:1 158:1 321:1 1958:1 1959:1 
1 1 1 1 66:1 89:1 121:1 147:1 190:1 203:1 361:1 701:1 1960:1 1961:1 1962:1 
1 1 1 1 221:1 335:1 1963:1 1964:1 
1 1 1 1 
1 1 1 1 35:1 41:1 505:1 508:1 535:1 542:1 584:1 585:1 597:1 671:1 
1 1 1 1 
1 1 1 1 2:1 55:1 85:1 225:1 1383:1 1757:1 1966:1 1967:1 
1 1 1 1 55:1 339:1 390:1 553:1 3714:1 
1 1 1 1 66:1 83:1 85:1 89:1 101:1 147:1 201:1 311:1 312:1 365:1 430:1 896:1 966:1 1406:1 
1 0 1 1 40:1 55:1 96:1 159:1 181:1 375:1 818:1 1968:1 1969:1 1970:1 
1 1 1 1 39:1 63:1 1973:1 1974:1 1975:1 1976:1 1977:1 
1 1 1 1 55:1 87:1 111:1 165:1 751:1 
1 1 1 1 31:1 41:1 64:1 66:1 113:1 147:1 154:1 155:1 195:1 196:1 229:1 312:1 1079:1 1170:1 1978:1 
1 0 1 1 41:1 147:1 148:1 195:1 196:1 595:1 
1 1 1 1 111:1 127:1 401:1 1979:1 
1 1 1 1 31:1 41:1 66:1 113:1 114:1 519:1 550:1 
1 1 1 1 2:1 27:1 57:1 66:1 69:1 121:1 252:1 1066:1 1982:1 
1 0 1 1 40:1 55:1 130:1 137:1 161:1 
1 1 1 1 301:1 304:1 508:1 575:1 6907:1 
1 1 1 1 22:1 1983:1 
1 1 1 1 195:1 196:1 
1 1 1 1 
1 1 1 1 114:1 
1 1 1 1 115:1 181:1 1984:1 
1 0 1 1 25:1 31:1 41:1 55:1 75:1 126:1 151:1 158:1 240:1 273:1 478:1 535:1 952:1 1026:1 1328:1 1711:1 1985:1 
1 1 1 1 114:1 
1 1 1 1 35:1 39:1 55:1 66:1 89:1 119:1 175:1 229:1 312:1 331:1 1125:1 1577:1 1611:1 1987:1 
1 0 1 1 63:1 66:1 112:1 113:1 151:1 499:1 1988:1 
1 1 1 1 27:1 121:1 862:1 1965:1 
1 1 1 1 35:1 55:1 269:1 275:1 1703:1 
1 1 1 1 
1 1 1 1 18:1 75:1 81:1 1956:1 1994:1 1995:1 
1 0 1 1 20:1 55:1 66:1 69:1 112:1 151:1 304:1 339:1 366:1 553:1 1787:1 1996:1 
1 1 1 1 34:1 40:1 53:1 55:1 75:1 83:1 85:1 89:1 201:1 339:1 1320:1 
1 1 1 1 31:1 41:1 54:1 69:1 73:1 84:1 109:1 220:1 240:1 769:1 952:1 1997:1 1998:1 
1 1 1 1 60:1 75:1 198:1 546:1 
1 1 1 1 42:1 198:1 216:1 669:1 727:1 737:1 
1 0 1 1 63:1 75:1 114:1 198:1 369:1 1118:1 
1 1 1 1 55:1 198:1 224:1 485:1 727:1 1271:1 1662:1 
1 1 1 1 151:1 986:1 2001:1 
1 1 1 1 5:1 91:1 483:1 1230:1 2002:1 2003:1 
1 1 1 1 27:1 40:1 55:1 60:1 64:1 66:1 89:1 200:1 335:1 463:1 836:1 1656:1 2005:1 
1 1 1 1 195:1 196:1 
1 1 1 1 27:1 58:1 66:1 75:1 121:1 216:1 468:1 483:1 564:1 2006:1 
1 1 1 1 27:1 42:1 97:1 138:1 147:1 201:1 
1 1 1 1 39:1 55:1 147:1 151:1 229:1 344:1 582:1 1237:1 2008:1 
1 1 1 1 35:1 181:1 195:1 196:1 315:1 
1 1 1 1 63:1 123:1 229:1 248:1 374:1 
1 1 1 1 25:1 39:1 49:1 66:1 227:1 658:1 2009:1 
1 0 1 1 53:1 55:1 63:1 75:1 344:1 1066:1 2012:1 
1 1 1 1 41:1 504:1 597:1 658:1 
1 1 1 1 25:1 85:1 229:1 628:1 1956:1 
1 1 1 1 7:1 35:1 2015:1 
1 1 1 1 2016:1 
1 1 1 1 40:1 96:1 147:1 201:1 305:1 1297:1 2017:1 
1 1 1 1 39:1 57:1 187:1 459:1 855:1 1280:1 2018:1 
1 0 1 1 25:1 63:1 66:1 82:1 113:1 147:1 151:1 470:1 2019:1 2020:1 
1 1 1 1 406:1 652:1 1024:1 
1 1 1 1 55:1 344:1 1237:1 
1 0 1 1 27:1 39:1 55:1 64:1 66:1 119:1 121:1 190:1 275:1 473:1 2026:1 
1 1 1 1 31:1 39:1 40:1 45:1 56:1 82:1 218:1 224:1 229:1 344:1 372:1 395:1 408:1 701:1 2029:1 6907:1 
1 1 1 1 347:1 2031:1 2032:1 
1 1 1 1 58:1 66:1 118:1 147:1 494:1 497:1 2033:1 2035:1 2036:1 
1 1 1 1 55:1 138:1 390:1 691:1 
1 1 1 1 7:1 35:1 55:1 58:1 66:1 137:1 138:1 190:1 1017:1 2037:1 2038:1 
1 1 1 1 35:1 38:1 39:1 55:1 63:1 69:1 75:1 87:1 119:1 136:1 166:1 301:1 320:1 345:1 481:1 601:1 1989:1 2039:1 2040:1 2041:1 
1 1 1 1 55:1 96:1 241:1 301:1 472:1 473:1 579:1 881:1 1613:1 1711:1 2042:1 
1 1 1 1 58:1 75:1 2043:1 
1 1 1 1 25:1 40:1 46:1 85:1 
1 0 1 1 7:1 63:1 66:1 113:1 158:1 202:1 871:1 1206:1 2044:1 2045:1 2046:1 
1 1 1 1 
1 1 1 1 60:1 66:1 2047:1 2048:1 
1 1 1 1 
1 0 1 1 75:1 103:1 165:1 292:1 2055:1 2056:1 
1 1 1 1 31:1 34:1 42:1 44:1 45:1 66:1 106:1 121:1 153:1 170:1 237:1 241:1 1516:1 2057:1 2058:1 2059:1 
1 1 1 1 49:1 55:1 75:1 215:1 301:1 312:1 958:1 1529:1 2056:1 2060:1 6907:1 
1 1 1 1 58:1 220:1 265:1 839:1 1938:1 2061:1 
1 0 1 1 22:1 40:1 240:1 248:1 312:1 344:1 725:1 1472:1 1534:1 1948:1 2062:1 
1 1 1 1 58:1 75:1 132:1 137:1 
1 1 1 1 7:1 35:1 55:1 58:1 66:1 68:1 75:1 89:1 94:1 96:1 121:1 136:1 187:1 292:1 321:1 483:1 606:1 617:1 839:1 991:1 2063:1 2064:1 2065:1 2066:1 2068:1 2070:1 
1 1 1 1 45:1 161:1 
1 1 1 1 63:1 66:1 691:1 719:1 
1 1 1 1 55:1 161:1 553:1 
1 1 1 1 27:1 55:1 2072:1 
1 1 1 1 53:1 727:1 737:1 
1 0 1 1 55:1 75:1 248:1 390:1 2077:1 
1 1 1 1 229:1 360:1 822:1 2078:1 
1 0 1 1 7:1 55:1 63:1 75:1 198:1 1350:1 
1 1 1 1 38:1 40:1 41:1 96:1 138:1 876:1 1070:1 
1 1 1 1 35:1 41:1 55:1 203:1 398:1 701:1 898:1 1026:1 1067:1 2080:1 
1 1 1 1 35:1 41:1 582:1 2082:1 2083:1 
1 1 1 1 35:1 36:1 69:1 89:1 181:1 488:1 767:1 791:1 
1 1 1 1 31:1 35:1 41:1 55:1 69:1 200:1 742:1 1034:1 1680:1 2084:1 
1 1 1 1 31:1 35:1 40:1 138:1 147:1 1337:1 2085:1 2086:1 2089:1 
1 1 1 1 42:1 327:1 406:1 
1 1 1 1 5:1 27:1 44:1 55:1 66:1 121:1 220:1 1572:1 2090:1 2091:1 
1 1 1 1 14:1 55:1 57:1 772:1 1294:1 
1 1 1 1 31:1 40:1 43:1 55:1 89:1 412:1 2093:1 2094:1 2095:1 2096:1 
1 1 1 1 31:1 49:1 64:1 66:1 75:1 87:1 147:1 297:1 1111:1 1343:1 
1 1 1 1 
1 0 1 1 75:1 181:1 344:1 791:1 991:1 1055:1 1128:1 1738:1 2098:1 2099:1 
1 1 1 1 151:1 
1 1 1 1 1345:1 
1 1 1 1 22:1 31:1 64:1 213:1 241:1 315:1 366:1 727:1 737:1 749:1 2101:1 
1 1 1 1 39:1 201:1 321:1 2103:1 
1 1 1 1 
1 1 1 1 7:1 14:1 39:1 41:1 66:1 126:1 147:1 229:1 302:1 466:1 2105:1 2106:1 2107:1 2110:1 
1 1 1 1 5:1 75:1 85:1 464:1 719:1 
1 1 1 1 35:1 57:1 147:1 360:1 2111:1 
1 1 1 1 27:1 35:1 40:1 55:1 83:1 102:1 200:1 406:1 855:1 897:1 1067:1 2112:1 2113:1 
1 1 1 1 69:1 723:1 1411:1 2114:1 
1 1 1 1 
1 1 1 1 2:1 39:1 44:1 46:1 60:1 66:1 73:1 85:1 109:1 175:1 229:1 348:1 1328:1 1350:1 1764:1 1822:1 2121:1 2122:1 
1 1 1 1 5:1 7:1 35:1 39:1 54:1 73:1 84:1 85:1 89:1 119:1 121:1 153:1 221:1 278:1 295:1 344:1 727:1 
1 1 1 1 39:1 148:1 190:1 1735:1 2123:1 2124:1 2125:1 
1 0 1 1 22:1 35:1 38:1 55:1 63:1 66:1 75:1 113:1 147:1 151:1 659:1 742:1 2127:1 
1 1 1 1 66:1 265:1 2128:1 2129:1 2130:1 2131:1 
1 1 1 1 151:1 2132:1 
1 1 1 1 75:1 123:1 138:1 2078:1 
1 1 1 1 7:1 35:1 39:1 41:1 55:1 66:1 109:1 312:1 345:1 466:1 508:1 793:1 897:1 937:1 2133:1 2134:1 
1 1 1 1 
1 0 1 1 55:1 63:1 66:1 113:1 150:1 151:1 2135:1 
1 0 1 1 22:1 197:1 1206:1 
1 0 1 1 55:1 63:1 75:1 96:1 198:1 1350:1 
1 1 1 1 39:1 57:1 96:1 237:1 333:1 1835:1 
1 1 1 1 395:1 466:1 481:1 
1 1 1 1 7:1 55:1 66:1 75:1 1350:1 2137:1 
1 1 1 1 7:1 31:1 75:1 85:1 113:1 114:1 115:1 828:1 
1 1 1 1 31:1 60:1 66:1 170:1 
1 1 1 1 77:1 162:1 220:1 237:1 241:1 366:1 857:1 2141:1 
1 1 1 1 35:1 40:1 58:1 75:1 2142:1 2143:1 2144:1 
1 1 1 1 2146:1 
1 1 1 1 7:1 75:1 113:1 433:1 492:1 
1 1 1 1 27:1 42:1 55:1 66:1 227:1 253:1 278:1 304:1 567:1 2147:1 2149:1 
1 0 1 1 113:1 181:1 347:1 2150:1 
1 0 1 1 63:1 66:1 113:1 151:1 492:1 2153:1 
1 1 1 1 35:1 201:1 597:1 1137:1 1797:1 2154:1 2155:1 
1 1 1 1 1845:1 1894:1 
1 1 1 1 
1 1 1 1 118:1 158:1 628:1 1829:1 2157:1 
1 0 1 1 31:1 55:1 75:1 113:1 114:1 300:1 
1 1 1 1 2152:1 
1 1 1 1 97:1 312:1 827:1 2158:1 2159:1 2160:1 
1 0 1 1 22:1 60:1 114:1 
1 0 1 1 39:1 55:1 63:1 75:1 252:1 1577:1 1601:1 2163:1 
1 1 1 1 227:1 466:1 1607:1 
1 1 1 1 40:1 43:1 55:1 65:1 82:1 418:1 610:1 
1 1 1 1 44:1 55:1 96:1 111:1 130:1 769:1 810:1 2164:1 
1 1 1 1 60:1 63:1 198:1 406:1 2165:1 
1 0 1 1 40:1 42:1 63:1 66:1 106:1 109:1 113:1 165:1 216:1 248:1 320:1 347:1 402:1 836:1 2167:1 
1 0 1 1 22:1 69:1 75:1 136:1 566:1 893:1 
1 1 1 1 2169:1 
1 1 1 1 195:1 196:1 
1 1 1 1 161:1 
1 1 1 1 
1 1 1 1 45:1 119:1 
1 1 1 1 1313:1 2171:1 2173:1 2176:1 
1 0 1 1 40:1 55:1 126:1 181:1 360:1 658:1 822:1 1015:1 
1 1 1 1 2:1 5:1 49:1 64:1 114:1 136:1 1608:1 1754:1 2177:1 
1 0 1 1 31:1 41:1 75:1 113:1 114:1 115:1 181:1 825:1 
1 1 1 1 5:1 25:1 35:1 39:1 44:1 46:1 57:1 85:1 89:1 153:1 248:1 371:1 541:1 668:1 766:1 767:1 
1 1 1 1 31:1 39:1 41:1 158:1 212:1 2179:1 2180:1 
1 1 1 1 55:1 126:1 
1 1 1 1 35:1 39:1 55:1 60:1 75:1 89:1 119:1 126:1 237:1 472:1 481:1 564:1 621:1 658:1 1026:1 1156:1 1413:1 1933:1 2182:1 2183:1 
1 1 1 1 35:1 347:1 617:1 1295:1 
1 1 1 1 55:1 
1 1 1 1 42:1 49:1 58:1 85:1 96:1 137:1 138:1 229:1 274:1 283:1 359:1 425:1 762:1 791:1 803:1 1460:1 1816:1 2189:1 2190:1 5756:1 
1 1 1 1 42:1 327:1 1550:1 
1 1 1 1 11:1 75:1 360:1 396:1 
1 1 1 1 66:1 75:1 492:1 803:1 981:1 1664:1 
1 0 1 1 209:1 227:1 241:1 466:1 620:1 762:1 2133:1 5756:1 
1 0 1 1 2:1 14:1 97:1 147:1 161:1 203:1 206:1 433:1 836:1 1083:1 2197:1 
1 1 1 1 119:1 
1 1 1 1 49:1 58:1 66:1 92:1 252:1 261:1 442:1 513:1 2198:1 
1 0 1 1 25:1 40:1 46:1 63:1 85:1 89:1 181:1 477:1 2199:1 2200:1 
1 1 1 1 55:1 158:1 161:1 186:1 564:1 1383:1 2202:1 2203:1 
1 0 1 1 40:1 75:1 147:1 767:1 794:1 
1 1 1 1 20:1 668:1 
1 1 1 1 7:1 39:1 41:1 42:1 46:1 64:1 82:1 96:1 310:1 430:1 490:1 620:1 970:1 1066:1 1386:1 2206:1 
1 1 1 1 63:1 75:1 
1 0 1 1 55:1 75:1 248:1 390:1 1130:1 
1 1 1 1 5:1 7:1 40:1 55:1 64:1 75:1 96:1 119:1 229:1 652:1 682:1 810:1 
1 1 1 1 5:1 31:1 35:1 39:1 49:1 147:1 165:1 484:1 1065:1 2208:1 2209:1 2210:1 2211:1 2212:1 
1 1 1 1 327:1 348:1 457:1 901:1 2213:1 2214:1 
1 0 1 1 2:1 66:1 103:1 152:1 158:1 181:1 292:1 406:1 893:1 1537:1 2215:1 2216:1 2217:1 3714:1 
1 0 1 1 22:1 41:1 75:1 898:1 2218:1 
1 1 1 1 2:1 35:1 66:1 195:1 344:1 508:1 767:1 810:1 
1 1 1 1 41:1 75:1 147:1 166:1 1145:1 
1 1 1 1 
1 1 1 1 11:1 25:1 46:1 55:1 89:1 161:1 162:1 229:1 237:1 301:1 430:1 595:1 1240:1 1271:1 
1 1 1 1 181:1 347:1 
1 1 1 1 7:1 22:1 35:1 55:1 60:1 70:1 89:1 122:1 132:1 570:1 600:1 1298:1 1347:1 2219:1 2220:1 
1 1 1 1 181:1 1825:1 
1 1 1 1 466:1 570:1 2133:1 2221:1 
1 1 1 1 309:1 
1 1 1 1 41:1 75:1 543:1 1102:1 
1 1 1 1 41:1 269:1 366:1 1577:1 
1 1 1 1 72:1 181:1 
1 1 1 1 41:1 60:1 193:1 459:1 639:1 
1 1 1 1 
1 1 1 1 31:1 82:1 84:1 85:1 89:1 97:1 201:1 275:1 333:1 335:1 505:1 1783:1 
1 1 1 1 198:1 238:1 1959:1 
1 1 1 1 2223:1 
1 1 1 1 181:1 196:1 1899:1 
1 1 1 1 132:1 550:1 2224:1 
1 1 1 1 2028:1 
1 1 1 1 25:1 42:1 46:1 75:1 83:1 229:1 248:1 617:1 727:1 1271:1 2226:1 
1 1 1 1 181:1 
1 1 1 1 7:1 39:1 49:1 55:1 82:1 158:1 186:1 541:1 691:1 2228:1 2229:1 2230:1 
1 0 1 1 55:1 75:1 223:1 248:1 390:1 859:1 
1 1 1 1 248:1 911:1 2231:1 
1 1 1 1 58:1 133:1 391:1 865:1 1273:1 
1 1 1 1 35:1 55:1 63:1 89:1 198:1 297:1 299:1 300:1 
1 1 1 1 7:1 39:1 55:1 75:1 147:1 151:1 229:1 344:1 462:1 541:1 565:1 1237:1 2008:1 2232:1 2233:1 2234:1 2235:1 
1 0 1 1 60:1 63:1 66:1 113:1 151:1 292:1 655:1 701:1 792:1 2237:1 2238:1 2239:1 2240:1 2241:1 2242:1 2243:1 2244:1 
1 1 1 1 55:1 138:1 183:1 212:1 221:1 723:1 812:1 915:1 2246:1 2247:1 2248:1 
1 1 1 1 
1 1 1 1 72:1 1048:1 
1 1 1 1 41:1 66:1 691:1 1022:1 2250:1 
1 1 1 1 2:1 992:1 
1 1 1 1 601:1 646:1 
1 1 1 1 35:1 39:1 49:1 87:1 269:1 304:1 2251:1 2252:1 2253:1 2254:1 2255:1 
1 0 1 1 55:1 60:1 75:1 198:1 
1 1 1 1 35:1 89:1 136:1 163:1 193:1 216:1 564:1 1080:1 1608:1 1794:1 
1 1 1 1 55:1 66:1 1350:1 
1 1 1 1 41:1 42:1 55:1 66:1 75:1 89:1 126:1 181:1 216:1 229:1 339:1 564:1 856:1 1267:1 2064:1 2258:1 2259:1 
1 1 1 1 75:1 136:1 147:1 181:1 761:1 1335:1 
1 1 1 1 7:1 39:1 55:1 75:1 147:1 151:1 229:1 344:1 541:1 565:1 1237:1 2008:1 2232:1 2233:1 
1 1 1 1 395:1 
1 1 1 1 31:1 113:1 132:1 550:1 601:1 
1 1 1 1 31:1 114:1 115:1 181:1 
1 1 1 1 7:1 50:1 55:1 320:1 375:1 444:1 2260:1 
1 0 1 1 7:1 27:1 41:1 126:1 335:1 366:1 762:1 862:1 5756:1 
1 1 1 1 114:1 227:1 761:1 952:1 
1 1 1 1 196:1 2150:1 2262:1 
1 1 1 1 35:1 39:1 63:1 75:1 115:1 129:1 147:1 148:1 344:1 395:1 396:1 836:1 1083:1 2264:1 
1 1 1 1 7:1 26:1 27:1 35:1 39:1 41:1 55:1 66:1 70:1 183:1 212:1 229:1 274:1 312:1 369:1 477:1 1446:1 2267:1 
1 0 1 1 55:1 151:1 347:1 1601:1 
1 1 1 1 27:1 2270:1 
1 1 1 1 115:1 
1 1 1 1 96:1 553:1 
1 1 1 1 138:1 159:1 181:1 344:1 
1 1 1 1 
1 1 1 1 49:1 75:1 216:1 227:1 836:1 2272:1 2274:1 
1 1 1 1 7:1 40:1 75:1 742:1 2275:1 2276:1 
1 1 1 1 69:1 229:1 301:1 876:1 1012:1 2277:1 
1 1 1 1 100:1 
1 1 1 1 49:1 2279:1 
1 0 1 1 27:1 40:1 41:1 55:1 66:1 126:1 497:1 575:1 807:1 862:1 2281:1 2282:1 2283:1 
1 0 1 1 41:1 64:1 66:1 69:1 97:1 132:1 181:1 304:1 312:1 347:1 2284:1 
1 1 1 1 7:1 25:1 35:1 75:1 158:1 341:1 342:1 953:1 
1 1 1 1 551:1 1260:1 
1 1 1 1 296:1 570:1 2286:1 
1 1 1 1 41:1 252:1 549:1 1601:1 
1 1 1 1 63:1 66:1 118:1 138:1 190:1 691:1 
1 1 1 1 31:1 113:1 114:1 115:1 894:1 
1 1 1 1 7:1 41:1 66:1 126:1 2288:1 
1 1 1 1 60:1 
1 1 1 1 33:1 39:1 40:1 41:1 950:1 1298:1 2293:1 
1 1 1 1 7:1 27:1 53:1 60:1 121:1 137:1 650:1 2294:1 
1 1 1 1 2295:1 
1 0 1 1 181:1 195:1 196:1 
1 1 1 1 113:1 181:1 2187:1 2296:1 
1 1 1 1 75:1 158:1 190:1 315:1 710:1 1125:1 1941:1 2297:1 2298:1 
1 1 1 1 5:1 49:1 
1 1 1 1 38:1 66:1 147:1 1218:1 2299:1 
1 1 1 1 60:1 66:1 70:1 155:1 447:1 1477:1 1844:1 2300:1 2301:1 2302:1 
1 1 1 1 35:1 75:1 94:1 147:1 274:1 1987:1 2303:1 2304:1 
1 1 1 1 5:1 44:1 66:1 121:1 2306:1 2307:1 
1 1 1 1 35:1 617:1 727:1 897:1 2308:1 
1 1 1 1 96:1 2126:1 
1 1 1 1 63:1 307:1 564:1 742:1 2309:1 2311:1 2312:1 
1 0 1 1 40:1 63:1 64:1 165:1 181:1 206:1 237:1 312:1 374:1 472:1 1128:1 1267:1 
1 1 1 1 5:1 27:1 35:1 39:1 55:1 69:1 82:1 83:1 85:1 136:1 229:1 814:1 834:1 1679:1 1889:1 2313:1 2314:1 
1 1 1 1 2:1 39:1 40:1 89:1 118:1 181:1 220:1 265:1 1763:1 2315:1 2316:1 
1 0 1 1 55:1 75:1 96:1 119:1 198:1 462:1 485:1 839:1 
1 0.4617968680410944 1 1 40:1 55:1 66:1 96:1 138:1 248:1 267:1 331:1 508:1 1309:1 2318:1 2319:1 
1 0 1 1 21:1 63:1 159:1 310:1 466:1 597:1 691:1 
1 1 1 1 
1 0 1 1 22:1 197:1 2321:1 
1 1 1 1 40:1 266:1 
1 1 1 1 31:1 66:1 468:1 
1 1 1 1 31:1 38:1 40:1 83:1 136:1 312:1 432:1 948:1 1026:1 1079:1 1128:1 2324:1 
1 1 1 1 42:1 69:1 138:1 171:1 312:1 871:1 1608:1 
1 1 1 1 96:1 136:1 315:1 1649:1 2325:1 2326:1 
1 1 1 1 25:1 41:1 55:1 69:1 118:1 200:1 229:1 310:1 766:1 767:1 897:1 969:1 
1 1 1 1 67:1 96:1 181:1 485:1 1614:1 
1 1 1 1 147:1 921:1 2328:1 2329:1 2330:1 2331:1 
1 1 1 1 181:1 198:1 
1 1 1 1 55:1 66:1 75:1 1350:1 2332:1 
1 1 1 1 27:1 35:1 41:1 240:1 488:1 505:1 597:1 762:1 1568:1 2333:1 5756:1 
1 1 1 1 2223:1 
1 0 1 1 38:1 45:1 181:1 237:1 344:1 388:1 714:1 2334:1 
1 1 1 1 1298:1 2335:1 
1 1 1 1 75:1 804:1 2336:1 
1 1 1 1 7:1 2338:1 
1 1 1 1 35:1 42:1 72:1 75:1 151:1 165:1 304:1 344:1 876:1 1269:1 1711:1 2339:1 
1 1 1 1 55:1 118:1 126:1 443:1 
1 1 1 1 149:1 150:1 
1 0 1 1 55:1 63:1 227:1 274:1 1143:1 1965:1 1980:1 2270:1 2340:1 2342:1 2343:1 
1 0 1 1 27:1 40:1 41:1 55:1 63:1 112:1 252:1 347:1 885:1 
1 1 1 1 55:1 75:1 261:1 593:1 752:1 
1 1 1 1 35:1 55:1 96:1 136:1 137:1 138:1 723:1 828:1 1550:1 
1 0 1 1 22:1 75:1 113:1 123:1 124:1 
1 1 1 1 7:1 42:1 66:1 100:1 170:1 227:1 305:1 769:1 1021:1 1328:1 2351:1 2352:1 2353:1 2354:1 2355:1 
1 1 1 1 5:1 27:1 55:1 163:1 553:1 
1 1 1 1 7:1 54:1 55:1 66:1 75:1 96:1 162:1 462:1 485:1 774:1 822:1 1350:1 2356:1 
1 1 1 1 35:1 181:1 433:1 
1 1 1 1 7:1 75:1 1557:1 
1 0 1 1 45:1 55:1 75:1 195:1 196:1 476:1 1015:1 
1 1 1 1 7:1 35:1 55:1 75:1 83:1 138:1 223:1 312:1 328:1 347:1 430:1 447:1 1387:1 2358:1 2359:1 
1 0 1 1 24:1 25:1 34:1 40:1 55:1 66:1 69:1 75:1 85:1 113:1 123:1 151:1 418:1 593:1 752:1 1862:1 
1 1 1 1 11:1 35:1 63:1 75:1 89:1 148:1 175:1 190:1 989:1 1302:1 2361:1 2362:1 
1 1 1 1 89:1 144:1 183:1 226:1 304:1 333:1 543:1 883:1 2363:1 
1 1 1 1 201:1 
1 1 1 1 75:1 115:1 158:1 1138:1 
1 1 1 1 5:1 35:1 40:1 147:1 163:1 442:1 713:1 728:1 2106:1 2164:1 2306:1 2365:1 2366:1 
1 1 1 1 35:1 89:1 148:1 190:1 212:1 455:1 1268:1 1593:1 
1 0 1 1 27:1 53:1 55:1 85:1 126:1 201:1 312:1 389:1 391:1 472:1 2368:1 2369:1 
1 1 1 1 31:1 34:1 42:1 44:1 45:1 66:1 106:1 121:1 153:1 170:1 237:1 241:1 1516:1 2057:1 2058:1 2059:1 
1 1 1 1 311:1 2126:1 
1 1 1 1 
1 0 1 1 25:1 27:1 55:1 66:1 75:1 84:1 121:1 138:1 139:1 187:1 216:1 300:1 505:1 2228:1 2370:1 2371:1 2372:1 
1 0 1 1 27:1 31:1 41:1 55:1 66:1 96:1 126:1 1234:1 1376:1 
1 0 1 1 63:1 75:1 113:1 359:1 360:1 433:1 1295:1 
1 1 1 1 5:1 35:1 39:1 42:1 75:1 84:1 85:1 89:1 237:1 274:1 762:1 763:1 767:1 2374:1 2375:1 2376:1 5756:1 
1 0 1 1 27:1 55:1 82:1 85:1 100:1 1294:1 
1 1 1 1 39:1 66:1 128:1 147:1 190:1 201:1 203:1 469:1 1065:1 1777:1 2377:1 
1 1 1 1 109:1 151:1 227:1 347:1 504:1 570:1 
1 1 1 1 7:1 35:1 36:1 39:1 41:1 63:1 69:1 75:1 163:1 229:1 241:1 261:1 564:1 791:1 834:1 1312:1 2380:1 2381:1 2382:1 
1 1 1 1 69:1 75:1 2385:1 2386:1 2387:1 
1 1 1 1 11:1 54:1 96:1 227:1 466:1 1054:1 1098:1 1777:1 
1 1 1 1 42:1 63:1 66:1 75:1 138:1 216:1 301:1 344:1 374:1 737:1 1298:1 1522:1 2388:1 2389:1 6907:1 
1 1 1 1 2390:1 
1 0 1 1 14:1 25:1 38:1 41:1 113:1 114:1 155:1 159:1 183:1 312:1 372:1 679:1 727:1 767:1 1099:1 1156:1 2391:1 2392:1 
1 1 1 1 20:1 35:1 372:1 1325:1 1386:1 1413:1 2395:1 
1 1 1 1 220:1 543:1 1273:1 
1 1 1 1 601:1 2397:1 
1 1 1 1 20:1 26:1 35:1 40:1 50:1 55:1 63:1 102:1 137:1 151:1 304:1 617:1 727:1 2221:1 
1 1 1 1 55:1 96:1 163:1 891:1 1143:1 1662:1 2020:1 
1 1 1 1 7:1 40:1 55:1 66:1 97:1 304:1 1704:1 2296:1 2400:1 
1 1 1 1 66:1 374:1 779:1 2401:1 
1 1 1 1 2402:1 
1 1 1 1 
1 1 1 1 66:1 241:1 335:1 742:1 2403:1 2404:1 2405:1 2406:1 
1 1 1 1 25:1 35:1 53:1 57:1 66:1 96:1 158:1 261:1 308:1 691:1 772:1 1120:1 
1 1 1 1 55:1 58:1 66:1 75:1 119:1 195:1 196:1 229:1 408:1 581:1 2409:1 2410:1 2411:1 
1 1 1 1 31:1 75:1 106:1 203:1 652:1 1607:1 
1 1 1 1 27:1 84:1 121:1 229:1 313:1 473:1 1620:1 1789:1 1886:1 
1 1 1 1 181:1 347:1 2415:1 
1 1 1 1 31:1 34:1 63:1 66:1 83:1 173:1 200:1 484:1 1373:1 2416:1 
1 0 1 1 40:1 55:1 161:1 344:1 2417:1 
1 1 1 1 181:1 248:1 
1 0 1 1 55:1 69:1 130:1 158:1 391:1 620:1 727:1 897:1 898:1 1514:1 1862:1 2418:1 2419:1 
1 1 1 1 55:1 150:1 626:1 
1 0 1 1 22:1 40:1 55:1 60:1 658:1 1015:1 1614:1 
1 1 1 1 27:1 35:1 40:1 121:1 592:1 597:1 991:1 
1 0 1 1 181:1 347:1 352:1 462:1 485:1 
1 1 1 1 27:1 55:1 66:1 85:1 147:1 153:1 240:1 331:1 390:1 432:1 1534:1 2313:1 2420:1 
1 1 1 1 89:1 158:1 229:1 361:1 695:1 1127:1 2081:1 2421:1 
1 0 1 1 14:1 20:1 22:1 27:1 31:1 66:1 72:1 75:1 114:1 762:1 850:1 2250:1 2422:1 5756:1 
1 0 1 1 42:1 63:1 75:1 85:1 96:1 121:1 762:1 1147:1 1312:1 2423:1 3714:1 
1 1 1 1 31:1 66:1 468:1 
1 1 1 1 63:1 82:1 
1 1 1 1 98:1 138:1 229:1 582:1 2424:1 3714:1 
1 1 1 1 40:1 55:1 96:1 331:1 359:1 415:1 582:1 656:1 2425:1 
1 1 1 1 34:1 35:1 63:1 96:1 128:1 430:1 1160:1 
1 1 1 1 2:1 31:1 38:1 39:1 40:1 83:1 118:1 159:1 175:1 201:1 305:1 312:1 344:1 459:1 462:1 681:1 795:1 981:1 1066:1 1965:1 2064:1 2426:1 
1 1 1 1 20:1 39:1 41:1 55:1 60:1 66:1 126:1 304:1 694:1 1651:1 1679:1 2309:1 2431:1 2432:1 2433:1 2434:1 
1 1 1 1 41:1 118:1 152:1 201:1 1622:1 1756:1 
1 1 1 1 42:1 63:1 106:1 190:1 201:1 476:1 1143:1 2435:1 
1 1 1 1 2:1 75:1 331:1 1742:1 1829:1 
1 1 1 1 10:1 75:1 372:1 837:1 
1 1 1 1 5:1 11:1 42:1 44:1 69:1 96:1 158:1 312:1 553:1 668:1 2157:1 3714:1 
1 1 1 1 35:1 63:1 75:1 114:1 198:1 2006:1 2141:1 2422:1 
1 1 1 1 35:1 41:1 58:1 158:1 237:1 361:1 466:1 543:1 1065:1 1181:1 1667:1 2439:1 
1 1 1 1 2:1 35:1 333:1 921:1 1496:1 2441:1 2442:1 2443:1 2444:1 2445:1 2446:1 2447:1 2448:1 2449:1 2450:1 
1 1 1 1 5:1 89:1 100:1 201:1 335:1 
1 1 1 1 31:1 33:1 39:1 40:1 70:1 109:1 147:1 201:1 229:1 361:1 366:1 542:1 834:1 966:1 2003:1 2452:1 2453:1 2454:1 2455:1 2457:1 
1 1 1 1 63:1 158:1 328:1 2458:1 
1 1 1 1 196:1 
1 1 1 1 31:1 66:1 138:1 147:1 158:1 170:1 304:1 473:1 769:1 839:1 1043:1 1170:1 2460:1 2461:1 
1 0 1 1 53:1 54:1 55:1 63:1 73:1 75:1 336:1 742:1 2046:1 2438:1 2462:1 2463:1 
1 1 1 1 5:1 89:1 147:1 159:1 349:1 365:1 769:1 2464:1 
1 1 1 1 35:1 46:1 55:1 82:1 96:1 128:1 137:1 336:1 597:1 1172:1 1350:1 2465:1 2466:1 2467:1 2468:1 
1 1 1 1 41:1 114:1 181:1 183:1 628:1 
1 1 1 1 49:1 75:1 84:1 96:1 147:1 1159:1 1231:1 2146:1 2469:1 2470:1 
1 1 1 1 96:1 103:1 
1 0 1 1 24:1 31:1 41:1 46:1 63:1 66:1 70:1 170:1 219:1 296:1 344:1 762:1 836:1 2071:1 2471:1 2472:1 2474:1 5756:1 
1 1 1 1 75:1 119:1 463:1 481:1 840:1 
1 1 1 1 60:1 132:1 2480:1 
1 0 1 1 63:1 132:1 347:1 
1 1 1 1 58:1 310:1 311:1 391:1 483:1 2483:1 
1 1 1 1 41:1 58:1 60:1 75:1 163:1 366:1 777:1 1920:1 2156:1 2484:1 2485:1 
1 1 1 1 5:1 39:1 220:1 762:1 1082:1 1191:1 2479:1 2486:1 
1 1 1 1 151:1 
1 1 1 1 39:1 55:1 72:1 408:1 535:1 601:1 1120:1 1732:1 1938:1 2487:1 2488:1 2493:1 
1 1 1 1 57:1 63:1 66:1 504:1 867:1 1087:1 
1 1 1 1 14:1 55:1 98:1 118:1 147:1 155:1 203:1 2494:1 
1 1 1 1 55:1 691:1 732:1 918:1 2495:1 
1 1 1 1 
1 1 1 1 60:1 66:1 132:1 347:1 2228:1 2496:1 
1 1 1 1 55:1 198:1 224:1 485:1 727:1 1271:1 1662:1 
1 1 1 1 55:1 66:1 85:1 327:1 484:1 1376:1 2497:1 2498:1 
1 1 1 1 41:1 201:1 248:1 1071:1 2499:1 
1 1 1 1 7:1 96:1 123:1 339:1 970:1 2500:1 
1 1 1 1 7:1 83:1 171:1 344:1 719:1 2502:1 
1 1 1 1 
1 1 1 1 5:1 41:1 229:1 
1 1 1 1 64:1 66:1 89:1 96:1 138:1 305:1 873:1 
1 1 1 1 7:1 33:1 39:1 41:1 44:1 55:1 66:1 75:1 84:1 85:1 89:1 97:1 336:1 1057:1 1267:1 1280:1 2504:1 2505:1 
1 0 1 1 34:1 40:1 41:1 45:1 53:1 55:1 63:1 75:1 82:1 89:1 163:1 349:1 1057:1 1293:1 1300:1 1607:1 2506:1 
1 1 1 1 66:1 292:1 
1 1 1 1 
1 0 1 1 7:1 40:1 85:1 216:1 727:1 2509:1 2510:1 
1 1 1 1 60:1 114:1 165:1 197:1 
1 1 1 1 
1 1 1 1 16:1 60:1 315:1 710:1 
1 1 1 1 147:1 198:1 412:1 2512:1 
1 1 1 1 44:1 55:1 96:1 111:1 130:1 769:1 810:1 2164:1 
1 1 1 1 25:1 35:1 40:1 41:1 57:1 63:1 84:1 201:1 226:1 347:1 606:1 986:1 2150:1 2224:1 2513:1 
1 1 1 1 60:1 181:1 
1 1 1 1 66:1 100:1 669:1 742:1 
1 1 1 1 5:1 31:1 41:1 2518:1 
1 0 1 1 40:1 55:1 72:1 181:1 328:1 390:1 623:1 
1 1 1 1 22:1 150:1 
1 1 1 1 40:1 55:1 248:1 312:1 430:1 658:1 1015:1 2522:1 
1 1 1 1 7:1 44:1 66:1 87:1 96:1 366:1 448:1 810:1 2158:1 2523:1 
1 1 1 1 63:1 66:1 422:1 621:1 893:1 969:1 2524:1 
1 0 1 1 22:1 27:1 31:1 55:1 66:1 75:1 115:1 121:1 360:1 372:1 730:1 1234:1 1759:1 
1 0 1 1 11:1 14:1 66:1 98:1 113:1 175:1 195:1 196:1 203:1 863:1 1837:1 
1 1 1 1 
1 1 1 1 
1 0 1 1 22:1 27:1 31:1 55:1 66:1 75:1 115:1 121:1 360:1 372:1 730:1 1234:1 1759:1 
1 1 1 1 601:1 2397:1 
1 1 1 1 7:1 60:1 201:1 335:1 714:1 902:1 2529:1 2530:1 2531:1 2532:1 
1 1 1 1 66:1 197:1 344:1 
1 1 1 1 97:1 153:1 2284:1 2533:1 2534:1 
1 1 1 1 58:1 240:1 425:1 2535:1 
1 1 1 1 109:1 151:1 227:1 347:1 504:1 570:1 
1 1 1 1 75:1 742:1 
1 1 1 1 75:1 
1 1 1 1 69:1 85:1 87:1 138:1 153:1 791:1 
1 1 1 1 58:1 75:1 151:1 
1 1 1 1 75:1 742:1 743:1 1662:1 
1 1 1 1 55:1 69:1 344:1 2541:1 
1 1 1 1 2:1 63:1 161:1 863:1 2543:1 
1 1 1 1 75:1 147:1 181:1 310:1 504:1 
1 1 1 1 60:1 198:1 
1 0 1 1 41:1 66:1 75:1 89:1 112:1 118:1 181:1 198:1 201:1 372:1 701:1 2105:1 2547:1 2548:1 
1 0 1 1 25:1 27:1 40:1 41:1 55:1 63:1 100:1 691:1 1522:1 
1 1 1 1 35:1 360:1 822:1 894:1 
1 0 1 1 27:1 40:1 41:1 44:1 121:1 159:1 1143:1 1441:1 
1 1 1 1 35:1 38:1 70:1 72:1 147:1 412:1 1065:1 
1 1 1 1 31:1 66:1 84:1 331:1 1980:1 2549:1 
1 0 1 1 31:1 46:1 55:1 63:1 66:1 75:1 113:1 123:1 124:1 374:1 520:1 1247:1 1348:1 1568:1 
1 1 1 1 119:1 762:1 2181:1 5756:1 
1 1 1 1 27:1 55:1 57:1 89:1 152:1 201:1 1156:1 2551:1 2552:1 
1 1 1 1 63:1 147:1 190:1 242:1 2553:1 
1 0 1 1 40:1 216:1 727:1 737:1 
1 1 1 1 504:1 
1 1 1 1 63:1 795:1 1137:1 1280:1 2155:1 
1 1 1 1 7:1 40:1 45:1 111:1 346:1 2278:1 
1 1 1 1 75:1 590:1 2555:1 
1 1 1 1 110:1 150:1 564:1 575:1 834:1 
1 0 1 1 49:1 55:1 226:1 344:1 2508:1 2556:1 
1 1 1 1 55:1 96:1 163:1 891:1 1143:1 1662:1 2020:1 
1 0 1 1 55:1 66:1 85:1 126:1 171:1 237:1 344:1 578:1 628:1 2557:1 2558:1 
1 1 1 1 63:1 75:1 138:1 155:1 1055:1 1243:1 1594:1 1738:1 2097:1 
1 1 1 1 195:1 196:1 
1 1 1 1 25:1 42:1 46:1 75:1 100:1 224:1 237:1 248:1 311:1 442:1 508:1 1328:1 1350:1 1814:1 
1 0 1 1 40:1 216:1 737:1 
1 1 1 1 70:1 198:1 
1 0 1 1 7:1 55:1 89:1 103:1 153:1 158:1 161:1 186:1 237:1 240:1 292:1 331:1 524:1 536:1 863:1 1118:1 2098:1 2507:1 
1 1 1 1 63:1 66:1 422:1 621:1 893:1 969:1 2524:1 
1 0 1 1 25:1 40:1 46:1 55:1 64:1 114:1 126:1 159:1 767:1 793:1 2181:1 2559:1 
1 0 1 1 11:1 41:1 48:1 75:1 158:1 186:1 396:1 496:1 
1 1 1 1 55:1 69:1 82:1 478:1 579:1 
1 0 1 1 55:1 226:1 241:1 344:1 473:1 
1 1 1 1 7:1 66:1 2051:1 2561:1 
1 1 1 1 35:1 83:1 197:1 274:1 492:1 597:1 1376:1 
1 1 1 1 151:1 
1 1 1 1 
1 1 1 1 292:1 296:1 350:1 2564:1 2565:1 
1 1 1 1 40:1 41:1 98:1 474:1 2046:1 2134:1 3714:1 
1 1 1 1 5:1 49:1 402:1 468:1 617:1 
1 1 1 1 31:1 40:1 66:1 391:1 897:1 898:1 2276:1 
1 1 1 1 40:1 54:1 55:1 85:1 89:1 153:1 366:1 623:1 807:1 2377:1 2566:1 
1 0 1 1 14:1 147:1 198:1 396:1 445:1 
1 1 1 1 
1 0 1 1 22:1 63:1 66:1 75:1 113:1 133:1 147:1 165:1 226:1 498:1 1252:1 
1 0 1 1 38:1 55:1 75:1 344:1 433:1 447:1 462:1 463:1 
1 1 1 1 196:1 
1 1 1 1 35:1 39:1 58:1 75:1 165:1 171:1 359:1 2567:1 2568:1 2571:1 2572:1 2573:1 2574:1 
1 1 1 1 5:1 35:1 49:1 63:1 114:1 241:1 543:1 2154:1 2575:1 2577:1 
1 1 1 1 53:1 366:1 
1 1 1 1 35:1 63:1 601:1 2578:1 
1 1 1 1 40:1 41:1 203:1 2579:1 2580:1 2581:1 
1 1 1 1 41:1 75:1 147:1 166:1 2582:1 2583:1 
1 1 1 1 
1 1 1 1 158:1 274:1 459:1 1055:1 1373:1 1738:1 
1 1 1 1 35:1 55:1 66:1 75:1 165:1 186:1 344:1 375:1 742:1 1418:1 1804:1 2584:1 2585:1 2586:1 2587:1 2588:1 2589:1 
1 0 1 1 27:1 39:1 40:1 63:1 66:1 75:1 96:1 121:1 320:1 374:1 564:1 626:1 
1 0 1 1 75:1 132:1 742:1 1171:1 2590:1 
1 1 1 1 
1 1 1 1 25:1 35:1 41:1 138:1 2592:1 2593:1 2594:1 
1 1 1 1 35:1 113:1 320:1 766:1 1896:1 2595:1 
1 1 1 1 2:1 34:1 39:1 55:1 66:1 151:1 161:1 241:1 372:1 749:1 836:1 839:1 1059:1 1072:1 1689:1 2596:1 2597:1 2598:1 2599:1 2600:1 
1 1 1 1 401:1 1170:1 1615:1 
1 1 1 1 31:1 48:1 49:1 82:1 131:1 216:1 301:1 344:1 372:1 457:1 673:1 1188:1 1708:1 1795:1 2223:1 2601:1 2602:1 2603:1 
1 1 1 1 39:1 55:1 295:1 875:1 1223:1 1777:1 
1 1 1 1 35:1 39:1 42:1 45:1 49:1 69:1 144:1 151:1 181:1 201:1 229:1 312:1 313:1 335:1 897:1 2604:1 2605:1 2606:1 2607:1 
1 1 1 1 55:1 344:1 2146:1 
1 1 1 1 101:1 147:1 248:1 466:1 
1 1 1 1 35:1 39:1 66:1 92:1 96:1 114:1 278:1 488:1 810:1 2141:1 2610:1 
1 1 1 1 60:1 1553:1 1748:1 2611:1 2612:1 
1 1 1 1 31:1 40:1 97:1 372:1 623:1 767:1 1159:1 1446:1 2614:1 2615:1 
1 1 1 1 5:1 35:1 96:1 134:1 229:1 336:1 350:1 745:1 1350:1 
1 0 1 1 41:1 64:1 66:1 69:1 97:1 132:1 181:1 304:1 312:1 347:1 2284:1 
1 1 1 1 11:1 35:1 55:1 70:1 89:1 119:1 132:1 138:1 296:1 347:1 408:1 652:1 1317:1 2036:1 2150:1 2481:1 2556:1 
1 1 1 1 2051:1 
1 1 1 1 31:1 41:1 64:1 66:1 981:1 2618:1 
1 1 1 1 55:1 60:1 69:1 70:1 89:1 148:1 155:1 173:1 539:1 807:1 1467:1 2619:1 2620:1 2621:1 
1 1 1 1 190:1 
1 1 1 1 35:1 63:1 96:1 197:1 198:1 736:1 2623:1 
1 1 1 1 767:1 933:1 952:1 
1 1 1 1 55:1 138:1 331:1 
1 1 1 1 58:1 137:1 152:1 312:1 1267:1 1298:1 2625:1 
1 1 1 1 34:1 35:1 128:1 229:1 310:1 767:1 1135:1 2626:1 2627:1 
1 1 1 1 39:1 714:1 850:1 2628:1 
1 1 1 1 682:1 2390:1 2629:1 
1 1 1 1 63:1 132:1 2630:1 
1 0 1 1 55:1 344:1 691:1 2631:1 2632:1 
1 0 1 1 14:1 38:1 40:1 55:1 85:1 115:1 147:1 160:1 601:1 
1 0 1 1 55:1 66:1 75:1 344:1 553:1 763:1 2634:1 2635:1 
1 0 1 1 22:1 31:1 75:1 198:1 305:1 794:1 814:1 
1 1 1 1 35:1 2636:1 
1 1 1 1 27:1 70:1 147:1 296:1 463:1 1184:1 
1 1 1 1 27:1 55:1 366:1 1294:1 
1 1 1 1 55:1 617:1 759:1 2038:1 2482:1 2639:1 
1 1 1 1 2640:1 
1 0 1 1 40:1 113:1 114:1 193:1 216:1 737:1 
1 1 1 1 7:1 35:1 60:1 66:1 69:1 70:1 75:1 96:1 147:1 166:1 175:1 179:1 412:1 507:1 524:1 766:1 791:1 803:1 1317:1 1873:1 2641:1 2642:1 2643:1 2644:1 
1 1 1 1 20:1 27:1 41:1 55:1 66:1 295:1 304:1 623:1 723:1 856:1 2646:1 2647:1 
1 1 1 1 25:1 40:1 55:1 72:1 147:1 406:1 658:1 1015:1 2648:1 
1 1 1 1 35:1 132:1 162:1 216:1 273:1 274:1 311:1 430:1 2649:1 2650:1 
1 1 1 1 2:1 7:1 27:1 55:1 58:1 66:1 75:1 138:1 147:1 153:1 179:1 225:1 229:1 237:1 312:1 328:1 472:1 725:1 1118:1 1135:1 1333:1 1371:1 2651:1 2652:1 2653:1 
1 1 1 1 
1 1 1 1 
1 0 1 1 55:1 57:1 126:1 147:1 198:1 304:1 415:1 1317:1 
1 1 1 1 5:1 69:1 82:1 85:1 153:1 623:1 896:1 2656:1 
1 1 1 1 39:1 40:1 58:1 75:1 89:1 312:1 339:1 418:1 564:1 1099:1 2433:1 2651:1 2657:1 
1 1 1 1 31:1 66:1 196:1 1516:1 
1 1 1 1 25:1 39:1 45:1 89:1 96:1 133:1 138:1 203:1 229:1 395:1 520:1 1026:1 1298:1 
1 1 1 1 198:1 
1 1 1 1 25:1 46:1 69:1 96:1 224:1 229:1 310:1 442:1 795:1 2659:1 
1 1 1 1 66:1 408:1 
1 0 1 1 27:1 39:1 41:1 55:1 126:1 2661:1 
1 1 1 1 738:1 1005:1 2150:1 2662:1 
1 1 1 1 6:1 41:1 144:1 241:1 252:1 1070:1 
1 1 1 1 7:1 66:1 114:1 165:1 197:1 
1 1 1 1 1206:1 
1 1 1 1 75:1 181:1 248:1 301:1 
1 0 1 1 55:1 75:1 344:1 
1 1 1 1 112:1 1064:1 2665:1 
1 0 1 1 55:1 63:1 66:1 94:1 297:1 691:1 1174:1 2666:1 
1 1 1 1 66:1 151:1 261:1 292:1 
1 1 1 1 22:1 1380:1 
1 1 1 1 14:1 96:1 134:1 147:1 148:1 203:1 317:1 408:1 2667:1 2669:1 
1 1 1 1 35:1 63:1 96:1 197:1 198:1 485:1 736:1 2623:1 2670:1 
1 1 1 1 40:1 55:1 66:1 89:1 408:1 574:1 1018:1 2332:1 2672:1 
1 1 1 1 55:1 126:1 
1 1 1 1 20:1 35:1 372:1 1325:1 1386:1 1413:1 2395:1 
1 1 1 1 42:1 55:1 138:1 240:1 445:1 498:1 1267:1 1534:1 2119:1 2673:1 2674:1 2675:1 
1 1 1 1 1055:1 
1 1 1 1 55:1 138:1 331:1 
1 1 1 1 64:1 
1 1 1 1 42:1 197:1 871:1 
1 1 1 1 27:1 66:1 83:1 121:1 153:1 162:1 201:1 224:1 290:1 344:1 462:1 525:1 857:1 933:1 2677:1 
1 1 1 1 55:1 60:1 69:1 82:1 96:1 478:1 579:1 
1 0 1 1 55:1 119:1 252:1 466:1 473:1 
1 1 1 1 35:1 40:1 55:1 63:1 209:1 479:1 549:1 1181:1 1424:1 2412:1 2678:1 2679:1 
1 1 1 1 89:1 194:1 349:1 1099:1 2044:1 
1 1 1 1 5:1 49:1 461:1 844:1 2680:1 
1 1 1 1 63:1 75:1 261:1 359:1 360:1 361:1 433:1 
1 0 1 1 35:1 40:1 42:1 55:1 63:1 69:1 96:1 111:1 126:1 148:1 153:1 161:1 197:1 237:1 301:1 620:1 828:1 937:1 2154:1 2681:1 3714:1 
1 1 1 1 229:1 347:1 1710:1 2682:1 
1 1 1 1 7:1 56:1 63:1 322:1 
1 0 1 1 55:1 63:1 96:1 162:1 310:1 572:1 822:1 940:1 1404:1 
1 1 1 1 27:1 35:1 40:1 121:1 148:1 151:1 190:1 229:1 315:1 701:1 2182:1 
1 1 1 1 14:1 20:1 21:1 34:1 39:1 63:1 66:1 109:1 113:1 126:1 133:1 229:1 241:1 243:1 601:1 2687:1 2688:1 2689:1 
1 1 1 1 35:1 197:1 402:1 2690:1 
1 1 1 1 114:1 
1 1 1 1 181:1 
1 1 1 1 58:1 75:1 1597:1 2691:1 
1 1 1 1 
1 1 1 1 7:1 35:1 89:1 147:1 201:1 361:1 641:1 759:1 
1 1 1 1 181:1 
1 1 1 1 361:1 470:1 691:1 2333:1 
1 1 1 1 31:1 40:1 44:1 96:1 1436:1 2693:1 2694:1 
1 1 1 1 55:1 66:1 1942:1 
1 1 1 1 31:1 35:1 39:1 41:1 58:1 66:1 75:1 158:1 181:1 183:1 193:1 278:1 459:1 597:1 776:1 779:1 1061:1 1301:1 2697:1 
1 0 1 1 181:1 195:1 196:1 
1 1 1 1 66:1 75:1 113:1 144:1 151:1 349:1 492:1 710:1 793:1 1273:1 
1 1 1 1 451:1 1507:1 2698:1 2699:1 2700:1 
1 1 1 1 55:1 57:1 96:1 462:1 485:1 867:1 
1 1 1 1 25:1 39:1 45:1 89:1 96:1 133:1 138:1 203:1 229:1 395:1 520:1 1026:1 1298:1 
1 0 1 1 22:1 35:1 55:1 63:1 66:1 248:1 390:1 859:1 2703:1 
1 1 1 1 
1 1 1 1 31:1 66:1 113:1 320:1 347:1 1516:1 
1 0 1 1 41:1 66:1 75:1 147:1 216:1 263:1 2704:1 
1 1 1 1 118:1 201:1 227:1 492:1 836:1 
1 1 1 1 
1 1 1 1 2:1 66:1 651:1 1350:1 
1 1 1 1 7:1 2298:1 
1 1 1 1 11:1 31:1 41:1 42:1 66:1 144:1 153:1 209:1 229:1 237:1 617:1 623:1 898:1 981:1 1022:1 1170:1 2706:1 2707:1 2708:1 
1 1 1 1 810:1 
1 1 1 1 63:1 146:1 181:1 
1 1 1 1 39:1 75:1 344:1 617:1 639:1 669:1 1278:1 2712:1 
1 1 1 1 46:1 96:1 109:1 121:1 153:1 183:1 305:1 333:1 492:1 1350:1 
1 1 1 1 55:1 66:1 162:1 779:1 
1 1 1 1 40:1 54:1 162:1 707:1 737:1 1380:1 
1 1 1 1 5:1 27:1 31:1 38:1 42:1 96:1 876:1 2716:1 2717:1 
1 1 1 1 327:1 348:1 457:1 901:1 2213:1 2214:1 
1 1 1 1 5:1 34:1 41:1 44:1 57:1 220:1 695:1 827:1 1267:1 1335:1 2718:1 2719:1 
1 1 1 1 252:1 
1 1 1 1 2:1 7:1 55:1 58:1 66:1 75:1 138:1 147:1 153:1 179:1 225:1 229:1 237:1 312:1 328:1 472:1 725:1 1118:1 1333:1 1371:1 2651:1 2652:1 2653:1 
1 1 1 1 60:1 66:1 70:1 155:1 447:1 1477:1 1844:1 2300:1 2301:1 2302:1 
1 1 1 1 31:1 35:1 85:1 130:1 147:1 762:1 1082:1 1451:1 2720:1 2721:1 2722:1 
1 1 1 1 17:1 27:1 39:1 44:1 75:1 121:1 144:1 229:1 301:1 395:1 751:1 932:1 1317:1 1376:1 1417:1 2688:1 2724:1 2725:1 
1 1 1 1 7:1 41:1 55:1 60:1 66:1 201:1 313:1 335:1 347:1 836:1 1940:1 2400:1 
1 1 1 1 2727:1 2728:1 2729:1 2730:1 
1 1 1 1 103:1 138:1 549:1 579:1 762:1 1082:1 2609:1 
1 1 1 1 66:1 85:1 115:1 153:1 237:1 408:1 1055:1 1738:1 
1 1 1 1 401:1 1170:1 1615:1 
1 1 1 1 5:1 22:1 35:1 42:1 54:1 55:1 114:1 121:1 138:1 153:1 162:1 278:1 317:1 432:1 737:1 1413:1 2731:1 
1 1 1 1 35:1 70:1 136:1 147:1 582:1 803:1 1065:1 2732:1 
1 1 1 1 181:1 347:1 
1 1 1 1 31:1 35:1 55:1 75:1 84:1 85:1 89:1 216:1 331:1 335:1 343:1 2733:1 
1 1 1 1 2051:1 
1 1 1 1 40:1 69:1 96:1 197:1 462:1 463:1 719:1 1173:1 
1 1 1 1 181:1 1845:1 2736:1 
1 1 1 1 2739:1 
1 1 1 1 5:1 63:1 69:1 89:1 412:1 543:1 1317:1 2740:1 
1 1 1 1 304:1 344:1 762:1 5756:1 
1 1 1 1 22:1 40:1 42:1 119:1 121:1 171:1 229:1 237:1 727:1 1376:1 1604:1 2741:1 
1 0 1 1 75:1 132:1 742:1 1171:1 2590:1 
1 1 1 1 31:1 35:1 40:1 138:1 147:1 1337:1 2085:1 2086:1 2089:1 
1 1 1 1 60:1 132:1 
1 0 1 1 75:1 89:1 113:1 132:1 196:1 
1 1 1 1 55:1 85:1 312:1 331:1 932:1 
1 1 1 1 27:1 35:1 55:1 1197:1 
1 1 1 1 27:1 39:1 49:1 190:1 201:1 315:1 762:1 829:1 2744:1 5756:1 
1 1 1 1 7:1 55:1 58:1 70:1 75:1 113:1 119:1 752:1 1403:1 
1 1 1 1 85:1 310:1 462:1 857:1 
1 1 1 1 114:1 
1 1 1 1 41:1 109:1 198:1 296:1 836:1 1083:1 
1 1 1 1 5:1 27:1 55:1 63:1 66:1 109:1 130:1 209:1 274:1 331:1 539:1 762:1 1082:1 2653:1 
1 1 1 1 35:1 63:1 66:1 136:1 719:1 2746:1 
1 1 1 1 27:1 597:1 628:1 3714:1 
1 1 1 1 7:1 49:1 69:1 82:1 132:1 163:1 422:1 739:1 1849:1 1987:1 2438:1 2748:1 
1 1 1 1 31:1 55:1 58:1 66:1 75:1 408:1 1291:1 2751:1 2752:1 2753:1 
1 0 1 1 75:1 85:1 216:1 794:1 1413:1 2755:1 
1 1 1 1 181:1 248:1 
1 1 1 1 75:1 241:1 315:1 366:1 794:1 2756:1 
1 1 1 1 35:1 42:1 57:1 85:1 153:1 216:1 274:1 308:1 430:1 481:1 617:1 2627:1 
1 1 1 1 41:1 60:1 187:1 2758:1 
1 1 1 1 196:1 508:1 714:1 1845:1 
1 0 1 1 55:1 75:1 96:1 121:1 181:1 398:1 2759:1 2760:1 
1 1 1 1 
1 1 1 1 5:1 60:1 312:1 408:1 597:1 2155:1 2761:1 
1 1 1 1 195:1 196:1 
1 1 1 1 42:1 63:1 106:1 190:1 201:1 476:1 1143:1 2435:1 
1 1 1 1 101:1 147:1 198:1 1083:1 1298:1 
1 1 1 1 96:1 151:1 248:1 462:1 485:1 
1 1 1 1 58:1 181:1 2452:1 2762:1 
1 1 1 1 31:1 39:1 55:1 75:1 91:1 101:1 138:1 158:1 344:1 345:1 794:1 1796:1 2146:1 2424:1 
1 1 1 1 63:1 123:1 1403:1 
1 1 1 1 5:1 35:1 40:1 55:1 63:1 85:1 89:1 209:1 479:1 549:1 1181:1 1424:1 2412:1 2678:1 2679:1 
1 1 1 1 60:1 114:1 
1 1 1 1 85:1 158:1 171:1 2764:1 
1 0 1 1 55:1 75:1 113:1 197:1 198:1 492:1 1350:1 
1 1 1 1 347:1 
1 1 1 1 1971:1 2765:1 2766:1 
1 1 1 1 7:1 67:1 111:1 301:1 369:1 541:1 578:1 
1 0 1 1 27:1 39:1 55:1 64:1 66:1 119:1 121:1 190:1 275:1 473:1 2026:1 
1 1 1 1 7:1 39:1 49:1 55:1 75:1 96:1 201:1 344:1 714:1 791:1 2632:1 2768:1 2769:1 2770:1 
1 1 1 1 7:1 35:1 147:1 292:1 408:1 412:1 1065:1 2125:1 
1 0 1 1 75:1 165:1 181:1 197:1 209:1 
1 0 1 1 55:1 331:1 346:1 430:1 473:1 
1 1 1 1 60:1 70:1 198:1 
1 1 1 1 198:1 
1 1 1 1 31:1 39:1 55:1 66:1 151:1 241:1 275:1 612:1 660:1 1574:1 2666:1 2773:1 2774:1 2775:1 
1 1 1 1 66:1 101:1 109:1 158:1 181:1 186:1 237:1 1170:1 
1 1 1 1 49:1 55:1 226:1 344:1 2508:1 2556:1 
1 0 1 1 44:1 49:1 55:1 63:1 66:1 75:1 113:1 147:1 158:1 186:1 1312:1 2776:1 2778:1 2779:1 2780:1 
1 1 1 1 66:1 113:1 147:1 148:1 2781:1 2782:1 
1 1 1 1 31:1 113:1 132:1 550:1 601:1 
1 1 1 1 7:1 72:1 75:1 96:1 485:1 
1 1 1 1 96:1 921:1 2784:1 2785:1 2786:1 
1 0 1 1 55:1 75:1 344:1 591:1 1168:1 
1 0 1 1 55:1 75:1 165:1 1015:1 2787:1 
1 1 1 1 
1 1 1 1 39:1 197:1 198:1 2789:1 2790:1 
1 1 1 1 55:1 57:1 66:1 714:1 1103:1 1104:1 2162:1 2792:1 
1 1 1 1 31:1 41:1 96:1 2577:1 2793:1 2794:1 2795:1 
1 1 1 1 
1 1 1 1 55:1 58:1 66:1 100:1 132:1 197:1 344:1 408:1 2731:1 2796:1 
1 1 1 1 898:1 
1 1 1 1 40:1 85:1 312:1 762:1 1082:1 
1 0 1 1 40:1 85:1 132:1 344:1 433:1 762:1 5756:1 
1 1 1 1 7:1 40:1 64:1 727:1 737:1 894:1 991:1 
1 1 1 1 7:1 58:1 66:1 639:1 2385:1 2798:1 
1 1 1 1 
1 1 1 1 57:1 64:1 97:1 121:1 346:1 541:1 834:1 907:1 1875:1 
1 1 1 1 31:1 40:1 121:1 147:1 443:1 444:1 542:1 743:1 1022:1 2800:1 
1 1 1 1 75:1 121:1 679:1 2296:1 2801:1 2802:1 2803:1 
1 1 1 1 39:1 714:1 850:1 2628:1 
1 1 1 1 57:1 64:1 97:1 121:1 346:1 541:1 834:1 907:1 1875:1 
1 1 1 1 57:1 63:1 132:1 201:1 465:1 772:1 1143:1 
1 0 1 1 55:1 69:1 75:1 344:1 408:1 1979:1 
1 1 1 1 5:1 89:1 97:1 138:1 221:1 335:1 401:1 542:1 1635:1 2805:1 
1 1 1 1 42:1 89:1 152:1 201:1 366:1 542:1 737:1 1325:1 2610:1 2794:1 
1 1 1 1 66:1 75:1 147:1 432:1 462:1 2624:1 
1 1 1 1 138:1 159:1 181:1 344:1 
1 1 1 1 35:1 39:1 63:1 75:1 126:1 181:1 419:1 472:1 1979:1 2806:1 2807:1 
1 1 1 1 41:1 2808:1 
1 0 1 1 49:1 55:1 75:1 126:1 147:1 1012:1 1188:1 2797:1 
1 1 1 1 5:1 63:1 67:1 75:1 85:1 304:1 
1 1 1 1 66:1 96:1 719:1 
1 0 1 1 22:1 39:1 63:1 226:1 347:1 472:1 2809:1 2810:1 
1 1 1 1 96:1 114:1 181:1 462:1 485:1 
1 1 1 1 63:1 75:1 261:1 359:1 360:1 361:1 433:1 
1 1 1 1 27:1 55:1 366:1 1294:1 
1 1 1 1 26:1 27:1 31:1 66:1 114:1 170:1 866:1 1301:1 2811:1 
1 1 1 1 132:1 
1 1 1 1 430:1 810:1 
1 0 1 1 55:1 63:1 66:1 209:1 347:1 
1 1 1 1 38:1 42:1 55:1 66:1 75:1 84:1 147:1 344:1 372:1 391:1 411:1 779:1 986:1 1117:1 1298:1 1459:1 1947:1 2814:1 2815:1 2816:1 3714:1 
1 1 1 1 41:1 44:1 96:1 582:1 704:1 2817:1 
1 1 1 1 15:1 39:1 147:1 466:1 496:1 1763:1 1842:1 2818:1 
1 1 1 1 5:1 34:1 63:1 147:1 310:1 783:1 1156:1 1280:1 1912:1 1920:1 2819:1 2820:1 2821:1 
1 1 1 1 7:1 35:1 75:1 331:1 402:1 2822:1 2823:1 
1 1 1 1 7:1 2800:1 
1 1 1 1 31:1 66:1 82:1 84:1 147:1 472:1 558:1 719:1 1267:1 1662:1 1772:1 
1 1 1 1 38:1 39:1 75:1 542:1 737:1 761:1 1057:1 2825:1 
1 1 1 1 1127:1 2826:1 
1 1 1 1 31:1 315:1 616:1 710:1 2827:1 
1 1 1 1 41:1 42:1 126:1 170:1 181:1 201:1 390:1 420:1 3714:1 
1 1 1 1 2:1 10:1 27:1 35:1 44:1 48:1 66:1 89:1 121:1 471:1 1106:1 1294:1 2828:1 2829:1 2830:1 2833:1 
1 1 1 1 45:1 57:1 119:1 181:1 346:1 1948:1 
1 1 1 1 
1 0 1 1 67:1 75:1 96:1 119:1 181:1 248:1 390:1 462:1 485:1 762:1 5756:1 
1 1 1 1 60:1 70:1 89:1 181:1 198:1 
1 1 1 1 96:1 462:1 485:1 
1 1 1 1 2:1 41:1 66:1 152:1 195:1 201:1 229:1 263:1 420:1 857:1 901:1 2835:1 
1 1 1 1 63:1 66:1 679:1 730:1 1739:1 
1 0 1 1 55:1 60:1 75:1 89:1 113:1 160:1 201:1 347:1 579:1 914:1 1143:1 2836:1 
1 1 1 1 25:1 46:1 69:1 96:1 224:1 229:1 310:1 442:1 795:1 2659:1 
1 1 1 1 35:1 55:1 274:1 336:1 1275:1 1955:1 
1 1 1 1 45:1 119:1 
1 1 1 1 20:1 35:1 45:1 55:1 66:1 132:1 147:1 162:1 220:1 229:1 313:1 344:1 347:1 884:1 1181:1 2265:1 2838:1 2839:1 
1 1 1 1 451:1 921:1 1367:1 1496:1 2840:1 2841:1 2842:1 2843:1 2844:1 2846:1 2847:1 2848:1 2849:1 2851:1 2852:1 
1 1 1 1 7:1 58:1 66:1 168:1 595:1 701:1 1122:1 
1 1 1 1 35:1 277:1 1496:1 2854:1 2855:1 2856:1 2858:1 2860:1 
1 1 1 1 181:1 
1 1 1 1 41:1 212:1 1754:1 2861:1 
1 1 1 1 41:1 100:1 241:1 1345:1 
1 0 1 1 27:1 39:1 63:1 75:1 113:1 345:1 396:1 701:1 774:1 2862:1 
1 1 1 1 
1 1 1 1 87:1 91:1 152:1 1604:1 1684:1 
1 1 1 1 41:1 66:1 181:1 
1 1 1 1 25:1 31:1 41:1 64:1 75:1 85:1 151:1 274:1 304:1 1402:1 1703:1 
1 1 1 1 63:1 66:1 
1 1 1 1 55:1 119:1 2864:1 
1 1 1 1 41:1 101:1 203:1 481:1 601:1 
1 1 1 1 63:1 75:1 190:1 301:1 1130:1 2865:1 
1 1 1 1 22:1 39:1 60:1 70:1 147:1 953:1 2866:1 
1 1 1 1 7:1 31:1 58:1 66:1 75:1 96:1 114:1 485:1 1273:1 1872:1 
1 1 1 1 
1 1 1 1 181:1 347:1 490:1 549:1 2871:1 
1 1 1 1 7:1 41:1 44:1 58:1 60:1 221:1 344:1 355:1 1039:1 1595:1 
1 1 1 1 31:1 66:1 87:1 505:1 810:1 2874:1 
1 1 1 1 44:1 763:1 2875:1 
1 0 1 1 22:1 41:1 75:1 216:1 276:1 
1 1 1 1 198:1 320:1 917:1 1807:1 
1 1 1 1 38:1 42:1 55:1 75:1 183:1 344:1 391:1 839:1 1117:1 2877:1 2878:1 2879:1 2880:1 
1 1 1 1 14:1 27:1 39:1 58:1 60:1 66:1 100:1 106:1 121:1 138:1 197:1 240:1 359:1 628:1 791:1 827:1 844:1 2881:1 2882:1 
1 1 1 1 69:1 152:1 220:1 237:1 333:1 453:1 2885:1 2886:1 2887:1 2888:1 
1 1 1 1 56:1 
1 1 1 1 41:1 109:1 147:1 198:1 296:1 836:1 1083:1 
1 1 1 1 34:1 42:1 304:1 312:1 739:1 1436:1 2050:1 2889:1 2890:1 2891:1 
1 1 1 1 112:1 155:1 473:1 691:1 2038:1 2892:1 
1 1 1 1 63:1 691:1 2893:1 
1 1 1 1 41:1 58:1 66:1 75:1 98:1 113:1 132:1 2894:1 
1 1 1 1 5:1 7:1 35:1 60:1 66:1 83:1 133:1 220:1 309:1 369:1 474:1 622:1 767:1 951:1 2813:1 2898:1 2899:1 
1 1 1 1 2901:1 
1 1 1 1 39:1 46:1 55:1 60:1 66:1 85:1 96:1 151:1 336:1 402:1 442:1 933:1 1940:1 2902:1 
1 1 1 1 66:1 106:1 181:1 701:1 1240:1 2903:1 2904:1 
1 1 1 1 669:1 
1 1 1 1 39:1 40:1 155:1 227:1 595:1 1125:1 2003:1 2905:1 
1 1 1 1 34:1 39:1 55:1 96:1 97:1 147:1 186:1 187:1 241:1 553:1 597:1 1568:1 2283:1 2909:1 2910:1 2911:1 2912:1 
1 1 1 1 195:1 
1 1 1 1 45:1 
1 1 1 1 40:1 767:1 810:1 
1 1 1 1 40:1 46:1 63:1 312:1 374:1 
1 1 1 1 2017:1 
1 1 1 1 601:1 
1 1 1 1 
1 0 1 1 25:1 40:1 75:1 343:1 344:1 742:1 
1 1 1 1 55:1 64:1 66:1 85:1 106:1 186:1 310:1 361:1 2354:1 2914:1 
1 1 1 1 12:1 31:1 66:1 75:1 290:1 2915:1 2916:1 2917:1 
1 1 1 1 53:1 103:1 344:1 
1 1 1 1 55:1 344:1 391:1 
1 1 1 1 31:1 35:1 57:1 106:1 430:1 1744:1 2377:1 2412:1 2921:1 
1 1 1 1 181:1 1441:1 
1 1 1 1 41:1 75:1 304:1 359:1 1165:1 
1 0 1 1 22:1 248:1 
1 1 1 1 2:1 53:1 2922:1 
1 1 1 1 1607:1 
1 1 1 1 20:1 35:1 372:1 1325:1 1386:1 1413:1 2395:1 
1 1 1 1 39:1 63:1 66:1 84:1 262:1 445:1 2177:1 2632:1 
1 1 1 1 40:1 55:1 504:1 2926:1 2927:1 
1 1 1 1 124:1 190:1 727:1 1271:1 
1 0 1 1 63:1 66:1 75:1 201:1 216:1 339:1 344:1 430:1 1136:1 
1 1 1 1 304:1 307:1 762:1 2181:1 5756:1 
1 1 1 1 31:1 49:1 114:1 147:1 504:1 604:1 2392:1 2928:1 
1 0 1 1 63:1 75:1 181:1 2929:1 
1 1 1 1 221:1 2930:1 
1 1 1 1 1577:1 
1 1 1 1 198:1 669:1 
1 1 1 1 25:1 36:1 41:1 55:1 69:1 118:1 200:1 229:1 310:1 333:1 766:1 767:1 897:1 969:1 
1 1 1 1 5:1 49:1 58:1 82:1 152:1 171:1 183:1 189:1 237:1 463:1 492:1 693:1 757:1 828:1 
1 1 1 1 7:1 39:1 42:1 66:1 75:1 252:1 433:1 1268:1 1295:1 1959:1 2934:1 
1 1 1 1 60:1 195:1 196:1 
1 1 1 1 114:1 227:1 595:1 
1 0 1 1 38:1 55:1 60:1 63:1 66:1 119:1 121:1 136:1 612:1 727:1 1298:1 2246:1 2614:1 2768:1 2936:1 2937:1 2938:1 
1 1 1 1 57:1 2940:1 2941:1 2942:1 
1 1 1 1 32:1 33:1 63:1 85:1 119:1 201:1 219:1 229:1 350:1 524:1 857:1 1413:1 1777:1 2125:1 2161:1 2943:1 
1 0 1 1 27:1 41:1 63:1 66:1 148:1 213:1 439:1 762:1 1739:1 5756:1 
1 1 1 1 40:1 162:1 187:1 737:1 2098:1 
1 1 1 1 60:1 66:1 114:1 165:1 197:1 
1 1 1 1 55:1 85:1 161:1 274:1 652:1 
1 1 1 1 41:1 693:1 762:1 5756:1 
1 1 1 1 75:1 77:1 147:1 2946:1 2947:1 
1 1 1 1 320:1 2950:1 
1 1 1 1 31:1 66:1 163:1 1156:1 2090:1 2091:1 2306:1 
1 1 1 1 35:1 89:1 136:1 163:1 193:1 216:1 564:1 1608:1 1794:1 
1 0 1 1 14:1 25:1 40:1 41:1 46:1 100:1 126:1 344:1 1280:1 
1 1 1 1 
1 1 1 1 1206:1 
1 1 1 1 5:1 35:1 39:1 55:1 75:1 216:1 275:1 292:1 339:1 344:1 597:1 1726:1 2952:1 
1 1 1 1 35:1 41:1 42:1 126:1 138:1 170:1 221:1 304:1 420:1 1018:1 1413:1 
1 1 1 1 2955:1 2956:1 
1 1 1 1 5:1 60:1 312:1 408:1 597:1 2155:1 2761:1 
1 1 1 1 58:1 63:1 75:1 2228:1 2957:1 2958:1 
1 1 1 1 5:1 148:1 162:1 190:1 241:1 1426:1 2632:1 2959:1 2960:1 
1 1 1 1 41:1 98:1 190:1 229:1 474:1 556:1 714:1 2046:1 
1 1 1 1 35:1 181:1 195:1 196:1 315:1 
1 0 1 1 55:1 69:1 75:1 113:1 128:1 137:1 197:1 814:1 2494:1 2544:1 2961:1 
1 1 1 1 147:1 198:1 412:1 497:1 1299:1 2962:1 
1 1 1 1 53:1 66:1 361:1 542:1 574:1 783:1 846:1 1099:1 1174:1 2487:1 2521:1 2963:1 
1 1 1 1 374:1 
1 0 1 1 22:1 75:1 1098:1 2294:1 2964:1 
1 1 1 1 195:1 196:1 
1 1 1 1 27:1 58:1 85:1 485:1 597:1 
1 1 1 1 26:1 55:1 82:1 126:1 575:1 2410:1 2967:1 
1 0 1 1 22:1 55:1 63:1 196:1 201:1 344:1 374:1 468:1 661:1 2969:1 
1 0 1 1 55:1 85:1 111:1 114:1 
1 1 1 1 39:1 55:1 57:1 147:1 229:1 248:1 344:1 2970:1 
1 1 1 1 5:1 11:1 42:1 44:1 69:1 96:1 158:1 312:1 553:1 668:1 2157:1 3714:1 
1 1 1 1 201:1 216:1 1080:1 
1 1 1 1 14:1 60:1 
1 1 1 1 
1 1 1 1 710:1 1889:1 
1 1 1 1 5:1 36:1 40:1 44:1 55:1 60:1 63:1 66:1 138:1 274:1 307:1 327:1 331:1 364:1 769:1 779:1 791:1 1889:1 3714:1 
1 1 1 1 41:1 114:1 347:1 2972:1 
1 1 1 1 132:1 
1 1 1 1 7:1 30:1 31:1 40:1 42:1 96:1 101:1 109:1 147:1 229:1 311:1 578:1 671:1 774:1 2720:1 
1 1 1 1 113:1 1899:1 2296:1 
1 1 1 1 7:1 40:1 85:1 189:1 762:1 1082:1 2622:1 
1 1 1 1 111:1 216:1 312:1 1979:1 
1 1 1 1 31:1 60:1 66:1 170:1 
1 1 1 1 63:1 408:1 695:1 2973:1 2974:1 2975:1 2976:1 
1 1 1 1 85:1 216:1 430:1 757:1 2977:1 
1 1 1 1 195:1 196:1 
1 1 1 1 75:1 147:1 2979:1 
1 1 1 1 6:1 7:1 41:1 44:1 66:1 159:1 252:1 304:1 525:1 623:1 761:1 1143:1 1893:1 2980:1 
1 1 1 1 114:1 2981:1 
1 1 1 1 25:1 31:1 35:1 39:1 66:1 147:1 151:1 292:1 1079:1 1781:1 2982:1 2983:1 2984:1 2985:1 
1 1 1 1 45:1 54:1 55:1 83:1 136:1 344:1 2775:1 2987:1 2988:1 2989:1 
1 1 1 1 2:1 46:1 63:1 66:1 75:1 229:1 241:1 274:1 402:1 408:1 691:1 1638:1 2990:1 
1 1 1 1 49:1 55:1 60:1 96:1 769:1 1443:1 2392:1 2532:1 2731:1 2991:1 2992:1 2993:1 
1 1 1 1 35:1 147:1 197:1 
1 1 1 1 35:1 89:1 136:1 163:1 193:1 216:1 564:1 1608:1 1659:1 1794:1 
1 1 1 1 27:1 35:1 39:1 41:1 75:1 147:1 659:1 742:1 762:1 1172:1 2288:1 2997:1 5756:1 
1 1 1 1 31:1 35:1 313:1 2998:1 2999:1 
1 1 1 1 33:1 45:1 344:1 461:1 617:1 3000:1 
1 1 1 1 20:1 668:1 
1 1 1 1 292:1 3714:1 
1 1 1 1 96:1 221:1 
1 1 1 1 66:1 106:1 181:1 701:1 1240:1 2903:1 2904:1 
1 0 1 1 55:1 75:1 96:1 121:1 181:1 398:1 2759:1 2760:1 
1 1 1 1 11:1 27:1 34:1 43:1 53:1 75:1 121:1 203:1 1607:1 2391:1 
1 0 1 1 40:1 55:1 75:1 767:1 794:1 810:1 
1 1 1 1 60:1 66:1 3002:1 
1 1 1 1 5:1 25:1 40:1 75:1 82:1 85:1 994:1 3003:1 3004:1 
1 1 1 1 55:1 96:1 241:1 301:1 472:1 473:1 579:1 881:1 1613:1 1711:1 2042:1 
1 1 1 1 31:1 113:1 132:1 550:1 601:1 
1 1 1 1 2:1 89:1 101:1 121:1 151:1 320:1 3005:1 
1 1 1 1 41:1 55:1 83:1 275:1 1703:1 2993:1 3008:1 3009:1 
1 0 1 1 55:1 75:1 113:1 195:1 
1 1 1 1 31:1 38:1 39:1 55:1 66:1 126:1 219:1 658:1 1015:1 3010:1 3011:1 
1 1 1 1 
1 0 1 1 27:1 60:1 66:1 114:1 121:1 138:1 161:1 190:1 301:1 312:1 570:1 682:1 873:1 3014:1 
1 1 1 1 45:1 55:1 103:1 3017:1 
1 0 1 1 22:1 60:1 63:1 66:1 494:1 2332:1 3018:1 3019:1 
1 1 1 1 39:1 57:1 66:1 70:1 377:1 875:1 1298:1 1651:1 1914:1 3020:1 3021:1 3022:1 
1 0 1 1 60:1 75:1 113:1 132:1 165:1 197:1 601:1 2228:1 
1 0 1 1 22:1 75:1 591:1 1231:1 1232:1 
1 1 1 1 7:1 58:1 322:1 1273:1 1614:1 
1 1 1 1 2:1 41:1 42:1 75:1 83:1 221:1 286:1 313:1 372:1 736:1 1066:1 2232:1 
1 1 1 1 25:1 46:1 55:1 126:1 415:1 
1 1 1 1 63:1 66:1 118:1 138:1 190:1 691:1 
1 1 1 1 7:1 55:1 66:1 75:1 1350:1 2137:1 
1 1 1 1 39:1 195:1 196:1 2570:1 
1 1 1 1 5:1 63:1 69:1 89:1 412:1 543:1 1317:1 2740:1 
1 1 1 1 550:1 551:1 894:1 
1 1 1 1 5:1 75:1 85:1 464:1 719:1 
1 1 1 1 63:1 195:1 241:1 
1 1 1 1 41:1 42:1 83:1 109:1 201:1 344:1 592:1 3027:1 
1 1 1 1 5:1 7:1 49:1 66:1 82:1 85:1 89:1 126:1 241:1 292:1 366:1 505:1 1181:1 3028:1 3029:1 
1 1 1 1 39:1 66:1 114:1 268:1 281:1 508:1 3030:1 3031:1 3032:1 
1 1 1 1 5:1 69:1 75:1 268:1 
1 1 1 1 221:1 2930:1 
1 1 1 1 35:1 89:1 136:1 163:1 193:1 216:1 564:1 1608:1 1659:1 1794:1 
1 1 1 1 58:1 63:1 66:1 
1 1 1 1 132:1 2187:1 2296:1 
1 1 1 1 2105:1 2187:1 2296:1 
1 1 1 1 35:1 1483:1 1496:1 3033:1 3034:1 3035:1 3036:1 3037:1 3038:1 
1 1 1 1 113:1 195:1 
1 1 1 1 7:1 55:1 66:1 190:1 1852:1 2963:1 
1 1 1 1 14:1 39:1 66:1 87:1 158:1 209:1 213:1 1176:1 3039:1 3040:1 
1 1 1 1 41:1 55:1 63:1 96:1 312:1 333:1 455:1 3041:1 
1 1 1 1 151:1 
1 1 1 1 41:1 113:1 147:1 395:1 396:1 3042:1 
1 1 1 1 5:1 41:1 66:1 68:1 492:1 592:1 2250:1 
1 1 1 1 151:1 
1 0 1 1 40:1 55:1 63:1 66:1 75:1 126:1 151:1 304:1 437:1 479:1 742:1 1171:1 
1 1 1 1 138:1 366:1 1067:1 1156:1 
1 1 1 1 55:1 195:1 
1 1 1 1 31:1 75:1 123:1 248:1 524:1 727:1 759:1 948:1 
1 1 1 1 35:1 55:1 66:1 344:1 1230:1 1297:1 3043:1 
1 1 1 1 31:1 41:1 70:1 363:1 
1 1 1 1 39:1 49:1 55:1 455:1 2614:1 3044:1 3045:1 
1 1 1 1 40:1 582:1 2628:1 
1 1 1 1 195:1 196:1 
1 1 1 1 
1 0 1 1 55:1 106:1 126:1 138:1 153:1 155:1 187:1 190:1 472:1 762:1 1082:1 
1 0 1 1 55:1 75:1 100:1 344:1 742:1 
1 1 1 1 31:1 41:1 70:1 363:1 
1 1 1 1 195:1 196:1 
1 1 1 1 227:1 2051:1 3047:1 
1 0 1 1 22:1 55:1 129:1 658:1 1015:1 
1 0 1 1 60:1 66:1 113:1 114:1 165:1 347:1 2228:1 3048:1 
1 1 1 1 2:1 42:1 46:1 158:1 237:1 
1 1 1 1 5:1 22:1 27:1 40:1 55:1 60:1 85:1 658:1 721:1 1015:1 1614:1 3049:1 
1 0 1 1 14:1 55:1 63:1 69:1 75:1 158:1 292:1 361:1 691:1 1273:1 
1 1 1 1 55:1 89:1 132:1 1843:1 
1 1 1 1 49:1 66:1 67:1 75:1 147:1 216:1 488:1 3051:1 
1 1 1 1 7:1 63:1 75:1 97:1 201:1 299:1 344:1 1274:1 3052:1 
1 0 1 1 35:1 41:1 55:1 63:1 66:1 89:1 151:1 161:1 374:1 2535:1 2688:1 3053:1 
1 0 1 1 41:1 55:1 66:1 75:1 147:1 161:1 187:1 866:1 872:1 2963:1 
1 1 1 1 7:1 42:1 55:1 66:1 162:1 240:1 352:1 810:1 1043:1 1704:1 3055:1 3056:1 3714:1 
1 1 1 1 40:1 41:1 55:1 64:1 134:1 187:1 229:1 466:1 494:1 761:1 3057:1 
1 1 1 1 40:1 54:1 162:1 193:1 278:1 737:1 
1 1 1 1 195:1 196:1 
1 1 1 1 35:1 96:1 138:1 229:1 340:1 483:1 2208:1 3059:1 3060:1 3061:1 
1 0 1 1 55:1 69:1 75:1 113:1 492:1 3062:1 3063:1 
1 1 1 1 7:1 126:1 221:1 335:1 366:1 
1 1 1 1 31:1 41:1 70:1 363:1 
1 1 1 1 55:1 360:1 
1 1 1 1 35:1 77:1 138:1 331:1 342:1 459:1 725:1 742:1 759:1 1662:1 2688:1 2823:1 3064:1 3065:1 
1 1 1 1 40:1 41:1 408:1 488:1 1128:1 
1 0 1 1 55:1 63:1 64:1 75:1 147:1 219:1 344:1 623:1 958:1 3047:1 3066:1 3067:1 3069:1 3070:1 3714:1 
1 1 1 1 810:1 3072:1 
1 0 1 1 31:1 55:1 75:1 113:1 114:1 115:1 
1 1 1 1 27:1 57:1 63:1 75:1 217:1 312:1 322:1 601:1 639:1 791:1 1102:1 3073:1 
1 1 1 1 49:1 1426:1 2259:1 3074:1 
1 1 1 1 55:1 75:1 261:1 593:1 752:1 
1 1 1 1 31:1 35:1 39:1 220:1 335:1 948:1 1056:1 1071:1 1662:1 1738:1 3065:1 
1 0 1 1 40:1 49:1 55:1 63:1 64:1 119:1 374:1 474:1 
1 1 1 1 5:1 44:1 55:1 163:1 617:1 766:1 855:1 1312:1 3077:1 3078:1 
1 1 1 1 25:1 40:1 85:1 109:1 483:1 606:1 767:1 
1 1 1 1 301:1 2146:1 3080:1 
1 1 1 1 
1 1 1 1 53:1 
1 1 1 1 6:1 82:1 375:1 3081:1 
1 1 1 1 41:1 42:1 70:1 183:1 274:1 387:1 391:1 546:1 1659:1 3082:1 3083:1 3084:1 3085:1 3086:1 
1 1 1 1 55:1 58:1 66:1 196:1 870:1 915:1 
1 1 1 1 12:1 35:1 75:1 128:1 147:1 390:1 1160:1 
1 1 1 1 60:1 66:1 73:1 96:1 163:1 229:1 241:1 401:1 553:1 564:1 1135:1 1389:1 2201:1 3088:1 3714:1 
1 1 1 1 31:1 63:1 75:1 109:1 268:1 374:1 391:1 613:1 762:1 952:1 3089:1 3090:1 5756:1 
1 1 1 1 2051:1 3091:1 
1 1 1 1 66:1 241:1 570:1 759:1 3093:1 
1 1 1 1 75:1 1273:1 2951:1 
1 1 1 1 22:1 1789:1 
1 0 1 1 31:1 55:1 66:1 75:1 113:1 114:1 209:1 374:1 1176:1 3094:1 
1 1 1 1 193:1 220:1 1270:1 
1 1 1 1 151:1 198:1 
1 1 1 1 31:1 114:1 115:1 3095:1 
1 1 1 1 40:1 66:1 96:1 3096:1 
1 0 1 1 41:1 45:1 55:1 63:1 66:1 75:1 89:1 114:1 161:1 292:1 361:1 476:1 477:1 691:1 847:1 1889:1 3099:1 
1 1 1 1 7:1 31:1 49:1 66:1 84:1 158:1 237:1 297:1 623:1 628:1 1200:1 
1 1 1 1 69:1 152:1 220:1 237:1 333:1 453:1 2885:1 2886:1 2887:1 2888:1 
1 1 1 1 41:1 
1 1 1 1 58:1 96:1 181:1 311:1 
1 1 1 1 22:1 114:1 147:1 304:1 601:1 
1 1 1 1 25:1 66:1 89:1 147:1 227:1 311:1 727:1 836:1 1043:1 1431:1 1557:1 3102:1 
1 1 1 1 5:1 39:1 45:1 55:1 85:1 119:1 153:1 158:1 274:1 331:1 597:1 617:1 626:1 1763:1 3046:1 3105:1 
1 1 1 1 171:1 
1 1 1 1 49:1 63:1 295:1 691:1 875:1 2947:1 3107:1 
1 1 1 1 57:1 75:1 320:1 2792:1 3109:1 
1 1 1 1 63:1 85:1 304:1 327:1 374:1 3110:1 
1 1 1 1 69:1 75:1 136:1 252:1 901:1 
1 1 1 1 84:1 91:1 201:1 274:1 331:1 1127:1 1230:1 3111:1 3112:1 3113:1 
1 1 1 1 63:1 66:1 75:1 82:1 89:1 173:1 194:1 229:1 280:1 481:1 483:1 484:1 666:1 679:1 699:1 2627:1 3114:1 
1 0 1 1 7:1 22:1 55:1 63:1 66:1 172:1 391:1 655:1 3115:1 3116:1 3118:1 3119:1 
1 1 1 1 2:1 35:1 42:1 69:1 304:1 442:1 769:1 1418:1 3120:1 
1 1 1 1 34:1 42:1 307:1 430:1 597:1 1080:1 1968:1 2670:1 2968:1 
1 1 1 1 22:1 26:1 31:1 75:1 196:1 229:1 324:1 791:1 2975:1 3121:1 3122:1 
1 1 1 1 27:1 31:1 39:1 64:1 66:1 121:1 136:1 814:1 1343:1 2332:1 3124:1 
1 1 1 1 35:1 54:1 63:1 138:1 148:1 261:1 564:1 803:1 3126:1 3127:1 
1 1 1 1 55:1 66:1 
1 1 1 1 40:1 85:1 
1 1 1 1 27:1 35:1 39:1 41:1 42:1 63:1 147:1 229:1 274:1 459:1 492:1 541:1 610:1 623:1 661:1 1350:1 1451:1 1553:1 2313:1 3128:1 3714:1 
1 0 1 1 22:1 55:1 66:1 147:1 312:1 1143:1 1640:1 
1 1 1 1 5:1 41:1 42:1 3129:1 
1 1 1 1 42:1 55:1 75:1 138:1 742:1 1171:1 1611:1 
1 1 1 1 241:1 366:1 579:1 762:1 1082:1 
1 0 1 1 55:1 66:1 181:1 551:1 822:1 
1 1 1 1 118:1 171:1 727:1 1298:1 2721:1 3130:1 3131:1 
1 1 1 1 35:1 147:1 185:1 361:1 508:1 1176:1 
1 1 1 1 123:1 124:1 242:1 
1 1 1 1 7:1 42:1 55:1 57:1 66:1 75:1 111:1 186:1 372:1 772:1 783:1 908:1 1140:1 1280:1 
1 1 1 1 
1 1 1 1 7:1 31:1 54:1 75:1 113:1 114:1 153:1 225:1 320:1 646:1 1119:1 1130:1 1293:1 3135:1 3136:1 
1 1 1 1 165:1 
1 1 1 1 35:1 41:1 89:1 148:1 158:1 190:1 248:1 369:1 2404:1 3085:1 
1 1 1 1 39:1 63:1 96:1 119:1 190:1 209:1 213:1 522:1 898:1 1816:1 
1 1 1 1 42:1 66:1 133:1 197:1 361:1 597:1 2740:1 3138:1 3140:1 
1 1 1 1 63:1 126:1 147:1 898:1 964:1 
1 0 1 1 27:1 55:1 63:1 159:1 177:1 3141:1 
1 1 1 1 42:1 327:1 1039:1 1516:1 
1 0 1 1 42:1 63:1 75:1 132:1 727:1 737:1 911:1 1552:1 1691:1 3142:1 3143:1 
1 1 1 1 60:1 196:1 
1 0 1 1 55:1 63:1 181:1 209:1 494:1 1066:1 1079:1 
1 1 1 1 35:1 147:1 344:1 412:1 591:1 1065:1 
1 1 1 1 5:1 44:1 50:1 55:1 65:1 66:1 89:1 96:1 121:1 136:1 803:1 1267:1 2838:1 3147:1 
1 1 1 1 181:1 198:1 
1 0 1 1 63:1 75:1 144:1 430:1 679:1 742:1 3148:1 3149:1 
1 1 1 1 42:1 55:1 75:1 126:1 136:1 185:1 186:1 274:1 301:1 639:1 828:1 991:1 3150:1 3151:1 3152:1 
1 0 1 1 22:1 63:1 66:1 198:1 
1 1 1 1 25:1 35:1 39:1 41:1 55:1 312:1 374:1 472:1 481:1 623:1 1071:1 1125:1 
1 1 1 1 35:1 39:1 49:1 55:1 60:1 66:1 75:1 96:1 126:1 147:1 626:1 1441:1 2593:1 3154:1 
1 1 1 1 2:1 31:1 55:1 66:1 85:1 118:1 153:1 181:1 274:1 391:1 472:1 478:1 879:1 880:1 1903:1 1985:1 1989:1 2664:1 3156:1 3157:1 3158:1 
1 1 1 1 7:1 22:1 27:1 31:1 35:1 55:1 75:1 96:1 201:1 305:1 641:1 749:1 794:1 897:1 
1 1 1 1 75:1 113:1 322:1 504:1 601:1 
1 0 1 1 38:1 55:1 66:1 75:1 121:1 147:1 214:1 240:1 248:1 336:1 344:1 504:1 1026:1 1275:1 
1 0 1 1 55:1 75:1 119:1 3161:1 3162:1 
1 1 1 1 7:1 75:1 221:1 241:1 335:1 366:1 1165:1 
1 1 1 1 42:1 111:1 762:1 
1 1 1 1 7:1 55:1 100:1 344:1 391:1 3164:1 
1 1 1 1 151:1 248:1 
1 1 1 1 481:1 549:1 
1 0 1 1 27:1 40:1 55:1 119:1 314:1 
1 1 1 1 55:1 229:1 1156:1 1789:1 3170:1 3171:1 
1 0 1 1 40:1 55:1 85:1 103:1 466:1 2729:1 
1 0 1 1 39:1 55:1 148:1 190:1 327:1 1015:1 1659:1 
1 1 1 1 2333:1 
1 1 1 1 5:1 136:1 464:1 541:1 1754:1 
1 1 1 1 248:1 846:1 3175:1 
1 1 1 1 27:1 85:1 97:1 304:1 412:1 1039:1 1118:1 2566:1 2929:1 3047:1 3714:1 
1 1 1 1 7:1 66:1 126:1 201:1 335:1 
1 1 1 1 
1 1 1 1 
1 1 1 1 14:1 45:1 68:1 111:1 227:1 273:1 553:1 744:1 836:1 3176:1 3177:1 3178:1 3180:1 3181:1 
1 1 1 1 5:1 31:1 42:1 55:1 63:1 161:1 220:1 489:1 682:1 769:1 1190:1 1719:1 1889:1 3183:1 3184:1 3185:1 3186:1 
1 1 1 1 11:1 22:1 35:1 39:1 56:1 58:1 70:1 75:1 109:1 151:1 296:1 320:1 447:1 576:1 836:1 1438:1 1808:1 3187:1 
1 1 1 1 35:1 165:1 221:1 268:1 335:1 455:1 606:1 
1 1 1 1 39:1 75:1 742:1 1171:1 
1 1 1 1 31:1 66:1 133:1 216:1 767:1 1156:1 1470:1 3069:1 3191:1 3192:1 3193:1 
1 1 1 1 2:1 27:1 31:1 35:1 85:1 138:1 147:1 268:1 762:1 1082:1 1568:1 3195:1 
1 1 1 1 229:1 320:1 601:1 803:1 3196:1 
1 1 1 1 2050:1 
1 1 1 1 41:1 70:1 75:1 101:1 203:1 248:1 304:1 505:1 508:1 671:1 1145:1 3198:1 
1 1 1 1 7:1 55:1 
1 1 1 1 35:1 41:1 48:1 89:1 144:1 839:1 1312:1 3200:1 
1 1 1 1 2739:1 
1 1 1 1 3201:1 
1 1 1 1 55:1 58:1 68:1 85:1 89:1 209:1 361:1 727:1 885:1 2096:1 2816:1 3202:1 3204:1 
1 0 1 1 75:1 128:1 136:1 137:1 148:1 181:1 197:1 209:1 
1 1 1 1 248:1 893:1 3205:1 
1 0 1 1 55:1 75:1 89:1 181:1 3206:1 3207:1 
1 0 1 1 22:1 42:1 63:1 651:1 762:1 1314:1 2799:1 5756:1 
1 1 1 1 3208:1 
1 1 1 1 75:1 82:1 334:1 489:1 1604:1 6907:1 
1 1 1 1 2:1 396:1 1574:1 1607:1 3714:1 
1 1 1 1 40:1 198:1 
1 1 1 1 55:1 161:1 201:1 223:1 1066:1 3209:1 3714:1 
1 1 1 1 5:1 35:1 39:1 63:1 66:1 89:1 96:1 101:1 147:1 349:1 2332:1 2627:1 
1 1 1 1 119:1 158:1 2421:1 
1 1 1 1 11:1 66:1 165:1 175:1 203:1 483:1 918:1 1662:1 3211:1 
1 1 1 1 33:1 45:1 241:1 401:1 449:1 714:1 727:1 795:1 1018:1 1298:1 1690:1 2776:1 3212:1 3213:1 
1 1 1 1 58:1 75:1 147:1 466:1 1607:1 3215:1 
1 1 1 1 57:1 63:1 66:1 121:1 138:1 345:1 791:1 840:1 867:1 921:1 991:1 1147:1 2084:1 2286:1 3216:1 3217:1 
1 1 1 1 39:1 49:1 55:1 455:1 2614:1 3044:1 3045:1 
1 1 1 1 31:1 34:1 42:1 201:1 237:1 268:1 595:1 701:1 738:1 999:1 1381:1 3219:1 3220:1 3221:1 
1 1 1 1 31:1 35:1 55:1 111:1 158:1 248:1 344:1 430:1 1188:1 3222:1 
1 1 1 1 2:1 25:1 42:1 75:1 112:1 113:1 118:1 151:1 201:1 312:1 
1 1 1 1 31:1 39:1 48:1 66:1 85:1 96:1 118:1 147:1 153:1 255:1 337:1 564:1 1312:1 3223:1 3224:1 3225:1 
1 1 1 1 41:1 49:1 3226:1 3227:1 3228:1 3229:1 3230:1 
1 1 1 1 136:1 147:1 163:1 187:1 1608:1 3183:1 
1 1 1 1 196:1 
1 1 1 1 2:1 35:1 41:1 66:1 75:1 85:1 151:1 158:1 159:1 320:1 348:1 620:1 
1 0 1 1 55:1 75:1 100:1 344:1 742:1 
1 0 1 1 7:1 40:1 41:1 181:1 216:1 248:1 274:1 312:1 
1 0 1 1 63:1 70:1 96:1 147:1 198:1 462:1 485:1 
1 1 1 1 7:1 35:1 39:1 66:1 75:1 96:1 621:1 1337:1 1547:1 3237:1 
1 1 1 1 27:1 67:1 75:1 3236:1 3238:1 
1 1 1 1 2:1 5:1 25:1 69:1 225:1 274:1 3239:1 
1 1 1 1 27:1 35:1 55:1 601:1 3240:1 
1 1 1 1 35:1 55:1 147:1 390:1 887:1 
1 1 1 1 7:1 22:1 31:1 41:1 55:1 66:1 75:1 111:1 147:1 229:1 406:1 507:1 791:1 1209:1 1521:1 1640:1 2983:1 3242:1 3243:1 3244:1 
1 1 1 1 227:1 413:1 466:1 3245:1 
1 1 1 1 122:1 241:1 762:1 5756:1 
1 1 1 1 14:1 25:1 33:1 185:1 3248:1 
1 1 1 1 83:1 85:1 241:1 344:1 839:1 1594:1 
1 1 1 1 195:1 196:1 
1 1 1 1 42:1 147:1 344:1 857:1 1011:1 2145:1 2190:1 3250:1 3251:1 
