solver_type L2R_LR
nr_class 5
label 4 0 3 1 2
nr_feature 22471
bias -1
w
-0.05956311619819046 -0.8305286813041681 0.6110463115031814 -0.1760729464488369 0.3742787129718492 
-0.1983863567771462 -0.01693064138942505 0.3656486512953436 -0.1787542953354033 0.1164194215339669 
0.1606024934674557 -0.01815390556295383 -0.2496530271318206 0.1288382585883926 -0.02495958189938239 
-0.4441486420670128 -0.01095320162075355 -0.8091433761926529 0.3401536548371949 0.7032643515936147 
-0.388855924613764 0.3004598921939718 0.1145297797078809 -0.193507366782997 0.001359234959520921 
0.2093860708238056 -0.1385651573158339 0.05453069888237098 -0.2249570412982082 0.07493755851152967 
0.001792908507192818 0.009077302278689558 0.1361398424719133 -0.1397488318198159 0.007929790046789367 
-0.5908073278609565 0.8136541545106248 0.5744492642767779 -0.5135307550989839 -0.931066845868453 
-0.07942721326600125 -0.03550473240690669 -0.375806097665562 0.760212924883986 -0.6674008066008708 
-1.388226489492124 -1.47530094634107 -2.045745996703882 -1.042458047570464 -1.336832402932625 
0.2580007491516051 0.3894608659315023 -0.3446899146824903 0.1612121895653876 -0.7918073985162029 
0.3506394419357912 -0.381666048543704 -0.5069459459453231 0.07975742131730185 -0.09649261132924802 
-0.4151927204052147 -0.6567854323966217 -0.607853049427296 0.9969655871073021 0.2622052973523468 
0.09491334114615489 0.1142521749920361 0.7989385972722688 0.4160627434498885 -1.309938464780181 
-0.2411640667907823 -0.1622173186383875 -0.1387490814603881 0.1078932221318409 -0.03352208169441871 
0.2421590686402258 -0.1432336926195307 -0.9673771683383502 0.2292137785421454 -0.05298188143256931 
1.128543575030092 0.2963477688835376 -0.3363543143190931 -0.6535360693552348 -0.5888026425515093 
0.2590270624508165 -0.1020088588830389 0.8022310252745908 -0.8056091938029768 -0.169407008542815 
-0.04821039860574601 0.5440793204266576 -0.3448540528781505 -0.3489045449557631 -0.160653002997792 
0.6019059257853195 -0.2458321950282892 -0.05671575865801382 -0.4383835308294429 -0.03834522033661346 
0.6016695185102896 -0.00152535509144934 0.4271206720444199 -0.6937332851359 -0.3149333004635511 
0.2417149002971836 -0.04738995974309875 0.1889772927470638 0.3464638573838034 0.1225768371417933 
-0.06843588160705574 0.1320743075082547 0.08210544835115745 -0.1399032658072833 -0.02535242129917698 
0.009571481792048217 -0.2413033968074348 -0.04910343521879983 0.03489842614895064 0.1917389434560275 
0.6573850205235933 -2.303492784441888 -1.314785072051939 0.5579570178970306 -0.4196887175926627 
-0.9952403186148442 -0.9760679325695052 0.9853971280955973 0.7247373429477578 -0.6518886097642141 
0.250168500019499 -0.8142086516888242 0.1645740364286628 0.357144128212084 -0.1059222265571395 
0.1425044041347113 0.3803128870543728 0.1413970047914878 -0.5814498389740563 0.2372155578159736 
0.02296082283594477 -0.5903347748630609 0.4584323432561973 0.1674922990716855 -0.05633498569352795 
0.1449140936621358 -0.06656284869968004 -0.09559616333834117 0.2353782812148243 -0.09228570134627215 
0.08310061121619444 0.5621591638686453 -0.5597369130288289 0.3117125909001524 -0.4307391421987694 
-0.4518852350344033 -0.01773944548981808 -0.513580860201426 0.3949745278934886 -0.1167704628384833 
0.04951820018635981 1.037097798204454 0.4276292472595181 -0.5664046754897065 -0.6977440956144345 
-0.1887780135519063 0.1970340126106803 -0.02272503101202462 -0.2700386797306143 0.1047655807271283 
0.3168100350640052 -0.56447570435034 0.1109199276403991 -0.1955906626213494 0.3544156126717681 
-0.2867170638446785 0.09926028151820554 -0.05097045010630718 -0.3367529422289738 0.3350718228431722 
-0.617547615116629 -0.09788319759008993 0.3400419329574758 -0.4867626208598281 0.4810662298537152 
-0.1897378824000392 0.03455907018232602 0.2204082804682432 0.001243961672567245 -0.09117521485840299 
0.2452203437675057 -0.1519257459806295 -0.2056321057007393 -0.04285459047430163 -0.08012608137251376 
-0.5310266938574235 -0.04623892017867847 0.0004117984771211806 0.5246770121817066 0.04952409783479585 
0.5416997502719917 0.05340814792373644 0.2660817891412408 0.5255135959527829 -0.5895405999209766 
-0.1429229764434554 -0.09447406199845551 -0.1747943159758091 0.1237695791658596 0.09526819994644681 
0.2134005962889353 0.1859731939311959 -0.04932485797726007 -0.1941827213551539 -0.1180960000088745 
-0.01396871621750701 0.1091760231511099 -0.2932703470667149 0.03530738803044163 0.05802404481569529 
0.7666214316042188 -0.3814573923557844 -0.211417057375509 -0.191881702897644 0.1151480920268052 
-0.2075758105599998 0.1457056115180142 0.06240824806987355 -0.2510903466451511 0.07839830392575885 
0.2041566727390062 -0.2830943828975577 0.03784188830269916 -0.03388101263524883 0.06318351625587591 
0.05440831113799532 -0.7094964261689971 0.1948418282819985 0.3644744556382176 0.2876706484115551 
0.1213418112442363 0.6073580538608715 0.1953061606130697 0.1414140194544185 -1.264024022392792 
-0.2049349853117174 -0.00392964266734608 0.4804291655049965 -0.05363287863851234 -0.1941619588098636 
0.1699937663924828 0.2851172668993606 -0.07009893952362437 -0.1125581883032962 -0.229469520761564 
-0.1439167185179301 -0.1352996529703215 -0.004120990812239296 0.2462642107551864 -0.0401903210624547 
-0.1520681723982517 0.4631346048264304 0.2790128569872928 -0.7149061358106996 -0.1251863066498617 
0.000827890206336065 -0.03351657511491439 -0.716813781045778 -0.6485677202423925 0.5942911758497204 
0.8027128563733384 -0.1402071948851944 -0.2163063614546542 -0.03654686493905423 -0.128591135712178 
0.2944243378153943 0.004240866513040786 -0.2168678180462532 -0.1355194149546892 0.0441005404046099 
-0.1004418023271914 -0.04804925577164064 -0.08645812639920267 -0.5383242195347306 0.8263637755765822 
-0.1540783862505639 0.3040404699084491 -0.09570613249662245 -0.3624173312504877 0.1135995363889694 
-0.178108245080545 0.06180249680943807 -0.1818639959036522 0.08232632034944604 0.09188092813864034 
0.05742845188729345 0.1318730815384481 -0.1119112414766651 -0.07999467112838296 0.1121470593751355 
-0.00444479980218873 0.1908306686991199 0.08958005932139862 -0.6260399676680156 0.3180262889784046 
-0.2364519715104152 -0.0603360367831695 0.1097080850259795 0.2915386127795751 -0.3548787291662969 
0.1827327470300271 -0.4189601109799759 0.163176361140015 -0.3311052985006848 -0.1620916296797961 
0.1344838432840798 -0.02968451829142375 0.2879891260763037 -0.2135633960610361 -0.1231035795247637 
0.2568361778127278 -0.009151936309554581 -0.05293848393458002 -0.2590497456301417 -0.04916082641170776 
-1.02550698370883 -0.5338178322220629 -0.09599904046266508 1.170457531022644 -0.2347525762179205 
-0.04965572194526308 -0.03251351914722439 -0.1401691442093388 0.1647593941777609 -0.004504234026942645 
0.2077720835933003 -0.1734209045532023 -0.04699532936382438 -0.5697979322143649 0.2105517266772475 
-0.2563295652314298 -0.1011864988610961 0.04912515452446291 0.05600953677363919 0.2096522394811613 
0.2582982274627252 -0.2412951887456136 -0.04259689282167832 0.2686467083854379 -0.1891825146915324 
0.0003490397364637812 -0.002175974952436328 -0.08747144884649763 -0.0490446076384629 -0.05416452622145109 
-0.05200172311414201 -0.09292083658391573 0.2316796365020068 -0.1633091973712673 0.1361306689164529 
1.75110237023792 -1.494905035322874 -0.4885171236574471 0.7513175033634227 -0.6344455207575002 
0.4682172936698373 0.0304345429914745 -0.07901669831940192 0.0750548527030348 -0.3128780305215842 
-0.4424003054588249 0.3048357918205098 -0.06538217575360533 -0.1620437093190522 -0.04548718241606897 
0.3908138945172309 -0.1149909867976613 -0.07309120232497107 -0.290484247614526 -0.06438517564914548 
1.978671529766957 -0.4893051666027497 -0.7100722782246379 -1.367917907499291 -0.8324629431910751 
0.02283580026985818 0.1342529240918096 -0.001010022069415181 -0.06682432352637796 0.07763451134912763 
0.1872427326202192 -0.6161788632674876 -0.4651628008764975 0.4899277653269114 0.4997290958519053 
0.01568043239838071 0.07833070496385333 -0.1052550791128115 0.007745485483179386 -0.1621359308872273 
0.780097242323782 -0.01856178520486194 -0.4055054774988727 -0.2182337245343392 -0.1120779873762041 
-0.06273860644270093 0.007777643385744722 0.870718541472317 -1.065653955009292 0.1462893953421833 
-0.03434347401409953 0.2729246209540263 0.2084813157353801 -0.301831052805812 -0.1667200208172105 
0.6810982086592412 -0.07740072395694735 -0.506349121861725 0.05751040687009422 -0.1882586080664491 
-0.6009835548273944 -0.2919914528217385 1.027222292445313 -0.3254962278072918 0.2127994053185492 
0.01079314417248776 0.500829275644407 -0.3546837336754171 0.2235152523112483 -0.2785624395607177 
0.2066271650707918 -0.4370862665357883 -0.135503449172664 0.7583995373338119 -0.3174167137611629 
0.2169844280697105 0.1218344252490186 0.1128924289877267 -0.220424721690955 -0.03301552427550513 
-0.3588884036161601 -0.08871757293292061 0.7094144936692844 -0.4193810784084605 0.01172356398135689 
-0.3516865950694173 -0.06860354507206624 0.1047245720948686 -0.2976058142492451 0.1981333466435393 
0.1601084633843695 0.3038587226067664 -0.1239121013773804 -0.3614844361926461 -0.2032941393885623 
0.3193262642859974 0.2459003230127508 -0.531966583949841 0.38439091680599 -0.2619874642357392 
-0.7476440568924223 0.7958462717596282 0.05941597536291209 -1.100074411692271 -0.13302468360167 
0.5457586213119019 -0.01124282501339018 0.2482961255303984 -0.04271955300982246 -0.5853215860804197 
0.06102003645405626 0.1180347608850145 -0.09727902695425412 0.003523971304916014 -0.04330135986191867 
0.4149494343054982 -0.4599425971484961 -0.3525413570182822 -0.2650483484139418 1.246760016122901 
0.3992167932328111 0.06413409542178448 -0.2089898344144203 -0.3984338808368189 0.1547140375758023 
-0.1240944326188337 0.08607119172561375 0.01458771873647063 -0.5729685687479639 0.2855803774956157 
0.9860506076262958 -0.3470355518850663 -0.5768546458294582 0.5627048754694794 -0.4238018110327545 
0.07333011156325316 -0.7128993203567103 0.02174627666625358 0.3206666007453725 -0.1203762849764868 
-0.1142972791872616 -0.3500878437732585 0.7253087692377607 0.2434271439792104 -0.173759340316908 
2.893622932979024 -1.747869749916303 -1.029768651036312 -1.250388969274598 -1.274747942618806 
-0.09570247727121095 0.1045266272187423 -0.04886732845349859 -0.2775601533840866 0.1356522858966551 
-0.05927092927574592 0.1424903461354834 -0.2807708469188732 0.3810348633388898 -0.2161226721916611 
-0.203229680291918 0.09135764073229374 -0.1117707879268461 -0.6116351516628014 0.5113891251001463 
0.2010036780796027 -0.2924649902487875 0.2757557485653046 -0.2442467697721629 0.1236336043414136 
0.1950806887609714 0.1319967432392205 0.295532530448247 -0.2024345582400659 -0.1582153724014163 
-0.07433145693939847 0.2207654227644012 0.2210570541596059 -0.08574610554190111 -0.4697114367631675 
-0.7635678382112833 0.2499674758191215 -0.0860392388175179 0.6478814777610991 -0.2932475153917447 
0.03360136497845241 -0.527858343382356 -0.1082869392071705 0.1800994101541962 0.4030158369187402 
0.2797759555397975 0.2463909728560139 -0.4611097932151708 -0.1167657435363541 -0.1276232478810414 
-0.09927997014178282 0.3407055146001514 -0.7409601000363143 0.4039011601437074 -0.8315869493222606 
0.02421042211681223 0.8689350692680347 -0.7364860369952857 -0.2720438449963763 -0.1312270148292914 
1.634166788238526 -0.5840282794456961 -0.03563715439328504 -0.8557007847242055 -0.1193987679812559 
0.6298763277417874 0.3468800573745624 0.004676791052083439 -0.4990849981284382 -0.4172024130571371 
-0.1083870096073266 0.8290668337983546 -0.5421035915709601 -0.5646543175983447 -0.05455777339391811 
2.062686317687104 -0.2448809079178559 -1.519660920181885 -1.098426621604875 -1.271116990188646 
1.670480035684882 -1.192285338412839 -0.6117487468191058 -1.05177931455125 -0.5657355469395251 
0.02510457381115155 -0.006020005576974415 -0.4806494645232774 0.3646973595342935 -0.1650470707539161 
0.006486990979836599 0.715251088894957 -0.1039800721164159 -0.05965387849527366 -0.5023919740793182 
0.1778401337460868 -0.02574621889869258 -0.01143015491281182 -0.0557101636623077 -0.003649380256661397 
0.06305164215403977 0.004954938682918304 0.2334765549618964 0.1459409745008834 -0.1704159111772431 
0.08488692970134559 0.2268162622111889 -0.1555410754440292 -0.2976789890314432 0.1376946044642527 
-0.3495775033691383 -0.4543666810610147 -0.1266550130367392 0.4716858185638861 -0.2887473512691132 
1.310234072957694 -0.3490486214958065 -0.3002025775731082 -0.3625734190297954 -0.2572453214850478 
0.1163468541367597 0.01900512795312288 -0.5042993405960989 0.3505094818122962 0.1339307623916304 
0.03705301128633518 -1.185860696714569 1.016226920144642 0.3181020432454167 -0.158447299267573 
0.5940169963561337 0.5221518809418689 -0.553759022495328 -0.5245660542542558 -0.8486715727785941 
1.654279433157183 -0.1532913478144687 -0.7713191461216221 -1.158179140905765 0.02286108711055183 
1.366032132337464 -0.6956664742778792 -0.1760828793885402 -1.167738358619143 -0.385326193711705 
0.4062210424414192 -0.2235137258223333 -0.5397332319006697 0.3133699898391213 -0.2943855980857494 
0.9502588830142757 0.1841627311912505 -0.2973878274915761 -0.509204428929346 -0.3545426171509982 
0.54504034093497 -0.4821346431546724 0.2634553430104103 -0.2254244937578309 -0.2073067098644755 
-0.3493565591411851 -0.4809435723849135 -0.2018238955150383 -0.1275826071056799 0.4737477272097894 
0.01374403624268002 0.2332146926214155 -0.3666272616515113 -0.1248708663508544 -0.07239034778463885 
-0.09287528401852345 0.2906819031837418 0.3337475989418748 -0.1880988115476876 -0.11034902014328 
0.5043562387239008 -0.2198698144716576 -1.001018829825981 0.1077413568931093 0.07516220407458821 
-0.5521070264582421 -0.1271867457191109 0.5366146424893022 0.2790462134748849 -0.1745977908070606 
0.5841813475066697 0.7816568717532846 -0.500772982053117 -0.02026632115407946 -1.386079331278771 
0.2768673856410984 0.3372447866396202 -0.501218343196895 -0.1959812258671505 -0.1882731262712974 
1.084379958248914 -0.8743692293458278 -0.3011186237968573 -1.393313986470161 0.7910423994784511 
-0.05428799335331258 0.2984668788411741 0.157256403054761 0.3115921753671075 -0.6117170297510608 
0.1746955468847003 -0.2312881263331538 0.08132806954885048 -0.05190603987374891 0.03176164951781746 
0.07113113701181875 -0.1824084038364014 -0.08135530456017313 0.03962513115955128 0.09723922335491307 
-0.1738113153683551 0.2422163871473466 -0.6387795813871574 -0.6200670971375701 0.4478939712603266 
-0.04068003301578003 0.1615894826078348 0.004206318214311612 -0.1235670212721809 -0.07611441009966806 
-0.1277824551172722 -0.3849943885761932 -0.4101023760202326 0.8546111622852203 -0.4145684132576294 
-0.0213502313380413 -0.5753836924026392 0.377277312490984 0.4361647457039367 -0.290500129660445 
0.5911271445173202 0.07256746142745232 -0.1647479556581973 -0.1382458376734776 -0.07356314168861205 
0.7805606297875515 -0.258986537751637 0.8240588522226996 -1.208693898239695 -0.04670829311966107 
0.5148786564483355 -0.07311893928848347 -0.1057694817583548 -0.2343204543249685 -0.09151594977327199 
0.2083394377531543 -0.02876111411512223 0.03492903716211022 -0.2346955860182561 -0.03943997768969032 
1.026291655944807 -0.2897765571167327 -0.2360311473134264 -0.3594214026153967 -0.293006048450532 
0.2520470005725433 0.1265355006156821 0.1241885056319487 -0.1999652789920338 -0.3154840055431308 
0.008221156549849548 -0.1035656940131466 0.1683222878274405 0.03292590856109145 -0.1607117815241922 
0.1913652390172914 -0.5812439519100185 -0.6746831130309917 0.3766643012322105 0.1810548156397578 
0.7429629224663067 -0.2263375305036945 -0.1281825184229343 -0.3165012430801458 -0.0872173056748157 
0.6890635819090907 0.00307538438001979 -0.9335997281971642 -0.1934557450365697 -0.03842527758320066 
0.1979697677977593 0.1558398591769378 -0.1618276461279639 0.09649821609925105 -0.188502225155865 
-0.4767767889122025 0.8043187726142571 -0.02269831104681984 -1.744186098331354 0.01536249208821817 
0.3468296025926954 -0.2706469988628119 0.1684151484615563 0.2108280259945343 -0.1752665059430349 
-0.6243419216653076 -0.01325733393182523 0.672499015565813 0.5622231609416707 -0.5884762404453273 
0.05723572232149655 0.3382884770708658 -0.3809829388942848 0.351824870447125 -0.2257502461473349 
0.0325304154723214 0.2353556518693799 0.1933186094579954 -0.004177867422209392 -0.653834730460821 
0.2856070358092363 -0.2894832873303391 -0.1235723161188561 -0.0414126085126508 -0.1125605851846875 
-0.0006018351829781554 0.5770569249794161 0.04937618586058376 -0.8028747144787574 -0.0744889149826686 
-0.5950099486944577 0.6599314277981541 -0.4677105449708322 -0.143478232939724 0.01165118579673776 
0.7354440552793038 -0.3431330812286099 -0.860894340248046 0.7502155504394854 -1.329071792625797 
-0.2421957637619007 -0.3468999280692497 -0.4324148696712994 0.5765130214888513 0.1174565005194762 
0.8661271198050959 -0.3857330933077092 0.01366282026379693 -1.430274877379072 0.5109020525136 
-0.1635409724081146 -0.5070629588402391 -0.882572359158795 0.778304980608694 -0.08836955850362893 
0.02707517362659798 0.2164156350335 -0.1819770102718324 0.3919084376427697 -0.3274523482443499 
-0.2805436402953086 -0.4493136822397446 -0.1909413849955542 0.2706972211136148 0.1301113553142896 
-0.3783939354185802 -1.801959038559695 -0.3931377207172684 1.661395277933917 -2.083045847286001 
-0.0003157141734741326 1.083563045870562 -0.520936235244595 -0.6844301513791697 -0.8141352346528665 
-0.2668732249258688 0.454162858266925 -0.8769472735578967 0.5036291061652417 -0.3922985559433445 
0.2225359549341329 -0.048088728768294 0.005282081094852065 -0.1815832249910066 -0.05251361619068342 
0.2956381166361202 -0.615543746811675 0.0412573145864211 0.06070309218636274 0.2828932595460137 
0.3421170925210761 -0.6706101136770357 -0.6776841191520127 -0.1023879808262687 0.4947862918404005 
2.29080597625589 -0.8740145182760976 -0.2539675985368391 -1.611698102373206 -1.105040951037501 
-0.1109079981992409 0.2545980571363832 0.1459853026212935 -0.317030837014052 -0.1000601489682582 
-0.2783418683989133 0.190281344869405 -0.2450492211704004 0.4775375266109012 -0.2450051464772466 
0.4301549538784897 -0.09497143970383005 -0.1967498017418383 0.204798533826845 -0.4645656341207474 
1.883383551803576 -0.2916717967375814 -0.2453526507095278 -1.481154529170191 -0.3791355887650372 
-0.1155600198697938 0.4988260990340792 -0.08404254110406674 -0.1426150845783061 -0.1934931041857528 
-0.2112630962854576 0.1542702167525249 0.8984949672900309 -0.9157282173754483 -0.05394864362350506 
0.9974872963485425 -0.1774296855858505 -0.1772405594409491 -0.1189023861405989 -0.325331726039344 
0.4372374912925537 -0.2684617753934914 -0.02896802188762938 -0.2572420886511824 -0.01617630190471754 
0.006354177914124979 -0.8153890942967177 -0.4927542937773155 0.2194733640712882 0.5121238230102918 
0.3308676861104526 0.3311881807465832 -0.6062154221043196 0.04353865248600572 -0.3263114270836596 
0.1870356489500189 -0.4890966677565132 0.4004877199760365 0.8496638786698036 -0.783235217668622 
0.2891287404794657 -0.4612993253793502 0.3023373858650217 -0.3297814572927845 0.2343709939358612 
0.2882321105266232 0.1266142616486793 -0.1870254644231829 -0.0945039254134145 -0.2982732908636398 
-0.1240253067901001 0.5103427858012974 -0.348515705714596 -0.3572051987020782 0.3844438720785637 
0.6203816995677403 0.1617646476426115 -0.09299556721484882 -0.3166190973370338 -0.2692510834646708 
0.4080236797672162 0.1922810530515803 -0.2012608888882415 -0.3286948640523237 -0.1033471324324981 
-0.2447353060534079 0.004195899630569183 0.04096940044668532 -0.2354187315981052 0.452919125371372 
0.231648280591975 -0.008284459767690773 -0.4435853451887184 0.4742589338221859 -0.6871880743946671 
-0.2070059226908329 -0.1503505623735698 -0.1310726748282062 -0.09099538206371578 0.2889891488559514 
0.2910209317856732 -0.8103445147130747 -0.1645460530223984 0.4566512591135353 -0.3301568171777715 
0.3807453311331445 -0.2664292730355161 -0.01158331514325187 -0.06206160935953663 0.03381813253050368 
0.1824177014794518 -0.4294888041391798 0.518483218661574 -0.1216951972735688 -0.02361129251231751 
1.007035919012573 0.04492374664856454 -0.2715225843797946 0.07730397940369649 -0.8303312266142198 
-0.336017796140865 -0.1615581891353345 0.05894184923687207 -0.3692010792930754 0.4759444300817713 
1.42500098556075 -0.5632190759744002 -1.106332257146831 -0.8854372013935479 -0.6453476405058474 
1.295746400209906 -0.6006141525256518 -0.9136354896287 -0.4615010860488497 -0.593636422078609 
1.23731571962941 0.08554873969897132 -0.8802079094160443 -0.9177756779633715 -1.100382995080516 
2.997973249438015 -2.104764997640656 -1.43604303016129 -2.133098030865046 -1.531048956420366 
0.9530006593498657 -1.544505653726923 -0.3917631364714375 -0.2102722892662595 -0.2662172524068836 
0.5912052568435044 -0.4537086227236902 -0.7210275600207885 0.1015669399951819 0.3239011415940991 
-0.2790662655094434 0.08199050746179308 -0.006745487099159521 0.102737748217617 -0.003952864142083013 
0.04947418430951256 0.1843964307529536 -0.2442544559887522 0.2424185144441673 -0.1121979201006533 
0.5492928425959759 -0.364406541055347 -0.6520464177800234 0.03482887670349932 0.08073342710620902 
0.4916850915867823 0.0491000349895834 -0.02456658991047143 -0.3272439588737537 -0.06416078346135151 
0.331428705740977 0.3284453895911287 0.1712623118909679 -1.415574260709083 0.501548018962962 
-0.3183334072739796 1.219215764800476 -0.3373232042933431 0.5303903798598915 -0.7296064608093208 
0.4442050620809657 -0.0278365454321502 -0.007602403187403827 -0.1496001405231364 -0.0767043919860718 
0.4794339668581658 -0.07993730549898082 -0.2782673986324479 0.008885318662281601 -0.5704705453699137 
-0.242748084256144 -0.2380203256748315 -0.1474700133974848 -0.147922478676272 0.6022151350840537 
0.1614062495060478 -0.3319822598320885 -0.3545618327984881 0.4606676847953513 -0.01924585557511464 
-0.318991320029434 0.00954501632108623 0.13584706930775 -0.6836674019450135 0.3588637477691317 
1.667384803096847 -0.8214833618864317 -0.5209509363581866 -1.030764545209974 -0.3897685547435152 
0.02258972226497667 -0.1866786898162899 0.6328819796841793 -0.4619908851047363 0.1017242575093277 
0.3951759800159053 -0.6725304322451859 0.2425419749662871 -0.1291066754744879 0.2290459480732717 
1.548225186886327 -1.168147266385289 -0.8475042706546436 -0.6842112264941436 -0.08508015327467816 
0.1885744688520818 -0.2944909501098318 0.398930067090057 -0.6934579384733955 -0.4073925859698274 
0.1178293172662754 -0.3205338167825343 0.08694072314990356 0.2144468998996732 -0.166956136620015 
-0.5008182784078876 0.3860132950990008 0.2404686631751397 -0.2341313442861208 -0.1052720014802669 
-0.1481623864484211 -0.253617855016222 0.1728694215497462 -0.2629386260257051 0.4806016012932726 
-0.181116740511988 -1.29132686157768 0.2756872015395122 0.9673377273265711 0.3521264279588155 
-0.2214246929459384 0.4622700978263805 0.1016660181738738 -0.6005431206728071 0.2410658828206863 
-0.4634140038274246 0.4669017075510005 0.6453904349427755 -0.4931107848511292 -0.1798989977620654 
-0.04374246528135346 0.457805413915277 -0.4171443031680536 -0.1941687917545976 -0.1439466897926348 
-0.02038659188457266 -0.1320465480988769 -0.6311531622450707 0.4267091794578283 -0.03321334406161743 
0.05016248375216613 0.03980245083672951 -0.2881081240513476 -0.3468412213228707 0.2009149489600608 
-0.2643592841126428 -0.1853266901603023 0.2143470408898442 -0.1056848805517688 0.2004492284142148 
0.5755627889956036 -0.1548687251235173 -0.07986429586463978 -0.2912521004533957 -0.08389828594078132 
0.4129632056248033 0.1981951498113325 -0.111639690723256 -0.8005974035464076 -0.1556945324724259 
0.2382161352609675 0.1207151652712236 -0.2221992328795767 -0.7948537601467688 0.9845505162083058 
0.3247788032673102 -0.1291079468875706 -0.7823667898205791 0.4639954433013886 -0.7144045639051557 
-0.3978410298490483 -0.6184579901011612 0.1390064642349437 -0.06868147035719677 0.7698950840978424 
-0.03184086586248496 0.2217480903966272 -0.4399156842260172 -0.3540435643021433 0.1582471780073466 
-0.3215978777635732 0.4596753710693564 -0.2525956022827238 -0.1567042917744931 -0.08844683464742156 
0.443715511279765 0.436964834727457 -0.1381531068855172 -0.4686452294218591 -0.4519340026848105 
-0.3941133017320113 -1.229755104807915 1.013579301383931 0.8889027756602085 -1.770906700505747 
-0.9747876793940118 -1.542229538506618 3.170664115076127 -3.258350307466201 -1.085856134473274 
0.2528533675316228 -0.1331410425790859 -0.1223022588115387 -0.2928797200611227 0.296423035035148 
-0.2648760359378394 -0.3687100991691183 -0.5351264526843268 0.4165850398538301 0.3479080077735474 
0.7464928025868963 -0.498921199261987 -0.355850021946539 0.01860352955285949 -0.04103677181436003 
0.6055092307337724 -0.1394680617619871 -0.102718673626896 -0.2304500180702467 -0.1226589657793622 
0.6055092307337724 -0.1394680617619871 -0.102718673626896 -0.2304500180702467 -0.1226589657793622 
0.2955865402826874 -0.3044174676341653 0.2416552527876711 -0.09434959060841545 -0.08907707594994788 
-0.5095079342364264 0.02103575438544163 -0.8507603985285528 -0.1329598320960895 0.6270355693621417 
1.952828011541985 -0.6712485264727928 -0.6927428496953402 -1.156116689081174 -1.04446300349196 
-0.06847220771337126 -0.1176156966261628 -0.4485629801106404 0.5478531489584854 -0.2809086859840768 
1.096755417036081 -0.5461900936113369 -0.4694777609112013 0.3017029780404504 -0.4664454579388878 
0.04475734393739278 -0.1993696810096696 -0.3508175965631209 -0.4873047491702631 0.8100253505216356 
0.2207152800276858 0.2348189380478697 -0.4026355377380578 -0.08162311171852646 -0.1763453306386609 
-0.07336423469050982 -1.091258553916076 0.1570870853216736 -0.1858900195788338 0.7965839553189372 
-0.2948158178159268 0.3978742939545031 -0.3381281144322105 0.5207632254572757 -0.06627571099479446 
0.3272584259848532 0.02117841593954335 -0.404984898439455 -0.0512277977425712 0.08155249620322486 
0.2977636901692394 0.4088583654670732 0.2297759291292983 -0.5286572248707156 -0.5002588962879199 
-0.1994448264297755 -0.2562582465005437 -0.2110810485588413 0.287417530022637 -0.01728511211932333 
-0.5472436135828291 0.6253067798350063 -0.03573364103935073 -0.5147505272490783 0.4056732329403718 
-0.09151081277977688 0.2593722758434523 0.1951027537960913 -0.4306781911058548 -0.03396419888001634 
-0.1690975906134761 0.3954008996762591 -0.2472207638075657 -0.1775699419547199 -0.1684734430757734 
1.076221662592013 0.09140332493762515 -1.06163037211511 0.2878514274970927 -1.42603232345888 
0.5964180763041894 -0.4541503621239875 -0.1705616119948815 -0.08023390362388187 -0.05476641398277066 
-0.02060002932233591 0.1765720597381245 -0.532807371230777 -0.03066771196762096 0.02219755510251589 
0.1343264737704295 -0.5042376835467076 -0.2399863651640042 0.2260620110946585 0.08080273686598211 
0.2983154845305462 -0.3051128736327964 -0.01535258539897739 -0.0604655045199145 -0.02264486701207153 
0.1745954714462691 -0.211253904090235 0.5068538255405464 -0.4140825875079157 -0.3998505998496144 
-0.8598596281071832 -0.1904060870047587 0.2295199185703739 0.5046554366335992 0.1109233991830946 
1.525880030777103 -0.3060284025085461 -0.3413291672182381 0.1174568972407333 -0.8853000799030688 
-0.1982074186691358 -0.008463754596481961 -0.1271021857871756 -0.1901379923033182 0.4774543058702006 
0.7028987219822957 -0.2672340196549973 0.3963142517322906 -0.242531972604495 -0.4025485686333172 
0.08314970890172121 -0.08881673431500427 -0.456212093564685 -0.3940395374034258 0.384509963899742 
-0.174733358905994 -0.1107569537533809 0.02246115406078574 0.007032540116300546 0.2626209857382993 
-0.1483175139729629 -0.4215783397634807 0.2671857012700636 0.3633996342499624 -0.09741763622150951 
0.3918988865406693 -0.07395497880900825 -0.07692570208840366 -0.1679181112080894 -0.108851043457699 
0.326151893189003 -0.02702353146686905 -0.057012318375891 -0.03915414771527834 -0.08753961918963971 
-0.403915018728889 -0.141104339374183 1.178498639612295 -0.4020938861109761 -0.5293573703479555 
0.3209649435668256 0.1007390214085287 -0.2668846344711394 0.08014215649783624 -0.2189960951380219 
0.118462636536946 0.1062336211135025 -0.2662061804429153 -0.5904438902301166 0.09594206960085523 
-0.2221064695144237 -0.2227710388231806 -0.0195443325453688 0.6696330107356347 -0.0930372723405527 
0.4372129441099095 0.365979470446077 -0.3638172731372309 -0.1591850785061069 -0.288385634372631 
0.2737888408544601 0.2746907213346829 0.4224003208024351 -1.033397665262471 0.06439643325858241 
0.7800776629806045 0.4193344214363706 0.8093012747910966 -0.301515177131501 -1.054649171017114 
0.3138955013544833 -0.4568298045787334 0.1319372043309674 0.1653287621338236 -0.0851389089042007 
-1.045747337864285 -0.7115006677632415 -0.6487025411789418 -0.1849541225528993 1.723396114333927 
-0.6073283174737765 -0.6936106335190715 -0.38470996404274 0.9842089416199986 -0.1492530173375646 
1.105905479807313 0.04373834181755622 -0.3439609235850501 -0.3861544959128617 -0.4630716581588987 
-0.1383732390518805 -0.390501761356908 -0.4124273520959834 0.1598999506354808 0.4900615582687838 
0.660794268828618 -0.01530422965985873 -0.1845072772798608 -0.00343674229964621 -0.2486572971747668 
0.3443302955745043 0.4572286730194953 -0.5426935008215493 -3.681260396715154 1.967771620441634 
0.4907341120697161 -0.9601570899379611 -1.676949376832626 1.043249007846444 -0.7477560618023814 
-0.3967925641423989 -0.02406434178407388 0.6314408197687847 0.1888280899682021 -0.6272094766000189 
0.3249305794423515 -0.09132035080341334 -0.7220634787725515 0.2733226798140912 0.0301135624410127 
-0.09006838841621745 -0.1074798233270429 0.1822436519331869 -0.1870984137312685 -0.1968449501301691 
0.2636618620835403 0.1107544568240045 -0.737906631929065 -0.06594868330425534 0.0745452788742184 
0.09515894960652709 -0.4672865781106517 -0.2993441109708065 0.4761748541995742 0.5036161549707717 
0.4530617209457792 0.05784296395106042 -0.7274483705075898 0.0302209266342922 -0.05677906425688603 
-0.2338257366696705 0.4131604513835625 -0.0310599459364883 -0.4244867265762695 0.1806216567644261 
-0.04107885003318387 0.8241285123482431 -0.278931789119518 -0.8885311268707077 0.07076646770705142 
-0.2938184295656284 -1.257392698936102 -0.6349287891993846 1.077210393624226 -0.4564122381665039 
-0.1542129758487366 0.02595187433162036 -0.5174873566329411 0.5044118990834617 -0.2851546395413889 
-0.4496020209463412 -0.4290603567816095 1.271155764734716 -0.8710109804264691 -0.2193821646393191 
-0.3613983069929209 -0.4374724633070525 -0.04681632957175105 0.7184478231903751 0.005303355225774639 
0.2938466323959451 -0.5334403498285832 -0.2295115482002699 -0.04239929442633045 -0.1662900515262972 
1.056370997172098 -0.3314383142780711 0.06288563985806436 0.2772857135506086 -0.6131855184927605 
0.2675408093508731 -0.4738943454577378 0.04592780509949027 -0.2251129234067645 0.1949800695166813 
-0.1047485954591016 0.3790467502310825 -0.109137110830124 0.3939624383772949 -0.36887367949564 
0.8169714764085779 -0.02663867506374577 0.2478483355298738 -0.1163933913993399 -0.9962594765661072 
-0.4811353594172117 -0.9383605642222196 1.197505203023072 -0.5141551148178358 0.1382258949225823 
0.4377329325801818 -0.2323858384932062 -0.434918130705676 0.3130472104335527 -0.2298088926569586 
0.328395153980424 0.5567488532046956 -0.8491966419154472 0.5112721397948754 0.2825773667150889 
0.01985413679983879 0.3898220281811441 -0.496506299216878 -0.3257242936307989 0.6064541213452489 
0.2877588146772166 0.2852730347413717 -0.2004747292017161 -0.2808713653597951 -0.1472083656941303 
0.4065452314123624 1.612393434960351 -0.1171726176959638 -0.9774310858405983 -1.247846879234816 
0.4106928081869773 0.1929264606845386 -0.2679461563767463 -0.6642038599701081 -0.165657591936917 
0.4676630258535348 0.1371670913843813 0.1464520452023888 -0.4753532571526264 -0.01165473257156213 
-0.1456491389486094 0.4898325600981279 0.1431415013825691 -1.250936546247048 0.3181059064219776 
-0.0902855798497883 0.1057491898500781 0.2166370192968979 -0.2933116861594555 0.05339154005226697 
0.2973309028625951 -0.6198708764773353 -0.2623366390366087 0.1828330814818231 0.4669073005782492 
-0.3666188297851466 -0.08620778692374111 9.843945833006018e-05 -0.2427485702976603 0.4290449134550949 
0.3279188115133683 -0.02822013891775134 -0.01207057903923172 -0.2046872285495302 -0.01712423349138393 
0.2745587279901718 -0.03192034463387949 -0.09579118895262073 -0.01122358328297447 -0.06931958924496547 
-0.1598970902239411 0.4826479998191417 0.6889956867071451 -0.5619166843281315 -0.2104772564315303 
0.2544326836148404 0.5306450088424723 0.1295229981717761 -0.4500537102170615 -0.2063399639503488 
0.006884315963571469 -0.4373672627783875 -0.09938531204471157 1.897069206498075 -0.4644582506026573 
-0.3273567604171409 -0.3414240888061345 0.6706904670462389 -0.3474223363990722 0.326607799620573 
2.617767711427299 -1.305225412233312 -0.9478242725311782 -1.422796575132279 -1.494712678814607 
-0.1955048156204574 -0.4780754095066226 -0.6600031092436921 1.046590676048167 -0.7425520722240054 
0.1099513280088506 0.428701067957004 -0.4070236703454947 -1.100368840861813 0.8395766528792159 
0.7068655864932802 -0.8972173753844653 -0.5560331879312095 0.3238983810809055 0.4673606208329149 
-0.4090585419448077 0.5804034032920079 -0.1420427792992567 0.5004142720835301 -0.8250690980819292 
-0.07698645154265549 -1.144705579913693 -0.4851827243823554 1.039959207742414 -0.6272897458998966 
0.9395211771314248 -0.03425136345502464 -0.1981652133692421 -0.2485851006360186 -0.4845537362223908 
0.1190891202448799 -0.0606600438418826 0.6348944478945621 0.2983401570677066 -0.5957731307386864 
1.077564191998526 0.1657422431066051 -0.2664578378618839 -0.2039849549640275 -0.7868130191721731 
-0.05946519032880956 0.3436033576141989 -0.4331785449069888 -0.4871797760551418 0.413995140771049 
0.6608522786446267 -0.2125917360127434 -0.08920442798832118 -0.1072441002188622 -0.2173706316946414 
-0.6200070895674715 0.47172357890652 -0.2554217242861622 -0.8339434871485845 0.5876091276823437 
0.6857431431634958 -0.7928605558580692 0.2875873472524926 0.1309119171372427 -0.006333865994605409 
0.2122805214898426 0.04695998624706034 0.12919480843884 0.0718533902141872 -0.239959448778598 
-0.7711979371318151 -0.1507433935548147 -1.607400737801045 -0.1686396190263152 1.139405342286539 
0.05905691867598601 0.01673603019354217 -0.07901051595056685 0.05083207360640643 0.003083492132397242 
0.7171304060980151 -0.4012677931225312 -0.07138402220147284 -0.05424735643916439 -0.1958252365412715 
-0.1065302247935374 -0.00245918372215843 -0.4181537948473698 -0.2806642712578447 0.5481482526748899 
0.7503682346159405 -0.2675508468674082 -0.6165434261456593 -0.2373459117068497 -0.1835792101630007 
1.320695934117768 0.1200382917377097 -0.5842630710254424 -0.9804742564568435 -0.08298982612413089 
0.1923440061884408 -0.100803712603541 0.04144086306747741 -0.3469731063871371 -0.0157378094988281 
2.592231299703773 -1.035267084857267 -0.1560046666154263 -2.461393282537108 -1.400669142669772 
0.3548716275428247 -0.3639515415262566 -0.2897312273099866 0.2358466115413794 -0.03832396577022266 
-0.07063316583175226 0.08915060533794075 -0.4962247153378965 0.3727137315995049 -0.04682404174694087 
0.3815923806144257 -0.599427076965836 -0.5573622750097885 0.1199523268000066 0.06359094024796255 
-0.7079551225121427 -0.3480437778420903 -1.004240096911296 -0.482813437493499 1.588175740650299 
0.140728888519438 -0.03542369078845603 0.02464810453051937 -0.1574119483799879 0.02400521688057353 
-0.4063529538062265 -0.008488430606365957 -0.410817745209706 -0.1603732887300168 0.4905399094974475 
0.1385174253194304 -0.5683892043203908 0.4940202653107102 -0.5502257333514743 0.6760463799564222 
0.1409875105966379 0.6920304599169917 -0.1845927414463956 -0.4089925127661115 -0.5543044207912577 
-0.3020400719426047 -0.1500056065434311 -0.1949242838216779 0.1203677710763972 0.2806669182656817 
0.7949829693899545 -0.2590398501693144 -0.1210744276326796 -0.002203020937835245 -0.6885204121741866 
0.08148451200889753 0.03512524661934005 0.7925902411954192 -0.9901915292449558 -0.211165025154984 
0.940254456357954 0.1912095420220266 -0.0370706710639236 -0.0266084569941184 -0.97464723882421 
0.003318200889016378 -0.691409366235857 -0.5189749831742693 0.567681234352603 -0.18497990024829 
0.288067533568347 -0.003512137983008807 -0.007868739734776899 -0.4427016623312703 -0.06304642476357078 
0.08313604968189507 -0.4362313392719718 0.04369049242477552 -0.1275660277323184 0.3555983829635652 
-0.5145839525800064 -0.1444484036182406 -0.7442786922860286 0.5504484336275415 0.5531315633900894 
0.7601924842895401 -1.197380651096672 -0.3284696376121877 0.5865292165163869 -0.5967800752744736 
-0.3453577841236015 -0.4852658130868458 -0.04556924568333537 1.006323657330014 0.1057244113728351 
0.7616819966255847 0.1351190062081356 -0.1101564936973796 -0.3662685531334952 -0.291224880883614 
-0.3168863268186993 0.09118940334014064 -0.2490157505912031 0.134909643043366 0.168191711577483 
0.8690433782751391 -0.4190397996733044 0.2614088801909868 -0.4263267018170399 0.1920485504337651 
-0.2878026623349744 0.7250338711317869 0.1142057205001144 0.1229918774022412 -0.6613390906716891 
0.140825332530418 0.1075831132260419 0.4983724270788208 -0.003186241545715354 -0.6985919477188607 
0.5071513162029906 -0.3105019045389225 -0.02965850603284669 -0.05677898969162513 -0.09197539419421072 
-0.146037814270157 0.9549580040416383 -0.3514506995245061 -1.367065681438203 -0.2101656328909177 
-0.1209920348865976 0.3177296219857316 -0.2055757227401852 -0.1473640463927117 0.168536467307716 
0.5071513162029906 -0.3105019045389225 -0.02965850603284669 -0.05677898969162513 -0.09197539419421072 
0.637971516657611 -0.1211513325199094 -0.2971199553815301 0.04364801016973886 -0.2350963804999638 
-0.05788316672205598 -0.3529678156659348 0.2376598290968144 -0.264854737552737 -0.2639580423241182 
-0.03373980765755796 -0.3619245783108762 -0.3322156812052118 0.7163372866349622 -0.4316111066777141 
0.3819031782113407 -0.6028485071003883 -0.426484158468518 0.1803612698284004 0.3153564562604012 
0.2676725718404903 -0.08514513927093888 -1.501675061862753 -0.1074796861106716 0.4405623188413613 
0.2079519565525517 -0.1504970183627337 -0.1176244707638396 0.5801064567019514 -0.4147082763964164 
-0.293279743253841 -0.638650789382606 -0.09745612653761153 -0.04518366773604183 0.6048040422832214 
0.7418726740192966 -0.2167832208216828 -0.1376993456470297 -0.4483976761261125 -0.7257578534360714 
0.2091588415343036 -0.000471132767783019 -0.009141841813754348 -0.2074589033357149 -0.419258957285555 
0.5004482804188078 -0.2982200096354763 0.721130003964908 -0.5398815491270917 -0.4186872102339079 
-0.6175168094859869 -0.3320962381631603 -0.36995537514194 -0.2700593175162628 0.7110963078575364 
1.014159498738893 -0.5112911825392039 -0.4229385287690637 0.2465960562036899 -0.0478840765606943 
-0.4014618188997079 -0.08808443621740225 0.1498585258666088 -0.2010362365050528 0.3580385190213723 
1.441932419317029 -0.5105286879987062 -0.5321193762011253 -0.614512557960287 -0.178516627000823 
-0.1199204078699129 -0.02680577530130701 -0.1809182678786117 0.7149751622794271 -0.6273086638633498 
0.2927331293663415 -0.02277682182349691 -0.1893992252182398 -0.2362966057428566 -0.06397639758434491 
0.06291077858527863 0.6028822404107749 -0.482325808958549 -0.02092003822286011 -0.4810168062399394 
1.261457721278338 -0.4663455081762999 -0.7336794647024576 0.04195353434095227 -0.2431512968734525 
-0.3571450329451517 -1.615845326916551 1.003749810399573 -1.156268638636192 0.9302494368672076 
-0.7630349511281277 0.1363931456282508 0.3780259115223945 -0.7513017442397512 0.6879633232277456 
0.2082832132932771 1.390138544757328 -0.1558524454523957 -0.9969710616747024 -1.153167998095994 
1.060578430675509 -0.6989116686867922 0.2310794297842714 -0.0753285942696941 -0.2869043103318301 
0.06527598993132169 -0.1155427294751045 0.4696343194582182 -0.412627368573157 0.09643968749377961 
0.2285508539154613 -0.03629687680494283 0.1785006490649505 -0.6069353577218982 0.0484431083921979 
1.04819660945534 0.5635485794278358 -0.7193278069945722 -0.4311700314460865 -0.8345518085368913 
0.2946805716010521 -0.1379469248190058 -0.06241069183802012 -0.08090942233255524 0.01194140239931566 
-0.06375103366743787 -0.02621563656000691 0.002743767286031755 0.2235309118027455 -0.02683057271880084 
0.2875777186835878 -0.7174734725139164 -0.2513888188231668 0.5701870675936342 -0.3412540253480421 
-0.6322714326685268 0.3516984482118645 0.6644758335180715 0.132783524819216 -0.8073535260825705 
0.6119605926280201 -0.200235923442099 -0.07757454265350555 -0.04710568951078208 -0.1392240120498557 
-0.3517163443788873 0.13195297687893 0.136528095526964 0.1303148190948591 0.4654005099556909 
0.02500537005652407 0.3188070505945632 0.711641027666692 -0.300455142025339 -0.3922458682915194 
-0.2548828584972601 -1.092335914650362 0.2341074497050039 -0.7766611954795711 1.442938272225013 
0.4429252236467904 -0.7363798377779075 0.06994942794105301 0.2942015971992288 -0.3367287491529299 
0.2025286554717461 -0.2426865575101352 -0.08466816030958087 0.04595810185392308 0.1346452541588889 
-0.2750101890025328 0.01447303461937977 -0.5899765446062772 0.4022465999154856 0.1772433140812774 
0.7530650160583148 -0.15098429543777 0.1612310586208028 0.09930942672149892 -0.2527517326747113 
0.2355348590650159 -0.8189454415422111 0.9898067895755527 0.5250126891274512 -1.631658668598634 
1.000204729980046 -0.3659548312880272 -0.1628864881583594 -0.2262779158341438 -0.3493302598460457 
0.1472621023950499 -0.1314741629126155 0.07691128770209019 -0.4039617140820691 0.5749578035552688 
-0.2876884766666605 0.4432396713250173 -0.1566708244704021 0.5842253694423093 -0.7402436042269204 
-0.4991387868396148 0.1744808058748031 -0.01579557943854158 -0.3033271962331281 0.113072033654224 
-0.008071296244207287 0.2708558663135172 -0.2595347273988524 0.07032683572260075 -0.1692759613816162 
0.3287944364605516 0.767288940626212 -0.07775374973934293 -0.9494144617302669 0.1884546269674758 
0.9382588515755022 -0.5232308204753949 -0.2101745018279677 -0.6380310557647949 -0.3298062085649715 
0.427713565195204 -0.3259639705454059 -0.09642327065849776 0.12963948385906 -0.2882480711148674 
0.02187902149800978 0.7948673562454353 -0.2473871948050763 -0.7281833056056926 -0.3210984844355611 
0.3519099995011755 -0.7144264567931889 -0.3099426431978818 0.1853691838726128 -0.1924621477932702 
-0.4749069563570184 0.4923566861543489 -0.4738801073059035 0.5787026615579672 -0.185223436487228 
0.9813585312641664 -0.6660360742415613 0.1428801500649723 -0.067643372974868 -0.4769773076347386 
0.383116147359348 0.3969564497229188 -0.6306574048890174 0.3825613458482378 -0.8430614507578383 
0.1022436956778545 -0.3225487863553333 0.5100510557279708 -0.08335829731690587 -0.1241296343157889 
0.1859185520345959 0.4438523878576462 -0.7068299601598508 -0.9295350243802861 0.4024351483325168 
0.2149564562375452 0.6106491997915676 -0.3763031863940004 0.4941741363118475 -0.7285557956672034 
0.6995553626569444 0.4846508412755787 -0.85830686204742 0.4309280203615051 -0.7442386268324609 
1.021532879108807 -0.2561667371928395 -0.1724518187791674 -0.4347713808625275 -0.2339572804902094 
0.1153513098348174 -0.09583750926696977 0.5042391602126957 -0.4147417424753541 -0.08781373336875853 
-0.7459742823886115 -0.2803836924854616 -0.6175199307597388 -0.116548214347451 0.5874668559869042 
1.2745771270774 -0.9403130914010672 1.521667350192142 -0.9566108717535009 -0.961142525703008 
-0.06345186690675324 -0.8712027328717511 0.2058584526614498 0.08149286734414919 0.4256054570855555 
0.9691275186120024 -0.07677915180701551 -0.3179293222966958 -0.2057996957084476 -0.2265512984151846 
-0.06588559468552967 -0.1212608128310515 0.09333436287474824 0.2046640595803479 0.08108637644624107 
0.9674341922468336 0.1593036299095021 -0.0955028395797026 -0.5617446832161995 -0.4566680535873446 
-0.1246566570510641 0.02919010920753494 -0.04462972951140903 0.5639556708301081 -0.3349400877469673 
0.7757402117916019 -0.9447992087931641 -0.599851756231761 0.3383687771392402 -1.014554477846554 
-0.7662210885881826 -1.19924420420785 -1.401679387023076 1.700120655086067 -0.6482332594027752 
0.6264498502867536 -0.2905866308350094 -0.2613887507995746 -0.1605732673075342 0.3955878225894142 
0.479561284125067 0.7600715032574843 -0.5010784109687388 -0.2175021380870438 -0.6538386946749846 
0.5279996205923063 0.169400838651022 1.124161128213355 -1.189216610174659 -0.5399113411842921 
1.077116854369935 -0.7294245743786739 -0.2808076807059974 -0.291686733341993 -0.4993487683784034 
0.1315488747172346 -0.7478460964309107 0.3934315312348857 -0.2801876698634019 0.2356034656865058 
1.066265891969314 -0.3708161089470899 -0.8327117106732935 -0.7455321794030155 1.221332054767323 
0.02521777166615566 -0.05690550758730163 0.4455538150591413 -0.1076794276831091 -0.4944990744545261 
-0.4095623811949699 0.3647768154049149 0.5300558636590115 0.1567648226436869 0.1048635443851615 
-0.2950567647485868 0.4804902770918897 -0.434255801372412 -0.7065102682223132 0.3779260218948727 
-0.4998001787161134 0.05098910629087845 0.1295419291694731 0.08515994403417716 0.1130182935036294 
-0.07455543940009618 -0.7021392658180612 1.252227370817975 -0.3657116129989386 -0.2119379292309796 
0.260539006241783 0.2108116343785471 -0.4198537364813867 0.2111330806203683 -0.2336692555870975 
0.4289425664300628 -0.05488440494063795 0.1863763968843813 -0.2590344155693085 -0.1640918920103896 
0.9162261871225246 -1.245675629193375 -0.2305217138359322 0.08458554979352628 0.1863408323419555 
0.701750320933736 0.299265552651383 -0.3065448457219069 -0.3705576704855978 -0.7211424319253016 
-0.8855895479981335 0.622936836529821 -0.4639772418239844 0.1506006974295661 0.268156985312518 
-0.334489972074919 0.7444527708623224 -1.32387918882863 0.2750116426790174 -0.1502996428392993 
0.6037232180615324 -0.2958128410252394 -0.03587580556921465 -0.004904713950580338 -0.07135465289685358 
0.02496299401324588 0.06157445635571387 0.2668906481542977 -0.1496772648946098 0.006453914434179243 
0.2023782621607934 0.07965645330200216 -0.4624256107790866 -0.07649813281096873 0.1853260133108276 
0.2639181333874848 -0.1908389059090749 1.140545237515216 -0.3869616695105872 -0.612831019714926 
-0.2863418080314046 0.05728533896523071 0.3688863908807683 -0.7214572672139831 0.1373364337989585 
0.7814247502814132 -0.1307312168793964 -0.4478598660584908 -0.83939275039091 -0.3356095850675627 
-0.1059006303423877 0.06109090209579451 -1.036843670932154 0.5563339391666172 0.07693723315963565 
-0.3246763035729618 0.3909638465977447 -0.4125818810609286 -0.02772841440911596 0.3134796711577795 
0.9090617018580583 0.2522149492652285 -0.3275543881381192 -0.3500600908842187 -0.5737318600763218 
0.1925259930904695 0.002078131915909838 -0.9970152019712426 -0.7308390307942012 0.80924481705277 
-0.513543519758288 0.2802524196466074 0.06185925457243567 0.1645716269728277 -0.04582579130464003 
0.2207338693200135 1.199876906977813 -0.5176299089054847 0.02127618690564428 -0.7910176708382708 
-0.2495277236103639 -0.3198394079777694 -0.6186631741093612 0.2368125578537776 0.2571443030769744 
0.04515019929843213 -0.9053956859678423 -0.5396031768141432 0.4529570160547545 0.3486127228168706 
0.198721210204483 -0.590321616059411 -0.4720173901215965 -0.2207337735296226 0.5112569418122835 
0.02192676966100696 0.2941767352878391 -0.4967755584131781 -0.4416448818305505 0.1276329149293256 
0.2483274428552302 0.03550614066486668 0.5997756897071007 -0.6132492708552385 -0.3115058698957805 
0.2153674310638208 0.2246028833181825 -0.4052880748306789 0.2449078688537233 -0.2900440251627795 
-0.6851957175975163 -0.3974066718591633 -0.4286836127397398 1.316017045151147 -0.713051494899492 
0.8354032307954307 -0.240948340613317 -0.1792762551838761 -0.3317469391131992 -0.7666019173092878 
0.1554916794020477 0.294687934337489 0.6445158807590358 -1.070179167914655 0.2345917798329724 
1.122587415189179 -0.6065732824813929 0.3549833293936485 -0.495909932956338 -0.3038698460434399 
1.510508846040913 -1.062877260334269 -0.02184382533522531 0.2497644140927821 -0.7782386925035553 
0.7445282123207547 -1.301657040420572 0.2115089659572913 0.5825527011776582 0.3121213448950232 
0.7225199325179762 -0.0258272959641406 -0.1961710500259682 -0.209722034066233 -0.6025064600373949 
0.1001389540757631 -0.1231122494144109 -0.518929812213678 -0.6648498973341581 0.3355655363473285 
0.4315225385781067 0.3687399500600523 -0.1486109643800683 -0.4662506148040746 -0.2573166195804543 
-0.3766316784458845 0.5851571828816722 0.3789322340720926 -0.1773274737070797 -0.4395700475975338 
-0.1080153133597284 -0.8101071027522632 0.4016899274758355 0.01323544021363598 0.4389353371511452 
2.515176548116439 -1.212628222800136 -0.2661002159908208 -1.301333280999701 -0.8491530168491852 
0.5275748417503607 1.115258305625213 0.04973672937866335 -0.3658512850004695 -1.335086485172824 
0.3032505747852197 -0.3662923229923515 -0.4037667463558308 0.4271368981234979 -0.2277551153669614 
0.5340630630781521 0.01662004407769067 -0.189742642388096 0.3682019900849944 0.136652711971485 
0.1000545039111644 -0.1130706858877532 0.2833966514973396 0.04658465727348411 -0.3481968772664328 
0.5842642916006993 -0.6529642634616902 -0.1863717637512349 -0.09713872079522332 0.1228118889935724 
-0.1823653955697681 -1.169759954564721 -0.6003406636649723 1.2938690381622 -0.6860994272125618 
0.6507854397343116 -0.01537529249170654 -0.0379977748413057 -0.5197557030403636 -0.09601311400633147 
-0.2481767335592207 0.1034874975950158 -0.2841886037079302 0.08328381523488618 0.1964658046389713 
-0.6944777983895987 -0.00592763479625525 0.03416305321382669 0.01043803065463687 0.3081718487623941 
-0.1648260277952507 0.5960793656516836 0.6365149659667164 0.0991119520666848 -1.462269824408619 
0.970548945215474 0.3433395463909907 -0.5865755439341026 -0.4676818448446117 -0.1233556614646908 
0.2830419845963279 -0.1028919103584941 -0.1245838498495255 0.1727447712749202 -0.181071538130537 
-0.631697836547887 -0.08401362901110751 1.057397114854363 -0.7136307616839268 -0.2195566555376731 
0.7412327922085911 0.2963898462043271 -0.9105594154568537 -0.5328753581118078 0.1454936942502801 
-0.005920941844563543 0.0652759891205921 0.01361065730634457 0.2027550705144754 -0.3357389502293452 
-0.2799871870772163 0.9249451007641206 -0.4270664651411417 -0.5523776736728244 -0.1545734575660875 
0.3452114297728686 -0.03810324474814168 -0.01388598195713521 -0.06795285504111304 -0.01271564247486147 
-0.2037167799711745 -0.6607472615979213 -0.6196016366037187 0.7227714684080838 0.4906899765676629 
-0.1918271059744893 1.143465521319169 -0.1899369878782129 -0.2218276938187898 -1.330351113338316 
1.059307798212881 0.1301588525187954 0.8655688771474362 -0.1979299231664727 -1.417759404052565 
0.7243890563027785 -0.5412901320975454 -0.6796319987819583 0.188896035221038 -0.1734499180091178 
-0.2219796326253086 -0.1233965787981423 -0.01664943903710677 0.2306616313114068 -0.1815457596500898 
0.7687705727117551 -0.1072791680235332 -0.3119993138006908 -0.3899857193661811 -0.1166190141975959 
0.08356125243730095 -0.01788074148125204 -0.2476484905370936 -0.04196268124809618 -0.02110725467712712 
0.4091499302255209 0.1022443398621704 0.2900808532884033 -1.071256668415972 -0.4697882414787154 
0.3867380031798646 -0.1467488840788141 -0.2449137696795875 -0.02584202662365153 -0.2687755202713357 
0.3044006645861432 -0.1388953277060693 -0.08282972677764 -0.09692471404291003 -0.05715844495116747 
0.9804175228313393 -0.1831403682686603 -0.1086631187955618 -0.3477865239955901 -0.240391939893062 
1.215863840532816 -0.5049731134932065 -0.3816716336941019 -0.7237397268601542 0.1976523309583633 
-0.09142813047912954 -0.2953479269521563 1.22938383014178 -0.5378050506738385 -1.048633364980969 
0.4980684562705742 -0.3216545222194548 -0.05072346216769876 -0.04902812610163357 -0.2123137187098788 
0.09313477253996062 0.7045504139937657 -0.07162898278656907 -1.190024169056387 0.1204563888799675 
0.4000956163864213 -0.2477455980793641 0.5793197347196408 -0.6082280349492735 -0.0145082473258985 
1.171043347130073 -0.5836685983095403 -0.2221363345843882 -0.3440384003807752 -0.2231698132154218 
0.2818325181004246 -0.04765354190783808 -0.08273787236836465 -0.06596102967187759 -0.1594055667107305 
0.1871896985477529 -0.4683300196881544 -0.07165031443709959 -0.7650404002515434 1.079039793194904 
1.283602992948962 -0.3782795613861905 -0.2465906001473865 -0.5732951597078185 -0.6076110064248811 
0.2818325181004246 -0.04765354190783808 -0.08273787236836465 -0.06596102967187759 -0.1594055667107305 
-0.01490271604445791 0.1409923633831318 -0.2339433563012012 -0.111432867662724 0.4072031496651422 
0.6810065582938727 -0.1800531746376978 -0.01680385593924437 -0.3203499349892103 -0.08434314921404247 
-0.2263365995002352 0.08745186900928928 -0.2258005464789103 0.9385075669491177 -0.7666246337248702 
0.08419757021092288 -0.2661757751732984 -0.03015618137826114 0.3606712312866438 -0.1569305661168985 
-0.259501797513713 -0.2050817755844621 -0.4841877481281163 0.1401393680946671 0.3125810600723729 
0.5305968726393475 0.2971632993332793 -0.05707412949219872 -0.484282513841282 -0.1231587742496262 
0.1584520734938969 -0.05989544790932796 1.221247121139567 -0.8332623564047335 -0.7982596760900246 
0.8612306577518664 -0.1169380251621753 -0.2699754218239768 0.05404138485917898 -0.1850347989333945 
0.3213220324971551 -0.2326008234065639 -0.0107442434712416 -0.2075214534917312 -0.01439805408405164 
-0.06813966211233137 0.2472474202175052 0.3092281034794811 0.2284937488097088 -0.6322931674467279 
-0.4829159593396836 0.2479291908079736 -0.2241962336690056 -0.3450858038674219 0.153663933327941 
-0.3216280495335198 0.9662066763157564 -0.4306857927737622 -1.241211268500421 0.6372902801200636 
-0.6662701586607147 -0.2924838239161121 -0.3421511884132666 0.06902996504385706 0.6800355187902482 
0.6527551885564654 -0.1691510997037574 0.09832811540194585 -0.02826773653633661 -0.5303949537396888 
0.6586227733792349 -0.09616176028211913 -0.6889655549724902 0.08587063619506614 -0.172867173350456 
0.4667416925676309 0.3050409528556587 -0.4098623755092429 0.3453259108227152 -0.4872668661279633 
-1.019672662170496 -0.4811054611602156 0.2588695836136015 0.3083525959322041 0.616176633947104 
0.866134829087571 -0.4384969292237467 1.09491277368534 -0.4516953155249203 -1.119564869033019 
-0.1183702785613301 0.7056651164047878 -0.4743159774375552 -0.5181485910609899 0.5101107170768963 
0.7767093914521143 -0.2313061375731592 -0.1339383766047919 -0.01213578483687616 -0.2422962687322004 
0.7767093914521143 -0.2313061375731592 -0.1339383766047919 -0.01213578483687616 -0.2422962687322004 
-0.7499795507215701 0.2292105670956383 -0.3463531909326842 0.1643132351451795 0.7109337697605341 
-0.2600064288407253 -0.06823838516995803 0.3949944042276216 -0.2004437072471684 0.07072076603050149 
-0.6496159320762007 0.2254420115205704 0.06686295689719841 -0.8667316537625924 0.5682024126290099 
1.08356073826952 0.06997725669205042 -0.09972681319335895 -1.116216321741956 -0.2163497179306977 
1.12232197733987 0.08405658092949095 -0.6942394728841723 -0.2021107160663263 -0.6547193135075181 
0.8621509182105738 -0.9644983137685817 1.876157015841518 -1.690535835930956 -1.777588998459621 
-0.2594243098405294 0.1586639747361571 0.4244945776304272 -0.2867459572768829 0.2102884621310533 
-1.422940496375743 -1.150791726739858 -1.263829108937624 2.26711242073657 -0.367853044667401 
1.35004330858902 -0.2585204141435849 -0.234895213530501 -1.182037901304648 0.1655903573592213 
0.4149293028757854 -0.8080633118858088 -0.5189635560067349 0.674834049377124 -0.5388031537006438 
2.720069337588871 -1.307260349288162 -1.064239995720805 -1.458049151134424 -1.807539516707322 
0.0905519471932596 -0.5079915581500291 -0.2532731029366398 -0.19929960927983 1.070771586278126 
0.2299822332215549 -0.02292052809204843 -0.003332369907326109 -0.353900692937082 -0.0165140125065075 
-0.1747337346818133 -0.2990971529284468 -0.7473501281905456 -0.4184027821500125 0.8768845315006542 
0.4231188343716267 0.3133007712696986 0.163641421381619 -0.463639297723013 -0.3142617274992409 
1.18819431667557 -0.5459617274944916 -0.04789907246022144 -0.1296728426647353 -0.5300859062779545 
0.7017696206912166 0.2860796635943681 0.1396380835856587 -0.7175173952152472 -0.7758738712778462 
0.8318736282954424 0.04900165909224816 -0.6632141992873749 -0.3481427786309585 -0.4105090045461936 
0.5530645715223338 -0.008781292321662325 -0.02399232607477976 -0.4814939191693719 -0.01599615468943652 
1.270037866163892 -1.022310186729835 -0.194391198879361 -0.5122682557671134 0.4256172161349454 
1.215993877265813 -0.4590230290420305 -0.3713477529071659 -0.7263610916606444 -0.6468701987941288 
-0.1187043646253759 0.2790057324655391 0.06072989982311668 -0.230344054247086 -0.2898308402684698 
-0.9629987153235637 -2.257197972591034 -1.038542732720056 2.479495867702088 -2.190808416654191 
0.5388598288650963 -0.516537930982663 1.295810618630721 -0.860833266971059 -0.4107810404084098 
-0.1853816521945969 -0.3211619013866846 -0.8766292314275898 -0.3160671007361907 1.246697476099951 
0.593537090209739 -0.1270779557186919 -0.07913328729658513 -0.02237961475026412 -0.1053975030355062 
-0.9917757481601369 -0.2580375651490373 -0.4549830977229826 1.575657023077939 -0.1965751744428947 
0.593537090209739 -0.1270779557186919 -0.07913328729658513 -0.02237961475026412 -0.1053975030355062 
0.4965379948336641 -0.07387794550652579 -0.05986998330978451 -0.1727138365169952 -0.108727400295505 
-0.612157545794031 0.4806434237053543 -0.01513220265376443 0.2835018675896792 0.1020671700463426 
0.3142204191942421 -0.120368688485777 -0.03645088600422814 -0.06388076646774238 -0.03959266014586945 
-0.01551394340258575 -0.3355794352928648 0.6016634973840153 -0.1716568295465766 -0.0549266514774986 
0.8386736921464009 -0.3647867100507911 -0.2132872743249654 0.4497644848955009 -0.7317645470553447 
1.107595914649531 -0.2297599396448986 -0.1929193232098918 -0.8013993103459993 -0.2547812853219663 
0.3626419606794723 -0.2067176018314687 0.5210127306990032 -0.3338428719107792 -0.2891396339874196 
0.6121299443195408 -0.1216958253870231 -0.07779150438495427 -0.3111822413478375 -0.102082232697803 
0.3179128994436208 -0.3355726424674043 0.08192863458647263 -0.1857002489131335 0.008841776375549046 
0.2414993155216179 -0.1958801652327084 0.2489646280960478 -0.3815261849910734 -0.1373757217214308 
0.6688008220300613 -0.4007711316316299 -0.4093132754849478 0.008171037242449809 -0.2890818510298858 
0.2747468200715844 -0.2235131800561859 -0.4481780598408815 0.2555091260848666 -0.2235472582710609 
1.113792349962515 0.1161309565258226 -0.1248543135836813 -0.6231003260314097 -0.5903687123427421 
0.2013913452487413 -0.004633019332378203 0.2978625824819683 0.09528991209478913 -0.5479678162789001 
-0.5623646951357291 0.1611359094374869 -0.006740052579403522 0.5669757713882141 -0.09507666882149696 
-0.3894097455358529 0.1351427369576411 -0.4936764104875294 -0.2526483633480419 0.5195887113298195 
1.046908352422374 -0.04996493343403612 -0.1873856352016286 -0.3837146927170464 -0.8172364051360151 
-0.1808176731071423 -0.07674205952866224 0.1601978143358536 0.1314061285210638 0.04187179876046836 
0.7926028120734763 -0.1008141175299049 -0.05304418344389274 -0.3016000384866869 -0.2170700894096295 
0.2233989001275979 -0.2624406745827514 -0.5330494402481085 0.4007873055779236 -0.2449675763452956 
0.2805238320394331 -0.02065573547553057 -0.1453014690319457 -0.005926837461610485 -0.1436269854515812 
1.185441694234096 -0.9164079193924757 -0.4957624792356492 -0.4958947313501369 0.6494403758256723 
0.490574414750337 0.01769791353864386 -0.4533654607751101 0.1509200236780872 -0.1142772165077175 
0.7926880413599208 -0.2919140383399129 -0.4967811031960212 -0.2892305603328496 -0.0437571384911046 
0.2805238320394331 -0.02065573547553057 -0.1453014690319457 -0.005926837461610485 -0.1436269854515812 
0.785922554124046 -0.6325591809882901 0.3918467520957449 0.8003763889245727 -0.07216358296749902 
-1.338975894248541 -1.497501794308893 2.838057868894915 -2.115979779736556 -0.5368006357852801 
-0.4740241696159341 0.9351787470597548 -0.08382601250972874 -0.5723504778040608 -0.2181800170723619 
0.9039324537554979 -0.5191324486952589 0.8516066864467745 -1.605572242935182 -0.4424791082487732 
0.9965385487276519 -0.6327323810138238 -0.004342081986358963 -0.3161653847788822 -0.5760405662602988 
0.2199691029591848 -0.0740360320041282 -0.06678594986149872 -0.06410809887298674 -0.05007413649410544 
-0.2705945390973906 0.3124905219716673 -0.2059884453684501 -0.2248029049006135 0.1818883732074713 
-0.02951666826286037 0.9674813475383618 -0.7733393035018206 0.2305686233846198 -1.140364224291509 
0.2999183306935019 -0.04540617110689826 -0.4389516087008252 -0.1476273750712833 0.053556975308361 
-0.1887168454716176 0.4325559607301789 0.4640671038214574 -0.07508059247250562 -0.3307648379084917 
-0.009699883823131528 -0.4833309695334273 -0.05215424660821082 0.5222565076740698 -0.2119070113019485 
-0.2063216958439141 0.5351460984747257 0.6525413800336488 -0.63661270679643 -0.5764657349407523 
0.9404074971290211 -0.2537448984268769 -0.3128759316483678 -0.04871965912012784 -0.3981388150624603 
-0.2815184119890182 -1.205677195482618 -0.05159686689908246 0.5691553385134681 0.1022225023476341 
0.05386315733556877 -0.001357781741511228 -0.006808803774564403 -0.1068058104995926 -0.023370496526086 
1.092555046342521 -0.3841421312525321 0.8460834109593446 -0.1201038172636608 -0.9314320938338293 
-0.2063794723524678 -0.2051691271816511 -0.043377982952629 -0.3582516454167348 0.3001699466273713 
1.219221769955151 -0.4746402921204896 -0.1449348668761096 -0.287376898429564 -0.4567756639360411 
1.14210957631966 -0.3513029802476021 -0.2987621383591832 -0.5695675081663567 -0.2653647971005732 
1.769755177108105 -0.4833142056783237 -0.5225610717254698 -0.5046934264360259 -0.4552168704107681 
1.797026777520154 -0.8039070857264276 -0.3826041969152643 -0.1910248865292795 -0.5987529553903792 
0.1637177157494353 -0.0347929741632781 -0.09883029430798539 -0.06522696267081236 -0.1054392500134576 
0.2462155601401384 -1.244828886912724 -0.1503704312072627 0.5385993315676953 -0.3420457745751873 
0.52026096654353 -0.1669413357982515 -0.07243916956826651 0.09446228707656172 -0.1815835601812012 
-1.370805357484399 -0.8864713400283347 -0.6376598154029824 1.793528777753217 -0.9409920333513963 
0.1064447481796583 -0.007689983358031473 -0.006757676484017055 -0.1621343340482596 -0.007511448864014144 
0.1426879932250685 -0.01491582469569194 -0.01479134875572698 -0.1439122772009655 -0.04563280517568101 
0.033147100355537 -0.3609462033464063 -0.6952799323818931 0.5999513806655744 0.1635830731432388 
0.7157774951781599 -0.2665152780604703 -0.06574587949427253 -0.06360330978413525 -0.311240161395386 
-0.03911651174252297 -0.01751760565656597 0.1649277142271748 -0.1509776109288407 0.07932542915924538 
-0.05521400664136891 0.3735595095704701 -0.3343676861358313 0.3693934603124291 0.1515357299467247 
0.2119640011907805 0.1951738826370633 -0.3373667431106285 0.1564779064100468 -0.06582321227010812 
0.5657163705766176 -0.01278577181208238 -0.03235514386079879 -0.4630182149011522 -0.01880620386863351 
1.738134311697713 -1.130915848780107 -0.5641973526499192 -0.4488546202038973 -0.6788450510618642 
0.5776565504197613 0.331472214557365 0.1474438953407624 -0.2624384945482126 -0.5777535377365166 
0.03885594522133677 -0.5296306713235582 -0.02313867194987545 -0.06400186375102276 0.3046327585109391 
0.5981207823475425 1.362196287239485 -0.8350823613998165 0.3232626960723042 -0.4771549072042882 
0.1376138399645517 0.7067955730750094 -0.1712094143297243 -0.3842277847290385 -0.2356242025680642 
-0.7712373775093184 -0.006539676259823502 -1.4113827529028 0.8406959633881785 -0.4074480567473773 
0.3721919036976233 -0.2569898621007718 -0.3312777416571877 0.2219277467236767 -0.3831247852269487 
0.6890349543905214 -0.09410386847963846 -0.06886285615883993 -0.758694649787751 0.1186895741248187 
0.7802851427734289 -0.03260882252631675 -0.04663777008803 -0.6811499133071476 -0.1604718547205644 
0.1223458467140797 -0.8275949302413622 0.08619913134211268 -0.7836705869236631 0.572136618205939 
0.4424934620983292 -0.4659096538812619 0.3541793358071399 0.4043978168290084 -0.5294942892587456 
0.4578869131457201 -0.7787633396341709 -0.5586146354599785 0.6901320241476165 -0.4131700472402512 
-0.1465994397184454 -0.377971502501649 0.4082723049708769 0.3940730810418733 -0.3914084348818437 
-0.3428446978406696 0.389109321392466 -0.1078801275241895 0.241162273462484 -0.1354187657655126 
0.2762724804714729 -0.6967930542507704 0.1395954747520499 0.6716188243456952 -0.4121682076264465 
0.5093865680899975 0.2148612278269763 -0.5982929566699943 -0.4233807690094418 0.4628778395196469 
0.09816546351797481 0.1518985657233809 0.2202954516174778 -0.2303623330409119 -0.2052160042990676 
0.5549254754539694 -0.1391586598540733 -0.4563637924154322 0.1888634223838855 -0.1716993217539386 
0.2701156046431819 -0.1125675626108105 0.4328067385206647 -0.06915509693785941 -0.3873328487469105 
0.2182086357303807 0.3146602990758151 -0.5081809545578087 -0.3391104817657719 0.2021279167160648 
0.5603834450797509 -0.1227195637186297 -0.01544881736977605 -0.3416086227997806 -0.05225417444275768 
0.7271653251424933 0.1618730118375545 -0.875926185382122 -1.118866199905956 0.3655655123043761 
0.5170307601783792 -0.6507895161345671 -0.09469523862803766 -0.0401548833416356 -0.193472162900459 
0.2348337782154494 -0.01434944972952652 -0.02138137739212122 -0.02990576134102205 -0.1195916556129537 
0.2348337782154494 -0.01434944972952652 -0.02138137739212122 -0.02990576134102205 -0.1195916556129537 
0.2348337782154494 -0.01434944972952652 -0.02138137739212122 -0.02990576134102205 -0.1195916556129537 
0.5775597648570592 0.08445320510676398 -0.2169027216382627 -0.7517540404177084 0.3571620906529874 
0.5998605156390041 -0.1062324783812735 -0.03025684610703519 0.06900224716908646 -0.7451902529216351 
-0.8516282447816108 -0.3200474408259588 -0.365650157384039 -1.230095448692528 1.407698546315727 
0.9196392642949452 0.4125598656121114 -0.7086363723647348 -0.5419014093737022 -0.5437087253716106 
2.280332258318813 -0.3382112317775642 -0.5392758781297339 -0.4363864376902037 -0.9569981623922246 
-0.009939055477076006 -0.7837825828981854 -0.08087695169367889 -0.1874100211512003 0.5977105487091731 
1.921510758791791 -0.3077775791754155 -1.583661480705354 -0.9655225410688576 -0.5548301342779731 
-0.04271750884977435 -0.3538854334335278 -0.515663170355708 0.7879377820467259 0.1248703551138274 
0.1458209196482503 -0.5478733461174481 -0.1307751540048174 0.1311863206450321 0.2985634732887989 
-0.06762164194557273 -0.8945827937275919 -0.8601471665042146 1.160449237415744 -0.5022508059615498 
-0.5094476379024088 -0.5293591929576386 2.447926026692026 -1.326832524555528 -1.79525023221807 
0.2628024602595946 -0.8318437718904644 0.7259983219279021 -0.5189652015800947 0.1762267874156716 
0.7581376492483056 -0.01879231275662074 -0.3520132128420798 -0.17470183365466 -0.03546134046101819 
0.05699373532320766 0.1920976072733583 0.634217102167704 -0.5056663802478619 -0.4687509111599058 
0.6871704814786262 -0.4845718619455944 -0.5582866042719122 0.1066931952008623 0.1543952555022842 
-0.3615276686188666 0.7484640470858581 -0.02983077632740188 -0.3014799075276744 -0.71820096694368 
0.6887203812098772 -0.3134746478677897 -0.0664633352101501 -0.6816772022517331 0.328604170083635 
0.1228554651143709 -0.964611278957331 -0.6797737421327937 0.7373146546568045 0.1235346981042697 
0.5832813918006233 -0.3179181186960073 -0.2120123314156725 0.2761195141722151 -0.3786870082959286 
1.643906043930991 -1.621841720975425 1.090310942883353 -2.465969534090478 -1.248005858857127 
0.5068276896829547 -0.3332086593833664 -0.01479318263764463 -0.2406983940753246 0.3896097746568561 
0.0002606565243694868 -0.6527509680869539 1.440495033676607 -0.6098133075325123 -0.8435153090968985 
0.2437632560099532 -0.9678042849637758 0.2244134867757748 -0.3742118421701836 0.3967945084173011 
-0.06228936301994935 0.337136950385712 -0.02094335682955736 -0.4475546329097765 -0.1542580109009399 
0.2396731747699713 0.1987051131035696 -0.2134213360639547 -0.204162895837378 -0.6846812570643233 
1.343315761641191 -0.08478595334545479 -0.3301181771659972 -0.9872382433068684 -0.543679766042811 
-0.6061660086761809 0.596045785989565 0.1551199276679682 0.200131992897134 -0.06759398642658375 
0.08982248903459805 -0.1470791117893563 -0.01760172945341096 -0.04980103818710933 -0.01641850340825071 
0.2751963102298697 -0.04587477281874455 -0.02788630392305045 -0.01710328163081899 -0.1351054902238918 
0.02499278791300159 0.6311926334634375 -0.6186529825034968 0.004342704730782737 -0.1375175015693011 
0.5813143676821083 -0.01748737456305997 0.1146570495423014 -0.5500148603550706 -0.1845068511772037 
0.2751963102298697 -0.04587477281874455 -0.02788630392305045 -0.01710328163081899 -0.1351054902238918 
0.2751963102298697 -0.04587477281874455 -0.02788630392305045 -0.01710328163081899 -0.1351054902238918 
0.4135671838940651 -0.5526199841878344 -0.2681355229351612 0.3414547541002929 0.01081468990948688 
0.1636046580279683 -0.7494348721334346 -0.1462203620479003 -0.08110515776334491 0.607846833837986 
0.2751963102298697 -0.04587477281874455 -0.02788630392305045 -0.01710328163081899 -0.1351054902238918 
0.2751963102298697 -0.04587477281874455 -0.02788630392305045 -0.01710328163081899 -0.1351054902238918 
0.1266869228761306 -0.235343957889785 -0.753206077368724 0.2048796332860194 0.1132229311781038 
0.7175550840049879 0.0564937490030238 0.4099314085147458 -0.6529638007263241 -0.7937858381890962 
0.8152749858805846 0.3032349027146163 -1.007869259052408 -0.6566923611345452 -0.5408523595226498 
0.684997756825982 -0.3335126661969754 -0.3308501596376778 -0.05099792449314747 -0.2540263692077931 
0.3859496806661599 -0.09509499504180909 -0.4409672042510223 0.2892690222980626 0.1442873446613678 
0.3035714505165466 0.3222514726258673 0.2001208029761709 -1.410652261922205 0.2466306517194563 
0.2565530400530201 -0.1634409106050681 -0.08558200499559303 -0.02311414938409702 -0.07544440801129638 
1.231127326259742 0.1477244736399626 0.3978953375575004 -0.825110473202693 -1.425990623583082 
0.05564556954300656 0.669199292641047 -0.2133160474237334 -0.1949835076930491 -0.2540282209460728 
-0.02533464942959696 -0.6792409986808742 -0.7400002042879558 -0.2117152914086327 1.191777046132014 
1.061219954284773 -0.1058217668284878 -0.07575404930729771 -0.9423716658527749 0.1690116957436556 
-0.2697540514367883 -0.4157317265585815 -0.4672701130441888 1.202782366077645 -0.81555835499753 
0.7247133047605846 -0.02067289997852987 -0.1174793564426655 -0.2335555695209725 -0.368180499088176 
0.3993896227707993 -0.03763315808891728 -0.3071286952557208 -0.03740453226523335 -0.01739868765326158 
-0.2109368614322719 0.391282014270901 -0.05289088549050738 -0.2331580686467119 0.1868831651792475 
0.3993896227707993 -0.03763315808891728 -0.3071286952557208 -0.03740453226523335 -0.01739868765326158 
0.19172377039061 -0.2036789976400824 -0.3449970551748935 -0.1195397993650087 0.36406250678617 
0.4805963483855488 -0.06529027850068182 -0.05179286384211922 -0.2564720894772006 -0.1820507696995665 
-0.2286045104164874 -0.6809069180649852 -0.3685506940488175 1.703030397015844 -1.283687113717331 
-0.1640115205700662 0.5791642560070565 0.586399803833823 -0.4208915624661788 0.0693449913446319 
-0.528354074709281 0.0139916351320731 0.1780328402499513 0.4876590277257427 0.1219673270359292 
-0.1553505694734666 -0.07171912470405953 0.3766689318121663 -0.05819343400620837 -0.3689011894600339 
0.1749592341584979 -0.2584285905514511 -0.1151773493448428 0.6248421825652012 -0.252438508734885 
0.2858579226066801 -0.1140107626326506 -0.07877284766942957 -0.003586116153257756 -0.09714444828592411 
0.1500463292594896 0.1582195318110958 -0.7910318171193966 -0.01730327528725244 0.4269431567836495 
0.5707965192756858 -0.143179188289336 0.07906414503014161 -0.1035901932297763 -0.112361658369573 
0.4711074486713814 -0.1465731596214574 -0.1074902997474443 -0.005058970168247599 -0.1833695505628758 
-0.6056406004206171 0.2893390918377522 0.9996491176257745 -0.07021157912860496 -0.4123446306628714 
0.1154335718634021 -0.2427947750944736 0.6062638104144502 -0.1092222874436624 -0.06668052096802693 
0.6494297306838526 -0.4024111226132794 -0.2364357759784796 -0.006489051949740439 -0.1971624656235327 
-0.4983764409591593 0.1634524272407085 0.0909592490897746 0.4296337347183441 -0.1722732961851404 
0.7791054511243034 -0.6456574479294573 0.5475060952728021 -1.00051495969472 -0.02350213594166509 
-0.06172967134747577 0.1283190082672118 0.1575298555520973 -0.2422384824031579 -0.1153605753872944 
0.2901547452137044 0.2230962631349326 0.05173950569223461 -0.4249969588144347 -0.0541388706083191 
-0.2694724665430774 -0.6644795459966319 -0.06116649262362268 0.09690499111161996 0.6599936262852513 
0.4881983066791092 0.05699204287526197 0.2088906806969334 -0.5846492004821384 0.2495388549416798 
-0.4308412575371555 -0.2522301113782158 -0.3017879277973144 -0.4528160287644507 0.9283393972289486 
-0.1346032332983685 0.4075933201518569 0.504207151737571 -1.404090275287035 0.5535606826568987 
1.026967618184693 0.4911600473258081 -0.3143586675371521 -1.218644984002066 -1.181373131185759 
0.1795853679414267 -0.0521535245652259 0.2858651182579094 0.2831348817836309 -0.8529052702806548 
0.756577438362839 0.1499216719378839 0.0895341248383433 0.1746215307371116 -1.190694393307732 
-0.7909779545004674 -0.05273569056326708 0.09798309595234939 -0.3808181064280072 1.08900704771452 
-0.08676415167509367 0.5616696139180747 0.6882389068205295 -1.196288948929089 0.1252284535693826 
-0.2612713276383449 0.5512414456994772 -0.2222947399063115 -0.0873164309975516 -0.03004204709864312 
1.288375557552204 -0.9071770825482773 -0.7383646506306322 0.04320814870598562 -0.6880854445931999 
0.02091591417145473 -0.002404801623595218 -0.003960282611429286 -0.03083507070439367 -0.006124467375231315 
0.6915148179126095 0.1078791730469391 0.07991014719384626 -0.7299050207173029 -0.2271910364839652 
1.61411361253923 -0.03430339741760961 0.1001205519422145 -1.181018292383043 -0.9980928774718034 
0.6879072198642474 -1.256132393104323 -0.4549960467480366 0.1854885685195167 0.5281211052836711 
0.4471632025397888 -0.02425897855878822 -0.03889593900352104 -0.2845166815279902 -0.2330294684069955 
-0.08366885237535605 0.351147270600433 -0.2358690020315616 0.330266842081422 -0.5885450977877287 
1.068526774037074 0.03145467224580312 -0.04622733701481899 -0.3426464902439984 -1.190536065541694 
0.8492487993133498 -0.6360792185617229 -0.03601608386045189 -0.9678248437231184 0.3038664788963467 
-0.1397639350094153 -0.223018543692345 0.5715222115397819 0.3207148494757145 -0.2182990511572498 
-0.2572419301940581 -0.5298536698149594 -0.1201598022679601 0.5064709629888143 0.5181510004895191 
-0.448145349388624 1.618314791775987 0.1466897436522236 -0.279019972297279 -1.429106437145058 
0.3268115774194411 -0.02873495890968166 -0.400553278088398 0.6484666294375112 -0.1554656237674907 
0.6450278848400812 -0.1685547555246928 -0.0631459129238999 -0.04076889282598335 -0.1258939560271892 
0.4219262235246769 -0.43355057480169 0.6992093199816315 -0.3027843986819713 -0.1893136081314347 
0.1835633754092136 -0.6572375382770939 -0.3848324608853865 0.656189750238623 -0.3192763230435082 
-0.2228733746014092 0.4042545189205507 -0.4317795761488981 0.0623740060892656 -0.3164841980345698 
-0.7430982025167208 0.2440852398245827 -0.1210681951272931 -0.332847791518054 0.6273449430804602 
0.7953727735293804 -0.002831432008895231 -0.3016800568044284 -4.322125137707114e-05 -0.04780704813958919 
0.5662062330277898 -0.3360004301651176 0.7895203182665698 -0.2366225016417881 -0.2476490780738745 
-0.1721267076881423 1.461076629932297 -0.8138457869801167 -0.5080619262228823 -0.3406742917262138 
0.677087241760724 -0.0901288963666461 -0.06773020654001423 -0.6265712406199062 -0.12615454477305 
-0.5999792864803011 0.0001352170835887401 -0.417482399660514 0.4849404079050118 0.3944976812356248 
0.9051421006600038 -0.03511540481024046 -0.02232579914570726 -0.9780699092422738 -0.03247735582594617 
0.1085294283937492 -0.1207575562065972 -0.07106683647103 -0.08061588675906578 0.2447873622505988 
0.6197696556474631 -0.05148724740607018 -0.07353525326800077 -0.3205496644468178 -0.1501800041359198 
1.034199662644019 -0.3110402518497029 0.7830884357023975 -0.2263642859959694 -1.022680443288364 
0.2365987501947453 0.1636764913619195 -0.2790220521369791 0.04413964218798481 -0.09864098396616684 
-0.5316444650347399 0.7314550292886065 -1.215560936347081 0.04962161980300643 -0.2526112764886559 
0.1017034150231392 0.1890536187565973 -0.04263778938750568 -0.4888719518303989 0.1529326411599192 
1.071411752697026 -1.422110205238515 0.09457292077742259 -0.3341211849263547 0.8082609803958402 
0.04589083316770617 0.4946587904609742 -0.5292651708367815 0.01511367471450159 0.106819318914566 
0.3847463930857312 -0.07547896663486839 -0.009012307971744403 -0.4611426413207066 -0.01622254147620472 
1.461615147003341 -0.6245683845194442 -0.5678675633530668 -0.0450392925247484 -0.6554110600837855 
0.02040062033481347 0.1954381823275987 -0.2371265873804507 0.1085344198046963 -0.1539392706112405 
0.8059626806927317 -0.1661173102602124 -0.07981392889723297 -0.3015950948408621 -0.1007485658944954 
0.03342934659578452 0.1481114723137535 -0.05503760398634872 0.2236374158070623 -0.2260255145985015 
-0.6744174040131328 -0.5119322498181805 0.1724408128362217 -0.1393407298164305 0.9556589912335424 
0.3113256700932184 -0.8750746977828285 0.3215195739038594 -1.04935889055476 1.049368009524021 
-0.2112287197357013 -1.277936434245849 1.267542342403972 -0.8107464224449892 0.08405250305524826 
1.470125333365822 0.07843248326241861 -0.5589826481719196 -0.907771456913178 -0.3971196440202751 
0.04892100499920188 0.5180668067081804 0.1411171826375554 -0.1492159833534297 -0.3384144221193026 
0.6422327706245109 -0.5007775510907414 -0.3131683083949145 0.7678520811933753 -0.0157867122149261 
0.4774418440970256 -0.8430565772770178 -0.1569574904740301 -0.6965932885960282 1.065228032243859 
-0.2710548282128831 0.6173471492751356 -0.09712377907788305 -0.7537507670469089 0.2449963693833625 
0.1831676643422707 -0.103964610663633 -0.1141728392994895 -0.04341342138702935 -0.1312568717254511 
-0.1668154030607695 -0.2715461403389038 -0.3597209577355299 -0.3448475769745575 0.7466366999090812 
0.2502917239992595 -0.0674687360027806 -0.2558518678769349 0.3557589030943491 -0.3464347185964694 
0.2536490236780349 -0.04861039498475629 -0.01584587361051585 -0.04083804932934834 -0.2686437704930129 
0.2793861211583205 0.4200004013450573 0.3957589445459223 -0.900833120462454 -0.2874457049934907 
-0.05989444238977909 -0.0768650305814586 0.1704978824797314 -0.7073338779374058 0.07030739147883541 
0.5980295345230087 -0.0199477922121549 -0.386188296886786 -0.09713887046934259 -0.1302289270727009 
0.4909720236309922 0.32324865902648 -0.1300988541861615 -0.4676728865813616 -0.1947107983177382 
-0.1080736725939072 -0.1625241935784 0.2069904460346276 -0.2237696653575862 0.2317376942246257 
1.42886248469015 -0.7661791584471044 0.4202989249142709 -0.6754531881785613 -0.5094661597672915 
-0.7660818022811411 0.6435206476524191 -0.3298129488958149 -0.9133321011014754 0.9050990109566232 
1.978730769419497 -0.5914443948099259 0.3794918128326152 -1.187629631138869 -0.9372607030177287 
-0.288748690598096 0.1786699788308448 0.02014689192679563 0.00693645236185287 -0.09728025386801256 
0.6687029263698807 -0.1830496930866514 -0.01565532519781724 -0.2996213865209392 -0.09884789613791349 
1.017819229193035 -0.2162507008996459 -0.03713968869189097 -0.427463186732852 -0.1433678322183598 
0.3314988921790749 -0.3258592655254582 0.3769919498353784 -0.110392190974595 -0.1332107219137574 
0.1436821017024136 0.2139459789702123 -1.057035393465168 -0.285687652688328 0.1585901504033043 
0.003750487633222579 0.6890889235051574 -0.4951763668087681 0.4859385458934224 -0.8226623435180571 
-0.3836847027630309 -0.4768233724187662 -0.2114563570899384 0.915849588731644 -0.04961386612762402 
0.318370684845079 -0.04569809949651155 -0.1853294731825457 -0.0357533692615279 -0.0537118231633054 
-0.3318880158797176 -0.09575456525515114 0.264495378020919 -0.3516354321443542 0.2279925172747729 
-0.01798074155683519 -0.06747129702023058 0.12777396748971 -0.07238510303006282 0.2837305996750613 
0.0712928235518325 0.8026991760692997 -0.6476496938537355 -0.0641190184742247 -0.7547759997375066 
-0.5682151383128251 0.7427220043293613 -0.4581546479237594 -0.577143825145617 0.4221266566672783 
0.016407716258786 -0.1265556476512661 -0.3461903749711206 -0.3192447638999744 0.3217368115271867 
0.7723556844987167 0.4741757365182522 -0.875867741661749 -1.398413460425686 -0.2854025304658967 
0.4285465423977766 -0.00118428159192021 -0.07306275520335889 -0.9234034291485904 0.3045552288537746 
1.757212050686927 -0.7509891318258071 -0.2024448385437079 -0.553079145597047 -0.8857541057024217 
-0.2090228935883362 1.239963847200987 0.09490453740730451 -1.13035676766487 -0.9622189934385794 
-0.2721767580519283 -0.2101349846548052 -0.1212332435288036 0.7526381597780489 -0.1054632031387744 
-0.1770739000538564 -0.3964737777193518 1.246351346846612 -0.1022776974894031 -0.7363735347588779 
0.5519187236752814 -0.2798074822925282 0.4780897125496602 -0.403965141945569 -0.4015306345395221 
0.4229821839246718 0.1362369149231486 -0.404591685927681 -0.01534472112296783 -0.5145532922744042 
0.2821969819629299 -0.6364400664050407 -0.07331386123591643 -0.01024912200061356 -0.07388050728750524 
0.5065761026386323 -0.639008223734071 -0.3046905843039868 -0.05750361974237712 -0.08606501245839297 
0.06611477575351196 -0.0942321627744902 -1.303336185633673 0.7216071728726239 -0.07150006516096888 
-0.07267761039601695 -0.1622828688850908 -0.5188326782217119 0.08125120930416226 0.1525065616350874 
0.4305786741331994 0.707954546946309 -0.6963879441262758 -0.3661358176925741 -0.6176147840250562 
-0.2390384166322263 0.2065147878730127 0.7564144181469332 -1.059464266842237 -0.06912903025808799 
0.6982637269888322 -0.1144814015457255 -0.1294000694194347 -0.4134105223990596 -0.1591713434267197 
-0.1831828568097708 0.1443461243503482 -0.1007099231531243 -0.04731295426754943 0.1377983224751978 
0.45691141083481 0.580765197516028 0.3373836748513255 -0.616570350464278 -0.5706886707471579 
0.2398499479708388 -0.04191758888463541 -0.02919028013620593 -0.04789766696869687 -0.08725845616624926 
-0.5864856292492902 -0.5237060571234382 2.441536558458712 -0.4889484034136966 -1.617009393514623 
1.096051855204275 0.357012515306283 -1.01136995754995 0.4239088768297774 -0.9624958269972144 
-0.4051073299319057 0.6187282884947326 0.3966161014180376 0.05950968095251149 -0.5599197333020046 
0.2833863712936433 -0.2773824986024196 -0.1002812141896296 -0.04721663486540593 -0.195734137570071 
0.620742821426817 0.3288478922133195 -0.3397950521113484 -0.2721360014323256 -0.2631448365838074 
-0.1739388896724994 -0.04829987111832321 0.2854968479260616 -0.3937378850477223 0.4198248397503553 
0.7872689858453138 -0.05532412180996205 -0.01845247604262925 -0.4237033507976171 -0.1112657106435101 
0.3844822800265699 0.2447638912985581 0.0208028500891696 -0.4551910059841719 -0.1361031782955389 
0.3290475876471181 0.4154224844293244 0.928058686694592 -0.81222667624922 -1.014372255953319 
0.2097496900032735 -0.4056333642933638 -0.002722497974520693 -0.0002336994681019284 -0.0009868769320767125 
-0.9904528599879371 1.757400942579456 -1.146568481057665 -0.4660944599234335 -1.28978211814647 
0.944729725087767 0.2363070140576799 -0.5846152980114642 0.1431598100377425 -0.5732301890714689 
-0.1133084088112818 -0.3223349044660589 0.5005332539426902 -0.4735759613695321 0.3518261532876593 
0.3993193959015108 -0.04490428362657458 -0.02858286181721502 -0.2545752472639984 -0.1879589194844382 
-0.04219675871910886 -0.363418886660291 -1.058453524077299 0.7167365984620298 -0.06400143836358786 
0.3993193959015108 -0.04490428362657458 -0.02858286181721502 -0.2545752472639984 -0.1879589194844382 
0.3321587638131226 0.08776742500161484 -0.07676974052697108 -0.06220854817707467 -0.2266669362806358 
0.9805314465397363 -0.2414990178736207 -0.4900252593206814 -0.1097886384689424 -0.207371822417927 
-0.5305345278985905 -0.2608512441839673 0.5286038567786747 -0.1219512693647945 0.2637815468870027 
0.4979822608083195 -0.6327260370357138 1.28538978274307 -1.149698730940897 -0.6826818247226352 
0.4753578025060751 -0.2947839935274231 -0.2747007751152452 -0.1191609924480846 0.3316490671722154 
0.4269150793542085 -0.08817298400389939 -0.4588059439609562 -0.08819678233770784 -0.09452442647853851 
0.06845472315015785 -0.1481848205212302 -0.2170399937198031 -0.3062165849771606 -0.2359368373786932 
-0.419519445778217 -0.6174559807151957 -0.1139640991601929 0.06504795672864541 0.5196794132426698 
-0.2473557834770712 0.2895294390097427 -0.1035661170750282 -0.06049244766229127 0.1037322612154405 
0.2789805019569526 -0.1404761694722856 0.03022811821960996 -0.224238971973926 0.2208207038455572 
0.4428507655439922 0.5487057284752127 -0.3399876411969709 -0.3947554610923165 -0.4194703818869048 
1.363592742922773 -0.2511287660415865 -0.320525538795249 -0.837308949049321 -0.5533046804253527 
0.1567537866532781 -0.2889616164504011 -0.01906642191029189 -0.1566948228067792 -0.02573901575164476 
-0.3149464535829445 0.04576888246961426 0.4719608586551595 -0.2219308214438576 -0.1722551286366635 
0.4219218908365336 -0.03163121418491706 -0.02276126936348933 -0.1504221509971838 -0.0762509127278502 
0.4219218908365336 -0.03163121418491706 -0.02276126936348933 -0.1504221509971838 -0.0762509127278502 
0.4219218908365336 -0.03163121418491706 -0.02276126936348933 -0.1504221509971838 -0.0762509127278502 
1.375235347465215 -0.9407427309778557 0.9414239103537322 -1.837302947883185 0.05785315219742949 
0.6449432202107058 -0.104588441631632 -0.1498408815104275 -0.2168735525132667 -0.2115748457971685 
-0.5212245143573966 -0.05367909248647294 -0.2021011244640663 -0.4193844905133009 0.7793934328771919 
1.068244679231395 0.2939194062286263 -0.3366724923390258 -0.7105067742380375 -0.5990273836615596 
0.3078814398692658 0.1077438409386976 -0.1133566940091421 0.4644113789079964 -1.265930592524048 
0.692197695452213 -0.1498488358144693 -0.06838992079611998 -0.5920348520816154 -0.09829188470912398 
0.6632153963072559 -0.5204236647288965 0.4110903925627993 0.1278182202045896 -0.914225330766559 
0.8382166370751909 -0.7662528425056548 -0.7943164839069687 0.1037699258946534 -0.6252585029525292 
0.374023245520002 -0.007261949492826124 -0.008021505343133678 -0.83290617331023 -0.01737024715242467 
0.290861759553305 -0.004784339821492052 -0.007261631076406151 -0.3995579831744009 -0.01575082609264876 
0.1945763289878048 0.2218517089235211 -0.5779088588120818 -0.5144924735338046 0.3968364970479925 
0.5852746317535776 -0.03384029508906598 -0.01509071684417191 -0.5305333196625354 -0.09322431248149411 
0.02585894945519636 0.4209297152418692 -0.8084034308891261 0.1572946689384448 -0.4080658241945645 
0.3984308589322562 0.09966898872734374 0.09804807396285947 -0.6229647283677286 0.3662983845111114 
1.221956867066522 0.02278567144129068 0.02479455414715439 -1.093841820887123 -1.26507574793294 
-0.4585132958432885 0.3963669130519243 0.6817442957790815 -0.6900429257450552 -0.06919013435982724 
0.4972030655335288 -1.025711348202598 0.576284887761022 -0.1520485015984241 -0.5608280449990549 
0.4626380739151141 0.3202344018651856 0.5918835449874363 -0.9243025012446291 -1.047322846003257 
-0.1835281178638217 -0.7975841854447085 -0.7934350377872448 -0.7403567367408325 1.303351033884769 
-0.2195847664416093 0.1312302148880764 0.6149698534292949 -0.557909328911113 -0.3041834773001046 
0.247135730352524 0.127533151988979 0.07971544102642648 0.6973960114013835 -1.120086132311986 
0.1215355148542281 0.1755822725693124 -0.2195964825606156 -0.7481807750350991 0.1071483394940091 
0.08198138551041104 -0.1066368380914845 0.6059648506890298 -0.05189743181692839 -0.3149141745087113 
1.100681014764858 0.07105544935870624 -0.02578929415333672 -1.691372737310741 -0.2382019983150684 
0.412397888078743 -0.03420715678590094 -0.02051364010223741 -0.1846611596643796 -0.07340534001952308 
0.2152731002851785 0.2284022472143689 -0.2285108842682473 -0.5207126782107757 -0.07626176878870122 
0.9187982750983608 -0.04680201194725671 -0.2136531150116771 -0.2878274447978582 -0.07293221245398611 
1.303144195833723 -0.8795419246164327 -0.5981934921601187 -0.1282205861091922 -1.007045990399188 
-0.5678050819781503 0.4164037943514213 -0.3134758963792444 0.4800163140732985 -0.1558001518759218 
0.9750343880824571 -0.2739724034662987 -0.3910519915109726 0.1930819160486676 -0.6439177172775097 
1.923142077706938 0.02367798174657939 -0.8521199596498144 -1.56007791876471 -1.076264648317285 
2.168334118601267 -1.550719881314499 -0.9515007696678224 -0.8884568538557152 0.1919033233191667 
-0.04363075273492932 0.7774879085449934 -0.3312210174471291 -0.9540398446472048 0.2282092954534296 
0.2743356993000578 -0.3036610876389357 -0.1059284840871993 -0.07305740709750812 0.2732909346788583 
0.3949674952253072 -0.08633814713770988 -0.003576329041344248 -0.01923454285539655 -0.2010560719432145 
-0.4460407659516977 -0.8766687885278629 0.1701438906132779 0.5344751182191487 -0.09855063861966862 
0.3949674952253072 -0.08633814713770988 -0.003576329041344248 -0.01923454285539655 -0.2010560719432145 
0.1311262363468529 -0.1018011726773208 -0.0165736142661798 -0.1575994092750492 0.2119387633796674 
0.4699292045731602 0.2676458441638729 -0.4297093780921785 0.02610335424119853 -0.7245911001111152 
0.07596656698744568 -0.6110112192630555 0.2439752584447472 0.8949737290587179 -0.7014823832088739 
-0.127288604348787 -0.8109567515715962 -0.103465753929237 0.6456700603790723 0.2912494515556446 
0.6731436533380697 -0.2497479559840263 -0.4170860871041325 0.1902932345647803 -0.2562699329602708 
0.4903452968471901 -0.5178643423630005 -0.6467190598098828 0.1563816756265055 0.283706741807372 
0.5031837623940114 0.6022561786969127 -0.4576139777768011 -0.3516252766471065 -0.8219050424257094 
-0.04486269668233789 0.3415848377257628 -0.06340622705270067 -0.3336759398374556 -0.1724063552289288 
0.6772224615027402 -0.5077186534589134 -0.5253990258202669 -0.4207589253975292 -0.05981262017751639 
0.5930342305206898 -0.5217374633699705 -0.4977315993597569 0.7414453064770974 0.08965212440260878 
-0.1791533609636755 0.03021080262973998 -0.2534277088767316 0.2115471411330199 0.1545983837068065 
-0.3025505422138589 -0.8013910603439151 0.04530530166710531 1.151362968609859 -1.275965739653372 
0.8348256150987374 -0.09731974824598313 -0.9202629770918349 -0.3106278793280217 0.08574642165490547 
0.4779178148034415 -0.1350952762003837 -0.06593869195250406 -0.1417261682513564 -0.1454512664325502 
0.4682994992662113 -0.1033349920073933 -0.1826919334337233 -0.1260620440998292 -0.1216627806197482 
0.5799505178119523 -0.05199059744021339 -0.02639971112525766 -0.04652998011449472 -0.3676020200421195 
-0.4191125099416372 -0.566333606760859 -0.2078563255740483 0.5089112031074302 -0.2221614188428352 
-0.1971843338313086 0.1358322234006201 0.03218902435025521 -0.371338421370254 0.3819417790310956 
-0.03389603874079404 -0.0505085593384914 0.3940792995184813 -0.1830672579869679 -0.2435657159850552 
0.3731185374115798 -0.1140047694299725 0.3003118514134958 -0.08906353296448274 -0.4593269365817145 
-0.5366233310689903 -0.7607313970082529 -0.7663551254835282 -0.3715275158139387 1.198186643629909 
0.5799505178119523 -0.05199059744021339 -0.02639971112525766 -0.04652998011449472 -0.3676020200421195 
-0.01572559169528523 0.6047407798846818 -0.3771084809645902 -0.1544567686898673 -0.2685319951837662 
0.03283111060089589 -0.1291718149597139 -0.03749966081284925 0.2554898804950457 -0.2283502529602194 
-0.09497547970915482 0.1129575987344297 0.2188192163599398 -0.247978564534787 -0.003774163929885719 
0.4812162285401871 -0.2564459879892821 0.4804696311246048 -0.31858888802382 -0.3090730748136393 
2.511068098729448 -1.236719607846649 -0.4882438033033129 -0.756683582172553 -1.52050116155065 
0.0179530854965299 -0.01241789525577205 -0.1683659385496784 0.443543484067169 -0.2881886692475797 
0.210125568297429 0.03567697583987245 0.07101367042950435 -0.5181695444438128 0.3649271362659161 
-0.967915797918307 -1.722741957799437 -1.012488642983622 2.028160886172673 -0.3625244818738468 
0.794662534717967 -0.09110874339372275 -0.4113316110492409 -0.5637620189713642 -0.008218945545810652 
-0.7483104042734069 -1.058125450813037 -0.06988260201006835 -0.02238761777895888 0.9101209263245004 
0.2573833522546668 -0.6076626538228473 0.9244440890724985 -0.663103662419846 0.2242269267131966 
-1.167338397044222 -0.890333128672669 0.3890748864181158 0.3073121010040314 0.6478443738817919 
-0.2020682200636153 0.07170898442132989 0.2059781376374663 -0.136021451270013 -0.01111522300584765 
0.8948392942407188 -0.2835666554745455 -0.08636855875212875 0.6657483229523907 -0.966981573785035 
-0.3285371871188724 -0.4258271497997343 0.07311042142601412 -0.1216002838874137 0.1918608421837985 
-0.05236688304976815 0.2674394054104826 -0.008032277084620034 0.2355242733994293 -0.2072876101638329 
0.423564492344032 0.4915264517697961 -0.1204532502207452 -0.2357119288808306 -0.5800270565362314 
0.3523954847680646 0.1881846024130656 -0.7992588853077199 -0.272258357746675 0.1403003922738437 
1.073737611363879 -0.8468918436165073 -1.111099885659036 0.1789903977206496 -0.4477156994421107 
-0.4460110918744119 1.144003035150814 0.001843189154512041 -1.069778748163394 -0.4413101073514571 
0.7987527697640774 0.09664568296867401 0.04927301276682172 -0.43816973697824 -0.5538938886544922 
-0.02321071936315353 0.3618298654482163 -0.0222520961920284 -0.4557957982314422 -0.07101968540735298 
1.19335369883379 -0.4957457206560221 -0.2619338803359687 -0.6591408422809963 -0.07878596477156638 
-0.06781676322386163 -0.7142542587679932 0.1565801004966222 0.5540601749299593 -0.5917916651703823 
0.6802248997716381 -0.5177588029847493 0.2075475732805839 -0.2504389906436656 0.09008558061154663 
-0.5417320884240147 0.6409633705105402 0.1463390845826438 -0.9419625875164576 -0.08649097360692122 
0.161857349017539 0.3491469258477065 -0.05550232440974782 -0.4189584160262576 -0.1507584187462079 
-0.2520036514176782 -0.05538518907347458 -0.7123133882658712 -1.030191353918958 0.8190771483772681 
0.1357712751882622 0.3794129114476049 0.192530350410687 -0.3686639587595749 -0.5549632419202867 
-0.3097234329690333 0.6651565306777284 -0.2264250367867455 0.5269067978303101 -0.3786504644311466 
0.6509922607402995 -0.9379640910250117 0.3925717526851311 -0.6294425896448764 0.0752466377967437 
0.02662157890913654 -0.01330716189815672 -0.01221910297081039 -0.03189882836625962 -0.06430191211716607 
0.8350451897715627 -0.9551282645145593 -0.6415596852483453 0.6401350888971241 -0.5428975745253225 
0.1030731044809585 0.04839844354743832 0.04721994989184246 0.08633516804948468 -0.3335799743277637 
-0.2956803071718684 -0.4468289454964508 0.3680732654158449 0.3385113319649343 0.4793394790205621 
0.564867570271858 -0.5876726851386476 -0.5059630114514436 -0.2783949749679462 0.5550655943044229 
0.03175364442233381 0.5271364535469689 -0.3130854480320349 0.3022315750786868 -0.2952802411281186 
0.2890872770206676 -0.4168858366945367 0.05798875153128885 0.07072376140251173 0.2578336454977889 
0.4973942015340694 -0.06635019246645855 -0.1252830305837959 -0.1084686180021595 -0.214482533484129 
1.052466730040484 -0.2998189558909121 -0.4835359413185323 -0.5888225630233995 -0.2368780454830211 
0.1130765490339271 0.02779995888528577 0.3837588920848877 -0.9809901364332744 0.02938503348964214 
0.03883994832996264 -0.07115219973635498 -0.4527969543472378 0.06728616973576103 0.2345039304704129 
-0.3898154716084672 -0.2593808982488537 -0.7357857708925857 1.418279177878528 -0.9495685086224087 
0.1751252512465864 0.05524705875901346 -0.9426012312315338 0.0506480631595481 0.04061142606968463 
0.4169866049059743 -1.766863316674145 0.41567467374676 0.6963171323137358 0.215658663825978 
0.3078708524969445 0.2005624042457168 -0.4055353413441913 0.09718089520161496 -0.2184239720690206 
1.394420445371511 -0.9223459233820842 -0.5419284958568151 0.2340803784457391 -0.5090032157857296 
-0.4683375111809381 1.747520742509775 -0.7050177914198981 -1.413416777848097 -0.9953263519799643 
-0.004883720499860879 -0.4223954304566245 -0.6663533228638676 1.196111961847553 -1.223154587898024 
0.1161764824984827 -0.2039154886406912 0.7259380556502034 -1.00619686613564 0.2974436101552941 
0.3631587134585521 -0.171701123575405 0.2241303275832591 -0.6225426354948411 0.304834966997916 
-0.2722452406741643 -0.3862801728817243 0.1619332297669859 -0.02493913899568508 0.3881095099176909 
0.5793501491824381 -0.01665802044244267 -0.01122912681853085 -0.2901190291990782 -0.0193827306523701 
0.5793501491824381 -0.01665802044244267 -0.01122912681853085 -0.2901190291990782 -0.0193827306523701 
-0.3688102796588177 -0.2620703812097276 -0.420851277978052 0.0683877410918244 0.5726551799692874 
0.772344245089306 -0.3325461001941168 0.1025798275860813 -0.4514700573973226 -0.09548553466233295 
-0.199451430580858 0.797237396858111 -0.4597697848260301 -0.2033397017669464 -0.07517654454775037 
0.3472092251320839 0.09392992728275099 0.06326248333475128 -1.527179448870453 0.714896373225814 
0.3301144909225107 -0.3496935550070427 -0.137224919096947 -0.2725937125509396 0.400604069610119 
0.2813111641172789 -0.2403257005230801 -0.01091080511963835 -0.09399685070462706 -0.01311286964081149 
0.1430891646058204 -0.05683393744343671 -0.1126841747323607 -0.4073584814180618 0.425646332301258 
0.1384202025078612 1.016447950110761 -0.7653410196353433 -0.3604141111788617 -0.4494906778378923 
-0.4469601863387082 -1.019448853464652 -0.3077127074653946 0.4811814024316334 0.4374083264002174 
0.05673724242626638 -0.1406801191390095 -0.1073214129057785 0.2705880315726084 -0.09313511658376981 
-0.1939504043588292 0.4727399455094376 -0.3494884790051151 0.27672924133371 0.08607307713008806 
0.001600959731338305 0.3337662788777375 0.3225341669898915 -1.0658043686625 -0.2181812819848967 
1.068711170139167 0.3289078344164006 -0.5865254050776597 -0.336479456663076 -0.3491596728168124 
0.9400811130966042 -0.8242682589358288 -0.7145163864080085 -0.5832134747394234 0.5448078355314551 
-0.8378710856006687 -0.4112488291831965 -0.1369467544101774 -1.663516509735158 1.468257838992724 
0.5025359521458077 0.1896106814841113 -0.1952497259195222 -0.06965246776743547 -0.5034772146747774 
0.2331146449917401 -0.138116908808909 -0.05902066033507195 -0.01940977037149171 -0.05349416013338509 
0.02785478824487022 -0.3459359416891685 0.3985611792595392 -0.2064428213424313 0.08746687278542994 
0.1602989551621716 0.5934972413309074 0.5145817127594898 -0.5233350557395888 -0.3552173231212077 
0.5317927048898115 -0.1462968049715706 -0.4306722016949094 0.101150386676419 -0.2380202244789595 
0.0181021060188735 0.3728843750937299 -0.1599785548700965 -0.06995112251790916 -0.1725599767788475 
0.5318987935038958 -0.2399953744058856 0.3454357577813839 -0.4363099160229014 0.2475410884196178 
0.3173155034686388 -0.1663419221704445 -0.02953468882856366 -0.2208057037243173 -0.06186373492648886 
0.3173155034686388 -0.1663419221704445 -0.02953468882856366 -0.2208057037243173 -0.06186373492648886 
0.3388261331140042 -0.0409200180921368 -0.01223620817153256 -0.55553168053125 -0.06829325417172022 
-0.2930527469437723 -0.4903421845732547 -0.677595151400972 1.019184324722697 -0.04345507935340087 
-0.07147249768563296 0.383363284979844 -0.4466951908769327 0.450641147803586 -0.195038166627666 
1.468345364967492 -0.2877666794033054 -0.06223025230211767 -0.8193248259957879 -0.4007044187175736 
