solver_type L2R_LR
nr_class 5
label 4 0 3 1 2
nr_feature 10000
bias -1
w
0.9287882532502193 0.2725003709802725 -0.7088547249994923 -0.3558161707323845 -0.221984559201957 
1.012903947870788 -1.616174454109654 -0.177895984496346 -0.03680296385427877 -0.1970257781613119 
0.1483220368765811 0.2445758848754223 -0.4733000198879448 -0.4662823678749837 0.2776127672758744 
-0.6812027526098046 0.3166886073500694 -1.274296470762337 0.05192147414958782 1.096258790785013 
0.2625519994694289 0.3804245294583996 0.1537409728794678 -1.246999261319764 -0.02669587735112461 
-0.4659185898361031 0.09734682220302836 -0.6904445110784967 -0.4241157974849318 0.9550373889859987 
-0.1216254615794132 1.008490741934368 -0.8481217788793245 0.2774900005204563 -1.334957639864869 
-0.4537115831814098 0.8230355789616314 0.3184466782367107 -0.04530700787176008 -0.726304019903274 
-0.9329734807489027 0.4589851517608023 -0.4206964562659621 0.5838960785667999 -0.233869073534063 
-0.0727904380760598 -0.884246715530303 -0.869712207811977 1.145263932539041 -0.4990123160537443 
0.001800553368849546 0.3653569427593117 0.1636638299446941 -0.6137479340162362 -0.1664526275742062 
-0.3541130546179199 0.3493450444515874 -0.4728222203899827 0.1647885750327307 -0.1280149666005634 
0.02541301750793962 0.1082245998045927 -0.01263650046263293 -0.100121606948404 0.05197230632631787 
0.2550780916644255 0.03642837777194238 0.145819261262605 0.05824666687381297 -0.2388644242137271 
0.137536045759506 -0.08537852718544195 1.247904277925097 -0.8581770724074917 -0.7609802318987167 
-0.3089240782234269 -0.1080433475205096 0.2772751925358991 -0.3197923918817114 0.2301577058454568 
0.5994063531884383 -0.4298260685614348 -0.7352831331997852 0.09962605255406719 0.2983913659516018 
0.2930097269084945 0.1531890274619113 -0.1373530635418011 -0.08191898552036646 -0.2714853552451851 
-0.1154395561707941 0.7351111285610954 -0.2089037310472707 -2.273740292130732 0.2202262973281048 
0.05575087596996382 0.1178258646114307 -0.08892257338693156 0.01059554764407273 -0.04992899203067159 
0.02389641532883528 0.2717695850390494 -0.7418181740733748 0.01903885197801042 0.5545269554224336 
0.2005569294610934 0.2194802581235096 -0.935041050846082 0.07246751443356871 0.1755350425922538 
-0.6200452693399009 0.5723459629387939 -0.2154699163270359 -0.7171619039672159 0.6115466112696395 
-0.08445859992111701 -0.2789617802234699 -0.4879866517082552 -0.5196799808454272 0.8454194104832016 
-0.3018082585739499 -0.3553270889277254 -0.2409390502764323 -0.1536428773007375 0.7540153282663126 
-0.6667227398754518 -0.2612693233061513 0.7869499357368893 0.9398801061640066 -0.9532896240468969 
-0.823029222218573 -0.1078794611808192 0.9025477428382483 0.2379328084182042 -0.05996336963625768 
1.083671721328481 -0.4165400048545342 -0.9151874494847763 -0.7592009676379123 1.204916923909717 
-0.1243166547200685 0.07722829976632431 0.2067010977262271 -0.2711158054737097 0.08122397216431852 
-0.5046830812230869 -0.1571616182198196 -0.8031038852146187 0.5712721320007489 0.5076494442841678 
-0.2346375810126042 -0.04151132745562135 0.1301125165650511 0.335297314061717 -0.3554052469623029 
-0.4546437439564974 -0.08988383778094146 0.7324797620415855 -0.5500849387667449 0.7786414819437253 
0.2082815238522346 -0.4929356263697882 0.823449329669233 -0.3612959663559974 0.1078858677161385 
-0.9247919490870554 -0.8086489630669629 -1.141522228429057 1.947095240994783 -0.2815534908844965 
-0.3894636158788476 -0.4432766781461761 0.3303660384619173 0.3755344329832537 0.4861700788115002 
-1.123120844479888 0.09263102255056427 0.9762966501449207 -0.0643559054551254 -0.7272463137492072 
0.09514586621035806 -0.3148221077893169 0.5091666620583024 -0.1759752452112849 -0.1094016272816942 
-0.02886922283600013 -0.560610463130701 0.824511647747156 -0.8240397004706608 0.09318466439281473 
0.1564912941402127 -0.8796965114382767 0.056114932150748 0.7239401436894508 -0.1713054924972136 
-1.451434259224488 -0.5076550184381059 -0.7844563457648429 -0.9768506511826412 1.83118982591215 
-0.3018170774739352 -0.07180010024516575 0.9944788823393939 -1.279884176088234 -0.1862990609330191 
-0.2286890795139499 1.165603821782305 -0.3583022346178403 -1.900581421683515 0.2853342910554224 
-1.237727293831619 0.310457396577896 -0.3699288893103768 0.6356628174743444 -0.0225155233697299 
-0.2882055105775099 -0.3410100610251465 0.6833421881088931 -0.3701627648033259 0.343377876947227 
0.6056812097479404 0.3662750233857014 -0.1156992127538143 -0.8361820510780003 -1.341369009715633 
-0.2647713328876176 0.5443364506122984 0.5864694427986828 -0.5610111140114442 -0.5808023350521458 
0.3699982792301553 0.2078192714632549 0.04243731553212794 -0.4136701027856242 -0.1809649531709141 
-1.06729991784328 1.89564181265194 -0.8675782057115274 -1.795376261439221 -0.3137584717895521 
0.2269650388990544 0.3779114422245927 0.2779374116314741 -0.7971568137929258 -0.4503279645729257 
0.003864938153472785 -1.723610090815317 1.226715707658208 -0.00545619439972039 0.125335850283591 
0.1981191740817404 -0.04357812524389885 -0.9942656146648341 0.1689172106373692 0.3319197736239209 
-0.2817111282705217 0.1459804958921516 0.1481926640571034 0.6986322714775264 -0.5202784306365967 
0.2666366055332504 -0.7911214997640083 -0.2182063359341531 0.4831873291904268 -0.3382836288655685 
0.08848949606166984 -0.8859941085930211 -0.4631304320365122 0.3998285298275204 0.3547403531786719 
0.08274600813508558 0.1237463529404899 0.05504234941502362 -0.5083549417336053 -0.04261265625667607 
-0.565156115696565 -0.128145203987906 -0.6885885288870365 1.083436537469531 -0.279655930728282 
-0.04039533744109673 -0.04356641531843161 -0.02892442817256427 -0.5060006738797043 0.7112801748657567 
-1.226382411155312 0.4224096606751445 -0.5761815643289681 0.3054197044555919 0.5114531687912045 
-0.274884309747456 0.2628782173774517 -0.09619569225170141 -0.05482410348354327 0.1095773110743637 
0.5117835416220694 -0.2408846525086633 -0.9986836323878431 0.08605405178999603 0.1084499840066526 
0.2213655696153 -0.3338376124324151 -0.5195935517078458 0.1927797826290007 0.008635749297092333 
-0.07920037101770999 0.1823900641147558 -0.09418422895062414 -0.1481885410788152 -0.03615787046847876 
0.8622088813398496 -0.9137919095779664 -0.5429274970863688 0.3156516819443215 -0.9988505787713141 
0.03646700071593624 0.2603216235920454 -0.2578046231633883 0.05806015664447426 -0.1745184523646093 
-0.3244276917915723 -0.2771646663615797 0.6059365129476334 -0.2050474001756608 0.7291248031444133 
-0.7333876753611147 0.1785409483106924 -0.3948573463704447 -0.5629888281047651 0.490861531142129 
-0.6396642700183013 -0.4693379422714646 -0.3445602345414965 0.4622329761816615 0.6044625740115329 
0.3018073192130787 -0.0008793596818396227 0.03569505976392726 -0.3226449421954282 0.1732564022840465 
-0.3249450326384879 0.2451269594150658 0.1037482384536382 -0.2806772594740233 0.3838009496455384 
-0.1812475325221043 0.7875229858349728 0.3904416905344746 -0.7300641908637483 -0.1750935221848716 
-0.8535358108765257 -0.4706516451984746 1.429174934468794 0.04280173247002952 -0.7171989106465015 
-0.1604869775823788 0.2035923614017966 -0.4838166476124013 -0.2294652798235225 0.408012609093597 
-1.057893384376269 0.8815685792550236 -0.4920290051756574 -0.2696816713506431 0.1995531463020266 
-0.5622892633902831 -0.4422075163680189 2.406648137340587 -0.3973574259909742 -1.658210213519734 
-0.5224273560939363 -0.795532129726047 0.01222925906098027 1.050802071052794 0.2964330193159669 
-1.182177639519753 1.225996399947419 -0.222826328413675 -0.06247765460625136 -0.1953155446791323 
-0.2885386470615392 -1.177269858007319 -0.0381336046795375 0.5152009905510259 0.1008974013794076 
1.970092941411958 -0.6721735705083937 -0.7261007472335984 -1.178935299359854 -0.9895518141513964 
-0.5427658757603596 0.8932837434395331 0.5849014137882899 -0.5739259232256078 -0.3183469196354557 
-0.6261345804288262 1.067381023371757 0.09712560740247907 -0.6421479422248413 -0.4184146335799935 
-0.1535596554823361 0.508401733447728 0.168183830932388 -1.221862740182654 0.3234616780082199 
0.2431273341451292 -0.1222836094886871 -0.1081023993956737 -0.3017769473763837 0.2723656964681865 
-0.04645342716816138 -0.07153251221907844 -0.4308777471659123 0.5538291020134058 -0.3534647415714169 
-0.1341076339144986 0.1782331951228451 0.2278343188395924 -0.4151984700993953 -0.2169722697141461 
-0.180610486174647 0.04415596613029017 0.5896932881137573 0.1369343665878162 -0.4388484872248612 
0.01201580429310841 -0.5229983852089934 -0.1521867718199492 0.1511625483533805 0.4228040739133698 
0.7939856075275686 0.1300886065727914 -0.4438625792318973 -0.1884230442684236 -0.9579576780599282 
0.661772857111194 -2.318287419192477 -1.34406794317618 0.5544704889217044 -0.4219923758408714 
0.3218072397977732 -0.008579574458944004 -0.1142498724083382 -0.4311560807448452 0.3949588814869839 
-0.4116027895779988 0.4414403305300341 -0.837993861992726 0.7813627779426408 -0.3969743244367448 
0.135588327140262 -0.02618664764297573 -0.2202265847741592 0.1262262724919539 -0.0239978218870311 
0.4773008653365319 -0.03029635896490797 -0.279375101302251 -0.01055968001063951 -0.5991947826061097 
-0.3882017841388839 0.05570327389759519 -0.2829857942825703 -1.347306140803907 1.127720814506564 
0.2933646441348388 0.2239197262809741 -0.1589407749665066 -0.1943666777092203 -0.6389884159842706 
0.07308526594213464 -0.1749797573184406 -0.9557470069217793 -0.1036664541409635 0.8286062174415332 
0.4391508119645471 -0.7823194873764759 -0.5299236196121702 0.6707704606055249 -0.3984435172571896 
0.3412492879814341 -0.1019931253744153 0.5191094864321742 -0.7405601808461821 -0.2868516639928622 
-0.4382411395306364 -0.3828792040011758 0.5905951739345615 -0.3102029908540662 0.007428919399739058 
0.3691654090848594 -0.08704174526024848 0.4019519602277039 -0.03188678670560408 -0.72606178452374 
-0.1341258616902203 0.3450467262294374 -0.06170967778372705 -0.3206858693208912 0.08514773576539612 
-0.07986995596582065 -1.272880508573436 0.1250324039463492 1.241671697471316 -1.23214040485509 
0.1783377506275744 1.561244324741879 -0.1963061132119409 -1.052688219328217 -1.147577549853601 
0.6541819950096205 -0.8240504632103957 0.4568723838962425 -0.2287329810734073 -0.04875661699933258 
0.6644790560698554 -0.3291170896898435 0.7625752085616144 -0.4784664183427027 -0.3924961852926483 
1.241444289866311 -0.6382750989944805 -0.2505241395310091 -0.08473379369157388 -0.539315742884263 
0.7225452355617391 0.360477522078047 -0.8798301322227116 -0.5019194339250005 0.3195148232603129 
-0.1760482765919872 0.6921096057527889 -1.454118896910486 0.343353739468952 -0.1657257118853807 
-0.787708373745526 -0.3056413742888109 0.1099271687344366 0.8060085429289474 -0.3649171233722273 
-0.7118790158870861 -0.3028851598387947 -0.3905222241058409 0.1363816063145609 0.6758699890712039 
0.5396045573397386 -0.1798687390751343 -0.2689155225151905 -0.3564058906307241 -0.2666421608859263 
-0.1746787281504284 -0.2039560059100821 0.5784609266632244 -0.02188367205269644 0.2292609147567713 
0.00924179415517094 -0.6255533014830371 0.103698687334938 -0.8454491973363246 0.5902249066929097 
1.281957006439698 -0.6421518182090197 -0.7857463665683598 -0.4467992984782757 -0.5981330595263913 
-0.3116537481000333 -0.2706918254836735 0.08792770667375767 0.7152314772394637 -0.2823394046487342 
-1.311164512884597 0.5599807942438959 0.2806910839614439 -0.4698297701401901 -0.2337169747494829 
-1.066735380327488 1.141252105259962 -0.9779264066401572 0.4837974123693993 -0.222350871611029 
-0.3146920416424064 -1.177965777735725 -0.7172109713700769 1.022934477801155 0.4167611575586453 
-1.035467139350523 -0.3703019267538235 0.5910891115070867 1.554189926143938 -0.6372006788123095 
0.05535361315676514 -0.08258290018353281 -0.6440101546332617 0.8666957507479076 -0.1095505652915371 
0.1269089812949148 -0.5373463989545646 0.5389350561599144 0.4952897088458623 -0.3047847021522897 
-0.02131043275051379 -0.1659093003598976 0.5949503939669994 -0.3636689565320874 0.07978739807263102 
-0.7735101083531397 0.1401740839802663 1.124263892705001 -0.9414593054468477 -0.2506267280689224 
-0.3798840566355205 0.1104267117663658 -0.4682093804601255 -0.2847534431420038 0.4795253712043323 
-0.8053602297104013 -0.4704502721034119 -0.3477011664127986 0.6834771252080148 0.03754033556343486 
-0.2732272777235705 -0.07816105325667107 -0.1868615351610946 0.771722430403801 -0.06806886703532918 
0.08903379970219513 0.0995999044490741 0.4982345817734168 0.1443419392741226 -0.7233369229628897 
-0.1541922100506599 0.1736607619475623 0.8372313007342292 -1.207711863477912 -0.01598893383341095 
-0.4508921404569697 -0.5462881031778232 -0.5502875422173408 1.338917067443306 0.2657067518379786 
0.5160368928096318 0.3255214058844708 -0.3502894329295397 0.05718189998609287 -0.6526790557947718 
0.09202733586310195 0.2849458848091224 -0.9715797337229861 -0.3574688622126256 0.2001187846711503 
0.5209655756178045 0.5918999867854564 -0.3233611804282122 -0.2999765522947738 -0.3340659016173416 
-0.8059816752072203 0.7568056066777005 -0.8779840949992874 0.198310688448691 0.8482798543563032 
0.5214406440812094 -0.413631871266731 0.3901202593292104 -0.01200387269140337 -0.00643498671769234 
-0.532254871076535 0.2877574542829575 0.06948245039231307 0.1712289443288923 -0.05331948529464606 
0.07060491599983393 -0.2584760689106462 0.0439624387779071 -0.5563540458061327 0.5631050494730157 
-0.6184265466955925 -0.4048248937682452 -0.4396880547117875 1.303249037605063 -0.7572248386027403 
0.2781372765719086 0.9899600877421809 0.3161810294422933 -0.7656101597060703 -0.6560172963888959 
-0.2958925210360315 -0.5708698872713815 -0.1863982254708098 -0.1225683388952442 0.548581643848057 
-0.5825168042606585 0.4358273143941759 0.4531000874499613 -0.5287267485867991 0.1664851511580378 
0.6311194848464365 -0.1644668883103633 0.2500144581499881 -0.37015911346951 -0.323932116082439 
-0.8222024390994362 0.3589257549984937 0.7666306764288324 -0.361693901627563 -0.01916446570957604 
-0.5925004657518194 1.203623837736193 -0.419327201060214 -1.267024600501691 -0.1345965701311354 
1.670359749468199 -1.164520758260338 -0.5991601446218835 -1.001046893224373 -0.5588820174660258 
0.2370770401345651 0.2357223972208082 -0.3672698777386862 -0.08862276233637414 -0.1857917572124568 
-0.03450178453469929 0.2922463291592796 0.4478664260011555 -0.8856168867161296 0.1871584154175599 
0.7163866694068308 -0.8278493818943405 0.1203914479929377 -0.9784817917642447 0.549714784176369 
0.0742945160051335 -0.2691780080805022 -0.6647419869148633 0.5561434214986853 0.1668991151251306 
-0.9176770151483093 -0.8977561463886106 1.033516808449391 0.6869974784784106 -0.6266443702101666 
0.05178440403607867 0.54637284377439 0.1418591078436435 -0.1824169046948602 -0.3213191550475822 
-0.2461717882919746 -0.0829017620086962 0.358631548172705 -0.2450535011152099 0.05594367977363562 
-0.37813421015482 0.5147502485457915 -0.3096431199203832 -0.3444649408411115 0.1935393227135271 
0.4308186710590075 0.06135203347217455 -0.7944929096568988 0.03594533452268447 -0.07278729718226268 
0.03815329329051011 0.2393643002054468 -0.2390643258368553 0.3673903661686626 -0.3355848475311242 
-0.2810151365848221 0.01705905251860507 0.1284712252617479 -0.6315909727563503 0.3911058575342139 
-0.5200578983137932 -1.292790550041463 1.339543407855542 0.1978572654536886 -0.286142457354654 
0.5702488493822906 -0.006085092888416018 0.1330387824427398 -0.5304055991321257 -0.1758965968753493 
-0.101178916816116 0.5711511681072449 -0.2057375531236661 -1.101855197007985 0.8400146082490486 
-0.7131969371119312 0.4879491369322533 1.12686485702797 -0.3780479189190591 -0.7282742148303711 
-0.1456675973707867 0.785166781209001 0.182049976720107 -0.1738858049725493 -1.01266864027381 
0.07294462940444588 -0.6282236546582676 1.030651212097409 -0.5187181592716135 -0.1334810287528485 
-0.4866994364732322 0.209633970300436 0.02995533896408933 -0.4450838910854064 0.1235227944901287 
-0.8998056446002844 -0.7187661446453791 -0.005112983307443173 0.06349439047434308 1.293339759795058 
-0.2320750030363728 -0.2669367409443418 0.2358603002407831 0.4349781648739324 -0.4118352358551486 
0.2946448799513308 -0.5415970389234006 -0.2814911679656302 -0.644947965329752 1.022435854832728 
0.1787098827861913 -0.8386870385277649 -0.7289333722411918 0.6539738726178574 0.6367342006237239 
-0.6959171131208787 0.1253054743214803 0.4681055459252263 -0.7886377854937351 0.5288069341401636 
0.1782582106476516 0.1831674543496732 0.08147954717451061 -0.949333791056021 0.02503775457817731 
-0.54204772962242 -0.7600943198038269 -0.5554275348972658 0.4492803619755463 0.2002052995585455 
-0.5156559338251711 -0.0211670007987156 0.09608887857822671 0.4844423894056547 0.1407134341492727 
-0.9943285575040048 -0.2759217782374103 0.7654208166418828 -0.1560480455546406 0.5888605894768751 
-0.2544084134313637 -0.3156815968020089 -0.1010698874636122 0.2397131425143616 0.04331151065696709 
1.013818500350266 0.02500422963647161 -0.03150753112569003 -0.2832790895470847 -1.20756744813783 
0.1235901402148587 1.071180444499956 -0.5254522189508277 -1.757662923781489 1.22771493960216 
-0.757838904023768 -0.1209371419362034 -0.3121697284620092 0.4481630229678433 0.1788370426437097 
0.05650567966567365 0.3046537181772225 -0.4096136188926412 0.3520187040093981 -0.1994244767443309 
-0.1965087831548228 0.852047726162234 -0.4359028875031857 -0.5749016653389434 -0.09804591261694481 
-0.8243725343605753 -0.6605496535528019 0.185977193424213 0.8573713126937887 0.4583481469590891 
0.2240519609077142 -1.221763172531383 -0.6919404228504212 0.8490894556647289 -0.8825905672723854 
-0.3256143147867869 0.7137264004458529 0.09663253298494688 0.1580625420603401 -0.5924158663564704 
0.05139972108640186 0.6755692549653532 -0.4158803379661185 -0.2038729600413415 0.09931574080813231 
-0.5275761969857784 -0.3536604201652479 0.2278751347672829 -0.005521349195218411 0.4410688278073873 
-0.6688292311385151 0.09301191174157793 0.2540479152466026 -0.1460648364728076 0.165644427787918 
0.3126300006051973 -0.1656569273626446 -1.378975471724041 -0.6652637914843343 1.260133804362484 
-0.8634873545968573 -0.217670887863216 1.750198069802279 -0.2765701356203953 -0.3293927339632622 
-0.9671071707972599 0.3366098387672741 0.193738708216096 0.5784075075930996 -0.3383795173408558 
-0.7257893711132366 -0.1446480209131981 -1.608697079596185 -0.195188550268773 1.098391970863898 
-0.04827917418157565 0.2247091449733901 0.3435003502575181 -0.5859457930746591 0.04882822630125938 
-0.1954827278753175 0.1413458251988347 0.07523717044130218 -0.2949843965633407 0.05845392714368183 
0.3914386270308489 0.1695856376450565 -0.1821804010344762 -0.3029877825437026 -0.06223659156066665 
-0.4715841895950679 -0.8891433097061768 -0.2570381861593496 0.2880090582824512 0.6752962721725426 
-0.5250620244178482 0.9726030146010121 0.1032834813739542 -0.6546246660486594 0.01676929904847058 
0.3337444764742127 0.3128341161747596 -0.5981432184142572 0.07558984688687076 -0.3117402834669875 
0.6400559309470113 -0.6953845068496535 -0.2355026813845416 -0.1821755873981893 0.2127882511972765 
-0.03069697197517658 -0.3319596424675789 0.5809157144228353 -0.1896300339083175 -0.06190399739530601 
-0.1318351590495434 0.003058032899457748 -0.4889558613982401 0.06640012104534496 0.4408183245841286 
-0.6290110061825376 -0.4805525289067871 0.2499827991308449 -0.198380956148495 0.8498821158166762 
0.6144933655782711 0.1089045408790339 0.3860771724616354 -0.6298030980150056 -0.8767011028287024 
-1.439460946702587 0.6321954637034815 -1.210817337524322 0.8121437839494013 -0.06777062315347177 
-0.7153335386263515 0.4552579730014319 0.8559492295588789 -0.495855456825418 -0.03861049025823243 
-0.5347947056750288 -0.6398775262503812 0.4655243108821491 1.180709584109776 -1.122423126760794 
-1.07944989458272 -0.754745085045727 -0.2798088912418746 -0.8296616668024277 2.231444672400139 
-0.4684108836534868 1.013301623162803 0.5857135455242892 -0.9291305788730315 -0.5624890529149795 
0.2472708114591785 0.2399180708784229 -0.4440229696772436 0.1173295920978699 -0.1666909029725709 
-0.7062416773625299 0.2253626841561622 -0.5307514805985778 0.2036903804369695 0.3851808242155643 
-0.6561538188511939 -0.4892860157352488 0.9091304549374704 -0.5452004085303839 0.6052753992374754 
-0.4473836889231483 -0.1890906700064711 -0.3254100524683881 -0.3889851723664319 0.8928748900683074 
-0.9743866652928118 1.05063956186525 0.2475166321784752 -0.1844076218627865 -0.05631046432720917 
-0.3759092916494386 -0.7478254834267588 0.7672922870539625 -0.1038842272539618 0.7205784272208361 
-0.685708648208292 -1.453297028161509 0.0646481058277186 1.703050590148163 -0.908569305043852 
-0.4989007114663165 -0.1017972659341481 0.2945811458432898 -0.5734127976236112 0.2207085163440032 
-0.5249886598597211 -0.9007930207627111 -0.5130281498920395 1.304507663529103 -0.4237838536344671 
-0.5873847381917695 0.5041900630011538 0.222641871954996 -0.4964191853019416 0.1856353776862896 
0.7335824897997688 0.2538334765881813 -0.3684071203930227 -0.3784208220970849 -0.709828816623153 
-0.9580970475208993 0.6814585351961049 0.05577984485006908 0.4521769413315704 -0.4334890420022911 
-0.2999462257610952 -0.3820321626478347 -0.6474477185327414 0.2026895047908319 0.3607529187855908 
-0.2846331624724255 -0.1064067568094918 -0.5012229777578051 0.3454042821814906 0.3077461841740636 
-0.8107909658651801 -0.2549340911269178 0.5374683709526867 -0.2270131387367399 0.478931772992505 
-1.373747129957187 -0.3697716646826738 -0.1696838056327685 -0.4986744095291125 1.252217918947546 
0.1754077018786053 -0.2291191793002014 0.08633919825294412 -0.03367975232456114 0.0301964873560918 
0.02104373898935435 0.4089082903454933 -0.2151363321388265 -0.2313644079997687 -0.07345999937492578 
-0.4250843638422393 0.3080440644838543 0.4964309967099066 0.2062996485720094 0.07978564947429247 
-0.1661503509513297 -0.05661410799267242 0.3820991634517015 -0.07405910568743536 -0.3269620296480971 
-0.1954598578681512 0.02060658327390221 0.49320169161066 -0.108378936557194 -0.1691105477263681 
-0.4577746735942477 0.8300013076018955 -0.009399893805490698 -1.826816696191457 0.003435537074920445 
1.240066884050175 0.1226979846455501 -0.9154476233425207 -0.9549125869374274 -1.086951306715168 
-1.225613635519173 -0.04004287878771164 0.7790803139396517 0.03212158368687552 0.4939557173677511 
-0.3645002337149335 -1.233642471202907 0.9959628449528004 0.8816398419583743 -1.668831678887511 
-0.279840073073965 0.1260229259034733 0.4108623176379479 -0.2545539787344014 0.1861563078684806 
-0.7024713216238916 -0.6080304420191662 -0.2993920360735547 0.5571140270638453 0.6524012325311704 
-0.8333293775959409 -1.214352203968672 0.3814890065227023 -0.3776937909394367 0.9677828711075593 
-0.309869956397772 0.6416365258831092 -0.4966305589165301 0.08457181589536265 -0.2265223820311787 
-0.3455179837188625 -0.04578240344265066 0.5609947573338269 -0.5863834320674965 0.09299391246173315 
-0.2747824694598269 0.3882988564556323 -0.3211291320413336 -0.01789612463130335 0.3184328341408604 
0.4912440862598468 0.7585971870818532 -0.4385422781055123 -0.1864619244694693 -0.7002622089146976 
-1.340153553540221 -0.1703595117400816 -0.0150483815046526 -1.408885635297374 1.266942512362023 
-1.418601997224804 0.8540214205658054 0.5608080696436754 -0.9275628214358285 -0.08208287406478051 
0.5260337885804084 -0.2416866002474487 -0.6337887317761577 0.04614600731579416 -0.1315537028532235 
-0.04031211875981013 -0.6950435981119185 1.353257630300012 -1.130942051006021 0.08879743980144587 
0.2229932155166008 0.1158539057547382 -0.7555969571085546 0.1814637136260123 0.03102996827033891 
-0.09260864427255946 0.3160761017416532 -0.8688155471441453 -0.5633965222532589 0.5738252551602373 
-0.2003462086612798 0.4406080828549422 -0.2578385731652741 -0.2546165815728346 -0.07633950327248684 
-0.8591473500670699 -0.6497997418601494 -0.2866368100826528 1.31548150305371 -0.3885309206001763 
-0.9986885800453229 0.5311849336882404 0.1301105819321889 -0.1219784070368957 0.1558968719372079 
0.2121412945095671 -0.7240708825508912 0.1583234611725465 0.2773717314532165 0.2137128669133763 
-0.02931714429811691 -0.04200865691728188 -0.1097652170989485 0.1569576264563175 -0.02098075622573018 
-0.05117250112825496 -0.2713857880283504 -0.7908196059757259 0.2651707765545804 0.2582824695312543 
0.5584487678594667 -0.5327936095223746 0.03776128942549071 0.03979077368936492 -0.4953064119314938 
0.2857364697062152 -0.4827577078147849 0.0620038400973986 -0.2570252228265643 0.3198093152747332 
0.196483145151626 0.1404187900130456 0.09146436132233088 -0.3358439829337912 0.1976207338536516 
-1.350176108191208 1.457809534523083 -0.08407244371410309 -0.6131570173021516 -0.2991226457655539 
-0.4474719204981222 -0.1201899378870627 -0.08267282595153977 0.1524434127051097 -0.003940575530100576 
0.3727357003269184 -0.7852018629710827 -0.5301862732082459 0.7279389269248325 -0.5742710371098798 
0.2906142576799283 -0.1498749588190476 -1.017088821696319 0.1811065964884464 -0.04775729830517914 
-0.01724685589061482 0.2061247731307328 0.0935044127176243 -0.5896246199139601 0.3001309599660624 
1.931222983083966 0.03357405517185465 -0.900864447720286 -1.460333402263853 -1.055802387919034 
-0.6807714867212414 0.0003941484288514929 0.5541920255285211 -0.4863892185535919 0.2658154937504341 
-0.5488116765314032 -0.1593158686507504 1.457936456187559 -1.612491083634889 0.3318575892034754 
0.2034578672178352 -0.6078600946460806 -1.237257376061838 0.007180806775501296 0.6936122387165212 
-0.2707677137741619 0.5328919211759413 0.3976648573511744 -0.3166336251788813 -0.4116560809553256 
0.274753550049456 -0.1511265959814712 -0.8725728432193476 0.7633793688034171 -0.2568170778861523 
0.2347575693343635 -0.03621429952001303 0.0535993698603603 -0.2704077047818843 -0.01894708450486047 
-0.06286026295166386 -0.3964038894907875 0.866719378001648 -0.1778968177614408 -0.4480012195634098 
-0.06129095797686298 -0.1056596487962275 0.226601539843324 -0.7535697729475235 0.08589375582099408 
0.2922782918810775 0.5232502198045486 0.09270413671145557 -0.5396182720740017 -0.2192441390063157 
0.1491960734637269 -0.4599314008930379 1.136594111049771 -0.4495016199133824 -0.823592721860712 
-0.6545193014437916 1.169342554150019 -0.07667520772627051 0.2203327794065882 -0.877773499297362 
0.07742735430019922 -0.01130654893160012 0.2664473940550933 0.1655309764427107 -0.208113776456097 
-0.237134196168137 -0.1164857268545249 0.07414893142983808 0.03800956493415508 0.2154734682536109 
-0.4079725162217203 0.3283417639156106 -0.00724143833194207 -0.2581251179257713 -0.04625962008909611 
-0.01569562575008289 -0.04683971976115774 0.1773541590279046 -0.2240006798990849 0.08623684027664742 
0.1796745207359111 0.3245285688232731 -0.04838461136451653 -0.1327805724259644 -0.2196519523543576 
0.1518826135327452 0.004398366166606119 0.295525778726497 -0.2702560956634616 -0.0975499572068705 
0.4136383536342335 0.1543479802962631 0.3859592736024145 -1.146568801213031 -0.02223152097611227 
0.2324100446657924 0.01571943763871221 -0.2535400027640546 0.4152821426884236 -0.4767183299356141 
0.6964359676400305 -0.8959083756727069 0.3289421042858506 -0.8511981722548869 0.2342782824311657 
0.1897757397735469 -0.6049935466484648 -0.6812956007873607 0.4074395907938776 0.1850492576414997 
-0.2775537811357756 -0.6307570453053388 -0.09469857769086165 0.1046555514142774 0.6227012986440518 
-1.048761286219388 -0.1272260781076735 0.04182932704190689 0.2102756250835348 0.3983933056464643 
-0.4040612356505741 0.4546193757771178 0.4385757841422782 0.06584835893303517 -0.7397458891927282 
-0.2830016200130062 -0.3241653097130687 -0.3274156118087438 0.6004251531892897 0.1007064264683378 
0.04201283888602295 0.3464801227405752 0.6656077489377695 -1.017339569653376 -0.2072250217070839 
0.1467403784575082 0.128153022219087 0.5521758055693213 -0.4671203444640813 -0.5732609133390671 
0.4204895329894208 0.7639772724044295 -1.047903531504217 -0.2068439092239875 0.3378997030578965 
0.1391934898592691 -0.06392220593384916 -0.06503330374325419 0.218716662491946 -0.07931878122049664 
-0.4679117010279424 0.5193804408476289 -0.3772259975838826 0.07064448537190454 0.2611633273539407 
-0.2659319183806569 -0.6479339801778645 0.3664453033876025 0.2197240651532837 0.02769985490473668 
-0.7240178584648982 0.2590559661294758 0.09999717440228191 0.4100978663680596 -0.032046351993437 
0.243789821708319 -0.004130340162352208 0.01097581367835742 -0.2505209746329758 -0.01696639432761328 
0.4949934653532598 0.05909560408366663 0.2746508394565597 -1.080419107672831 -0.4284163683482364 
-0.2284321838491885 0.3868118527693608 1.105590432570688 -0.03924725040017586 -0.9940396233739233 
0.5822058560737653 -0.2283111651799473 -0.5460347064973379 -0.3870170373213564 0.315281435339545 
0.4800258799344798 -1.142708923721245 1.499883853576998 -0.3228845196301882 -0.6710594223624162 
-0.6029666495877559 -0.480144499206333 0.1361521035710348 -0.09907194700683714 0.1629129666290667 
-0.4166674439294992 0.5473987068965197 -0.1323339952631374 0.564035043878972 -0.6862519442277261 
-0.9772353744640203 0.834021273265046 0.2146310231880816 -0.1245745708262222 -0.5564671347686275 
0.1009381017842645 -0.1073767804415596 -0.4377402301636223 -0.4763638581503641 0.406459165314876 
0.2583235060521459 0.206431393656269 -0.3087466593715586 -0.7567383280884287 0.08785125302601049 
-0.1010395343467218 0.1497178657858031 -0.2516824686010505 0.4433585650179468 -0.2207045423193681 
-1.03534930235986 -1.218014308749677 -0.1586462913663991 0.7028994188932322 0.9266836667454987 
-0.1358645696641028 -1.018195042119215 0.09262223495650547 0.8627475320935976 0.1888959850785513 
-0.4853077802336148 0.3006685104344621 -0.03212815224707938 -0.307172493587015 0.1553862667656543 
-0.224219015061864 -0.7401771113536501 1.163314698226824 0.1892198908134713 -0.2771503003443614 
0.009245364416881459 -0.09311017380748644 0.1752850461873292 0.02028272188099271 -0.1499288192852501 
-0.5826479229896482 0.2908463199576038 -0.7394532708252128 0.9759582070233893 -0.5227575655157334 
-0.7564169778245301 0.05110738307229924 0.3460500359774804 -0.2140322925581186 0.04828253643106499 
-0.5403962520412229 0.005086364034161579 0.3830758519479838 -0.01362454644347933 -0.08795508469820977 
-0.3659175925300674 -0.03250429366593034 0.1009333053555032 -0.3538117498347231 0.2293209785802921 
-0.3158110331013569 0.09239433789828894 -0.004600579764333078 -0.2721030468503691 0.3314792918713437 
0.3842417373987639 -0.5674941137024786 -0.8530295996433228 -0.0666015785846901 0.6866068461476278 
0.1706437794764253 0.3088217192959316 -0.1294439107846549 -0.3765092965624697 -0.1864439466690741 
-0.05753466539394705 0.1040523549398262 -0.546941779110766 -0.4732396335216984 0.4590976272271126 
0.3456791554859281 -0.06198675179279532 -0.6986595521908537 0.2609218292690499 0.03970283044104209 
-0.2770813212270081 -0.9270697946788476 0.5906608370882831 -0.1129339015593848 0.1685085386324524 
0.2126760327858785 -1.320156407552939 -0.06070089409572654 0.7443671557871089 -0.5210219968142179 
0.03119306163999556 -0.3166842750850061 -0.8761871509951773 0.3896763772394917 0.4362386412087108 
0.3063393682254119 0.4945314266053969 0.3220298764888758 -0.4965951833373169 -0.5673330006293301 
0.1438749726298839 -0.7623542410400854 0.3774453052304047 -0.3466677602746938 0.2224442551245789 
0.1937209898020905 0.1768655604794225 -0.05701285625031766 -0.2194823120422286 -0.1011913174261102 
0.01641706251297581 -0.0001195827064788858 -0.04873133604685565 -0.07677136449555817 -0.04587167370308078 
-1.231479532905481 0.969763184263568 -0.5743762209385557 0.1606089852281236 0.08234610735002157 
0.03635144955459961 -1.175466538416381 0.07189300258069495 -0.5041727945964116 0.9476164317389603 
0.3026246018457645 -0.469646145098143 0.1218922642967452 0.3582528459209826 -0.7415401315085198 
0.06235826031449003 0.3940234391064804 -0.0400802884987557 -0.01501197962615513 -0.1947138795712186 
0.1535138909108588 -0.2233721705270508 -0.6199378058447271 0.1684658444153787 0.1145056828355852 
-0.5941902950956764 1.838470479696059 -0.7473148784552081 -0.7160013504774931 0.02755527779449086 
-0.1575331423438373 -0.2077184935668911 0.8253430297319281 -1.131470312328494 0.4166398985698979 
0.4863971670665115 -0.3476190392475834 0.2336539199868189 -0.4721983279865192 -0.07164801301007573 
-0.2458958812134809 0.1053858638658439 -0.2779403133967057 0.06478626098020659 0.1938393094811046 
-0.6841879584293795 0.2836255290084017 -0.1505053171494292 0.4266894239085131 -0.3811670616266371 
0.3137927815339329 -0.9376953822070472 -0.3788783894101201 1.368618406900045 -0.718313245221764 
-0.7427735681036247 -0.2852530610268113 -0.5880580850488506 -0.1165879796955129 0.5735658819628323 
-0.9548452509734532 -0.4088816229320817 0.9124565293953595 -0.1433814360407332 -0.2697926671209185 
-1.526107973711735 -0.45453874163581 -1.379053126440734 1.181325199607714 0.5463119993461578 
-0.01581218304859802 -0.5490492578577075 0.3482954019958767 -0.7379173466034599 0.4077185943492585 
0.777070748339895 0.1026477931436119 0.1007311733175667 -0.5677497321558714 -0.5022081353552358 
0.9759957254390746 0.3911793686500592 -0.6013067535670342 -0.5396100451316189 -0.131853035966849 
0.0551536329693421 0.04195405652855005 -0.2734774164228569 -0.3247006982005671 0.2135746857985042 
0.1875386909541265 -0.763746816679016 0.504592979590172 -0.9305333661067632 0.323125080109272 
-0.248530977687121 -0.01753387996476179 -0.4119138554172547 0.6086716450213793 -0.1955356834803425 
0.7703888638466547 0.2256780275102963 0.5343271045497158 -1.228336797261681 -0.7559731388408452 
0.1481317505378411 0.1009886319909223 -0.5345644079687389 0.7240371717368984 -0.4863213722387996 
-0.1776721067713745 0.4656734026712377 0.07600645644620993 0.6298321642540695 -1.152029617438977 
1.390571157555694 -0.6287705379228445 -0.5873196279310553 0.0356588140488259 -0.684440783256382 
-1.063047463404694 -1.469540690649336 3.232137982199543 -3.429942362080964 -1.092896969554672 
-0.3760757222255664 -0.09282618632517162 0.7190610342368093 -0.3691309730748119 -0.01154802202964244 
-0.04994456406599572 0.2483395105902175 0.1421732818559135 -0.3963935361677892 -0.07134516887141132 
-0.288077549907466 -0.6437665713744672 -0.1385736944236135 0.4645177802167111 0.1321675438753857 
-0.4164111150744266 0.3574321062771079 -0.0743401811442171 -0.1384203650117042 0.09919651857679686 
-1.390073349074077 -0.1558070708072824 -0.1351183067186595 0.9391263242441246 0.3283469704925904 
-0.3976388178708744 0.3859010376178853 0.3261359067796464 0.07328188211824836 -0.9257671439649836 
-0.6207349752123733 1.947362470900653 -0.7366709854924969 -1.613565757628839 -1.045280976055694 
0.007890514666137565 0.3336981920732675 0.2776973808866763 -0.4767351667772663 -0.1240603999170684 
0.2626094813508133 -0.08870658125820394 0.02346425064397759 -0.5732837964118763 0.2717091420187547 
-0.874388109167672 -0.3110726222458595 -0.2773071560758059 0.9682278521339412 0.2945641874644291 
-0.4263941435214526 -0.09942562123501809 1.2699967216376 -0.7069192389668154 -0.7694415774393573 
-0.03827313541669741 -0.1159232195408844 -0.3365254164576227 1.162395576651832 -1.13056897134502 
0.09763010714227774 0.2267713203229588 -0.1253590880558033 -0.3085189617868861 0.1452357879624551 
0.8298950418193797 0.07992146978492742 0.0962197060825668 0.2262941878218797 -1.183723005633839 
-0.1725050711739306 -0.7698322213113309 0.05163784172396835 0.290965284368768 0.2433512548821429 
-0.001283010417368925 0.521233642141958 -0.4072083235936294 -0.3332811867358342 0.1330149589183083 
-0.6163393384009122 -0.8292283451199076 -0.43552115673129 1.25847938241327 0.4606195751188776 
-0.2905191574568066 -0.9573937200040267 0.88390274713035 0.3010767613298184 -0.2158045309808027 
0.7061525034084295 -0.04185874185231563 -0.2949540421444085 -0.3211356086611795 -0.1229935649540079 
-0.4014128689580704 -0.8033427588062479 0.9985919503148977 -0.2274649377363957 -0.2506758127740494 
-0.9430693213869099 -0.4597587200321686 0.2425125250359662 0.3021475407868632 0.5916681400718543 
-0.4340020682491557 -0.0516460742861113 -0.6468052387670985 0.667607628079591 0.05169302002620471 
-0.1944772100721378 -0.001010453027800862 0.3552293294088907 -0.1996518754791138 0.13181004577744 
-0.5340000727914159 -0.2804469948240214 -0.1969310932951395 0.2352262526420718 0.6485570341600855 
0.3661288887561197 0.3525974733244479 0.9108197648691333 -1.148627593864532 -0.6011435842682185 
-0.2649280000053726 -0.2364823939262714 1.194987113134218 -0.246388987007379 -0.499302974821541 
0.2954924203357454 -0.520675709252672 0.331416522576938 -0.3332222056945885 0.2223676713355704 
0.08415531792075118 -0.1011046810744445 0.5112634694240994 -0.3929284597744434 0.1597753858488532 
-0.2954489994800372 0.719738880993342 -0.4296740690172519 -0.385244517969503 -0.08943427423071609 
0.7010247894363729 1.034400339168939 -0.3017072968531428 -0.07746560629794264 -1.466090272338457 
-0.04056899944637388 0.8435630952197966 -0.5206133727872975 -0.7172044342113542 -0.02228539375282666 
-0.6396831008509244 0.2400758423631709 0.08555131960303385 -0.9122277956866933 0.5842375763107315 
-0.1971009157946494 -0.4985958669911019 -0.8471928652060731 0.9022869451652663 -0.1448894375519008 
0.1010736958566916 -0.4555993755373733 -0.3425920453740233 0.4686417755558903 -0.1511914048953565 
-0.3589467520435626 0.600981726489399 0.4825400044014106 -0.4405497508864676 -0.890373873412687 
-0.726427643378653 -0.2296032765205844 0.1545354887917786 0.1334548839663277 0.4544661284462385 
-0.4171160514715319 1.109078219299986 0.02585006033565431 -0.8567364120301557 -0.4408285317840134 
0.4594496288635257 0.4183128200654547 -0.9199624920915449 -0.1360668542423955 -0.3342990315171899 
-0.01333466873044579 0.1283609714225106 -0.2784205187685236 -0.01619025189375128 0.0746011925109088 
0.1721518305604411 0.2249332843467997 -0.5469589058793469 0.4097274929896784 -0.3441163506891303 
-0.07207085757149106 0.1334794429167664 0.07783987854250501 -0.1638385658893236 -0.02436611624107491 
0.3615915737046443 -0.3169185132818648 -0.4766155194982213 0.1254435807947289 0.2049236006489464 
0.2336731462534159 0.278735914243513 -0.4110146393827463 0.1425353937802724 -0.2684778678817943 
-0.2137927114854654 0.05432922947742142 -0.06257983917457163 -0.09063504963327068 0.2707787932016755 
0.03528857961961729 -0.07269508766533718 -0.7314290399546782 0.04390532029380195 0.3893869372650824 
-0.936554153892045 0.513993231931034 0.009237267069170408 0.6498835183522834 -0.5143221032658112 
0.4353140274889064 0.4372913721011552 -0.1803507439007224 -0.3923867817886485 -0.4369043556001015 
0.3881669107594615 -0.6346009803637682 -0.6535800333653919 0.3221279579198177 0.4085082897470562 
-0.6343409397509407 -0.6127594907878671 0.577483936316909 -0.9639536167032874 1.039227039952807 
-0.03449292566506997 0.3186726648804861 0.4835902318008576 -1.498271217818644 0.6075347838186985 
-1.018417302478973 0.1779706192119576 0.4777032530471063 0.3833389550690785 -0.8337123434054494 
-0.3206214361756492 -0.87542755689834 0.2470330868706286 0.3494180973408583 0.07876142420062103 
-0.1616633509961997 0.934363348995259 -0.1433434630406101 -0.9896855102220058 -0.1942211933023701 
-0.7471904803888643 -0.5490367722151838 -0.09401711344649172 -0.4040388939497807 1.257172447278497 
-0.4195165975346468 0.244962764551315 0.7352287974846587 -1.138855252904938 -0.1591023685106573 
0.02465693357901881 0.2734187716494355 -0.2575659460532088 0.09141419972217044 0.1265541521409476 
-0.1716644410049225 -0.01883545265542903 0.5263375211235239 -0.4618407299643448 -0.09957446672243411 
-1.144523767782791 0.6147752933605409 -0.9768092242771853 -0.4632384089022434 0.5085640938139483 
0.1847794508156625 0.4502655787602469 0.09861290276135518 -0.03783307602956884 -0.9003067990296774 
0.8378900233845441 -0.8850165997995167 -0.8628859747063017 0.09028410129748921 -0.5853926950914964 
-0.4528826337141539 0.05513804253821316 0.3867189904676473 -0.5638902171476958 0.2883131784889701 
-1.220454807774809 1.801032592651357 -0.9443032531926193 -0.6477902792923849 0.3133124812245512 
-0.1872132790311139 0.09767461653606792 -0.1023542512391691 -0.6456940048324795 0.5054361946152842 
0.2873590719284195 -0.6949191956783359 -0.2080604904787859 0.5166454533739394 -0.286578603507643 
-0.3956704133893138 -0.48463023438574 -0.7420975897190331 0.8606007912653848 0.1599808518137591 
-0.08227489984740036 -0.1023404233647732 0.4583399362061232 -0.4631176945654082 0.4698150439520011 
0.7088171903808687 0.300506120613335 -0.3569234915267584 -0.4141855157060327 -0.5359836897462116 
-0.07496942806281513 -1.295546414151985 -0.8350871004449604 1.414026473180024 -0.8657597233229217 
-0.6170651662334297 0.4464152402645177 0.1910564855270427 0.01333689916089415 -0.3405212022449834 
0.05111733197348384 -0.1001589535834132 0.5286945278540791 -0.4465579113892408 -0.1374525971770273 
-0.2704052379667081 0.8355477800663621 0.5594671626363874 -1.49203280043085 0.2003777550001461 
0.789614331412007 0.07613307115451484 -0.9711281653341681 -0.2282603291611078 0.04945366015207974 
-0.5262412006438905 -0.4141699803899271 -0.740088486242833 0.4449127696125925 0.5541705157543972 
-0.5329391793513307 -0.2004162148506684 0.167356435319475 0.5911636885747791 0.06904290647791725 
-0.7906289724515579 0.5496187204946062 0.115485912730105 -0.5510606650852503 0.3435555174618776 
0.162584989845224 -0.6253798929191224 0.4298853498013844 0.5853585929500003 -0.4784538367930305 
0.729258281533255 -0.9058376220623575 -0.601845910017722 0.2585280892069811 0.3840950874341592 
-1.113831784914656 -0.1075022786565422 0.07306339089891262 0.5044388184603157 0.02723500087856893 
-0.4240268468722761 0.1787357192578597 -0.7621639359957221 0.7287312782356712 -0.1549777316191982 
-0.794705729438324 0.4093296075117314 0.8227028652756742 -0.05816633609022148 -0.7527330636526552 
-0.4241336235108416 0.1421359484560379 -0.4620458154861233 0.1194237928989116 0.5269013860022023 
-0.8289557582833067 0.4057618481167234 0.09011134515625527 0.5005407829042274 -0.5895821779516928 
-0.09814909884600258 -0.0287082764972502 0.04419583380764243 0.2205844019732046 -0.03491608479192068 
0.7390306745629117 -0.2024765322361267 -0.568923345313228 -0.7738450756199107 -0.2028175298927971 
0.7120189404644212 0.2700928074145781 -1.290784172980021 -0.1540294784711211 -0.0998538681703903 
-0.6030075999718765 -0.04784120245623635 0.472542572206427 0.207216904278082 -0.1779388280490399 
0.01298803937749136 0.2241950889521058 -0.536841386312817 0.2528715693654016 -0.3322309219443882 
0.2201570060471954 1.015226196252004 -0.01968692350794503 -0.9596628552063757 0.261859562639943 
0.4251345893365932 -1.832302265145056 0.4184663318857033 0.7431186162935992 0.1716670867213882 
0.4870325453650995 0.6369786367501306 0.00307688946062468 0.1538399850620977 -1.297794704205824 
0.1729159925973948 -1.194147877326129 -0.1092069155886847 0.6079677847586881 0.1938581343017446 
0.2001505035505061 -0.4410810946764181 0.8650220801669583 -0.9566595581988638 -0.2618672254118093 
0.1661312845060079 -0.5015449293672352 0.3057000745303277 1.007470892027051 -0.769913276509898 
-0.7182380287997713 1.42554524304188 -1.048397566499089 -0.8860391056281698 0.1478152069978162 
-0.7918506611917254 0.06920603011876278 0.002213017557055061 0.5971264908090496 0.2259138863798213 
-0.9444155075724464 0.5672940102085891 0.3937463509524629 0.3232551009437497 -0.4346784720599857 
-0.15894385123261 -0.1315978591535075 0.03625932611799903 -0.05839626529814143 0.2836396574015983 
0.4953491510170765 -0.05990109540878039 -1.063155634691791 -0.9263358439432832 0.7252589049638175 
0.2181488831588935 0.1237010950595629 0.1223847192177524 -0.1590209981750602 -0.3128644723755274 
-0.4027975143010468 -0.4384316950935282 -0.1162015723980076 0.4822851207147329 -0.3050054166562718 
0.3357684073883622 0.2607151209672477 -0.8269798657936107 0.6456203423219226 0.2295356287889853 
-0.4259536421916748 -0.1512219128104222 1.179468357784583 -0.9349251645113716 -0.1739403494483352 
-0.03760247656026994 -0.8363687184390424 0.1970362379160256 0.108534405811358 0.4383330019683426 
-0.5523402231319863 0.6755244056789143 0.1534747261567163 -1.028289919770609 -0.06390617608034152 
0.4539694374271975 -0.08735681162182342 0.02669235603252737 0.07792342733727325 -0.3036474864364629 
-0.7726488524048168 -0.1006420384687814 -1.459620596958021 0.8795981891572696 -0.352693175143367 
0.0299748418480978 0.07718909745099427 -0.0975058930662662 0.01104531012398366 -0.1544486572537581 
0.6693930284924109 -0.05375242144622575 0.01987763641225165 -0.03071410058859612 -0.4670233142962619 
0.6351894755558599 0.4267748740578549 -0.01102883678752431 -0.8306275294371008 -0.3821374652976963 
-0.2751207482348715 -0.02117794680921692 0.01853554820395841 -0.1805918275591104 0.4696602405042589 
0.6678813036076767 0.06484025924350534 0.02463825218907628 -0.6326397828181276 -0.2459652777213646 
0.138971067853722 -0.4609582825994515 -0.09470579918113499 0.7498110807247533 -0.3133031121589043 
-0.378351798272475 -0.4085278884986505 -0.05176397564003236 0.7446607288520436 -0.001214572378185879 
0.3207104782373373 0.2474540445058971 -0.4320464411941527 -0.1878916749761654 -0.08314081958470659 
-0.3436035285616273 -0.5132248304506133 -0.1264876957266518 0.4756374496467688 0.533540896199346 
0.08264878461284722 0.3533559527997806 0.1808120413597099 -0.6922256598128079 -0.2001634824533368 
-0.3115787589184544 0.1165134938598367 -0.2185206984634267 0.1254604849225521 0.1482405706363542 
-0.3546284315205204 0.4118850953468918 0.8101303759907905 -0.7300478859627142 0.1044908718366763 
-0.1309370515148809 0.0553187377724207 -1.072204708733584 0.5680419192051895 0.07760044266684445 
0.1065175395888577 -0.05131398759537083 0.3196261100912429 0.004859274386435014 -0.3253586879572857 
-0.6216355723455235 0.4884457995130388 -0.2102127706559472 -0.7801132494815577 0.5977510420256447 
0.261382193075717 0.03748939641158779 -0.4031391707339323 0.4155824051135241 -0.6999692627675607 
-1.333279649023574 -0.2106059774469198 0.8071904654337574 0.07016463794887212 -0.1305784641006952 
0.8130485095479683 -0.1203620241297357 0.8523029027956197 -0.8224605489321762 -1.05343283614541 
1.087714302140012 -0.7521402235347769 -0.1787555057753954 -0.2945229799171828 -0.3615292167333 
-0.7896359638642375 1.169677750622246 0.7857207563523605 -0.7913366671732351 -0.9482894646674334 
0.2453735038832391 -0.1403402204027835 -1.626037369435881 0.002685655607925386 0.3989596380394808 
-0.545555349634778 0.8368942008571331 -0.8979790898097715 0.1653277036127953 -0.1539282942148642 
-0.1325160408512123 -0.09180091282220224 -0.1719648916632654 0.08933696889297608 0.1018902678640809 
-0.4235870140837876 0.4006059921442762 -0.6532418061805172 0.6672006583015341 -0.6435013811380476 
0.5261793022292572 -0.08982523281618952 0.1419458527056259 -0.3381788668945617 -0.2073969453914623 
0.009609041184023361 -0.7636018071948053 -0.08573210194708314 -0.2055338218985959 0.6315147162989809 
0.005079802161373442 0.03715498143467706 0.1353134730860281 -0.1301718563215784 -0.0008498540726837017 
1.091098954304216 0.006833394202197958 -0.0283261131622827 -1.118764926045971 -0.167779181174653 
0.6184845792758527 -0.01328476208780553 0.4768210495097961 -0.7397151159382536 -0.2482531194297607 
-0.1763277291120415 0.2206066311244894 0.007319119399583631 -0.3105862305298402 0.1215233019877812 
-0.009552469459088964 0.6051167628958688 0.04569709229832048 -0.6803554301783927 -0.06194949850265775 
0.3751089621363712 0.3860083038873123 -0.5902237340416571 0.3680906809665469 -0.7479923325816751 
-0.7534700386173702 1.446454799226935 0.1000033886076572 -0.8137418312543033 -0.4811968767239578 
-0.6671233785284693 -0.1807518918837634 0.1186714808892016 0.1474297824365969 0.4122325358951868 
0.7041534348631864 -0.5526647555114889 -0.5883006398183898 0.2098128795340603 -0.1992182254100637 
0.1471384233791316 0.300292460370936 0.1019721455283887 -2.135709808397988 0.7465165529748012 
0.4624714556140358 0.2678414724031268 0.1825025824435554 -0.4214407811441666 -0.2780862783263486 
0.5990866640329001 -0.362029930871533 -0.6474398807701811 -0.3208991720893644 0.193386795863858 
-0.1820200669010733 0.2782577425644454 0.04542780413249684 -0.4148109358749307 -0.01708641544033021 
-0.7290769801057309 0.1336317802807203 -0.3094118438708287 0.0883742777537016 0.4516064999364579 
-0.002678545599574068 -0.6289279013593881 0.5368904004740133 0.1222097719066104 0.01798757871909571 
0.04434327651648717 1.00549728050459 -0.514123523651104 -0.6825545647172367 -0.759829994447842 
0.08236584359485363 -1.083427878530027 1.837997211904154 -0.6099136134665072 -0.1153333686801713 
0.8487179058482867 0.4085075329859731 -0.6881079024663366 -0.4372811131220971 -0.5867159340892363 
-0.5588849304412616 -0.7496830721890886 0.9813840239987339 0.331150635357488 -0.6233137611076018 
0.6423156479648284 -0.306483925017921 -0.2950819043179602 -0.05869770762970695 -0.8734409054661192 
-0.4117774043401223 -0.50941905706966 -0.6027357122789696 1.141462234347582 -0.3578870450668097 
-0.2872376139194853 -0.2992542811758273 0.1995064178931696 0.6687700258203504 -0.07049817949438328 
-0.7027813812559479 0.09535686312972647 0.7065802551278904 0.07754014833450537 -1.009288750263424 
0.1398225072019788 -1.141355151227495 0.64907789039783 -0.7194769271841459 0.730991712641835 
-0.6764904990521859 0.3224266132587019 -0.4669743710755945 0.0859025310175575 0.3203637074568526 
-0.2499549259399005 0.06578247929988262 -0.1426198146006725 0.1480640394202601 0.2225394699819042 
-0.3091945021925835 0.04780276729358439 -1.034820196826989 0.9621700442332735 -0.189118767658495 
1.436639406616113 -0.2785190006909356 -0.5053091441894629 -0.9319172751217938 -0.6149813134441214 
-0.1927589554630384 -0.05817043819618004 0.01428979439679199 0.1913550431322153 -0.2296398640789402 
-0.7791002145121673 0.9287642694952886 0.3929253214910706 -0.1032646886391996 -0.2610766494884614 
0.1420560923101896 0.5277196386492223 -0.9013797080498276 -0.3196314935063927 0.01262201430342852 
0.05484294044032081 0.5335233199950562 -0.3115922236135483 0.2544205156068688 -0.2617389682259985 
-0.3988182361419591 -0.1380810847604491 -0.5119317004094884 0.6114211480488552 0.03386752274974633 
-0.7408877063124731 0.1519101866852252 -1.379147723386109 0.3195871506029136 0.6060437859442669 
-0.3772531935471497 0.117382230635825 0.6562445430734594 -0.6622243577209544 -0.1855383140197671 
-0.0878245903993646 -0.1593714933118656 0.2271913171528664 -0.2519468673591878 0.2570803859704064 
-0.282219815646644 -0.2228879497919654 -0.05559686372876341 -0.2563798127038656 0.5707333118387014 
-0.3226033272345995 -0.1674735286885123 -0.7242382318962567 0.09153717111653752 0.9657252177967108 
-0.2708145848547566 -0.2200898198263098 0.3288788763913019 0.01819691330842621 -0.1514366507552153 
0.2222683273528782 -0.1302828078193703 0.07952911105014616 -0.2535862710178521 0.08153241332490975 
8.421272313309872e-05 -0.08687805134126496 0.005062516487499751 0.1449522733444877 0.04283468058751857 
0.7346958724334257 -0.976501386349339 0.04015631362819456 -0.3584366330406381 -0.05111635980801553 
0.7824858713279084 0.2706071954309907 -0.08365213270194632 -0.8182683503799105 -0.1021018671428284 
0.3205206495173458 0.04096875943312975 -0.0147387676558818 0.3755707019600814 -1.132036251951415 
-0.9886555823912694 -0.6087764065439072 0.5593260681444203 -1.028735970798656 1.089097773910932 
-0.941465508040798 -0.1010778364971781 -0.3613380220683496 0.4442228021984959 0.04972419089964698 
-0.2797191685387568 0.08286235861916894 -0.006939649613599608 0.06633364585956597 -0.01676598609662088 
-0.2012688359273075 -0.424328362579038 -0.1166334765900428 0.4250665151048688 -0.386597119669654 
0.006954121407651843 0.5256113842563093 0.6398759111798802 -0.1603591999875647 -0.7462096501297392 
0.109974347332564 -1.224653867306107 0.4415237529469617 0.3541020170692423 0.2718675026200939 
-0.2847394641053507 -0.6687927742807123 0.6481626339093489 -0.1586651580680986 0.2644826186060232 
0.6515829112284233 0.5828918675805628 -0.4340255542056883 -0.6350218482793034 -0.1179379183391447 
-0.1494370695942731 -0.3665575356991519 0.6818520871051497 0.2235219525315603 -0.1532544423514454 
0.1098201184176554 -0.8724727351589041 -0.6092411058302228 0.1086183323885841 1.175252941554908 
0.3095938387895286 0.004049618695381972 -0.2197040677315814 -0.1042048957071702 0.04234208710485336 
0.3103332325966394 -0.2104627365778377 -0.4870484555579259 0.6370262414766791 -0.165061873529994 
-0.3056714715152475 0.6253099341151804 -0.333479280833805 -0.4066800515343628 0.2143495651687681 
-0.7084837321356178 -0.8068570358739724 0.7147677789173158 0.5130674409153703 -0.4366021204827461 
0.1260343619024199 -0.5850493765270683 1.168223830680156 -0.4975869069329685 -0.1037820919185204 
-0.6172525500106446 0.5497916061617092 0.03220743992242438 0.2736198596446801 -0.4870228029666214 
-0.1644624937891407 0.07040159820927072 -0.1881246417208598 0.06616509578699015 0.1020807646239877 
-0.9003310878395433 0.546842574561455 0.05710598852226818 -0.2570733773948441 0.1840044133483063 
0.2290152691431385 0.09370802234735176 0.1709979090898549 0.3020600235391811 0.009581933865957057 
-0.0388410820071153 0.01366479033571339 -1.314318332666931 0.2751186859931919 0.4604649601993155 
3.187817865393805 -1.875215071040375 -0.9764859292617097 -1.911554690481121 -1.5098180707608 
-0.9415473935728933 -0.2288924404316471 -0.3443629875181918 1.011771195162415 0.1555240052175267 
0.2502390472923078 -0.306593850990514 0.3293249675083734 -0.2398837918286346 0.1589906772704088 
-0.4399926510493313 -0.4651837509837199 2.462749232401617 -1.359748839934148 -1.677294663357763 
-1.004586759928547 -0.2665084121418669 -0.3871018298495318 -1.742518864659148 1.487186795899163 
-0.1587832094612399 -0.8737486019924666 -0.3875701792257956 0.367508840508849 0.715849520784314 
-0.1872380792207838 0.3200814787140503 -0.3800528896240759 0.1678343231446129 -0.04062252267022416 
-1.284770711287585 -0.1838240384698713 0.4024744421663458 0.5635518800723778 0.1934002306037912 
-0.8055972237857446 -0.006691052979002254 0.03743872997196451 -0.08043561550406268 0.3190073049661558 
0.4338554412220611 0.5924423929377751 -0.08596438492941853 -0.05077952410084025 -0.2204187314042249 
-0.2085351213590694 0.4486577773413217 0.0197324096485549 -0.3165650157057278 -0.2405842377333302 
-0.3271286550261229 -0.1131576678203945 -0.2295902200132161 0.1112182918903691 0.3099407938159575 
-0.2244297050248568 0.4327364829239985 -0.1306136032859937 -0.1910388178863477 0.1742796234057704 
-0.1606733422375485 0.3790548313220797 -0.383109462907483 0.08547005506342968 -0.2147690191039934 
0.7071193532196547 -0.6844338584390732 0.9638234065594177 -0.6108960762202016 0.2113005769498272 
-0.5975615736595897 0.349927658018111 -0.6623743211386149 0.02522279495838971 0.6730862166285301 
-0.7716733070227716 0.2135354659562622 -0.5808683633436054 0.9757922009227027 -0.2031294628024709 
-0.6575162391234356 0.4042197346430523 -0.2740452732264078 0.08317141535046629 -0.004006145933707017 
-0.05709063813829925 0.4274865066570737 0.3006764334441451 -0.8096504319170477 -0.1125895170725472 
-0.100945369927384 0.1548430587241627 -0.6946465091387948 -0.1782630021042997 0.4017432168945174 
0.0001681235380335162 0.2633792780443179 0.3260462343140386 -1.064876896282922 -0.1892026318885947 
-0.1785226436457485 0.02521017983187426 -0.1805478953253171 -0.2148492752943211 0.4497627607327562 
1.055030951171131 0.5095538147092373 -0.2282164833776252 -1.256833750364918 -1.1628345665637 
-0.04321760490796123 0.01676574721303405 -0.3993160469436206 -0.2308220645629609 0.5514402191415606 
-0.05371655511704115 0.3749857447440516 0.7562800479658381 -0.5746083451071168 -0.3014317536775342 
-0.01968742796905255 0.387490782112587 0.05101942235015694 -0.4843074512193064 -0.1489028389760914 
-0.175838344089444 -0.04397907553049719 0.5857418985968504 -0.5435813626334058 -0.04994084232640204 
0.5981937308547219 -0.9996159041595719 -0.1446219419028948 -0.2043021780801449 -0.2167800457020432 
-0.09199422094186868 -0.2403029072791257 -0.2485630667593409 -0.5645377502110616 0.80386469879259 
0.2638744215413614 -0.05232316896729838 -0.6211442836661657 -0.6646155683709747 0.8805426840496107 
-0.6734754423116948 -0.1110545364261075 0.9854218909731448 -0.9271841383715653 0.2274958030925511 
-0.5029713101660941 0.04858327439542982 -0.5205745551654466 0.8302468026912383 -0.4200214593056011 
-0.7748372378929742 0.5279541689058525 0.3117939584122346 -0.544330603236842 0.0551778650143842 
-0.4886510769658313 0.7917001364295587 -0.3974704326157854 -0.2205136824563668 -0.0009205986938639055 
0.08581494096110345 -0.188040596101303 -1.362427225362488 0.7983043009613399 -0.02162015061852078 
0.2288510913945656 -0.1092668315402518 -0.9769667532699474 -0.2966684064453211 0.6182528179325673 
1.118039203919559 0.0858291168773183 -0.8018751432614083 -0.01570424885027921 -0.7340744953545885 
0.07088621101512896 0.7900138160879639 -0.25978559350124 -0.7427704891392414 -0.3267976506962184 
-0.5451247402251268 -0.5295997781656462 0.08018661646213807 0.6448585133854638 -0.2341423045731054 
0.2321159100108025 -0.2861707692216379 0.005210659901468941 -0.00848606416175034 0.05307091343861264 
-0.3072838319962824 -0.2352719982877576 0.07077211353034185 0.4777716761022948 0.05652219514607396 
0.8006966029628703 -0.820540756453386 -0.8324831595798959 -0.2707728887532219 0.4755844641789346 
-0.2206580716719528 0.4071520676014994 0.4862912629345881 -0.1113637782473145 -0.4035620653017344 
0.04457495190059286 -0.1555413564155347 -0.5818034898921247 0.6298539357586914 0.4234732810450651 
0.4303828258910551 -0.6586022610779915 -0.668708892291244 -0.1032981684268839 0.5101197172754349 
1.101200355961055 -0.9083520038361341 -0.2640173723932051 -1.428934346494287 0.8545987524004697 
0.03794267011517152 0.4680763445149205 -0.7172369935741698 0.2173177357883901 -0.3817614594586786 
0.05843209755861231 0.4140802477094142 -0.4512177538901321 -0.9889871814328334 0.8468727801796303 
0.2857014115980291 0.2366131928085937 -0.07557311146022448 -0.8654268229752737 -0.07822732594592453 
-0.203627005787564 0.3544618020033802 -0.4468850897336101 0.6107057907654146 -0.3410374143407348 
-0.1929642972788285 0.1819405458200976 0.4208623715327472 0.1024684289753935 -0.3675094162947052 
-0.07125344227043889 0.5032617761822531 -0.3639495467605427 -0.3866328658201307 0.1848196991510015 
-0.6469641565584197 -0.06498684027749457 0.320449192123919 -0.4851130651680861 0.468999368551561 
-0.475990358427249 0.2186208323795829 -0.08614520777703791 -0.199768585085102 0.100491335347407 
-0.280485475021821 0.3170135326446158 -0.187894875366921 -0.220514751803031 0.1654323154688448 
-0.8549047666012026 -0.1759126358976217 0.4094755794811606 -0.09393579524606541 0.4611541938104474 
0.1126516542328694 0.4303546475483221 -0.8757908834332121 -0.31629105311595 0.4034916015703069 
0.02408146714537614 0.1873969837274435 -0.2555343959041336 0.250498007003544 -0.1091539382073389 
-0.1075127034053817 -0.01758350124074541 0.1571855623419422 0.4963125652329587 -0.388126300873085 
0.5571413844646445 -0.09195779637737497 0.06301761822846043 -0.09123438993424168 -0.1569818872626651 
0.9771027754215106 -1.523042836564703 -0.5652116453632591 -0.3366133865533709 0.888101043191227 
-0.08292801365996887 -0.1517084082104466 0.4018039357746185 -0.1034315000792393 -0.3219790614347795 
0.5335506461666069 0.02779969399935596 -0.6903878441342203 0.08701325711395638 0.1291164561473036 
-0.7242927083206064 -0.2578914211319327 0.430083173659481 0.0571199776813215 0.03738699602918668 
-0.04549636911049264 -0.2160002954833607 -0.9656737617394553 -0.191038246740892 0.7677224676574889 
0.159106790573354 -0.1849329914189226 0.7566097723211789 -1.044598116560255 0.2127204220252418 
-0.1293739769409369 1.158830222236696 -0.589249926708899 -0.1619909328708264 -0.8040021831557081 
-0.8588595575333096 -0.7961291762054258 -1.030832384602614 -0.06481728688152759 -0.568495947842718 
0.2162417613941194 -0.6567916478750558 -0.4437392681913916 0.7162894162711486 -0.3210795876623745 
-0.5430248625063037 0.04925965253180804 0.7228051357935604 0.5338032643672892 -0.1320890963577517 
-0.4415249366942239 -0.5170578801929967 -0.2829697101643744 1.195324001299486 -0.03076398825320861 
0.1663345495982836 -0.4438509630411009 -0.3138913784405268 0.4726642178530008 0.52138601042126 
-0.4792819616014887 0.1564494515391435 0.8477118514324918 -0.2120306113769755 -0.5376006866087253 
-0.4967237533089839 -0.9501794026138052 1.191556668238337 -0.5256855537650426 0.1506715666842957 
-0.5996534174254412 -0.163758857629819 -0.2522695857507236 -0.6823477956723213 0.8298768269984081 
-0.9295760992150192 -0.3993169454493442 -0.1053809303214 0.7977782600328626 0.07476943971615489 
-0.08917378997445204 -0.5055502766835904 0.3758982581185277 -0.8555533316214898 0.6744400389523407 
-0.1506029849016238 -0.3978935441304098 -0.5045441304124036 0.8470226665138572 0.06004032516694044 
0.01729267950740273 0.692646157927673 -0.4542239648335592 -0.174760043951335 -0.2780531164011688 
-0.05573456084003772 -0.8711199146955841 -0.07614126086221538 0.6662805224914091 0.2289610215445912 
0.3080467979578027 0.3445813693710567 -0.4421870282491082 -0.1739688906721004 -0.2296883281775354 
-0.5301206489026973 0.397485447079168 0.2464799250209968 -0.2549658651297053 -0.08909607601738267 
0.02218790527206958 -0.4563653798554448 0.001106685396999825 -0.2018421287363809 0.3777768982235971 
-0.4489106323998246 -0.1485372087823972 0.3307633577888516 0.8136871716289016 -0.5223071201376899 
1.823358369086002 -0.4796933972442122 0.5089721475635838 -2.101902695863006 -1.058522277698381 
0.1541394028314265 -0.07878825755165157 -0.2130727608601649 -0.1349667810276186 -0.05666571943337179 
0.723385931458101 -0.5675729465152717 -0.5475266974155272 -0.4831642563568977 -0.04519660078518523 
0.7798219870361723 -0.7205907647874649 -0.09138071859987405 -0.549417757783036 0.2729090095086971 
-1.248188046911997 0.8132501033533628 -0.5608022047222693 -0.7751269186080909 0.5762892916198351 
0.2195192034225756 -0.8374271041382153 0.1664558034628429 0.3851505511355666 -0.1165100619664279 
0.629433025975649 -0.06938498291161896 -0.8365998857046386 -0.03351679992050975 -0.5167299757676951 
0.3697566858682797 -0.4200033833883805 0.04995677471432077 -0.5697961817131746 0.2867487107239167 
-1.258947821473494 0.6108225596861574 0.9785076428739523 -0.5711330026388964 -0.1757999860319998 
-0.1760384922115858 0.05278780106308377 -0.6038956533200411 0.4972297784023667 -0.05491957643250039 
0.3492663733542183 -0.08376871806054943 -0.6343438365653201 0.2075657623102466 0.01935493652809692 
0.252894291549368 -0.322361656982502 0.08656260865825101 0.3690494845518371 -0.4574214423661071 
0.0964874706263662 0.01940951738950616 0.4938350633598502 -0.568103329338833 -0.2542798554259295 
0.2534204464562364 0.3883810472738409 -0.1953684523558268 -0.4416577774876079 -0.3803810631610257 
-0.6103214238858777 -0.6550699744991849 -0.4287762776466044 0.8470992602695057 -0.02908013786605851 
-0.2677102224282339 -1.322955400770671 1.444204454403054 -0.943157498901534 0.07922372364898048 
0.6014573639956345 1.106353831084857 -0.03340667713227554 -0.4561533328438772 -1.328399733961326 
-0.9994454461209994 -1.298278674882769 -1.505984697312795 1.985743362691765 -0.7748069049524492 
-0.2933750724755198 -0.8156226695960417 0.2390235424697001 0.566929637316845 -0.1936207677979634 
0.4024057990653648 0.06584851931576775 -0.1981779057659968 -0.4035917544744301 0.1641108492950428 
-0.1904904199092087 0.4504584400204498 0.6636420422303138 -0.4536917651807009 -0.221555882914245 
0.8703991500822347 -1.273959084762555 -0.4021058247457128 0.1177498791856643 0.1920147788587279 
-0.5033239766396385 0.04857333886659637 -0.1054623995714446 0.6039676141050729 -0.2884519610159934 
-0.9351532626920742 0.8132971409038675 0.12118772402246 -0.2444525271989471 -0.310718433614824 
-0.7550952591168003 -0.2136673591523582 -0.01973476250620964 0.927865048823405 -0.370620442172432 
-0.5093510429166003 1.012264394629788 -0.1002455659925833 -0.6895298543345891 -0.1589665171082216 
0.3570117949643503 0.1672332479528436 -0.2479209808068465 -0.05165286792511453 -0.04279270384009188 
-0.1290231460609526 -0.2213241312260406 0.0004608395988204353 0.5588900229226477 -0.124750126127403 
0.3585343859817066 -0.5642192771147631 -0.1994239240177293 -0.2004494509180147 0.01744110789938011 
0.1279222731192591 -0.5917694316665061 0.4617946592062012 -0.5364910396687002 0.586164394610507 
0.06601456635980915 -0.4172275657262887 -0.7934119002171592 -0.5014147207269252 0.8147077974244308 
0.181784158506784 -0.4966911104740557 -0.1707081073026523 -0.07918606171048145 0.2399901020048486 
-0.03712401420786032 0.223955435990761 0.2290146812093212 -0.1277964916975162 -0.4199678653595275 
0.2408177676439433 0.6961367413811492 0.02094604753044801 -0.671061927761101 -0.5775547885523213 
-0.4685521279274457 0.2443672089122549 -0.2325560823287015 -0.3305678423466637 0.2083240444371906 
1.200566910126318 -0.1302035997849449 0.2182635779292068 0.1929671460996168 -1.116808129190244 
-0.1387869412052744 -0.8302242054036549 -0.1549646039948405 0.5671021039068367 0.2219352654637132 
-0.1107462366318819 0.6688876285137848 -0.2463072476032412 -1.090212260595165 -0.07415190046064736 
0.2153469415604038 0.1123538315331708 -0.4600129748196516 -0.5177588734231253 0.1381851460247647 
-0.04760027935430737 0.2291552163653375 0.5497188164599399 -0.4043001540428842 -0.405892312474249 
-0.2075164017675947 0.1647307109698892 -0.6287353186643208 0.0695178772464555 0.4090631344909243 
-0.1442643709823475 0.01035414206563045 -0.5077650389966134 0.5271117243144048 -0.2258932200562478 
-0.1235840279846504 0.1150629216515864 -0.03774517362315574 -0.2811811604752151 0.1422464029080056 
-0.357093576789286 -0.3779839578495873 -0.8986056685723407 0.9097080825728208 0.4322984905792515 
0.6991436455316612 0.4170022385706819 -0.8743902065840512 -1.177366800886083 0.3460840273747273 
0.9707185838007244 -0.7912406026929271 0.1398260963259255 -0.01993550929534157 -0.837168515528147 
0.640978979181524 -0.7920566993809425 0.2919557867995026 0.04447570360299394 -0.0168222582092044 
-0.6760105733570266 0.6334485396833568 -0.5141960668468516 -0.4282565080178661 0.4136846293337628 
-0.5389734697972749 -0.1852085951030492 -0.1121247516699783 0.6307483361609402 0.05832653736340718 
-0.6776757511653765 -0.302787385000343 -0.3435971802682504 -0.06095491422479949 1.653218933882632 
-0.1109367794940143 0.3504094029140875 -0.07975478609906519 0.3451124935155994 -0.3630972798428196 
0.5129945035975932 -0.2035988681529155 0.5380241360128708 -0.4920048262809309 0.2337998269807688 
0.01270760461290784 0.252527581854489 -0.3611747882214813 -0.1201834129158454 -0.05406847654842677 
-0.5528134950914255 0.09290966119930062 -0.8625151374727407 0.8782158689838835 -0.3031701560596794 
-0.2729406232451055 0.1366914200285212 -0.2252223379301469 0.5370904570386588 -0.2358980628284732 
0.3047055647754257 -0.4899662624672148 0.07019718476540303 -0.1662360598817231 0.2071560977053478 
0.743756548817601 0.3416683184252653 -0.8094754083453704 -0.2356674195781867 -0.4065059586713483 
0.2643000832095483 -0.1471379708115134 -0.3569849259452524 -0.05956283967744808 0.05065225295071182 
0.27917430213604 -0.189684662200221 0.7443635993465139 -0.6332379071647842 -0.09896221008742553 
-0.51494574291271 0.2531558542254833 -0.6620378584892136 0.1074847721889993 0.290065224101049 
-0.2359449859466418 0.6867043241006554 -0.6174000518701674 0.5488299290569243 -0.7727182089919356 
0.6481888586955905 0.2800378766116176 -0.406993741884192 -0.6328987411072169 0.1816856686519236 
-1.243132998294038 0.3774441808631789 0.06701707579202017 0.6496686415571052 -0.2564930696628693 
0.5023075828850858 0.1461134057996761 -0.1001028102125657 -0.6939280655622507 -0.1234217383460179 
0.09862560057883585 0.1117759932070498 -0.09095433826138544 -0.1294984940216221 0.1023376883578745 
0.1171673928003832 -0.7537701822595269 0.2533015908523238 -0.1746392623052874 -0.01103018863865717 
-1.05770693144782 0.009697997077319043 -0.002763893372235225 -0.6014997099168156 0.650541013443859 
0.6295314278695597 -0.8267394654514828 -0.03412811634226832 0.4999976462196562 -1.005556485785067 
-0.7665064229780706 -1.76421787811095 0.02199398875109417 1.259789022446843 -0.7649935646959348 
0.1275382613997987 -0.9543361818420502 0.5965935841770674 -0.6115320785625158 0.3998462244603572 
0.9535278225571246 0.1450673809446149 -0.2558262483086873 -0.3767763547272449 -0.5452907813923253 
-0.04260153812622666 -0.08231615722512038 -0.6114274486554061 -0.4376571745098577 1.025957104155483 
-0.691422798738914 0.25903664276486 -0.08868290457627445 0.6378849620506892 -0.2973082270098695 
-0.06295961686143847 -0.01413056428834146 -0.3795705651023042 0.70785636851663 -0.6472835580906448 
-0.9173621355848942 -0.3621718954770644 1.265629930860299 0.2401330610304228 -0.8466840766723406 
-0.5320453518413537 -0.2597834623962749 -0.6930176968537781 1.486141298088367 -0.9654418368822782 
0.6413421497789417 0.1328107530630393 -0.1254034924337691 -0.3699872039620241 -1.001172491098858 
-0.1597789115958284 -0.3573119107384597 -0.3035354626068137 -0.1182766391311782 0.5641736350459561 
-0.009352398584996067 0.4650900336626742 -0.408892837368788 -0.2250651493827681 -0.04049353646087278 
-0.4259585568147689 0.6996013044078818 -0.4976714345782304 -0.817754262213235 0.4197020057118488 
0.0840089163738966 -0.9853041481232988 0.6430766330559945 0.391315405958435 -0.2469309352831615 
-0.1454765036690705 -0.8195632680532501 0.4056418135894381 -0.04025345107557356 0.4709132084200531 
-0.4578733011408175 1.226065208261972 -0.3870330729254589 -1.871123752688147 0.6977128058834904 
0.1640868114351587 -0.05324029716765769 -0.3335499083708243 -0.07168550672373274 0.3404295611779237 
-0.9114643862640015 -0.5066640483526851 0.4717276118335255 -0.5194357516269377 0.5643953688802507 
-0.5890392031921317 -1.062663300507101 0.3065944514281737 0.1411560250983408 0.550065288600484 
0.5163200742652038 -0.5956392395983803 -0.4535874418976755 -0.0684209536048913 0.1158915587985869 
-0.4306038425312781 0.4730359838187868 0.6587058365699718 -0.5637298317284852 -0.1649186167274103 
0.2334165431252328 -0.562048925761769 -0.475711954839155 -0.2764422823970625 0.5176189327596959 
0.06736870707461443 -0.4124685392407588 0.3630794510449462 -0.342167115148357 0.1392638158769586 
-0.6432560531977233 -1.14693185981034 -0.6685760700245698 1.210418649480845 0.07398524091535082 
-0.2397429116697613 0.1055022317734244 0.2237184296382944 -0.2142554354774883 0.04819500840472021 
-1.477740225013505 0.5445034842243444 0.04270625358419396 0.4564810754279761 0.000886820172173397 
0.1948711168056149 0.4609045496325937 -0.743377821814622 -0.9370758353985994 0.3983864834607493 
0.06453841025903061 -0.4553225417965575 0.7988030331608517 0.08953564929827876 -1.32824069561265 
-0.09922681930959795 0.5770175276770636 0.7606941172542562 0.1278002494635526 -1.384401277991053 
0.06162192900522937 0.5106761279913433 -0.5752535432486795 -0.02254649925088017 0.09028201189585724 
-0.2493037298287011 0.4456347957586286 -0.8833557543516026 -0.2684757555651566 0.5617229415628467 
-0.6089016478479454 0.5654581581832906 0.1940361170322477 0.2481790421085912 -0.1428838958522339 
-0.09597596917981463 0.5573538340676221 -0.3044591934207373 -0.2661174456486023 -0.1560241244639761 
0.2332772179466542 -0.03951579995364027 -1.30686983043377 0.7029279078815004 -0.1791047468709094 
-0.7833050800911947 -0.1277504305601838 -0.9189894759322813 0.2496637133139324 0.765587901807647 
-0.04209314398845811 -0.2155660829444769 -0.07574950420815801 -0.02066017808003895 0.2319839385903708 
-0.9168229846198149 0.3202505801469159 -0.1056689355227297 0.2502463057616944 -0.09796581166634764 
0.4418299402730478 0.04432067696007829 -0.03981507073706647 0.07320522795952329 -0.3293291351180287 
0.9756484341462319 -0.07389339978374326 0.2884918404218946 -1.180937025856155 -0.08363584021507828 
0.0009518077025111992 -1.024755284247564 -0.02359903505992005 0.6430573684745876 -0.02374465486774922 
-0.8943291680462404 0.4424529645331851 0.1624454005237884 0.4976277741842132 -0.272385448275355 
-0.505258924326938 0.02492343134302882 0.2237423791404545 0.3244241090222982 -0.3247696081636198 
-0.2610026501888024 -0.2709650436693783 1.291050737461065 0.6720764378156457 -1.692120967799608 
0.3248202427860558 -0.1285313944109243 0.9356250680996664 -1.092818879044317 -0.1272888586328126 
-0.1699883484977209 0.3151943294430799 0.2218187434534395 -0.1495176900345873 -0.1527563456833563 
1.29341528778472 -1.439209156978134 0.2060168680155056 -0.8221045203968194 0.6191391329602344 
0.03043779594856418 -0.2719769111388833 0.1226639130650949 -0.4893880889739539 0.4856675651707891 
-0.1636487433419013 -0.3857044228544193 0.3010666529067612 0.2890872786537744 -0.03637887663341847 
-0.08394103083251789 0.1594122829973969 -0.6466051066160633 -0.09550777581801204 0.4797744854515663 
-0.1107106732165073 -0.6304187873604828 1.24720996389833 -0.2851927842984937 -0.1842662683342585 
-0.4501421910891708 0.1723575323842399 -0.2107148621958115 0.1910898891256317 -0.02875030387828583 
-0.1239034799192086 -0.2273418665655046 0.002957891690607731 -0.3402794714042082 0.2926217553033197 
-0.310865503434717 0.5911897729279725 -0.359701490766654 -0.1968401493696623 0.1439942774875735 
-0.1783527716199548 -0.2118313518589484 -0.4895559151128475 0.1239999130480354 0.2788204786147655 
0.3869816586778668 0.0004670366291713475 -0.3790841230459893 -0.3717392482259519 0.06730170178432771 
-0.3544915842619561 0.07535728752671358 -0.3528389525573648 -0.2796026039387914 0.4735669594958255 
-0.6367651244983576 1.672304786237517 -0.6113630119349541 -0.7351340567664895 -0.6788593935332237 
-0.9683026948944435 -0.1373962375599541 0.253341017749251 -0.1381636091725834 0.6493119473103175 
0.281669913396677 -0.5846392800427936 0.02311894366154202 0.05790347679477334 0.236525260172743 
0.03331834895390454 0.7620709450710046 0.4896651489155093 -0.3919849951975422 -0.6463495415315543 
-0.1349213116282012 1.237820304023203 0.1665794529069139 -1.124207486173423 -0.9656526234579934 
0.4082881099314809 0.3672954040042793 -0.265602047424836 0.05510178982078349 -0.8144464458831856 
-0.1824806871255889 -0.5120251214778935 -0.6702300414996132 1.034906445449538 -0.7926692265191744 
0.2125377415341723 0.09322858461433196 0.1167687191345889 -0.2333736320899376 -0.0387421017976947 
-0.007134400905423705 -0.7410962758202638 0.7414205920875423 -0.9447675477311563 0.7260696895357379 
0.24133546585023 -0.4139635637502532 1.031586483756314 -0.5377895283954466 -0.6319166036299855 
-0.3472352987636326 0.1103652856449754 0.4068524113900121 -0.9394547240705567 -0.2058397748849198 
-0.4755277221862866 -0.8334526759982703 0.2127417378180116 0.03482791455238703 0.3834896169551408 
0.4485345340268935 -0.4757935670262572 -0.5445230125135748 -0.1281956573533518 0.4392931912200803 
-0.02794245916824854 0.7976569957161233 -0.6195393425323137 0.2846790027623088 -0.2677564649187499 
-0.509864147106352 0.2954410035855619 0.2260730193509522 0.2810607269730694 -0.234076659638709 
0.5549062602561514 -1.091999833250454 0.995071617763311 -1.12547891590634 0.6568701409625883 
-1.151065003257374 -0.9401400068900001 0.331926608581226 0.3600946932273061 0.6408680576770004 
2.577613102721313 -0.8251524090116459 -0.1835550100082021 -2.610286399968438 -1.293593671707078 
-0.1276947789863507 0.3065884820557492 0.323293847538483 0.1918494795579677 -0.579835584708923 
-0.8588595575333096 -0.7961291762054258 -1.030832384602614 -0.06481728688152759 -0.568495947842718 
-0.8779317546891245 0.8408793430573369 -0.8555740361042206 0.1824198866608424 -0.3980007046151788 
-0.6757054568273494 0.08373022127207289 0.07905569130787239 -0.1140426571051821 0.222554196150701 
-1.349488844297396 0.303236815559168 1.150233785524149 0.108799879335698 -0.6660213848919273 
-0.2319680650004731 -0.3928139810494203 -0.1275097397802318 -0.3499169539275609 0.7103345438834943 
0.7949230255474301 0.5625025684798398 -1.004797768377593 -0.1263578415786736 -0.971164222298718 
2.526796623667061 -1.264802469905495 -0.4372434363132875 -0.7637221110950309 -1.520214087600374 
-0.02944883038670568 0.8710966050262815 -0.007996876707817849 -0.6753061048133799 -0.4914851653685541 
-0.4199203567615771 -0.2090283233991865 0.6814503854916206 0.1577040336232885 -0.1499309335683933 
-0.2840739860835731 -1.130866627857742 0.3934484412600041 -0.1059215665972486 0.5553051717328569 
-1.410025364031227 -1.322398657821927 2.849509615800354 -2.816597794088594 -0.507586276685331 
-1.21263279371879 -0.5043335551208784 0.2144137098272285 0.4544648122854152 0.5367032927423814 
0.06619994812507382 -0.2600362288446887 0.5031044586395476 -0.7442341389863408 0.0008632233242967351 
-1.388561900378072 -0.872981593851505 -0.7391832842132069 1.856895699599718 -0.9668236216776372 
-0.2712026288637905 0.08703038512728126 0.409532621597115 -0.7065253648219102 0.1471212288066198 
-0.6519248102314323 -0.6579560290014378 -1.367323438891466 -0.691813657977531 -1.006135234346345 
-0.187304968060749 1.120141754713566 -0.2228138466918261 -0.1738660094907699 -1.320106794618314 
-0.6710040756293332 -0.03974066356067336 1.069294287743183 -0.7006505796717297 -0.1560536803392316 
1.922137686969859 -0.5030006682317905 -0.7109357400342154 -1.249238199323298 -0.7952898070894172 
-0.5847785105278475 -0.144859267746862 2.123230494251807 -1.375828898724006 -0.9251286905965652 
-0.3826498323120119 1.06351233294213 -0.3059074543443591 -0.424828878004957 -0.4751748598529179 
-0.596241745675392 -0.7239820431285563 -0.4912904035369909 1.161239910655509 -0.3764787921980897 
-0.07049500484837852 -1.095461359303311 0.56926074914328 0.04265831786735412 0.4627797464780283 
0.4050756791337539 -0.4010020774597444 -0.4771525975290308 0.05294343733673889 -0.08781354142769518 
0.07469935938321506 -0.2500871710069395 -0.5161557039225116 0.3198562456896394 -0.266315283484942 
-0.6383863161665412 -0.8174122466203652 1.51124529217667 -0.7416767887379115 -0.5174895822590726 
-1.405070260840484 -1.182177210457935 -1.278427785319435 2.197929233568871 -0.2990868724220945 
-0.3335769205533156 0.3788513496576263 -0.05085013640509047 0.2022556197733553 -0.112873211467838 
-0.1123926904419091 0.30992911276261 -0.09737527537336109 -0.4101542748409223 0.1322753532116313 
-0.6657761997460634 -0.3852188673066707 0.9600238048337033 -0.1573869610791393 0.1492230067350873 
1.298222905295621 -0.9764126795536852 0.04178921479993195 -0.02527024001065676 -0.622785917034157 
1.731580822941821 -1.217242937701643 -0.8856792278450449 -0.7942787284078515 -0.1793657105628075 
-0.3949369094719311 -0.1545616881598193 0.09882410845861633 0.6410900715489066 -0.6392498831867192 
1.492269688509646 -0.01600233076358786 -0.5384213455807721 -0.807619819786338 -0.4020017997686929 
-0.8649804685910888 -0.2211983799498291 -0.2495664104370211 0.1661092754242798 0.6261613410369313 
0.5256124634270815 0.624108183558623 -0.5252278833951363 -0.4480346000242273 -0.577404306001019 
-0.1050074592562862 0.9539951640661614 -0.332019224997869 -1.339993739341724 -0.1538738385997069 
0.06635920772309481 -0.01109840710615485 -0.6963948315142582 -0.5957451219433497 0.6781766567491246 
-0.9927117166440277 -0.8662899328087941 2.344459227843105 -2.100475846176869 -0.722488904581485 
0.8975821079884324 -0.3531130723950077 -0.5354489424225138 -0.333602098056233 -0.06952074158252086 
-0.2850689201982899 0.2963160645844668 -0.3869771905509709 0.07890270336275924 0.06979356413783883 
-0.7541052876989776 0.1149737554346687 0.4297238234579048 -0.7652722425556511 0.6815578860360177 
0.7094114824419926 0.1108267069230527 -0.2628773764536628 -0.1567816784801365 -0.5916697285789413 
-0.1571688414677695 0.3181455130069771 -0.7462871769904061 -0.6445778953719071 0.3957750187937713 
0.3483454231351663 0.4283920914754993 -0.4462235035961314 -3.762823559571724 1.88018093822294 
-0.3991937589174802 -1.937098956389281 -0.4858131741001466 1.579545446362748 -1.919385519727012 
-0.1488131195448281 -0.2928629627751471 1.06863836302612 -0.6155782376909782 -0.2453433384227759 
0.6105719862633283 -1.003115627362257 -0.2516741344217587 0.2836654854715175 0.3761034162347172 
-0.7698585001930144 0.8317617178432771 0.06829432615659015 -1.139627433890971 -0.124571481563496 
-0.296760078664898 0.4397730280689935 -0.4843967424840788 0.1006599783206862 -0.3099577402373297 
0.04206309791430737 -0.4617347385325241 -0.5487720613007719 1.093157166275378 -0.6036468432051518 
0.2467238188863394 0.02012473372898677 0.02014027253928265 -0.4265040872522419 0.3578949887157164 
0.1905984838636213 -0.03060619741316062 0.3380827713902792 0.07255841439402193 -0.535066120441769 
-0.4725422516240597 -0.3490629595322114 0.255209806577818 0.06268834916038572 0.05887773720737016 
-0.7850905344465777 0.4564233520265542 -0.09641400054792265 0.2713931636229605 -0.1388149351286222 
0.1378929212960018 0.1472852818963766 0.5176053200325761 -0.952999628038935 0.1519868606057393 
0.1344877368551517 0.7562060596659763 -0.3700134266386839 -0.05143250515972327 -0.7119856085200318 
0.1339469600509067 0.5505990816918657 0.5518211532180484 -0.7017051598452277 -1.005820453349377 
-0.07686430048255045 1.320799848222389 -0.8557817779136085 -0.2350538979264735 -0.7416796435755106 
0.09760275646394419 -1.423113707972708 1.415610982435475 -0.2382540468086493 -0.3810305252768411 
-0.07198789368011149 0.514018229333141 -0.131411651597864 -0.6551217245594713 0.287979662460168 
-0.3038354426211881 -0.02020485777928323 0.6806201396740332 0.1717448648989141 -0.54250512325741 
-0.006627388812059688 0.6992101369617766 -0.2613485239292029 -0.08106795669425862 -0.3951617833416718 
0.5684016650052763 -0.1702236323490025 -0.3361320752713816 0.4407081995614297 -0.5330257225358107 
0.04143114554367405 0.3369622976064919 0.3683103089583447 -0.9585994567085134 0.06531982951360575 
-1.069865611430252 1.840335981671972 -0.1780546934278019 -2.242305603704419 -0.904820995953175 
0.9536150421475056 0.2902676362734692 0.5868158410854327 -1.417400033008722 -1.056345149549719 
1.054428412701015 -0.1958427196200234 0.1180612320958418 -1.377253500102624 0.178089253416667 
-0.3680536429986063 -0.4589335594022662 0.2184763455750728 -2.70744603707918 1.243730598344989 
-1.064361412401508 -0.3442598493444934 1.573180688155938 -1.907845020156415 0.1156687419779423 
1.631462732281122 -1.575110998266904 1.134679681798602 -2.596081856367994 -1.207072760291062 
0.4142399671591376 -0.7952650808624657 0.1925043020204518 -1.188191788502939 1.25790519221938 
0.7590625577176178 -0.06745176882901291 -0.007393548970705743 -1.542706589168268 0.1831046217839161 
0.5874578777190788 -0.1694794325305963 0.1266607201143219 -0.6690929950367953 -0.09567698866527297 
-0.4066967722657174 1.318452962661498 -0.7330133417057804 -0.1862225908795592 -0.3733853125880447 
-0.2417024043475698 -0.167200912012387 -0.09529712735642801 0.1616769657644239 -0.03035091576493881 
0.9590136919517602 -0.3645266610659245 -0.6434381203761399 0.08789539871960231 0.1340113607647669 
-0.9671465483950503 -0.2894819696784846 -0.4651084661779444 1.583272853009977 -0.187336977715038 
0.2418973814384539 0.2353139841579741 -0.6117862317623913 -0.6645460589215125 0.4162535333216921 
-0.2114852238705265 0.4103283730743173 0.00488919647726142 -0.5137518677563118 0.2000794026944045 
0.3605423267955648 -0.3060902783344595 -0.046568458667968 -0.0945555100935547 0.04695265562548505 
-0.6045433957616611 2.186222601988994 -1.324337225975948 -1.119528616341643 -1.166555998928307 
1.932288498069246 -0.4163032774788993 -0.2302428385088908 -0.7744807642600997 -1.085616012238043 
-0.4428370262888836 0.7526790801424026 0.09717661344093147 -1.229865658461811 0.2572892690563415 
-0.7999873447936368 1.206091463254796 -0.6363733434887261 -0.6049603097944907 0.1454390684361616 
-0.3934389525666126 0.8231178497323909 0.1610521636563392 0.1056478442918863 -0.7039720647146743 
-0.388597644344058 -0.2450100760808194 -0.3596622432962928 1.587418661573791 -0.8902994055220828 
-1.01917868436467 0.172465699479506 0.9677722219358451 -1.288328055011814 0.1618473242334853 
0.2377670076432667 -0.3708048233937755 -0.3094745013479167 0.3099303654102541 -0.1151470290964185 
0.3379075616015748 1.152747859721921 -0.2494404540737028 -0.0546542123241563 -0.9523486314947798 
-0.004736111245877674 0.1712298894775713 -0.001496579565836446 0.2018845405033972 -0.2602559145492971 
-0.7532473993861776 1.079003844938796 0.4337584902197776 0.2690009781593611 -1.155644553939248 
0.3497888554583894 0.1117215409949898 -0.3863549913611416 0.01569202622809991 -0.260095470534759 
0.7982666755851852 -0.5997356696420268 -0.1874285691661459 0.3759168855958466 -0.680422373432232 
-0.3053661024102088 0.1344477595432922 -0.05015828323565649 -0.1365499506408419 -0.3376309876929495 
-0.1734075047166047 0.6119710623959896 -0.2292522720871693 0.1770697586599826 -0.5425246753212777 
0.4494796540500678 0.3826221143901022 -0.5505722806671713 -1.537029296167544 0.2528117908516422 
0.03895491870254869 0.08391360546382567 0.301125166037892 -0.1284992417215593 -0.02806012393230598 
-0.2609834184014237 -0.361143645736175 -0.3095129139931359 -1.639987389589353 1.521676912665927 
-0.1327658517646041 0.200572507030238 -0.1121732529645748 0.3048117856249361 -0.2112156762876787 
-0.3946944966051792 -0.5012167444903268 0.4917893817008249 -0.320583465126099 0.2301591555016963 
-0.5503709531227726 0.4417849622968482 -0.3451023867265458 0.4345100175761221 -0.1663383111480139 
-0.0356254105617316 -0.04799342619462857 0.8718672236736655 -1.01009159443208 0.1618906471447686 
-0.3193134050758348 -0.1858603934774168 -0.4650689165886795 0.176319801150331 0.4976583782747531 
-0.8130562276875781 -0.3922817623601569 0.3528835925438935 0.4104446571967022 0.3729631851231437 
0.2390350916131616 0.105186947937286 -0.7692947975290019 -0.01657896117980073 0.03026237732181484 
0.9284797582265083 0.0410891760117781 -0.1866853545093731 -0.281758459164468 -0.5064488457280545 
-0.5659363831295947 -0.00690542340049586 -0.1376153354899632 0.7437497025624362 -0.281636758351793 
0.6421551043557305 0.5018632975063499 -0.4533481848809403 -0.5977820580769665 -0.8137826391551921 
-0.01032328139968873 0.1455442203174833 -0.4948888007586154 -0.4026015608043508 0.1434091074374604 
1.408733832938119 0.2853864696881468 -0.3833248293113122 -0.4155902997282501 -0.7618869842900705 
0.6610574877346621 -0.3373197427186886 -0.5150980579535002 -0.02872985468935541 -0.02905860100950904 
1.686794081175074 -1.37626565782813 -0.6291604211604488 -0.6574853903763066 -0.8345246079276648 
-0.09072518321932045 -0.4354553153482892 0.761951459975397 -1.145910966594338 0.6852350276325379 
-0.6068388449922506 -0.3153606859456345 -0.6441921460952764 0.5768055916930385 0.627346307026764 
-0.6214052611234859 0.3656299970415873 0.1064950186110029 -0.4423778616031683 0.1141224210069097 
-0.2688628182694947 -0.168907751258666 0.2084636771795787 -0.1241960124667675 0.2129600407968089 
-0.2028078055997912 0.01413195975963646 0.2359193118390235 -0.3476084709678753 0.4260377776564662 
0.5047025007019172 -0.6847225857027006 0.09985908482044939 0.2774715877053421 -0.2989116162880698 
-0.1010766335342475 -1.556637451551803 -0.1257825212234816 -0.6592389122812833 1.145853437933614 
-0.2481371175850689 -0.4557106986394344 -0.5093440352134674 1.321568390787666 -0.8259853632090531 
1.872465588532067 -1.391415720493764 -0.3735511219844947 -0.01352688652016189 -0.5261218608659295 
0.08390849841114748 0.1917806730044163 -0.02778488113431472 -0.5007359288601636 0.1326279929825832 
0.4305936368935094 -0.7957139382552643 0.6270794825163138 -0.5454087221092606 0.07183064257974271 
1.352717796331324 -1.00469365133524 -0.2579768766244088 -0.3052136905339756 -0.0880788465356853 
0.2021468222070642 0.0813985800978808 -0.458889585171197 -0.09256333498035431 0.1822631024418289 
-0.3738603653961581 0.3002549239008968 0.1003443817281237 -0.1879801669742325 0.005066836733574749 
0.7174692593302729 -1.249145858361063 -0.3331077237147466 0.6442127089003054 -0.6056236766431879 
-0.1884996017814782 0.05720577096992108 0.2363747971990013 -0.02984994324927898 -0.07709403254124156 
-0.3049094827319185 1.250028682039962 0.2681326936644505 0.1665983174115297 -1.479752230698118 
-0.5201883087639301 0.1616849470635185 0.1695209541322865 0.4274873081011477 -0.4503808672092851 
-1.272644674891996 -0.5382020906119963 -0.7193128560356259 -0.8557284887255251 1.833686558299191 
-0.4134597855726547 -0.1919667796470294 0.1184389004149345 0.1697075668384625 0.3522310951512577 
-0.5781081091971355 0.2671028870287077 0.196287628530018 -0.6555241612980252 0.5900497508968238 
-0.4460625288624364 -0.5917737068508524 -0.583129233693365 0.903054423188368 0.2839410426442476 
0.09606536338852441 0.1464078502221461 -0.1923511178533941 -0.35018275114522 0.2003587312088357 
-0.158369424798835 -0.1530799229981453 -0.1725441500164462 0.02233379575927088 0.3532816926881999 
1.236644146903738 -0.2473132976699603 -0.5908403389445536 -0.8499352024888294 0.06511648942433837 
-0.5642576186638633 -0.04128952492012713 0.4404392755199328 -0.7929437730508545 0.5163578655671898 
1.109142900232158 0.09631441967904923 0.83076016452351 -0.1805168936697867 -1.461194260462335 
-0.2113162960686371 -0.3258746860858769 0.3091594895665573 -0.1023376766798122 0.3430519466190879 
0.4079794429099441 -0.9679183825880496 0.01397255004573264 -0.4251291083904787 0.8845186309393469 
-0.6096332797081656 0.8105293896328577 0.617913798341947 -0.5602191757485132 -0.8260402021550768 
0.2839336052637591 0.3993498506581773 0.3877693141513726 0.248879426411304 -1.263002626004128 
0.6499556396671196 -0.3879979225507903 -0.01669920034563267 -0.3968738387844012 -0.2365234475395432 
-0.002855543379632648 -0.4155477318421689 -0.9842426316311251 0.7943486648542099 -0.06268956061975225 
0.147068925312019 0.3971881439189495 -0.9823920558916763 0.4809788801197641 -0.3720051904942862 
0.4175660368255786 -0.2230419563794532 -0.007365986469365147 -0.2668179562551403 -0.02257097945365179 
-0.7124490006386078 1.022781416508707 -0.06520890110060762 -0.01143367988144882 -0.4907398974765242 
-0.2650937896347444 0.7420455481094653 -1.039414612593598 -1.457942662178558 0.8589773799488588 
-0.1813294046858721 0.7769537674586875 -0.6525757219278985 0.250036476274546 -0.01669185459875637 
0.1679528758191094 0.05961922383051438 -0.9818615512567166 0.08090507411199704 0.07575680173202576 
-0.09062192113749037 -0.1411528212594977 -0.1102471793840494 0.1398409293463099 0.07303644668130624 
-1.536195221406764 1.426752701569904 0.3421460004510034 -1.308474585272737 -0.1693044603043399 
-0.625376162382722 0.1525048588711281 -0.4834203183453227 -0.1401019595215841 0.5249341380257891 
-0.02526809540972465 -0.4451178495492372 -0.7907514241617937 1.379125396453295 -0.6084999030392032 
-0.1361373704215528 -0.1233198160065945 -0.005895446703560413 0.235478035344089 -0.02636984210031241 
-0.5217717594797395 0.2214196659993797 0.3485152989745421 -0.1940930331100317 0.1335384328708431 
0.6763120586751538 -0.3818173286582585 -0.3134632394466411 0.03763347217417669 -0.4117636708950463 
-0.08905000225437196 0.4570489567322683 0.7257134277081814 -1.165360483076725 0.1574126997799169 
0.00861315818601344 0.2153225482651084 0.1004587743454391 0.2284142277580377 -0.5812565407049164 
-0.9278679588117605 0.5277541536167497 0.6003403797321577 -0.5913562953569348 0.05085796091132906 
0.08379435531812232 -0.0178915301155561 -0.02871526552278886 -0.4761864739059743 0.4811194371732465 
-0.2968224204870561 -0.4473690660082548 -0.5623708504642163 0.7174791139248056 0.1135827315873203 
-0.2110298839657571 0.2758271691935747 -0.2735420588242674 -0.5232441581500539 0.3233635277524099 
-0.4024674547844144 0.337069786148155 0.4708597603235627 0.02081935921789813 -0.3278029802858299 
-0.4194811061297494 -0.3854910673705677 0.1968841385044766 0.2266209928277509 -0.00516440719482377 
-0.3417035355460835 -0.6597854026339888 1.375559178356949 -0.6228118790399586 -0.7394288612415496 
0.6182298636875914 0.08237656362280334 -0.2518053247205188 -0.8065673592940671 0.3797317128495389 
-0.01619498249234543 0.1701770400783925 0.04062892493685651 -0.1435521316101998 -0.073657422414036 
0.1236737565101634 0.6695409680724121 -0.1027148968744919 -1.220422417422016 0.09598155543168141 
-1.37283553310899 1.529670501634877 -0.4970711601490511 -1.68337498213258 0.1966341860856654 
0.6979693829593088 -0.3534691875352974 -0.8656897833310846 0.8117817898797539 -1.359532168528557 
-1.038691641061213 0.5633902727333617 -0.05919273354150249 -0.7368012906732774 0.4041652649060286 
-0.05479885740008698 -0.6281971932772281 0.01789683316706557 0.4365276304562461 -0.1497825274714384 
-0.4600701013172989 0.5663941105417929 -0.4301910088369358 0.5287377517639676 -0.5573582020679236 
0.04575250159745688 -0.1580745820994833 -0.0629387292866565 0.04262514370714974 0.1238982207874453 
0.07658112120826528 -0.1850560223476355 -0.5042099331519553 0.0760967521663751 0.3043025565093079 
-0.5081788317873749 0.9336542281155543 -0.2003601328455107 -0.1585714762142565 -0.2390923696348871 
1.370692701023076 -0.4945593302699096 -1.163630261000878 -0.8986579212136828 -0.635139398310859 
-0.781241614145374 -0.0458232334394894 -0.7854662510959788 1.179134025926473 -0.1010743956339625 
-0.1021559445474771 0.3242177693969447 0.3651006415662766 -0.2465520069251473 -0.06818618452942364 
-1.401684055101817 0.4411574642519166 0.2047271649642744 0.1889870580125226 -0.2173116784726209 
-0.3785955170507773 -0.4715227634261667 0.2168457260230282 0.7650658761783495 -0.1051647632754604 
-0.006706896414994343 -0.118146833674082 -0.5907330684084886 0.3956975754022871 -0.04253201400993809 
0.2226221959066026 0.3045754591056151 -0.3894438821434379 0.2063177335319178 -0.2293452243400576 
0.9104071634328829 -0.8240739810577634 -0.2017066505236043 0.06903873709692959 -0.6100425830245229 
0.07736725199421401 0.02719930695513315 -0.1100176845209949 0.01580644672523412 -0.005341016096413425 
0.8373018024426178 0.3370773613974939 -0.9930977545736418 -0.6209648779538346 -0.4807908206291794 
-0.436908689145598 -0.07595055837012674 -0.1393020930419359 -0.6139542777552699 0.8006448084885385 
1.067310859054969 -0.3944063094909718 -0.4372575093407738 -0.6631077860070336 0.1578799121975693 
-0.3592179162708963 -0.6500015961661355 -0.3517144480699234 1.004011512659795 -0.1168868852205469 
0.6715170141174328 0.1370685847389025 -0.118370863625787 -0.3897083713810746 -0.211734515933453 
0.4223316749357033 0.168145520884165 -0.2656283311121145 -0.5804238352734425 -0.121089123080972 
0.9031636119594508 0.6931317543496289 1.261378949023248 -0.1116750834197131 0.7275961972590854 
-0.9037230280251555 0.4927955233790858 0.3736593181895747 -1.078124328653791 0.07978697229315064 
-0.6979450795489146 -0.2204636218435501 -0.1493881698774124 0.6487800356422313 -0.2128713333736564 
1.245474874921487 -0.2805168762393254 0.2018056237349046 -0.0914374966403837 -1.001962530181822 
0.4933959826576292 -0.4768173200695016 0.2261082812957893 -0.1522363108142429 -0.2437633833610481 
-0.2263227195915714 -0.2031664045377478 0.8085423006902261 -0.3204522235995073 0.02090020983871765 
-0.911953675253328 -0.3218974175621489 -0.4691846706342011 0.7042168147093668 0.3708110001954949 
-0.5243934843586502 -0.2037453382803283 -0.4570452842564778 0.4524461227872885 0.5915936536970231 
0.2083111279451506 -0.09486828310596095 0.3287462070278849 -1.079277806238937 0.474636790423774 
-1.221448014378345 -1.149432382881348 -1.114064797160321 -0.1746259882277101 1.895626738974297 
0.2044905857186619 0.2241516032868891 0.3830204218632932 -0.3526410467960071 -0.149604676014358 
0.7118032501032293 -0.4186475147401371 -0.4045262114754197 -0.01075984607172789 -0.06502885949276116 
0.00195693109971095 -0.03354129440404423 -0.5235090579912041 0.4000619391496618 -0.1896133795223665 
0.1252410610107188 0.1490530209751769 -0.2242499948037921 -0.6858500881922291 0.2223844527030171 
-0.4801475896352588 0.2527691350277136 0.6288069276427912 -0.4926047625661162 -0.1273694268994711 
0.418148425820588 -0.1757875613083573 -0.04413818170762875 -0.09076198995971857 -0.01749483954805247 
-0.1112380082535358 -0.08828751796879149 -0.3625025916766951 -0.3532808740749639 0.4024710055514395 
-0.4385697749326061 -0.594067265813832 -0.08771197576929896 0.04515170277118214 0.5121129081551793 
-1.220486640881062 0.9935742223652746 -0.3645183029940923 0.4183860518968872 -0.2926170127886705 
0.5074637506774439 0.1165709770947014 -0.1991178077923166 0.3539650574169245 -0.726364204595662 
0.03332413449274888 -1.169386667023322 1.035620849244881 0.2914314892766087 -0.1292081925290041 
-0.2635934376798454 0.1446748453528313 0.5901734780916617 -0.5472788066606178 -0.273386901121446 
-0.2971439664224241 0.1883451057517921 0.0339488104276201 -0.0303345501189345 -0.08778676567215664 
-0.01349590504789236 0.3337042502425939 -0.5964444184088894 0.4137701798791775 -0.3655050303939024 
1.062152911856352 -0.4650886645020376 0.6070212538781127 -1.403165167714622 0.2480821106598403 
-0.1746053525486641 0.8504035413882827 0.06558913876716174 0.1550109981602212 -0.9717643338864037 
-0.8128404540402413 -0.9352848338408347 0.2045467329959704 0.1212482213040923 0.601772824985635 
-0.8511498082908805 1.083394756140214 -0.8401510424032442 -0.302262240447564 -0.1485470799965227 
0.3585570224518947 -0.7177840566766597 -0.2992864896727922 0.1418027246533335 -0.1626283411056625 
-0.5413485667865272 0.05589648408309175 0.1338382003873111 0.09901033254842903 0.06999583779269593 
-0.6940040609194857 0.1450461406258691 0.9417596103910757 -0.4497679509941078 -0.1150964506749067 
-0.07378020957498432 -0.7005847836359731 0.4345065203772918 -0.445373760311465 0.5278226062872247 
-0.2448250216016964 -1.193182590479081 -0.1403953087818852 0.5888536415910318 0.1172121558323456 
1.389713625411227 -0.8672450699938407 0.2594496503486682 -0.6808200389006356 -0.8148148984782376 
0.0731585690219909 -0.01307689623606369 -0.4093872900708861 0.6159611637711381 -0.3616513911576295 
-0.243704459425649 0.3635927049750677 -0.3910660863799406 0.1899930713542512 0.4431953059466384 
-0.582799514970488 0.1255931756356821 -0.7003420049495011 -0.6455443700351822 0.5371322844599101 
-0.3417564282369562 0.4353597885113439 -0.178784416885386 0.5451747695499973 -0.7776135398410603 
-1.143251640519731 0.6377711868495755 -0.6203490164590749 -1.705210716699022 0.4267768195253125 
-0.1376826150887489 0.08126776575009087 -0.1198538412365282 0.2964071248588694 -0.006962600449379977 
-1.535464621687123 -0.4786982351057035 0.4130982437602926 -1.333204261116907 1.149218153394043 
0.219552613831459 0.1247643768193 -0.4110720316535041 0.28500477207255 -0.7697782739936267 
-0.2082593280969316 0.5669272081845592 0.1793199875443782 -0.09865685051490547 -0.5759760410352515 
-0.1666526930210715 0.1288541799971006 0.6787588375696059 -0.08352880177787446 0.0002278151762836883 
-0.4395735772941607 0.8150161495444064 0.27752934820911 -0.3303612284827198 -0.5722129552959215 
-0.2192087966597815 -0.2489900633800914 -0.2396475221387912 0.3530044494686214 -0.06677888560613612 
0.3258188133905071 -0.7941594474251381 0.2512854246310763 -1.085300808907355 1.01096544188413 
0.1715628890858619 -1.157754626110482 0.5662334537194018 0.2267914372953271 0.05301753368698829 
0.3373005153482293 -0.5305154851632765 0.2225146956174542 -0.2703066970785746 0.2565085041229799 
0.4181580300681753 -1.204724284993721 1.050828021002833 -0.8608387913794218 0.8230451585550963 
0.2136418145568146 -0.04732801616075399 0.2437202579624133 -0.5719542815330365 0.02539599817285106 
-0.05455950165293078 0.1198021869140988 -0.1585478273938322 -0.008089016507949014 0.3215027287921141 
