svm_type c_svc
kernel_type rbf
gamma 3.8552e-05
nr_class 5
total_sv 31808
rho 1.15348 -0.861784 0.884103 1.03639 -0.974874 0.507829 0.907501 0.826396 0.947146 -0.370313
label 4 1 3 0 2
nr_sv 5447 6138 4532 8052 7639
SV
1 1 1 1 1:1 2:1 4:1 6:1 7:1 8:1 9:1 10:1 12:1 13:1 
1 1 1 1 2:1 4:1 13:1 16:1 19:1 20:1 21:1 22:1 23:1 24:1 
1 1 1 1 2:1 4:1 13:1 26:1 27:1 28:1 29:1 
1 1 1 1 2:1 4:1 5:1 13:1 31:1 32:1 33:1 34:1 35:1 36:1 37:1 38:1 39:1 
1 1 1 1 2:1 4:1 13:1 41:1 42:1 43:1 44:1 48:1 49:1 50:1 21258:1 
1 1 1 1 2:1 4:1 10:1 13:1 53:1 54:1 55:1 56:1 57:1 58:1 59:1 60:1 63:1 64:1 65:1 66:1 67:1 68:1 
1 1 1 1 1:1 2:1 4:1 6:1 12:1 13:1 46:1 47:1 49:1 58:1 69:1 70:1 71:1 72:1 73:1 74:1 75:1 76:1 77:1 78:1 79:1 80:1 81:1 82:1 83:1 
1 1 1 1 2:1 4:1 13:1 77:1 85:1 88:1 89:1 90:1 91:1 
1 1 1 1 1:1 2:1 4:1 9:1 13:1 19:1 65:1 75:1 93:1 94:1 95:1 96:1 97:1 99:1 100:1 101:1 102:1 103:1 
1 1 1 1 2:1 4:1 13:1 38:1 57:1 104:1 105:1 106:1 107:1 108:1 109:1 
1 1 1 1 1:1 2:1 4:1 12:1 13:1 19:1 53:1 73:1 74:1 77:1 86:1 111:1 112:1 113:1 114:1 115:1 116:1 117:1 119:1 120:1 121:1 
1 1 1 1 1:1 2:1 4:1 5:1 12:1 13:1 19:1 49:1 75:1 123:1 124:1 
1 0 1 1 2:1 4:1 12:1 13:1 62:1 70:1 73:1 74:1 86:1 126:1 127:1 128:1 129:1 130:1 131:1 132:1 
1 1 1 1 1:1 2:1 4:1 12:1 13:1 19:1 53:1 64:1 68:1 103:1 134:1 135:1 
1 1 1 1 2:1 4:1 13:1 29:1 136:1 137:1 
1 1 1 1 2:1 4:1 13:1 25:1 65:1 77:1 138:1 139:1 140:1 
1 1 1 1 2:1 4:1 13:1 68:1 86:1 142:1 143:1 144:1 145:1 146:1 20312:1 
1 1 1 1 1:1 2:1 4:1 13:1 19:1 48:1 109:1 147:1 148:1 149:1 150:1 151:1 
1 0 1 1 2:1 4:1 6:1 13:1 46:1 47:1 65:1 73:1 86:1 153:1 154:1 155:1 156:1 158:1 
1 1 1 1 2:1 4:1 12:1 13:1 42:1 57:1 59:1 160:1 161:1 162:1 163:1 
1 1 1 1 1:1 2:1 4:1 13:1 68:1 73:1 77:1 126:1 165:1 166:1 
1 1 1 1 1:1 2:1 4:1 8:1 13:1 48:1 57:1 74:1 97:1 103:1 138:1 167:1 168:1 169:1 170:1 171:1 172:1 173:1 174:1 
1 1 1 1 2:1 4:1 9:1 13:1 32:1 38:1 75:1 77:1 126:1 127:1 170:1 175:1 20857:1 
1 1 1 1 2:1 4:1 13:1 19:1 38:1 65:1 110:1 111:1 177:1 178:1 179:1 180:1 181:1 182:1 183:1 
1 0 1 1 2:1 4:1 13:1 73:1 77:1 126:1 166:1 185:1 186:1 187:1 188:1 189:1 
1 1 1 1 1:1 2:1 4:1 12:1 13:1 49:1 161:1 190:1 191:1 192:1 193:1 
1 1 1 1 1:1 2:1 4:1 6:1 13:1 19:1 73:1 74:1 77:1 161:1 194:1 195:1 196:1 197:1 198:1 200:1 
1 1 1 1 1:1 2:1 4:1 13:1 49:1 111:1 202:1 
1 1 1 1 1:1 2:1 4:1 12:1 13:1 19:1 53:1 57:1 65:1 120:1 173:1 204:1 205:1 206:1 207:1 208:1 209:1 
1 1 1 1 13:1 83:1 125:1 210:1 
1 1 1 1 1:1 2:1 4:1 8:1 13:1 49:1 65:1 95:1 97:1 103:1 212:1 213:1 
1 0 1 1 2:1 4:1 13:1 29:1 214:1 215:1 
1 0 1 1 2:1 4:1 13:1 29:1 217:1 
1 0 1 1 2:1 4:1 12:1 13:1 34:1 50:1 65:1 68:1 73:1 110:1 111:1 175:1 177:1 219:1 220:1 221:1 
1 1 1 1 2:1 4:1 13:1 20:1 161:1 223:1 
1 1 1 1 1:1 2:1 4:1 12:1 13:1 19:1 73:1 110:1 111:1 177:1 224:1 225:1 226:1 
1 1 1 1 2:1 4:1 13:1 29:1 34:1 58:1 60:1 228:1 229:1 230:1 
1 1 1 1 2:1 4:1 8:1 12:1 13:1 65:1 73:1 74:1 86:1 232:1 233:1 235:1 236:1 237:1 238:1 239:1 240:1 241:1 242:1 243:1 244:1 
1 1 1 1 2:1 4:1 5:1 13:1 94:1 95:1 168:1 
1 0 1 1 2:1 4:1 13:1 47:1 49:1 54:1 65:1 74:1 246:1 247:1 248:1 
1 1 1 1 2:1 4:1 9:1 12:1 13:1 80:1 166:1 249:1 250:1 
1 1 1 1 1:1 2:1 4:1 12:1 13:1 103:1 200:1 251:1 252:1 253:1 254:1 
1 1 1 1 2:1 4:1 5:1 13:1 27:1 201:1 212:1 220:1 245:1 248:1 256:1 257:1 258:1 259:1 260:1 261:1 262:1 
1 1 1 1 2:1 4:1 12:1 13:1 77:1 264:1 
1 1 1 1 2:1 4:1 8:1 13:1 57:1 103:1 
1 1 1 1 2:1 4:1 13:1 68:1 266:1 
1 1 1 1 2:1 4:1 13:1 48:1 80:1 268:1 269:1 
1 1 1 1 1:1 2:1 4:1 13:1 19:1 49:1 58:1 65:1 77:1 101:1 272:1 273:1 274:1 276:1 277:1 
1 1 1 1 2:1 4:1 13:1 49:1 50:1 77:1 86:1 150:1 161:1 202:1 280:1 282:1 283:1 284:1 285:1 286:1 
1 1 1 1 2:1 4:1 13:1 58:1 110:1 111:1 288:1 289:1 290:1 291:1 292:1 293:1 294:1 295:1 297:1 
1 1 1 1 1:1 2:1 4:1 5:1 8:1 12:1 13:1 73:1 81:1 94:1 101:1 161:1 188:1 298:1 299:1 300:1 301:1 302:1 303:1 
1 1 1 1 1:1 2:1 4:1 8:1 10:1 12:1 13:1 19:1 48:1 97:1 113:1 120:1 304:1 305:1 306:1 307:1 308:1 309:1 310:1 311:1 
1 1 1 1 2:1 4:1 13:1 32:1 86:1 103:1 161:1 312:1 313:1 314:1 315:1 
1 1 1 1 2:1 4:1 13:1 34:1 316:1 317:1 
1 0.8957108980307248 1 1 2:1 4:1 12:1 13:1 16:1 42:1 68:1 73:1 86:1 217:1 318:1 319:1 320:1 321:1 322:1 
1 1 1 1 1:1 2:1 4:1 5:1 13:1 19:1 50:1 58:1 77:1 84:1 103:1 109:1 200:1 294:1 323:1 324:1 326:1 327:1 328:1 329:1 331:1 332:1 
1 1 1 1 2:1 4:1 13:1 47:1 49:1 50:1 65:1 80:1 143:1 334:1 335:1 336:1 337:1 338:1 339:1 340:1 341:1 342:1 
1 1 1 1 2:1 4:1 12:1 13:1 111:1 
1 1 1 1 2:1 4:1 12:1 13:1 349:1 
1 1 1 1 2:1 4:1 13:1 73:1 77:1 94:1 109:1 152:1 161:1 168:1 202:1 207:1 351:1 352:1 353:1 
1 1 1 1 2:1 4:1 13:1 50:1 103:1 355:1 
1 1 1 1 1:1 2:1 4:1 12:1 13:1 
1 1 1 1 2:1 4:1 5:1 13:1 152:1 359:1 360:1 
1 1 1 1 2:1 4:1 13:1 
1 1 1 1 2:1 4:1 6:1 8:1 13:1 64:1 65:1 110:1 111:1 139:1 143:1 161:1 170:1 188:1 327:1 362:1 363:1 364:1 365:1 
1 1 1 1 2:1 4:1 5:1 13:1 38:1 46:1 49:1 86:1 122:1 124:1 152:1 249:1 366:1 367:1 
1 1 1 1 2:1 4:1 13:1 65:1 86:1 101:1 173:1 201:1 249:1 368:1 369:1 370:1 371:1 372:1 
1 1 1 1 1:1 2:1 4:1 12:1 13:1 42:1 47:1 48:1 373:1 374:1 375:1 376:1 
1 1 1 1 1:1 2:1 4:1 9:1 13:1 19:1 77:1 101:1 179:1 377:1 378:1 379:1 380:1 381:1 382:1 384:1 385:1 
1 0 1 1 2:1 4:1 12:1 13:1 65:1 73:1 77:1 86:1 126:1 141:1 386:1 387:1 388:1 389:1 20277:1 
1 1 1 1 2:1 4:1 13:1 81:1 390:1 
1 1 1 1 2:1 4:1 13:1 48:1 75:1 113:1 392:1 393:1 394:1 
1 1 1 1 2:1 4:1 10:1 13:1 32:1 49:1 139:1 262:1 395:1 397:1 398:1 
1 0 1 1 2:1 4:1 13:1 29:1 49:1 64:1 77:1 127:1 
1 1 1 1 1:1 2:1 4:1 13:1 
1 1 1 1 1:1 2:1 4:1 9:1 12:1 13:1 49:1 94:1 103:1 201:1 294:1 340:1 342:1 348:1 397:1 401:1 403:1 404:1 405:1 407:1 408:1 409:1 410:1 411:1 
1 1 1 1 1:1 2:1 4:1 9:1 13:1 19:1 42:1 49:1 148:1 161:1 412:1 413:1 414:1 415:1 416:1 417:1 418:1 
1 1 1 1 2:1 4:1 13:1 27:1 32:1 65:1 86:1 94:1 178:1 262:1 419:1 420:1 
1 1 1 1 2:1 4:1 13:1 19:1 65:1 201:1 236:1 308:1 421:1 422:1 423:1 424:1 
1 1 1 1 2:1 4:1 8:1 9:1 13:1 32:1 45:1 101:1 111:1 161:1 261:1 337:1 425:1 426:1 427:1 428:1 6982:1 
1 1 1 1 2:1 4:1 8:1 13:1 19:1 53:1 57:1 65:1 66:1 67:1 74:1 77:1 96:1 117:1 134:1 168:1 183:1 342:1 430:1 431:1 432:1 433:1 434:1 435:1 
1 1 1 1 2:1 4:1 12:1 13:1 42:1 57:1 77:1 161:1 262:1 436:1 437:1 438:1 439:1 440:1 441:1 
1 0 1 1 2:1 4:1 12:1 13:1 67:1 141:1 206:1 207:1 443:1 444:1 445:1 446:1 447:1 
1 1 1 1 2:1 4:1 13:1 77:1 161:1 448:1 449:1 450:1 
1 1 1 1 2:1 4:1 13:1 57:1 65:1 104:1 131:1 139:1 187:1 209:1 220:1 444:1 451:1 452:1 
1 1 1 1 1:1 2:1 4:1 13:1 77:1 453:1 454:1 
1 1 1 1 2:1 4:1 9:1 12:1 13:1 70:1 127:1 
1 1 1 1 1:1 2:1 4:1 8:1 13:1 57:1 94:1 97:1 103:1 206:1 207:1 
1 1 1 1 2:1 4:1 13:1 57:1 86:1 440:1 456:1 457:1 458:1 459:1 
1 0 1 1 2:1 4:1 12:1 13:1 32:1 86:1 117:1 161:1 258:1 460:1 461:1 463:1 
1 1 1 1 2:1 4:1 6:1 13:1 42:1 65:1 80:1 110:1 111:1 112:1 373:1 464:1 
1 1 1 1 1:1 2:1 4:1 13:1 19:1 34:1 38:1 77:1 86:1 94:1 134:1 361:1 466:1 467:1 468:1 469:1 470:1 3340:1 
1 1 1 1 2:1 4:1 12:1 13:1 
1 1 1 1 2:1 4:1 5:1 13:1 42:1 49:1 65:1 77:1 122:1 209:1 314:1 359:1 472:1 473:1 474:1 
1 1 1 1 2:1 4:1 13:1 86:1 475:1 476:1 477:1 478:1 
1 1 1 1 2:1 4:1 8:1 9:1 10:1 13:1 32:1 48:1 49:1 68:1 77:1 81:1 97:1 103:1 109:1 111:1 249:1 336:1 479:1 480:1 481:1 482:1 483:1 485:1 486:1 18172:1 
1 1 1 1 1:1 2:1 4:1 13:1 19:1 34:1 47:1 52:1 65:1 77:1 96:1 148:1 319:1 487:1 488:1 489:1 
1 1 1 1 2:1 4:1 13:1 173:1 236:1 490:1 491:1 492:1 
1 1 1 1 2:1 4:1 13:1 201:1 494:1 
1 1 1 1 1:1 2:1 4:1 9:1 13:1 17:1 19:1 86:1 496:1 497:1 498:1 499:1 500:1 501:1 502:1 
1 1 1 1 1:1 2:1 4:1 10:1 13:1 65:1 73:1 74:1 139:1 238:1 240:1 259:1 260:1 335:1 382:1 503:1 504:1 
1 1 1 1 1:1 2:1 4:1 9:1 12:1 13:1 94:1 336:1 
1 1 1 1 2:1 4:1 13:1 221:1 314:1 337:1 505:1 506:1 507:1 508:1 
1 1 1 1 2:1 4:1 8:1 13:1 41:1 58:1 65:1 220:1 509:1 510:1 511:1 
1 0 1 1 2:1 4:1 6:1 13:1 42:1 48:1 65:1 73:1 74:1 103:1 122:1 125:1 200:1 247:1 475:1 513:1 514:1 
1 1 1 1 2:1 4:1 9:1 12:1 13:1 38:1 47:1 50:1 58:1 77:1 78:1 109:1 122:1 127:1 216:1 217:1 359:1 515:1 516:1 
1 1 1 1 2:1 4:1 13:1 65:1 74:1 517:1 
1 1 1 1 2:1 4:1 13:1 19:1 308:1 520:1 
1 1 1 1 1:1 2:1 4:1 12:1 13:1 64:1 521:1 522:1 523:1 
1 1 1 1 2:1 4:1 6:1 13:1 29:1 47:1 58:1 62:1 65:1 70:1 130:1 139:1 340:1 342:1 404:1 450:1 468:1 524:1 525:1 526:1 527:1 528:1 529:1 530:1 531:1 532:1 
1 1 1 1 1:1 2:1 4:1 12:1 13:1 19:1 65:1 70:1 111:1 126:1 145:1 177:1 179:1 323:1 332:1 422:1 534:1 535:1 
1 1 1 1 2:1 4:1 10:1 13:1 42:1 65:1 109:1 131:1 135:1 289:1 295:1 536:1 537:1 538:1 539:1 540:1 
1 0 1 1 2:1 4:1 6:1 13:1 65:1 73:1 80:1 86:1 161:1 541:1 542:1 544:1 
1 1 1 1 2:1 4:1 13:1 58:1 546:1 
1 1 1 1 2:1 4:1 13:1 49:1 103:1 548:1 
1 1 1 1 1:1 2:1 4:1 6:1 13:1 77:1 152:1 246:1 549:1 
1 1 1 1 1:1 2:1 4:1 13:1 19:1 25:1 57:1 58:1 551:1 552:1 553:1 
1 1 1 1 2:1 4:1 13:1 16:1 128:1 209:1 555:1 558:1 
1 1 1 1 2:1 4:1 6:1 13:1 29:1 50:1 152:1 559:1 560:1 561:1 
1 0 1 1 2:1 4:1 13:1 46:1 65:1 73:1 74:1 77:1 86:1 161:1 177:1 221:1 283:1 314:1 337:1 562:1 563:1 
1 1 1 1 2:1 4:1 13:1 42:1 161:1 217:1 514:1 
1 1 1 1 2:1 4:1 12:1 13:1 
1 1 1 1 1:1 2:1 4:1 13:1 19:1 46:1 48:1 49:1 58:1 70:1 74:1 81:1 111:1 217:1 236:1 261:1 293:1 324:1 564:1 565:1 566:1 
1 0 1 1 2:1 4:1 13:1 29:1 73:1 77:1 376:1 
1 1 1 1 2:1 4:1 8:1 10:1 12:1 13:1 45:1 47:1 62:1 63:1 65:1 86:1 131:1 152:1 161:1 202:1 208:1 221:1 395:1 423:1 433:1 570:1 571:1 573:1 574:1 575:1 576:1 577:1 
1 1 1 1 1:1 2:1 4:1 9:1 12:1 13:1 42:1 50:1 264:1 578:1 
1 1 1 1 1:1 2:1 4:1 13:1 19:1 74:1 355:1 382:1 579:1 580:1 
1 1 1 1 2:1 4:1 13:1 86:1 161:1 581:1 582:1 583:1 584:1 
1 1 1 1 2:1 4:1 10:1 12:1 13:1 48:1 220:1 350:1 359:1 364:1 434:1 586:1 587:1 
1 1 1 1 1:1 2:1 4:1 13:1 19:1 49:1 65:1 94:1 139:1 183:1 219:1 308:1 588:1 
1 0 1 1 2:1 4:1 12:1 13:1 65:1 135:1 139:1 145:1 
1 1 1 1 1:1 2:1 4:1 13:1 19:1 46:1 65:1 110:1 111:1 422:1 589:1 590:1 591:1 
1 0 1 1 2:1 4:1 12:1 13:1 29:1 73:1 75:1 406:1 593:1 
1 1 1 1 2:1 4:1 13:1 
1 1 1 1 2:1 4:1 13:1 19:1 77:1 97:1 161:1 207:1 249:1 321:1 351:1 594:1 595:1 
1 1 1 1 2:1 4:1 13:1 34:1 41:1 42:1 49:1 65:1 122:1 130:1 139:1 152:1 161:1 213:1 258:1 461:1 597:1 598:1 600:1 
1 1 1 1 2:1 4:1 13:1 86:1 601:1 
1 1 1 1 2:1 4:1 13:1 65:1 200:1 229:1 603:1 
1 1 1 1 2:1 4:1 13:1 
1 1 1 1 2:1 4:1 12:1 13:1 609:1 
1 0 1 1 2:1 4:1 13:1 77:1 103:1 166:1 202:1 205:1 497:1 610:1 611:1 612:1 614:1 615:1 
1 1 1 1 2:1 4:1 13:1 19:1 46:1 65:1 74:1 101:1 148:1 220:1 363:1 616:1 
1 1 1 1 1:1 2:1 4:1 13:1 65:1 127:1 617:1 10089:1 20277:1 
1 1 1 1 1:1 2:1 4:1 13:1 19:1 48:1 53:1 73:1 77:1 162:1 618:1 619:1 620:1 621:1 
1 1 1 1 2:1 4:1 13:1 42:1 111:1 161:1 202:1 318:1 582:1 623:1 
1 1 1 1 2:1 4:1 13:1 20:1 38:1 48:1 49:1 109:1 363:1 550:1 625:1 626:1 627:1 628:1 629:1 
1 1 1 1 2:1 4:1 13:1 29:1 393:1 
1 0 1 1 2:1 4:1 13:1 65:1 86:1 373:1 631:1 632:1 633:1 
1 0 1 1 2:1 4:1 12:1 13:1 29:1 80:1 
1 1 1 1 2:1 4:1 13:1 634:1 20277:1 
1 0 1 1 2:1 4:1 12:1 13:1 34:1 65:1 73:1 86:1 110:1 111:1 177:1 635:1 636:1 
1 1 1 1 1:1 2:1 4:1 12:1 13:1 19:1 49:1 161:1 162:1 214:1 215:1 637:1 
1 1 1 1 1:1 2:1 4:1 13:1 
1 1 1 1 2:1 4:1 13:1 19:1 
1 1 1 1 1:1 2:1 4:1 8:1 9:1 10:1 12:1 13:1 29:1 46:1 65:1 77:1 516:1 640:1 642:1 643:1 
1 1 1 1 2:1 4:1 13:1 29:1 47:1 644:1 
1 1 1 1 2:1 4:1 13:1 58:1 65:1 77:1 109:1 143:1 151:1 337:1 359:1 645:1 646:1 647:1 
1 1 1 1 1:1 2:1 4:1 13:1 42:1 649:1 650:1 
1 1 1 1 2:1 4:1 13:1 73:1 100:1 145:1 372:1 423:1 653:1 654:1 655:1 656:1 657:1 
1 1 1 1 2:1 4:1 13:1 49:1 162:1 294:1 658:1 659:1 
1 1 1 1 2:1 4:1 13:1 38:1 46:1 48:1 70:1 75:1 77:1 660:1 661:1 662:1 
1 1 1 1 2:1 4:1 13:1 46:1 663:1 664:1 
1 1 1 1 2:1 4:1 13:1 665:1 
1 0 1 1 2:1 4:1 12:1 13:1 29:1 73:1 117:1 666:1 
1 1 1 1 2:1 4:1 13:1 48:1 103:1 130:1 175:1 667:1 
1 1 1 1 1:1 2:1 4:1 8:1 13:1 86:1 103:1 161:1 373:1 668:1 
1 1 1 1 1:1 2:1 4:1 12:1 13:1 19:1 49:1 57:1 58:1 74:1 75:1 97:1 167:1 559:1 669:1 670:1 671:1 672:1 673:1 674:1 675:1 
1 1 1 1 2:1 4:1 13:1 676:1 677:1 678:1 679:1 680:1 
1 1 1 1 1:1 2:1 4:1 6:1 13:1 34:1 77:1 134:1 236:1 240:1 639:1 682:1 
1 1 1 1 2:1 4:1 13:1 49:1 50:1 86:1 103:1 194:1 426:1 461:1 611:1 683:1 684:1 685:1 
1 1 1 1 2:1 4:1 13:1 42:1 47:1 65:1 68:1 73:1 161:1 361:1 373:1 497:1 611:1 686:1 687:1 688:1 689:1 690:1 691:1 692:1 
1 1 1 1 2:1 4:1 8:1 13:1 70:1 77:1 643:1 693:1 
1 1 1 1 2:1 4:1 13:1 86:1 152:1 168:1 207:1 351:1 595:1 
1 1 1 1 2:1 4:1 13:1 65:1 77:1 152:1 161:1 389:1 698:1 699:1 700:1 701:1 702:1 703:1 704:1 705:1 706:1 
1 1 1 1 2:1 4:1 13:1 707:1 
1 1 1 1 1:1 2:1 4:1 13:1 19:1 47:1 49:1 54:1 65:1 74:1 246:1 247:1 248:1 
1 1 1 1 1:1 2:1 4:1 13:1 58:1 65:1 70:1 127:1 141:1 166:1 570:1 708:1 
1 0 1 1 2:1 4:1 13:1 29:1 215:1 
1 1 1 1 2:1 4:1 13:1 50:1 263:1 712:1 
1 1 1 1 2:1 4:1 6:1 8:1 13:1 29:1 33:1 52:1 67:1 77:1 214:1 215:1 337:1 447:1 539:1 589:1 713:1 
1 1 1 1 2:1 4:1 6:1 9:1 13:1 28:1 34:1 38:1 50:1 94:1 175:1 202:1 324:1 497:1 504:1 714:1 716:1 717:1 
1 1 1 1 2:1 4:1 8:1 13:1 57:1 65:1 70:1 99:1 128:1 173:1 204:1 340:1 341:1 342:1 717:1 719:1 720:1 
1 1 1 1 2:1 4:1 13:1 19:1 48:1 74:1 111:1 295:1 461:1 539:1 570:1 725:1 
1 0 1 1 2:1 4:1 6:1 13:1 48:1 73:1 97:1 111:1 168:1 258:1 261:1 406:1 726:1 727:1 728:1 729:1 20277:1 
1 1 1 1 2:1 4:1 10:1 13:1 47:1 58:1 75:1 77:1 86:1 235:1 240:1 514:1 730:1 731:1 732:1 733:1 734:1 735:1 736:1 737:1 738:1 
1 1 1 1 2:1 4:1 13:1 145:1 248:1 741:1 
1 0 1 1 2:1 4:1 13:1 29:1 74:1 217:1 
1 1 1 1 2:1 4:1 13:1 73:1 74:1 249:1 495:1 742:1 
1 1 1 1 2:1 4:1 13:1 48:1 77:1 161:1 258:1 420:1 494:1 743:1 744:1 745:1 746:1 
1 1 1 1 2:1 4:1 13:1 42:1 65:1 74:1 152:1 179:1 747:1 748:1 
1 1 1 1 1:1 2:1 4:1 13:1 361:1 544:1 749:1 
1 0 1 1 2:1 4:1 13:1 73:1 94:1 179:1 236:1 372:1 373:1 656:1 750:1 751:1 
1 1 1 1 1:1 2:1 4:1 13:1 19:1 340:1 341:1 342:1 497:1 611:1 752:1 753:1 
1 1 1 1 1:1 2:1 4:1 13:1 49:1 111:1 241:1 639:1 705:1 754:1 
1 1 1 1 1:1 2:1 4:1 13:1 50:1 73:1 175:1 183:1 342:1 373:1 503:1 755:1 756:1 757:1 758:1 759:1 760:1 
1 1 1 1 2:1 4:1 13:1 48:1 86:1 269:1 340:1 341:1 342:1 762:1 763:1 
1 1 1 1 1:1 2:1 4:1 8:1 13:1 99:1 103:1 113:1 134:1 152:1 178:1 221:1 240:1 249:1 509:1 609:1 764:1 765:1 766:1 769:1 770:1 
1 1 1 1 2:1 4:1 13:1 42:1 136:1 162:1 175:1 269:1 611:1 
1 1 1 1 2:1 4:1 10:1 12:1 13:1 42:1 77:1 150:1 319:1 771:1 772:1 
1 1 1 1 1:1 2:1 4:1 8:1 12:1 13:1 58:1 103:1 109:1 151:1 167:1 457:1 639:1 773:1 774:1 
1 1 1 1 1:1 2:1 4:1 8:1 13:1 42:1 48:1 65:1 73:1 81:1 103:1 109:1 131:1 258:1 510:1 775:1 776:1 777:1 778:1 779:1 
1 1 1 1 2:1 4:1 13:1 46:1 49:1 65:1 77:1 109:1 590:1 781:1 782:1 783:1 20277:1 
1 1 1 1 2:1 4:1 13:1 19:1 65:1 77:1 131:1 200:1 308:1 784:1 
1 1 1 1 1:1 2:1 4:1 13:1 52:1 373:1 716:1 785:1 
1 1 1 1 2:1 4:1 13:1 110:1 111:1 670:1 787:1 
1 1 1 1 2:1 4:1 10:1 13:1 77:1 103:1 355:1 376:1 405:1 788:1 
1 1 1 1 1:1 2:1 4:1 13:1 34:1 65:1 77:1 113:1 379:1 634:1 704:1 
1 0 1 1 2:1 4:1 13:1 29:1 214:1 215:1 
1 1 1 1 2:1 4:1 13:1 73:1 74:1 220:1 504:1 742:1 789:1 
1 0 1 1 2:1 4:1 12:1 13:1 29:1 50:1 64:1 73:1 81:1 161:1 178:1 217:1 324:1 780:1 790:1 792:1 793:1 
1 1 1 1 1:1 2:1 4:1 13:1 19:1 58:1 65:1 77:1 109:1 143:1 151:1 337:1 359:1 645:1 646:1 647:1 
1 1 1 1 1:1 2:1 4:1 13:1 19:1 
1 1 1 1 1:1 2:1 4:1 9:1 13:1 77:1 94:1 103:1 362:1 
1 1 1 1 2:1 4:1 13:1 47:1 68:1 70:1 86:1 145:1 795:1 796:1 
1 0 1 1 2:1 4:1 12:1 13:1 29:1 181:1 216:1 
1 1 1 1 2:1 4:1 13:1 86:1 371:1 714:1 799:1 800:1 
1 1 1 1 1:1 2:1 4:1 12:1 13:1 34:1 53:1 94:1 134:1 166:1 348:1 407:1 504:1 577:1 802:1 
1 1 1 1 2:1 4:1 9:1 13:1 41:1 42:1 58:1 74:1 86:1 94:1 111:1 127:1 161:1 173:1 204:1 249:1 262:1 294:1 324:1 340:1 342:1 353:1 377:1 404:1 519:1 714:1 716:1 803:1 804:1 805:1 807:1 
1 1 1 1 2:1 4:1 13:1 65:1 99:1 124:1 181:1 808:1 
1 1 1 1 1:1 2:1 4:1 6:1 13:1 65:1 182:1 206:1 207:1 423:1 718:1 809:1 
1 1 1 1 1:1 2:1 4:1 6:1 13:1 19:1 109:1 152:1 308:1 337:1 376:1 810:1 811:1 812:1 813:1 814:1 815:1 20277:1 
1 0 1 1 2:1 4:1 13:1 19:1 48:1 64:1 65:1 74:1 84:1 86:1 173:1 177:1 178:1 181:1 817:1 818:1 821:1 
1 1 1 1 1:1 2:1 4:1 13:1 207:1 822:1 823:1 
1 1 1 1 2:1 4:1 13:1 42:1 48:1 80:1 97:1 101:1 111:1 167:1 168:1 294:1 825:1 826:1 
1 1 1 1 1:1 2:1 4:1 13:1 19:1 65:1 77:1 97:1 111:1 166:1 167:1 202:1 364:1 827:1 828:1 829:1 830:1 
1 1 1 1 2:1 4:1 12:1 13:1 67:1 73:1 213:1 340:1 342:1 404:1 687:1 742:1 831:1 
1 1 1 1 1:1 2:1 4:1 9:1 13:1 77:1 101:1 179:1 377:1 378:1 379:1 380:1 381:1 382:1 384:1 385:1 
1 0 1 1 2:1 4:1 13:1 49:1 51:1 65:1 86:1 94:1 833:1 834:1 10089:1 
1 1 1 1 2:1 4:1 13:1 58:1 70:1 73:1 77:1 86:1 96:1 152:1 176:1 179:1 380:1 836:1 837:1 838:1 839:1 
1 0 1 1 2:1 4:1 13:1 27:1 65:1 97:1 111:1 124:1 135:1 139:1 145:1 294:1 327:1 461:1 
1 0 1 1 2:1 4:1 9:1 13:1 65:1 73:1 77:1 126:1 166:1 364:1 842:1 843:1 844:1 845:1 
1 1 1 1 2:1 4:1 13:1 65:1 131:1 470:1 526:1 846:1 847:1 
1 1 1 1 1:1 2:1 4:1 9:1 13:1 86:1 109:1 135:1 161:1 201:1 206:1 207:1 776:1 849:1 
1 1 1 1 2:1 4:1 13:1 19:1 183:1 373:1 851:1 852:1 
1 0 1 1 2:1 4:1 5:1 6:1 13:1 65:1 86:1 101:1 131:1 145:1 853:1 854:1 855:1 
1 1 1 1 1:1 2:1 4:1 12:1 13:1 73:1 75:1 77:1 86:1 103:1 155:1 221:1 373:1 856:1 857:1 858:1 859:1 860:1 
1 1 1 1 2:1 4:1 13:1 73:1 720:1 862:1 
1 1 1 1 2:1 4:1 13:1 47:1 70:1 74:1 86:1 101:1 337:1 355:1 577:1 828:1 863:1 864:1 865:1 866:1 867:1 868:1 
1 0 1 1 2:1 4:1 12:1 13:1 162:1 200:1 
1 1 1 1 2:1 4:1 5:1 12:1 13:1 49:1 75:1 123:1 124:1 
1 1 1 1 2:1 4:1 10:1 13:1 19:1 42:1 50:1 58:1 73:1 74:1 80:1 101:1 109:1 110:1 111:1 148:1 328:1 350:1 370:1 391:1 869:1 870:1 871:1 872:1 873:1 874:1 875:1 876:1 
1 1 1 1 2:1 4:1 12:1 13:1 29:1 42:1 877:1 
1 1 1 1 1:1 2:1 4:1 8:1 19:1 38:1 42:1 47:1 57:1 58:1 65:1 74:1 101:1 258:1 302:1 361:1 616:1 694:1 878:1 879:1 881:1 882:1 883:1 884:1 
1 1 1 1 2:1 4:1 13:1 
1 1 1 1 2:1 4:1 13:1 32:1 54:1 109:1 328:1 335:1 338:1 885:1 886:1 
1 1 1 1 2:1 4:1 13:1 
1 1 1 1 1:1 2:1 4:1 13:1 19:1 46:1 47:1 57:1 65:1 68:1 139:1 145:1 173:1 720:1 888:1 
1 1 1 1 2:1 4:1 13:1 57:1 220:1 474:1 586:1 890:1 
1 1 1 1 2:1 4:1 12:1 13:1 58:1 86:1 181:1 340:1 342:1 404:1 469:1 476:1 892:1 893:1 
1 1 1 1 2:1 4:1 12:1 13:1 17:1 19:1 42:1 49:1 249:1 294:1 434:1 461:1 577:1 800:1 895:1 896:1 897:1 
1 0 1 1 2:1 4:1 12:1 13:1 48:1 65:1 96:1 109:1 131:1 217:1 220:1 363:1 900:1 901:1 902:1 903:1 
1 1 1 1 1:1 2:1 4:1 13:1 780:1 904:1 905:1 
1 1 1 1 2:1 4:1 13:1 
1 1 1 1 2:1 4:1 13:1 45:1 50:1 86:1 99:1 161:1 747:1 864:1 909:1 911:1 912:1 913:1 
1 1 1 1 2:1 4:1 13:1 86:1 126:1 900:1 
1 1 1 1 13:1 79:1 915:1 
1 0 1 1 2:1 4:1 13:1 29:1 217:1 450:1 
1 1 1 1 2:1 4:1 13:1 38:1 372:1 917:1 
1 1 1 1 1:1 2:1 4:1 13:1 27:1 50:1 65:1 77:1 109:1 152:1 219:1 249:1 806:1 918:1 
1 1 1 1 1:1 2:1 4:1 13:1 19:1 81:1 86:1 131:1 183:1 206:1 207:1 318:1 422:1 919:1 922:1 923:1 
1 0 1 1 2:1 4:1 13:1 49:1 73:1 77:1 81:1 202:1 376:1 406:1 423:1 926:1 
1 1 1 1 2:1 4:1 13:1 38:1 127:1 128:1 927:1 
1 1 1 1 2:1 4:1 13:1 48:1 826:1 928:1 
1 1 1 1 2:1 4:1 13:1 
1 0 1 1 2:1 4:1 13:1 29:1 70:1 126:1 127:1 128:1 
1 1 1 1 2:1 4:1 13:1 34:1 206:1 207:1 929:1 
1 1 1 1 2:1 4:1 13:1 46:1 74:1 94:1 433:1 930:1 931:1 932:1 
1 1 1 1 2:1 4:1 10:1 13:1 83:1 218:1 
1 1 1 1 1:1 2:1 4:1 12:1 13:1 19:1 73:1 77:1 120:1 182:1 209:1 766:1 934:1 935:1 
1 0 1 1 2:1 4:1 12:1 13:1 29:1 70:1 127:1 128:1 
1 1 1 1 2:1 4:1 13:1 46:1 49:1 241:1 273:1 
1 0 1 1 2:1 4:1 6:1 13:1 29:1 34:1 73:1 86:1 168:1 206:1 207:1 239:1 324:1 670:1 937:1 938:1 939:1 940:1 
1 0 1 1 2:1 4:1 12:1 13:1 19:1 29:1 941:1 942:1 
1 1 1 1 2:1 4:1 9:1 13:1 38:1 77:1 122:1 515:1 524:1 747:1 943:1 944:1 945:1 
1 1 1 1 2:1 4:1 12:1 13:1 38:1 47:1 70:1 77:1 113:1 161:1 249:1 338:1 376:1 392:1 704:1 946:1 947:1 950:1 953:1 
1 1 1 1 1:1 2:1 4:1 13:1 19:1 34:1 47:1 52:1 65:1 77:1 96:1 148:1 319:1 487:1 488:1 489:1 
1 0 1 1 2:1 4:1 13:1 48:1 53:1 73:1 77:1 162:1 618:1 619:1 620:1 621:1 
1 1 1 1 2:1 4:1 13:1 34:1 38:1 42:1 45:1 48:1 65:1 80:1 955:1 956:1 957:1 958:1 
1 1 1 1 1:1 2:1 4:1 12:1 13:1 19:1 86:1 126:1 959:1 960:1 
1 1 1 1 1:1 2:1 4:1 13:1 46:1 74:1 361:1 897:1 962:1 963:1 964:1 
1 0 1 1 2:1 4:1 12:1 13:1 65:1 80:1 86:1 144:1 966:1 967:1 968:1 
1 1 1 1 2:1 4:1 13:1 110:1 111:1 135:1 
1 0 1 1 2:1 4:1 12:1 13:1 65:1 95:1 111:1 170:1 247:1 359:1 373:1 969:1 970:1 971:1 975:1 10089:1 21258:1 
1 1 1 1 2:1 4:1 6:1 13:1 38:1 47:1 49:1 125:1 145:1 977:1 978:1 
1 0 1 1 2:1 4:1 6:1 13:1 34:1 45:1 48:1 49:1 65:1 109:1 173:1 294:1 356:1 461:1 892:1 950:1 979:1 
1 1 1 1 2:1 4:1 10:1 13:1 64:1 86:1 95:1 125:1 269:1 980:1 
1 1 1 1 2:1 4:1 13:1 70:1 86:1 127:1 181:1 19001:1 
1 1 1 1 2:1 4:1 5:1 6:1 9:1 13:1 152:1 262:1 968:1 981:1 982:1 983:1 984:1 985:1 
1 0 1 1 2:1 4:1 12:1 13:1 126:1 145:1 183:1 376:1 983:1 986:1 
1 0 1 1 2:1 4:1 13:1 29:1 73:1 
1 1 1 1 1:1 2:1 4:1 13:1 19:1 50:1 103:1 355:1 988:1 
1 1 1 1 2:1 4:1 13:1 63:1 74:1 989:1 990:1 991:1 992:1 993:1 994:1 995:1 996:1 997:1 998:1 
1 1 1 1 2:1 4:1 13:1 41:1 42:1 48:1 74:1 519:1 536:1 
1 1 1 1 2:1 4:1 10:1 13:1 19:1 65:1 77:1 148:1 1000:1 1001:1 1002:1 
1 1 1 1 2:1 4:1 13:1 47:1 49:1 56:1 58:1 65:1 70:1 77:1 135:1 151:1 1003:1 1004:1 1005:1 1006:1 1007:1 1008:1 1009:1 
1 1 1 1 2:1 4:1 9:1 13:1 152:1 236:1 240:1 319:1 550:1 
1 1 1 1 1:1 2:1 4:1 13:1 58:1 65:1 70:1 96:1 109:1 122:1 314:1 361:1 524:1 1010:1 1011:1 
1 0 1 1 2:1 4:1 6:1 13:1 29:1 50:1 73:1 938:1 
1 1 1 1 2:1 4:1 13:1 42:1 161:1 376:1 1012:1 1013:1 
1 1 1 1 2:1 4:1 13:1 65:1 77:1 80:1 101:1 150:1 152:1 161:1 188:1 216:1 294:1 461:1 1014:1 1015:1 1016:1 1017:1 1018:1 
1 1 1 1 1:1 2:1 4:1 5:1 13:1 19:1 58:1 73:1 110:1 111:1 177:1 307:1 586:1 1019:1 
1 1 1 1 2:1 4:1 13:1 38:1 48:1 77:1 103:1 260:1 707:1 777:1 802:1 851:1 1020:1 1022:1 
1 1 1 1 1:1 2:1 4:1 13:1 65:1 74:1 86:1 178:1 202:1 258:1 318:1 945:1 1023:1 1024:1 1025:1 1026:1 
1 1 1 1 1:1 2:1 4:1 13:1 19:1 65:1 86:1 161:1 204:1 685:1 1028:1 1029:1 
1 0 1 1 2:1 4:1 6:1 13:1 48:1 65:1 77:1 78:1 83:1 97:1 101:1 195:1 236:1 306:1 1031:1 
1 1 1 1 2:1 4:1 13:1 86:1 126:1 161:1 1014:1 1032:1 
1 1 1 1 1:1 2:1 4:1 13:1 78:1 373:1 576:1 685:1 1033:1 1034:1 1035:1 
1 0 1 1 2:1 4:1 10:1 12:1 13:1 29:1 49:1 50:1 65:1 220:1 221:1 295:1 386:1 463:1 493:1 1036:1 1037:1 
1 1 1 1 2:1 4:1 13:1 19:1 137:1 1038:1 
1 1 1 1 2:1 4:1 13:1 1039:1 
1 1 1 1 2:1 4:1 10:1 13:1 58:1 68:1 99:1 101:1 109:1 130:1 175:1 220:1 262:1 363:1 440:1 461:1 1040:1 1041:1 1042:1 1043:1 1044:1 1045:1 
1 1 1 1 2:1 4:1 13:1 212:1 730:1 792:1 958:1 
1 1 1 1 2:1 4:1 13:1 19:1 20:1 38:1 183:1 1047:1 1049:1 1050:1 1051:1 1052:1 1053:1 1054:1 3340:1 
1 1 1 1 1:1 2:1 4:1 12:1 13:1 260:1 524:1 777:1 1055:1 1056:1 
1 0 1 1 2:1 4:1 13:1 29:1 34:1 50:1 65:1 152:1 359:1 620:1 851:1 983:1 
1 1 1 1 1:1 2:1 4:1 13:1 103:1 147:1 221:1 
1 0 1 1 2:1 4:1 13:1 65:1 73:1 74:1 321:1 440:1 541:1 851:1 1015:1 1058:1 
1 0 1 1 2:1 4:1 12:1 13:1 48:1 86:1 114:1 128:1 152:1 173:1 207:1 220:1 221:1 269:1 295:1 340:1 342:1 351:1 373:1 404:1 461:1 620:1 1059:1 1060:1 
1 1 1 1 1:1 2:1 4:1 13:1 65:1 77:1 80:1 120:1 249:1 295:1 419:1 512:1 537:1 1061:1 1062:1 
1 1 1 1 2:1 4:1 13:1 38:1 74:1 109:1 127:1 493:1 516:1 1063:1 1064:1 
1 1 1 1 2:1 4:1 12:1 13:1 45:1 70:1 128:1 693:1 1065:1 
1 1 1 1 2:1 4:1 13:1 86:1 1067:1 
1 1 1 1 1:1 2:1 4:1 12:1 13:1 93:1 1069:1 
1 0 1 1 2:1 4:1 12:1 13:1 49:1 86:1 198:1 201:1 236:1 502:1 514:1 578:1 1071:1 1072:1 
1 1 1 1 1:1 2:1 4:1 13:1 40:1 57:1 65:1 139:1 220:1 240:1 364:1 707:1 779:1 855:1 1073:1 1074:1 1076:1 1077:1 1078:1 1079:1 
1 1 1 1 1:1 2:1 4:1 10:1 13:1 19:1 58:1 68:1 74:1 99:1 101:1 109:1 130:1 175:1 220:1 262:1 363:1 440:1 461:1 1040:1 1041:1 1042:1 1043:1 1044:1 1045:1 
1 1 1 1 2:1 4:1 13:1 42:1 58:1 65:1 161:1 170:1 273:1 649:1 1080:1 
1 1 1 1 2:1 4:1 12:1 13:1 20:1 34:1 50:1 111:1 112:1 150:1 161:1 306:1 683:1 1082:1 3340:1 
1 1 1 1 1:1 2:1 4:1 9:1 13:1 19:1 73:1 86:1 111:1 327:1 378:1 1085:1 1086:1 1088:1 1089:1 
1 0 1 1 2:1 4:1 12:1 13:1 47:1 80:1 86:1 125:1 127:1 247:1 373:1 1088:1 1091:1 
1 1 1 1 2:1 4:1 13:1 34:1 42:1 67:1 134:1 181:1 246:1 1092:1 1093:1 19001:1 
1 0 1 1 2:1 4:1 13:1 73:1 126:1 170:1 214:1 215:1 294:1 705:1 1094:1 
1 1 1 1 2:1 4:1 13:1 48:1 58:1 109:1 201:1 236:1 299:1 373:1 464:1 
1 1 1 1 1:1 2:1 4:1 10:1 13:1 19:1 34:1 68:1 74:1 86:1 183:1 273:1 632:1 1096:1 1097:1 1098:1 
1 0 1 1 2:1 4:1 6:1 13:1 48:1 65:1 86:1 139:1 673:1 1099:1 1101:1 
1 0 1 1 2:1 4:1 12:1 13:1 16:1 20:1 38:1 65:1 86:1 131:1 170:1 427:1 643:1 1102:1 1103:1 
1 1 1 1 2:1 4:1 13:1 19:1 38:1 426:1 699:1 1104:1 1105:1 1106:1 1107:1 
1 1 1 1 1:1 2:1 4:1 6:1 8:1 13:1 45:1 74:1 103:1 109:1 111:1 262:1 330:1 578:1 900:1 1108:1 1109:1 1110:1 1111:1 
1 1 1 1 2:1 4:1 13:1 111:1 494:1 23194:1 
1 1 1 1 2:1 4:1 13:1 46:1 202:1 1112:1 1113:1 
1 0 1 1 2:1 4:1 12:1 13:1 65:1 97:1 111:1 359:1 382:1 634:1 1114:1 1115:1 1116:1 
1 1 1 1 2:1 4:1 13:1 19:1 68:1 77:1 262:1 397:1 1117:1 1118:1 
1 1 1 1 2:1 4:1 13:1 49:1 77:1 
1 1 1 1 2:1 4:1 13:1 68:1 126:1 526:1 527:1 1119:1 1120:1 1121:1 1122:1 
1 0 1 1 2:1 4:1 12:1 13:1 65:1 86:1 125:1 215:1 
1 1 1 1 2:1 4:1 13:1 38:1 57:1 75:1 173:1 213:1 423:1 631:1 720:1 1125:1 1126:1 
1 1 1 1 2:1 4:1 13:1 1127:1 1128:1 1130:1 
1 1 1 1 1:1 2:1 4:1 8:1 12:1 13:1 19:1 34:1 50:1 58:1 65:1 110:1 111:1 139:1 147:1 148:1 306:1 323:1 332:1 516:1 718:1 1016:1 1131:1 1132:1 1134:1 
1 1 1 1 2:1 4:1 5:1 13:1 65:1 100:1 101:1 124:1 168:1 361:1 800:1 1135:1 1136:1 1137:1 
1 1 1 1 2:1 4:1 12:1 13:1 48:1 58:1 111:1 113:1 221:1 249:1 327:1 335:1 363:1 490:1 524:1 653:1 663:1 1138:1 1139:1 
1 0 1 1 2:1 4:1 13:1 29:1 34:1 47:1 65:1 68:1 73:1 86:1 114:1 161:1 175:1 216:1 790:1 
1 1 1 1 1:1 2:1 4:1 6:1 12:1 13:1 19:1 29:1 34:1 38:1 73:1 86:1 127:1 136:1 168:1 170:1 206:1 207:1 239:1 324:1 670:1 937:1 938:1 939:1 
1 1 1 1 2:1 4:1 6:1 9:1 13:1 29:1 50:1 73:1 109:1 127:1 249:1 335:1 337:1 
1 1 1 1 2:1 4:1 13:1 971:1 
1 1 1 1 2:1 4:1 10:1 13:1 31:1 32:1 49:1 65:1 67:1 80:1 97:1 109:1 111:1 151:1 209:1 380:1 447:1 604:1 1140:1 
1 1 1 1 1:1 2:1 4:1 12:1 13:1 65:1 73:1 152:1 179:1 324:1 1141:1 1142:1 1143:1 
1 1 1 1 13:1 42:1 47:1 161:1 423:1 427:1 1145:1 1146:1 1147:1 1148:1 1149:1 1150:1 
1 1 1 1 2:1 4:1 9:1 13:1 50:1 58:1 220:1 1151:1 1152:1 
1 1 1 1 1:1 2:1 4:1 13:1 19:1 65:1 241:1 436:1 1155:1 1156:1 
1 1 1 1 2:1 4:1 12:1 13:1 1157:1 
1 0 1 1 2:1 4:1 12:1 13:1 103:1 262:1 397:1 853:1 968:1 1158:1 1159:1 1160:1 1161:1 1162:1 
1 1 1 1 2:1 4:1 12:1 13:1 103:1 
1 1 1 1 1:1 2:1 4:1 12:1 13:1 19:1 46:1 65:1 86:1 126:1 606:1 
1 1 1 1 2:1 4:1 13:1 42:1 47:1 65:1 73:1 77:1 97:1 127:1 181:1 1164:1 1165:1 1166:1 1167:1 1168:1 3340:1 
1 0 1 1 2:1 4:1 12:1 13:1 29:1 74:1 
1 1 1 1 1:1 2:1 4:1 12:1 13:1 19:1 42:1 57:1 59:1 160:1 161:1 162:1 163:1 
1 1 1 1 1:1 2:1 4:1 13:1 65:1 111:1 245:1 714:1 1172:1 1173:1 
1 0 1 1 2:1 4:1 12:1 13:1 29:1 173:1 369:1 370:1 
1 0 1 1 2:1 4:1 12:1 13:1 34:1 47:1 134:1 161:1 438:1 683:1 897:1 1082:1 1176:1 
1 1 1 1 2:1 4:1 5:1 6:1 12:1 13:1 32:1 42:1 54:1 1177:1 1178:1 
1 1 1 1 2:1 4:1 13:1 38:1 42:1 74:1 111:1 131:1 307:1 494:1 649:1 691:1 1153:1 1179:1 
1 0 1 1 2:1 4:1 13:1 29:1 65:1 68:1 74:1 175:1 373:1 
1 1 1 1 1:1 2:1 4:1 13:1 77:1 96:1 97:1 111:1 158:1 1180:1 1181:1 1183:1 1185:1 1186:1 1188:1 11145:1 
1 0 1 1 2:1 4:1 12:1 13:1 73:1 77:1 86:1 126:1 166:1 273:1 799:1 1189:1 1190:1 1191:1 
1 1 1 1 2:1 4:1 13:1 16:1 451:1 497:1 1192:1 
1 1 1 1 2:1 4:1 8:1 13:1 101:1 111:1 379:1 1194:1 
1 1 1 1 2:1 4:1 13:1 34:1 42:1 47:1 49:1 65:1 73:1 101:1 103:1 115:1 131:1 150:1 181:1 201:1 206:1 207:1 415:1 919:1 923:1 1196:1 1197:1 1198:1 1199:1 1201:1 
1 1 1 1 2:1 4:1 13:1 53:1 97:1 111:1 139:1 168:1 205:1 871:1 1204:1 1205:1 
1 0 1 1 2:1 4:1 12:1 13:1 29:1 1206:1 1207:1 1208:1 
1 1 1 1 2:1 4:1 9:1 13:1 77:1 1209:1 1210:1 
1 1 1 1 1:1 2:1 4:1 12:1 13:1 19:1 200:1 215:1 
1 1 1 1 2:1 4:1 13:1 48:1 162:1 1211:1 1212:1 
1 1 1 1 2:1 4:1 13:1 81:1 86:1 131:1 206:1 207:1 318:1 422:1 922:1 
1 1 1 1 2:1 4:1 12:1 13:1 40:1 45:1 47:1 49:1 50:1 113:1 114:1 139:1 262:1 361:1 709:1 
1 1 1 1 1:1 2:1 4:1 13:1 19:1 86:1 1067:1 
1 0 1 1 2:1 4:1 13:1 29:1 53:1 65:1 77:1 103:1 215:1 506:1 1094:1 
1 1 1 1 2:1 4:1 13:1 47:1 146:1 
1 0 1 1 2:1 4:1 12:1 13:1 86:1 122:1 209:1 269:1 324:1 1213:1 
1 1 1 1 1:1 2:1 4:1 10:1 13:1 34:1 45:1 47:1 65:1 77:1 86:1 173:1 373:1 639:1 641:1 1218:1 
1 0 1 1 2:1 4:1 12:1 13:1 70:1 86:1 127:1 181:1 216:1 
1 1 1 1 1:1 2:1 4:1 8:1 12:1 13:1 42:1 50:1 747:1 1220:1 
1 1 1 1 2:1 4:1 13:1 29:1 261:1 
1 1 1 1 2:1 4:1 13:1 46:1 49:1 74:1 506:1 717:1 
1 1 1 1 2:1 4:1 12:1 13:1 122:1 150:1 200:1 1221:1 1222:1 
1 0 1 1 2:1 4:1 12:1 13:1 77:1 86:1 110:1 111:1 177:1 220:1 359:1 372:1 464:1 519:1 873:1 
1 1 1 1 2:1 4:1 13:1 86:1 152:1 1189:1 1223:1 1224:1 
1 1 1 1 2:1 4:1 13:1 34:1 48:1 80:1 81:1 86:1 120:1 249:1 273:1 725:1 945:1 1226:1 1227:1 1228:1 1229:1 
1 0 1 1 2:1 4:1 12:1 13:1 29:1 73:1 243:1 450:1 1231:1 
1 1 1 1 2:1 4:1 6:1 13:1 337:1 670:1 1232:1 1233:1 1234:1 
1 1 1 1 2:1 4:1 13:1 42:1 58:1 152:1 1235:1 1236:1 1237:1 1238:1 
1 1 1 1 2:1 4:1 13:1 42:1 96:1 390:1 493:1 1239:1 1240:1 1241:1 
1 1 1 1 2:1 4:1 13:1 
1 0 1 1 2:1 4:1 12:1 13:1 19:1 29:1 86:1 183:1 220:1 799:1 1242:1 1243:1 
1 1 1 1 1:1 2:1 4:1 13:1 
1 0 1 1 2:1 4:1 10:1 12:1 13:1 29:1 49:1 161:1 1244:1 1245:1 1248:1 
1 1 1 1 2:1 4:1 6:1 10:1 13:1 42:1 47:1 58:1 62:1 67:1 73:1 111:1 145:1 213:1 346:1 373:1 687:1 818:1 1253:1 
1 1 1 1 2:1 4:1 13:1 65:1 77:1 590:1 
1 1 1 1 2:1 4:1 10:1 13:1 42:1 45:1 101:1 103:1 179:1 564:1 1257:1 
1 0 1 1 2:1 4:1 12:1 13:1 29:1 215:1 663:1 1258:1 
1 1 1 1 2:1 4:1 13:1 42:1 141:1 161:1 1260:1 
1 1 1 1 2:1 4:1 13:1 49:1 289:1 675:1 851:1 1262:1 
1 1 1 1 2:1 4:1 8:1 13:1 19:1 77:1 110:1 111:1 148:1 519:1 1016:1 1263:1 
1 1 1 1 2:1 4:1 5:1 13:1 50:1 58:1 77:1 84:1 109:1 200:1 294:1 324:1 326:1 327:1 328:1 329:1 331:1 
1 1 1 1 1:1 2:1 4:1 8:1 12:1 13:1 57:1 103:1 167:1 
1 1 1 1 2:1 4:1 13:1 74:1 111:1 135:1 
1 1 1 1 2:1 4:1 13:1 34:1 42:1 97:1 103:1 109:1 161:1 179:1 221:1 324:1 327:1 604:1 1265:1 1266:1 1267:1 
1 1 1 1 1:1 2:1 4:1 12:1 13:1 50:1 95:1 
1 0 1 1 2:1 4:1 12:1 13:1 49:1 86:1 103:1 1268:1 1269:1 
1 1 1 1 2:1 4:1 13:1 
1 1 1 1 1:1 2:1 4:1 13:1 19:1 86:1 220:1 262:1 363:1 397:1 520:1 733:1 1270:1 
1 0 1 1 2:1 4:1 13:1 65:1 86:1 799:1 1271:1 1272:1 
1 1 1 1 2:1 4:1 13:1 127:1 173:1 637:1 1273:1 
1 1 1 1 2:1 4:1 13:1 31:1 32:1 77:1 109:1 150:1 161:1 1267:1 1275:1 1276:1 1277:1 
1 1 1 1 2:1 4:1 13:1 65:1 67:1 145:1 1280:1 1281:1 
1 1 1 1 1:1 2:1 4:1 13:1 34:1 65:1 68:1 155:1 165:1 372:1 494:1 673:1 1283:1 1284:1 1285:1 
1 1 1 1 2:1 4:1 10:1 13:1 48:1 74:1 86:1 249:1 639:1 792:1 1287:1 
1 0 1 1 2:1 4:1 13:1 29:1 45:1 65:1 126:1 139:1 161:1 166:1 170:1 223:1 1288:1 1289:1 
1 1 1 1 1:1 2:1 4:1 12:1 13:1 19:1 58:1 65:1 73:1 77:1 101:1 111:1 236:1 243:1 460:1 564:1 604:1 941:1 983:1 1214:1 1290:1 1291:1 1292:1 1293:1 1294:1 
1 0 1 1 2:1 4:1 12:1 13:1 48:1 73:1 220:1 376:1 1243:1 1296:1 
1 1 1 1 2:1 4:1 6:1 13:1 17:1 38:1 73:1 77:1 86:1 232:1 588:1 1297:1 3340:1 
1 0 1 1 2:1 4:1 12:1 13:1 86:1 166:1 468:1 799:1 985:1 1299:1 
1 1 1 1 2:1 4:1 12:1 13:1 19:1 42:1 126:1 127:1 663:1 1300:1 1301:1 
1 1 1 1 1:1 2:1 4:1 8:1 13:1 42:1 65:1 77:1 97:1 111:1 113:1 152:1 187:1 294:1 359:1 379:1 956:1 1170:1 1303:1 1304:1 1305:1 1306:1 
1 1 1 1 1:1 2:1 4:1 6:1 12:1 13:1 19:1 29:1 70:1 86:1 101:1 109:1 217:1 220:1 516:1 1243:1 1308:1 
1 1 1 1 2:1 4:1 13:1 17:1 161:1 181:1 643:1 766:1 1310:1 
1 0 1 1 2:1 4:1 12:1 13:1 73:1 263:1 269:1 372:1 
1 1 1 1 1:1 2:1 4:1 13:1 373:1 1312:1 
1 1 1 1 2:1 4:1 12:1 13:1 73:1 249:1 376:1 406:1 1059:1 
1 1 1 1 1:1 2:1 4:1 13:1 38:1 65:1 295:1 348:1 1313:1 1314:1 
1 1 1 1 2:1 4:1 13:1 19:1 124:1 183:1 1315:1 1316:1 
1 0 1 1 2:1 4:1 13:1 29:1 48:1 216:1 
1 1 1 1 2:1 4:1 13:1 19:1 38:1 42:1 47:1 58:1 73:1 74:1 77:1 91:1 101:1 116:1 161:1 308:1 905:1 1317:1 1318:1 1319:1 1320:1 1321:1 1322:1 1323:1 1324:1 
1 1 1 1 1:1 2:1 4:1 8:1 12:1 13:1 19:1 34:1 65:1 74:1 77:1 97:1 109:1 249:1 359:1 919:1 923:1 1325:1 1327:1 1328:1 
1 1 1 1 2:1 4:1 13:1 247:1 497:1 1329:1 
1 1 1 1 1:1 2:1 4:1 6:1 9:1 13:1 19:1 20:1 32:1 34:1 65:1 77:1 139:1 161:1 195:1 220:1 327:1 825:1 
1 1 1 1 1:1 2:1 4:1 5:1 13:1 101:1 239:1 361:1 467:1 1331:1 1332:1 1333:1 
1 0 1 1 2:1 4:1 13:1 65:1 86:1 189:1 373:1 632:1 1335:1 1336:1 
1 1 1 1 2:1 4:1 13:1 34:1 38:1 48:1 77:1 134:1 1337:1 1338:1 1339:1 18172:1 
1 1 1 1 2:1 4:1 13:1 65:1 373:1 1341:1 
1 1 1 1 2:1 4:1 13:1 19:1 29:1 38:1 77:1 127:1 148:1 1342:1 1343:1 
1 1 1 1 2:1 4:1 13:1 1344:1 1346:1 
1 1 1 1 2:1 4:1 13:1 340:1 341:1 342:1 497:1 611:1 752:1 753:1 
1 1 1 1 2:1 4:1 13:1 65:1 1347:1 1348:1 1349:1 
1 1 1 1 2:1 4:1 13:1 50:1 52:1 86:1 871:1 1350:1 1351:1 1352:1 1353:1 1354:1 
1 1 1 1 2:1 4:1 8:1 13:1 52:1 249:1 826:1 1011:1 
1 1 1 1 1:1 2:1 4:1 10:1 12:1 13:1 68:1 330:1 394:1 
1 1 1 1 1:1 2:1 4:1 10:1 12:1 13:1 19:1 42:1 48:1 49:1 68:1 323:1 330:1 332:1 394:1 532:1 777:1 
1 1 1 1 2:1 4:1 12:1 13:1 58:1 65:1 109:1 139:1 188:1 516:1 1357:1 1358:1 
1 1 1 1 2:1 4:1 8:1 13:1 34:1 42:1 58:1 74:1 103:1 111:1 125:1 161:1 177:1 249:1 306:1 346:1 675:1 1231:1 1359:1 1362:1 1363:1 1364:1 
1 1 1 1 2:1 4:1 13:1 152:1 171:1 173:1 295:1 900:1 1366:1 1367:1 
1 1 1 1 2:1 4:1 13:1 70:1 987:1 
1 1 1 1 2:1 4:1 12:1 13:1 74:1 170:1 465:1 793:1 
1 1 1 1 2:1 4:1 10:1 13:1 42:1 65:1 70:1 81:1 83:1 86:1 101:1 124:1 364:1 663:1 868:1 1371:1 1372:1 1373:1 
1 1 1 1 2:1 4:1 12:1 13:1 42:1 81:1 168:1 212:1 232:1 240:1 319:1 324:1 771:1 
1 1 1 1 2:1 4:1 13:1 47:1 49:1 68:1 86:1 114:1 173:1 232:1 337:1 456:1 1376:1 1377:1 
1 1 1 1 1:1 2:1 4:1 13:1 132:1 306:1 577:1 
1 1 1 1 2:1 4:1 13:1 42:1 723:1 1378:1 1380:1 
1 1 1 1 2:1 4:1 13:1 49:1 50:1 74:1 
1 1 1 1 2:1 4:1 13:1 17:1 20:1 38:1 42:1 65:1 77:1 80:1 101:1 116:1 161:1 209:1 240:1 364:1 426:1 683:1 1381:1 
1 1 1 1 1:1 2:1 4:1 13:1 19:1 65:1 97:1 109:1 134:1 148:1 262:1 335:1 1107:1 1382:1 
1 0 1 1 2:1 4:1 8:1 10:1 12:1 13:1 65:1 73:1 77:1 86:1 88:1 126:1 161:1 373:1 427:1 1289:1 1383:1 20712:1 
1 1 1 1 2:1 4:1 5:1 12:1 13:1 42:1 373:1 434:1 639:1 1384:1 
1 1 1 1 2:1 4:1 13:1 42:1 49:1 75:1 359:1 1385:1 1386:1 
1 1 1 1 2:1 4:1 13:1 109:1 493:1 516:1 792:1 1387:1 
1 1 1 1 2:1 4:1 5:1 6:1 13:1 65:1 67:1 139:1 447:1 
1 1 1 1 2:1 4:1 13:1 48:1 65:1 70:1 109:1 202:1 247:1 397:1 577:1 897:1 1388:1 1389:1 1390:1 
1 0 1 1 2:1 4:1 13:1 29:1 86:1 181:1 216:1 229:1 1392:1 
1 1 1 1 2:1 4:1 8:1 13:1 38:1 42:1 47:1 57:1 58:1 65:1 101:1 103:1 258:1 302:1 361:1 616:1 694:1 878:1 879:1 881:1 882:1 883:1 1393:1 
1 1 1 1 2:1 4:1 13:1 77:1 161:1 181:1 216:1 450:1 
1 1 1 1 2:1 4:1 13:1 340:1 341:1 342:1 
1 1 1 1 2:1 4:1 12:1 13:1 16:1 19:1 62:1 183:1 308:1 497:1 941:1 1061:1 1193:1 1291:1 1395:1 
1 1 1 1 2:1 4:1 13:1 86:1 220:1 262:1 363:1 397:1 520:1 733:1 1270:1 
1 1 1 1 1:1 2:1 4:1 19:1 68:1 70:1 74:1 94:1 232:1 1100:1 1275:1 1396:1 1397:1 1398:1 1399:1 
1 1 1 1 2:1 4:1 10:1 12:1 13:1 38:1 42:1 73:1 77:1 80:1 116:1 126:1 161:1 166:1 570:1 1401:1 1402:1 1403:1 
1 1 1 1 1:1 2:1 4:1 9:1 12:1 13:1 38:1 47:1 58:1 65:1 67:1 73:1 77:1 86:1 111:1 117:1 181:1 220:1 221:1 373:1 406:1 427:1 590:1 685:1 832:1 893:1 1111:1 1404:1 1406:1 22891:1 
1 0 1 1 2:1 4:1 6:1 13:1 29:1 38:1 47:1 50:1 65:1 67:1 73:1 77:1 81:1 139:1 146:1 158:1 190:1 198:1 223:1 319:1 391:1 440:1 1407:1 
1 1 1 1 2:1 4:1 13:1 38:1 127:1 128:1 
1 0 1 1 2:1 4:1 10:1 12:1 13:1 29:1 47:1 128:1 165:1 967:1 1408:1 
1 1 1 1 2:1 4:1 8:1 13:1 54:1 73:1 74:1 220:1 519:1 
1 1 1 1 2:1 4:1 12:1 13:1 50:1 95:1 
1 0 1 1 2:1 4:1 12:1 13:1 73:1 86:1 126:1 161:1 216:1 747:1 1032:1 
1 1 1 1 2:1 4:1 13:1 38:1 48:1 70:1 77:1 86:1 173:1 182:1 1410:1 1411:1 1412:1 
1 1 1 1 1:1 2:1 4:1 9:1 10:1 13:1 42:1 47:1 50:1 58:1 96:1 150:1 871:1 1413:1 1417:1 1418:1 1419:1 11145:1 
1 0 1 1 2:1 4:1 12:1 13:1 73:1 86:1 111:1 177:1 216:1 217:1 352:1 
1 1 1 1 2:1 4:1 13:1 49:1 86:1 167:1 338:1 825:1 1213:1 
1 1 1 1 1:1 2:1 4:1 12:1 13:1 109:1 240:1 337:1 361:1 503:1 1422:1 
1 1 1 1 1:1 2:1 4:1 10:1 12:1 13:1 19:1 58:1 65:1 86:1 110:1 111:1 131:1 135:1 191:1 966:1 1265:1 
1 0 1 1 2:1 4:1 13:1 29:1 215:1 
1 0 1 1 2:1 4:1 6:1 10:1 13:1 46:1 48:1 73:1 74:1 111:1 215:1 327:1 406:1 
1 1 1 1 2:1 4:1 8:1 13:1 110:1 111:1 143:1 1424:1 
1 1 1 1 2:1 4:1 13:1 11145:1 
1 1 1 1 2:1 4:1 13:1 109:1 125:1 328:1 
1 1 1 1 2:1 4:1 13:1 333:1 613:1 1426:1 1427:1 
1 1 1 1 2:1 4:1 13:1 49:1 66:1 86:1 126:1 1428:1 1429:1 1430:1 
1 1 1 1 2:1 4:1 13:1 48:1 65:1 109:1 166:1 202:1 363:1 1431:1 1432:1 1433:1 1434:1 
1 1 1 1 2:1 4:1 13:1 42:1 47:1 48:1 50:1 73:1 86:1 109:1 145:1 166:1 173:1 176:1 234:1 295:1 299:1 570:1 745:1 927:1 943:1 1436:1 1437:1 1438:1 
1 1 1 1 2:1 4:1 9:1 10:1 13:1 38:1 50:1 65:1 86:1 94:1 109:1 139:1 173:1 539:1 589:1 892:1 1132:1 1404:1 1439:1 
1 1 1 1 2:1 4:1 13:1 145:1 586:1 
1 1 1 1 2:1 4:1 13:1 34:1 48:1 50:1 75:1 134:1 168:1 261:1 337:1 434:1 505:1 1441:1 1442:1 1443:1 1444:1 
1 1 1 1 1:1 2:1 4:1 10:1 12:1 13:1 45:1 65:1 73:1 177:1 221:1 314:1 337:1 
1 0 1 1 2:1 4:1 13:1 48:1 64:1 65:1 84:1 86:1 111:1 173:1 177:1 178:1 181:1 817:1 818:1 821:1 
1 1 1 1 2:1 4:1 13:1 42:1 397:1 663:1 1447:1 21258:1 
1 0 1 1 2:1 4:1 6:1 9:1 13:1 20:1 32:1 34:1 65:1 77:1 139:1 161:1 195:1 220:1 327:1 825:1 
1 1 1 1 2:1 4:1 5:1 13:1 62:1 
1 1 1 1 1:1 2:1 4:1 13:1 19:1 
1 1 1 1 1:1 2:1 4:1 13:1 65:1 86:1 124:1 220:1 221:1 314:1 685:1 1448:1 1449:1 1450:1 
1 1 1 1 1:1 2:1 4:1 13:1 19:1 145:1 248:1 741:1 
1 1 1 1 2:1 4:1 10:1 13:1 40:1 41:1 42:1 50:1 86:1 152:1 294:1 520:1 799:1 806:1 1452:1 1453:1 10089:1 
1 1 1 1 2:1 4:1 13:1 109:1 152:1 171:1 364:1 1454:1 1455:1 
1 1 1 1 2:1 4:1 13:1 1457:1 1460:1 
1 0 1 1 2:1 4:1 13:1 65:1 77:1 97:1 111:1 131:1 207:1 351:1 461:1 783:1 1439:1 
1 1 1 1 1:1 2:1 4:1 12:1 13:1 19:1 1461:1 
1 1 1 1 2:1 4:1 13:1 29:1 161:1 184:1 340:1 341:1 342:1 450:1 1463:1 1465:1 
1 1 1 1 2:1 4:1 13:1 29:1 58:1 77:1 86:1 126:1 136:1 137:1 150:1 234:1 324:1 440:1 1115:1 1466:1 1467:1 1468:1 
1 1 1 1 2:1 4:1 13:1 20712:1 
1 1 1 1 2:1 4:1 13:1 586:1 
1 1 1 1 2:1 4:1 13:1 77:1 173:1 377:1 463:1 917:1 
1 1 1 1 2:1 4:1 13:1 19:1 49:1 63:1 86:1 111:1 135:1 198:1 236:1 308:1 578:1 1074:1 
1 1 1 1 2:1 4:1 12:1 13:1 65:1 766:1 1469:1 
1 0 1 1 2:1 4:1 13:1 20:1 86:1 181:1 216:1 229:1 247:1 497:1 611:1 
1 1 1 1 2:1 4:1 13:1 20:1 216:1 229:1 20277:1 
1 0 1 1 2:1 4:1 12:1 13:1 29:1 127:1 
1 1 1 1 2:1 4:1 12:1 13:1 42:1 58:1 676:1 1457:1 1472:1 1473:1 1474:1 1475:1 1476:1 1477:1 1478:1 1479:1 1480:1 1481:1 1482:1 1483:1 1484:1 1485:1 1486:1 1487:1 
1 1 1 1 1:1 2:1 4:1 13:1 32:1 38:1 47:1 103:1 187:1 1488:1 1489:1 1490:1 1491:1 
1 1 1 1 1:1 2:1 4:1 8:1 12:1 13:1 49:1 50:1 53:1 58:1 64:1 65:1 73:1 77:1 101:1 110:1 111:1 168:1 177:1 218:1 355:1 495:1 825:1 
1 0 1 1 2:1 4:1 9:1 13:1 29:1 70:1 73:1 75:1 215:1 406:1 1492:1 
1 1 1 1 2:1 4:1 13:1 50:1 68:1 152:1 175:1 373:1 
1 1 1 1 1:1 2:1 4:1 12:1 13:1 19:1 48:1 73:1 74:1 75:1 77:1 86:1 103:1 148:1 155:1 221:1 236:1 373:1 856:1 857:1 858:1 859:1 860:1 1493:1 1494:1 
1 1 1 1 2:1 4:1 10:1 13:1 74:1 81:1 1495:1 1496:1 1497:1 
1 1 1 1 2:1 4:1 13:1 1499:1 1500:1 
1 1 1 1 1:1 2:1 4:1 12:1 13:1 80:1 94:1 577:1 1265:1 1501:1 1502:1 
1 1 1 1 1:1 2:1 4:1 13:1 392:1 420:1 1503:1 1504:1 1505:1 
1 1 1 1 2:1 4:1 13:1 377:1 1326:1 1508:1 1509:1 1510:1 1512:1 1513:1 1514:1 1515:1 
1 0 1 1 2:1 4:1 13:1 48:1 49:1 73:1 111:1 258:1 261:1 1516:1 
1 1 1 1 2:1 4:1 13:1 16:1 47:1 427:1 444:1 753:1 1519:1 1520:1 
1 1 1 1 2:1 4:1 5:1 13:1 58:1 73:1 110:1 111:1 177:1 307:1 586:1 1019:1 
1 1 1 1 2:1 4:1 13:1 77:1 161:1 
1 1 1 1 2:1 4:1 12:1 13:1 42:1 73:1 216:1 217:1 
1 1 1 1 2:1 4:1 10:1 13:1 77:1 97:1 152:1 249:1 639:1 836:1 1523:1 20277:1 
1 1 1 1 2:1 4:1 13:1 73:1 161:1 361:1 519:1 1226:1 1524:1 
1 1 1 1 2:1 4:1 13:1 46:1 65:1 86:1 101:1 111:1 144:1 1439:1 1526:1 1527:1 
1 1 1 1 1:1 2:1 4:1 13:1 19:1 52:1 373:1 716:1 785:1 
1 1 1 1 1:1 2:1 4:1 10:1 12:1 13:1 19:1 38:1 42:1 49:1 77:1 127:1 161:1 215:1 535:1 1528:1 
1 1 1 1 2:1 4:1 10:1 13:1 20:1 59:1 269:1 1529:1 
1 0 1 1 2:1 4:1 13:1 29:1 181:1 216:1 
1 1 1 1 2:1 4:1 13:1 
1 0 1 1 2:1 4:1 5:1 9:1 12:1 13:1 38:1 73:1 75:1 77:1 86:1 127:1 348:1 373:1 440:1 934:1 1228:1 1530:1 
1 1 1 1 1:1 2:1 4:1 9:1 13:1 64:1 103:1 1531:1 1532:1 
1 1 1 1 1:1 2:1 4:1 13:1 74:1 77:1 132:1 314:1 497:1 1533:1 1534:1 1535:1 1536:1 1537:1 1538:1 10101:1 
1 1 1 1 2:1 4:1 6:1 10:1 13:1 58:1 65:1 74:1 109:1 120:1 200:1 202:1 219:1 249:1 294:1 355:1 580:1 1024:1 1145:1 1387:1 1539:1 1540:1 
1 1 1 1 1:1 2:1 4:1 13:1 16:1 74:1 83:1 126:1 438:1 497:1 1542:1 
1 0 1 1 2:1 4:1 9:1 13:1 29:1 50:1 73:1 77:1 214:1 215:1 236:1 1543:1 
1 1 1 1 2:1 4:1 13:1 25:1 29:1 361:1 839:1 
1 1 1 1 1:1 2:1 4:1 8:1 12:1 13:1 57:1 58:1 73:1 94:1 97:1 109:1 111:1 122:1 127:1 168:1 200:1 294:1 306:1 335:1 337:1 855:1 1234:1 1544:1 1545:1 1546:1 
1 0 1 1 2:1 4:1 13:1 38:1 47:1 65:1 67:1 73:1 74:1 77:1 80:1 86:1 110:1 111:1 126:1 161:1 166:1 236:1 669:1 702:1 1289:1 1547:1 1548:1 1549:1 1550:1 1551:1 1552:1 
1 1 1 1 1:1 2:1 4:1 13:1 101:1 111:1 324:1 1553:1 
1 1 1 1 2:1 4:1 13:1 19:1 49:1 75:1 127:1 340:1 342:1 392:1 404:1 499:1 514:1 853:1 864:1 1400:1 1424:1 1554:1 
1 1 1 1 1:1 2:1 4:1 10:1 19:1 29:1 58:1 65:1 73:1 74:1 77:1 86:1 110:1 111:1 112:1 113:1 122:1 131:1 158:1 324:1 426:1 538:1 539:1 577:1 864:1 1407:1 1555:1 1556:1 
1 0 1 1 2:1 4:1 13:1 29:1 41:1 48:1 65:1 77:1 101:1 215:1 539:1 954:1 1194:1 1557:1 1558:1 1559:1 
1 1 1 1 2:1 4:1 13:1 46:1 74:1 145:1 372:1 1560:1 
1 1 1 1 2:1 4:1 6:1 13:1 73:1 74:1 77:1 161:1 194:1 195:1 196:1 197:1 198:1 200:1 
1 0 1 1 2:1 4:1 13:1 45:1 65:1 86:1 373:1 504:1 1561:1 1562:1 
1 1 1 1 2:1 4:1 13:1 
1 1 1 1 2:1 4:1 13:1 74:1 166:1 
1 1 1 1 2:1 4:1 13:1 20:1 
1 1 1 1 2:1 4:1 12:1 13:1 349:1 1564:1 1565:1 1566:1 
1 1 1 1 1:1 2:1 4:1 12:1 13:1 19:1 53:1 73:1 77:1 86:1 111:1 112:1 113:1 114:1 115:1 116:1 117:1 119:1 120:1 121:1 
1 1 1 1 2:1 4:1 13:1 32:1 42:1 54:1 220:1 1568:1 
1 1 1 1 2:1 4:1 13:1 
1 1 1 1 2:1 4:1 13:1 186:1 1571:1 
1 1 1 1 2:1 4:1 8:1 13:1 57:1 168:1 205:1 207:1 351:1 
1 1 1 1 1:1 2:1 4:1 13:1 40:1 46:1 74:1 202:1 249:1 392:1 539:1 780:1 1194:1 1572:1 1573:1 
1 1 1 1 2:1 4:1 9:1 13:1 19:1 29:1 34:1 42:1 127:1 183:1 206:1 207:1 294:1 639:1 885:1 1574:1 
1 1 1 1 1:1 2:1 4:1 13:1 19:1 48:1 74:1 77:1 120:1 173:1 314:1 1576:1 1577:1 
1 1 1 1 2:1 4:1 13:1 47:1 67:1 70:1 73:1 395:1 688:1 1579:1 
1 0 1 1 2:1 4:1 13:1 29:1 65:1 86:1 97:1 101:1 103:1 111:1 152:1 161:1 220:1 889:1 1563:1 1581:1 
1 1 1 1 2:1 4:1 9:1 13:1 34:1 42:1 161:1 175:1 181:1 206:1 207:1 246:1 289:1 1582:1 
1 0 1 1 2:1 4:1 6:1 13:1 19:1 29:1 32:1 45:1 54:1 65:1 80:1 125:1 131:1 170:1 220:1 308:1 337:1 406:1 
1 1 1 1 2:1 4:1 13:1 53:1 86:1 202:1 220:1 256:1 324:1 392:1 685:1 745:1 1194:1 1583:1 
1 1 1 1 1:1 2:1 4:1 13:1 189:1 
1 1 1 1 2:1 4:1 13:1 152:1 1213:1 
1 1 1 1 2:1 4:1 13:1 19:1 49:1 97:1 183:1 221:1 1585:1 
1 1 1 1 2:1 4:1 12:1 13:1 75:1 780:1 792:1 1586:1 
1 1 1 1 1:1 2:1 4:1 13:1 19:1 49:1 68:1 77:1 308:1 495:1 576:1 1135:1 1587:1 1588:1 
1 1 1 1 2:1 4:1 13:1 65:1 176:1 220:1 221:1 229:1 373:1 1270:1 1404:1 1543:1 
1 1 1 1 1:1 2:1 4:1 9:1 12:1 13:1 48:1 219:1 364:1 1590:1 
1 1 1 1 1:1 2:1 4:1 5:1 13:1 19:1 45:1 48:1 49:1 50:1 58:1 96:1 109:1 168:1 220:1 425:1 577:1 871:1 919:1 923:1 10089:1 
1 1 1 1 1:1 2:1 4:1 13:1 19:1 53:1 57:1 64:1 103:1 148:1 1592:1 
1 1 1 1 2:1 4:1 13:1 33:1 42:1 48:1 49:1 101:1 340:1 342:1 361:1 404:1 
1 1 1 1 2:1 4:1 13:1 68:1 86:1 494:1 1227:1 1595:1 1596:1 1597:1 1598:1 
1 0 1 1 2:1 4:1 6:1 12:1 13:1 22:1 29:1 73:1 77:1 80:1 86:1 126:1 161:1 181:1 206:1 207:1 216:1 220:1 227:1 246:1 318:1 450:1 504:1 693:1 698:1 1600:1 
1 1 1 1 2:1 4:1 13:1 1601:1 
1 1 1 1 2:1 4:1 9:1 13:1 73:1 86:1 111:1 327:1 378:1 1085:1 1086:1 1088:1 1089:1 
1 1 1 1 2:1 4:1 12:1 13:1 58:1 1603:1 1604:1 1606:1 1607:1 1608:1 1609:1 1610:1 1611:1 1612:1 1613:1 1615:1 1616:1 1617:1 1618:1 1619:1 1620:1 1621:1 1622:1 
1 1 1 1 2:1 4:1 13:1 74:1 103:1 109:1 1107:1 1457:1 1623:1 1624:1 1625:1 1626:1 1627:1 1628:1 1629:1 1630:1 1632:1 1633:1 1634:1 1635:1 1636:1 
1 0 1 1 2:1 4:1 5:1 13:1 19:1 29:1 65:1 73:1 81:1 111:1 124:1 139:1 161:1 167:1 178:1 202:1 392:1 606:1 1410:1 1424:1 1637:1 25911:1 
1 1 1 1 1:1 2:1 4:1 13:1 40:1 49:1 77:1 181:1 205:1 261:1 335:1 336:1 1638:1 1639:1 
1 1 1 1 2:1 4:1 13:1 70:1 77:1 126:1 693:1 1641:1 
1 1 1 1 2:1 4:1 8:1 13:1 50:1 64:1 65:1 74:1 109:1 134:1 363:1 1642:1 1643:1 
1 1 1 1 2:1 4:1 13:1 48:1 74:1 77:1 120:1 173:1 314:1 1576:1 1577:1 
1 1 1 1 1:1 2:1 4:1 13:1 19:1 38:1 48:1 77:1 103:1 260:1 707:1 777:1 802:1 851:1 1020:1 1022:1 
1 1 1 1 2:1 4:1 13:1 19:1 74:1 109:1 135:1 308:1 1644:1 
1 1 1 1 1:1 2:1 4:1 12:1 13:1 38:1 376:1 1645:1 1646:1 
1 1 1 1 2:1 4:1 13:1 42:1 77:1 125:1 269:1 373:1 461:1 539:1 643:1 
1 1 1 1 2:1 4:1 13:1 111:1 22891:1 
1 1 1 1 2:1 4:1 10:1 12:1 13:1 65:1 249:1 261:1 503:1 685:1 742:1 828:1 1648:1 
1 1 1 1 1:1 2:1 4:1 13:1 333:1 
1 1 1 1 2:1 4:1 13:1 16:1 86:1 103:1 107:1 818:1 1437:1 1649:1 1650:1 
1 1 1 1 2:1 4:1 13:1 32:1 67:1 70:1 86:1 96:1 661:1 1011:1 1651:1 1652:1 1653:1 1655:1 1656:1 
1 0 1 1 2:1 4:1 13:1 48:1 65:1 110:1 111:1 114:1 177:1 314:1 373:1 634:1 
1 1 1 1 1:1 2:1 4:1 12:1 13:1 53:1 64:1 68:1 103:1 134:1 135:1 
1 1 1 1 1:1 2:1 4:1 13:1 200:1 717:1 
1 1 1 1 2:1 4:1 13:1 46:1 47:1 77:1 101:1 753:1 1659:1 
1 1 1 1 1:1 2:1 4:1 13:1 19:1 152:1 1213:1 
1 1 1 1 1:1 2:1 4:1 8:1 13:1 32:1 78:1 111:1 202:1 249:1 335:1 382:1 580:1 764:1 825:1 
1 1 1 1 1:1 2:1 4:1 10:1 13:1 642:1 1660:1 
1 1 1 1 2:1 4:1 9:1 13:1 40:1 161:1 171:1 334:1 340:1 342:1 404:1 488:1 756:1 1663:1 1664:1 
1 0 1 1 2:1 4:1 13:1 29:1 49:1 52:1 77:1 86:1 113:1 127:1 173:1 204:1 261:1 1067:1 1228:1 1665:1 1666:1 
1 1 1 1 2:1 4:1 13:1 74:1 200:1 
1 1 1 1 2:1 4:1 13:1 42:1 65:1 77:1 86:1 101:1 127:1 178:1 258:1 438:1 449:1 945:1 981:1 1668:1 1669:1 1670:1 
1 1 1 1 2:1 4:1 9:1 13:1 34:1 42:1 74:1 134:1 187:1 390:1 391:1 883:1 929:1 
1 1 1 1 1:1 2:1 4:1 13:1 49:1 65:1 94:1 139:1 183:1 219:1 308:1 588:1 
1 0 1 1 2:1 4:1 13:1 65:1 73:1 77:1 86:1 883:1 1225:1 1671:1 1672:1 20705:1 
1 1 1 1 2:1 4:1 13:1 17:1 1150:1 1673:1 
1 1 1 1 2:1 4:1 13:1 145:1 376:1 
1 1 1 1 2:1 4:1 8:1 13:1 50:1 52:1 871:1 1595:1 1674:1 1675:1 1676:1 
1 1 1 1 2:1 4:1 6:1 10:1 13:1 42:1 687:1 
1 1 1 1 1:1 2:1 4:1 9:1 13:1 58:1 74:1 161:1 166:1 176:1 249:1 1677:1 1679:1 1680:1 1682:1 
1 1 1 1 1:1 2:1 4:1 6:1 9:1 12:1 13:1 27:1 47:1 70:1 86:1 120:1 232:1 317:1 461:1 468:1 822:1 851:1 855:1 1450:1 1683:1 1684:1 
1 0 1 1 2:1 4:1 13:1 29:1 38:1 42:1 48:1 49:1 73:1 74:1 75:1 195:1 214:1 215:1 220:1 285:1 461:1 506:1 539:1 1685:1 1686:1 1687:1 
1 1 1 1 2:1 4:1 9:1 13:1 19:1 77:1 127:1 141:1 183:1 
1 1 1 1 1:1 2:1 4:1 12:1 13:1 75:1 240:1 550:1 
1 1 1 1 2:1 4:1 9:1 13:1 49:1 50:1 337:1 364:1 1496:1 1688:1 20277:1 
1 1 1 1 2:1 4:1 13:1 57:1 273:1 1689:1 
1 1 1 1 1:1 2:1 4:1 13:1 19:1 74:1 77:1 86:1 611:1 1691:1 
1 1 1 1 2:1 4:1 10:1 13:1 41:1 42:1 47:1 58:1 65:1 68:1 77:1 86:1 88:1 109:1 114:1 161:1 530:1 960:1 1141:1 1387:1 1695:1 1696:1 1697:1 1698:1 1699:1 
1 1 1 1 2:1 4:1 13:1 65:1 67:1 152:1 229:1 1701:1 1702:1 
1 1 1 1 2:1 4:1 9:1 12:1 13:1 19:1 42:1 46:1 130:1 
1 1 1 1 1:1 2:1 4:1 13:1 19:1 38:1 42:1 73:1 77:1 161:1 264:1 1703:1 1704:1 
1 1 1 1 2:1 4:1 12:1 13:1 637:1 1221:1 
1 1 1 1 1:1 2:1 4:1 13:1 16:1 19:1 20:1 21:1 22:1 23:1 24:1 
1 1 1 1 2:1 4:1 6:1 13:1 65:1 73:1 294:1 337:1 612:1 1243:1 1710:1 
1 1 1 1 2:1 4:1 13:1 29:1 47:1 64:1 65:1 66:1 86:1 201:1 213:1 363:1 364:1 1643:1 1711:1 1712:1 10089:1 
1 1 1 1 1:1 2:1 4:1 13:1 32:1 54:1 938:1 1713:1 
1 1 1 1 2:1 4:1 6:1 13:1 53:1 221:1 490:1 1714:1 20712:1 
1 1 1 1 1:1 2:1 4:1 12:1 13:1 58:1 584:1 
1 1 1 1 2:1 4:1 13:1 68:1 77:1 213:1 340:1 342:1 397:1 404:1 718:1 828:1 1534:1 1716:1 1717:1 1718:1 
1 0 1 1 2:1 4:1 12:1 13:1 70:1 73:1 77:1 109:1 125:1 127:1 132:1 181:1 216:1 516:1 854:1 1720:1 
1 1 1 1 2:1 4:1 13:1 19:1 73:1 86:1 125:1 126:1 137:1 152:1 161:1 390:1 471:1 635:1 1311:1 
1 1 1 1 1:1 2:1 4:1 9:1 12:1 13:1 19:1 29:1 32:1 42:1 50:1 94:1 109:1 122:1 168:1 323:1 332:1 877:1 1721:1 1722:1 1723:1 1724:1 
1 1 1 1 2:1 4:1 10:1 13:1 42:1 47:1 77:1 86:1 126:1 170:1 934:1 935:1 1725:1 1726:1 1727:1 1728:1 
1 1 1 1 2:1 4:1 13:1 48:1 49:1 77:1 333:1 968:1 1729:1 1730:1 
1 1 1 1 1:1 2:1 4:1 13:1 29:1 634:1 
1 1 1 1 1:1 2:1 4:1 13:1 19:1 77:1 113:1 161:1 392:1 394:1 450:1 725:1 
1 1 1 1 2:1 4:1 13:1 29:1 
1 0 1 1 2:1 4:1 13:1 29:1 86:1 632:1 1335:1 1336:1 
1 1 1 1 1:1 2:1 4:1 13:1 19:1 68:1 73:1 127:1 148:1 638:1 960:1 1735:1 
1 1 1 1 2:1 4:1 13:1 42:1 65:1 1259:1 1260:1 1381:1 1709:1 1736:1 
1 1 1 1 2:1 4:1 13:1 83:1 170:1 1738:1 
1 1 1 1 2:1 4:1 13:1 47:1 65:1 175:1 188:1 372:1 637:1 1739:1 1740:1 1742:1 20857:1 
1 1 1 1 1:1 2:1 4:1 13:1 19:1 80:1 86:1 127:1 187:1 941:1 1114:1 1709:1 
1 1 1 1 2:1 4:1 13:1 54:1 80:1 101:1 109:1 111:1 150:1 293:1 328:1 368:1 461:1 1125:1 1743:1 1744:1 
1 0 1 1 2:1 4:1 12:1 13:1 73:1 77:1 86:1 119:1 120:1 121:1 
1 1 1 1 2:1 4:1 5:1 13:1 48:1 49:1 58:1 65:1 70:1 77:1 110:1 111:1 113:1 139:1 161:1 219:1 240:1 249:1 258:1 293:1 1739:1 1745:1 1746:1 1747:1 1748:1 
1 1 1 1 2:1 4:1 10:1 13:1 29:1 
1 1 1 1 2:1 4:1 13:1 65:1 166:1 229:1 1214:1 1751:1 
1 1 1 1 2:1 4:1 12:1 13:1 19:1 42:1 65:1 101:1 122:1 148:1 168:1 204:1 205:1 221:1 308:1 313:1 461:1 1193:1 
1 1 1 1 1:1 2:1 4:1 13:1 19:1 42:1 56:1 63:1 80:1 113:1 152:1 202:1 392:1 537:1 663:1 1548:1 1752:1 1753:1 1754:1 
1 1 1 1 2:1 4:1 9:1 13:1 38:1 47:1 50:1 65:1 77:1 97:1 101:1 269:1 392:1 427:1 780:1 1613:1 1756:1 1757:1 1758:1 
1 1 1 1 2:1 4:1 13:1 38:1 42:1 47:1 57:1 64:1 65:1 73:1 77:1 103:1 139:1 261:1 536:1 1114:1 1760:1 1761:1 1762:1 1763:1 1764:1 1765:1 
1 1 1 1 2:1 4:1 12:1 13:1 145:1 
1 1 1 1 1:1 2:1 4:1 12:1 13:1 65:1 178:1 307:1 1243:1 1770:1 
1 1 1 1 2:1 4:1 13:1 68:1 1772:1 
1 1 1 1 2:1 4:1 13:1 74:1 175:1 181:1 623:1 1024:1 1243:1 
1 1 1 1 2:1 4:1 13:1 34:1 97:1 117:1 145:1 168:1 176:1 1400:1 1773:1 
1 1 1 1 2:1 4:1 13:1 173:1 372:1 
1 1 1 1 1:1 2:1 4:1 13:1 19:1 32:1 42:1 84:1 97:1 103:1 109:1 142:1 152:1 461:1 790:1 1775:1 
1 1 1 1 1:1 2:1 4:1 12:1 13:1 19:1 38:1 47:1 74:1 864:1 1776:1 1777:1 
1 1 1 1 2:1 4:1 13:1 34:1 1779:1 
1 1 1 1 2:1 4:1 5:1 13:1 51:1 64:1 65:1 86:1 643:1 653:1 1215:1 1780:1 
1 1 1 1 2:1 4:1 12:1 13:1 47:1 62:1 314:1 
1 1 1 1 2:1 4:1 13:1 80:1 86:1 127:1 187:1 941:1 1114:1 1709:1 
1 1 1 1 1:1 2:1 4:1 13:1 50:1 54:1 80:1 853:1 875:1 
1 1 1 1 2:1 4:1 8:1 13:1 47:1 49:1 73:1 94:1 288:1 320:1 373:1 834:1 11145:1 
1 1 1 1 2:1 4:1 13:1 47:1 68:1 170:1 640:1 1783:1 1784:1 
1 1 1 1 1:1 2:1 4:1 13:1 53:1 134:1 178:1 298:1 781:1 
1 1 1 1 2:1 4:1 10:1 13:1 70:1 73:1 86:1 377:1 635:1 742:1 851:1 1788:1 
1 1 1 1 2:1 4:1 12:1 13:1 65:1 67:1 99:1 260:1 717:1 720:1 816:1 822:1 919:1 923:1 1789:1 1790:1 1791:1 1792:1 
1 1 1 1 1:1 2:1 4:1 13:1 29:1 53:1 57:1 94:1 97:1 103:1 168:1 316:1 
1 0 1 1 2:1 4:1 12:1 13:1 29:1 1272:1 
1 1 1 1 1:1 2:1 4:1 12:1 13:1 19:1 34:1 50:1 103:1 117:1 
1 0 1 1 2:1 4:1 12:1 13:1 53:1 65:1 73:1 80:1 101:1 103:1 134:1 1419:1 20277:1 
1 1 1 1 2:1 4:1 12:1 13:1 683:1 
1 0 1 1 2:1 4:1 13:1 65:1 86:1 177:1 373:1 1793:1 1794:1 
1 1 1 1 2:1 4:1 13:1 42:1 289:1 1796:1 1797:1 1798:1 1799:1 
1 1 1 1 2:1 4:1 12:1 13:1 42:1 46:1 50:1 73:1 77:1 273:1 371:1 461:1 799:1 800:1 1169:1 20277:1 
1 1 1 1 1:1 2:1 4:1 6:1 8:1 12:1 13:1 57:1 58:1 109:1 113:1 220:1 249:1 363:1 589:1 1800:1 
1 0 1 1 2:1 4:1 13:1 65:1 86:1 97:1 111:1 219:1 293:1 359:1 1802:1 
1 1 1 1 2:1 4:1 10:1 13:1 73:1 86:1 170:1 294:1 337:1 507:1 780:1 1461:1 1804:1 1806:1 
1 1 1 1 2:1 4:1 13:1 42:1 74:1 377:1 1457:1 1477:1 1623:1 1635:1 1807:1 1808:1 1809:1 1810:1 1811:1 1812:1 1813:1 
1 1 1 1 1:1 2:1 4:1 6:1 12:1 13:1 19:1 46:1 47:1 49:1 58:1 69:1 70:1 71:1 72:1 73:1 74:1 75:1 76:1 77:1 78:1 79:1 80:1 81:1 82:1 83:1 
1 0 1 1 2:1 4:1 12:1 13:1 29:1 109:1 516:1 1074:1 
1 1 1 1 1:1 2:1 4:1 12:1 13:1 41:1 46:1 47:1 53:1 58:1 65:1 86:1 124:1 126:1 143:1 166:1 244:1 247:1 330:1 373:1 394:1 822:1 1214:1 1815:1 1816:1 1817:1 1818:1 
1 0 1 1 2:1 4:1 12:1 13:1 49:1 65:1 74:1 101:1 109:1 161:1 293:1 371:1 799:1 818:1 834:1 1074:1 1819:1 1820:1 1821:1 1822:1 
1 1 1 1 2:1 4:1 13:1 58:1 386:1 542:1 
1 1 1 1 1:1 2:1 4:1 13:1 19:1 81:1 86:1 131:1 183:1 206:1 207:1 318:1 422:1 919:1 922:1 923:1 
1 1 1 1 1:1 2:1 4:1 9:1 13:1 58:1 62:1 70:1 73:1 74:1 81:1 86:1 377:1 529:1 682:1 742:1 1097:1 1823:1 1824:1 1825:1 1826:1 1827:1 
1 0 1 1 2:1 4:1 13:1 34:1 49:1 77:1 162:1 206:1 207:1 524:1 1828:1 
1 1 1 1 1:1 2:1 4:1 12:1 13:1 19:1 29:1 261:1 323:1 332:1 1830:1 
1 1 1 1 1:1 2:1 4:1 13:1 32:1 42:1 84:1 97:1 103:1 109:1 142:1 152:1 461:1 790:1 1775:1 
1 1 1 1 2:1 4:1 13:1 1831:1 
1 1 1 1 2:1 4:1 13:1 74:1 220:1 363:1 1071:1 1506:1 1832:1 
1 1 1 1 2:1 4:1 13:1 46:1 49:1 58:1 62:1 74:1 
1 1 1 1 2:1 4:1 12:1 13:1 65:1 77:1 132:1 151:1 262:1 288:1 576:1 1834:1 1835:1 1838:1 
1 1 1 1 2:1 4:1 13:1 65:1 152:1 229:1 359:1 983:1 1839:1 1840:1 
1 1 1 1 2:1 4:1 12:1 13:1 49:1 249:1 1841:1 
1 1 1 1 2:1 4:1 13:1 19:1 29:1 125:1 148:1 1158:1 
1 1 1 1 1:1 2:1 4:1 13:1 49:1 74:1 200:1 206:1 207:1 258:1 420:1 1842:1 
1 1 1 1 2:1 4:1 13:1 38:1 42:1 47:1 49:1 63:1 81:1 101:1 109:1 161:1 200:1 535:1 897:1 956:1 1174:1 1287:1 1843:1 1844:1 1845:1 
1 1 1 1 2:1 4:1 12:1 13:1 38:1 49:1 109:1 
1 1 1 1 2:1 4:1 13:1 19:1 148:1 249:1 779:1 
1 1 1 1 2:1 4:1 13:1 685:1 1214:1 1846:1 1847:1 1848:1 
1 1 1 1 1:1 2:1 4:1 13:1 19:1 65:1 77:1 97:1 111:1 308:1 559:1 773:1 1125:1 1217:1 1849:1 1850:1 
1 1 1 1 2:1 4:1 13:1 38:1 127:1 
1 1 1 1 2:1 4:1 5:1 6:1 8:1 13:1 56:1 57:1 65:1 77:1 99:1 150:1 168:1 273:1 301:1 340:1 341:1 342:1 1818:1 1851:1 1852:1 1853:1 1854:1 
1 0 1 1 2:1 4:1 12:1 13:1 29:1 1612:1 1856:1 
1 1 1 1 2:1 4:1 10:1 13:1 58:1 77:1 126:1 207:1 1857:1 1858:1 1859:1 1860:1 
1 1 1 1 2:1 4:1 13:1 19:1 29:1 58:1 70:1 109:1 126:1 127:1 181:1 183:1 216:1 516:1 
1 0 1 1 2:1 4:1 13:1 29:1 127:1 
1 1 1 1 1:1 2:1 4:1 13:1 74:1 355:1 382:1 579:1 580:1 
1 1 1 1 1:1 2:1 4:1 13:1 19:1 58:1 546:1 
1 1 1 1 1:1 2:1 4:1 13:1 19:1 62:1 65:1 73:1 86:1 110:1 111:1 151:1 177:1 373:1 499:1 
1 1 1 1 2:1 4:1 13:1 186:1 294:1 1861:1 
1 1 1 1 2:1 4:1 13:1 16:1 70:1 86:1 96:1 319:1 541:1 1862:1 1863:1 1864:1 1865:1 1866:1 
1 1 1 1 1:1 2:1 4:1 13:1 49:1 74:1 94:1 209:1 401:1 
1 1 1 1 2:1 4:1 13:1 
1 1 1 1 1:1 2:1 4:1 12:1 13:1 32:1 53:1 65:1 134:1 364:1 373:1 390:1 604:1 1868:1 1869:1 1870:1 1871:1 
1 0 1 1 2:1 4:1 6:1 13:1 46:1 47:1 48:1 49:1 58:1 65:1 77:1 127:1 176:1 188:1 194:1 209:1 229:1 1153:1 1872:1 1873:1 1874:1 
1 1 1 1 2:1 4:1 13:1 103:1 207:1 
1 1 1 1 1:1 2:1 4:1 13:1 19:1 21:1 916:1 
1 1 1 1 1:1 2:1 4:1 12:1 13:1 49:1 57:1 58:1 75:1 97:1 167:1 559:1 669:1 670:1 671:1 672:1 673:1 674:1 675:1 
1 1 1 1 1:1 2:1 4:1 5:1 12:1 13:1 19:1 42:1 373:1 434:1 639:1 1384:1 
1 1 1 1 1:1 2:1 4:1 10:1 13:1 65:1 109:1 126:1 187:1 264:1 422:1 715:1 766:1 1875:1 
1 0 1 1 2:1 4:1 13:1 47:1 48:1 80:1 94:1 134:1 209:1 826:1 1221:1 1876:1 
1 1 1 1 2:1 4:1 13:1 29:1 126:1 229:1 249:1 1877:1 
1 1 1 1 2:1 4:1 10:1 12:1 13:1 42:1 86:1 114:1 337:1 1287:1 1878:1 
1 1 1 1 2:1 4:1 9:1 12:1 13:1 38:1 40:1 47:1 65:1 77:1 101:1 120:1 130:1 170:1 497:1 699:1 1879:1 1880:1 10101:1 
1 1 1 1 1:1 2:1 4:1 13:1 58:1 111:1 183:1 308:1 346:1 1613:1 1881:1 
1 1 1 1 2:1 4:1 13:1 58:1 263:1 464:1 
1 1 1 1 1:1 2:1 4:1 13:1 19:1 676:1 677:1 678:1 679:1 680:1 
1 1 1 1 1:1 2:1 4:1 13:1 16:1 19:1 38:1 170:1 223:1 243:1 294:1 426:1 438:1 699:1 
1 1 1 1 2:1 4:1 9:1 12:1 13:1 41:1 65:1 77:1 109:1 249:1 407:1 524:1 634:1 704:1 
1 1 1 1 1:1 2:1 4:1 13:1 19:1 34:1 38:1 74:1 77:1 86:1 94:1 134:1 361:1 466:1 467:1 468:1 469:1 470:1 3340:1 
1 0 1 1 2:1 4:1 13:1 29:1 70:1 86:1 127:1 181:1 216:1 
1 1 1 1 2:1 4:1 12:1 13:1 47:1 68:1 70:1 73:1 77:1 81:1 175:1 194:1 216:1 236:1 322:1 1106:1 1138:1 1884:1 1886:1 
1 1 1 1 2:1 4:1 13:1 42:1 68:1 1890:1 1891:1 
1 0 1 1 2:1 4:1 6:1 12:1 13:1 73:1 77:1 86:1 209:1 220:1 221:1 321:1 373:1 406:1 1893:1 
1 1 1 1 2:1 4:1 13:1 1894:1 
1 0 1 1 2:1 4:1 12:1 13:1 34:1 50:1 103:1 117:1 
1 0 1 1 2:1 4:1 13:1 48:1 65:1 77:1 94:1 162:1 178:1 1094:1 1895:1 
1 1 1 1 1:1 2:1 4:1 13:1 70:1 73:1 75:1 103:1 220:1 576:1 578:1 1558:1 1897:1 1898:1 
1 1 1 1 1:1 2:1 4:1 13:1 241:1 559:1 1234:1 
1 1 1 1 2:1 4:1 10:1 13:1 103:1 139:1 
1 0 1 1 2:1 4:1 12:1 13:1 62:1 74:1 77:1 110:1 111:1 177:1 363:1 434:1 897:1 1900:1 1901:1 
1 1 1 1 2:1 4:1 10:1 13:1 67:1 101:1 109:1 1245:1 1902:1 1903:1 
1 1 1 1 2:1 4:1 13:1 42:1 43:1 46:1 47:1 49:1 58:1 68:1 73:1 74:1 86:1 97:1 109:1 258:1 261:1 334:1 337:1 1905:1 1906:1 
1 1 1 1 2:1 4:1 13:1 34:1 77:1 122:1 151:1 161:1 450:1 1907:1 
1 1 1 1 2:1 4:1 12:1 13:1 19:1 73:1 86:1 127:1 183:1 345:1 1909:1 1910:1 
1 0 1 1 2:1 4:1 13:1 48:1 86:1 109:1 111:1 200:1 373:1 440:1 505:1 508:1 1265:1 1463:1 
1 1 1 1 1:1 2:1 4:1 6:1 13:1 32:1 43:1 54:1 73:1 139:1 851:1 
1 1 1 1 2:1 4:1 13:1 29:1 128:1 229:1 
1 1 1 1 2:1 4:1 13:1 46:1 65:1 86:1 1913:1 1914:1 1915:1 1916:1 
1 1 1 1 13:1 54:1 70:1 766:1 1917:1 1918:1 1919:1 1920:1 1921:1 1922:1 1923:1 1924:1 1925:1 1926:1 1927:1 1928:1 
1 1 1 1 1:1 2:1 4:1 13:1 38:1 47:1 77:1 101:1 161:1 220:1 516:1 559:1 635:1 639:1 864:1 1929:1 1930:1 1931:1 1932:1 1933:1 
1 0 1 1 2:1 4:1 12:1 13:1 38:1 48:1 111:1 373:1 826:1 1934:1 1935:1 
1 1 1 1 2:1 4:1 12:1 13:1 222:1 497:1 1936:1 
1 1 1 1 2:1 4:1 13:1 162:1 288:1 440:1 460:1 1214:1 
1 0 1 1 1:1 2:1 4:1 6:1 12:1 13:1 20:1 29:1 46:1 48:1 65:1 74:1 103:1 139:1 247:1 1937:1 1939:1 1940:1 
1 1 1 1 2:1 4:1 13:1 1638:1 
1 1 1 1 2:1 4:1 13:1 34:1 50:1 58:1 103:1 117:1 176:1 220:1 221:1 510:1 620:1 
1 1 1 1 1:1 2:1 4:1 13:1 34:1 65:1 135:1 145:1 262:1 316:1 339:1 503:1 577:1 
1 1 1 1 1:1 2:1 4:1 9:1 13:1 19:1 42:1 47:1 57:1 62:1 74:1 86:1 109:1 221:1 244:1 262:1 499:1 781:1 966:1 1941:1 1942:1 1943:1 1944:1 
1 1 1 1 1:1 2:1 4:1 12:1 13:1 19:1 29:1 130:1 148:1 168:1 246:1 1945:1 
1 1 1 1 2:1 4:1 13:1 854:1 1161:1 1946:1 
1 1 1 1 1:1 2:1 4:1 13:1 38:1 73:1 77:1 161:1 244:1 742:1 777:1 
1 1 1 1 1:1 2:1 4:1 12:1 13:1 65:1 111:1 175:1 177:1 178:1 198:1 321:1 639:1 822:1 1668:1 
1 0 1 1 2:1 4:1 12:1 13:1 29:1 216:1 
1 1 1 1 1:1 2:1 4:1 13:1 46:1 58:1 74:1 152:1 258:1 261:1 1372:1 1947:1 
1 1 1 1 2:1 4:1 13:1 63:1 590:1 616:1 1743:1 1948:1 
1 1 1 1 1:1 2:1 4:1 13:1 48:1 74:1 109:1 747:1 
1 1 1 1 2:1 4:1 13:1 34:1 47:1 77:1 111:1 134:1 184:1 604:1 766:1 829:1 1949:1 1950:1 
1 1 1 1 1:1 2:1 4:1 12:1 13:1 19:1 29:1 941:1 942:1 
1 1 1 1 2:1 4:1 13:1 17:1 47:1 57:1 77:1 86:1 220:1 258:1 354:1 1645:1 1952:1 1953:1 
1 1 1 1 2:1 4:1 13:1 45:1 48:1 74:1 337:1 519:1 725:1 1954:1 
1 1 1 1 1:1 2:1 4:1 13:1 19:1 32:1 38:1 74:1 187:1 1488:1 1489:1 1490:1 1491:1 
1 1 1 1 2:1 4:1 13:1 77:1 1957:1 1958:1 
1 1 1 1 1:1 2:1 4:1 6:1 9:1 10:1 13:1 16:1 19:1 42:1 50:1 65:1 73:1 74:1 97:1 109:1 111:1 120:1 139:1 249:1 327:1 512:1 555:1 1410:1 1959:1 1960:1 
1 0 1 1 2:1 4:1 13:1 34:1 65:1 73:1 111:1 173:1 359:1 1961:1 3340:1 
1 0 1 1 2:1 4:1 12:1 13:1 73:1 111:1 145:1 177:1 
1 1 1 1 2:1 4:1 13:1 74:1 77:1 150:1 288:1 685:1 1061:1 1963:1 1964:1 
1 1 1 1 2:1 4:1 13:1 34:1 49:1 75:1 173:1 258:1 559:1 715:1 725:1 780:1 929:1 1710:1 
1 1 1 1 2:1 4:1 13:1 68:1 70:1 86:1 127:1 525:1 
1 1 1 1 2:1 4:1 13:1 340:1 341:1 342:1 
1 1 1 1 2:1 4:1 13:1 65:1 73:1 218:1 1967:1 
1 1 1 1 2:1 4:1 13:1 86:1 220:1 363:1 1954:1 1968:1 
1 1 1 1 2:1 4:1 12:1 13:1 48:1 1970:1 
1 1 1 1 2:1 4:1 13:1 34:1 38:1 42:1 50:1 58:1 65:1 70:1 74:1 97:1 111:1 122:1 127:1 161:1 188:1 337:1 373:1 702:1 919:1 923:1 1972:1 20712:1 
1 1 1 1 1:1 2:1 4:1 5:1 12:1 13:1 19:1 58:1 73:1 110:1 111:1 177:1 307:1 586:1 919:1 923:1 1019:1 
1 1 1 1 2:1 4:1 13:1 42:1 70:1 73:1 77:1 103:1 109:1 161:1 183:1 308:1 319:1 834:1 843:1 1884:1 1974:1 1975:1 1976:1 1977:1 1978:1 1979:1 1980:1 
1 0 1 1 2:1 4:1 10:1 12:1 13:1 58:1 65:1 86:1 110:1 111:1 131:1 135:1 191:1 966:1 1265:1 
1 1 1 1 2:1 4:1 9:1 13:1 42:1 47:1 57:1 62:1 74:1 86:1 109:1 221:1 244:1 262:1 499:1 781:1 966:1 1941:1 1942:1 1943:1 
1 0 1 1 2:1 4:1 12:1 13:1 65:1 73:1 74:1 77:1 177:1 818:1 944:1 1700:1 1981:1 1982:1 1983:1 1984:1 1985:1 
1 1 1 1 2:1 4:1 13:1 42:1 47:1 73:1 110:1 111:1 430:1 635:1 1106:1 1987:1 
1 1 1 1 2:1 4:1 8:1 13:1 34:1 73:1 77:1 215:1 460:1 589:1 918:1 937:1 20277:1 
1 1 1 1 2:1 4:1 13:1 34:1 38:1 77:1 109:1 134:1 1338:1 1991:1 1992:1 1993:1 
1 1 1 1 2:1 4:1 13:1 38:1 73:1 74:1 294:1 1347:1 
1 1 1 1 2:1 4:1 13:1 20:1 126:1 194:1 247:1 372:1 766:1 1408:1 1995:1 1996:1 1997:1 
1 1 1 1 2:1 4:1 13:1 42:1 161:1 273:1 451:1 464:1 1998:1 1999:1 2000:1 
1 1 1 1 2:1 4:1 13:1 65:1 161:1 718:1 2002:1 
1 1 1 1 2:1 4:1 13:1 220:1 337:1 639:1 826:1 
1 1 1 1 1:1 2:1 4:1 12:1 13:1 50:1 54:1 65:1 168:1 221:1 
1 0 1 1 2:1 4:1 13:1 65:1 74:1 86:1 111:1 372:1 615:1 1194:1 2004:1 2005:1 2006:1 2007:1 
1 1 1 1 2:1 4:1 13:1 46:1 74:1 80:1 209:1 1254:1 1291:1 2009:1 
1 1 1 1 2:1 4:1 13:1 52:1 70:1 86:1 109:1 111:1 201:1 236:1 564:1 1145:1 1378:1 2010:1 
1 1 1 1 2:1 4:1 13:1 74:1 2011:1 
1 1 1 1 2:1 4:1 13:1 17:1 74:1 86:1 161:1 200:1 276:1 2012:1 
1 0 1 1 2:1 4:1 12:1 13:1 65:1 77:1 214:1 215:1 
1 1 1 1 2:1 4:1 13:1 58:1 2014:1 
1 1 1 1 2:1 4:1 13:1 38:1 42:1 74:1 86:1 103:1 117:1 128:1 136:1 202:1 635:1 1125:1 2015:1 2016:1 2017:1 2018:1 
1 0 1 1 2:1 4:1 12:1 13:1 19:1 65:1 86:1 126:1 183:1 373:1 464:1 
1 1 1 1 2:1 4:1 13:1 19:1 110:1 111:1 139:1 148:1 1016:1 1131:1 
1 1 1 1 2:1 4:1 13:1 29:1 77:1 181:1 216:1 229:1 340:1 342:1 404:1 584:1 2019:1 
1 1 1 1 2:1 4:1 10:1 13:1 42:1 74:1 95:1 109:1 377:1 777:1 2020:1 2021:1 
1 1 1 1 1:1 2:1 4:1 13:1 19:1 77:1 453:1 454:1 
1 1 1 1 2:1 4:1 13:1 32:1 42:1 109:1 319:1 324:1 423:1 440:1 1017:1 2022:1 2023:1 2024:1 
1 0 1 1 2:1 4:1 6:1 13:1 29:1 65:1 74:1 83:1 139:1 223:1 438:1 2026:1 2028:1 
1 1 1 1 2:1 4:1 13:1 34:1 74:1 97:1 111:1 149:1 179:1 207:1 351:1 
1 1 1 1 1:1 2:1 4:1 12:1 13:1 19:1 34:1 77:1 103:1 134:1 166:1 202:1 205:1 497:1 559:1 610:1 611:1 612:1 614:1 615:1 718:1 2032:1 2033:1 
1 1 1 1 2:1 4:1 10:1 13:1 58:1 162:1 363:1 522:1 2034:1 11145:1 
1 1 1 1 1:1 2:1 4:1 13:1 19:1 57:1 86:1 440:1 456:1 457:1 458:1 459:1 
1 1 1 1 2:1 4:1 13:1 73:1 249:1 742:1 
1 1 1 1 1:1 2:1 4:1 13:1 19:1 46:1 47:1 77:1 101:1 753:1 1659:1 
1 1 1 1 2:1 4:1 6:1 13:1 50:1 73:1 249:1 504:1 519:1 714:1 1333:1 2035:1 
1 1 1 1 2:1 4:1 6:1 12:1 13:1 86:1 152:1 187:1 395:1 477:1 570:1 2036:1 2037:1 2038:1 2039:1 2040:1 2041:1 
1 1 1 1 1:1 2:1 4:1 13:1 183:1 342:1 
1 1 1 1 2:1 4:1 12:1 13:1 29:1 58:1 67:1 128:1 161:1 570:1 623:1 843:1 2042:1 2044:1 2045:1 
1 1 1 1 1:1 2:1 4:1 12:1 13:1 29:1 110:1 111:1 177:1 611:1 
1 1 1 1 2:1 4:1 10:1 13:1 19:1 38:1 49:1 74:1 77:1 86:1 103:1 308:1 389:1 1133:1 2046:1 
1 1 1 1 2:1 4:1 10:1 13:1 77:1 139:1 161:1 209:1 294:1 363:1 1450:1 2047:1 
1 1 1 1 1:1 2:1 4:1 9:1 13:1 50:1 58:1 73:1 77:1 80:1 103:1 126:1 166:1 202:1 220:1 397:1 1884:1 2049:1 2050:1 20712:1 
1 1 1 1 2:1 4:1 13:1 19:1 74:1 200:1 2053:1 
1 1 1 1 2:1 4:1 13:1 19:1 29:1 70:1 308:1 967:1 2054:1 
1 1 1 1 1:1 2:1 4:1 13:1 50:1 109:1 150:1 186:1 249:1 373:1 488:1 2055:1 2057:1 18172:1 
1 1 1 1 2:1 4:1 6:1 13:1 19:1 97:1 103:1 152:1 175:1 308:1 335:1 337:1 407:1 1700:1 
1 1 1 1 1:1 2:1 4:1 13:1 19:1 46:1 74:1 361:1 897:1 962:1 963:1 964:1 
1 0 1 1 2:1 4:1 13:1 48:1 49:1 126:1 214:1 215:1 
1 0 1 1 2:1 4:1 12:1 13:1 65:1 373:1 2060:1 2061:1 
1 1 1 1 1:1 2:1 4:1 8:1 13:1 19:1 42:1 65:1 74:1 77:1 97:1 111:1 113:1 152:1 187:1 294:1 359:1 379:1 956:1 1170:1 1303:1 1304:1 1305:1 1306:1 
1 1 1 1 2:1 4:1 6:1 8:1 13:1 77:1 233:1 306:1 364:1 397:1 
1 1 1 1 1:1 2:1 4:1 8:1 12:1 13:1 19:1 34:1 50:1 58:1 65:1 110:1 111:1 139:1 147:1 148:1 306:1 323:1 332:1 516:1 718:1 1016:1 1131:1 1132:1 1134:1 
1 1 1 1 2:1 4:1 13:1 77:1 839:1 
1 1 1 1 2:1 4:1 13:1 586:1 20277:1 
1 1 1 1 2:1 4:1 13:1 29:1 
1 1 1 1 2:1 4:1 13:1 308:1 986:1 
1 1 1 1 2:1 4:1 10:1 13:1 19:1 38:1 48:1 70:1 73:1 74:1 77:1 86:1 183:1 527:1 908:1 919:1 923:1 1221:1 
1 1 1 1 2:1 4:1 6:1 13:1 47:1 73:1 131:1 221:1 406:1 1900:1 2066:1 2067:1 2068:1 
1 1 1 1 2:1 4:1 6:1 9:1 12:1 13:1 86:1 643:1 
1 1 1 1 1:1 2:1 4:1 9:1 13:1 34:1 42:1 46:1 65:1 74:1 75:1 77:1 86:1 161:1 191:1 201:1 212:1 248:1 299:1 338:1 590:1 630:1 756:1 871:1 1106:1 1226:1 2071:1 2072:1 2073:1 2074:1 2075:1 2076:1 2077:1 2078:1 
1 1 1 1 2:1 4:1 13:1 48:1 494:1 1757:1 2079:1 
1 1 1 1 1:1 2:1 4:1 5:1 13:1 25:1 32:1 50:1 70:1 77:1 110:1 111:1 177:1 194:1 234:1 327:1 406:1 1225:1 1978:1 2083:1 
1 1 1 1 2:1 4:1 13:1 189:1 376:1 382:1 516:1 789:1 983:1 2084:1 
1 1 1 1 1:1 2:1 4:1 8:1 13:1 34:1 65:1 73:1 94:1 97:1 103:1 124:1 2085:1 2086:1 
1 0 1 1 1:1 2:1 4:1 12:1 13:1 49:1 53:1 57:1 65:1 70:1 86:1 120:1 126:1 127:1 173:1 204:1 205:1 206:1 207:1 208:1 209:1 
1 1 1 1 1:1 2:1 4:1 12:1 13:1 42:1 58:1 84:1 86:1 96:1 97:1 103:1 161:1 324:1 1011:1 1414:1 1945:1 2089:1 2090:1 2091:1 
1 1 1 1 2:1 4:1 13:1 68:1 720:1 
1 0 1 1 2:1 4:1 6:1 12:1 13:1 49:1 50:1 65:1 77:1 103:1 173:1 204:1 258:1 261:1 337:1 355:1 1199:1 2094:1 
1 1 1 1 2:1 4:1 13:1 46:1 74:1 1477:1 1624:1 2095:1 2096:1 2097:1 2098:1 2099:1 2100:1 
1 1 1 1 2:1 4:1 13:1 97:1 99:1 111:1 314:1 488:1 538:1 1265:1 2101:1 
1 1 1 1 2:1 4:1 13:1 73:1 2102:1 
1 1 1 1 2:1 4:1 10:1 12:1 13:1 97:1 111:1 168:1 187:1 670:1 828:1 
1 1 1 1 2:1 4:1 13:1 189:1 440:1 1679:1 1827:1 2105:1 
1 0 1 1 2:1 4:1 12:1 13:1 49:1 52:1 64:1 65:1 75:1 86:1 97:1 120:1 200:1 364:1 419:1 440:1 604:1 1141:1 1404:1 1613:1 1880:1 2106:1 2107:1 2108:1 2109:1 2110:1 
1 1 1 1 2:1 4:1 6:1 8:1 10:1 13:1 32:1 42:1 65:1 77:1 131:1 161:1 240:1 395:1 539:1 897:1 1400:1 1408:1 2111:1 2112:1 2113:1 2114:1 
1 1 1 1 1:1 2:1 4:1 8:1 12:1 13:1 34:1 46:1 62:1 65:1 73:1 74:1 101:1 134:1 146:1 213:1 215:1 220:1 221:1 639:1 834:1 1534:1 1558:1 2115:1 2116:1 2117:1 
1 1 1 1 2:1 4:1 12:1 13:1 19:1 111:1 135:1 152:1 247:1 308:1 361:1 516:1 605:1 2119:1 2120:1 2121:1 2122:1 2123:1 
1 1 1 1 2:1 4:1 13:1 187:1 324:1 2124:1 2125:1 2126:1 
1 1 1 1 1:1 2:1 4:1 13:1 19:1 73:1 77:1 94:1 109:1 152:1 161:1 168:1 202:1 207:1 351:1 352:1 353:1 
1 1 1 1 2:1 4:1 13:1 29:1 269:1 2128:1 
1 1 1 1 1:1 2:1 4:1 12:1 13:1 
1 1 1 1 2:1 4:1 13:1 50:1 111:1 373:1 564:1 
1 1 1 1 2:1 4:1 12:1 13:1 38:1 127:1 170:1 247:1 1534:1 
1 1 1 1 2:1 4:1 13:1 333:1 
1 1 1 1 1:1 2:1 4:1 13:1 19:1 42:1 49:1 536:1 539:1 570:1 577:1 625:1 626:1 639:1 721:1 
1 1 1 1 2:1 4:1 8:1 13:1 25:1 26:1 86:1 220:1 288:1 2131:1 
1 0 1 1 2:1 4:1 10:1 12:1 13:1 19:1 65:1 73:1 77:1 173:1 183:1 349:1 2132:1 2133:1 
1 1 1 1 2:1 4:1 13:1 77:1 101:1 111:1 134:1 161:1 209:1 223:1 392:1 753:1 2134:1 2135:1 2136:1 2137:1 
1 1 1 1 2:1 4:1 13:1 241:1 363:1 2138:1 2139:1 
1 1 1 1 2:1 4:1 13:1 1461:1 
1 1 1 1 2:1 4:1 13:1 42:1 49:1 536:1 539:1 570:1 577:1 625:1 626:1 639:1 721:1 
1 1 1 1 2:1 4:1 13:1 
1 1 1 1 2:1 4:1 5:1 13:1 46:1 58:1 65:1 97:1 245:1 1503:1 1908:1 2142:1 2143:1 
1 1 1 1 2:1 4:1 13:1 46:1 65:1 110:1 111:1 422:1 589:1 590:1 591:1 
1 1 1 1 2:1 4:1 12:1 13:1 46:1 58:1 77:1 95:1 97:1 101:1 103:1 111:1 115:1 161:1 220:1 336:1 337:1 396:1 461:1 965:1 1011:1 1040:1 1526:1 
1 1 1 1 1:1 2:1 4:1 13:1 48:1 65:1 109:1 175:1 200:1 407:1 879:1 2144:1 2145:1 2146:1 
1 1 1 1 2:1 4:1 13:1 47:1 73:1 2149:1 2150:1 2151:1 2152:1 2153:1 
1 1 1 1 1:1 2:1 4:1 13:1 19:1 65:1 99:1 124:1 181:1 808:1 
1 1 1 1 2:1 4:1 6:1 13:1 38:1 49:1 75:1 77:1 126:1 161:1 169:1 170:1 214:1 215:1 249:1 337:1 1169:1 1270:1 2154:1 
1 0 1 1 2:1 4:1 12:1 13:1 49:1 161:1 162:1 214:1 215:1 637:1 
1 1 1 1 2:1 4:1 13:1 124:1 140:1 433:1 2155:1 
1 0 1 1 2:1 4:1 13:1 38:1 49:1 77:1 126:1 127:1 372:1 552:1 586:1 
1 0 1 1 2:1 4:1 5:1 6:1 13:1 34:1 58:1 67:1 77:1 80:1 103:1 134:1 273:1 1150:1 2158:1 
1 0 1 1 2:1 4:1 13:1 48:1 65:1 111:1 143:1 151:1 177:1 
1 1 1 1 2:1 4:1 13:1 324:1 327:1 539:1 616:1 716:1 
1 1 1 1 2:1 4:1 13:1 29:1 553:1 2159:1 
1 1 1 1 1:1 2:1 4:1 13:1 19:1 214:1 215:1 720:1 3340:1 
1 1 1 1 2:1 4:1 13:1 
1 1 1 1 2:1 4:1 12:1 13:1 127:1 372:1 
1 1 1 1 2:1 4:1 13:1 128:1 200:1 1461:1 2160:1 
1 0 1 1 2:1 4:1 6:1 13:1 32:1 38:1 49:1 58:1 65:1 86:1 139:1 166:1 173:1 261:1 293:1 509:1 570:1 1024:1 1106:1 1442:1 1857:1 2161:1 2162:1 
1 1 1 1 2:1 4:1 12:1 13:1 127:1 2164:1 
1 1 1 1 2:1 4:1 13:1 42:1 47:1 65:1 77:1 101:1 131:1 194:1 249:1 337:1 359:1 1221:1 1709:1 1746:1 2165:1 
1 0 1 1 2:1 4:1 6:1 12:1 13:1 58:1 73:1 77:1 125:1 126:1 166:1 530:1 2166:1 2167:1 
1 1 1 1 2:1 4:1 13:1 34:1 134:1 929:1 2140:1 
1 1 1 1 1:1 2:1 4:1 13:1 19:1 42:1 65:1 289:1 295:1 1847:1 
1 1 1 1 2:1 4:1 12:1 13:1 183:1 342:1 
1 1 1 1 1:1 2:1 4:1 12:1 13:1 25:1 58:1 86:1 93:1 2129:1 2173:1 2174:1 
1 0 1 1 13:1 27:1 65:1 77:1 80:1 125:1 166:1 327:1 397:1 589:1 590:1 1942:1 2175:1 
1 1 1 1 2:1 4:1 13:1 41:1 48:1 62:1 65:1 86:1 95:1 97:1 101:1 111:1 220:1 590:1 1431:1 1461:1 
1 1 1 1 2:1 4:1 13:1 38:1 49:1 64:1 80:1 84:1 96:1 122:1 240:1 261:1 828:1 1024:1 2176:1 2177:1 2178:1 2179:1 
1 1 1 1 2:1 4:1 13:1 70:1 86:1 217:1 581:1 
1 0 1 1 2:1 4:1 12:1 13:1 50:1 217:1 236:1 718:1 780:1 792:1 
1 1 1 1 2:1 4:1 13:1 73:1 86:1 127:1 132:1 217:1 401:1 1214:1 3340:1 
1 0 1 1 2:1 4:1 12:1 13:1 65:1 217:1 244:1 516:1 780:1 1376:1 1804:1 
1 1 1 1 2:1 4:1 13:1 166:1 1061:1 2182:1 2183:1 
1 1 1 1 2:1 4:1 8:1 13:1 104:1 514:1 1334:1 2184:1 2185:1 2186:1 
1 1 1 1 2:1 4:1 13:1 34:1 48:1 65:1 70:1 75:1 77:1 101:1 219:1 363:1 494:1 897:1 1797:1 2187:1 
1 1 1 1 2:1 4:1 13:1 214:1 215:1 720:1 3340:1 
1 1 1 1 2:1 4:1 13:1 34:1 68:1 77:1 86:1 134:1 236:1 499:1 514:1 604:1 2188:1 2189:1 2190:1 
1 1 1 1 2:1 4:1 13:1 34:1 50:1 103:1 152:1 161:1 220:1 221:1 
1 1 1 1 2:1 4:1 13:1 47:1 65:1 74:1 161:1 166:1 249:1 373:1 623:1 1341:1 2192:1 
1 1 1 1 1:1 2:1 4:1 13:1 19:1 42:1 200:1 214:1 215:1 340:1 341:1 342:1 
1 1 1 1 2:1 4:1 13:1 73:1 136:1 249:1 269:1 406:1 
1 1 1 1 2:1 4:1 12:1 13:1 32:1 47:1 57:1 63:1 77:1 247:1 705:1 2193:1 
1 0 1 1 2:1 4:1 13:1 62:1 65:1 73:1 86:1 373:1 1150:1 2197:1 
1 1 1 1 2:1 4:1 13:1 49:1 535:1 639:1 705:1 
1 1 1 1 1:1 2:1 4:1 13:1 32:1 97:1 111:1 249:1 675:1 2129:1 2199:1 
1 1 1 1 2:1 4:1 10:1 13:1 42:1 2201:1 
1 1 1 1 2:1 4:1 13:1 2202:1 
1 1 1 1 2:1 4:1 13:1 48:1 109:1 161:1 220:1 328:1 1407:1 2203:1 
1 1 1 1 2:1 4:1 13:1 47:1 67:1 74:1 205:1 490:1 916:1 1387:1 2204:1 3226:1 
1 1 1 1 2:1 4:1 13:1 32:1 73:1 77:1 94:1 126:1 161:1 166:1 501:1 2205:1 2206:1 
1 1 1 1 1:1 2:1 4:1 13:1 438:1 699:1 1104:1 
1 1 1 1 2:1 4:1 13:1 65:1 373:1 1341:1 2207:1 
1 1 1 1 2:1 4:1 13:1 19:1 34:1 46:1 47:1 58:1 65:1 75:1 77:1 131:1 134:1 148:1 209:1 295:1 504:1 2213:1 
1 1 1 1 2:1 4:1 12:1 13:1 38:1 47:1 48:1 53:1 66:1 94:1 238:1 244:1 249:1 340:1 342:1 373:1 404:1 426:1 440:1 716:1 753:1 1011:1 2216:1 2218:1 
1 1 1 1 2:1 4:1 13:1 19:1 308:1 376:1 2219:1 2220:1 
1 1 1 1 2:1 4:1 12:1 13:1 68:1 77:1 130:1 161:1 526:1 2221:1 2223:1 2224:1 2225:1 
1 1 1 1 1:1 2:1 4:1 13:1 65:1 152:1 422:1 742:1 11145:1 
1 1 1 1 2:1 4:1 10:1 12:1 13:1 42:1 65:1 68:1 77:1 151:1 152:1 209:1 1097:1 2226:1 2227:1 
1 1 1 1 2:1 4:1 13:1 42:1 45:1 47:1 65:1 73:1 74:1 80:1 86:1 99:1 131:1 150:1 182:1 324:1 348:1 374:1 512:1 643:1 2168:1 2228:1 2229:1 2230:1 
1 1 1 1 1:1 2:1 4:1 13:1 19:1 58:1 65:1 109:1 262:1 324:1 503:1 504:1 620:1 950:1 1748:1 1857:1 2231:1 
1 1 1 1 2:1 4:1 13:1 68:1 86:1 2232:1 2233:1 2234:1 
1 1 1 1 1:1 2:1 4:1 13:1 19:1 32:1 48:1 54:1 97:1 103:1 
1 0 1 1 2:1 4:1 10:1 13:1 73:1 77:1 126:1 173:1 222:1 938:1 1310:1 2235:1 2236:1 2237:1 
1 1 1 1 2:1 4:1 13:1 
1 1 1 1 1:1 2:1 4:1 13:1 19:1 70:1 77:1 103:1 2238:1 2239:1 
1 1 1 1 2:1 4:1 13:1 
1 1 1 1 1:1 2:1 4:1 9:1 12:1 13:1 19:1 86:1 117:1 181:1 314:1 2246:1 2247:1 
1 1 1 1 1:1 2:1 4:1 13:1 19:1 38:1 41:1 50:1 52:1 53:1 77:1 103:1 120:1 134:1 168:1 187:1 258:1 262:1 1646:1 2248:1 2249:1 2250:1 
1 1 1 1 2:1 4:1 13:1 57:1 65:1 74:1 86:1 235:1 324:1 337:1 716:1 1031:1 1659:1 2247:1 2251:1 2252:1 
1 1 1 1 1:1 2:1 4:1 13:1 68:1 240:1 285:1 900:1 1074:1 2109:1 2253:1 
1 0 1 1 2:1 4:1 13:1 29:1 48:1 261:1 269:1 337:1 373:1 778:1 1597:1 1665:1 2119:1 2254:1 
1 1 1 1 1:1 2:1 4:1 12:1 13:1 68:1 86:1 145:1 151:1 
1 1 1 1 1:1 2:1 4:1 10:1 13:1 42:1 65:1 68:1 77:1 79:1 86:1 101:1 107:1 109:1 111:1 134:1 150:1 205:1 314:1 349:1 514:1 649:1 663:1 900:1 1066:1 1111:1 2255:1 2256:1 2257:1 2258:1 2260:1 2262:1 
1 1 1 1 1:1 2:1 4:1 12:1 13:1 19:1 53:1 177:1 
1 1 1 1 2:1 4:1 13:1 73:1 74:1 77:1 742:1 771:1 
1 0 1 1 2:1 4:1 12:1 13:1 19:1 65:1 111:1 177:1 308:1 589:1 2264:1 
1 1 1 1 1:1 2:1 4:1 13:1 19:1 34:1 65:1 74:1 183:1 1074:1 2265:1 
1 1 1 1 2:1 4:1 13:1 46:1 62:1 780:1 792:1 
1 0.1042891019692752 1 1 2:1 4:1 13:1 65:1 86:1 269:1 422:1 2270:1 
1 1 1 1 2:1 4:1 13:1 249:1 391:1 883:1 2271:1 
1 0 1 1 2:1 4:1 10:1 13:1 65:1 73:1 86:1 217:1 1469:1 
1 1 1 1 2:1 4:1 13:1 45:1 48:1 49:1 74:1 109:1 152:1 945:1 1154:1 
1 0 1 1 2:1 4:1 12:1 13:1 42:1 49:1 65:1 74:1 111:1 223:1 430:1 753:1 967:1 1106:1 1151:1 2273:1 
1 1 1 1 2:1 4:1 13:1 42:1 49:1 74:1 623:1 919:1 923:1 2275:1 2276:1 
1 1 1 1 2:1 4:1 13:1 42:1 43:1 74:1 80:1 101:1 200:1 519:1 826:1 851:1 
1 1 1 1 2:1 4:1 13:1 38:1 42:1 49:1 65:1 80:1 219:1 720:1 799:1 1114:1 1822:1 2277:1 
1 1 1 1 2:1 4:1 12:1 13:1 38:1 42:1 48:1 103:1 152:1 161:1 1452:1 2278:1 2279:1 2282:1 
1 1 1 1 2:1 4:1 13:1 50:1 103:1 355:1 438:1 
1 1 1 1 1:1 2:1 4:1 8:1 12:1 13:1 34:1 52:1 65:1 77:1 103:1 134:1 240:1 1704:1 2283:1 2284:1 
1 1 1 1 2:1 4:1 13:1 20:1 65:1 67:1 832:1 1404:1 
1 0 1 1 2:1 4:1 9:1 12:1 13:1 38:1 48:1 51:1 65:1 101:1 444:1 2286:1 2287:1 2288:1 2289:1 2290:1 
1 1 1 1 2:1 4:1 13:1 38:1 57:1 75:1 77:1 86:1 99:1 161:1 319:1 1206:1 1459:1 
1 1 1 1 1:1 2:1 4:1 13:1 2291:1 
1 1 1 1 2:1 4:1 13:1 58:1 86:1 200:1 373:1 851:1 1066:1 1138:1 1226:1 1888:1 2293:1 2294:1 3340:1 
1 1 1 1 2:1 4:1 12:1 13:1 166:1 2295:1 
1 1 1 1 2:1 4:1 12:1 13:1 1463:1 
1 1 1 1 2:1 4:1 12:1 13:1 29:1 38:1 75:1 189:1 233:1 262:1 340:1 341:1 342:1 397:1 780:1 792:1 806:1 1523:1 2297:1 
1 1 1 1 2:1 4:1 6:1 13:1 47:1 220:1 349:1 2299:1 
1 1 1 1 2:1 4:1 13:1 
1 0 1 1 2:1 4:1 6:1 10:1 12:1 13:1 20:1 47:1 49:1 77:1 139:1 161:1 249:1 325:1 497:1 2301:1 2302:1 2303:1 2306:1 
1 1 1 1 2:1 4:1 8:1 13:1 86:1 97:1 111:1 495:1 771:1 1439:1 
1 1 1 1 2:1 4:1 13:1 42:1 58:1 67:1 161:1 391:1 2307:1 
1 1 1 1 2:1 4:1 13:1 34:1 42:1 48:1 65:1 95:1 111:1 116:1 219:1 438:1 916:1 966:1 1151:1 2308:1 2309:1 2310:1 
1 1 1 1 2:1 4:1 13:1 46:1 74:1 80:1 776:1 1531:1 2311:1 
1 1 1 1 2:1 4:1 13:1 
1 1 1 1 2:1 4:1 5:1 13:1 47:1 52:1 54:1 70:1 77:1 84:1 97:1 103:1 122:1 194:1 249:1 378:1 1442:1 1469:1 1918:1 1978:1 2318:1 2319:1 
1 1 1 1 1:1 2:1 4:1 8:1 10:1 13:1 42:1 47:1 64:1 84:1 96:1 97:1 101:1 111:1 131:1 134:1 168:1 241:1 299:1 317:1 373:1 780:1 
1 1 1 1 2:1 4:1 13:1 47:1 74:1 162:1 209:1 1884:1 2320:1 2321:1 2322:1 2323:1 
1 0 1 1 2:1 4:1 13:1 29:1 42:1 45:1 65:1 73:1 77:1 86:1 126:1 161:1 166:1 706:1 799:1 2325:1 20751:1 
1 1 1 1 1:1 2:1 4:1 13:1 19:1 77:1 285:1 2326:1 2327:1 2328:1 2329:1 
1 1 1 1 2:1 4:1 13:1 166:1 2330:1 
1 1 1 1 1:1 2:1 4:1 12:1 13:1 19:1 58:1 86:1 136:1 152:1 2271:1 
1 1 1 1 2:1 4:1 10:1 13:1 42:1 47:1 49:1 65:1 77:1 122:1 337:1 374:1 497:1 539:1 853:1 966:1 1016:1 2331:1 2332:1 
1 1 1 1 2:1 4:1 13:1 19:1 308:1 
1 0 1 1 2:1 4:1 12:1 13:1 65:1 73:1 77:1 126:1 165:1 166:1 2333:1 
1 0 1 1 2:1 4:1 12:1 13:1 29:1 216:1 1310:1 1523:1 
1 0 1 1 2:1 4:1 12:1 13:1 65:1 73:1 86:1 109:1 217:1 835:1 1469:1 
1 1 1 1 1:1 2:1 4:1 12:1 13:1 19:1 47:1 67:1 109:1 258:1 361:1 1992:1 
1 0 1 1 2:1 4:1 12:1 13:1 74:1 377:1 426:1 497:1 512:1 
1 1 1 1 2:1 4:1 10:1 13:1 46:1 65:1 77:1 86:1 1469:1 2335:1 
1 1 1 1 2:1 4:1 10:1 13:1 38:1 86:1 97:1 111:1 126:1 127:1 128:1 889:1 
1 1 1 1 1:1 2:1 4:1 13:1 19:1 38:1 70:1 74:1 77:1 187:1 1054:1 
1 1 1 1 2:1 4:1 13:1 88:1 178:1 240:1 258:1 262:1 397:1 918:1 2339:1 
1 1 1 1 2:1 4:1 13:1 42:1 48:1 68:1 86:1 2340:1 2341:1 2342:1 
1 1 1 1 2:1 4:1 13:1 2344:1 
1 1 1 1 2:1 4:1 10:1 13:1 86:1 126:1 464:1 524:1 2345:1 
1 1 1 1 1:1 2:1 4:1 13:1 34:1 46:1 50:1 58:1 65:1 77:1 247:1 274:1 299:1 327:1 607:1 2346:1 2348:1 
1 1 1 1 2:1 4:1 13:1 19:1 126:1 183:1 200:1 376:1 2349:1 
1 1 1 1 2:1 4:1 13:1 73:1 77:1 126:1 166:1 524:1 2352:1 2353:1 
1 1 1 1 2:1 4:1 13:1 42:1 46:1 74:1 220:1 639:1 1236:1 1953:1 2354:1 2355:1 
1 1 1 1 2:1 4:1 13:1 372:1 2005:1 2062:1 
1 1 1 1 2:1 4:1 13:1 
1 1 1 1 2:1 4:1 12:1 13:1 58:1 130:1 132:1 173:1 675:1 1986:1 2357:1 
1 0 1 1 2:1 4:1 13:1 38:1 65:1 86:1 126:1 127:1 322:1 
1 1 1 1 2:1 4:1 12:1 13:1 2351:1 2358:1 
1 1 1 1 2:1 4:1 13:1 221:1 337:1 888:1 2359:1 2360:1 2361:1 
1 1 1 1 2:1 4:1 13:1 29:1 58:1 70:1 127:1 
1 0 1 1 2:1 4:1 13:1 47:1 65:1 73:1 86:1 273:1 1709:1 1736:1 2364:1 
1 1 1 1 2:1 4:1 13:1 19:1 247:1 497:1 2365:1 
1 1 1 1 2:1 4:1 13:1 48:1 51:1 65:1 74:1 76:1 94:1 450:1 653:1 
1 1 1 1 1:1 2:1 4:1 13:1 19:1 52:1 65:1 109:1 124:1 143:1 828:1 871:1 919:1 923:1 2366:1 2367:1 
1 0 1 1 2:1 4:1 12:1 13:1 70:1 73:1 74:1 217:1 377:1 438:1 2369:1 2370:1 
1 0 1 1 2:1 4:1 9:1 13:1 48:1 50:1 73:1 77:1 120:1 122:1 126:1 181:1 236:1 269:1 348:1 376:1 434:1 897:1 958:1 2372:1 
1 0 1 1 2:1 4:1 12:1 13:1 29:1 80:1 86:1 150:1 606:1 962:1 
1 1 1 1 2:1 4:1 12:1 13:1 2374:1 
1 1 1 1 1:1 2:1 4:1 13:1 19:1 214:1 215:1 323:1 2375:1 3340:1 
1 1 1 1 2:1 4:1 12:1 13:1 111:1 177:1 927:1 
1 1 1 1 2:1 4:1 13:1 
1 1 1 1 2:1 4:1 13:1 53:1 74:1 131:1 2207:1 
1 1 1 1 2:1 4:1 12:1 13:1 1424:1 2377:1 2378:1 2380:1 2383:1 
1 0 1 1 2:1 4:1 13:1 19:1 48:1 65:1 139:1 200:1 308:1 391:1 705:1 883:1 1094:1 
1 1 1 1 1:1 2:1 4:1 5:1 8:1 12:1 13:1 19:1 57:1 58:1 75:1 127:1 150:1 1743:1 1905:1 2384:1 
1 0 1 1 2:1 4:1 13:1 38:1 49:1 74:1 86:1 126:1 127:1 128:1 200:1 886:1 
1 1 1 1 2:1 4:1 8:1 9:1 13:1 32:1 42:1 47:1 52:1 54:1 67:1 97:1 101:1 111:1 168:1 269:1 403:1 576:1 717:1 825:1 826:1 11145:1 
1 1 1 1 2:1 4:1 13:1 38:1 47:1 49:1 173:1 232:1 2386:1 2387:1 
1 1 1 1 1:1 2:1 4:1 6:1 13:1 19:1 65:1 139:1 
1 1 1 1 2:1 4:1 13:1 19:1 42:1 47:1 63:1 65:1 70:1 86:1 101:1 111:1 131:1 139:1 258:1 308:1 503:1 512:1 564:1 604:1 668:1 705:1 1106:1 1534:1 2104:1 2389:1 2390:1 
1 1 1 1 2:1 4:1 13:1 42:1 376:1 663:1 1405:1 
1 0 1 1 2:1 4:1 12:1 13:1 65:1 2396:1 
1 1 1 1 1:1 2:1 4:1 6:1 12:1 13:1 50:1 57:1 68:1 97:1 109:1 151:1 152:1 206:1 207:1 249:1 294:1 304:1 390:1 456:1 851:1 864:1 1585:1 1972:1 2397:1 2398:1 
1 1 1 1 1:1 2:1 4:1 9:1 13:1 19:1 50:1 103:1 183:1 308:1 355:1 1682:1 
1 1 1 1 2:1 4:1 13:1 16:1 74:1 86:1 391:1 427:1 2404:1 
1 1 1 1 2:1 4:1 12:1 13:1 77:1 86:1 524:1 864:1 1055:1 1806:1 
1 1 1 1 1:1 2:1 4:1 6:1 12:1 13:1 19:1 58:1 206:1 207:1 229:1 247:1 262:1 497:1 667:1 2331:1 
1 0 1 1 2:1 4:1 5:1 12:1 13:1 20:1 74:1 161:1 177:1 221:1 223:1 226:1 464:1 897:1 1174:1 2408:1 
1 1 1 1 2:1 4:1 12:1 13:1 131:1 
1 1 1 1 2:1 4:1 13:1 57:1 68:1 77:1 105:1 202:1 273:1 474:1 546:1 2409:1 
1 1 1 1 1:1 2:1 4:1 12:1 13:1 19:1 32:1 48:1 54:1 73:1 97:1 101:1 111:1 200:1 507:1 2410:1 2411:1 
1 1 1 1 2:1 4:1 13:1 65:1 74:1 173:1 177:1 204:1 604:1 1503:1 2413:1 2414:1 
1 1 1 1 2:1 4:1 13:1 48:1 86:1 161:1 826:1 854:1 
1 1 1 1 1:1 2:1 4:1 12:1 13:1 19:1 27:1 717:1 
1 1 1 1 2:1 4:1 10:1 13:1 47:1 49:1 50:1 54:1 58:1 75:1 94:1 109:1 335:1 461:1 521:1 667:1 1044:1 1150:1 1506:1 2417:1 
1 1 1 1 2:1 4:1 13:1 73:1 74:1 86:1 2419:1 
1 0 1 1 2:1 4:1 13:1 65:1 86:1 269:1 422:1 1228:1 
1 1 1 1 2:1 4:1 8:1 10:1 13:1 48:1 65:1 75:1 86:1 109:1 113:1 131:1 249:1 699:1 733:1 871:1 
1 1 1 1 2:1 4:1 8:1 9:1 13:1 38:1 42:1 47:1 57:1 58:1 103:1 161:1 181:1 515:1 1149:1 2420:1 2421:1 2422:1 2423:1 2424:1 
1 1 1 1 2:1 4:1 13:1 103:1 355:1 378:1 488:1 971:1 2425:1 2426:1 
1 0 1 1 2:1 4:1 5:1 12:1 13:1 77:1 110:1 111:1 113:1 117:1 167:1 173:1 200:1 314:1 438:1 962:1 1668:1 2427:1 2428:1 2429:1 
1 0 1 1 2:1 4:1 13:1 29:1 49:1 86:1 967:1 2430:1 
1 1 1 1 2:1 4:1 5:1 13:1 42:1 77:1 214:1 373:1 539:1 826:1 871:1 968:1 
1 1 1 1 2:1 4:1 13:1 49:1 74:1 86:1 161:1 182:1 1245:1 
1 1 1 1 2:1 4:1 13:1 19:1 308:1 
1 0 1 1 2:1 4:1 12:1 13:1 16:1 32:1 54:1 65:1 101:1 177:1 178:1 249:1 258:1 324:1 461:1 637:1 1344:1 1376:1 2431:1 
1 1 1 1 2:1 4:1 13:1 200:1 376:1 
1 1 1 1 2:1 4:1 10:1 13:1 29:1 42:1 65:1 70:1 81:1 101:1 135:1 145:1 611:1 642:1 1408:1 1465:1 2433:1 2434:1 
1 1 1 1 2:1 4:1 13:1 200:1 1775:1 1981:1 
1 1 1 1 2:1 4:1 6:1 13:1 497:1 611:1 2331:1 2435:1 
1 1 1 1 2:1 4:1 12:1 13:1 334:1 
1 0 1 1 2:1 4:1 12:1 13:1 49:1 86:1 578:1 1197:1 
1 1 1 1 2:1 4:1 13:1 19:1 49:1 289:1 397:1 1709:1 2437:1 9302:1 
1 1 1 1 2:1 4:1 13:1 83:1 200:1 
1 1 1 1 2:1 4:1 13:1 49:1 70:1 212:1 490:1 685:1 
1 1 1 1 2:1 4:1 13:1 2439:1 
1 1 1 1 2:1 4:1 12:1 13:1 38:1 94:1 96:1 97:1 101:1 111:1 220:1 221:1 295:1 361:1 363:1 536:1 1938:1 
1 1 1 1 2:1 4:1 13:1 217:1 259:1 1831:1 2133:1 
1 1 1 1 1:1 2:1 4:1 9:1 13:1 19:1 2440:1 
1 1 1 1 2:1 4:1 12:1 13:1 19:1 183:1 200:1 215:1 2067:1 
1 0 1 1 2:1 4:1 12:1 13:1 145:1 372:1 586:1 2441:1 2442:1 
1 1 1 1 2:1 4:1 12:1 13:1 2215:1 2444:1 
1 1 1 1 2:1 4:1 12:1 13:1 32:1 50:1 54:1 86:1 95:1 249:1 269:1 663:1 780:1 1376:1 2445:1 
1 1 1 1 2:1 4:1 12:1 13:1 200:1 
1 1 1 1 1:1 2:1 4:1 6:1 10:1 12:1 13:1 47:1 57:1 65:1 94:1 103:1 173:1 204:1 576:1 742:1 2447:1 2448:1 2449:1 
1 0 1 1 2:1 4:1 12:1 13:1 65:1 86:1 243:1 269:1 422:1 921:1 
1 1 1 1 2:1 4:1 13:1 269:1 980:1 2450:1 
1 1 1 1 2:1 4:1 13:1 68:1 146:1 423:1 932:1 1378:1 
1 1 1 1 2:1 4:1 13:1 42:1 65:1 73:1 101:1 217:1 319:1 321:1 322:1 
1 1 1 1 1:1 2:1 4:1 10:1 13:1 19:1 47:1 65:1 74:1 86:1 103:1 161:1 166:1 249:1 373:1 493:1 576:1 605:1 919:1 923:1 1341:1 2192:1 2451:1 2452:1 2453:1 2454:1 2455:1 
1 1 1 1 2:1 4:1 12:1 13:1 19:1 58:1 70:1 73:1 77:1 126:1 166:1 308:1 314:1 460:1 702:1 753:1 852:1 2457:1 2458:1 2459:1 2460:1 2461:1 2462:1 2463:1 2464:1 
1 1 1 1 2:1 4:1 13:1 65:1 103:1 152:1 201:1 232:1 241:1 776:1 873:1 984:1 2466:1 2467:1 2468:1 
1 1 1 1 2:1 4:1 13:1 2367:1 
1 1 1 1 2:1 4:1 13:1 83:1 720:1 1130:1 
1 1 1 1 2:1 4:1 13:1 49:1 77:1 742:1 1102:1 2470:1 
1 1 1 1 2:1 4:1 5:1 13:1 1067:1 
1 1 1 1 2:1 4:1 13:1 643:1 693:1 
1 1 1 1 2:1 4:1 12:1 13:1 42:1 47:1 57:1 58:1 99:1 289:1 327:1 2471:1 2472:1 2473:1 2474:1 2475:1 
1 0 1 1 2:1 4:1 13:1 65:1 70:1 86:1 217:1 1523:1 
1 1 1 1 1:1 2:1 4:1 6:1 9:1 13:1 19:1 42:1 101:1 111:1 150:1 179:1 212:1 236:1 323:1 332:1 604:1 927:1 1170:1 1743:1 1950:1 3340:1 18897:1 
1 1 1 1 2:1 4:1 13:1 65:1 77:1 1469:1 
1 1 1 1 1:1 2:1 4:1 9:1 12:1 13:1 49:1 50:1 65:1 77:1 86:1 101:1 139:1 200:1 236:1 249:1 590:1 604:1 917:1 1372:1 2256:1 2478:1 2479:1 
1 1 1 1 1:1 2:1 4:1 12:1 13:1 86:1 150:1 161:1 200:1 821:1 1450:1 2480:1 
1 1 1 1 1:1 2:1 4:1 10:1 13:1 19:1 47:1 65:1 74:1 86:1 103:1 161:1 166:1 249:1 373:1 576:1 605:1 1341:1 2192:1 2451:1 2452:1 2453:1 
1 1 1 1 2:1 4:1 13:1 426:1 
1 1 1 1 2:1 4:1 13:1 38:1 126:1 145:1 586:1 643:1 
1 1 1 1 2:1 4:1 13:1 38:1 127:1 128:1 200:1 2481:1 
1 1 1 1 2:1 4:1 10:1 13:1 19:1 59:1 65:1 74:1 308:1 348:1 407:1 476:1 2482:1 
1 0 1 1 2:1 4:1 10:1 13:1 34:1 49:1 139:1 206:1 207:1 363:1 397:1 929:1 9302:1 
1 1 1 1 2:1 4:1 13:1 127:1 247:1 821:1 1024:1 
1 1 1 1 2:1 4:1 13:1 215:1 2349:1 2484:1 2485:1 
1 1 1 1 2:1 4:1 13:1 42:1 47:1 73:1 86:1 128:1 142:1 161:1 162:1 373:1 426:1 427:1 897:1 1174:1 2487:1 2488:1 
1 1 1 1 2:1 4:1 9:1 10:1 13:1 33:1 34:1 42:1 47:1 49:1 65:1 77:1 81:1 201:1 232:1 249:1 294:1 337:1 401:1 507:1 1568:1 2490:1 2492:1 2493:1 
1 0 1 1 2:1 4:1 12:1 13:1 65:1 166:1 376:1 1736:1 
1 1 1 1 2:1 4:1 13:1 34:1 74:1 103:1 2496:1 
1 1 1 1 2:1 4:1 13:1 128:1 
1 1 1 1 2:1 4:1 13:1 109:1 589:1 
1 1 1 1 2:1 4:1 13:1 152:1 175:1 200:1 373:1 1439:1 
1 1 1 1 2:1 4:1 13:1 5574:1 
1 1 1 1 2:1 4:1 13:1 57:1 86:1 236:1 247:1 897:1 2498:1 2499:1 2501:1 
1 1 1 1 2:1 4:1 10:1 13:1 48:1 86:1 799:1 2502:1 2503:1 
1 1 1 1 2:1 4:1 12:1 13:1 80:1 249:1 324:1 945:1 1091:1 2504:1 
1 1 1 1 2:1 4:1 13:1 114:1 2505:1 20277:1 
1 1 1 1 2:1 4:1 13:1 46:1 57:1 2507:1 
1 0 1 1 2:1 4:1 13:1 19:1 34:1 48:1 49:1 65:1 74:1 77:1 139:1 616:1 868:1 929:1 2224:1 2509:1 2510:1 2511:1 
1 0 1 1 2:1 4:1 12:1 13:1 49:1 75:1 77:1 80:1 145:1 200:1 221:1 327:1 337:1 376:1 2512:1 
1 1 1 1 2:1 4:1 10:1 13:1 32:1 42:1 86:1 173:1 369:1 370:1 1025:1 
1 1 1 1 2:1 4:1 13:1 508:1 796:1 1366:1 
1 1 1 1 2:1 4:1 13:1 318:1 611:1 2514:1 20712:1 
1 1 1 1 1:1 2:1 4:1 12:1 13:1 49:1 273:1 585:1 1736:1 
1 1 1 1 2:1 4:1 13:1 73:1 77:1 130:1 152:1 209:1 742:1 
1 1 1 1 2:1 4:1 13:1 38:1 126:1 127:1 128:1 963:1 
1 1 1 1 2:1 4:1 10:1 13:1 49:1 77:1 139:1 2516:1 
1 1 1 1 2:1 4:1 13:1 70:1 2207:1 3340:1 
1 1 1 1 1:1 2:1 4:1 9:1 13:1 40:1 47:1 48:1 49:1 1022:1 1408:1 2520:1 
1 1 1 1 1:1 2:1 4:1 10:1 12:1 13:1 34:1 62:1 70:1 134:1 151:1 193:1 697:1 2521:1 
1 1 1 1 2:1 4:1 12:1 13:1 2522:1 
1 0 1 1 2:1 4:1 12:1 13:1 200:1 214:1 215:1 372:1 
1 1 1 1 2:1 4:1 13:1 126:1 200:1 2394:1 2396:1 2523:1 
1 1 1 1 2:1 4:1 13:1 86:1 173:1 209:1 340:1 341:1 342:1 762:1 1221:1 2112:1 2524:1 2525:1 
1 1 1 1 2:1 4:1 8:1 13:1 57:1 74:1 103:1 
1 1 1 1 2:1 4:1 13:1 45:1 77:1 161:1 1322:1 2526:1 
1 1 1 1 1:1 2:1 4:1 13:1 19:1 70:1 77:1 81:1 170:1 479:1 1603:1 2004:1 2527:1 2528:1 2529:1 
1 1 1 1 2:1 4:1 13:1 42:1 86:1 107:1 161:1 189:1 294:1 2165:1 2530:1 2531:1 
1 1 1 1 1:1 2:1 4:1 8:1 13:1 52:1 77:1 103:1 134:1 2533:1 2534:1 
1 1 1 1 1:1 2:1 4:1 13:1 42:1 663:1 780:1 966:1 2535:1 
1 1 1 1 1:1 2:1 4:1 13:1 74:1 109:1 2324:1 
1 1 1 1 2:1 4:1 9:1 13:1 58:1 73:1 330:1 604:1 799:1 2536:1 2538:1 2539:1 
1 0 1 1 2:1 4:1 12:1 13:1 19:1 48:1 73:1 75:1 181:1 200:1 226:1 258:1 308:1 337:1 406:1 503:1 1226:1 1372:1 
1 1 1 1 1:1 2:1 4:1 8:1 13:1 34:1 42:1 47:1 63:1 65:1 80:1 94:1 95:1 97:1 150:1 249:1 875:1 895:1 919:1 923:1 1011:1 1821:1 2057:1 2540:1 2541:1 2542:1 
1 1 1 1 1:1 2:1 4:1 5:1 13:1 47:1 48:1 101:1 130:1 200:1 240:1 285:1 1917:1 2543:1 2544:1 2546:1 
1 1 1 1 2:1 4:1 13:1 19:1 65:1 86:1 109:1 131:1 183:1 217:1 493:1 516:1 900:1 
1 0 1 1 2:1 4:1 12:1 13:1 48:1 65:1 77:1 109:1 152:1 269:1 287:1 359:1 539:1 1419:1 2547:1 2548:1 
1 0 1 1 2:1 4:1 13:1 28:1 46:1 73:1 74:1 175:1 335:1 497:1 639:1 742:1 2549:1 
1 1 1 1 2:1 4:1 12:1 13:1 927:1 
1 1 1 1 2:1 4:1 13:1 29:1 216:1 2551:1 
1 1 1 1 2:1 4:1 13:1 48:1 286:1 
1 1 1 1 1:1 2:1 4:1 12:1 13:1 19:1 38:1 77:1 103:1 323:1 332:1 499:1 2555:1 
1 1 1 1 2:1 4:1 13:1 38:1 45:1 48:1 95:1 150:1 337:1 463:1 1020:1 1106:1 1169:1 1226:1 2556:1 
1 1 1 1 1:1 2:1 4:1 6:1 12:1 13:1 50:1 80:1 152:1 188:1 337:1 938:1 1743:1 
1 1 1 1 2:1 4:1 13:1 109:1 150:1 340:1 341:1 342:1 919:1 923:1 1789:1 2557:1 2558:1 
1 1 1 1 1:1 2:1 4:1 12:1 13:1 19:1 32:1 49:1 65:1 74:1 80:1 130:1 219:1 249:1 335:1 825:1 826:1 966:1 1043:1 
1 1 1 1 2:1 4:1 12:1 13:1 78:1 109:1 200:1 516:1 1749:1 2559:1 
1 1 1 1 2:1 4:1 13:1 161:1 991:1 2561:1 2562:1 2563:1 2564:1 
1 0 1 1 2:1 4:1 12:1 13:1 200:1 217:1 
1 1 1 1 2:1 4:1 13:1 65:1 77:1 86:1 1469:1 2565:1 
1 1 1 1 2:1 4:1 13:1 34:1 42:1 49:1 206:1 207:1 261:1 519:1 536:1 639:1 1700:1 2566:1 
1 1 1 1 2:1 4:1 9:1 13:1 2440:1 
1 1 1 1 2:1 4:1 13:1 19:1 45:1 53:1 200:1 258:1 373:1 420:1 766:1 2567:1 
1 1 1 1 2:1 4:1 13:1 1408:1 2568:1 
1 1 1 1 1:1 2:1 4:1 12:1 13:1 19:1 86:1 865:1 2569:1 
1 1 1 1 2:1 4:1 10:1 13:1 2571:1 
1 1 1 1 2:1 4:1 9:1 13:1 42:1 50:1 83:1 86:1 166:1 181:1 327:1 373:1 945:1 1374:1 1857:1 2572:1 
1 0 1 1 2:1 4:1 12:1 13:1 65:1 103:1 130:1 139:1 475:1 
1 1 1 1 2:1 4:1 6:1 13:1 164:1 165:1 
1 0 1 1 2:1 4:1 6:1 12:1 13:1 46:1 58:1 65:1 73:1 103:1 247:1 294:1 1243:1 2140:1 2156:1 2496:1 2573:1 2575:1 2576:1 
1 0 1 1 2:1 4:1 13:1 34:1 48:1 49:1 65:1 73:1 125:1 273:1 376:1 954:1 2578:1 
1 1 1 1 2:1 4:1 13:1 46:1 65:1 86:1 202:1 635:1 809:1 2207:1 
1 1 1 1 2:1 4:1 13:1 42:1 63:1 65:1 109:1 150:1 151:1 152:1 776:1 889:1 1682:1 2583:1 2584:1 
1 0 1 1 2:1 4:1 12:1 13:1 29:1 86:1 126:1 136:1 137:1 
1 1 1 1 2:1 4:1 10:1 13:1 50:1 74:1 77:1 114:1 187:1 247:1 328:1 828:1 1100:1 1442:1 2585:1 2586:1 2587:1 2588:1 2589:1 
1 1 1 1 2:1 4:1 8:1 13:1 34:1 65:1 179:1 589:1 
1 0 1 1 2:1 4:1 9:1 10:1 12:1 13:1 64:1 65:1 74:1 77:1 86:1 109:1 178:1 493:1 516:1 834:1 883:1 1469:1 2590:1 
1 1 1 1 2:1 4:1 12:1 13:1 42:1 200:1 464:1 
1 1 1 1 2:1 4:1 10:1 13:1 86:1 1689:1 2591:1 
1 0 1 1 2:1 4:1 13:1 53:1 65:1 86:1 214:1 215:1 506:1 1094:1 
1 1 1 1 2:1 4:1 10:1 13:1 42:1 65:1 86:1 95:1 152:1 243:1 337:1 356:1 376:1 461:1 479:1 1507:1 2592:1 2593:1 
1 0 1 1 2:1 4:1 6:1 13:1 31:1 32:1 41:1 48:1 65:1 77:1 80:1 86:1 97:1 126:1 136:1 166:1 450:1 635:1 809:1 2022:1 2595:1 
1 1 1 1 2:1 4:1 13:1 16:1 42:1 73:1 86:1 101:1 162:1 194:1 209:1 1064:1 1412:1 2596:1 2597:1 
1 1 1 1 1:1 2:1 4:1 9:1 12:1 13:1 58:1 101:1 158:1 201:1 246:1 327:1 361:1 578:1 952:1 2598:1 
1 1 1 1 1:1 2:1 4:1 13:1 19:1 220:1 
1 1 1 1 2:1 4:1 13:1 86:1 128:1 173:1 1237:1 9302:1 
1 1 1 1 2:1 4:1 8:1 13:1 42:1 46:1 48:1 74:1 161:1 179:1 474:1 765:1 781:1 2302:1 2366:1 2533:1 2600:1 2601:1 
1 1 1 1 2:1 4:1 13:1 42:1 101:1 111:1 162:1 209:1 232:1 486:1 1373:1 1726:1 
1 0 1 1 2:1 4:1 12:1 13:1 34:1 58:1 62:1 65:1 97:1 139:1 220:1 337:1 421:1 423:1 503:1 2603:1 2604:1 
1 1 1 1 1:1 2:1 4:1 13:1 38:1 41:1 50:1 52:1 53:1 77:1 103:1 120:1 134:1 168:1 187:1 258:1 262:1 1646:1 2248:1 2249:1 2250:1 
1 1 1 1 1:1 2:1 4:1 9:1 13:1 19:1 103:1 148:1 336:1 2324:1 
1 1 1 1 1:1 2:1 4:1 13:1 19:1 
1 0 1 1 2:1 4:1 12:1 13:1 32:1 34:1 58:1 65:1 77:1 86:1 96:1 134:1 152:1 153:1 205:1 236:1 322:1 536:1 2447:1 2605:1 2606:1 2607:1 
1 0 1 1 2:1 4:1 12:1 13:1 34:1 38:1 49:1 65:1 77:1 109:1 139:1 1338:1 1496:1 
1 0 1 1 2:1 4:1 9:1 12:1 13:1 73:1 74:1 86:1 126:1 372:1 390:1 391:1 464:1 1405:1 
1 1 1 1 2:1 4:1 6:1 8:1 13:1 42:1 47:1 50:1 74:1 86:1 96:1 97:1 101:1 206:1 207:1 258:1 294:1 377:1 822:1 826:1 1011:1 2609:1 2610:1 2611:1 
1 0 1 1 2:1 4:1 13:1 34:1 65:1 94:1 97:1 114:1 1404:1 
1 1 1 1 2:1 4:1 13:1 47:1 77:1 141:1 161:1 209:1 220:1 223:1 500:1 1149:1 1931:1 2612:1 
1 0 1 1 2:1 4:1 12:1 13:1 122:1 166:1 247:1 376:1 535:1 611:1 
1 1 1 1 2:1 4:1 10:1 13:1 42:1 43:1 47:1 49:1 58:1 73:1 80:1 86:1 179:1 202:1 249:1 262:1 604:1 851:1 895:1 919:1 923:1 1423:1 2613:1 2614:1 2615:1 2616:1 2617:1 
1 1 1 1 2:1 4:1 13:1 80:1 86:1 2620:1 2621:1 2622:1 
1 1 1 1 2:1 4:1 13:1 16:1 64:1 103:1 109:1 247:1 497:1 1136:1 1193:1 1931:1 
1 1 1 1 2:1 4:1 13:1 50:1 58:1 73:1 77:1 86:1 152:1 236:1 324:1 373:1 406:1 716:1 792:1 1408:1 1652:1 2623:1 2624:1 
1 1 1 1 1:1 2:1 4:1 6:1 12:1 13:1 2625:1 2626:1 
1 1 1 1 2:1 4:1 6:1 9:1 13:1 20:1 32:1 45:1 49:1 58:1 126:1 127:1 170:1 175:1 201:1 337:1 340:1 342:1 404:1 564:1 730:1 780:1 826:1 1194:1 2627:1 2628:1 
1 1 1 1 1:1 2:1 4:1 13:1 19:1 27:1 42:1 340:1 342:1 404:1 919:1 923:1 1437:1 1506:1 1534:1 2631:1 
1 1 1 1 2:1 4:1 13:1 46:1 240:1 578:1 1378:1 
1 1 1 1 1:1 2:1 4:1 12:1 13:1 19:1 643:1 2633:1 
1 1 1 1 2:1 4:1 13:1 27:1 33:1 42:1 46:1 48:1 59:1 65:1 73:1 116:1 151:1 166:1 327:1 663:1 780:1 2435:1 
1 1 1 1 1:1 2:1 4:1 13:1 19:1 65:1 109:1 179:1 960:1 1243:1 1804:1 2206:1 2635:1 2636:1 
1 1 1 1 2:1 4:1 10:1 13:1 48:1 65:1 77:1 111:1 221:1 327:1 1849:1 2523:1 2637:1 
1 1 1 1 2:1 4:1 13:1 77:1 406:1 839:1 2638:1 
1 1 1 1 2:1 4:1 13:1 132:1 2639:1 
1 1 1 1 2:1 4:1 13:1 
1 1 1 1 2:1 4:1 12:1 13:1 74:1 77:1 262:1 363:1 799:1 2640:1 2641:1 2642:1 2643:1 
1 1 1 1 2:1 4:1 9:1 12:1 13:1 32:1 42:1 62:1 67:1 74:1 77:1 109:1 173:1 202:1 333:1 742:1 832:1 1216:1 
1 0 1 1 2:1 4:1 12:1 13:1 65:1 68:1 77:1 86:1 131:1 214:1 215:1 249:1 440:1 622:1 2646:1 2647:1 2648:1 
1 1 1 1 1:1 2:1 4:1 12:1 13:1 19:1 38:1 86:1 120:1 223:1 699:1 2365:1 2650:1 
1 1 1 1 1:1 2:1 4:1 13:1 34:1 58:1 96:1 134:1 249:1 338:1 504:1 1757:1 1945:1 2051:1 
1 0 1 1 2:1 4:1 12:1 13:1 200:1 376:1 2653:1 
1 1 1 1 1:1 2:1 4:1 13:1 38:1 41:1 73:1 77:1 95:1 111:1 191:1 219:1 342:1 515:1 919:1 923:1 1074:1 2654:1 2655:1 
1 0 1 1 2:1 4:1 13:1 48:1 65:1 111:1 177:1 373:1 2656:1 
1 1 1 1 2:1 4:1 13:1 200:1 269:1 
1 0 1 1 2:1 4:1 12:1 13:1 58:1 65:1 80:1 143:1 173:1 423:1 667:1 780:1 966:1 967:1 1644:1 2022:1 2657:1 2658:1 
1 0 1 1 2:1 4:1 12:1 13:1 65:1 165:1 673:1 2659:1 
1 0 1 1 2:1 4:1 13:1 29:1 48:1 65:1 70:1 705:1 1094:1 1749:1 2660:1 
1 1 1 1 2:1 4:1 13:1 34:1 42:1 48:1 74:1 134:1 634:1 639:1 1066:1 
1 0 1 1 2:1 4:1 12:1 13:1 74:1 200:1 376:1 382:1 493:1 516:1 
1 0 1 1 2:1 4:1 13:1 34:1 65:1 74:1 77:1 97:1 111:1 161:1 168:1 261:1 359:1 422:1 463:1 1665:1 2540:1 2661:1 
1 1 1 1 2:1 4:1 12:1 13:1 74:1 101:1 173:1 249:1 392:1 747:1 1225:1 2274:1 2662:1 
1 0 1 1 2:1 4:1 13:1 20:1 27:1 29:1 34:1 38:1 58:1 77:1 83:1 86:1 127:1 206:1 207:1 911:1 2470:1 2663:1 
1 0 1 1 2:1 4:1 13:1 50:1 73:1 86:1 97:1 109:1 110:1 111:1 134:1 207:1 1247:1 1423:1 2664:1 2665:1 2666:1 
1 1 1 1 2:1 4:1 12:1 13:1 38:1 77:1 103:1 499:1 2555:1 
1 1 1 1 1:1 2:1 4:1 13:1 19:1 46:1 73:1 94:1 919:1 923:1 2667:1 
1 1 1 1 1:1 2:1 4:1 13:1 110:1 111:1 112:1 152:1 249:1 623:1 2668:1 
1 1 1 1 1:1 2:1 4:1 13:1 48:1 65:1 109:1 359:1 390:1 447:1 623:1 703:1 2669:1 3226:1 
1 1 1 1 2:1 4:1 13:1 41:1 42:1 58:1 73:1 109:1 141:1 461:1 1260:1 
1 1 1 1 2:1 4:1 5:1 13:1 38:1 45:1 47:1 48:1 95:1 130:1 175:1 194:1 220:1 328:1 337:1 373:1 490:1 493:1 732:1 855:1 1055:1 1150:1 2140:1 2256:1 2670:1 
1 1 1 1 2:1 4:1 13:1 27:1 47:1 49:1 65:1 70:1 77:1 139:1 327:1 745:1 919:1 923:1 1791:1 1821:1 2536:1 2674:1 2675:1 2676:1 2677:1 10089:1 11145:1 
1 1 1 1 2:1 4:1 12:1 13:1 49:1 58:1 111:1 130:1 167:1 220:1 1760:1 1907:1 2678:1 
1 1 1 1 1:1 2:1 4:1 9:1 12:1 13:1 19:1 50:1 73:1 120:1 183:1 209:1 220:1 506:1 1243:1 2679:1 
1 1 1 1 2:1 4:1 5:1 12:1 13:1 63:1 86:1 359:1 1892:1 1986:1 
1 1 1 1 2:1 4:1 13:1 15:1 86:1 340:1 342:1 372:1 404:1 898:1 
1 1 1 1 1:1 2:1 4:1 8:1 9:1 12:1 13:1 16:1 19:1 50:1 52:1 80:1 109:1 110:1 111:1 173:1 337:1 589:1 717:1 2357:1 
1 1 1 1 2:1 4:1 9:1 13:1 42:1 73:1 86:1 127:1 217:1 2188:1 2339:1 2663:1 2682:1 
1 1 1 1 1:1 2:1 4:1 9:1 13:1 19:1 42:1 49:1 68:1 103:1 173:1 258:1 392:1 497:1 578:1 1149:1 1282:1 1434:1 1809:1 2684:1 
1 1 1 1 2:1 4:1 5:1 13:1 42:1 361:1 991:1 1624:1 2686:1 2687:1 2688:1 2689:1 2690:1 2691:1 2692:1 2693:1 2694:1 2695:1 
1 1 1 1 1:1 2:1 4:1 8:1 13:1 101:1 114:1 220:1 363:1 
1 1 1 1 2:1 4:1 9:1 13:1 38:1 40:1 47:1 48:1 81:1 122:1 161:1 220:1 249:1 392:1 397:1 577:1 895:1 919:1 923:1 1040:1 2185:1 2697:1 2698:1 2699:1 2700:1 2702:1 
1 1 1 1 2:1 4:1 13:1 73:1 173:1 356:1 2703:1 
1 1 1 1 2:1 4:1 12:1 13:1 215:1 
1 1 1 1 2:1 4:1 13:1 38:1 77:1 152:1 161:1 173:1 187:1 327:1 504:1 828:1 900:1 1125:1 1270:1 2705:1 2706:1 
1 0 1 1 2:1 4:1 6:1 13:1 46:1 62:1 64:1 65:1 73:1 84:1 86:1 364:1 799:1 2237:1 2683:1 2707:1 2708:1 3340:1 
1 1 1 1 2:1 4:1 8:1 12:1 13:1 101:1 111:1 161:1 175:1 379:1 396:1 828:1 2709:1 
1 1 1 1 2:1 4:1 13:1 42:1 54:1 65:1 94:1 109:1 141:1 151:1 364:1 639:1 1272:1 1469:1 2710:1 2711:1 2712:1 2713:1 
1 0 1 1 2:1 4:1 12:1 13:1 49:1 127:1 200:1 201:1 675:1 
1 1 1 1 2:1 4:1 13:1 57:1 58:1 86:1 96:1 109:1 161:1 1011:1 1259:1 1335:1 2344:1 2714:1 2715:1 
1 1 1 1 2:1 4:1 12:1 13:1 109:1 117:1 2716:1 
1 1 1 1 2:1 4:1 13:1 31:1 38:1 49:1 54:1 58:1 73:1 77:1 81:1 187:1 206:1 207:1 239:1 318:1 373:1 897:1 2263:1 2717:1 2718:1 2720:1 
1 1 1 1 2:1 4:1 13:1 86:1 131:1 494:1 512:1 901:1 
1 1 1 1 2:1 4:1 13:1 70:1 145:1 919:1 923:1 2726:1 
1 0 1 1 2:1 4:1 13:1 73:1 145:1 376:1 
1 1 1 1 2:1 4:1 9:1 13:1 68:1 335:1 336:1 423:1 514:1 2729:1 2730:1 
1 1 1 1 2:1 4:1 13:1 49:1 68:1 70:1 74:1 86:1 179:1 397:1 837:1 2091:1 2356:1 2731:1 2732:1 
1 1 1 1 1:1 2:1 4:1 8:1 13:1 47:1 207:1 240:1 351:1 919:1 923:1 1074:1 1293:1 2725:1 2733:1 2734:1 
1 1 1 1 2:1 4:1 12:1 13:1 166:1 
1 1 1 1 2:1 4:1 12:1 13:1 47:1 65:1 74:1 83:1 440:1 570:1 643:1 1216:1 1880:1 2109:1 2735:1 2736:1 2737:1 2738:1 2739:1 2740:1 2741:1 
1 1 1 1 1:1 2:1 4:1 13:1 67:1 73:1 74:1 77:1 535:1 934:1 1179:1 
1 0 1 1 2:1 4:1 12:1 13:1 20:1 65:1 111:1 112:1 130:1 161:1 170:1 189:1 223:1 2742:1 
1 1 1 1 2:1 4:1 13:1 65:1 74:1 742:1 785:1 1604:1 2743:1 
1 1 1 1 2:1 4:1 13:1 720:1 
1 0 1 1 2:1 4:1 12:1 13:1 70:1 77:1 145:1 376:1 2447:1 2744:1 
1 1 1 1 1:1 2:1 4:1 12:1 13:1 19:1 65:1 217:1 244:1 516:1 780:1 1376:1 1804:1 
1 1 1 1 2:1 4:1 13:1 65:1 77:1 97:1 355:1 515:1 1496:1 2745:1 2746:1 
1 1 1 1 2:1 4:1 13:1 49:1 220:1 269:1 1155:1 2747:1 
1 1 1 1 2:1 4:1 9:1 10:1 13:1 109:1 136:1 590:1 1044:1 2748:1 
1 1 1 1 2:1 4:1 10:1 13:1 95:1 103:1 188:1 373:1 771:1 2750:1 
1 1 1 1 2:1 4:1 13:1 2667:1 
1 1 1 1 2:1 4:1 8:1 13:1 49:1 58:1 103:1 249:1 
1 1 1 1 2:1 4:1 13:1 75:1 77:1 101:1 109:1 152:1 328:1 941:1 
1 1 1 1 2:1 4:1 9:1 10:1 13:1 40:1 47:1 49:1 52:1 65:1 77:1 86:1 96:1 97:1 101:1 221:1 364:1 1035:1 1141:1 1372:1 1387:1 2752:1 2753:1 
1 0 1 1 2:1 4:1 13:1 41:1 48:1 49:1 53:1 62:1 65:1 73:1 86:1 94:1 101:1 111:1 179:1 379:1 1141:1 1403:1 1410:1 2365:1 2754:1 20751:1 
1 1 1 1 2:1 4:1 13:1 77:1 314:1 2757:1 
1 1 1 1 2:1 4:1 13:1 20712:1 
1 1 1 1 2:1 4:1 10:1 13:1 48:1 97:1 236:1 780:1 2758:1 2759:1 9042:1 
1 0 1 1 2:1 4:1 12:1 13:1 46:1 70:1 127:1 181:1 216:1 
1 1 1 1 1:1 2:1 4:1 13:1 19:1 
1 1 1 1 2:1 4:1 13:1 22:1 46:1 70:1 340:1 341:1 342:1 762:1 
1 1 1 1 2:1 4:1 13:1 161:1 217:1 444:1 720:1 2761:1 
1 1 1 1 2:1 4:1 13:1 52:1 65:1 109:1 124:1 143:1 828:1 871:1 919:1 923:1 2366:1 2367:1 
1 1 1 1 2:1 4:1 6:1 13:1 32:1 42:1 48:1 49:1 67:1 73:1 96:1 103:1 111:1 220:1 246:1 376:1 649:1 1061:1 2349:1 2441:1 2762:1 
1 1 1 1 2:1 4:1 12:1 13:1 70:1 200:1 
1 1 1 1 2:1 4:1 13:1 77:1 114:1 718:1 799:1 
1 1 1 1 2:1 4:1 8:1 13:1 38:1 49:1 74:1 103:1 1074:1 2767:1 
1 0 1 1 2:1 4:1 13:1 48:1 65:1 83:1 200:1 356:1 422:1 670:1 968:1 
1 1 1 1 2:1 4:1 13:1 29:1 165:1 189:1 
1 0 1 1 2:1 4:1 13:1 48:1 65:1 269:1 337:1 461:1 705:1 1094:1 2771:1 20277:1 
1 1 1 1 2:1 4:1 10:1 13:1 52:1 77:1 99:1 109:1 397:1 480:1 871:1 2359:1 2772:1 
1 1 1 1 1:1 2:1 4:1 12:1 13:1 73:1 74:1 77:1 668:1 962:1 1043:1 2773:1 2774:1 
1 0 1 1 2:1 4:1 13:1 29:1 34:1 38:1 65:1 74:1 77:1 86:1 128:1 134:1 340:1 342:1 377:1 391:1 404:1 783:1 1338:1 1354:1 1913:1 2626:1 
1 1 1 1 1:1 2:1 4:1 13:1 16:1 19:1 20:1 77:1 112:1 126:1 194:1 214:1 215:1 223:1 930:1 1995:1 
1 1 1 1 1:1 2:1 4:1 13:1 1955:1 
1 1 1 1 1:1 2:1 4:1 13:1 19:1 
1 1 1 1 1:1 2:1 4:1 13:1 19:1 29:1 34:1 38:1 65:1 74:1 77:1 86:1 128:1 134:1 340:1 342:1 377:1 391:1 404:1 783:1 1338:1 1354:1 1913:1 2626:1 
1 1 1 1 2:1 4:1 12:1 13:1 643:1 2633:1 
1 1 1 1 1:1 2:1 4:1 10:1 13:1 19:1 70:1 220:1 363:1 766:1 972:1 2779:1 2780:1 2781:1 2782:1 
1 0 1 1 2:1 4:1 12:1 13:1 77:1 216:1 373:1 
1 1 1 1 1:1 2:1 4:1 12:1 13:1 168:1 221:1 2512:1 2783:1 2784:1 
1 1 1 1 1:1 2:1 4:1 13:1 68:1 261:1 456:1 2785:1 
1 1 1 1 1:1 2:1 4:1 12:1 13:1 19:1 122:1 166:1 247:1 376:1 535:1 611:1 
1 0 1 1 2:1 4:1 12:1 13:1 86:1 720:1 799:1 
1 1 1 1 2:1 4:1 13:1 86:1 
1 1 1 1 2:1 4:1 13:1 80:1 97:1 99:1 111:1 152:1 168:1 851:1 
1 1 1 1 2:1 4:1 13:1 68:1 86:1 132:1 166:1 
1 1 1 1 2:1 4:1 13:1 86:1 799:1 800:1 1804:1 
1 1 1 1 2:1 4:1 13:1 65:1 80:1 373:1 2791:1 
1 1 1 1 2:1 4:1 5:1 13:1 19:1 73:1 177:1 930:1 2793:1 
1 0 1 1 2:1 4:1 12:1 13:1 86:1 161:1 200:1 335:1 535:1 
1 1 1 1 2:1 4:1 12:1 13:1 70:1 217:1 
1 1 1 1 1:1 2:1 4:1 12:1 13:1 19:1 49:1 77:1 86:1 101:1 125:1 130:1 183:1 200:1 217:1 220:1 340:1 342:1 404:1 753:1 2301:1 2797:1 2798:1 
1 0 1 1 2:1 4:1 13:1 32:1 34:1 48:1 49:1 65:1 73:1 114:1 742:1 1652:1 
1 1 1 1 2:1 4:1 13:1 19:1 42:1 148:1 391:1 883:1 963:1 
1 0 1 1 2:1 4:1 12:1 13:1 34:1 48:1 49:1 52:1 134:1 175:1 1243:1 1563:1 
1 1 1 1 2:1 4:1 13:1 42:1 45:1 74:1 81:1 83:1 161:1 444:1 1149:1 
1 1 1 1 1:1 2:1 4:1 12:1 13:1 38:1 77:1 96:1 359:1 2156:1 2799:1 
1 0 1 1 2:1 4:1 13:1 19:1 38:1 54:1 58:1 65:1 73:1 74:1 77:1 86:1 126:1 136:1 137:1 148:1 406:1 555:1 1351:1 1466:1 1700:1 
1 1 1 1 2:1 4:1 6:1 13:1 131:1 206:1 207:1 2388:1 9302:1 
1 1 1 1 2:1 4:1 13:1 34:1 65:1 67:1 101:1 103:1 167:1 220:1 564:1 2801:1 2802:1 
1 0 1 1 2:1 4:1 12:1 13:1 73:1 161:1 209:1 263:1 2803:1 
1 1 1 1 2:1 4:1 9:1 13:1 48:1 236:1 780:1 792:1 
1 1 1 1 2:1 4:1 13:1 535:1 
1 1 1 1 2:1 4:1 13:1 73:1 855:1 1236:1 1387:1 2355:1 
1 1 1 1 2:1 4:1 10:1 13:1 48:1 53:1 124:1 375:1 2506:1 
1 1 1 1 2:1 4:1 13:1 58:1 86:1 631:1 2805:1 
1 1 1 1 1:1 2:1 4:1 13:1 123:1 165:1 604:1 616:1 895:1 
1 1 1 1 2:1 4:1 13:1 57:1 65:1 246:1 373:1 2756:1 2806:1 2807:1 2808:1 
1 1 1 1 1:1 2:1 4:1 13:1 65:1 109:1 179:1 960:1 1243:1 1804:1 2206:1 2635:1 2636:1 
1 0 1 1 2:1 4:1 6:1 13:1 65:1 77:1 97:1 111:1 139:1 188:1 258:1 373:1 619:1 675:1 2809:1 2810:1 
1 0 1 1 2:1 4:1 12:1 13:1 73:1 86:1 152:1 170:1 1138:1 1347:1 1727:1 1888:1 2292:1 
1 0 1 1 2:1 4:1 12:1 13:1 214:1 215:1 
1 1 1 1 2:1 4:1 13:1 32:1 50:1 54:1 86:1 113:1 114:1 244:1 258:1 269:1 336:1 474:1 539:1 1442:1 1461:1 1469:1 1970:1 
1 1 1 1 2:1 4:1 13:1 48:1 236:1 792:1 
1 1 1 1 2:1 4:1 12:1 13:1 81:1 217:1 2811:1 
1 1 1 1 2:1 4:1 10:1 13:1 19:1 65:1 101:1 117:1 168:1 173:1 177:1 183:1 204:1 258:1 261:1 314:1 359:1 559:1 571:1 930:1 1214:1 2293:1 2755:1 
1 1 1 1 1:1 2:1 4:1 12:1 13:1 19:1 73:1 74:1 77:1 668:1 962:1 1043:1 2773:1 2774:1 
1 1 1 1 2:1 4:1 6:1 13:1 19:1 32:1 48:1 54:1 58:1 65:1 75:1 127:1 139:1 148:1 175:1 826:1 853:1 2388:1 2812:1 
1 0 1 1 2:1 4:1 12:1 13:1 16:1 49:1 56:1 86:1 173:1 204:1 427:1 1613:1 
1 1 1 1 1:1 2:1 4:1 13:1 65:1 80:1 94:1 509:1 620:1 
1 0 1 1 2:1 4:1 6:1 13:1 65:1 246:1 262:1 373:1 504:1 
1 1 1 1 2:1 4:1 10:1 13:1 58:1 77:1 2242:1 2814:1 
1 1 1 1 2:1 4:1 13:1 42:1 74:1 95:1 216:1 294:1 524:1 639:1 1496:1 
1 1 1 1 2:1 4:1 12:1 13:1 166:1 
1 1 1 1 2:1 4:1 13:1 
1 1 1 1 2:1 4:1 13:1 74:1 314:1 318:1 380:1 2817:1 2818:1 
1 1 1 1 2:1 4:1 13:1 48:1 49:1 110:1 111:1 112:1 505:1 2237:1 2332:1 
1 1 1 1 1:1 2:1 4:1 8:1 13:1 19:1 46:1 57:1 103:1 148:1 434:1 499:1 663:1 10643:1 
1 1 1 1 2:1 4:1 13:1 38:1 48:1 77:1 423:1 966:1 967:1 2503:1 
1 1 1 1 2:1 4:1 13:1 48:1 64:1 65:1 97:1 101:1 111:1 168:1 397:1 670:1 868:1 2612:1 2819:1 9302:1 
1 1 1 1 2:1 4:1 13:1 20:1 161:1 217:1 427:1 477:1 
1 1 1 1 2:1 4:1 13:1 
1 0 1 1 2:1 4:1 13:1 29:1 73:1 77:1 86:1 126:1 146:1 161:1 181:1 246:1 529:1 1357:1 
1 0 1 1 2:1 4:1 13:1 45:1 65:1 86:1 373:1 464:1 479:1 493:1 494:1 1354:1 
