solver_type L2R_LR
nr_class 5
label 4 0 3 1 2
nr_feature 28309
bias -1
w
-0.0400250432148662 -0.690826375367676 0.4916111985313194 -0.1289761879460474 0.3729632154596352 
-0.7127153351460589 -0.69490793569434 -0.667829795023496 -0.05335095980170618 -0.461629171946391 
0 0 0 0 0 
-0.7127153351460589 -0.69490793569434 -0.667829795023496 -0.05335095980170618 -0.461629171946391 
-0.07504082235636185 0.2249159675916812 -0.0222372301766578 -0.09903733746040699 -0.07445232945597906 
0.0695653773132828 -0.01124541213577455 -0.03590408202149392 -0.08354106840136342 0.0337202664250177 
0.6389866469806839 -0.03809254414604371 -0.1964204700699279 -0.2316944974872596 -0.1250112426428835 
-0.3224856206065357 0.3164122299560225 0.05333907844341257 -0.2205407694102299 -0.007801221221925539 
0.1962001441618248 -0.1272028481445022 0.1262111889003621 -0.2474970403209219 0.05871039146609549 
0.1928406636349306 -0.01756305373587177 0.127674135111614 -0.1260867085029026 -0.1618347956064972 
-1.124228555679109 0.9365159439020816 -0.09250180769853916 0.2321413147395743 -0.5461179757063067 
-0.06405616006951408 -0.0785085294630298 -0.3039061995649385 0.7281408174792724 -0.6389467518413181 
-0.2420157297306078 -0.2880646353155173 -0.4104695909221749 -0.7350010571716111 -0.5500061641296923 
0 0 0 0 0 
0.2861139080688984 -0.5205803177534943 -0.2443399692129013 0.6021694625372523 -0.2794793472626196 
0.3202600797311493 -0.2884650790913547 -0.1059613040901286 0.02395248727763519 -0.1456863627553421 
-0.4415471011180385 -0.5168535912184833 -0.4701384628219727 0.9458804545510034 0.2523480571858439 
-0.4325900788543961 0.45827610961139 0.2825855778828106 0.5142386338903167 -0.9810279384341747 
-0.2592112912468563 0.1083436139289503 -0.3202107780768854 0.4147930827669803 -0.263744224044713 
0.2271399289438156 -0.03694763936588332 -1.132852834388428 0.2261114524778716 -0.107404414027195 
1.349141125005374 0.275057974809247 -0.4630371763134608 -0.5909817376632933 -0.8113708797444181 
0.2895566982210139 -0.1859523334702661 0.5618964619891735 -0.7781652073601932 0.1400787418581129 
-0.09024554482612482 0.9149221360014697 -0.3302968401241133 -0.4087597183708166 -0.4557573937352154 
0.6259606395842006 -0.3359070297695411 -0.06965742159254655 -0.1958381387041164 -0.1030365483281669 
0.4449352116255307 -0.621049190962647 0.5298601647902853 -0.4386618496983617 0.08926013509109658 
0.6828936748790794 -0.02363595921110188 -0.5122864177764382 0.1611717218538276 0.06767532842906535 
0.04377783811781935 0.2334999653297342 0.2969163994023913 -0.5827632727355466 0.03779748081290213 
-0.1288802230987441 -0.1401371339372898 0.06556109810917934 0.02030970067624496 0.2214873351999969 
0.9682166759410744 -2.438733465988336 -1.45859401064199 0.4402827740214828 -0.5246206100340634 
0 0 0 0 0 
-0.1395117856661546 -0.4003346917525642 -0.1895429708718617 -0.08969152770674862 0.3716105609568011 
-0.01584775400224125 0.1403670447554485 -0.1440148415228466 -0.3181576716571063 0.1491222817618365 
0.2052803727915133 -0.4136424571404348 0.5278491643598551 -0.2186648074642456 0.03478945530137922 
0.03902730573151968 -0.07214239460069097 -0.109413012161405 0.2302180967640446 -0.08914228320185405 
0.477790335949322 -0.1894350903967406 -0.1844809072705776 -0.110641262051762 0.08939370268569388 
0.5455105815793396 -0.0627974313322826 -0.1133362954614785 -0.08781773032293627 -0.2282742521033628 
-0.09024185313295005 0.6988996881055515 0.4521005237395194 -0.5191725737164631 -0.7064659444185216 
-0.07474268524781362 0.1693246110534606 0.02189188236370121 -0.2962547549447554 0.04162084381893916 
0.6266440403026091 -1.189545393440039 -0.6107438168284977 -0.08108157140964488 0.7654498528560695 
-0.3273137911802362 0.03452137340449419 -0.04831429423243359 -0.2159727246131178 0.2919566018280042 
-0.557824754235432 -0.1377177656364095 0.4093301064695182 -0.6219750005836677 0.5153289189418975 
-0.1846823673071676 0.05257542388548875 0.2204712356632005 -0.0603156367763026 -0.1244936036662048 
-0.1213719073427808 -0.1781963753674213 -0.3637284554119768 0.1683446987115058 0.3594987435468969 
0.2566441564738819 0.3534148380992193 -0.7518761460996496 0.683465529744125 -0.1410754685787311 
0.3927040776698336 0.0180818893991029 0.257377315443286 0.6052267358658292 -0.8755506219753404 
-0.1048253420171789 -0.1219178014038979 -0.1621495255192993 0.1190415482786463 0.07718478005341081 
0.143341734273376 0.1509974706273369 -0.01556377449069766 -0.126477910134812 -0.1530047199646111 
0.0003874747450141342 0.1201798491749747 -0.3170875000669114 -0.06216367666493569 0.1162749250458469 
-0.05855532903204191 0.2304782237487105 0.11499744960909 -0.1426309676674712 -0.1450886251853821 
0.724442311838805 -0.4160961272794547 -0.1432013035821437 -0.3036554571819298 0.07712059819466227 
-0.1805589774934187 0.1827770355254058 0.05617633910801749 -0.3285082207564624 -0.03011376260573796 
0.3551337022069646 -0.2567589450561839 -0.1194927685819114 0.02721420688818007 -0.01089720092123912 
0.3397854422939375 -0.6499722433887135 0.151873309029636 -0.1918087361251489 0.3644327003308735 
-0.04356780292213098 0.8542010933937503 0.2214010597739216 0.1261029309597046 -1.324157281503872 
0.06571693368130657 0.08061353544302631 0.440366812245175 0.1093875419806777 -0.3720979830370943 
0.1529667075772335 0.3453179394218684 -0.005831540944625442 -0.2063705404191747 -0.2257817476047579 
-0.1872397595720033 -0.1232733062108337 0.01862244444439178 0.2251773755341735 -0.0504479644819809 
-0.1756916073189229 0.2521558367681911 0.175600245726398 -0.6371504127043979 0.1216658768869754 
0.1655891456458099 -0.05844219188381268 -0.7720116304921547 -0.6049844840329155 0.6657327305383851 
0.614028379192727 -0.1816728896061711 -0.1634012676437182 -0.0318994259394196 -0.1608466326446882 
0.2683833481683838 0.2990456747760294 -0.8770365172943656 0.1890198907372726 -0.09643359498876194 
-0.1648553791056784 -0.00368480189168879 -0.006857849203933144 -0.7500627303846541 0.9101500148341635 
0.05351986157918186 0.1273255064928392 -0.0448661325100836 -0.2096382279650345 -0.01077977588987582 
-0.07526070229428357 0.02324992019456171 -0.2407386555712738 0.1015495283896014 0.06669748459032877 
0.120120685004793 -0.3260820926287336 0.126975814666299 0.01182031859044367 0.1491273373992609 
-0.02140454370229519 0.2971853263495314 0.001648935642205116 -0.5683446320999503 0.1768127991620627 
-0.1869206255429133 -0.0917380079375367 0.2055248317745801 0.2974318962083752 -0.3694537774174738 
0.07416694212710398 -0.1866801677949361 0.2821597957899878 -0.2777884033655726 -0.1250586617880246 
0.2828121414161159 0.0443661299728013 0.2050325310951673 -0.1921913775302116 -0.2186951857660367 
0.2093080587629506 -0.01055116957410059 -0.07816722475641619 -0.1639125228153219 -0.06058056703057183 
-0.3798639421407259 -0.575643100747216 -0.03586310718604012 0.8975561546561548 -0.08695544080225075 
0.0110003090902119 -0.1059773857893351 -0.2219211301433436 0.2511734487165442 -0.09422787839270157 
0.2154282913437151 -0.06676139303056972 0.02454416322839541 -0.5553724159537148 0.2520472087982748 
-0.3755250686653108 -0.2095950566828874 0.1253371540242713 0.1024277707632644 0.2325739727784999 
-0.1439578458378354 0.07646373223086653 -0.1402009679928146 0.489182664249542 -0.2338800204552653 
-0.03560377258461463 0.01090863848834172 -0.09913505524975953 -0.08641299457429207 -0.04175074100769081 
-0.07028558772655222 -0.3096892088814462 0.2392152134675295 -0.4650824442449187 0.540051411505686 
2.395178066568292 -1.502651440132896 -0.3598715249755608 -0.7309119365654454 -1.118018541669892 
0.3507726955714508 0.01154841566458599 -0.03388117090640133 0.02335003977531153 -0.2268113915614876 
-0.4393107367700734 0.2996775824511758 -0.05576046097175617 -0.1879111926359922 0.01740253954213192 
0.2093080587629506 -0.01055116957410059 -0.07816722475641619 -0.1639125228153219 -0.06058056703057183 
1.906506533589102 -0.5172548955830159 -0.7484785397144422 -1.352017024593372 -0.5650460033097623 
0.06012002125244485 0.1080747608634143 0.004116457553815991 -0.1234663996752109 0.07574280822069322 
0.6221056164907245 -1.039986545305905 0.2922857320160842 -0.224776139296464 0.1393962622126204 
0.4004136477338974 -0.6763571333161662 -0.2126275535430373 0.3825428743885387 0.2687518039908681 
0.105990726901687 0.08418470398723034 -0.1940463516589513 -0.03054574756232769 -0.199394709003901 
0 0 0 0 0 
-0.1331013465086686 0.1235035588063443 0.805592838184485 -0.7839266500179848 0.01819673834380918 
0.04305607338544175 0.2483988500336196 0.06180392107915589 -0.1317648425658184 -0.2779117828244406 
0.7780988106118264 -0.09774766733369926 -0.3249529201218213 -0.1325538532011995 -0.1297321687754923 
-0.7708037312800565 -0.140652730790263 0.7980397361905261 -0.1693663942439773 -0.1107072533865508 
0 0 0 0 0 
-0.1516355784560171 0.07295349569718219 -0.5535103902615287 0.6556293996896023 -0.3797364599559241 
0.4547845565702422 0.04888279049868433 0.1161168444959918 -0.1269257849650664 -0.2298030445232926 
-0.3683999279369717 -0.002942098390747749 0.7736595966940321 -0.6558470210540545 0.06925286805563965 
-0.1943603253216431 -0.07764691706462605 0.02102847399226775 -0.4785516247627973 0.2103020442694908 
0.1824372165662052 0.3225846798344604 0.0254243883091625 -0.6554365635354881 -0.1415380612375681 
0 0 0 0 0 
-0.7389755649556646 0.8921494677885993 0.06342899101866398 -1.225226205899761 -0.1263839049766712 
0.1987001189920034 -0.419761969679345 0.3985270245756488 0.2707745363372575 -0.4388650373150075 
-0.06536333941443805 0.1423698303011502 0.04229263372532197 -0.02763412161362013 -0.06302882811295685 
0.5039960173559995 -0.4669459521168479 -0.3070416458575347 -0.2294939156462323 1.08605809150194 
0.2944619185927629 0.2264758659098337 -0.2057603348496801 -0.601226496535729 0.2273816021215231 
-0.1196248053377864 -0.02654890697432086 0.09851249365218484 -0.5503649173067591 0.3897648994158991 
1.359338330587334 -0.3855092044011254 -0.1997522247589653 -0.3169253885746231 -0.2994404919097524 
0.1291984228463763 -0.5272274982735178 -0.6000686547874929 1.014553059664993 -0.5167678012015412 
0.1042457703532437 -0.4537816416237549 0.6798361508210974 0.2815827216433393 -0.3854755398175885 
0.9231161802409427 -0.2921242410012564 -0.2176487111335146 -0.3407348172269633 -0.2547683082513755 
-0.1238667899794003 0.2012321852105318 -0.1686431991948239 -0.3361379128637498 0.1628906395444663 
-0.09228862625576131 0.06036683976754375 -0.04774399030730841 0.09244869012487156 -0.00293979615315915 
-0.1063717456537443 0.1484835150967884 -0.1994458661670723 -0.6157119677704235 0.4634012517233459 
0.1009139699415563 -0.2224587932468768 0.1981027766271619 -0.06643179659824386 0.1125783900244903 
0.1126192940785521 -0.0302919574897537 0.3759400877385134 -0.01999648971050232 -0.2764249236061838 
0.1021610208189967 0.1128646997355986 0.1839584842914593 -0.05889490097408048 -0.4364583686733791 
-0.6876488716284537 0.120415181988992 0.06354089961293478 0.5606932012367998 -0.07610542514291588 
-0.2551592091721515 -0.1481888188442266 -0.04721723925786226 0.03753889298593046 0.569252647515898 
0.3642194713609226 0.1380354266298895 -0.5074426716781758 0.05695603720824843 -0.1703844381895338 
-0.7280182028046878 0.6458506275220477 0.05483315957415913 0.4411091300687314 -0.9067303245190167 
1.009433680554908 0.6356346883529377 -0.2002244562014049 -0.8111349030492874 -0.4239277988298868 
0.1709677338852987 -0.7907616708384195 -0.08352926936998309 0.08637219252190664 0.359207084518015 
1.116151838407246 -0.1825400862790874 -0.1522290940470688 -0.6284127619056136 -0.2495241272465409 
-0.4422685480328192 -0.006410824424822487 0.2148133022817104 -0.002831595917663646 0.1464881723292693 
1.183980959909165 0.1067388052055633 -0.2206394412902843 -0.7281145793316687 -0.5309456950360538 
-0.0747497914910539 0.7381799383236248 -0.3318089595379319 -0.9194420326938395 0.1233630063874081 
3.124653214992326 -1.592455447901443 -1.109786238083534 -1.584321383760773 -1.565490982192016 
1.283484148621271 -1.121379610380956 -0.292327635927978 -0.5620809133309279 -0.4782756893318342 
0.2045475032649488 0.2092488685683837 -0.6430333043547671 0.2242051937121916 -0.1933001417694889 
-0.115019751016266 0.7627583859196123 0.09319957126387621 -0.2053028935313518 -0.6940141438564031 
0.4762905526392764 -0.06513394353343964 -0.03777161331565005 -0.289067531889855 -0.009138044289207815 
0.021479320106356 0.03458490280791936 0.5179098718893492 -0.1727507996465387 -0.1464758762048085 
0.1411791826125035 0.2596739258073689 -0.2603185629009581 -0.3961037688794403 0.1827358421911332 
-1.10600725173612 -1.173968904316919 0.5488792812580164 0.9877221377116008 -0.8252926822817763 
0 0 0 0 0 
0.5108530805596081 -0.1756338010826269 -0.6103385712946292 0.08122483843164974 -0.006375457588112004 
0.01178681590453464 -0.9163063566192721 0.7819423913386923 0.2131764791821453 -0.05688541170979006 
0.770195847174747 0.5447172515850374 -0.3843516073788903 -1.196443933725022 -0.5248362321820144 
1.412965316898573 -0.270685671309236 -0.6579575289352585 -1.000609085684564 -0.001467634357167701 
0.9909693934854533 -0.5430574403699623 -0.1216720043238677 -0.4782584197150445 -0.3895356856220055 
0.340411709187042 -0.02343515466531359 -0.5436356379704567 0.2165291788402419 -0.1878885501061756 
0.9598785150386855 0.1578682065982748 -0.4552613571739231 -0.4239626405311258 -0.3358382847720509 
0.4216319700479664 -0.4382141960871416 0.175165017189739 -0.1985966469308896 -0.09582832916882175 
-0.04061059507494204 -0.6676426685233436 -0.2462811787200956 -0.2108330912926207 0.6607264903101283 
0.2216056097007336 0.09065977313395081 -0.5581199835649008 -0.3346368418518181 0.1356515835840891 
-0.1193170980319784 0.3615473005533547 0.7174176890830806 -0.2389151945788354 -0.3497103129479236 
0.7343891721224756 -0.03325823599082045 -1.072107593333394 -0.2340598872863089 0.1586826627884653 
-0.9019569517040119 -0.09940662241554919 0.750047411388079 0.2671814363762134 -0.1302901897894529 
0.5161850864077892 0.7687343503080399 -0.5037346151357662 -0.1354561867239877 -1.349192029120225 
0.3798667655751773 0.1535937099343093 -0.2638359998868081 -0.1423378831641517 -0.1552350506645104 
0.9954529818743586 -0.9226613612155298 -0.04006492418425554 -1.430679305371099 0.9101838037217291 
0.6870538180668179 0.332403281202706 0.1319181517455637 -0.3510218694249679 -0.34834392188226 
0.06696454732629266 -0.215015701750313 0.1500880106296003 0.01512661416948219 -0.03213516388845131 
0.07641544703695416 -0.1130081368971497 -0.06480141330887661 0.1675033077003195 -0.04816376563362706 
-0.202585559280779 0.171055543942706 -0.7237738559315492 -0.7535799350119017 0.526248243567116 
-0.07098114411981701 0.224130736298567 -0.01382476330803096 -0.1754547733844284 -0.03155649401053433 
0.4506534899500966 -0.3655406065988845 -0.3194454273008262 0.2976862642895788 -0.3195474636659145 
0.00647259890668378 -0.5551396413035328 0.4120191015365423 0.3758622417894725 -0.06838749614385496 
-0.2337662238370374 0.2094482385226668 -0.07048267082268542 0.1340430011809101 -0.1075268746652266 
0.3779164460620276 0.1114839826123394 0.7199262785998495 -0.6794963720518128 -0.389357076509855 
0 0 0 0 0 
0.06344451208025736 -0.1681216116128499 0.3198744985190518 -0.389649569681413 0.131760367162458 
0 0 0 0 0 
2.239147392658285 -0.5809574831175454 -0.4676398667207815 -1.365213395921471 -0.4350357567315082 
-0.004098220680891612 -0.07536473952242312 0.03393300450136723 0.06267353582166689 -0.06043939040504304 
-0.07182183324373009 -0.5295723125085223 -0.843020074953255 0.5905091421449653 0.2708845840919388 
0.6415596183755948 -0.1295512445035892 -0.1035310808614395 -0.2783227179619792 -0.1359127909644761 
0.5471045727970447 -0.156200632582056 -0.05874328127484096 -0.1719465846386269 -0.1782174393310854 
0.8281306382168589 0.2230812597607636 -0.9460330440350413 -0.4521667910622947 0.1603052199417053 
0.2817268801072064 0.2633665289738143 -0.2402502314119674 -0.02247333779547064 -0.2235919194260094 
-0.1503188411095826 0.6527461267067084 0.1075393769008682 -1.266957590490423 -0.1485514161009785 
0.05140942215694796 -0.2117169638309045 0.2487228132500761 0.1349321617077169 -0.002734972938153127 
-0.6759793386101074 0.1803735051358175 0.7041172288832169 0.3267593038681095 -0.7500461388728866 
-0.07642206954837474 0.4091788352174674 -0.558974522092289 0.4282179309765534 -0.3452930240328196 
0.1747495646902502 0.0585360949362684 -0.09548278087189035 -0.401096393863894 0.1633436980146108 
0.1202222193359417 0.04465226528161724 0.09725161443153613 0.2086652269683428 -0.7233502068240908 
0.1743266608241973 0.112921666168638 0.08048162354108894 -0.2217981855036154 -0.2591532180897229 
0.4556991407116777 -0.3501046533278506 -0.132115767356165 -0.09198759962826367 -0.1308130283598572 
0.1227602194107138 0.5276374498781035 -0.1051441995691393 -0.8080640323721108 -0.01772947141917513 
-0.2878334930968983 0.510368094021331 -0.5016288377796954 -0.1896342926213076 0.2315826608410982 
0.3968581333646201 -0.5449143589458953 -0.9955687894134474 1.274180747131564 -1.795055169806786 
-0.3389887444818335 -0.2498498200774586 -0.2931867924310204 0.6828836819544248 0.1059175152673858 
0.0531541901257103 -0.4216032162920164 0.277306853399451 -0.2048155990452232 0.006085583269126969 
1.139682118658518 -0.4620012560319166 0.2320041412618636 -1.311996497350701 0.2165051348684868 
-0.06854781820280534 -0.6873060230660186 -0.8162116042707321 0.5597822731426818 0.1492611730841902 
-0.06568022100971256 0.3812509741806638 -0.2940502765899619 0.2848887131969227 -0.346557252176518 
-0.3313314005050227 -0.4451858241836719 -0.1010442564675162 0.2554655483552958 0.1948347722570688 
-0.2880167241137299 -2.230966928311244 -0.1897133620232001 1.492766387446667 -2.034901260053216 
0.6452383655059468 -0.2595524379285589 0.03618608362984389 -0.3345159955925095 -0.1253398223105232 
0.1824670695881232 1.05119905457333 -0.1777809427877549 -0.673307095273058 -0.4978386038671779 
1.60676973652416 -0.5292797501064993 -0.5458720309192593 -0.5217059918358831 -0.1483712810818907 
0.07838693385949144 0.04069663140104243 -0.06757918171793248 -0.194370266529773 -0.007276873746469209 
0.2189870737679215 -0.5159876862387083 0.04159737774515586 0.04877193540336384 0.2834895058892113 
0.2251537781392684 -0.5385805375766116 -0.6557114998677999 -0.3270410389506593 0.7829328564733442 
2.865919817573581 -1.115905525356313 -0.5690252426529199 -1.588000520700471 -1.253495484990686 
0.1544634435803681 0.3414853595477025 -0.101333886020078 -0.8690583989409837 0.2373380389143547 
-0.3453127689261574 0.1756736624720271 -0.4600597983538998 0.5153043688388022 -0.1214684341675083 
0.3089811815935086 -0.2224085396558745 -0.1102019953572138 0.2356241666288216 -0.4394578149553041 
1.952480940441334 -0.2524117850548789 -0.2496496996065256 -1.344525737457954 -0.5688329676009729 
-0.6802504121373488 0.1100255793247528 0.1111414508239773 -0.6619254222997275 0.6667789823882778 
-0.1434805819327715 0.8296435364899277 0.002863094603878897 -0.2163570419714189 -0.5271232653218518 
0.351776303483952 -0.5582591684904078 0.6030284710322025 -0.2100623604490214 -0.2869300512764087 
1.145038827638442 -0.2169850618910521 -0.2482988175393566 -0.1213319047148367 -0.2446726165774784 
0.02873657216577548 -0.2539866255380832 0.03068362985843762 -0.2645580351052825 0.1261602510572688 
-0.2016928722528252 -0.09652398602675763 -0.1679998632208278 0.3495194860537151 -0.0791249023910221 
0.5443913166347553 0.2150063485253654 -0.4836966051999039 -0.08080678953276801 -0.359019673168487 
0.4844246306912992 -0.6673006299548093 0.01176868993810501 0.336165287536827 -0.3150367172587223 
0.2547379683677048 -0.5933298136848403 0.2199861061880256 -0.2253917344583713 0.2031583688303459 
0.2268030345611798 0.2434151028709976 -0.1396712646292073 0.01624129346403902 -0.390153482744195 
-0.08006485798188911 0.1413836603804866 -0.5784141159554127 -0.5543599881138285 0.664637919207533 
0.6480517647006588 0.2186876425933586 -0.1363676997748516 -0.1872873489263474 -0.3295383615222036 
0.5235637710918478 0.09380080736758316 -0.1083717927034646 -0.2335362963895071 -0.2602360010980667 
0.04384092767988794 -0.009789281501229589 0.03117274945994516 -0.1612122879407925 0.3487229140510615 
0.1708177993992149 -0.006007109849849934 -0.5121085039844243 0.3523640938853668 -0.5265159809146152 
-0.6561517334663312 -0.1891404629921606 -0.8632605789823387 0.3625985156329107 0.6129324968881071 
0.4116263403041418 -0.9523881471266246 -0.2910607710530822 0.4271171845092647 -0.2798539656529812 
0.07597705793357998 -0.1024900659555312 -0.123949397448274 -0.02905118529474812 -0.07277001451725013 
0 0 0 0 0 
1.529055514717496 -0.02125811926571736 -0.3834563947991483 -0.4782659868697344 -0.7189246649505442 
-0.3600168773691879 -0.1901455730342427 0.02417235737003583 -0.3905266653704729 0.5734060726623306 
1.195942547192319 -0.4776629446565888 -0.9488160262810338 -0.787807142101579 -0.5377662137386741 
1.745117235938801 -0.7660295387348383 -1.331500553127624 -1.022379302986883 -0.4415573828768611 
1.395843978061893 0.2056289450146617 -0.8817742648899953 -1.135062416536275 -1.139624625426817 
3.028199463089583 -2.083386032795656 -1.505801142334064 -1.862582318539075 -1.392860034898284 
1.689663776028679 -0.6083703872622707 -0.3627390349314663 -0.6294511420294993 -0.6313928482603498 
0.6457623970376341 -0.3290844697298677 -0.6448225942416924 0.04269590467862806 0.1127410746497265 
-0.2837315712743074 0.1320876267919012 0.0008221869886783527 -0.003390778835515812 -0.03482441152498982 
0.1362769897047016 0.05895318406670653 -0.2097248453964872 0.2000079832644184 -0.02040176738285299 
0.4231399609168529 0.1952035784091015 -0.2602138945046986 -0.4076737785856382 -0.1088100369234518 
1.011634983043559 -0.627241343230454 -0.5993307720656742 -0.2605352039309862 -0.1497900134353711 
0.9734238736836248 -0.2767684660978513 -0.09977018218464562 -0.4510431752796263 -0.1959964843803884 
0.4238317156709864 0.1265783115983097 -0.05700128127437799 -0.3192997920045368 -0.109819510150795 
0.5397336808724174 0.1089238526711649 0.009686430958179075 -1.450022960374689 0.6139450002993458 
-0.03061979920899986 0.5634928487442119 0.2071255441388545 -0.1473785030296626 -0.7491782073595163 
0.5570336185905125 -0.01400650267540942 -0.012277477957618 -0.2156683489950196 -0.1579788574284379 
0.3409180473028969 0.09518667152330074 -0.1241978484960077 -0.1828479915431137 -0.3297032672035622 
-0.461379366945435 0.1003702171848282 -0.2303600192504506 -0.2769067110702544 0.4464066836400923 
0.03728307765802721 -0.1771199786581315 -0.02379042184790518 -0.05397185492149622 0.09432741594084662 
-0.5618835774417676 0.1236995917489461 0.1217384985831725 -0.6653238463417962 0.4445385256493807 
1.416777991269463 -0.4911556532410526 0.05458446942650794 -0.9799335113421201 -0.2374123736813943 
0.3773402290555481 -0.2296690224843278 0.1743880451245269 -0.3678666031298599 0.149368444565951 
0.3155745999687778 -0.4815957955621818 0.0725732057267492 -0.1519787754801669 0.1887156426989377 
1.802796696524323 -1.145336593875624 -0.9026030427701921 -0.3947022668164657 -0.549238755219548 
0.2236801568358532 0.3375961899512599 -0.3495630837835431 0.4820604128955056 -0.3018857976012998 
0.5024543127099393 -0.5711931253076699 0.6419473650427644 -1.093643402757965 -0.008932470678892211 
-0.01193408493391934 -0.2527647518215456 0.000326637475504387 0.30978161712174 0.01669139755693983 
-0.4253979469140335 0.4458122656841683 0.06073304934227888 -0.3557998814021813 -0.1440672051043042 
0.1135212713347709 -0.2376591779886658 0.2319102998445887 -0.5478013170366147 0.3754285822377134 
-0.5160341129831751 -0.6764431830724713 -0.4126542648792797 0.7041480352505721 0.4450581575367141 
0.09099886145702257 0.415668997848876 0.5184959776887119 -1.028930060146019 0.0005090594298097877 
-0.623867603636706 0.5743459934732076 0.7153395610919413 -0.7444245406610004 -0.1421202106712454 
-0.03413423956746669 0.4556888139045093 -0.4646816386103545 -0.3638940087428506 -0.07449566200200146 
0.863086684561447 -0.626908346141096 -0.5147657089461807 0.05566165784266502 -0.6828933812874761 
0.04000712239489281 -0.1042821055407691 -0.5902692558750947 0.3844329195196588 -0.05414428641097678 
0.1203510401311077 -0.2514746501423187 -0.1262795361998105 -0.1623409389294272 0.1104982861649429 
-0.2698808077813274 -0.1214508022722361 0.1827933120641568 -0.1839978323191652 0.1712749007256544 
0.6253419485481111 -0.1264467271325568 -0.1042737857586436 -0.2924844100744738 -0.07624152074888131 
0.1732191676924002 -0.1880856806342777 0.3813439802937256 -0.5386497806296741 -0.04448606361779402 
0.05952110920519975 -0.4069251646965261 0.06799752809704843 -0.6337366380859301 1.048271428208476 
0.06616356607434432 -0.1886458336249582 -0.4079009602336265 0.828960689288391 -0.7944426870910732 
-0.2941432381812771 -0.8427118663769128 0.02878176079026066 -0.06821090700150303 0.7690317974940113 
-0.1592761508280868 0.5336018237175787 -0.1637080757366079 -0.9062889102367927 0.3081116889805593 
0.3975888350854506 0.01618360267917968 -0.04458140963904602 -0.5389160866917959 -0.1657218234842378 
0.4799074102260011 0.0104232968487309 1.007831206492561 -0.7668853177913383 -0.4099649156890727 
0.8179316476256604 0.09422818854758695 0.008595655698591668 -0.655042467547007 -0.3953802097959161 
-0.3451000889228004 0.06921519359182778 0.296099007044668 -0.2494649498525504 -0.6359906303208146 
-1.18682878442025 -1.801959670465493 3.911217705185609 -2.209009583314347 -2.057034685365557 
0.2577500530981888 -0.1961496014708758 -0.1065795691031826 0.002269975391389911 -0.08004080062790578 
0.1226154160151759 0.02961037348786087 -0.1633674478157055 -0.411455588257914 0.3892654054814985 
0.5924590844512377 -0.2428332892094699 -0.6589293136884483 0.3060122972055457 -0.7318818294565403 
0.5733487410811912 -0.5517914425643764 -0.5720429978132463 0.4453087664170245 -0.3016442180040799 
0 0 0 0 0 
0.7390941091410441 -0.1238182334024693 -0.1507732456561721 -0.2921918683877276 -0.1170476440422374 
-0.295510578153376 -0.4547909719535416 0.9489131658953091 -0.5338096064665526 0.2344445117942583 
-0.3570494805755297 0.1349747705858345 -0.5010750597763369 0.4429982332795673 0.06241465197746005 
2.050496446167376 -0.6415167011248819 -0.6547167656706059 -1.105991860267372 -1.084993419561759 
-0.3151867824618675 0.6264912725518895 -0.3140882805955525 -0.07683049625438593 -0.3678912101648998 
-0.009560054919254112 -0.06129560749266939 -0.2303376888339191 -0.01841693443404886 0.2482641104688665 
-0.08052489127670065 0.1077570325786117 -0.4374355852434086 -0.7318254943521243 0.9177360236151452 
0.05657125735948691 0.3162064019362402 -0.7124705599808198 0.1574970146017636 -0.3098197364333026 
0.9521929669243745 -0.260080310306394 -0.1749365968653157 -0.2390972938350747 -0.2525945902236504 
-0.1386074680919746 -0.03632189182576296 -0.0160165914766196 -0.3865364370027419 0.5553814492382683 
0.5663225904187892 0.4009845476572402 -0.05854975786170692 -0.7049257554354297 -0.3617383585426106 
0.4800111708110883 -0.1980855303323014 -0.03559482779743115 -0.07320505640348594 -0.1240749722360819 
0.4677327996715472 0.3549013038008121 0.2436620197117031 -0.5950244818571266 -0.4680071240403223 
0 0 0 0 0 
-0.7072476910287683 0.7714576133679545 0.196702158269691 0.009579151907126686 0.04430131136312383 
-0.1561586557066837 0.05395900923239105 0.03619366769152084 -0.4637487179276673 0.05581061718579117 
-0.00115551946758196 0.3564341233767381 -0.7270276520629655 0.3659044832341359 -0.2803925170238456 
0.6602270423469936 0.02461981772114155 -0.2050749169748954 -0.1410910498558784 -0.4196655366738535 
0.6923247169745361 -0.3532726625766506 -0.4578523664215056 0.4664439988371364 -1.357243169161117 
0.2359173830830564 -0.1358876219601531 -0.03162529666513376 -0.125495128212987 -0.01724388093047119 
-0.1578874781816545 0.3072344463520181 -0.2555582465503059 -0.2822975804129351 0.2058256865947245 
0.4133483687354631 -0.3063953011859668 -0.1708582818956483 0.1753830906741143 -0.1568638615159526 
0.2359173830830564 -0.1358876219601531 -0.03162529666513376 -0.125495128212987 -0.01724388093047119 
0.6878160124893046 -0.03008287479487922 -0.1298510399345322 -0.4747111883610439 -0.4667509272683869 
-0.8411784531549085 -0.401845042668121 0.1035646956302679 0.6936729414299508 0.06542031740362121 
2.023095049111993 -0.6619337759670564 -0.06637645930440869 -0.8925316047633524 -1.274303599520742 
0.1872823830391178 0.6129230038979625 0.07971466979165977 -0.5669785415429232 -0.256684612296911 
0.4191565689024819 -0.07657724334408053 -0.08113345166563195 -0.06656397568286657 -0.09460335039380671 
0.407917528645725 -0.1304348785670881 -0.1140166262509928 0.02082485461468064 -0.252430867438125 
0.06882851963844576 -0.08580233706540931 -0.4365460462939238 -0.5583744819065392 0.3903894508790841 
-0.1576368658570215 -0.06992703342044591 -0.04558765042092338 -0.1079431701358132 0.2885519925280424 
-0.1496626373174892 -0.07188866973324207 0.2314694719237931 0.1102254547884555 -0.04740135065632164 
0.08167567985740082 -0.07335303140464763 -0.04184918854693507 -0.221420452227867 0.1441433710387425 
0.4191565689024819 -0.07657724334408053 -0.08113345166563195 -0.06656397568286657 -0.09460335039380671 
-0.34271990053055 -0.03805014828835164 0.7039591889130961 -0.4028568623866116 -0.2598426245840207 
-0.1146080130700433 0.09949695373908637 -0.2333336346115974 0.4791008201694999 -0.01415292185103713 
0.2616324140128486 -0.2559743524233004 -0.06793478002431165 -0.5403140659892853 0.2063206755978167 
-0.1110009211555854 -0.195628650849566 -0.06401240101663055 0.2160685697973671 0.05105971424691459 
1.164042601765313 0.04520677139887798 -0.7672518441747669 -0.622955339454127 -0.3532266963189167 
0.6099146448597637 0.3062202574823405 -0.1074260518148485 -0.1900312375357685 -0.664637550837332 
0.9212288955611759 -0.304497990551497 0.1171483509352425 -0.5068629688934161 -0.3131607931095968 
0.5884584948546016 -0.007995632458638253 -0.05308190054491004 -0.005272877601707275 -0.5243055651604192 
0.2802858895084447 -0.5639679424217964 0.1820426059268134 0.1848256444103628 -0.06177550530369909 
-1.216387534321611 -1.129608138750801 -0.4452883042416139 -1.151695503950264 2.159546104330618 
-0.4374239622868157 -0.8538859753271131 -0.3051739806673149 0.8429468946835326 -0.04107229402812027 
0.5169518142182968 0.3653030782835758 -0.1092307213100039 -0.1722041975670967 -0.6433381727479959 
-0.19125006186653 -0.4039607809111798 -0.3543649988522027 0.2695811722769014 0.3004234654263679 
0.5884584948546016 -0.007995632458638253 -0.05308190054491004 -0.005272877601707275 -0.5243055651604192 
0.1535668326518877 0.400238394394093 -0.4397514941629926 -3.828667599645493 2.107707227506179 
0.5144884162194943 -1.328367225888376 -1.631154418744259 1.14462608786334 -0.5779044009167049 
-0.1897973295811107 0.1326867242142294 0.336325854419076 0.2561817664886468 -0.9695592838451692 
0.3624496313092013 -0.09237009407958266 -0.8448376030861889 0.06203988894784056 0.2288743103934175 
-0.1643296822348642 -0.09633533473613672 0.05777535238633032 0.1096562173592401 -0.2215936085467247 
0.1680127522560835 0.1941239175593049 -0.8284961654399652 -0.3562565732729285 0.2963103724285308 
-0.3490387813016205 -0.1399055353315488 -0.1901641060177856 -0.2622824070771601 0.5836354856483514 
0.6211590663583825 0.01291188180097372 -0.2846612897042529 -0.207764074888923 -0.4184527177338793 
-0.0786704508678933 0.3599378152568423 0.0766064758226683 -0.2688884066812334 0.02339050226638998 
-0.09472821188787225 0.5881471065676978 -0.423484549616179 -0.7191062628846848 0.543578154107851 
-0.1316785836360533 -1.372520336022437 -0.6817254464764211 0.9562878806158982 -0.2820585569256893 
-0.170114564620947 -0.4885488639070696 -0.4177587929752826 0.4359649187476349 0.05109256001613768 
-0.4034041344163352 -0.6372594359659686 1.238980657225976 -1.023269423913077 -0.06853217089213859 
-0.4273322731765422 -0.1940843445407776 0.03545853374807178 0.3392639061465889 0.1583190711694607 
-0.2278097087744309 -0.570455858102986 0.3990860634466935 0.002364880765315942 -0.1673295968259241 
0.7976564755710259 -0.2481395594100399 -0.1655300201989764 0.1344016256704627 -0.5012896802215379 
0.278038577718008 -0.4415671476947712 0.1335299344606908 -0.1410756077694618 0.13430365200407 
0.01382126076081325 -0.09956840122708178 0.1868788681688587 0.9348603109400202 -0.5238977348737358 
0.7554669883648456 -0.4788072363199981 0.2378185962130092 -0.4870425962421001 -0.5563674019078447 
-0.3481409648311521 -1.045085886104062 1.016765664005192 -0.4437446881571763 0.2154034425723076 
0.3780826266648605 -0.2283687869731288 -0.4339691639928527 0.2863306140165643 -0.2659500441403411 
0.4070641759635119 0.2757339500307854 -0.6213450475500631 0.4453110475694073 0.2900793605340218 
-0.1141270212226137 -0.1233271539685322 -0.2067083211757962 -0.2890028225834288 0.6439219766973884 
-0.07351602101831221 0.3873450521973287 -0.02976529142644995 -0.3025919822598464 -0.06485792152798468 
0.8387771807507841 0.1717707413640739 0.4422229955353251 -0.3304986977845621 -0.8048590115933629 
0.8133644290693949 -0.7619381952107032 -0.07093961592255162 -0.3609833165133678 -0.07458785469828663 
0.2805108927754653 0.2543407843249453 -0.3177483290464306 -0.4684205877036723 -0.09995288599326435 
0.3431413040149811 0.3391156217093146 -0.03404320570957184 -1.294288454854517 -0.02340395806390862 
-0.2417232677746481 0.4768475864912876 0.1038557607239131 -1.193369852109277 0.4166438445855412 
-0.2495765693610838 0.2359325829694198 0.1789227565234169 -0.5178258085246157 0.06746321120201063 
0.4593327380238881 -0.6723597971137397 -0.664852982131756 0.043705116940745 0.6227954763825861 
-0.2612480096912803 -0.193837815673083 -0.3120980990150165 0.1517768583813882 0.06068865920254135 
0.1643992698994657 1.156896767687323 -0.04101006733849309 -1.046451619527392 0.4598924898395024 
-0.2415786256981991 -0.8295111823918452 0.2402278750957632 0.3263476263158205 0.02481703178555351 
0 0 0 0 0 
0 0 0 0 0 
0.1442838136165486 0.5380111666444297 -0.01562418884946487 -0.2124001626372097 -0.2432851678384596 
0.04639282323523174 0.4477762044080061 0.3623515414077071 -0.3101938079747097 -0.378438025475811 
-0.2295898870320517 0.3672933347496293 -0.5999853474524737 0.6269613269871562 -0.1962866413170097 
-0.2539612816964337 -0.433560417064056 0.660465413309262 -0.1413378761463647 0.1660380949243548 
2.521409656394879 -0.7292757322643471 -0.7083988293570899 -1.464557995609774 -0.9383017383026834 
0.4846126200955724 -0.4566463796800886 -1.037781699577506 0.4209796646275014 0.08822656079834559 
0.04402269877928402 0.4109740211167476 -0.2949315905055896 -0.9891569353645877 0.6921686718888226 
0.6240220281904304 -0.9603893627091313 -0.231807440724147 0.2094353070482597 0.1862927120885146 
-0.1349416868075726 0.3547250211683215 -0.0203867263975148 0.48760920083193 -0.8673523149318877 
0.05937784609240006 -0.8247505602170694 -1.012813890188194 1.247520259010249 -0.4883066482986428 
1.053503776071819 -0.09658759030802488 -0.2881411108876266 0.04983800521771806 -0.6010877373307939 
-0.4919259171613884 0.317697560873819 0.6204357907352497 -0.6407653324450513 -0.08022770538453225 
-0.1893390892970121 -0.3014282196056544 0.2639394003146991 0.3853565826493457 -0.2394560638638747 
-0.1356256202195326 -0.2116657460746929 -0.1570556004870576 0.5029048428841775 -0.1462096545961557 
0.1476402367219753 0.421873701611289 -0.4254421892694208 -0.7783950286559261 0.2132590018901948 
0.7089499626230599 -0.2455093881724807 -0.08893855907288255 -0.1097164297220363 -0.1666933518192589 
-0.4788880477679303 0.3723046359702212 -0.1179168803180825 -0.917886491623253 0.6013331014015935 
-0.03938325156104577 -0.739698127828446 -0.6408303411622437 0.5546208310224303 0.5068622745537954 
0.1082624430345526 0.06435965903890202 0.06938243936809355 0.06290842731425975 -0.15503278682654 
-0.2362864160887324 0.6337720920322464 -0.1997739725256419 0.0181947600808601 -0.2818383143875669 
-0.6792948043243847 -0.1800079753410815 -1.663455053469032 -0.3158483565996554 1.275913618779104 
0.3279046605423148 -1.02972525604375 -0.4635531227105814 0.9752219661167781 -0.2302914894401351 
0.785137165127907 -0.2050560322645849 -0.06076113642445397 -0.1207036650215204 -0.1745755893527859 
0.03472468525618143 0.02236985380557652 -0.6739005162790286 -0.2996277460380172 0.5643390610985326 
0.7235749503314853 -0.5248789142072879 -0.5300592115466073 -0.3793437333556949 0.3404649649023828 
1.223892231923503 0.4637385914542351 -0.2391108373963129 -0.9835287952946599 -0.8205976301139891 
0.9236781592719927 -0.02073718455532982 -0.5441113304005923 -0.9483715149244828 0.02889132346541891 
2.768566552729789 -1.033703504165951 -0.3816479509348487 -2.541062730574973 -1.343276097047118 
0.2274631136385118 0.2910857030012724 -0.2635332078041424 -0.2139996206567019 -0.08144509693659913 
0.04955724807440472 0.2208585223684725 -0.1452985360085705 -0.6414667120427747 0.4211364677281121 
0.02327123941032718 -0.3553163549516233 -0.4297514654304823 0.199502753434522 0.2444518947104115 
0.6836164748297243 -0.5721634806827054 -0.9649815480483493 -0.1843706060657458 0.2360314762484538 
-1.176132985852942 -0.3697744352858474 -0.9648517355621613 -1.303083600820524 2.03794123700179 
0.15232075917954 0.05226374139001082 0.02499642721899507 -0.2592188061720156 0.1196848452833792 
-0.4245297760313913 0.0009110538592739144 -0.560159880616207 -0.1564282445849794 0.6977442754479388 
0.05608972969248058 -0.6330528355697367 0.5919885065103937 -0.9161765924379229 0.7741970393616879 
0.551620261198878 0.4939216856231728 -0.6169843624992493 -0.2796927787253466 -0.7666865044124118 
0.6686948735405326 -0.2328690051044957 -0.1358131368076105 -0.09798529419684716 -0.2070711830017047 
-0.4343750344020544 0.03501736603587696 0.1192745975694452 -0.1987674433332628 0.2505654270166777 
0.6686948735405326 -0.2328690051044957 -0.1358131368076105 -0.09798529419684716 -0.2070711830017047 
0.2866411438136167 1.130108206255252 -0.5692196818855713 0.1029651341285302 -0.7679703951978913 
0.8463507057990006 0.1544403429003868 -0.3402852225726273 0.4284204547389969 -0.8928256199681408 
0.01474358851289565 -0.6495714273667834 -0.6485095612003483 0.6973323282846068 0.05149632866371764 
0.1934112956676299 -0.003722915387313076 -0.009324898812958407 -0.4922109084093049 -0.0466538010005078 
0.5360109735127799 -0.3291428078200351 -0.1317322540020792 -0.1290094872672267 0.08184331656946184 
-0.5738122082634719 -0.2097271029655853 -0.4633090482599154 0.4884757860355735 0.6106459198985349 
1.272212846259921 -1.201924453561805 -0.5291100651773994 0.1665134425604634 -0.7888744493778268 
-0.1828778858060772 -0.4641530741247819 -0.08431032325216159 0.8279297210681407 -0.2061436414179426 
0.7733891905978627 0.1107314395021044 -0.1371220915983972 -0.3600988178719147 -0.3146333495543306 
-0.4072789251649906 0.1027834236126567 -0.04754529278207691 -0.08296151465534191 0.2998301326251894 
1.485884150484479 -0.1910127334485094 -0.2182205617435328 -0.8309285732486544 -0.3626784340241511 
1.601362052418768 -0.411705385430759 -0.6009243000838561 -0.1889042950919199 -0.8366749256779279 
-0.4600679442113572 0.7975273694947004 -0.02602162815905847 0.0424507361258633 -0.568566521952759 
-0.09374675513301448 0.3206047625911214 0.6238506965551631 -0.2386972317780415 -0.6159345375689813 
0.5473329651336819 -0.2064429467622107 -0.07021013439212075 -0.1241546366003383 -0.110618894405375 
-0.4824058519966163 0.3490402565437224 0.2350429523227061 -0.6931229271150461 -0.1352459862596116 
-0.1468261887210528 0.1857501572623125 -0.2550945657636235 0.1082814336916664 -0.05402192854827651 
0.5473329651336819 -0.2064429467622107 -0.07021013439212075 -0.1241546366003383 -0.110618894405375 
0 0 0 0 0 
-0.05318117055643181 -0.01957234168418222 0.2158504163604238 -0.05950713668339531 -0.1186652347281153 
-0.305442785103226 -0.7055479495935905 -0.6459840354289469 1.101008919650137 -0.241201661469793 
0 0 0 0 0 
0.5204932917874061 -0.2228481301238318 -1.191820464049593 0.03993083583041976 0.1619650706021874 
0.1825260005245406 0.6724535819053555 -0.05435701386612997 -0.08639312258639689 -0.03421232377174709 
-0.4379382027554368 -0.3906523413014391 -0.254249618810015 0.2385091944204707 0.4102092245450701 
1.11840001401269 -0.1157705219896502 -0.2126322118498549 -0.5888078657845578 -0.6486339795956333 
0.2401084473044565 -0.07372783335049928 -0.8172376908335635 -0.03167275454953254 0.4708799809642494 
0.3161688602721818 -0.004202970782582307 -0.01934763557209381 -0.1602008844775651 -0.308289852342952 
-0.08277389122633166 0.046223253088042 0.7685356473154797 -0.3282557462226637 -0.1312804365570476 
-0.1656113473932906 0.01043321524192383 -0.06154149797211456 -0.306243453913819 0.1933703647669384 
1.014518546761098 -0.7331999490369702 -0.2355131991319518 -0.4354361866615304 0.2070041043247155 
-0.2541519619635053 -0.1185101510606807 0.2240867885753773 -0.1794991989503304 0.373976165397258 
0.3676489196418919 -0.01437420439124774 -0.1301896208783179 -0.02321287288121276 -0.3214329616201506 
0.3676489196418919 -0.01437420439124774 -0.1301896208783179 -0.02321287288121276 -0.3214329616201506 
0.7023747156756579 -0.0267479582945041 -0.1887141002924351 -0.2319019097947619 -0.4201044465943007 
0.3250810543341627 0.4193801272087366 -0.4454857641905685 -0.07968446551175735 -0.3538897992840883 
0.2330653059157846 -0.06280998162346872 -0.3677474303430821 0.5692037897251184 -0.4493597902007377 
-0.07003625851557735 -1.406099347426843 1.330317367653407 -0.7447929935865459 0.7565849785241585 
-0.6334146341237943 0.3284599383744288 0.4434146898723579 -0.7379221935092574 0.5510924249841007 
0.3094572716115356 1.052718788314807 -0.09270328808083857 -0.8698424058609054 -0.921900924737483 
0.7275940154949119 -0.4423269867549269 0.3613648062341506 -0.5429768041399395 -0.4538029985410835 
-0.01868380875889063 -0.2959201049132158 -0.2243101490121006 0.6757701173260475 -0.01478279581694392 
0.07857549787554767 0.4947948296204486 0.06446345600657399 -0.3464814333591232 -0.1628059865138631 
0.1941672356562314 -0.08874273871738812 0.2589656904475858 -0.4403347213590493 -0.119440005670781 
0.3759746815755753 -0.02533339158118511 -0.08122851228532527 0.04883710166738053 -0.3425345276203531 
1.408421967522655 -0.7757432346766691 -0.8942492972723511 -0.6617567220763896 0.4275367887477937 
-0.03329215749081709 -0.09747495373479048 0.1535105260857697 0.2059536156913094 -0.07273684760199214 
0.2708447783992901 -0.5984452980583828 -0.2980571728387902 0.6092087028334557 -0.3421934872591339 
0.6522529230499303 0.1830347355733213 -1.264620488002704 -0.02450278090837506 -0.1515262509088161 
-0.6223876929507525 0.3969812557516924 0.8058409612759548 0.08635350489579306 -1.000272554856424 
0.4539060277093911 -0.1246025562564362 -0.03224555303514277 -0.03749541338972208 -0.1361603591900434 
-0.4314159260913117 0.2699520658284034 0.4130298868677254 -1.026098390444171 0.6574035804940886 
0.3912720812132615 0.2510171560479452 0.8356080910343641 -0.9932595406038981 -0.1005208225916052 
0.5143957534461552 -0.2024192144785493 0.6108243080071756 -0.4993542102033032 -0.2813653541401298 
-0.1947683064814476 0.266748985595829 -0.6742974030958774 0.03740598006987376 0.4999598250381287 
0.2112356076670296 -0.1412345824376474 0.1584089434629226 -0.2310156609210505 0.2210535106907999 
-0.4488859562323392 -0.1590185458579448 -0.7678985581873129 0.7002438775218323 0.1368986057436308 
0.4329390208907285 -0.3498953249130867 0.1260203602792447 0.2550089655503174 -0.2385140621098821 
0.09906261035804462 -0.5728968296506967 0.8983306831045565 0.136259438631818 -1.418379112254986 
0.8953231737666887 -0.293534146936959 -0.1556896642858429 -0.2917371700453576 -0.272310392721074 
0.229611252250872 0.1069715688056178 -0.2499424116139489 -0.3388142925578971 0.4238079956939106 
-0.5282609454030017 0.1790844290291848 -0.1866049156835353 0.7162636155677602 -0.6453685233116313 
1.025761588927328 -0.3396113349220598 -0.03251574899212342 -0.7638633318023875 0.2142531483558993 
-0.1744575933407102 0.3178900723288886 -0.09620129282725257 -0.09406076866908468 -0.05741719898161686 
0.274735586258181 0.3997399235264021 0.1605409120466114 -0.584946966673048 -0.3242238678061096 
-0.1183872520936862 -0.003538627817474994 -0.001047896012450044 0.08927336569586294 -0.009380417702518049 
0.4250707708370274 -0.1264429186859572 -0.1260683916255299 0.1041079976260714 -0.3866932953949855 
0.6479032298110362 0.7820010837782407 -0.8102223807302257 -0.9355259976268525 -0.3107218377095719 
0.4931417922241339 -0.8067731651260014 -0.6273535863532508 0.03705943987572474 -0.07574487923898884 
-0.1164114769425364 0.3253079429023382 0.1604149385322942 0.232852779699424 -0.3468940700930472 
0.8962181342288298 -0.5910934248394475 0.1531897075457612 -0.2537050900722403 -0.3869189086688518 
0.572683760213359 -0.08833704085099205 -0.1564388102154718 -0.1951311256941804 -0.1069054024827476 
0.7630349566529379 -0.3022989501582009 -0.1838569210071502 -0.2378403529322523 -0.1247784699588553 
0.08691184664607002 -0.1601574770819434 0.4812917191285032 -0.08277690058162314 -0.2402597933827024 
0.05958120914037597 0.3434395779005198 -0.5697478772910581 -0.7172548818253905 0.2480085519819809 
0.5779727568530358 0.613878966239507 -0.0351446461873748 -0.3388731006882197 -0.8995749511287138 
1.184524848395453 0.1490229480466322 -0.5738248034056005 -0.1172052206309639 -0.8462447759291161 
0.8885702483889595 -0.1662059496045792 -0.1920604412692005 -0.4015804326847356 -0.1935102285015432 
0 0 0 0 0 
-1.006978724289289 -0.05665156007365546 -0.1954174529573408 -0.04511783676470137 0.5900767869903603 
1.721326349409372 -0.6461198180344272 0.8534936877251698 -0.5797000477992619 -1.206200388852778 
-0.5238567978092709 -1.238938560911684 0.3188476285591226 -0.148219002390553 0.9180920670250204 
1.180060051206377 -0.08354292795271662 -0.3951275719274334 -0.2405587781706865 -0.2887525399454482 
0.04646493267266943 -0.1581325911097909 -0.02517428624943831 0.2007897889104717 -0.01660426805877513 
0.1553684897766235 0.1033210554181919 -0.3725454650221555 -0.1818086619773415 0.1406923071441311 
0.1673860502769094 0.4398732553691999 -0.2341616420884839 -0.09612438769712781 -0.5526744923660627 
-0.1100448755448436 -0.05408236367213774 -0.1109817581748535 0.540762826963658 -0.2102463496348505 
1.068373238279796 -0.9336244922979798 -0.7085025873892693 0.324996612963449 -1.2553680046391 
-0.6255903377384512 -0.7772602123542768 -0.9570469829805196 1.911877724106918 -1.269283898956574 
0.2987819089091745 -0.2994424620749574 -0.4465164685944867 -0.07743693504762471 0.5338265688405259 
0.5881486457073266 0.6691918209749025 -0.4387244730069124 -0.3479263770184722 -0.7729740625582838 
0.3882198918344315 0.0832803990139922 0.7926739577260959 -0.9082484244873484 -0.5613623097973562 
0.6725419825704582 -0.9202345977910412 0.02421482119897261 0.0743281647749377 -0.5255158871526705 
1.055548662323551 -0.2724274094889514 -0.1821887895143418 -0.5563755237391226 -0.3356792382545423 
-0.1097336541294121 -0.975761834834343 0.288614787649096 -0.2543571998564623 0.4508726767896983 
0.7798966398021144 -0.4505557060089995 -1.102021874146227 -0.7891131159633137 1.422947105750785 
-0.1209642765278948 0.4815507336665042 0.1290129075415096 0.1226446713377976 -0.7041551524701144 
-0.4642009171511068 0.6026539896265096 0.3004706258814206 0.106550721876338 -0.1387650610675827 
-0.1718036009747983 0.4366185989199876 -0.5084939220329688 -0.8798984788223795 0.6875967173462209 
-0.476360852204357 0.05093689474177419 0.09457225773926063 0.0349165982641844 0.1082531986026193 
-0.3732237761850368 -0.5140406423569698 1.022077796534013 -0.03889665036779403 -0.1281652926580596 
0.9079485356859226 -0.5016292764514673 -0.1588480988118513 -0.3795468829882407 0.1943433999996752 
0.5246063058665731 0.008193270889113015 0.2469754249348909 -0.1342942988131321 -0.3815023810312927 
0.1835978350688401 1.310767511430317 -0.758921960713033 -0.6121852635565511 -0.07007048135304253 
-0.2026456324556827 0.04516535608241858 -0.00112769708948746 -0.05092398498430746 0.1162818870369204 
1.17761259832522 -1.225606089445723 -0.5329087142005129 -0.5830809591388264 0.8181550772705907 
0.2908285823674778 0.1093813017510916 0.02985139861349926 -0.1436861973285215 -0.6058017597921355 
-0.399318851324554 1.291489585994418 -0.523968193703077 -0.2151852919284063 -0.5836660816901756 
-0.3943596555749386 0.1962334633404835 -1.172532567865678 0.6876480179936256 -0.3626233312952072 
0.4683674219338454 -0.5438674110357562 -0.007601296546526227 -0.001633065395241002 -0.1329588681066202 
0.7299362800309661 0.1935134324011376 -0.4414148979119281 -0.1652264446531654 -0.4943428613039705 
0.2672624465639513 -0.1160530716297055 0.2113173048708061 -0.3490849865954277 0.08403311726213714 
0.009196585833236457 0.1115878436224054 -0.3105428930587982 -0.03110441188088552 0.2006537248883349 
1.090491232098671 -0.1605223402625672 -0.113433474130469 -0.02505677284132302 -0.6048609813174599 
-0.5113100076619298 0.1604348934918187 0.2530186409832194 -0.6999242014060685 0.2054415926788721 
1.033659814630348 0.4128943372884796 -0.1579949288894335 -0.1288163921322722 -0.775618137823422 
-0.1154521026749474 0.3258425335552467 -1.092618957879491 0.2719864210006508 0.03619803224828634 
0.3495150557598836 0.2469391609829402 0.3498317168433412 -0.7870084967910235 -0.3474951641411741 
1.039077603134426 0.2302961558607621 -0.5037457305112383 -0.02614424973309653 -0.5926212455920928 
0.5960465579991086 -0.1184620311923979 -0.7229034312648301 -1.229874173719852 0.6814350324571603 
-0.4870134765262064 0.3621595936634381 0.0351762733903635 -0.1285398721945849 0.02289025531307798 
0.08082507932540153 1.097408037329101 -0.4470422129874481 0.1949225261839616 -0.7872737881175869 
-0.2460572653635623 -0.2584092092687169 -0.7791470369124808 0.07665671880373398 0.3945597365660815 
0.129290060577402 -0.2627546581840283 -0.8815402388596816 0.3380931548121638 -0.17332233939738 
0.004129777364308298 -0.1540170222608566 -0.2721612047199261 0.2629174775971294 0.02938319068605175 
0.2398497660806713 -0.9825183426234535 -0.2472444799884204 0.4864057855115795 0.001955918415278618 
0.7203319349992456 -1.19734200892695 -0.2140798024162346 -0.6140030522643469 0.664416787213185 
0.2244689264262517 0.3316399485312261 -0.6663042643794448 -0.3978772465363435 0.1108826874338511 
0.283758625552085 0.08308863360074842 0.4432597669331682 -0.3329832360914516 -0.2703824517811821 
0.3632544438598707 0.3303233682311614 -0.3415239090357964 0.1237112701380757 -0.4254330358779366 
2.876280507889843 -1.947903551778662 -0.8965944643899059 -1.878089272610879 -1.253029793944775 
-0.4087076287306884 -0.2884923351137991 -0.6243756505753556 1.016008856975421 -0.6153585426625361 
0.6582100154391091 -0.08201024511715276 -0.08510074831763854 0.1107394563333776 -0.9221809068149952 
-0.1181078471855455 0.3764601114005662 0.3594245953030201 -0.6129167895794453 0.07244163871033175 
1.220524564987145 -0.6433839558514655 0.2551525609161717 -0.5388754799220625 -0.305164842118237 
1.769435864496389 -0.8863844338703465 0.1057178551785495 -0.3542627106381704 -0.9236766428741734 
0.5912983909736026 -1.189419333876508 0.6979123109926433 -0.104491688551559 -0.02663535873909133 
0.2423503843718952 -0.3971113033048375 -0.5905398493042183 -0.1088305585396368 0.6001139393177782 
0.0699009442235959 -0.1049196233256331 -0.2892347697912424 -0.6245886194539902 0.4581095260485766 
0.1692506857887201 -0.04432136271476638 -0.06649982545253141 -0.02154948829114773 -0.02305482800282529 
-0.2852638152687693 0.3678231487574941 0.6337012146186344 -0.4505694152129144 -0.462000354502432 
0.009829200936232366 -0.4706110800210351 0.03867968048956306 -0.2534737264053843 0.5578133608531773 
2.090453574050317 -1.259632578356178 -0.5772495269509628 -1.06640628990774 -0.7622392742950004 
-0.1420119051818455 1.242099086895492 -0.1828034499612256 -0.9718074147493075 -0.3539422484411113 
0 0 0 0 0 
0.1288524515626522 -0.04438765267126167 0.06183423971429544 -0.4849299956042429 0.4397361080012978 
0.0493602318924808 0.2165528317410983 0.6929064963696451 -0.7063278209319575 -0.3761627099613813 
0.4166570956536896 -0.03034575567694139 -0.7209755468338148 -0.3127393372607505 0.5017685645499711 
0.9535417518747885 -0.1990346458115559 -0.1380920081626112 -0.442352119633265 -0.290963759651727 
0.4661158399513415 -0.06556594465620999 -0.07445718413808629 -0.195414648615857 -0.148887679948338 
0.01292460436358155 0.3096151910330549 -0.395880385855465 -0.1138408068669973 0.05237721420633874 
0.2247074071130811 -0.4642193814955772 0.6807999916786098 -0.7456023039440838 0.3289741512197288 
0.6642153963100882 -0.3119472269181802 -0.2075537371190862 0.2593793304904048 -1.198494935028203 
0.8689605530758688 0.3383522920590292 -0.5437959782643913 -0.7163205616989463 0.00108548946781966 
0.2472612244243303 -0.02818575421161519 -0.07849547501798307 0.1091469715521765 -0.06061733560441263 
-0.9846397565284574 0.004462980304394711 1.019965311183167 -1.24878076389705 0.3019723882001056 
0.1844250574652641 0.2953536814998941 -0.5075650558181496 0.1033980245093808 -0.355825255628326 
0.2457772351492794 -0.04307259971876631 0.4614835696549845 -0.1032489782630994 -0.3749043748130214 
-1.170098635294438 1.423413724524006 -0.2901945741947519 -1.096232261387581 -0.4748695987934314 
0.2774972999743744 -0.01741890896023236 -0.01933461287902664 -0.03964789159445482 -0.008245364678410996 
-0.1673839411747128 -0.6372917779156407 -0.3977750618132159 0.4713546157601664 1.055794836997389 
-0.05776456551015108 1.325735754998137 -0.1453337410163869 -0.4784726409797321 -1.484845139213042 
0.9442547738271343 0.2689760272483755 0.4926409289115938 -0.4344412669282752 -1.137886383023298 
1.055024228269149 0.192339797518723 -0.6178987904191376 -0.2678186790690378 -0.4342448171917203 
-0.3364577850497729 0.2385493297253686 0.00651949025268898 0.0934711863075203 -0.2385351761510542 
0.7018338380972342 -0.2618387808315341 -0.2305967959974558 -0.3251218486806405 -0.06485251861670088 
0.07233118703764349 -0.07619492765170795 -0.1651429565962115 -0.03913703694357742 -0.01167928747166297 
-0.02150714145036091 -0.05373050532265215 0.08290973456846987 -0.5952176719441709 0.06123674048666235 
0.309435887387204 -0.09939070208028898 -0.2203090934382825 -0.1979405549959433 -0.2985615961513165 
0 0 0 0 0 
1.080580651630417 -0.1968432408681237 -0.2054850161456898 -0.2647326128127453 -0.3339121159330112 
-0.04630094130247666 -0.2430522271061772 -0.3457808120199904 -0.05331678710227369 0.5324792105326188 
1.196146660679343 -0.1045111892429704 -0.2789948831406734 -0.8833118856013555 0.02547948903474001 
0 0 0 0 0 
0.1161519519491881 0.7198154206770665 -0.2425363357757332 -1.152316859897557 0.2699390665472703 
-0.3981924141048516 -0.4201845403257968 1.01367737854829 -0.1662202089732389 -0.07405805124614342 
1.348339534753217 -0.5080195153672847 -0.4401444104203658 -0.3473711259159413 -0.1458348146612928 
0.4694011738765129 -0.02061981217548365 -0.0845251967382999 -0.1767206188442371 -0.2432591134608865 
-0.01123093831817049 -0.8897626208765113 -1.011386234251662 0.1272979011633781 1.163812608949411 
1.229378532971443 -0.2525956174588352 -0.3213112295502015 -0.4916287201866341 -0.4679469982901536 
0 0 0 0 0 
-0.1088984399403412 -0.2324841157224856 0.2978032681615483 -0.2195858967291724 0.5266913289548899 
0.5414424189938647 -0.06335826894253939 -0.1068887971731502 -0.2735696450602801 -0.08403022509469879 
-0.4938587409640894 0.1994805999407594 -0.1502787946235114 0.8139604772345312 -0.5258315387450323 
-0.1284951039083504 -0.2156147666531214 -0.120714821517541 0.4603420178677794 -0.1359485413763279 
-0.1192569708925795 -0.1140919007139811 -0.1100295381464283 0.433881035576183 -0.1365066442898229 
0.5414424189938647 -0.06335826894253939 -0.1068887971731502 -0.2735696450602801 -0.08403022509469879 
-0.0842298529941178 1.104328350886624 -0.8966594633807536 -1.412423067630373 -0.02153795756219358 
0.3400927757487508 -0.06176805409968472 0.9747605066587122 -0.8633262339000609 -0.7243749444906803 
0.2443996619590527 -0.7208356684921549 1.492978052918571 -0.6505023751571463 -0.5513562847102945 
0.3956544395367799 0.2552770144760927 -0.3065108169247077 -0.0939169161965303 -0.1397554046729842 
0.3889288887587796 -0.08142658940475837 -0.005498642055585906 -0.3529184970592206 -0.01888761788899019 
0.08757782095089268 -0.1113854357566502 -0.4104133115356272 0.2611355377791025 -0.02953816672462905 
-0.4789053879320595 0.3835152080663589 -0.1670143438145208 -0.7418181634793899 0.275987721957544 
-0.1609827632542167 0.9584881537349451 -0.377465487833009 -1.131084090117634 0.371755740841123 
-0.7917979568279121 0.03341187245158306 -0.5441552445306214 -0.6084303996015199 1.606558955248016 
0 0 0 0 0 
0.1444577749916843 -0.1014118499818204 -0.03048141230268975 -0.1705563649483452 -0.09135127691350912 
-0.04537929975609845 0.6264123784050136 -0.3351528967052939 -0.001025025361570866 -0.3472200023521986 
-1.059407395582203 -0.3670066505197538 0.1923681851916062 0.2028193559346315 0.6068968193853113 
0.8759013029022191 -0.0641631091220026 0.2114580470227632 -0.05691041462321637 -1.070466696351718 
-0.3005835710541716 0.6563286579800761 -0.2553479174822544 -0.282613956005658 0.05559500375070001 
0.8447554830281118 -0.2004459524422338 -0.03742947551455503 -0.05790939942515926 -0.2536629770758549 
0.8447554830281118 -0.2004459524422338 -0.03742947551455503 -0.05790939942515926 -0.2536629770758549 
-0.4684020558230598 -0.1102218814070184 -0.4041067306575388 -0.1361314943779585 0.983539219818916 
-0.3275407034564497 -0.08846109998511711 0.3121009071364981 -0.148455110459272 0.1025470976851187 
-0.7343578389605995 0.3429651269703033 0.06981794388137606 -0.9337695363821585 0.5796673853785653 
1.441796657620191 -0.1360520781349497 -0.09792307600921024 -1.321289783042838 -0.212015040304702 
1.049893855246014 0.1202317268390932 -0.4733538376489551 -0.4274594249534192 -0.7496443167065636 
0.8049199603587972 -0.4675075468987229 0.3680616114577771 -0.400094942315537 -0.5792554104501814 
0.09950437775389095 -0.06337772678422929 0.226925931466113 -0.1570352483667198 0.2980692603166629 
-0.1156050798650724 -0.5196912767908329 0.5998316601514672 -0.7306364493925156 0.869363444887659 
-0.3137621271289501 1.0643089230062 -0.7696078847945919 -0.2003890380463057 0.07256491605748416 
1.039382069725018 -0.4294325356308156 -0.5628718738477226 -0.8173720053345549 0.6284124275353623 
0.7674155826282666 -1.188768502347005 -0.6035693284651942 0.4925138102173849 -0.51021935932909 
2.758391360912229 -1.258436804600994 -1.084421420926557 -1.316113402001236 -1.668524063868575 
0.1158402491473511 -0.5862459282131738 0.1338479923670706 -0.2917068576843445 0.901688133287834 
0.1962675868992316 -0.05265706284505853 -0.005479027503723135 -0.145416436298508 -0.03649324345927552 
0.4084092601482786 -0.3846659493148727 2.241947688789245 -1.369927872683682 -1.709894015870715 
-0.1481678911224486 -0.1138568382070821 -0.8440418378066744 -0.3829522227578203 0.8551775030869894 
0.2033116010124496 0.5236779837635241 0.02268889112017244 -0.6444943508665651 -0.3147980760154679 
-0.1182115791086824 0.3275948020728591 0.1103411151974442 -0.1444443604650661 -0.1934008387226369 
1.327162384098136 -0.548291289652839 -0.1062396493844438 -0.1047871234822834 -0.4979989452061763 
0 0 0 0 0 
0.576727705290998 0.05366959371915137 -0.8214762417537379 -0.1904290746395992 -0.3924737196310255 
0.5051138438605963 -0.01074483247349531 -0.01145621497100079 -0.4843286466714233 -0.04495620291026581 
1.000805281771521 -0.457387613618249 0.017503777254387 -0.5372316996015768 -0.2814420042929859 
1.305670914082603 -0.4145879951686213 0.2297933638535681 -0.6729691536205265 -0.4786737473326518 
-1.022956984996743 0.2496613093775756 -0.7146291986543791 0.1866761822125517 0.6438375078728954 
0 0 0 0 0 
0.2874772827726574 -0.5770843940783429 1.090567894095718 -0.4828893025280809 -0.3307339298260747 
0.1483578885792429 -0.8523632893142142 -0.4616774970295722 -0.05555403600410931 1.068810535338944 
0 0 0 0 0 
-0.007446984303343028 -0.4161303534775417 -0.03141450830440984 1.276582981096377 -0.6210212957186274 
0.5302472743149501 -0.05197610971286837 -0.1365502483263842 -0.09162634991119012 -0.1326823875397979 
0.6921810896296454 -0.1417759152748288 -0.110161727930305 -0.2366265195696332 -0.1318184151677246 
-0.2246685870418381 0.4220837143386172 -0.3499358208839495 0.1234897527733921 -0.1926151695428055 
0.5654528553811468 -0.1697594121867023 -0.06339950901074465 -0.2204047913108418 -0.09320980744902202 
-0.01803136726092399 -0.2958622391376095 0.481541624781811 -0.5565590161108607 0.01931472185325023 
0.8925290741887865 -0.2240377996663231 -0.4706604858550381 0.3460824350888552 -0.8363825713848219 
0.8368706072707861 -0.1153066902094456 -0.07908238404111774 -0.6308458186393531 -0.1449515500481177 
0.009907886883311613 -0.2529733352382918 1.076491628591164 -0.6990844244572911 0.03138540508049272 
0.6046980232905611 -0.1053661243197384 -0.09763639972989564 -0.3030009495994682 -0.09313000442460141 
0.6802321023241188 -0.235260050509236 -0.0577865894660515 -0.4099069092577301 -0.006444490892475738 
0.1218156591494849 -0.3147012303332387 0.2549759324713859 -0.08824522891859067 -0.1876112366999895 
0.3507302886243259 -0.9666698079872559 -0.2641992552097559 0.2911730234239455 -0.0624212968707829 
1.427549892996722 0.4274622953782828 0.02642432018618848 -1.052876416408754 -0.8405303547973095 
-0.09275309190935416 0.1854496714683321 -0.6523891616893369 0.2890301439665036 0.06126883088177517 
1.12553513011081 0.1041578121129216 -0.1280020266777147 -0.3036936781419565 -0.7349052066747568 
-0.3592021163317199 -0.06266714331154905 -0.3140766396342358 -0.3047707227376393 0.5264124443875503 
0.001123265026680885 -0.1059618000936085 0.450959927439151 0.2094870103390685 -0.463243419439415 
-0.6479193691648665 0.07351177513727689 -0.4113642210679258 0.7384489259396422 -0.06442180071440465 
-0.2681545364648861 0.1578122579778441 -0.3797089946361136 -0.3195418415312099 0.4451901954724667 
1.100329826696035 0.3317375123681892 -0.6024131052241645 -0.6862052149665763 -0.2910712876989945 
0.393599694662474 -0.09466923096186064 0.7770407446276005 -0.6075648361740968 -0.7832060166842001 
-0.1811637052100836 0.2286559540781413 -0.4543425003504303 0.5268005467426422 -0.1867735937653744 
0.7059745974230712 -0.1529241043762511 -0.07219219937452247 -0.45714678011572 -0.120431710424545 
-0.3736706934631001 -0.6550542230392353 -0.6027591979208915 0.8263199311441036 0.02395298842376391 
-0.005689280375204338 -0.5399013258415468 -0.07464949179970461 -0.1069099967415756 0.4386790935473355 
0 0 0 0 0 
1.290169916213872 -0.4630898956794676 -0.2842942080463089 -0.856717898622409 -0.1216987649695372 
0.6282872424267327 -0.4582632385003285 -0.5086605049708534 0.3902203999796054 0.06496621687041343 
0.1624524910514816 -0.1242006759517437 0.2825207517553873 -0.06554228437287733 -0.3303795325834565 
0.2031173048930749 -0.09918757701078153 -0.01173520971680863 -0.05281033572548349 -0.25061924523844 
0.5472133580764135 -0.2641303373499075 -0.417517576574287 -0.2087122745610512 0.3612112833530861 
-0.07026730502112771 0.1631754620128735 -0.3566267730637345 -0.7646255181958503 0.7672601261877394 
-0.8597888513635379 0.8842903289016031 -0.09853794788640712 -0.3066507014028653 -0.3281475446434614 
0.914815018387241 -0.5261278905528031 1.062708597556091 -1.44729891477335 -0.3201363189793824 
1.612889873273363 -0.8712700121073376 -0.6947417509028466 -0.461001561633788 -0.6640075950352525 
0.203575788703876 -0.0660291013017249 -0.1010760056181167 -0.05392578810155419 -0.06382955856837469 
0.144395777110859 0.3240046725526206 -0.1254951891867452 0.02205039175969285 -0.4321402579214958 
0.183303184588694 0.5115404130761362 0.1481242165760897 -0.4155689750998711 -0.3087133632527347 
0.06910737505364332 -0.4112569904149015 -0.4075900863038084 0.7790809050136831 -0.4454998779957977 
0.3362760186831381 -0.08994273800355645 -0.6272107963702773 -0.00771192450898749 0.09788549453056694 
-0.4644701785940786 -0.4067794560026002 1.298528792848606 0.0602869229885491 -0.7380197953746684 
-0.3721545120213601 -0.6521511086826625 -0.3611366407528316 1.030397741538141 -0.1358853061934658 
-0.3356416823759324 0.7272853526591712 0.4531476925080906 -0.7395281542212402 -0.4951434157999943 
-0.7084382800158487 -0.5220264599105724 -0.6076483657295966 -0.6896605263528137 1.457550917305154 
0.6549015651045278 -0.1786187579181087 -0.2478913098656999 0.004392628917010463 -0.2578660962129449 
-0.3351910047606373 -1.022904358169152 -0.05058494740045244 0.5670012021197992 0.1230775520082653 
0.5549670670667467 -0.01322581749926857 -0.03112891170315747 -0.3358813299288875 -0.1053457267678503 
0.6348622800530699 -0.3314135933470252 0.3515272437492936 0.2899425965211196 -0.6988986319265321 
-0.1049094392379426 -0.1671969973421305 0.005967372397712648 0.005655861544555475 0.4935165254056926 
1.851701250778704 -0.5194083441320765 -0.1871319053219046 -0.6338101399666229 -0.7334508280928582 
0.5259644441963169 -0.1144922439156708 -0.1111241166928179 -0.1950677199240033 -0.1317974263866552 
1.915993854972765 -0.7910305352573496 -0.3629425845588699 -0.9324022065808959 -0.2943436039341302 
1.328599834745099 -1.11437148902464 0.1001218667158573 -0.2611811317984427 -0.4410370094727152 
0 0 0 0 0 
0 0 0 0 0 
-0.07128884695886842 -0.5242261621512938 -0.177574515520234 -0.6589283948678573 1.100240990277416 
-0.01146014997915495 -0.01095529768813791 -0.04194252628449149 0.1678554123585834 -0.04479533945177423 
-0.1424445126259685 -0.09212565573392301 -0.1099593303423183 0.3017320449151086 -0.3867569957161017 
-0.9675935069634456 -0.742441029227405 -0.6012159085491757 1.625501500930805 -0.9471185849020557 
0.2247261647484223 -0.008676990315630318 -0.02288386235165245 -0.08862913501634166 -0.02788409955972488 
0.6454512374041502 -0.09189815651450797 -0.04750331053777467 -0.2800719851839999 -0.2068700300668337 
0.648044938272619 -0.0844017313910792 -0.04429063520244424 -0.2756796997114089 -0.2241284871335472 
0.991111020734012 -0.7816357736209923 0.4566978599717482 -0.7305717475319091 -0.3877578086439666 
0.1588513070901866 0.07016062151058092 -0.6331059647739965 0.240477461453219 0.1415549547225894 
0.4964994102638117 -0.09643756126571032 -0.1418668976928395 -0.1007586239286481 -0.1243834370937338 
-0.1143825105509875 -0.05223340232777383 0.2731765995453109 -0.2496356654275637 0.08937168238694645 
-0.3763638642456032 0.9426241100299697 -0.5143677959887722 -1.189918041448206 0.4418668132915725 
0.1083946087023367 0.2283651454808772 -0.2087080303999448 0.1465180583047672 -0.131008215571197 
0.4722675353142514 -0.01434648021517439 -0.01364374266102233 -0.5120527930098522 -0.04632664871256711 
1.62431886359784 -0.570161187977513 -0.4713091965098112 -0.5661500645869838 -0.6709537339126517 
0.540323723414515 0.06894459662260818 0.5176106526941651 0.007319346806100774 -1.066121452419475 
0.1651207601592986 -0.3160187061668054 0.1964399394415772 0.2627933966800461 0.06462184108159855 
-0.4553093781219093 0.1132778947471046 -0.08097581704575106 -0.3053331678424531 0.3071301436968688 
1.084394808122535 -0.6930948320071618 -0.1889842829187258 -0.01332653727509806 -0.1309172709005087 
1.084394808122535 -0.6930948320071618 -0.1889842829187258 -0.01332653727509806 -0.1309172709005087 
-0.07857254909772257 0.06091556894059429 -0.271911669167728 -0.7486572602594076 0.3873511933762392 
0.2401776338605073 1.290399895499609 -0.7687867679609527 -0.1036053580976403 -0.392255432380048 
-0.3761562455929787 1.041105393699722 -0.1873458913776384 -1.055431420527278 -0.09949495868307265 
-0.1736999962881865 -0.8039698070439488 -0.3608794361322076 0.5992859914019203 -0.356637713575819 
-0.5714376936967409 -0.4861872289979983 -1.184910710984618 1.024577696179517 -0.3478247466343987 
0.6809494380472384 -0.2460274963602527 -0.2074176696374405 0.1025335362783334 -0.4416649586734237 
0.9499835160941524 -0.09854087893578022 -0.06803269928364465 -0.8687219122562173 0.0629893321563051 
0.9734008652494593 -0.05348915416304541 -0.05694724490320666 -0.7226645958917752 -0.1374934957378308 
0.06599790566031931 -0.6530418768180992 -0.2248692736354396 -0.2314956939845519 0.4713332145214394 
0.5314313007784943 -0.247669107468461 -0.337244411302193 0.1460206407929726 -0.4443107217928263 
0.5450677944790964 -0.977338666657403 -0.6330513009010446 0.823041921509595 -0.5227026111322058 
0.6051662283423108 -0.05000277375934213 -0.01890475549904535 -0.2802232393911834 -0.1303409725628389 
-0.3812479814213404 0.4278215346861953 -0.08252674971777574 0.2373137306480985 -0.1260509859788098 
-0.1693405037115096 -0.8476083475385014 0.09119825052416528 0.7429272582010796 0.05581614839647098 
0.4921673396434433 -0.7553848562008568 0.06938957991877584 0.4697387404420959 -0.8430980599902407 
0.4691712427894564 0.04835573739031525 0.01296016828346801 -0.6149645570484716 0.3132069321466678 
0.05425107565945068 0.1848920635258254 0.2132610932258158 -0.183903096068242 -0.1464506765993121 
0.4294977250066998 -0.1627927905710841 -0.3711943993510743 0.1931353098172844 -0.1707489654585465 
0.04959170988765813 0.8355959507771509 -0.6691633761278143 -0.01835010855258245 -0.298494104779673 
0.05253149765191642 0.285407522621651 -0.4703740036877133 -0.4095940269300891 0.342748918619298 
0.934915180265948 -0.1252079505052844 -0.1043762882798756 -0.5478472043038664 -0.1601103903750937 
0.7313242705228252 0.06596114054310591 -0.6758377857751743 -0.8625699314856969 0.203047434975611 
0.271169114680067 -0.2958903098278813 -0.1263417523206164 -0.02700554627822447 -0.07302284203767248 
0 0 0 0 0 
0 0 0 0 0 
0.6595252447794941 -0.08208812169875214 -0.08473441598793874 -0.1442848830673304 -0.156636924969072 
-0.5998312464004141 0.3160300844231841 -0.1643549591124613 -0.5217262411723735 0.5357013910170459 
0.6047054114206809 0.1771044351258498 -0.284794211556901 -0.737634516836351 0.3220179858141397 
0.5817142836512811 -0.03058316332362094 -0.005382255157027588 -0.1105644329222061 -0.4261129355331216 
-0.6181516720529094 -0.001655659411862569 -0.773828451615804 -0.5748245916421504 1.017165259250359 
0.9766009768536802 0.2480855558598022 -0.7337419037550034 -0.513932815623713 -0.5444011102363302 
-0.2574367186064564 -0.9175156080209003 -1.136308294828573 0.6086358929809662 0.5943811862669907 
1.820452749556107 -0.4262751068016408 -0.06615681546718109 -0.538679625147055 -0.9636419719288822 
-0.08394712644391765 -0.7379807777237002 0.4239566335033955 0.7655440382329389 -0.4688212980806026 
-0.3090185147851714 -0.4398001057072201 -0.1379927183770365 -0.01293202706923383 0.5246400435817564 
2.118252095976782 -0.2304809471382462 -1.517967593397087 -1.113720346119601 -0.3868889134534804 
0.7512543158668531 -0.06923558282194238 0.4426704425565502 -0.3488333072747191 -0.6099577692559295 
-0.1113328254518187 -0.5037222361331615 0.2963802657724574 0.05330623131343171 0.2046503224268216 
-0.6494528369396801 -1.022371243956607 -1.322637301403983 1.517753804416286 -0.5173137007432922 
-0.08951513642912913 -0.125721146334211 0.3278680849198911 -0.02336549964468355 -0.4972113025862186 
0 0 0 0 0 
0.6164912759815465 -0.1329938795743724 -0.08539402489124492 -0.2715618048004878 -0.08257242981388722 
-0.954526652488155 0.5534976002433123 0.4025915936933676 0.07263915867797419 -0.2796490716956149 
0.9012724741436693 -0.4592331678214882 -0.2009716539582114 -0.6200477056774628 0.2867067196864087 
-0.4044094429875308 0.7613646953527528 -0.1242364478858983 -0.1899876723903965 -0.5121168386527557 
0.6295808353865441 -0.7505551248924318 -0.07381843837488344 -0.0488609695287887 0.1835039979806815 
0.1463755365765678 -0.04020902706471585 -0.8406891409123808 0.6271313437542363 -0.2938120499359901 
0.9148138520943445 -1.035096631701738 -0.7615774149345502 0.1390053794740613 0.1915467517693635 
0.255181522351752 -0.408747635045261 -0.2189112369834699 0.5880181745165174 -0.1329484254581074 
1.809588615390389 -1.571590234885776 0.9944519757737694 -2.475653016489996 -1.150950480288444 
-0.1637170162785036 -0.9844781147926439 0.2851189841789934 0.3516626538664619 0.269104938362795 
-0.1139306944645278 -0.1459249031511771 -0.1386832828671712 -0.04016483572672604 0.3600475116658823 
-0.1060356148626595 -0.5452159681516729 1.523516727518061 -0.4808034606907373 -0.8550296509734204 
-0.08819123075171534 -0.03992883212340681 0.4380971608936132 -0.2062536446750293 -0.1477430217338855 
-0.08978564129624175 0.419134431929881 -0.1341200720818065 -0.4450484240920188 -0.05775718864022683 
-0.3401777029634058 -0.464235403966915 0.1944177674003389 0.1999384816136021 0.06460957709767418 
0.3113403960138328 -0.167400771925892 -0.2932266238052898 -0.5035744306035486 0.3543467659604609 
0.1250046879953041 0.2070199836544245 0.3905747941505905 0.02016141198235172 -0.4947137162470117 
0.1329687044282651 -0.04063840861868815 -0.03682389554428295 -0.04727018861161903 -0.03800634792532701 
1.116797521002008 -0.5888934564784192 -0.7524065825313052 -1.01948520645421 0.5412186860332098 
0.2582678673279268 -0.05434433610851463 -0.0487128606059547 -0.03391797816101946 -0.1324317984608321 
0.2298242321772234 0.3722995946207243 -0.5947583552445177 -0.1581800933958935 -0.06248754749991258 
0.5226609671166834 -0.01886353055684005 -0.03488881507311023 -0.32457202441808 -0.2637558521208422 
0.2582678673279268 -0.05434433610851463 -0.0487128606059547 -0.03391797816101946 -0.1324317984608321 
0.2582678673279268 -0.05434433610851463 -0.0487128606059547 -0.03391797816101946 -0.1324317984608321 
0.2582678673279268 -0.05434433610851463 -0.0487128606059547 -0.03391797816101946 -0.1324317984608321 
0.103509121298877 -0.6501004058592369 -0.1489558067079409 -0.1264287521588157 0.6906195409799565 
0.2582678673279268 -0.05434433610851463 -0.0487128606059547 -0.03391797816101946 -0.1324317984608321 
0.2582678673279268 -0.05434433610851463 -0.0487128606059547 -0.03391797816101946 -0.1324317984608321 
0 0 0 0 0 
0.337597085668166 0.1512737960706485 0.1317530622487068 -0.5128287657245495 -0.5915770208203379 
1.265352423917262 0.2604559010986459 -0.8312802455710911 -0.3454510525062538 -1.016708484434277 
0.5173332644258909 0.4516751685908194 -0.5007888095383063 -1.201427374693018 -0.2851063891422541 
0.3643345952350482 -0.1858987012329402 -0.07942611440322737 -0.03005688295875939 -0.07816464751821359 
0.5611279910630187 0.04917813459962005 -0.6804622213232284 0.1323153050912906 -0.2148652455837816 
-0.2206068413188562 0.4489325189282253 -0.1765361085253735 -1.19644748619495 0.6282379799712744 
0.3643345952350482 -0.1858987012329402 -0.07942611440322737 -0.03005688295875939 -0.07816464751821359 
1.25435505625678 0.1459810256213022 0.1745823068429663 -0.2488885675957415 -1.309232216727799 
0.04998475141802307 0.3189341972281716 -0.2721079496782409 -0.1100773268679897 -0.06869028055292792 
0.6003501103692217 -0.1024768694346113 -0.1851291507043361 -0.1094115603154738 -0.2216629975130696 
-0.2061364533729288 -0.6005117804403527 -0.6947235322038714 -0.2603941868063382 1.21931773785964 
-0.2031400096691026 0.2841559352040632 0.2406613362534039 0.07235961409335544 -0.3485515160569502 
1.245942541482767 -0.1094391790418147 -0.08035584747741097 -1.045674066498267 0.1491762223569252 
-0.4544603647441114 -0.590027444517561 -0.2386424337238278 1.485538480214394 -0.9389491323920939 
0.7823504663681919 -0.02339214706844112 -0.1549231098793188 -0.3169705588322813 -0.2591517954852589 
0.495472086148254 -0.04742304415969932 -0.2359415516972 -0.0807329937003065 -0.04335690272466578 
-0.332081434261975 0.5661053889917333 -0.2886821435682637 -0.4571875757327932 0.2257155054970886 
0.03425246938173191 -0.4572089738338324 1.356497875426758 -0.5481892213405846 -0.552796349332581 
0.495472086148254 -0.04742304415969932 -0.2359415516972 -0.0807329937003065 -0.04335690272466578 
0.5719122964803217 0.155206170964292 -0.4354225834875589 -0.2537154027246094 0.08675179101600691 
0.2663368614384232 -0.2102909383731953 -0.2821808116894501 -0.1383461402639384 0.3462924765470104 
0 0 0 0 0 
-0.02285234576509352 -0.1410270024084763 -0.2919483324499155 1.00205900495744 -0.9072112311893559 
-0.08452017717941492 0.5130968239117429 0.5789860114474015 -0.5049395043257422 0.01373119881530266 
0.3592729687900635 -0.4810349603864165 0.3833186847031496 -0.7183412415139786 -0.1024916324120858 
-0.128613592139108 -0.7314562024431112 -0.0840436619881593 0.9356928145337763 0.07629913115864172 
0.004177402887132049 -0.1925966752433407 0.269061770507042 0.09345561573710624 -0.4153385135030393 
0.2076014949663372 -0.1661216623755292 -0.2090997600833781 0.74968032301609 -0.291301131810422 
-0.2251998556289727 -0.664049050553466 -0.3043705166032914 -0.06978084998372178 1.158876107981285 
0.3316376123991205 -0.02512177968287681 -0.1367777123485753 -0.05872990803893813 -0.07550672398667653 
0.3162497985242637 -0.3827998801513439 -0.2594897029577574 -0.06886899590460355 0.3700874330598667 
0.7727826154656252 -0.2394557140007899 -0.2177030282050823 -0.2466890938631073 -0.06487841748037823 
0.5903621514593087 -0.1230823441765762 -0.1232014805339874 -0.2332933188555026 -0.06687163549027322 
-0.5325609854564222 -0.1356357137825836 1.165380188934164 -0.9797266998224541 -0.08652111582750351 
-0.09589943539129658 -0.3875798302269427 0.845840940298492 -0.2625875550355382 -0.1406423743889226 
0.4528565878058345 -0.2858895229586632 -0.3051875794160798 -0.007689503433961881 0.04214748231769968 
-0.3851962602113001 0.1424916443375559 -0.05949255713723143 0.4030532096012028 -0.1935285586831104 
1.000572005119027 -0.6697919052047148 0.3801982763197945 -1.212904037830645 -0.205840538718818 
-0.2435957182700061 0.06674005461497512 0.2150771341361467 -0.4634705710295066 0.2269358562593106 
0.475215014732734 0.3220934357973398 0.1147167938433104 -0.2249708611484856 -0.6582299824966131 
-0.2906494001466493 -1.130156843669861 0.05275623076801567 -0.2544162553065239 0.8551883330048258 
0.2652429372619411 -0.2420957757688588 0.0547129896075278 -0.07547439789015307 -0.03657768693195527 
-0.42110738238423 -0.242353846378404 -0.1818617251649997 -0.7652381559931124 0.8909838739429778 
0.5486162231438345 -0.1864666933375782 -0.1157824036330736 -0.3666168705028953 0.3015883287603439 
0.2144459215244864 0.9646125238470615 -0.6677308755901045 -0.948590957039223 -0.5902054460214713 
0.4591020652189033 0.1160891214413915 -0.140855095528945 0.4792108681787086 -0.6113064786686393 
0.9588732555990493 0.3736353418077126 -0.04206455719940183 -0.6855751731034253 -0.6823510594818883 
-0.9513373001920828 -0.3866626244819108 -0.3193244531481313 -0.02618693036624869 0.9200185048929285 
-0.03343498152889326 0.4005378366671128 0.1533065647736368 -0.5582783621571957 0.3180987960726769 
0.02553647664244033 0.2844248889489663 -0.5723189692993 -0.04461285489670423 0.2909775887297515 
1.719148819258036 -0.8052743124101568 -0.8212150015092606 -0.3840195733976837 -0.6771804808624518 
0.1890351165268634 0.2491308193376595 -0.1089711150652879 -0.5063744531239613 0.2259846108564793 
0 0 0 0 0 
0.907122548114222 0.04738672957992843 -0.1798266572355164 -1.086552999730191 -0.1049019721367084 
1.651040324671663 -0.1141912039579373 0.006046973032333892 -1.403703353762871 -0.7809515114433341 
0.6087560817071205 -0.4962586203062698 -0.3482547382937038 -0.3441809457622363 0.6809232315783443 
-0.3574184227776451 -0.3077557639172795 -0.1859260730292917 0.07886550616222265 0.52435661844155 
0.09234722265445784 -0.4196406899603184 0.1511647890445361 -0.2544455810343957 0.3021115274917646 
0 0 0 0 0 
-0.1114497405228986 0.2267237317275421 0.2352740580778641 -0.3750363027062129 -0.3792461146215039 
0.8604396972824391 0.003574221229804339 0.06500606806758133 -0.3230210138643675 -1.04793600659735 
0.4866109064566845 0.05705017288057403 -0.1666623582702033 -0.01648239716850702 -0.2403120406754164 
0.4303341013989912 -0.2107309733298686 -0.1802632592557233 -0.1666038737378639 -0.2171671746844559 
0.3903061018715976 -0.6432908070939563 -0.4388930692114532 -0.6754786672884447 0.511184847392869 
-0.3917911088950405 0.02393876246758973 0.689558634867024 -0.4199633285011926 -0.2767640990814965 
-0.4182378198520967 -0.4595387218152054 -0.2062189774424249 0.5252869202409044 0.4859968155626839 
-0.4889773494328437 1.9112983895099 -0.7642949185960948 -0.06203429413647794 -1.20141382007314 
0.3158908894329333 0.08716317539974235 -0.4067908438332807 0.2834571589853719 -0.1925845538906973 
0.6032850150377048 -0.1691936328612165 -0.05357944298021629 -0.02467370615035339 -0.1492608144300276 
0.2443332425642166 -0.2139471953911236 0.2523123190959581 -0.1027906649926325 -0.2047107052398179 
0.499817689926515 1.16303758998213 -1.165957732321236 -0.5484982744868691 -0.898392900137425 
0.4671424954857782 -0.8632878553556258 -0.5259519737898652 0.5409480216893638 -0.2403181773102563 
-0.4139920387133291 -0.8464675607614115 2.498834882363481 -1.036364918638558 -1.32673027197253 
0.4718215380538824 -0.03744796532753678 -0.1462795538882124 -0.000855305129627079 -0.1557678120285522 
0.2731138485869969 0.1417612835391885 -0.1877978345979799 -0.03791291831907753 -0.1869916458693814 
0.4718215380538824 -0.03744796532753678 -0.1462795538882124 -0.000855305129627079 -0.1557678120285522 
0.1811559963416538 -0.396866227984393 1.020351379049133 -0.3144307275280597 -0.2485588246155746 
-0.2207593581033147 1.511565703316111 -0.872569608345545 -0.6055734300628839 -0.4094349440198736 
0.1005848014464436 0.05251451036845291 0.2373983160942897 0.02461385464992567 -0.6906785369297641 
0.585046636621502 -0.02498441810828264 -0.0140139140647113 -0.7255939838271889 -0.0810063224919285 
-0.2110709835844199 -0.07317514321778625 -0.4419416099398172 0.2441069765908466 0.1736424050626844 
0.585046636621502 -0.02498441810828264 -0.0140139140647113 -0.7255939838271889 -0.0810063224919285 
-0.1578473249314024 -0.04520360683300881 -0.109777171594896 0.1040853883111888 0.2650895304476615 
0.6777854102553788 -0.6008024134315874 -0.2410165773599004 0.03921061347621035 0.1614531139679259 
0.1018724709657193 -0.3566346293517005 -0.07211998741825597 -0.1440922796495199 0.1857322446762314 
0.5684024631216584 -0.05276910132524423 -0.1120849476442828 -0.2346069078415878 -0.1436420865157665 
0.5684024631216584 -0.05276910132524423 -0.1120849476442828 -0.2346069078415878 -0.1436420865157665 
0.7108669098271592 -0.1454484121295094 0.7336048226544414 -0.5031772117873883 -1.095293005763164 
0.5171684224496141 -0.7683213131988944 -0.4998851716913985 0.5448814607035262 0.1991659409953881 
0.485567297954616 0.154100401798162 -0.3823335155966404 0.061825807535335 0.004629682707438194 
-0.9476072769967614 0.9557155749022174 -1.24017033476488 -0.08248827994155827 -0.1769925965615033 
0.1128876932969304 0.1801053592699984 -0.009556312280281833 -0.5118356210004509 0.07961040875335432 
0.9781413352912519 -1.364499012159829 -0.2752864797889492 -0.167930109615322 0.8447729344922899 
0.659933261536587 -0.3889430063810335 -0.05737383946566976 0.4092612583297791 -0.3834738892429291 
0.5272701767902376 -0.06422018160105923 -0.03763433914087985 -0.33308941697504 -0.03483814031086335 
1.49757483910063 -0.8487031653604703 -0.970359049166769 0.2188252557531967 -0.5877767702575118 
0.01257222277313111 0.1910819201308232 -0.142312228512175 0.1185454494196104 -0.1644938481486018 
0.6622595417872427 -0.2383955540103701 -0.04597924080837956 -0.1710872310913308 -0.138028502919775 
0.09785839873788744 0.2128730946468804 -0.05167209066934529 -0.2195623983496048 -0.1854703694570835 
-0.5416154574613787 -0.3421699594340893 -0.1836763680516117 -0.0349539102100477 1.141992349695971 
0.6287693912434978 -0.3847239244815921 -0.3908069585026587 -0.4157003383153837 0.3128360072400484 
-0.09347680096243965 -0.5337160731977239 0.5376679230494732 -1.634509326165006 0.9798347117246298 
0.03605611477572777 -0.3701463534774976 0.1752765116349763 -0.4325391514452823 0.6512981390777332 
1.62250291989329 -0.2467989796735972 -0.1229672792541724 -0.7461740576869207 -0.5957650378884669 
0.05671906318207401 0.4888623491566295 0.1238067602390922 -0.1738844606345188 -0.186799797751975 
0.5195957722817495 -0.4869601767508765 -0.3069554963086824 0.738829741327244 -0.1585154181380965 
0 0 0 0 0 
-0.26508840666187 0.7163445197292079 -0.3595494663382681 -0.617510677205557 0.2101840847610228 
0.3163483772381038 -0.1519678754741697 -0.09616751048716245 -0.1344550516812727 0.004704052373696071 
-0.3152225867057572 -0.187270623434523 -0.3017232343617878 -0.3508268940504332 0.682985903796177 
0.3678381147106842 -0.08518188827483569 -0.1979696483495796 0.1435352972930145 -0.165421953626154 
0.3756286433132996 -0.0682924458217356 -0.02905710453719764 -0.1300989983239065 -0.1132993771493465 
0.258419743481711 -0.2741450213449781 0.8011090554667277 -0.6140458998840972 -0.1131664183311752 
-0.3662948777004795 0.2202898542514859 0.3330717128834694 -0.6174766506993346 0.2470000985020105 
0 0 0 0 0 
0.6698158407047726 -0.02277324563642278 -0.2252502871970101 -0.2249135965090358 -0.1606556947362857 
0 0 0 0 0 
0.0573908930834915 -0.2844458056735333 -0.04644063088077675 0.03835485203817777 0.1678348473024276 
0.5999573165444018 -0.4763503263682172 0.346049092923305 -0.0983163591191655 -0.4194060257884629 
-0.2668841218792218 0.9193222239168523 -0.8018267607241382 -1.82464224108477 0.4193326927724919 
2.006237824980813 -0.4237408618173442 0.1912025079706175 -1.414279326258938 -0.9607443820532757 
-0.1650322497398922 0.1800970241171086 0.08048253881631057 -0.0002307855712408574 -0.1621086414840542 
0.5224419763990766 -0.1472104625063917 -0.0363791958936056 -0.173102448320499 -0.1846861197175438 
0.8651603783153433 -0.155232573600334 -0.05450826736418078 -0.5849159472875807 -0.2282075922419702 
0.3201023899500454 -0.2861586912267387 0.4836625091123633 -0.5750653480827612 -0.007578031757175804 
0.2621955344246601 0.09932730629249731 -0.6973010517540681 -0.6927918858271397 0.7545022155737068 
-0.01817576108834584 0.4416593469924859 -0.472949129953171 0.5195872255018822 -0.7929230178336532 
-0.0499610817301227 -0.01039110934174142 -0.05293224867783016 -0.2214751794412267 0.3581175986872881 
0.369142775272886 -0.03195639258053268 -0.2277053835894139 -0.04065728869610595 -0.05577637159479548 
0.5299668754281555 -0.177933845629816 -0.1452056159573102 -0.00341155724797743 -0.234161360002399 
-0.228253245300483 -0.1810236938910472 0.2467459227837091 -0.6410787359642217 0.4069297273785516 
0.5156047708586311 -0.5309520303862176 0.2804924515795845 -0.08061556941102903 -0.1989911120572986 
-0.04029911017940854 -0.2521562927349874 0.5575572373872693 -0.01464155609264891 -0.2648556160344903 
0.5299668754281555 -0.177933845629816 -0.1452056159573102 -0.00341155724797743 -0.234161360002399 
-0.4447170378812313 0.4691401101192916 -0.4903379219140959 -0.7341307080607079 0.499084714705827 
0.1027837979264997 0.07832965266052837 0.1284545697829562 -0.6578752605306376 0.2236790163279226 
0.7510826714734276 -0.3515052911978996 -0.1507035793993177 -0.1179674029974139 -0.2377969390929528 
1.017964915058625 0.2732950628611533 -0.8571517003729267 -1.445402503041512 -0.194223953071469 
-0.1572508619470998 0.6290629132408936 -0.08280344416380982 -2.406779891609095 0.3384554726598388 
0.09857910243348163 -0.2823879059840893 -0.01541022910522251 -0.003566656112506935 -0.1536357059437674 
-0.5904425173079442 1.790408405382108 -0.4164818736232599 -1.133848628658687 -1.081627342255874 
0.6005530402478321 -0.4583023218469593 -0.2144496777548715 -0.01595058791977151 -0.3928499106191876 
0.2541492159757519 -0.6188695919054188 0.03112467454649193 -0.1821942746992117 0.3482171701329562 
-0.1254913597743148 -0.3823289651388923 0.8881206377040159 -0.2820937752949895 -0.2627407334317614 
0.8289701628379851 0.1168428331353337 -0.1375169725464663 -0.6038954371912664 -0.1790038065963135 
0.1191463103511876 -0.4485422590706465 0.2370170620676451 -0.4150119170398235 -0.08891725166636318 
-0.104028787940987 0.05162300073603875 -0.2503796055107189 0.6704919488399127 -0.3151960749462663 
0 0 0 0 0 
0.5806538669668437 -0.3012175783997176 -0.2306270255352434 -0.1723549974285526 -0.08501664491862627 
0.271169114680067 -0.2958903098278813 -0.1263417523206164 -0.02700554627822447 -0.07302284203767248 
1.38517220001686 0.2129624275764105 -0.2460707480279321 -1.191082236922263 -0.8517459706381504 
0.1429130258464489 -0.1145494276383627 -0.08516876092800443 -0.01985896581614281 -0.04776575265937894 
0.8147569394005425 -0.05112608815244003 0.0974617379551536 -0.3164755152897554 -0.3518807834882561 
-0.2393032082865706 0.5078669814541261 0.4188502760629188 -1.518945637695021 0.4046524031103787 
0 0 0 0 0 
-0.4130019392744556 0.19300405052903 -0.5103204476157071 -0.01974219500122146 0.3472317747045301 
0.352365145315951 0.5265024603360713 0.6131857730211097 -0.5666169297497179 -0.5060740900133203 
0.3062635041737921 -0.07714857745362229 -0.05796040361086867 -0.07853818904970436 -0.03503009843972502 
-0.731169057336172 -0.5154282982845257 2.200922657425431 -0.1788501429004737 -1.526790810630115 
0.5900715001194157 1.099352748096648 -0.808914998840421 -0.9627444763746621 -0.7561633014562413 
-0.2484136423694115 0.5539933865416837 -0.01671786516517861 0.3166488443941353 -0.764930595051116 
-0.1938444083732097 -0.08595943725234886 -0.06384533878404504 -0.01331518853861607 -0.03503489603936837 
0.2125548573401701 0.5880427049744885 -0.4609923812622812 0.319207636863766 -0.2900564529179054 
0.8492263749625524 -0.1518724888730498 -0.01333880510074608 -0.4077610701073898 -0.1966793520004606 
-0.1628880533119964 -0.07731076035956549 0.215628710765056 -0.2795205877860139 0.3332309581936952 
0.8492263749625524 -0.1518724888730498 -0.01333880510074608 -0.4077610701073898 -0.1966793520004606 
0 0 0 0 0 
0.3341568089280402 0.4093546838216899 -0.003941990342015035 -0.2396523876724197 -0.3973520390084013 
0.909433086358912 -0.08092998587708983 -0.1307935596520527 -0.2230953314540608 -0.6102926232993364 
0.1395095119228647 -0.2309105666762611 -0.009415779113287434 -0.01513806688581749 -0.006902560293147307 
-0.5519447017137956 1.844918654731245 -0.4209741324383069 -0.5942473868703516 -1.064675201059472 
0.6046407966639278 0.582940885174589 -0.3560957443748567 -0.169360066908354 -0.3822123144806284 
-0.2385110634429987 -0.4991275863260071 0.30782131917663 -0.4370349268147394 0.7331804643522387 
0 0 0 0 0 
-0.5193655258100802 -0.124837247268601 -0.6223848657599073 0.851221634941856 0.03099209195129023 
0 0 0 0 0 
0.5368820343876888 0.1166360692018056 -0.4856350629262468 -0.08166829672180666 -0.254265141636186 
0.7983524504758226 -0.05456295615744616 -0.1658305598956962 -0.05019932672960951 -0.4244309971706718 
-0.4876978668674375 -0.2575078377814964 0.4840694025208742 -0.389376504967251 0.4173268798749539 
-0.09701518031710599 -0.5182243319287451 1.654788977751159 -1.051167386928962 -0.7247206472589026 
0.6638611827955847 -0.3404854922361059 0.02157947149652799 -0.1363275449243614 -0.08872863408944985 
0.7182166890880552 -0.2465349889868226 -0.3169443698692588 0.06981438498589587 -0.2072434711212306 
0.09314036695285206 -0.1276246909552908 -0.2581356409602035 -0.1550668332379378 -0.1384742683261684 
-0.2187121459211587 -0.4473153431633641 -0.05477949081249395 0.3349483344976878 0.4184671511225152 
0.1685531490299373 -0.0846132131322356 -0.1035890220639692 -0.1275190882325552 0.5543242985472614 
-0.657395839542479 -0.3985582407169558 0.04455078780747333 -0.07815887909851896 0.6028530017073267 
-0.3093217808709328 0.3859355377253623 -0.01136435133843302 -0.3515493336231083 0.1941484670277962 
0.1119367972483791 -0.01314062395917473 -0.01345226193133715 -0.2965072874640115 0.3170435770678661 
-0.1056250523640044 0.5612116963710182 -0.08479076058028166 -0.05441631858179662 -0.1109447737319756 
0.7113965949385581 -0.1543901580555437 -0.1798316182194038 -0.4272481567392229 -0.3545459629027294 
1.570860274894377 -0.3116359821652605 -0.16941899744822 -0.6127580184177196 -0.1171623895383834 
-0.2473584265056745 -0.1440304949352506 0.5876210856561161 -0.2765593438511794 -0.1719925189104543 
0 0 0 0 0 
0 0 0 0 0 
0.4426786889426307 -0.08163251917629395 -0.008706243588832152 -0.09586259455276887 -0.1700541386487202 
1.404007691614372 -1.084758610102619 1.041043721910619 -1.787224397524529 0.08480173097309698 
0.5951885849516058 -0.079701002564579 -0.08397184379277341 -0.3096048337614447 -0.1614422478147992 
0.6930646786006815 -0.5792917161643227 -0.1207092219479348 0.270243246103358 -0.3404039612581899 
0.08715725145521798 0.2069655783574245 -0.864954778900299 -0.2308549719787639 0.1920046583121075 
-0.6101415058412373 -0.2229696623293798 -0.3984789807609737 -0.241344257559571 1.035789960163069 
1.179126779194154 -0.36298418381845 -0.3654116169964904 -0.7246786475728576 -0.2205187529532633 
-0.336440205534574 0.1585024183133805 -1.216817077135698 0.581565601540553 -0.2027201448184967 
0.7038220420161138 -0.1620686767600526 -0.223621122675619 0.3699568594315804 -1.131194474150914 
0.5949049701470326 -0.1554515658917467 -0.1256560441570652 -0.6345206227942852 -0.09674308944684724 
-0.478201556669743 -0.28049321056511 -0.1685055620103658 -0.1988772071802241 0.5974967324134921 
0.3906002235478519 -0.4951976274768459 -0.6212922822921196 0.3311334136434195 -0.3976496932876175 
1.999903880351655 0.2995911992678419 -0.7374144144901805 -1.419287287061016 -0.9486153020782263 
0.2717952677895294 -0.01963372651414476 -0.00588387747472969 -0.5276701238004087 -0.04113810820374129 
0.1528998279269264 -0.006877155990883165 -0.004904523886664214 -0.2290652921745082 -0.03309497938098446 
0.2498794219084666 0.4067675081499221 -0.4355785114043049 -0.3342048547848496 -0.02532875542673476 
0.9351057352638252 -0.03328634578769243 -0.03277373421261089 -0.7855599657552087 -0.1010583859839211 
0.2310355980076152 -0.5135702945533874 -0.6549322668168103 0.666302239087691 -0.3306096555491231 
0.2477293097012386 -0.01157535657376576 -0.06386181163999775 -0.2721933488780982 0.1735598059495278 
1.366435055414793 -0.5849452690649846 0.1498915989867469 -0.6942824658664197 -1.072397207125188 
-0.9127278461443605 -0.1075730851556261 0.9797173844528311 -0.8225001175080388 0.4983583640273488 
0.4327138401950189 -0.05157709991780356 -0.3165164019525182 -0.0309458669479139 -0.02290370301667848 
0.446702451888091 -0.1199699544323259 -0.2061497263010379 -0.03772415745882675 -0.02229692761114396 
0.2628340078017011 -0.1524409876856695 0.4614444492034292 -0.03486947157207436 -0.4888328772659613 
0.42563632058076 0.2504216502762033 1.002443335495949 -1.02207106967713 -1.221231417455793 
0.8191841173006699 -0.435969780249887 -0.3730245403228836 -0.1130067041063567 0.374267816508453 
-0.313283111120438 0.1002317384129487 0.7426528393193966 -0.4194729879477902 -0.3230637605023804 
0.2468582643963332 -0.4854546720338147 0.03573289822096413 0.350528888018582 -0.4914512254202373 
-0.6623374825291448 0.1215745746668115 0.005438880206851262 -0.3914931341095401 0.3688932706399247 
0.9786045206633508 -0.2740830112928735 -0.1510173938370065 -1.151059085132819 0.3946427558785076 
-0.1833542819185929 -0.3536148096200283 -0.752960705834665 0.8138749201100629 0.2496781746991844 
0.07473308929652397 0.1122248503133798 0.3430993582367916 0.08024418869238543 -0.3953509275429291 
1.242654078963384 0.1560262233714611 -0.1330057549497211 -1.714890611238439 -0.1736166833982187 
0.3738762530202211 -0.05208294190075621 -0.05433334006726138 -0.2029709432261303 -0.04433756812512429 
0.7384398856040716 0.6295629748210072 -0.4273440872891714 -0.7093437955250772 -0.2656186593068608 
0 0 0 0 0 
1.603605160789275 -0.7452560883884974 -0.5808314197273664 -0.2625219652083909 -0.9957396077929987 
-0.3399416533637034 0.4517889383380378 -0.3561773426604594 0.8246443216531955 -1.334996822741785 
0.8667540829407432 -0.3343568394280607 -0.4494197321147742 0.6203249697956852 -0.7605706223860552 
-0.3315899902877665 1.174444847177003 0.02717992519801846 -0.9062481557169477 -0.8504054339585017 
0.06847613806748967 -0.02917999157212376 -0.6396135185560109 -0.01209734729242783 0.4492742826528096 
1.786551995474209 0.2574683643292425 -0.927428365773996 -1.235105524371885 -1.287889573319595 
2.157188235918531 -1.154083023510117 -1.096018192638539 -1.020776029564228 -0.04328225446974459 
0.2581773093947907 -0.05726694938282485 0.2478795756708151 -0.2412332683031458 -0.2033058415511519 
0.414543003978175 -0.301762097062452 -0.01666165599920054 -0.08925154380433099 -0.05563402653251604 
1.205974522868432 0.33163421554009 -0.5962478991481732 -0.613178677926817 -0.6052728906542774 
0 0 0 0 0 
0 0 0 0 0 
0 0 0 0 0 
0.2582127563048306 -0.3649110913956283 -0.02348835840303229 -0.2322654074670276 0.3303277266646872 
0.6347128468446009 0.1337700758731989 -0.05174288817991647 -0.3971238461705507 -0.3446663738802079 
0.09221270226780133 -0.5313209873636104 0.5676523057076178 0.4158597501033003 -0.5312501271950858 
-0.6934209902570045 -0.5432036387486263 -0.01717062586163303 0.8687328204751459 0.1682891606053251 
0.4794772350175469 -0.02549321729846645 -0.2334511574491042 -0.163163376383369 -0.1643697680397473 
0.6434773353889621 -0.2858588427382278 -0.5449734898179284 0.08351484756067606 -0.2957425934140607 
0.9307770041427181 0.4172566564022953 -0.4775911628631475 -0.4419974617338979 -0.8376712897923246 
-0.3041758683469709 0.5838986289897811 -0.165635847651936 0.1179698971402831 -0.4953285329611343 
0.03254080470086702 0.1415242488209695 -0.01728581298945609 -0.3934296084148177 -0.1591443373629278 
0.6347567185631754 -0.5369126980499633 -0.6165047160977938 -0.4939284832394232 0.1077347674270625 
0.2636286049393058 -0.4552419770129944 -0.03333462013930562 0.9678137165933999 -0.3792571175993765 
0.5792858555857372 -0.009935958816153587 -0.441841816474753 -0.02634327964122556 -0.04181909766588734 
-0.2392934777513208 0.05769330618299981 -0.3215202176557581 -0.1115635266363554 0.3486549757243065 
-0.1609137380502199 -0.7105060806838884 0.08909435301534016 1.438504899878968 -1.570838631188345 
0.7173106595421016 -0.1656705651155245 -0.2293637115193176 -0.2159817807135773 -0.1567033254301546 
0.5304324171522433 -0.1123160759958299 -0.1102253168635687 -0.1823792242962971 -0.1095046446311612 
0.4839333642535286 -0.04181615117246901 -0.02675977989795885 -0.1026940269615593 -0.2687820617172656 
0.4839333642535286 -0.04181615117246901 -0.02675977989795885 -0.1026940269615593 -0.2687820617172656 
-0.4944583834509872 -0.5697836501878646 -0.3133788369339799 0.6304907209097983 -0.2143601865219203 
0.4839333642535286 -0.04181615117246901 -0.02675977989795885 -0.1026940269615593 -0.2687820617172656 
0.05146547794967726 -0.4329399324075322 0.04327957602929143 0.05712867900599057 0.001527056300750507 
0.4839333642535286 -0.04181615117246901 -0.02675977989795885 -0.1026940269615593 -0.2687820617172656 
0.3432221409646771 -0.1447354866625623 -0.2693288771471653 0.08963875995244842 -0.164742909819671 
-0.4386741553854437 -0.5132316076830665 -0.7649975781434618 -0.305389332120161 1.071433526014395 
0.4839333642535286 -0.04181615117246901 -0.02675977989795885 -0.1026940269615593 -0.2687820617172656 
-0.2137569706113613 0.4708159711276406 -0.4534426820566881 0.04320424899597156 -0.1668538560297926 
-0.07560045468425167 -0.1024270032853677 -0.03310607345723238 0.3626911701528986 -0.1713254440969682 
0.5158720420364223 -0.1118615845314848 -0.1077033565068763 -0.1688858604584637 -0.2052344473471736 
0.01506860805904702 -0.1831967385521856 0.6878414524454394 -0.2223508002632294 -0.2758565932742659 
1.567684493003056 -1.263685464827286 -0.03943911073156092 -0.07124653232533643 -0.6932519298104064 
0.1318113965578209 -0.07445138482262116 -0.1890996391723143 0.5217317503729053 -0.4113429822552133 
-0.1512947763836833 -0.1628785254488424 0.183559140666902 -0.3135025410964919 0.4086479774915968 
-0.364328578176397 -0.5354462642388584 0.005953105330708457 0.5483736766938405 -0.004948710001482937 
0.8717830876214205 0.07628140669542463 -0.3916581080032011 0.475649472196724 -0.8140790204628701 
