solver_type L2R_LR
nr_class 5
label 4 0 3 1 2
nr_feature 22481
bias -1
w
-0.07759236924726665 -0.1736959484014023 0.03760111600030591 -0.0959349869134815 0.1670922914826557 
-0.04886533497445651 -0.01912760028374708 -0.02677736647204991 -0.2293128489477731 0.1293537888246135 
0.005063909961022592 -0.00588685968260871 -0.01921344603558999 0.005691472036463593 -0.01359483429497458 
-0.0003058877418080475 -0.0001786024447232308 -0.0009693401714376839 -3.785047121392617e-06 0.002903339596369274 
-0.05369131455653549 0.03627476267801734 -0.005464915030458511 -0.1236114592460971 0.04817811050763805 
-0.002179522152327978 -0.01546925936570042 0.007149896583905599 -0.071849816964438 0.05347753272958088 
-0.01609730415671429 -0.009052462950347709 -0.001598769965757946 -0.05324933308167965 0.002801730450629076 
-0.001283612209440577 0.002449481483277499 0.002104202033880732 -0.005991073989267791 -0.00705229411998741 
-0.02187437041942489 -0.08367223170247212 -0.1432225967511119 0.3857016803654292 -0.4667909703896325 
-0.2121934395761163 -0.3157073136939793 -0.3909220684006138 -0.2666710859460064 -0.5938958192156315 
0.0006025406221536367 -0.0001553003315827753 -0.0004261062393139147 -0.0005526275392634904 -0.002950998652570699 
0.00328404782691397 -0.00347895646645127 -0.005883374730447383 0.01637218542647867 -0.01367410971091482 
-0.009878034800155614 -0.009256294122233279 -0.01578918175775429 0.06541399241967147 0.01706795035425506 
-2.769416057538627e-05 0.0002618222296314914 0.0003426143813047729 -0.0006346391113981701 -0.002831033969654791 
-0.06470494403382128 -0.1110015536618213 -0.05423823582804606 0.1959282985762955 0.05191762238893918 
0.00498593984648686 -0.003936865968871053 -0.01360773181824002 0.003974767264627263 -0.003080378240560976 
0.0006190829027878211 -3.744405020771291e-06 -0.0004603652835648852 -0.00105018697624556 -0.002210680752705507 
0.0004598470352194307 -0.0009861384461507354 0.0007618949779626697 -0.003405781724526406 0.001643743038624083 
-0.0003373590635499888 0.002320861770677995 -0.002416893425038381 -0.007448172011139094 -0.005311593272270344 
0.0002929760379211214 -7.098769152496586e-05 -0.0001349125281210866 -0.0007093964406886502 -0.0005090427836817419 
0.001497037514134704 -0.003409315666328403 0.004118894008604957 -0.02165074553634874 -0.01424403838667284 
-0.0003712204514439486 8.359692597749931e-05 -0.0005773949184057361 -0.0009453138009513831 -0.0002064565612799913 
-0.02184084288536223 0.005096736909004365 -0.006199177558898095 -0.08746311431833599 0.01720667914334491 
-0.0002904386759872653 -0.00187083916838921 -0.001495700405247802 0.002355551131304805 -0.0008634114888204064 
0.05526501276777386 -0.04601590492344711 -0.05003474568228621 0.08005612086121187 -0.1497834349624351 
-0.1342522709222261 -0.1358728801208695 0.060777788152798 0.2518057385602087 -0.4036374192688204 
0.000125649589170146 -0.01157744994242169 0.006469193795020826 0.01433451031485829 -0.01377621780159589 
-0.009433678817404105 0.007007801882274458 -0.005633522500632688 -0.08854995401296178 0.07720249149267712 
-5.13693786382492e-05 -0.002431085211106268 0.003788170084819368 0.0006188017406895004 -0.003681917560178774 
0.0002525385172841969 -0.01929509874759606 -0.03054890003900988 0.08503546429094368 -0.04376237391748204 
-0.0001116379039262103 0.0007562968484192711 -0.000379029974511868 -0.0002406382848322822 -0.0006026808304809396 
6.399881908682722e-05 -0.0001924814997584968 -0.000692697006060093 -0.0007119385147610412 0.002362064933973457 
-0.001118436274676147 0.001840813339874288 0.001084023470755343 -0.004880812173895097 -0.005667805858798645 
-0.01202190875431486 0.008311739499050586 -0.009828228458044765 -0.06775143162619329 0.01598327487327318 
-0.00095638193278382 -0.004470935193098735 -0.004143136711207587 -0.005969215880337684 0.04220658463135567 
-0.00765887068912275 0.003754588995667189 -0.007145183608155099 -0.03731267788635704 0.05209750462632087 
-0.01931097547854158 -0.01588753502817392 0.02184200387158939 -0.05989147757501491 0.106662892952859 
-0.03271193093214431 -0.01021044390309472 0.008859263104374671 0.001252126976773762 -0.04943998894342135 
-0.0009080538288446863 0.002215383839241203 -0.001357769665294121 -0.00673407833542848 0.005807373524950437 
-9.937091618572485e-05 -0.0004255055069011885 0.0001160938698028707 0.001847132414104107 -5.68743548280902e-05 
0.0001863893265321011 -0.0002017276972385857 0.0001957290711127317 0.002041129168019259 -0.004388254712515699 
-0.02283193100146894 -0.004479681545611435 -0.01917439838317592 -0.008297371888350171 0.04592866354676707 
0.003386108054840149 -0.006108007103205055 -0.04259241045415525 -0.02262261966039782 -0.07283043990934829 
-0.01309452347897109 -0.002463151590464538 -0.05760968431839377 -0.03504516955194601 0.03705155266027032 
0.0001037040354041939 -0.0001153683015542723 -0.0001252445584850203 -0.0003261003667094498 0.0004168225111836326 
-0.02134051622357853 0.02724043483809301 0.003014698091408178 -0.09651859136020907 0.02817857116228871 
-0.00326590842571977 -0.01062400519478727 -0.005450461696357349 0.001351603340121104 0.01809406425156968 
-0.00325795745440494 -0.01734418091737666 -0.01061961124491819 -0.01224111431240497 0.06841644077877335 
-0.0001141557724694197 0.0001826385535922432 0.0004208132360484891 -0.000802484225451234 -0.001702655813697639 
-0.00635242315939415 0.002830625288604133 0.01185649650943958 -0.02573694709582472 -0.008519264294985195 
-0.004914708537106131 0.01357072056814392 -0.006409850344980973 -0.04229341611505987 -0.0453960159422163 
-0.02015177421163979 0.001202082669819915 0.001058326595597371 -0.0138706820442431 0.0006362285286720199 
-0.003109375808983454 0.008096278965341269 0.001053762009718737 -0.03424490939593096 -0.005325931551978328 
-0.000489642437644318 -0.0002568668960943878 -0.0005643969229916936 -0.006602932592338226 0.01050534367340999 
0.0001592995220705614 -6.399965237730523e-05 -3.976464289808121e-05 -0.0001152214214652982 -0.0002525936913251565 
0.001063981774054999 -0.002853857461587511 -0.006675657540349385 -0.003610771069629799 -0.01112336990854336 
-0.003670149964740794 -0.003507537319671675 0.00123979459097873 -0.01594727137461184 0.04184496747686135 
-0.007673009358239157 0.00749944835340545 -0.001490045666529631 -0.05385306473932074 0.03507631585105035 
-0.0153975650961596 -0.0002183164366937386 -0.1104832635334808 0.000998220260746406 -0.02875672346736926 
-0.0001414184347103757 -0.000846353710873236 -0.0008957002294684551 -0.003607004144917376 0.007201453010408668 
-0.005147100022930604 0.01093256709387097 -0.006630211293747772 -0.06045842929895836 0.009753973016707959 
-0.01896562766041936 -0.008324960043222801 0.001742521867347535 0.09414386724522661 -0.1010947053938583 
0.0003031342331115444 -0.0001002686542867335 0.0004753442540617461 -0.0007112401696043675 -0.0009184437113151006 
0.006052969105281244 -0.002355431990365026 0.005547949937487377 -0.05790110312064947 -0.039211136291627 
0.0003350291921567597 -5.743258147050211e-05 -6.277429927470852e-05 -0.0003367305543755604 -0.0004302369421532153 
-6.446288738463094e-05 -0.0003446297719314149 -0.0002975664497996023 0.003699350355974487 -0.002190943247550794 
0.0190336342294741 -0.02582610386478296 -0.04942174762293801 0.1049128113938382 -0.1353057101143275 
-0.001144337478150924 -0.02314196365176258 -0.0170119316896567 -0.2130730950046593 0.1526239728949083 
-0.01497505580957826 -0.006359673404369289 -0.006864679730122491 -0.007792592275658001 0.05937672424180628 
-0.0001240952541907884 0.0004122050780749851 -0.001203378945081794 -0.001095354788719164 -0.002275707961552189 
-0.01256475233060367 -0.02711118467945613 -0.04641776109967256 -0.04809058004790857 0.02137188886955907 
-0.0003891788979857565 -0.001928705477355318 0.002389247972604067 -0.008892712877226235 0.003320508233830899 
0.004830519553840226 -0.002644801173128556 -0.001592655695884035 -0.003896704393690537 -0.007683266466424168 
0.011908751869004 -0.001469695361721182 -0.004713686013841143 -0.03275590924744272 -0.04013380388725766 
-0.002233457270403372 0.003860476028102629 -0.001812064065304384 -0.01078466485409688 -0.02155502717851502 
0.0004854433011885435 -0.0001064735006237157 -0.0001061986932361603 -0.0005379293324370237 -0.0006133051249199276 
0.005799359776996937 -0.001080206561537196 -0.00287448977260979 -0.009884090656014817 -0.01202926995642126 
-0.009757161458978295 -0.008580240096295504 -0.01234021956365835 -0.05653891378206682 0.0353669412804965 
5.205573852966167e-05 -0.0002378580723738134 -0.0003658281773257394 -0.0009456163510770583 0.000822812466407768 
0.002998905558279967 -0.02133185682038482 -0.05837370327733096 0.03066598328418967 -0.1770807147018765 
0.0001462848098065106 -5.221033991367832e-05 -6.963488008705955e-05 -0.0002584247991134408 -0.0002254690790828486 
-0.00325107524947665 -0.001284744495583971 0.00905208664367553 -0.008212452077431966 -0.01146927113186909 
-0.000740750045999131 0.0008156827927502764 -0.0007499737723197867 -0.0008868334002691913 -0.005370088844174679 
0.0001200011189414082 -6.872630806676556e-05 -0.0001097934046407553 8.95221685642812e-05 -0.0003827253861143525 
-0.00115488693678112 -0.001272513248771202 0.002081679699969794 -1.093886422804234e-05 -0.001283537909889522 
-0.0206797600090644 -0.03081386021884303 -0.01375873107983767 0.04270305586857308 -0.02355487285707429 
0.0004159751801631443 -0.002421456707108686 -0.0014975613498964 0.01483042070410997 -0.02102158695617124 
0.002224478980120109 -0.002867036863259155 -0.00324243721740726 -0.03248526036712882 -0.005714409908614965 
-0.008551814923831388 -0.00426786963174457 0.01851545469411153 -0.05520377819611012 0.02404874305957994 
-0.009878863125849459 0.006293165383702862 0.001332107311712408 -0.05991332367794329 0.05882988838370524 
-0.01054285774791824 0.04023096055134863 -0.02915321049800735 -0.1712668870084043 0.04176094139836418 
-0.000100950095226552 -0.0001040014936874604 -0.0004376832557688844 5.112650895115644e-05 0.001808026968686052 
-0.02176789804248506 0.04766037187485669 0.001109473959665721 -0.1073181357345072 -0.02087461147025217 
0.001488484462932576 -0.0001742369936106795 0.000470751408902432 -0.004840896417556215 -0.007763595255759539 
-0.005510552208555308 0.009490890693714189 -0.01472896669778365 -0.03839340631185435 -0.0003964126634821017 
0.0001122713667664182 -0.0001027619029033842 -0.0001096205044404357 -0.0004972271500501774 0.00130565268855265 
-0.001141647019796099 0.007832890474976522 -0.02358138166189762 -0.1727982440088901 0.06041520373145354 
-0.003792795855572512 0.004756638365564058 -0.002714999112933834 -0.02429599015576175 0.01190964645986662 
0.0002784290842687733 -0.0002993028519195961 -0.0004410944113450983 0.0005790547836627938 -0.001587330914620325 
0.0003531075262469559 -0.000781203531823042 -0.0006417016781470028 0.003483929072047315 -0.002140691661348447 
-0.0008686779020722611 -0.0001706499531936298 0.001742646790718659 0.001603255538082207 -0.00842241566584937 
0.01248931742852561 -0.004935432438826906 -0.003009277763516549 -0.01725166743175678 -0.01893300380356683 
-0.02292853777023046 0.01645196667163529 -0.01146205821001067 -0.1438836595641217 0.04271387774507104 
-0.00431010925300197 -0.006189015437184669 -0.02204192370915188 0.06549443314309868 -0.04528817671388524 
-0.02517204612295749 0.0178864606752089 -0.03997030966607082 -0.1396693767160752 0.1345455300296683 
-0.0007484467909317381 -0.002361919677591263 0.002189497294200234 -0.009440319289101091 0.0180732044450747 
-0.002140793178349418 -0.004758201549959723 0.005603736417358848 -0.002656756449751201 -0.003077380686990747 
-0.0002699629138254891 0.0007514288072847799 -0.003385985444990287 0.007621339447156348 -0.0331754024912052 
-0.002477568831022665 -0.002468601750757641 -0.003045626796641713 0.02063568705398542 -0.00844053334940764 
-6.196765209906179e-05 -0.006895059608151425 -0.002987205448969555 0.009849491538621784 0.02817845696543891 
0.002930638428644962 0.001055481617179358 -0.007354806425096252 0.001156015140504779 -0.01678609025473446 
-0.001147752950290581 0.004873520512826597 -0.006131815517217436 0.01039913488034264 -0.02846789357455252 
0.0003957446467796811 0.001751428409520612 -0.00095219729431899 -0.002286776131576876 -0.003746837714885147 
0.0005004010298901874 -0.0001076800015930231 -7.585249543192346e-05 -0.0005044684087629726 -0.0006180700182678646 
0.000809960159637218 0.002313314235220172 -0.000390048879234952 -0.01094681639622415 -0.01165409379802104 
-0.005060758197830527 0.02164511037349531 -0.0203351790712333 -0.05136841637565697 -0.007158534771461955 
0.01100472889899709 -0.001264110486198094 -0.005499829734250047 -0.01974759577619963 -0.02170833395827335 
0.04969625445852411 -0.02176950408145088 -0.02175910191872258 -0.047507965560472 -0.08572886494273556 
0.0004384132612683442 -0.01652989286381289 -0.04582771389964099 0.1249314543553995 -0.1148594587491135 
-0.000169782410084721 0.01166798675710619 -0.01177419926436797 -0.003518443419436817 -0.05497526715835859 
0.000151609467199703 -4.131154451708533e-05 -3.881869516077915e-05 -0.0002145606113861249 -0.0001206361372068395 
-0.002061035724830838 -0.001238789660342984 0.004951313161827189 0.005171909074582389 -0.02425986775651396 
-0.001500159250645408 0.005808444674456602 -0.018149152743261 -0.0253425366752855 0.01422355011985304 
-0.01626821227835053 -0.0142079136811786 0.01452712762797824 0.05175729146998957 -0.05527741617979998 
0.0004751382237570251 -0.0001308591386123232 -0.0001205370122601772 -0.0005034185857707363 -0.000646825964148574 
0.006330695500654728 -0.007791841597209471 -0.01266124892241774 0.01589466569491188 -0.002305872448773873 
-0.001127968688340332 -0.01187437549230741 0.008032510172528061 0.00148087947080574 -0.005321043776979305 
0.00606165215717612 0.004352518457233585 -0.005428051940903866 -0.01520753544237628 -0.03067957679058806 
0.003466583104089801 -0.0006866630945056446 -0.001759829615407977 -0.00572788383137626 -0.004968335685420316 
0.0009643085684792028 -0.000458718102374447 -0.00046147350570292 -0.003602326477399888 -0.0009657645867045959 
0.01107103967475835 -0.01042365112430369 -0.02663074298256462 0.05165518984190207 -0.06155210566115138 
0.0005876701709644843 -2.595812090562905e-05 -0.0002511759348525 -0.0008594835549033526 -0.001239905531164869 
0.002322097561600885 -0.003835951216555925 -0.000863168235354351 0.00798253442726277 -0.01010497141614483 
-0.00234795347424733 -0.003987087988379959 -0.001576090769030874 0.003276015962203635 0.01721016120428598 
-0.006369180391455409 0.006629539930150228 -0.0118923127850099 -0.03162570675754624 0.04277872656987997 
-0.001591531516712443 0.002141736972580506 0.001009627906472264 -0.006420234032824605 -0.002633536859194731 
0.006163632978667563 -0.01207564006067047 -0.01893986930516971 -0.007973633876735064 0.03094251357262478 
-0.003453406192829256 -0.002830173665998595 0.004875600931959625 0.009977567261280141 -0.005793004967276564 
0.0002210765846697262 0.001365289069732025 -0.001134942948747424 -0.0004470629428175976 -0.006251105585458046 
0.0007157076401968334 0.001515443631114421 -0.001910341326477055 -0.006020185360375629 0.0009191035905597879 
0.004972301445447151 -0.004214044499332679 -0.006779027354012039 -0.03834203165177449 0.04974627516989864 
-0.0004629425771425455 0.0001503825472580671 0.0001017068401710452 0.000360126905937139 -0.002516845380550236 
-0.0005082098749415882 -0.004628083915675133 -0.0008643518852798026 -0.009728796306757319 0.004165236148791977 
-0.004742419486712621 -0.003410154149500712 0.00186606877216463 -0.001424164386045869 2.087020827423819e-05 
0.004116277627320584 -0.003194611498725095 -0.007052729026713346 -0.03123643145524197 0.0449376603120696 
-0.01358726806601899 0.005241035621270386 -0.01050385755448372 -0.06981019061609858 -0.01517862729175922 
8.755414405575803e-05 -0.0001388698729175195 -0.0003744783299425705 0.001908117864383576 -0.001719852249095638 
0.0002393314479312237 -0.0003350464044341805 0.0001886542038759472 0.0009285031462702059 -0.002057488293408256 
0.000182204001408853 -0.0003482367300153974 -0.000348735517529751 4.27110466689148e-05 0.0005201708936472068 
0.0005439542328983464 -0.0005393231434263988 0.001077834976800676 -0.00503545242736614 -0.002737317165778161 
0.0001717917846141178 -2.931932955517714e-05 -2.001221777551611e-05 -0.0001281320216108163 -0.0002068954278161099 
0.0001510017753645197 0.0004327861074277057 0.003612888484627392 -0.02174324835394658 -0.0064947249399424 
0.0006080642260199778 -0.0001549881912576204 -0.000224101748211478 -0.0006160031349490774 -0.0009496227251909536 
0.009944862964619239 0.004777147088110851 -0.00766686588315221 -0.01980446609883108 -0.08506034681907811 
-0.004813398808580326 -0.008353925926419042 -0.01007388814244029 0.02463299406292221 -0.07947826295851523 
0.006885114508631994 -0.01005770555897325 -0.01594673044230763 0.03893253209151504 -0.01643611767601474 
0.0003064370214857475 -6.460868292013266e-05 -0.000114076470286905 -0.000657238609415896 -0.0003471497765344235 
0.001401528287250373 -0.0006442038253465077 -0.001178486554550238 -0.002344618493231396 -0.001709671847883606 
0.006246318434964713 7.354984349987381e-05 -0.0137831393488646 -0.01466069175770694 -0.02577784193864598 
-0.01472417368948089 0.03945236763054666 -0.01014615840082405 -0.1232229822645108 0.009402424802004211 
-0.002759823819742184 -0.005758693649133841 0.005515335506271232 -0.03123531630573931 0.006189177928138776 
-7.709300447208201e-05 0.0009603066431809856 0.001413932838432909 0.0002112411565680083 -0.01087743228519572 
0.00266540811650124 0.002116062232400139 -0.008580068229938981 0.01280932062158461 -0.02638301704793751 
7.732560875793627e-05 -1.031654585972137e-05 -0.0001022232175058146 0.000767429804241218 -0.002045702352690608 
0.0001329947573071529 -8.991465347239777e-05 0.0002074177198661742 -0.0002166183642041104 -0.0005248480555688946 
-0.001378656738587086 0.005003822458349451 -0.005615114053461506 -0.02915794459840667 0.01022169758696991 
-0.0008519126402097884 0.001219238962354435 -0.001858962856592737 -0.003093357962043069 0.0008238007972583123 
0.01389553337915637 -0.01656607925899429 -0.03009494464544361 0.1320348490914635 -0.1463990942489887 
-0.00919128230173845 -0.01672486435901147 -0.01580616121888061 0.0598138502246567 0.05137242231915704 
0.0005060128967144163 -0.0004397021488080796 0.0002178312180411652 -0.002451312253613229 0.001336116078989357 
-0.003483219393547423 -0.02005876597402124 -0.02608371110988558 0.07844483502440615 0.01971550727791179 
-0.0009527889576653849 0.001974165338019154 -1.537030038276287e-05 -0.0002308356498256992 -0.008120097284037755 
-0.0263726661222669 -0.04422952747003972 -0.02618474152242221 0.2867651948283775 -0.1874092579348192 
-0.01919284240087241 -0.03494252054941218 -0.02838146431053209 0.2501448491699767 -0.1655882633193589 
-9.001254037024046e-06 0.004526819673943319 -0.002541001933533427 -0.009098872247682485 -0.008902625115571975 
0.0002106022863178686 -3.934548755995801e-05 -0.0009789583864416543 0.001861713684632036 -0.002611007241464604 
-0.0004887481200717347 -0.00129059270521271 0.0021126834714044 -0.01140702004639266 -0.002876351731179405 
0.0002595170056096514 -0.003211202050643043 -0.0001336661358692131 -0.0002778020266731231 0.006173221862406887 
0.001229573357721833 -0.003381438859984614 -0.002903248210050664 -0.004270704364649741 0.01690462763245942 
0.004154925127383808 -0.001440280548077186 -0.001547833634096057 -0.006399295792296575 -0.007949490267217382 
-0.002228261055622574 0.004074886803673031 0.001545988131435549 -0.01099354675222492 -0.008949732531669486 
-0.007287207922675532 0.003232083004248601 -0.008918394376152022 0.02436751151552287 -0.0214866361422757 
9.297703348525969e-05 -0.0001168089309974742 -0.0001346245908648692 0.0007395369284803354 -0.0006120774386883749 
0.001234409637128593 -0.0003771995922589674 -7.940426067987375e-05 -0.002808609131740375 -0.002248488144643584 
-0.0002235883486045547 0.01036905781562505 -0.002482696197908558 -0.03167216916808144 -0.02129905971291069 
-0.002239946195125937 -0.001343516216461732 0.01047692765908395 -0.01064086516003255 -0.003298962285059481 
0.0003404913131330916 -5.255085245409203e-05 -5.94635289308339e-05 -0.0002597988188018279 -0.0004851764110131081 
0.0001738926480597519 -0.00183314141095572 0.0002152802729249036 -0.01164264021284108 0.007120590343104005 
0.0001806010952565245 -0.0006855360507178146 -0.0005444358596429325 0.001856674797939836 -4.503842157051621e-05 
0.00629410580460565 0.0006792219469301196 -0.02176578235899446 0.005198822922404747 -0.06163556192678254 
0.0002842833460491141 -0.0004527571120697116 -0.0004903763129642903 0.001168927341426426 -0.003096606486053444 
-0.001733019733286149 -0.0115219898984235 0.009396974995784806 -0.0254038192948093 0.04018160507357877 
-0.001228718145917378 -0.0006613974806687076 -0.003317744817120855 -0.0001899767178385402 -0.01694208669291622 
-0.0002774639830912017 -0.0002066228962987335 -0.0006226592805281203 -0.001283100183329373 0.004864803464419308 
0.004538777641023686 0.0005939683410646901 -0.001718883803542903 -0.01890847660636461 -0.01140268742272875 
0.001684337135050919 0.001338340336946285 -0.002589410543630539 -0.01439316425549014 0.001464443521843063 
0.001059403014945996 -0.00541164771791026 -0.01068308062011568 0.00376922281482058 0.007841848656434761 
0.001487390849115257 -0.001711298524194902 -0.02065675833528914 -0.005948107198457073 0.006653622466936228 
-0.001849490020800422 -0.0020010867511805 -0.002418817972717097 0.004581939753538448 0.01307329025515166 
0.006494488489093619 -0.009131926503495983 -0.01024544041690898 0.04545631249081547 -0.03856760477157824 
0.001804418902948601 0.001336479071986058 -0.001885077561571644 -0.02552898425210051 -0.002121999128312081 
-8.617214392800276e-05 -0.0003507509177884125 0.0002158412479718768 -0.0003546941565139207 0.0002956276864315035 
0.002709551719459139 -0.0007155061885776556 -0.001235898233087824 -0.005919898985313979 -0.01462534025932415 
-0.00169152635697638 -0.004741732811961591 0.0004758674953289165 -0.003383779141962352 0.02799560099257377 
0.01521467039114246 -0.00524353928880632 -0.007285957213457075 -0.0177908235352892 -0.024740910250565 
0.02143280332255127 -0.008599595431831126 -0.01053491533625242 -0.01998159127326066 -0.03627839969817248 
0.01615194659744353 -0.002450726589817714 -0.009858618329547682 -0.02163409440470597 -0.04016438829520592 
0.02800080101731922 -0.009440013517946684 -0.01080156934073865 -0.03668387533627081 -0.04647833150863633 
0.001594652629748767 -0.001938543432545377 -0.00189291112377837 0.0005355235695979691 -0.0009627174354027262 
0.002663606799359152 -0.003247409278656723 -0.00666156736877138 -0.006152095788811087 0.01215686986205783 
-0.02134225090008995 -0.002117224249724376 -0.02413679469841548 0.04379258132887773 -0.05010418501372161 
-0.001672899585923212 0.004283723066722815 -0.01221185450083941 0.001618780632077945 -0.04567532023410496 
0.0004280523297069428 -0.0004757924545711144 -0.0007019429789379099 -0.0002435088478988236 0.0001584416831179705 
0.0001378202232057761 0.0001230436861998387 -7.504052162514747e-05 -0.000393430502969783 -0.0003952465291177784 
0.0007669953909329041 0.0004326614710180372 -0.0004881513246883821 -0.003159327102896494 -0.0009499844774944092 
0.0001781341382932914 0.0004444707740490847 -0.0005158243524577707 0.0003528169607899286 -0.003195339514489092 
0.0001413688446820652 -5.016908221680837e-05 -6.505486357508681e-05 -0.0002633042243606034 -0.0002206008939377463 
0.00838377168345235 -0.006473807963012064 -0.01236043579848843 0.02291530314435582 -0.05360720783351189 
-7.418368150941759e-05 -0.0003697127956760631 -0.001010398437325236 0.0006511475030507929 0.003498317851182679 
1.200419803514577e-05 -0.0006919215156308145 -0.0009932516187039567 -0.001901374305761831 0.004856908545090202 
-0.006602745643898515 -0.002029412153275319 -0.003848204015363371 -0.04094218696664077 0.06892267973399312 
0.005417622031540955 -0.002208537010478077 -0.002013343163774381 -0.008074533920929224 -0.005603331966923994 
-0.0004899329307076563 4.250626247094095e-05 0.002542605564745825 -0.006807499773740489 -0.0004709961990499791 
0.0002577836183658845 -0.0003312713058466889 -7.196034571000779e-05 0.0005942253163580181 9.959484130967494e-05 
0.02844515295339657 -0.01458835939051607 -0.01639143514903965 -0.02785440709710945 -0.02568060115908536 
0.0006753929589913616 -0.0002814390999809801 0.002420441095675604 -0.006138620755478434 -0.001893957902686136 
-0.0003014350642091276 -0.001672854549684831 0.0001379281886143109 0.001612412488774463 0.000397717377532278 
-0.01776199644921617 0.02044907560409378 0.0097829302463788 -0.0524313548300738 -0.02262287527955481 
-0.003460450643973247 -0.006208029274244085 0.002730283374060489 -0.01781942876048663 0.02153901320394591 
-0.0004264297268688266 -0.0007914042074372497 0.0009712983131078465 0.001105606262787881 0.00120658326584998 
-0.002409487832544154 0.003322632894058217 -0.001521845541096897 -0.01217549848311905 0.005791104856084289 
-0.004759374021868358 0.006001141605898022 0.005088068550323895 -0.0245955335495357 -0.01328021758431748 
-0.001264226256786533 0.005546818968357426 -0.003584042156518085 -0.01951291115795802 0.004890999675273585 
-0.0004337381100330325 -0.00320547915184739 -0.01750302559507456 0.03384474540566765 -0.01544303360712533 
-0.0009272571556407385 0.003748098609405471 -0.01695646669087056 -0.06761710099896061 0.06606176599080062 
-0.02388292688871945 -0.01355965195030321 0.01681658750106978 -0.0907989946190584 0.1362910329882649 
0.0001381311438879745 -4.278448351641454e-05 -6.149093274080104e-05 -0.0002998805687814099 -0.0001775502494389415 
0.0008079616390898366 0.0007266954858675356 -7.500464420801473e-05 -0.005165501900737676 -0.0009199964039518521 
0.0002579664543200645 -0.0003636169839769428 -0.0004143909766813447 -0.00291526590042734 0.002792948958417838 
-0.0003827864707760684 -0.000725011372320301 -0.0006114179014065619 0.009625556850311686 -0.01165361928171151 
-0.0005250628277233916 -0.0008920365885757322 -0.0008020027885528228 0.001229532915608069 0.002191017521313586 
-0.0004323006967191025 -9.700706830087531e-06 -0.0004793538561091495 -0.002434423277241974 0.002636599634239142 
-0.003028928386335611 0.008246925508804773 -0.006843505509521244 -0.01740061516815721 -0.008058367449870618 
0.00250470368439151 0.02021041270169772 -0.003568085900469118 -0.05347838997522006 -0.04920736272658489 
-0.001005559017938336 -0.007383769595175982 0.02904785556949564 -0.00722102928003618 -0.05116360200625046 
-0.003069966401315514 -0.005434360731433002 0.03483784692457414 -0.03202375418078351 -0.03457894630861622 
-0.0007449075526095856 -0.005218608970604817 -0.01289086753278917 -0.02698379263167962 0.03611904247159658 
-0.0002358243070702207 -0.001090042036376859 -0.00190209416853654 0.007405367452474691 -0.001172830060084367 
0.001996243764379861 -0.002323736131392402 -0.002462920480474222 0.005494113331509518 -0.009487331182718235 
0.0001272123076600903 -6.233649046855791e-05 -8.656721714014621e-05 -0.0002801641672162093 -0.0002758181228391019 
0.0001272123076600903 -6.233649046855791e-05 -8.656721714014621e-05 -0.0002801641672162093 -0.0002758181228391019 
0.0003711369222898168 -0.0005124837300410649 0.0008050910721607132 -0.00347045806743334 0.0005447342108930562 
-0.000345738196805801 -3.864700911334846e-05 -0.001531575722269265 -0.000718156034360566 0.004464868970223318 
0.01541360110891329 -0.004380306455282619 -0.008194112975320002 -0.02251665719602236 -0.02938174053471908 
0.0003505792315226401 -0.0002173178069067047 -0.0007117034960518532 0.001415796900637544 -0.003128389060930804 
0.0007521176702821953 -0.0003887033266679661 -0.0005448402863100323 0.0001938868671862597 -0.0007552923970587884 
-0.0001360567249706958 0.0003516659637840206 0.0002659455474798114 -0.001768143898602197 0.001926565902533865 
0.01501123909393701 0.009452616548460462 -0.04437522800936258 -0.03137825350514528 -0.08722994854372589 
-0.0005006689610667811 -0.0006650551650073077 6.295520598291155e-06 -0.003752579328058643 0.007252209520790464 
-0.000335890933555154 0.0002190540453891045 -0.0004164131444963537 0.000212492981863646 -0.001476548881819416 
2.763333276538077e-05 0.0001711560862669967 -0.0002390028075071714 -0.0003416200257983137 -0.0002057017456274599 
-5.232626661622252e-05 -0.0001169766480929865 0.0006426423279899044 -0.0002645435157957273 -0.002041514554881259 
-0.003791504422318638 0.0004193014257880025 -0.01229064757905878 0.02755561322641891 0.0439560864743549 
-0.0002950551498780087 0.0003183112414162901 -0.0003507711484580264 -0.001360078252727144 0.0008676941825687634 
0.0001475689825722657 8.679708507115058e-05 -1.38591715051807e-05 -0.001014041513761386 -0.000525464438241249 
-0.0007097634409486746 -0.0001165795963464321 -0.001225952176784934 0.0003077508017236513 0.005324588437170328 
0.0009422858736266316 -4.941906851373814e-05 -0.001033893263785246 0.0004462165283171245 -0.005284466618772118 
0.0003079203040808365 -8.606794319161806e-05 -0.0001111727232212281 -0.0003875081301427761 -0.0005186537663844751 
-0.0002529399031114813 0.001127320958078039 -0.003354828100876024 0.002657717190149205 -0.004156961683264086 
0.0001733229635256251 -0.0002137229920071796 -0.0002965726897308543 0.0008495968072118027 -0.0003269363138361888 
0.0001696452018145615 -2.652345081885167e-05 -3.107646299107616e-05 -0.0001805229358637079 -0.0002119441915455694 
0.0004664448053686524 -0.0001643560741924244 0.0001688623593245857 -0.0008840772639522843 -0.001956268163765003 
-0.02124967850254863 -0.01263528466727314 -0.001868694181563431 0.08557087189720478 -0.004369897016922306 
0.002571513547989333 -0.0005203415774878173 -0.000558989005968762 -0.004534413033559849 -0.006705930858046853 
-0.001706385411765546 -0.001871571707405742 3.88416885388191e-05 0.000640419223528451 0.007510717279716616 
0.0002570019445953916 -0.0001626258793472344 0.0001438833388680814 -0.000537473567537143 -0.0008077429158835119 
0.0001955437661442873 0.001302696421744422 -0.003759116499169649 -0.01423942493043404 0.01372482386036485 
-0.01262683404056539 -0.002744308192796388 0.003706689720939838 -0.04693024611580977 0.08386057724432543 
-0.002574191216816507 -0.009388147687053344 0.001601263592238389 -0.002055538849921983 0.0256036165278929 
0.0002421232399412936 -0.0001742743941914796 -0.0002033527793904614 -0.0005932679746788572 0.0001301645309204706 
0.0001729630155666154 -2.026118816309218e-05 -2.341096378251492e-05 -0.000189068826415808 -0.0002410137244504521 
-0.0006794422583938944 -0.001687727403334627 0.002113331472204867 -0.003125765920916737 -0.002038869310268174 
0.002067354800962202 0.0006183135740836827 -0.007322884776543099 -0.008678146097177972 -0.01272508208270515 
-6.858833643344038e-05 0.000317510754853957 0.0002182245084421378 -0.002206617986525783 0.0002942154991150627 
-0.002784529683225693 0.0004307655060482763 -0.0004494549374162631 0.00435690877413543 0.001823831306101823 
3.217926765737517e-05 0.0001358184807855435 -0.0002210352399990888 -7.454167199299906e-05 -0.0002140692077506882 
-0.0002058063442186022 0.0001148857355005148 0.0002340293009031102 -0.006196846535862308 0.002026012271484719 
0.0003002320656318028 -1.307110484076573e-05 0.0002803366767839658 -0.00182543154650585 -0.001639456490382818 
0.00156041049310734 -0.005840032475110095 -0.0003232885505982179 0.01179198439369972 -0.001947282191155424 
-0.0110864068608498 -0.01048260452901609 -0.009708806363521869 -0.03843369779820247 0.1647116169233417 
-0.018750914184213 -0.02563366857893717 -0.02939128462997649 -0.03398039931333129 0.237490126013187 
0.0002665220490979404 5.647143602149731e-05 -0.0001702097030706925 -0.0006483523498998343 -0.0009087641424892646 
3.673218058285813e-05 -0.0004030755590413725 -0.0004611289236360289 0.002038893394852116 -0.0003360946135708331 
0.0001672161778069548 -2.947680428692384e-05 -3.790164627248318e-05 -0.0002019528807122384 -0.0002447847323300182 
-0.009098478966339894 -0.01229428850385416 -0.01781764739197236 -0.1039692844856653 0.2375648458475646 
0.0001033812173076956 -0.003959387299459179 -0.006367752472083555 0.02744103567023476 -0.01587234818547846 
-0.0003012634111573507 -0.0007252912516116483 -0.0003727871063226512 0.009605328701268095 -0.01505829192865059 
0.004235905478812551 -0.006609402864921628 -0.01899308242800096 0.0257969719687185 -0.01332536790923285 
-3.363840851654299e-05 -0.0002027720419899189 0.0002771942967925737 0.0007332271860582252 -0.001381466033892757 
-0.0002018679574094188 0.000295015185810224 -0.001762913638603779 -0.000277943014384727 0.0004947050919409996 
-0.001836159091923184 -0.0006898480886653577 -0.003117832362398471 -0.008871389311425623 0.03052509728652898 
0.003314145877220727 0.002014606043946609 -0.009608711619275274 0.003956369117364853 -0.02663293999149757 
-0.001986712238806763 0.00795750723024677 -0.003401541560582675 -0.02160958287106931 -0.006077063884183964 
-5.364852324497935e-06 0.0001493515816158999 -0.0004956610823607795 -0.0004427613346264281 -0.0002223121570279576 
0.0004215176796662852 -0.004817512916819252 -0.005010110370900791 0.03273815495511572 -0.01926999925214573 
0.001493583834993605 -0.0006568936127699797 -0.001033218231131533 -0.0005036041750359119 -0.002499801202959263 
-0.003123423226857182 -0.00634191647867692 0.02495655688651133 -0.0425942938752232 0.01685935897999628 
-0.004908768241229809 -0.01804561003535844 -0.004680726395602513 0.05809676704606155 -0.03255869172014194 
0.000116975850582684 -0.0005439788803948079 -3.069101250993611e-05 0.002226387177627273 -0.001854271413038447 
0.0005599314171268142 -0.0002488835452506735 -1.805729746705383e-05 -0.0003116619661047786 -0.001564335594052338 
0.002344551803998482 -0.009708246420878195 0.005899320849405913 -0.03157638004448353 0.02574401349847934 
-0.008420360887890827 0.01104256652295148 -0.006399791578003558 0.003770569750860493 -0.03534011216577506 
0.0002679570414306198 0.0004992379291538339 0.0008264071477809041 -0.003738696701419795 -0.001843151622775508 
-0.009354772528954457 -0.01544418688829418 0.03330346301597104 -0.048281256961695 0.01988439052941685 
0.000403412696076937 -0.0002075796646845966 -0.0002535029473316871 0.0003871587472389803 -0.001191143006609547 
-0.0017284063379425 -0.004225184233237219 0.01093804267862046 -0.02187997022368717 0.02093872093117655 
-3.372902743411378e-05 -6.90997983277221e-05 -0.000311524558917814 -0.001104906556842845 0.002362442407801882 
0.0001019226229875128 0.0001013756430441831 -0.000120751384969011 -0.0003793525053465019 -0.0005191211565746781 
0.0002984475513417348 0.0008739888209550063 -0.0003525323936964486 -0.002082488225900612 -0.003509563804678001 
0.001205044694180378 0.005660967710225259 -0.004239449474425577 -0.02481259471355515 -0.004183815354735521 
0.0006086436186880788 0.003612604406645881 0.0002006252909407205 -0.02037753834745919 -0.002821008966909365 
-0.006628580966083688 0.02121198436932618 -0.01477996927251204 -0.1465971784928061 0.04714924009221774 
-0.005448943919684685 0.002633704980896925 0.0008680255592902919 -0.01798342999003525 0.01159185350522399 
0.0002339965494662273 -0.001473761128886295 -0.001496929256777724 -0.0002333886343473413 0.009934516271394651 
-0.02594336592856234 -0.02476400184805319 -0.01565266706794154 0.09846257539317269 -0.01188341949296591 
0.0001638080977200829 -2.122522864587292e-05 -2.593388863511177e-05 -0.0002545502329611352 -9.972187343335494e-05 
0.0001561684196809631 -2.443762577205534e-05 -4.112905802845215e-05 -1.300593361708686e-05 -0.0002269288004532334 
-0.0004953785880991247 -6.375478845227477e-05 0.001656678334065145 -0.003338141484140585 -0.01403326175929867 
-0.0005774153281209725 -0.0004129910682791833 -4.176568669786059e-05 -0.008055470863698533 0.007335163614437463 
-0.0004968318840216864 0.0009083366359461678 -0.0002468729089980486 0.002462376324501805 -0.003640658913245782 
-0.003012359464744523 -0.00918248666892881 0.007258872703126068 -0.01099852978316728 0.01955541431300466 
0.005419217193696034 -0.001884501815567757 -0.002152635175047751 -0.005575977337021266 -0.009644120363590023 
0.003578253765818385 -0.004360406242904719 -0.007511341961875529 0.02598098321599983 -0.02783502061563245 
-6.62315524499653e-05 0.003920675333477341 -0.008757057018399659 -0.02553682434002628 0.01895828424777444 
0.001278486395318096 -0.001767427432795599 -0.001201583275778173 0.002505917386293501 0.0001567379805434176 
-0.000131084078028943 0.0008249500412987695 -0.001080740685208961 0.002891062348084065 -0.006607220379929629 
0.002107805211578938 -0.006139345397056655 -0.006177647069966931 0.03181232943941953 -0.03036715044891191 
0.00285767584156385 0.0001932541144491498 -0.002565255242784156 -0.006464140968820221 -0.01467646551709637 
-0.0001293377494805729 -0.000227779684833373 0.001108391642163031 -0.00131321099977885 -0.002346494064749217 
0.0005570937843025113 -0.000343822567347012 -0.0001972598132229085 2.986299882166135e-05 -0.002966501909855485 
-0.004948145098862064 0.00824131928995959 -0.01952476796656409 -0.04373068421128166 0.05496957687855703 
0.0001326177065519483 -5.988057698756803e-05 -7.34320208718481e-05 -0.0002259919912069221 -0.0002679977796255677 
-0.01536360931154108 0.007086316802812474 -0.01136726165205606 -0.07327120135770571 0.1011932185110413 
-0.0001372286748476759 -0.000986507240478666 -0.0004298670869556413 -0.001411558355028867 0.0087582583006114 
-0.005107348744140511 -0.002009364519229475 -0.001815653755613692 -0.0001844644676497435 -0.0003744954852327234 
-0.003691910530285418 0.0001674584589029328 -0.006441519365364449 -0.01352742955874747 0.04237559212052967 
-0.002892144230092739 0.003393633127673105 0.001870985043588997 -0.01225519604486599 -0.003401537778153173 
0.0001463317123776922 -6.104979531555319e-05 -5.07734658582118e-05 -0.0001351483154475932 -0.0002620921394857405 
-0.00032319314400769 -0.0006097821589705999 -0.002823359904204424 -0.004040031046974447 0.01612445049314914 
0.001304280706979406 -0.0005230625367421376 -0.001063673461933799 -0.001407198963301994 -0.001774142638733293 
0.0023452483496619 -0.000323652188745353 -0.001401994784803875 -0.005236132496036609 -0.002155968647103126 
0.0008454561091301533 -0.002374934642309479 0.000189477621929769 -0.002639359528496786 -0.006796732464176687 
0.01093105331474984 -0.003214919583760385 -0.002877770388532404 -0.01926574734562735 -0.01851807975732524 
0.001713989501953514 -0.001339199268537481 -0.001887552065914201 0.0004232532492511175 -0.007851757969974907 
-0.003522586815482166 -0.004495987949699659 -0.006748557480691754 -0.005023616774141113 0.04585742502646108 
0.007000646463427348 -0.01090863749183026 -0.01182797496008518 -0.01346103847805714 0.02199030718378253 
-0.004218358008367155 -0.003516164566989644 -0.005374698916365927 -0.02082960754648661 0.06824906702169883 
-0.001141880202588461 -0.004002192399006888 -0.002323675854833733 -0.02328887171950856 0.01866740721107638 
-0.001219320635949001 0.001410969130686548 -0.001378414570633808 -0.01036763771118905 0.01135742857404073 
8.105042568941313e-05 -0.003011923280765663 0.0004640915815905644 -0.008091376146740272 0.01799200656807488 
0.003776656220764481 0.006818182232539719 -0.004272815860795128 -0.02120713758536356 -0.02685993406289312 
-0.005052195240596391 -0.003418487797736747 -0.0002916172196140422 -0.001183559561565781 0.0162368937019273 
0.0003129457220525064 -7.976289102919009e-05 -7.099180365488896e-05 -0.000318734264663277 -0.0003978989263852341 
0.0003469251180174631 -0.0003709691848037497 0.001338368072994517 -0.003620531213985088 -0.003243449949044372 
0.00074472561460296 0.0001876905127564398 8.602995957975803e-05 -0.0005303762531440993 -0.002707000137342729 
-8.139800283820121e-05 -0.001467044558229371 -0.0008632955334610044 0.006127534896439497 -0.004394783669128724 
0.0001484716287235879 -5.346044228193315e-05 -4.837142412932979e-05 -0.0002278325508544534 -0.0001749304212607959 
-8.441827351348903e-05 -0.0004393503049337098 -0.0002869925664814232 -0.0009095337313056923 0.002611737466267411 
-0.003322103866786076 -0.001778177199760809 -0.003974283293956968 0.01181814939479415 0.01582785661282447 
0.007837376146203624 -0.005273636990117017 -0.005122666071139897 0.002409905134887284 -0.02314052416408287 
-0.00691725068957198 -0.004718732138796226 -0.0003524003299844238 0.0166442972019205 0.007776947891415687 
0.0002041890834312657 -2.640980685824324e-05 -0.0002228639699471648 -0.0005453228646286965 -0.0008930858000250622 
-0.004735131895572664 -0.002088120264694533 -0.007800245180460752 0.01087501437861695 0.006374438410623781 
0.0008256517824215934 -0.0002315302293525521 -0.0001282472554397803 -0.001028347293433797 -0.0007549332841380632 
-0.001725528973195691 0.001853917380627863 -0.0004715577771142456 0.001104455694620702 -0.01021752183450573 
0.0002770058328440399 0.001106904946829225 0.004186649371840129 -0.0002578778983698006 -0.01920640077535385 
0.0001615942019100769 -3.463968692127346e-05 -4.437082110051009e-05 -0.0002158222451340188 -0.0002359423744860886 
-0.0008281728754509411 0.002645853956061473 -0.001482850087707347 -0.01193195348545086 0.003132988581929706 
-0.006523241268024112 0.00371243755123832 -0.01223067180514819 -0.0179622705449595 0.01814521305520345 
0.0001615942019100769 -3.463968692127346e-05 -4.437082110051009e-05 -0.0002158222451340188 -0.0002359423744860886 
8.10771451798347e-05 -0.0001258123752438091 -0.0001521519596229016 0.0002695186168439737 -0.0004949323725536154 
0.00026654459427817 -0.0003836024682069644 0.0001776170893451266 -0.0003266184096205335 -0.0002280022468933623 
-0.004794495399454772 -0.006396320935190717 -0.007199215284417099 0.04889707791626088 -0.01468827428966419 
0.000133319790735628 -0.0003719077771342069 -5.058839011209748e-05 0.0003132306499327233 0.001337191113293262 
0.0002906404401791341 -0.0004002807218657587 -0.002346543496705816 0.0007655798375685171 0.004499726244075206 
-0.005919758575555207 -0.0043838122282508 -0.002263554856111519 0.02050214541426195 0.006492548830636162 
-0.000349694864942405 -0.0003267562178202571 -0.0004337640555787846 -0.001362071702367284 0.003929149944151248 
0.0006183562878187704 -1.416970704203824e-05 -0.0002016630593759488 -0.0007306857588656487 -0.001336771978196327 
0.0001700006392778561 -2.807481923422426e-05 -3.494386357807267e-05 -0.0001832105340487989 -0.0002269731564224199 
3.457937008338118e-05 -0.0004803391732338302 0.0008542411633303066 -0.002335299332710023 6.43811916674985e-05 
-0.0002010746261790637 -0.0002431749735203597 -0.0005801929222824896 -0.001341284408851999 0.004293225607779992 
0.0002694644159520916 -0.00016848223613773 -0.0001366500869030919 -0.0002233349946060566 0.0005480473734791997 
0.0001109842980178899 -0.0001114976961083938 0.0002006865269870624 -0.0004390230631023417 0.0003597893492141281 
0.0009875188100011291 -0.0003538029822039256 -0.0004816098945880578 -0.001415256945442682 -0.0009108848896143814 
0.0001277155574447909 -7.234130499292785e-05 -9.256318718053687e-05 0.0003271495746980393 -0.000579104152540374 
0.0002916020161044304 -0.0001149487878293777 -0.0001243787007521468 -0.0002618032035108466 0.0002248160772238446 
9.728237651579103e-05 0.0002610821401307409 -0.0001372166308661829 -0.0004831493343084241 -0.0007303103940975133 
0.0005702798473688962 -0.0002227823897934311 -0.0002749536540044885 -0.0005564380534482816 -0.0004212542710439689 
-0.0001843107585575805 -0.000390905775949054 0.001262677735379691 -0.002792464513175306 0.003549484804827583 
-0.00380505685703309 -0.0004393641809137636 0.002442452043485144 -0.01202267641839704 0.02144821659998123 
-4.953382457603597e-05 0.001288644883462112 -0.0002700334708332408 -0.002761414432945411 -0.003458897799453202 
0.002382286408518865 -0.001579705746865997 0.001006246008879058 0.001629560246550966 -0.01142484616585033 
-0.0008988972806774208 -0.001224723502671526 0.001773852196465195 -0.007636819266493068 0.006298143909449178 
0.0007446010757990807 -0.002310762977484734 0.004642499266576984 -0.01712570789035371 -0.0007247673261327077 
0.0003114719853356411 0.0004140471181899068 -0.0003467739062526549 -0.0004669666890008291 -0.002081393308328689 
-7.801961622372716e-05 0.0005268390484909164 -0.002824990607231991 -0.01735862116995303 0.004925499462610721 
-0.00180131199303468 -0.003084632796535392 -0.005780431013159131 0.002982473365825993 -0.006659207900278787 
0.001030581201088112 -0.002001331690210897 -0.002924274525712418 0.01111643853336038 -0.005756097545966438 
-0.0002351713470740429 0.0005929842030104754 0.0003855143061195532 -0.00120394189461641 -0.003460494543793227 
0.000158102144337985 -5.450284558314426e-05 -3.931878545484056e-05 -0.0001145581838790578 -0.0003096637269536261 
-0.001112688889490423 0.000727175259763582 -6.337546070610844e-05 -0.006730504172827282 0.006229320851753802 
-4.558053809820137e-05 0.0002139769101443027 0.0004823243309529494 -0.001121015180903343 -0.002127431012236855 
-0.0002763936173034311 -0.0002138368961864638 0.000545179697266351 -0.002723411323987371 0.007467037088560126 
0.0006324548868741816 -0.001865922417799814 -0.001506056383831402 0.005670539690006114 -0.003541256972836205 
-9.339157407949255e-05 -0.002063845534114738 0.004606131894071303 -0.005365920480311339 -0.0002056725539741692 
-0.002946607404705074 -0.004011841347105399 -0.006429578789106185 0.02529167975492197 -0.001388159221364154 
0.0002328514720824485 -0.000217305995235366 8.640538282200433e-05 0.0005274744921238406 -0.001058659625829517 
-0.002219034432639419 -0.004013972074215885 0.005660476381288624 0.007173735094380461 -0.01965322427404864 
0.0002948186111642374 -8.978227841550962e-05 -0.0001178638966685398 -0.0005320483951902959 -0.0004877812565827722 
-9.397050584003835e-05 -0.0001695324110791552 -8.229839128066804e-05 -0.0002905345996522638 0.001971666039288356 
-0.0004720379800287777 0.00178634269480024 -0.002457807949804667 0.009322434102389884 -0.01737113185271474 
-0.001153068743368146 0.00245967937062059 0.0004815819835982054 -0.01073749491912905 0.003879196860412364 
0.0005331775045162265 0.01058476634408261 -0.01296036622593931 0.002727427883456924 -0.05315001265745065 
0.0001283295160420927 0.0005119025525873449 -0.0002963957203344238 -0.002081280391790126 -0.0004453343292146153 
0.0007729953387898853 -0.00034483910729362 -0.0004474697588115619 -0.0001173029676986575 -0.001817699766242253 
0.0002756500384946959 -0.0001025435862177386 -0.0001418161970486636 -0.0001593089756995681 -0.0006096292921919167 
0.001880839073463799 0.004454014759760932 -0.003051437954390371 -0.0115953509428067 -0.01569443537152545 
0.004350931734101704 -0.005997622446867345 -0.007701365271294518 0.02377695532100459 -0.02524154632375215 
-0.0006602462943457061 7.126737557279292e-05 -0.001131244586605283 0.005543914923501882 -0.00184569407570705 
0.001956872281614217 -0.0002586195798973314 -0.0002883292464381094 -0.003686726713017914 -0.004572158607654785 
0.0008924216879149058 0.0003372610274865111 -0.002935115988981312 0.003990975101218769 -0.01427037820129778 
0.001255677324879358 -0.00411577758327732 -0.0006792521494005711 0.008526117329955906 -0.01789049564598895 
0.0002695348498536033 0.001423724118724461 -0.001604958901118788 -0.004539548389553626 0.0001685641805758562 
-0.0002508586372066718 0.001678849216229055 -0.00132771779514568 -0.001072408842766252 -0.006484961353421905 
0.000427232379613835 -5.550499057492896e-05 -0.0004291719025685977 0.0008895972535291799 -0.001936079860153523 
0.0002875870838556981 -9.772391937099597e-05 -0.0001287605359250638 -0.0004112437311982414 -0.0006186420880450613 
0.0001158654713344693 -5.515259957688857e-05 0.000188633875506435 -0.0006918950632613633 -0.0003576107473067457 
-0.01157466452834437 -0.004985239040907352 -0.008030032934855508 0.01101453986866274 0.05947043285341466 
0.0004187874124999783 -0.0004823043384890769 0.002479974098666413 -0.003087039912634048 -0.003638532496661736 
-0.004556709225252376 -0.007220099634955329 0.0072184033482109 -0.02352784528964727 0.04544678289120702 
0.0002942896085176152 -0.0001099535629636657 -0.0001205919570185848 -0.000409972283279364 -0.0005366811626104327 
-0.00124882624959184 -0.0004101785504211105 -2.331760670331543e-05 -0.004009797437613183 0.009010346540219398 
5.482892551225244e-06 0.0001883470020227729 -0.0001529533333680476 -0.001096142706704168 -0.001994968716049489 
-0.001235224045728088 -0.001805513570927759 -0.00143582308362731 0.008202367076375361 -0.004753898860109421 
0.003043802268400607 -0.002037677653388718 -0.002884483686191602 0.003573472237185779 -0.01235037708286987 
-0.001627356308340785 -0.003059430710179758 -0.004270876675256425 0.02762912643972447 -0.01285361420051155 
0.0003210068711448268 -8.921338596882223e-05 -8.777651182493319e-05 -0.0004781392640733871 0.000164953898178566 
0.002194049749992256 0.002424519065301912 -0.002484077535278124 -0.008526402888558778 -0.02263564591400011 
0.0001815438072220554 -0.0001174365820686716 0.0008977345805599264 -0.002121114729709013 -0.001248482572925597 
0.002838672769877245 -0.001554617337210687 -0.0006330653494134381 -0.001339920943195975 -0.004840925999120271 
-0.0004242923915858968 -0.002349135000650019 0.001982564640223977 -0.004879255478938289 0.008306018005073187 
0.0009790862991567212 -0.001097728649014977 -0.001066868673366125 -0.005353808344910694 0.006603388986805709 
-9.274632309049722e-06 0.0003606737457982142 0.001590106123013995 -0.00108503392208291 -0.003603636909244248 
-0.0009051832869741664 0.000172760764799211 0.00121177843739946 0.001752872459006651 -0.004949764482941389 
-0.0005467465471184567 4.734469245131409e-05 -0.001192718281897 -0.003437108544588015 0.008802442741390989 
-0.00686688667008332 0.001896953061041116 0.001512638349644672 -0.007367814812818144 0.007086616191802612 
-0.0008876850841804718 -0.0019204906897 0.006512235713267397 -0.005835391012896886 -0.009549895442964241 
-7.758534232304828e-05 -0.0003608106243631956 -0.0003480918267758278 0.004853843203730931 -0.003400168039446472 
0.0003960944702713655 -0.0005023562411951229 0.0005843630094214268 0.0004660797133887418 -0.002168157031097229 
0.0006400860043407417 -0.0007270366194746904 -0.0001414649212999712 -0.0003610818743315714 0.001336599646518225 
0.0005180013871243321 0.0001452560229486924 -0.000722719418077047 0.001833609755059107 -0.003840218852563839 
-0.0008967442987890702 0.001933599920366528 -0.0006306744683334813 -0.003608826549660083 0.00027211467555092 
-0.0009490269090172682 -0.0001908512946199744 -0.002614790526500325 0.000726917649609677 0.009766422260793769 
0.000171021856509855 -5.430749811841583e-05 -2.905974072929295e-05 -5.89074828112054e-05 -0.0002246533330971963 
-0.001147509789386327 -6.884411113959486e-07 0.000908829424853839 -0.002241542562122689 0.002235376319306701 
-0.002505008196285693 0.003523455371752988 -0.003295593240221465 -0.007465226717577181 0.003548493525188614 
-0.0001257664864683903 -0.0003748448560046204 0.002874502282721905 -0.002771359354221738 -0.002291277073948036 
-0.004386609851400187 0.006391354331155944 0.004981963060713453 -0.03289796543000034 0.005903497577081061 
0.0001425782679461965 0.000416302997361915 -0.0003069285137778797 -0.002801027554479363 0.0002768934451814202 
-0.0008059863442749671 0.001245478192590215 -0.009994025086127831 0.0108535975489033 -0.01143894410822026 
-0.001771125689914965 0.00203257209039785 -0.003722014009717275 -0.0004892226577785674 -0.005466799942658242 
0.001260834636237782 -5.774249321443342e-05 -0.0002473082603017527 -0.003523289267921654 -0.003963910867022478 
0.002571603952717548 -0.0009437701681801278 -0.01328333829139317 -0.04161451820167848 0.05313952157252604 
-0.00781888562026885 0.006871742977670109 -0.001657277046972079 -0.02773305571615513 0.01738522628503264 
-8.979713500438807e-05 0.0004316987860160618 -0.000374405487951411 -0.0004115419524282648 -0.001709736927239033 
8.872142752918602e-05 -0.0006659768391716086 -0.001178321128050048 0.001490047281934435 0.002518630373656448 
-0.001529360376113851 -0.005088502937032309 -0.003588241971159633 0.01580190205774419 0.006071264260202829 
-0.0009885584642341009 -0.001597612608773632 -0.003576415340631073 0.0009154202197291807 0.01239050778880522 
-0.0001303211218099404 0.0004421265567867179 -0.001479762855751344 -0.0002573246442010296 0.003039522491655127 
0.001048352137329107 -0.000909067627787458 0.001808650756778686 -0.003392073727828749 -0.003102576430261089 
0.001000165122703874 0.002363414796163838 -0.006810714333707546 -0.008125747404854364 -0.02378129853409136 
-0.002302185638985354 -0.005153446159349281 -0.006260644679928285 0.05199578605365921 -0.03627426289772762 
0.002364412242503463 -0.00160144027084196 -0.002394202301507196 0.004331796649632512 -0.0135477338705179 
-0.0006630115322349788 0.0009849146246909725 -0.001441184681836552 -0.01014094512065576 0.005660180252039343 
0.000541115526535199 -0.0002476258876968476 1.375271046917685e-05 -0.001244506808251208 -0.0004766058981580805 
0.001733612386446088 -0.0007192161799086608 -0.0001681450819386385 -0.001941539279588456 -0.003342603066933312 
0.0004138870459572021 -0.003683806301765617 0.001229763233720804 0.003594526690305849 0.001880438929366634 
-0.000137536697187984 0.001112775414373961 -0.0009117382899987311 -0.003493055870908325 -0.0004106562244840117 
-0.0001059312983126917 0.0001328388198945748 -0.0006122688869974967 -0.002120467752531817 0.00172910685234807 
0.0003852944344694956 0.0002615102836413556 7.534423252194099e-05 -0.001601887870100809 -0.001006781022018471 
-0.002639424983047245 0.00274119043338686 0.006585109790153453 -0.008328513595468538 -0.02126444869352314 
-0.002274615672928715 -0.002035631455787551 0.002068337574330195 0.001827245512882723 0.005491450435303588 
0.008456086736298617 -0.002797137578890936 -0.003217518928735931 -0.010983039612742 -0.01087180856920021 
0.0004074197057462741 0.002405651240413132 -0.0004507378625527469 -0.004051530570185175 -0.0102545437508673 
4.195568278170718e-05 -0.0001410274264318805 -0.0002225524839515537 0.000454863249207516 -0.0006814597199909349 
-0.002239985930210755 -0.0004955568017101747 -0.00260162204691227 -0.02049532627879807 0.03160509550130724 
-8.083510268640397e-05 0.0006128090231909285 -7.854885215609342e-05 -0.003895710992567839 -0.00964309920761856 
0.0009850648052228386 -0.001284980841277047 -0.001238116705301907 0.00127581114622258 -0.002396093020856495 
0.00150658331256404 -0.008723328486084116 -0.006952875216448601 0.06085753167109933 -0.03667273989328916 
0.0001330605507432332 -5.037785639330499e-05 -7.620727376628836e-05 -0.0002885509710537948 -0.0001934601858504141 
-0.01184415333155121 0.001598675850711678 -0.009475468480601625 -0.04060434770404626 0.05597061652749611 
-0.004092531694170086 0.002438601423197156 0.001178745207930971 -0.005234306973538985 0.01137408483884252 
0.0009156558931249727 0.0007800949953696568 -0.0003420967917708173 -0.0006955580018586951 -0.01620509634783753 
0.0006597466149387192 0.0002297493882638092 -0.0003852626451709852 -0.0004158393236223648 -0.001369587020299668 
0.0001674834589982913 -3.490309785458199e-05 -3.306965706836024e-05 0.0003457599861206692 -0.0004464214482712383 
-0.003234486534758979 0.0002664152864437416 0.01000557244222596 -0.01243536376994612 -0.008100454204641396 
0.0002564787703647137 -0.0001944525625760988 -0.0004272756624537681 0.001123291000930755 3.747145001881264e-05 
9.390514349818563e-05 6.065894956427053e-05 0.0001627553292179981 0.0001368754940291053 -0.001013650234191622 
-0.01304895467178513 0.03699914026420408 -0.01169622915817071 -0.07897090298337171 -0.03087090804763679 
0.0001822269572458887 -1.787074581310964e-05 -9.452888932626363e-06 -7.820290874408819e-05 -0.000184167496190546 
-0.0003531390665884466 -0.0004354355108847263 -0.0005195481208725821 0.002625023494169387 -0.0007887286284315273 
0.0002006294438455476 0.01198240307881835 -0.003855127936630321 -0.004544982971959575 -0.04282397503137365 
0.0009231818094095993 0.0008527612790401595 0.001297184261664351 -0.004093500503300055 -0.007900669692104123 
0.0007553175549523844 -0.0001722791506976523 -0.0004733944113336901 0.0007857664737837308 -0.0009307630548780242 
-0.001451324204074751 0.003230760412152379 0.001685347741906126 -0.008352512183234391 -0.006426068055734645 
0.00241006499453885 -0.0009205388884984271 -0.001897613812280204 -0.01187706709559802 -0.003263147375444624 
0.0001658803780185486 -4.408645473809057e-05 -2.647726595462748e-05 -9.574700470666474e-05 -0.000214478950831548 
0.0006674776947915369 0.0009255148420870527 0.002680909720202265 -0.01160590174002082 -0.003027712943878184 
0.000212659785513062 0.0001956775159229991 -0.0001941528856826495 -0.0002380945322742699 -0.001083725937477024 
0.000146223242989681 -4.497968179192992e-05 -4.639919241419613e-05 -0.0002177844934780167 -0.0001731747552011222 
0.0002734266850847104 -0.0001054910662655649 -0.0001352372426762328 -0.0004840055996449425 -0.0004716548142902411 
0.0005098020376093612 -0.0002727072296438794 -7.083380416200713e-05 -0.001411520602084207 -0.0005051088003157484 
0.001047650857554449 -0.0008557635724944637 0.003207358565100251 -0.004986496433557201 -0.006704484088813818 
0.0001378271124564489 -5.197073168594091e-05 -7.654173281526154e-05 -0.0002408074366004502 -0.0002669219946276529 
0.0001329480386194088 0.0003837879265317229 -0.0002559042707711648 -0.002936634091059893 0.0007831986236728451 
-6.564858582370937e-05 -0.0001625994762943159 0.002796667355387374 -0.006543513824134042 -0.01130018408885835 
0.0005093406386565099 -0.0003702742256065535 0.0005438907954336678 -0.001053075918027487 -0.001228126071549102 
0.0001555326142039876 -3.312537863547293e-05 -5.838508304864326e-05 -0.0002819826739644581 -0.000280327530792523 
0.001745808055709342 -0.002444849451123274 -0.00259214088227484 -0.00770832463843091 0.01247451388127957 
0.0007661485680152459 -0.0002148259076107343 -0.0002586377877447464 -0.001094428444498517 -0.001246956556687926 
0.0001555326142039876 -3.312537863547293e-05 -5.838508304864326e-05 -0.0002819826739644581 -0.000280327530792523 
-0.001179857575493213 0.0006532979607873297 -0.002082374126173049 -0.005578923834589656 0.005749862261167805 
0.0001535699429119646 -3.880608541042693e-05 -4.96429512742299e-05 -0.0001899834478783438 -0.0001861566766769691 
-0.0005935155966485289 2.117325348619672e-05 -0.0006476740198271525 0.005828269393909125 -0.004297137643803236 
0.0001259059708343538 -8.279799396254484e-05 -8.010543966967547e-05 0.0004237736709481029 -0.0004045812712209167 
0.0001048467234412411 0.0001124423357859679 -0.0003556509677120185 0.0004451281434367359 -0.0006774609601496927 
8.95355005354683e-05 8.737329331440955e-05 -0.0001370385486114088 -0.000403774176671095 -0.0005069012230373264 
-0.001627824750183957 -0.004737032786705344 0.01567308521718953 -0.02027271408131295 -0.0176542476588805 
0.0001964311369847338 -4.81581340288286e-05 -0.0001837614626967225 0.0006125779246503303 -0.001938953230249039 
0.0001538891299577907 -5.07399179047869e-05 -3.641013784446963e-05 -0.0001281505022030264 -0.0002155535323446043 
0.0002878115786896441 -3.908217344803206e-05 -0.0002791581247214672 0.001009427588902126 -0.003114625082247172 
-0.005126345106408088 0.007156455397049596 -0.005343506175189936 -0.03403385078045643 0.03147391776421944 
-0.00173941560955916 0.004197891231723098 -0.002726527510502737 -0.01399018670340645 0.01085367155688911 
-0.004328452393147404 -0.003773941646819393 -0.006070403504580179 -0.001711226954696572 0.04567119261235801 
0.000195934265228831 -0.0001783245430423863 2.895851407070146e-05 0.0002396731755063358 -0.001309573397115733 
0.000259499421983821 -0.0001518757901700387 -0.0004108200887139693 0.0009303215770872545 -0.001747593193238949 
-0.0001113827373124264 0.00026115258532819 -0.0003715458492323932 -0.0006119844419692727 -0.0008832302406749806 
-0.005847915905966964 -0.006254724258796508 -0.001507378002790565 0.01474777108634441 0.01385811730983536 
0.0003059126677618613 -0.0006203275814893808 0.0006270354596907015 0.0003839335772997259 -0.003797614847599317 
-0.0001700692218565075 0.000265148704753285 -0.0004852470895261022 -0.0008665486947738708 0.0006480994828386933 
0.0001741581104306009 -8.78645506454915e-05 -3.199723212075823e-05 -4.109944625661064e-05 -0.0004401534039027918 
0.0001741581104306009 -8.78645506454915e-05 -3.199723212075823e-05 -4.109944625661064e-05 -0.0004401534039027918 
-0.0008951423265478612 -0.0003664510102215441 4.648085106079668e-06 -0.002795446128733805 0.006648102371295056 
-0.004298597687957904 -0.001096823792009117 0.005877734312171473 -0.01606743871625838 0.01706923394723362 
-0.01106541876722444 0.0009570793725977155 -0.001229799092854367 -0.0454734439052116 0.06894785055260974 
0.003432907997173327 -0.0005423142445090868 -0.0007332976725445325 -0.0128427100567102 -0.003186067046763855 
0.0006706943965752026 -0.0001288753555701314 -0.000379755454407478 -0.001191210757526264 -0.001754633824252633 
0.0006837391731633641 -0.001382209507048333 0.006443131858225513 -0.00707230541192239 -0.01056526888312563 
-0.0002864405811380554 0.0001400397428409596 0.0008787764352847151 -0.007263395475709813 0.003924027531335257 
-0.004281287611420714 -0.004158365267764349 -0.005504011622328871 0.03115067288807234 -0.007990945713859877 
0.0003119333074046071 -0.0002820487110071903 -0.0003082629554854354 -0.001277737631077788 0.001673239498121828 
0.001786614426281892 -0.001455691507425891 -0.001845482329905317 0.002970700274980244 -0.005521537098435082 
0.007433157373170439 -0.002822619905736166 -0.003591006257022 -0.01012643473178805 -0.01382963597140529 
0.0001146300255043356 -0.0002618056114322693 -0.0002571388794083038 -0.001814199639894571 0.002657079696284804 
0.0001548495938559926 -4.376417083307751e-05 -4.204533970846785e-05 -0.0001925625966494921 -0.000162786123165536 
-0.001145183800412751 -0.0006162399385970042 -0.001861727558497038 -0.005632596959105205 0.01623482038861684 
0.0002489877078245312 0.005464809979690701 -0.002323546071661837 -0.02316097046625527 -0.01070131923919241 
0.0003159966819407613 -6.871118179855695e-05 -8.536314739110304e-05 -0.0004121982546214211 -0.0004663619777929199 
0.0001672122208136245 0.0001230181855939947 -0.0002502932485365574 -0.001548859419541969 -0.002248516181049935 
0.007706599212274116 -0.006177316123304381 -0.01119710557023648 0.02289622738136902 -0.0387560608187938 
0.0001433493992495655 -4.311468657920943e-05 -6.750702753736624e-05 -0.0003295400309070323 -0.0001509958249746327 
0.0005548491077318775 -0.0007943027519889148 -0.0002110616853984536 0.0001549780247769354 0.001478837186256144 
0.001375376328423661 -0.0007453282583017231 -0.0006259334213721889 -0.0004032280739836044 -0.003771068541974301 
-0.005987189224897367 -0.007353840460846026 -0.009047198264237562 0.06989074433764476 -0.04386777525988112 
-0.005856698923439735 -0.007912631261612485 -0.009317481141224217 0.07750500213774356 -0.04823938678442827 
6.147709606804505e-05 -0.0002529843116757745 0.001938444499244035 -0.00283107152970506 -0.001303599609283386 
-0.0006307121758348255 -0.0008592113819132957 -0.001575813779623753 -0.006349231011756182 0.02097642600600632 
0.0001667061569718812 -7.452166322938186e-05 -3.273436857471749e-05 -5.256754853841643e-05 -0.0003386752388796132 
-0.001123617729474371 0.000634750931688569 -0.001191900388541741 0.005403748820022211 -0.002438812361253883 
0.0001667061569718812 -7.452166322938186e-05 -3.273436857471749e-05 -5.256754853841643e-05 -0.0003386752388796132 
0.0001296270651796701 -5.563179286591964e-05 -7.760752883892478e-05 -0.0002992129001495586 -0.0002476114726135964 
-0.0004685189255841997 0.0007133820362947503 -0.0005238175352916339 -0.001226187777846951 -0.0007657731287949039 
0.0001399301470048909 -5.670797886435333e-05 -6.856302650387117e-05 -0.000234843249955949 -0.0002618623129317728 
-0.002609865631104899 -0.005963302867611224 0.01014431541812386 -0.01335736239106694 -0.002466611564260693 
0.001025434245661156 -0.001015087390122495 -0.0001468040650748455 0.0001091006335378342 -0.004019069884721789 
0.0007895182675932132 -0.0001764213745190798 -0.000213074515034917 -0.001044813482962128 -0.001035951746107369 
0.0001565204277379731 0.0001178760208637653 2.983602796526146e-05 -0.001066435284635363 -0.001723422192689442 
0.0001383935134959526 -3.861201702363425e-05 -5.826315428490993e-05 -0.0002892881750091693 -0.0001622490102706301 
0.0002146239697286072 -0.000167251544358219 7.173297068740912e-05 -0.0004107813135587142 -7.995530881541595e-05 
0.0002442373910593361 -0.0001456976015943942 0.0001104744204035081 -0.000317155928791022 -0.000797246594136583 
0.002022612307508824 -0.001342417776532225 -0.001925601448432098 0.0001360460969136009 -0.005032204162533781 
0.0003424697419058743 0.000860626531504562 -0.001595041094447363 0.002272281436571889 -0.008381763751785488 
0.0006837823825341601 -0.0001547697101442821 -8.873143811187804e-05 -0.001245075865124014 -0.00191634477729665 
-0.004161550652240247 0.003007558414418116 0.007586274171329878 -0.008332853920136524 -0.01660621430263818 
-0.002422575407226742 0.001270771050672085 -0.001830847615911308 0.006245664444023959 -0.004526327401129699 
-0.003764674495698777 0.002807881941648371 -0.002541663113775623 -0.01283715614714279 0.01708174597087042 
0.0007627464819841919 -0.0003658262918751052 -0.0002494914764571383 -0.001545109760027184 0.0004755704289006806 
-0.001566515244308282 -0.003662274439715233 -0.0006323707375261019 -0.002817961299442667 0.01043747074357955 
0.0003167267376225401 -8.889344015986303e-05 -0.0001028690397392822 -0.0003979974445030299 -0.0005584984541037475 
-8.561051377872786e-05 -0.0005174018435751245 -0.0005957851308500639 0.005322436130789747 -0.002394184293956758 
0.0001644382188455259 -3.380096634358784e-05 -3.501996893654537e-05 -0.0001713706775539865 -0.0002246263340037967 
0.0004145733055234988 -0.0004126273063565372 -0.0005293239953005295 -0.002255017405359986 0.004176468523918441 
0.001356585689813775 0.0004274581264638641 -0.001993044606871176 -0.006601030835257819 -0.0003537442685801663 
-5.152967181663263e-05 -1.722691938135613e-05 -0.000708846853206335 -0.001865289741251555 0.003177719398095209 
0.0001644382188455259 -3.380096634358784e-05 -3.501996893654537e-05 -0.0001713706775539865 -0.0002246263340037967 
0.0002662163970083063 -0.001680695411679971 -0.0001355380224672826 -0.002911832218528376 0.003658355556868497 
-0.003051229545055597 -0.003726347927922185 0.01876420832540885 -0.02464389270964384 -0.0126425241190866 
-0.001639302770988036 0.003077576935436297 -0.0005517980378598142 -0.004636878682126441 -0.005849778998761327 
0.0006606182622676302 -0.000421330690818769 0.001148874156884207 -0.002738581965862917 -0.002022530515270848 
0.001882674786132243 -0.0009117619650263239 -0.0008979153860213286 -0.0001336346763115722 -0.006202969201220689 
0.0001536800356425536 -3.471434811962332e-05 -4.467203597135513e-05 -0.000263484748344232 -0.0001893989908822497 
-0.002736346426114561 0.006785945829646624 -0.003801490220890053 -0.01899775939213959 0.0009475431015289765 
-0.0006714960206833172 0.001849003905701839 -0.001603989158030254 0.00101618759445852 -0.00585138472780293 
0.00135507824908668 -0.002445843519023332 -0.004216863008115501 -0.001758873283844965 0.007547570161232946 
-0.002054386143992623 -0.001013038045537204 0.004128536480729252 -0.001874180899092371 -0.01368030517097266 
-0.0104345977575515 -0.01947427213406729 -0.01663718306750078 0.09982080521130558 -0.03457390309082868 
-0.0005393484949119655 0.001252163431494477 0.001239587096861575 -0.004075630064906159 -0.005424051897161703 
0.0005390334307274489 -0.0002602631033725427 -0.0003056580567966881 0.0001406915795168315 -0.001383510889326701 
-0.009156883731317412 -0.01854145138599885 -0.002333596118814154 0.06866600192969614 -0.009131262416924557 
0.0001505657486105463 -2.852203043636322e-05 -5.781606300283336e-05 -0.0003584212456284593 -0.0002268992307073565 
0.0004532365021769113 -0.0002021346514174302 0.0003955822414583652 -0.0001318994342521883 -0.001807416794651602 
-0.0007520701521869728 0.002559612091810632 -0.0008248823178965562 -0.01659606802590379 0.01336278666571204 
0.0007941198832570007 -0.0002228874650326509 -0.0002339181722935873 -0.0008148138544189899 -0.001410873240518091 
0.0006140638163163435 -0.0002040302904969817 -0.0002070951430065217 -0.0007077979354186409 -0.00106747477554511 
0.003267677430660863 -0.000930386767079156 -0.0004453933881990723 -0.005828698539934216 -0.007007147661227979 
0.0006410307026851191 -0.0001702518774407723 -0.0001406137769504516 -0.001366529241026883 -0.001841300024445531 
0.0001284820430056285 -6.225742011321258e-05 -9.348578233581208e-05 -0.0002728873098210914 -0.0002965908920931385 
-0.0003099749649942698 -0.001317776425045654 -0.001380756410751217 0.005197986366062401 0.0005970160286488631 
0.0002775630154091114 -0.0001157614355150937 -0.0001345236150454868 -3.610492418138233e-05 -0.0006540227040055102 
-0.005242616268685003 -0.006011487602583407 -0.005950388061763193 0.05992474697610513 -0.02990483603013598 
0.0001717111202424293 -1.677726342469072e-05 -3.131998487538814e-05 -0.0002756529589259238 -0.000226941000414777 
0.0001590564527360414 -3.094182103760329e-05 -5.653016116950178e-05 -0.0002875513336917514 -0.0002594377607958976 
0.0001181786611176434 -0.0005682442781161552 -0.001501170833533818 0.001663198304182712 -0.001886343950298139 
0.0001411131614481115 -5.616764342587301e-05 -5.409241153129454e-05 -0.0001518876314549403 -0.0001559501798617962 
-0.001816064320949185 -0.0006704177892714173 0.003343421157438748 -0.02021063984724841 0.008601893483864122 
-0.0007066375562090512 0.003823682215165057 -0.001831864532936002 -0.006827956531912793 -0.004699111710137556 
-4.868446397770896e-06 -9.243407452509617e-05 -0.0002887443616769594 0.001044844308724486 -0.0007412418058922759 
0.0001429037396677577 -4.242547466368839e-05 -6.747938745443241e-05 -0.0003340328161097725 -0.0001548423792285103 
0.001356858936754043 -0.0003829618772236802 -0.0007270176959188173 -0.001467684825707361 -0.002928552545824729 
0.0007748642126046373 -0.000453412278123658 -6.653731524560627e-05 0.0008906350147644553 -0.004689323056295305 
-0.0008679984738036975 -0.001551441625330834 0.0002094941441179093 -0.003410100445091994 0.01141977590160125 
3.337849505864056e-05 0.0004145186996969844 -0.000188046092237105 -0.0003042793847538493 -0.001471544565954733 
-0.003956654641924061 0.01601956973354287 -0.004721108691100056 -0.04150528040855551 -0.01277537527304812 
-0.002268977472876342 -0.001466226567397015 -0.004015652037544366 0.01421711351008412 -0.001951422581899061 
-1.029991832358837e-05 -0.0003595309591149505 -0.0005790771148169585 0.001345748370546051 -0.001200232983120046 
0.0002318885772772452 -0.0001441225671462508 -0.0002152834806043622 -0.0008576127300986617 0.0002047940713341713 
0.0002810643717574472 -8.311338720650478e-05 -0.0001503683132943405 -0.000676272897524141 -0.0005516839660710129 
0.0002148153609799988 -0.001055732560176029 -8.259423417440967e-05 -0.003622558351616334 0.00692431570399644 
0.0001381273072640248 -0.000303502455171955 -4.143876373441224e-05 0.001568874086924808 -0.001770521441242905 
0.0004379670030105938 -0.002506098012015553 -0.002895699823388171 0.01520418755933647 -0.006970637909972626 
1.763417887231046e-05 -0.0002134631450392377 8.444323007280928e-05 0.001305912975111118 -0.001255665065829002 
-0.003136737829420472 0.001842179117578162 -0.005488930440078254 0.00961359750251705 -0.01213502719180262 
8.345269681552813e-05 -0.0004610101728096821 -0.0003955616972301249 0.003296200843280749 -0.002732191487072511 
0.0001835488278210272 -0.0003335609406423882 -0.0001907580288806627 -0.0003384940761381498 0.0009597502765199728 
-5.824963021998845e-05 -0.0001248905000000888 0.0005389133459671343 -0.0004452109667782185 -0.0001098981211964935 
0.0001007504721725031 0.0003953095953150058 -0.0009369083987313234 -0.0009261512812146365 -0.0003209453342444623 
4.051807646692658e-05 0.000929370258024403 0.0002534122003254236 -0.002297051172074278 -0.001864654043995386 
3.908262648256198e-06 0.0002821911197840552 -0.0009271360294075244 -0.001427432966276596 0.001753738084070747 
0.0003368757524597666 -7.943523845340733e-05 -6.748505972370821e-05 -0.0003172462803218284 -0.000508609561690962 
0.0005918481207948922 0.0005481357818212714 -0.001267530615471877 -0.002662772911021337 -0.001119095117267746 
0.0005310381565758733 -7.765650123998252e-05 -8.532411445587373e-05 -0.0003299249265793888 -0.0007918218574120524 
0.0001594893343262143 -3.980824142228963e-05 -5.967800820971131e-05 -0.0002311139332396399 -0.0002556809337922111 
0.0001594893343262143 -3.980824142228963e-05 -5.967800820971131e-05 -0.0002311139332396399 -0.0002556809337922111 
0.0001594893343262143 -3.980824142228963e-05 -5.967800820971131e-05 -0.0002311139332396399 -0.0002556809337922111 
0.001361477378759076 -0.000780768166425109 -0.002420520914896569 -0.008887071331326612 0.005430587769076079 
0.0001476182812800161 -7.64061124160569e-05 -5.894123147368689e-05 0.0004626129697292932 -0.0005271776943182087 
-0.005126661030695014 -0.002147065631586836 -0.004679611718432493 -0.02564679880467912 0.06738619352267868 
0.001176968105623798 0.0001480957178066376 -0.0009579598740924827 -0.0004585847197496156 -0.001944843681295887 
0.0009186406331156817 -0.0002822145966656957 -2.07761060486366e-05 -0.001389330875190534 -0.001682419659690772 
0.0002382224676895168 -0.001295084691466099 -0.001032011165077822 0.0006630296645675844 0.007454690833617383 
0.0018952767705431 -0.0003552348284102064 -0.0008121330626396686 -0.003167608978100491 -0.002906735949785229 
-0.0006530654972497022 -0.00120609782182875 -0.001659801068495746 0.009090835575880076 -0.001459763376901136 
-0.0004111633230410635 0.0001353164443462993 0.0002696105664059531 -0.0007104273601811496 0.002093380922947921 
-0.002724704990766567 -0.01582507563803946 -0.01984053028346381 0.108754979678696 -0.05816521506542469 
-0.0006986558411471629 -0.0008653199976805429 0.005334882840660304 -0.001560881862687623 -0.005659824935872651 
9.908460494654348e-05 -0.0003911896116553372 0.001692616265945819 -0.0004902477432609668 -0.00132578308250765 
0.0001551214824718061 -2.784775376414716e-05 -4.740327936411544e-05 -0.0003001477687537359 -0.0002244658725634008 
-0.002954546024031894 0.003703039219266922 0.00370541503632642 -0.01300358319765019 -0.01215702110265865 
0.002553473879918851 -0.002895740361941498 -0.002827797465469612 -0.005624390465942755 0.002991217037741493 
0.0001790168766332884 0.0002851400590239762 7.048187885583356e-05 -0.0007446626033793688 -0.001554890253739901 
0.001421894222978787 -0.001859297774194002 -0.0009413990083175433 -0.001689266513803785 0.0007652674880641409 
0.001262703605935803 -0.001012638675695179 -0.001100765192457396 0.0004734452491155041 -0.002830590917055771 
0.0002488819518666018 -0.0001794774199176072 -0.0001734714559604441 0.0007309649738747191 -0.0009029853555348558 
0.007434728555505003 -0.004396507554313203 0.006038284012993301 -0.02226561468348614 -0.02109784548056091 
0.0001938060334013678 -0.0002363372086828395 0.0003334062204286214 -0.000965116894285961 0.000376282380882867 
-0.0002995589951316772 -0.001163298684492554 0.00546828544199372 -0.003937622490144455 -0.006986238267371325 
0.0001399844846923522 -0.0005815035419020607 0.0008544687188716237 -0.002505339002444615 0.00126499638553938 
-0.001344898795862408 0.004314035146529564 0.00129605826703001 -0.02709102704763228 -0.0130862085406152 
0.0008824748834608232 0.0004848275047834622 -0.0002763586137767024 -0.001650894400149637 -0.004826043282623188 
0.001402013657342772 0.0002210425565750456 -0.001080825701958238 -0.006152085138686262 0.000506249871935385 
-0.0001945602771415533 0.001122477542604229 -3.513007067669161e-05 -0.001616179044245297 -0.002671136022204329 
0.0001634934110668298 -4.368136897868058e-05 -3.409901100921456e-05 -0.0001123574072173292 -0.0002834259123074901 
0.0001818667866525706 -1.827393692628878e-05 -1.273318249264753e-05 -8.034751468018398e-05 -0.0002285080452681923 
0.0001579613104159551 0.000110054946366408 -0.000322185820964024 -0.0005987606555284973 0.001041274164342535 
0.001514720395677523 0.001072750900349434 1.630562211163946e-05 -0.009374102828680817 -0.003480012792988913 
0.0001818667866525706 -1.827393692628878e-05 -1.273318249264753e-05 -8.034751468018398e-05 -0.0002285080452681923 
0.0001818667866525706 -1.827393692628878e-05 -1.273318249264753e-05 -8.034751468018398e-05 -0.0002285080452681923 
0.0001588040866416868 -0.0002699908863577254 -0.0002853385897705173 0.0004974476491391216 -0.0002970935096916063 
0.0001205639158637215 -0.0001027753812681375 -9.066580072767961e-05 -0.0004200485677076567 0.001321028997342437 
0.0001818667866525706 -1.827393692628878e-05 -1.273318249264753e-05 -8.034751468018398e-05 -0.0002285080452681923 
0.0001818667866525706 -1.827393692628878e-05 -1.273318249264753e-05 -8.034751468018398e-05 -0.0002285080452681923 
-0.0008792262938943064 -0.001325548783528014 -0.002780760515976357 0.002130938648158322 0.007353160601379108 
0.0001608203484440134 0.000243803873824209 0.001161920357458773 -0.002550305882006035 -0.002833774068494306 
0.0002203444334065684 0.003118809877026426 -0.003687203048448719 -0.0119578948052508 -0.002950039969684787 
0.0004669762088056152 -0.0001193234506139868 -0.0001475479594872589 -0.0005680721429857524 -0.0007561608738810294 
0.001246682078182633 0.001091736963587438 -0.00230457229052247 -0.01034015916579309 0.005772600619742215 
7.847397950461145e-05 9.365802265682774e-05 0.002214531408609036 -0.006768657502767395 -0.0005601478971311266 
0.0001594309011922786 -3.963241194042481e-05 -4.233226947936512e-05 -0.0001644062467904106 -0.0002245490267091903 
0.001541656537766189 -7.828868137074316e-07 0.001297876308139674 -0.005183287038933182 -0.01018915308674902 
8.491664573247176e-05 0.0002672861107978634 -0.0001452978506697648 -0.0004969330741655439 -0.0007705157901101842 
0.0002157598305295762 -0.0003032055998965135 -0.0001926751414314269 -0.0001490131856308112 0.001884920941521218 
0.0002415488156473971 -0.0001355212118284775 -0.0002089316919552392 -0.0008832767790459044 0.0002289054752176718 
-0.00581418977918484 -0.009344979802161408 -0.009791944190706295 0.06986856596833391 -0.03736309657935934 
0.0001368659291071914 -6.868546402066516e-05 -7.409133084055827e-05 -0.0001880468100424278 -0.00035099671349403 
0.0001693934492917392 -2.625017811663163e-05 -4.528228988506504e-05 -0.0002488441718128194 -0.0002261041218298772 
-0.002363899749154213 -0.0003443293705774973 -0.002867982331956138 -0.008186102551543617 0.02863290062743873 
0.0001693934492917392 -2.625017811663163e-05 -4.528228988506504e-05 -0.0002488441718128194 -0.0002261041218298772 
0.0001286803775803409 -6.462301183975118e-05 -0.0001033581802613293 1.519183053454229e-05 0.0003745235170905051 
0.0002885485218150999 -7.227615418573135e-05 -0.0001227970624458825 -0.0006538623309532604 -0.000403674559739254 
-0.006164633867503621 -0.008209853389243996 -0.008521173642228683 0.06385029456022598 -0.03870781952384288 
-5.810031823585674e-05 8.782556307756952e-05 0.0005087913188671606 -0.001251549810544114 -0.001023863538378025 
-0.0006316718760539483 0.0005238443916715351 -0.0004278952446769283 -0.002449738836937558 0.005158488211811095 
0.000277955513918208 -0.004207018082432135 0.003041286142322426 0.01062622525812651 -0.01742101645581713 
0.0001461624692908747 -8.975423546589901e-05 -6.516521268680815e-05 0.0005325673479464248 -0.0006282946013018383 
0.0001765739569220966 -2.761302875861234e-05 -2.415696502507098e-05 -9.072437871976214e-05 -0.0002982415065438614 
8.268691645602848e-05 -0.0003178291998586243 -0.0009090717399782312 0.001432366450205683 0.0003324904269299251 
0.002420159573955806 -0.0007095772053212607 -0.002772180643582399 -0.01302494521423852 -0.007651728334358826 
0.0001282711512704105 -8.984044595433666e-05 -8.64275611962064e-05 0.000404645200104743 -0.0004590492736336151 
-0.003406064150568129 -0.0002104100972413819 0.005757410530527151 -0.01282016704458479 0.004409086955702157 
-0.0002518641842333186 -0.0003557624105227987 0.0009249717417344162 0.000362334884259826 -0.0004380309688558286 
9.155282090511788e-05 -0.0001288486385085403 -0.0001461954867419476 -0.0003570365890489711 0.0003854313818624277 
-0.0009420932898445854 -7.971465461682683e-05 0.001809775138148049 0.0007100719150063894 -0.0005387795987718544 
-0.0002897600698543517 -0.00126881390473186 0.00778697445926678 -0.01267622970196319 -0.002192587336539522 
-0.0001346706749080068 0.0002329394714091857 -0.0002136133921220908 -0.004550287767315819 0.002986348172357491 
5.562494799399364e-05 -8.717045248979842e-05 -0.0001330689172367906 -0.001185709165797395 0.00100237474388977 
-0.001686770868770459 -0.004185204974010856 0.0009141919199239956 -0.0003005877202291386 0.02026855336826211 
0.003120347714627941 -0.004240516664138074 -0.003380321169933014 -0.02209129090781288 0.003963470596028428 
-0.002065808585413881 -0.002389666408499121 -0.001343993334425176 -0.01297246931263165 0.0389131717014392 
-0.0001619828993397669 -0.000154269589119406 0.0004976156625193446 -0.003658127530503843 0.003709155619199139 
0.004562089759291748 0.002133862477100895 -0.003044564009777274 -0.01314776677459155 -0.01698980691265792 
0.0006020702156412393 0.0001575926386321358 -0.000182493296506245 -0.0009414942049450338 -0.003665964884613064 
0.0004363473003880237 -8.317306727149483e-06 0.0002857086523226086 0.001566622964003782 -0.005456519653284283 
-0.003417619942021079 -0.001798875068936581 -0.0005571005393367936 -0.009405097076102454 0.02594370188263193 
-0.0005186504188540924 0.0003545720045893308 0.0005575647552665948 -0.002853518769286629 0.0008047443127823671 
-0.0007805094931090195 0.0006091641368472646 -0.000914877156942999 -0.001866905651445512 0.001944664495831071 
0.002486793146812904 -0.0009102249482458579 -0.001005219352824161 -0.002069640778046998 -0.004056592140350771 
0.0001626045102949161 -4.095549792624889e-05 -3.428611364241847e-05 -0.0001590914071791806 -0.0002216057497080869 
0.00452635247986085 -0.000688537293153809 -0.00349059573803752 -0.01404306158329427 -0.007424740173289805 
0.001188028317669919 -0.0001924461376622526 -0.0001465910037462699 -0.002175600946898505 -0.002195508783477763 
0.001652492304851869 -0.000878258116007727 -0.001309751809137867 0.0006445642505219271 0.0009760170049634593 
0.0001539267170362359 -4.517843611814734e-05 -4.284197853276373e-05 -0.0001912889232884593 -0.0002379455624389265 
4.786647387847349e-05 0.0003970506171065617 0.0007678589911403597 -0.001131600208795285 -0.00196508600063755 
0.007569237386308753 -0.002284062314300978 -0.002637974800888769 -0.005617496762436963 -0.02893930760191155 
0.0004915130159182388 -0.0008889351965629628 -0.0002647676142272406 -0.007678844900165206 0.007627982009580853 
-0.001536568176075372 -0.0003135327338131091 0.003241428568705886 -0.004051105057879422 -0.0006806413100792819 
-0.0004796430898903426 2.641292659019177e-05 0.0002376952649387979 0.001079405389652078 -0.001733597099960962 
-0.0007876038279060883 0.001867794801984962 -0.0004630179698829707 -0.00254223378720672 -0.005707715874887426 
3.017898998157624e-05 -2.167004234037456e-05 -0.0002067479364287012 0.0001255743304071062 -0.0002775333920434558 
0.0001669504990614598 -6.443466138732804e-05 -3.063984012132678e-05 -3.620062524772872e-05 -0.0005183325847242828 
0.000149427033083949 6.982941863870743e-05 0.0009789150593297103 -0.0006787600020152259 -0.002532951062770617 
0.002683594847407283 -0.004609843025997958 -0.004986628280632201 0.0165421188930146 -0.01258892920615185 
-0.004383252045323843 0.002777765320954543 -0.002325270672291913 0.008972835447080191 -0.01519128183638228 
-0.002629892373454451 0.00224234036180802 -0.003042329116518379 -0.01525174076246675 0.02488323368277257 
0.0001773996911026579 -7.47258931642678e-06 -1.777371289402718e-05 -0.0003458846865090408 -0.0001857808130315934 
0.0001296357062795132 -7.563205801009778e-05 0.0004947034923251661 -0.0006929296271933096 -0.000653245668794844 
-0.0002314973591207176 0.001351944615816866 -0.0005534776137342977 -0.001931683768505629 -0.002389239497452228 
0.0002529960237236727 -0.0001513531143272042 -0.0001676247732342403 0.000344399524203528 -0.0007364014816487886 
-0.002041281371083168 -0.001598136967852726 -0.004817233158273486 0.00837258586565146 0.009871753927058821 
0.0003245507599982998 -0.0001026740010831647 -6.992530477730378e-05 -0.0002938524864089735 -0.0004256840583106545 
8.562486601597735e-05 -0.0001155960355669733 -0.0001384859088033294 -9.471796424540867e-05 0.0003965227985381814 
0.0001408276725130329 -4.870496015039644e-05 -8.165260698851972e-05 -0.0002789812693662029 -0.000281086530525271 
0.001049848468806511 -0.001113606658346497 0.002863526914756208 -0.006674923314336729 -0.005894324045751 
0.0007139698637538433 -0.0002329122584507952 -0.00121324823942221 -0.0003622116905996699 -0.002516093937012522 
-0.002178308700383183 0.006272096440371196 -0.003979291551847185 -0.009404626346423563 3.35803010046018e-06 
-0.002587315728376473 0.008163420424094731 -0.004786845416606152 -0.03523265872170202 0.0119272753821705 
0.0002127855604945136 -0.0001960296283807314 6.836696672799564e-05 -0.001077177954232538 0.0007819791834311843 
-0.0003111099036762171 0.00073168701652413 -0.0008675963541181128 -0.001448508328610092 0.0003456039750845303 
0.0001435214001621544 -5.245719797047845e-05 -5.248105551793607e-05 -0.0002264202873177701 -0.0001825518352857504 
0.002148342228336063 -0.0001467038927181083 -0.00187677676857088 0.001012237582597547 -0.00734025519492112 
-0.0003106779573444934 0.0003670960077674286 -0.0001314941382164784 0.002082803657738629 -0.00394414859696986 
0.0001516918726255525 -6.46505529536918e-05 -4.654442129932481e-05 -0.0001324264601751935 -0.0002152934599828732 
0.001002584995106178 0.0008696503172640534 -0.001003062578348327 -0.006023035069680137 -0.01438575519435048 
-0.0006187615033793498 -0.0005757646252836251 0.0004867520449435596 -0.003294606185755863 0.009669503654527047 
0.0001135794742976306 -0.0006200402536754208 0.0001273087107432511 -0.003989203578602474 0.004800535133789937 
6.492124720458936e-05 -0.001140269063775662 0.002625162687208664 -0.002952770874952046 0.0002442143346098151 
0.002493976482610121 -0.0001963337628591887 -0.00110109265159499 -0.005231814311973358 -0.004619807236768521 
-0.001642757920327689 0.000887717408283695 -0.001648901323929787 -0.002379252061662461 -0.01023110792109948 
0.0001502761424786331 -0.000156574465660837 -0.0003106595964906087 0.001021520598200505 -0.0001643322703431626 
0.0002932834465938713 -0.0005189058464516039 -0.0003084182097784029 -0.002474077911454569 0.004244473516617751 
-0.0003274055872226456 0.001063338077541059 -3.39088719225221e-05 -0.003281696031377245 -7.869642244516581e-05 
0.0001153178353057219 -8.268920215434006e-05 -9.749746939686597e-05 -0.000397672076870668 0.0005358233876096773 
-0.003105551679894859 -0.001906208082799436 -0.001838664705720908 -0.0109093458721611 0.03246574040143522 
0.00014845935743912 -5.427912741942747e-05 -4.634987252661372e-05 0.0003744649343398884 -0.0004081934082341919 
0.0001654256938471696 -3.122062344658895e-05 -2.879051821205995e-05 -0.0001630231234274202 -0.00019519963264079 
-0.0001753190713479612 0.0003184213586703492 0.0006273031389337029 -0.001401796681043655 -0.00115657202796383 
-0.0004295516847200813 0.0004840288225186461 6.326019694807075e-06 -0.003904661743886396 0.004892324749955473 
0.0001435053118595773 -6.665557965349962e-05 -5.121635019731219e-05 -0.0001435187994283808 -0.0002670050693852924 
4.25398083701072e-05 0.0002158458613941941 -0.0001985593261971574 -0.000726386809396998 -0.0007107817518455445 
-0.006756562108330522 0.003037458086600585 0.0001437286913758461 -0.02489477408448224 0.0174655221114991 
0.0008176098992222431 -0.0004214415818360046 -0.0001675005817436779 -0.0004354993236216344 -0.002153473627001429 
-0.001635629280469561 0.005090703586294479 -0.003932878116738195 -0.019896335232924 0.01338062234865662 
0.003353232524961015 -0.001058319391415393 -0.000297901996388457 -0.007241330048937773 -0.00428572016671462 
-0.003954315453840586 0.004339812141577973 0.00316448747427644 -0.01341533071919463 0.01284229435789897 
0.0003471762021337632 -3.271520156854599e-05 -4.880904784492927e-05 -0.0005272026757876056 -0.0003004726389636253 
0.0004994359312040153 -7.328812315385762e-05 -9.370910935304731e-05 -0.0007705287713686288 -0.0004698355807640198 
0.0002129133732439731 -0.0001761180472725156 6.723829075913351e-05 -0.0004403120451308161 1.379333771866696e-05 
-0.0002289195506082755 -0.0001884946645988537 -0.008482466767782845 -0.008171116377508012 0.02282124328468114 
0.0003960249134212568 0.0005557481560894976 -0.0007281092374535838 0.001519495113338797 -0.004800857556461289 
0.0002165810254342729 -0.0001783602249355034 -0.0002341700057999324 0.0007365262113590177 -0.0001752029680427097 
0.0001280675085868749 -5.079829667912089e-05 -7.401889743304644e-05 -0.0003105767480895631 -0.000195500944617646 
-0.005982911946014123 -0.005060858461025598 0.004705840279025292 -0.01192476419887227 0.02167143864967173 
-0.0007811622856361676 -0.0006077980775189933 -0.0007315586350746126 0.0004523740265152382 0.006172963787230393 
-5.063932316839131e-05 0.0006828911249048648 -0.0003529447616797846 -0.0007046173993856832 -0.0020385391697785 
-0.001442929489157911 0.00128921243379987 -0.001100946667353616 -0.006492983259068713 0.006731906480408159 
-0.0001384148152831245 -6.493997750331386e-05 -0.0003840031516012413 -0.001256129531308061 0.003376400997875439 
0.002849559619165601 0.001285886351670075 -0.002269968052579802 -0.007052121446871559 -0.007888093206777894 
-0.01025852280666141 0.02596198473148579 -0.008502775129810939 -0.1024667988211741 0.03250386942640535 
0.002008818581199822 -0.000447581843949718 -0.0005812977814367685 -0.001970608762937902 -0.004111175649413041 
-0.001101457613688652 0.004668221590033748 -1.950479791476844e-05 -0.007822557163256458 -0.01138637095403118 
-0.0001834271751983311 -0.0003786933554317532 -0.0003494480900779567 0.001915297332829205 -0.0004111658594435276 
6.393873205811505e-05 -0.000176671277988516 0.0007040885562554363 -0.0006448252300981164 -0.001095970264467481 
0.001252480440787986 -0.0001269528688628322 5.680687586328175e-05 -0.002189631009721184 -0.003239553901364193 
0.0007186219704437177 0.0004649996896603952 -0.0004844520555516698 -1.18489854819364e-05 -0.003109043029769459 
0.000371548822249659 -3.78482598176929e-05 -2.564610624616244e-05 -9.881099333974889e-05 -0.0005361409236198416 
0.0005353762571383198 -7.769630731109126e-05 -4.794907301721709e-05 -0.0002238676278012688 -0.0007003098832901286 
-0.0006055744850100969 -0.0002253296950179572 -0.001788526962402309 0.006514769721431218 -0.0007634656600200612 
0.0003294250967502657 9.410567159452245e-05 -0.0003430352570285761 0.0005255275637833411 -0.0002688212510178091 
0.0003069804217200929 0.002101134151690333 -0.001182689945130537 -0.002412126781069918 -0.006861455098695047 
-0.0001679299407739281 -8.344876900856086e-05 0.003692880110462244 -0.007855176645824793 -0.002558032553120127 
0.0004577973949465681 -0.0001217806495163813 -0.0001326700226575349 -0.0003108673286259786 -0.0007200236605018661 
-0.001578271888910746 0.00119365197857233 -0.001774355128342706 -0.002936538292004589 0.004365668758326611 
0.0001876500203951356 -5.130587362526385e-05 0.0001018041448033919 -0.00154802435317931 -0.001052006109425257 
0.000148326556681408 -4.590752728233096e-05 -6.418290304744494e-05 -0.0002457466470691462 -0.0002981239742416566 
-0.0006232853891475386 -0.0007172911040218715 0.00386917082432641 -0.001520212583766203 -0.00631387835136829 
0.002679966929533991 0.002216780406582845 -0.002355612580099677 -0.005275854249599829 -0.01405350171034053 
-0.0003628748737499887 0.0001861233587300817 0.0005193118320115039 0.0001352030163240664 -0.003626923812885945 
0.0002441869140846475 -0.0001836382259803325 -0.0002065909927788168 0.001138188998518814 -0.001330521445018253 
3.795452000685589e-05 2.323738125481887e-05 -0.000235808489209952 0.0005544691830995345 -0.0009711310207708559 
-0.003522696884756138 0.001653260466875986 -0.003594962185148158 -0.01147503690979997 0.01782879956112431 
0.0001779444108974018 -1.778516994916839e-05 -2.397862233128233e-05 -0.0002181675922591554 -0.0002651943959154423 
0.001094614304112479 0.002622183628514269 -0.0006490330650780805 -0.009658330882410701 -0.01015002288552027 
-3.053283162970407e-05 0.0006761568205633406 0.0004466410808783547 -0.002391833304826253 -0.003411876022204648 
0.0001731373028727738 -3.081968305444082e-05 -2.473713792761994e-05 -0.0001464942511799687 -0.000184722936329108 
-0.004334086120112332 0.01701517531691767 -0.005175419187135615 -0.02206256843768133 -0.02849518033719769 
0.0002900294460338406 -0.0001320112760016054 -0.0003986654809412928 -0.0005027307132907386 -0.0007155325553722849 
-0.000973700168705751 -0.001126878506085911 0.002150546068864973 -0.007454619863608557 0.00875303483204848 
0.0001345323806754707 -4.838847744716886e-05 -8.204228715608053e-05 -0.0003194398764393663 -0.0002656290760075894 
7.191779409329024e-05 -0.001702839374546935 -0.002263434674408018 0.01401693320006929 -0.004845224673834829 
0.0001345323806754707 -4.838847744716886e-05 -8.204228715608053e-05 -0.0003194398764393663 -0.0002656290760075894 
9.604635480201022e-05 3.811035039260692e-05 0.0004384218643519912 -0.0004546100641397832 -0.001015864038774753 
0.0003298798918673018 -6.472267666050983e-05 -6.421788406878964e-05 -0.0003023966694412965 -0.0004642265358795396 
-0.001483635502534804 3.878597249808956e-05 0.002072037876351489 -0.0003461688837004413 -0.002846842541124866 
0.0002185583197938181 -0.0003626876450841215 0.002705239293768848 -0.001993343468732991 -0.003951184831491566 
0.0001397180990033677 -9.488500194952089e-05 0.0002131728085750754 -0.0003299323817026845 0.0001523271518541278 
0.0003329687645493596 6.719173933238305e-05 -0.0005324846096500915 -0.001477932754779711 -0.001643870995565956 
0.0001267698483748224 -4.897835989457464e-05 -8.603837267288943e-05 -0.0003467587278880452 -0.0003283485383154968 
-0.004953979807394531 -0.006091472556260866 0.001747156454641429 -0.01576238041690401 0.04989722193873789 
-0.006183885349327358 0.001977453459781569 -0.002661372107653552 -0.008339589413572429 0.01730276409253689 
-0.006593956475956672 -0.003387172357313596 0.02292672513556567 -0.05149354501197439 0.02856996787490796 
0.0004957139247105272 0.0002345023249928829 -0.0003733477377919352 -0.001376134868727245 -0.001755091409164642 
0.001410784023738291 -0.0003834247507507018 -0.0006399917520104978 -0.00202736852416886 -0.002575022008054391 
0.0004734220714119301 -0.0001046157261575377 -0.0001389519035535544 -0.0007892525259782605 -0.0006001093208719531 
-0.007313701186407543 -0.004002017800722924 0.02410884774980884 -0.05223914851383626 0.02590729178031657 
0.0001500062508187141 -4.428486223114087e-05 -4.885054722740542e-05 -0.0002468130747367874 -0.0001952537283044021 
0.0001500062508187141 -4.428486223114087e-05 -4.885054722740542e-05 -0.0002468130747367874 -0.0001952537283044021 
0.0001500062508187141 -4.428486223114087e-05 -4.885054722740542e-05 -0.0002468130747367874 -0.0001952537283044021 
0.001405754568955733 -0.0009242735094512956 0.000288043169650173 -0.005268349197765275 -0.001568293547644304 
0.0001239361641863703 -7.148147524747279e-05 -8.768088516686025e-05 -0.0002310899463488854 -0.0003037414001953606 
-0.0005947581505453382 4.143196431663154e-05 -2.888121514001828e-05 -0.003520328432186427 0.007361316996324572 
0.0007269674395354985 -0.0002608015073847601 -0.0005711622508624424 -0.001771060091529387 -0.001166123088355518 
0.0005413865359664458 0.001206600784170585 0.0005825648646225714 -2.75977344699751e-05 -0.01111728522576865 
0.000306716912321875 -8.909326461920866e-05 -0.000112667366272088 7.266321969719747e-05 -0.0006449888799806756 
0.0006193484505333688 0.0004610283229461744 0.001459492699687072 -0.002134215080606057 -0.00761901330380099 
0.001327438743216579 -0.001244901753950962 -0.001040505573940494 0.003651758779956382 -0.004128488351936421 
0.000360467583822662 -3.605122421655248e-05 -2.275407697126039e-05 -0.000205221621435217 -0.0003443526521119725 
0.0001750721951564751 -2.670343107059548e-05 -1.629795924149606e-05 -9.704782106040099e-05 -0.0002091760565780416 
0.0002167238133856629 0.0002362582473082717 -0.00207195057190776 -0.006569786890865456 0.006728161337196757 
0.0003065428440111903 -7.648376805249388e-05 -7.827069476821387e-05 -0.0005273545553696286 -0.000325333853825593 
0.0004313617534531904 0.0002418063861880676 -0.001143712421873171 0.0006656747316891977 -0.003191073908650357 
0.0004293341884853808 -0.0004560986957397409 -0.0007325111385465222 -0.002119697592770861 0.001737540327250389 
0.002039635173604879 0.0007096299834755366 -0.001190392463079051 -0.005138822811284192 -0.009491788898516167 
-8.22704540166914e-05 0.0001496484522736306 0.0008002910015718205 -0.002886898302860411 0.001019739485754945 
0.001283990114318588 -0.0007396567781668332 0.002343927112265459 -0.004420012079689099 -0.005879821457629247 
0.0009306821869840632 0.0001387942192979096 0.001214143087009016 -0.003140797160065903 -0.005406521179049942 
0.0001080162809104475 -0.0008388007569948459 -0.0008386855063007517 -0.003425316597469912 0.01041694061929351 
-0.00130864428352457 0.0006633899504316462 0.001083723995947112 -0.004516843837688424 -0.001878733547759163 
0.000629510985352296 1.328412725141443e-05 -0.0002848282960918972 0.002772543248865765 -0.004241462359951275 
0.0008892980973455494 0.001657236540732822 -0.001686989187236225 -0.007968002523650281 -0.001407355740519802 
8.716703984841863e-05 3.313925388761203e-05 0.0001502843995505297 0.0001464123844054096 -0.0009356830078013177 
0.002793002399481105 -0.0005421550502431579 -0.001239809635513285 -0.007734057714931694 -0.00318998442837612 
0.0001474338645448453 -4.292709725631558e-05 -5.162596928711643e-05 -0.0002488658201425443 -0.0002067811666909636 
0.0002683839401012257 -0.0001409486101063824 -9.897792933854519e-05 -0.00285764092998783 -0.00235151242494174 
0.000320021694169919 -6.59395881268921e-05 -7.645959732027337e-05 -0.0003051612850753156 -0.0004978493407419169 
0.002524020894555402 -0.0008752441915880558 -0.0009013806111059846 -0.0001708523814054593 -0.004994965852602049 
-0.00316337231089857 0.001932407530365677 -0.004068694894038602 0.007996908287970018 -0.01785613435683776 
0.0005831834205537678 -0.0001913344265374331 -0.0004770816662794256 -7.835266356927968e-05 -0.002000490373861668 
0.00427025243571985 -0.0009311893216341085 -0.002413406335250457 -0.007198210634195769 -0.008682433811933801 
0.002216817028014371 -0.0009842828159870823 -0.001104221672956827 -0.004422920510544605 0.001231519991596493 
-2.142832057095604e-06 0.001140891243485537 -0.0006723580989643985 -0.004110060604152071 0.000250064331037196 
0.0001424166059776701 -6.71014535116275e-05 -6.035425760556804e-05 -0.0003814435043962639 0.0006634188653415298 
0.0001731213013323472 -1.209374282994121e-05 -1.774088349801148e-05 -0.0002687227770975752 -8.606077426125391e-05 
-0.0005402982072983939 -0.0009132576830763173 -4.363657582050051e-05 -0.003096837776797983 0.009283733338428062 
0.0001731213013323472 -1.209374282994121e-05 -1.774088349801148e-05 -0.0002687227770975752 -8.606077426125391e-05 
0.000124427833031362 -7.308192274525709e-05 -8.519091290714842e-05 -0.0004434636957860531 0.0006309341425260023 
0.002228514947995753 -6.705054828234471e-05 -0.003800952725049108 0.006384811655437471 -0.02316724419752755 
0.0004626217886552546 -0.0006026657344298082 -0.0001040090950366322 0.002723160271768441 -0.003630167070680165 
-0.0002993931956142061 -0.001679065206873326 -0.001748813054825152 0.00513874044430063 0.003904207553473135 
