solver_type L2R_LR
nr_class 5
label 4 0 3 1 2
nr_feature 20683
bias -1
w
0 0 0 0 0 
-0.2317291282991643 0.06727345004686407 -0.1531175461987776 -0.1894117599721968 -0.08061390768217326 
-0.1948597163754394 -0.3096056847015856 -0.3556618371923883 -0.1223057989184388 -0.1772884817713022 
0.5531039789976764 -0.1670165545156742 -0.2640200642981906 -0.2111290931498505 -0.261766195317407 
-0.5954145159971213 -0.01085025928989975 -0.1364251337836251 -0.3481912646491955 -0.1474004913132271 
-0.1551858589954198 -0.4810837830504497 -0.2156789666251447 -0.3513901884714615 -0.1268457710706121 
0.01861979447275705 -0.2194394464947818 -0.04316912829574675 -0.2252777987223626 -0.2946996019354355 
-1.267928679759615 0.6034046716324033 -0.3531148036243901 0.2521761206674081 -0.5326082200353176 
0 0 0 0 0 
0.08413345456868886 -0.715523662090745 -0.5765783083167473 0.4029504031393656 -0.5921062122746429 
0.1826979807433965 -0.4595694834736035 -0.2702193344761559 -0.07461545518778284 -0.2683643688286624 
-0.6776155322775903 -0.7125884384189045 -0.6455169693107435 0.8693465226036918 0.04866970381076201 
-0.6652167108698548 0.8162420474523794 -0.09657377276631685 0.5589726309264578 -1.143801520079671 
-0.2221230253334724 -0.3646555996717079 -1.137520055122557 0.177995671295411 -0.3560916279472038 
1.443130991795393 0.2271468984430488 -0.50620735808455 -0.6412778692671259 -0.9269212800986569 
-1.683708235754282 -1.920581363292391 -1.697054160467371 1.139978411255762 -1.571015132104967 
-0.04323600096404762 0.7996056010909636 -0.1935129514740674 -0.4456807309920853 -0.4287071774638837 
-0.2220210933334863 -1.281045575033224 0.09035779236134019 -0.6741790298693313 -0.3772954098172964 
0.3882113547962203 -0.6507308074448924 -0.6623913579585335 0.0642028696386677 -0.1257387782569115 
-0.1950350283112639 0.1247010777494596 0.1669014766227474 -0.516684770011804 -0.08901506598922512 
-0.3962363782436288 -0.3149632754589848 -0.1809388720819392 -0.1967435323922531 -0.007773070462703306 
0.3260421259004571 -2.977223800361556 -2.159812851141714 0.2792225264269599 -1.348599030511919 
0 0 0 0 0 
-0.4578276246162757 -0.5462368389744651 -0.3603056766239165 -0.1667126452346973 0.3434035432276292 
-0.1056969443476542 0.01568687432284065 -0.2423544472853414 -0.3082124510795026 0.05954911055994593 
0.05934811635007686 -0.5471526264733524 0.3402585473198739 -0.3007847685613839 -0.3404835688871388 
-0.03952195024687032 -0.2300080776183916 -0.2718680678413221 0.2170983383307983 -0.1517987445340603 
0.312532929964016 -0.3544885379862064 -0.2335000998965536 -0.1864237488355541 0.174804094068916 
0.333471824394948 -0.1641157606735725 -0.2209851646853283 -0.1831174589750657 -0.4161206738507666 
0.1572900112736397 1.181113480959301 0.6001302903447695 -0.3731250009929571 -0.3888376888557851 
-0.1659716713267462 0.04854711537184456 -0.06320431263503892 -0.4287518483001419 -0.02621690002449246 
0.8369724679734893 -1.090380470016912 -0.6677763003930006 0.4146970748119548 0.5534168436173122 
-0.3867811593517579 -0.03328614315301039 0.03967428449123438 -0.3158429231413372 0.3689612474729578 
-0.7436862461586857 -0.4112022946930594 0.2795483340476651 -0.7408331489763914 0.4700084470562387 
-0.411756449839428 -0.1927856781811036 -0.001392352007167819 -0.1378833452385692 -0.3093006142875656 
-0.02031757673971973 0.08249450536527687 -0.2796861081674412 0.2764976213067424 0.2034089400972133 
0.5787763783567831 0.4796687586326305 -0.3924925903299568 0.8128207044933147 -0.06561970135999966 
-0.09898212933600301 -0.269776891540778 -0.08220946187843559 -0.004765484647140246 -0.1879722967261044 
-0.08740364974698188 -0.09255262770306982 -0.2021676785549732 0.1195709219499114 0.1378355412138327 
-0.1645768719718899 -0.2086537792377005 -0.3726341640495171 -0.2564121759181137 -0.3615292007073413 
-0.3511252483987886 -0.2714070541165771 -0.6917555642659422 -0.2139679161508327 -0.1614444842813077 
-0.1684628053431054 0.169709802678731 0.002096413195709042 -0.1369699762865529 -0.1794185052809428 
0.01218679487016377 -0.264844298308707 -0.08728359544467512 -0.1178150532577398 -0.243900409801981 
-0.1206885399408229 0.360646300146387 0.1595056085832125 -0.4215327446825959 0.06337284162953463 
0.09751029175553753 -0.4740723340055762 -0.2046570067760009 0.06311575196714625 -0.09965160599071413 
0.04233162109245476 -0.9093546159277651 -0.2360044266276923 -0.5166174779604736 0.314035100116985 
-0.04036818143480417 0.7449797253699771 0.4450370779791046 -0.1437596073669329 -0.9394812861809816 
0.06374487437010799 0.1473597161668343 0.6619793292683842 -0.01543475112030474 -0.2658606522541372 
-0.1555038306161636 -0.05278614041111397 -0.3441257033246968 -0.3437161481885115 -0.5468748218872375 
-0.1588404894321754 0.1971869741661746 0.1136922242869276 -0.4455571810323498 0.0650273743945517 
0.08593470048381043 -0.03365214358864314 -0.7996065906157985 -0.6383059508217174 0.6089247718850217 
0.6403847040057635 -0.1529826877377298 -0.1888077846133317 -0.05465174939608963 -0.133024513778301 
-0.2065928845958658 0.021839728561583 -0.8635386557585571 0.3251016867310877 -0.3761061366155096 
-0.01062975896927949 0.1078495380664829 -0.03766494871674443 -0.1897547027403647 0.04251243105417724 
-0.3326041169994625 -0.2376630830166952 -0.442532844944783 -0.01273911277830288 -0.1302627585669736 
-0.05887497313210853 -0.4521005323722148 -0.04582036767984507 0.00751615487841964 0.1749695479701433 
-0.3169550846810383 0.06374569297053669 -0.2772039622197691 -0.5950057043566515 -0.1125604207192084 
-0.4734195861773536 -0.4306021628925197 -0.05656010948914721 0.2511414787803172 -0.5414991398644021 
0.09518360640763163 -0.1179569359927524 0.6223600945740764 -0.1373933859940745 -0.07372891149980416 
0.1110167102232884 -0.1500015344437696 0.008927454945516337 -0.3424888955715616 -0.3527827711158168 
0.1487160531478258 -0.01075052801280033 -0.05177094843497283 -0.1127435418165981 -0.03594594462299207 
-0.6173411169900083 -0.5606604210294668 -0.1836120844427173 1.058000163271214 -0.3844532924501523 
-0.2834888622956573 -0.3889716686302807 -0.5055576502217299 0.1850691656492933 -0.3143730845164089 
-0.4265937002734085 -0.2592110969389745 -0.0124308872161222 0.03915571465119344 0.1636111928451671 
0.03691425158481881 -0.07544541148296341 -0.2110737556262161 0.2415730360049313 -0.3719245694229397 
-0.215455255474913 -0.1765985011307396 -0.2772472994791147 -0.1304160523401147 -0.1842518692718796 
-0.1052129749194654 -0.5752802582592361 0.0008445362411658858 -0.5768464061568003 0.2983528893144264 
2.480563672261643 -1.427229109231459 -0.4635509689908568 -1.035617417280436 -1.172644835376248 
0.3258146933380279 -0.02545486636567467 -0.05888490868876151 -0.01420446380126053 -0.3410220321785479 
-0.5030512371344192 0.1353142889229919 -0.1732790688667463 -0.2829669937520086 -0.09106328483718994 
0.1487160531478258 -0.01075052801280033 -0.05177094843497283 -0.1127435418165981 -0.03594594462299207 
1.952377515512965 -0.9596859194762144 -0.9853224715504196 -1.33086612126519 -0.8736630127929615 
0.4883771921780539 -1.097494483453386 0.4860164216223649 -0.2321110406840308 -0.0959193736724169 
-0.7086848779909833 -1.238013020587285 -0.6185826152684895 0.1546003532679326 -0.1182703779456347 
-0.1726822987306979 -0.20517612631604 -0.5216550903577534 -0.07702151243005763 -0.402995642777408 
0 0 0 0 0 
-0.5752807523237493 0.08869896451431193 0.6706061474167631 -0.587819655330278 -0.2905937031187802 
0.8562163926476295 -0.1174160010394417 -0.5272626426174132 -0.1927543359298407 -0.1876066561391841 
-1.25699554010361 -0.5719486260548078 0.8963946639745545 -0.6080690758524813 -0.6422026357551587 
0 0 0 0 0 
-0.3938585780683347 -0.1343888292476613 -0.9132192246025861 0.5553161499339991 -0.8555826821136175 
0.2621828365761804 -0.1729886457066699 -0.08411909695466255 -0.1340818060724265 -0.3402503292700797 
-0.6121769695856081 -0.3929878620344787 0.4724063293681176 -0.9096817087190644 -0.09951781179170748 
-0.2780410284568399 -0.1278100545967827 0.01746629119235676 -0.4660765755285671 0.2064797320403707 
0.145669613335345 0.2231059816998038 -0.06177223603752475 -0.7180003302784652 -0.1866972648809338 
0 0 0 0 0 
-0.9050009806688722 0.7451023975749378 -0.233649233510134 -1.187903061655912 -0.3497496946154778 
0.4527800182417061 -0.6641231831242749 0.4472318897469435 -0.1786027553374926 -0.1313242083320502 
-0.01496355374406106 0.1533475662492494 -0.02265468372580055 -0.1058118812519748 -0.09980048863435903 
0.436089657978152 -0.5070085783719085 -0.3144063323095228 -0.264019307679682 1.080040772842578 
-0.4208755857128174 -0.2551018528940719 -0.2128672903011611 -0.627250298113352 0.1123488869084537 
1.552136584986785 -0.442242493246175 -0.1857746942173125 -0.2686652096530584 -0.342220063363634 
0.02019906653669637 -0.8601774434168727 -0.7883996295721699 1.097632946097894 -0.8057409095670257 
0.0481444619374171 -0.168898217208927 0.6085324023254018 0.270578226601335 -0.4179826158615471 
0.8916885288987841 -0.2830619534099041 -0.2132371604893255 -0.4152294085019589 -0.222196819787499 
-0.4526662132283732 -0.1326383986639316 -0.4986445867535167 -0.3726592846072727 -0.03321443667138625 
-0.1140886613859548 0.004942556462366646 -0.2134252184341733 -0.04591572391370892 -0.06365736046082432 
-0.3903537264169242 -0.06756180532356328 -0.4012180253547246 -0.6399568854667598 0.3459901089812594 
-0.02953480923589001 -0.3727536780472639 0.08326148703581093 0.03359944663508554 -0.0712721660832597 
0.07039843496581656 0.02170916343658727 0.3769974932819066 -0.07336158456555765 -0.2654233916882802 
-0.1564916084404773 -0.2001859880230414 -0.2568730450528928 -0.001333038951132612 -0.7850603435106599 
-0.8472021604681196 -0.1139065965084677 -0.1263872769455699 0.5123837738305524 -0.180490616182712 
0.2469467999464128 -0.008181433954425891 0.2228158920149744 -0.2978297380760364 0.8321934249467493 
0.1476826755661864 -0.1257502295151849 -0.8428890602712804 -0.1844331717164726 -0.4223255224121809 
-0.8563003389870343 0.3925946027839115 0.05999980756466561 0.5998473242138932 -1.037010043246199 
1.730478409659499 0.8099883385909111 -0.1061807266932859 -1.16709047121672 -0.3313185519650774 
0.0347376543097269 -0.843118246286236 -0.1053784350414688 -0.06381503930329947 0.4909352675780866 
-1.063930427149072 -1.691470961144064 -1.759395338518537 0.9978778162291885 -1.639247333018806 
-0.5783093176804276 -0.09789332771255016 0.07508523053355512 -0.01135326070689798 0.06488491742232699 
0.8801393676207718 -0.2054162387237482 -0.6351577715859655 -0.8232745129985229 -0.9730381705266031 
-0.2580329561699838 0.4583365300836215 -0.7004903425587928 -1.050034471576991 -0.0695915959613163 
3.296942531884564 -1.863870762181008 -1.39724943674109 -1.767484209539872 -1.619014668905184 
1.178568260145012 -1.187498725592608 -0.4055302131373278 -0.4090258746382015 -0.5969316519061996 
-0.3610093224710497 -0.2335369984523561 -1.084615689328108 0.2824974447829377 -0.7080700625755487 
-0.08356768567091205 0.6503707295605152 -0.1809719625772445 -0.2934902075746728 -0.8715747094445001 
0.4014024446656276 -0.1219251003159526 -0.01998211477923196 -0.2095025340463307 -0.01522198380128638 
-0.191824136786075 -0.4134415642948924 0.1810001794883921 -0.2967706547401251 -0.4066034191625027 
-0.001079688205921153 0.06289128235095606 -0.416852005080521 -0.4365613957573024 -0.02550931660646949 
0 0 0 0 0 
0.3499103672614509 -0.3140685330224837 -0.6247260376385957 0.08064103510189882 -0.0619003241792988 
-0.4218202185946827 -1.246579434550071 0.1321908437068947 -0.01757045101960029 -0.3133164392017911 
0.1935694760549895 0.154650095417175 -0.4550829786609334 -1.107145546480965 -0.7883447656211092 
1.258903161971285 -0.5059296798996623 -1.051667775449304 -1.282449844895429 -0.2288970754589234 
1.21564048232735 -0.8781140884589572 -0.4302219360559665 -0.8022991726237158 -0.8962665266892811 
0.3887514091949117 0.08478338453387366 -0.5377707912086702 0.1373050669972252 -0.1552125581432853 
0.6616910183261961 -0.01682389099297492 -0.5358035737320638 -0.5044725438147593 -0.4427641057736747 
0.05122710687011717 -0.6875594540918789 -0.04823980433745501 -0.1114601349698583 -0.4070707958321703 
-0.3332641692737544 -1.171132690813097 -0.6246866080634769 -0.1610064602203423 0.5102921810071162 
0.004312807231310587 -0.08246612554071053 -0.4833219465699946 -0.596116794026778 0.10608396877811 
-0.2721649657306872 0.3465435183336719 0.9501657724056082 -0.3234502218501124 -0.3834376937237429 
0.216600663427979 -0.8087294147650651 -1.664541424246029 -0.4658044037746992 -0.2243309307774606 
-0.9981258321351076 -0.2496923752383058 0.8130389330924108 0.2044425846957668 -0.2014857690119605 
0.1569106045507236 0.07522564067008133 -0.4428869504677536 -0.3790279766006873 -0.1142681434637943 
0.4834570269773397 0.1555889510878298 -0.02530389291612424 -0.5684564133280183 -0.4198626239859614 
-0.04417905535654969 -0.3873051462231005 -0.004814563210256848 -0.07585639063221838 -0.1313065274452118 
-0.2758486310907802 -0.4653347443271273 -0.1773502972848645 0.1075493018074038 -0.2425954930746368 
-0.2580939022459123 0.01595610429177546 -0.179371302975326 -0.3000833556098574 -0.1683926862718713 
0.1672658694483989 -0.6089289029702604 -0.4549742590271738 0.408636146065827 -0.6883073047444301 
-0.05032338760494552 -0.9221253270220932 -0.1307543931676736 0.431777459510258 0.2115444057523738 
-0.3821666269679497 -0.1195398649850154 -0.1815049747481768 0.1723478769694815 -0.2579728182332139 
-0.03149730321266251 -0.2563713054112414 0.2261380334341685 -0.8168664491269075 -0.7851131129102524 
0 0 0 0 0 
-0.01978894927038827 -0.4302197614125458 0.409530541762008 -0.5048678225374881 0.02024369644572666 
0 0 0 0 0 
2.121545433335924 -1.24398659913432 -1.032960133299103 -1.6025277250871 -1.010045621111947 
-0.1888173780263915 -0.2567938306735524 -0.116267843262756 -0.003962121543905749 -0.1493595431649406 
-0.1712840293333436 -0.6034638218784018 -1.112926290324362 0.4049765289076422 -0.04214366228730833 
0.3550312554713403 -0.2958824331275886 -0.1538822187201405 -0.2521096536950566 -0.3499252715811317 
0.4238213080381572 -0.2636284097355266 -1.181197266302993 -0.6622897567054705 -0.08816904966377803 
0.002415876899041755 -0.1095547591756272 -0.4939487542739132 0.007893927806584457 -0.3579823165501521 
-0.2639450084402012 0.5511607373474968 0.0120986836157437 -1.711743517750348 -0.1711637251627205 
-0.09395753881482678 -0.3897128019527526 0.1593657474811785 0.03295785149584848 -0.176310930354906 
-0.9461898601937785 0.02592893926224123 0.4827156159776723 0.1114369590113163 -0.451227959402818 
-0.05354361267457106 0.2656516946474956 -0.8420721429563817 0.3285627864019717 -0.4804683959591319 
-0.06306404831701524 -0.007215081888550412 -0.1390751916139947 -0.3643922487401178 -0.07865876020194419 
0.2767140084562642 -0.02723763565084269 0.2479607273614711 0.2238223200090188 -0.6847890884977348 
0.01795117703184412 -0.04339507670745119 -0.1860847732653781 -0.2156041837155944 -0.3899703953819359 
-0.03915277279712554 0.3842395891322806 -0.3249579760304192 -0.8802129035397119 -0.07221003283569258 
-0.3601007691084381 0.1750890761682599 -0.3015214541423597 -0.3741764223321032 -0.4303542165063213 
0.01841071556653304 -0.8698926860297541 -1.427748640525874 1.458570737854468 -2.349097266713279 
-0.4441621461436528 -0.4454557841207508 -0.3560474355021103 0.6522577119508211 0.09917435624523374 
-0.09592541745905457 -0.3792813068357642 0.1704503592690704 -0.2385869552759127 -0.05093368067260608 
0.7369938159677371 -0.8066046201037333 -0.1023149687771152 -1.002297957059563 -0.3032936280231753 
-0.4930912797080895 -1.158055766179964 -1.327473535193273 0.5298619353522552 -0.264627739291986 
-0.04804074226288477 0.5386909711862127 -0.1498076044548337 0.07337243210764138 -0.4142423282127156 
0.4520604792487815 -0.0223316031725891 -0.1655828468045935 -0.07371470685740378 -0.1422197609297948 
0.4344766072387308 1.201137005589431 -0.1931811456551575 -0.7835440096555365 -0.5446182605169949 
1.70520700882283 -0.9601348636953346 -0.9339533246450166 -0.8949028483302999 -0.5387342993382833 
-0.189213705046448 -0.1424212027065984 -0.3647118249221021 -0.2608265108527668 -0.1588478644078909 
-0.2630872654273886 -0.8337382894733488 -0.3507813247207806 -0.1240950462845977 -0.02997897617129221 
0.3450469109589078 0.4466439834632985 -0.4219932463780401 -0.9466639895890459 0.3574639686793284 
-0.6652732046629989 -0.1303230394637673 -0.7953222179224446 0.4522136874885749 -0.3632293241651566 
0.4196499681279521 -0.5252572235618281 -0.198726792390466 0.1844000567533652 -0.6632573034094672 
-0.6018619461875236 0.08646756339146963 0.1247531526116612 -0.7725227613194646 0.6689286072209122 
-0.2487928078094388 0.577276179883413 -0.1445484931069789 -0.1736630477619951 -0.6707243114618266 
-0.004771064929984117 -0.3340025896785327 0.4367070503904212 -0.01528859701496093 -0.5495902463551388 
1.333165330309288 -0.247463284116469 -0.1583847812470921 -0.2774088602590224 -0.1390163604954646 
-0.326584192955251 -0.6104786357525438 -0.3875369799858614 -0.1449922409679903 -0.1527858152329264 
-0.325245217441708 -0.1334821598392173 -0.2131399247590479 0.3083015623097924 -0.1391454420395653 
0.03504507975336925 -0.2907885560204638 -1.059399377224068 -0.3188819570578226 -0.76633297434377 
0.2780562935899898 -0.7349308276861714 0.2614157940068531 -0.2183921159544877 0.3086643106834334 
-0.05431978002523365 -0.1004729227917518 -0.2902281671882359 -0.1313478109746703 -0.5344839809879438 
-1.554462110836187 -0.9016658637432681 -1.489990047871098 -1.557747412425825 1.713524775791111 
0.54653398872107 0.1611602917459397 -0.2603229308652464 -0.2470927737879427 -0.3457445385212242 
0.6019146127869649 0.09222748040162732 -0.1711062047787793 -0.3194373622704236 -0.312526664033656 
0.5659581310842219 0.6557442150251305 0.3275523412106984 -0.3648560859666529 0.7878997352222218 
-0.4911535880725162 -0.7780934923345125 -0.9794850077350209 0.3810644782960595 -1.090424531076673 
-0.9184921836667311 -0.1250168024840219 -0.7396667560476364 0.6763662268224638 0.4190450039696091 
0.10821806993728 -1.0690669962216 -0.5330591740785753 0.4348938097724272 -0.4406613409159928 
0.4629090423826629 -0.05946592116821232 -0.08300847316614303 -0.05508898715980288 -0.07241440188874537 
0 0 0 0 0 
1.33147423293096 -0.2944124263530107 -0.48492046134424 -0.914274956563446 -0.8620911984680435 
-0.2804477277926959 -0.4449518774468052 0.1014646158845016 -0.350322304093928 0.5379832376441431 
0.6880335255695714 -0.7077036630584785 -1.414109381520247 -0.6933834595320776 -0.6811873120321048 
1.384008266827564 -1.256992486694018 -1.957071298648814 -1.28658792937528 -1.027697795880465 
1.228132569499929 0.125211774863731 -1.349042532786611 -1.043309727190566 -1.372657456376462 
2.491424143794819 -2.666152323649308 -2.319588287582427 -1.828515055916035 -2.049350966113928 
1.320319915975483 -1.046200442945413 -0.7378203773526621 -0.4738927647726464 -1.02198066812571 
0.4568539442097839 -0.6525317743694531 -0.8831411949618976 0.1863676393282632 -0.2323932893548613 
-0.4747654464683268 -0.09008468027361291 -0.1809657869071849 -0.005915533382030829 -0.2417544681608205 
-0.02239190307903935 -0.1091301849417461 -0.4134118721291544 0.214514700308001 -0.1827542712221576 
0.1639662377999498 0.09647125176044696 -0.3370431433649997 -0.3725867544565996 -0.459656551100111 
1.008129999344732 -0.9115215079012815 -0.9022277134941445 -0.1848752777488793 -0.3033083359721761 
0.6270008872793971 -0.5600166935983232 -0.2795337686021527 -0.3694798787053432 -0.4612403128724894 
0.2775734497259722 0.04441858382509101 -0.09097882279626529 -0.2428771315018769 -0.1823280205670887 
0.5448020132048746 0.02111435218302917 -0.3761954140595197 -1.76826792988849 0.3453471188477603 
-0.2066358807928041 0.1845006084472949 0.03564667478279746 0.0872714445109196 -0.6545264699094139 
-0.03211021770886702 -0.8306451705892324 -0.6832991179525605 0.6226835611782351 -0.2391564492836958 
0.1041600795225884 0.03357798143416209 -0.3018322040880032 -0.2502027517288419 -0.5053469460364196 
-0.4703590021075519 0.1562024812591458 -0.5584984142932373 -0.02302211897565752 0.5005987158035369 
0.1595779874342992 -0.06136680992895625 -0.05404037935830604 -0.06571288175286159 0.08454598974234565 
-0.6375060432438859 0.001280721083300873 0.02014572069191218 -0.6473973582070489 0.3352092129498216 
1.946211555840991 -0.6734701947779869 -0.1085821723579476 -1.097876399590911 -0.4352903041962176 
0.5644324815767933 -0.2841605601363466 0.1472725546556848 -0.2761885103536496 0.1279470170761589 
0.2214746835983123 -0.9006845029077383 0.147637416429884 -0.2000298698624149 0.5704459745428799 
1.875119261601989 -1.396940601969377 -1.008162296319809 -0.6556078477883531 -0.5525679219164719 
1.086688148535387 0.2715207855434695 -0.2670519188373404 0.1403135614167325 0.1705013513134339 
0.2196115306784301 -0.7235869380163777 0.3940400331676603 -1.172990777692835 -0.1028007232895973 
-0.1017611286659271 -0.600008594999257 -0.2423240925853694 0.1497580304800094 -0.1849613686389948 
-0.6495252317252005 0.2547801790741281 -0.07035506694460203 -0.3966002148267842 -0.2340678334693141 
-0.2841589977235148 -0.5334902014021572 -0.09853178912293636 -0.8327227227714463 0.01707014588553252 
-0.7457937262082917 -0.8912910578164494 -0.5024842649349004 0.7608965062997114 0.04907760284256897 
-0.1696238305001715 0.4520162321820518 0.5592971927315838 -1.169755671127589 0.02583843421117236 
-0.8219742254505021 0.519550587814497 0.5671808322648658 -0.5900696939859735 -0.4109180130583806 
-0.1814775464098107 0.1683178474372289 -0.6514704046729727 -0.4067190497068082 -0.2836352382147834 
0.7046300193211046 -0.7086185868991893 -0.7428019119661677 0.0741987487066352 -0.8059657314068869 
-0.2825383892226604 -0.4580180116605913 -0.7972411509894085 0.3877745842019523 -0.2347214232252733 
-0.05610383797407337 -0.3529974132012985 -0.4135762370259833 -0.3374559151648824 0.1073656621536123 
-0.3157528542757747 -0.1743668199651507 0.1556172756446022 -0.2696592504391857 0.1656430737762513 
0.1071974411010487 -0.2317280760362279 0.3337887991026807 -1.018703141435116 0.1390422395244983 
0.1140838332386953 -0.702023614024901 -0.6104370499115693 -0.5835372239590594 0.7750432432233253 
-0.4101725835800712 -0.6810555001398535 -0.7319307774298722 1.267771998599403 -1.193286855744271 
-0.6886210016685027 -1.481252142630326 -0.2461998765075234 -0.3232687357862074 0.3955777333916764 
0.1829393478481362 0.4965757162234414 -0.2097364128498223 -0.9618765151685449 0.4197984528415054 
0.007293444491811254 -0.04623603639561327 -0.2115103287949675 -0.6657210424631756 -0.1352514103294339 
0.3283451882288315 -0.2153052662606671 0.5409213531599122 -0.9814700264818839 -0.6582566995071127 
1.094620816561892 0.3301551339258174 0.1291672751494957 -0.7277574359396004 -0.3065517814145313 
-0.3951386799011722 0.2428005987437274 0.569012505243275 -0.3024339813183937 -0.7645935337155187 
-1.308576520174774 -2.028443916705396 4.079162842611872 -2.370558875450827 -2.235209892929497 
0.1075092147667636 -0.1685227749733799 -0.1035508222742477 -0.06939935942775821 -0.1062645094272691 
-0.1328872337456081 -0.1701920982138198 -0.5270267052041427 -0.5341300706890295 0.2334806705459693 
0.004258541909081287 -0.9317868165281624 -1.220476586252798 0.3505257004914517 -1.267539744877819 
0.102129252711585 -1.030349780489187 -0.5724999330841164 0.5648044685044934 -0.4942694179707393 
0 0 0 0 0 
0.4928170670655441 -0.3194291191159681 -0.3867983745056917 -0.4380017704015093 -0.2950773801042743 
-0.6485538571577245 -0.6842509559046384 0.6893962209576738 -0.7061998011168651 0.5193153614305998 
-0.6380966661701178 0.1727875026919859 -0.5422550475739707 0.654583822072087 -0.03996552324491616 
1.892625746236891 -0.7714570389944547 -1.29579493570607 -1.404652550064739 -1.256056224202287 
-0.6075678499307283 0.2853040278807906 -0.6059185297587381 0.2975046123757699 -0.6121184792178378 
-0.01210670567896042 -0.05376066448063428 -0.1862410618354365 -0.02710606532350444 0.1857876579140103 
0.1673312516210488 0.08230972768568889 -0.2298163666973149 -0.6288471178116488 0.6299015228983207 
-0.184421017291096 0.1576796954115042 -0.946750029597237 0.2032431963729259 -0.603615192358863 
0.4599743924163696 -0.1609068710045023 0.1684641138425019 -0.3522697326885932 -0.6762426857364255 
-0.1931866056430072 -0.02837922089652403 -0.02782990108100016 -0.4618260642935229 0.4568586400703578 
0.3344270533551397 0.007874567068784817 -0.1700056613100737 -0.8017656330242477 -0.362094234573977 
0.4853713181204119 -0.2276509493769776 -0.0573772375468152 -0.05427983984666527 -0.1514912711857649 
0 0 0 0 0 
-0.6321953873192505 0.7210843064733441 0.2047612620173223 -0.1312955797105855 -0.2755201418766141 
0.2243822484687325 -0.0422472907758896 0.1194369590989145 -0.5123226801659518 0.01162756618659821 
0.4745976358297634 0.02878925738130069 -0.9167413948323171 0.3213405181986096 -0.4955208319300142 
0.3227278790251196 -0.0824737483819785 -0.3532863652850206 -0.008120813615678993 -0.7027131893866676 
0.8330566109633942 -0.3835832010625023 -0.7180802527684609 0.3992552322694075 -1.000825760918763 
0.4821538609685858 -0.07345907901159204 -0.02543198917071332 -0.179828915632891 -0.02107279900141196 
-0.4233496723575739 0.06407744969687333 -0.5920116955103524 -0.1232580578646219 -0.1688980297093065 
-0.08616388029117227 -0.5137442561348011 -0.2891812303803769 0.6995649895506685 -0.3326877658880192 
0.0008580103889788745 0.2765413746081713 0.1535385332326524 -0.4270631494524358 -0.3943666884484079 
-1.197980006725562 -0.927194024154173 -0.348438737641193 0.6843827561123506 -0.3707781995643216 
1.779095102977118 -0.7908497587070725 -0.3921421190788585 -1.126330305267917 -1.475154021633261 
0.00844768605958018 0.6817481047349981 -0.1537588935398271 -0.4371956637990924 -0.4666365228997205 
0.7739030123998316 -0.45409392049044 -0.2133182056554253 -0.2331118892829853 -0.2824422425403488 
0.2869375561963363 -0.1454939568223786 -0.1230076799996187 -0.03463625486373034 -0.2323459469931188 
0.07774546436009665 0.02797234191812906 -0.3594905347404025 -0.5316179366249277 0.06804798367939802 
0.03716407387723792 0.05365391438651622 0.09637739660168995 -0.09163079351118622 0.3923389040641717 
-0.3788126459779282 -0.2836516729109519 0.003868723902090799 0.1008951969895197 -0.008742675407589367 
-0.1066119079342554 -0.2024695988273288 -0.1184084453556455 -0.2941425521749431 0.4009380338832467 
-0.7694917627141731 -0.5656009957307226 0.1630889002432615 -0.6117145241386345 -0.6946782517650907 
0.02564983995899154 0.05208220055339724 -0.19457926518264 0.5663853770517886 -0.1509988190957358 
0.3607471646809788 -0.5393852741157431 0.07575247796172296 -0.596865086855044 0.3630055164016062 
-0.2884141756076479 -0.2235533196158036 -0.3803989227936558 -0.07718320218933607 0.1312272189370945 
0.9968537134877279 -0.08858279243967673 -0.7770418092415623 -0.6200904158151387 -0.4087536568721279 
0.6839631338127713 0.5324176514761459 -0.06150536676214449 -0.1081871736204438 -0.5371782168305125 
0.7445942212457548 -0.7107059282542967 -0.1008793884191874 -0.708261705555739 -0.3987288711302728 
0.5340028478374915 -0.01346029464427465 -0.08598922453990697 -0.0277037075649758 -0.4041657490247424 
0.2549260668743366 -0.7346604642420391 0.1330369593544622 0.1816372131332438 -0.0185808307130776 
-1.770383037117333 -1.683018935516699 -1.068191901221759 -1.46377509108773 2.018846729759391 
0.5146393143054798 0.5704510914046421 -0.1108533597016959 -0.09688132647800327 -0.4459065565763218 
-0.44568579392132 -0.6853447154512521 -0.7010346101249242 0.2154443597759188 0.06722736660838155 
0.5340028478374915 -0.01346029464427465 -0.08598922453990697 -0.0277037075649758 -0.4041657490247424 
-0.1239799111031925 -1.910328997157017 -2.068537795058436 0.9809876619699651 -1.262185858716255 
-0.4862986670805243 -0.2811834017762202 -0.2034384097090151 0.1656405434998576 -1.253756239428827 
0.1031468276929587 -0.3145161143477609 -0.9426052704002192 -0.0004162480571171835 0.01772208979107572 
-0.5090903467185994 -0.7111503634871592 -0.4099255878792111 0.3802095879225582 -0.805634490832675 
0.07538034179391538 0.1416168318327317 -1.081818210168382 -0.2332841123791712 0.255760960510114 
-0.537740922347991 -0.2852495507803303 -0.3278781981458496 -0.4022372923610907 0.7081138427308268 
0.4553978140800677 -0.05705293122429074 -0.493916282598906 -0.2522126707016637 -0.5837383163361468 
-0.2267185232177102 0.2505861755080608 -0.08313907805542502 -0.3049757002431825 -0.06789237525199569 
0.2282444537557658 0.5253574653171579 -0.3999413253707959 -0.5891005885726137 0.2271588408783263 
-0.3495976184429505 -1.772479805192233 -1.08021146722174 0.9570107155804242 -0.5943751176783608 
-0.07645929834138994 -0.5653280541061698 -0.4039739711013649 0.4481187359732496 -0.1551290176270916 
-0.6975422239965675 -0.6110600321585903 -0.3110368011338767 0.2767677802463427 -0.1500212979215274 
-0.4173229116897094 -0.9594434782470139 0.02417544607061261 0.3416570403655822 -0.5332972585946607 
0.8462746832513534 -0.182469033620555 0.01228691031054987 0.1122282163465209 -0.4571396480028683 
0.2245149525772324 -0.4485845042308562 0.1420452483901682 -0.1215286447449983 0.1329641832463236 
-0.1209401781190673 -0.2593777539044219 0.02102835564103776 0.8574339656647375 -0.7080360462565281 
0.9709437234899518 -0.2083086193049976 -0.1958117143421905 -0.8772363118040066 -0.626120363368372 
-0.9544134454048835 -1.766396044239683 0.7021847729567391 -0.6442480276617853 -0.2588713873391548 
-0.3943263353251891 0.8016773920641544 -0.9871110293377952 -1.688600799695447 -0.3492014891412617 
0.7378456530902227 -0.8533409190283674 -0.1457030013280012 -0.2303986933715076 -0.1087404668329284 
0.2136262030437385 0.2122161667612898 -0.5534085173448411 -0.4745982298829692 -0.1385474119635402 
0.2120391019516938 0.3992965401259012 -0.09060036573345734 -1.513233511313952 -0.1372576096584172 
-0.4019522767221698 0.3264539533904229 -0.08548486990199829 -1.299483489821417 0.2950287344418579 
-0.5969248298908855 -0.02398258249463968 -0.1605089219736784 -0.5971203354895059 -0.1411517784803608 
0.6485605175389247 -0.3180893519710196 -0.4530883285195801 0.2363571716513543 0.680173694310452 
-0.7711653310919198 -0.3182676794237634 -0.6626712854531582 -0.9324482923687152 0.1666314428302645 
0 0 0 0 0 
0.142795133249081 0.4833848595234301 -0.3689097226115164 -0.354610603113857 -0.4203074489098627 
-0.2914411867214905 0.09666663882909587 0.3058620228547759 -0.4427832973433147 -0.5757490851104203 
-0.2513016872692149 0.1503561240276557 -0.6089802905013864 0.7033827329623235 0.04017303682132846 
-0.1708011526927808 -0.4017145591654414 0.6763362952970022 -0.2492589073773718 0.1333962889215819 
2.252066909385255 -0.9481456469321191 -1.310910571256978 -1.627342007825672 -1.096453857440288 
0.04081887541678419 -0.8954915027191196 -1.397272093175524 0.5247341420763274 -0.2724314292171549 
0.2869135039714596 0.921637904743374 -0.2642777415770906 -1.031362004471692 1.086197683045075 
0.7937307828185548 -1.10467221980388 -0.3791624217263855 -0.07333460317623233 -0.0482742597812521 
0.3501338847747262 0.6777348793337996 -0.02576318834319135 0.04909440234786792 -0.6527033455264942 
-0.2288419472285763 -1.235436801504556 -1.303999988913884 0.8493271882232025 -1.251816320992742 
0.7902903673189338 -0.3919314860672036 -0.6244940444364406 -0.4408045924708235 -0.8489714546578226 
-0.3722240356710723 0.6048628507672856 0.683427215356911 -0.6355003947515712 0.08513426531915383 
-0.5702670436945954 -0.586079525922143 0.03062575453522066 0.3806715596899894 -0.3897505256710537 
-0.2189241450005303 -0.3190037513067566 -0.2433920157363789 0.4308094649618914 -0.1909153172107647 
0.08481879635700401 0.3902464366151314 -0.709774745473511 -0.8552116673584365 0.1167244342632389 
0.4148435755970732 -0.4941474657781366 -0.2208768356868677 -0.1421039218247291 -0.3747213831506644 
-0.9626055633873728 0.04762477133905149 -0.5214695273118538 -1.102364356075739 0.3848774717928868 
0.02355116822738882 -0.5607962889879627 -0.839460304833452 0.8236786185304136 0.5560243840419457 
-0.01698564270570494 -0.001157389744289678 -0.1004263589090665 -0.2238131819296673 -0.2451704532896954 
-0.2637946769214826 0.5359732360528998 -0.2721083922385178 0.03905234191859772 -0.3486495915923822 
-0.8106230640224276 -0.561986415860513 -1.751373697354967 -0.6886017893425295 0.9688809682239722 
-0.03680229703688573 -1.362905109259332 -0.9212403702457139 0.7077449359063546 -0.1668493083544048 
0.02306628915983987 0.411642186032202 0.1805884251338319 -0.2632484413740587 -0.3534377578100436 
0.2554356379007502 0.3153257784534274 -0.5568659513977693 -0.2122799005518832 0.6965453617528673 
0.692342715603131 -0.400751770453171 -0.4530627972705197 -0.5105248024260711 0.4955066738444373 
1.100173159256756 0.05948136392568906 -0.5523644080463757 -0.7839595465710764 -1.053796659500661 
0.5517694748025815 -0.3552098324694175 -0.8416548709818696 -1.060000829136368 -0.3848242046623366 
0.2115820594925725 0.1881647140405701 -0.3898240098350783 -0.2829551872002095 -0.1772763021258862 
0.0707884369802813 0.4473842501074728 -0.2909848921527184 -0.5345551753663709 0.341531656215509 
-0.5776689842983679 -1.075454559056343 -0.5550971235188887 -0.09570923497888878 -0.08892165957904238 
0.2247390213912125 -0.9227612986318853 -1.321703258986787 -0.2839287261155113 -0.06908380209043896 
-0.4021990595767476 0.1057346636684088 -0.3726789776401268 -0.3263830444140664 0.4428658622643225 
-0.189310456164252 -1.166179390222716 0.3980143971361055 -1.066909092815328 0.4724564046705359 
0.3800104338667037 0.2543509289159326 -1.019501753329774 -0.7747942383662503 -0.9630744752406156 
0.6516779547098142 -0.4350305375791281 -0.1351544777517426 -0.1197463356521004 -0.1382078466240968 
-0.4691650016798448 -0.3070199112672409 -0.1674501357291998 -0.02812325347596333 0.01786288783795142 
0.3868134218434061 0.1433560664682893 -0.1473116736104997 -0.1556841814474384 -0.2201114568550656 
0.2959896173049708 0.938243334669752 -0.6182315639409803 0.05586564763526941 -0.8065053357016294 
0.5537267930567475 0.08962947432904833 -0.2464277928625159 0.5372997992386563 -0.994234596056955 
0.3064247436675939 -0.000634733298287764 -0.003632993392168024 -0.4207867223907307 -0.05160862477036546 
0.6848213143075187 -0.3311361690145086 -0.1642098650076734 -0.539453530056527 0.3506682291869521 
-0.6952182419746371 -0.2898582067782253 -0.4059842947713989 0.3697238659839565 0.4334877125107108 
-0.5378527512623238 -0.6905006290013953 -0.340952651728462 0.8677632010570629 -0.4591909007390108 
1.142876719385995 0.3228161613655495 -1.261977758858973 -1.813577499924168 -0.4977032783291037 
-0.3935568195540223 0.1397794021299079 -0.1374910600460596 0.02487888658892751 0.2693429513126763 
1.298832993727295 0.08328488923802974 -0.226175699032675 -1.106901184918748 -0.4495889470782555 
1.495182669727182 -0.6306300906669086 -0.8589344107141386 -0.3930737706891027 -1.06066197163594 
0.03005673297567187 0.416735617299665 0.6668554614924997 -0.4317489019794994 -0.5032289733357318 
-0.4331125016006975 0.4986924327212339 -0.1538519331149072 -0.9259264771803584 -0.3072537278814681 
-0.5597213388618888 -0.1268802845436421 -0.5523174122669999 -0.02710150612074769 -0.4297692837029416 
-0.09960895584751413 0.06438460859589601 -0.2389234640915073 -0.001822141508806423 -0.2049238711601826 
-0.0200831431530471 -0.007319753415755957 0.6598257702027497 -0.08463451164786197 -0.01413164449552321 
-0.8218229385567095 -0.9378802738367298 -0.9905253376818114 1.126353978162551 -0.6361706631042613 
0 0 0 0 0 
0.8306450897140327 -0.1032976851847752 -1.307985675807991 0.09493388950863844 0.2796774825903128 
-0.5820097809387346 -0.4886174760140966 -0.4588549150697306 0.3961096171764755 -0.07392176312326652 
-0.5074928674469187 -0.6864546592401854 -0.660083228469398 -0.5349156918637594 0.5053489895063752 
0.281858299948815 -0.4192273798851917 -1.42071783720034 -0.205172590450066 -0.7433507536240276 
-0.1103444882828295 -0.599708545375861 -0.7116387695372003 -0.4128915287604977 0.22991965642024 
0.5321406994421202 -0.001696883275031107 -0.005775175614708059 -0.09817304423482823 -0.2703330137781705 
-0.06115490381622401 -0.2795707302264561 0.8623982782651975 -0.5542764343777953 -0.2990073967050398 
-0.1112443537251013 0.04776187733731503 -0.09945408796531738 -0.2952033848653528 0.01035310445216559 
1.067868046020159 -0.8151346120707335 0.1623046802224272 -0.5168880883562533 0.2727471361647448 
-0.1344070788161649 -0.1143000407632487 0.2690554846028205 -0.3135142732988642 0.5863796392052343 
0.3987233696491371 -0.06455338801821875 -0.2115738256525927 -0.08527048823184658 -0.2134745869760423 
0.3987233696491371 -0.06455338801821875 -0.2115738256525927 -0.08527048823184658 -0.2134745869760423 
0.8365731712519632 -0.06660622691917829 -0.2236036329445794 -0.4323337750380238 -0.2302133271489828 
0.3294451794121162 0.3361204831690352 -0.4218737125315466 -0.1309414753352507 -0.2451908881103821 
0.1750514916438318 -0.2002412615336899 -0.4867224561989017 0.2570909355139111 -0.4204638660011853 
-0.4897926525912005 -1.296965365715937 0.9744046672534732 -0.945948306615697 0.218947689379113 
-0.861966162492491 0.3168127159297688 0.4289644472254801 -0.8906285889100262 0.558268398089087 
0.7617519714456819 -0.6407309097329504 0.1903936824465586 -1.0771116302547 -0.8161117531060214 
0.1097162799581373 -0.367082279608284 -0.3468694725316925 0.4205556347205265 -0.04795493577247209 
-0.03462845344115837 0.2256184310500473 0.0006689668489639408 -0.4871837409036166 -0.3141711562622242 
-0.01793088318284311 -0.2575172547921463 0.1700071204946681 -0.4473131260361541 -0.2740597315246462 
0.09835911378491531 -0.07853303154479541 -0.2533485295030752 0.09804415576983815 -0.3087531580777793 
1.048690582938743 -1.182539852923561 -1.115601196639017 -1.011042568501398 0.6115453347368277 
-0.006563272536750021 -0.7292831300877345 -0.8105974654260103 0.5783698293875763 -0.4121974633731328 
0.863025282834689 0.3513204364848606 -0.9710219779687834 -0.3989137991384937 -0.1380326750096859 
-0.9251858739638207 -0.5059910929496232 0.1218862833540583 -1.561058131484687 0.4407007628012809 
0.2260535721109804 -0.1804792489138729 0.6019049697242955 -0.5827489904553339 -0.2263417646489643 
0.555296886196348 -0.5700411094752802 0.6409483061588267 -0.5506135153436138 -0.05959990150983855 
-0.1847185267285143 0.02130132626259347 -0.6214342089449746 0.4578227690341137 0.2269159788972362 
-0.06002635232282243 -0.4323798014054766 -0.01152157552562811 -0.5210317415536112 -0.02322718860124717 
-0.6851130114075366 -0.4522225445617091 -1.140603769490372 0.9675160926946434 -0.3683219732414156 
0.312532014461543 -0.6659918878033422 -0.140888460753367 0.4148115953034035 -0.7478058126684344 
0.8944285547637154 -0.3267804747377302 -0.2095017835844569 -0.3439286675957529 -0.4718679030282517 
0.223744636411401 -0.1380502380774263 -0.2818031115510348 -0.2287400485865558 0.3275202625152845 
-0.9010220270379121 -0.05457552764070278 -0.8009859759587815 0.6846835847793866 -0.7761692975890768 
0.8312710609003344 -0.5090566673304315 0.4129019184980742 -0.3827849048123598 0.05560594215964298 
-0.3113213198496612 0.259154272552156 -0.4388614577404978 -0.2324514409625797 -0.2044192968734116 
0.1326622976390928 0.328811543236209 -0.174438061591966 -0.785068049329029 -0.1628010556565944 
0.3801095891824864 -0.2052594547160919 -0.165831833949161 0.2268113649691311 -0.3828345412640496 
0.7650510051740187 0.5968533109611204 -0.8816544353152542 -1.427078885238053 -0.5180501833955349 
0.6426445125349988 -1.166674793031975 -0.3596935903457337 -0.1020877643139396 -0.4109047027954999 
-0.3355732313620311 -0.1627834833146614 -0.2313930526203788 0.3165901731980726 -0.8290102838393321 
0.9583271036267569 -0.4608335926774151 0.2612067575048884 -0.1542315082511957 -0.3194670151987171 
0.4004807054907952 -0.1521495665296194 -0.2790231253210507 -0.3064159875020956 -0.1801302182716443 
0.5261408995513654 -0.4014632129382038 -0.2927441048355383 -0.3573557020990644 -0.1872584487030714 
-0.1266815567573196 -0.739374827580033 0.02169988576856139 0.01590679282700373 -0.8021635415920367 
-0.2586796036837536 0.1443582230837477 -0.5948456765851444 -0.7937760494488242 0.226869938029086 
0.8646358907638096 0.3489684528299793 -0.05326902884197182 -0.6923994402787402 -0.8041150411036927 
0.7239724023917843 -0.6228270587756644 -1.073946995639759 -0.5225398859520125 -1.304719705041066 
-0.6182199617053274 -0.6001270423874917 0.2347588823344168 -0.3300754534996018 -0.01549965979122093 
0 0 0 0 0 
-1.345964891167794 -0.06327394013362959 -0.3588963116857336 -0.2676856017574126 0.5429312553774338 
1.922418411765207 -0.6399046165609719 1.369404875285315 -0.5312956226455965 -0.9809080652157766 
-0.7833124356999748 -1.379095076949587 0.4407060383801688 -0.4752452225782329 0.9035514541128813 
0.9515632962065277 -0.1876057996426371 -0.7167852872948614 -0.2098197520377267 -0.4807332381156978 
-0.436860939803183 -0.2974376139524607 -0.1931491294994364 0.1358936036168819 0.006108426975950909 
0.01537254598851386 -0.09888425516448622 -0.574245501710717 -0.323080490687051 -0.06843300053879384 
0.09859068519932722 0.5595192393658942 -0.2075058488809467 -0.1607595185105913 -0.573016410716682 
-0.1970231862069864 -0.08423241061698611 -0.1820848234492115 0.5105798927575699 -0.4216906077210857 
0.6422569624821038 -1.433343581881448 -1.080561077365793 0.2378175423308662 -1.649410820055868 
-1.040411648264678 -1.458457173396632 -1.553336738686372 2.087957125708418 -1.835437535044257 
0.4768274011763781 -0.4049912566726919 -0.4284568393840968 -0.1426498349443841 0.5310151174442626 
0.2106464575878209 -0.2386707720387559 0.6996770682991973 -0.8394707011548522 -0.8740354517235579 
0.5117277513612133 -1.03929934594185 0.1044845132307076 0.1800669025197337 -0.4906945280250586 
1.216760545103208 -0.1824500477037425 -0.1044495939526111 -0.5223768808032522 -0.2853503968101058 
-0.5134316181174037 -1.311058856104345 0.02955462945161225 -0.4014951409617479 0.2055385667313863 
-0.07712377270942597 0.418333631985936 0.5584151227767586 0.1807737542422589 -0.8808357746950576 
-0.8750964545177684 0.5184192767744122 -0.1562954803028571 0.1297538719737644 -0.5539474643324602 
-0.8304849457426569 -0.2420102209605892 -0.1029664945789492 -0.04728763657285203 -0.09574614994879885 
-0.6818670331747195 -0.6955144637932376 0.7328320168095283 -0.2331671123347317 -0.5488499765214844 
0.7402230819024018 -0.6690107163716611 -0.2167015391640905 -0.3269819815393014 0.307378222017743 
0.2502524988593798 -0.2120289792238048 0.06939572667038521 0.01626417579340188 -0.6019688201697754 
0.06455776097593148 0.8261770789094327 -0.7853343874943305 -0.777003664033062 -0.04910624109029867 
0.09920439618446429 0.1386367999095599 0.01624182456037126 -0.1721510094513662 0.1830356857291982 
1.679336882663642 -0.9382965048339217 -0.482091431657323 -0.4994656874159737 0.7493232026205413 
0.3399026734982839 0.1726395721747498 -0.1297721209534926 -0.1716975736370823 -0.6758162420516701 
-0.1518792872811408 1.910395936369274 -0.7470726875278585 -0.3067962422564754 -0.4963100427471563 
-1.112398093178121 -0.3532755766201781 -1.401680496821183 0.6104392213961868 -0.6945646735624211 
0.432492288791186 -0.5547754349597664 0.2914422059208395 -0.2726770456449217 0.477333012671999 
0.7541977021241282 0.124659580092446 -0.6149429463145739 -0.1016008225967526 -0.5987368918913953 
0.04578035984926776 -0.1734785172193014 0.355206742118754 -0.6232801054636106 -0.1131109397824918 
0.9899477439824055 -0.563710791034804 -0.4369001054863829 -0.1820413047711555 -0.4554314446997756 
-0.5680342327980885 -0.04101699391109904 0.3059292631904453 -0.7051580950904172 0.1003843544268985 
0.8817272238719153 -0.07840355189235958 -0.02944678188862303 -0.3655204334797924 -0.7658211954855861 
-0.4749081421022169 0.1686731841385526 -1.455717993846957 0.2044780895511624 -0.1540504849172102 
0.234715835101357 0.2044481198143785 0.369722585862097 -0.516471925787155 -0.3865244740279311 
0.8133345679911337 -0.670138347161281 -0.516508093192677 -0.5505936076167676 -1.18868980022491 
0.262778051862823 -0.3757185410690976 -1.060929627221556 -1.513030581528241 0.4443475639973222 
-0.7022976640068471 0.1931293688354713 -0.1006383981565084 -0.480317952617892 -0.0706487161030025 
0.3160423277548056 0.6387391258876151 -0.9570939016627276 -1.169166188057047 -0.4957387192488174 
0.02715590796828701 -0.7844868621764218 -0.9375340074412573 0.1046577867420958 -0.1714974622047418 
-0.05162488655447912 -0.5900241838685386 -1.312782781499629 0.1834265127679769 -0.6088171739909827 
-0.05226832890775029 -0.2409364738024426 -0.2316878967202225 0.02096622341885623 0.1531833495648076 
-0.2200120372292405 -1.284685643385324 -0.5922060700885389 0.4053073044347167 -0.03891842984860047 
0.6236845958098592 -0.9908347262135722 -0.2948789206261827 -0.6557178070621531 0.6674756048762346 
-0.04328822495288217 -0.2224728846596822 -0.9519913279069894 -0.3992429631036248 0.03202636124882115 
0.1153789087390108 -0.3659738764076417 0.2118060754680866 -0.542483287380172 -0.6230171905621384 
0.2804307788219625 0.192981211660751 -0.5267208837843856 0.0973999337046319 -0.4125596519060377 
2.928312104664658 -2.241613442916777 -1.222070266972426 -1.930335141873132 -1.237938019585996 
-0.7667688048676476 -0.8794004970356938 -1.157119335135964 0.9880762936480301 -0.9665936093927039 
0.5737502696314848 -0.3457083936731287 -0.3721270688409295 0.2845820889734754 -0.947294650365067 
0.01544528028054039 0.3117407622552427 0.1285214211607189 -0.8229206263004332 0.01118731796470881 
1.749241922350801 -1.055645284432924 0.06326984191013099 -0.4855015521020076 -0.887774784652102 
0.3836152279546047 -1.216530201600872 0.4246832252991165 -0.05542335860228766 -0.1997468911444258 
0.2217971195561144 -0.01283057766431218 -0.6405299878208623 -0.1707996143340195 0.4461313732495998 
0.03384619440731312 -0.07235431089693439 -0.2474002864748355 -0.5242953968589873 0.3698812267326251 
0.4418736950177696 -0.008529769374917133 -0.02273368058571713 -0.06096919678367127 -0.005907082127931992 
-0.6242829459457281 -0.003958594592673808 0.4043492767620819 -0.3228169982210199 -0.6542554985763381 
-0.1376506998898353 -0.66557767003391 0.03632368532481438 -0.1584904237896126 0.373978090667351 
2.083766115614869 -1.270378428487408 -0.8144453279576326 -1.207003386441567 -1.051569975582018 
-0.5011105599652214 0.437204713201736 0.05129140211139452 -1.260187231098743 -0.8573087165034144 
0 0 0 0 0 
-0.03113199631777504 -0.1911913628170861 -0.2145124258500367 -0.5958540208347595 0.3948373817424962 
-0.0953198920295952 -0.1124252577821681 0.1427571524234544 -0.9269934243129867 -0.4812110100276211 
-0.1126852872027004 -1.052763851078764 -1.253232639878997 -0.2142546696878697 -0.1843781443858188 
0.5353651280152801 -0.4815008001850217 -0.2478693950550649 -0.05584475525385238 -0.5138263046290287 
-0.3623786480310807 -0.02320495804739966 -0.6049091281728812 -0.2297076873585974 -0.1479500590600741 
0.2514693360707497 -0.4546288499649865 0.7417332242297392 -0.6684385670003793 0.2207731990972975 
0.6288097569786055 -0.7060005020650341 -0.6562984957503822 0.2302154822363974 -1.445408945213348 
0.7531906050072817 0.2093872298100452 0.03826959057902699 -0.8058589674338021 -0.3144613256411889 
-0.1711472149932037 -0.3589689185730617 -0.7490605245845302 0.2314289964432975 -0.04582805155907044 
-0.9623278777391809 -0.2960114936482489 0.9893152067476606 -1.42426276555329 0.1465198479922708 
0.1304281890565194 0.4285890700402548 -0.7382485312178134 -0.005642995095340317 -0.1935179691669889 
0.587652512803316 -0.02186506880815403 0.531557802888073 -0.077645210879488 -0.3995495782021231 
-1.428998776231494 1.118291957691539 -0.6266220254410568 -1.231334537511508 -0.7241458213985953 
0.4343263699468353 0.4575517292479234 -0.1298014039178808 0.1512513692698004 0.2578489637933575 
-0.4500051402796083 -1.189848789455707 -0.7371745277086326 0.733890820367878 0.4800355923197111 
-0.2287157925635389 1.14479467840321 -0.06997866295676115 -0.5941949574028605 -1.541078711822338 
0.9104810926322152 0.6351714007064565 0.4425150190954542 -0.666099549554684 -0.9091081846962211 
1.328650636056161 0.05052256651605858 -0.7131355255503184 -0.4320775635700226 -0.571446470957626 
-0.2694004522088054 -0.02422466635589936 -0.227799791746446 0.0138199119133983 -0.2665247453520763 
0.5582599704797589 -0.03192164548857319 -0.3370906451735094 -0.4211014987609593 0.01180175077816408 
-0.1388645572906596 -0.3882432083262055 0.1491400630479882 -0.6707313056608248 -0.1540010771084049 
0.1518504784806652 -0.2536872555937352 -0.4909724332044061 -0.2569590065486665 -0.6282521810982786 
0 0 0 0 0 
-0.2657960478293205 -0.5314916491740409 -0.342317965609384 -0.2000950159538736 0.4398502819151466 
0.2885028848647261 -0.8245729633013648 -0.2039691016381216 -1.218758995875332 -0.1024988259292379 
0 0 0 0 0 
-0.0809812953410517 0.4849440213881013 -0.08910343425717702 -0.8352286336360523 -0.1054682682309088 
-0.2473475628630168 -0.5545527952879541 1.166077921391661 -0.4368727119451691 -0.2946742317195271 
0.280209770801124 -0.8367254046639383 -0.7931195881924571 -0.1459523521216922 0.2479212817112602 
0.5377095542027901 -0.09460290206768326 -0.1740900389882573 -0.1488379686900422 -0.4144864048224111 
-0.1718250660431472 -1.018631686551184 -1.242206048929429 -0.02440794138605549 0.9666631503622825 
-0.1979112351373087 -0.07965603843161721 0.1016996067854788 -0.2697988861184902 0.4773829980554593 
-0.7015297715217249 0.2867861138423482 0.03236679472562869 0.7253585110129196 -0.5205031141510109 
-0.4248811171638367 0.2991120261543377 -0.3196491629947093 0.2225225174590907 -0.09457182483752546 
0.3581131711602162 -0.1790658044344856 -0.2376671776057355 -0.1447327944912596 -0.1379054804626413 
-0.3381254909258684 -1.0226206800482 0.6937454826304977 -0.9312330615638291 -0.932677368104514 
0.2046058307884012 -0.8297189112483802 1.282754878051671 -0.7322503590682206 -0.7937258655943815 
0.1900932859865214 -0.3376567793740662 1.048203462251758 -0.4763356707784545 -0.3512619805859312 
0.4907121816751743 -0.04699556014690526 -0.002516751709473067 -0.5058362644738429 -0.01679998753795467 
0.195676638498749 -0.3315084376279355 -0.5375761180663473 -0.1130375523485395 0.3761320515599801 
-0.5706242760987881 0.1481971586632552 -0.4206506840019928 -0.8901785313214444 0.1778343067522125 
-0.3266495303157522 1.056624069076732 -0.5177792790391343 -1.265439389842034 0.470410361573512 
-1.15592887845085 -0.3437345475082231 -0.7907798519426341 -0.8348588317848444 1.184601304425735 
0 0 0 0 0 
0.2969610811389814 -0.0973667773133175 -0.0365474314911336 -0.1392671266969756 -0.09975817500794412 
-0.4747216449519336 0.06183328393939717 -0.6960243721396566 0.08130200868371551 -0.6462441723191344 
-0.9637528027094839 -0.5729298302510668 -0.00792605981369263 0.1598245929944129 0.5107979229594047 
0.592301043504605 -0.3162789174772911 0.09174766805845243 0.2223749769950887 -1.135803867781021 
-0.2780114306650401 0.5471634022357501 -0.3094637359414438 -0.4085238828201015 -0.04113554195082274 
0.04310477584528396 0.2184039886274661 0.4018386809854269 -0.8452539656730774 -0.6703384846094431 
0.01564316369520079 -0.3723948358463409 -0.3094377277607245 -0.5289938431566577 0.8313771091302746 
-0.5776175239499909 -0.3227833774724673 -0.4596551594072984 -0.6077332413011638 0.8624499664868565 
-0.4240693281620884 -0.2906657505212956 0.3609997847343297 -0.09972656249771798 0.05320593763599986 
-1.057444660868599 0.0512319477216055 -0.276950099550083 -1.08592606128205 0.4429590223458122 
1.084599653709235 -0.7086710950489851 -0.6928407785660595 -1.547105893929698 -0.392007709562301 
0.8305859649659858 -0.131207837909798 -0.6476112186881869 -0.6526753494841149 -0.7728286899264865 
0.5645940733236836 -0.7276021749547328 0.2130993620288912 -0.592419095175659 -0.6679004389129756 
-0.0152326375751542 -0.2562102087833739 0.143910871376485 -0.1944099244515393 0.2164997228852467 
-0.2568615306078474 -0.9217181177035467 0.2839114742941851 -0.8700931072905316 1.045495428143413 
-0.4628234135151881 0.5686161467998574 -0.6292332246908608 -0.4763451068885663 -0.4921635409595482 
0.4430433325321655 -1.449434689082926 -1.086264004512076 0.3745720280506419 -0.7795570018225073 
2.30720257703797 -2.035074693492463 -1.79728673158869 -1.573405456601997 -2.030259635482533 
0.1298065122356326 -0.49139045043477 0.2448579435326294 -0.2096999310777718 0.317586625262331 
0.3297881993577241 -0.7055540849728785 2.44308358451727 -1.222996134698716 -1.483115540780842 
0.2979227024716142 0.4792506043215051 0.07780720299353795 -0.6138053411969208 -0.3664716232866661 
0 0 0 0 0 
0.8029438172513016 -0.4933557304505298 -0.06119989693904734 -0.3443643070914142 -0.291138446323533 
0.8464549231107064 -0.6557091320226314 -0.08206819641883725 -0.6442746549660779 -0.9470698106137642 
0.4247227605174948 -0.06158388750023896 1.133189297699547 -0.4929747811393948 -0.0811614080901667 
0.2475449582429567 -0.8411776053125756 -0.5885632579903921 -0.2886708580079226 1.185092099075286 
0 0 0 0 0 
-0.05983817843428256 -0.2980852281441669 -0.2032528318754641 1.565263426648112 -0.4752700362906505 
0.4329690322454136 -0.3605901393390262 -0.3009208313557686 -0.3735858643409644 -0.3190050288881607 
-0.3093247369436414 0.3504142437659647 -0.5620004457515925 0.2565566249131968 -0.2423306510945783 
1.153788647204662 -0.8726364461980404 -0.3391738702467176 -0.5777007795613799 -0.5124795860621556 
-0.01701779765485144 -0.2661898419902658 0.5886271866504856 -0.5605980543404054 0.1046373871025061 
0.8461158977676749 -0.453098473720808 -0.5234509653333794 0.4215338995208185 -0.9224274138579497 
0.7694726481656198 -0.1602480987835559 -0.1927473652571866 -0.5114627366881552 -0.2638469508381885 
-0.08759070311602643 -0.2427742350853364 0.8529826846997834 -0.7236315180355304 -0.07280159015836281 
0.2401855246608687 -0.6940945047795992 -0.4170016576860859 -0.5304960119894115 -0.6176749214834087 
0.2081940395212463 -0.3087715298527377 0.3405691152608622 0.04716043690109438 -0.4977673163841514 
0.06945579497220407 -1.09890228208838 -0.4394803094458929 0.07687580413698678 -0.3276630652024677 
0.8800100232424819 0.2535786936167335 -0.1850403715999295 -0.8957244248921281 -1.085540107659203 
-0.734520241679008 -0.3663007017134766 -1.037695760073549 0.1238361613237169 -0.1407624597365277 
1.103942057855338 0.1560334689156 -0.2866790297510379 -0.284811528753084 -0.924911219513109 
-0.5914687480392455 -0.3503006896582364 -0.6072917422433892 -0.5317734969837463 0.5009359417767613 
-0.1403407406278999 -0.1461747962609896 0.4141675220793726 0.09826727856721565 -0.495200288338236 
-0.7976136492805478 0.05900510676013009 -0.4136557132624407 0.7914971786369344 -0.2280282904720271 
0.9152537496936882 0.2251288695060743 -0.6173445840713129 -0.5966266243610575 -0.3498988574278111 
0.4103854717508797 -0.2154288455612551 0.7750261371804793 -1.039730451279854 -0.8311504575185251 
-0.3266773297803161 -0.02847721187483746 -0.4686958774874337 0.1661215714812669 -0.2378372544737334 
0.5949625709209853 -0.2170808899412534 -0.1048953493112405 -0.3542857351023611 -0.1435513370586769 
-0.6358061755602806 -1.090656046741485 -0.8884055018108201 0.9667849744681406 -0.2308647213560838 
-0.4813176705719127 -0.9934276597338048 -0.3228357876834554 -0.3859166450911687 0.2610872421302471 
0 0 0 0 0 
1.114549573968165 -0.5851517139826906 0.1245568586338041 -1.088034999742563 -0.2612789831879762 
0.7224921543171935 -0.6463602019755095 -0.6504413038892788 0.4759794074504286 -0.08058764608749619 
0.2209497622235033 0.07419887228790151 0.5603893151044368 -0.05509639588323786 -0.3425375706800615 
0.2436714108960357 -0.05027602705798014 -0.02134276242455472 -0.04344148730956222 -0.2773803564017804 
-0.06310945432504594 0.005806735128272488 -0.1480136229436695 -0.9888145818459873 0.9785873962271477 
-1.074523824163925 0.5245221202178066 -0.1976103813814837 -0.3060354934866573 -0.5298635263067417 
0.5902670856163826 -0.9431470842269244 0.7254590419102536 -1.190662689021046 -0.6811299741514167 
1.348941077486826 -1.493014450135048 -1.097641795165237 -0.6605884606634882 -1.072710265867626 
0.1119688994782039 0.327353846219766 -0.05534144920600439 0.1503240508775189 -0.4660909730589232 
0.2051454823309888 0.3727165597015479 -0.139181527207186 -0.3655439899980349 -0.4093235072291563 
-0.3684063674382202 -0.6466315652612639 -0.5980820912252772 1.373987458389665 -0.5367931661899281 
-0.2646631538538853 -0.7713486263538046 -1.220560163697306 0.006129828317691492 -0.638467147160136 
-0.8306826734505444 -0.644371946447037 1.002787185917142 0.02025739645057773 -0.9427094396217501 
-0.7297816770494197 -0.983824349163783 -0.7457429932099329 1.105598568494705 -0.4337993970557904 
-0.4738991703016343 0.6334324252626116 0.3169724821629792 -0.6033443037147708 -0.7334751629952277 
-1.051756895312101 -1.008143345546562 -0.9855558403773498 -0.9574686229308025 1.228602147044782 
0.8818195352881499 -0.5846980563792784 -0.3818007321949691 0.07444470080527715 -0.3818954396666559 
-1.031797494947845 -1.715246990512403 -0.6378201396751557 0.4501630705669292 -0.3100193954584619 
0.5353788884524999 -0.4216961369752202 0.3775481588294199 0.2165872292313522 -0.6357701453675174 
-0.3721177930322846 -0.4849265153369641 0.3283796569710587 0.2671162342098047 0.07651764940117745 
1.874137098136446 -0.5684751947364195 -0.2960639224234274 -0.623091351492892 -0.7758462235668017 
0.2933354124250221 -0.2930651646448131 -0.29313794677337 -0.2960349035082382 -0.295617592271286 
1.557719068768465 -1.0948767302948 -0.4709875920402735 -0.8690535371291704 -0.7553540340442967 
1.462887020152111 -1.228111065051905 -0.05971210723477693 -0.46300843806856 -0.578268709449285 
0 0 0 0 0 
0 0 0 0 0 
-0.1344161281136135 -0.542690767378342 -0.2586558804988054 -0.6662772889179783 1.094018497301888 
0.4692291602668497 -0.01089832228429033 -0.03560416493078369 -0.1008211937718889 -0.09896102749258634 
-0.4409321931873291 -0.4460809697861166 -0.5509422223313205 0.5991242710270472 -0.9312183516843505 
-1.581012592577126 -1.584779823078145 -1.14173147767317 1.609480372462883 -1.429140374213479 
0.4940677571657871 -0.2557747442839661 -0.135164233800512 -0.420449992780619 -0.363915831319166 
0.8062283158332052 -1.137168306659671 0.276694133224627 -0.8413328813002505 -0.6282501418829716 
-0.03453504984010718 -0.2554888030221091 -1.057530893579061 0.08138452278002681 -0.1990396019880641 
-0.3208595481996006 -0.313385720874129 0.1611888474873622 -0.382484014678206 0.05661889687629632 
-0.4418143770081774 0.8072588377259001 -0.7402521212114772 -1.368261165213914 0.2173178796456698 
0.01032176582845698 0.04586310731282049 -0.4287330999532388 0.3012469032044671 -0.1871217289170696 
1.476870197491279 -0.7036987420024194 -0.6617768061647972 -0.4424989962685626 -0.7160000777001766 
0.595989111121859 -0.1773410379180751 0.5947788671868561 -0.2439763172927715 -1.114529260401213 
0.2200869860498967 -0.130336561558038 0.1147133212528506 0.4071806817363125 -0.03164599421366865 
-0.4851753734143217 0.02938033884394636 -0.04974381506298376 -0.3765397152737935 0.2999428633141368 
1.129992776455421 -0.7350341985672025 -0.2293868862556236 -0.005990522131724862 -0.1655400445843676 
1.129992776455421 -0.7350341985672025 -0.2293868862556236 -0.005990522131724862 -0.1655400445843676 
-0.2035445047916749 0.02865464647379367 -0.3269710747890818 -0.579806379727107 0.2944419354586053 
0.086408758477103 0.9870760116101859 -0.4874141623123992 -0.35428107990752 -0.3600249703568562 
-0.7587423284089732 0.8461728926435976 -0.4081823546748999 -0.9984880937860856 -0.4523558520443909 
-0.5080641200697881 -1.073322236300772 -0.7310367713244335 0.5117659465047106 -0.6593848294204596 
-1.297685142694865 -1.257299282720826 -1.564559963428016 0.8201855530841591 -0.9262492217129911 
0.1258086802767181 -0.717302762835235 -0.6675032135061021 0.3542785084741587 -0.8462895525960432 
0.6066758171044483 0.2609235103703835 -0.31960611464383 -1.156491886319856 -0.1240697154911942 
1.024558210555764 -0.1031739010513437 -0.06911695635881814 -0.8494762029838866 -0.133974141108512 
-0.1035821946944309 -0.8123503319422021 0.00736445182038337 -0.4714302146849175 0.3286383943492192 
0.3106167990563001 -0.1635952611278512 -0.3993144875900232 0.1577369839466914 -0.4853438722376097 
0.3366714324371063 -0.905175742686945 -0.9249824280541287 0.7666775563391017 -0.7222623752309779 
0.691090711957855 -0.04914683034762317 -0.01236997576876429 -0.3829152297836178 -0.1041113092415824 
-0.6441217988681367 0.1464435937332053 -0.5060117939855884 0.08633550284000044 -0.3666189736977771 
-0.2629902746324508 -1.302948769728685 -0.2680536941709014 0.7323214755648476 -0.4099700897011936 
0.217740988875772 -0.7564557115725142 -0.3459390067803053 0.3741749382343876 -1.076151309597955 
0.4058505414845944 0.1241112691327239 -0.4301550801546602 -0.308001401760574 -0.07079711516543059 
0.172460168589801 -0.1818679483965312 0.6527181575439249 -0.5411292294175389 -0.3776496221483026 
0.5571821949011956 0.1194691112351455 -0.1118745182588619 0.0663371516492743 -0.05133142313345422 
0.3854770921690032 0.8721636633864649 -0.4804340930880062 0.02750419215825905 -0.358303961161558 
0.1939870656624555 0.4284014804817924 -0.3250216823950533 -0.4260776373127983 0.1045587629436157 
0.2674092881304008 -0.3480068691460187 -0.1861650988285868 -0.01493908300426328 -0.08733494230566642 
0 0 0 0 0 
0 0 0 0 0 
0.8014536831870772 -0.2983630130601208 -0.2591831166649062 -0.4126444481437522 -0.318624527779431 
-0.8622726903994695 -0.1464262221543877 -0.426481544799127 -0.9298108071225845 0.1297947643184285 
0.2996618183263057 -0.1480363165401422 -0.2535168472471289 -0.807046516278497 0.145599491664055 
0.5890586350884366 -0.02124201899032563 -0.005536833824330726 -0.06520760418656343 -0.3959951124249281 
-0.9471288475405145 -0.1445984670717005 -0.8965584484769293 -1.257773961621108 0.9011902920174354 
1.236169997444626 0.5364616375884007 -0.684759715023318 -0.01588333445244652 -0.408958430245274 
-0.230257050777734 -0.8627544844006328 -1.28486274764738 0.4631848205673156 0.8047775499428378 
1.641687927543325 -0.6886070759704594 -0.2497455859353646 -0.7065417862771906 -1.166684036062483 
-0.2309978981459558 -0.8831728278139591 0.1935936361589576 0.6896881526099531 -0.6569222741107422 
-0.1808188759156468 -0.5245600298425445 -0.2925021093454847 -0.009750270624540539 0.5076150795799763 
0.7302267537767266 -0.01705730600803184 0.7026088173448172 -0.03049363077520676 -0.6018012783866351 
-1.106702133763667 -1.352939246208157 -1.65894400740239 1.619595571891416 -0.9896917303457918 
-0.08053191546579744 -0.1461349796155179 0.4698208462669131 0.07582191110178513 -0.3995498984761968 
0 0 0 0 0 
-1.004519981210345 0.569363741664254 0.3022014780645474 0.04277582451019731 0.02882071061668409 
0.7059221562036067 -0.6993132850316157 -0.3112228944367483 -0.9647959978599515 0.2782372756730093 
-0.02353443965442797 0.3888603168360325 -0.4074036229742973 0.5053603165711903 -1.213472146578665 
0.667239320417871 -0.9713139630912062 -0.3625968807569404 -0.09310495501506925 0.03805190795172007 
-0.2897289270832781 -0.4152876639300549 -1.160601305613087 0.6015910961891471 -0.6270647523152109 
0.1628202765461323 -1.646197062175814 -1.407438510517262 0.3673753896437675 -0.6679620182900281 
0.5451367802936781 -0.5454303340518787 -0.1196699938769755 0.3594482399648894 -0.1052743553975754 
-0.5303583717774769 -1.342513271155853 0.04831933005468107 0.2521509358817008 -0.08892722799458856 
-0.1454582720374491 -0.3236867037921858 0.4396363535603786 -0.07424270058607033 0.4115136047891212 
-0.09619857680263721 -0.8561166609859335 1.349255834275174 -0.2873574523729279 -0.9737656271588755 
-0.1570490848733533 -0.05961951364421629 0.4490148894869476 -0.2302481434249325 -0.178486337714483 
-0.3829432059689998 0.1251819008799033 -0.3256267284583357 -0.7311903618994227 -0.3034941853440662 
-0.5164862601258238 -0.06651081693196109 0.1830338790667742 0.1639204919203878 0.05394425805409668 
0.3665615029086967 0.005586898422773998 -0.2673757802753786 -0.5422427244687856 0.3563004278220009 
0.2564534917814466 0.4220577928201668 0.3695643026465868 0.2032147775536169 -0.5884278375845725 
1.227283669361757 -0.7601953327305869 -0.9942324831937307 -1.088071312339392 0.5248509011313774 
0.2079276581612814 -0.0506377062028299 -0.05929033023059989 -0.0415325471029686 -0.2443009534084162 
0.2546958064426919 0.4962150890453698 -0.5431126892851676 -0.1211206497821262 -0.05163950330123025 
0.5529407545700797 -0.005955184839569187 -0.1103920497759834 -0.3676371496703513 -0.2211753927184647 
0.2079276581612814 -0.0506377062028299 -0.05929033023059989 -0.0415325471029686 -0.2443009534084162 
0.2079276581612814 -0.0506377062028299 -0.05929033023059989 -0.0415325471029686 -0.2443009534084162 
0.2079276581612814 -0.0506377062028299 -0.05929033023059989 -0.0415325471029686 -0.2443009534084162 
0.003834796267272508 -0.7476242652414874 -0.191746616170882 -0.1200160413295938 0.9585726019967348 
0.2079276581612814 -0.0506377062028299 -0.05929033023059989 -0.0415325471029686 -0.2443009534084162 
0.2079276581612814 -0.0506377062028299 -0.05929033023059989 -0.0415325471029686 -0.2443009534084162 
0 0 0 0 0 
-0.06409404071961035 -0.2630280160358206 0.5685646845438009 -1.086657451693432 -1.180889921022029 
1.102023777604125 -0.01450501098269085 -1.166630579575371 -0.4506227315249203 -1.26939812979245 
0.2803259201570704 -0.2087247244446284 -0.1102690614029119 -0.008105981056324733 -0.1968372100160221 
0.2758671758415638 -0.5801311735480683 -0.9485227495343617 -0.3182717718325204 -0.1895705568021465 
-0.3745687327623861 0.14251328248463 -0.2462398126859417 -1.418486929718045 0.3248896834375713 
1.122697989311538 -0.195147935762154 0.1461908072291467 -0.3982357348700616 -1.348336544115464 
-0.106323273779439 0.2285846050316535 -0.4213701883302255 -0.2104623494539248 -0.1110818314313714 
0.5348905907425535 -0.4435394723586228 -0.4599970270846782 -0.244192475755167 -0.3115909918368746 
-0.02505681961893592 -0.6997392071860782 -0.6341798542064719 -0.3236716603623839 1.358520223479645 
-0.3973260414487419 0.2794689066513593 0.01157722301474925 -0.3130709479682592 -0.3649774111277047 
1.230732456526476 -0.1223625625896812 -0.07055325495951902 -1.045565901617831 0.3037689255560616 
-1.034856811409969 -1.129625787416988 -0.8179171334533097 1.269245204400823 -0.6841446042063353 
0.765054548769848 -0.05708768220680478 -0.1288941463642227 -0.4126915603971749 -0.2381953404639045 
0.4072303021715758 -0.2106264498793018 -0.1127429349071035 -0.0875187771801629 -0.06880264468100353 
-0.4249651724719731 0.3273541279648279 -0.5851599166129112 -0.4337281480192822 -0.004221924680059586 
-0.1248249322042671 -0.9038002277218599 1.706283617682417 -0.9401396269590133 -0.9784740919241099 
0.4072303021715758 -0.2106264498793018 -0.1127429349071035 -0.0875187771801629 -0.06880264468100353 
0.007255117422490719 -0.426157352239611 -1.009159812318254 -0.2039516400760978 -0.4077538582836308 
0.08880352360930957 -0.4417146397151961 -0.2288588280734561 0.432185008157662 -0.006194388421489894 
0 0 0 0 0 
-1.262131774404726 -1.667007213738501 -1.143283780855421 1.124293533425911 -1.46136913508558 
-1.108247404762901 0.4897825279292182 -0.9167285855708839 -0.4570361871716919 -0.9522556036145742 
0.4051746512260815 -0.6489988378568885 0.4629671171080036 -0.8507810571168606 0.1319609878738733 
0.004609166896050617 -0.8191660212883872 -0.3181495770417978 0.8379197598339319 0.3619763530514202 
-0.1837133013640346 -0.5392786189046046 -0.008199576037750778 -0.01747152009100107 -0.4284935124905075 
0.1897547585891294 0.2461553275729095 -0.1999559328452118 0.4501147479876577 -0.06632459158879397 
-0.6583921028164931 -0.9304866075264878 -0.5736051056340713 0.2477600838633256 0.6496877143510544 
0.401921374371612 -0.02182145963495016 -0.09738239325535952 -0.08097639063873263 -0.07613580883124718 
0.3683491250141581 -0.2882652382515986 -0.2548737234769363 -0.09004065280643105 0.2346807371468553 
0.5719491880933325 -0.5627786180798793 -0.4361415103883476 -0.2384922036136695 -0.2426983923711896 
0.460136742695027 -0.1847216616843139 -0.2469532226757632 -0.1962703238864021 -0.1859402343730738 
-1.175105331713137 -0.6979701985038101 1.128269966140685 -1.54352059458641 -0.2530073025549742 
0.7625073657534551 -0.3697831136233418 -0.2091072333691426 -0.01213320137231712 0.3801000227127435 
-0.358619039525637 0.07766253775852529 0.05276592577300056 0.3600951527724667 -0.1685221260143336 
0.9260571455927675 -0.7728632520953985 0.06622838546320617 -1.550668253137502 -0.4594932644766912 
-0.2532274106764771 -0.09031368780884803 0.2617822246112765 -0.4292869631603616 0.08726034979007588 
-0.7342887848069877 -1.551701268549877 -0.2826967973981355 -0.3385552958408806 0.4535002750415582 
0.06718644048016638 -0.3650627974031568 -0.1467151369116123 -0.04292250945388875 -0.0743249674775143 
-0.5138971247000066 -0.5318054092643104 -0.4672246940161552 -1.082082609763988 0.8248363237180802 
0.6615489892341457 -0.05456261302069999 -0.03972941908173372 -0.5263922357705819 0.5966902293283441 
0.1534024576633392 1.110503955438087 -0.7716341800666419 -1.122159558472211 -0.5605576442441375 
0.1376186792240258 -0.09797870139077171 -0.2726815636320486 0.1559427163028347 -0.4073730081714257 
0.7132362961333439 0.1111572906732837 -0.08010519466720638 -0.8266017404249622 -0.6135991529917307 
-1.314193927137263 -1.125969991743297 -0.7923648560950595 -0.5873494285064776 0.6867260358821987 
-0.2543821270668477 0.4258786112911312 0.1564061531223921 -0.7709758805227378 0.1179009240694739 
-0.1418523105410478 -0.01066039387159808 -0.9379782600624326 0.07059666436157611 0.297241800736137 
0.1091734028176931 0.03963771716602574 -0.3887650450035416 -0.6542255028101991 -0.0244010669512662 
0.5174797023737457 -0.2890626285134973 -0.4292001655560399 -1.052973067380617 -0.5134102423827034 
0.6029608793571465 -0.6951361659167478 -0.3070016917814346 -0.5069523918504253 0.8276504488871467 
-0.4909559299077865 -0.6512375601689552 -0.6156842023864062 0.09868495885713931 0.1837134100297454 
0 0 0 0 0 
-0.3709965614232427 -0.0596113285617947 0.1639202492395076 -0.4597161088653963 -0.3788443944559385 
0.6793670221789081 -0.4067992991596429 -0.1329627668816599 -0.3424795745729373 -1.270526554629242 
0.3688940253658181 0.01518842433323569 -0.2659829021722494 0.511584379189199 -0.3447677944177796 
0.4589478800005589 -0.2593777276790868 -0.2875371297348931 -0.2887875343725359 -0.3159743394498957 
0.7620739679952917 -0.6055773801491477 -0.5984915097387183 -0.9172280239247271 0.6788525692576369 
-0.5389049441709762 -0.3589738104439217 0.6124192336656736 -0.4952052399277075 -0.5115288512263525 
-0.08809982850531244 -0.209996470085303 -0.285090334638037 0.4409256966349605 0.3250858645807184 
-0.9463535781729538 1.647422444318909 -1.148089610815821 -0.04643241809920173 -1.124467585824367 
-0.756491620409084 -0.7786523275231233 -0.2786884192753145 -0.1568525466572884 0.3843923401603913 
-0.1435144598642942 -0.5318099840580868 -0.1808306430676659 -0.2165689936017032 -0.1556676770072508 
0.1570291142405486 0.5930736610840321 -1.090698416702033 -0.588267953947317 -1.16631669599149 
-0.6710370484618803 -1.387301239685359 2.106409250658051 -1.247674389820465 -1.441208068467817 
0.6573973903669459 -0.005573935976094674 -0.1346920373800078 -0.01430112412610221 -0.02898798823636971 
0.3441927061649775 0.05517231156723215 -0.2052071471422885 -0.05817859056094859 -0.08787393482896941 
0.4029281950016697 -0.1195818223651107 1.08930180882579 -0.5027262608093993 -0.2370662894843926 
0.07200707558093654 -0.01469258902448336 0.5385005620582685 -0.2165396508288597 -0.5183035636926135 
0.7160972992177953 -0.01237974812390009 -0.005645109991939144 -0.8456674335551462 -0.04192714348187571 
-0.1537869410943349 0.00413176857000912 -0.5133194118244409 0.246194342062483 0.2131837780413003 
0.7618304667077425 0.001864070687855899 -0.3304625875664375 -0.9602008355078282 -0.2242536630406522 
0.5433243356545274 -0.8801253157190202 -0.6669853027302183 -0.1361403329482623 -0.1068513147967112 
-0.2335751241136912 -0.5539398379617336 -0.3978766758668112 -0.2279091223683999 -0.1436283935765478 
0.4543797528332395 -0.1599283636298245 -0.1547676775879939 -0.3582837364847614 -0.1698610973425381 
0.4543797528332395 -0.1599283636298245 -0.1547676775879939 -0.3582837364847614 -0.1698610973425381 
0.7606344324095764 -0.4911546883999391 0.612783174046906 -0.5337414062967771 -0.8188832841562852 
0.2529426501649543 -1.081262458303533 -0.8560126227106551 0.221609541600508 0.07754734023350743 
-0.7928563682672525 0.8987798194143339 -1.479305951038864 -0.4067786377090444 -0.2769907637745044 
0.01486282352036392 0.08949826154986185 -0.06841321196399539 -0.5070551219540305 -0.02546280741381126 
0.9706148005281272 -1.670439005439011 -0.3007087956888655 -0.1671009794089333 0.7263085744601993 
0.5133671092535768 -0.2248857397442911 -0.06889579502953265 0.6826901625245669 -0.6844562808533875 
1.169956779976599 -0.9757716207740116 -1.32192037946224 0.392621653115396 -0.9436792418909612 
0.6145056894716717 -0.2144933091681389 -0.07379574060617464 -0.185535880208403 -0.1398260516550422 
-0.05814165074187921 0.2093816959152623 -0.09444369512327672 -0.2636158570997638 -0.3082272323056477 
-0.7797230717492951 -0.6726496536001283 -0.8769044222720501 -0.08506827312547499 0.4002564451263634 
0.990228556512001 -0.3119611853228055 -0.2014572666974017 -0.4237959166075097 0.4966817150822543 
-0.3006102277654524 -0.4250946952074905 0.5333739111562927 -1.617220094436169 0.5522751561322597 
-0.2141684435295468 -0.5903503013796009 -0.143292212955862 -0.4512373667362254 0.1573961848424039 
1.734964811997957 -0.5858071383178638 -0.5060163794908278 -1.159125204631545 -0.6877537063942718 
0 0 0 0 0 
-0.6632267282507444 -0.07663554151681616 -0.4921767625581769 -0.02216310275132831 0.004726870275509609 
0.8958468435936475 -0.2881148326774777 -0.3839605201757823 -0.2906935700425467 0.0647216506267614 
-0.4983861667933111 -0.4892279946738876 -0.4573578147070259 -0.5394217190190072 0.6175383945734971 
-0.1101665078806711 -0.4298710346354632 0.3490239428578595 -0.1814590043893099 -0.5033714099853279 
0.358091736447234 -0.03676215890047686 -0.04009251543487804 -0.1455197247691017 -0.120615232939496 
-0.2108002197410404 -0.4301509595758075 0.6214815617896026 -0.3964472332437489 -0.4218512269435037 
-0.4089328673884955 -0.044410503268198 -0.2375992758739435 -1.150684630006043 -0.1566219646137266 
0 0 0 0 0 
0.6687052981937747 -0.04074742754505244 -0.1514161756839012 -0.2708720208610702 -0.1946333480227398 
0 0 0 0 0 
-0.08680702576858133 -0.442784174290244 -0.1867466818897491 -0.03834912730414113 0.06926236078497479 
0.1537525947813919 -0.7224350691110039 -0.04813122231032661 -0.008307358501125371 -0.7097948331198206 
-0.3897459337397453 0.5391974498470287 -1.168547064362643 -1.405828823519494 0.3326324105962361 
1.602336279957171 -0.5169090262104052 -0.1302157916501369 -1.456597436050203 -0.9701631018770905 
0.1032892269467793 0.3987817008456108 0.3862898743585598 -0.1631770269620861 0.07020800483723665 
0.6158641453437113 -0.2147763200324529 -0.02728585149395598 -0.2583638769187866 -0.12023361980712 
0.8812637303353416 -0.2337313383001002 -0.05916348496030146 -0.5976261881994641 -0.2335235257857844 
0.1931982461935761 -0.5405131422467404 0.3030069731417838 -0.6844690976335404 -0.1767888384198553 
0.2993276006943041 0.2921055554182849 -0.9913703570101621 -0.806075823363722 0.5607701200504963 
-0.3395141834539411 0.3291173207671401 -0.564100118057617 0.431540414429568 -0.7643226621109546 
-0.007394370913958124 -0.006249388509934511 -0.01916749717718491 -0.2596621115687449 0.6518018800794825 
0.5349963508416021 -0.2359690017613111 -0.1495589769587815 -0.006773740638185905 -0.2509503825117969 
-0.3183498142189126 -0.1782739338087485 0.2227545209540539 -0.5268769870553678 0.4125179060877116 
0.457269289698451 -0.371283679796568 0.2153878939190084 0.2680678714571081 -0.4173346214350065 
-0.04533763884188423 -0.2996597476745167 0.6552407456691715 -0.05254839445373333 -0.2766316666894919 
0.5349963508416021 -0.2359690017613111 -0.1495589769587815 -0.006773740638185905 -0.2509503825117969 
-0.4953837488561361 0.3680519019372681 -0.6773304579499686 -0.8603678976584257 0.5456087462195816 
-0.03348559779949444 0.04918929037663619 0.07692355147022625 -0.7629347034011962 -0.1179740283793435 
0.7649460051874415 -0.3867260498513369 -0.3167196886046374 -0.2655484137973525 -0.2714034088053875 
-0.7438792913439222 0.1755886013406026 -0.6950941378121864 -2.567090693323105 -0.03264376414335257 
0.3014848549685821 -0.1392403108013275 -0.00527265082127747 -0.001833435063925057 -0.2098828269374083 
-0.7520726827419453 1.307630926753262 -0.5992784199190027 -1.277014318892024 -1.367891719607694 
0.7785852478661383 -0.3245856710532552 -0.1407509931545691 -0.008101049843594268 -0.1926385455121755 
0.09601011978351526 -0.9485175491857109 0.0248627438043728 -0.3781611328215075 0.3517981196957918 
-0.1449156032402125 -0.4324896189768428 0.7612469724262357 -0.2786055589605655 -0.3291926752013569 
0.7828304572615645 0.1500298396998649 -0.1183591300976323 -0.5960429615165184 -0.2247696014537963 
0.1615711810628463 -0.4092996939694638 0.5923340224154302 -0.5132560461334124 0.2123067560128031 
-0.2039910842712517 0.2320386919695133 -0.1918045194197275 0.624203335034188 -0.3858837880658179 
0 0 0 0 0 
0.676811122695546 -0.3488849787616335 -0.2184759683394211 -0.06468599580017409 -0.09253959582373837 
0.2674092881304008 -0.3480068691460187 -0.1861650988285868 -0.01493908300426328 -0.08733494230566642 
1.346609379613133 0.06860613592853333 -0.05796816765717881 -1.416931098406772 -0.6156748694133007 
0.1337046440652004 -0.1740034345730093 -0.09308254941429338 -0.00746954150213164 -0.04366747115283321 
0.7040875450089199 -0.1892720648645978 0.02453711606252246 -0.1440697619363576 -0.6385108539401156 
-0.6124075673738615 -0.06659819499496512 0.1484389754141268 -1.518985138198401 0.3198195510673091 
-0.2649892306348512 -0.1745829743199179 0.4992649614442311 -0.09902937514236065 -0.1766472136651086 
-0.3912453404494838 0.0679954569193609 -0.4846471132367507 -0.1686180639309116 0.236325372935561 
0.2799178955247868 -0.5578509840471619 0.09494306573315527 -0.351363053794164 -0.1468199437421238 
0.9276033182267625 0.1704599216567984 -0.5924517825048184 -0.6984737352543646 -0.5557016799281765 
-0.753434551045474 -0.7882283721299265 2.22200005787702 -0.1930970472312097 -1.437655068004468 
0.2089192747496572 0.6520342961659935 -1.300165577849686 -1.227783452492548 -1.251284803640905 
-0.1581947120056832 -0.2614537126409517 -0.5216051747231835 0.2928726658269939 -1.139371562730041 
-0.04546920407988959 -0.01283733946745362 -0.01912188393238899 0.08263308906755104 -0.02336578248874453 
0.1869519990509123 0.4802807692989705 -0.1904210126625968 0.3093804114791249 -0.1282903642327531 
0.8314063068921365 -0.08497547518732274 -0.0135090028119028 -0.3292887930117082 -0.2017470020890685 
-0.2184639382418226 -0.06982819040217818 0.1135422130931087 -0.5344543343944358 0.3408100875671523 
0.6142840259101994 -0.9077110971788438 -0.8574829698279333 -0.2534424828740937 -1.143743038342685 
0 0 0 0 0 
0.2210949835531821 0.2380074511164638 -0.2124820737124861 -0.241641589695535 -0.458195246758053 
0.8272145619337062 -0.1244148808507849 -0.3388999162377573 -0.2741619153706704 -0.5918028797149095 
0.2168594950614408 -0.1548796651840411 -0.004727007937097761 -0.008247963920948523 -0.006708930645272196 
-0.7566845404449711 1.779210780588 -0.530343341359287 -0.7750882857841046 -1.275834875944331 
0.4604609742480628 0.3733235632551851 -0.4746831105631968 -0.3432468589627349 -0.721369914156866 
-0.4558647593486376 -0.7889355418876532 0.3498294229840779 -0.4132982767228964 0.6866362554021881 
0 0 0 0 0 
-0.5275010472613841 -0.07118403095593531 -0.4061192094458481 1.108470448633516 -0.08331589449260998 
0.2520544528052619 -0.1772256850213404 -0.3047748750489153 -0.5915389136627103 -0.4861153526639236 
0.4718272359782964 -0.01229296744707679 -0.4771181898952037 -0.1248485107323383 -0.2838164959926014 
0.7680916922398288 -0.1722697767571555 -0.2686846150562223 -0.09234376997663507 -0.4072772823113058 
-0.944450156458706 -0.4753946918585367 0.6125905477064726 -0.4490859265395316 -0.04776331814932232 
-0.1283013576976632 -0.3093411758837095 1.893789442238353 -0.7183850332125897 -0.3813868895213914 
0.6550856729793519 -0.2604022209679069 0.0292112563936715 -0.1460772339390131 -0.1063141104477234 
0.982870416575068 -0.2958873252943677 -0.380570888720515 -0.4822752660645389 -0.205441495934049 
0.07184803169332726 -0.1684140186866135 -0.3123284132880316 -0.2056027540300802 -0.1972251621199833 
-0.3362691563941094 -0.7759940896794462 -0.328395435629013 -0.02500401863071293 0.2507159661741271 
-0.3155023290739371 -0.5281786256292886 -0.3942959822556288 -0.333542381057583 0.5553120762367101 
-0.47644428446837 0.1515813732716373 -0.07295229306224527 -0.4501183651432665 0.1372129732078796 
-0.1977246512081629 0.3865725258534582 -0.2053274833568229 -0.04699778257804461 -0.3380226863070505 
1.045540345454821 -0.3476506749664394 -0.3370583736968029 -0.7605406485501787 -0.528607314189369 
0 0 0 0 0 
0 0 0 0 0 
0.5708790278764608 -1.248440605741052 -0.6183712683845312 -0.1572083218082757 -0.7361729135139882 
-0.09110585352981601 0.005334640883880259 -1.121082630425293 -0.4261413428439013 0.1688720834254616 
-0.4218576209435343 -0.4465713759077789 -0.4020287137580171 -0.3656073090679634 0.9347218599376922 
0.951333765968931 -0.5793745544039743 -0.5897137506312289 -0.6617199331820519 0.1122307423081718 
-0.7470602491094932 -0.3371365893187437 -1.440945291107308 0.5071929599335214 -0.5467352528930493 
0.5315113122910793 -0.2970412725748801 -0.1708524353181554 0.1548894651012642 -1.284764976914257 
0.3897209821800658 -0.1067919428123228 -0.2128114750529269 -0.6759288241990313 -0.1078676412805782 
-0.3868527842714365 0.2781474798558972 0.1151821633979623 -0.2299338497849999 0.6961367606436085 
0.1292129464193587 -0.945820278485822 -0.7530017257425446 0.776369801331832 -0.565058707892237 
1.796056256654669 -0.1205321739479705 -0.9777517569363801 -1.572877184467776 -1.231984001931796 
0.9528462113024435 -0.4132966821460985 0.388434725719505 -1.38450691602052 0.255981727215789 
0.05015392677275837 0.02612389679030892 -1.034889174208862 -0.5941549419218431 -0.319761430483922 
0.7607257347043646 -0.5248868625265459 -0.3849072818100891 0.5925644371457991 -0.1242240517001485 
0.1470387909597355 -0.08165364523648393 -0.07787445129411641 -0.4971195410008221 0.4162792986948015 
1.645143101463914 -0.08229678078031913 -0.0860306266406279 -0.6794870914781734 -1.184850860099356 
-1.18332580928964 -0.4726621886617171 0.769356859474406 -1.023837929711531 -0.06259488156923076 
0.4826842243096919 -0.03698993960711491 -0.3450977253617545 -0.01353142779680882 -0.04058860439287412 
0.5408851858824872 -0.03742432687821001 -0.09808637821562649 -0.02583287297549594 -0.01607564978412553 
0.3505402140675445 -0.1288130817250021 0.5451049282305974 0.09980563935817921 -0.1561048690700807 
0.1752652322847127 0.1233384236201517 0.9880923488108559 -0.9410804364911529 -1.391092918890051 
0.8651899060442435 -0.5091625842613942 -0.4281167434434785 -0.08513996872474927 0.2175743318306199 
-0.3601304682755652 0.2061262820009876 0.6920707086459094 -0.7401073676139845 -0.2905585940259371 
0.5008223708080608 -0.622202084526194 -0.02165843547898416 0.1985557836413753 0.07242940281505694 
-0.1751427600499918 0.5203549184866431 0.1878298220320569 -0.5351849279425648 0.6510019057002769 
1.191840612202074 -0.1835248770600021 0.100889048172018 -1.256963528657034 0.310637301555434 
-0.411663452780657 -0.4427583165929467 -0.4293779497929295 0.8079965882857794 0.2111253843481654 
0.3139276579173153 0.4977224094134836 0.1288840980838116 -0.1269341202017427 -0.6171414512165522 
0.2061462569868071 -0.1598176190559051 0.08319465651476662 -0.190882414511461 -0.4022247919746235 
0.09353899770855564 -0.1170629856352455 -0.9655504907486797 -0.8178524074285862 -0.8866968719972486 
0 0 0 0 0 
1.630245708295804 -1.148190119205309 -0.8555627731298624 -0.7818236583158231 -1.129485317647877 
-0.517664836683432 -0.05682704765525813 -1.037038468624328 0.6059339245913378 -1.480631547092957 
0.02644396707645981 -0.7031051110433079 -0.6690275028449381 0.6895237360055304 -0.9862519874994023 
-0.3958083302129933 1.173921705547346 -0.04870756576118213 -0.9597198895036831 -0.7379143175703897 
0.108731430806511 0.009531829855913701 -0.8431584237981967 -0.1833673170132505 0.5108858318788277 
1.760566138678297 0.08055225879093925 -1.380200467385913 -1.65421035057597 -1.539170256116404 
0.2895434473252769 -0.1039036982520277 0.1694601314877713 -0.3028564533337431 -0.04130321867734531 
0.4720201470031402 -0.1792132320115458 -0.008989097681971394 -0.02956326396124198 -0.1592021218110655 
0.8331300140506372 -0.2858774528053655 -1.147900970853003 -0.4803750916593227 -1.088522546698449 
-0.417120049301128 -1.176575186358964 0.7999468881102982 -0.7513858631645774 -1.156006798821379 
0 0 0 0 0 
-0.2842915015744504 -0.2382640793874329 0.4756140816197529 -0.2422525702147487 -0.3152662656047769 
0.4326685538008689 -0.2283726334332998 -0.01006670657854479 -0.3016592150711836 0.58148164453205 
0.3638785427582518 -0.7051694612032614 -0.6902169816021948 -0.8788620209700226 -0.6238838210391031 
0.2784917298583388 -0.896223792094082 0.1642956153377413 0.4297653567254066 -0.8455738557008303 
-0.05842179278771968 -0.7887075201704772 -0.2348074130170842 0.9389859077519644 0.2371418393623168 
0.4718411672846098 0.01280565787469138 -0.1779719132253693 -0.2600264202869536 -0.1827741142467711 
0.48943712239142 -0.3415539378098033 -0.5384063087461147 0.05967057462931095 -0.3662749511265833 
-0.2469026826546518 0.6383215992731534 -0.2261635925526011 0.1838516593625088 -0.4433663886755614 
0.3350614278322235 0.2547640650477649 -0.03702300273644144 -0.5295857131236941 -0.1299564265250276 
0.6537254884076034 -0.979912268386571 -0.7881103191603586 -0.4425275649642179 -0.5718237564109505 
0.3565267116397629 -0.08435835106712863 -0.08166020077223377 0.8373072539205184 -0.4218651223786135 
0.4106121720120647 -0.4170675546196079 -0.7159766664693022 -0.4193698513446752 -0.5017598997991142 
0.1038688906607123 -0.4520558701817645 -0.5385303514151679 -0.109106825062422 -0.4243187837005716 
0.4857411257486268 -0.05361064213613436 -0.07223030374829771 -0.2016562000884433 -0.1841182593307991 
-1.265279432044858 -1.381111888334183 -1.163149650523689 0.2723053742184451 -0.7566760445961913 
0.4857411257486268 -0.05361064213613436 -0.07223030374829771 -0.2016562000884433 -0.1841182593307991 
-0.2701098684103792 -0.5941981235668689 -0.01990094986337264 0.04777938286714471 -0.0003489878842737881 
0.4857411257486268 -0.05361064213613436 -0.07223030374829771 -0.2016562000884433 -0.1841182593307991 
0.2245519344792038 -0.2942369540172736 -0.3054804176695197 -0.08799500404818342 -0.1598101704900588 
0.4857411257486268 -0.05361064213613436 -0.07223030374829771 -0.2016562000884433 -0.1841182593307991 
-0.07781832376408969 -0.1123336946378056 -0.05260703133369515 0.2019048777325275 -0.1696127712838092 
0.4081897636365659 -0.1089756779473862 -0.1981180545980359 -0.3300709577370897 -0.1596930503586321 
-0.2376300689249354 -0.4590325424465506 0.2796773433273394 -0.4827568670355791 -0.4401363554662635 
1.367388947703522 -1.454397125456716 -0.4316987303203564 -0.1935845847231311 -0.809937215103759 
-0.4070139216910022 -0.4710196701361425 0.05371623646167548 -0.3915570876218953 0.5689039042698456 
-1.018919713432423 -1.161253875537322 -0.7534721696502951 0.769681304801264 -0.7929436453827651 
0.3791793455877829 0.1065557327563339 -0.5046384913258861 0.5373331828932831 -0.8544809859709336 
-0.1406226495049673 -0.1566178789631477 0.2761852816799186 0.07724302498640549 -0.4698295777274857 
0.9131762852198922 -0.001388245391923208 -0.1624527162573152 -0.4428949923161378 -0.05269751418814594 
0.2170131367691353 -0.7619941399758633 1.115015640275185 -0.7014893900821357 0.565147090714353 
-0.5021138209504807 -0.2066001902580298 0.1441662449674487 -0.8135840782868123 0.4566439687964632 
-0.4715386033235169 -0.03600617757587886 0.1272537946353172 -0.3389661019985531 -0.04780855501769281 
-0.4749716070749107 -0.605240921559662 -0.2741871658575611 -0.06745106057341099 -0.3394475525002567 
-0.131387783499614 -0.3809172056169384 -0.5271740327696306 0.5979077632854997 -0.4593963795826235 
-0.002437241049653533 -1.067487538943005 0.2125180279996379 -0.5625681488518742 0.4755080769814005 
0.7877009438135721 -0.08351586019918431 -0.5553903080332057 -0.8040229373903425 0.4440696155933014 
-0.672222676322441 0.6898586266071282 -0.6454901335451025 -0.7061432678665074 -0.7442259886874366 
-0.6357590055268059 -0.1673695682292173 0.573770522511618 0.2224750766247495 -0.3995604844188095 
0.9021742760034467 -0.1685568620032149 -0.1400424078681468 -0.4196774788024255 -0.06699630650406818 
0.2777803375685591 -0.7573382877746582 -0.9169491236318255 0.7528908835195463 -0.07336878963065646 
-0.5635764942631859 -0.5656668396026496 1.017524289135373 -0.2872102214021698 0.2844389567790289 
-0.2510322086183587 0.09647379060114408 0.0542134557303794 -0.2061431938879161 -1.511879511791594 
1.374058909404598 0.002796588027146857 0.218820249314638 -1.152408626259171 0.5802909990498006 
-0.0468680064085292 0.7535464180935497 0.2444607386814014 -1.094310549208491 -0.1098282030342177 
-0.1682537658385703 0.08563817802572241 0.02253630214290258 -0.2492180940454833 -0.3577644665645761 
-0.528314359432299 -0.5759393185391737 0.3647088393834345 -0.3370297883383478 0.7202550095227651 
-0.2730807609455003 0.7377231568073033 -0.07901216221091295 -0.09214053472801567 -0.5018229288965205 
-0.01126697776388489 -0.6971265852620339 0.7275818549597965 0.004590614675570233 -0.6703004788256468 
0 0 0 0 0 
0.1626102867990001 0.1350777241081466 0.9577211449990831 -0.2785353802355174 -0.6635440832273813 
0.1704392421908675 -0.4337400493796409 -0.5012050301112926 -0.1764654412365633 -0.6673242479731814 
0.02407660312502044 0.03284040916141828 0.1587162023904305 -0.4801045234602756 -0.4818409826956396 
0.3714209730282195 -0.1978349921309227 -0.2159966035747317 -0.05375571764851617 -0.215930859838313 
-0.4338111835074933 -0.7781960748385219 0.2763470125756792 0.2527681875800768 0.04567150899144062 
0.5433969912575048 -0.2578957911340932 -0.6355377042949465 -1.022355869464997 0.8460897118038837 
-0.4261382172287745 -0.6768790897478214 -0.6192822168616431 0.1648745155567265 0.06923272928088497 
-1.004225795450727 -1.042680146413696 -1.088192381956915 1.491798907400745 -0.7250376940683647 
0.004696877084674873 0.1733031550325511 0.1989239068400686 0.06701992741579246 0.3713846491626923 
0.3132627560668604 -1.503031441837802 -0.5267733561038684 -1.086189168875977 1.38944373255972 
-0.6730407660298526 -0.4120220564116781 0.1026811514117052 -0.6461436436996328 0.4614105503195758 
0.3308849312465934 0.5314609137974948 -0.668879619058978 -0.8273462530631386 0.1173473739589513 
1.584017747154958 -0.8422802092959651 -0.3879607211729351 0.06279914340668268 -0.5287573621669748 
-0.2875486928904701 1.480782843233907 -0.5012134948822948 -1.034851898070814 -1.457330015246472 
-0.2929451795673412 -0.2652883085278144 -0.4180318712327349 0.8560500221627579 -0.8313425331013259 
0.7430308663072192 -1.00463421428298 0.2817115530766251 -0.4225676332205598 -0.4275514455864909 
-0.2133267868722475 -0.1482753275047126 0.3587874900334435 -0.3268550319949164 -0.05732745882001201 
-0.4708241115625586 -0.6340764501546428 0.1002165067812321 0.02881360224882146 -0.8269606541998713 
0.5109534895308849 -0.02397493318283537 -0.08063931783408257 -0.1878165271831037 -0.05767768165017573 
0.5109534895308849 -0.02397493318283537 -0.08063931783408257 -0.1878165271831037 -0.05767768165017573 
-0.6944871167680755 -0.9445085299045648 -0.5557811277407755 0.5610065906773288 -0.2722939785970264 
-0.2719768030776146 -0.4859790954223746 0.1934490124630007 -0.6104388992461436 0.04026467077078843 
0.03418203037886764 0.3178370671560787 -0.1114532325824673 -2.382589599039381 0.6266970647587874 
-0.5475292420850829 -0.7828606157379389 0.9158035025298168 -1.088624837938928 0.8789613599553818 
-0.2357428500817396 -0.2450786388760884 -0.3304663314063065 0.3492777232371629 0.09072122364433263 
0.5413678258435803 -0.04329612537724817 -0.04306020015739808 -0.292126219833967 -0.2311213170793782 
0.2560536505168667 -0.2532696694392539 -0.05648914068210999 0.02216559545605854 -0.2652064259794588 
-0.1915023696377696 0.3451559098207117 -0.855720099780236 -0.06512984246653775 -0.6139627826889259 
-0.05288068747531492 -0.5921702753629635 0.4198112190991103 -0.3078269015335743 -0.7791710411954104 
0.06167080527575677 -0.2694205494339643 -0.1642165721929373 0.2520967201467583 -0.204621254890779 
-0.1622327487550579 0.510808425994693 -0.9871681284492261 0.4969212516561668 -0.6592594160321831 
-0.04409507851102994 -0.2004893102218061 -0.794910867472024 0.1577891435316368 -0.1682421315640396 
0.7844115440325508 -0.7891015206532525 -0.5292932483399091 0.2346044862137686 -1.084075954771583 
-0.7419764454353582 -0.7997377160629409 -0.6976621009130711 0.04417185681044132 0.04904304458860168 
0.1719006885626379 0.4110265202534367 -0.3564411106125149 -1.169562875597932 -0.7589448271293928 
-0.452117540823375 -1.047423626314543 -0.6842179656593407 -0.2465916083683937 0.8990463562864111 
-1.155140830621216 -0.2487132189766312 -0.86771748674782 -1.118992537380947 1.055098956940247 
0 0 0 0 0 
0.2508343366484513 0.142471396027668 -0.2046456449978057 -0.2121662188081791 -0.2350549838512137 
0.3052368940241444 -0.05727385688124637 -0.2734332098461549 -0.2007670361708715 -0.1944399859863766 
0.9257714887152669 0.001487390624700543 0.1856457390716112 -0.4412144451287523 -0.4553851722842194 
0.5994481813295633 -0.2909092799939291 -0.1065530287594076 -0.08677491364262252 -0.1425937023950117 
0.2794198121809423 -0.1575012150948276 -0.05040729686974294 -0.2588994600200247 -0.06954731831502109 
0.2794198121809423 -0.1575012150948276 -0.05040729686974294 -0.2588994600200247 -0.06954731831502109 
0.4192798003490559 -0.6866952115987421 0.4993885220683724 -0.1436672711577816 0.05441786174372384 
0 0 0 0 0 
-0.6790645717166728 -0.5513839085694269 -0.7701930054589574 0.4352475926808594 -0.1018022119959651 
0.4291403358421422 0.8665963800103639 -0.4885813868275503 -0.2223412922213061 -0.6081876594872677 
-0.01250072692853892 -0.2490224484422109 -0.4801432974264867 0.2521495558553592 -0.09811229486119111 
-0.5145117803696245 -0.03676525416898745 -0.4153720414561423 0.566901917372987 -0.4137330644483621 
1.125095934655798 -0.3999436516406101 -0.1977563314382501 -0.6623882472802062 -0.7352572774762376 
-0.1783060717902077 -1.363024700370991 -0.4959732011811711 0.3611406146117822 0.2727229287017543 
-0.7280127783175092 -0.3537879842414133 0.2413916488599133 -0.2373350667110508 -0.4140891306052333 
0.8983869920024861 0.9659469749758213 -0.3021238254868859 -0.5943762369179482 -0.6913247138816052 
-0.420882129661881 0.2313655022719333 -0.4027558705224135 0.5368553906535461 -0.07338482313165065 
-0.1278327967282519 0.1436595085507156 0.1402608428486385 -0.005144870713440483 0.2008288353444888 
0.336567100793691 0.03948462979099984 -1.343197747120327 -0.1659426010912785 -0.1791352929170923 
-0.9199418290170251 0.06526172083458838 0.5853305882370783 -0.8979309111376542 -0.7930422126988711 
0.9918174240530724 -0.5966593450093349 0.5536201116526844 -0.7018920879694525 0.4055299311568634 
0.2365462059502746 -0.05226673287936914 0.5002628522582362 -0.4476430547199359 -0.06201600222128101 
-0.1147342826034046 0.6331858417962342 -0.4423289526895964 0.1853643735123698 -0.8307859910787416 
0.1230628358333619 0.1597542919809986 0.1423261755035399 -0.4591864931709227 -0.06719385165171628 
0.07739147981686097 -0.9872798588930265 0.1597388598382728 0.5917319777860538 -0.7925777494930487 
0.2400158124017855 -0.0660188278810853 -0.4306239300838638 -0.05134124983071707 -0.247496630429324 
-0.5779743350656207 -1.381453695637924 -0.125825837524607 -0.5580227994640359 1.259174961225994 
-0.09205330218320466 0.1575143531255354 0.05469420714861192 -0.3683966706698428 -0.2757284269158672 
-0.8371671099939237 -0.2270132555199056 -0.9053756932550798 0.371878910767357 0.01204757324098176 
0.06254856950466303 -0.7510512783102778 -0.3289647297878318 -0.3153514151008611 -0.462535639642855 
0.7518863641140806 -0.03670334944994525 -0.04347886992766143 -0.007595611725576691 -0.3710819154331864 
-0.4849460134887279 -0.8099740003985786 0.3892595209402457 -0.2054244050993962 0.4897227135668522 
0.2716715795298497 0.05888076633949358 -0.4808770258414282 1.076734099089705 0.06513126426712348 
-0.169727924316899 0.7000254011562443 -0.7261464451276506 -1.075717798817176 0.4055945805154705 
0.2301903688167703 -0.1460673662092255 -0.6068199311056857 -0.2254903170838692 -0.5221102529591984 
1.035881247383807 -0.6457295474155281 -0.4624751893356626 -0.3094147372451583 -0.5471169189716972 
0.001959703510540844 -0.7686298198016593 -0.7745832572973683 -0.1517974787825705 0.2251387919194669 
-0.5287711753701826 -0.4242463280500036 -0.4181451280844835 0.4899436999199503 0.2456778195991833 
0.6668852076612051 -0.2400791111837701 -0.1672995791581966 -0.3065849359605436 -0.2319444797595708 
-0.07379421233469154 -0.2655034334239897 -0.4488824692093985 -0.4169840567363207 0.5824450634713592 
0.0839570346526043 -0.01818588490404118 -0.04713149437334669 -0.07450949436921253 -0.01722494810355101 
0.663243192032536 -0.7997701357594496 -0.05876202174323492 -0.5646460821482531 -1.077363488318719 
-0.5944311095124269 0.003654161026290686 0.2921357871572888 -0.2739368253998542 -0.4010688185670389 
0.5633800047156573 -0.9886187478386407 -0.6799519266223016 0.3469187032568003 -0.3938085476357033 
0 0 0 0 0 
-0.4703857781622661 0.03283569673606616 0.2654516687480939 -0.01486718378622793 0.1994184879884106 
-0.05744830798813266 0.2636018239364764 0.1313737142810675 -0.414581251336274 -0.5217477019255177 
0.3149102321451956 -0.2680621419694439 -0.2689381731973478 -0.2911573114899527 -0.2705561839729221 
0.05402203456758604 -0.2715616408610026 -0.2758237571989732 -0.1607109516649237 -0.2812347921567759 
-0.1846203697183527 -0.07933518388152841 -0.0796789021561046 -0.05865784385763701 0.7412608952470021 
0.4022782485788784 -0.4625712260526595 -0.4585741561998077 -0.4452046841682646 -0.4701915486236932 
0.9354224252967379 -0.5692546625378714 -0.131426100634525 -0.2266550393668497 -0.3409252021185465 
-0.9800359311372736 -0.4505242256617293 -1.066739335530318 -1.017527395781856 1.441571337592362 
-0.01717907703862371 0.2006841295319562 0.4545502069660752 0.1328390740435272 -1.248843730746412 
0.4744643280116839 -0.03655096337519113 -0.005534222435200241 -0.0519278789376938 -0.07190251218983519 
-0.7089348004882335 -0.885505758189554 -0.5901269722029451 0.6269784669194692 -0.8812782632549101 
0.8017070173903862 0.1884638046671348 -0.7793484721570507 -0.7438795573177852 0.4439873685713462 
1.246671583065314 -1.466182413510851 -1.116058528709955 -0.9753266297833413 -1.281441751410088 
0.2543545407273193 -0.02743629351068001 1.507995721397611 -0.8650662634723069 -0.8151456036898442 
-0.190447897839943 0.3672890257208557 0.5215092024012568 0.1140993699434983 -0.8314888197049414 
0.8518417441477087 -0.1198126018210155 -0.1801596929325762 -0.5807541171351965 -0.07916911565773622 
-0.8665657971960297 -0.633497695296339 -0.5664973679458654 1.002682149741774 -0.6749680662267261 
-0.0272102016049512 -0.01928159866170108 0.5747311623541932 -0.002407345728393323 -0.2128921392509389 
-0.09145972689902457 -0.2532922445628419 -0.4186461531444262 -0.09833158469348888 -0.141911595676116 
0.5419171933359374 -0.3570233985381032 -0.1855267847624397 -0.5355033841564013 -0.3020194874214223 
0.02534853688083195 -0.06876770930409459 -0.04182384195057762 -0.07585408544542632 -0.04160836072024243 
