solver_type L2R_LR
nr_class 5
label 4 0 3 1 2
nr_feature 22436
bias -1
w
-0.7730632648541065 -0.1375023025354775 -0.2675433630503403 0.4271640520919638 0.2256713150268325 
-0.8338997433178997 -0.810363693803301 -1.039047198153894 -0.05084363714823416 -0.5703871629996536 
0.7405043857134533 -0.6617896041252789 0.9395918236993062 -0.6057921706179359 0.1832323577562758 
-0.8338997433178997 -0.810363693803301 -1.039047198153894 -0.05084363714823416 -0.5703871629996536 
-0.1866936680333202 -0.008623367775294929 0.360906261133229 -0.2007279594328251 0.1236904838662804 
0.1492722241137018 -0.01350476235943141 -0.2335492343641242 0.1278665408794155 -0.02626572329490439 
-0.4055298871364775 -0.002330814445304152 -0.7912852559270336 0.2955075375161674 0.7144480606037386 
-0.3871876923960219 0.3004352183738989 0.1198968676141224 -0.182588589263744 -0.002317213211129098 
0.1953565125314933 -0.1222761738230785 0.06217545118847362 -0.2394703250941089 0.07971597674159304 
0.004014841702223632 0.01706338176010336 0.1545506823134489 -0.1487920246630456 0.01941627374079392 
-0.5828575833774073 0.8569127117574569 0.587191945938362 -0.5186991940149172 -0.8813320137207413 
-0.07863372577886044 -0.02828081070822511 -0.3758589232095324 0.7577687118684997 -0.664505650966996 
-0.6325940041269389 -0.6115758077980956 -1.401118629434408 -0.8303427316254959 -0.9933549201479011 
0.8432624756241428 0.6846477285481448 1.304979618099985 -0.1513057933881925 0.7348887717232516 
0.2692091493319539 0.4183758398381368 -0.294808446997069 0.2028218675078238 -0.7932395168200161 
0.3554830170316133 -0.3792851839037699 -0.4634307069954676 0.1086920754660479 -0.1002418209434138 
-0.4350203081876335 -0.6525325549972235 -0.611925088990281 0.9626047606217886 0.2846603108084262 
0.1134877014408727 0.1268354773355346 0.7723503193268089 0.3008011596778414 -1.274129903501616 
-0.2496983792045119 -0.3078760687909629 -0.2449895026917488 0.270691987554097 -0.07440056588850703 
0.2422707971429294 -0.1537912443676325 -0.9721193172671274 0.2508374643406673 -0.06338653525253966 
1.13244860217393 0.2598776520702187 -0.3376403686298655 -0.6606828365456096 -0.581648053347894 
0.3049783589781284 -0.1627473442031669 0.7865297421338173 -0.7014303383930011 -0.177999641753417 
-0.07118205096147198 0.5538235297340633 -0.2891443754997322 -0.3588628157199774 -0.1359721599423148 
0.6026119403031089 -0.218268688232391 -0.05074403718894287 -0.4544606354809306 -0.0436543372019193 
0.6120415493934368 0.000332797141584254 0.4405617708969447 -0.6790645742468694 -0.2931824197087813 
0.2427377445842226 0.0133382479850371 0.1989486092921525 0.2945422952963972 0.09163143669832291 
-0.07318160644756955 0.1350084825738685 0.09370050310924401 -0.1339873477920274 -0.02183526561811943 
-0.006461060306841911 -0.2519086522038138 -0.1024613707638288 -0.03414141483376333 0.2317420066691468 
0.6793840189562812 -2.306652226836637 -1.328870595905481 0.5829996172688856 -0.4227325421009964 
-0.9517614356188732 -0.9339236035673001 1.051507699101551 0.740089705021474 -0.6342367332558096 
0.2304605765381822 -0.8241660500545471 0.1743868626057886 0.3655045455235617 -0.1146610451795478 
0.0915559490641048 0.1421089885362903 -0.2205669948707065 -0.3247505490223256 0.2143834036543059 
0.03307244160894413 -0.5885639081158552 0.492332411006406 0.1494498832689541 -0.07195348339586703 
0.1515475635479744 -0.05431755569329242 -0.08878295866862565 0.2406344681277949 -0.09649238317219291 
0.1026183782689388 0.5492544043238334 -0.544285807186798 0.2588416186216121 -0.4828706148348331 
-0.492265850845999 0.005211241627088085 -0.4948182674394873 0.3056355068345459 0.01784793492814012 
-0.002859721624871733 1.022405903277284 0.3806495791019783 -0.6040846710630579 -0.7032372151820614 
-0.1767123920624058 0.213208913585547 -0.005127677399928775 -0.2965470022208201 0.1071664906804647 
0.3081937064748099 -0.557562211000558 0.09007668139185633 -0.1890949497963248 0.3436042544505113 
-0.2905707835930892 0.09724242768391247 -0.02863377198527977 -0.3441893927622585 0.3497664878962461 
-0.6474344538709806 -0.08850930375850727 0.3123649002647124 -0.4707953638460817 0.4865004122555788 
-0.2069672608489117 0.05374812394594431 0.2296044857759517 -0.016135997333174 -0.07220930572605284 
0.195514833688243 -0.1595263074657701 -0.2399219514256762 -0.07002019525789002 -0.08272486726762858 
-0.51708942449158 -0.01955228157158096 -0.005666706607258943 0.4809006475521878 0.03033866449281415 
0.5063753580604849 0.07903825307994061 0.3043022279635623 0.5072964872467244 -0.5715561323475848 
-0.153755225535486 -0.09574830812273352 -0.1727360368354244 0.1028484812443448 0.08603017546048176 
0.1900234958353967 0.1885091347262861 -0.04144250097782402 -0.1921326396345695 -0.1221251049724055 
-0.02178986523982317 0.1202640838921189 -0.2940411221345083 0.01002978644676045 0.06414384664059479 
0.7924459976093449 -0.3857573225160791 -0.1999590304685019 -0.1660930739955473 0.1136515215570014 
-0.2168913403788337 0.1420637238559695 0.05363735079120886 -0.2908132094368207 0.07280108722527434 
0.199789618519964 -0.2793227964428077 0.03170074210998138 -0.01428364882444427 0.05534498850952396 
0.2355255050306191 -0.7536217649007573 0.1567319557823028 0.2615776905892188 0.2147691289864785 
0.1789392307481837 0.5616720520271093 0.1169826006166694 0.19820585636698 -1.251171897702998 
-0.2023544875540841 -0.01155911384315989 0.5173317559794729 -0.06238361265811387 -0.1868844636795309 
0.1742600810093621 0.2989926742585572 -0.04790446420740713 -0.1144856126762285 -0.2191782060856499 
-0.1355070693337834 -0.1335766420345088 0.002788329775985504 0.2193639344675603 -0.03561775051102829 
-0.0432276872900192 0.4640852018754587 0.2825605690866009 -0.8590355515162592 -0.0968479100438224 
0.02063405205016834 -0.01227250889414181 -0.6329425236767403 -0.5602037571782315 0.6270296497146304 
0.8146140105996279 -0.1407250240551195 -0.2402415260128522 -0.04669131191224769 -0.09953672241441298 
0.2979833170327718 0.01242189144317341 -0.2336002063849199 -0.1343590463011955 0.0329077335460817 
-0.1442398944928665 -0.1000556745745518 -0.002315724375442342 -0.3796083390790987 0.4113816789502706 
-0.1317078371237779 0.3144230664428402 -0.08019193253722455 -0.3701503022425291 0.1187681623014892 
-0.1739378769741345 0.06247335756497918 -0.1694843197683845 0.07129107057556373 0.1052868672537076 
0.06273110042691149 0.1162317135379561 -0.09294671498390249 -0.09512990796462001 0.1155412091200534 
0.003372269988336108 0.1876642133881781 0.08865521079543118 -0.6205391304954466 0.3124295080510029 
-0.2330934720409155 -0.04543713045102769 0.1378021778435863 0.320255094300996 -0.3582100102747775 
0.211257126266248 -0.2840543481264761 0.195584277083683 -0.3836161827203542 -0.1280703288998875 
0.1341656576198912 -0.008795582187089132 0.284140778665279 -0.2239060380776189 -0.1188110777645615 
0.2560169217608118 -0.01251170301135049 -0.0735924213682201 -0.2647185436228552 -0.06452468882825221 
-1.013735604577559 -0.5271123244804733 -0.03306080623501513 1.093806066530566 -0.1461937795421715 
-0.04523101232932936 -0.03167484396905663 -0.1180573913154358 0.1580093878210319 -0.01247575229416523 
0.2622285947749557 -0.09518446270875409 0.04817465091332195 -0.5942008381958784 0.2669491239077889 
-0.2427137909429605 -0.1062235325857446 0.06024768372939904 0.04312218843754635 0.2216489948858832 
0.2454972546972564 -0.2383810187663333 -0.01098323002611736 0.2875572455400953 -0.2001612015830362 
-0.009576059170616501 0.009491155207445173 -0.08470681762034124 -0.05910307199859789 -0.04634932617512189 
-0.03974970460186701 -0.1276572664876481 0.2345593946828491 -0.1034370613026669 0.1132316019187931 
1.819650054455132 -1.3681610518006 -0.3204618980967577 0.042418420125615 -0.5240764174844816 
0.4561415904744319 0.04088697789388639 -0.06294356410074352 0.06433106181023268 -0.3280188323007858 
-0.4605817697639859 0.3234614776548966 -0.04684891847749857 -0.1920867401510741 -0.04470180679362121 
0.3926386096896662 -0.119755211442098 -0.09421561575160553 -0.2935098582276613 -0.08062600290239767 
1.949975019105228 -0.4628224213062281 -0.722073087808151 -1.350100776184143 -0.8175410164165515 
0.004828619019516894 0.1177629761456926 -0.01003996464993098 -0.06197942112542012 0.05515640589980814 
0.2043646639117584 -0.4541578000000168 -0.3265811669781806 0.4127617620908727 0.5743132534871199 
0.01450335489551078 0.08455813784145223 -0.07904178821988969 0.01496717391845863 -0.1595784656194214 
0.7704034109108344 -0.0220218351748824 -0.4280047982677063 -0.2007447584021489 -0.115194371198168 
-0.04262848256070087 0.004120248731613289 0.8700806013850764 -1.048935237602083 0.1391550388701401 
-0.02341525809066185 0.3094436753128236 0.2334378525608563 -0.2970499864535924 -0.1259549743724528 
0.7142486205966645 -0.07299988997141439 -0.5071866357985543 0.03167655886359159 -0.1999577670954812 
-0.731905044155638 -0.3705181529491429 0.8514294501419031 -0.05493466481914439 0.1346603691391414 
0.06755365263479551 0.6887278307443078 -0.2000967936534984 0.09001804066973038 -0.2194155104693211 
0.1634404673017119 -0.4236572093579242 -0.1204182473094305 0.7487297416578041 -0.3176071173708983 
0.2275193778879584 0.1072645953108999 0.1259041604110424 -0.1956116311448546 -0.03448692259221153 
-0.3406678429987322 -0.09921484503471573 0.7077396016041775 -0.4050462344787897 0.01072456332943136 
-0.3602294180413119 -0.05919801478570694 0.1146640895255062 -0.3222358347131856 0.2078428759197689 
0.1708683684696933 0.3114940962653543 -0.1122866733995752 -0.3508084013566259 -0.1891660043384223 
0.3510151757894217 0.284133728190684 -0.5274396257432051 0.2973536097069687 -0.3298552699257611 
-0.7519096802197827 0.8207898382250194 0.07001201732634785 -1.148965972292679 -0.1345007071773358 
0.5596949179646038 0.004277071599007511 0.3022012976693129 -0.01972436563530525 -0.5615375748035731 
0.05273605981135183 0.1289610619647978 -0.09252324593061428 0.0001288934374728025 -0.02846431208884614 
0.4011344357276078 -0.4763148800698339 -0.3880255733141966 -0.243907816148477 1.200715461942153 
0.4026042188871647 0.06758815969376174 -0.2212929393649958 -0.4024464347205294 0.1622509561645558 
-0.142999673493886 0.06675066905297597 0.003061005673195817 -0.5802338358680272 0.2850368613717199 
0.983186453883294 -0.3390199512111137 -0.5490107346543185 0.5709360336739533 -0.3899179406152798 
0.05285346001613734 -0.7377374919411523 0.009539661696707209 0.4656491034505924 -0.159068159560472 
-0.1198348516884179 -0.3536597877370281 0.6863794130663687 0.2576937292157406 -0.1969362421514299 
3.217423984510017 -1.899932393189721 -1.010731372208703 -1.982853463690927 -1.481560643573262 
-0.09933285126818815 0.1060887297226664 -0.0367330369480192 -0.2724710375272498 0.1374190848758554 
-0.05649963286491627 0.1469623670976648 -0.2736754571671076 0.3888796308564645 -0.2073884297951834 
-0.1931319143858757 0.10042012013221 -0.1198887403038497 -0.6365441449749085 0.5122185803783432 
0.2569817582024579 -0.2803437257101101 0.3091505356160411 -0.2454242207784894 0.1528826090411444 
0.1757358818207089 0.1102826803181662 0.2991239305497133 -0.1685085073011428 -0.1504307934957823 
-0.05910260937402485 0.2291285150947911 0.2019672822643775 -0.0770619922805043 -0.4607271290401951 
-0.7436787705890631 0.2325016827881998 -0.08357356912011862 0.6830771730570596 -0.2648532362967373 
0.02630186607921483 -0.5132128015525916 -0.1323912083095696 0.116957060448188 0.4120637461856508 
0.2914794846493922 0.2715662276318914 -0.4386955942937403 -0.1532717207928591 -0.08691406088495497 
-0.06891463481891476 0.3285091537842942 -0.7093019890187396 0.4598165530056029 -0.8361444307411416 
0.03227560203647011 0.8749293210120319 -0.6800516964072651 -0.2905769522417238 -0.1424388395657007 
1.613523065775917 -0.5955919888480937 -0.0390817453520696 -0.8329823956501134 -0.1238263371737884 
0.5635672197983141 0.4712232682292731 0.02931060639180833 -0.7409888758900277 -0.4196986967022294 
-0.002961165340558861 0.8179697735603324 -0.5199585356591959 -0.7154849665874388 -0.01253494845993915 
2.07873526376095 -0.133866640017284 -1.419311548450352 -1.666881604478711 -1.214557920253037 
1.656484332625559 -1.192815416378689 -0.5712558987657081 -0.9995470649203456 -0.5390362955946671 
0.03021063534406281 -0.0199570310742596 -0.5013726326220374 0.3672055832005165 -0.1877231408507757 
-0.1353109583522656 0.6379827688499815 -0.2123557669793506 0.1326903250656528 -0.5753135438371193 
0.1611091917281977 -0.02700122443589255 -0.01641844346239331 -0.07520684747992773 -0.004073143843622745 
0.07389844414806554 -0.004670952196583391 0.258011606398505 0.1332402303385915 -0.1665799647719409 
0.09429797237951827 0.2332342679108647 -0.1430839175635107 -0.3007321344082546 0.1496179690182826 
-0.3559286633663369 -0.4681656023362911 -0.1354840463833099 0.4817977352284796 -0.2815926638947367 
1.194110261996102 -0.309467355317007 -0.2919427581129581 -0.6018546800503324 -0.2412462522146976 
0.3745167200980827 -0.08311615708373628 -0.5890512191000683 0.2009153039549952 -0.02061882128445456 
0.05772248791565712 -1.16457702547617 1.055773387236323 0.3378876437412461 -0.1371407198429435 
0.5927290604939706 0.5249935084733887 -0.508334765471796 -0.4520882869123338 -0.8512345205766013 
1.627646663561663 -0.1561249949958127 -0.7539209964592353 -1.154456213315924 0.0141345350790198 
1.328394501992444 -0.6123285135762597 -0.1925738689031228 -1.218096310413113 -0.403347836070348 
0.4049603270147318 -0.2142831762116406 -0.5307731268785275 0.291880318223516 -0.297316504102352 
0.990306025061201 0.1668561405020269 -0.3077184300158046 -0.5224906120287999 -0.3573897831113326 
0.5495746362652643 -0.4948068070248845 0.2596299370461109 -0.2406580391954797 -0.2059355083560333 
-0.336800219876541 -0.503451144553 -0.1351671286169202 -0.1314899960982103 0.5099429763764961 
0.02873026345847962 0.2321978831560457 -0.3540441098621387 -0.06763773660223149 -0.0764023078130842 
-0.07922700412776397 0.2984059447997393 0.3778857467464914 -0.2029725106422826 -0.08690788803266879 
0.5115433504534761 -0.2045275908707769 -0.9826090898966461 0.1108553539786113 0.08150932268115725 
-0.590565904082078 -0.1221589765932781 0.505022674721768 0.2197612665400203 -0.1789366960934051 
0.5301363403188022 0.8110895509502476 -0.492438289300997 -0.02859205445307897 -1.392143452724963 
0.2662382169190514 0.3184212781206712 -0.4975027375532219 -0.104417418948007 -0.1948534665318326 
0.9673878252240488 -0.5617037750470497 -0.6430956281147282 -1.924846519283414 1.213747206569896 
-0.05143856177920614 0.3155762825764995 0.250760451126983 0.3508698836988599 -0.5885571049370285 
0.1657309593769755 -0.2320773231478722 0.07089558000626422 -0.03096615955750231 0.02440371724591516 
0.07672646045741902 -0.1468607820631189 -0.06655504547041223 0.03280521616612885 0.1209673001719261 
-0.02151840566820791 0.1665494096050033 0.0252875185822668 -0.1136316776657779 -0.07190956122143669 
-0.1181253734597391 -0.3624482235915027 -0.3941499934653851 0.8623233146006339 -0.4077276917523276 
0.03059412202522971 -0.6022225965617954 0.3894068918480668 0.4724109065783006 -0.290121398477559 
0.3903736480485668 -0.037830418085114 -0.3026395005081968 0.01225815083159717 -0.1055643345197376 
0.7877830227480761 -0.2490289830656999 0.797302263918345 -1.198838288085039 -0.04272432651795734 
0.5045579195404519 -0.07012847742389 -0.1051824658203284 -0.2041903577925318 -0.0943798571072355 
0.2320077759127664 -0.02591209206717476 0.03024489649750208 -0.2616799690794295 -0.01721237214680449 
1.030767668769447 -0.2937218863705238 -0.2309295724543017 -0.3491572497640991 -0.2933142822697563 
0.2304351536911595 0.135730111651371 0.1264658222393301 -0.1888345437413964 -0.3087398323728454 
0.005264281112763062 -0.09863093102579662 0.1716861031842446 0.03195415096423743 -0.1725110951311884 
0.2022725195990612 -0.5915025601645765 -0.6443128046231119 0.3604346196496445 0.1942858245858706 
0.7538145485878097 -0.2319386663588016 -0.1244015560427945 -0.3045038396815161 -0.08326898428623157 
0.8045040567314826 -0.01242100452567893 -0.9021628915910109 -0.3161860833710766 -0.01032973724682178 
0.2197011212526882 0.1483518110793874 -0.1421388868928685 0.09865146567022789 -0.1927684934442194 
-0.4758447523870935 0.8133279505035838 -0.02867826992374396 -1.797379768670452 0.01983718813808066 
0.3345151988139258 -0.2754861330589277 0.1669229050099947 0.2530059271117771 -0.1844776406153704 
-0.6373005898358982 0.03850670771774533 0.6599380736361583 0.5238877000868079 -0.5854069778085716 
0.03146072951016363 0.3244858509492102 -0.3607746437085532 0.3986042295870728 -0.2614395167041231 
0.02363530931643473 0.2416451059841243 0.1628679966332673 0.007886877987786988 -0.6443206395483615 
0.2973476997405126 -0.3210483139512634 -0.1322913816331846 -0.04323358836815417 -0.1160175224382577 
0.03417098323930759 0.5733048816162104 0.04301159518057018 -0.7827757222809607 -0.05261597036214796 
-0.5269622816944157 0.7036873417632828 -0.4121357487458099 -0.2080079149979329 0.0956142699813911 
0.740633472169148 -0.354268905767061 -0.8738174537206496 0.7880590353431813 -1.364940938300001 
-0.2461823503008827 -0.3250154749107001 -0.4034637105902896 0.5763769030612951 0.1279661855039637 
0.8244243297595563 -0.3731155500995821 0.05448634763430056 -1.435582660354117 0.4632130659941947 
-0.1539056661954032 -0.510194781811084 -0.8751375976726762 0.7920398746685143 -0.1018483742731407 
0.03065541029865695 0.2121275951483146 -0.1962370503400113 0.3972423745113611 -0.3443129903940394 
-0.5485728078315033 -1.342754284164929 -0.2772461402913808 1.520216346508085 -1.283679807885663 
0.02332852593603758 1.106248009464828 -0.4830014166474974 -0.6618359671084817 -0.7965053561751004 
-0.2622205301280069 0.4648261246517699 -0.7561870919824996 0.5020961755029585 -0.3726925101674726 
0.2271039573282131 -0.02579830429877868 0.0469919256251848 -0.1580118726638337 -0.04790975643381738 
0.306516727018251 -0.6092482151265654 0.04139185436736458 0.04754080755019637 0.2382012415257672 
0.3876077744088829 -0.6764302271365626 -0.6450821511018708 -0.08568548793641875 0.5100104956893721 
2.317623460276374 -0.8645531128369895 -0.222462579068436 -1.62159129054192 -1.095572052954712 
-0.1069094384809677 0.2745089080882933 0.1613352344773455 -0.342939989194579 -0.1101566319716687 
-0.2788432222146673 0.1896601335586739 -0.2418845233719073 0.4780357680297762 -0.2331453821677104 
0.420648846612835 -0.1024728564078635 -0.1975834238047681 0.2120749761108167 -0.4912943871796379 
1.88349859801042 -0.289138336062145 -0.2312445018741868 -1.453741627153388 -0.3915239157574458 
-0.09161855837348688 0.4982265583256448 -0.04822693753891071 -0.1540408826773772 -0.1962480128839006 
-0.2297314686008434 0.1381692042510616 0.8451310837361513 -0.8440592676436809 -0.09489232081922631 
0.9820197314681907 -0.195827207299004 -0.1958712119419194 -0.1124805121345368 -0.3246758621628752 
0.3963088994922239 -0.2647466116224588 0.01387662060677993 -0.2426274930201931 -0.02351328573768317 
0.04798083556628166 -0.7876935019994492 -0.4560184228540752 0.1742340735976403 0.5789547072677951 
0.3367744498004031 0.3647812341769959 -0.5905882799362254 0.04430303462325055 -0.3071087567143896 
0.1748266970327119 -0.4888219622617853 0.3910405939166915 0.9080327136744598 -0.7699229445695014 
0.2818461071121335 -0.4709018047944064 0.2967669385404513 -0.3692338563020898 0.2447591961992938 
0.2772721313688001 0.1386096594008486 -0.1512782009721665 -0.09611062511258683 -0.2590311691527328 
-0.1101888649894275 0.4792465932389701 -0.3709885026159276 -0.3369445479940689 0.3559023641558426 
0.6289078652881172 0.1534091453254409 -0.0784137903573171 -0.30298075802622 -0.2716652744821849 
0.4044695893941924 0.1746617571489284 -0.1780284898730705 -0.2551468299239064 -0.09406060690402443 
-0.2339821186893328 -0.01489991387626852 0.06776180812342618 -0.2391451089608599 0.4730505123974153 
0.2289349124420466 0.004267789425102479 -0.4611337961464062 0.4684695245959407 -0.7089009465294773 
-0.1568547968523553 -0.127901348818145 -0.1019288171693383 -0.08482054147684635 0.3240368721894445 
0.2858043305222207 -0.8310728135616809 -0.1412371882804068 0.5186624215476604 -0.3678269168969917 
0.3605667105576842 -0.2852127881022333 -0.03716868959955688 -0.08289872502440132 0.004448311420963846 
0.1777436910642575 -0.4262621169813777 0.5281830627076302 -0.07367320718729242 -0.0412855862606727 
1.03410857872831 0.06273259158865943 -0.2126997810705684 0.001874220520648506 -0.8368873662890315 
-0.3591672547525387 -0.1493752167729762 0.07614692529022278 -0.3431921273007263 0.4973221998760359 
1.344969894076067 -0.5224149370377901 -1.084126053695886 -0.8671893390529531 -0.6543746723310839 
1.24758972287315 -0.5960294265299931 -0.8582896277773649 -0.4329825175003754 -0.5847872045395176 
1.242006508000017 0.09415105987792555 -0.8900017316901621 -0.8916856389949349 -1.128234448493906 
3.026066301557487 -2.074665463135807 -1.400727830999947 -2.105271520049452 -1.513704739358412 
1.063398716636128 -1.550126972597535 -0.1108339366244488 -0.1209956214492426 -0.1987791088940711 
0.5824879890170047 -0.4547636139108019 -0.6695306241109802 0.1329282741090626 0.3271220793640984 
-0.2853040774017065 0.09832286608667481 -0.01646456957235784 0.07151350361800567 -0.01296347506426872 
0.03122184014824467 0.1827691386108647 -0.2407111301435009 0.2368028207481743 -0.1212127388793289 
0.5443664035662501 -0.3329070353740858 -0.6366112078990156 0.08130138691003334 0.06663769242157666 
0.4861057204687832 0.05306188316581867 -0.02303674148137861 -0.3163953583204793 -0.06471280833124013 
0.3347940346858783 0.3305601480306771 0.1735177165701005 -1.513365628057094 0.5655474985301802 
0.02255329387312102 1.100500800611639 -0.3171465727270608 -0.2301126350540474 -0.8581578406758266 
0.4823123405939727 -0.03415734164693555 -0.007616747629155629 -0.219314864320666 -0.09190658364855324 
0.4948829889798034 -0.06674287390829763 -0.2967760635486388 0.02102681556973501 -0.5604508689173205 
-0.242458857236205 -0.2582184857029886 -0.05888224408683788 -0.1970233373418348 0.5957579881949583 
0.1839267732520443 -0.3201464831428121 -0.4505675072965978 0.2667164091433111 -0.06356865719094315 
-0.2831636521623344 0.01474917888384351 0.1607055102283651 -0.6335719930045755 0.3680818699493987 
1.67584000163772 -0.8148767091099084 -0.4576765948267116 -1.006972838673871 -0.3718804360889373 
0.01210942273839586 -0.1886107538286508 0.5876369671564224 -0.4457324011256915 0.08281767830997069 
0.2003476271070851 -0.7620371179871401 0.1577610586725842 0.05022275686182764 0.1617308275888396 
1.712630136870746 -1.201102419300192 -0.9209696617647239 -0.7701712566380708 -0.1362000834136674 
0.2910835718878025 -0.1843999359425771 0.5218764390565759 -0.7413300610095053 -0.2930200766755569 
0.1356065377633465 -0.3361615490420994 0.07002932686218821 0.1705886548449241 -0.1461611250773515 
-0.528054017316067 0.3771455722487534 0.2406940807998001 -0.1979073111552991 -0.1158095358391143 
-0.03799286588074671 -0.2970338160300763 0.16045575726539 -0.4157921070554352 0.4893126781745988 
-0.2240989900907394 -1.281719762301861 0.2459472317546514 0.8655831623214696 0.3182579109399395 
-0.209982422994195 0.4480724327903629 0.1072233854082224 -0.5941149740495093 0.2338290773433703 
-0.4495190944588981 0.482624232541341 0.5976719956710468 -0.5073061892525251 -0.1625528715728659 
-0.0144357088197067 0.4899618181845483 -0.3553889812916329 -0.2352413302028593 -0.1276484725929522 
-0.02751561963296444 -0.1125469916599463 -0.6249544906049944 0.4101864731135468 -0.02244306250720103 
0.07121508604304176 0.0473292974854017 -0.2857311225061495 -0.34676073563045 0.2097740632330993 
-0.2663150429522282 -0.1732171012278291 0.2053502353838307 -0.111043651468219 0.2014331163954301 
0.5915290679024479 -0.1506915233451764 -0.0720892787132653 -0.2740137322387508 -0.07425090108177339 
0.3799695357612567 0.2008853118808639 -0.1647207162980101 -0.8380091780835833 -0.1075114123248654 
0.2649684612202154 0.1526346154870801 -0.1910073928982518 -0.9354525390002939 0.9992248576469994 
0.2998172950286651 -0.1125452841572094 -0.7082552212817533 0.5032936990536008 -0.6998494953403174 
-0.4518401897120153 -0.6936235087911408 0.1236658924472204 0.02374762135057316 0.702997714460212 
-0.02539374086765819 0.2417874943384493 -0.4658848776165145 -0.3575059114611787 0.09498276603901247 
-0.2119893268642693 0.4422304914092935 -0.2335710330695704 -0.2898212021304231 -0.06116071478870532 
0.4541454143034084 0.4344731582615487 -0.1375120981808648 -0.5186643712289094 -0.4421020960237639 
-0.4106169613903546 -1.252367765224777 0.9967889433787986 0.9470023692415379 -1.760992703937796 
-1.008821450400565 -1.381370869186408 3.142184788058146 -3.401884537059034 -1.033524074328638 
0.2366798722025427 -0.120711036785776 -0.1171874287778221 -0.3118565161527245 0.2915573427328549 
-0.2741186630086059 -0.3876219692007833 -0.5242339872927857 0.4334405970227528 0.3106420653015676 
0.7293582769971276 -0.5045818890394663 -0.3329637310633476 0.1030679223783636 -0.07428793657581884 
0.6187971418344719 -0.1335338574994766 -0.09290217828363383 -0.2270296667628468 -0.1121044498048206 
0.6187971418344719 -0.1335338574994766 -0.09290217828363383 -0.2270296667628468 -0.1121044498048206 
0.3392471373925804 -0.2443338039834318 0.337671532786717 -0.05076058247912194 -0.07639807525165739 
-0.4913831462917829 0.04749103229065194 -0.8295472863411489 -0.1321056918431985 0.6762606747910135 
1.975919709402307 -0.6705772046690864 -0.6840374526341839 -1.144140229805957 -0.996444764974724 
-0.04769209726244338 -0.1048963348060521 -0.4222520771056479 0.5637981703093166 -0.3476285111287147 
1.100441844336425 -0.5697364550197289 -0.4865925634478219 0.2570853447083647 -0.4898578564196522 
-0.0161135497604863 -0.2376708151930396 -0.3465269444181045 -0.5066086977532988 0.8083336132368961 
0.2336139178711752 0.2488986593129428 -0.3725821661368518 -0.07506624170812577 -0.1790982106443522 
-0.08702473564251167 -1.085857938252443 0.2290035698753291 -0.2538259532934401 0.8120386468782819 
-0.3185021629703744 0.407843313566255 -0.292298759873528 0.4473993805890512 -0.009952579949750743 
0.3125738545375462 0.07084615926100739 -0.3767227310720934 -0.1751105897914257 0.06871454977517484 
0.3142642261302011 0.3990756641225842 0.2457084505794458 -0.4526379039912329 -0.5452521608297709 
-0.1991817038352959 -0.2559775861368386 -0.268226956870691 0.2582795141911471 -0.0441009511530249 
-0.5523387193517991 0.6250518173126366 -0.03331921213737801 -0.5459874727877261 0.3949158021623155 
-0.05701530871157465 0.2177152142559883 0.193323342050076 -0.3853375721334593 -0.04025445297536773 
-0.2009639534833398 0.3709366840478229 -0.2687794499375607 -0.07728375511131305 -0.2126517189605319 
1.075105419458177 0.1347013690365567 -1.089169816595139 0.2457886406298404 -1.336791457501408 
0.5566751382121949 -0.4223496446024723 -0.1650305469291904 -0.1227863359605513 -0.05319755535810327 
-0.03249688015400731 0.1722672298997443 -0.5160139955512947 -0.06938269645479703 0.03748143878542679 
0.1568842397230287 -0.517689138569515 -0.2315785387532276 0.2912189288371708 0.06489435649907581 
0.3208408569622991 -0.3059997434734313 -0.01392394178685434 -0.05537723004660883 -0.02434125422858554 
0.2164469377379522 -0.1718113937107496 0.5163010817692731 -0.5330839608514755 -0.4000962815043532 
-0.9373155575460683 -0.4217983742015411 -0.1196762327350725 0.7976003279750314 0.07938491607697944 
1.973794127721459 -0.5376871658026277 -0.3116788990605182 -0.6493851117077236 -1.104687648251484 
-0.15441832738523 0.02556259061097834 -0.1245484596621046 -0.2462334390031047 0.4162911431283497 
0.7558221090511178 -0.2661717324920781 0.4081670448881117 -0.3863318899325073 -0.4150524568710183 
0.08767914268964594 -0.07113039472395663 -0.4295162341192614 -0.4067672546629167 0.3822780207028642 
-0.1651868882332357 -0.09865215267933099 0.03267999832909815 -0.02183140081842116 0.2642368863681224 
-0.1315202036724964 -0.3900732632653228 0.2944053097825846 0.3522807708628647 -0.08586497942249165 
0.4916616432092049 -0.09209800861277197 -0.07532933936318886 -0.2799782157115327 -0.109473217306555 
0.425684717739856 -0.04289795546577347 -0.04996530123075705 -0.1351554233761681 -0.1232135815284048 
-0.3801428917980961 -0.158539911320931 1.212253161110203 -0.446010450528161 -0.4552533124322264 
0.3323923201006943 0.1084022927669433 -0.2744377727814348 0.1000575976507271 -0.234306697240941 
0.1802001870433638 0.149744539707655 -0.1988379920293095 -0.6150228374877537 0.1873271283269459 
-0.1265860760877203 -0.2309155826219736 -0.03799739178230457 0.5376313890225621 -0.0665349518242728 
0.4683091327521112 0.3387795784729839 -0.395049399771718 -0.1413071397683874 -0.2579974138007878 
0.4059389520083536 0.1566290850768601 0.465721718188696 -1.2491665298102 0.01841864567528131 
0.7255905250872884 0.3814753580675228 0.7353506260472045 -0.2259497866387347 -1.073097418370236 
0.3053118025829293 -0.5048532356684969 0.1080724615002227 0.1833955443476504 -0.09331639207856422 
-1.229621532909658 -0.5363568953788194 -0.6287462961981464 -0.8984666983905528 1.806864707513683 
-0.3928290594957767 -0.1804382524702162 -0.6257659744177739 -0.4277074308129374 1.248714835525403 
1.233246462305988 0.2042885537901888 -0.30228890627462 -0.3569498892188117 -0.3474244305462177 
-0.007873367837303039 -0.3229887066880724 -0.3688209157456401 -0.16223424424945 0.5886323658617092 
0.6394062220971658 -0.01324002984521731 -0.1991785019288186 -0.02806101949342367 -0.1841903604049927 
0.4346343830266274 -0.9849117981325586 -1.70959164552361 1.082840170702413 -0.77682700045621 
-0.3050537696989487 0.02708775467836994 0.7055528570902474 0.1372696163225921 -0.5010613950720822 
0.3321962319528719 -0.07318971356174081 -0.6720259274851484 0.2610540286208505 0.05401329524497329 
-0.06276730168854591 -0.1187109198687208 0.2545123493589296 -0.1905369335716754 -0.1988641329364614 
0.222726505722129 0.1589786375643741 -0.7545483411023058 -0.1711958991691492 0.1262301185397911 
-0.1184563837685062 -0.3151889978039639 -0.2649203914836548 -0.2081039657393478 0.561462482797245 
0.4513123194069945 0.06284806897690032 -0.7553789190894128 0.009535771032596041 -0.05918138808328605 
-0.2220429434461129 0.4114607736715852 -0.04567024204643768 -0.4596805678361044 0.2114149639701441 
-0.06105540526817572 0.8029132555848617 -0.2476944363252068 -0.8694932858485198 -0.03663223155154489 
-0.2697298303593899 -1.233202182133484 -0.5968772055179141 1.050028587504102 -0.4114354835592486 
-0.1220161923900969 0.04825179772876388 -0.4778673900473102 0.4640057690516133 -0.171050516164456 
-0.4547378147414812 -0.3174090953493954 1.295938782957964 -0.9705388057309099 -0.1894655507749285 
-0.3679852596049537 -0.4285509002222058 -0.04148683912061367 0.7605939635363506 -0.01240328572580932 
0.2764122603038419 -0.5323579563364785 -0.2190530179421858 0.0970618944218342 -0.1576588316839551 
1.045195380091708 -0.3328040449963584 0.0594355418791331 0.1875018090414929 -0.5915342341100777 
0.2685020687743074 -0.4556076404049487 0.08331195200812302 -0.2159358653302822 0.2197662248594732 
-0.1064410851424852 0.3767937159675676 -0.1207274350402901 0.3748982578322548 -0.3846616965422325 
0.6530723749889025 0.07354269307725679 0.2247006214160265 -0.4831289790370037 -0.8756265512806685 
-0.4871714477449297 -0.9593609660053039 1.207287201929303 -0.5234874180043195 0.1239628788482926 
0.4448308158341795 -0.2291155345629067 -0.4125289551239787 0.2226426323449888 -0.2286205393620639 
0.3214328078190758 0.5219320714620288 -0.7689972947778001 0.4717513489752988 0.3034053235732556 
0.001536801814793119 0.4066245789057812 -0.485197046562255 -0.3291502579907423 0.6322383194974324 
0.2742732559356838 0.2871054225508694 -0.1859796865662106 -0.2714487424142589 -0.1471099319269522 
0.4568993986679945 1.59376831532381 -0.1073906111809706 -0.9330281673424757 -1.237195850310093 
0.4403330695622217 0.1856960730694202 -0.211852318279358 -0.5867532949385735 -0.1467006337534179 
0.2053074794688398 0.3629608514734202 0.1542535515440069 -1.214924110246123 0.02979298145326273 
-0.1459731420124434 0.5128426962040163 0.1568548471577277 -1.253161660399666 0.3377516793537039 
-0.1148890048808112 0.08305252418022552 0.2187377757745554 -0.2530085092584274 0.01886278767669108 
0.3096163634723882 -0.6024836154488238 -0.2838075886441616 0.1875147527435855 0.4635554806452547 
-0.4962993085888792 -0.1736598014033869 -0.5902509670190527 0.5676886807216067 0.07677332736874803 
0.1319326912228159 1.002401353301425 -0.109414708799584 -0.9598664161632007 0.3351348507171774 
-0.03755739565154294 -0.6761387812582932 0.6486690670774581 -0.1939832990567221 0.1008521733657725 
0.3165579842236912 -0.02572213163388995 -0.01113158512605648 -0.2291850075634397 -0.01435148604155197 
0.2547859439353689 -0.03033607562207273 -0.09557685021780876 -0.01730954850772738 -0.0647249688417169 
-0.1227476610393596 0.5166212706448688 0.7124921128113785 -0.5638562010997699 -0.2008088792472982 
0.2186604578172422 0.5319260868075907 0.08854027904943487 -0.42399084589449 -0.2451686351655125 
-0.1792190412760188 -0.2720971219212232 -0.1211271393518237 1.353809236340458 -0.4999047374355445 
-0.2800094176528275 -0.3230689255076944 0.7003039024517849 -0.3639494916530347 0.3410341840901552 
2.649914362762603 -1.296985980289842 -0.9331088367306298 -1.475864656175737 -1.54485702310749 
-0.1872104160233566 -0.5132940718774242 -0.669866870091308 1.084707473335016 -0.7802348371014317 
0.09635899728076208 0.4427777450754666 -0.4170250741318348 -1.100905884332571 0.8656095255391617 
0.6826000518747481 -0.9355597351462666 -0.5867945055685704 0.2643138846356512 0.423375206419523 
-0.3797198599872471 0.5655440403947363 -0.1177980982835987 0.5756058431631559 -0.7667800652567019 
-0.05639606042977354 -1.163777990872682 -0.4692246958813011 1.039430975778432 -0.6831005793412152 
0.9223606930317487 -0.02813362005724425 -0.2244771278818516 -0.1756776142964158 -0.5370042777067656 
0.1368916297708072 -0.06081596325608199 0.5912692463719474 0.2498206768811513 -0.6081752272123643 
1.085701679091064 0.1619964300152409 -0.2899533981166135 -0.2813022608231778 -0.8290884908989561 
0.1756251628145304 0.2501962631099429 -0.4835834193160991 -0.5829550096559283 0.2934041359391612 
0.6786821495534282 -0.2038942753418272 -0.08118996775586237 -0.106016895527988 -0.2014238305181196 
-0.6259079071611979 0.4997713361488567 -0.2384314428124199 -0.8616524277048396 0.6187656966029822 
0.6874626065881172 -0.7998438907279528 0.3617578895635326 0.1462357149934187 -0.04600850825971482 
0.2192290678627103 0.04594963831904521 0.1109925394260652 0.1079968141706565 -0.2374329643434806 
-0.7420712175739409 -0.1439928827986586 -1.622899771651611 -0.2050903335913812 1.162424345767097 
0.08881281177329385 0.02254379458751769 -0.0832109121724576 -0.002447226491486335 0.03424860632245107 
0.7342165555484084 -0.3978493102337922 -0.06667408699517006 -0.04673235974112556 -0.1902066950652161 
-0.09432487992686052 0.07953675176349297 -0.3292422849142641 -0.3079098641355161 0.59355064429492 
0.5905218275044111 -0.2924372422364104 -0.5981237908023711 -0.04370840033254176 -0.2044922573989339 
1.324956829393565 0.126707028857215 -0.5269044721495409 -0.9992690538384286 -0.08520613774186223 
0.2023797288523396 -0.1207676523795693 0.01452200801516462 -0.2240398923783082 -0.07202381098035357 
2.601512525896784 -1.033740143390112 -0.1501191835072829 -2.470975764640651 -1.381462816885663 
0.3445374798255664 -0.3224990336178982 -0.2401528411550221 0.271181745447966 -0.0580443728917173 
-0.2110945707366343 0.009268938796688709 -0.5798114497449923 0.5764450349229024 -0.1023143986170232 
0.5166433426816562 -0.588625791886265 -0.526145709186 -0.0004298936677605298 0.08243109135689641 
-0.9266449243016432 -0.110946441020856 -0.8922534503856988 -1.246778331652902 1.683383979346323 
0.1410512241505729 -0.05044225472953921 0.03879409500385478 -0.1599634725080479 0.003225935929032479 
-0.4088520592406778 0.03707729854620086 -0.4139402834697982 -0.2362647641852089 0.5167849273579109 
0.147532038359536 -0.5727412945484578 0.4504639389972944 -0.6504873666195405 0.627105308286306 
0.4036058573405643 0.6109564847657019 -0.2699676439135431 -0.5460526254013396 -0.6483782754366112 
-0.3064043999979357 -0.1540865017903748 -0.1961905127452954 0.1050285399270498 0.3091027493443214 
0.8053083037830139 -0.2665108831185227 -0.1212348975049261 -0.002636731102616773 -0.671088104596544 
0.1331547132882931 0.01557968097347651 0.7515099969883627 -0.9178566704941645 -0.2504421713986594 
0.9347467455313332 0.1202374711856123 -0.06050496447548611 0.1887231055013423 -1.071169015310816 
0.01092133659350482 -0.6694401009672493 -0.4517933690593799 0.5898534147624906 -0.08674327411118588 
0.2898447766722499 -0.003364339908368898 -0.008211986645464898 -0.4277706717601294 -0.06539381205576744 
0.08386073099129347 -0.4631193217780625 0.04857507408504946 -0.1906304015917744 0.3346394256319008 
-0.4959096984859865 -0.1339924093869894 -0.7899141344027529 0.595337884488308 0.5153098776942324 
0.7640812356039037 -1.20714800620465 -0.3044838324293906 0.5582778288004897 -0.5705277532214459 
-0.4820689687136198 -0.2052474274506187 -0.0869917202721797 0.6280747142053709 0.05802595034343672 
0.7897115189325782 0.118947179624833 -0.09858415291612874 -0.3145184506574668 -0.2678349743711166 
-0.3191254313207824 0.1190138490362545 -0.2083996585407139 0.1200006010394147 0.1540041386120337 
0.9700661675117839 -0.4604322256504255 0.2454019769023041 -0.6557635690932593 0.07090121778223317 
-0.3032375853655698 0.7443234573867767 0.1236696441683676 0.1470809419034632 -0.6461161411318287 
0.1455964198463464 0.09884226207644037 0.4671911776738117 -0.02357522547665911 -0.6734746077818712 
0.505607392179118 -0.3068829279614892 -0.03012832435874608 -0.05235797797860042 -0.08998403070146695 
-0.1329463332283486 0.9662314483270762 -0.2868863900063852 -1.339612218054302 -0.2108305383271458 
-0.3027815448968266 0.2504290653044149 -0.3284721139012603 0.09773601349054599 0.1035532011553602 
0.505607392179118 -0.3068829279614892 -0.03012832435874608 -0.05235797797860042 -0.08998403070146695 
0.646018569180876 -0.122455866051968 -0.2937992191390825 0.06209709831195842 -0.221231433495254 
-0.0239526515378426 -0.3511353818425954 0.2784610425407641 -0.1810743312309924 -0.3264396976197674 
-0.4004956611338619 -0.5113457312751991 -0.5768446113135058 1.162245853140734 -0.3416429514960386 
0.3899097224905818 -0.575753216483559 -0.4074643390944042 0.146476919708235 0.2857758087376231 
0.1979778823818437 -0.116579296165409 -1.516339668584489 0.009822254383956952 0.3989399556900599 
0.3569198354066827 0.5727595010621773 -0.1666626861129567 -0.02931907787452719 -0.169800600519565 
-0.281421731063389 -0.574090040299284 -0.1264723530817667 -0.1452831697679479 0.6987494785534942 
0.7771627117711378 -0.2171640315231938 -0.1277535430846989 -0.436000937716879 -0.7028050008856938 
0.2302548748285362 -0.0004958466466922656 -0.0102359592491229 -0.1912965737879773 -0.397278905183824 
0.5448084907921409 -0.255971917057607 0.7762097436306733 -0.5592443222901385 -0.3797014572398071 
-0.613480174394566 -0.3844773614960445 -0.3607871996707543 -0.1800861357286546 0.6972386197007464 
0.9327351036072052 -0.5378028245368675 -0.4674933681352743 0.1179387374638956 -0.07167249260288761 
-0.3899284304801357 -0.09262111442039606 0.1373790195475117 -0.205065715411498 0.3375061761864083 
1.478303205735847 -0.5080623496893482 -0.5251467174483537 -0.5876142434097222 -0.166765176612738 
-0.1696588632991535 -0.02153156130531447 -0.1778837064379089 0.7895282556722283 -0.5669233305919014 
0.2633310618409909 -0.0179347415700127 -0.1598998228826293 -0.2316860915912221 0.02416697861374307 
0.07471642575623751 0.5832979266676781 -0.5009326737458589 -0.02923509901595648 -0.4600999565438079 
1.220509914223414 -0.5074134860273126 -0.7173058278582064 0.08452661868519093 -0.3483463996456639 
-0.3760381773689095 -1.702101615545499 0.914518591888965 -1.109401148407113 0.8843361646241805 
-0.7730313962733173 0.1633294464629905 0.3743726863651395 -0.8032247595355159 0.7103337606321002 
0.225531873988628 1.428301923462762 -0.1360627979121443 -0.958945273433541 -1.148889596640115 
0.8955977333332774 -0.7750608057522521 0.1095447055946563 0.1018196815569803 -0.3389548241945333 
0.09832134642089205 -0.1083103587550765 0.4786089004042809 -0.3740157273009277 0.1136816417080515 
0.2284015924818691 -0.04925527933193725 0.1671878431441821 -0.6068781483434607 0.05716059681523678 
1.08994991688798 0.5647066561521179 -0.687044326649401 -0.393531453826873 -0.7540873877794294 
0.310715987445969 -0.1460054947424734 -0.05326249032138447 0.02037251501884755 -0.01654730370200572 
-0.06262575885964929 -0.02458777438264708 0.005479260126343515 0.1516616518576805 0.02074540867128449 
0.3147956065612488 -0.7015929457916218 -0.2686181251293812 0.5329705979587949 -0.3054341613944189 
-0.6417147925386799 0.3630900049367966 0.6626404650694576 0.1650650105647094 -0.8005400733125271 
0.6277976544440146 -0.1959110464235872 -0.06815316800735879 -0.03820429418223327 -0.1376546745024833 
-0.621402069858273 0.3498714948048028 0.1196124386015484 -0.5216635605640424 0.4898546555308156 
-0.06224787267005437 0.2743150423841221 0.6042579400821653 -0.1855667149584218 -0.3328311569750783 
-0.4492940610054617 -0.9730853165576083 0.2601682046598791 -1.063959925196756 1.386384827349549 
0.4966789663673482 -0.6815302852147513 0.08852438798643723 0.3416525898239113 -0.3497289294418958 
0.1997818964956958 -0.2200390642111006 -0.04380139267384101 0.0776580016233787 0.1525659631177045 
-0.4300815860795987 -0.05926402398794428 -0.6225874681171147 0.6658116093343237 0.08347127989322048 
0.6931125967824253 -0.1837324905051989 0.1146500252368436 0.1733943625018352 -0.3932597940351668 
1.088471108547708 -0.366663866234239 -0.1387277039466355 -0.251324240648989 -0.3530769284475157 
0.1901890343964424 -0.1376632003807237 0.1086427740806206 -0.3581154005977176 0.4978219226460546 
-0.3206475762647272 0.4691846564226121 -0.1580925033933866 0.5223155647423354 -0.7048909213971615 
-0.4548941891617462 0.2047626093976194 0.02798266981752973 -0.3697231709337009 0.1286417792052131 
-0.01436116477428885 0.2568830853148366 -0.2680312419950899 0.09282617669796418 -0.176192093869537 
0.3439655074347185 0.7011703047998108 -0.1001399272939228 -0.9368931872428065 0.1963113343584428 
0.9548828155979666 -0.5148238476597097 -0.1948010998305294 -0.6161446736877498 -0.3242684628831021 
0.4456830126589812 -0.3167964924995968 -0.0931187915105538 0.1293053092786418 -0.2909611897071367 
0.04191859602397646 0.7797955312908406 -0.2152461882020185 -0.7159396560350547 -0.3112889438522499 
0.3600977876503813 -0.7118001060971856 -0.2918761073118003 0.1724584512314234 -0.2061179604836572 
-0.3372511515742948 0.4786182906698271 -0.4831826435136173 0.5534341337096838 -0.333592268133385 
1.144217090019628 -0.6684350852230134 0.09605272554471021 -0.18062906334991 -0.4885658620121016 
0.378769228110643 0.40255493172968 -0.6224216318627365 0.3817896511869847 -0.774665041995929 
0.1013559463470103 -0.3101038959451682 0.5230562297504091 -0.05812460399166537 -0.1068926754488705 
0.1832402455569924 0.456607347625585 -0.7185805172572141 -0.8890181445531441 0.385313775752496 
0.05743833789712972 0.7751179137720617 -0.2984562229223478 -0.1515534611726607 -0.6607031440639828 
0.6871743618725721 0.4417254721987253 -0.8761716249463536 0.51325466786333 -0.7829214225100539 
1.036140682955175 -0.249877373603087 -0.1618244096296615 -0.434864588011614 -0.2273354392490068 
0.1350852640305976 -0.09526055324358038 0.5105757141537443 -0.4438513665937147 -0.1009442843021116 
-0.7431099197857476 -0.2613472857657528 -0.5862720452637156 -0.09925407628867169 0.5857300424430203 
1.295264243617513 -0.9840676519513595 1.508086594617245 -0.9135731304418059 -0.9994975860393969 
-0.05348659351961926 -0.8248543540007283 0.2316595093006005 0.001118556830608023 0.4491669864060766 
0.9660292762319552 -0.0758428092937652 -0.3142714129279525 -0.2007736890639013 -0.2175130394357907 
-0.07085910242879274 -0.1416393070835771 0.06748189791259532 0.1914167605824363 0.07494480415576132 
1.003746720158487 0.2072556507287467 -0.009794393406376209 -0.5916817114556538 -0.39156790464326 
-0.09906668804894578 0.002793560400690061 0.002851949959056931 0.5690626506941121 -0.3704489906447197 
0.8133388980136554 -0.9389567212632558 -0.5483477887100345 0.4743893497457142 -1.010715160917665 
-0.9572692446361427 -1.284700546070687 -1.458927486186319 2.001521975671741 -0.7497015597993195 
0.6851362692149636 -0.3019753710329555 -0.2559987350153085 -0.136447576725527 0.37488374520063 
0.4509351408866734 0.7463045423138611 -0.4497325808108142 -0.2477066581301507 -0.6194429103398846 
0.548870216917416 0.1641363057244771 1.0994380691476 -1.051523894455564 -0.5655049634920271 
1.089020971202886 -0.6871045611653764 -0.1341562754736202 -0.4140828976678817 -0.3844829201074122 
0.1604246628367915 -0.7266977295568269 0.3515543121442487 -0.2924567396497593 0.1947182574636127 
1.056796321214343 -0.3387729543375667 -0.8166905568055686 -0.7149100823308874 1.177221702276479 
0.1213296960049538 0.03948220384618625 0.4912474180347439 -0.1130832416137461 -0.4811801357197513 
-0.4398046167338464 0.2901730608705927 0.5063366424996854 0.244402153142644 0.02528075687377919 
-0.3173800320308783 0.4858249897864591 -0.4282338478223892 -0.6852217634326981 0.4199393729435795 
-0.5237511974068848 0.05173329721120022 0.1150964487305608 0.1026167231432426 0.1042977953564227 
-0.04538277469857153 -0.6904362263817122 1.193528409882411 -0.3159656261601647 -0.2296744895013429 
0.2624423975759864 0.1709666960801941 -0.4172458783721836 0.189293419594334 -0.1853965836791204 
0.4693093966667184 -0.1118725133657814 0.1534217596176484 -0.2016570924868766 -0.1944487186971577 
1.03102824137955 -1.258390483964369 -0.09456566146469975 0.05452056179224204 0.2114583901637693 
0.683790132534502 0.3102585619586246 -0.3486532650050604 -0.2642277914640926 -0.7968186699496821 
-0.9922609732208618 0.7409436101847243 -0.4553102591132918 -0.1549458605204136 0.2584553730708597 
-0.3064825720545546 0.7441595966134779 -1.300669968570683 0.2693717295878212 -0.1605499884338195 
0.6005263633399367 -0.3229840531901292 -0.04250143201102685 -0.004473049306949535 -0.07146677542681037 
0.01312663695982178 0.07593779783308438 0.2758920659007308 -0.1406060180440923 0.03668176799762271 
0.2035779307684109 0.09474890518660291 -0.4572523461939805 -0.0708718776856109 0.1924953605466032 
0.1850472330332228 -0.1104141416452018 1.171223183551659 -0.6443385818970316 -0.5905635117382918 
-0.2486416364099856 0.05617111745095556 0.4016951370020979 -0.6580408071278591 0.1408377901344768 
0.7442838930873701 -0.1323179441954054 -0.4574442281310048 -0.8385092314650773 -0.3227144397728262 
-0.08847830305123598 0.05007782155935669 -0.9585724624081823 0.5242987521922667 0.09632549355501573 
-0.291274537662184 0.4016145246020401 -0.312915221174809 -0.01156982187119404 0.3222968948949154 
0.9162571871183226 0.2487871055016659 -0.308001682407915 -0.2814693740168038 -0.5790567025376049 
0.4657687748296013 -0.08003187764596813 -1.030685276748343 -0.8540998610784972 0.7180030875294279 
-0.5062012107000395 0.2821315232650244 0.05855466034239568 0.1251770516330823 -0.03539352655007517 
0.2397812177956928 1.208376118257036 -0.5280982810711592 0.06882063468000089 -0.7863419101762421 
-0.2525561544826873 -0.3269278631443548 -0.6024925648778824 0.3197844633094274 0.1861799103558275 
0.09339284300059608 -0.8632036522384259 -0.4310108329268442 0.4091427020160533 0.3393601169374256 
0.2138906745413779 -0.5614977910065363 -0.4568459115261421 -0.2000036643325797 0.5174938553907551 
0.07802794624434241 0.2966905838554282 -0.4672606864343379 -0.3409705754881736 0.1562057436162192 
0.2875881402772712 0.06245444102930627 0.5709901007800706 -0.6040904825599084 -0.2479350196503746 
0.2141622812996657 0.2419038028189296 -0.3743679145851998 0.2321187692395962 -0.3171678819522464 
-0.6685319175057889 -0.3882983808424553 -0.4178585156968456 1.360749246421881 -0.7211780697768926 
0.6484757549144508 -0.3109449979248552 -0.2345848771409332 -0.05936501705939211 -0.8783637800248416 
-0.05460802686755863 0.2732881635928452 0.4770138413393724 -0.8336205238663583 0.1770405559692828 
1.124698101328928 -0.6116445880528782 0.3385059871847057 -0.4867684798836753 -0.3066414768847322 
1.911338894338684 -1.179344125115808 0.07546470792030746 -0.3499299868768 -0.9540433676929753 
0.4544768936256339 -1.143326707648869 0.2482071105759976 0.04764283510145298 0.2467830650596248 
0.6778246970135396 0.01767758926415267 -0.1333485758642282 -0.2026143186280211 -0.5826438735875237 
0.1267337674927081 -0.159807210858254 -0.493173735094788 -0.6708067613151909 0.3319604321099952 
0.4330774008333259 0.3495575972474123 -0.1997036323845731 -0.4485067261120095 -0.3007592416087884 
-0.2689729146861067 0.5589720686163551 0.3916372677528882 -0.3262748631615298 -0.3998686113001917 
-0.1276828055418616 -0.8064182530330744 0.4031271085622741 -0.07894962508123683 0.412153177357441 
2.169595837668131 -1.279365281544332 -0.3588443239588325 -1.156528625896806 -0.914134849079588 
0.5709779702076619 1.098174619947627 0.003140324062369138 -0.4283225351547634 -1.293832685495821 
0.3276518856115715 -0.3690247816244077 -0.3917641553976369 0.4338057426555688 -0.2186826273429117 
0.1123323632459291 -0.004038989168248514 0.01372394739352563 -0.5239094723027521 0.4854754834573674 
0.117014656350181 -0.04886670464410164 0.2877769835149861 0.06303444924921996 -0.3185308371546852 
0.6170314943505028 -0.6826904762293998 -0.1881385306869345 -0.0614344108250202 0.1357877646959685 
-0.105915395655655 -1.317523983419075 -0.7658615341332902 1.447292709559545 -0.8235877288650515 
0.6298129086155984 -0.01616397608987257 -0.04311350096678468 -0.4893347844290409 -0.08172641249444362 
-0.2542840746932093 0.1269810030180279 -0.2863583326329854 0.06896991023903903 0.1965701353633555 
-0.7595028300034479 -0.02124397420896861 -0.001782601877144221 -0.02984646977679579 0.2786637100596823 
-0.1549949395979667 0.6256029579094262 0.7235817633872931 0.1921746124459247 -1.415587679740269 
0.9435872607836231 0.3304877349760721 -0.5699461832479551 -0.478894279477956 -0.1413733598604054 
0.3301154096767493 -0.09767401725714374 -0.06045955457074381 0.2306594390866959 -0.151518334044238 
-0.6343190142276975 -0.03168183879089158 1.109494893177832 -0.7568406471078502 -0.1345236114128938 
0.7240724078667453 0.2849991125862302 -0.8642455502920007 -0.4438123133260015 0.1577589638117081 
0.004103726243728824 0.0683920344765402 0.01969299436301299 0.203958264774967 -0.3290046836043463 
-0.6169834479344836 1.166246199264281 -0.3971357198668637 -1.157292322413638 -0.1200970609392165 
0.3492455217212494 -0.03956549644175557 -0.01781007158094144 -0.07148924485814605 -0.01477231273627497 
-0.1885961845799126 -0.6631141540867652 -0.5931365909454884 0.7086608030750621 0.5649397966719157 
-0.2062302460558161 1.138503696093729 -0.1868475087353724 -0.1824182242578438 -1.312510669188911 
1.027486780052022 0.1256716568829024 0.8210706409299641 -0.1450980713289907 -1.43576178916378 
0.7705596429163678 -0.5618352366730217 -0.6776665605204071 0.1434207962442106 -0.1400569570761226 
-0.2149157991294069 -0.08857674530747912 -0.02496236606539165 0.1849629889066975 -0.1862438822757491 
0.7698502019771225 -0.108983021172691 -0.2479197170439229 -0.3567579929908321 -0.1271926446406885 
0.08605320270414997 -0.02244365969862951 -0.2351778418306845 -0.0616028115586598 -0.02756993390567075 
0.4075385286453541 0.07737303462878473 0.3040902261645928 -1.106542376461719 -0.4548912614211478 
0.4059618510573784 -0.1524554185427061 -0.2339676787558832 -0.02602682690531118 -0.2815224535024943 
0.3105646916262934 -0.1282231311718636 -0.07735890860922552 -0.09189925281390762 -0.05257602058657167 
0.9713239709665484 -0.1751977518727515 -0.104272723078914 -0.2939416334672526 -0.2339684949146794 
1.24207915488834 -0.4875323789564848 -0.3573674534758192 -0.716783821731752 0.201037400260087 
-0.05839499153677004 -0.3082222321491218 1.181763547671453 -0.6719950762362368 -1.02358643916477 
0.5085470956138854 -0.3001374224700132 -0.04504234842748706 -0.0491453577069703 -0.195049242199338 
0.1286462206739053 0.6735113993723182 -0.06496628159917342 -1.190367748465145 0.1131190842575083 
0.385215371834595 -0.2448964300935983 0.5251831727177513 -0.5755538950574184 -0.04904660204457426 
1.193876586048758 -0.589504155929539 -0.2198638514391453 -0.3282691001143218 -0.2121812494366248 
0.2788527688169605 -0.05732641021678653 -0.09803272716633235 -0.05589043910332027 -0.1669446002264059 
0.1974612587602814 -0.5235168469515293 -0.1871293160168204 -0.7295113124599117 1.095937861435073 
1.278983217721826 -0.3833804743488299 -0.2591136406711784 -0.5110492339818257 -0.5847030563406576 
0.2788527688169605 -0.05732641021678653 -0.09803272716633235 -0.05589043910332027 -0.1669446002264059 
-0.05979733877759388 0.1227494829960969 -0.1798267424759246 -0.1298066810781479 0.4025531707492782 
0.6850962133125209 -0.1642182983707394 -0.01556416362065478 -0.3121192009316837 -0.07759850244515301 
-0.2274131555707633 0.01982613615047865 -0.2324891209780449 0.9728224256336745 -0.7972360816417039 
0.08591033697670834 -0.2438468383454752 -0.02879291531648818 0.3432777132747039 -0.1445846341804259 
-0.228180695187705 -0.2087696623708523 -0.4750179621699641 0.1584117953968454 0.2785204010819299 
0.5447061987442472 0.2868340241122225 -0.05730549148784184 -0.4690960425235917 -0.1250144113497635 
0.166901750376104 -0.03724194137133439 1.195774506737578 -0.8522437363258201 -0.8277431446117394 
0.7962038300645 -0.1196719918944599 -0.3152700568868798 0.07952022938775243 -0.167024877786186 
0.3309053976415234 -0.234747945083528 -0.0108137818611667 -0.1881976566167643 -0.01694897579894888 
-0.09501559269040023 0.1980778944747964 0.3075202711520203 0.2507206136317329 -0.6226475839931191 
-0.481503052319809 0.2776046323257366 -0.1700582893150737 -0.3324513376226407 0.1717987623435454 
-0.5403212655077458 1.232580819314053 -0.2899660357483309 -1.892840160734684 0.7261119570601759 
-0.6692662243333397 -0.2738503010659052 -0.3665613541118451 0.05808309037869062 0.7169251741550222 
0.6363635211944727 -0.2429976995533857 0.08492827529888319 0.04546463438772354 -0.5537988063871736 
0.6616776751567381 -0.07968053495643496 -0.6311693342124343 -0.02693383653136456 -0.1603065462655645 
0.2597488938719347 0.5214279184976396 -0.4339494579159043 0.0712007253648422 -0.4312114486669269 
-0.9815836856640556 -0.4697800708186345 0.2572483543777693 0.293690559957013 0.6341670899124207 
0.8768474188613571 -0.4638827288355231 1.07076074755152 -0.4188056329876026 -1.123304571297934 
-0.1116177011566362 0.6871153461144153 -0.4756794884554302 -0.4937300659608974 0.5017083741720725 
0.7567262190231074 -0.2279842430292008 -0.1316666796374006 -0.01791249435227909 -0.2100598989459041 
0.7567262190231074 -0.2279842430292008 -0.1316666796374006 -0.01791249435227909 -0.2100598989459041 
-0.642558260662398 0.2612937947896292 -0.3760288420422154 -0.07548428238543277 0.7412967474449116 
-0.2472397104228863 -0.08604961914409362 0.3789296144595983 -0.1793632253414586 0.04294660976880647 
-0.6305039973573718 0.244290247115321 0.08116003821563542 -0.8865483294122927 0.5753544744716698 
1.097278944813165 0.07061390245796878 -0.08059905511748215 -1.109262882238635 -0.214095976408778 
1.141552142258135 0.08079514029578455 -0.6948408872833509 -0.1989509119795093 -0.6212338640918594 
0.8396048391654232 -0.9438649539631019 1.876579946275162 -1.70042787424463 -1.802154823837637 
-0.2437961712154924 0.1111370521832419 0.3930923181388922 -0.2613340385169068 0.1903131490758214 
-1.383063389332368 -1.136650473089467 -1.235425636481082 2.207804852538959 -0.3189195631847568 
1.356030677039747 -0.2494063559321257 -0.221892701156899 -1.144869781658464 0.1694511051506612 
0.4364365716280477 -0.8035218160867141 -0.5096821347522574 0.6824690074373505 -0.4797847327829963 
2.764314003472409 -1.32025053723226 -1.05856387499136 -1.440575860611885 -1.793290058215177 
0.08407183389244173 -0.5167801712777023 -0.2312847988127417 -0.1301421486801621 1.091295177582031 
0.2337447277651184 -0.02211295539382482 -0.003157166470954576 -0.3629663262730529 -0.01561917137078986 
-0.1830786393660342 -0.2593589636227844 -0.6510029608855969 -0.4709340296941271 0.8955855364944078 
0.4266470158044038 0.3083570644996994 0.1588580195518152 -0.4206039280233625 -0.2976538599587319 
1.185760069605744 -0.5509483623901767 -0.05028047283489866 -0.1125404114916695 -0.5221348348721679 
0.6960963150471489 0.3831128467826641 0.1655676464389451 -0.5945401811758839 -0.7823935825194082 
0.6056155560031626 -0.06570750629400271 -0.7763501701436309 -4.728095909327726e-05 -0.5121449927945043 
0.5527665022403961 -0.009222473981841586 -0.02466557136274022 -0.5115611634425851 -0.01467406721579374 
1.1695899896647 -1.055119972312218 -0.2204566850802628 -0.283450095417667 0.3737143619104175 
1.172885183359796 -0.4581439218979624 -0.3830366276206967 -0.6264175042691412 -0.6604791284214235 
-0.7774811765905203 -0.7522595980571265 -0.5491965994744096 1.544893042605367 -1.267874497273312 
0.5736971710200562 -0.5312472125544382 1.305642351635411 -0.976592087434212 -0.2748921065598421 
-0.3920108881976588 -0.4045438709417531 -0.9020683245878358 -0.9305911214721158 1.455835987746867 
0.5753058783528444 -0.130337296589209 -0.06832584375627286 -0.03051668550830178 -0.108652890124159 
-1.020717308316824 -0.246779316623473 -0.4569698334372912 1.61421251291497 -0.2135478677477501 
0.5753058783528444 -0.130337296589209 -0.06832584375627286 -0.03051668550830178 -0.108652890124159 
0.4945745345665307 -0.06908738569305334 -0.06845946035485585 -0.1769916649451652 -0.1041418357883442 
-0.686991967839211 0.587119078441816 -0.03058880948422554 -0.1942964765803491 0.1588778491503398 
0.3160831124198262 -0.1286068194940758 -0.03333907778821684 -0.154146290197213 -0.04562655373055677 
-0.0311194661871077 -0.3324200200506657 0.5980152880529389 -0.1414997732859829 -0.06709339378877453 
0.8844789640453519 -0.3733517921413625 -0.1732485166079475 0.4747707592325191 -0.7345794288047809 
1.134381239316142 -0.2201662771211082 -0.1804641602536948 -0.8299921992232566 -0.2523295992174132 
0.2871383141923064 -0.1806818242952392 0.522890947722448 -0.3359975058945429 -0.2704156054790525 
0.6246328559642293 -0.1142749170330045 -0.07014180944667403 -0.311596887117801 -0.09106513929963526 
0.3424951886332323 -0.3461805045610148 0.1111462445140025 -0.1099651716490597 -0.01165362761182944 
0.2559723271482364 -0.1997911585429612 0.2539958568845603 -0.4064743755024859 -0.1422349713487386 
0.6812365116074554 -0.4066941573497642 -0.4161825226441958 0.02691086589683994 -0.2863664571931024 
0.1163563257122399 -0.2539753016893693 -0.4991565280499789 0.3319193582639882 -0.2168770166372936 
1.168835527988926 0.07922355876971654 -0.1281890907510607 -0.6892811019840241 -0.5921511179600903 
0.1988358156559754 -0.007646983349228042 0.2893052735741555 0.1135443753744494 -0.562491468865009 
-0.5317466611139144 0.04351600043171869 -0.08652311488053263 0.7246734617082715 -0.225608470757564 
-0.4053744932615261 0.1447336859344538 -0.5032351684420002 -0.2539245331858748 0.5120296452981522 
0.9782667628601159 -0.003856428118778054 -0.06446115263245517 -0.466429168730767 -0.7703052767003751 
-0.1808671201916907 -0.05315053872769714 0.1237035927006025 0.05884383940591644 0.05510289399444927 
0.6755618937824189 -0.08411421390692095 -0.05727842069115671 -0.3742320116945911 -0.2241160841951347 
0.2331481871139978 -0.279294180970464 -0.5326857968235602 0.3712618800768572 -0.2521337593490136 
0.2805880058023694 -0.01843809612828334 -0.126695526087571 -0.006097191081606993 -0.1361976048522799 
0.9870475083826553 -0.8301222636079051 -0.4792728665552376 -0.7670084913408962 0.6936459424100797 
0.5860768742936385 -0.0199218021897144 -0.4055463081086261 0.1084427216047394 -0.1095296303783224 
0.8102198715981002 -0.3157315084336879 -0.5612740404239401 -0.2628795308719463 -0.04287619064399092 
0.2805880058023694 -0.01843809612828334 -0.126695526087571 -0.006097191081606993 -0.1361976048522799 
0.5572369080242462 -0.4373222773537562 0.4139589695585196 -0.02804412420050213 -0.03021324769177902 
-1.447424648111883 -1.35385444115784 2.748400212571476 -2.740017073155061 -0.5067189580404843 
-0.4612226416584589 0.953790395174832 -0.07907182366465862 -0.5415919455983861 -0.1805341686282574 
0.8828633882405431 -0.5224539527386468 0.8086619783367572 -1.539119824920499 -0.4506317501878033 
1.016250799942442 -0.6249385309697265 -0.01369041647626501 -0.2973915005211598 -0.4672301489992262 
0.2312845802224075 -0.07172432427858379 -0.05926404291891048 -0.06702713606865687 -0.05062580717060173 
-0.3033584634789657 0.3022914850544577 -0.1664484776424566 -0.245809628306784 0.1852543045889025 
0.03720217844274189 0.9969364089369901 -0.7732833938026962 0.06679100968536003 -1.232680962537809 
0.3903705661778757 -0.05817033674525548 -0.387488458548448 -0.2535609255777713 0.04513005588570526 
-0.1786410075771211 0.4944389355754538 0.4990563893447093 -0.1730165751836015 -0.3657945965343438 
-0.3518536884897206 -0.6473556524385102 -0.300457497763412 0.9950778126161604 -0.1295508482500958 
-0.2063935182618411 0.5442352558317195 0.5958088536030699 -0.6829997686817681 -0.5380439258185671 
0.9026202675518942 -0.252751256877959 -0.3016597534987721 0.01917092674783304 -0.3985687244940473 
-0.2744619661661966 -1.195682479553894 -0.04438177459632549 0.5660384764613829 0.1032080219291918 
0.05258168483347996 -0.001279199959765775 -0.00772507755804968 -0.1126804890249723 -0.02402002962492782 
0.9415375682706294 -0.4002540762601388 0.7611974073075931 -0.08228273467454671 -0.9866993315009553 
-0.1771310653326046 -0.1913275101729222 0.001527871234312889 -0.3982144885142358 0.3283211031084889 
1.074604332391089 -0.4359645391233938 -0.1541613432543824 -0.3744123422421397 -0.4764809860384849 
1.133666950079607 -0.3369129710708232 -0.2890830359251276 -0.6173044261355894 -0.2857354129892635 
1.730879956714493 -0.4075529461809971 -0.4389020085865974 -0.7033397388882893 -0.4259652368577531 
1.636517488922942 -0.7313603746316379 -0.3807845743093579 -0.2811210821012901 -0.5678832204308998 
0.147628207923218 -0.03021418588962744 -0.09981630940713435 -0.08699883608931373 -0.1051596294734351 
0.2597101198590143 -1.242318624751266 -0.1296418361442115 0.6743097399108724 -0.3248444250655408 
0.5242141459343531 -0.1556359004673694 -0.06834420314785347 0.08893646379620243 -0.1766156718064917 
-1.345589791094497 -0.8828917379320375 -0.5940313468229883 1.842706740796534 -0.9860401857552633 
0.0913119270481987 -0.006869686827451286 -0.006660858835563183 -0.1733603378158967 -0.007199130337983395 
0.1485140638474219 -0.01369104970976333 -0.01313959052707032 -0.1396990330130655 -0.04381814772069341 
0.06712596101942318 -0.29178801314117 -0.668889699056714 0.5878375178114097 0.1327257617624043 
0.6867919759103968 -0.2570848079931857 -0.05850657907563796 -0.04925932682406275 -0.2688676580511254 
-0.03733243951446781 -0.01359080273225768 0.1791531675440111 -0.2240829359580082 0.07699305993596589 
-0.3046509921991653 0.6122464793209229 -0.2888708921830478 -0.3357362860699831 0.1948856238824864 
0.2254970277207557 0.1933365643644597 -0.3134812036683309 0.1505540996796429 -0.02617775178749188 
0.5659649478683311 -0.01397442183749845 -0.0330624854134098 -0.4712760192073072 -0.01838610413829485 
1.743907442293485 -1.148087601464376 -0.5362782792508782 -0.4048414680957997 -0.701650888851165 
0.5572142876964614 0.299557374194884 0.09117582632421939 -0.3387039703887482 -0.6208986489107057 
0.02721451219265735 -0.5546290350724562 -0.05828317927700401 0.006919064184847756 0.2453365825433934 
0.5744967334325815 1.318198313003151 -0.8538850623751528 0.3258210446310777 -0.4513645255340884 
-0.1609740310007884 0.9087693315763793 -0.1394812909229011 -0.9537173543637329 -0.1822641894518578 
-0.7352924691843784 0.004108329501597185 -1.393003680891975 0.7769833373506624 -0.3287789582168723 
0.3881122735373707 -0.2693197966540163 -0.3223615503185357 0.2454705555814921 -0.3629319308957795 
0.7061313519766226 -0.06488477651360997 -0.06247007318157462 -0.8460113129075796 0.1952303109747482 
0.7667489340308917 -0.03296334266069886 -0.04819531990553242 -0.6735871889137893 -0.1675560179768822 
0.06402673960277357 -0.8221186052009114 0.05790050283355803 -0.7986204389629474 0.6136907331527199 
0.3814541466616485 -0.3928397027313399 0.3382711932619655 0.01723166258999173 -0.5214034591018819 
0.4650864569492982 -0.7633570350439129 -0.5400556660548801 0.7055965951620303 -0.43106846842163 
-0.1483104583955557 -0.3893186422784701 0.4147192086396058 0.5553776792203283 -0.4706312054489499 
-0.3127345315207738 0.3898504194685146 -0.1090524195069762 0.2352325295329849 -0.1289906785218557 
0.2635551509479224 -0.7228017749563771 0.1232160196185323 0.7995933517650877 -0.4527229229897419 
0.5348930805935573 0.2284216860620236 -0.6456817636631853 -0.4060553608352286 0.4965196681123578 
0.07801760435202501 0.1250663448394824 0.2233076506263793 -0.1790102143010893 -0.3396449728847983 
0.5496027241251131 -0.1404155067125447 -0.4519166552803548 0.2066433113834795 -0.2242870473215471 
0.2368833718778968 -0.09507424797377265 0.404416066173873 -0.1870425306502301 -0.4295191053987107 
0.2505116523989574 0.3292997494058893 -0.4791203392149104 -0.3309140771883367 0.2244006854342828 
0.5705621845613947 -0.1173868333126056 -0.0137614841615918 -0.3435171238557653 -0.04350893518100075 
0.6619184508417502 0.2712024470146119 -0.8463102423392642 -1.082120471787396 0.3324253261643437 
0.5511653039232504 -0.4865004592074899 -0.04911995447265569 -0.1066778921490385 -0.1471567713847426 
0.2168269908174517 -0.01489744811961837 -0.02157008058699462 -0.06072311523619452 -0.1106125374320042 
0.2168269908174517 -0.01489744811961837 -0.02157008058699462 -0.06072311523619452 -0.1106125374320042 
0.2168269908174517 -0.01489744811961837 -0.02157008058699462 -0.06072311523619452 -0.1106125374320042 
0.6001938661329768 0.1001963339223722 -0.2131192108751047 -0.7629430854730251 0.4006722916911858 
0.5461045181149216 -0.1110645846645754 -0.04200747826035513 0.1101920279177247 -0.7056717149302179 
-0.9887492081599297 -0.2243300206245195 -0.3675246547585264 -1.528212540087943 1.426617454828189 
0.8848340446449839 0.3962404363400273 -0.694081025388651 -0.4668572374217658 -0.5275339673505226 
2.137890546458865 -0.3042760330548066 -0.5196686785669784 -0.6699963993745223 -0.9370295948195738 
-0.0168135424066051 -0.7887985140706991 -0.04731997888472599 -0.1363924348318945 0.6001310526920378 
1.905045149693801 -0.3217916648366023 -1.586074743645996 -0.9464242550751646 -0.5836981450901261 
-0.008182329287162338 -0.4139389653835747 -0.4862457565710879 0.770260477885599 0.1172754466015677 
0.1016191693888922 -0.5435180459844878 -0.20360588910321 0.1892461481588588 0.2341984155149358 
-0.06696747476010388 -0.91151339088621 -0.81964823213934 1.170281391690912 -0.5021073701361085 
-0.4548476767290227 -0.4680482842304341 2.394267454245802 -1.308272579199053 -1.699306982249639 
0.2597276457167211 -0.8461686828805641 0.6903827482928554 -0.4674115704574734 0.1088930193140055 
0.7672623563700854 -0.01785319281865921 -0.3298289967537118 -0.183546168988309 -0.03269032207563779 
0.02841441591313631 0.2029614747724973 0.5515547758350897 -0.4827985145529239 -0.376815242848976 
0.676456239766405 -0.4689158252657968 -0.4798599271804052 0.09488567773954061 0.1705350912523265 
-0.3856975888863801 0.7606244452248887 -0.03443362062614499 -0.2873706412157129 -0.7245610490213187 
0.669913076915813 -0.29558936407515 -0.06397444782994247 -0.6886752129730014 0.3331153203260915 
0.1972340866074108 -0.9713181047029662 -0.6608419798474522 0.7753075199409689 0.1102292593650951 
0.6108100549881376 -0.3551324274395142 -0.2025863224262451 0.2772952182554423 -0.3295904694221349 
1.591751085760313 -1.587823072368747 1.058822675347994 -2.493577198653194 -1.243717047685196 
0.5162393285378074 -0.3605809613742005 0.006045345058135088 -0.2827000155523703 0.4050995767306674 
-0.01209013906766412 -0.689823577971587 1.360532195424556 -0.7021552585632783 -0.8165455114325167 
0.253501725669494 -0.9666137502742932 0.1816862740668773 -0.3576792491602314 0.4249584454795323 
-0.03358651578784555 0.3570228396657552 0.03027983680480557 -0.4532214137762825 -0.1209870322367367 
0.2522152623972395 0.2185167746621242 -0.1542045748466008 -0.1587315436478831 -0.6196164757951742 
1.267009755375091 -0.03853272755301215 -0.3462927412060013 -0.9956510977810835 -0.5575198372395833 
-0.6029518354722553 0.5870654509542975 0.1942766679809459 0.2577044941192307 -0.08134150851631006 
0.09883160052220206 -0.1410120981343425 -0.0165141532645559 -0.04963216997839099 -0.01645956987468275 
0.2071868189262938 -0.03060007759829722 -0.0265551579777069 -0.04206968262506738 -0.122539320910038 
0.06510590837217389 0.6087214340186422 -0.5994132929269853 -0.03634396538791441 -0.1648207267095129 
0.5684238841722593 0.005251136376114941 0.1129186705728325 -0.5366672764263669 -0.1939738187877717 
0.2071868189262938 -0.03060007759829722 -0.0265551579777069 -0.04206968262506738 -0.122539320910038 
0.2071868189262938 -0.03060007759829722 -0.0265551579777069 -0.04206968262506738 -0.122539320910038 
0.3624116627508374 -0.5347556592734901 -0.2442100163173433 0.321501337772219 0.03533102794368024 
0.06899601416553723 -0.6892400585018635 -0.1331037689328338 -0.1295915822391368 0.6292493235065907 
0.2071868189262938 -0.03060007759829722 -0.0265551579777069 -0.04206968262506738 -0.122539320910038 
0.2071868189262938 -0.03060007759829722 -0.0265551579777069 -0.04206968262506738 -0.122539320910038 
0.1953845054639765 -0.2452190877527634 -0.6773414593983696 0.1851713462993232 0.1466754709865693 
0.6233845988963376 0.06634016446153639 0.3916344151829212 -0.5785348353222998 -0.8336547767765561 
0.8341947073731687 0.3296449647214938 -0.9886538602751797 -0.6714398046330085 -0.5020525172684267 
0.7218430439220961 -0.339382652462181 -0.3327488469303913 -0.06454714362065804 -0.2685313203299142 
0.2395323235840652 0.1181743834744202 -0.4580296451255425 -0.4613419181761115 0.1321248366275853 
0.2502491790337271 0.3442768681720888 0.2063940661967346 -1.596898042133624 0.2648860013877716 
0.2976707657110834 -0.1743663377319742 -0.08310999099419895 -0.01972998695219437 -0.07932552762210165 
1.24811226678466 0.1230896791517703 0.3774173305677904 -0.7609397274499456 -1.394563814545609 
0.08020253451018121 0.6447457088482266 -0.1991896964204216 -0.1909093162058376 -0.2374934357918206 
-0.0372198257450308 -0.6522120240510343 -0.7592527689940078 -0.216462583200048 1.240428921790836 
1.074226784027058 -0.1127332051146519 -0.07316009792756058 -0.8867352689274164 0.1906682340305361 
-0.2439869040743451 -0.5240716673149401 -0.4489580512746115 1.416233162111829 -0.8920264082293835 
0.7365012972979416 -0.01937951757134221 -0.1113659991383907 -0.2283188442851392 -0.3397567280830133 
0.4293066496481704 -0.02061424993535108 -0.2416239367121245 -0.07367869246555282 -0.01304466628890059 
-0.197387382010765 0.3643758076860191 -0.05018691887988309 -0.1773808765788305 0.1610630491119278 
0.4293066496481704 -0.02061424993535108 -0.2416239367121245 -0.07367869246555282 -0.01304466628890059 
0.223877682082194 -0.1788716672150431 -0.2786494507152724 -0.1228162277180118 0.3526164444887324 
0.4683851079152817 -0.09335758251818041 -0.05583406155656398 -0.2103193118607138 -0.1792783489783163 
-0.07557729718387282 -0.1001892233367303 -0.3433765680152257 1.229524627703685 -1.102248709963153 
-0.2019224963111114 0.4667353253602915 0.6003586765139598 -0.1943256461621683 0.0208824988041376 
-0.4807048390340348 -0.07174622799036992 0.1361641858656281 0.4465388639534044 0.1321950259917606 
-0.1642564138637086 -0.06267742815073116 0.355591194033259 -0.0487818642790394 -0.3594791494582459 
0.2272105724608857 -0.2999627820592891 -0.1153944438676553 0.7383885928202246 -0.2591812174804856 
0.320463377880799 -0.1327716638460772 -0.0783760856338982 -0.009248807683228329 -0.1087638307304059 
0.1266857890170572 0.1495580691928843 -0.8226079593203522 -0.06149479572461991 0.4102650850665843 
0.5817509744082306 -0.1547206347537052 0.07228556343726525 -0.103392376126563 -0.1131642126777764 
0.4841063263017512 -0.1452581721628841 -0.1154281455885384 0.03369771855611341 -0.1921840776400082 
-0.7780977805099997 0.1309158746992584 1.037181615004633 -0.8396151922621817 -0.2516903617029244 
0.08584876581327841 -0.319297973991983 0.5569516966579492 -0.08181174732983759 -0.0982315864668209 
0.6272338896716231 -0.3449488238903241 -0.2429183080876913 -0.01366150824679531 -0.1141520667272171 
-0.4966890995128572 0.1813975089934259 0.08040722844984613 0.4354960392305705 -0.1667315163558942 
0.5932192708433986 -0.524947040085919 0.5529815802871888 -1.239609489945126 0.008007995553249804 
-0.002303724408735658 0.1949562105398975 0.2333210178598658 -0.3182796887583514 -0.05940993431429517 
0.244887898197578 0.2071427211612615 0.02795736207713716 -0.4617883287881992 -0.07228191933928277 
-0.2468788944442847 -0.6004036211884778 -0.07566834715616147 0.109767377152647 0.6562982467099203 
0.2739597939360097 -0.02504881386656245 0.04008550651931986 -0.285886993793841 0.1497442345307404 
-0.4150187975035507 -0.2379391366314036 -0.3460118233137195 -0.4450961930901279 0.940743091971262 
-0.05331738825843423 0.3863179970490722 0.5045554185162767 -1.359494776253416 0.5058224446285587 
1.045746768535322 0.5186470118919759 -0.2898661187472791 -1.223756648723531 -1.165004906526038 
0.1965794500555324 -0.05387577471294441 0.2931381137719374 0.09311543336963386 -0.7641762810685222 
0.740266263695405 0.1172269076689578 0.099488634378 0.2001838058951736 -1.180753052377161 
-0.7378089906561521 -0.1801303830045948 -0.1329393176802375 -0.2674234539266119 0.8629743374653535 
-0.08960206180688907 0.4788116887327027 0.6718030560623461 -1.150661340063751 0.1408150168946956 
-0.2535343371542123 0.5631127158458248 -0.2180076775170969 -0.1467711382715317 0.01442554479068919 
1.306505785858313 -0.9107231642112923 -0.7161169982048953 0.174904060464874 -0.7513408779641259 
0.02034054883156206 -0.002563001255714639 -0.003775756773700578 -0.03355954074370675 -0.005917058011289817 
0.7015235488486348 0.09755683730631089 0.07749047820425063 -0.757001644323411 -0.2503458055141319 
1.593270164417851 -0.01809700877605171 0.06366575060429613 -1.132646846246942 -0.9653667568345335 
0.7087700772179382 -1.247196948175147 -0.4892426483327431 0.2609806271186829 0.5330233816045461 
0.4657412044676103 -0.02540885136353276 -0.03180246006362265 -0.2810196673185898 -0.2061772413510743 
-0.1058607424691141 0.4624150424811848 -0.1957197611763216 -0.01236932759218567 -0.4103125660155391 
1.07626856151813 0.03971001981197488 -0.02909422423302979 -0.3715188347020684 -1.168302847461011 
0.723908729544438 -0.7090979225784185 -0.1024072959322551 -0.6923211593152467 0.274966499627376 
-0.3189205152155959 -0.01227781359860445 0.6039910340701643 -0.4542737460350759 -0.1447041418129781 
-0.3375588524040649 -0.5075720806484466 -0.1093233150066226 0.4756495783315238 0.5097690051626993 
-0.4569579321274619 1.629988382678865 0.1649931112916435 -0.1540307863206276 -1.498711169831946 
0.3273567818343996 -0.08243969748236532 -0.4225494028516408 0.5244973839647132 -0.122807802125832 
0.6428807829688405 -0.1754799321693238 -0.06326474096259614 -0.03953373411954032 -0.1356427790397307 
0.4205012686668033 -0.4673376848854798 0.6514490858300749 -0.2937081757642696 -0.1822961951984511 
0.1583385901434477 -0.6674550914793547 -0.4018643139191493 0.7854671746305928 -0.4001934966699006 
-0.2509129236883842 0.4461632063989676 -0.4400950323725003 0.0219375955746546 -0.3098963467125125 
-1.03114305014889 0.5033168544136378 -0.0955610753120559 -1.020899846168029 0.7049788811453348 
0.7746178883932986 -0.002881315815075181 -0.3557121795684898 -0.0006632877815683205 -0.03333794837361079 
0.5348075703700789 -0.3566699020432137 0.7172882042178775 -0.1911513897169034 -0.2424399068700565 
-0.2002936800354333 1.515528421034886 -0.8384544303104036 -0.5963489211741001 -0.3384856625982903 
0.6827685088033768 -0.09729608502057543 -0.07455308981837354 -0.6224449082502215 -0.1348505054705254 
-0.2397189665639956 -0.08712361262790469 -0.4667993891813186 0.2487311624755802 0.321790740717103 
0.9219309564639739 -0.03579633963351018 -0.02495520187485558 -1.011451096826107 -0.03216277049246673 
0.1133655517446413 -0.1047279675864414 -0.0691237610830516 -0.1131299236468865 0.2168228235569387 
0.632828326657394 -0.0492709421230656 -0.06721460871818678 -0.3173920602823971 -0.1331883832293008 
0.8352371373445291 -0.1458694658804517 0.7901862632871521 -0.8416854297884631 -0.9192598009754296 
0.2598256992130348 0.1575692354281916 -0.2560659769301397 0.1394351730683098 -0.1181781028638429 
-0.5912195615603415 0.7333865385182339 -1.185977517505415 0.1198269388789301 -0.2623498644328274 
0.09844195801397555 0.1817376863361559 -0.06123675070420441 -0.4889000237490126 0.154130526149041 
1.078992543052935 -1.420572693785126 0.10996555748017 -0.3223190864864797 0.7926030649866875 
0.0718398583156068 0.535041837159673 -0.5291053474268921 -0.001863926637865741 0.1082900095447346 
0.4019063490847585 -0.07018441429611344 -0.008452082966768901 -0.4833879055684767 -0.01378569006086434 
1.420271883870287 -0.608577283723831 -0.5113664234940269 0.007079523136413969 -0.6925204791604201 
0.02053538020242979 0.1887928966896812 -0.2043153995407129 0.1630277376214242 -0.1410990006785537 
0.8135891477383602 -0.1602634740769893 -0.07661550411858391 -0.2935625666534779 -0.09388342483332077 
0.0289409215349312 0.13611443210559 -0.1000577696192461 0.2137640411123247 -0.2322232306346842 
-0.6820747339757298 -0.4406703290728167 0.1881323902845283 -0.07543313578918198 0.9122913188739943 
0.3369368965742636 -0.8680774252625514 0.3264643911297903 -1.100283311002486 1.044313287284666 
-0.2153345014940554 -1.265994199206151 1.263793846226296 -0.8187419893475458 0.1185353498892019 
1.542259560648213 0.01763727277752109 -0.4807873919714526 -0.8816296007084906 -0.3842924949131368 
0.07625123119637635 0.5229293722188271 0.160554670403149 -0.1251815434250092 -0.361515548623869 
0.6329830036444273 -0.4461535578197534 -0.3000025048468367 0.5557112138799486 0.1422886032007177 
0.4976687235290597 -0.7858994614528382 -0.1608991446787559 -0.9343456930444392 1.17861629648808 
-0.2824787953510405 0.6199881788250375 -0.1469426314505336 -0.8551591691710058 0.2175475945161267 
0.1870201485526448 -0.1079668973954629 -0.1208413506992392 -0.02852942177611669 -0.1336255320872843 
-0.1519095300651633 -0.2426421618415089 -0.3012960860875207 -0.4402993188639116 0.7622435674296114 
0.2564421822875237 -0.06982732640049162 -0.2535371694289031 0.3237332848486444 -0.3425893000510033 
0.2592739186509928 -0.05028948732831717 -0.01478884631749961 -0.02588371422093353 -0.2665245308177408 
0.2260247525229682 0.44220915749643 0.3685200918188627 -0.9192054201400136 -0.3187369965113209 
-0.04277553903862307 -0.07284925704909068 0.1895609745396136 -0.7066005135128226 0.06692597834619221 
0.5546772278298073 -0.01614246674435824 -0.3746745193588658 -0.1596907949853346 -0.1251770050478136 
0.4754574288794552 0.3284495514934518 -0.1357781385609118 -0.4605257201601524 -0.2036607173681749 
-0.1147302314772794 -0.1659549169345371 0.2326262761686357 -0.1917211362745153 0.2236576017877182 
1.452065467295058 -0.7733355593415885 0.4168960576326969 -0.6474178697242035 -0.496778466676231 
-0.3917565612637464 0.8200276730735792 -0.4636764435163838 -1.831951315696766 0.4068739663439586 
1.978724435724592 -0.5871624731622009 0.4413775392080156 -1.261047222213186 -0.9775493700129729 
-0.2777998324750096 0.167038417816969 0.05147673065308204 -0.002605122679550615 -0.09636949424129279 
0.6298798858207169 -0.1888573620229585 -0.02148091647837853 -0.3527443145324742 -0.1214036723444799 
0.9956762497755197 -0.2190335565329209 -0.04103305505538904 -0.4861198164290775 -0.1590265403328293 
0.2983302694135248 -0.3364557250844236 0.3664234226861124 -0.1296134622150693 -0.1531838499449912 
0.1294213869252759 0.2671570510577609 -0.9125101736313239 -0.3410602616385333 0.2468719657517376 
-0.00069742050790772 0.6829172506437893 -0.4914538908712404 0.3256432299083838 -0.7730362380822117 
-0.4649842112841696 -0.4901286692097145 -0.2469013909633856 0.9489917251660412 -0.07331171362342503 
0.3338217875992004 -0.0437788939357453 -0.1712188030806694 -0.03413431610955964 -0.04857071592929042 
-0.3098458774721772 -0.09826884555360915 0.2687068402743552 -0.3487754315266291 0.2183151138982622 
0.02738785259678046 -0.07135748146198816 0.1636961845936968 -0.1680193939279966 0.3201555195863643 
0.1063980417737981 0.9303976365712753 -0.5123812970338205 -0.1588411649618813 -0.5825376909126381 
-0.4414286959437365 0.6505112106242442 -0.4498873019465273 -0.687316095551902 0.4023289958117037 
0.04198830464198729 -0.06500440064994839 -0.2887790489191005 -0.4040687635883327 0.3863912148147352 
0.7849150929821236 0.4519007946868023 -0.8729730695939601 -1.370176433317334 -0.2751780468036812 
-0.1188816827208763 0.7390702306468516 -0.2181084086055428 -2.281189428229322 0.2037133578610971 
1.860654476969221 -0.7465910899935826 -0.09386979974542625 -0.511096568380507 -0.8163179467641658 
-0.2190381906222998 1.214195326086497 0.1532911728682302 -1.076068139885277 -0.9394663923883135 
-0.2776707807841616 -0.2043061572173394 -0.1187864250753412 0.7624498601558789 -0.07670969382150747 
-0.1354891951389265 -0.4411347549726176 1.271630396770644 -0.2302275353300966 -0.7313005596847493 
0.6727536844720842 -0.3606995041739492 0.4017316569398209 -0.292509555423595 -0.4918270617217212 
0.4240866435529951 0.1333916470348367 -0.3815459695442689 -0.004648845767813175 -0.5489736653983134 
0.3343383131057986 -0.4716030110878716 -0.02754987388566107 -0.04595477691284399 -0.03654423395273836 
0.5252228582664111 -0.474452646240214 -0.2740107830878907 -0.1244165556956777 -0.05156172536653979 
0.05844080123741159 -0.1002348912868882 -1.268854323789179 0.7534001533598517 -0.07187811050769558 
-0.1506928830023201 -0.06015833376133058 -0.485851036917361 0.1755504083386153 0.1530963159639926 
0.5138295873110436 0.7046602780415429 -0.6273773719540771 -0.4659622526976557 -0.5860060699634925 
-0.1957415173847945 0.2239832351722635 0.7469638579715919 -1.038802954041689 -0.07312515603965419 
0.6878098954540133 -0.119171044299066 -0.1379588028066233 -0.4307109628076904 -0.1555842849987611 
-0.12676706327831 0.1540817265089028 -0.0930364714614178 -0.0139384846415539 0.1391955581640745 
0.4655104514134805 0.5796303255707059 0.3447411891039993 -0.6108361085581203 -0.5627576687019598 
0.2506067584285834 -0.04785767447654959 -0.03223658342892437 -0.03753026404924896 -0.085250189525649 
-0.5593316541935403 -0.5521257626675444 2.394284301439643 -0.451981265030428 -1.616711149758821 
0.7813371568683808 0.5755691523964079 -1.008287178476319 -0.1063938457303409 -0.9766741116084453 
-0.3742187534340873 0.5547748651043909 0.3878407389785328 0.04002050133865706 -0.5746323836204297 
0.2510578839750328 -0.2510034145365928 -0.09677751264701215 -0.1274041277500981 -0.2015843544811235 
0.5946841452195706 0.3347164543925553 -0.3255184303304335 -0.2041930854640676 -0.2655103125430169 
-0.1868277618701561 -0.04295233256275444 0.2533920133866635 -0.3395986974475819 0.4212943141524641 
0.7599255795872687 -0.05838834300612233 -0.02103991481117636 -0.330919911167732 -0.1210419142911014 
0.3605317897059174 0.2199465608915631 0.03316405515667054 -0.4925416003233011 -0.167776027129998 
0.3910746285418037 0.3823483336739528 0.9843731894231766 -0.8317281245013801 -0.9960372624160651 
0.1840622124070985 -0.3909215381225765 -0.003373546397622246 -0.0007450336885761295 -0.001408264482752966 
-1.34395558187141 2.46679902914477 -1.102764224862421 -1.640078011537365 -1.295678827335191 
0.9572696186363274 0.2419199270043788 -0.5746379815226934 0.1283811765220264 -0.5709842534517563 
-0.1152375195206561 -0.3448030716995712 0.4898034654179854 -0.3905653588407871 0.3642917248412265 
0.3880012634043087 -0.04471759592521113 -0.03262801873190506 -0.2405489471066572 -0.1839089907874328 
-0.008300717837430879 -0.3783912038441222 -0.8860744424233605 0.709070727032434 -0.03310557578797958 
0.3880012634043087 -0.04471759592521113 -0.03262801873190506 -0.2405489471066572 -0.1839089907874328 
0.3418300530342586 0.07269650774488846 -0.09922177644979517 -0.06331616060664208 -0.2298919829845823 
0.9994626988741629 -0.2374279685636362 -0.4691241875750552 -0.1195436231426713 -0.2058551458838837 
-0.5195656472007798 -0.2882147598892346 0.482065568393242 -0.06438699976728585 0.2902508909384772 
0.445878498485942 -0.6337908812750809 1.262483603375956 -1.039401125878492 -0.7125663866313586 
0.4889103716321856 -0.2843314176176816 -0.2590420901541679 -0.1461738401687861 0.3184224360843869 
0.6020966784243882 -0.07363307828500948 -0.4504677085341199 -0.1331556643150476 -0.1190715659680655 
0.1239407802378237 -0.1019696941214353 -0.09579707787839202 -0.2341780705211048 -0.1368712557862861 
-0.4008294691442135 -0.6020799116637594 -0.1039604883284679 0.05626315744630787 0.526750518524038 
-0.2601625486079244 0.2935976994241462 -0.1215409575765706 -0.04053218738458038 0.09525427376174883 
0.2734835533735315 -0.1143336056957357 0.03655372272535139 -0.2203189496446605 0.2285452200294141 
0.4617894113232164 0.5566124487196342 -0.3244659792175908 -0.3640059784641409 -0.4033618505677593 
1.351046207081475 -0.2628666790395463 -0.3205492263862991 -0.8089433269725966 -0.5735828085319554 
0.155142605466165 -0.2904330695531854 -0.02276972063281569 -0.1154772683656554 -0.02866364545291352 
-0.3244085215890414 0.05374896437949236 0.445060005379822 -0.2389314577110206 -0.1920886812314429 
0.4261600665550181 -0.03236826487903623 -0.02523398162277795 -0.1515817085513884 -0.07347125917315361 
0.4261600665550181 -0.03236826487903623 -0.02523398162277795 -0.1515817085513884 -0.07347125917315361 
0.4261600665550181 -0.03236826487903623 -0.02523398162277795 -0.1515817085513884 -0.07347125917315361 
1.42034824130143 -0.9400941797074439 0.9569317571355856 -1.821756002982136 0.0614260338907932 
0.6319516238155033 -0.09526473079842006 -0.1287333774973051 -0.1914402261851442 -0.1860624866192633 
-0.4257929240222874 -0.06893059098841031 -0.1502913215770377 -0.497544184839489 0.7564472022369979 
1.033250482952686 0.2889127442425491 -0.3201115409276765 -0.702481181676606 -0.5164894771859541 
0.3071250128756047 0.1169532303566974 -0.06592752802965936 0.4493374020631652 -1.24237425459685 
0.7109653651892447 -0.1499983057095987 -0.07079660844171708 -0.5860814925838058 -0.09354235416655503 
0.6452596064668343 -0.348993052815011 0.4715755534453607 0.01958046473337528 -0.8666536342043398 
0.8445621248366461 -0.7975293643211042 -0.771774631339427 0.1802167371584645 -0.6550445656359498 
0.3601530674320108 -0.008142037477982346 -0.007715071669088067 -0.8577732900507238 -0.0162028356208566 
0.2863895997553714 -0.005243095239595023 -0.00687706632542666 -0.3906458406637207 -0.01455355332520104 
0.2053472067426901 0.2357119272994009 -0.5853939288052982 -0.5024271840577036 0.3833876957288662 
0.589962387055616 -0.03069147900301857 -0.01336354449076552 -0.5489029603555456 -0.08527979474367314 
0.0605201532645572 0.4348585128690882 -0.6934426151348363 0.1969641454882728 -0.3735191887698248 
0.267678619567304 0.03363091757305275 0.02923130737074888 -0.3950284977307232 0.2998869598446929 
1.242418207810784 -0.0009993276300593198 0.03192586429047147 -1.057076245761309 -1.275474521321449 
-0.4651810323569983 0.332290031191166 0.7221961799126686 -0.7015119174836303 -0.05286468654260019 
0.4369213031054694 -1.010434921832853 0.5040516416427374 -0.1963218905473034 -0.5413810973974317 
0.3067081550591517 0.4219524239402512 0.5872829477841333 -1.202439011066354 -1.052173023353472 
-0.1528964774626522 -0.7655753761672511 -0.7586385484192872 -0.7389089785672591 1.316892163180234 
-0.2366678403186996 0.107237423125285 0.5819960019704595 -0.5548517317961147 -0.2824100999026851 
0.4400297202253544 0.1149279201200426 0.03455896948026815 0.6627457898479052 -1.123695533664205 
0.2319295100747321 0.1994506205736111 -0.2125977418363742 -0.8837693468973794 0.1152884366523623 
0.08795356860382716 -0.08696350568229688 0.6094199261296362 -0.03284654859529496 -0.3053075179090741 
1.133381367625912 0.06362955639772255 -0.01933949066926956 -1.641583574580665 -0.2622579588468639 
0.4160412589073976 -0.03491179261214204 -0.02247234336140966 -0.2050004509993388 -0.06802981943564999 
0.2315812671614301 0.2328229881314005 -0.181439862751718 -0.4210711111832153 -0.07501515695794533 
0.9428187598734582 -0.04848081792692416 -0.2079239585250086 -0.2949038956624776 -0.07959790822853259 
1.3242290618649 -0.8898617072659224 -0.5836536988417894 -0.1955601530614376 -0.9971963304539373 
-0.5891277731534761 0.4339034538557302 -0.2844066999991127 0.4599935711288123 -0.1737945886262931 
0.954420787050821 -0.2712894686636338 -0.3841541234835155 0.34727099538197 -0.637605951994924 
1.951006957454589 0.03350143755579425 -0.8415889766935372 -1.538692040164634 -1.039503891514037 
2.147532508525411 -1.533715533296095 -0.925729995944653 -0.9031757532725604 0.179731651417662 
-0.06136278194504338 0.7454633719277148 -0.348113530986517 -0.8953825898516796 0.06494257849631628 
0.2400599849608195 -0.2616303515151777 -0.1041520691887305 -0.1244941435256715 0.2681113772705329 
0.377491057978196 -0.07920718900444366 -0.003678781749634184 -0.03745283060043277 -0.1875955442860028 
-0.4010685355046922 -0.7958563144325556 0.2771657043367582 0.312709933015579 0.00599502586504507 
0.377491057978196 -0.07920718900444366 -0.003678781749634184 -0.03745283060043277 -0.1875955442860028 
0.1038428544844728 -0.09519582951404736 -0.01764948808756341 -0.1746675602748943 0.2260310946426097 
0.503832238772468 0.315757374367258 -0.3071783991573208 0.1084528999064559 -0.731067684337964 
0.07828901495967941 -0.604726600879795 0.2477510196695902 0.8866551935197737 -0.6968262507494578 
-0.08049296288785275 -0.8664613756743506 -0.08283420025141927 0.6862328867835271 0.2367537566593347 
0.5942278873088598 -0.2562583721239765 -0.4037413287846843 0.1746978131840455 -0.2588732368982166 
0.4763046422516895 -0.5262822195013798 -0.6473223219766334 0.1637370789177466 0.2849798379393254 
0.5288209729380621 0.5795148773301225 -0.4332392445263658 -0.2846314747409409 -0.8948752410858382 
-0.0502875595239948 0.3200590198341121 -0.06105212501319677 -0.3208971844373666 -0.1702005133640027 
0.695161383236788 -0.5290663030644994 -0.537112298468733 -0.4074310633865298 -0.02297726394046484 
0.6687032044126043 -0.4093130018311044 -0.52077875960508 -0.07721052651201842 0.04628681717568016 
-0.2183123197653407 0.1269906410073476 -0.180418365856079 0.203089232673675 0.05562294260528561 
0.8981900692301948 -0.1269278711910196 -0.9140146229723667 -0.2978630192808093 0.06226180755122825 
0.4875472688483468 -0.1365678469431645 -0.0633062509170899 -0.1438913515338637 -0.1323625883208247 
0.4365570656779315 -0.1072121211928258 -0.1906135182183769 -0.1130868994678774 -0.06934525726080126 
0.5850802986198215 -0.05162917266979126 -0.02775848646462884 -0.04974848389344242 -0.3362609094902489 
-0.3373654850798371 -0.541115540997868 -0.1505742826401263 0.4822801027432887 -0.1693173796443221 
-0.2088948113126429 0.1475711435287503 -0.01099112468427177 -0.4450640920607816 0.4387868586694958 
-0.02150555479996493 -0.04004572444391691 0.3904260635568742 -0.1184491490946048 -0.224751973476089 
0.3780470228701477 -0.1151843882432221 0.2913401855471907 -0.09285694890023165 -0.4274464351743908 
-0.5571115276924921 -0.7809588636452118 -0.7620089814899398 -0.3046708067714734 1.203377135432574 
0.5850802986198215 -0.05162917266979126 -0.02775848646462884 -0.04974848389344242 -0.3362609094902489 
-0.03545679245090488 0.6206424159073315 -0.3681773388740501 -0.1311915591373595 -0.2844475583705395 
0.006848010858229321 -0.1340730046381914 -0.0431336085544618 0.287825341028856 -0.212406239262207 
-0.1169585637903743 0.1286593122753616 0.2251960355071237 -0.2883877797608811 -0.02900165831675419 
0.49541923694106 -0.2567460425614735 0.4834083626650926 -0.3067456446606244 -0.3039599883667392 
2.555550367238321 -1.256969880618137 -0.4634968365876835 -0.7653983676106344 -1.480758943501581 
0.007875690956075581 -0.01394162043116801 -0.1750311652046852 0.4161297266427408 -0.293957335867456 
0.2118402383365525 0.0169085061775965 0.07459657160581369 -0.5052757044695543 0.3511056013359994 
-1.132094466070097 -1.801371088392103 -1.032758194018366 2.340375447540287 -0.5366844624605734 
0.7851364061304001 -0.07750678442136801 -0.410009900564938 -0.5626006614405484 0.02115593653880535 
-0.7727028553886724 -1.047561283857178 -0.04940411177365807 0.06019861857026246 0.9162956612038855 
0.2508486706820137 -0.6097754046777242 0.8453329042819209 -0.6447266474904055 0.2352035831882245 
-1.122803942547106 -0.8954725474472786 0.4176132488316182 0.1782561491346794 0.6833176471660259 
-0.2117119433802942 0.09583600976828556 0.1994889191191968 -0.1687971709417841 -0.007762482810502243 
0.9056878668022296 -0.3082965684615311 -0.08753421770774748 0.7023246531682813 -0.9618152373745527 
-0.3334501115735544 -0.4207956768953022 0.07709926787704671 -0.09474348493954267 0.1657033508004681 
-0.01593919762977419 0.2412693066701456 -0.003060041517051482 0.2574239991684821 -0.2076400458646178 
0.4261734170785864 0.4633406200355145 -0.1168246226303259 -0.2385194989630795 -0.5826747890851123 
0.3247112740664224 0.1894890667572426 -0.7724345944586494 -0.243330938991746 0.1754924023547845 
1.07656845780569 -0.8414744046399477 -1.078560945892264 0.2139050115815401 -0.4256236579367755 
-0.4304848735979156 1.116707384049245 -0.01465828837348927 -0.9993748757887143 -0.4285193002672613 
0.781105821619641 0.115356265184695 0.07256998394600932 -0.4630343776709818 -0.5347942320462183 
-0.002655778665560208 0.3547743631997078 -0.02151849601379132 -0.4447649027342057 -0.06990109024740183 
1.174276720737868 -0.4807959285056775 -0.2448346683641771 -0.6745961792072317 -0.09005342870934813 
-0.147329022536327 -0.5912043657437008 0.121662114754917 0.4912983626863475 -0.6403078499906978 
0.6804997929579139 -0.4845729430190446 0.2226323971021554 -0.2728803737188649 0.1180919795415691 
-0.5578455404723791 0.6517573933687604 0.1656953582540633 -0.9299147787627868 -0.07776997598135246 
0.1542877528959335 0.3571457352516306 0.002285158916922006 -0.3777592255297625 -0.1137507207827489 
-0.2737672005674797 -0.07463006095231794 -0.7474794885746803 -1.083116142088052 0.8256734043294728 
0.2021663211389953 0.3255042959388629 0.1625449391768609 -0.4337644074149503 -0.5506305307276105 
-0.009519938511664185 0.4760194388040552 -0.01020994721837284 0.07818187512049575 -0.505534756412972 
0.6384344642017942 -0.9639641177847498 0.3554575969905885 -0.5339894638970915 0.04245610058790839 
0.03449918602687904 -0.01395215239732032 -0.01049722959383767 -0.0401484708851617 -0.06310745613559912 
0.8304345241317664 -0.9325262568239031 -0.6143756302901371 0.6604635418369643 -0.5459979822392722 
0.1141818625854849 0.07604207635441719 0.05866660972483415 0.08864101051242131 -0.2921315088394563 
-0.3329496945130185 -0.4231363480986698 0.3641662144111927 0.3844849323198206 0.4548530105597995 
0.5596220385175243 -0.5909256453173724 -0.5373897881337139 -0.131117348234799 0.5143800118053362 
0.06237006858870545 0.5865009687310055 -0.303181768943503 0.1901307423078228 -0.2667364973180913 
0.2634466196598211 -0.4124105036228234 0.03388328701728976 0.0319150587578168 0.2261407253342639 
0.4868125184834127 -0.06211811632238016 -0.126472004519127 -0.1116114514488278 -0.2022318404156873 
1.14636282926051 -0.305688088895122 -0.3714192869393243 -0.5863042349787319 -0.1816441801563047 
0.1388763669262508 0.1832904865226801 0.4680509798578216 -0.9538904709883647 0.1409423777164789 
0.01911724784758932 -0.0679054688831961 -0.4323687685727278 0.252723027634418 0.210946374006518 
-0.3521328225783487 -0.1935876195609568 -0.6764511020330375 1.378600889514873 -0.8661461096628635 
0.1949928640587955 0.05715496918063287 -0.9613070369668413 0.04500865013528293 -0.001186792914358648 
0.4083583915086229 -1.806141756666162 0.3591741564501174 0.6620992984775713 0.2148589552319497 
0.3270596305395388 0.1433679983352839 -0.445096822157736 0.06821234369004647 -0.2406295624986012 
1.43866319624503 -1.021341411775162 -0.5725710488775718 0.2017636271557665 -0.5317027869435323 
-0.6012271126558876 1.972856526532047 -0.709079216549608 -1.623835915695478 -1.018812531822641 
-0.04718458919965721 -0.3945212017164546 -0.6801403430605404 1.217966005571214 -1.259311117964821 
0.1253751342438502 -0.2021817483566725 0.7304103079190829 -0.9882830172949011 0.2248239404982415 
0.3595196397514938 -0.1952320600755801 0.2299441595061275 -0.5761368737709965 0.2693227363073079 
-0.2599356687874639 -0.3503250121324378 0.2175407321938588 -0.03767822337192062 0.4064113675184623 
0.5867867233948663 -0.03574519578938081 -0.01276278972589864 -0.2597274884312858 -0.02899027321973791 
0.5867867233948663 -0.03574519578938081 -0.01276278972589864 -0.2597274884312858 -0.02899027321973791 
-0.3984508328985633 -0.3109219573178956 -0.4377092655844425 0.1506620945788722 0.4723442603261484 
0.7848917959523548 -0.3393304267667245 0.1196463580049261 -0.4140449140979995 -0.09438226339425207 
-0.2971247771659958 0.912275118886511 -0.4345836813368202 -0.319312159611144 0.01866604961691688 
0.1447514153135991 0.2981068520258527 0.1089061929415973 -2.191753446564132 0.7750487813935169 
0.306246950771334 -0.3552931791982211 -0.1456774935427269 -0.2700525037753305 0.3988455217581559 
0.2810115037454377 -0.2431330136586343 -0.01043442125619532 -0.07866873516927168 -0.0134734144819258 
0.1331073589925104 -0.06477567401128674 -0.1510254760967672 -0.4460383517859972 0.3982036292712638 
0.1603271002380625 0.9693549212431062 -0.7905235153376866 -0.2656974450259058 -0.4832294501646933 
-0.4540411896432844 -0.9496404829486688 -0.2331353410782929 0.4461720060568217 0.4948615656893435 
0.05823289040483223 -0.1409352638476478 -0.101309426193686 0.2916118645587898 -0.09205346826152867 
-0.2012915763066761 0.4625327048597258 -0.3510609834252683 0.2846507360569495 0.07034897141839423 
0.01118537695488186 0.3164342803827423 0.3195906766222592 -1.220484663043946 -0.1942331926142188 
1.032621192760774 0.3282866210747898 -0.5741770616020984 -0.2929983938972728 -0.3672795300871985 
0.9757218579702922 -0.8405211447182519 -0.628662285602934 -0.7046194931076168 0.5639435076634883 
-0.7844137689978946 -0.3411878007260724 -0.1007053205963674 -1.610093438453435 1.466902865536194 
0.574732441264746 0.1589423771165744 -0.1924529589518112 -0.06007543993803403 -0.5323604064294094 
0.2215952125529783 -0.1578991557520007 -0.05455003148892459 -0.02596028980182024 -0.06184458923993668 
0.1170507776032511 -0.0580989083683912 0.2474628106000235 -0.3970629582934823 0.1275236545754393 
0.1513837612981147 0.5652464401129436 0.4997880142332323 -0.5050702984321683 -0.3529441634404509 
0.5326456702089054 -0.1396697031432325 -0.4089875514459772 0.1233704133380245 -0.2431027463686783 
-0.02153405131278754 0.3925450208027081 -0.1443677082179225 -0.1204281299590425 -0.1702500366273303 
0.5160981487039311 -0.2142386742263339 0.3906597081697536 -0.4307756996041441 0.309493674604008 
0.3382625103182605 -0.1657405789424947 -0.02877273056650119 -0.1898237307091704 -0.05756259650153939 
0.3382625103182605 -0.1657405789424947 -0.02877273056650119 -0.1898237307091704 -0.05756259650153939 
0.3275217630939543 -0.04064867432826721 -0.01271573859988597 -0.5332111277991779 -0.06858987860377044 
-0.2966166022929819 -0.4903932507826842 -0.6451679632425468 0.9662506652790975 -0.02798156808926922 
-0.07427661626256697 0.4020728133513393 -0.440598106747967 0.4520928371016962 -0.1504264652971403 
