solver_type L2R_LR
nr_class 5
label 4 0 3 1 2
nr_feature 28278
bias -1
w
-0.03205765505069004 -0.6685197962719805 0.5045036149789237 -0.1494753670999677 0.3753153264245232 
-0.7113196726987302 -0.7053027945796235 -0.6565033525112733 -0.04119595571860361 -0.4710314325739431 
0 0 0 0 0 
-0.7113196726987302 -0.7053027945796235 -0.6565033525112733 -0.04119595571860361 -0.4710314325739431 
-0.08447524196944903 0.2208112068910961 -0.02673678885399785 -0.1189047630537915 -0.07119698045801932 
0.07156322956235364 -0.01632262726528059 -0.04039026776172588 -0.07107108892546565 0.03485217389748333 
0.6334903793844152 -0.04059758558169557 -0.195167641345597 -0.2320559021365628 -0.1243650001959934 
-0.3256695396803174 0.3166474274575774 0.05513335951663837 -0.209705063773003 -0.02266012857414601 
0.1949727404221709 -0.1231192854262992 0.1210642773307583 -0.2380974819079144 0.05590304037135076 
0.1959036469144848 -0.01903519097682776 0.114160649043214 -0.1186246679711811 -0.1513718948314186 
-1.126771301530627 0.9360961027947012 -0.08872011321678491 0.2001600985250151 -0.4999945569960082 
-0.06411145681119078 -0.07985751014194226 -0.3048870914182488 0.7367754014632169 -0.6435688614899064 
-0.2459317500066435 -0.2701182970901742 -0.4338336453519257 -0.7654994326724162 -0.5301136078794058 
0 0 0 0 0 
0.2834936245136361 -0.5191700236300227 -0.2123874654766737 0.6232387724860919 -0.2834241434008656 
0.328392431242532 -0.2849057920520456 -0.1063058110056327 0.05685794347036491 -0.1677185067457837 
-0.443584436343881 -0.5171996363108484 -0.4464067401535918 0.9637693550867703 0.2504391380823469 
-0.4324834901092386 0.4383438951422123 0.269108819462345 0.5524237140446381 -0.9902081379169801 
-0.2694406559084742 0.06540952295113506 -0.3548806432793879 0.4348403786443223 -0.2600897498823526 
0.2221771723609509 -0.03656320688925367 -1.123344893161012 0.2326430825505219 -0.1175405022831557 
1.343724353686519 0.259346265923092 -0.4558981264959401 -0.5980067374444707 -0.8111767325366618 
0.3023549002449169 -0.1748190611785764 0.5739792267398803 -0.774718894798808 0.141235761647346 
-0.09790616710004268 0.9059126650098223 -0.3232941518934167 -0.407457291267413 -0.461274284863211 
0.631738926559587 -0.3275468498156772 -0.06866445583108452 -0.2078418952098187 -0.1007766269496176 
0.444795999134052 -0.6339807672155467 0.5378951302287984 -0.4482465906221101 0.09180594464322002 
0.6865260284192876 0.002313362061245713 -0.513942441987824 0.1318110953873078 0.1289478905746235 
0.04359018916241211 0.2307736161179004 0.2791149710459995 -0.5562535375748504 0.0327083283767098 
-0.1237138367021494 -0.1531878057954801 0.05492475772615722 -0.01803044846060995 0.2527907576180345 
0.9635898364109007 -2.448557945250714 -1.467513370198268 0.4611307564672595 -0.5387497918312636 
0 0 0 0 0 
-0.1565282609619691 -0.4036904276659772 -0.1957705628066462 -0.1538589193913348 0.39552737680148 
-0.01613624632313311 0.1450973258819356 -0.1418311170084887 -0.3201592471541546 0.1564278054335091 
0.2024290558046699 -0.3949553995388571 0.5441155882724074 -0.245889545350238 0.05791778078683883 
0.03644324967747321 -0.06275338383743095 -0.1043008438918881 0.2375597741946109 -0.09336416396936849 
0.4798224227322814 -0.1877906069253222 -0.1838688846103843 -0.1054271693799141 0.09162284493640686 
0.5472589440301495 -0.06368037193244676 -0.1118867614803085 -0.08231720750070277 -0.2345496504051304 
-0.08320967961593433 0.7100623917314556 0.4644976866909067 -0.5430883064938978 -0.688311904063149 
-0.07166952894213909 0.1753078987041606 0.02104920031636759 -0.3134527769340451 0.03443860274103343 
0.6267402444068928 -1.174626361268833 -0.6028527897202808 -0.0667732223706851 0.7549614463235091 
-0.3213237548965726 0.03267406387538725 -0.05709053741814966 -0.2219290101856153 0.2961407649499305 
-0.5544139606670797 -0.132298693159569 0.3851929348860449 -0.6241448299484371 0.512262225618016 
-0.1828100474231363 0.05141649999171639 0.2306267925334745 -0.0462203934458687 -0.1160058607744584 
-0.1251437485044052 -0.1950445607264513 -0.3700300915323985 0.1373411840839645 0.3608195261105462 
0.2471225768917202 0.3469958349822327 -0.7474847957516911 0.6727406041509777 -0.1498466463365778 
0.3980576032529501 0.01407993696211553 0.2657386279890532 0.6014279414273273 -0.8451342269160889 
-0.1132231554633153 -0.1248678310715051 -0.1651912504922013 0.1150924177863901 0.05283005563960012 
0.1424489639943234 0.1478673243678451 -0.01601831335770401 -0.1029802033626906 -0.1539674910675401 
-0.006538560975325388 0.1156190931567391 -0.3173398185589917 -0.06555619010526728 0.1238433917545172 
-0.05703808756263477 0.2347823388897946 0.1088416270682975 -0.1314955146552324 -0.1537525373368606 
0.7230402061502675 -0.4267974517068173 -0.142243375774226 -0.2936948864681154 0.06830163259249325 
-0.1719137593572793 0.1758469412423057 0.05455577263209237 -0.3574543257376888 -0.02285452462030244 
0.3502101892271584 -0.2484791877561488 -0.1119232253041815 0.02868909911015426 -0.01021589564588819 
0.3295001703158112 -0.6466593218059024 0.1465397405211204 -0.198359581448239 0.3774998907960402 
-0.04431017716542848 0.8354384521909745 0.2195633766560878 0.117173061733239 -1.313246254135984 
0.06241938015036954 0.07716599715075308 0.448597601686801 0.09077602301917437 -0.375091662468725 
0.1487890904429486 0.3408235082189426 -0.00510191807413796 -0.193148891448519 -0.2239680665859177 
-0.1829009816637503 -0.1258815660198017 0.0231426520007432 0.2291850518278135 -0.05083909208662881 
-0.169099464776048 0.2732836637338956 0.1847536760752195 -0.6428756784911656 0.1342578729051431 
0.1652961715788742 -0.06064078501902481 -0.7543960410959726 -0.549144821684259 0.6207858559466674 
0.6105623627487694 -0.1885216637009222 -0.1702342551650935 -0.04170846527148456 -0.1229467699016901 
0.2717943914667812 0.3026268732260372 -0.8824132637313292 0.2039028176207161 -0.09410892510104833 
-0.1663180864786512 -0.0508436309715236 0.06486150831405833 -0.4972878652736723 0.5039541901747568 
0.05319917954226978 0.135688093955409 -0.04058581182809876 -0.1994234778440521 -0.008724744168992368 
-0.07186943063091175 0.02346722543301186 -0.2361887651046455 0.09898750876319426 0.07116422809847411 
0.1001796726554681 -0.2763771086268606 0.129726872492811 -0.02456839292187694 0.1840219928458129 
-0.03015051511301612 0.3024961689348482 0.008768831036131486 -0.5691837139647825 0.1635566310985993 
-0.1875135304318713 -0.09175306417094098 0.2033430353410863 0.3157755652107574 -0.3695124996451709 
0.07266777359812346 -0.1899550383023654 0.2764030680509851 -0.28524506983021 -0.1232606381440929 
0.2722970797962838 0.04878284585944542 0.210560499013204 -0.218061109421986 -0.219048776830526 
0.2070558781736981 -0.009551720305656108 -0.07821091170486291 -0.169890972891615 -0.0593698811131273 
-0.3838534496135611 -0.5974675447733979 -0.02930893487799722 0.8988356414905702 -0.08103401234334626 
0.01153454701304066 -0.1059221126113772 -0.222404287337606 0.2576077312065452 -0.09990727023775546 
0.2157521908752876 -0.06432928414512834 0.02822029690816395 -0.5570937687923212 0.27110121393613 
-0.3711600584913771 -0.2108091952239236 0.1224279797953018 0.09537301224534359 0.249000418054712 
-0.1409057428037947 0.07619146952971417 -0.09529436010202239 0.5112024936825464 -0.2629195392368071 
-0.0362218193657366 0.01056363105078197 -0.0942599180663905 -0.08003870687215815 -0.03420827261955342 
-0.06526168751187635 -0.3127052316212509 0.2451604017785567 -0.4674965672361265 0.5242687289290597 
2.39890145462748 -1.485172303643924 -0.3607545147860675 -0.7457839108251867 -1.093480345809527 
0.3583410341736983 0.01523763201196961 -0.03667104662700481 0.04500922854222442 -0.2434049720484305 
-0.4446573932352412 0.2934922357127515 -0.06114925086403006 -0.1850733158586408 0.02266483319252713 
0.2070558781736981 -0.009551720305656108 -0.07821091170486291 -0.169890972891615 -0.0593698811131273 
1.893124947197024 -0.5152884723597232 -0.7550021639028581 -1.353182002881441 -0.5749894982655088 
0.06396559511870353 0.1083424522997178 0.00193604408742285 -0.1255145243877291 0.0753249733787837 
0.6200541861146094 -1.046188878079978 0.3257854414180872 -0.2387519118974197 0.11971317286077 
0.4019225203707578 -0.6054341536008441 -0.2036104523091866 0.373808305499613 0.2502860992878393 
0.1046080684489148 0.08122958623281341 -0.1971192401934588 -0.0279798452729037 -0.2132587159690683 
0 0 0 0 0 
-0.1315922851312631 0.1174147202821387 0.8203827386458754 -0.8266215836534039 0.002855991241899648 
0.06380397426165543 0.2621410719460058 0.09007566784989625 -0.138577962493928 -0.3126743904476149 
0.77457813040098 -0.1026788610502731 -0.3290116981579608 -0.1311309084012883 -0.1289714114416564 
-0.7774575251859472 -0.1438476891736351 0.8039418867984405 -0.1666678231161554 -0.1183437790731659 
0 0 0 0 0 
-0.1473243692247478 0.06889250857806963 -0.5683526328741231 0.6539167576247122 -0.3457038310551761 
0.4508658071988378 0.03869164992794694 0.1141134103405457 -0.09655217936810434 -0.2408640366240395 
-0.3761363401933157 -0.006178801649136253 0.768532666706736 -0.6751955598097903 0.08441911095426094 
-0.194937253799998 -0.08571487216145843 0.02418580871933228 -0.4697791367053444 0.2085202924053213 
0.1806740829416649 0.3234611361277897 0.01702891539420173 -0.6490432548509193 -0.1454250011508724 
0 0 0 0 0 
-0.7399457799307164 0.9087964679324241 0.05604394721030936 -1.204226953703605 -0.1186372194094236 
0.2026149797770221 -0.4163353695759134 0.3981124709190305 0.272920833273026 -0.4472212500834843 
-0.05944639667153644 0.1381526356224853 0.04429059425543174 -0.04989867700260636 -0.05222659670183544 
0.5032070272912067 -0.4682488161713217 -0.3014387320188187 -0.2292794822170634 1.073901202736105 
0.2949046511950229 0.2239169557913263 -0.201783803022926 -0.5980866712891506 0.2317185479269194 
-0.1131675460775512 -0.001060401524678872 0.100914735574396 -0.5509336580977426 0.4040304538818603 
1.363372844147267 -0.3670617589800711 -0.1985726896015855 -0.3250624477256453 -0.288517742556399 
0.1266419226705575 -0.5354142378342667 -0.5886920394996045 1.021964041526003 -0.5221314939864342 
0.1101305173833413 -0.4376598060387573 0.6844504803370421 0.3199877408010544 -0.3899681229014718 
0.9222466072087641 -0.2966945700080451 -0.2159766423097434 -0.3380455724856576 -0.2517067428676483 
-0.1209139585695876 0.1996471384344972 -0.1631180373393376 -0.3294052995169441 0.1680693086167927 
-0.08795380080070261 0.05941252949712628 -0.04134152133734304 0.07817456964162323 0.01286481304944704 
-0.1095625928820242 0.1523789986462712 -0.2046769820799336 -0.6230399764154008 0.4777385551150242 
0.1077892185515642 -0.222948567970576 0.2013694744208418 -0.09365263479853825 0.1099051876095811 
0.1074174942539826 -0.02496601337179564 0.3734431896002281 -0.02340058948179369 -0.2693710536763058 
0.09937672464990202 0.1101666864409195 0.1908960891795266 -0.0240470146494201 -0.457318853579315 
-0.6838810048223959 0.1149510559258593 0.07057605301656295 0.5484178391152646 -0.08978978423884473 
-0.2407784759150206 -0.1263720018566001 -0.05071239810838494 -0.01141219394645301 0.591694079970197 
0.3688145473111229 0.1524059644684034 -0.5007840588985779 0.05414972137901993 -0.1564719645861525 
-0.7213111865253806 0.6219103895737069 0.05280184999979345 0.4569435106590838 -0.9093506170767933 
1.011178772594606 0.6438489673784947 -0.1953107941892956 -0.778824678282765 -0.4389549120372016 
0.1718864707520853 -0.7921532395650978 -0.08559303660153753 0.03897800458843961 0.3889270892555105 
1.117398818852653 -0.1948291756210549 -0.1483635217218863 -0.6141623585603948 -0.2532354246379817 
-0.4507444582905485 0.003040989906228872 0.2073488839568024 0.01322920553228106 0.1465418313099933 
1.192344936901627 0.1470176342640212 -0.2377981830365038 -0.6827304793176887 -0.5516510956729994 
-0.08301749807245676 0.734346497757513 -0.3409466572378247 -0.9604085297636874 0.1500419001809393 
3.119838938015045 -1.586651854776263 -1.102344998190945 -1.607317444552218 -1.530837542135568 
1.289913928959314 -1.115957756233138 -0.2828154997351815 -0.5397716104073867 -0.478549519754042 
0.2014811953231808 0.1926353781116202 -0.6328812485690909 0.2281799328231096 -0.2099422271281912 
-0.1136268861835854 0.7663372108499585 0.07538139651215868 -0.2184975731441086 -0.6819823308408313 
0.4773082932947482 -0.06537390882823357 -0.03741396786101286 -0.2897106148432819 -0.00898159166168429 
0.02219803030616091 0.03237065471609698 0.5121385982613579 -0.2135615229648087 -0.1414242536287522 
0.1322397792332624 0.2666251848719024 -0.2494345974998033 -0.4117562475433672 0.1979627365827598 
-1.098484363667665 -1.198677573137356 0.554385898800612 0.9895621295529854 -0.8233046769112778 
0 0 0 0 0 
0.5083254047024001 -0.1877177371362581 -0.6260279718040443 0.1112025919974709 -0.008103036196314061 
0.009808539560914771 -0.9136239420618082 0.7619014201194342 0.2311077059784061 -0.05345107622071017 
0.750366427995141 0.5511676167125436 -0.3898347291182081 -1.154764323593678 -0.5159397049844786 
1.407363730504155 -0.2864500545544203 -0.6521247187156658 -1.020221599991317 0.002354925618233389 
0.9913650127469569 -0.5411935355698545 -0.1191848209762072 -0.4726828243405412 -0.3838858348144734 
0.3359212351104934 -0.02607339358938607 -0.541549611586722 0.2211435851599708 -0.1838339534102651 
0.9622528496831984 0.1498816157480697 -0.4559071169449554 -0.4137508226784078 -0.3434721556906303 
0.4070886970555776 -0.443476056226449 0.166797537139976 -0.1916989240119277 -0.07462220364598768 
-0.04777090093025283 -0.6713307876996004 -0.2466568101455429 -0.2738919382320089 0.7360568017852911 
0.2222264100858239 0.09196880063885331 -0.5474152776813718 -0.3217318440244692 0.1295770494315189 
-0.1075533845508757 0.3686452868592882 0.7161178397816054 -0.2967672977418015 -0.3495936487160922 
0.7270405190730537 -0.03387146833309702 -1.031702288859685 -0.2600424816824235 0.1709456894307279 
-0.8995874599639353 -0.1082481348555051 0.7381856161902519 0.2593660746002638 -0.1252963177728164 
0.5119212834893638 0.7729362282522086 -0.4906524490276367 -0.1284409832907392 -1.337635782799383 
0.3764160733976814 0.155886274412362 -0.2711689615022167 -0.1437816229680651 -0.1598124969086651 
0.8391315151485791 -0.7710984716500975 -0.5285371188198064 -2.013362900635741 1.357514211069157 
0.6820461431645857 0.3186118413808902 0.1296397405628223 -0.3318583233471334 -0.3699227550844063 
0.06390787276292564 -0.2074281381475514 0.1526602276112462 0.02046854589597987 -0.02835498382003788 
0.06802449009395471 -0.09864742259187648 -0.07503501392887821 0.1540930014176924 -0.04802916768627354 
-0.06939691116631654 0.2230458630604503 -0.009509824954732069 -0.1803646147045212 -0.02402239047378832 
0.446382472700189 -0.3600573494760086 -0.3159504153283554 0.3038572440707288 -0.3183466338107237 
0.02737096699035223 -0.5486306802208212 0.4071163085649153 0.3337945771034817 -0.0475327700753948 
-0.2397055440644149 0.217515159157035 -0.04721087791522207 0.120848836837242 -0.06184066687353508 
0.3780775354043073 0.1135671178288945 0.7227730193726208 -0.6917683525142448 -0.3843627461901741 
0 0 0 0 0 
0.06826720301222475 -0.1789428576421271 0.3209393993508812 -0.4193393913700595 0.1324583134154656 
0 0 0 0 0 
2.260916292459922 -0.5739651431532546 -0.4614593540117888 -1.392828564870154 -0.4201429278656504 
-0.002507483452023517 -0.07622156086699702 0.03427268774638743 0.05163873708198868 -0.07369236654215904 
-0.06375261975493109 -0.5257858831439525 -0.8138588570448978 0.5987985073238624 0.2959807404510905 
0.6452632328667537 -0.128484339895576 -0.1022957013406775 -0.278280424940199 -0.1382194475652166 
0.5450579441965721 -0.1584046378142241 -0.05838170776597326 -0.1717429454354691 -0.1790253811046084 
0.8280879342978276 0.2222437686226339 -0.9342544852042117 -0.4575421908105143 0.1671800232186948 
0.2810207435665101 0.2556984703460518 -0.23932095243331 -0.007229285320447143 -0.2259400831034297 
-0.148199084508691 0.6503705281109946 0.1042736921113134 -1.297063547967891 -0.1501255270317982 
0.0545002144665442 -0.2245984805759849 0.2437570293847332 0.1268002845986162 0.005826696947120751 
-0.6552527134589911 0.1893287496434096 0.7153643411447921 0.3268632195708151 -0.7323132059878322 
-0.05656113481652197 0.4148502334272535 -0.5679819071514152 0.4579857709397245 -0.3653504002455403 
0.1719019080093224 0.0714426810730396 -0.1216134233679003 -0.3451729199691036 0.1780494758127352 
0.1166237404044716 0.04684414163766804 0.1011618655363216 0.2012511168609761 -0.7285210938201518 
0.1778633814297481 0.1154891932991189 0.0833015213147751 -0.2231733235600263 -0.2513281980975238 
0.452183237471147 -0.3544786803079406 -0.1298365001378904 -0.08801179277851426 -0.1313220168197746 
0.1160829422863782 0.5294967054533833 -0.1175163292536044 -0.8033526815844771 -0.01493979413604326 
-0.2933329038384616 0.51824946394978 -0.5014835410907101 -0.2222289977329449 0.2639731997253634 
0.3928897495474445 -0.5579922061214584 -0.9988439734229471 1.30770267585198 -1.849535473481634 
-0.3528463322913973 -0.2487901334096546 -0.3039811312498871 0.6639995188839517 0.1189530761395602 
0.05636823280489545 -0.4104075622752588 0.2757994240642706 -0.2237917234962903 -0.01390929138622401 
1.121088819575346 -0.4646546421630607 0.2719885676371289 -1.2445420265004 0.1352489328778138 
-0.07154282019806846 -0.6911989658631416 -0.8010078742202642 0.583797452084025 0.1356708179263894 
-0.07826062571135345 0.3787398436061284 -0.2927083423156993 0.3168258046704843 -0.3331193755772578 
-0.5277944403898274 -1.691551445172869 -0.1278214144536243 1.475829291577844 -1.206470816947544 
0.6692213362170515 -0.26292402029234 0.02342044662809482 -0.313510606387163 -0.1676045337695479 
0.1850310444588098 1.051562030539558 -0.1770023025786723 -0.6931158658278875 -0.4982485891753886 
1.606816788187927 -0.5286646259815707 -0.5419514575772882 -0.5231611401109209 -0.146068009075671 
0.08486174202276167 0.04440495737105961 -0.0647980904301604 -0.1498662789113564 -0.0192890182726176 
0.2196783411917721 -0.5228352043155783 0.04595940186301581 0.05748936216981032 0.2546594161795457 
0.2236544910902002 -0.5482140161653234 -0.6448267024104712 -0.3369668634533633 0.7913301989313668 
2.863029852088099 -1.103764816400247 -0.5635448686894358 -1.601503611633231 -1.266120191647121 
0.1612738190441716 0.4148818047346504 -0.1169462145349494 -0.8917414942980055 0.1740524876750667 
-0.3508895377175202 0.1577060550191725 -0.4575808462612646 0.531852211130895 -0.1284751145627089 
0.3093931194831112 -0.2295754636997202 -0.1088999950583754 0.2423665806032397 -0.4459500141998362 
1.955447761270689 -0.2559627613660339 -0.2508580894926886 -1.348601761420308 -0.5732037126021678 
-0.6774003354078377 0.1156805830076052 0.1216482617439139 -0.6880598339601184 0.6701312711841149 
-0.1376580806213294 0.799098857113946 0.01544333614136863 -0.2153847351184741 -0.5536323005625083 
0.3425893728230825 -0.552575879537148 0.6386089735253102 -0.2036002631941443 -0.2480844013602128 
1.142601238341851 -0.2161989217928197 -0.2494108732808261 -0.1297134707879384 -0.2326759959250777 
0.01578722325188579 -0.2411203087759693 0.02279735141747264 -0.1983490509695001 0.0932753933147121 
-0.2007952244068204 -0.0944525081351094 -0.1670853868671711 0.3447871509359594 -0.07767271386900859 
0.5424040184360263 0.2190647310390056 -0.4865218762924538 -0.1019177636639749 -0.3439957493750512 
0.4908348587884694 -0.6709103299252441 3.457218086525687e-05 0.3439612040757893 -0.3150144200448614 
0.2628805635790197 -0.5963807455647241 0.2107306276606393 -0.2635916649204939 0.2071537897834775 
0.2229285032543071 0.2368535824731066 -0.1421823227900028 -0.004431176000378845 -0.368685729129094 
-0.07770134852150654 0.1411821262061953 -0.5719219863252715 -0.5520085031198771 0.6792481269003917 
0.641901992945706 0.220693691328525 -0.1398025786041955 -0.1822488334592647 -0.3203377997949644 
0.5200895880106464 0.1072878195949167 -0.104183560188615 -0.2299666141059423 -0.2526568496203364 
0.0549253073289549 0.009225481343037502 0.04071000319291364 -0.2754411331976414 0.3893226065773783 
0.1588640983451938 -0.03323078927012076 -0.5075984580960492 0.4188460704650771 -0.589330157348371 
-0.6542648587973974 -0.1873306509731803 -0.8645168494490019 0.3968549766876253 0.6338796684784952 
0.4059536315037869 -0.960798277033762 -0.2768720827766505 0.4617758350678254 -0.3039215904662442 
0.07482567876028537 -0.1035147224533916 -0.1230039487353297 -0.02944206939482514 -0.07417523320943538 
0 0 0 0 0 
1.531330711096085 -0.01667171603147627 -0.3823446533768883 -0.5591217252742995 -0.7317290696503825 
-0.3525905788762956 -0.1886724215760027 0.02372783745919456 -0.3741052605845532 0.5819895426148656 
1.18921642534746 -0.4622371033463964 -0.9476387240367556 -0.7560374320590419 -0.527081794312608 
1.745427294949306 -0.7734599188891018 -1.32926254050723 -1.021997406059793 -0.464146274873203 
1.400694641335504 0.1999624598860415 -0.8756794793297938 -1.103216510317677 -1.179617800955668 
3.032768958928644 -2.08429375586258 -1.497271409872132 -1.869110738739134 -1.395068274963933 
1.69856046613138 -0.6023375467371161 -0.3594977923921239 -0.6372361495444938 -0.6333213606363428 
0.6521761565091964 -0.2739669694959882 -0.6345997672732159 0.1033968866082112 0.08732600566525714 
-0.2832053641408896 0.1284561380641133 0.002515072072865008 0.01276446772449409 -0.04296673226501343 
0.1396847311544475 0.04245209219953915 -0.2162668819759513 0.1975734973051698 -0.01988705790096149 
0.4254272362818158 0.1927449238325686 -0.2530852159189608 -0.3799240911966473 -0.1403610106869072 
1.018043151144275 -0.6327426052239713 -0.5970381636007909 -0.2804022888477544 -0.1254227203564931 
0.9711468294837456 -0.2743642171823914 -0.09900579048071441 -0.437125898769638 -0.1962992718178734 
0.4239976641055063 0.1279974593824219 -0.05540334227469258 -0.2999226698188656 -0.1166327348276889 
0.5462354036737231 0.1229759375704567 0.006804622341768995 -1.638450893697973 0.7017726921317424 
-0.02072722209028104 0.6854526474791409 0.1873676097256735 -0.1916354604543461 -0.7142972382120839 
0.5542475933216927 -0.01441964655108462 -0.01214290479200041 -0.2250014916430627 -0.1526398115956528 
0.3401342131055804 0.1007272488634776 -0.1178776954642112 -0.1742125891628374 -0.3404069479897745 
-0.468975015090277 0.09741645798548239 -0.198678342148912 -0.271758644715374 0.4348355301417683 
0.03698019451746984 -0.1706514065954885 -0.02318482099945592 -0.05652127913592127 0.09310169380910924 
-0.5567724336657315 0.1210387797386888 0.1249621349081129 -0.636934093454686 0.4339195838245983 
1.417417660361229 -0.4778673857128353 0.0579357150805725 -0.9918106410403289 -0.2205120911084022 
0.3804076179355128 -0.2171729561720043 0.1644599729221893 -0.3583626899487825 0.1298567410169498 
0.3173751055757748 -0.4761849194015703 0.07535452621568133 -0.1446494061509069 0.1824688785016303 
1.803437682684484 -1.128582489259217 -0.9174210735339312 -0.4827140590823105 -0.5314819529451554 
0.2219950741348125 0.3421654960282307 -0.348366005091932 0.4728395580502846 -0.2875148851402723 
0.4961262826422505 -0.5864147794220513 0.6716477010677154 -1.116297630567006 -0.01777960812442983 
-0.02137923530085503 -0.2363221023127665 -0.01022715592148379 0.3185463389678473 0.04982192745699617 
-0.4243463476349965 0.4414137185392101 0.06742767598675771 -0.3384856491659439 -0.1769550482458777 
0.1203701167932289 -0.2198937708064552 0.2291205198041112 -0.5575295246670864 0.3762664924186634 
-0.5200574311586481 -0.6799245715310596 -0.3962285300871123 0.6718465281403958 0.4362937506739242 
0.09170490346651278 0.413128697207617 0.5247812757961173 -1.065298301827444 0.009274780783849516 
-0.626346115435979 0.5719695288604922 0.7091439399664371 -0.7156832874554593 -0.1460347272290384 
-0.03004820898917622 0.4751897235734635 -0.4593825280020495 -0.3907225715419729 -0.05684943252379288 
0.8522340311930382 -0.6407194627672328 -0.5278928000979615 0.05610413236534094 -0.7064493591131596 
0.03699012680980208 -0.1061721486151836 -0.6107531925633211 0.3737835943009775 -0.04603205201280321 
0.1149336078710853 -0.2483422370306856 -0.1312910789932231 -0.1893670945233167 0.1107119985427011 
-0.2698497399390639 -0.1233467884878162 0.1805788123320042 -0.1788131730665115 0.1588175524418763 
0.6232104849934075 -0.1284849199749229 -0.1037247518418629 -0.2972040082889251 -0.07359363153871053 
0.1742329126677734 -0.178314337855179 0.370095554719799 -0.6139226179565135 0.02135735657937622 
0.06127818308350416 -0.4070457097243766 0.05026672565349483 -0.6497860815533566 1.083352549650515 
0.0606012244811203 -0.2060436479611684 -0.4073212554942284 0.8408585201452337 -0.7905904659806924 
-0.2918859885080887 -0.8336412952847673 0.01979468086478527 -0.006924851627095441 0.7014149618304004 
-0.1538015928659122 0.5443265776696422 -0.1650264513495392 -0.8695552396518181 0.3123976666204903 
0.4050531089363836 0.03984291077295755 -0.02951698437669851 -0.6101639008134218 -0.1328154867019048 
0.4753440823933969 0.01275803612988578 1.009982131897037 -0.7760436439353272 -0.4206316899255963 
0.8125186865230732 0.09966120131738412 0.02262608634151997 -0.667847366963195 -0.3858967086684734 
-0.350411101399057 0.06242020437397877 0.2910612310616012 -0.2185593027534002 -0.6451974867231843 
-1.184960509153059 -1.789661821536717 3.938105379520397 -2.252298192635368 -2.068844507612404 
0.2556202294487477 -0.2028518259106409 -0.0961037488799613 -0.002852129491675175 -0.08580975108118391 
0.1205015053066731 0.03752756271724422 -0.1665058547564275 -0.4372542811981997 0.3909830353372355 
0.5919395702483913 -0.253340070903301 -0.6539391139870203 0.3866696032428407 -0.8084393057717081 
0.5746191457392436 -0.5553646765260628 -0.581683474660318 0.5184951197610456 -0.3695427755153021 
0 0 0 0 0 
0.735075465660885 -0.1254452100407636 -0.1506401452925158 -0.2941590294465029 -0.11571697793236 
-0.3024355321224928 -0.4779974309507328 0.9523616116034558 -0.5274453982496006 0.1584075352212627 
-0.360560672255351 0.1362453968028881 -0.4932207857039963 0.4456236756545495 0.04113860380138074 
2.049973886771591 -0.6213343627049042 -0.6534136027325919 -1.119183772865143 -1.037879811528468 
-0.3144085282977407 0.6339557227722986 -0.3064033195049805 -0.08228318081134572 -0.3524994916134353 
-0.009474359596326741 -0.06325759044236653 -0.2228837519201177 -0.0180936312707582 0.2454491999951928 
-0.08056057921331988 0.08493208539453066 -0.3975605815103275 -0.6934114113099429 0.8870295382612288 
0.05486563611070897 0.3115996194695487 -0.7207875142844328 0.161130154038704 -0.3220148525637316 
0.9511273234011035 -0.2591638152728627 -0.1768723223251893 -0.2416675894981016 -0.253883335929068 
-0.1373741136207469 -0.03481715553542024 -0.01598178074101794 -0.4041620086189589 0.5705350672029557 
0.5628415250009339 0.435027915976847 -0.05341602781050978 -0.7899059689893826 -0.300768400839484 
0.4788637764913916 -0.1951521863560711 -0.03540763134827904 -0.07443878907216625 -0.1274054944481472 
0.4704010793187494 0.3578283669998865 0.2394537215955052 -0.5433766831229189 -0.4837439444917391 
0 0 0 0 0 
-0.7039420994408833 0.7772150967097073 0.201632772955307 -0.005106718998528468 0.04156342750521853 
-0.1586037111789588 0.04628601853480654 0.03265235850682555 -0.4532409622089963 0.05566182416761781 
-0.01499683706450797 0.3332773553263683 -0.7215748385459613 0.4177702557317854 -0.3000031517781391 
0.655499039047779 0.01108683319653834 -0.2077032388462166 -0.130350591953989 -0.4156081378972741 
0.687376330940864 -0.342313246298682 -0.4637918386614955 0.4336691056256438 -1.229802307202783 
0.2374142661433472 -0.1319653432803021 -0.03047322206859651 -0.1240110984589744 -0.01942219229119479 
-0.1661736334040214 0.2852921623103766 -0.2672536777059363 -0.2984481939197342 0.2222688615954982 
0.407139117122122 -0.3225848113565238 -0.1686528630938317 0.1983442036977403 -0.1671812041509285 
0.2374142661433472 -0.1319653432803021 -0.03047322206859651 -0.1240110984589744 -0.01942219229119479 
0.6900127622115563 -0.02684827479896707 -0.1315173481832417 -0.4743805882451625 -0.464807293602145 
-0.8373562887874559 -0.4139167372936656 0.09587167179277775 0.6820654900266799 0.05673581226362175 
2.030801233366361 -0.64607847393261 -0.07040470076545989 -0.9253461652795718 -1.251641244342828 
0.1847408893568077 0.6140277023729367 0.07162384620014726 -0.5140876902776685 -0.3008400402246428 
0.4180061749698024 -0.07500062636423122 -0.08120101987655828 -0.06597189865047381 -0.09504048659518732 
0.406723141902562 -0.1278433481256517 -0.114825414253906 0.01492385415407053 -0.2417435225317119 
0.07225126657882144 -0.07981840925891014 -0.4295858704759937 -0.5618482317332425 0.3882549816795016 
-0.1587384459448901 -0.0684626070789698 -0.04619401760043908 -0.1192682654633867 0.2855808060705592 
-0.1530661634564797 -0.0839471788493788 0.2496456926550908 0.1183370505730918 -0.04740355198334909 
0.08292581087631717 -0.07354244300158154 -0.04763073525778851 -0.2873163652253131 0.2424541670190827 
0.4180061749698024 -0.07500062636423122 -0.08120101987655828 -0.06597189865047381 -0.09504048659518732 
-0.3181556545404609 -0.04667730484473961 0.6693462857852875 -0.4841783461131232 -0.2123130640256354 
-0.1161855673820672 0.1138131755470516 -0.2348867687380699 0.5124428345111495 -0.0349745862050832 
0.2570532149216477 -0.2651633385747074 -0.06691827953091634 -0.5926657009691455 0.2811439860526707 
-0.1092582060905313 -0.202981128631825 -0.04957040531129671 0.2051533731024042 0.05139516413220008 
1.164442842441431 0.0469446540876733 -0.7610455980232238 -0.6325909865731177 -0.329490038501333 
0.6050523987155667 0.3009752071466263 -0.1038311201705065 -0.188353655065026 -0.6127056888199545 
0.9289105200881311 -0.3035231278190559 0.1110490508255899 -0.5565773327459307 -0.2368465259561062 
0.5939877699971546 -0.007389908321607507 -0.05979024558307527 -0.04639898292427573 -0.4504543162838981 
0.2888844965972666 -0.5813510669596004 0.1934141229128445 0.1867749891540777 -0.05960430758575741 
-1.208632711189339 -1.135697776905896 -0.4452584787955058 -1.258260718431189 2.194497805149473 
-0.3429746787042018 -0.4663506665691705 -0.5556541501588281 -0.4845705553355582 1.360907236796337 
0.5220819701643836 0.3710249879446542 -0.1147098827246534 -0.2082258905359464 -0.569048371029138 
-0.1882904006406823 -0.4071549703236637 -0.3573928840114672 0.2486826720571429 0.3588416612070532 
0.5939877699971546 -0.007389908321607507 -0.05979024558307527 -0.04639898292427573 -0.4504543162838981 
0.5055628431844748 -1.330894741245464 -1.624556687289853 1.124731486512393 -0.6075705808619385 
-0.1893972407195424 0.119550378411752 0.3476390737498758 0.2515261373637767 -0.952475884202632 
0.3754887029617297 -0.09929340872343149 -0.8260531385217396 0.05162528059403104 0.2419196958253625 
-0.1672858079109448 -0.1288936901032423 0.1014042599238084 0.1242550844020707 -0.2383387353900665 
0.1698482369302566 0.2166257173408094 -0.8218535644742259 -0.3708904870287215 0.2695542130193412 
-0.3436828704677325 -0.1500877836936328 -0.1924089018985253 -0.3393452226600293 0.6273113880234759 
0.6175987086946634 0.003710966438174323 -0.3026378388101407 -0.1817272909447818 -0.420129338464322 
-0.0792654375154753 0.3789729826044403 0.08267458779582512 -0.3232751873652686 0.06063275562531584 
-0.09160174340933422 0.5718123606599531 -0.3753926430394814 -0.6979498226988131 0.4819885114118111 
-0.1337648015534269 -1.3655657042663 -0.6487492988646921 0.9145014935920969 -0.2402117440567184 
-0.1782791090833125 -0.4839308046111083 -0.4151383950034734 0.4759175594421564 0.05227319006162742 
-0.3948466839233593 -0.6092293360835932 1.230966520785524 -1.054652974700167 -0.05361756565946754 
-0.4301335964444756 -0.1880591204773516 0.028251553795059 0.3630136471314758 0.1286435056873344 
-0.2269992989173539 -0.5805144937249294 0.4078567361035772 0.09747475584723994 -0.1700842785142735 
0.7955468046636643 -0.2465077828895171 -0.1563329832550674 0.1383240391716616 -0.496071538999199 
0.2732535275835325 -0.4467425833292655 0.1353182890663417 -0.1520828877092426 0.1382701624606052 
0.0123479169225904 -0.1079763536644791 0.1793828848656668 0.9267781552878825 -0.5302580550538537 
0.7731730698634954 -0.5313681443606181 0.2307165809546981 -0.5419264236779086 -0.4713064527366069 
-0.3481427316766487 -1.061341571611215 1.03703901679934 -0.4160354032683868 0.1825890197541681 
0.3844771799286353 -0.2285877172420621 -0.4253976459552768 0.286736319698365 -0.267903008297629 
0.3961389552563322 0.2695081357645914 -0.5678872181240571 0.4630207402487251 0.289998939635832 
-0.1143162974097765 -0.125084894567467 -0.1994037559772145 -0.2572951287020792 0.6339627381242205 
-0.07389686979576229 0.3851694124548788 -0.02896283599444597 -0.2925367107330386 -0.06884381665306474 
0.9316720922560908 0.1509642524377873 0.4467922468838181 -0.2839614581597018 -0.8053518079652953 
0.8193195775206928 -0.7491994803519455 -0.06077988595929478 -0.3301184841886492 -0.1107113907084543 
0.2845556671248587 0.2460326499666337 -0.3345446751871553 -0.4651851198304345 -0.07863927244560237 
0.3512004789502888 0.3522715876677253 -0.03261309926735038 -1.279017678750106 -0.02577097783658108 
-0.2446562109936752 0.4851614979078803 0.1013820976223876 -1.192766573270851 0.435290728120502 
-0.2486739198657847 0.2246228526387248 0.1799599608262369 -0.4535399003430969 0.03678145510151565 
0.4649922705104697 -0.6652932629855084 -0.6692025032369729 0.0416858986970133 0.6177272952453272 
-0.3426169526642256 -0.3000417679491352 -0.7295870397433795 0.4994898141384135 0.1773572460286812 
0.1582675974454177 1.161120598045474 -0.1396028363745551 -1.055176849868494 0.5154471089564939 
-0.1423711020004201 -0.6999534613950784 0.7377094278415767 -0.05113265863231635 -0.1501399772895393 
0 0 0 0 0 
0 0 0 0 0 
0.1605399911347629 0.5612197783582945 -0.01539665988363791 -0.2734137382428289 -0.2302367451196338 
0.04785689058803251 0.4535438365334017 0.3486519445901218 -0.2665333247172004 -0.3979557400987093 
-0.2266705605875183 0.3731488126313706 -0.5957544717881327 0.650562669107635 -0.186165442985095 
-0.2495537928594259 -0.4531332638020075 0.6524019183968064 -0.1511589183903082 0.1682339787692793 
2.525592225059749 -0.7279430096450402 -0.7029256084615968 -1.461315197147825 -0.9447566919367287 
0.4793749530067944 -0.4523262016610941 -1.027651448608777 0.4307492640717665 0.07222726375921215 
0.05264695076375486 0.44530510575506 -0.3024874803799075 -1.109990574486945 0.7262546177556088 
0.6414823051076075 -0.9997616803696486 -0.2179694443475138 0.1189159164593422 0.1914877454135011 
-0.1248501456765331 0.3525084477083365 -0.03825184806685904 0.4562418372493669 -0.815415989706152 
0.05205000877724949 -0.8402937183812208 -1.012009705324975 1.313043622713366 -0.598142946648944 
1.053629753502356 -0.09399306908403479 -0.2840529448135515 0.09917947926040852 -0.6662750092669623 
-0.489390000559448 0.3328416885192593 0.6178393229120358 -0.6635210872328527 -0.07009012040743265 
-0.1952963269977659 -0.3110461761557488 0.2600839543623939 0.4042546526647004 -0.2464797444713334 
-0.1357134887663148 -0.207798962465123 -0.1583368584364745 0.5067328596238639 -0.1424880385296897 
0.1491340341050341 0.4214960178232192 -0.4195394233078256 -0.8038542539165849 0.2194342314091912 
0.7057271121555044 -0.2480988824719146 -0.08794305192076118 -0.104411418534105 -0.168204519192047 
-0.4816893441649923 0.3787247153510917 -0.1232999382844507 -0.963923736118292 0.6406511326627747 
-0.04355714804284129 -0.734107498081248 -0.632644411824725 0.6007912044598077 0.4612451649572538 
0.1018775796067196 0.05801378216334024 0.06461547957975097 0.06665238468239679 -0.1513415440517287 
-0.2343971732743274 0.6266388883583039 -0.2043153295251662 0.00219081115111272 -0.2733834751656208 
-0.6761211554946853 -0.1617030022574417 -1.657316026993266 -0.3760944069018827 1.307182932242141 
0.3223048871746105 -1.01623263319006 -0.4571759633400129 0.9734451297342048 -0.1676034762122718 
0.7824458640231314 -0.2026518802612643 -0.05998267892233837 -0.1146706435692666 -0.1853520352893311 
0.04330925703916778 0.08682727770851775 -0.6889010226217155 -0.3503055219519136 0.6019015428835144 
0.7185211843847138 -0.528443613402514 -0.5227466876377288 -0.3913891632719078 0.2825082526013529 
1.220138645957658 0.4500119860678705 -0.2409870958188979 -0.9940007019833215 -0.8280671583719366 
0.9191899574581953 -0.03192587033350355 -0.543423549281954 -0.9995153057728557 0.04218888325980472 
2.758746616915619 -1.039335582408248 -0.367769158715907 -2.562473015708247 -1.337246081685678 
0.2309281560054919 0.2944944055086381 -0.2559753627843935 -0.2104566235519787 -0.1006162023430943 
0.04917160780993067 0.2184030927136623 -0.1493475950367079 -0.6386943880053096 0.4011671493392563 
0.02479366267918206 -0.3509845021058434 -0.43979090690758 0.2119802332194504 0.2790550462207831 
0.6960693170336956 -0.5737642144757573 -0.9654682922355048 -0.1578413839278137 0.2150847182414272 
-1.168132467719293 -0.3657032825778841 -0.9744381767891684 -1.36673830829785 2.054729719452166 
0.1532954845007686 0.05306287865665842 0.007729697127604872 -0.2547584577429391 0.1233973617009449 
-0.4315511339758662 -0.008160479554658602 -0.5800259783368485 -0.1352194758634236 0.6899956051031273 
0.05224914531280894 -0.5963836006921713 0.5840424120847111 -0.9337216850982779 0.7887751214285528 
0.5468279708535178 0.4986991407269076 -0.648520232174103 -0.3240340865932306 -0.7427428439315339 
0.6675580761655218 -0.2330125878184829 -0.1306459551654758 -0.1018973559409122 -0.2011367631594725 
-0.441514818998362 0.02678369815274738 0.1135227499503146 -0.2059584601364731 0.2567998713559846 
0.6675580761655218 -0.2330125878184829 -0.1306459551654758 -0.1018973559409122 -0.2011367631594725 
0.2951667351394714 1.151826183444377 -0.5550514303490827 0.1002406832524366 -0.7569788036064409 
0.8554634774615997 0.03668976187015566 -0.3413300404769946 0.5857056958806027 -0.9820919119482302 
0.01802026553704398 -0.6645174459675034 -0.6378578438249598 0.7093578715525793 0.0573410244165917 
0.1947953148895083 -0.003521786305093526 -0.009238173630028088 -0.4943880809589277 -0.04676498435025057 
0.5336852733381329 -0.3566292652638466 -0.1370945972004004 -0.1372007494450473 0.0872495982163503 
-0.574683331155305 -0.2041148541189467 -0.4649882479561249 0.4858832290068602 0.5992346127796895 
1.269443567528008 -1.199523637605606 -0.5416277644715084 0.1515709661862716 -0.7777746541395031 
-0.1843608704886056 -0.4676007305349267 -0.1121641809678597 0.828213674906744 -0.2084258213156452 
0.7705496279336801 0.1080233515198701 -0.1347451105357568 -0.3599323003452809 -0.3137034949201671 
-0.3976673616974214 0.09109779322738418 -0.04680732063946491 -0.08323360421724679 0.2814969594284866 
1.477013150958184 -0.1994825104593647 -0.2428201428849293 -0.8174130954710588 -0.3465405807985437 
1.599051622993894 -0.4142928090197448 -0.6102367250984245 -0.1448888565558315 -0.8334563016929628 
-0.4559013584464476 0.8146555727823629 -0.03604146176803673 0.04094150442137323 -0.545999631135744 
-0.09872232337031037 0.3223408033929378 0.6121104841707463 -0.2375392763112036 -0.6319451649732923 
0.5444425059102672 -0.2082693851932487 -0.06963271856424329 -0.1193069614177777 -0.1140109565799399 
-0.4815201194874189 0.3395127726811758 0.2536396823775144 -0.6880138612991745 -0.2004095922773859 
-0.1421591447128116 0.1909575893707451 -0.259295056834719 0.1101360742061074 -0.0483159286122414 
0.5444425059102672 -0.2082693851932487 -0.06963271856424329 -0.1193069614177777 -0.1140109565799399 
0 0 0 0 0 
-0.04864146424035672 -0.007434790261407804 0.2323213083669543 -0.06140875263406725 -0.1115057467697542 
-0.3113045427842212 -0.7199439153620011 -0.6627919063553414 1.139362547965785 -0.2778140137091224 
0 0 0 0 0 
0.5238318464485634 -0.224510361702264 -1.185372241318207 0.04990998034086573 0.1411153060246091 
0.1765313604695383 0.6567948238539506 -0.1279534309717628 -0.06828689077302605 0.02771829886680612 
-0.4382208470929722 -0.3892333031091535 -0.2673620152273933 0.07186793831691668 0.5014761577832787 
1.116793873457149 -0.1120838446589857 -0.2100822774277794 -0.5670152791015968 -0.6574728689906487 
0.225822021489699 -0.0799387819199332 -0.8160533573060228 0.001658661514417549 0.4712460471178224 
0.3157258998449882 -0.003901773300786145 -0.01915615920671929 -0.1395247001227461 -0.3205310308061663 
-0.07398799904096803 0.04148177302875565 0.7704981390610552 -0.4615657875074667 -0.105245201508205 
-0.1622960592097656 0.01087203187852278 -0.06067130091544939 -0.294734240343041 0.1784921879010169 
1.017140786217994 -0.7271680650979442 -0.2304577396243956 -0.4169966793783917 0.1800417821079774 
-0.2504497346155711 -0.1200181050455363 0.209189634756283 -0.1892294821366646 0.3886306630387713 
0.3654881162504926 -0.01411150870956942 -0.1453917367739919 -0.02708916673534702 -0.3097734347272283 
0.3654881162504926 -0.01411150870956942 -0.1453917367739919 -0.02708916673534702 -0.3097734347272283 
0.7035884691453709 -0.02498298136874979 -0.2043087430797635 -0.2367537591902871 -0.408453190573427 
0.321899109249134 0.4206419894545717 -0.4609472256556562 -0.07914450513365595 -0.3417881154718287 
0.218341025443369 -0.07554251778885718 -0.3556823062437095 0.5816122054540795 -0.4455586750759849 
-0.06881817722575029 -1.403839596527408 1.324364237474499 -0.7644752375164483 0.7576400461008167 
-0.6303040992970733 0.33026182720506 0.4429230009706011 -0.7329040236386228 0.5487777800643392 
0.3108213326938131 1.057840456035106 -0.09111131043178958 -0.8823356426258975 -0.9251604565373381 
0.726515880663125 -0.4448767924287839 0.3065718380268503 -0.5437063913707205 -0.4359380683761948 
-0.01606680670774925 -0.2979120983497022 -0.2340403652735539 0.6233688109575951 0.05340736535241243 
0.07808010193125509 0.4900289983318371 0.05616615812459894 -0.3444764509816183 -0.1729133145219869 
0.1997072115629872 -0.0776321649207788 0.272640864816968 -0.4437756492532872 -0.1258813418621343 
0.3810752444191929 -0.02611482801005021 -0.08948032449390654 -0.05866655570941422 -0.2522849006928981 
1.410431106889176 -0.7726059586156226 -0.9096897458053775 -0.7247573831535807 0.520999170285308 
-0.0307138268347394 -0.0952763760549339 0.1468229928644975 0.1374637195428517 -0.02565291309651281 
0.272365345868828 -0.5670421580634791 -0.2834628684610882 0.5761583328465599 -0.3183633802027447 
0.6545503074169224 0.1579152574868062 -1.232928612047301 -0.007004343569871604 -0.1546092008354217 
-0.6193007307316966 0.3964728204390682 0.8000145034268475 0.110581627511194 -1.010451297280004 
0.4511797546671221 -0.1300211251005363 -0.03133113954800371 -0.03273787546268734 -0.1482283917710405 
-0.4300935967611579 0.2568925160585946 0.4207508458054795 -1.062118880558799 0.6539812250518648 
0.3845510682302635 0.2555897953995867 0.8484541764708636 -0.9114910162303813 -0.1377094085948887 
0.4997192674287643 -0.2086770378250453 0.6223167868906136 -0.4174419897335709 -0.3208647172579016 
-0.2080781440952178 0.2499233870264271 -0.662985581209706 0.1067657579631728 0.4510968552301151 
0.219304492604632 -0.1239148015575102 0.123382861826727 -0.2189334084886027 0.2541739109825385 
-0.4438517646591554 -0.1794482395280506 -0.7605401874420803 0.7304498736467864 0.1093709088283643 
0.4139039520259364 -0.3679185225471293 0.1445465285539707 0.3119785829254824 -0.2817271126802917 
0.9426724321170934 -0.293871449953488 -0.1488080767288692 -0.3144707978442696 -0.2863519123835399 
0.2204088332003713 0.1142220083627551 -0.2440953291622872 -0.2620553098632294 0.3245265108365134 
-0.5177393638490575 0.2353442711085899 -0.2010834343567789 0.662097178541468 -0.6092989858399765 
1.027089898380914 -0.3258397655840177 -0.01450240875079324 -0.7685709572722103 0.2209652327084621 
-0.1723469762097001 0.3295930488813792 -0.0962385994268051 -0.08741389197764006 -0.06079122095302338 
0.27099921802499 0.3766673226027105 0.1588453822704014 -0.5931640551769994 -0.3093979318606466 
-0.1250851033610042 -0.008022059297090019 -0.001148725378021075 0.1074817027270075 -0.01820344507129441 
0.4266269569217769 -0.110112594600048 -0.1204883607649571 0.1076411433339842 -0.3908738810975666 
0.6538046605631272 0.7955594167605164 -0.8139622768109764 -0.9231998513376036 -0.28991361727919 
0.5062296562763409 -0.8416038119801312 -0.6419351796426278 0.006145198953188248 -0.03673289733079888 
-0.1189420320526544 0.3087973644512795 0.1538785517655895 0.2970972979255559 -0.4124457735866253 
0.9046472896548471 -0.588558341081973 0.1427854505135588 -0.256215182032067 -0.3788047296987087 
0.571560891168121 -0.08835613100598537 -0.1575096388521322 -0.1970308532449447 -0.1071737405461047 
0.7576399289020495 -0.3081240317250993 -0.1820688720069495 -0.2413372047177994 -0.1249949336397897 
0.08470677541090782 -0.1759180615571654 0.480483906020566 -0.07018562278024693 -0.2172262961173503 
0.05083583874586912 0.3403749057671401 -0.5675253820756287 -0.8052034767904334 0.2623130688687085 
0.5936240311906565 0.6752837819065419 0.02899431471432642 -0.5820233905416063 -0.7650470465272444 
1.191659246055429 0.1499719664394402 -0.5717028779900201 -0.1212464325695056 -0.8436078041564999 
0.8901392804966615 -0.1691690093353167 -0.1891281252110963 -0.3985656357036272 -0.1950682762280687 
0 0 0 0 0 
-1.010466024820849 -0.05868510801977241 -0.1994168185515411 -0.07352500676316333 0.5969512994552837 
1.728866470247133 -0.6502918421471923 0.8682045854521623 -0.5754776889736543 -1.208401581543129 
-0.516880159350846 -1.178748545689124 0.3055374230816028 -0.3301929668438102 0.9840906285872125 
1.179045134370062 -0.08407380955236501 -0.3872721753883617 -0.206934197457173 -0.3016320037888129 
0.0454745928971477 -0.1625000899786889 -0.0229481570949719 0.1913502615352168 -0.007188967872678712 
0.1524603828329756 0.1095220145098757 -0.3754740892103642 -0.1822677767976192 0.1391315249545068 
0.1680415226746984 0.4549144160645772 -0.2323329628005749 -0.09293734295895248 -0.5582803538659876 
-0.08994575187496785 -0.0530499121449035 -0.1100428584470358 0.5495342446638299 -0.2227738434287914 
1.053111487908291 -0.9560959802806132 -0.7021073691207609 0.3991716134898536 -1.273646377963721 
-0.6366400429694632 -0.7872086377597348 -0.9469373160298143 1.981035480075677 -1.216220348938945 
0.2993614781504543 -0.3039522079684791 -0.4381864707270252 -0.0799004101221884 0.5298820737859492 
0.5915374711734217 0.6807213421904663 -0.4346765409459773 -0.381443246194869 -0.7404916749839466 
0.3870856143354039 0.07536522368928224 0.7877414708794006 -0.8699711829041032 -0.5698693410849679 
0.6675176867032118 -0.9373014446184601 0.04908715062474674 -0.0008355208615684478 -0.4739061876729823 
1.058790399899783 -0.2666750624173342 -0.1741519549715707 -0.5576880580220636 -0.3390198806695413 
-0.1179313430633364 -0.9784932195012749 0.3008618040086587 -0.1780364195115948 0.3889076501602508 
0.7803702631637857 -0.4417705485904733 -1.096712485223599 -0.8530895450393523 1.403924164013402 
-0.122100011222861 0.4725876344975233 0.1303293244706476 0.1396596336088834 -0.6950224778884234 
-0.4627436153242878 0.6014675694226986 0.3152578221973138 0.1584768049476813 -0.1888877075645443 
-0.1836255512911718 0.4352919980645084 -0.5150383089508838 -0.8903983692174816 0.7123529109789886 
-0.4702499091900253 0.05344255294428647 0.0925113411302084 0.05499962938741486 0.1012721909997539 
-0.368051149617802 -0.4965942945699532 1.034937273891762 -0.02729641033560883 -0.1711981787897768 
0.9140747214261367 -0.5242249272663809 -0.147386832586999 -0.4283481098808539 0.2620441470109239 
0.5253000456073974 0.009751477634790791 0.2796036819928991 -0.0529713363118437 -0.4134179916649188 
0.1921850585147204 1.494236339503057 -0.7476231610226656 -0.6125172729411971 0.01871508185575128 
-0.2016032895701088 0.03595498461526002 -0.0123897559420573 -0.05127049890740812 0.09481121136799557 
1.178024190339842 -1.214568425308338 -0.5274166162901015 -0.5933683391152915 0.8296134495143435 
0.2879161707069019 0.1319058903142123 -0.001124644681506843 -0.09358956375515023 -0.653790328262454 
-0.4001544901521877 1.286268682465392 -0.5160129207884337 -0.2172067154081422 -0.5774097453200003 
-0.4018077442410359 0.1907676091973354 -1.145895550279936 0.6829407412619303 -0.3782707975795349 
0.4688722901840939 -0.5531855938431318 -0.007497797824305994 -0.001715392725178832 -0.1307705784774865 
0.7325674573738882 0.2011263001948684 -0.4390693567996838 -0.1694844829060408 -0.4895599338939449 
0.2621511858846718 -0.1153051873405355 0.2072602538664002 -0.453131331146386 0.1059241834076093 
-0.0005213142453349869 0.1203840917970857 -0.3228671399820973 -0.04377913998012915 0.1905922507459816 
1.083462216048144 -0.1668585789753539 -0.1333148222022828 -0.02846582953632622 -0.6016828132025392 
-0.5113195223425143 0.1627992342648044 0.2322845045850698 -0.6896256681118333 0.2075125995976353 
1.027993039546914 0.4098200821904674 -0.1761527813290552 -0.1429116714811631 -0.7658872925538027 
-0.1236974946055037 0.3181205602990073 -1.065732870668876 0.279357181454391 0.04914766418227624 
0.3462817585585699 0.2543792198562053 0.3412918056844041 -0.757527381247459 -0.3403095989252981 
1.043630559170993 0.2242205671311289 -0.4823721306805431 -0.02189887232852246 -0.6058329729433114 
0.5988458257692972 -0.1052671783839205 -0.7063230921447902 -1.267258665353161 0.7054205806275129 
-0.4891783354951609 0.3500142320177068 0.038996610902637 -0.1606236892221868 0.03211951109340112 
0.07782151966713297 1.079702563049402 -0.4436121863795233 0.1985908747554818 -0.7930018549390634 
-0.2559281051177205 -0.2676235079071509 -0.763573419796776 0.165718236914329 0.3340778737202428 
0.1263977166945403 -0.28521939679574 -0.8845066669598459 0.3322595734715341 -0.167958231386935 
-0.002731587783506776 -0.1557978698490877 -0.2748511537416787 0.2632800529815146 0.02444997293160191 
0.2407345055823413 -0.9917723294943277 -0.2418028288393662 0.5062998758761643 -0.02135356830881562 
0.7240743634777377 -1.183969400394558 -0.2040515876469838 -0.6320608022567976 0.6590299547863252 
0.2259062744529758 0.3084074222647425 -0.666835331181767 -0.4108839788780833 0.1029984375373492 
0.3338999576776526 0.1119657904204625 0.4283565832738781 -0.3693731331373353 -0.2253506592955388 
0.3608652218660262 0.3223513463150877 -0.3479341461515608 0.1390434178066611 -0.4477191829310307 
2.864903924285459 -1.936520518654497 -0.8889894342298326 -1.905122884885897 -1.21396934190421 
-0.4111637590437519 -0.2901303436644007 -0.6569174354350718 1.030639625884918 -0.6206466064107321 
0.6505483407653961 -0.08546616007159887 -0.06741213647692308 0.1733308120329701 -0.9660340937830261 
-0.1133833748551484 0.3660758259146422 0.3505103024889492 -0.6328342758182892 0.05990700239922607 
1.225565437025117 -0.6384808007765231 0.2520102087500681 -0.5505773747779401 -0.3035226688417768 
1.768952869055709 -0.8801009791331154 0.1029947914079851 -0.3524057809044203 -0.9146146724807007 
0.5872782067912556 -1.202163843558919 0.683011491912734 -0.06836983628937081 -0.06177701611738624 
0.2431567983280335 -0.3885645961394616 -0.5901704098750209 -0.1144350722125917 0.6059747777924865 
0.07285576040587877 -0.09945512181169719 -0.295749418870736 -0.6117006397702434 0.4407316066817513 
0.1705428348131398 -0.04453427813871072 -0.06734659164169059 -0.02249411583093451 -0.02412735697145722 
-0.2876198885034693 0.3731899761724626 0.6192426841816621 -0.4392855791170031 -0.4505605905956526 
0.01088452467859114 -0.4770300555571554 0.04195086555604142 -0.2113420559287857 0.5298889771216444 
2.068793011659343 -1.26573738802089 -0.575003993355072 -1.095128010662383 -0.7693674691771231 
-0.1444543392519122 1.254315329647543 -0.1791669668812132 -0.9768835995344025 -0.3539705010809055 
0 0 0 0 0 
0.1385691633438501 -0.03042961812626485 0.06322784794142397 -0.5477518527178707 0.4692077730783117 
0.04794527654710487 0.2341351559776295 0.6736334720036349 -0.7377252811745382 -0.3428620231526286 
0.416013784603193 -0.06602264349842632 -0.7272061223280621 -0.3179860506569249 0.4781324985223118 
0.9552955670925205 -0.2051116706477816 -0.1380566051039374 -0.4427042353089274 -0.2876269298464459 
0.4663252546890437 -0.06511949322478296 -0.07391915265815546 -0.1942284552666869 -0.1476008190617212 
0.01320125857167632 0.3025892986509668 -0.3787092529049675 -0.1741151801490846 0.07178130788814108 
0.2246421111522568 -0.4716057533505429 0.6781012172282699 -0.733884012795636 0.3360077274076517 
0.6513201825612082 -0.3217274527882302 -0.1993939330277727 0.3416774493170722 -1.245608994012757 
0.8623855563429972 0.3246198258828411 -0.5403928969387604 -0.7231161458032828 0.005313978398944701 
0.2463851904457858 -0.0438696745438017 -0.08723856946265067 0.1306184866470442 -0.08275225260141214 
-0.9822768639292417 0.006457138975213911 1.031846099940345 -1.259277209527687 0.3017138683737932 
0.1922377005561463 0.2933180745202974 -0.5023821951596552 0.1020685504473694 -0.3629064883517861 
0.2468564095448893 -0.04219665050606668 0.4508842248995151 -0.09881697746454886 -0.3728922519340931 
-1.164537637905215 1.427499185606857 -0.2967740657833853 -1.105217002773544 -0.4660887011297223 
0.2789056843243328 -0.01594944280200681 -0.01993825511177029 -0.04021967456345373 -0.007797813922384008 
-0.172322640415038 -0.645970575279689 -0.4039935275533247 0.4738359277883533 1.063120093998093 
-0.06086988012068846 1.336730894616946 -0.1340350521579372 -0.4636870094941555 -1.501141619701621 
0.9470215760359767 0.2746333531749965 0.5108036148583402 -0.493605872962282 -1.126473728647132 
1.058308174008186 0.1832558977950426 -0.6194053215467595 -0.2806060216778505 -0.421939848044137 
-0.3404105325435276 0.2268897420133511 0.02171796811984923 0.109936470124956 -0.2455766642918434 
0.7029502970327577 -0.2747599208930126 -0.231612385984241 -0.3248922624978836 -0.07543684032797401 
0.07241975158416193 -0.07639214965109203 -0.1662894327844024 -0.03867840575425954 -0.01261419173101391 
-0.02527920396497168 -0.06690901826758999 0.08474244833196219 -0.5712063018391611 0.02350753590760494 
0.3097244037377803 -0.1097415258359966 -0.218187168170079 -0.2040480495454638 -0.299349511735393 
0 0 0 0 0 
1.079655913395437 -0.19760730345236 -0.2044810120774551 -0.2676917796232061 -0.3341109547449055 
-0.04671850125514287 -0.2518584985250085 -0.3479468162956807 -0.04958321318492941 0.5188362846378743 
1.202890579013452 -0.0956828528299442 -0.2291619845604809 -0.9438034995070327 0.02317670939062216 
0 0 0 0 0 
0.1090954380667452 0.7154426211364534 -0.2259671852500836 -1.178639286780252 0.2682660165850613 
-0.396962133987398 -0.4249854654693579 0.9872333604617489 -0.1720809921979435 -0.07838247569238321 
1.351146185565527 -0.5084733345925228 -0.4390129889964929 -0.3511359011035129 -0.141575017901305 
0.466731653896969 -0.02020780536774664 -0.08065571168616567 -0.1711278854473391 -0.2458897735212231 
-0.0004154824395224614 -0.8942508348511051 -1.023563610900378 0.07477408730483623 1.173038616531617 
1.228268409926083 -0.2539775440531029 -0.3187516975748405 -0.4905073592687372 -0.4600280595181587 
0 0 0 0 0 
-0.1053314708536341 -0.2086691354821257 0.2778414226866662 -0.2094439866821758 0.5526574977986511 
0.5404781374279635 -0.06281559417994775 -0.1057660485052205 -0.2745286727917771 -0.08358065703865086 
-0.4975218582025174 0.181628414392276 -0.1337822881028561 0.8291335580387528 -0.5411379983582965 
-0.1236560005548839 -0.2144366960362633 -0.1196600423545218 0.438177718884129 -0.1339406377012063 
-0.1187742013353908 -0.1147692312030144 -0.1088943892228541 0.4365279418237645 -0.1366470600310223 
0.5404781374279635 -0.06281559417994775 -0.1057660485052205 -0.2745286727917771 -0.08358065703865086 
-0.08238748594416832 1.13730969071508 -0.8739375287795751 -1.393599529248077 -0.04013515324789725 
0.3349428162002304 -0.06927647861179191 0.9473520621654735 -0.833293967558968 -0.761826036229468 
0.2466033064177303 -0.7059862663968085 1.483032546204606 -0.6755384696666165 -0.5404888212607702 
0.3940661715999312 0.2546045947038331 -0.3025310254689657 -0.09787348237046622 -0.1384733378089551 
0.386948637967553 -0.08274256042587695 -0.005136835508731071 -0.3520719549434825 -0.02047206354858586 
0.08555555081039805 -0.1167928572144566 -0.4052565007376094 0.2730244663291373 -0.02932028401861365 
-0.484760843906981 0.3865425425717006 -0.177843673777543 -0.7516311268441396 0.2919623085348213 
-0.1466667777753811 0.9982459505199295 -0.3731212591508308 -1.176632549358321 0.3747747032917296 
-0.7965465749696364 0.03041603169566886 -0.5407940953893458 -0.6297823210642755 1.592396281170034 
0 0 0 0 0 
0.1346399457309889 -0.1020344573992157 -0.02948924608941367 -0.1127355082324471 -0.09940003677036671 
-0.05115247404700274 0.6256836898866386 -0.363568692020811 -0.0154167249347086 -0.329778034379583 
-1.058167385997955 -0.3690175944299225 0.2138236311513469 0.1849455563156589 0.6213784252223961 
0.8888803025799192 -0.06323160030856202 0.197595712771247 -0.04860104641061623 -1.055298384637729 
-0.3003304996356031 0.648127807284578 -0.2545019664239911 -0.2780004270960619 0.0564691847354787 
0.8369027327605535 -0.1990019448140909 -0.03758825329147813 -0.06919420617265906 -0.2115182120245223 
0.8369027327605535 -0.1990019448140909 -0.03758825329147813 -0.06919420617265906 -0.2115182120245223 
-0.4466561867811955 -0.1184724466046812 -0.4298363347974496 -0.1251385798442484 1.014998509565717 
-0.3228441026886193 -0.08547910994635428 0.3252429456791143 -0.1291255944005282 0.08337969886222171 
-0.7263123110475236 0.3523737231908921 0.06334087147545694 -0.9567899349027498 0.5796999258367821 
1.425862608105338 -0.1605311584823858 -0.1224089549835624 -1.410530779448273 -0.2085057328099489 
1.048039987353303 0.1189327248981386 -0.4753388915152597 -0.428523540296191 -0.7448615339286337 
0.8095351151017044 -0.4656280571139814 0.377135687234742 -0.410239067650095 -0.592484844829775 
0.0834880859642097 -0.08582310062450185 0.2259466366598835 -0.1122730047723009 0.2658688040929908 
-0.1127608704493742 -0.5174080890921846 0.5878938802842915 -0.7417205938462226 0.8714349710698203 
-0.3132660467187434 1.061159239557977 -0.7576916390162299 -0.2018575309706713 0.07653901625443997 
1.04185691398579 -0.4321024429632535 -0.559128723547376 -0.8234492263311421 0.6285526195705217 
0.7485574841370977 -1.17734939596106 -0.5960069263662203 0.5011173757165762 -0.4911620981512466 
2.761395271877674 -1.246598118476812 -1.076939935413743 -1.322558094752989 -1.677432962232076 
0.1214279115952601 -0.576761887751538 0.1300631581854125 -0.2825333569114652 0.9086053912613166 
0.1967583551209771 -0.05042913802601971 -0.005378678461136026 -0.1498027503203965 -0.0355195570981225 
0.4215650293894875 -0.3751152424275568 2.242367013750536 -1.345077919123259 -1.692880298518903 
-0.142651417208075 -0.1129172201347341 -0.8419020233313775 -0.3835193271634659 0.8492537241948932 
0.2028713533867981 0.5153919033254147 0.0509065612773662 -0.651284653513912 -0.2907491082475872 
-0.1179310661282541 0.3480185827247764 0.1161993389100948 -0.1662882735348443 -0.1625110522743397 
1.322603969595255 -0.5532007314415719 -0.104930883321874 -0.1017315470318062 -0.5111639888862139 
0 0 0 0 0 
0.56360263513233 0.0425924329145746 -0.8266962599474351 -0.1414136834649372 -0.4008637314899487 
0.5035771262768173 -0.01081496505305997 -0.01119459888401723 -0.4962824657094656 -0.04369494204186239 
1.00269056508293 -0.4562488493427134 0.01724219822985245 -0.5196267809041266 -0.2889422742557705 
1.312303513880196 -0.4094830426072604 0.2278454401889154 -0.6884559063427801 -0.4746867330861249 
-1.038392206893484 0.1848018543155846 -0.6970179117631008 0.2705275216309594 0.596898578064606 
0.2917089564489637 -0.5914454101425091 1.073293299984063 -0.5054908059588249 -0.2721736370460254 
0.1530144655941663 -0.8859315141099393 -0.4607166355817656 -0.009890439074797622 1.030801425866689 
0 0 0 0 0 
-0.01203808843614803 -0.4155786384234773 -0.01815505002860904 1.27346493949795 -0.6304094943171852 
0.5300800144977009 -0.04918981627620502 -0.1348069049566854 -0.08960522966483214 -0.1413387850381352 
0.6893171685750527 -0.1435326113368984 -0.1098114161525016 -0.2361238277501909 -0.1312132061822549 
-0.2259075591607302 0.4208059792068398 -0.342823801750079 0.1295914030936487 -0.1881271217893142 
0.5628225119527374 -0.1746739609657879 -0.06311559984759579 -0.2148588892328572 -0.09444327642662297 
-0.01188492651610814 -0.3012268885439582 0.4920407355222906 -0.5278675550590228 0.01096963275797405 
0.8875231570127793 -0.2194929002489398 -0.4719851785613606 0.3833028144512182 -0.8301252352293124 
0.8367470506687783 -0.1156920764420114 -0.07720711432931818 -0.6347446276777566 -0.1463872706470148 
0.0138097891555641 -0.2591448508848859 1.063906386981162 -0.7072149955256766 0.03209487189648003 
0.6043464481587292 -0.1053752411215736 -0.09746200572934555 -0.3092457685708153 -0.09065022044417489 
0.673172308075064 -0.241288811833349 -0.05692560147917521 -0.3711899090651044 -0.04135419773763273 
0.1230503904419814 -0.3191202470249995 0.2538292780183612 -0.08954597852005536 -0.1889205375951617 
0.3566682995144131 -0.9315175361194159 -0.2585717730346269 0.3016465565917226 -0.1138215309910054 
1.42902989377617 0.4256184409896948 0.03200360386751266 -1.055895430686989 -0.8362702198964531 
-0.08890950541572684 0.1759868785522156 -0.6528663204489524 0.2425042747867404 0.09384148656534334 
1.124044280153201 0.108414941436165 -0.1002327128142551 -0.2946865795240096 -0.7386344667705562 
-0.3632169673428144 -0.06564463449061897 -0.3002570240399315 -0.3135662592453171 0.5498009247326155 
0.008114934172853479 -0.10074928025573 0.4389355107463268 0.2247446972171613 -0.4620047652394754 
-0.6350158764986495 0.09468388779670819 -0.4264861103286318 0.7169199492030217 -0.01827621149454509 
-0.2636457807405631 0.1618572479618809 -0.3942669022582275 -0.3109198058492871 0.4410233341367237 
1.098972824026711 0.3326194283293938 -0.5906442793265217 -0.6767739967605008 -0.2854948872460736 
0.3978076258374362 -0.09145800202079281 0.7903283222465004 -0.686850579374484 -0.7838934420368672 
-0.1720451979037993 0.2296966613697931 -0.4544330564788315 0.505530768376206 -0.1843161515873644 
0.7058326303021366 -0.1579347294297046 -0.07193299845846808 -0.4406233860625952 -0.1216497039548718 
-0.377519418332226 -0.6538737572663876 -0.6093361304399915 0.8445928111534746 0.02179943208368734 
-0.008506568374046541 -0.5391925572684099 -0.06997180978353944 -0.1508107200430295 0.4273014008976648 
0 0 0 0 0 
1.295152792885268 -0.4633865580023167 -0.2836587475700756 -0.866640377365081 -0.0632099439696384 
0.6264470024492883 -0.485076690535708 -0.4939328157371884 0.4126068950518701 -0.08537548741236257 
0.1630577865867757 -0.1201659974996852 0.2721176495918903 -0.06591958112195204 -0.3289296614784379 
0.2039103663888873 -0.0955081393497208 -0.01148677309673465 -0.0530028134870441 -0.2415910305164838 
0.5517331993558281 -0.2604213641745968 -0.4072354797915915 -0.2036930818096617 0.3718479376534112 
-0.0662209066189435 0.1555857814857538 -0.3684214943610635 -0.7691000480557135 0.7654232110421324 
-0.8598367171667999 0.8731254922012148 -0.1076278859073357 -0.2966906001127685 -0.3159413081812878 
0.9165243578572272 -0.5386727774224848 1.039250794100245 -1.404711026836246 -0.3464392511774195 
1.616010786954655 -0.8546165416028115 -0.698872249572137 -0.4901355099755909 -0.5256387482003044 
0.205244466073835 -0.06351518317271782 -0.0985318713869103 -0.05567161511806135 -0.06763146540017842 
0.1485100055702546 0.3487625183999467 -0.1339928813367269 0.03115715974070024 -0.4466462143191205 
0.175557176980682 0.4980930420445429 0.1356009989508019 -0.4118269021165481 -0.3639658250504563 
0.0709847037604108 -0.3278578280597235 -0.4118215008066306 0.7921067155756432 -0.4328318272044575 
0.3307734244566782 -0.06875210329947598 -0.6026965925984658 0.03531893502072617 0.05083031195548706 
-0.4560617542965237 -0.414543653634596 1.307749216812274 0.09467531066984002 -0.7542194155864618 
-0.3717210658254523 -0.6752697909497585 -0.3645184634136207 1.061052524257635 -0.1560076159750026 
-0.3414651788073333 0.7315481894988417 0.4417756090883661 -0.7678592310208253 -0.463982134729904 
-0.7092518309071453 -0.5346945723415255 -0.621535859813798 -0.7282314281315937 1.476802951534582 
0.6536050310214586 -0.2130589657604432 -0.249572695106329 0.03312587776900763 -0.2664662192052857 
-0.335326683512709 -1.045693999050468 -0.04040841271477077 0.5679961474533848 0.1143479847494741 
0.5530162220122353 -0.01336574370036649 -0.03073553254682004 -0.3382274137827205 -0.1035274781555701 
0.6370797619190566 -0.3393483581496673 0.3600600741423144 0.2893324730596777 -0.7003633164573029 
-0.09713180664771416 -0.1566253257304649 -0.004910553074693869 0.04304103552795789 0.4618355335490207 
1.859038447883987 -0.5111231780371304 -0.1847717613644619 -0.6142577036676042 -0.7367436717026081 
0.525664106673626 -0.1148329037809212 -0.1103215820006671 -0.1946479393571706 -0.1318033994701345 
1.915046187133968 -0.7978306463082466 -0.3317251495169242 -0.9436256954111311 -0.3161836539553641 
1.32793923342707 -1.10761064072805 0.08889394199788092 -0.2556048235217293 -0.4395779492498956 
0 0 0 0 0 
0 0 0 0 0 
-0.08703176520872648 -0.5160708511350224 -0.145544863617158 -0.6625451536184841 1.083185749719778 
-0.008906712409288907 -0.01079335128772635 -0.04232348819771954 0.1572210289983801 -0.04230890567020552 
-0.1526231753685056 -0.1140035594550486 -0.127961988528351 0.4453431245077652 -0.4568224580939912 
-0.9684611419780473 -0.7505585289880035 -0.5732701366108552 1.645243484656628 -0.966597325287371 
0.2252928818229469 -0.008446109020179227 -0.02290310620749838 -0.09682544008319019 -0.02559305884431231 
0.6429081800292209 -0.09283776154394632 -0.04852710803881325 -0.3055835258743652 -0.1977315902082377 
0.6454722655862738 -0.08564535554483627 -0.04476634969384206 -0.2658442648890288 -0.2281962517127084 
0.9900660890964972 -0.7778863933255744 0.4536854352377554 -0.7033086367517183 -0.4074599371697433 
0.155177933100142 0.05873657127423806 -0.6376477222318158 0.2716901843179099 0.09078273668929498 
0.4966908369692891 -0.09511031243758795 -0.1402677110680401 -0.1043355972435184 -0.1172262234292907 
-0.1100001540231073 -0.05871258717798142 0.2763516461274276 -0.2902504076541712 0.08416117346067976 
-0.3723306802900972 0.9202568322541599 -0.5068795984506046 -1.082139116647452 0.4006195817507893 
0.1036948729825748 0.2167734881274071 -0.2129980045648296 0.1326291425678342 -0.06518805835235647 
0.469498698444704 -0.0146000962781839 -0.01352267348665262 -0.5139500091907134 -0.04570965129764476 
1.627077876919346 -0.5580288324163014 -0.4682326716209282 -0.5477750000175629 -0.6803468649678546 
0.5227394256686316 0.05910423090528499 0.5162427809154926 0.007540227437320621 -1.116611499470689 
0.160460116667178 -0.29152466428081 0.191054150340798 0.2960084054360582 0.065443786331823 
-0.4456201857031487 0.1167772497396805 -0.08317601411208733 -0.3248579065839578 0.3106500447917691 
1.086291327459019 -0.7039390719439798 -0.1868599560508663 -0.01323030868619736 -0.1310857262116682 
1.086291327459019 -0.7039390719439798 -0.1868599560508663 -0.01323030868619736 -0.1310857262116682 
-0.09422444091518133 0.06368072549195046 -0.2783986871589933 -0.7484217074731647 0.3844095103094985 
0.2442720145576111 1.302926796189537 -0.7637007822400712 -0.1343949766201585 -0.3535683976941509 
-0.3795023150334937 1.041945701918508 -0.1934266578887941 -1.046352352265635 -0.0984864624222517 
-0.1752943870832333 -0.7998691566661242 -0.3641367794197914 0.6720818646926302 -0.3735723654923649 
-0.5563695374005839 -0.4702557720338983 -1.177600570860209 0.9598297015781115 -0.3311549884858876 
0.682753320143012 -0.2463033226358048 -0.2047865067050505 0.1003282621775614 -0.4413782759372518 
0.9510265231603819 -0.09635318418317868 -0.06676879281571863 -0.864930541635036 0.06252408300576172 
0.9743553928425612 -0.05329700093018013 -0.05568302373224027 -0.7194146813399253 -0.1432601113192912 
0.06425361808801239 -0.6353171637662085 -0.2136636737798538 -0.2376884241798858 0.4539047133973131 
0.5310651116574766 -0.2492776060710778 -0.3362265563782732 0.1558546437417338 -0.4517902439317577 
0.5396332051784141 -0.9818325296115047 -0.6460434972395454 0.8745219868824877 -0.5559831566787783 
0.6034133603654314 -0.05230456696137014 -0.01857531146174548 -0.2759487929776676 -0.1278227849079907 
-0.3811747315929674 0.4443073749344307 -0.08367407303083937 0.2188977725042967 -0.1167241841762702 
-0.1660493984689988 -0.8725193707492329 0.08322421719097378 0.8217766158415596 0.0564314592539817 
0.4828063207737759 -0.7524214561337547 0.07159641253912308 0.4795043704365661 -0.8358525589044472 
0.4734404005044914 0.05287137497597515 0.009898857600124898 -0.7093416427893957 0.3778525590549024 
0.05334369985172806 0.1790593904447435 0.2260056920769594 -0.142512012143246 -0.3128578639739649 
0.4282153240927892 -0.1783298236960544 -0.3617898871623365 0.1914838903249532 -0.1843725589976833 
0.04771226883898867 0.830225408599548 -0.6612785391085949 -0.0411225676137201 -0.3015187112671773 
0.058113067023163 0.2853259132431791 -0.4703821403437204 -0.4231236419595678 0.3818493687292288 
0.935468791171565 -0.1225958591245352 -0.1023823571527099 -0.5515906793859279 -0.1530796531168779 
0.740614960530751 0.09200540477943156 -0.6729470985923299 -0.865338570395402 0.1599733686791712 
0.272659721542078 -0.2937895085503204 -0.1242479697962957 -0.02728007306544705 -0.07636183894025601 
0 0 0 0 0 
0 0 0 0 0 
0.6554088199544253 -0.08502863044204477 -0.08401600238462224 -0.1452375480781093 -0.1495366959933661 
-0.6007430878620468 0.3241657898708273 -0.1776735224405042 -0.5027444032817466 0.533472998709163 
0.6043904935393695 0.1735522238168891 -0.3066538176128518 -0.7707232539641337 0.3336166905417373 
0.5800986860803998 -0.02956900587509385 -0.005268679400024952 -0.1142886929694391 -0.4227815780339306 
-0.6204598948562899 -0.005693009767928005 -0.7680775581664739 -0.5857464582883505 1.03512528688624 
0.9763263831111194 0.2299903400117948 -0.7261311421511094 -0.4613175235406864 -0.5472504548409078 
-0.2668224210123641 -0.9283556724412524 -1.146677868920114 0.6156080473681332 0.6500533528657197 
1.822755853881373 -0.4282793140697298 -0.06060466422142302 -0.546792285045669 -0.9580904705786314 
-0.08695493251045701 -0.7179854282120333 0.4089573290307588 0.7530501532011087 -0.4741441626723243 
-0.3010460136034216 -0.4502330807888972 -0.1330374257563658 0.01007449595720146 0.5345999197766633 
2.12065842923621 -0.2295626980004462 -1.494654559300837 -1.117094656591863 -0.3859408541712799 
0.7566221003668817 -0.07412423312303322 0.4276235009484483 -0.3308589319996964 -0.6201173574859546 
-0.1109655711372829 -0.5055397300846641 0.2906333462709834 0.100867177089999 0.180500863306488 
-0.6564608157928107 -0.9988552959029239 -1.289275648985688 1.51154147375535 -0.5197347696121704 
-0.090501098158027 -0.1273818223964447 0.3253577801070298 -0.00390374244694882 -0.4974087687149689 
0 0 0 0 0 
0.6142410036007208 -0.1337417542261559 -0.08443537945053554 -0.2827091309601013 -0.07745151858355977 
-0.9572771521098309 0.5370845619445964 0.3845365030239365 0.06700490306512849 -0.2680587123090202 
0.9092951124905555 -0.4967628230725071 -0.2233838271195115 -0.6467434148248735 0.3168928714302712 
-0.4065503322834648 0.7552886458469515 -0.125210287489203 -0.1848966390020713 -0.5375622261535503 
0.6320350249136063 -0.7458583420980709 -0.06388758609596204 -0.06172930203896219 0.229096747798519 
0.1484902087174763 -0.06173499025853686 -0.863624936470872 0.6285589702320039 -0.284440930009185 
0.9166319066291345 -1.027173954306334 -0.7522008820677926 0.1352244183114458 0.1832606510546965 
0.252232054905298 -0.4086582652441757 -0.2211031069544888 0.5552458317153643 -0.1059080335694123 
1.810592921403297 -1.564397031639164 0.9968420542920391 -2.471156447254702 -1.170032068306043 
-0.1668980732238744 -0.988070376901455 0.293597388237654 0.3686026629368614 0.2378041988444856 
-0.112419222840641 -0.1447705107978944 -0.140684044938046 -0.03950484792160209 0.3592911818956158 
-0.1000281159271133 -0.5436863433436704 1.532267720284205 -0.5273139369552513 -0.8606533540425643 
-0.09072262889047077 -0.04004249926836494 0.4407392710574559 -0.2029176417232948 -0.1531849132740088 
-0.08962817937322345 0.4178337022240799 -0.1204626609420022 -0.4542293730292412 -0.06543395804256241 
-0.3409714448870362 -0.4670621072801419 0.1977647884701082 0.2031882697613831 0.05885624738127511 
0.3174641522889402 -0.1552927941194057 -0.2932197577405928 -0.4924155430057545 0.3707491687312048 
0.124415477476475 0.2156048571650779 0.3882754662611534 -0.002113747825743008 -0.4922779236567839 
0.1325095080261192 -0.04094755280815721 -0.03726569897005974 -0.0495417777004076 -0.03794384912854798 
1.118305934464429 -0.5908729249397648 -0.7448697005717642 -1.048078068400722 0.5505463796376706 
0.2585416441652715 -0.05431262524214089 -0.0481093103459645 -0.03493860919137427 -0.1325946593622671 
0.2280619282715426 0.4273243483362129 -0.5902663346212949 -0.1668672969933793 -0.06770073691741699 
0.5290436900397884 -0.0101077793037063 -0.04352097387546255 -0.3296381716647541 -0.2661459769004432 
0.2585416441652715 -0.05431262524214089 -0.0481093103459645 -0.03493860919137427 -0.1325946593622671 
0.2585416441652715 -0.05431262524214089 -0.0481093103459645 -0.03493860919137427 -0.1325946593622671 
0.2585416441652715 -0.05431262524214089 -0.0481093103459645 -0.03493860919137427 -0.1325946593622671 
0.1047837017854678 -0.6505003959014587 -0.1473346250743048 -0.1317768738214862 0.6978078606989493 
0.2585416441652715 -0.05431262524214089 -0.0481093103459645 -0.03493860919137427 -0.1325946593622671 
0.2585416441652715 -0.05431262524214089 -0.0481093103459645 -0.03493860919137427 -0.1325946593622671 
0 0 0 0 0 
0.3366443004127387 0.1564538012489264 0.1294068784718422 -0.5091044585993172 -0.6182896158638846 
1.259913419352301 0.2737705468307866 -0.8344052014663698 -0.315554981470433 -1.012002531807931 
0.5154700868748084 0.4399594352819315 -0.502964729836729 -1.246346740583215 -0.2879480169871215 
0.3642129631878156 -0.1865884938569175 -0.08069775132696176 -0.02926906396859198 -0.0791146371270824 
0.5570870408449324 0.05231803641223257 -0.6748811936197383 0.1413018138055168 -0.2065442092477264 
-0.2242690652529267 0.4633869161764619 -0.1484871577948406 -1.216513747664139 0.636700899403433 
0.3642129631878156 -0.1865884938569175 -0.08069775132696176 -0.02926906396859198 -0.0791146371270824 
1.247063464469481 0.1279664905471543 0.1537344693435824 -0.2465746817158951 -1.260431979858373 
0.04962524894083253 0.3176420753265108 -0.2643289987469186 -0.1060083774006195 -0.07142435680021268 
0.5976265551762233 -0.1050202191576928 -0.1833961625833148 -0.1040840803337965 -0.2255007779402708 
-0.2049764348659765 -0.5971598544684777 -0.678961672676107 -0.2747490273480694 1.23786245117435 
-0.183715199923212 0.3171870471915839 0.2083411340375543 0.06367593064787325 -0.332914026235372 
1.240574363504403 -0.108946181695244 -0.07844120576053062 -1.052375174488681 0.1735734157989418 
-0.459270554412902 -0.617349910200174 -0.2145608590322884 1.524762953915704 -1.000584659278564 
0.7779246232455719 -0.02413875655035436 -0.1546230178581983 -0.3100372540654397 -0.2532870108836416 
0.5187509446903837 -0.03059116151455703 -0.1860107947313058 -0.1380055989387565 -0.03150604318533817 
-0.3272955296216646 0.5140383994802175 -0.2993653188355008 -0.4525263534275982 0.2306555907867864 
0.04489058307197979 -0.4431663761577834 1.313159947181741 -0.5665976274917921 -0.5269640101734627 
0.5187509446903837 -0.03059116151455703 -0.1860107947313058 -0.1380055989387565 -0.03150604318533817 
0.5733996616407888 0.1562208139228067 -0.4210167854343277 -0.1686127084281144 -0.01926055022642235 
0.2861068278435452 -0.1954681376628933 -0.2333171146509501 -0.182419751479538 0.3468524088759195 
0 0 0 0 0 
-0.02711175087717649 -0.1111626778927641 -0.3388238341737771 1.05819377772855 -0.9178954738163334 
-0.07948435312087102 0.5587062499622538 0.6032920774571705 -0.5183715377848287 0.02582741471502397 
0.3666332179566816 -0.4671570909610022 0.3705765283399269 -0.8619194966171377 0.05994480294977991 
-0.1352799162799927 -0.728964638769932 -0.09936622411449195 0.8172125805829433 0.1110541851151001 
-0.0008625570157248658 -0.1887145355831281 0.2606469964710397 0.0791772043479505 -0.4040088257531104 
0.2097796021147829 -0.1670367504170882 -0.2085346094582076 0.7558514536945605 -0.3040827279004724 
-0.2321161694900073 -0.6815922971416533 -0.299447453928197 -0.01631841429508408 1.11501062906583 
0.3316471608901675 -0.02450141523272882 -0.135878083977231 -0.05058495993186195 -0.0822176263633102 
0.316460871178201 -0.3865052983903057 -0.2574361287603645 -0.06116078209831863 0.354457633646401 
0.7790407810818991 -0.2604982369024023 -0.2087282220554582 -0.249558967832383 -0.05590616137884082 
0.5880226008252779 -0.1220859724364633 -0.1239254252582869 -0.2289245941189088 -0.06871829469700363 
-0.5280456163545894 -0.1252132839327242 1.163778677078584 -0.9145499543599841 -0.1005104765014899 
-0.1074339089713454 -0.3893290541342529 0.8592108355750896 -0.3028404809174985 -0.1185961730264637 
0.4513947487317941 -0.2768979947323488 -0.3152636632089909 -0.02399126815875987 0.1084303474381325 
-0.3914588939844764 0.1455029045266557 -0.05586370032533741 0.4131485738423898 -0.1851342642273555 
1.008442408904344 -0.6659558332718107 0.3866866315213404 -1.22684279768239 -0.2196645855384351 
-0.2439459735246077 0.1182677755481079 0.2192944765420926 -0.5563574083314117 0.2417414006030864 
0.475862591286571 0.3266244983726604 0.1070491521916483 -0.2184267101497038 -0.6615774463783776 
-0.2948479048605222 -1.127716632336272 0.05886348987437116 -0.265515487043106 0.9099798800155148 
0.2529970430460899 -0.2529415273894067 0.05231144272678681 -0.05488277777641039 -0.06239278978760869 
-0.4274089230764141 -0.2367873670737185 -0.1724238494118151 -0.8287219674786277 0.9283313232887521 
0.5448266973236552 -0.1932450648987345 -0.113927031002549 -0.3722997474717786 0.2948571515859607 
0.2146218414994701 0.978537711783446 -0.658322941417591 -0.9534350998953778 -0.5959097160362021 
0.4658464703363992 0.1226755852121433 -0.1455941672267619 0.2933978439310401 -0.4976395155264582 
0.9608807586874573 0.3736507691873848 -0.04529661439384642 -0.6827798259449681 -0.6240096622210143 
-0.9465610660641056 -0.4054391290595099 -0.3550986418618722 0.01530507871754889 0.8928259199125361 
-0.04085805698790157 0.3930601590552579 0.1709582367805739 -0.5371655937002074 0.3100908006803634 
0.02933472475978627 0.3039245617808825 -0.5699022079742468 -0.04299881847316014 0.3232505279882972 
1.716536384511699 -0.7999706306852434 -0.8130806342544286 -0.2983957664730211 -0.7275177947832441 
0.1847728735001715 0.2368818888959966 -0.1148735242158495 -0.4692648877603325 0.1813425066664614 
0 0 0 0 0 
0.9107347366894463 0.0467475628775751 -0.1805074199082589 -1.063938243575321 -0.1378827019500498 
1.654728662325618 -0.1245952495746751 -0.008361175522216116 -1.410105299454888 -0.7789695552814958 
0.6120367778519827 -0.5043506378796474 -0.3461881243358134 -0.3522645438228373 0.6784122155963551 
-0.3504293347127818 -0.2915934621043597 -0.1840570138218028 0.07878298091314041 0.5603583965339969 
0.0909420422203573 -0.434627258941131 0.1216116911134283 -0.2260944442244545 0.3155567607219509 
0 0 0 0 0 
-0.1099275286168767 0.2419386247572518 0.2476239398031803 -0.4766088146975925 -0.2575021885994863 
0.8644766419321336 -0.001718868799462912 0.06110403644163533 -0.2769304243129458 -1.06907202054077 
0.4906802074671996 0.02022659212470525 -0.1517149463828555 0.08927097042807387 -0.2637709196493503 
0.4317432745913834 -0.2122101897528379 -0.1805085811587636 -0.1663464020555074 -0.2107671133753016 
0.3982173899568272 -0.6512856143345565 -0.4289968224123975 -0.6834646471111522 0.5142034077109626 
-0.3980389143234214 0.02742022740776914 0.7078168947557946 -0.3916268007983014 -0.3107891221926235 
-0.4173044530942207 -0.4564826276663723 -0.2152805276345603 0.5303906296809663 0.4961825180972038 
-0.4960927208420158 1.881163648576713 -0.7482373706384509 0.1268243050311924 -1.261960415723419 
0.3194059641583728 0.09102782993671354 -0.4097216463048737 0.2218839174604604 -0.1196078399770869 
0.5997556867308228 -0.1731582767768323 -0.05247599349744517 -0.02480859658112743 -0.1492897906916101 
0.2404010202077506 -0.2094841021335901 0.2319016267137253 -0.1255288474453743 -0.1389144373873722 
0.4880912742977904 1.136459361867899 -1.160586902945173 -0.5370024132733671 -0.9170432628711205 
0.4624685004739006 -0.8664333354278776 -0.5366839967649742 0.593883912574884 -0.3273503095042135 
-0.4059924157181508 -0.8418568733649209 2.526679836982471 -1.109120043796116 -1.270707008895821 
0.4761379434716779 -0.03609542183554888 -0.1621827908395594 -0.008149706723342845 -0.1093688674837249 
0.2783706472585495 0.1358871567607881 -0.2020979110291783 -0.04292886319438819 -0.1416615505003268 
0.4761379434716779 -0.03609542183554888 -0.1621827908395594 -0.008149706723342845 -0.1093688674837249 
0.1864561199930614 -0.3977931110530137 1.001161338465921 -0.3475836146011594 -0.200472580081986 
-0.2165276311930278 1.504688438491845 -0.8634263988413915 -0.6202639312946903 -0.4002047454573479 
0.09914650388678997 0.05489125269997958 0.2682242084090752 0.02774590517095411 -0.6783161207142412 
0.586998553017291 -0.02497376209680986 -0.01411516161160896 -0.724797955553302 -0.08345399951386155 
-0.2058868076552517 -0.07414604787559448 -0.4294701825840415 0.2153108190997507 0.2016759107201478 
0.586998553017291 -0.02497376209680986 -0.01411516161160896 -0.724797955553302 -0.08345399951386155 
-0.1558110004085844 -0.03872914872515221 -0.09540265809240545 0.1114108283441439 0.2465814441599588 
0.6816800988592931 -0.5952697574465129 -0.2648744595329705 0.006366589094194519 0.1770690763968637 
0.1043570351539639 -0.3578876068110665 -0.09391014413801711 -0.1635583907607875 0.1754103518009833 
0.568440578197195 -0.05347763354972742 -0.1117958151093041 -0.2354869084636969 -0.1390432151197889 
0.568440578197195 -0.05347763354972742 -0.1117958151093041 -0.2354869084636969 -0.1390432151197889 
0.7060088306311071 -0.1409059054330238 0.6955438209067898 -0.512381381151963 -1.0084767807682 
0.5118370552265271 -0.7696148730446863 -0.5058222381454214 0.5253346232250257 0.2025286359227808 
0.4806710263483289 0.1574922111228822 -0.3740200469755258 0.1027412131791218 -0.04972819304375928 
-0.9477248008667225 0.9237605290290941 -1.235140928334172 -0.05428108798743572 -0.2091064945164696 
0.117688833610856 0.18722033474226 -0.007816906499458362 -0.5172871122677987 0.08544622552293826 
0.9732354598055167 -1.357223031777119 -0.2713381971978646 -0.1680031326954356 0.8433459640157569 
0.6570962093591055 -0.3738363344573559 -0.05800959580386831 0.4215301034308533 -0.3795107128027775 
0.5242291748327148 -0.06439080290362285 -0.03829072015910245 -0.3404940298014624 -0.03440234512544348 
1.494099872408774 -0.8318073639480512 -0.9559829199340989 0.2486730623967965 -0.6234250424221238 
0.005685220573911846 0.167497344537553 -0.1641775241309439 0.1472601868777386 -0.1563877360592658 
0.6598082172024231 -0.2370389425263699 -0.04558108932624729 -0.176370325988129 -0.1380426372001808 
0.09555147360002368 0.2047934093562865 -0.05106976339328206 -0.1990315807860976 -0.2059068151117348 
-0.5515338466867254 -0.3532997240191269 -0.1713276955839138 0.02911481273373765 1.069514734764069 
0.629333253642789 -0.3926535872036685 -0.4169019364280947 -0.4231511796774855 0.3183454624718191 
-0.09085245727236341 -0.5397467706543557 0.548660508910024 -1.656233857936009 0.968919328382379 
0.03794333318954694 -0.3654707720107673 0.1793376072143056 -0.4375002059232855 0.6515391762879215 
1.621181200717085 -0.2427944554900208 -0.1384843432313906 -0.7775030528392133 -0.5879266320902322 
0.05006159308276277 0.5017552480178705 0.1273387739540403 -0.1570346455914034 -0.2124373082736855 
0.5334793269486244 -0.4542236291163824 -0.3013350020056959 0.5281304075168709 -0.06811928397309663 
0 0 0 0 0 
-0.2628771220857556 0.7275481817052899 -0.3520222986335201 -0.6439042800678829 0.2405282456866457 
0.3135704272162663 -0.1545289953358543 -0.1071795300256715 -0.1345622655480491 -0.0008162988714096285 
-0.3027954467158712 -0.1825708755055035 -0.2864602877044499 -0.380190514272033 0.6936976970830422 
0.3670424268722219 -0.08576999181969822 -0.1971907447784116 0.1482344041466725 -0.1630860800334293 
0.3747688658481146 -0.06851225157711999 -0.02852234794944191 -0.1297454582821981 -0.1149258927801018 
0.2546328999495072 -0.2584664831258279 0.8034507990333111 -0.6308902033388791 -0.1251382162748775 
-0.3482276114096436 0.2284284666646761 0.3653104693635492 -0.6159709634229344 0.2117733018246343 
0 0 0 0 0 
0.6661503487048757 -0.02303471364948368 -0.222829963547008 -0.2182843516444911 -0.16697077542675 
0 0 0 0 0 
0.05197342126914953 -0.2863736311522463 -0.05377274591461761 0.06940600656787674 0.1510632352412413 
0.5911267410264682 -0.4885139268228463 0.3285380312794024 -0.04738372697018074 -0.4313294223775948 
-0.2597432770015357 0.9171676287255036 -0.825353719466197 -1.801073856664506 0.4263975529049208 
1.997782866471858 -0.4250499934124327 0.1975541675752658 -1.418420719170471 -1.018925952681001 
-0.1622126943138408 0.1782662647775056 0.08793031984550462 -0.02201489805141785 -0.1667448137124148 
0.5230039365729282 -0.1458829358486629 -0.03683787129402519 -0.1664548485010211 -0.1948095101311148 
0.8663840882473328 -0.1538418788703328 -0.05494913756799957 -0.5807640321435541 -0.2372275131727219 
0.3216540427485254 -0.2860660335279339 0.4772243029054782 -0.5712699588531485 -0.01041314570151039 
0.261684244268052 0.1081078894385318 -0.6844514011517 -0.6544641344396609 0.7381802823722105 
-0.02032109596904667 0.4306298875362388 -0.4728585136175283 0.4439522747837747 -0.7256035766992813 
-0.0453853270686414 -0.004215443656273424 -0.04380526944610967 -0.2157910883092378 0.357677251814827 
0.3684919072385666 -0.03185193063039813 -0.2273324216190829 -0.04138807506681316 -0.05521009586351322 
0.5289982924524835 -0.1757060154308889 -0.1473684985377104 -0.003599317986281592 -0.2294878642713775 
-0.2239943283764489 -0.1852438306576524 0.2473773003554662 -0.6425887833806536 0.4029121079745173 
0.5173831059184313 -0.5264766551261981 0.2738986955487068 -0.03842284531889992 -0.2067018527483946 
-0.03687919248207647 -0.2484921490159818 0.5562385674406061 -0.01461178919663892 -0.2617036898137208 
0.5289982924524835 -0.1757060154308889 -0.1473684985377104 -0.003599317986281592 -0.2294878642713775 
-0.4504112915935804 0.4436444026638756 -0.5033917699567363 -0.7580898643721194 0.5346555755807496 
0.1018557706977875 0.07762298211350914 0.1221671392701092 -0.6535787041582114 0.2184331096134229 
0.7470925698913379 -0.3451792504814607 -0.1528755706517926 -0.1196224694425093 -0.2373522308933363 
1.004554893379726 0.2837325442256848 -0.854612787831479 -1.507766627515329 -0.1709073351436212 
-0.1596483640255947 0.6296572653044205 -0.07842520292356192 -2.433325117122877 0.3390341611785015 
0.09798576508029898 -0.278007196441286 -0.01662572547664135 -0.004092378181827373 -0.1504452967067316 
-0.5913693120270738 1.777843274658131 -0.4136102593613127 -1.152935237012075 -1.096272853290255 
0.5962930299920599 -0.4476443729049981 -0.2140848829680066 -0.01709875788067391 -0.385662045811797 
0.2585039928774637 -0.5953500106146214 0.05149131911995686 -0.1805514121706712 0.3898823218204754 
-0.1264965071816274 -0.3780707255577725 0.8760115234125628 -0.2798628726341631 -0.2585001120648931 
0.8297165747898182 0.111098143472623 -0.1320371498200135 -0.6016876131267533 -0.1812847370820571 
0.1199131397968709 -0.4410207374224843 0.2458632414506885 -0.4215611751562419 -0.05772483284258128 
-0.1099163117111816 0.03831786001418816 -0.2334878631656647 0.7265048801829684 -0.3841474539901554 
0 0 0 0 0 
0.5818227153096872 -0.2988878333402041 -0.2271525948421105 -0.1678525371312563 -0.08713381695692635 
0.272659721542078 -0.2937895085503204 -0.1242479697962957 -0.02728007306544705 -0.07636183894025601 
1.382260883490295 0.211728962999753 -0.2585896640848329 -1.202376369461658 -0.8230460485339932 
0.1437943072846606 -0.1130392392901096 -0.08366712923411629 -0.02024953049903306 -0.0497777840428465 
0.8152026771698571 -0.0395946672936978 0.1215099125534186 -0.3304899651612542 -0.3567665993852764 
-0.2353180865457102 0.5016836065201503 0.415882516736124 -1.515246670504338 0.3868172351055028 
0 0 0 0 0 
-0.4088761808751001 0.1808434297583933 -0.4979069802818424 -0.0128172688782373 0.3443901679161014 
0.3554709953564188 0.5203647421649913 0.6077445551021587 -0.5570992571633002 -0.5130167557316444 
0.3060393864053575 -0.07662723846532828 -0.05797234463389365 -0.08069862276201863 -0.03475362174512461 
-0.7312132219663944 -0.5105541721113506 2.179439260130514 -0.1942104305273044 -1.523389334941526 
0.5879681170773409 1.096815162087865 -0.8079881543226699 -0.9770890630556959 -0.7585203611724587 
-0.2556811846665023 0.5492005612110787 -0.02425174323089089 0.3269163555357747 -0.7629514458751391 
-0.1863446989576185 -0.08478872814585103 -0.06201064063202852 -0.02180509415282987 -0.0337159666575075 
0.2072654123986044 0.5615078977503272 -0.4436678868399087 0.3797122900396893 -0.2839671736567423 
0.8448156893722087 -0.1474061719165899 -0.01262490276960252 -0.4354942454276409 -0.1914209962480806 
-0.1632992718193808 -0.06193547417180468 0.2340697667585137 -0.2958689105983268 0.3458632354242479 
0.8448156893722087 -0.1474061719165899 -0.01262490276960252 -0.4354942454276409 -0.1914209962480806 
0 0 0 0 0 
0.3393180058849943 0.4164123800509158 -0.01498027533555815 -0.2844469581456723 -0.4166542733825443 
0.908946154614339 -0.07890794982959748 -0.1299443129052606 -0.2224493731455702 -0.6154477048324364 
0.1391192027823272 -0.2347606404622784 -0.00937238465730411 -0.01419424402820889 -0.007042340181181824 
-0.5492512732507333 1.841753867610968 -0.411223474326928 -0.6099983039833832 -1.079269629551834 
0.6026776779829047 0.583213313612495 -0.3544637418216285 -0.1706625366724 -0.3790165738553833 
-0.2493767147969959 -0.4996245976537887 0.3067053678732808 -0.4150383000912747 0.7441400904721498 
0 0 0 0 0 
-0.5188184395201156 -0.1401432017451834 -0.6089465312674535 0.8868185072789245 0.03211925573025531 
0 0 0 0 0 
0.5353164308063515 0.1273068451541041 -0.4762928446077335 -0.0787562887349451 -0.2673462227956558 
0.7947590551713004 -0.06018083500984817 -0.164835958393996 -0.04544948048305194 -0.4317255912460551 
-0.4815754950340408 -0.2687135529145191 0.4991846881623515 -0.4270382597724507 0.4285762271902157 
-0.09606175478421194 -0.5118726314402542 1.662962187369101 -0.9412741487457879 -0.7015877754467684 
0.659863042173448 -0.3410059511510505 0.02967982231385766 -0.1276595453729262 -0.09445697347719524 
0.7218508165842766 -0.2408778480209278 -0.3167444520974423 0.0582236240467021 -0.2078055412892681 
0.09306120078980233 -0.128562688288918 -0.2552500512150053 -0.1514242351708716 -0.1410835340457968 
-0.2149089711467764 -0.4572276333956889 -0.07534869653559434 0.3667576941664988 0.4023243219650461 
0.1649444134996537 -0.08732555754344251 -0.1151054211389465 -0.1375491062785775 0.5468497226775619 
-0.6450175789569893 -0.3937949396846437 0.03419007374356269 -0.07137564476118741 0.6038484467991545 
-0.3085102339474429 0.3841858523319552 -0.0174557937129299 -0.3512096097350104 0.1956185294500365 
0.118154105424225 -0.04090237527529539 -0.009040388234070051 -0.2717369307087838 0.3240707541818343 
-0.1051041270456652 0.5689267303107612 -0.08438080363273701 -0.05418708600724602 -0.111503634723035 
0.7128656114575783 -0.1535125333226939 -0.1781261858846632 -0.4331420709473347 -0.3794583777873339 
1.547687790769481 -0.3453900416731995 -0.1847536771489982 -0.5564280534882828 -0.1394793383444907 
-0.2628289676450873 -0.1006515205546302 0.5960217800615248 -0.2896089301871409 -0.1878011227850834 
0 0 0 0 0 
0 0 0 0 0 
0.4406182132766558 -0.08259510200274388 -0.008624480807570879 -0.09935587244326334 -0.1678058006134683 
1.401666544786146 -1.071862184138148 1.032267733006502 -1.818143951825079 0.08032142657670918 
0.5933152019594109 -0.08085618950920705 -0.08356689502738918 -0.3050257882540003 -0.1619390593410528 
0.6795843879513171 -0.5864856280137695 -0.1244544472195328 0.3722036161779507 -0.3630127152932923 
0.08285252851140427 0.2101338857996345 -0.8776845960016841 -0.2626451121721521 0.2313865970263279 
-0.6092938193045833 -0.2177830554319334 -0.3668014191567858 -0.226719082251463 1.020575511860418 
1.176201374107353 -0.3658124143544042 -0.3555781800498798 -0.7179781634614616 -0.1867191502273595 
-0.3396168635560971 0.1531845111095846 -1.208007566843744 0.6273649127525901 -0.2326699109560811 
0.7048242686212487 -0.1685900743336604 -0.215074934853926 0.3909565831815811 -1.14820313599888 
0.5937458895985614 -0.1580933529374032 -0.1237911793628953 -0.6420059144057079 -0.09541752084188504 
-0.479128138421292 -0.2711578796945858 -0.1574817334266644 -0.1967287526601749 0.5816262597492252 
0.3935165387214241 -0.489448027659188 -0.6088748376857306 0.3392418359699775 -0.3916451953761555 
2.00572552823169 0.3012289202302675 -0.734445010189431 -1.46066752816764 -0.9307230467217511 
0.2723872920476497 -0.01925945505391245 -0.005577411506738056 -0.5377103849447705 -0.04051369761484135 
0.1529581696123377 -0.006826748229749303 -0.00466918575881619 -0.2270080296082312 -0.03284123321465989 
0.2552215361818839 0.4263528587946788 -0.4283447840027991 -0.3003197616093247 -0.07657810021673535 
0.9333245095246555 -0.03294897217144858 -0.03181084250688222 -0.8009170162911265 -0.09710125528502508 
0.2178915314900966 -0.5180457652393164 -0.6394427921426052 0.6941682047708815 -0.3586661661588172 
0.2459696909668081 -0.01506773613027405 -0.04661950594862248 -0.3619918085231873 0.1820342367972858 
1.368511339818463 -0.5775827820917184 0.1484374054928163 -0.6762712972468581 -1.075612669333806 
-0.9147901601958375 -0.1002934272005889 0.9904255531013423 -0.8453097556004111 0.5230589933571275 
0.4314483140051745 -0.05015726571346865 -0.31591834177667 -0.0342009416693034 -0.02296884247381428 
0.4438051075106295 -0.1245419053147464 -0.1993923436652598 -0.03430770977480045 -0.02526253873812544 
0.2654548048910839 -0.1616217947095495 0.4289033546711392 -0.07251450049075361 -0.3907998754418838 
0.4485998665140623 0.2087938183965135 1.010110884507744 -0.9949545995482401 -1.234986921787639 
0.814260284740743 -0.4364723770868827 -0.3711066580524678 -0.1123441833358624 0.3694540303634606 
-0.3231625730627042 0.0851762912001133 0.7641623694756153 -0.4815970745359431 -0.2589024185807579 
0.2487941210947756 -0.4712840942124057 0.03356664835541407 0.2969627777225771 -0.4192839322040934 
-0.664769912729523 0.1302388167073493 -0.0004232132106078475 -0.4410481708954793 0.369472092826838 
0.9773950164774146 -0.2904172434870972 -0.118264708067037 -1.112263173119433 0.3800149878680607 
-0.1880198491843395 -0.3537338820382975 -0.7525192377015874 0.8224231310315054 0.2327917638522377 
0.07470365748754154 0.1141885110310807 0.3407770673964591 0.0896131234761437 -0.3940040408357619 
1.233057805440153 0.1615046941931066 -0.12228343554064 -1.716229337425628 -0.160355773889592 
0.3730479416441567 -0.05302090276575703 -0.05451718924708701 -0.2091017737309719 -0.04383573345472697 
0.7473419929057625 0.6239495199555387 -0.3843692512693569 -0.7047678707491577 -0.2662308238684722 
0 0 0 0 0 
1.600087352713962 -0.7442082050873289 -0.5755775979219078 -0.3016564496778334 -0.9648560904347245 
-0.3421154673276167 0.4547482977144884 -0.3481314806571103 0.8343344007551605 -1.397447312008222 
0.860411959329148 -0.3363877542042604 -0.4409635263287894 0.7521543671783204 -0.7912186581024144 
-0.3312240261784016 1.168768714870599 0.05234508168233137 -0.9026911680620153 -0.8550801666339636 
0.07666819227097349 -0.02882594752001879 -0.6470751602391647 -0.04434246377828902 0.4660422076152614 
1.779584779482694 0.2538389359002146 -0.9154046242801593 -1.310224691250034 -1.239630713859585 
2.157606873053361 -1.151941521559119 -1.083925343288313 -1.01109326983466 -0.04203717124166544 
0.2572729595930719 -0.08768200416032353 0.2509258598536914 -0.1993824715661519 -0.2583749372224048 
0.4156696446608424 -0.3001640140383964 -0.01638413012137205 -0.09139298739873909 -0.05417047124703486 
1.199028440060524 0.3194463999144217 -0.5924648746048751 -0.5960594770573321 -0.5686772769885561 
0 0 0 0 0 
0 0 0 0 0 
0 0 0 0 0 
0.2599663810164861 -0.3622328194109604 -0.02310078460343617 -0.2347119321010695 0.3414635717439312 
0.6269625910054952 0.1139722468988877 -0.0536731643817876 -0.3333164758939461 -0.4505353652679279 
0.08140676600503793 -0.5286909835714837 0.5573056798743734 0.4238182133850199 -0.5297137030531157 
-0.6710748908581253 -0.5181942309469216 -0.0365750905974252 0.9443449684371794 0.1167395551096416 
0.4714688815763181 -0.0400696067857147 -0.2329191066231986 -0.1611979544744778 -0.1661604694232727 
0.6488024542288717 -0.2735802243765189 -0.5393201723552336 0.07327856093905638 -0.296682874954809 
0.9464102263624772 0.409931606205933 -0.4682130880214752 -0.3461081765546595 -0.9368206509462078 
-0.3048769091126953 0.5915198816165574 -0.1610708069491477 0.1240369503806365 -0.5023845216500559 
0.03293089492268479 0.1415850441547962 -0.01685772238834816 -0.3713650881035402 -0.1717402096464021 
0.6377469650452208 -0.5403885016743182 -0.6110989620788627 -0.4965885261273097 0.1166487008504885 
0.2671295284862974 -0.4510167589415889 -0.03583666256864974 0.9745926756436671 -0.3854219318665277 
0.5798040794177254 -0.0270602233815423 -0.4314472727420216 -0.1125347471311592 0.008330494570464789 
-0.207811530152805 0.18393663281506 -0.3320828796660606 0.008325528032182093 0.1978265643614988 
0.7169714791173878 -0.1667500090592292 -0.2284312940818871 -0.2120073599766859 -0.1559848547844537 
0.5292335393038859 -0.1115896623237554 -0.1071370281146414 -0.1881758786524316 -0.1056317902643803 
0.4894448570476065 -0.03910482466359025 -0.02893610236980822 -0.1146254672701277 -0.2331516982719462 
0.4894448570476065 -0.03910482466359025 -0.02893610236980822 -0.1146254672701277 -0.2331516982719462 
-0.5034684264708764 -0.5837175941417345 -0.3174237509399337 0.5474087647281164 -0.1802275982166893 
0.4894448570476065 -0.03910482466359025 -0.02893610236980822 -0.1146254672701277 -0.2331516982719462 
0.05925310338036425 -0.423212149471237 0.05281792043350311 0.07618807870880828 0.02064731484004781 
0.4894448570476065 -0.03910482466359025 -0.02893610236980822 -0.1146254672701277 -0.2331516982719462 
0.3450816255830407 -0.142962623735254 -0.2735126123703795 0.03387213239430163 -0.1465516886873662 
-0.469245022342903 -0.5217958894735204 -0.7496181861822173 -0.2725830724335548 1.030674559409831 
0.4894448570476065 -0.03910482466359025 -0.02893610236980822 -0.1146254672701277 -0.2331516982719462 
-0.2188842167103651 0.4465378664206782 -0.431743557778805 0.032484719611289 -0.1488900432579631 
-0.07507479682205459 -0.09810981650941926 -0.03278358651032492 0.3504834633226674 -0.1556087037318586 
0.5125670549557332 -0.1098777225028161 -0.1175938283663147 -0.1863039834381589 -0.1945376837704077 
0.01288915313527421 -0.1844165134234328 0.6775986799349919 -0.2321611566537471 -0.2698613520579199 
1.570365720878192 -1.251128671684113 -0.05386239415047813 -0.05222776525862474 -0.685945733536285 
0.1291496863556518 -0.07134617393432915 -0.1963989543240783 0.5070111326617801 -0.4123034805870474 
-0.1451534580344618 -0.1719772045757793 0.1892044644209674 -0.3598107676156943 0.4275375639953453 
-0.3670694214799911 -0.5403999087072133 -0.00613719890838795 0.5886976030561489 -0.03028679893166068 
0.8723501477092319 0.07936559391813283 -0.3940744144962928 0.4699506908546716 -0.7874678019006323 
0.6918867657550326 -0.006973409857559384 -0.2879215579487241 -0.3904636890031207 -0.166309275451511 
0.6918867657550326 -0.006973409857559384 -0.2879215579487241 -0.3904636890031207 -0.166309275451511 
0.1550059221718329 -0.86025189495771 0.92922802052716 -0.5199766375427846 0.4423243090265347 
-1.071570339379245 -1.075980479998627 0.1848571478326428 0.4213212152387598 0.7160262963274068 
-0.3162059975707344 0.0883397972091145 0.1398737299857053 -0.5814534843754855 0.6606574636818138 
