svm_type nu_svc
kernel_type rbf
gamma 0.00204918
nr_class 5
total_sv 20242
rho -23.7198 -1.64261 -4.77536 -56.6816 -0.826163 0.698431 -3.44505 55.1734 26.5035 2.92082
label 4 0 3 1 2
nr_sv 3805 4068 3588 4365 4416
SV
26506.36070679081 8212.173372211537 4966.43779142784 34111.72032197635 
26506.36070679081 8212.173372211537 4966.43779142784 34111.72032197635 
26506.36070679081 8212.173372211537 4966.43779142784 34111.72032197635 
26506.36070679081 8212.173372211537 4966.43779142784 34111.72032197635 
26506.36070679081 8212.173372211537 4966.43779142784 34111.72032197635 
26506.36070679081 8212.173372211537 4966.43779142784 34111.72032197635 
26506.36070679081 8212.173372211537 4966.43779142784 34111.72032197635 
26506.36070679081 8212.173372211537 4966.43779142784 34111.72032197635 
26506.36070679081 8212.173372211537 4966.43779142784 34111.72032197635 
0.02750059152910943 0 4966.43779142784 0.3115325189144241 178:1 
26506.36070679081 8212.173372211537 4966.43779142784 34111.72032197635 
26506.36070679081 8212.173372211537 4966.43779142784 34111.72032197635 
26506.36070679081 8212.173372211537 4966.43779142784 34111.72032197635 
26506.36070679081 8212.173372211537 4966.43779142784 34111.72032197635 
26506.36070679081 8212.173372211537 4966.43779142784 34111.72032197635 
26506.36070679081 8212.173372211537 4966.43779142784 34111.72032197635 
26506.36070679081 8212.173372211537 4966.43779142784 34111.72032197635 
26506.36070679081 8212.173372211537 4966.43779142784 34111.72032197635 
26506.36070679081 8212.173372211537 4966.43779142784 34111.72032197635 
0 0 4966.43779142784 0 67:1 
26506.36070679081 8212.173372211537 4966.43779142784 34111.72032197635 
26506.36070679081 8212.173372211537 4966.43779142784 34111.72032197635 
26506.36070679081 8212.173372211537 4966.43779142784 34111.72032197635 
26506.36070679081 8212.173372211537 4966.43779142784 34111.72032197635 
26506.36070679081 8212.173372211537 4966.43779142784 34111.72032197635 
26506.36070679081 8212.173372211537 4966.43779142784 34111.72032197635 
26506.36070679081 8212.173372211537 4966.43779142784 34111.72032197635 
26506.36070679081 8212.173372211537 4966.43779142784 34111.72032197635 
26506.36070679081 8212.173372211537 4966.43779142784 34111.72032197635 
26506.36070679081 8212.173372211537 4966.43779142784 34111.72032197635 
26506.36070679081 8212.173372211537 4966.43779142784 34111.72032197635 
26506.36070679081 8212.173372211537 4966.43779142784 34111.72032197635 
26506.36070679081 8212.173372211537 4966.43779142784 34111.72032197635 
26506.36070679081 8212.173372211537 4966.43779142784 34111.72032197635 
26506.36070679081 8212.173372211537 4966.43779142784 34111.72032197635 
26506.36070679081 8212.173372211537 4966.43779142784 34111.72032197635 
26506.36070679081 8212.173372211537 4966.43779142784 34111.72032197635 
26506.36070679081 8212.173372211537 4966.43779142784 34111.72032197635 
26506.36070679081 8212.173372211537 4966.43779142784 34111.72032197635 
26506.36070679081 8212.173372211537 4966.43779142784 34111.72032197635 
26506.36070679081 8212.173372211537 4966.43779142784 34111.72032197635 
0.02750056321057201 0 4966.43779142784 0.07092694020786133 157:1 
0 8212.173372211537 0.4437815104543773 0 30:1 
26506.36070679081 8212.173372211537 4966.43779142784 34111.72032197635 
26506.36070679081 8212.173372211537 4966.43779142784 34111.72032197635 
26506.36070679081 8212.173372211537 4966.43779142784 34111.72032197635 
26506.36070679081 8212.173372211537 4966.43779142784 34111.72032197635 
26506.36070679081 8212.173372211537 4966.43779142784 34111.72032197635 
26506.36070679081 8212.173372211537 4966.43779142784 34111.72032197635 
26506.36070679081 8212.173372211537 4966.43779142784 34111.72032197635 
26506.36070679081 8212.173372211537 4966.43779142784 34111.72032197635 
26506.36070679081 8212.173372211537 4966.43779142784 34111.72032197635 
26506.36070679081 0 4966.43779142784 34111.72032197635 85:1 
26506.36070679081 8212.173372211537 4966.43779142784 34111.72032197635 
26506.36070679081 8212.173372211537 4966.43779142784 34111.72032197635 
26506.36070679081 8212.173372211537 4966.43779142784 34111.72032197635 
26506.36070679081 8212.173372211537 4966.43779142784 34111.72032197635 
26506.36070679081 8212.173372211537 4966.43779142784 34111.72032197635 
0 0 4966.43779142784 0.07085473213722879 5:1 
26506.36070679081 8212.173372211537 4966.43779142784 34111.72032197635 
26506.36070679081 8212.173372211537 4966.43779142784 34111.72032197635 
26506.36070679081 8212.173372211537 4966.43779142784 34111.72032197635 
26506.36070679081 8212.173372211537 4966.43779142784 34111.72032197635 
26506.36070679081 8212.173372211537 4966.43779142784 34111.72032197635 
26506.36070679081 8212.173372211537 4966.43779142784 34111.72032197635 
26506.36070679081 8212.173372211537 4966.43779142784 34111.72032197635 
26506.36070679081 8212.173372211537 4966.43779142784 34111.72032197635 
26506.36070679081 8212.173372211537 4966.43779142784 34111.72032197635 
26506.36070679081 8212.173372211537 4966.43779142784 34111.72032197635 
26506.36070679081 8212.173372211537 4966.43779142784 34111.72032197635 
26506.36070679081 8212.173372211537 4966.43779142784 34111.72032197635 
26506.36070679081 8212.173372211537 4966.43779142784 34111.72032197635 
26506.36070679081 8212.173372211537 4966.43779142784 34111.72032197635 
26506.36070679081 8212.173372211537 4966.43779142784 34111.72032197635 
26506.36070679081 8212.173372211537 4966.43779142784 34111.72032197635 
26506.36070679081 8212.173372211537 4966.43779142784 34111.72032197635 
26506.36070679081 8212.173372211537 4966.43779142784 34111.72032197635 
26506.36070679081 8212.173372211537 4966.43779142784 34111.72032197635 
26506.36070679081 8212.173372211537 4966.43779142784 34111.72032197635 
26506.36070679081 8212.173372211537 4966.43779142784 34111.72032197635 
26506.36070679081 8212.173372211537 4966.43779142784 34111.72032197635 
26506.36070679081 8212.173372211537 4966.43779142784 34111.72032197635 
26506.36070679081 8212.173372211537 4966.43779142784 34111.72032197635 
26506.36070679081 8212.173372211537 4966.43779142784 34111.72032197635 
26506.36070679081 8212.173372211537 4966.43779142784 34111.72032197635 
26506.36070679081 8212.173372211537 4966.43779142784 34111.72032197635 
26506.36070679081 8212.173372211537 4966.43779142784 34111.72032197635 
26506.36070679081 8212.173372211537 4966.43779142784 34111.72032197635 
26506.36070679081 8212.173372211537 4966.43779142784 34111.72032197635 
26506.36070679081 8212.173372211537 4966.43779142784 34111.72032197635 
26506.36070679081 8212.173372211537 4966.43779142784 34111.72032197635 
2.799524465586074e-05 0 0.4428769904343244 0.07092694023058431 34:1 
26506.36070679081 8212.173372211537 4966.43779142784 34111.72032197635 
26506.36070679081 8212.173372211537 4966.43779142784 34111.72032197635 
26506.36070679081 8212.173372211537 4966.43779142784 34111.72032197635 
26506.36070679081 8212.173372211537 4966.43779142784 34111.72032197635 
26506.36070679081 8212.173372211537 4966.43779142784 34111.72032197635 
26506.36070679081 8212.173372211537 4966.43779142784 34111.72032197635 
26506.36070679081 8212.173372211537 4966.43779142784 34111.72032197635 
26506.36070679081 8212.173372211537 4966.43779142784 34111.72032197635 
0 8212.173372211537 0 0 2:1 30:1 
26506.36070679081 8212.173372211537 4966.43779142784 34111.72032197635 
26506.36070679081 8212.173372211537 4966.43779142784 34111.72032197635 
26506.36070679081 8212.173372211537 4966.43779142784 34111.72032197635 
26506.36070679081 8212.173372211537 4966.43779142784 34111.72032197635 
26506.36070679081 8212.173372211537 4966.43779142784 34111.72032197635 
26506.36070679081 8212.173372211537 4966.43779142784 34111.72032197635 
26506.36070679081 8212.173372211537 4966.43779142784 34111.72032197635 
26506.36070679081 8212.173372211537 4966.43779142784 34111.72032197635 
26506.36070679081 8212.173372211537 4966.43779142784 34111.72032197635 
26506.36070679081 8212.173372211537 4966.43779142784 34111.72032197635 
26506.36070679081 8212.173372211537 4966.43779142784 34111.72032197635 
26506.36070679081 8212.173372211537 4966.43779142784 34111.72032197635 
26506.36070679081 8212.173372211537 4966.43779142784 34111.72032197635 
26506.36070679081 8212.173372211537 4966.43779142784 34111.72032197635 
26506.36070679081 8212.173372211537 4966.43779142784 34111.72032197635 
4951.736950715217 0 829.5024685237116 7269.699376211687 38:1 70:1 
26506.36070679081 8212.173372211537 4966.43779142784 34111.72032197635 
26506.36070679081 8212.173372211537 4966.43779142784 34111.72032197635 
26506.36070679081 8212.173372211537 4966.43779142784 34111.72032197635 
26506.36070679081 8212.173372211537 4966.43779142784 34111.72032197635 
26506.36070679081 8212.173372211537 4966.43779142784 34111.72032197635 
26506.36070679081 8212.173372211537 4966.43779142784 34111.72032197635 
26506.36070679081 8212.173372211537 4966.43779142784 34111.72032197635 
26506.36070679081 8212.173372211537 4966.43779142784 34111.72032197635 
26506.36070679081 8212.173372211537 4966.43779142784 34111.72032197635 
26506.36070679081 8212.173372211537 4966.43779142784 34111.72032197635 
26506.36070679081 8212.173372211537 4966.43779142784 34111.72032197635 
0 0 4966.43779142784 0 1:1 
26506.36070679081 8212.173372211537 0.443784999740026 0.106065363643627 306:1 
26506.36070679081 8212.173372211537 4966.43779142784 34111.72032197635 
26506.36070679081 8212.173372211537 4966.43779142784 34111.72032197635 
26506.36070679081 8212.173372211537 4966.43779142784 34111.72032197635 
26506.36070679081 8212.173372211537 4966.43779142784 34111.72032197635 
26506.36070679081 8212.173372211537 4966.43779142784 34111.72032197635 
26506.36070679081 8212.173372211537 4966.43779142784 34111.72032197635 
26506.36070679081 8212.173372211537 4966.43779142784 34111.72032197635 
26506.36070679081 8212.173372211537 4966.43779142784 34111.72032197635 
26506.36070679081 8212.173372211537 4966.43779142784 34111.72032197635 
26506.36070679081 8212.173372211537 4966.43779142784 34111.72032197635 
26506.36070679081 8212.173372211537 4966.43779142784 34111.72032197635 
26506.36070679081 8212.173372211537 4966.43779142784 34111.72032197635 
26506.36070679081 8212.173372211537 4966.43779142784 34111.72032197635 
26506.36070679081 8212.173372211537 4966.43779142784 34111.72032197635 
26506.36070679081 8212.173372211537 4966.43779142784 34111.72032197635 
26506.36070679081 8212.173372211537 4966.43779142784 34111.72032197635 
26506.36070679081 8212.173372211537 4966.43779142784 34111.72032197635 
26506.36070679081 8212.173372211537 4966.43779142784 34111.72032197635 
26506.36070679081 8212.173372211537 4966.43779142784 34111.72032197635 
26506.36070679081 8212.173372211537 4966.43779142784 34111.72032197635 
26506.36070679081 8212.173372211537 4966.43779142784 34111.72032197635 
26506.36070679081 8212.173372211537 4966.43779142784 34111.72032197635 
26506.36070679081 8212.173372211537 4966.43779142784 34111.72032197635 
26506.36070679081 8212.173372211537 4966.43779142784 34111.72032197635 
26506.36070679081 8212.173372211537 4966.43779142784 34111.72032197635 
26506.36070679081 8212.173372211537 4966.43779142784 34111.72032197635 
0 0 0.4385504583111431 0.07092694024952012 33:1 
26506.36070679081 8212.173372211537 4966.43779142784 34111.72032197635 
26506.36070679081 8212.173372211537 4966.43779142784 34111.72032197635 
26506.36070679081 8212.173372211537 4966.43779142784 34111.72032197635 
26506.36070679081 8212.173372211537 4966.43779142784 34111.72032197635 
26506.36070679081 8212.173372211537 4966.43779142784 34111.72032197635 
26506.36070679081 8212.173372211537 4966.43779142784 34111.72032197635 
26506.36070679081 8212.173372211537 4966.43779142784 34111.72032197635 
26506.36070679081 0 4966.43779142784 0.1763789718919235 82:1 
26506.36070679081 8212.173372211537 4966.43779142784 34111.72032197635 
2.799450307096746e-05 0 3.803467220167203 0.07092694027981741 44:1 
26506.36070679081 8212.173372211537 4966.43779142784 34111.72032197635 
26506.36070679081 8212.173372211537 4966.43779142784 34111.72032197635 
26506.36070679081 8212.173372211537 4966.43779142784 34111.72032197635 
26506.36070679081 8212.173372211537 4966.43779142784 34111.72032197635 
26506.36070679081 8212.173372211537 4966.43779142784 34111.72032197635 
26506.36070679081 8212.173372211537 4966.43779142784 34111.72032197635 
0.02750056552361061 8212.173372211537 0 0.1062097417504269 78:1 
26506.36070679081 8212.173372211537 4966.43779142784 34111.72032197635 
26506.36070679081 8212.173372211537 4966.43779142784 34111.72032197635 
26506.36070679081 8212.173372211537 4966.43779142784 34111.72032197635 
26506.36070679081 8212.173372211537 4966.43779142784 34111.72032197635 
26506.36070679081 0 4966.43779142784 0.07092694029496606 83:1 
26506.36070679081 8212.173372211537 4966.43779142784 34111.72032197635 
26506.36070679081 8212.173372211537 4966.43779142784 34111.72032197635 
26506.36070679081 8212.173372211537 4966.43779142784 34111.72032197635 
26506.36070679081 8212.173372211537 4966.43779142784 34111.72032197635 
26506.36070679081 8212.173372211537 4966.43779142784 34111.72032197635 
26506.36070679081 8212.173372211537 4966.43779142784 34111.72032197635 
26506.36070679081 8212.173372211537 4966.43779142784 34111.72032197635 
26506.36070679081 8212.173372211537 821.7770487640985 34111.72032197635 415:1 
26506.36070679081 8212.173372211537 4966.43779142784 34111.72032197635 
26506.36070679081 8212.173372211537 4966.43779142784 34111.72032197635 
26506.36070679081 8212.173372211537 4966.43779142784 34111.72032197635 
26506.36070679081 8212.173372211537 4966.43779142784 34111.72032197635 
26506.36070679081 8212.173372211537 4966.43779142784 34111.72032197635 
26506.36070679081 8212.173372211537 4966.43779142784 34111.72032197635 
2.79952034567e-05 8212.173372211537 0 0.1062097783760679 348:1 
26506.36070679081 8212.173372211537 4966.43779142784 34111.72032197635 
26506.36070679081 8212.173372211537 4966.43779142784 34111.72032197635 
26506.36070679081 8212.173372211537 4966.43779142784 34111.72032197635 
26506.36070679081 8212.173372211537 4966.43779142784 34111.72032197635 
26506.36070679081 8212.173372211537 4966.43779142784 34111.72032197635 
26506.36070679081 8212.173372211537 0 34111.72032197635 350:1 
26506.36070679081 8212.173372211537 4966.43779142784 34111.72032197635 
26506.36070679081 8212.173372211537 4966.43779142784 34111.72032197635 
26506.36070679081 8212.173372211537 4966.43779142784 34111.72032197635 
26506.36070679081 8212.173372211537 4966.43779142784 34111.72032197635 
26506.36070679081 8212.173372211537 4966.43779142784 34111.72032197635 
26506.36070679081 8212.173372211537 4966.43779142784 34111.72032197635 
26506.36070679081 8212.173372211537 4966.43779142784 34111.72032197635 
26506.36070679081 8212.173372211537 4966.43779142784 34111.72032197635 
26506.36070679081 8212.173372211537 4966.43779142784 34111.72032197635 
26506.36070679081 8212.173372211537 4966.43779142784 34111.72032197635 
26506.36070679081 8212.173372211537 4966.43779142784 34111.72032197635 
26506.36070679081 8212.173372211537 4966.43779142784 34111.72032197635 
0 8212.173372211537 0 34111.72032197635 2:1 
26506.36070679081 8212.173372211537 4966.43779142784 34111.72032197635 
26506.36070679081 8212.173372211537 4966.43779142784 34111.72032197635 
26506.36070679081 8212.173372211537 4966.43779142784 34111.72032197635 
2.799518874271403e-05 8212.173372211537 0 0.07092694031011471 298:1 
26506.36070679081 8212.173372211537 4966.43779142784 34111.72032197635 
26506.36070679081 8212.173372211537 4966.43779142784 34111.72032197635 
26506.36070679081 8212.173372211537 4966.43779142784 34111.72032197635 
26506.36070679081 8212.173372211537 4966.43779142784 34111.72032197635 
26506.36070679081 8212.173372211537 4966.43779142784 34111.72032197635 
26506.36070679081 8212.173372211537 4966.43779142784 34111.72032197635 
26506.36070679081 8212.173372211537 4966.43779142784 34111.72032197635 
26506.36070679081 8212.173372211537 4966.43779142784 34111.72032197635 
26506.36070679081 8212.173372211537 4966.43779142784 34111.72032197635 
26506.36070679081 8212.173372211537 4966.43779142784 34111.72032197635 
26506.36070679081 8212.173372211537 4966.43779142784 34111.72032197635 
26506.36070679081 8212.173372211537 4966.43779142784 34111.72032197635 
26506.36070679081 8212.173372211537 4966.43779142784 34111.72032197635 
26506.36070679081 8212.173372211537 4966.43779142784 34111.72032197635 
26506.36070679081 8212.173372211537 4966.43779142784 34111.72032197635 
26506.36070679081 8212.173372211537 4966.43779142784 34111.72032197635 
26506.36070679081 8212.173372211537 4966.43779142784 34111.72032197635 
26506.36070679081 8212.173372211537 4966.43779142784 34111.72032197635 
26506.36070679081 8212.173372211537 4966.43779142784 34111.72032197635 
26506.36070679081 0 4966.43779142784 34111.72032197635 79:1 
26506.36070679081 8212.173372211537 4966.43779142784 34111.72032197635 
0.02750056454071635 0 0 0.1060294808088531 91:1 
26506.36070679081 8212.173372211537 4966.43779142784 34111.72032197635 
26506.36070679081 8212.173372211537 4966.43779142784 34111.72032197635 
26506.36070679081 8212.173372211537 4966.43779142784 34111.72032197635 
26506.36070679081 8212.173372211537 4966.43779142784 34111.72032197635 
0 0 4966.43779142784 0 1:1 
26506.36070679081 8212.173372211537 4966.43779142784 34111.72032197635 
26506.36070679081 8212.173372211537 0 0.07092694033662483 442:1 
26506.36070679081 8212.173372211537 4966.43779142784 34111.72032197635 
26506.36070679081 8212.173372211537 4966.43779142784 34111.72032197635 
26506.36070679081 8212.173372211537 4966.43779142784 34111.72032197635 
26506.36070679081 8212.173372211537 4966.43779142784 34111.72032197635 
26506.36070679081 8212.173372211537 4966.43779142784 34111.72032197635 
26506.36070679081 8212.173372211537 4966.43779142784 34111.72032197635 
26506.36070679081 8212.173372211537 4966.43779142784 34111.72032197635 
26506.36070679081 8212.173372211537 4966.43779142784 34111.72032197635 
26506.36070679081 8212.173372211537 4966.43779142784 34111.72032197635 
26506.36070679081 8212.173372211537 4966.43779142784 34111.72032197635 
26506.36070679081 8212.173372211537 4966.43779142784 34111.72032197635 
26506.36070679081 8212.173372211537 4966.43779142784 34111.72032197635 
26506.36070679081 8212.173372211537 4966.43779142784 34111.72032197635 
26506.36070679081 8212.173372211537 4966.43779142784 34111.72032197635 
26506.36070679081 8212.173372211537 4966.43779142784 34111.72032197635 
26506.36070679081 8212.173372211537 4966.43779142784 34111.72032197635 
26506.36070679081 8212.173372211537 4966.43779142784 34111.72032197635 
26506.36070679081 8212.173372211537 4966.43779142784 34111.72032197635 
26506.36070679081 8212.173372211537 4966.43779142784 34111.72032197635 
26506.36070679081 8212.173372211537 4966.43779142784 34111.72032197635 
26506.36070679081 0 0 0 23:1 
26506.36070679081 8212.173372211537 4966.43779142784 34111.72032197635 
26506.36070679081 8212.173372211537 4966.43779142784 34111.72032197635 
26506.36070679081 8212.173372211537 4966.43779142784 34111.72032197635 
26506.36070679081 8212.173372211537 4966.43779142784 34111.72032197635 
26506.36070679081 8212.173372211537 4966.43779142784 34111.72032197635 
26506.36070679081 8212.173372211537 4966.43779142784 34111.72032197635 
2.799517108593085e-05 0 4966.43779142784 0.1062098523393366 16:1 
26506.36070679081 0 4966.43779142784 34111.72032197635 42:1 
26506.36070679081 8212.173372211537 4966.43779142784 34111.72032197635 
26506.36070679081 8212.173372211537 4966.43779142784 34111.72032197635 
26506.36070679081 8212.173372211537 4966.43779142784 34111.72032197635 
26506.36070679081 8212.173372211537 4966.43779142784 34111.72032197635 
26506.36070679081 8212.173372211537 4966.43779142784 34111.72032197635 
26506.36070679081 8212.173372211537 4966.43779142784 34111.72032197635 
26506.36070679081 8212.173372211537 4966.43779142784 34111.72032197635 
26506.36070679081 8212.173372211537 4966.43779142784 34111.72032197635 
26506.36070679081 8212.173372211537 4966.43779142784 34111.72032197635 
26506.36070679081 8212.173372211537 4966.43779142784 34111.72032197635 
26506.36070679081 8212.173372211537 4966.43779142784 34111.72032197635 
26506.36070679081 8212.173372211537 4966.43779142784 34111.72032197635 
26506.36070679081 8212.173372211537 4966.43779142784 34111.72032197635 
26506.36070679081 8212.173372211537 4966.43779142784 34111.72032197635 
26506.36070679081 8212.173372211537 4966.43779142784 34111.72032197635 
26506.36070679081 8212.173372211537 4966.43779142784 34111.72032197635 
26506.36070679081 0 0 0 23:1 
26506.36070679081 8212.173372211537 4966.43779142784 34111.72032197635 
26506.36070679081 8212.173372211537 4966.43779142784 34111.72032197635 
0 8212.173372211537 0 5808.064829578764 30:1 350:1 
26506.36070679081 8212.173372211537 4966.43779142784 34111.72032197635 
26506.36070679081 8212.173372211537 4966.43779142784 34111.72032197635 
26506.36070679081 8212.173372211537 4966.43779142784 34111.72032197635 
26506.36070679081 8212.173372211537 4966.43779142784 34111.72032197635 
26506.36070679081 8212.173372211537 4966.43779142784 34111.72032197635 
26506.36070679081 8212.173372211537 4966.43779142784 34111.72032197635 
26506.36070679081 8212.173372211537 4966.43779142784 34111.72032197635 
26506.36070679081 8212.173372211537 4966.43779142784 34111.72032197635 
26506.36070679081 8212.173372211537 0 0.07092694036692213 399:1 
26506.36070679081 8212.173372211537 4966.43779142784 34111.72032197635 
26506.36070679081 8212.173372211537 4966.43779142784 34111.72032197635 
0 8212.173372211537 0 0 30:1 350:1 
26506.36070679081 8212.173372211537 4966.43779142784 34111.72032197635 
26506.36070679081 8212.173372211537 4966.43779142784 34111.72032197635 
26506.36070679081 8212.173372211537 4966.43779142784 34111.72032197635 
26506.36070679081 8212.173372211537 4966.43779142784 34111.72032197635 
26506.36070679081 8212.173372211537 4966.43779142784 34111.72032197635 
26506.36070679081 8212.173372211537 4966.43779142784 34111.72032197635 
26506.36070679081 8212.173372211537 4966.43779142784 34111.72032197635 
26506.36070679081 8212.173372211537 4966.43779142784 34111.72032197635 
26506.36070679081 8212.173372211537 4966.43779142784 34111.72032197635 
26506.36070679081 8212.173372211537 4966.43779142784 34111.72032197635 
26506.36070679081 8212.173372211537 4966.43779142784 34111.72032197635 
26506.36070679081 0 0 0 399:1 
26506.36070679081 8212.173372211537 4966.43779142784 34111.72032197635 
26506.36070679081 8212.173372211537 4966.43779142784 34111.72032197635 
0 0 0 0.1755515158948081 36:1 
26506.36070679081 8212.173372211537 4966.43779142784 34111.72032197635 
26506.36070679081 8212.173372211537 4966.43779142784 34111.72032197635 
26506.36070679081 8212.173372211537 4966.43779142784 34111.72032197635 
26506.36070679081 8212.173372211537 4966.43779142784 34111.72032197635 
26506.36070679081 8212.173372211537 4966.43779142784 34111.72032197635 
26506.36070679081 8212.173372211537 4966.43779142784 34111.72032197635 
26506.36070679081 8212.173372211537 4966.43779142784 34111.72032197635 
26506.36070679081 8212.173372211537 4966.43779142784 34111.72032197635 
26506.36070679081 8212.173372211537 4966.43779142784 34111.72032197635 
2.799514754355329e-05 0 0 0.07092694039343227 59:1 
26506.36070679081 8212.173372211537 4966.43779142784 34111.72032197635 
26506.36070679081 8212.173372211537 4966.43779142784 34111.72032197635 
26506.36070679081 8212.173372211537 4966.43779142784 34111.72032197635 
26506.36070679081 8212.173372211537 4966.43779142784 34111.72032197635 
26506.36070679081 8212.173372211537 4966.43779142784 34111.72032197635 
26506.36070679081 8212.173372211537 4966.43779142784 34111.72032197635 
26506.36070679081 8212.173372211537 4966.43779142784 34111.72032197635 
26506.36070679081 8212.173372211537 4966.43779142784 34111.72032197635 
26506.36070679081 8212.173372211537 4966.43779142784 34111.72032197635 
0.02750056424937943 0 4966.43779142784 0.106209851858367 19:1 
2.799509163040657e-05 0 4966.43779142784 0.07092694042372956 76:1 
26506.36070679081 8212.173372211537 4966.43779142784 34111.72032197635 
26506.36070679081 8212.173372211537 4966.43779142784 34111.72032197635 
26506.36070679081 8212.173372211537 4966.43779142784 34111.72032197635 
26506.36070679081 8212.173372211537 4966.43779142784 34111.72032197635 
26506.36070679081 0 4966.43779142784 0.1762713194072948 41:1 
26506.36070679081 8212.173372211537 4966.43779142784 34111.72032197635 
26506.36070679081 8212.173372211537 4966.43779142784 34111.72032197635 
26506.36070679081 8212.173372211537 4966.43779142784 34111.72032197635 
26506.36070679081 8212.173372211537 4966.43779142784 34111.72032197635 
26506.36070679081 8212.173372211537 4966.43779142784 34111.72032197635 
0 0 0 0.07092694045402685 35:1 
26506.36070679081 8212.173372211537 4966.43779142784 34111.72032197635 
26506.36070679081 8212.173372211537 4966.43779142784 34111.72032197635 
26506.36070679081 8212.173372211537 4966.43779142784 34111.72032197635 
26506.36070679081 8212.173372211537 4966.43779142784 34111.72032197635 
26506.36070679081 8212.173372211537 4966.43779142784 34111.72032197635 
26506.36070679081 8212.173372211537 4966.43779142784 34111.72032197635 
26506.36070679081 8212.173372211537 4966.43779142784 34111.72032197635 
26506.36070679081 8212.173372211537 4966.43779142784 34111.72032197635 
26506.36070679081 8212.173372211537 4966.43779142784 34111.72032197635 
26506.36070679081 8212.173372211537 4966.43779142784 34111.72032197635 
26506.36070679081 8212.173372211537 4966.43779142784 34111.72032197635 
26506.36070679081 8212.173372211537 4966.43779142784 34111.72032197635 
26506.36070679081 8212.173372211537 4966.43779142784 34111.72032197635 
26506.36070679081 8212.173372211537 4966.43779142784 34111.72032197635 
26506.36070679081 8212.173372211537 4966.43779142784 34111.72032197635 
26506.36070679081 8212.173372211537 4966.43779142784 34111.72032197635 
26506.36070679081 8212.173372211537 4966.43779142784 34111.72032197635 
26506.36070679081 8212.173372211537 4966.43779142784 34111.72032197635 
26506.36070679081 8212.173372211537 4966.43779142784 34111.72032197635 
26506.36070679081 8212.173372211537 4966.43779142784 34111.72032197635 
26506.36070679081 8212.173372211537 4966.43779142784 34111.72032197635 
26506.36070679081 8212.173372211537 4966.43779142784 34111.72032197635 
26506.36070679081 8212.173372211537 4966.43779142784 34111.72032197635 
26506.36070679081 8212.173372211537 4966.43779142784 34111.72032197635 
26506.36070679081 8212.173372211537 4966.43779142784 34111.72032197635 
26506.36070679081 8212.173372211537 4966.43779142784 34111.72032197635 
26506.36070679081 8212.173372211537 4966.43779142784 34111.72032197635 
26506.36070679081 8212.173372211537 4966.43779142784 34111.72032197635 
26506.36070679081 8212.173372211537 4966.43779142784 34111.72032197635 
26506.36070679081 8212.173372211537 4966.43779142784 34111.72032197635 
26506.36070679081 8212.173372211537 4966.43779142784 34111.72032197635 
26506.36070679081 8212.173372211537 4966.43779142784 34111.72032197635 
0 0 4966.43779142784 0.1062098504571172 27:1 
26506.36070679081 8212.173372211537 4966.43779142784 34111.72032197635 
26506.36070679081 8212.173372211537 4966.43779142784 34111.72032197635 
26506.36070679081 8212.173372211537 4966.43779142784 34111.72032197635 
26506.36070679081 8212.173372211537 4966.43779142784 34111.72032197635 
26506.36070679081 8212.173372211537 4966.43779142784 34111.72032197635 
26506.36070679081 8212.173372211537 4966.43779142784 34111.72032197635 
26506.36070679081 8212.173372211537 4966.43779142784 34111.72032197635 
26506.36070679081 8212.173372211537 4966.43779142784 34111.72032197635 
26506.36070679081 8212.173372211537 4966.43779142784 34111.72032197635 
26506.36070679081 8212.173372211537 4966.43779142784 34111.72032197635 
26506.36070679081 8212.173372211537 4966.43779142784 34111.72032197635 
26506.36070679081 8212.173372211537 4966.43779142784 34111.72032197635 
26506.36070679081 8212.173372211537 4966.43779142784 34111.72032197635 
26506.36070679081 8212.173372211537 4966.43779142784 34111.72032197635 
26506.36070679081 8212.173372211537 4966.43779142784 34111.72032197635 
26506.36070679081 8212.173372211537 4966.43779142784 34111.72032197635 
26506.36070679081 8212.173372211537 4966.43779142784 34111.72032197635 
26506.36070679081 8212.173372211537 4966.43779142784 34111.72032197635 
26506.36070679081 8212.173372211537 4966.43779142784 34111.72032197635 
26506.36070679081 8212.173372211537 4966.43779142784 34111.72032197635 
26506.36070679081 8212.173372211537 4966.43779142784 34111.72032197635 
26506.36070679081 8212.173372211537 4966.43779142784 34111.72032197635 
26506.36070679081 8212.173372211537 4966.43779142784 34111.72032197635 
26506.36070679081 8212.173372211537 4966.43779142784 34111.72032197635 
26506.36070679081 8212.173372211537 4966.43779142784 34111.72032197635 
26506.36070679081 8212.173372211537 4966.43779142784 34111.72032197635 
26506.36070679081 8212.173372211537 4966.43779142784 34111.72032197635 
26506.36070679081 8212.173372211537 4966.43779142784 34111.72032197635 
26506.36070679081 8212.173372211537 4966.43779142784 34111.72032197635 
26506.36070679081 8212.173372211537 4966.43779142784 34111.72032197635 
26506.36070679081 8212.173372211537 4966.43779142784 34111.72032197635 
26506.36070679081 8212.173372211537 4966.43779142784 34111.72032197635 
0 8212.173372211537 0 0 306:1 
26506.36070679081 8212.173372211537 4966.43779142784 34111.72032197635 
26506.36070679081 8212.173372211537 4966.43779142784 34111.72032197635 
26506.36070679081 8212.173372211537 4966.43779142784 34111.72032197635 
26506.36070679081 8212.173372211537 4966.43779142784 34111.72032197635 
26506.36070679081 8212.173372211537 4966.43779142784 34111.72032197635 
0 0 4966.43779142784 0 83:1 
26506.36070679081 8212.173372211537 4966.43779142784 34111.72032197635 
26506.36070679081 8212.173372211537 4966.43779142784 34111.72032197635 
26506.36070679081 8212.173372211537 4966.43779142784 34111.72032197635 
26506.36070679081 8212.173372211537 4966.43779142784 34111.72032197635 
26506.36070679081 8212.173372211537 4966.43779142784 34111.72032197635 
26506.36070679081 8212.173372211537 4966.43779142784 34111.72032197635 
26506.36070679081 8212.173372211537 4966.43779142784 34111.72032197635 
26506.36070679081 8212.173372211537 4966.43779142784 34111.72032197635 
26506.36070679081 8212.173372211537 4966.43779142784 34111.72032197635 
26506.36070679081 8212.173372211537 4966.43779142784 34111.72032197635 
26506.36070679081 8212.173372211537 4966.43779142784 34111.72032197635 
26506.36070679081 8212.173372211537 4966.43779142784 34111.72032197635 
0 0 4966.43779142784 0.07092694048053698 22:1 
26506.36070679081 8212.173372211537 4966.43779142784 34111.72032197635 
26506.36070679081 8212.173372211537 4966.43779142784 34111.72032197635 
26506.36070679081 8212.173372211537 4966.43779142784 34111.72032197635 
26506.36070679081 0 4966.43779142784 0.1755861506477106 81:1 
26506.36070679081 8212.173372211537 4966.43779142784 34111.72032197635 
26506.36070679081 8212.173372211537 4966.43779142784 34111.72032197635 
26506.36070679081 8212.173372211537 4966.43779142784 34111.72032197635 
26506.36070679081 8212.173372211537 0 34111.72032197635 350:1 
26506.36070679081 8212.173372211537 4966.43779142784 34111.72032197635 
0 8212.173372211537 0 34111.72032197635 351:1 
26506.36070679081 8212.173372211537 4966.43779142784 34111.72032197635 
26506.36070679081 8212.173372211537 4966.43779142784 34111.72032197635 
26506.36070679081 0 4966.43779142784 0.07092694051083427 133:1 
26506.36070679081 8212.173372211537 4966.43779142784 34111.72032197635 
26506.36070679081 8212.173372211537 4966.43779142784 34111.72032197635 
26506.36070679081 8212.173372211537 4966.43779142784 34111.72032197635 
26506.36070679081 8212.173372211537 4966.43779142784 34111.72032197635 
26506.36070679081 8212.173372211537 4966.43779142784 34111.72032197635 
26506.36070679081 8212.173372211537 4966.43779142784 34111.72032197635 
26506.36070679081 8212.173372211537 4966.43779142784 34111.72032197635 
26506.36070679081 8212.173372211537 4966.43779142784 34111.72032197635 
26506.36070679081 8212.173372211537 4966.43779142784 34111.72032197635 
26506.36070679081 8212.173372211537 4966.43779142784 34111.72032197635 
26506.36070679081 8212.173372211537 4966.43779142784 34111.72032197635 
26506.36070679081 8212.173372211537 4966.43779142784 34111.72032197635 
26506.36070679081 8212.173372211537 4966.43779142784 34111.72032197635 
26506.36070679081 8212.173372211537 4966.43779142784 34111.72032197635 
26506.36070679081 8212.173372211537 4966.43779142784 34111.72032197635 
26506.36070679081 8212.173372211537 4966.43779142784 34111.72032197635 
26506.36070679081 8212.173372211537 4966.43779142784 34111.72032197635 
26506.36070679081 8212.173372211537 4966.43779142784 34111.72032197635 
26506.36070679081 8212.173372211537 4966.43779142784 34111.72032197635 
26506.36070679081 8212.173372211537 4966.43779142784 34111.72032197635 
26506.36070679081 8212.173372211537 4966.43779142784 34111.72032197635 
26506.36070679081 8212.173372211537 4966.43779142784 34111.72032197635 
26506.36070679081 0 0 34111.72032197635 79:1 
26506.36070679081 8212.173372211537 4966.43779142784 34111.72032197635 
26506.36070679081 0 4966.43779142784 0 42:1 
26506.36070679081 8212.173372211537 4966.43779142784 34111.72032197635 
26506.36070679081 8212.173372211537 4966.43779142784 34111.72032197635 
26506.36070679081 8212.173372211537 4966.43779142784 34111.72032197635 
26506.36070679081 8212.173372211537 4966.43779142784 34111.72032197635 
26506.36070679081 8212.173372211537 4966.43779142784 34111.72032197635 
26506.36070679081 8212.173372211537 4966.43779142784 34111.72032197635 
26506.36070679081 8212.173372211537 4966.43779142784 34111.72032197635 
26506.36070679081 8212.173372211537 4966.43779142784 34111.72032197635 
26506.36070679081 8212.173372211537 4966.43779142784 34111.72032197635 
26506.36070679081 8212.173372211537 4966.43779142784 34111.72032197635 
26506.36070679081 8212.173372211537 4966.43779142784 34111.72032197635 
26506.36070679081 8212.173372211537 4966.43779142784 34111.72032197635 
26506.36070679081 8212.173372211537 4966.43779142784 34111.72032197635 
26506.36070679081 8212.173372211537 4966.43779142784 34111.72032197635 
27.06779655912019 0 0 34.79889187180544 55:1 56:1 
26506.36070679081 8212.173372211537 4966.43779142784 34111.72032197635 
26506.36070679081 8212.173372211537 4966.43779142784 34111.72032197635 
26506.36070679081 8212.173372211537 4966.43779142784 34111.72032197635 
26506.36070679081 8212.173372211537 4966.43779142784 34111.72032197635 
0 0 4966.43779142784 0 1:1 
26506.36070679081 8212.173372211537 4966.43779142784 34111.72032197635 
26506.36070679081 8212.173372211537 4966.43779142784 34111.72032197635 
26506.36070679081 8212.173372211537 4966.43779142784 34111.72032197635 
26506.36070679081 8212.173372211537 4966.43779142784 34111.72032197635 
26506.36070679081 8212.173372211537 4966.43779142784 34111.72032197635 
26506.36070679081 8212.173372211537 4966.43779142784 34111.72032197635 
26506.36070679081 8212.173372211537 4966.43779142784 34111.72032197635 
26506.36070679081 8212.173372211537 4966.43779142784 34111.72032197635 
26506.36070679081 8212.173372211537 4966.43779142784 34111.72032197635 
0 0 0 0.1062098508850665 6:1 
26506.36070679081 8212.173372211537 4966.43779142784 34111.72032197635 
26506.36070679081 8212.173372211537 4966.43779142784 34111.72032197635 
26506.36070679081 8212.173372211537 4966.43779142784 34111.72032197635 
26506.36070679081 8212.173372211537 4966.43779142784 34111.72032197635 
26506.36070679081 8212.173372211537 4966.43779142784 34111.72032197635 
0 0 0 0.07092694053355725 52:1 
26506.36070679081 8212.173372211537 4966.43779142784 34111.72032197635 
0 0 4966.43779142784 0 1:1 
26506.36070679081 8212.173372211537 4966.43779142784 34111.72032197635 
26506.36070679081 8212.173372211537 4966.43779142784 34111.72032197635 
26506.36070679081 8212.173372211537 4966.43779142784 34111.72032197635 
26506.36070679081 8212.173372211537 4966.43779142784 34111.72032197635 
26506.36070679081 8212.173372211537 4966.43779142784 34111.72032197635 
26506.36070679081 8212.173372211537 4966.43779142784 34111.72032197635 
0 0 4966.43779142784 34111.72032197635 84:1 
26506.36070679081 8212.173372211537 4966.43779142784 34111.72032197635 
26506.36070679081 8212.173372211537 0 34111.72032197635 415:1 
26506.36070679081 8212.173372211537 4966.43779142784 34111.72032197635 
26506.36070679081 8212.173372211537 4966.43779142784 34111.72032197635 
26506.36070679081 8212.173372211537 4966.43779142784 34111.72032197635 
26506.36070679081 8212.173372211537 4966.43779142784 34111.72032197635 
26506.36070679081 8212.173372211537 4966.43779142784 34111.72032197635 
26506.36070679081 8212.173372211537 0 0.1060295906782021 457:1 
26506.36070679081 8212.173372211537 4966.43779142784 34111.72032197635 
26506.36070679081 8212.173372211537 4966.43779142784 34111.72032197635 
26506.36070679081 8212.173372211537 4966.43779142784 34111.72032197635 
26506.36070679081 8212.173372211537 4966.43779142784 34111.72032197635 
26506.36070679081 8212.173372211537 4966.43779142784 34111.72032197635 
26506.36070679081 8212.173372211537 4966.43779142784 34111.72032197635 
26506.36070679081 8212.173372211537 4966.43779142784 34111.72032197635 
26506.36070679081 8212.173372211537 4966.43779142784 34111.72032197635 
26506.36070679081 8212.173372211537 4966.43779142784 34111.72032197635 
26506.36070679081 8212.173372211537 4966.43779142784 34111.72032197635 
26506.36070679081 8212.173372211537 4966.43779142784 34111.72032197635 
26506.36070679081 8212.173372211537 4966.43779142784 34111.72032197635 
26506.36070679081 8212.173372211537 4966.43779142784 34111.72032197635 
26506.36070679081 8212.173372211537 4966.43779142784 34111.72032197635 
0 0 1774.128631969149 0 27:1 
26506.36070679081 8212.173372211537 4966.43779142784 34111.72032197635 
26506.36070679081 8212.173372211537 4966.43779142784 34111.72032197635 
26506.36070679081 8212.173372211537 4966.43779142784 34111.72032197635 
26506.36070679081 8212.173372211537 4966.43779142784 34111.72032197635 
26506.36070679081 8212.173372211537 4966.43779142784 34111.72032197635 
26506.36070679081 8212.173372211537 4966.43779142784 34111.72032197635 
0 0 4966.43779142784 34111.72032197635 66:1 
26506.36070679081 8212.173372211537 4966.43779142784 34111.72032197635 
26506.36070679081 8212.173372211537 4966.43779142784 34111.72032197635 
26506.36070679081 8212.173372211537 4966.43779142784 34111.72032197635 
26506.36070679081 8212.173372211537 4966.43779142784 34111.72032197635 
26506.36070679081 8212.173372211537 4966.43779142784 34111.72032197635 
26506.36070679081 8212.173372211537 4966.43779142784 34111.72032197635 
26506.36070679081 8212.173372211537 4966.43779142784 34111.72032197635 
0 8212.173372211537 0 34111.72032197635 2:1 
26506.36070679081 8212.173372211537 4966.43779142784 34111.72032197635 
26506.36070679081 8212.173372211537 4966.43779142784 34111.72032197635 
26506.36070679081 8212.173372211537 4966.43779142784 34111.72032197635 
26506.36070679081 8212.173372211537 4966.43779142784 34111.72032197635 
26506.36070679081 8212.173372211537 4966.43779142784 34111.72032197635 
26506.36070679081 8212.173372211537 4966.43779142784 34111.72032197635 
26506.36070679081 8212.173372211537 4966.43779142784 34111.72032197635 
26506.36070679081 8212.173372211537 4966.43779142784 34111.72032197635 
26506.36070679081 8212.173372211537 4966.43779142784 34111.72032197635 
26506.36070679081 8212.173372211537 4966.43779142784 34111.72032197635 
26506.36070679081 8212.173372211537 4966.43779142784 34111.72032197635 
26506.36070679081 8212.173372211537 4966.43779142784 34111.72032197635 
26506.36070679081 8212.173372211537 0 0.07092694055249306 24:1 
26506.36070679081 8212.173372211537 4966.43779142784 34111.72032197635 
26506.36070679081 8212.173372211537 4966.43779142784 34111.72032197635 
26506.36070679081 8212.173372211537 4966.43779142784 34111.72032197635 
26506.36070679081 8212.173372211537 4966.43779142784 34111.72032197635 
26506.36070679081 8212.173372211537 4966.43779142784 34111.72032197635 
26506.36070679081 8212.173372211537 4966.43779142784 34111.72032197635 
26506.36070679081 8212.173372211537 4966.43779142784 34111.72032197635 
26506.36070679081 8212.173372211537 0 34111.72032197635 415:1 
26506.36070679081 8212.173372211537 4966.43779142784 34111.72032197635 
26506.36070679081 8212.173372211537 4966.43779142784 34111.72032197635 
26506.36070679081 8212.173372211537 4966.43779142784 34111.72032197635 
0 0 0 0.1062098504003098 37:1 
26506.36070679081 8212.173372211537 4966.43779142784 34111.72032197635 
26506.36070679081 8212.173372211537 4966.43779142784 34111.72032197635 
0 8212.173372211537 0 34111.72032197635 2:1 
26506.36070679081 8212.173372211537 4966.43779142784 34111.72032197635 
26506.36070679081 8212.173372211537 4966.43779142784 34111.72032197635 
26506.36070679081 8212.173372211537 4966.43779142784 34111.72032197635 
26506.36070679081 8212.173372211537 4966.43779142784 34111.72032197635 
26506.36070679081 8212.173372211537 4966.43779142784 34111.72032197635 
26506.36070679081 8212.173372211537 4966.43779142784 34111.72032197635 
26506.36070679081 8212.173372211537 4966.43779142784 34111.72032197635 
0 8212.173372211537 0 0 30:1 350:1 
26506.36070679081 8212.173372211537 4966.43779142784 34111.72032197635 
26506.36070679081 8212.173372211537 4966.43779142784 34111.72032197635 
26506.36070679081 8212.173372211537 4966.43779142784 34111.72032197635 
26506.36070679081 8212.173372211537 4966.43779142784 34111.72032197635 
26506.36070679081 8212.173372211537 4966.43779142784 34111.72032197635 
26506.36070679081 8212.173372211537 4966.43779142784 34111.72032197635 
26506.36070679081 8212.173372211537 4966.43779142784 34111.72032197635 
26506.36070679081 8212.173372211537 4966.43779142784 34111.72032197635 
26506.36070679081 8212.173372211537 4966.43779142784 34111.72032197635 
26506.36070679081 8212.173372211537 4966.43779142784 34111.72032197635 
26506.36070679081 8212.173372211537 4966.43779142784 34111.72032197635 
26506.36070679081 8212.173372211537 4966.43779142784 34111.72032197635 
26506.36070679081 8212.173372211537 4966.43779142784 34111.72032197635 
26506.36070679081 8212.173372211537 4966.43779142784 34111.72032197635 
26506.36070679081 8212.173372211537 4966.43779142784 34111.72032197635 
26506.36070679081 8212.173372211537 4966.43779142784 34111.72032197635 
26506.36070679081 8212.173372211537 4966.43779142784 34111.72032197635 
26506.36070679081 8212.173372211537 4966.43779142784 34111.72032197635 
26506.36070679081 0 0 34111.72032197635 79:1 
0 8212.173372211537 0 0 306:1 
26506.36070679081 8212.173372211537 4966.43779142784 34111.72032197635 
26506.36070679081 0 4966.43779142784 0 41:1 
26506.36070679081 8212.173372211537 4966.43779142784 34111.72032197635 
26506.36070679081 8212.173372211537 4966.43779142784 34111.72032197635 
26506.36070679081 8212.173372211537 4966.43779142784 34111.72032197635 
26506.36070679081 8212.173372211537 4966.43779142784 34111.72032197635 
26506.36070679081 8212.173372211537 4966.43779142784 34111.72032197635 
26506.36070679081 8212.173372211537 4966.43779142784 34111.72032197635 
26506.36070679081 8212.173372211537 4966.43779142784 34111.72032197635 
26506.36070679081 8212.173372211537 4966.43779142784 34111.72032197635 
26506.36070679081 8212.173372211537 4966.43779142784 34111.72032197635 
26506.36070679081 8212.173372211537 4966.43779142784 34111.72032197635 
26506.36070679081 8212.173372211537 4966.43779142784 34111.72032197635 
26506.36070679081 8212.173372211537 4966.43779142784 34111.72032197635 
26506.36070679081 8212.173372211537 4966.43779142784 34111.72032197635 
26506.36070679081 8212.173372211537 4966.43779142784 34111.72032197635 
26506.36070679081 8212.173372211537 4966.43779142784 34111.72032197635 
26506.36070679081 8212.173372211537 4966.43779142784 34111.72032197635 
26506.36070679081 8212.173372211537 4966.43779142784 34111.72032197635 
26506.36070679081 8212.173372211537 4966.43779142784 34111.72032197635 
26506.36070679081 8212.173372211537 4966.43779142784 34111.72032197635 
0 1948.158034357263 0 7036.785143740597 23:1 273:1 
26506.36070679081 8212.173372211537 4966.43779142784 34111.72032197635 
26506.36070679081 8212.173372211537 4966.43779142784 34111.72032197635 
26506.36070679081 8212.173372211537 4966.43779142784 34111.72032197635 
26506.36070679081 8212.173372211537 4966.43779142784 34111.72032197635 
26506.36070679081 8212.173372211537 4966.43779142784 34111.72032197635 
26506.36070679081 8212.173372211537 4966.43779142784 34111.72032197635 
26506.36070679081 8212.173372211537 4966.43779142784 34111.72032197635 
26506.36070679081 8212.173372211537 4966.43779142784 34111.72032197635 
26506.36070679081 8212.173372211537 4966.43779142784 34111.72032197635 
26506.36070679081 8212.173372211537 4966.43779142784 34111.72032197635 
26506.36070679081 8212.173372211537 4966.43779142784 34111.72032197635 
26506.36070679081 8212.173372211537 4966.43779142784 34111.72032197635 
26506.36070679081 8212.173372211537 4966.43779142784 34111.72032197635 
26506.36070679081 8212.173372211537 4966.43779142784 34111.72032197635 
26506.36070679081 8212.173372211537 4966.43779142784 34111.72032197635 
26506.36070679081 8212.173372211537 4966.43779142784 34111.72032197635 
26506.36070679081 8212.173372211537 4966.43779142784 34111.72032197635 
26506.36070679081 8212.173372211537 4966.43779142784 34111.72032197635 
26506.36070679081 8212.173372211537 4966.43779142784 34111.72032197635 
26506.36070679081 8212.173372211537 4966.43779142784 34111.72032197635 
26506.36070679081 8212.173372211537 4966.43779142784 34111.72032197635 
26506.36070679081 8212.173372211537 4966.43779142784 34111.72032197635 
26506.36070679081 8212.173372211537 4966.43779142784 34111.72032197635 
26506.36070679081 8212.173372211537 4966.43779142784 34111.72032197635 
26506.36070679081 8212.173372211537 4966.43779142784 34111.72032197635 
26506.36070679081 8212.173372211537 4966.43779142784 34111.72032197635 
26506.36070679081 8212.173372211537 4966.43779142784 34111.72032197635 
26506.36070679081 8212.173372211537 4966.43779142784 34111.72032197635 
26506.36070679081 8212.173372211537 4966.43779142784 34111.72032197635 
26506.36070679081 8212.173372211537 4966.43779142784 34111.72032197635 
26506.36070679081 8212.173372211537 4966.43779142784 34111.72032197635 
26506.36070679081 8212.173372211537 4966.43779142784 34111.72032197635 
26506.36070679081 8212.173372211537 4966.43779142784 34111.72032197635 
26506.36070679081 8212.173372211537 4966.43779142784 34111.72032197635 
26506.36070679081 8212.173372211537 4966.43779142784 34111.72032197635 
26506.36070679081 8212.173372211537 4966.43779142784 34111.72032197635 
26506.36070679081 8212.173372211537 4966.43779142784 34111.72032197635 
26506.36070679081 8212.173372211537 4966.43779142784 34111.72032197635 
26506.36070679081 8212.173372211537 4966.43779142784 34111.72032197635 
26506.36070679081 8212.173372211537 4966.43779142784 34111.72032197635 
26506.36070679081 8212.173372211537 4966.43779142784 34111.72032197635 
26506.36070679081 8212.173372211537 4966.43779142784 34111.72032197635 
26506.36070679081 8212.173372211537 4966.43779142784 34111.72032197635 
0 8212.173372211537 0 0 30:1 
26506.36070679081 8212.173372211537 4966.43779142784 34111.72032197635 
26506.36070679081 8212.173372211537 4966.43779142784 34111.72032197635 
26506.36070679081 8212.173372211537 4966.43779142784 34111.72032197635 
26506.36070679081 8212.173372211537 4966.43779142784 34111.72032197635 
26506.36070679081 8212.173372211537 4966.43779142784 34111.72032197635 
26506.36070679081 8212.173372211537 4966.43779142784 34111.72032197635 
26506.36070679081 8212.173372211537 4966.43779142784 34111.72032197635 
26506.36070679081 8212.173372211537 4966.43779142784 34111.72032197635 
26506.36070679081 8212.173372211537 4966.43779142784 34111.72032197635 
26506.36070679081 8212.173372211537 4966.43779142784 34111.72032197635 
26506.36070679081 8212.173372211537 4966.43779142784 34111.72032197635 
26506.36070679081 8212.173372211537 4966.43779142784 34111.72032197635 
26506.36070679081 8212.173372211537 4966.43779142784 34111.72032197635 
26506.36070679081 8212.173372211537 4966.43779142784 34111.72032197635 
26506.36070679081 8212.173372211537 4966.43779142784 34111.72032197635 
26506.36070679081 8212.173372211537 4966.43779142784 34111.72032197635 
26506.36070679081 8212.173372211537 4966.43779142784 34111.72032197635 
26506.36070679081 8212.173372211537 4966.43779142784 34111.72032197635 
26506.36070679081 8212.173372211537 4966.43779142784 34111.72032197635 
26506.36070679081 8212.173372211537 4966.43779142784 34111.72032197635 
26506.36070679081 8212.173372211537 4966.43779142784 34111.72032197635 
26506.36070679081 8212.173372211537 4966.43779142784 34111.72032197635 
26506.36070679081 8212.173372211537 4966.43779142784 34111.72032197635 
26506.36070679081 8212.173372211537 4966.43779142784 34111.72032197635 
26506.36070679081 8212.173372211537 4966.43779142784 34111.72032197635 
26506.36070679081 8212.173372211537 4966.43779142784 34111.72032197635 
26506.36070679081 8212.173372211537 4966.43779142784 34111.72032197635 
26506.36070679081 8212.173372211537 4966.43779142784 34111.72032197635 
26506.36070679081 8212.173372211537 4966.43779142784 34111.72032197635 
26506.36070679081 8212.173372211537 4966.43779142784 34111.72032197635 
26506.36070679081 8212.173372211537 4966.43779142784 34111.72032197635 
26506.36070679081 8212.173372211537 4966.43779142784 34111.72032197635 
26506.36070679081 8212.173372211537 4966.43779142784 34111.72032197635 
26506.36070679081 8212.173372211537 4966.43779142784 34111.72032197635 
26506.36070679081 8212.173372211537 4966.43779142784 34111.72032197635 
26506.36070679081 8212.173372211537 4966.43779142784 34111.72032197635 
26506.36070679081 8212.173372211537 4966.43779142784 34111.72032197635 
26506.36070679081 8212.173372211537 4966.43779142784 34111.72032197635 
26506.36070679081 8212.173372211537 4966.43779142784 34111.72032197635 
26506.36070679081 8212.173372211537 4966.43779142784 34111.72032197635 
26506.36070679081 8212.173372211537 4966.43779142784 34111.72032197635 
26506.36070679081 8212.173372211537 4966.43779142784 34111.72032197635 
26506.36070679081 8212.173372211537 4966.43779142784 34111.72032197635 
26506.36070679081 8212.173372211537 4966.43779142784 34111.72032197635 
26506.36070679081 8212.173372211537 4966.43779142784 34111.72032197635 
0 0 0 0.07092694058279035 26:1 
26506.36070679081 8212.173372211537 4966.43779142784 34111.72032197635 
26506.36070679081 8212.173372211537 4966.43779142784 34111.72032197635 
26506.36070679081 8212.173372211537 4966.43779142784 34111.72032197635 
26506.36070679081 8212.173372211537 4966.43779142784 34111.72032197635 
26506.36070679081 8212.173372211537 4966.43779142784 34111.72032197635 
26506.36070679081 8212.173372211537 4966.43779142784 34111.72032197635 
26506.36070679081 8212.173372211537 4966.43779142784 34111.72032197635 
26506.36070679081 8212.173372211537 4966.43779142784 34111.72032197635 
26506.36070679081 8212.173372211537 4966.43779142784 34111.72032197635 
26506.36070679081 8212.173372211537 4966.43779142784 34111.72032197635 
0 0 0 0.1060295174458557 47:1 
26506.36070679081 8212.173372211537 4966.43779142784 34111.72032197635 
26506.36070679081 8212.173372211537 4966.43779142784 34111.72032197635 
0 0 4966.43779142784 0 83:1 
26506.36070679081 8212.173372211537 4966.43779142784 34111.72032197635 
26506.36070679081 8212.173372211537 4966.43779142784 34111.72032197635 
26506.36070679081 8212.173372211537 4966.43779142784 34111.72032197635 
0 0 1578.604223538834 0 19:1 
26506.36070679081 8212.173372211537 4966.43779142784 34111.72032197635 
26506.36070679081 8212.173372211537 4966.43779142784 34111.72032197635 
26506.36070679081 8212.173372211537 4966.43779142784 34111.72032197635 
26506.36070679081 8212.173372211537 4966.43779142784 34111.72032197635 
26506.36070679081 8212.173372211537 4966.43779142784 34111.72032197635 
26506.36070679081 8212.173372211537 4966.43779142784 34111.72032197635 
26506.36070679081 8212.173372211537 4966.43779142784 34111.72032197635 
26506.36070679081 8212.173372211537 4966.43779142784 34111.72032197635 
26506.36070679081 8212.173372211537 4966.43779142784 34111.72032197635 
26506.36070679081 8212.173372211537 4966.43779142784 34111.72032197635 
26506.36070679081 0 0 34111.72032197635 445:1 
26506.36070679081 8212.173372211537 4966.43779142784 34111.72032197635 
26506.36070679081 8212.173372211537 4966.43779142784 34111.72032197635 
26506.36070679081 8212.173372211537 4966.43779142784 34111.72032197635 
26506.36070679081 8212.173372211537 4966.43779142784 34111.72032197635 
26506.36070679081 8212.173372211537 4966.43779142784 34111.72032197635 
26506.36070679081 8212.173372211537 4966.43779142784 34111.72032197635 
26506.36070679081 8212.173372211537 4966.43779142784 34111.72032197635 
26506.36070679081 8212.173372211537 4966.43779142784 34111.72032197635 
0 0 0 0.070926940597939 92:1 
26506.36070679081 8212.173372211537 4966.43779142784 34111.72032197635 
26506.36070679081 8212.173372211537 4966.43779142784 34111.72032197635 
26506.36070679081 8212.173372211537 4966.43779142784 34111.72032197635 
26506.36070679081 8212.173372211537 4966.43779142784 34111.72032197635 
26506.36070679081 8212.173372211537 4966.43779142784 34111.72032197635 
26506.36070679081 8212.173372211537 4966.43779142784 34111.72032197635 
0 0 0 0.1062098508320462 88:1 
26506.36070679081 8212.173372211537 4966.43779142784 34111.72032197635 
26506.36070679081 8212.173372211537 4966.43779142784 34111.72032197635 
26506.36070679081 8212.173372211537 0 34111.72032197635 350:1 
26506.36070679081 8212.173372211537 4966.43779142784 34111.72032197635 
26506.36070679081 8212.173372211537 4966.43779142784 34111.72032197635 
26506.36070679081 8212.173372211537 4966.43779142784 34111.72032197635 
26506.36070679081 8212.173372211537 4966.43779142784 34111.72032197635 
26506.36070679081 8212.173372211537 4966.43779142784 34111.72032197635 
26506.36070679081 8212.173372211537 4966.43779142784 34111.72032197635 
26506.36070679081 8212.173372211537 4966.43779142784 34111.72032197635 
26506.36070679081 8212.173372211537 4966.43779142784 34111.72032197635 
26506.36070679081 8212.173372211537 4966.43779142784 34111.72032197635 
26506.36070679081 8212.173372211537 4966.43779142784 34111.72032197635 
26506.36070679081 8212.173372211537 4966.43779142784 34111.72032197635 
26506.36070679081 8212.173372211537 4966.43779142784 34111.72032197635 
26506.36070679081 8212.173372211537 4966.43779142784 34111.72032197635 
26506.36070679081 8212.173372211537 4966.43779142784 34111.72032197635 
26506.36070679081 8212.173372211537 4966.43779142784 34111.72032197635 
26506.36070679081 8212.173372211537 4966.43779142784 34111.72032197635 
26506.36070679081 8212.173372211537 4966.43779142784 34111.72032197635 
26506.36070679081 8212.173372211537 4966.43779142784 34111.72032197635 
26506.36070679081 8212.173372211537 4966.43779142784 34111.72032197635 
26506.36070679081 8212.173372211537 4966.43779142784 34111.72032197635 
26506.36070679081 8212.173372211537 4966.43779142784 34111.72032197635 
26506.36070679081 8212.173372211537 4966.43779142784 34111.72032197635 
0 8212.173372211537 0 34111.72032197635 243:1 
26506.36070679081 8212.173372211537 4966.43779142784 34111.72032197635 
26506.36070679081 8212.173372211537 4966.43779142784 34111.72032197635 
26506.36070679081 8212.173372211537 4966.43779142784 34111.72032197635 
26506.36070679081 8212.173372211537 4966.43779142784 34111.72032197635 
26506.36070679081 8212.173372211537 4966.43779142784 34111.72032197635 
0 0 4966.43779142784 0 81:1 
26506.36070679081 8212.173372211537 4966.43779142784 34111.72032197635 
26506.36070679081 8212.173372211537 4966.43779142784 34111.72032197635 
26506.36070679081 8212.173372211537 4966.43779142784 34111.72032197635 
26506.36070679081 8212.173372211537 4966.43779142784 34111.72032197635 
26506.36070679081 8212.173372211537 4966.43779142784 34111.72032197635 
26506.36070679081 8212.173372211537 4966.43779142784 34111.72032197635 
26506.36070679081 8212.173372211537 4966.43779142784 34111.72032197635 
26506.36070679081 8212.173372211537 4966.43779142784 34111.72032197635 
26506.36070679081 8212.173372211537 4966.43779142784 34111.72032197635 
26506.36070679081 8212.173372211537 4966.43779142784 34111.72032197635 
26506.36070679081 8212.173372211537 4966.43779142784 34111.72032197635 
26506.36070679081 8212.173372211537 4966.43779142784 34111.72032197635 
26506.36070679081 8212.173372211537 4966.43779142784 34111.72032197635 
26506.36070679081 8212.173372211537 4966.43779142784 34111.72032197635 
26506.36070679081 8212.173372211537 4966.43779142784 34111.72032197635 
26506.36070679081 8212.173372211537 4966.43779142784 34111.72032197635 
26506.36070679081 8212.173372211537 0 34111.72032197635 350:1 
26506.36070679081 8212.173372211537 4966.43779142784 34111.72032197635 
26506.36070679081 8212.173372211537 4966.43779142784 34111.72032197635 
26506.36070679081 8212.173372211537 4966.43779142784 34111.72032197635 
26506.36070679081 8212.173372211537 4966.43779142784 34111.72032197635 
26506.36070679081 8212.173372211537 4966.43779142784 34111.72032197635 
26506.36070679081 8212.173372211537 4966.43779142784 34111.72032197635 
26506.36070679081 8212.173372211537 4966.43779142784 34111.72032197635 
26506.36070679081 8212.173372211537 4966.43779142784 34111.72032197635 
26506.36070679081 8212.173372211537 4966.43779142784 34111.72032197635 
0 8212.173372211537 0 34111.72032197635 2:1 
26506.36070679081 8212.173372211537 4966.43779142784 34111.72032197635 
26506.36070679081 8212.173372211537 4966.43779142784 34111.72032197635 
26506.36070679081 8212.173372211537 4966.43779142784 34111.72032197635 
26506.36070679081 8212.173372211537 4966.43779142784 34111.72032197635 
26506.36070679081 8212.173372211537 4966.43779142784 34111.72032197635 
26506.36070679081 8212.173372211537 4966.43779142784 34111.72032197635 
26506.36070679081 8212.173372211537 4966.43779142784 34111.72032197635 
26506.36070679081 8212.173372211537 4966.43779142784 34111.72032197635 
26506.36070679081 0 0 0 42:1 
26506.36070679081 8212.173372211537 4966.43779142784 34111.72032197635 
26506.36070679081 8212.173372211537 4966.43779142784 34111.72032197635 
0 0 4966.43779142784 0 16:1 
26506.36070679081 8212.173372211537 4966.43779142784 34111.72032197635 
26506.36070679081 8212.173372211537 4966.43779142784 34111.72032197635 
26506.36070679081 8212.173372211537 4966.43779142784 34111.72032197635 
26506.36070679081 8212.173372211537 4966.43779142784 34111.72032197635 
26506.36070679081 8212.173372211537 4966.43779142784 34111.72032197635 
26506.36070679081 8212.173372211537 4966.43779142784 34111.72032197635 
0 0 4966.43779142784 0 1:1 
26506.36070679081 8212.173372211537 4966.43779142784 34111.72032197635 
26506.36070679081 8212.173372211537 4966.43779142784 34111.72032197635 
26506.36070679081 8212.173372211537 4966.43779142784 34111.72032197635 
26506.36070679081 8212.173372211537 4966.43779142784 34111.72032197635 
26506.36070679081 8212.173372211537 4966.43779142784 34111.72032197635 
26506.36070679081 8212.173372211537 4966.43779142784 34111.72032197635 
26506.36070679081 8212.173372211537 4966.43779142784 34111.72032197635 
26506.36070679081 8212.173372211537 4966.43779142784 34111.72032197635 
0 0 4966.43779142784 34111.72032197635 29:1 
26506.36070679081 8212.173372211537 4966.43779142784 34111.72032197635 
26506.36070679081 8212.173372211537 4966.43779142784 34111.72032197635 
26506.36070679081 8212.173372211537 4966.43779142784 34111.72032197635 
26506.36070679081 8212.173372211537 4966.43779142784 34111.72032197635 
26506.36070679081 8212.173372211537 4966.43779142784 34111.72032197635 
26506.36070679081 8212.173372211537 4966.43779142784 34111.72032197635 
26506.36070679081 8212.173372211537 4966.43779142784 34111.72032197635 
26506.36070679081 8212.173372211537 4966.43779142784 34111.72032197635 
26506.36070679081 8212.173372211537 4966.43779142784 34111.72032197635 
26506.36070679081 8212.173372211537 4966.43779142784 34111.72032197635 
26506.36070679081 8212.173372211537 4966.43779142784 34111.72032197635 
26506.36070679081 8212.173372211537 4966.43779142784 34111.72032197635 
26506.36070679081 8212.173372211537 4966.43779142784 34111.72032197635 
26506.36070679081 8212.173372211537 4966.43779142784 34111.72032197635 
26506.36070679081 8212.173372211537 4966.43779142784 34111.72032197635 
26506.36070679081 8212.173372211537 4966.43779142784 34111.72032197635 
26506.36070679081 8212.173372211537 4966.43779142784 34111.72032197635 
26506.36070679081 8212.173372211537 4966.43779142784 34111.72032197635 
26506.36070679081 8212.173372211537 4966.43779142784 34111.72032197635 
26506.36070679081 8212.173372211537 4966.43779142784 34111.72032197635 
26506.36070679081 8212.173372211537 4966.43779142784 34111.72032197635 
26506.36070679081 8212.173372211537 4966.43779142784 34111.72032197635 
26506.36070679081 8212.173372211537 4966.43779142784 34111.72032197635 
26506.36070679081 8212.173372211537 4966.43779142784 34111.72032197635 
26506.36070679081 8212.173372211537 4966.43779142784 34111.72032197635 
26506.36070679081 8212.173372211537 4966.43779142784 34111.72032197635 
26506.36070679081 8212.173372211537 4966.43779142784 34111.72032197635 
26506.36070679081 8212.173372211537 4966.43779142784 34111.72032197635 
26506.36070679081 8212.173372211537 4966.43779142784 34111.72032197635 
26506.36070679081 8212.173372211537 4966.43779142784 34111.72032197635 
26506.36070679081 8212.173372211537 4966.43779142784 34111.72032197635 
26506.36070679081 8212.173372211537 4966.43779142784 34111.72032197635 
26506.36070679081 8212.173372211537 4966.43779142784 34111.72032197635 
26506.36070679081 8212.173372211537 4966.43779142784 34111.72032197635 
26506.36070679081 8212.173372211537 4966.43779142784 34111.72032197635 
26506.36070679081 8212.173372211537 4966.43779142784 34111.72032197635 
26506.36070679081 8212.173372211537 4966.43779142784 34111.72032197635 
3308.76176273081 0 4966.43779142784 4596.773070707452 1:1 70:1 
0 0 4966.43779142784 0 41:1 
26506.36070679081 8212.173372211537 4966.43779142784 34111.72032197635 
26506.36070679081 8212.173372211537 4966.43779142784 34111.72032197635 
26506.36070679081 8212.173372211537 4966.43779142784 34111.72032197635 
26506.36070679081 8212.173372211537 4966.43779142784 34111.72032197635 
26506.36070679081 8212.173372211537 4966.43779142784 34111.72032197635 
26506.36070679081 8212.173372211537 4966.43779142784 34111.72032197635 
26506.36070679081 8212.173372211537 4966.43779142784 34111.72032197635 
26506.36070679081 8212.173372211537 4966.43779142784 34111.72032197635 
26506.36070679081 8212.173372211537 4966.43779142784 34111.72032197635 
26506.36070679081 8212.173372211537 4966.43779142784 34111.72032197635 
26506.36070679081 8212.173372211537 4966.43779142784 34111.72032197635 
26506.36070679081 8212.173372211537 4966.43779142784 34111.72032197635 
26506.36070679081 8212.173372211537 4966.43779142784 34111.72032197635 
26506.36070679081 8212.173372211537 4966.43779142784 34111.72032197635 
26506.36070679081 8212.173372211537 4966.43779142784 34111.72032197635 
26506.36070679081 8212.173372211537 4966.43779142784 34111.72032197635 
26506.36070679081 8212.173372211537 4966.43779142784 34111.72032197635 
26506.36070679081 8212.173372211537 4966.43779142784 34111.72032197635 
26506.36070679081 8212.173372211537 4966.43779142784 34111.72032197635 
26506.36070679081 8212.173372211537 4966.43779142784 34111.72032197635 
26506.36070679081 8212.173372211537 4966.43779142784 34111.72032197635 
26506.36070679081 8212.173372211537 4966.43779142784 34111.72032197635 
26506.36070679081 8212.173372211537 4966.43779142784 34111.72032197635 
26506.36070679081 8212.173372211537 4966.43779142784 34111.72032197635 
26506.36070679081 8212.173372211537 4966.43779142784 34111.72032197635 
26506.36070679081 8212.173372211537 4966.43779142784 34111.72032197635 
0 0 4966.43779142784 0 22:1 
26506.36070679081 8212.173372211537 4966.43779142784 34111.72032197635 
26506.36070679081 8212.173372211537 4966.43779142784 34111.72032197635 
26506.36070679081 8212.173372211537 4966.43779142784 34111.72032197635 
26506.36070679081 8212.173372211537 4966.43779142784 34111.72032197635 
26506.36070679081 8212.173372211537 4966.43779142784 34111.72032197635 
26506.36070679081 8212.173372211537 4966.43779142784 34111.72032197635 
26506.36070679081 8212.173372211537 4966.43779142784 34111.72032197635 
26506.36070679081 8212.173372211537 4966.43779142784 34111.72032197635 
26506.36070679081 8212.173372211537 4966.43779142784 34111.72032197635 
26506.36070679081 8212.173372211537 4966.43779142784 34111.72032197635 
26506.36070679081 8212.173372211537 4966.43779142784 34111.72032197635 
0 1.650422202746719 0 34111.72032197635 2:1 
26506.36070679081 8212.173372211537 4966.43779142784 34111.72032197635 
26506.36070679081 8212.173372211537 4966.43779142784 34111.72032197635 
26506.36070679081 8212.173372211537 4966.43779142784 34111.72032197635 
26506.36070679081 8212.173372211537 4966.43779142784 34111.72032197635 
26506.36070679081 8212.173372211537 4966.43779142784 34111.72032197635 
26506.36070679081 8212.173372211537 4966.43779142784 34111.72032197635 
26506.36070679081 8212.173372211537 4966.43779142784 34111.72032197635 
26506.36070679081 8212.173372211537 4966.43779142784 34111.72032197635 
26506.36070679081 8212.173372211537 4966.43779142784 34111.72032197635 
26506.36070679081 8212.173372211537 4966.43779142784 34111.72032197635 
26506.36070679081 8212.173372211537 4966.43779142784 34111.72032197635 
26506.36070679081 8212.173372211537 4966.43779142784 34111.72032197635 
26506.36070679081 8212.173372211537 4966.43779142784 34111.72032197635 
26506.36070679081 8212.173372211537 4966.43779142784 34111.72032197635 
26506.36070679081 8212.173372211537 4966.43779142784 34111.72032197635 
26506.36070679081 8212.173372211537 4966.43779142784 34111.72032197635 
26506.36070679081 8212.173372211537 4966.43779142784 34111.72032197635 
26506.36070679081 8212.173372211537 4966.43779142784 34111.72032197635 
26506.36070679081 8212.173372211537 4966.43779142784 34111.72032197635 
26506.36070679081 8212.173372211537 4966.43779142784 34111.72032197635 
26506.36070679081 8212.173372211537 4966.43779142784 34111.72032197635 
26506.36070679081 8212.173372211537 4966.43779142784 34111.72032197635 
26506.36070679081 8212.173372211537 4966.43779142784 34111.72032197635 
26506.36070679081 0 0 0 75:1 79:1 
26506.36070679081 8212.173372211537 4966.43779142784 34111.72032197635 
26506.36070679081 8212.173372211537 4966.43779142784 34111.72032197635 
26506.36070679081 0 0 0 42:1 
26506.36070679081 8212.173372211537 4966.43779142784 34111.72032197635 
26506.36070679081 8212.173372211537 4966.43779142784 34111.72032197635 
26506.36070679081 8212.173372211537 4966.43779142784 34111.72032197635 
26506.36070679081 8212.173372211537 4966.43779142784 34111.72032197635 
0 0 0 0.07092694062444913 57:1 
26506.36070679081 8212.173372211537 4966.43779142784 34111.72032197635 
4951.907551994155 1828.774624354615 1622.751313565006 34111.72032197635 278:1 404:1 
26506.36070679081 8212.173372211537 4966.43779142784 34111.72032197635 
26506.36070679081 8212.173372211537 4966.43779142784 34111.72032197635 
26506.36070679081 8212.173372211537 4966.43779142784 34111.72032197635 
26506.36070679081 8212.173372211537 4966.43779142784 34111.72032197635 
26506.36070679081 8212.173372211537 4966.43779142784 34111.72032197635 
26506.36070679081 8212.173372211537 4966.43779142784 34111.72032197635 
26506.36070679081 8212.173372211537 4966.43779142784 34111.72032197635 
26506.36070679081 8212.173372211537 0 34111.72032197635 415:1 
26506.36070679081 0 0 0.3152776441955686 79:1 
26506.36070679081 8212.173372211537 4966.43779142784 34111.72032197635 
26506.36070679081 8212.173372211537 4966.43779142784 34111.72032197635 
26506.36070679081 8212.173372211537 4966.43779142784 34111.72032197635 
26506.36070679081 8212.173372211537 4966.43779142784 34111.72032197635 
26506.36070679081 8212.173372211537 4966.43779142784 34111.72032197635 
26506.36070679081 8212.173372211537 4966.43779142784 34111.72032197635 
26506.36070679081 8212.173372211537 4966.43779142784 34111.72032197635 
26506.36070679081 8212.173372211537 4966.43779142784 34111.72032197635 
26506.36070679081 8212.173372211537 4966.43779142784 34111.72032197635 
26506.36070679081 0 0 0.07092694063959777 75:1 
26506.36070679081 8212.173372211537 4966.43779142784 34111.72032197635 
26506.36070679081 8212.173372211537 4966.43779142784 34111.72032197635 
26506.36070679081 8212.173372211537 4966.43779142784 34111.72032197635 
26506.36070679081 8212.173372211537 4966.43779142784 34111.72032197635 
26506.36070679081 8212.173372211537 4966.43779142784 34111.72032197635 
26506.36070679081 8212.173372211537 4966.43779142784 34111.72032197635 
26506.36070679081 8212.173372211537 4966.43779142784 34111.72032197635 
26506.36070679081 8212.173372211537 4966.43779142784 34111.72032197635 
26506.36070679081 8212.173372211537 4966.43779142784 34111.72032197635 
26506.36070679081 8212.173372211537 4966.43779142784 34111.72032197635 
26506.36070679081 8212.173372211537 4966.43779142784 34111.72032197635 
26506.36070679081 8212.173372211537 4966.43779142784 34111.72032197635 
26.98512635799077 8212.173372211537 4966.43779142784 0.1062098503662253 31:1 
26506.36070679081 8212.173372211537 4966.43779142784 34111.72032197635 
26506.36070679081 8212.173372211537 4966.43779142784 34111.72032197635 
26506.36070679081 8212.173372211537 4966.43779142784 34111.72032197635 
26506.36070679081 8212.173372211537 4966.43779142784 34111.72032197635 
26506.36070679081 8212.173372211537 4966.43779142784 34111.72032197635 
26506.36070679081 8212.173372211537 4966.43779142784 34111.72032197635 
26506.36070679081 8212.173372211537 4966.43779142784 34111.72032197635 
0 0 0 0.07092694066989506 14:1 
26506.36070679081 8212.173372211537 4966.43779142784 34111.72032197635 
26506.36070679081 8212.173372211537 4966.43779142784 34111.72032197635 
26506.36070679081 8212.173372211537 4966.43779142784 34111.72032197635 
26506.36070679081 8212.173372211537 4966.43779142784 34111.72032197635 
26506.36070679081 8212.173372211537 4966.43779142784 34111.72032197635 
26506.36070679081 8212.173372211537 4966.43779142784 34111.72032197635 
26506.36070679081 8212.173372211537 4966.43779142784 34111.72032197635 
26506.36070679081 8212.173372211537 4966.43779142784 34111.72032197635 
26506.36070679081 8212.173372211537 4966.43779142784 34111.72032197635 
26506.36070679081 8212.173372211537 4966.43779142784 34111.72032197635 
26506.36070679081 8212.173372211537 4966.43779142784 34111.72032197635 
26506.36070679081 8212.173372211537 4966.43779142784 34111.72032197635 
26506.36070679081 8212.173372211537 4966.43779142784 34111.72032197635 
26506.36070679081 8212.173372211537 4966.43779142784 34111.72032197635 
26506.36070679081 8212.173372211537 4966.43779142784 34111.72032197635 
26506.36070679081 8212.173372211537 4966.43779142784 34111.72032197635 
26506.36070679081 0 0 0 79:1 
26506.36070679081 8212.173372211537 4966.43779142784 34111.72032197635 
26506.36070679081 8212.173372211537 4966.43779142784 34111.72032197635 
26506.36070679081 8212.173372211537 4966.43779142784 34111.72032197635 
26506.36070679081 8212.173372211537 4966.43779142784 34111.72032197635 
26506.36070679081 8212.173372211537 4966.43779142784 34111.72032197635 
26506.36070679081 8212.173372211537 4966.43779142784 34111.72032197635 
26506.36070679081 8212.173372211537 4966.43779142784 34111.72032197635 
26506.36070679081 8212.173372211537 4966.43779142784 34111.72032197635 
26506.36070679081 8212.173372211537 4966.43779142784 34111.72032197635 
26506.36070679081 8212.173372211537 4966.43779142784 34111.72032197635 
26506.36070679081 0 0 0 79:1 
26506.36070679081 8212.173372211537 4966.43779142784 34111.72032197635 
26.98512635824385 0 0 0 82:1 
26506.36070679081 8212.173372211537 4966.43779142784 34111.72032197635 
26506.36070679081 8212.173372211537 4966.43779142784 34111.72032197635 
26506.36070679081 8212.173372211537 4966.43779142784 34111.72032197635 
26506.36070679081 8212.173372211537 4966.43779142784 34111.72032197635 
26506.36070679081 8212.173372211537 4966.43779142784 34111.72032197635 
26506.36070679081 8212.173372211537 4966.43779142784 34111.72032197635 
26506.36070679081 8212.173372211537 4966.43779142784 34111.72032197635 
26506.36070679081 8212.173372211537 4966.43779142784 34111.72032197635 
26506.36070679081 8212.173372211537 4966.43779142784 34111.72032197635 
26506.36070679081 8212.173372211537 4966.43779142784 34111.72032197635 
26506.36070679081 8212.173372211537 4966.43779142784 34111.72032197635 
0 0 4966.43779142784 0 16:1 
26506.36070679081 0 0 0 42:1 
26506.36070679081 8212.173372211537 4966.43779142784 34111.72032197635 
26506.36070679081 8212.173372211537 4966.43779142784 34111.72032197635 
26506.36070679081 8212.173372211537 4966.43779142784 34111.72032197635 
26506.36070679081 8212.173372211537 4966.43779142784 34111.72032197635 
26506.36070679081 8212.173372211537 4966.43779142784 34111.72032197635 
26506.36070679081 8212.173372211537 4966.43779142784 34111.72032197635 
26506.36070679081 8212.173372211537 4966.43779142784 34111.72032197635 
26506.36070679081 8212.173372211537 4966.43779142784 34111.72032197635 
26506.36070679081 8212.173372211537 4966.43779142784 34111.72032197635 
26506.36070679081 8212.173372211537 4966.43779142784 34111.72032197635 
26506.36070679081 8212.173372211537 4966.43779142784 34111.72032197635 
26506.36070679081 8212.173372211537 4966.43779142784 34111.72032197635 
26506.36070679081 8212.173372211537 4966.43779142784 34111.72032197635 
26506.36070679081 8212.173372211537 4966.43779142784 34111.72032197635 
0 0 0 0.1763433079096517 17:1 
26506.36070679081 8212.173372211537 4966.43779142784 34111.72032197635 
26506.36070679081 8212.173372211537 4966.43779142784 34111.72032197635 
26506.36070679081 8212.173372211537 4966.43779142784 34111.72032197635 
0 0 4966.43779142784 0 1:1 
26506.36070679081 8212.173372211537 4966.43779142784 34111.72032197635 
26506.36070679081 8212.173372211537 4966.43779142784 34111.72032197635 
26506.36070679081 8212.173372211537 4966.43779142784 34111.72032197635 
26506.36070679081 8212.173372211537 4966.43779142784 34111.72032197635 
26506.36070679081 8212.173372211537 4966.43779142784 34111.72032197635 
26506.36070679081 8212.173372211537 4966.43779142784 34111.72032197635 
26506.36070679081 8212.173372211537 4966.43779142784 34111.72032197635 
26506.36070679081 8212.173372211537 4966.43779142784 34111.72032197635 
26506.36070679081 8212.173372211537 4966.43779142784 34111.72032197635 
26506.36070679081 8212.173372211537 4966.43779142784 34111.72032197635 
26506.36070679081 8212.173372211537 4966.43779142784 34111.72032197635 
26506.36070679081 8212.173372211537 4966.43779142784 34111.72032197635 
26506.36070679081 8212.173372211537 4966.43779142784 34111.72032197635 
26506.36070679081 8212.173372211537 4966.43779142784 34111.72032197635 
26506.36070679081 8212.173372211537 4966.43779142784 34111.72032197635 
26506.36070679081 8212.173372211537 4966.43779142784 34111.72032197635 
26506.36070679081 8212.173372211537 4966.43779142784 34111.72032197635 
26506.36070679081 8212.173372211537 4966.43779142784 34111.72032197635 
26506.36070679081 8212.173372211537 4966.43779142784 34111.72032197635 
26506.36070679081 8212.173372211537 4966.43779142784 34111.72032197635 
26506.36070679081 8212.173372211537 4966.43779142784 34111.72032197635 
26506.36070679081 8212.173372211537 4966.43779142784 34111.72032197635 
26506.36070679081 8212.173372211537 4966.43779142784 34111.72032197635 
26506.36070679081 8212.173372211537 4966.43779142784 34111.72032197635 
26506.36070679081 8212.173372211537 4966.43779142784 34111.72032197635 
26506.36070679081 8212.173372211537 4966.43779142784 34111.72032197635 
26506.36070679081 8212.173372211537 4966.43779142784 34111.72032197635 
26506.36070679081 8212.173372211537 4966.43779142784 34111.72032197635 
26506.36070679081 8212.173372211537 4966.43779142784 34111.72032197635 
26506.36070679081 8212.173372211537 4966.43779142784 34111.72032197635 
26506.36070679081 8212.173372211537 4966.43779142784 34111.72032197635 
26506.36070679081 8212.173372211537 4966.43779142784 34111.72032197635 
26506.36070679081 8212.173372211537 4966.43779142784 34111.72032197635 
26506.36070679081 8212.173372211537 4966.43779142784 34111.72032197635 
26506.36070679081 8212.173372211537 4966.43779142784 34111.72032197635 
26506.36070679081 8212.173372211537 4966.43779142784 34111.72032197635 
26506.36070679081 8212.173372211537 4966.43779142784 34111.72032197635 
26506.36070679081 8212.173372211537 4966.43779142784 34111.72032197635 
26506.36070679081 8212.173372211537 4966.43779142784 34111.72032197635 
26506.36070679081 0 0 34111.72032197635 206:1 
26506.36070679081 8212.173372211537 4966.43779142784 34111.72032197635 
26506.36070679081 8212.173372211537 4966.43779142784 34111.72032197635 
26506.36070679081 8212.173372211537 4966.43779142784 34111.72032197635 
26506.36070679081 8212.173372211537 4966.43779142784 34111.72032197635 
26506.36070679081 8212.173372211537 4966.43779142784 34111.72032197635 
26506.36070679081 8212.173372211537 4966.43779142784 34111.72032197635 
26506.36070679081 8212.173372211537 4966.43779142784 34111.72032197635 
26506.36070679081 8212.173372211537 4966.43779142784 34111.72032197635 
26506.36070679081 8212.173372211537 4966.43779142784 34111.72032197635 
26506.36070679081 8212.173372211537 4966.43779142784 34111.72032197635 
26506.36070679081 8212.173372211537 4966.43779142784 34111.72032197635 
26506.36070679081 8212.173372211537 4966.43779142784 34111.72032197635 
26506.36070679081 8212.173372211537 4966.43779142784 34111.72032197635 
26506.36070679081 8212.173372211537 4966.43779142784 34111.72032197635 
26506.36070679081 8212.173372211537 4966.43779142784 34111.72032197635 
26506.36070679081 8212.173372211537 4966.43779142784 34111.72032197635 
26506.36070679081 8212.173372211537 4966.43779142784 34111.72032197635 
26506.36070679081 8212.173372211537 4966.43779142784 34111.72032197635 
26506.36070679081 8212.173372211537 4966.43779142784 34111.72032197635 
26506.36070679081 8212.173372211537 4966.43779142784 34111.72032197635 
26506.36070679081 8212.173372211537 4966.43779142784 34111.72032197635 
26506.36070679081 8212.173372211537 4966.43779142784 34111.72032197635 
26506.36070679081 8212.173372211537 4966.43779142784 34111.72032197635 
26.98512635849693 0 0 0.07092694070019236 50:1 
26506.36070679081 8212.173372211537 4966.43779142784 34111.72032197635 
26506.36070679081 8212.173372211537 4966.43779142784 34111.72032197635 
26506.36070679081 8212.173372211537 4966.43779142784 34111.72032197635 
26506.36070679081 8212.173372211537 4966.43779142784 34111.72032197635 
26506.36070679081 8212.173372211537 4966.43779142784 34111.72032197635 
26506.36070679081 8212.173372211537 4966.43779142784 34111.72032197635 
26506.36070679081 8212.173372211537 4966.43779142784 34111.72032197635 
26506.36070679081 8212.173372211537 4966.43779142784 34111.72032197635 
0 0 4966.43779142784 0 76:1 
26506.36070679081 8212.173372211537 4966.43779142784 34111.72032197635 
26506.36070679081 8212.173372211537 4966.43779142784 34111.72032197635 
26506.36070679081 8212.173372211537 4966.43779142784 34111.72032197635 
26506.36070679081 8212.173372211537 4966.43779142784 34111.72032197635 
26506.36070679081 8212.173372211537 4966.43779142784 34111.72032197635 
26506.36070679081 8212.173372211537 4966.43779142784 34111.72032197635 
26506.36070679081 8212.173372211537 4966.43779142784 34111.72032197635 
26506.36070679081 8212.173372211537 4966.43779142784 34111.72032197635 
26506.36070679081 8212.173372211537 4966.43779142784 34111.72032197635 
26506.36070679081 8212.173372211537 4966.43779142784 34111.72032197635 
26506.36070679081 8212.173372211537 4966.43779142784 34111.72032197635 
26506.36070679081 8212.173372211537 4966.43779142784 34111.72032197635 
26506.36070679081 8212.173372211537 4966.43779142784 34111.72032197635 
26506.36070679081 8212.173372211537 4966.43779142784 34111.72032197635 
26506.36070679081 8212.173372211537 4966.43779142784 34111.72032197635 
26506.36070679081 8212.173372211537 4966.43779142784 34111.72032197635 
26506.36070679081 8212.173372211537 4966.43779142784 34111.72032197635 
0 0 4966.43779142784 0.1062098507979617 39:1 
26506.36070679081 8212.173372211537 4966.43779142784 34111.72032197635 
26506.36070679081 8212.173372211537 4966.43779142784 34111.72032197635 
26506.36070679081 8212.173372211537 4966.43779142784 34111.72032197635 
26506.36070679081 8212.173372211537 4966.43779142784 34111.72032197635 
26506.36070679081 0 0 34111.72032197635 461:1 
26506.36070679081 8212.173372211537 4966.43779142784 34111.72032197635 
26506.36070679081 8212.173372211537 4966.43779142784 34111.72032197635 
26506.36070679081 8212.173372211537 4966.43779142784 34111.72032197635 
26506.36070679081 8212.173372211537 4966.43779142784 34111.72032197635 
26506.36070679081 8212.173372211537 4966.43779142784 34111.72032197635 
26506.36070679081 8212.173372211537 4966.43779142784 34111.72032197635 
26506.36070679081 8212.173372211537 4966.43779142784 34111.72032197635 
26506.36070679081 8212.173372211537 4966.43779142784 34111.72032197635 
26506.36070679081 8212.173372211537 4966.43779142784 34111.72032197635 
26506.36070679081 8212.173372211537 4966.43779142784 34111.72032197635 
26506.36070679081 8212.173372211537 4966.43779142784 34111.72032197635 
26506.36070679081 8212.173372211537 4966.43779142784 34111.72032197635 
26506.36070679081 8212.173372211537 4966.43779142784 34111.72032197635 
26506.36070679081 8212.173372211537 4966.43779142784 34111.72032197635 
26506.36070679081 8212.173372211537 4966.43779142784 34111.72032197635 
26506.36070679081 8212.173372211537 4966.43779142784 34111.72032197635 
26506.36070679081 8212.173372211537 4966.43779142784 34111.72032197635 
26506.36070679081 8212.173372211537 4966.43779142784 34111.72032197635 
26506.36070679081 8212.173372211537 4966.43779142784 34111.72032197635 
26506.36070679081 0 0 0 79:1 
26506.36070679081 8212.173372211537 4966.43779142784 34111.72032197635 
26506.36070679081 8212.173372211537 4966.43779142784 34111.72032197635 
26506.36070679081 0 4966.43779142784 34111.72032197635 405:1 
26506.36070679081 8212.173372211537 4966.43779142784 34111.72032197635 
26506.36070679081 8212.173372211537 4966.43779142784 34111.72032197635 
26506.36070679081 8212.173372211537 4966.43779142784 34111.72032197635 
26506.36070679081 8212.173372211537 4966.43779142784 34111.72032197635 
26506.36070679081 8212.173372211537 4966.43779142784 34111.72032197635 
26506.36070679081 8212.173372211537 4966.43779142784 34111.72032197635 
26506.36070679081 8212.173372211537 4966.43779142784 34111.72032197635 
26506.36070679081 8212.173372211537 4966.43779142784 34111.72032197635 
26506.36070679081 8212.173372211537 4966.43779142784 34111.72032197635 
26506.36070679081 8212.173372211537 4966.43779142784 34111.72032197635 
26506.36070679081 8212.173372211537 4966.43779142784 34111.72032197635 
26506.36070679081 8212.173372211537 4966.43779142784 34111.72032197635 
26506.36070679081 8212.173372211537 4966.43779142784 34111.72032197635 
26506.36070679081 8212.173372211537 4966.43779142784 34111.72032197635 
26506.36070679081 8212.173372211537 4966.43779142784 34111.72032197635 
26506.36070679081 8212.173372211537 4966.43779142784 34111.72032197635 
26506.36070679081 8212.173372211537 4966.43779142784 34111.72032197635 
26506.36070679081 8212.173372211537 4966.43779142784 34111.72032197635 
26506.36070679081 8212.173372211537 4966.43779142784 34111.72032197635 
0 0 0 34111.72032197635 2:1 
26506.36070679081 8212.173372211537 4966.43779142784 34111.72032197635 
26506.36070679081 8212.173372211537 4966.43779142784 34111.72032197635 
26506.36070679081 8212.173372211537 4966.43779142784 34111.72032197635 
26506.36070679081 8212.173372211537 4966.43779142784 34111.72032197635 
26506.36070679081 8212.173372211537 4966.43779142784 34111.72032197635 
26506.36070679081 8212.173372211537 4966.43779142784 34111.72032197635 
26506.36070679081 8212.173372211537 4966.43779142784 34111.72032197635 
26506.36070679081 8212.173372211537 4966.43779142784 34111.72032197635 
26506.36070679081 8212.173372211537 4966.43779142784 34111.72032197635 
26506.36070679081 8212.173372211537 4966.43779142784 34111.72032197635 
26506.36070679081 8212.173372211537 4966.43779142784 34111.72032197635 
26506.36070679081 8212.173372211537 4966.43779142784 34111.72032197635 
26506.36070679081 8212.173372211537 4966.43779142784 34111.72032197635 
26506.36070679081 8212.173372211537 4966.43779142784 34111.72032197635 
26506.36070679081 8212.173372211537 4966.43779142784 34111.72032197635 
26506.36070679081 8212.173372211537 4966.43779142784 34111.72032197635 
26506.36070679081 8212.173372211537 4966.43779142784 34111.72032197635 
26506.36070679081 8212.173372211537 4966.43779142784 34111.72032197635 
26506.36070679081 8212.173372211537 4966.43779142784 34111.72032197635 
26506.36070679081 8212.173372211537 4966.43779142784 34111.72032197635 
26506.36070679081 8212.173372211537 4966.43779142784 34111.72032197635 
26.98512635946805 0 4966.43779142784 0.0709269407267025 74:1 
26506.36070679081 8212.173372211537 4966.43779142784 34111.72032197635 
26506.36070679081 8212.173372211537 4966.43779142784 34111.72032197635 
26506.36070679081 8212.173372211537 4966.43779142784 34111.72032197635 
26506.36070679081 8212.173372211537 4966.43779142784 34111.72032197635 
26506.36070679081 8212.173372211537 4966.43779142784 34111.72032197635 
26506.36070679081 8212.173372211537 4966.43779142784 34111.72032197635 
26506.36070679081 8212.173372211537 4966.43779142784 34111.72032197635 
0 0 0 34111.72032197635 2:1 
26506.36070679081 8212.173372211537 4966.43779142784 34111.72032197635 
26506.36070679081 8212.173372211537 4966.43779142784 34111.72032197635 
26506.36070679081 8212.173372211537 4966.43779142784 34111.72032197635 
26506.36070679081 8212.173372211537 4966.43779142784 34111.72032197635 
0 8212.173372211537 4966.43779142784 0 31:1 
26506.36070679081 8212.173372211537 4966.43779142784 34111.72032197635 
26506.36070679081 8212.173372211537 4966.43779142784 34111.72032197635 
26506.36070679081 8212.173372211537 4966.43779142784 34111.72032197635 
26506.36070679081 8212.173372211537 4966.43779142784 34111.72032197635 
26506.36070679081 8212.173372211537 4966.43779142784 34111.72032197635 
26506.36070679081 8212.173372211537 4966.43779142784 34111.72032197635 
26506.36070679081 8212.173372211537 4966.43779142784 34111.72032197635 
26506.36070679081 8212.173372211537 4966.43779142784 34111.72032197635 
26506.36070679081 8212.173372211537 4966.43779142784 34111.72032197635 
26506.36070679081 0 0 0.1767035804763681 77:1 
26506.36070679081 8212.173372211537 4966.43779142784 34111.72032197635 
26506.36070679081 8212.173372211537 4966.43779142784 34111.72032197635 
26506.36070679081 8212.173372211537 4966.43779142784 34111.72032197635 
26506.36070679081 8212.173372211537 4966.43779142784 34111.72032197635 
26506.36070679081 8212.173372211537 4966.43779142784 34111.72032197635 
26506.36070679081 8212.173372211537 4966.43779142784 34111.72032197635 
26506.36070679081 8212.173372211537 4966.43779142784 34111.72032197635 
26506.36070679081 8212.173372211537 4966.43779142784 34111.72032197635 
26506.36070679081 8212.173372211537 4966.43779142784 34111.72032197635 
26506.36070679081 8212.173372211537 4966.43779142784 34111.72032197635 
26506.36070679081 8212.173372211537 4966.43779142784 34111.72032197635 
26506.36070679081 8212.173372211537 4966.43779142784 34111.72032197635 
26506.36070679081 8212.173372211537 4966.43779142784 34111.72032197635 
26506.36070679081 8212.173372211537 4966.43779142784 34111.72032197635 
26506.36070679081 8212.173372211537 4966.43779142784 34111.72032197635 
26506.36070679081 8212.173372211537 4966.43779142784 34111.72032197635 
26506.36070679081 8212.173372211537 4966.43779142784 34111.72032197635 
26506.36070679081 8212.173372211537 4966.43779142784 34111.72032197635 
26506.36070679081 8212.173372211537 4966.43779142784 34111.72032197635 
26506.36070679081 8212.173372211537 4966.43779142784 34111.72032197635 
26506.36070679081 8212.173372211537 4966.43779142784 34111.72032197635 
26506.36070679081 8212.173372211537 4966.43779142784 34111.72032197635 
26506.36070679081 8212.173372211537 4966.43779142784 34111.72032197635 
26506.36070679081 8212.173372211537 4966.43779142784 34111.72032197635 
26506.36070679081 8212.173372211537 4966.43779142784 34111.72032197635 
26506.36070679081 8212.173372211537 4966.43779142784 34111.72032197635 
26506.36070679081 8212.173372211537 4966.43779142784 34111.72032197635 
26506.36070679081 8212.173372211537 4966.43779142784 34111.72032197635 
26506.36070679081 8212.173372211537 4966.43779142784 34111.72032197635 
0 8212.173372211537 4966.43779142784 34111.72032197635 297:1 
26506.36070679081 8212.173372211537 4966.43779142784 34111.72032197635 
0 0 4966.43779142784 0 16:1 
26506.36070679081 0 0 0 79:1 
26506.36070679081 8212.173372211537 4966.43779142784 34111.72032197635 
26506.36070679081 8212.173372211537 4966.43779142784 34111.72032197635 
26506.36070679081 8212.173372211537 4966.43779142784 34111.72032197635 
26506.36070679081 0 0 0 79:1 
26506.36070679081 8212.173372211537 4966.43779142784 34111.72032197635 
26506.36070679081 8212.173372211537 4966.43779142784 34111.72032197635 
26506.36070679081 8212.173372211537 4966.43779142784 34111.72032197635 
26506.36070679081 8212.173372211537 4966.43779142784 34111.72032197635 
26506.36070679081 8212.173372211537 4966.43779142784 34111.72032197635 
26506.36070679081 8212.173372211537 4966.43779142784 34111.72032197635 
26506.36070679081 8212.173372211537 4966.43779142784 34111.72032197635 
26506.36070679081 8212.173372211537 4966.43779142784 34111.72032197635 
26506.36070679081 8212.173372211537 4966.43779142784 34111.72032197635 
26506.36070679081 8212.173372211537 4966.43779142784 34111.72032197635 
26506.36070679081 8212.173372211537 4966.43779142784 34111.72032197635 
26506.36070679081 8212.173372211537 4966.43779142784 34111.72032197635 
26506.36070679081 8212.173372211537 4966.43779142784 34111.72032197635 
26506.36070679081 8212.173372211537 4966.43779142784 34111.72032197635 
26506.36070679081 8212.173372211537 4966.43779142784 34111.72032197635 
26506.36070679081 8212.173372211537 4966.43779142784 34111.72032197635 
26506.36070679081 8212.173372211537 4966.43779142784 34111.72032197635 
26506.36070679081 0 0 0 79:1 
26.98512635972113 8212.173372211537 0 0 24:1 
26506.36070679081 8212.173372211537 4966.43779142784 34111.72032197635 
26506.36070679081 8212.173372211537 4966.43779142784 34111.72032197635 
26506.36070679081 8212.173372211537 4966.43779142784 34111.72032197635 
26506.36070679081 8212.173372211537 4966.43779142784 34111.72032197635 
26506.36070679081 8212.173372211537 4966.43779142784 34111.72032197635 
0 0 4966.43779142784 0 83:1 
26506.36070679081 8212.173372211537 4966.43779142784 34111.72032197635 
26506.36070679081 8212.173372211537 4966.43779142784 34111.72032197635 
26506.36070679081 8212.173372211537 4966.43779142784 34111.72032197635 
26506.36070679081 8212.173372211537 4966.43779142784 34111.72032197635 
26506.36070679081 8212.173372211537 4966.43779142784 34111.72032197635 
26506.36070679081 8212.173372211537 4966.43779142784 34111.72032197635 
26506.36070679081 0 0 34111.72032197635 465:1 
26506.36070679081 8212.173372211537 4966.43779142784 34111.72032197635 
26506.36070679081 8212.173372211537 4966.43779142784 34111.72032197635 
26506.36070679081 8212.173372211537 4966.43779142784 34111.72032197635 
26506.36070679081 8212.173372211537 4966.43779142784 34111.72032197635 
26506.36070679081 8212.173372211537 4966.43779142784 34111.72032197635 
26506.36070679081 8212.173372211537 4966.43779142784 34111.72032197635 
26506.36070679081 8212.173372211537 4966.43779142784 34111.72032197635 
0 0 2006.614589886746 0 16:1 
26506.36070679081 8212.173372211537 4966.43779142784 34111.72032197635 
26506.36070679081 8212.173372211537 4966.43779142784 34111.72032197635 
26506.36070679081 8212.173372211537 4966.43779142784 34111.72032197635 
0 0 0 34111.72032197635 2:1 
26506.36070679081 8212.173372211537 4966.43779142784 34111.72032197635 
26506.36070679081 8212.173372211537 4966.43779142784 34111.72032197635 
26506.36070679081 8212.173372211537 4966.43779142784 34111.72032197635 
26506.36070679081 8212.173372211537 4966.43779142784 34111.72032197635 
26506.36070679081 8212.173372211537 4966.43779142784 34111.72032197635 
26506.36070679081 8212.173372211537 4966.43779142784 34111.72032197635 
26506.36070679081 8212.173372211537 4966.43779142784 34111.72032197635 
26506.36070679081 0 0 0 42:1 
26506.36070679081 0 4966.43779142784 34111.72032197635 405:1 
26506.36070679081 8212.173372211537 4966.43779142784 34111.72032197635 
26506.36070679081 8212.173372211537 4966.43779142784 34111.72032197635 
26506.36070679081 8212.173372211537 4966.43779142784 34111.72032197635 
26506.36070679081 8212.173372211537 4966.43779142784 34111.72032197635 
26506.36070679081 8212.173372211537 4966.43779142784 34111.72032197635 
26506.36070679081 8212.173372211537 4966.43779142784 34111.72032197635 
26506.36070679081 8212.173372211537 4966.43779142784 34111.72032197635 
26506.36070679081 8212.173372211537 4966.43779142784 34111.72032197635 
26506.36070679081 8212.173372211537 4966.43779142784 34111.72032197635 
26506.36070679081 8212.173372211537 4966.43779142784 34111.72032197635 
26506.36070679081 8212.173372211537 4966.43779142784 34111.72032197635 
26506.36070679081 8212.173372211537 4966.43779142784 34111.72032197635 
26506.36070679081 8212.173372211537 4966.43779142784 34111.72032197635 
26506.36070679081 8212.173372211537 4966.43779142784 34111.72032197635 
26506.36070679081 8212.173372211537 4966.43779142784 34111.72032197635 
26506.36070679081 8212.173372211537 4966.43779142784 34111.72032197635 
26506.36070679081 8212.173372211537 4966.43779142784 34111.72032197635 
26506.36070679081 8212.173372211537 4966.43779142784 34111.72032197635 
26506.36070679081 8212.173372211537 4966.43779142784 34111.72032197635 
26506.36070679081 8212.173372211537 4966.43779142784 34111.72032197635 
26506.36070679081 8212.173372211537 4966.43779142784 34111.72032197635 
26506.36070679081 8212.173372211537 4966.43779142784 34111.72032197635 
0 0 4966.43779142784 0 31:1 
26506.36070679081 8212.173372211537 4966.43779142784 34111.72032197635 
26506.36070679081 8212.173372211537 4966.43779142784 34111.72032197635 
26506.36070679081 8212.173372211537 4966.43779142784 34111.72032197635 
26506.36070679081 8212.173372211537 4966.43779142784 34111.72032197635 
26506.36070679081 8212.173372211537 4966.43779142784 34111.72032197635 
26506.36070679081 8212.173372211537 4966.43779142784 34111.72032197635 
26506.36070679081 8212.173372211537 4966.43779142784 34111.72032197635 
26506.36070679081 8212.173372211537 4966.43779142784 34111.72032197635 
26506.36070679081 8212.173372211537 4966.43779142784 34111.72032197635 
26506.36070679081 8212.173372211537 4966.43779142784 34111.72032197635 
26506.36070679081 8212.173372211537 4966.43779142784 34111.72032197635 
26506.36070679081 8212.173372211537 4966.43779142784 34111.72032197635 
26506.36070679081 8212.173372211537 4966.43779142784 34111.72032197635 
26506.36070679081 8212.173372211537 4966.43779142784 34111.72032197635 
26506.36070679081 8212.173372211537 4966.43779142784 34111.72032197635 
26506.36070679081 8212.173372211537 4966.43779142784 34111.72032197635 
26506.36070679081 8212.173372211537 4966.43779142784 34111.72032197635 
26506.36070679081 8212.173372211537 4966.43779142784 34111.72032197635 
26506.36070679081 8212.173372211537 4966.43779142784 34111.72032197635 
26506.36070679081 8212.173372211537 4966.43779142784 34111.72032197635 
26506.36070679081 8212.173372211537 4966.43779142784 34111.72032197635 
26506.36070679081 8212.173372211537 4966.43779142784 34111.72032197635 
26506.36070679081 8212.173372211537 4966.43779142784 34111.72032197635 
26506.36070679081 8212.173372211537 4966.43779142784 34111.72032197635 
26506.36070679081 8212.173372211537 4966.43779142784 34111.72032197635 
26506.36070679081 8212.173372211537 4966.43779142784 34111.72032197635 
26506.36070679081 8212.173372211537 4966.43779142784 34111.72032197635 
26506.36070679081 8212.173372211537 4966.43779142784 34111.72032197635 
26506.36070679081 8212.173372211537 4966.43779142784 34111.72032197635 
26506.36070679081 8212.173372211537 4966.43779142784 34111.72032197635 
26506.36070679081 8212.173372211537 4966.43779142784 34111.72032197635 
26506.36070679081 8212.173372211537 4966.43779142784 34111.72032197635 
26506.36070679081 8212.173372211537 4966.43779142784 34111.72032197635 
26506.36070679081 8212.173372211537 4966.43779142784 34111.72032197635 
26506.36070679081 8212.173372211537 4966.43779142784 34111.72032197635 
26506.36070679081 8212.173372211537 4966.43779142784 34111.72032197635 
26506.36070679081 8212.173372211537 4966.43779142784 34111.72032197635 
26506.36070679081 8212.173372211537 4966.43779142784 34111.72032197635 
26506.36070679081 8212.173372211537 4966.43779142784 34111.72032197635 
26506.36070679081 8212.173372211537 4966.43779142784 34111.72032197635 
26506.36070679081 8212.173372211537 4966.43779142784 34111.72032197635 
26506.36070679081 8212.173372211537 4966.43779142784 34111.72032197635 
26506.36070679081 8212.173372211537 4966.43779142784 34111.72032197635 
26506.36070679081 8212.173372211537 4966.43779142784 34111.72032197635 
26506.36070679081 8212.173372211537 4966.43779142784 34111.72032197635 
26506.36070679081 8212.173372211537 4966.43779142784 34111.72032197635 
26506.36070679081 8212.173372211537 4966.43779142784 34111.72032197635 
26506.36070679081 8212.173372211537 4966.43779142784 34111.72032197635 
26506.36070679081 8212.173372211537 4966.43779142784 34111.72032197635 
26506.36070679081 8212.173372211537 4966.43779142784 34111.72032197635 
26506.36070679081 8212.173372211537 4966.43779142784 34111.72032197635 
26506.36070679081 8212.173372211537 4966.43779142784 34111.72032197635 
26506.36070679081 8212.173372211537 4966.43779142784 34111.72032197635 
26506.36070679081 8212.173372211537 4966.43779142784 34111.72032197635 
26506.36070679081 8212.173372211537 4966.43779142784 34111.72032197635 
26506.36070679081 8212.173372211537 4966.43779142784 34111.72032197635 
26506.36070679081 8212.173372211537 4966.43779142784 34111.72032197635 
26506.36070679081 8212.173372211537 4966.43779142784 34111.72032197635 
26506.36070679081 8212.173372211537 4966.43779142784 34111.72032197635 
26506.36070679081 8212.173372211537 4966.43779142784 34111.72032197635 
26506.36070679081 8212.173372211537 4966.43779142784 34111.72032197635 
26506.36070679081 8212.173372211537 4966.43779142784 34111.72032197635 
26506.36070679081 0 4966.43779142784 34111.72032197635 85:1 
