svm_type c_svc
kernel_type linear
nr_class 5
total_sv 25951
rho 0.0662282 0.30354 1.43477 0.350272 -0.953155 1.28381 -0.374382 1.25838 -0.154462 -2.4495
label 4 0 3 1 2
nr_sv 4517 4960 4102 6131 6241
SV
0.4885834779169363 1 1 0.9655230665168864 2:1 4:1 5:1 6:1 7:1 9:1 26:1 392:1 410:1 
0.1402450320868634 0 0 0 2:1 12:1 15:1 16:1 17:1 18:1 19:1 20:1 26:1 392:1 
0 0 1 0.1653730420620819 2:1 22:1 23:1 24:1 25:1 26:1 392:1 
0.103629398565612 0.1594401432758069 0.2323381348309054 0.7130496889653419 2:1 26:1 28:1 29:1 30:1 31:1 32:1 33:1 34:1 35:1 36:1 37:1 392:1 
1 1 1 1 2:1 26:1 39:1 40:1 41:1 42:1 46:1 47:1 48:1 392:1 
1 0.8623080786796897 0.3956445776524692 1 2:1 7:1 26:1 51:1 52:1 53:1 54:1 55:1 56:1 57:1 58:1 61:1 62:1 63:1 64:1 65:1 66:1 392:1 
0.4655087825616471 1 0.7109983026900738 0.7650438944295531 2:1 26:1 76:1 85:1 88:1 392:1 1350:1 3881:1 21867:1 
1 1 0.2719750174395198 1 2:1 6:1 15:1 26:1 63:1 74:1 91:1 92:1 93:1 94:1 95:1 97:1 98:1 99:1 100:1 101:1 392:1 410:1 
0 0.2963744132518422 0 0 2:1 26:1 36:1 55:1 102:1 103:1 104:1 105:1 106:1 107:1 392:1 
0 0.6193734739021308 0 0.5614943250233102 2:1 9:1 15:1 26:1 51:1 71:1 73:1 76:1 86:1 109:1 111:1 112:1 113:1 114:1 117:1 118:1 119:1 392:1 410:1 
1 0.3364402597761637 1 1 2:1 9:1 15:1 26:1 30:1 47:1 74:1 121:1 122:1 392:1 410:1 
0.2708531587121252 0 0.2098776706248527 0 2:1 9:1 26:1 60:1 68:1 71:1 73:1 86:1 124:1 125:1 126:1 127:1 128:1 129:1 392:1 1872:1 
0 1 1 1 2:1 9:1 15:1 26:1 51:1 62:1 66:1 101:1 132:1 133:1 392:1 410:1 
1 1 1 1 2:1 26:1 66:1 86:1 141:1 142:1 143:1 144:1 145:1 392:1 
0 0 0 1 2:1 15:1 26:1 46:1 107:1 146:1 148:1 149:1 150:1 392:1 410:1 1138:1 
0.6532823422762116 1 1 0.4925318883368703 2:1 26:1 44:1 45:1 63:1 71:1 86:1 152:1 153:1 154:1 155:1 157:1 392:1 
0.09619796164878426 0 0 0 2:1 9:1 26:1 40:1 55:1 57:1 160:1 161:1 162:1 163:1 392:1 
0.9306416007207663 0.6791874880982228 0 0.1478451063467174 2:1 5:1 26:1 46:1 55:1 73:1 95:1 101:1 137:1 167:1 168:1 169:1 170:1 171:1 172:1 173:1 174:1 392:1 410:1 
1 0 0.7666386444121274 1 2:1 6:1 26:1 29:1 36:1 74:1 76:1 124:1 125:1 170:1 175:1 392:1 
0 0 1 0 2:1 15:1 26:1 36:1 63:1 177:1 178:1 179:1 180:1 181:1 182:1 392:1 604:1 4181:1 
0.3430072435623804 0 0 0.2901779585403201 2:1 9:1 26:1 47:1 161:1 190:1 191:1 192:1 193:1 392:1 410:1 
0 0.6439196936588956 0.5489130683912766 0.9049066312089654 2:1 15:1 26:1 71:1 73:1 76:1 161:1 194:1 195:1 196:1 197:1 198:1 200:1 392:1 410:1 
1 1 1 1 2:1 26:1 47:1 285:1 392:1 410:1 
0 0 1 0 2:1 9:1 15:1 26:1 51:1 55:1 63:1 118:1 173:1 205:1 206:1 208:1 209:1 392:1 410:1 837:1 6596:1 
1 1 0 1 2:1 5:1 26:1 47:1 63:1 93:1 95:1 101:1 213:1 214:1 392:1 410:1 
1 0 1 0 2:1 9:1 26:1 32:1 48:1 63:1 66:1 71:1 175:1 177:1 220:1 221:1 222:1 392:1 4181:1 
0 0 1 1 2:1 16:1 26:1 161:1 224:1 392:1 
0 0 0.06388253956813596 0 2:1 9:1 15:1 26:1 71:1 177:1 225:1 226:1 227:1 392:1 410:1 4181:1 
0 0 1 1 2:1 25:1 26:1 32:1 56:1 58:1 231:1 232:1 392:1 
0.2767172508698493 0.4782634344995538 0.03848270019538733 0 2:1 5:1 9:1 26:1 63:1 71:1 73:1 86:1 234:1 235:1 237:1 238:1 239:1 240:1 241:1 242:1 243:1 244:1 245:1 246:1 392:1 
1 1 1 1 2:1 26:1 30:1 92:1 93:1 168:1 392:1 
0 0 1 0.9231391838028919 2:1 26:1 45:1 47:1 52:1 63:1 73:1 248:1 249:1 250:1 392:1 
0.6080535823056903 0.5839622877396495 1 0.3128514799008912 2:1 6:1 9:1 26:1 79:1 166:1 252:1 253:1 392:1 
0 0.3143814010797342 1 0.6469587857791843 2:1 9:1 26:1 101:1 200:1 254:1 255:1 256:1 257:1 392:1 410:1 
0 1 0 0 2:1 23:1 26:1 30:1 202:1 213:1 221:1 247:1 250:1 259:1 260:1 261:1 262:1 263:1 264:1 265:1 392:1 
1 1 1 0.597632633071226 2:1 9:1 26:1 76:1 267:1 392:1 
1 1 1 1 2:1 5:1 26:1 55:1 101:1 392:1 
0.9248606905239575 1 1 1 2:1 26:1 66:1 269:1 392:1 
0.2872418068880159 0.027883785338415 1 0.285553521364217 2:1 26:1 46:1 79:1 271:1 272:1 392:1 
0.427637875368398 0 0 0.4670800692154408 2:1 15:1 26:1 47:1 56:1 63:1 76:1 99:1 275:1 276:1 277:1 279:1 280:1 392:1 410:1 
0 0.09200503304220889 0 0 2:1 26:1 47:1 48:1 76:1 86:1 149:1 161:1 283:1 285:1 286:1 287:1 288:1 289:1 290:1 392:1 
0.3661019700629559 0.3076421262856821 0.4607512307820466 0.1841436201613678 2:1 26:1 56:1 292:1 293:1 294:1 295:1 296:1 297:1 298:1 299:1 301:1 392:1 4181:1 
0.0277174822318563 0.535153498311573 0.7133767050641853 0.9640082731878115 2:1 5:1 9:1 26:1 30:1 71:1 80:1 92:1 99:1 161:1 188:1 302:1 303:1 304:1 305:1 306:1 307:1 392:1 410:1 
0.005142980348158142 0.353514796657147 0.4266760380905664 0.8659074663328552 2:1 5:1 7:1 9:1 15:1 26:1 46:1 95:1 118:1 308:1 309:1 311:1 314:1 315:1 316:1 392:1 410:1 602:1 
0 0 1 0.04609699480171055 2:1 26:1 29:1 86:1 101:1 161:1 317:1 318:1 319:1 320:1 392:1 
1 1 1 1 2:1 26:1 32:1 321:1 322:1 392:1 
0 0 0.04286038008455052 0 2:1 9:1 12:1 26:1 40:1 66:1 71:1 86:1 218:1 323:1 324:1 325:1 326:1 327:1 392:1 
0 0 0.01494348359510713 0.3111254670276851 2:1 15:1 26:1 30:1 48:1 56:1 76:1 84:1 101:1 107:1 200:1 298:1 329:1 331:1 332:1 333:1 334:1 336:1 392:1 410:1 547:1 17063:1 
1 0 0 1 2:1 26:1 45:1 47:1 48:1 63:1 79:1 142:1 339:1 340:1 341:1 342:1 343:1 344:1 392:1 2689:1 5877:1 
1 1 1 1 2:1 9:1 26:1 392:1 
0 0 0.08477972410653792 0 2:1 9:1 26:1 352:1 392:1 
0.5925454536186192 0 1 0 2:1 26:1 71:1 76:1 92:1 107:1 151:1 161:1 168:1 285:1 355:1 356:1 392:1 837:1 
1 0.9391484265885056 1 1 2:1 26:1 48:1 101:1 358:1 392:1 
1 1 1 1 2:1 9:1 26:1 392:1 410:1 
1 1 1 1 2:1 26:1 30:1 151:1 362:1 392:1 
1 1 1 1 2:1 26:1 392:1 
1 0 1 1 2:1 5:1 26:1 62:1 63:1 138:1 142:1 161:1 170:1 188:1 332:1 365:1 366:1 367:1 368:1 392:1 4181:1 
1 1 1 1 2:1 26:1 30:1 36:1 44:1 47:1 86:1 120:1 122:1 151:1 252:1 369:1 392:1 
0 0.5968416408352922 1 1 2:1 9:1 26:1 40:1 45:1 46:1 376:1 377:1 378:1 379:1 392:1 410:1 
1 0 0.418827219318289 0 2:1 6:1 15:1 26:1 76:1 99:1 179:1 230:1 381:1 382:1 383:1 384:1 385:1 387:1 388:1 392:1 410:1 
0 0 1 0.2461712272878129 2:1 9:1 26:1 63:1 71:1 76:1 86:1 124:1 140:1 229:1 389:1 390:1 391:1 392:1 
1 1 1 1 2:1 26:1 80:1 392:1 393:1 
0.09313895119187397 0 0 0 2:1 26:1 46:1 74:1 392:1 395:1 396:1 397:1 
1 0.1039920541441048 1 0.8920948823757376 2:1 7:1 26:1 29:1 47:1 138:1 265:1 392:1 398:1 400:1 401:1 
0 0 1 1 2:1 25:1 26:1 47:1 62:1 76:1 125:1 392:1 
1 1 1 1 2:1 26:1 392:1 410:1 
0 0 0.2848793102141632 0.5981330442708369 2:1 6:1 9:1 26:1 47:1 92:1 101:1 202:1 298:1 351:1 392:1 400:1 404:1 406:1 408:1 410:1 411:1 412:1 413:1 414:1 415:1 2689:1 5876:1 
0 0.1835841118211543 0.04349272068009459 0.6529859160399724 2:1 6:1 15:1 26:1 40:1 47:1 161:1 392:1 410:1 416:1 417:1 418:1 419:1 420:1 421:1 422:1 1138:1 
1 1 1 1 2:1 23:1 26:1 29:1 63:1 86:1 92:1 178:1 265:1 392:1 423:1 424:1 
0 0 0.5905375734525011 0.9362052823703504 2:1 15:1 26:1 63:1 202:1 238:1 392:1 425:1 426:1 427:1 428:1 602:1 
0.09737404114367071 0.4580135798880116 0.7287793348321528 0.3413162398647268 2:1 5:1 15:1 26:1 51:1 55:1 63:1 64:1 65:1 73:1 76:1 94:1 114:1 132:1 168:1 392:1 435:1 436:1 437:1 438:1 439:1 440:1 604:1 2689:1 
0.1460371999739292 0.3078007540711638 0 0 2:1 9:1 26:1 40:1 55:1 76:1 161:1 265:1 392:1 442:1 443:1 444:1 445:1 446:1 447:1 
0 0 0.04455206116352566 0 2:1 9:1 26:1 65:1 140:1 392:1 449:1 450:1 451:1 452:1 453:1 837:1 6596:1 
0.03185655522691547 0.5075846134637911 0.723552667309484 0.4000344942540804 2:1 26:1 76:1 161:1 392:1 454:1 455:1 456:1 
1 0 0 0 2:1 26:1 55:1 63:1 102:1 129:1 138:1 187:1 209:1 221:1 392:1 450:1 457:1 458:1 
0 0.1065683667917411 0 0.08448313995804872 2:1 26:1 76:1 392:1 410:1 459:1 460:1 
1 1 1 1 2:1 6:1 9:1 26:1 68:1 125:1 392:1 
1 1 0 1 2:1 5:1 26:1 55:1 92:1 95:1 101:1 392:1 410:1 837:1 6596:1 
0.0878190592087785 0.2628802912179695 0 0 2:1 26:1 55:1 86:1 392:1 446:1 462:1 463:1 464:1 465:1 
1 0 1 0 2:1 9:1 26:1 29:1 86:1 114:1 161:1 261:1 392:1 467:1 469:1 
0.4374382647793871 0 1 0.4079686968482125 2:1 26:1 40:1 63:1 79:1 109:1 376:1 392:1 470:1 4181:1 
1 1 1 1 2:1 9:1 26:1 392:1 
1 1 1 1 2:1 26:1 30:1 40:1 47:1 63:1 76:1 120:1 209:1 319:1 362:1 392:1 478:1 479:1 480:1 
0.8071407357497583 0.2597536467235976 0.6138417506398675 0 2:1 26:1 86:1 392:1 481:1 482:1 483:1 484:1 
1 0.2387926646166685 0 0.1458156458996145 2:1 5:1 6:1 7:1 26:1 29:1 46:1 47:1 66:1 76:1 80:1 95:1 101:1 107:1 252:1 341:1 392:1 485:1 486:1 487:1 488:1 489:1 491:1 495:1 
0 0 0 0.2625196993782986 2:1 15:1 26:1 32:1 45:1 50:1 63:1 76:1 94:1 324:1 392:1 410:1 496:1 497:1 498:1 1138:1 
1 1 1 1 2:1 26:1 202:1 392:1 503:1 
0.251867558291072 0.08098294725578413 1 1 2:1 6:1 13:1 15:1 26:1 86:1 392:1 410:1 505:1 506:1 507:1 508:1 509:1 510:1 511:1 
0 1 0 0 2:1 7:1 26:1 63:1 71:1 73:1 138:1 240:1 242:1 262:1 263:1 340:1 385:1 392:1 410:1 512:1 513:1 
1 1 1 1 2:1 6:1 9:1 26:1 92:1 341:1 392:1 410:1 
0.5757493658100642 0 1 0 2:1 26:1 222:1 319:1 342:1 392:1 514:1 516:1 517:1 518:1 
0.06726715618033419 1 0.6083432390151375 0.6717564172518631 2:1 5:1 26:1 39:1 56:1 63:1 221:1 392:1 519:1 520:1 521:1 
1 1 1 1 2:1 26:1 63:1 73:1 392:1 528:1 
1 1 1 1 2:1 15:1 26:1 392:1 531:1 602:1 
0 0.3124687032246798 0.2263715117704485 0.5106103585451635 2:1 9:1 26:1 62:1 392:1 410:1 532:1 533:1 534:1 
0 0.03426647082255135 0 0 2:1 25:1 26:1 45:1 56:1 60:1 63:1 68:1 128:1 138:1 392:1 456:1 474:1 535:1 536:1 537:1 538:1 539:1 540:1 541:1 542:1 543:1 2689:1 5876:1 
0.2911845569022157 0 0 0 2:1 26:1 63:1 71:1 79:1 86:1 161:1 392:1 553:1 554:1 556:1 
1 0.2122907496783466 0.7462325238162409 1 2:1 26:1 56:1 392:1 558:1 
1 0.9687780468179212 0.3627477393540109 1 2:1 26:1 47:1 101:1 392:1 560:1 
0.9388979871431349 1 1 1 2:1 26:1 76:1 151:1 248:1 392:1 410:1 561:1 
0.0184679165494296 0.4491269824800762 0.4226355409679343 1 2:1 15:1 21:1 26:1 55:1 56:1 392:1 410:1 563:1 564:1 565:1 
0.2684221044934184 0.8151600628481563 1 0.9711216460521858 2:1 12:1 26:1 126:1 209:1 392:1 567:1 10620:1 
0 1 0.1522578406203696 0 2:1 25:1 26:1 48:1 151:1 392:1 571:1 572:1 573:1 
0.06263515477595345 0 0.723516669604602 0 2:1 26:1 44:1 63:1 71:1 73:1 76:1 86:1 161:1 177:1 222:1 287:1 319:1 342:1 392:1 574:1 575:1 
0 1 0 0 2:1 26:1 40:1 161:1 218:1 392:1 525:1 
1 1 1 1 2:1 9:1 26:1 392:1 
0 0 0 1 2:1 15:1 26:1 44:1 46:1 47:1 56:1 68:1 73:1 80:1 218:1 238:1 264:1 297:1 329:1 392:1 410:1 578:1 579:1 1282:1 
0 0 1 1 2:1 25:1 26:1 71:1 76:1 379:1 392:1 
1 0.5876900672991259 0.9201963362915275 1 2:1 5:1 7:1 9:1 26:1 43:1 45:1 60:1 61:1 63:1 86:1 129:1 151:1 161:1 208:1 222:1 285:1 392:1 398:1 427:1 438:1 584:1 585:1 587:1 589:1 590:1 591:1 
0 0.9454197093638357 0.1193313931415416 0 2:1 6:1 9:1 26:1 40:1 48:1 267:1 392:1 410:1 592:1 
0 0 0.2001736702669886 0 2:1 15:1 26:1 73:1 358:1 385:1 392:1 410:1 593:1 594:1 
0.7888764639916022 0.251073952570432 0.1302664376305857 1 2:1 26:1 86:1 161:1 392:1 595:1 596:1 597:1 598:1 
0 0 1 0 2:1 15:1 26:1 47:1 63:1 92:1 138:1 220:1 392:1 410:1 602:1 603:1 604:1 
0 0 1 1 2:1 9:1 26:1 63:1 133:1 138:1 144:1 392:1 
0.7360832181758392 0.7414328778029036 0.91468896861945 1 2:1 15:1 26:1 44:1 63:1 370:1 392:1 410:1 426:1 606:1 607:1 4181:1 
0 0 1 0 2:1 9:1 25:1 26:1 71:1 74:1 392:1 409:1 609:1 
1 1 1 1 2:1 26:1 392:1 
0 0 0 0.009716244600354118 2:1 15:1 26:1 76:1 95:1 161:1 252:1 326:1 392:1 610:1 611:1 837:1 
0.5827095458044403 0.8318120755559328 0.7397150674435504 1 2:1 26:1 32:1 39:1 40:1 47:1 63:1 120:1 128:1 138:1 151:1 161:1 214:1 261:1 392:1 467:1 613:1 614:1 616:1 
0.9929305411925868 0.8961725082133101 1 1 2:1 26:1 86:1 392:1 617:1 
1 1 1 1 2:1 26:1 63:1 200:1 231:1 392:1 
1 1 1 1 2:1 26:1 392:1 
0.866999196679596 1 1 1 2:1 9:1 26:1 392:1 625:1 
1 1 0.4858616065277037 1 2:1 15:1 26:1 44:1 63:1 73:1 99:1 221:1 366:1 392:1 633:1 1138:1 
1 1 1 1 2:1 26:1 63:1 125:1 392:1 410:1 634:1 
0 0 1 0 2:1 15:1 26:1 46:1 51:1 71:1 76:1 162:1 392:1 410:1 635:1 636:1 637:1 
0.8853779613218354 1 1 1 2:1 26:1 40:1 161:1 285:1 323:1 392:1 596:1 640:1 
0.1409561984645705 0 0 0 2:1 16:1 26:1 36:1 46:1 47:1 107:1 366:1 392:1 562:1 642:1 643:1 644:1 645:1 646:1 
0 0.1038620726448458 0 0 2:1 26:1 63:1 86:1 376:1 392:1 648:1 649:1 650:1 
0 0 1 0 2:1 9:1 25:1 26:1 79:1 392:1 
1 1 1 1 2:1 26:1 392:1 651:1 
1 0 1 0 2:1 9:1 26:1 32:1 63:1 71:1 86:1 177:1 392:1 652:1 653:1 4181:1 
0 0 1 0 2:1 9:1 15:1 26:1 47:1 161:1 162:1 215:1 216:1 392:1 410:1 654:1 
1 1 1 1 2:1 26:1 392:1 410:1 
1 1 1 1 2:1 15:1 26:1 392:1 
0 0 0.2584732532041956 0 2:1 5:1 6:1 7:1 9:1 25:1 26:1 44:1 63:1 76:1 392:1 410:1 527:1 657:1 659:1 660:1 
0 0.03941025162246226 1 0.4429534772309408 2:1 25:1 26:1 45:1 392:1 661:1 
0.4854956651623082 0 0 0 2:1 26:1 56:1 63:1 76:1 107:1 142:1 150:1 342:1 362:1 392:1 662:1 663:1 664:1 
0.3074085997520629 0.2143466358990686 1 0.9020656140536095 2:1 26:1 47:1 162:1 298:1 392:1 675:1 676:1 
0.3820818699671042 0.4397300951871934 0.3478320089966114 0.2962074195204019 2:1 26:1 36:1 44:1 46:1 68:1 74:1 76:1 392:1 677:1 678:1 679:1 
1 1 1 1 2:1 26:1 44:1 392:1 680:1 681:1 
1 1 1 1 2:1 26:1 392:1 682:1 
0 0 1 0 2:1 9:1 25:1 26:1 71:1 114:1 392:1 683:1 
0.4231337173717182 0 0 0 2:1 26:1 46:1 101:1 128:1 175:1 392:1 684:1 
1 1 1 1 2:1 5:1 26:1 86:1 101:1 161:1 376:1 392:1 410:1 685:1 
1 0 0 0 2:1 9:1 15:1 26:1 47:1 55:1 56:1 73:1 74:1 95:1 167:1 392:1 410:1 571:1 686:1 687:1 688:1 689:1 690:1 691:1 692:1 
0.370460741775916 0 0 0 2:1 26:1 392:1 693:1 694:1 695:1 696:1 697:1 
0 0 0.9409110219911944 0.06091854063903342 2:1 26:1 32:1 76:1 132:1 238:1 242:1 392:1 410:1 656:1 699:1 
0 0 1 0.3050397561330359 2:1 26:1 47:1 48:1 86:1 101:1 194:1 392:1 431:1 467:1 627:1 701:1 702:1 703:1 
0 0 0.3546516656951375 0.2925806703086 2:1 26:1 40:1 45:1 63:1 66:1 71:1 161:1 364:1 376:1 392:1 506:1 627:1 704:1 705:1 706:1 707:1 708:1 709:1 710:1 
1 1 1 1 2:1 5:1 26:1 68:1 76:1 392:1 660:1 711:1 
1 0.7195882182196796 1 0.2164447865459309 2:1 26:1 86:1 151:1 168:1 392:1 611:1 837:1 
0.01858007168205222 0.0533697219192974 0.9627142479567889 0.9228218770287079 2:1 26:1 63:1 76:1 151:1 161:1 391:1 392:1 716:1 717:1 718:1 719:1 720:1 721:1 722:1 723:1 724:1 
0.3025746098512446 0 0 1 2:1 26:1 392:1 725:1 
0 0 1 1 2:1 15:1 26:1 45:1 47:1 52:1 63:1 73:1 248:1 249:1 250:1 392:1 410:1 
0.9108019974883294 1 1 1 2:1 26:1 56:1 63:1 68:1 125:1 140:1 166:1 392:1 410:1 584:1 726:1 
0 0 1 0 2:1 25:1 26:1 216:1 392:1 
1 1 1 1 2:1 26:1 48:1 266:1 392:1 
0.539070983173038 0.130165417308042 0 0 2:1 5:1 26:1 55:1 63:1 68:1 97:1 126:1 173:1 205:1 392:1 735:1 737:1 878:1 2689:1 5877:1 
1 1 1 1 2:1 15:1 26:1 46:1 73:1 299:1 392:1 467:1 551:1 584:1 1113:1 
0.2023732456305653 0 0 0.1402878506098315 2:1 26:1 46:1 71:1 95:1 168:1 261:1 264:1 392:1 409:1 743:1 744:1 745:1 746:1 
0.1392994650135012 0.06195610722523349 0 0.02751670530854515 2:1 7:1 26:1 45:1 56:1 74:1 76:1 86:1 237:1 242:1 392:1 525:1 747:1 748:1 749:1 750:1 751:1 752:1 753:1 754:1 755:1 
1 0 0 0.6700578929437798 2:1 26:1 144:1 250:1 392:1 758:1 
1 0 0 0 2:1 26:1 71:1 73:1 252:1 392:1 504:1 759:1 
0.3091088365006134 0 0 0.3647311398006433 2:1 26:1 46:1 76:1 161:1 261:1 392:1 424:1 503:1 760:1 761:1 762:1 
0.7829259047912844 0.5182205700487137 0.07587068259373855 0 2:1 26:1 40:1 63:1 73:1 151:1 179:1 392:1 763:1 764:1 
0.3832705187452313 0.7711203015320958 0.5753290140407361 1 2:1 26:1 364:1 392:1 410:1 556:1 765:1 
0 0.9441656648305193 1 1 2:1 15:1 26:1 392:1 410:1 506:1 627:1 768:1 769:1 2689:1 5877:1 
0 1 1 0.8889607434517125 2:1 26:1 47:1 243:1 392:1 410:1 656:1 723:1 770:1 
0.1075778020027111 0.410337515482037 0.3753979536338848 0.1915109613722263 2:1 26:1 48:1 71:1 175:1 376:1 392:1 410:1 512:1 604:1 771:1 772:1 773:1 774:1 775:1 776:1 2689:1 
0.7565969810273798 0.6225824232102107 1 0.7344304014175245 2:1 26:1 46:1 86:1 272:1 392:1 779:1 2689:1 5052:1 5877:1 
0.06428940160003201 0.04584550837628579 0 0 2:1 5:1 26:1 97:1 101:1 132:1 151:1 178:1 222:1 242:1 252:1 392:1 410:1 519:1 625:1 780:1 781:1 782:1 785:1 786:1 
0.565468944518691 0.6639501104437211 1 0.08262813844646594 2:1 7:1 9:1 26:1 40:1 76:1 149:1 324:1 392:1 787:1 788:1 
1 1 0.3378860439028273 0.8702854647736434 2:1 5:1 9:1 26:1 56:1 101:1 107:1 150:1 167:1 392:1 410:1 463:1 656:1 789:1 790:1 
0 0.580819524474782 0 1 2:1 5:1 26:1 40:1 46:1 63:1 71:1 80:1 101:1 107:1 129:1 261:1 392:1 410:1 520:1 791:1 792:1 793:1 794:1 795:1 
1 0.5341310230922355 0.1526066342471028 1 2:1 26:1 44:1 47:1 63:1 76:1 107:1 370:1 392:1 797:1 798:1 799:1 
1 0 1 1 2:1 15:1 26:1 63:1 76:1 129:1 200:1 392:1 602:1 800:1 
0 0.2820217803468104 0.3432364906665039 1 2:1 26:1 50:1 376:1 392:1 410:1 801:1 7906:1 
1 1 1 1 2:1 26:1 392:1 687:1 803:1 4181:1 
1 0 0.5663588592357534 0.3668506218278849 2:1 7:1 26:1 76:1 101:1 358:1 379:1 392:1 408:1 804:1 
0 1 0 0 2:1 26:1 32:1 63:1 76:1 382:1 392:1 410:1 651:1 722:1 
0 0.1171921308586693 0.04820603066356928 0.9033637551048852 2:1 15:1 26:1 56:1 63:1 76:1 107:1 142:1 150:1 342:1 362:1 392:1 410:1 662:1 663:1 664:1 
1 1 1 1 2:1 15:1 26:1 392:1 410:1 
0 0.1060422412379978 1 1 2:1 6:1 26:1 76:1 92:1 101:1 365:1 392:1 410:1 
1 1 1 1 2:1 26:1 45:1 66:1 68:1 86:1 144:1 392:1 601:1 811:1 
0 0 1 0 2:1 9:1 25:1 26:1 181:1 217:1 392:1 
1 1 1 1 2:1 6:1 26:1 39:1 40:1 56:1 73:1 86:1 92:1 125:1 161:1 173:1 205:1 230:1 252:1 265:1 298:1 329:1 356:1 392:1 530:1 732:1 818:1 819:1 820:1 2689:1 5876:1 7906:1 
1 1 1 1 2:1 26:1 63:1 97:1 122:1 181:1 392:1 824:1 
0 0 1 0 2:1 26:1 63:1 182:1 392:1 410:1 427:1 736:1 825:1 837:1 6596:1 
0.4962886116860654 0.5794426134090571 0.1751066153930334 0.4846596468135019 2:1 15:1 26:1 107:1 151:1 342:1 379:1 392:1 410:1 602:1 826:1 827:1 828:1 829:1 830:1 
0 0 0.04480071930696315 0 2:1 15:1 26:1 46:1 62:1 63:1 73:1 84:1 86:1 173:1 177:1 178:1 181:1 392:1 832:1 833:1 836:1 
0.4322483795513997 0.2096801973719771 1 0.851165695863693 2:1 26:1 392:1 410:1 837:1 838:1 839:1 
0.5978196715005427 1 0 1 2:1 26:1 40:1 46:1 79:1 95:1 99:1 167:1 168:1 298:1 392:1 841:1 842:1 
1 0.05194858409196788 0 1 2:1 15:1 26:1 63:1 76:1 95:1 166:1 167:1 285:1 367:1 392:1 410:1 843:1 844:1 845:1 846:1 
0 0.4729070890081708 1 0 2:1 9:1 26:1 65:1 71:1 214:1 392:1 705:1 759:1 2689:1 5876:1 
0 0.00657223572135898 0 0.3148091104708313 2:1 6:1 26:1 76:1 99:1 179:1 230:1 381:1 382:1 383:1 384:1 385:1 387:1 388:1 392:1 410:1 
0.8034885980589322 0 0.9965324342146078 0.2548668133430148 2:1 26:1 47:1 49:1 63:1 86:1 92:1 392:1 849:1 850:1 
0.06671589032464056 0 0 1 2:1 23:1 26:1 63:1 95:1 122:1 133:1 138:1 144:1 298:1 332:1 392:1 467:1 
0.249483574137567 0 0.2323913324042232 0.3790976002441418 2:1 6:1 26:1 63:1 71:1 76:1 124:1 166:1 367:1 392:1 858:1 859:1 860:1 861:1 
0.2821817608893286 1 0.4671400460813624 1 2:1 26:1 63:1 129:1 392:1 476:1 537:1 862:1 863:1 
0 1 1 0.9354397270231019 2:1 6:1 26:1 86:1 107:1 133:1 161:1 202:1 392:1 410:1 792:1 837:1 865:1 6596:1 
0 1 1 0.3646680247270147 2:1 15:1 26:1 376:1 392:1 604:1 867:1 868:1 
1 0 0 0 2:1 26:1 30:1 63:1 86:1 99:1 129:1 144:1 392:1 869:1 870:1 871:1 
0.2836404284690259 0 0.1083448169974288 0.220389385963252 2:1 9:1 26:1 71:1 74:1 76:1 86:1 101:1 154:1 222:1 376:1 392:1 410:1 872:1 873:1 874:1 875:1 876:1 
0 1 0 0 2:1 26:1 71:1 392:1 878:1 
0.3712285947257891 0.4352991452086895 0 0.6080733167745485 2:1 26:1 45:1 68:1 73:1 86:1 99:1 342:1 358:1 392:1 591:1 844:1 879:1 880:1 881:1 882:1 883:1 884:1 
1 0 1 1 2:1 9:1 26:1 162:1 200:1 392:1 
1 0 0.6232901033390271 1 2:1 9:1 26:1 30:1 47:1 74:1 121:1 122:1 392:1 
0 0.09795030430860301 1 0 2:1 9:1 25:1 26:1 40:1 392:1 893:1 
0 0.2165777785650419 0 0.03068885678955981 2:1 5:1 15:1 26:1 36:1 40:1 45:1 55:1 56:1 63:1 73:1 99:1 261:1 306:1 364:1 410:1 633:1 712:1 894:1 895:1 897:1 898:1 899:1 900:1 
1 1 1 1 2:1 26:1 392:1 
1 1 0 1 2:1 26:1 29:1 52:1 107:1 333:1 340:1 343:1 392:1 901:1 902:1 
1 1 1 1 2:1 26:1 392:1 
0 0.2952171160839609 0.08323043518004528 0 2:1 26:1 55:1 221:1 392:1 480:1 600:1 906:1 
0.2075087980770822 0 0.9334034359478394 0 2:1 9:1 26:1 56:1 86:1 181:1 392:1 475:1 482:1 908:1 909:1 2689:1 5876:1 
1 0.6824162815689847 1 1 2:1 9:1 13:1 15:1 26:1 40:1 47:1 252:1 298:1 392:1 439:1 467:1 591:1 815:1 911:1 912:1 913:1 
0.6358000167065597 1 1 1 2:1 26:1 392:1 410:1 796:1 920:1 921:1 
1 1 1 1 2:1 26:1 392:1 
0.4476131726562763 1 0 0.5424035200856793 2:1 26:1 43:1 48:1 86:1 97:1 161:1 392:1 763:1 880:1 925:1 927:1 928:1 929:1 
0.5281789359917965 1 1 1 2:1 26:1 86:1 124:1 392:1 916:1 
0 0.4217578995807842 0.219488488547366 0 78:1 392:1 
0.8371046178388686 0 0 0.05273556605652957 2:1 26:1 36:1 375:1 392:1 932:1 
1 1 1 1 2:1 23:1 26:1 48:1 63:1 76:1 107:1 151:1 220:1 252:1 392:1 410:1 821:1 933:1 
0 0 0.3053980600728174 0 2:1 15:1 26:1 80:1 86:1 129:1 323:1 392:1 410:1 426:1 604:1 837:1 937:1 5802:1 6596:1 
0.2396841950390952 0 0.1942345879367484 0.07633895911517606 2:1 26:1 47:1 71:1 76:1 80:1 285:1 379:1 392:1 409:1 427:1 940:1 
1 1 0 1 2:1 26:1 36:1 125:1 126:1 392:1 941:1 
0.3190508829943128 0.2122764291825528 1 0.8932223135096292 2:1 26:1 46:1 392:1 842:1 942:1 
1 1 1 1 2:1 26:1 392:1 
1 1 1 1 2:1 26:1 32:1 392:1 837:1 943:1 6596:1 
0.8761040676617327 0.01129407111795225 0 1 2:1 26:1 44:1 73:1 92:1 392:1 438:1 944:1 945:1 946:1 
0 0.1446107532053708 1 0 2:1 9:1 15:1 26:1 71:1 76:1 118:1 182:1 209:1 392:1 410:1 782:1 948:1 949:1 
0 0 1 0 2:1 9:1 25:1 26:1 68:1 125:1 126:1 392:1 
1 1 1 1 2:1 26:1 44:1 47:1 243:1 276:1 392:1 
0 0 0.4718943690414685 0 2:1 25:1 26:1 32:1 71:1 86:1 168:1 241:1 329:1 392:1 687:1 837:1 952:1 953:1 6596:1 
0.0186619722452689 0 1 0 2:1 9:1 15:1 25:1 26:1 392:1 956:1 957:1 
0.4765084494409786 0.3616383940002327 0 0 2:1 9:1 26:1 36:1 45:1 68:1 76:1 161:1 252:1 343:1 379:1 392:1 395:1 722:1 961:1 962:1 965:1 968:1 
0.4597217728448483 0.4962348650864982 0.3142966051777961 0.9994829230272689 2:1 15:1 26:1 32:1 45:1 50:1 63:1 76:1 94:1 324:1 392:1 410:1 496:1 497:1 498:1 1138:1 
0 0 0.2398135555458374 0 2:1 26:1 46:1 51:1 71:1 76:1 162:1 392:1 635:1 636:1 637:1 
0.3285317687941721 0 0.469129563278656 0 2:1 9:1 15:1 26:1 86:1 124:1 392:1 410:1 974:1 975:1 
0 1 0.8583447836605732 0 2:1 26:1 44:1 73:1 364:1 392:1 410:1 913:1 977:1 978:1 979:1 
1 1 1 1 2:1 26:1 133:1 392:1 4181:1 
0.1655077627100961 0.004496163397065632 0.02600819327246815 0.2284982692158722 2:1 9:1 26:1 63:1 93:1 170:1 249:1 362:1 376:1 392:1 984:1 985:1 986:1 991:1 
1 0.03447429789665411 0.1305513119109084 0 2:1 26:1 32:1 43:1 46:1 47:1 63:1 107:1 173:1 298:1 359:1 392:1 467:1 908:1 965:1 995:1 
1 0 1 1 2:1 26:1 68:1 86:1 125:1 181:1 392:1 
0.0382025677722353 0 0 0 2:1 6:1 26:1 30:1 151:1 265:1 392:1 983:1 997:1 998:1 999:1 1000:1 1001:1 
0 0 0.4068210580055388 0 2:1 9:1 26:1 124:1 144:1 379:1 392:1 604:1 999:1 5662:1 
0 0 1 1 2:1 25:1 26:1 71:1 392:1 
0.549543706818213 0.1631399733095215 0.6403931565633724 0.5982929745087038 2:1 15:1 26:1 48:1 101:1 358:1 392:1 410:1 1004:1 
0.1950168522342734 0.2006039886429092 0.30200988581418 0.3503610262868251 2:1 26:1 61:1 73:1 392:1 1005:1 1006:1 1007:1 1008:1 1009:1 1010:1 1011:1 1012:1 1013:1 1014:1 
1 1 0.09699648737329156 1 2:1 26:1 39:1 40:1 46:1 73:1 392:1 530:1 548:1 
0 0.8367910869556329 0.4625532172532002 0.6978010859367261 2:1 26:1 45:1 47:1 54:1 56:1 63:1 68:1 76:1 133:1 150:1 392:1 1019:1 1020:1 1021:1 1022:1 1023:1 1024:1 
0.8859636640689268 0 0 1 2:1 6:1 26:1 151:1 238:1 242:1 324:1 392:1 562:1 
1 1 1 1 2:1 26:1 56:1 63:1 68:1 94:1 107:1 120:1 319:1 364:1 392:1 410:1 535:1 1025:1 
0.1528050002379055 0.6905502516967406 1 0.9232599450670068 2:1 26:1 40:1 161:1 379:1 392:1 1027:1 1028:1 
0.7209084965185977 0.2320202912550612 0 0.1580604112425923 2:1 26:1 63:1 76:1 79:1 99:1 149:1 151:1 161:1 188:1 217:1 298:1 392:1 467:1 1029:1 1030:1 1031:1 1032:1 11081:1 
0 0.8206062105590087 0 0 2:1 26:1 36:1 46:1 76:1 101:1 263:1 392:1 725:1 793:1 817:1 867:1 1035:1 1037:1 
0.768615923832156 0.4200581827612224 0.9426033483344622 0.02021372616971228 2:1 15:1 26:1 63:1 86:1 161:1 205:1 392:1 410:1 703:1 1043:1 1044:1 
0 0.5846239130977948 0.8546034616887855 0.5536745550840033 2:1 26:1 86:1 124:1 161:1 392:1 1029:1 1047:1 
0.642328918085168 1 0.6234002660577224 1 2:1 26:1 77:1 376:1 392:1 410:1 590:1 703:1 1048:1 1049:1 
0 0 1 0.04240673862189372 2:1 7:1 9:1 25:1 26:1 47:1 48:1 63:1 221:1 222:1 229:1 299:1 392:1 469:1 502:1 1050:1 1051:1 
0.8892384423051075 0.351134875986342 1 1 2:1 15:1 26:1 136:1 392:1 1052:1 
1 1 1 1 2:1 26:1 392:1 1053:1 
1 0 0.2583666209368043 0.02764960662319591 2:1 7:1 26:1 56:1 66:1 97:1 99:1 107:1 128:1 175:1 221:1 265:1 366:1 392:1 446:1 467:1 1054:1 1055:1 1056:1 1057:1 1058:1 1059:1 
0.04130955989332167 0.3289126641137434 0.5213658923300489 0.04314858055399342 2:1 15:1 16:1 26:1 36:1 392:1 604:1 1062:1 1064:1 1065:1 1066:1 1067:1 1068:1 1069:1 
0 1 0 1 2:1 9:1 26:1 263:1 392:1 410:1 535:1 793:1 1070:1 1071:1 
0 0 1 0.6485294944598499 2:1 25:1 26:1 32:1 48:1 63:1 151:1 362:1 392:1 637:1 867:1 999:1 
1 0.5083717214338858 1 1 2:1 26:1 101:1 146:1 222:1 392:1 410:1 
0 0.159118153163799 0.6291752025167712 1 2:1 26:1 63:1 71:1 73:1 326:1 392:1 446:1 553:1 867:1 1030:1 1074:1 
0.4577766898257816 0 0 0 2:1 9:1 26:1 46:1 86:1 111:1 126:1 151:1 173:1 221:1 222:1 272:1 299:1 376:1 392:1 467:1 637:1 837:1 1075:1 1076:1 2689:1 5876:1 
0.6246549704750725 0.6699545740972703 0.1909937711567414 0.5742333244103346 2:1 26:1 63:1 76:1 79:1 118:1 252:1 299:1 392:1 410:1 423:1 522:1 549:1 1077:1 1078:1 
1 0 0.8954891284080988 0.09397972127366772 2:1 9:1 26:1 43:1 68:1 126:1 392:1 711:1 1081:1 
1 0.6421005873440898 1 1 2:1 26:1 86:1 392:1 1083:1 
0.7394322683470868 0.2892360073529883 1 1 2:1 9:1 26:1 91:1 392:1 410:1 1085:1 
0.2186531558656823 0 0 0.1642713912749806 2:1 26:1 38:1 55:1 63:1 138:1 221:1 242:1 367:1 392:1 410:1 725:1 795:1 871:1 1089:1 1090:1 1092:1 1093:1 1094:1 1095:1 
0.9597312581406423 0.7536010919429081 0 1 2:1 7:1 15:1 26:1 56:1 66:1 73:1 97:1 99:1 107:1 128:1 175:1 221:1 265:1 366:1 392:1 410:1 446:1 467:1 1054:1 1055:1 1056:1 1057:1 1058:1 1059:1 
0 0 0.6189775312585076 0 2:1 26:1 40:1 56:1 63:1 161:1 170:1 276:1 392:1 666:1 1096:1 
0 0.1923828057372238 1 0 2:1 9:1 16:1 26:1 32:1 48:1 109:1 149:1 161:1 392:1 701:1 1098:1 
0 0.1770613398343682 0.9333572192972599 1 2:1 6:1 15:1 26:1 71:1 86:1 332:1 381:1 392:1 410:1 1101:1 1102:1 1104:1 
0.4012672163001459 0 1 0.7472194161807633 2:1 26:1 32:1 40:1 65:1 132:1 181:1 248:1 392:1 1108:1 1109:1 
0 0 1 0 2:1 26:1 46:1 56:1 107:1 202:1 238:1 303:1 376:1 392:1 470:1 
0 0.3815644080415839 0.1281082002971649 0 2:1 7:1 15:1 26:1 32:1 66:1 73:1 86:1 276:1 392:1 410:1 604:1 649:1 1111:1 1112:1 1114:1 
0.0374312534670494 0 0.06179979900810601 0.6288680451935383 2:1 26:1 46:1 63:1 86:1 138:1 392:1 690:1 1116:1 3171:1 
0 0 1 0 2:1 9:1 12:1 16:1 26:1 36:1 63:1 86:1 129:1 170:1 392:1 432:1 660:1 1119:1 1120:1 
0 0 0.7723899671012446 1 2:1 15:1 26:1 36:1 392:1 431:1 717:1 1121:1 1122:1 1123:1 1291:1 
0 0.507271502389178 0 0.3531104922805719 2:1 5:1 26:1 43:1 73:1 101:1 107:1 265:1 335:1 392:1 410:1 592:1 916:1 1126:1 1127:1 1128:1 
1 1 1 1 2:1 26:1 392:1 503:1 
0.4831633411810229 0.1651839750746307 0.8996890664967298 0.3352465130307508 2:1 26:1 44:1 285:1 392:1 1131:1 1132:1 
1 0.5268162651976016 1 1 2:1 9:1 26:1 63:1 95:1 362:1 385:1 392:1 651:1 1133:1 1134:1 1135:1 
1 0.7986730021012141 1 1 2:1 15:1 26:1 66:1 76:1 265:1 392:1 400:1 1136:1 
1 1 1 1 2:1 26:1 47:1 76:1 392:1 
0 0.1572409604841309 0.2199578856466416 0 2:1 26:1 66:1 124:1 392:1 537:1 538:1 1140:1 1141:1 1142:1 1143:1 
0 1 0 0 2:1 26:1 36:1 55:1 74:1 173:1 214:1 392:1 427:1 648:1 878:1 1147:1 1148:1 
1 1 1 1 2:1 26:1 392:1 1152:1 
0.3777817522768972 0.1970298853655186 0.08829735754518557 0.7565824427984332 2:1 26:1 30:1 63:1 98:1 99:1 122:1 168:1 364:1 392:1 815:1 1159:1 1160:1 1161:1 
0.4062589741188936 0 0 0.143314526866077 2:1 9:1 26:1 46:1 56:1 222:1 252:1 332:1 340:1 366:1 392:1 499:1 535:1 670:1 680:1 1162:1 1163:1 
1 0 1 1 2:1 6:1 25:1 26:1 48:1 71:1 107:1 125:1 252:1 340:1 342:1 392:1 
1 1 1 1 2:1 26:1 392:1 986:1 
0.7732141457644683 1 1 0.8005553375537908 2:1 9:1 26:1 63:1 71:1 151:1 179:1 329:1 392:1 410:1 1165:1 1166:1 1167:1 
0.7765302659939972 1 1 0.8464267340753496 2:1 6:1 26:1 48:1 56:1 221:1 392:1 1175:1 1176:1 
0 0.04802461360450736 1 0.9709353958582251 2:1 15:1 26:1 63:1 243:1 392:1 410:1 442:1 1179:1 
0.9313703828745696 0.9444363627512564 1 0.9029924678418444 2:1 9:1 26:1 392:1 1182:1 
0.2140952992322348 0 0 0.4941066249339836 2:1 9:1 26:1 101:1 265:1 392:1 400:1 869:1 983:1 1183:1 1184:1 1186:1 1187:1 9324:1 
1 1 1 1 2:1 9:1 26:1 101:1 392:1 
0 0.216451422476328 1 0.1792129611621242 2:1 9:1 15:1 26:1 44:1 63:1 86:1 124:1 392:1 410:1 622:1 
0.4420791357923034 0.0734713823097988 0.6152876477139362 0.5624850721297142 2:1 26:1 40:1 45:1 63:1 71:1 76:1 95:1 125:1 181:1 392:1 1191:1 1192:1 1193:1 1194:1 1195:1 
0 0 1 1 2:1 9:1 25:1 26:1 73:1 392:1 
0 0.08639182504754556 0 0.5763043519659128 2:1 9:1 15:1 26:1 40:1 55:1 57:1 160:1 161:1 162:1 163:1 392:1 410:1 
0.2735009294987796 0.341946632983204 0.2255717781402098 0.4499553737874803 2:1 26:1 63:1 247:1 392:1 410:1 732:1 1200:1 9748:1 
0 0 0.2730371247078504 0 2:1 9:1 25:1 26:1 173:1 372:1 373:1 392:1 
0 0.4527190087948593 1 0 2:1 9:1 26:1 32:1 45:1 132:1 161:1 392:1 444:1 701:1 913:1 1098:1 1203:1 
1 0.9028768463273182 1 0.4997533395152646 2:1 9:1 26:1 29:1 30:1 40:1 52:1 392:1 1204:1 1205:1 
0.7691617361368654 0.3480378523661521 0.1188922430684825 1 2:1 26:1 36:1 40:1 73:1 129:1 311:1 392:1 503:1 666:1 709:1 1177:1 1206:1 
0 0 1 1 2:1 25:1 26:1 63:1 66:1 73:1 175:1 376:1 392:1 
0.1783355765013048 0.5108953912587361 0 0.3499766993824278 2:1 26:1 76:1 94:1 95:1 157:1 392:1 410:1 1207:1 1208:1 1210:1 1212:1 1213:1 1215:1 
0 0.1187426089399972 1 0.412385290935634 2:1 12:1 26:1 392:1 457:1 506:1 1219:1 
1 1 1 1 2:1 5:1 26:1 99:1 382:1 392:1 1221:1 
0 0 0.4831890341741197 0 2:1 26:1 32:1 40:1 45:1 47:1 63:1 71:1 99:1 101:1 112:1 129:1 149:1 181:1 202:1 392:1 419:1 837:1 1223:1 1224:1 1225:1 1226:1 1228:1 5802:1 6596:1 
0.1798816139282594 0.05411952227431852 0 0 2:1 26:1 51:1 95:1 138:1 168:1 206:1 392:1 887:1 1231:1 1232:1 
0 0 0.6469193940334931 0 2:1 9:1 25:1 26:1 392:1 1233:1 1234:1 1235:1 
0.4103173112994665 0.4916536557132499 0.6997907834452186 0.6088400697479519 2:1 6:1 26:1 76:1 392:1 1236:1 1237:1 
0 0 1 0 2:1 9:1 15:1 26:1 200:1 216:1 392:1 410:1 
1 1 1 1 2:1 26:1 46:1 162:1 392:1 1238:1 1239:1 
1 0 0 0.1051759602911537 2:1 26:1 80:1 86:1 129:1 323:1 392:1 426:1 837:1 937:1 6596:1 
1 0.02081347141146077 1 1 2:1 9:1 26:1 38:1 43:1 45:1 47:1 48:1 111:1 138:1 265:1 364:1 392:1 727:1 
0.9515034633473303 1 1 1 2:1 15:1 26:1 86:1 392:1 410:1 1083:1 
1 1 1 1 2:1 26:1 45:1 145:1 392:1 
0 0 0.04244180489299949 0 2:1 9:1 26:1 86:1 120:1 209:1 272:1 329:1 392:1 1240:1 
0.347746388992226 0.3497865920694873 1 1 2:1 7:1 26:1 32:1 43:1 45:1 63:1 76:1 86:1 173:1 376:1 392:1 410:1 656:1 658:1 1245:1 
0 0 1 0 2:1 9:1 26:1 68:1 86:1 125:1 181:1 217:1 392:1 
1 1 1 1 2:1 5:1 9:1 26:1 40:1 48:1 392:1 410:1 763:1 1247:1 
0 0 1 1 2:1 25:1 26:1 264:1 392:1 
1 0 1 0.2852444206211874 2:1 26:1 44:1 47:1 73:1 392:1 516:1 735:1 
0 0.1287308105590187 1 0 2:1 9:1 26:1 120:1 149:1 200:1 392:1 1248:1 1249:1 
1 0.2915385574585728 0.831099538285649 0.5060553839405161 2:1 26:1 86:1 151:1 392:1 1216:1 1250:1 
0 0.7804945501165971 0 0 2:1 9:1 25:1 26:1 71:1 245:1 392:1 456:1 1257:1 
0.3363478045195874 0.241222544423894 0 0.6063765517195072 2:1 26:1 342:1 392:1 687:1 1258:1 1259:1 1260:1 
0.7364745846188796 1 0.6587873455772375 0.7024156452405573 2:1 26:1 40:1 56:1 151:1 392:1 1261:1 1262:1 1263:1 1264:1 
0.5012293702643515 0 0.1809536608316876 0.7574917207633637 2:1 26:1 40:1 94:1 392:1 393:1 502:1 1265:1 1266:1 1267:1 
1 1 1 1 2:1 26:1 392:1 
0 0 1 0 2:1 9:1 15:1 25:1 26:1 86:1 221:1 392:1 604:1 814:1 1268:1 1269:1 
1 1 1 1 2:1 26:1 392:1 410:1 
0 1 1 1 2:1 7:1 9:1 25:1 26:1 47:1 161:1 392:1 1270:1 1271:1 1274:1 
1 0 1 0 2:1 7:1 26:1 40:1 45:1 56:1 60:1 65:1 71:1 144:1 214:1 376:1 392:1 705:1 833:1 1279:1 7638:1 
1 1 1 1 2:1 26:1 63:1 76:1 370:1 392:1 
1 1 0.9544949824856849 1 2:1 7:1 26:1 40:1 43:1 99:1 101:1 179:1 392:1 1282:1 1284:1 
0 0 0.3732662081776083 0 2:1 9:1 25:1 26:1 216:1 392:1 680:1 1285:1 
0.6445944911008527 1 1 1 2:1 26:1 40:1 140:1 161:1 392:1 1287:1 
0.2482512289624365 1 0 1 2:1 5:1 15:1 26:1 76:1 392:1 530:1 1031:1 1138:1 1290:1 4181:1 
0 0.3076350357330043 1 0 2:1 26:1 30:1 48:1 56:1 76:1 84:1 107:1 200:1 298:1 329:1 331:1 332:1 333:1 334:1 336:1 392:1 
1 1 1 1 2:1 5:1 9:1 26:1 55:1 101:1 167:1 392:1 410:1 
1 1 1 1 2:1 26:1 73:1 133:1 392:1 
0.03518397995342057 0 0.1612185668547523 0.4957360300630924 2:1 26:1 32:1 40:1 95:1 101:1 107:1 161:1 179:1 222:1 329:1 332:1 392:1 620:1 1293:1 1294:1 1295:1 
1 1 1 1 2:1 9:1 26:1 48:1 93:1 392:1 410:1 
1 0.368150931819318 1 0.598034760311316 2:1 9:1 26:1 47:1 86:1 101:1 392:1 1296:1 1297:1 
1 1 1 1 2:1 26:1 392:1 
0 0.4373246748961396 1 1 2:1 15:1 26:1 86:1 221:1 265:1 366:1 392:1 400:1 410:1 531:1 750:1 1299:1 
1 0 1 1 2:1 26:1 125:1 173:1 392:1 654:1 
1 0.6954425494150797 0 0 2:1 26:1 28:1 29:1 76:1 107:1 149:1 161:1 392:1 1295:1 1304:1 1305:1 1306:1 
0.9371417123432686 0.02696381287867244 0.3664871908558904 0.8723627906458651 2:1 26:1 63:1 65:1 144:1 392:1 1309:1 1310:1 
0 0.04624030290841713 0 0.08861323704570703 2:1 26:1 32:1 63:1 66:1 154:1 165:1 375:1 392:1 410:1 503:1 690:1 1312:1 1313:1 1314:1 
1 0.1904639601112197 0 0.2689991685365334 2:1 7:1 26:1 46:1 73:1 86:1 252:1 392:1 656:1 808:1 1316:1 
0 0 0.1074273114778584 0 2:1 25:1 26:1 43:1 63:1 124:1 138:1 161:1 166:1 170:1 224:1 392:1 1317:1 1318:1 
0.05465420776060917 0 0 0.1018675622796933 2:1 9:1 15:1 26:1 56:1 63:1 71:1 76:1 99:1 238:1 245:1 392:1 410:1 620:1 956:1 999:1 1241:1 1282:1 1319:1 1320:1 1321:1 1322:1 
0 0 1 0.6869880732260931 2:1 9:1 26:1 46:1 71:1 221:1 379:1 392:1 1269:1 
1 1 0.8880333228135511 1 2:1 13:1 26:1 36:1 71:1 76:1 86:1 234:1 392:1 603:1 1325:1 
0 0 0.5068339768135339 0 2:1 9:1 26:1 86:1 166:1 392:1 474:1 814:1 1001:1 1327:1 
1 0 0.4178286639803908 0 2:1 9:1 15:1 26:1 40:1 124:1 125:1 392:1 680:1 1328:1 1329:1 
0 0.01564147050832522 0 0.5248001870095325 2:1 5:1 26:1 40:1 63:1 76:1 95:1 151:1 187:1 298:1 362:1 382:1 392:1 410:1 971:1 1197:1 1331:1 1332:1 1333:1 1334:1 
0 1 1 1 2:1 13:1 26:1 161:1 181:1 392:1 660:1 782:1 1338:1 
0.5927571429139066 0.939244668654354 1 1 2:1 26:1 376:1 392:1 410:1 1340:1 
0 0 1 0.1996075594477776 2:1 9:1 26:1 71:1 252:1 379:1 392:1 409:1 1075:1 
0.4332426158141561 1 1 1 2:1 26:1 36:1 63:1 299:1 351:1 392:1 410:1 1341:1 1342:1 
0.7377884291270066 0.6951371237753851 1 0.8845065083897603 2:1 15:1 26:1 122:1 392:1 604:1 1343:1 
1 1 0.7936418772428091 1 2:1 15:1 26:1 36:1 40:1 45:1 56:1 71:1 73:1 76:1 99:1 113:1 161:1 392:1 602:1 921:1 1345:1 1346:1 1347:1 1348:1 1349:1 1350:1 1351:1 1352:1 1353:1 
1 0.5405486888348802 0 1 2:1 5:1 9:1 15:1 26:1 32:1 63:1 73:1 76:1 95:1 107:1 252:1 362:1 392:1 410:1 1354:1 1356:1 1357:1 5802:1 
1 0 1 1 2:1 26:1 249:1 392:1 506:1 1358:1 
0 0 1 0 2:1 6:1 15:1 16:1 26:1 29:1 32:1 63:1 76:1 138:1 161:1 195:1 221:1 332:1 392:1 410:1 841:1 
0.4363462719016685 0.8066002239935248 0.5224549399278957 0.9397982241807792 2:1 26:1 30:1 99:1 241:1 364:1 392:1 410:1 473:1 1360:1 1361:1 1362:1 
0.6282943060027972 0.1885142824881649 0.1178794527098653 0.2698352786233854 2:1 26:1 32:1 36:1 46:1 76:1 132:1 392:1 1366:1 1367:1 
1 0 0 1 2:1 26:1 63:1 376:1 392:1 1370:1 
0 0 0.8281734877356047 1 2:1 15:1 25:1 26:1 36:1 76:1 125:1 392:1 1138:1 1371:1 1372:1 
0.7286164120981509 0.2711045902645811 0 0.4787360657479411 2:1 26:1 392:1 1373:1 1375:1 
0.1908242488960489 0 1 0.7952989251589881 2:1 26:1 392:1 506:1 627:1 768:1 769:1 2689:1 5877:1 
0.1464238861908219 0 0.08145600621618018 0 2:1 26:1 63:1 392:1 1376:1 1377:1 1378:1 
0.1630029029862728 0.1653176754573519 0 0.1577255870890916 2:1 26:1 48:1 50:1 86:1 392:1 887:1 1379:1 1380:1 1381:1 1382:1 
1 1 1 1 2:1 5:1 26:1 50:1 252:1 392:1 842:1 
0 1 1 0 2:1 7:1 9:1 26:1 66:1 335:1 392:1 397:1 410:1 
0 1 0.2291199660157841 0 2:1 7:1 9:1 15:1 26:1 40:1 46:1 47:1 66:1 335:1 392:1 397:1 410:1 543:1 547:1 793:1 17063:1 
0 0 0.2639555906839038 0.08679043308025235 2:1 9:1 26:1 56:1 63:1 107:1 138:1 188:1 392:1 527:1 1386:1 1387:1 
1 0 1 0 2:1 26:1 151:1 171:1 173:1 299:1 392:1 916:1 1396:1 1397:1 
0.9370188052876927 0.9973962337870874 1 1 2:1 26:1 68:1 392:1 1003:1 
0.07971966966207945 0 1 0 2:1 9:1 26:1 73:1 170:1 392:1 471:1 809:1 
0.4097250453761261 0 0 0 2:1 7:1 26:1 40:1 63:1 68:1 80:1 82:1 86:1 99:1 122:1 367:1 392:1 680:1 884:1 1402:1 1403:1 1404:1 
1 1 1 1 2:1 9:1 26:1 40:1 80:1 168:1 213:1 234:1 242:1 324:1 329:1 392:1 787:1 
1 1 0.4081951359860131 1 2:1 26:1 45:1 47:1 66:1 86:1 111:1 173:1 234:1 342:1 392:1 462:1 1407:1 1408:1 
1 1 1 1 2:1 26:1 392:1 410:1 591:1 1872:1 
0.7645961626151213 1 0.7809421725021445 0.5558688541964176 2:1 26:1 40:1 392:1 741:1 1410:1 1412:1 
1 1 1 1 2:1 26:1 47:1 48:1 73:1 392:1 
0 0 1 0 2:1 13:1 16:1 26:1 36:1 40:1 63:1 76:1 79:1 99:1 113:1 161:1 209:1 242:1 367:1 392:1 431:1 701:1 1413:1 
0.1403669310042882 0 0 0.559658208806277 2:1 15:1 26:1 63:1 95:1 107:1 132:1 265:1 340:1 392:1 410:1 1138:1 1291:1 1414:1 
1 0.1764671265197775 1 0.726771334381185 2:1 9:1 26:1 30:1 40:1 376:1 392:1 439:1 656:1 1416:1 
0.6732787188218896 0.5453473216929662 0.6052746937821368 0.966575482170778 2:1 26:1 40:1 47:1 74:1 362:1 392:1 1417:1 1418:1 
0 0 0 0.8177099024841018 2:1 26:1 107:1 392:1 502:1 527:1 808:1 1419:1 
1 0.4200755167349425 1 1 2:1 26:1 30:1 63:1 65:1 138:1 392:1 453:1 
1 0.6157648678605726 0.7124880405244906 0.8907297073464148 2:1 26:1 46:1 63:1 68:1 107:1 249:1 285:1 392:1 400:1 591:1 913:1 1420:1 1421:1 1422:1 
0.2117418080398137 0 0 0 2:1 5:1 26:1 36:1 40:1 45:1 55:1 56:1 63:1 99:1 101:1 261:1 306:1 364:1 392:1 633:1 712:1 894:1 895:1 897:1 898:1 899:1 1425:1 
0 0 1 0 2:1 26:1 76:1 161:1 181:1 217:1 392:1 456:1 
1 1 1 1 2:1 26:1 392:1 2689:1 5877:1 
0 0 1 0 2:1 9:1 12:1 15:1 26:1 60:1 392:1 506:1 602:1 604:1 956:1 1077:1 1220:1 1320:1 
0.3754951349078895 0 1 1 2:1 26:1 86:1 221:1 265:1 366:1 392:1 400:1 531:1 750:1 1299:1 
0.2554415457846271 0.6882216055202133 0.2989979342874088 0.1834041181468199 2:1 15:1 26:1 66:1 68:1 73:1 92:1 234:1 347:1 410:1 1117:1 1304:1 1428:1 1429:1 1430:1 
0.3766757691107772 0.2827125135070825 1 0.5814215192954397 2:1 7:1 9:1 26:1 36:1 40:1 71:1 76:1 79:1 113:1 124:1 161:1 166:1 392:1 584:1 1432:1 1433:1 1434:1 
0 0 0.7002727775683218 0 2:1 6:1 9:1 26:1 36:1 45:1 56:1 63:1 65:1 71:1 76:1 86:1 114:1 181:1 221:1 222:1 370:1 376:1 392:1 409:1 410:1 432:1 703:1 848:1 909:1 1435:1 1437:1 
1 1 1 1 2:1 26:1 36:1 125:1 126:1 392:1 
1 1 1 1 2:1 5:1 26:1 52:1 71:1 73:1 221:1 392:1 530:1 
1 1 1 1 2:1 9:1 26:1 48:1 93:1 392:1 
1 0 0.9779461639474222 1 2:1 26:1 36:1 46:1 68:1 76:1 86:1 173:1 182:1 392:1 1441:1 1442:1 1443:1 
0.2242608297255079 0.5988845663795257 0 0.71968411495758 2:1 6:1 7:1 26:1 40:1 45:1 48:1 56:1 94:1 149:1 392:1 410:1 887:1 1444:1 1448:1 1449:1 1450:1 
0 0 0 1 2:1 26:1 47:1 86:1 167:1 343:1 392:1 841:1 1240:1 
1 1 1 1 2:1 9:1 26:1 107:1 242:1 342:1 364:1 392:1 410:1 512:1 
1 0.4523363035539696 1 1 2:1 7:1 9:1 15:1 26:1 56:1 63:1 86:1 129:1 133:1 191:1 392:1 410:1 981:1 1293:1 4181:1 
0 0 1 0 2:1 25:1 26:1 216:1 392:1 
1 1 1 1 2:1 5:1 26:1 142:1 392:1 1454:1 4181:1 
1 1 1 1 2:1 26:1 392:1 
0 0 1 0 2:1 26:1 107:1 123:1 333:1 392:1 
0.7182264977167394 0 0 0.930210476822684 2:1 26:1 338:1 392:1 630:1 1456:1 1457:1 
0.2525592812052701 0.1451910857618087 0.1698547444115402 0 2:1 26:1 47:1 64:1 86:1 124:1 392:1 1458:1 1459:1 1460:1 
0.6663515343704243 0 0 0.5823410519151532 2:1 26:1 46:1 63:1 107:1 166:1 285:1 366:1 392:1 1461:1 1462:1 1463:1 1464:1 
0.365935404977633 0.04524110807075234 0 0.6564700249645522 2:1 26:1 40:1 45:1 46:1 48:1 71:1 86:1 107:1 144:1 166:1 173:1 176:1 236:1 299:1 303:1 392:1 584:1 762:1 941:1 958:1 1466:1 1467:1 1468:1 
1 0 0 1 2:1 6:1 7:1 26:1 36:1 48:1 63:1 86:1 92:1 107:1 138:1 173:1 392:1 551:1 606:1 908:1 1156:1 1435:1 1469:1 
0.6726665939806773 0.2510620673266931 0.9446796670305593 0.8068473003412659 2:1 26:1 32:1 46:1 48:1 74:1 132:1 168:1 264:1 342:1 392:1 439:1 514:1 1471:1 1472:1 1473:1 1474:1 
0.6900657115445989 0 1 0 2:1 7:1 9:1 26:1 43:1 63:1 71:1 177:1 222:1 319:1 342:1 392:1 410:1 
0 0 1 0 2:1 26:1 46:1 62:1 63:1 84:1 86:1 173:1 177:1 178:1 181:1 392:1 832:1 833:1 836:1 
1 1 1 1 2:1 26:1 40:1 392:1 400:1 680:1 1477:1 
0 0 1 0 2:1 6:1 16:1 26:1 29:1 32:1 63:1 76:1 138:1 161:1 195:1 221:1 332:1 392:1 841:1 
1 1 1 1 2:1 26:1 30:1 60:1 392:1 
1 1 1 1 2:1 15:1 26:1 392:1 410:1 
1 0.4382635485003225 0.6644108351689602 1 2:1 26:1 63:1 86:1 122:1 221:1 222:1 319:1 392:1 410:1 703:1 1478:1 1479:1 1480:1 
0.4542883240150672 1 0.8524814958691809 1 2:1 15:1 26:1 144:1 250:1 392:1 410:1 758:1 
0 0.2285038930404297 0 0.03283920082786345 2:1 7:1 26:1 38:1 39:1 40:1 48:1 86:1 151:1 298:1 392:1 531:1 814:1 821:1 1482:1 1483:1 
1 0 0.1874621375756902 0.9312248963176752 2:1 26:1 107:1 151:1 171:1 367:1 392:1 1484:1 1485:1 
1 1 1 1 2:1 26:1 392:1 1487:1 
1 0 0 1 2:1 26:1 63:1 76:1 95:1 129:1 392:1 467:1 799:1 837:1 1469:1 
1 1 1 0 2:1 9:1 15:1 26:1 392:1 410:1 1491:1 
0 0 0.2447838628920011 0.2334121213843572 2:1 25:1 26:1 161:1 184:1 392:1 456:1 1493:1 1495:1 2689:1 5877:1 
1 1 1 1 2:1 26:1 392:1 
0 0 1 0 2:1 26:1 392:1 600:1 
1 0.9916467530970603 1 1 2:1 26:1 76:1 173:1 230:1 392:1 469:1 932:1 
0 0 0 1 2:1 15:1 26:1 47:1 61:1 86:1 133:1 198:1 238:1 392:1 592:1 602:1 1090:1 
1 1 1 1 2:1 9:1 26:1 63:1 392:1 782:1 1501:1 
0 0 1 0 2:1 16:1 26:1 86:1 181:1 217:1 231:1 249:1 392:1 506:1 627:1 
1 0 1 0 2:1 16:1 26:1 217:1 231:1 392:1 
0 0 1 0 2:1 9:1 25:1 26:1 125:1 392:1 
0 0 0.1801090030214388 0.05498715558149805 2:1 9:1 26:1 40:1 56:1 392:1 693:1 1487:1 1505:1 1506:1 1507:1 1508:1 1509:1 1510:1 1511:1 1512:1 1513:1 1514:1 1515:1 1516:1 1517:1 1518:1 1519:1 1520:1 
1 1 1 1 2:1 26:1 48:1 66:1 151:1 175:1 376:1 392:1 
0.08598744626254155 0.03579553868048414 0 0.04039415266429508 2:1 7:1 26:1 73:1 80:1 392:1 1528:1 1529:1 1530:1 
0.5195859289704602 0.5433161492510511 0.8194070691765321 0.6491537355469835 2:1 26:1 392:1 1532:1 1533:1 
0.7904808435718296 0.5980960428232253 0.5469857871950552 0.1764857254788542 2:1 9:1 26:1 79:1 92:1 392:1 410:1 591:1 1293:1 1534:1 1535:1 
0.7598478410350663 0.8038817655407844 1 1 2:1 26:1 392:1 395:1 410:1 424:1 1536:1 1537:1 1538:1 
0.08934854058447471 0.1091732834054468 0 0.1290097017273103 2:1 26:1 230:1 392:1 1355:1 1541:1 1542:1 1543:1 1545:1 1546:1 1547:1 
1 0 0.677303736943665 1 2:1 26:1 46:1 47:1 71:1 261:1 264:1 392:1 1549:1 
0.1368603571350655 0 0.4585190863361917 0.1482511176156332 2:1 12:1 26:1 45:1 392:1 432:1 450:1 769:1 1552:1 1553:1 
1 1 1 1 2:1 26:1 76:1 161:1 392:1 
0.6555999457299262 0.3886846316367933 0 0.4996096355465867 2:1 7:1 26:1 76:1 95:1 151:1 252:1 392:1 656:1 852:1 1556:1 
0 0.1429565506235947 0.4869478662622612 1 2:1 26:1 71:1 161:1 364:1 392:1 530:1 1252:1 1557:1 
0.4089478563677183 0.8686094273147592 0.007407766415743299 1 2:1 26:1 44:1 63:1 86:1 99:1 143:1 392:1 1469:1 1559:1 1560:1 
1 0 1 0.3301385683128539 2:1 15:1 26:1 50:1 376:1 392:1 410:1 801:1 7906:1 
0.7782339381835489 0 0 0 2:1 7:1 9:1 15:1 26:1 36:1 40:1 47:1 76:1 125:1 161:1 216:1 392:1 410:1 546:1 1561:1 
0 0 1 0 2:1 25:1 26:1 181:1 217:1 392:1 
1 1 1 1 2:1 26:1 392:1 
0 0 0.4665016356133758 0 2:1 6:1 9:1 26:1 30:1 36:1 71:1 74:1 76:1 86:1 125:1 351:1 376:1 392:1 446:1 948:1 1254:1 1563:1 
0 1 1 1 2:1 6:1 26:1 62:1 101:1 392:1 410:1 1564:1 
0.5541718418434523 0.4354516345587812 1 0.8512740192333653 2:1 26:1 73:1 76:1 319:1 392:1 410:1 506:1 1566:1 1567:1 1568:1 1571:1 1572:1 1872:1 
0 0 0 0.1761954223141458 2:1 7:1 26:1 56:1 63:1 73:1 107:1 118:1 200:1 220:1 252:1 285:1 298:1 358:1 392:1 594:1 1039:1 1169:1 1419:1 1573:1 1574:1 
1 0.8537859822623471 0 0.6486625852601424 2:1 5:1 9:1 26:1 55:1 56:1 71:1 92:1 95:1 107:1 120:1 125:1 168:1 200:1 298:1 340:1 342:1 392:1 410:1 871:1 1260:1 1578:1 1579:1 
1 1 1 1 2:1 26:1 99:1 329:1 392:1 410:1 1586:1 
0.3225471920942383 0.9677845982162542 1 1 2:1 15:1 26:1 47:1 74:1 125:1 392:1 395:1 508:1 525:1 869:1 880:1 1431:1 1454:1 1587:1 2689:1 5876:1 
0 0 0 0.3524566851339267 2:1 7:1 15:1 25:1 26:1 56:1 63:1 71:1 73:1 76:1 86:1 109:1 120:1 129:1 157:1 329:1 410:1 431:1 550:1 551:1 591:1 880:1 1438:1 1588:1 1589:1 4181:1 
0 0 0 1 2:1 25:1 26:1 39:1 46:1 63:1 76:1 99:1 216:1 392:1 551:1 969:1 1221:1 1590:1 1591:1 1592:1 
0.7911252396408716 0 0 0 2:1 26:1 71:1 73:1 76:1 161:1 194:1 195:1 196:1 197:1 198:1 200:1 392:1 
0 0 0 0.5554684281389634 2:1 26:1 43:1 63:1 86:1 376:1 392:1 513:1 1594:1 1595:1 
1 1 1 1 2:1 26:1 392:1 
1 1 1 1 2:1 26:1 73:1 166:1 392:1 
1 1 1 1 2:1 16:1 26:1 392:1 
0.1294810196500867 0.3850214444073188 0 0.3056355283411775 2:1 9:1 26:1 352:1 392:1 1597:1 1598:1 1599:1 
0 0 1 0 2:1 9:1 15:1 26:1 51:1 71:1 76:1 86:1 109:1 111:1 112:1 113:1 114:1 117:1 118:1 119:1 392:1 410:1 
1 1 1 1 2:1 26:1 29:1 40:1 52:1 221:1 392:1 1601:1 
1 1 1 1 2:1 26:1 392:1 
0 0 0.3190785703001743 0.1127478618542217 2:1 26:1 186:1 392:1 1604:1 
1 1 1 1 2:1 5:1 26:1 55:1 168:1 206:1 392:1 837:1 
0.2315633860825582 0.3091509759395697 1 1 2:1 26:1 38:1 44:1 73:1 252:1 285:1 392:1 395:1 410:1 551:1 796:1 1221:1 1605:1 1606:1 
0 0 1 0 2:1 6:1 15:1 25:1 26:1 32:1 40:1 125:1 298:1 392:1 604:1 656:1 837:1 901:1 1607:1 6596:1 
0 0.3189407458727847 0.4935600513156381 0.5486748110377762 2:1 15:1 26:1 46:1 73:1 76:1 118:1 173:1 319:1 392:1 410:1 1609:1 1610:1 
0.5958661366688608 1 0.4381068911663833 0.772871727308557 2:1 26:1 45:1 65:1 68:1 71:1 392:1 398:1 706:1 1612:1 
1 0.7909524351975072 0.6869239759468078 1 2:1 26:1 51:1 86:1 221:1 259:1 285:1 329:1 392:1 395:1 703:1 762:1 1221:1 1615:1 
0 1 0.2830815503598673 0 2:1 26:1 189:1 392:1 410:1 
1 1 1 1 2:1 26:1 151:1 392:1 1240:1 
0 1 1 1 2:1 15:1 26:1 47:1 95:1 222:1 392:1 604:1 1618:1 
0.4443463807724325 0.7456821910873813 0.9577086513002002 0.4535728104896056 2:1 9:1 26:1 74:1 392:1 796:1 808:1 1619:1 
0.4834155183777837 1 0.4725839587777301 1 2:1 15:1 26:1 47:1 66:1 76:1 392:1 410:1 504:1 590:1 602:1 1159:1 1620:1 1621:1 
0.3564469422227896 0 0.3619211073277409 0.03184338256278412 2:1 26:1 63:1 176:1 221:1 222:1 231:1 376:1 392:1 1299:1 1435:1 1577:1 
0.2700230492188852 0 1 0.9428346572827135 2:1 6:1 9:1 26:1 46:1 220:1 367:1 392:1 410:1 1623:1 
1 1 0 1 2:1 15:1 26:1 30:1 43:1 46:1 47:1 48:1 56:1 94:1 107:1 168:1 221:1 392:1 410:1 430:1 591:1 887:1 5802:1 
0 0 0 0.1469413118300681 2:1 15:1 26:1 51:1 55:1 62:1 101:1 392:1 410:1 1138:1 1625:1 
1 1 1 1 2:1 26:1 31:1 40:1 46:1 47:1 99:1 364:1 392:1 2689:1 5876:1 
0.401853930227802 0.8823119888637585 0.7033326025817372 0.3379114826210295 2:1 26:1 66:1 86:1 392:1 503:1 1253:1 1628:1 1629:1 1630:1 1631:1 
1 1 1 1 2:1 26:1 392:1 1634:1 
0.9022093326371524 0 0 0.01403410538680746 2:1 6:1 26:1 71:1 86:1 332:1 381:1 392:1 1101:1 1102:1 1104:1 
0.1511669757462405 0.02414857414901992 0.1514530532191834 0.1303757218712811 2:1 9:1 26:1 56:1 392:1 1490:1 1636:1 1637:1 1639:1 1640:1 1641:1 1642:1 1643:1 1644:1 1645:1 1647:1 1648:1 1649:1 1650:1 1651:1 1652:1 1653:1 1654:1 
0.1632883282167566 0.07587305818345769 0.2834450997861597 0.2536620459330802 2:1 26:1 73:1 101:1 107:1 392:1 1291:1 1487:1 1655:1 1656:1 1657:1 1658:1 1659:1 1660:1 1661:1 1662:1 1664:1 1665:1 1666:1 1667:1 1668:1 
0.3585602434517907 0 0 0.05954117327460615 2:1 15:1 25:1 26:1 30:1 63:1 71:1 80:1 122:1 138:1 161:1 167:1 178:1 285:1 392:1 395:1 622:1 1441:1 1454:1 1669:1 
0 0 0 0.4952356526317661 2:1 26:1 68:1 76:1 124:1 392:1 711:1 1673:1 
1 0.2266743208647846 1 1 2:1 5:1 26:1 48:1 62:1 63:1 73:1 107:1 132:1 366:1 392:1 1674:1 1675:1 
0.1125661742605158 0 0 0 2:1 26:1 46:1 73:1 76:1 118:1 173:1 319:1 392:1 1609:1 1610:1 
0 1 0 0 2:1 15:1 26:1 36:1 46:1 76:1 101:1 263:1 392:1 410:1 725:1 793:1 817:1 867:1 1035:1 1037:1 
1 0.6478438918437973 1 1 2:1 15:1 26:1 73:1 107:1 133:1 392:1 602:1 1676:1 
0 0.03185384984787414 1 0.8953102773926782 2:1 9:1 26:1 36:1 379:1 392:1 410:1 1678:1 1679:1 
1 1 1 1 2:1 26:1 392:1 
0.8537984079118789 0 0.6511426757027438 0 2:1 7:1 9:1 26:1 63:1 252:1 264:1 392:1 512:1 703:1 759:1 844:1 1682:1 
1 1 1 1 2:1 26:1 338:1 392:1 410:1 
0.05020701546908288 0.1983504787953952 0.1523418042690597 0.402390579715783 2:1 12:1 26:1 86:1 101:1 105:1 392:1 833:1 1467:1 1683:1 1684:1 
0.6574109150731732 0.121087705988446 0.01048174863385935 0.2465803966543052 2:1 26:1 29:1 65:1 68:1 86:1 94:1 392:1 678:1 1685:1 1686:1 1687:1 1689:1 1690:1 
1 0 1 0 2:1 26:1 46:1 63:1 111:1 177:1 319:1 376:1 392:1 651:1 4181:1 
0 1 1 1 2:1 9:1 26:1 51:1 62:1 66:1 101:1 132:1 133:1 392:1 410:1 
1 0 1 1 2:1 26:1 200:1 392:1 410:1 735:1 
0.8207604422224849 0.2236062244319214 1 0 2:1 26:1 44:1 45:1 76:1 99:1 392:1 769:1 1693:1 
0.255786679496582 1 1 1 2:1 15:1 26:1 151:1 392:1 410:1 1240:1 
0.9710956667182667 1 0.1830470557707763 0.8429292445785969 2:1 5:1 26:1 29:1 77:1 252:1 285:1 340:1 385:1 392:1 410:1 594:1 780:1 841:1 
0.4840627645952841 1 1 1 2:1 7:1 26:1 392:1 410:1 659:1 
0.6432651238912557 0.5997330944086595 0.7740904810357209 0.6271896932877365 2:1 6:1 26:1 38:1 161:1 171:1 339:1 392:1 497:1 772:1 1695:1 1696:1 2689:1 5876:1 
1 1 1 1 2:1 26:1 73:1 200:1 392:1 
0.5346826985461262 0 0 0 2:1 26:1 40:1 63:1 76:1 86:1 99:1 125:1 178:1 261:1 392:1 444:1 455:1 960:1 997:1 1700:1 1701:1 1702:1 
0 0.8545456718203337 0 0 2:1 26:1 47:1 63:1 92:1 138:1 220:1 392:1 410:1 602:1 603:1 604:1 
0 0 1 0.11635982021991 2:1 13:1 26:1 392:1 2190:1 
0 0 1 1 2:1 26:1 144:1 379:1 392:1 
0.5493078094492529 0.1610199435569501 0 0.6829815666253609 2:1 5:1 26:1 48:1 50:1 392:1 887:1 1628:1 1706:1 1707:1 1708:1 
0.5169776197427643 1 1 0.264217186565285 2:1 7:1 26:1 40:1 392:1 705:1 
0.3999420099054795 1 0.4725642579154892 1 2:1 6:1 26:1 56:1 73:1 161:1 166:1 176:1 252:1 392:1 410:1 1709:1 1711:1 1712:1 1714:1 
0.102039889959591 0.6652186902805078 0.4589838110478278 0.7960634817992968 2:1 6:1 9:1 23:1 26:1 45:1 68:1 86:1 118:1 234:1 322:1 392:1 410:1 467:1 474:1 838:1 867:1 871:1 1480:1 1715:1 1716:1 
0 0.1037832180923375 1 0 2:1 6:1 15:1 26:1 76:1 125:1 140:1 392:1 604:1 
1 1 1 1 2:1 9:1 26:1 74:1 242:1 392:1 410:1 562:1 
0.8312088826817158 0 0 0.3698260447958501 2:1 6:1 26:1 47:1 48:1 342:1 367:1 392:1 1529:1 1720:1 
1 0 1 0 2:1 26:1 55:1 276:1 392:1 1721:1 
0.330133490835631 0.8155487196725735 1 1 2:1 15:1 26:1 73:1 76:1 86:1 392:1 410:1 627:1 1723:1 
0.9276602009599731 0.4620913907251623 0.337995224427949 0.2644905660785183 2:1 7:1 26:1 39:1 40:1 45:1 56:1 63:1 66:1 76:1 86:1 88:1 107:1 111:1 161:1 392:1 541:1 975:1 1165:1 1419:1 1727:1 1728:1 1729:1 1730:1 1731:1 
1 1 1 0.7831260751250434 2:1 26:1 63:1 65:1 151:1 231:1 392:1 1733:1 1734:1 
1 1 1 1 2:1 6:1 9:1 15:1 26:1 40:1 44:1 128:1 392:1 
0.3053006950210916 0.3623200980790908 1 0.2984564019831933 2:1 15:1 26:1 36:1 40:1 71:1 76:1 161:1 267:1 392:1 410:1 1735:1 1736:1 
0 0 1 0 2:1 9:1 26:1 392:1 654:1 1248:1 
0 0 0 0.2997377300051237 2:1 26:1 63:1 71:1 298:1 342:1 392:1 628:1 1269:1 1999:1 
0.04765441783907957 0.1226637471532113 1 1 2:1 25:1 26:1 45:1 62:1 63:1 64:1 86:1 202:1 214:1 366:1 367:1 392:1 1675:1 1743:1 1744:1 
0 1 0 1 2:1 26:1 29:1 52:1 392:1 410:1 953:1 1745:1 
0.8693428284496086 0 1 1 2:1 26:1 51:1 222:1 392:1 499:1 1746:1 
0 1 1 1 2:1 9:1 26:1 56:1 392:1 410:1 598:1 
0.6298568616180786 0.2086572306967479 0.8367167987306295 0.6271493265197078 2:1 26:1 66:1 76:1 214:1 392:1 400:1 736:1 844:1 1567:1 1748:1 1749:1 1750:1 2689:1 5876:1 
0 0 0.2877988509686737 0.1634417277064945 2:1 6:1 9:1 15:1 25:1 26:1 29:1 40:1 48:1 92:1 107:1 120:1 168:1 392:1 410:1 547:1 893:1 1753:1 1755:1 1756:1 17063:1 
0 0 0.3055932152203532 0 2:1 7:1 26:1 40:1 45:1 76:1 86:1 124:1 170:1 392:1 948:1 949:1 1757:1 1758:1 1759:1 1760:1 
0.8791966685041764 0 0 0.1784649009928528 2:1 26:1 46:1 47:1 76:1 338:1 392:1 983:1 1761:1 1762:1 
0 0.8680007413416587 1 1 2:1 25:1 26:1 392:1 410:1 651:1 
1 0.6948000779722275 1 0.2068311370749886 2:1 15:1 26:1 76:1 161:1 392:1 395:1 397:1 410:1 456:1 1113:1 
0 0 1 1 2:1 25:1 26:1 392:1 
0 0 0.09580398106021631 0 2:1 25:1 26:1 86:1 392:1 649:1 1364:1 1365:1 
0.06791864462240954 1 0.687275493425958 0.4208666464216723 2:1 15:1 26:1 66:1 71:1 125:1 392:1 410:1 655:1 975:1 1138:1 1768:1 
0 0 0.1909666970627938 0 2:1 26:1 40:1 63:1 392:1 1286:1 1287:1 1413:1 1741:1 1769:1 
0.3662611686806893 0.3848307053223147 0.1019125792838741 0.594574111261907 2:1 26:1 82:1 170:1 392:1 1771:1 
0.3170653280693272 0 0 0.03717760399303573 2:1 26:1 45:1 63:1 175:1 188:1 375:1 392:1 654:1 1772:1 1773:1 1775:1 
0.624372039689139 0 1 0.2892725264997008 2:1 15:1 26:1 79:1 86:1 125:1 187:1 392:1 410:1 956:1 1133:1 1741:1 
0.2963308216371809 0 1 1 2:1 26:1 52:1 79:1 99:1 107:1 149:1 297:1 333:1 371:1 392:1 467:1 1147:1 1776:1 1777:1 
0.651153777395574 0 0 0 2:1 9:1 26:1 71:1 76:1 86:1 117:1 118:1 119:1 392:1 
1 0 0 1 2:1 26:1 30:1 46:1 47:1 56:1 63:1 68:1 76:1 138:1 161:1 220:1 242:1 252:1 261:1 297:1 392:1 1772:1 1778:1 1779:1 1780:1 1781:1 4181:1 
0 0 1 1 2:1 7:1 25:1 26:1 392:1 
1 0.3481387447020278 1 1 2:1 26:1 63:1 166:1 231:1 392:1 1241:1 1784:1 
0.9237719864398132 0 0 1 2:1 9:1 15:1 26:1 40:1 63:1 99:1 120:1 168:1 205:1 206:1 222:1 318:1 392:1 467:1 602:1 1138:1 1220:1 
0.4145641346507908 0.2587536954384921 0.6541246116759406 0.2566914891214737 2:1 15:1 26:1 40:1 54:1 61:1 79:1 151:1 285:1 392:1 395:1 410:1 549:1 680:1 1581:1 1785:1 1787:1 
0 0 0 0.7649499098037205 2:1 6:1 26:1 36:1 45:1 48:1 63:1 76:1 95:1 99:1 272:1 392:1 395:1 432:1 796:1 1490:1 1789:1 1790:1 5048:1 
0.474894894503244 0 0.1094179021729538 0.3918458657950106 2:1 26:1 36:1 40:1 45:1 55:1 62:1 63:1 71:1 76:1 101:1 138:1 264:1 392:1 548:1 1133:1 1793:1 1794:1 1795:1 1796:1 1797:1 1798:1 
1 0 1 1 2:1 9:1 26:1 144:1 392:1 
0 1 1 1 2:1 9:1 26:1 63:1 178:1 311:1 392:1 410:1 1269:1 1803:1 
1 1 1 1 2:1 26:1 66:1 392:1 1805:1 
0.9262287981343632 1 1 1 2:1 26:1 73:1 175:1 181:1 392:1 640:1 1039:1 1269:1 
0 0.5090148907275474 1 0.7567476365313218 2:1 26:1 32:1 95:1 114:1 144:1 168:1 176:1 392:1 1431:1 1806:1 
0.01728035529638944 1 0 0 2:1 26:1 173:1 375:1 392:1 
0 0.1409213821148353 0 1 2:1 15:1 26:1 29:1 40:1 84:1 95:1 101:1 107:1 141:1 151:1 392:1 410:1 467:1 806:1 1808:1 
1 1 1 1 2:1 9:1 15:1 26:1 36:1 45:1 73:1 392:1 410:1 880:1 1809:1 1810:1 
0.843606371914505 0.8785946931669925 1 1 2:1 26:1 32:1 392:1 1812:1 
1 0.6576514849643325 1 1 2:1 26:1 30:1 49:1 62:1 63:1 86:1 392:1 660:1 670:1 1242:1 1813:1 
1 0 1 1 2:1 9:1 26:1 45:1 60:1 319:1 392:1 
1 0 0.1185752902959593 0 2:1 26:1 79:1 86:1 125:1 187:1 392:1 956:1 1133:1 1741:1 
1 1 0 1 2:1 26:1 48:1 52:1 79:1 392:1 410:1 869:1 891:1 
1 0.7040316300540467 1 1 2:1 5:1 26:1 45:1 47:1 71:1 92:1 292:1 325:1 376:1 392:1 850:1 
0.8942355665929991 1 1 1 2:1 26:1 45:1 66:1 170:1 392:1 657:1 1816:1 1817:1 
1 1 1 1 2:1 26:1 51:1 132:1 178:1 302:1 392:1 410:1 797:1 
0 1 0 0 2:1 9:1 26:1 63:1 65:1 97:1 263:1 392:1 735:1 831:1 838:1 878:1 1822:1 1823:1 1824:1 1825:1 5802:1 
0 0 0 0.6928693369936422 2:1 25:1 26:1 51:1 55:1 92:1 95:1 101:1 168:1 321:1 392:1 410:1 
0 0 1 0 2:1 9:1 25:1 26:1 392:1 1301:1 
1 1 1 1 2:1 9:1 15:1 26:1 32:1 48:1 101:1 114:1 392:1 410:1 
0 0 1 0.4281667450722322 2:1 9:1 26:1 51:1 63:1 71:1 79:1 99:1 101:1 132:1 392:1 1450:1 
1 1 1 1 2:1 9:1 26:1 392:1 701:1 
0.4522068388958868 0 1 0 2:1 26:1 63:1 86:1 177:1 376:1 392:1 1827:1 
0.5451710391014493 0.1522219994685842 0.05122566475178553 0 2:1 26:1 40:1 293:1 392:1 1829:1 1830:1 1831:1 1832:1 
1 0 0.9690707546431153 0 2:1 9:1 26:1 40:1 44:1 48:1 71:1 76:1 276:1 374:1 392:1 467:1 814:1 815:1 1196:1 
1 1 1 1 2:1 5:1 9:1 26:1 55:1 56:1 107:1 221:1 252:1 366:1 392:1 410:1 606:1 1833:1 
1 0 0 1 2:1 26:1 63:1 86:1 95:1 220:1 297:1 362:1 392:1 
0.1986276548148686 0.1520328677092956 0.2854179532065714 0.3864164030985812 2:1 26:1 40:1 73:1 230:1 392:1 1487:1 1510:1 1655:1 1667:1 1839:1 1840:1 1841:1 1842:1 1843:1 1844:1 1845:1 
0 0 1 0 2:1 9:1 25:1 26:1 107:1 392:1 527:1 1090:1 
0 0 0 0.2805201562725919 2:1 9:1 26:1 39:1 44:1 45:1 51:1 56:1 63:1 86:1 122:1 124:1 142:1 166:1 246:1 249:1 335:1 376:1 392:1 397:1 410:1 838:1 1241:1 1848:1 1849:1 1850:1 1851:1 
1 0.8152617973959084 1 1 2:1 26:1 56:1 229:1 392:1 554:1 
0 0.3862704218645043 0.9906460368012424 0 2:1 15:1 26:1 80:1 86:1 129:1 323:1 392:1 410:1 426:1 604:1 837:1 937:1 5802:1 6596:1 
0 0.08544544827170615 0 0 2:1 6:1 26:1 56:1 60:1 68:1 71:1 73:1 80:1 86:1 230:1 392:1 410:1 540:1 699:1 759:1 1112:1 1856:1 1857:1 1858:1 1859:1 1860:1 
0.6122653818955405 0 1 0.6094119119234125 2:1 26:1 32:1 47:1 76:1 162:1 392:1 535:1 837:1 1861:1 6596:1 
0 0 1 0.01416340192573567 2:1 9:1 15:1 25:1 26:1 264:1 392:1 410:1 547:1 1863:1 17063:1 
0 1 0 1 2:1 26:1 29:1 40:1 84:1 95:1 101:1 107:1 141:1 151:1 392:1 410:1 467:1 806:1 1808:1 
0.03918731022237588 1 0.8259827368774937 0.2981290877619115 2:1 26:1 392:1 1864:1 
1 0.9116332672439856 0.3808862425693741 1 2:1 26:1 73:1 221:1 366:1 392:1 1087:1 1539:1 1865:1 
1 1 1 1 2:1 26:1 44:1 47:1 56:1 60:1 73:1 392:1 
1 0.8068721636883039 1 1 2:1 9:1 26:1 63:1 76:1 150:1 265:1 292:1 392:1 590:1 1867:1 1868:1 1871:1 1872:1 
1 0.01771145369796741 0.1659986935814025 0.4474189225306739 2:1 26:1 63:1 151:1 231:1 362:1 392:1 999:1 1873:1 1874:1 
1 1 1 1 2:1 9:1 26:1 47:1 252:1 392:1 1875:1 
0.6041709502985113 0.1369566437620817 0.3080071067099572 0.4650862463147339 2:1 26:1 36:1 40:1 45:1 47:1 61:1 80:1 99:1 107:1 161:1 200:1 392:1 546:1 913:1 971:1 1201:1 1316:1 1877:1 1878:1 1879:1 
1 1 1 1 2:1 9:1 26:1 36:1 47:1 107:1 392:1 
0.6099088156269732 1 1 1 2:1 15:1 26:1 252:1 392:1 795:1 1138:1 
0.8605075282264026 0.3041439461154064 0.7801579661697696 1 2:1 26:1 392:1 703:1 1241:1 1880:1 1881:1 1882:1 
1 1 0.5740335788671028 1 2:1 15:1 26:1 63:1 76:1 95:1 392:1 410:1 571:1 602:1 789:1 1147:1 1244:1 1883:1 1884:1 
1 1 1 1 2:1 26:1 36:1 125:1 392:1 
0.6947841962206373 0.3980305944156932 1 0 2:1 5:1 26:1 30:1 54:1 55:1 63:1 76:1 97:1 149:1 168:1 276:1 305:1 392:1 1851:1 1885:1 1886:1 1887:1 1888:1 2689:1 5877:1 
0 0 0.01912896959315027 0 2:1 9:1 25:1 26:1 392:1 1645:1 1890:1 
0 0 0 0.5375964207532798 2:1 7:1 26:1 56:1 76:1 124:1 392:1 837:1 1891:1 1892:1 1893:1 1894:1 
0 0 1 1 2:1 25:1 26:1 125:1 392:1 
0 0.2541018079418508 0 0 2:1 26:1 73:1 358:1 385:1 392:1 410:1 593:1 594:1 
0.9104410396583957 1 1 1 2:1 15:1 26:1 56:1 392:1 410:1 558:1 
0 0 1 0 2:1 15:1 26:1 60:1 63:1 71:1 86:1 150:1 177:1 376:1 392:1 410:1 508:1 4181:1 
0.8924473947390998 0.09945923129145165 1 1 2:1 26:1 186:1 298:1 392:1 1895:1 
0.4650966219099666 0.1019169530628624 0 0.1861240260935114 2:1 12:1 26:1 68:1 86:1 94:1 324:1 392:1 553:1 1896:1 1897:1 1898:1 1900:1 
0 1 1 1 2:1 26:1 47:1 73:1 92:1 209:1 392:1 404:1 410:1 
1 1 1 1 2:1 26:1 392:1 
0.4596378700274826 0 0.7692895243393397 0.3298023497476846 2:1 9:1 26:1 29:1 51:1 63:1 132:1 367:1 376:1 392:1 393:1 410:1 620:1 1902:1 1903:1 1904:1 1905:1 
0.4291168373811532 0 0.2626641190340357 0.3261025432978134 2:1 26:1 44:1 45:1 46:1 47:1 56:1 63:1 76:1 125:1 176:1 188:1 194:1 209:1 231:1 392:1 1177:1 1906:1 1907:1 1908:1 
1 0 1 1 2:1 26:1 101:1 392:1 837:1 
1 1 1 0.5890851765626562 2:1 15:1 17:1 26:1 392:1 410:1 931:1 
0.37063793780646 0.6962495276991063 0 0.8695859577228959 2:1 9:1 26:1 47:1 55:1 56:1 74:1 95:1 167:1 392:1 410:1 571:1 686:1 687:1 688:1 689:1 690:1 691:1 692:1 
0.8338662369178796 1 1 1 2:1 9:1 15:1 26:1 30:1 40:1 376:1 392:1 410:1 439:1 656:1 1416:1 
0 0 0.01918819817850896 0 2:1 7:1 26:1 63:1 107:1 124:1 187:1 267:1 392:1 410:1 426:1 733:1 782:1 1909:1 
0 0 0.6051332556779063 0 2:1 25:1 26:1 124:1 231:1 252:1 392:1 1911:1 
0.9294377793190229 0.5894678249263799 0.3917237082902671 0 2:1 7:1 9:1 26:1 40:1 86:1 111:1 342:1 392:1 1316:1 1912:1 
0.3789671531192894 0.6913437178679558 0.4120470162751381 1 2:1 6:1 9:1 26:1 36:1 38:1 45:1 63:1 76:1 99:1 118:1 128:1 170:1 392:1 506:1 717:1 1913:1 1914:1 
0.1839470775612488 1 1 1 2:1 26:1 56:1 392:1 410:1 602:1 604:1 1490:1 1915:1 7638:1 
0 0 1 0 2:1 26:1 56:1 266:1 392:1 470:1 
0 0.3102264056076033 0.934320115827915 0.5428136571442599 2:1 15:1 26:1 392:1 410:1 693:1 694:1 695:1 696:1 697:1 
0.3384435366134202 0 1 0.4342833804753338 2:1 12:1 15:1 26:1 36:1 170:1 224:1 245:1 298:1 392:1 410:1 431:1 444:1 717:1 
1 0 0.4339033307515017 0.5684105979543242 2:1 6:1 9:1 26:1 39:1 63:1 76:1 107:1 252:1 392:1 411:1 535:1 651:1 722:1 
0 0 0 0.1557735212780843 2:1 15:1 26:1 32:1 36:1 73:1 76:1 86:1 92:1 132:1 364:1 392:1 410:1 472:1 473:1 474:1 475:1 476:1 
0.1867029152751728 1 1 0.8959640868574749 2:1 26:1 40:1 66:1 392:1 1924:1 1925:1 
0 0 1 0 2:1 9:1 26:1 71:1 76:1 86:1 209:1 221:1 222:1 326:1 376:1 392:1 409:1 1927:1 
1 1 1 1 2:1 26:1 392:1 1928:1 
1 1 1 1 2:1 9:1 26:1 32:1 48:1 101:1 114:1 392:1 
0.0993140303138601 0 1 1 2:1 26:1 46:1 63:1 76:1 92:1 162:1 178:1 392:1 1110:1 1929:1 
0 0.5095248068465001 0 1 2:1 26:1 68:1 71:1 74:1 101:1 221:1 392:1 410:1 590:1 592:1 1591:1 1931:1 1932:1 
0.09630531446342799 1 0.9623493802357345 1 2:1 26:1 243:1 392:1 410:1 571:1 1260:1 
1 1 1 1 2:1 7:1 26:1 101:1 138:1 392:1 
0.9083960664498782 0 1 0.1224548647125027 2:1 9:1 26:1 60:1 73:1 76:1 177:1 366:1 392:1 439:1 913:1 1934:1 1935:1 4181:1 
0.7818307196986903 0.7774408381138882 0.6457429091680376 0.5721638791023796 2:1 7:1 26:1 65:1 99:1 107:1 392:1 1271:1 1936:1 1937:1 
0.8820624266927067 0 0 0 2:1 26:1 40:1 41:1 44:1 45:1 47:1 56:1 66:1 71:1 73:1 86:1 95:1 107:1 261:1 264:1 339:1 342:1 392:1 1939:1 1940:1 
1 1 1 1 2:1 26:1 32:1 76:1 120:1 150:1 161:1 392:1 456:1 1941:1 
1 1 1 0.04691938627408809 2:1 9:1 15:1 26:1 71:1 86:1 125:1 348:1 392:1 604:1 1944:1 6187:1 
0 1 1 1 2:1 26:1 29:1 41:1 52:1 71:1 138:1 392:1 410:1 867:1 
0 0.990100999080893 1 0 2:1 25:1 26:1 126:1 231:1 392:1 
0.8141446260755989 0 0.6628702774348404 0.4264725957410408 2:1 26:1 44:1 63:1 86:1 392:1 1946:1 1947:1 1948:1 1949:1 
0.00525542275711736 0.05256145959866624 0.0001446543686500024 0 52:1 68:1 392:1 782:1 1950:1 1952:1 1953:1 1954:1 1955:1 1956:1 1957:1 1958:1 1959:1 1960:1 1961:1 2353:1 
0 0.3760844656094603 0 0.2705811257379052 2:1 26:1 36:1 45:1 76:1 99:1 161:1 221:1 392:1 410:1 527:1 571:1 652:1 656:1 880:1 1962:1 1963:1 1964:1 1965:1 1966:1 
0.25087743478815 0 0.4900411059554231 0.9831574670548747 2:1 9:1 26:1 36:1 46:1 376:1 392:1 842:1 1967:1 1968:1 
1 0.352412382310086 1 0.6332928370130967 2:1 9:1 26:1 223:1 392:1 506:1 
1 1 1 1 2:1 26:1 162:1 292:1 392:1 446:1 1241:1 
0 0 0.7623535790263224 0.2617573434821893 2:1 9:1 16:1 25:1 26:1 44:1 46:1 63:1 73:1 101:1 138:1 249:1 392:1 410:1 1969:1 1971:1 1972:1 
1 1 1 1 2:1 26:1 392:1 1670:1 
1 1 1 1 2:1 26:1 32:1 48:1 56:1 101:1 114:1 176:1 221:1 222:1 392:1 520:1 637:1 
0 0 0.2662372174968312 1 2:1 26:1 32:1 63:1 133:1 144:1 265:1 321:1 344:1 392:1 410:1 512:1 591:1 
0 0.1625820233863076 0.1569166540834196 0.08036274979577283 2:1 6:1 15:1 26:1 40:1 45:1 55:1 60:1 73:1 86:1 107:1 222:1 246:1 265:1 392:1 410:1 508:1 797:1 981:1 1973:1 1974:1 1976:1 1977:1 
0.6732196996944708 0.8626127418265908 0.3296153530335604 0.8118625428399548 2:1 26:1 392:1 870:1 1186:1 1979:1 
0 1 0 0 2:1 26:1 36:1 71:1 76:1 161:1 246:1 392:1 410:1 759:1 793:1 
0 0 1 1 2:1 9:1 26:1 63:1 175:1 177:1 178:1 198:1 326:1 392:1 410:1 656:1 838:1 1700:1 
0 0 1 0 2:1 9:1 25:1 26:1 217:1 392:1 
0.8810141472914885 1 1 1 2:1 26:1 44:1 56:1 73:1 151:1 261:1 264:1 392:1 410:1 1403:1 1980:1 
1 1 1 1 2:1 26:1 61:1 370:1 392:1 633:1 1776:1 
0 1 1 0 2:1 26:1 46:1 73:1 107:1 392:1 410:1 763:1 
0 0.5286297578174539 0.5842852848804055 0 2:1 26:1 32:1 45:1 76:1 132:1 184:1 392:1 620:1 782:1 845:1 1982:1 1983:1 
0 0 0.3335791132190806 0.1679178876011548 2:1 9:1 15:1 25:1 26:1 392:1 410:1 956:1 957:1 
0 0.7272824272131706 0 0.5674598123069038 2:1 13:1 26:1 45:1 55:1 76:1 86:1 221:1 261:1 357:1 392:1 1678:1 1985:1 1986:1 
1 1 0.534816436119055 1 2:1 26:1 43:1 46:1 73:1 342:1 392:1 530:1 1113:1 1987:1 
0.378972304567253 0.6653827549491957 0.8162671782412444 0.9192418723427688 2:1 15:1 26:1 29:1 36:1 73:1 187:1 392:1 410:1 1522:1 1523:1 1524:1 
0.6471537344405704 1 0.7791729088159367 0.6330868828870997 2:1 26:1 76:1 392:1 1990:1 1991:1 
0.9574087945565839 0.7265260426117633 0 1 2:1 6:1 7:1 12:1 15:1 26:1 40:1 48:1 63:1 71:1 73:1 95:1 107:1 118:1 138:1 252:1 332:1 392:1 410:1 522:1 567:1 1441:1 1992:1 1993:1 
0.994807744315783 0.1494142940382782 1 1 2:1 26:1 32:1 63:1 71:1 173:1 362:1 392:1 1994:1 
0 0 1 0 2:1 9:1 26:1 71:1 144:1 177:1 392:1 
1 0.7745542849568506 1 1 2:1 26:1 73:1 76:1 149:1 292:1 392:1 703:1 1077:1 1996:1 1997:1 
1 1 1 1 2:1 26:1 66:1 68:1 86:1 125:1 392:1 536:1 
1 1 1 1 2:1 26:1 392:1 2689:1 5877:1 
0.9940018092215975 0 1 0.9857280712720201 2:1 26:1 63:1 71:1 219:1 392:1 2001:1 
1 1 1 1 2:1 26:1 86:1 221:1 366:1 392:1 1987:1 2002:1 
1 0.7692797730020986 1 1 2:1 9:1 26:1 46:1 392:1 2004:1 
1 0 0 0.05831201038342292 2:1 26:1 32:1 36:1 40:1 48:1 56:1 63:1 68:1 73:1 95:1 120:1 125:1 161:1 188:1 342:1 376:1 392:1 720:1 2006:1 5802:1 
0 0 0.8959400969590272 0 2:1 9:1 15:1 26:1 30:1 56:1 71:1 177:1 311:1 392:1 410:1 600:1 1034:1 4181:1 5802:1 
0 0 0.1728203324260039 0.2618621187471067 2:1 26:1 40:1 68:1 71:1 76:1 101:1 107:1 161:1 324:1 392:1 602:1 604:1 850:1 859:1 1917:1 2009:1 2010:1 2012:1 2013:1 2014:1 2015:1 13025:1 
1 0 1 1 2:1 7:1 9:1 26:1 56:1 63:1 86:1 129:1 133:1 191:1 392:1 981:1 1293:1 4181:1 
0.2808377897028665 0.01372553140558691 0.4001725452560363 0.5487372216236827 2:1 6:1 26:1 40:1 45:1 55:1 60:1 73:1 86:1 107:1 222:1 246:1 265:1 392:1 508:1 797:1 981:1 1973:1 1974:1 1976:1 
0.4352851120272005 0 1 0 2:1 9:1 26:1 63:1 71:1 73:1 76:1 177:1 392:1 833:1 959:1 1732:1 2016:1 2017:1 2018:1 2019:1 
1 0.2217316086835205 1 1 2:1 26:1 40:1 45:1 71:1 392:1 435:1 652:1 1123:1 2021:1 4181:1 
0.7153642114348694 0 0 0.701470382752837 2:1 5:1 26:1 32:1 71:1 76:1 216:1 392:1 606:1 933:1 952:1 
0 0.6452705940177704 0.07150146175393098 0 2:1 26:1 32:1 36:1 76:1 107:1 132:1 392:1 1367:1 2025:1 2026:1 2027:1 
1 1 0.9151020859843978 1 2:1 26:1 36:1 71:1 73:1 298:1 392:1 1376:1 
0 0.134350221062168 0.3166490203638633 0 2:1 26:1 40:1 161:1 276:1 392:1 457:1 470:1 2031:1 2032:1 2033:1 
0 0 1 1 2:1 26:1 63:1 161:1 392:1 736:1 2035:1 
1 1 1 1 2:1 26:1 221:1 342:1 392:1 656:1 842:1 
1 1 1 1 2:1 9:1 26:1 48:1 52:1 63:1 168:1 222:1 392:1 410:1 
0 0.2682521010299964 1 1 2:1 26:1 44:1 73:1 79:1 209:1 392:1 1280:1 1320:1 2042:1 
0 0.4795765137737019 0 1 2:1 26:1 50:1 68:1 86:1 107:1 202:1 238:1 392:1 1169:1 1282:1 1410:1 2043:1 
1 1 1 1 2:1 26:1 73:1 392:1 2044:1 
0.5437479923408091 0.5130180214311427 0.4483007752997614 0 2:1 13:1 26:1 73:1 86:1 161:1 200:1 279:1 392:1 2045:1 
1 1 1 1 2:1 26:1 56:1 392:1 2047:1 
0.3439560012141608 1 0 0.05818304329960493 2:1 26:1 36:1 40:1 73:1 86:1 101:1 114:1 126:1 135:1 285:1 392:1 652:1 1147:1 2048:1 2049:1 2050:1 2051:1 
0 0 1 0 2:1 9:1 15:1 26:1 63:1 86:1 124:1 376:1 392:1 470:1 604:1 
1 0 0.2995716521558533 1 2:1 15:1 26:1 138:1 392:1 1031:1 1138:1 1153:1 4181:1 
0.6756751154429611 1 0.1772050870544256 0.9503627287641498 2:1 7:1 26:1 40:1 73:1 93:1 107:1 230:1 392:1 793:1 2054:1 2055:1 
0.4974105987623949 0 0.7327314645641911 0 2:1 15:1 26:1 76:1 392:1 410:1 459:1 460:1 
1 1 0.5378929115788962 1 2:1 26:1 29:1 40:1 107:1 324:1 329:1 392:1 427:1 446:1 1032:1 2056:1 2057:1 2058:1 
1 0.5205394072815863 0 0.1598791001201628 2:1 26:1 32:1 73:1 95:1 148:1 179:1 392:1 837:1 
0.5528901783215271 0 1 0.2819060332721198 2:1 7:1 26:1 56:1 162:1 366:1 392:1 533:1 2067:1 
0 1 0.7396431162870207 0.7741089597328692 2:1 15:1 26:1 55:1 86:1 392:1 410:1 446:1 462:1 463:1 464:1 465:1 
1 1 1 1 2:1 26:1 71:1 252:1 392:1 759:1 
0 1 1 0.986860399109411 2:1 15:1 26:1 44:1 45:1 76:1 99:1 392:1 410:1 769:1 1693:1 
0 0.0699057618515698 0 0 2:1 26:1 48:1 71:1 252:1 392:1 513:1 530:1 732:1 1362:1 2068:1 
0.6435768000272306 0.8424642962281278 0 0 2:1 9:1 26:1 86:1 151:1 187:1 392:1 398:1 483:1 584:1 2069:1 2070:1 2071:1 2072:1 2074:1 
0 1 1 1 2:1 26:1 392:1 410:1 604:1 2689:1 
0 0.04040210787941038 0.2307578775517945 0.2093092087113841 2:1 9:1 25:1 26:1 56:1 65:1 126:1 161:1 392:1 584:1 640:1 859:1 2075:1 2077:1 2078:1 
0 0 1 0 2:1 9:1 25:1 26:1 177:1 392:1 410:1 627:1 4181:1 
1 0.6316079434254041 0.177697432295012 1 2:1 7:1 15:1 26:1 36:1 47:1 73:1 76:1 86:1 101:1 391:1 392:1 602:1 1157:1 2079:1 
1 0 1 1 2:1 7:1 26:1 76:1 138:1 161:1 209:1 298:1 366:1 392:1 1480:1 
1 0.3942555761045641 1 0.7552147534473348 2:1 15:1 26:1 73:1 200:1 392:1 14439:1 
0 0 1 0 2:1 15:1 25:1 26:1 68:1 392:1 602:1 982:1 2087:1 
0.2412639037513809 1 0.3114133948063877 1 2:1 26:1 48:1 107:1 149:1 186:1 252:1 376:1 392:1 410:1 497:1 2088:1 2090:1 
1 0 0.08823947893979237 1 2:1 15:1 26:1 95:1 101:1 151:1 175:1 340:1 342:1 392:1 411:1 602:1 1732:1 
0.5541719368563691 0.005931104655304399 1 0 2:1 15:1 26:1 44:1 73:1 364:1 392:1 410:1 913:1 977:1 978:1 979:1 
1 0.7586313092183679 1 0.6190699346962422 2:1 9:1 26:1 63:1 376:1 392:1 2093:1 2094:1 
1 1 1 1 2:1 5:1 26:1 76:1 235:1 367:1 392:1 400:1 
0 0 0 0.08471404317061536 2:1 5:1 9:1 15:1 26:1 32:1 48:1 56:1 63:1 138:1 146:1 392:1 410:1 527:1 547:1 736:1 1031:1 1138:1 1153:1 1156:1 1158:1 4181:1 17063:1 
0 0.9093711853750687 0.7573984163626243 0 2:1 26:1 76:1 392:1 855:1 
0 0 1 0 2:1 26:1 392:1 600:1 
0 0 1 1 2:1 25:1 26:1 392:1 
1 1 1 1 2:1 26:1 392:1 602:1 5662:1 
0.9013270638587678 0 0.9573588956247927 0 2:1 26:1 45:1 71:1 129:1 222:1 392:1 409:1 1934:1 2100:1 2101:1 2102:1 
1 1 1 1 2:1 6:1 9:1 26:1 86:1 392:1 660:1 
0.7247510512836576 0.1347825506906393 0.1597104027595568 0.003679591132971079 2:1 6:1 26:1 32:1 40:1 44:1 63:1 73:1 74:1 76:1 86:1 161:1 191:1 202:1 213:1 250:1 303:1 343:1 370:1 392:1 410:1 647:1 772:1 887:1 1123:1 1252:1 2105:1 2106:1 2107:1 2108:1 2109:1 2110:1 2111:1 2112:1 
1 1 1 1 2:1 26:1 46:1 392:1 503:1 1790:1 
0.1861391494846502 0.0267893739004201 0 0.3202191023192284 2:1 5:1 26:1 32:1 63:1 71:1 92:1 95:1 101:1 122:1 392:1 410:1 2118:1 2119:1 
0.431958641396688 0.9900034577679485 0.7020112987319447 0.9083539619951192 2:1 9:1 26:1 40:1 56:1 84:1 86:1 94:1 95:1 101:1 161:1 329:1 392:1 410:1 1445:1 1978:1 2122:1 2123:1 2124:1 
0 1 0 0 2:1 26:1 66:1 392:1 878:1 
0.2562573766451666 0.1503720027240436 0.2853139254433848 0.5293790803883088 2:1 26:1 44:1 73:1 392:1 1510:1 1656:1 2128:1 2129:1 2130:1 2131:1 2132:1 2133:1 
1 1 1 1 2:1 26:1 95:1 97:1 319:1 392:1 497:1 550:1 1293:1 2134:1 
0.9922916434099096 0.9383468793963147 1 1 2:1 26:1 71:1 392:1 2135:1 
1 1 1 1 2:1 7:1 9:1 26:1 95:1 168:1 187:1 392:1 687:1 844:1 
0 0.38203371282277 0 0.6523788974923181 2:1 26:1 189:1 392:1 446:1 1711:1 1860:1 2138:1 
1 0.2745796277373093 0.1684849174969568 0.5613992215329352 2:1 9:1 26:1 47:1 50:1 62:1 63:1 74:1 86:1 95:1 118:1 200:1 367:1 392:1 423:1 446:1 620:1 1165:1 1435:1 1490:1 1914:1 2139:1 2140:1 2141:1 2142:1 2143:1 
0.3891738761064 0.7821255549416297 0 0.6503628681710107 2:1 5:1 7:1 26:1 29:1 40:1 63:1 76:1 129:1 161:1 242:1 392:1 398:1 551:1 913:1 1431:1 1439:1 2144:1 2145:1 2146:1 2147:1 
0.09879364334462906 0 1 0.4214545153438212 2:1 5:1 9:1 26:1 32:1 44:1 60:1 63:1 71:1 73:1 99:1 132:1 145:1 214:1 216:1 221:1 222:1 392:1 410:1 656:1 850:1 1567:1 1591:1 2148:1 2149:1 2150:1 
0 0 0.3725746792448696 0.5788971855380464 2:1 9:1 15:1 26:1 133:1 151:1 249:1 364:1 392:1 527:1 602:1 621:1 2152:1 2153:1 2154:1 2155:1 2156:1 
1 0.08637737068822096 0.9263057965417363 0.1830471046484274 2:1 26:1 187:1 329:1 392:1 2157:1 2158:1 2159:1 
0 0 1 0.08693645691641542 2:1 15:1 26:1 71:1 76:1 92:1 107:1 151:1 161:1 168:1 285:1 355:1 356:1 392:1 410:1 837:1 
1 1 1 1 2:1 9:1 26:1 392:1 410:1 
1 1 1 1 2:1 26:1 48:1 376:1 392:1 1282:1 
1 0 1 1 2:1 9:1 26:1 36:1 125:1 170:1 249:1 392:1 1567:1 
1 1 1 1 2:1 26:1 338:1 392:1 
0 0.7605179513222209 1 1 2:1 15:1 26:1 40:1 47:1 392:1 410:1 548:1 551:1 584:1 591:1 642:1 643:1 656:1 739:1 
0.4279646374975976 0.930314623661628 1 0.8637549054390117 2:1 5:1 21:1 22:1 26:1 86:1 221:1 292:1 392:1 2164:1 
0 0 0.7709922627556244 0 2:1 7:1 9:1 15:1 26:1 63:1 71:1 76:1 173:1 352:1 392:1 604:1 2165:1 2166:1 
0 0 0.6139934426455329 0.1230433146781424 2:1 26:1 76:1 99:1 132:1 161:1 209:1 224:1 392:1 395:1 769:1 2167:1 2168:1 2169:1 
0.4387888268002881 0.5073557163043676 0.6144661779935154 0.467292633103001 2:1 26:1 243:1 366:1 392:1 2170:1 2171:1 
1 1 0 0.6563151676607882 2:1 26:1 392:1 1491:1 
0 0 0.6068295454169088 1 2:1 26:1 40:1 47:1 392:1 548:1 551:1 584:1 591:1 642:1 643:1 656:1 739:1 
1 1 1 1 2:1 26:1 392:1 
0.6342019666436971 0 0 0.1117346421821654 2:1 26:1 30:1 44:1 56:1 63:1 95:1 247:1 392:1 1536:1 1942:1 2174:1 2175:1 
1 0 0 0.2120125307509246 2:1 26:1 44:1 63:1 370:1 392:1 426:1 606:1 607:1 4181:1 
1 1 0.7142341005085445 1 2:1 9:1 26:1 44:1 56:1 76:1 93:1 95:1 99:1 101:1 112:1 161:1 221:1 341:1 342:1 392:1 399:1 467:1 980:1 1054:1 1559:1 
0.3619054227230152 0.1434635023448442 0.007787940475557279 0.105433964753591 2:1 26:1 46:1 63:1 107:1 175:1 200:1 392:1 410:1 411:1 895:1 2177:1 2178:1 2179:1 
0.197040631314821 0.1090483011080998 0.5204998503234693 0.3180756358546362 2:1 26:1 45:1 71:1 392:1 2182:1 2183:1 2184:1 2185:1 2186:1 
1 1 1 1 2:1 15:1 26:1 63:1 97:1 122:1 181:1 392:1 410:1 824:1 
0 0 0 0.5452810026129246 2:1 26:1 36:1 47:1 74:1 76:1 124:1 161:1 169:1 170:1 215:1 216:1 252:1 342:1 392:1 1196:1 1299:1 2187:1 
0 0 0.8191748222756755 0 2:1 9:1 26:1 47:1 161:1 162:1 215:1 216:1 392:1 654:1 
0.5965688420757614 0.04533831512634728 0.7029505194326905 0.2069833576742458 2:1 26:1 122:1 139:1 392:1 438:1 2188:1 
1 0 1 1 2:1 26:1 46:1 63:1 142:1 150:1 177:1 392:1 
0 1 1 1 2:1 26:1 329:1 332:1 392:1 551:1 633:1 7906:1 
0 0.06502514155016201 0.6400427534188816 0 2:1 25:1 26:1 392:1 565:1 2193:1 
1 1 1 1 2:1 26:1 392:1 
1 0 0 0 2:1 26:1 126:1 200:1 392:1 1491:1 2194:1 
0.904272214410807 0.2914244769223923 1 0.6189574238369725 2:1 9:1 26:1 125:1 392:1 2199:1 
1 1 1 1 2:1 26:1 40:1 45:1 63:1 76:1 99:1 129:1 194:1 252:1 342:1 362:1 392:1 1248:1 1741:1 1779:1 2200:1 
0 0.103027312080041 1 0.7882084697262633 2:1 26:1 32:1 132:1 392:1 943:1 2172:1 
0.09030721480901568 0.1985341650088863 1 0.494711831090624 2:1 15:1 26:1 40:1 63:1 293:1 299:1 392:1 410:1 1881:1 
0 1 1 1 2:1 9:1 26:1 392:1 604:1 2689:1 
0 1 1 0.8015842636401437 2:1 9:1 21:1 26:1 56:1 86:1 91:1 392:1 410:1 2162:1 2208:1 2209:1 
1 0.7351920310770061 0 1 2:1 26:1 39:1 46:1 60:1 63:1 86:1 93:1 95:1 99:1 221:1 370:1 392:1 1461:1 1491:1 
1 1 0.6824148406548776 1 2:1 26:1 36:1 47:1 62:1 79:1 84:1 94:1 120:1 242:1 264:1 392:1 844:1 1039:1 2212:1 2213:1 
0 0 1 0 2:1 26:1 71:1 86:1 125:1 218:1 392:1 404:1 1241:1 1872:1 
1 0 1 1 2:1 26:1 166:1 392:1 1077:1 2216:1 7784:1 
1 0.8126964842521303 0.4261017312490888 0.9439960823995968 2:1 5:1 26:1 102:1 392:1 525:1 1363:1 2218:1 2219:1 2220:1 
1 1 1 1 2:1 26:1 32:1 46:1 63:1 68:1 74:1 76:1 99:1 220:1 366:1 392:1 503:1 913:1 1830:1 2221:1 
0 0 0.5533152298148966 0 2:1 26:1 32:1 66:1 76:1 86:1 132:1 238:1 392:1 508:1 525:1 620:1 2222:1 
1 1 1 1 2:1 26:1 32:1 48:1 101:1 151:1 161:1 221:1 222:1 392:1 
0 0 0.2801802091325248 0.05653504180659396 2:1 26:1 45:1 63:1 73:1 161:1 166:1 252:1 376:1 392:1 640:1 1370:1 2224:1 
0.7739254764125122 0.55831362330853 1 0.2903483671806069 2:1 9:1 26:1 29:1 45:1 55:1 61:1 76:1 249:1 392:1 723:1 2225:1 
0 0 0.1522248450211129 0 2:1 26:1 60:1 63:1 71:1 86:1 376:1 392:1 2190:1 3836:1 
1 1 1 1 2:1 26:1 47:1 392:1 546:1 656:1 723:1 
1 1 0.5761722865976288 1 2:1 26:1 29:1 95:1 252:1 392:1 410:1 692:1 2162:1 2232:1 
1 1 1 1 2:1 7:1 26:1 40:1 392:1 2234:1 
1 1 1 1 2:1 26:1 392:1 2235:1 
1 0.2475948200462592 0 0 2:1 26:1 46:1 107:1 161:1 221:1 333:1 392:1 1438:1 2236:1 
1 0.4005716440183147 1 1 2:1 26:1 45:1 65:1 73:1 206:1 392:1 499:1 931:1 1419:1 2237:1 
0.08626098432663815 0 0 0.08743831554592058 2:1 26:1 29:1 71:1 76:1 92:1 124:1 161:1 166:1 392:1 510:1 2238:1 2239:1 
0.6797689854813416 1 1 1 2:1 26:1 392:1 410:1 444:1 717:1 1121:1 
0.2714242504028662 0.3930512779140882 0.3590823738152095 0.7379010745425971 2:1 9:1 26:1 36:1 45:1 46:1 51:1 64:1 92:1 240:1 246:1 252:1 376:1 392:1 431:1 446:1 769:1 2249:1 2251:1 2689:1 5876:1 7906:1 
0.3494555545333626 0 1 1 2:1 15:1 26:1 379:1 392:1 602:1 2252:1 2253:1 
0.2912417388496337 0.5138334157640803 0.9835078721646474 0 2:1 9:1 26:1 66:1 76:1 128:1 161:1 392:1 537:1 2254:1 2256:1 2257:1 2258:1 
1 0.5423134641213019 1 0 2:1 26:1 63:1 151:1 392:1 410:1 426:1 759:1 
0.8877106053343744 0 0.9979554331855947 0.2028319813300616 2:1 7:1 9:1 26:1 40:1 63:1 66:1 76:1 150:1 151:1 209:1 392:1 1112:1 2259:1 2260:1 
0.869330404190641 0.6785267980287386 0.06400528509689843 0.8948546656370395 2:1 26:1 40:1 43:1 45:1 63:1 71:1 73:1 79:1 86:1 97:1 129:1 149:1 182:1 329:1 351:1 377:1 392:1 522:1 660:1 2203:1 2261:1 2262:1 2263:1 
0.2930253539460936 0.3669573427418164 0.5610238226636671 0.3363790412553803 2:1 26:1 66:1 86:1 392:1 2265:1 2266:1 2267:1 
1 1 1 1 2:1 15:1 26:1 29:1 46:1 52:1 95:1 101:1 392:1 410:1 
1 1 1 1 2:1 26:1 392:1 
0 0.002040782952913193 0.5153525869150716 0.6108718294561336 2:1 15:1 26:1 68:1 76:1 101:1 392:1 410:1 2271:1 2272:1 
1 1 1 1 2:1 26:1 392:1 
0 0 0.6831084592258293 0 2:1 6:1 9:1 15:1 26:1 86:1 114:1 181:1 319:1 392:1 410:1 2279:1 2280:1 
0.1107234533676883 0 0 0 2:1 26:1 55:1 63:1 73:1 86:1 237:1 329:1 342:1 392:1 1046:1 1693:1 2280:1 2284:1 7906:1 
1 1 1 1 2:1 26:1 66:1 242:1 289:1 392:1 410:1 916:1 1090:1 2142:1 2285:1 
0 1 1 1 2:1 9:1 26:1 66:1 86:1 144:1 150:1 392:1 410:1 
0 0.7925651887558962 1 0 2:1 9:1 15:1 26:1 51:1 177:1 392:1 410:1 
1 0 1 0.1125911564007297 2:1 9:1 15:1 26:1 63:1 177:1 392:1 602:1 606:1 
0 1 1 0.1012858360698322 2:1 15:1 26:1 32:1 63:1 73:1 392:1 410:1 604:1 1090:1 2297:1 
1 0 1 0.203008712736798 2:1 26:1 44:1 60:1 392:1 796:1 808:1 
1 0 0 0 2:1 26:1 63:1 86:1 272:1 392:1 426:1 2303:1 
1 0 0 0 2:1 26:1 252:1 392:1 394:1 899:1 2304:1 
1 0.9962462330856606 0 0.2100192236081201 2:1 26:1 43:1 46:1 47:1 73:1 107:1 151:1 392:1 960:1 1178:1 
0.5716972553664514 1 0.4184514987480521 0.9180147348931491 2:1 26:1 40:1 47:1 73:1 392:1 640:1 2308:1 2309:1 5802:1 
0 0 1 1 2:1 26:1 40:1 41:1 73:1 79:1 99:1 200:1 392:1 530:1 842:1 867:1 
1 0.1438507944867139 1 1 2:1 26:1 48:1 101:1 358:1 392:1 444:1 
0.3702962314326858 0 1 0 2:1 16:1 26:1 63:1 65:1 392:1 848:1 1435:1 
0.3779832424464925 0.1768380944248057 0.634909942363563 0.4039354032573526 2:1 6:1 9:1 26:1 36:1 46:1 49:1 63:1 99:1 392:1 450:1 2321:1 2322:1 2323:1 2325:1 
1 1 0.8389067999090709 1 2:1 26:1 36:1 55:1 74:1 76:1 86:1 97:1 161:1 324:1 392:1 1233:1 1489:1 
0.4318335041028157 1 1 1 2:1 26:1 392:1 410:1 5654:1 
0.9386877232024058 1 1 0.4845333364800738 2:1 9:1 26:1 166:1 392:1 2330:1 
0 0.8290307563323952 1 0 2:1 9:1 26:1 392:1 1493:1 
0.001596213984831259 0.1705262167639249 0 0.1217145389584621 2:1 26:1 45:1 221:1 352:1 392:1 2334:1 
1 1 1 1 2:1 26:1 392:1 
0.1082146461053643 0 0.7965268322472422 0.2995866093127436 2:1 7:1 9:1 16:1 26:1 45:1 47:1 76:1 138:1 161:1 252:1 330:1 392:1 506:1 2336:1 2337:1 2338:1 2341:1 
1 0 0 1 2:1 5:1 26:1 86:1 95:1 392:1 504:1 787:1 1469:1 
1 1 0 0.1986363053768313 2:1 26:1 40:1 56:1 65:1 161:1 392:1 394:1 2342:1 
0.5222757930039887 0.1735643132753875 0.9592197427412008 1 2:1 26:1 32:1 40:1 46:1 63:1 93:1 113:1 220:1 392:1 444:1 931:1 981:1 1175:1 2343:1 2344:1 2345:1 
0.6492660483578173 1 1 1 2:1 26:1 44:1 73:1 79:1 392:1 792:1 1564:1 2346:1 
1 1 1 1 2:1 26:1 392:1 
0 0.3966975389257639 0.4481815943476569 1 2:1 26:1 30:1 45:1 50:1 52:1 68:1 76:1 84:1 95:1 101:1 120:1 194:1 252:1 381:1 392:1 1472:1 1501:1 2013:1 2353:1 2354:1 2355:1 
0 1 0 1 2:1 5:1 7:1 26:1 40:1 45:1 62:1 84:1 94:1 95:1 99:1 129:1 132:1 168:1 243:1 303:1 322:1 376:1 392:1 410:1 796:1 
0 0 0.4880248951315532 0 2:1 26:1 45:1 73:1 162:1 209:1 392:1 1917:1 2356:1 2357:1 2358:1 
0 0 0.3492134594964346 0 2:1 25:1 26:1 40:1 43:1 63:1 71:1 76:1 86:1 124:1 161:1 166:1 392:1 724:1 814:1 2360:1 
0.3126899468516377 0.08649573380285691 0.31282306738514 0.2335934220811794 2:1 15:1 26:1 76:1 289:1 392:1 410:1 2361:1 2362:1 2363:1 2364:1 
1 0.7064663586780856 1 0.879835027736148 2:1 26:1 166:1 392:1 2365:1 
1 0.4707623064858222 1 0.355836330203854 2:1 9:1 15:1 26:1 56:1 86:1 135:1 151:1 392:1 410:1 2304:1 
1 0 0 0.4232627745305514 2:1 7:1 26:1 40:1 45:1 47:1 63:1 76:1 120:1 342:1 377:1 392:1 506:1 551:1 869:1 981:1 1031:1 2366:1 2367:1 
1 1 1 1 2:1 15:1 26:1 392:1 602:1 
0 0 0.993236059520208 0 2:1 9:1 26:1 63:1 71:1 76:1 124:1 165:1 166:1 392:1 2368:1 
0 0 1 1 2:1 9:1 26:1 63:1 71:1 86:1 107:1 218:1 392:1 851:1 1501:1 
1 1 1 1 2:1 9:1 15:1 26:1 45:1 65:1 107:1 261:1 364:1 392:1 410:1 2026:1 
0 0 1 0 2:1 9:1 26:1 73:1 230:1 392:1 431:1 506:1 522:1 
1 0 0.466589583077572 0 2:1 7:1 26:1 44:1 63:1 76:1 86:1 392:1 1501:1 2371:1 
1 0.8783697399330224 1 1 2:1 15:1 26:1 36:1 68:1 73:1 76:1 187:1 392:1 410:1 1069:1 
1 1 1 1 2:1 26:1 88:1 178:1 242:1 261:1 265:1 392:1 400:1 933:1 2375:1 
0.3578348999344579 0.3441883635987429 0.4586780706221596 0.285797394585456 2:1 26:1 40:1 46:1 66:1 86:1 392:1 2376:1 2377:1 2378:1 
0 0.7016903083874073 1 0.04567736441061775 2:1 26:1 392:1 2380:1 
0 0 0.6209959028188046 0 2:1 7:1 26:1 86:1 124:1 392:1 470:1 535:1 2381:1 
0.1557594651979284 0.3240720234638242 0.5665889619716719 0.6085264352532354 2:1 26:1 32:1 44:1 48:1 56:1 63:1 76:1 249:1 277:1 303:1 332:1 392:1 410:1 623:1 2382:1 2384:1 
0 0 0.7931901567937272 0 2:1 15:1 26:1 124:1 200:1 379:1 392:1 604:1 2385:1 
0.2163171222795017 0 0.2561023478127245 0.2491867109057394 2:1 26:1 71:1 76:1 124:1 166:1 392:1 535:1 2388:1 2389:1 
1 1 1 1 2:1 26:1 40:1 44:1 73:1 221:1 392:1 656:1 1262:1 1986:1 2390:1 2391:1 
1 1 1 1 2:1 26:1 392:1 
0 1 0.8993451079670496 0.4041919963992496 2:1 9:1 26:1 56:1 128:1 173:1 392:1 692:1 1872:1 2020:1 2716:1 
0.325258810764895 0 1 1 2:1 26:1 36:1 63:1 86:1 124:1 125:1 327:1 392:1 
0.4657786293468001 0.4722215016983486 1 0.7237970694352727 2:1 9:1 26:1 392:1 2387:1 2394:1 
0.6284335019547048 0.3750085126531885 0.6580171172950946 0.4054463032016709 2:1 26:1 222:1 342:1 392:1 904:1 2395:1 2396:1 2397:1 
0 0 1 0 2:1 25:1 26:1 56:1 68:1 125:1 392:1 
0 0 1 0.02019438681513198 2:1 26:1 45:1 63:1 71:1 86:1 276:1 392:1 1741:1 1769:1 2400:1 
1 0 1 1 2:1 15:1 26:1 249:1 392:1 506:1 2401:1 
0.485397432283581 1 1 1 2:1 26:1 46:1 49:1 63:1 73:1 75:1 92:1 392:1 456:1 670:1 
1 1 0 1 2:1 15:1 26:1 50:1 63:1 107:1 122:1 142:1 392:1 410:1 844:1 887:1 2402:1 2403:1 5802:1 
0.9314125313831162 0.9443686151390539 1 0.9029381022253263 2:1 9:1 26:1 392:1 2410:1 
0 0 0.7288154713662364 0 2:1 9:1 26:1 177:1 392:1 941:1 
1 1 1 1 2:1 26:1 392:1 
0.1657178022292875 0.1317055737898402 0.6813993316258538 0.2427781949625668 2:1 9:1 26:1 392:1 1454:1 2413:1 2415:1 2418:1 
0.6453237030462863 0.6805032393899091 1 0.8043912197999865 2:1 5:1 9:1 15:1 26:1 30:1 55:1 56:1 74:1 125:1 149:1 392:1 410:1 1776:1 1939:1 2419:1 
1 0 0 0 2:1 26:1 36:1 47:1 73:1 86:1 124:1 125:1 126:1 200:1 392:1 902:1 
0.944373659483674 0.7080542301394744 0.5807442086747115 0.8273630172934137 2:1 26:1 36:1 45:1 47:1 173:1 234:1 392:1 2421:1 2422:1 
1 1 1 1 2:1 15:1 26:1 63:1 138:1 392:1 410:1 
1 0 0 0 2:1 15:1 26:1 40:1 45:1 61:1 63:1 68:1 86:1 99:1 129:1 138:1 261:1 392:1 512:1 522:1 602:1 620:1 685:1 723:1 1123:1 1282:1 1567:1 2137:1 2424:1 2425:1 
0.51056377331214 0.7789421539241977 1 1 2:1 26:1 40:1 379:1 392:1 680:1 1436:1 
0.9656951429935784 0.7906710473230516 1 0.9416178867981431 2:1 9:1 26:1 63:1 392:1 2431:1 
0.9591653645265371 1 1 1 2:1 9:1 26:1 48:1 55:1 66:1 95:1 107:1 150:1 151:1 252:1 298:1 308:1 392:1 393:1 410:1 462:1 837:1 867:1 880:1 1618:1 2006:1 2432:1 2433:1 6596:1 
0 1 1 0.02338728692087202 2:1 6:1 15:1 26:1 48:1 101:1 358:1 392:1 410:1 602:1 604:1 1714:1 
1 0 0.2123517980234325 1 2:1 9:1 26:1 76:1 86:1 392:1 535:1 880:1 1070:1 1838:1 
0 0 1 0 2:1 9:1 15:1 26:1 56:1 231:1 249:1 265:1 392:1 410:1 506:1 684:1 837:1 2366:1 6596:1 
1 1 1 1 2:1 9:1 26:1 129:1 392:1 
0.4661406168195681 0.1496617349520565 1 0.2742284029680224 2:1 9:1 15:1 26:1 29:1 46:1 52:1 71:1 95:1 99:1 200:1 392:1 410:1 517:1 2444:1 2445:1 
0 0 0.2385221863046298 0 2:1 26:1 63:1 73:1 173:1 177:1 205:1 392:1 620:1 1536:1 2447:1 2448:1 
0 0 0.2174956754178291 0 2:1 26:1 46:1 86:1 161:1 392:1 842:1 870:1 
1 1 1 1 2:1 9:1 15:1 23:1 26:1 392:1 410:1 735:1 
0.8728651616876059 0.7664899002109524 1 1 2:1 26:1 71:1 73:1 86:1 392:1 2453:1 
1 0.5430228324839764 0 1 2:1 5:1 7:1 26:1 46:1 63:1 74:1 86:1 107:1 129:1 252:1 392:1 717:1 750:1 887:1 
0.5043039325350267 0.3550436688736131 0.1852065209667288 0.6934680816356982 2:1 5:1 6:1 26:1 36:1 40:1 45:1 55:1 56:1 101:1 161:1 181:1 392:1 526:1 1173:1 2454:1 2455:1 2456:1 2457:1 2458:1 
1 0 0 0 2:1 26:1 101:1 358:1 381:1 392:1 497:1 986:1 2459:1 2460:1 
1 1 1 1 2:1 26:1 47:1 73:1 86:1 161:1 182:1 392:1 1271:1 
1 1 1 1 2:1 15:1 26:1 392:1 602:1 
0 0 0.7847631555302601 0 2:1 9:1 12:1 26:1 29:1 52:1 63:1 99:1 177:1 178:1 252:1 261:1 329:1 392:1 467:1 654:1 1373:1 1407:1 
1 0 1 1 2:1 26:1 200:1 379:1 392:1 
0 0 0.517928809482667 0.1144550894870791 2:1 7:1 25:1 26:1 40:1 63:1 68:1 80:1 99:1 133:1 144:1 392:1 627:1 659:1 1439:1 1495:1 2466:1 2467:1 
0 1 0.2407813516395432 0 2:1 26:1 200:1 392:1 1808:1 2016:1 
0 0 1 0 2:1 26:1 392:1 506:1 627:1 2366:1 2468:1 
0 0 1 0 2:1 9:1 26:1 339:1 392:1 
1 1 1 1 2:1 9:1 26:1 47:1 86:1 392:1 592:1 1224:1 
0 0 0 0.08539605614301633 2:1 26:1 82:1 200:1 392:1 
1 0 1 1 2:1 26:1 47:1 68:1 213:1 392:1 499:1 703:1 
1 1 1 1 2:1 26:1 392:1 2472:1 
1 0.779131675031758 0.1946118177600399 0 2:1 9:1 26:1 36:1 92:1 94:1 95:1 99:1 221:1 222:1 299:1 364:1 366:1 392:1 548:1 1970:1 
0.613310368996537 1 1 1 2:1 6:1 15:1 26:1 392:1 410:1 2473:1 
0 0 1 0 2:1 9:1 15:1 26:1 200:1 216:1 392:1 604:1 2101:1 
0.931451929290094 0.9443623084306972 1 0.9029025730771505 2:1 9:1 26:1 392:1 2248:1 
0 0.7264379603231177 0 0.4761940793024495 2:1 9:1 26:1 29:1 48:1 52:1 86:1 93:1 252:1 272:1 392:1 680:1 796:1 1407:1 2478:1 
1 1 1 1 2:1 9:1 26:1 200:1 392:1 
0.4538371273723816 0.003701064675663532 0 0 2:1 9:1 26:1 63:1 86:1 245:1 272:1 392:1 426:1 936:1 
0 0 0.3044178913218348 0 2:1 26:1 272:1 392:1 996:1 2484:1 
0.1340537556689089 1 1 1 2:1 26:1 66:1 145:1 392:1 427:1 946:1 1410:1 
0 0 1 0 2:1 26:1 40:1 63:1 71:1 99:1 218:1 324:1 326:1 327:1 392:1 
0 0.3228314487863276 0 0 2:1 7:1 15:1 26:1 45:1 63:1 73:1 86:1 101:1 161:1 166:1 252:1 376:1 392:1 410:1 502:1 590:1 621:1 1370:1 2224:1 2485:1 2486:1 2487:1 2489:1 2490:1 5802:1 
0 0 0.1259172548758221 0 2:1 9:1 15:1 26:1 56:1 68:1 71:1 76:1 124:1 166:1 319:1 392:1 602:1 720:1 769:1 868:1 2493:1 2494:1 2495:1 2496:1 2497:1 2498:1 2499:1 2500:1 
0.6927127243174462 0.5707149690747678 0 0 2:1 26:1 63:1 101:1 151:1 202:1 234:1 243:1 392:1 792:1 889:1 1000:1 2502:1 2503:1 2504:1 
0.03909154455220527 1 1 1 2:1 26:1 392:1 2403:1 
0.157202115289585 0 0.3621863604538408 0.1996426786727513 2:1 26:1 47:1 76:1 392:1 759:1 1119:1 2506:1 
1 0 1 1 2:1 26:1 30:1 392:1 1083:1 
0 0.06635785193033185 1 1 2:1 26:1 392:1 660:1 711:1 
0.1292337729807112 0.4393812888800103 0 0 2:1 9:1 26:1 40:1 45:1 55:1 56:1 97:1 293:1 332:1 392:1 2507:1 2508:1 2509:1 2510:1 2511:1 
1 1 1 1 2:1 26:1 63:1 76:1 392:1 1501:1 
0 0 0.2878679427251677 0 2:1 6:1 9:1 26:1 47:1 48:1 63:1 76:1 86:1 99:1 138:1 200:1 238:1 252:1 370:1 392:1 410:1 620:1 932:1 1403:1 2288:1 2514:1 2515:1 
0 0.06041336568506356 1 0.1951472221261346 2:1 9:1 26:1 86:1 149:1 161:1 200:1 392:1 410:1 836:1 1480:1 2516:1 
1 1 1 1 2:1 26:1 392:1 431:1 
1 0 0.9328117602673451 0.1395603477323997 2:1 26:1 36:1 125:1 126:1 200:1 392:1 2517:1 
0.1096487175173468 0 0.5217395020361446 1 2:1 7:1 15:1 26:1 57:1 63:1 73:1 351:1 392:1 411:1 482:1 602:1 2518:1 
0.3442070266833062 0 1 0 2:1 7:1 26:1 32:1 47:1 138:1 366:1 392:1 400:1 837:1 943:1 6596:1 
1 0.4804474116847127 1 1 2:1 26:1 125:1 249:1 392:1 836:1 1039:1 
0.04086939876391635 0.05807185712404 0 0 2:1 26:1 216:1 392:1 2385:1 2520:1 2521:1 
0.09973142675367835 0 0.7571814448371232 0.03401560741673167 2:1 26:1 40:1 45:1 71:1 86:1 126:1 141:1 161:1 162:1 376:1 392:1 431:1 432:1 913:1 1201:1 2523:1 2524:1 
0.6502435322831058 0.9074279809091998 0.2686458076672417 0.9971629235594015 2:1 6:1 7:1 26:1 31:1 32:1 40:1 45:1 47:1 63:1 76:1 80:1 202:1 234:1 252:1 298:1 342:1 392:1 404:1 517:1 1601:1 2526:1 2528:1 2529:1 
0.1781463768357859 0 1 0.3605040325811378 2:1 9:1 26:1 63:1 166:1 379:1 392:1 1769:1 
1 1 1 1 2:1 26:1 126:1 392:1 
1 1 1 1 2:1 26:1 107:1 392:1 606:1 
1 1 0 1 2:1 26:1 151:1 175:1 200:1 376:1 392:1 1469:1 
1 1 1 1 2:1 26:1 392:1 
0 0 1 1 2:1 26:1 55:1 86:1 238:1 249:1 392:1 913:1 2535:1 2537:1 
0.5488272551001337 0.03279298199880142 1 0.4199794896510105 2:1 7:1 26:1 46:1 86:1 392:1 814:1 2538:1 2539:1 
0 0 0.7206210541328617 0 2:1 9:1 26:1 79:1 252:1 329:1 392:1 960:1 1107:1 2540:1 
1 1 1 0.9645011678977404 2:1 26:1 111:1 392:1 2541:1 
1 1 1 1 2:1 26:1 44:1 55:1 392:1 2543:1 
0.5187424641712808 0 0.5472726827581978 0.03204542899615746 2:1 15:1 26:1 32:1 46:1 47:1 63:1 73:1 76:1 138:1 392:1 633:1 884:1 943:1 2257:1 2545:1 2546:1 2547:1 
1 0 0 0 2:1 7:1 26:1 29:1 40:1 86:1 173:1 372:1 373:1 392:1 1040:1 
0.7782030146295944 0.773187358236375 0 0.6084911315709371 2:1 26:1 392:1 518:1 601:1 1396:1 
0 0.08814106061293372 0 0 2:1 26:1 323:1 392:1 627:1 2550:1 
0 0 1 0.9026297261042715 2:1 9:1 26:1 47:1 276:1 392:1 410:1 599:1 1769:1 
0 0 1 0 2:1 26:1 71:1 76:1 128:1 151:1 209:1 392:1 759:1 
1 1 1 0 2:1 26:1 36:1 124:1 125:1 126:1 392:1 978:1 
0.5559579996763826 1 1 0.7042719303547998 2:1 7:1 26:1 47:1 76:1 138:1 392:1 2552:1 
0.7111539859832164 1 1 1 2:1 6:1 26:1 38:1 45:1 46:1 47:1 392:1 410:1 1037:1 1439:1 2556:1 
0 0 0.02919523425311656 0 2:1 7:1 9:1 26:1 32:1 60:1 68:1 132:1 150:1 193:1 392:1 410:1 715:1 2557:1 
0.9313973728993782 0.9444663120297688 1 0.9028550713841246 2:1 9:1 26:1 392:1 2558:1 
1 1 1 1 2:1 5:1 26:1 55:1 73:1 101:1 392:1 
0.6908811300915019 1 0.6667301088084382 0 2:1 26:1 43:1 76:1 161:1 392:1 1351:1 2563:1 
0 0.4611967441717034 0.3168711342551925 0.1383959322293677 2:1 15:1 26:1 68:1 76:1 80:1 170:1 392:1 410:1 485:1 1636:1 2037:1 2564:1 2565:1 2566:1 
0.5762935728868198 0 0.5885066098462871 0 2:1 26:1 40:1 86:1 105:1 161:1 189:1 298:1 392:1 2200:1 2567:1 2568:1 
0.638547540134452 0.2253278573207648 1 0.3213827201710109 2:1 5:1 26:1 50:1 76:1 101:1 132:1 392:1 410:1 2570:1 2571:1 
0.3109642561784066 1 1 1 2:1 26:1 40:1 392:1 410:1 680:1 796:1 981:1 2572:1 
0 1 1 1 2:1 26:1 73:1 107:1 392:1 410:1 2359:1 
0.2060215499344095 0.883731064956919 0.3422630477082086 0.3106949301019173 2:1 6:1 26:1 56:1 71:1 335:1 392:1 620:1 814:1 2573:1 2575:1 2576:1 
0 0.8730386452979942 0.6113013641476188 0.5663100767654548 2:1 5:1 26:1 32:1 40:1 45:1 61:1 63:1 79:1 92:1 93:1 95:1 149:1 252:1 392:1 410:1 891:1 911:1 1854:1 2090:1 2577:1 2578:1 5802:1 
0.5260126412047287 0.09756329851411027 0.4793459954701609 0.5138566025141059 2:1 26:1 30:1 45:1 46:1 99:1 128:1 200:1 242:1 289:1 392:1 410:1 1950:1 2579:1 2580:1 2582:1 
0.6976603938234024 0 0.2880406415349913 0 2:1 24:1 26:1 44:1 71:1 73:1 175:1 340:1 392:1 506:1 656:1 759:1 
0 1 0 1 2:1 9:1 26:1 392:1 941:1 
0 0 0.06575389043413417 0 2:1 25:1 26:1 217:1 392:1 2586:1 
1 0.9215827346305179 1 1 2:1 26:1 46:1 290:1 392:1 
0 1 0.6425888121557187 1 2:1 9:1 15:1 26:1 36:1 76:1 101:1 392:1 410:1 508:1 547:1 2589:1 17063:1 
1 0.423309999489927 1 1 2:1 26:1 36:1 43:1 46:1 93:1 149:1 342:1 392:1 469:1 1035:1 1123:1 1196:1 1252:1 2590:1 
0 0.1570059273944636 0 0 2:1 9:1 26:1 48:1 79:1 151:1 188:1 342:1 392:1 410:1 953:1 1776:1 
1 1 0.9597775297229656 1 2:1 26:1 107:1 149:1 392:1 1822:1 2591:1 2592:1 2689:1 5802:1 5877:1 
0 0 0 0.1387507441733443 2:1 9:1 15:1 26:1 29:1 47:1 63:1 73:1 79:1 128:1 220:1 252:1 340:1 392:1 410:1 841:1 842:1 981:1 1057:1 
0.1652405171101883 0.419846869789566 0.3762443155810916 0.4760882118974106 2:1 26:1 161:1 392:1 1007:1 2595:1 2596:1 2597:1 2598:1 
1 1 1 1 2:1 26:1 63:1 76:1 86:1 392:1 1501:1 2599:1 
0 1 1 0 2:1 26:1 32:1 40:1 47:1 264:1 392:1 530:1 548:1 656:1 837:1 1732:1 2600:1 6596:1 
1 0 0.4799776562585416 0.1142550944537644 2:1 6:1 26:1 392:1 2473:1 
1 1 1 1 2:1 26:1 392:1 1439:1 2602:1 
0.2362080950319743 0.7408152184114372 1 0.3205388983591442 2:1 9:1 15:1 26:1 86:1 392:1 410:1 881:1 2603:1 
0.9123428520301445 1 1 1 2:1 7:1 26:1 392:1 2605:1 
1 1 1 1 2:1 9:1 26:1 63:1 101:1 128:1 138:1 392:1 481:1 
0.6098464765196817 0.4012180084788853 0.700747485164813 0.7237971644754556 2:1 26:1 164:1 165:1 392:1 
0 0 0.21618631537775 0 2:1 9:1 26:1 44:1 56:1 63:1 71:1 101:1 249:1 298:1 392:1 1269:1 2172:1 2189:1 2532:1 2608:1 2610:1 2611:1 
1 0 0 0 2:1 26:1 44:1 63:1 86:1 285:1 392:1 652:1 825:1 2240:1 
1 1 1 1 2:1 26:1 40:1 61:1 63:1 107:1 149:1 150:1 151:1 392:1 792:1 905:1 1714:1 
0.5423391549123435 0.1133013377247361 0.03722346589608945 0 2:1 7:1 26:1 48:1 73:1 76:1 111:1 187:1 249:1 333:1 392:1 844:1 1117:1 1472:1 2619:1 2620:1 2621:1 2622:1 2623:1 
1 1 1 1 2:1 5:1 26:1 32:1 63:1 179:1 392:1 606:1 
0 0 1 0 2:1 9:1 26:1 40:1 200:1 392:1 470:1 
0.9408484332979575 0 1 0 2:1 7:1 26:1 86:1 392:1 1721:1 
1 1 0.2501072129025464 0.9139541090721829 2:1 7:1 26:1 40:1 63:1 86:1 93:1 151:1 245:1 342:1 359:1 379:1 392:1 467:1 485:1 1540:1 2626:1 2627:1 
0.1032877739110853 0 0 0 2:1 26:1 28:1 29:1 39:1 46:1 63:1 76:1 79:1 86:1 95:1 124:1 135:1 166:1 392:1 456:1 652:1 825:1 2056:1 2629:1 
0.6317389114537969 0 1 0.4384096377823138 2:1 12:1 26:1 40:1 71:1 86:1 99:1 162:1 194:1 209:1 392:1 1080:1 1443:1 2630:1 2631:1 
0 1 0 0.06156251596035704 2:1 6:1 9:1 26:1 56:1 99:1 157:1 202:1 248:1 332:1 364:1 392:1 410:1 592:1 2632:1 2633:1 
1 1 1 1 2:1 15:1 26:1 221:1 392:1 410:1 
1 0.7349123328926191 1 1 2:1 26:1 86:1 126:1 173:1 392:1 1263:1 
0.1868290270924806 0.6405411232164628 1 0.5477431114715099 2:1 5:1 26:1 40:1 44:1 46:1 73:1 161:1 179:1 392:1 480:1 781:1 797:1 2337:1 2402:1 2570:1 2635:1 2636:1 
0.2193056962911009 0.4851822818212628 1 1 2:1 26:1 40:1 99:1 162:1 209:1 234:1 392:1 495:1 1404:1 1758:1 
0.664757590801148 0 0.5328866753200782 0.7347715922860607 2:1 9:1 26:1 32:1 56:1 60:1 63:1 95:1 138:1 221:1 342:1 392:1 425:1 427:1 512:1 2638:1 2639:1 
0 0.1538960381495369 0 0.4521589422169122 2:1 26:1 36:1 39:1 48:1 50:1 51:1 76:1 101:1 118:1 132:1 168:1 187:1 261:1 265:1 392:1 410:1 1679:1 2281:1 2282:1 2283:1 
0 0 0 1 2:1 6:1 15:1 26:1 101:1 341:1 392:1 410:1 1138:1 2359:1 
1 1 1 1 2:1 15:1 26:1 392:1 410:1 
1 1 0.7509703833437795 1 2:1 26:1 32:1 63:1 92:1 95:1 111:1 392:1 1435:1 
0 0 1 0.008819242335561946 2:1 26:1 45:1 76:1 140:1 161:1 209:1 221:1 224:1 392:1 509:1 1173:1 1964:1 2647:1 
1 0 1 0 2:1 9:1 26:1 120:1 166:1 249:1 379:1 392:1 546:1 627:1 
0.2854381429857602 0 0.3853745467063225 0.1435129221305097 2:1 7:1 26:1 40:1 41:1 45:1 47:1 56:1 71:1 79:1 86:1 179:1 252:1 265:1 285:1 392:1 620:1 867:1 911:1 1453:1 2650:1 2651:1 2652:1 5802:1 
0 0 0.4997664476429028 0.006600092411032053 2:1 26:1 79:1 86:1 392:1 2655:1 2656:1 2657:1 
0 0 0.3725340257781029 0.7916322146334926 2:1 12:1 26:1 62:1 101:1 107:1 249:1 392:1 506:1 1160:1 1220:1 1964:1 
1 1 0.3355411591747199 1 2:1 9:1 26:1 392:1 410:1 2660:1 2661:1 
0 0 0 1 2:1 6:1 16:1 26:1 29:1 43:1 47:1 56:1 124:1 125:1 170:1 175:1 202:1 342:1 392:1 747:1 796:1 842:1 1221:1 1282:1 2662:1 2663:1 2689:1 5876:1 
1 1 1 1 2:1 15:1 23:1 26:1 40:1 392:1 410:1 1467:1 1539:1 1567:1 2666:1 2689:1 5802:1 5876:1 
1 1 0 1 2:1 26:1 44:1 242:1 392:1 592:1 1410:1 
0.3475190768502256 1 1 1 2:1 9:1 15:1 26:1 392:1 410:1 660:1 2668:1 
1 1 1 1 2:1 23:1 26:1 31:1 40:1 44:1 46:1 57:1 63:1 71:1 113:1 150:1 166:1 332:1 392:1 680:1 796:1 2468:1 
0 0 1 1 2:1 15:1 26:1 63:1 107:1 179:1 392:1 410:1 975:1 1269:1 1836:1 2239:1 
0.7406536163782145 0.2439593938384363 1 0 2:1 7:1 26:1 46:1 63:1 76:1 222:1 332:1 392:1 1883:1 2559:1 2671:1 
0.8470360190333595 0 0 0.04680433311491981 2:1 26:1 76:1 392:1 409:1 855:1 2672:1 
1 1 1 1 2:1 26:1 392:1 1872:1 
1 1 1 1 2:1 26:1 392:1 
0 0 0.006582439209885944 0.3075888141518275 2:1 9:1 26:1 73:1 76:1 265:1 366:1 392:1 814:1 2675:1 2676:1 2677:1 2678:1 
1 0 0 0 2:1 6:1 9:1 26:1 29:1 40:1 60:1 65:1 73:1 76:1 107:1 173:1 285:1 338:1 392:1 759:1 848:1 1243:1 
0 0 0.3594547549726412 0 2:1 9:1 26:1 63:1 66:1 76:1 86:1 129:1 215:1 216:1 252:1 392:1 446:1 639:1 2681:1 2682:1 2683:1 
0 0 0.1754927781687691 0.05968171687559073 2:1 9:1 15:1 26:1 36:1 86:1 118:1 224:1 392:1 410:1 717:1 2401:1 2685:1 
0 0.1648908886548686 0.3755715213144402 0.769477443353524 2:1 26:1 32:1 56:1 94:1 132:1 252:1 343:1 392:1 410:1 513:1 1790:1 1978:1 2084:1 
0.04732582866363856 0 1 0 2:1 9:1 26:1 200:1 379:1 392:1 2688:1 
0.05224059311148838 1 0.3847192343852848 1 2:1 26:1 36:1 39:1 71:1 76:1 93:1 191:1 220:1 392:1 410:1 526:1 1090:1 2689:1 2690:1 2691:1 5802:1 
1 0 1 0 2:1 26:1 46:1 63:1 177:1 376:1 392:1 2693:1 
0.6210867557438167 0.1401145723010563 0.694959033091792 0.9620289887788537 2:1 9:1 26:1 63:1 165:1 392:1 690:1 2696:1 
0 0 0.8887776623956212 0 2:1 25:1 26:1 46:1 63:1 68:1 392:1 723:1 1110:1 1782:1 
0.1401223442977544 0 1 0 2:1 26:1 32:1 40:1 46:1 73:1 132:1 392:1 651:1 656:1 1082:1 
0 0 0.1512430968616803 0.2832536159020687 2:1 26:1 32:1 63:1 73:1 76:1 95:1 161:1 168:1 264:1 362:1 392:1 426:1 469:1 1697:1 2577:1 2697:1 
0 0.1946944740341366 0 0 2:1 9:1 26:1 73:1 99:1 173:1 252:1 392:1 395:1 763:1 1251:1 2307:1 2698:1 
0.8496891534567184 0 0.3626388149974549 0.007041463596183357 2:1 26:1 48:1 71:1 86:1 95:1 107:1 132:1 392:1 837:1 1273:1 1453:1 2700:1 3091:1 4181:1 
0.2509271709623233 1 1 0.7681390880987827 2:1 9:1 26:1 36:1 76:1 101:1 392:1 508:1 2589:1 
0.4120652082474631 1 0.2656592092780155 0.1500099176105526 2:1 15:1 26:1 44:1 71:1 92:1 392:1 410:1 2702:1 5802:1 
1 1 1 1 2:1 26:1 109:1 151:1 252:1 392:1 410:1 640:1 2703:1 4181:1 
0 0 0.8418271820334112 1 2:1 26:1 46:1 63:1 107:1 362:1 392:1 393:1 410:1 453:1 640:1 721:1 2704:1 
1 1 1 1 2:1 26:1 39:1 40:1 56:1 71:1 107:1 140:1 392:1 467:1 1287:1 
0.4436837951494972 0 0 0.6626960275974486 2:1 26:1 30:1 36:1 43:1 45:1 46:1 93:1 128:1 175:1 194:1 221:1 333:1 342:1 376:1 392:1 499:1 502:1 749:1 871:1 1070:1 2172:1 2190:1 2288:1 2705:1 
0.05110286105786901 0 0 0 2:1 23:1 26:1 45:1 47:1 63:1 68:1 76:1 138:1 332:1 392:1 762:1 1824:1 1854:1 2573:1 2709:1 2710:1 2711:1 2712:1 5802:1 
1 1 1 1 2:1 9:1 26:1 47:1 56:1 128:1 167:1 221:1 392:1 1793:1 1941:1 2713:1 
0 0.4862605183136616 1 0 2:1 6:1 9:1 15:1 26:1 48:1 71:1 118:1 209:1 221:1 392:1 410:1 516:1 604:1 1269:1 2714:1 
1 0 1 0.8846702342481088 2:1 9:1 26:1 30:1 61:1 86:1 362:1 392:1 1926:1 2020:1 
0 0 0 0.04129369021190371 2:1 6:1 15:1 26:1 40:1 47:1 66:1 101:1 173:1 261:1 392:1 395:1 410:1 506:1 592:1 1173:1 1311:1 1464:1 1841:1 2720:1 
0.18448787600104 0.2398470198715974 0.09395784353421847 0.3403529134623844 2:1 26:1 30:1 40:1 364:1 392:1 1007:1 1656:1 2722:1 2723:1 2724:1 2725:1 2726:1 2727:1 2728:1 2729:1 2730:1 2731:1 
1 1 1 1 2:1 5:1 26:1 99:1 111:1 221:1 366:1 392:1 410:1 
1 1 0.5495879522432109 1 2:1 6:1 26:1 36:1 38:1 45:1 46:1 80:1 120:1 161:1 221:1 252:1 392:1 395:1 400:1 591:1 911:1 1054:1 2219:1 2733:1 2734:1 2735:1 2736:1 2738:1 5802:1 
1 1 1 1 2:1 26:1 71:1 173:1 359:1 392:1 2739:1 
0 0 1 0 2:1 9:1 26:1 216:1 392:1 
0 0 0.1115109887509977 0 2:1 26:1 44:1 60:1 62:1 63:1 71:1 84:1 86:1 367:1 392:1 814:1 2270:1 2719:1 2743:1 2744:1 
1 0.7107182414781813 0.3222653493840164 1 2:1 5:1 9:1 26:1 99:1 161:1 175:1 382:1 392:1 399:1 844:1 2745:1 
0 0.05248820574708815 0.06208497596677798 0.3628885463130994 2:1 26:1 40:1 52:1 63:1 92:1 107:1 140:1 150:1 367:1 392:1 656:1 1301:1 1501:1 2746:1 2747:1 2748:1 2749:1 
1 0 1 1 2:1 9:1 26:1 47:1 125:1 200:1 202:1 392:1 692:1 
0.08091645072454298 0.001520202007754772 0.3854980460288338 0.3690003622212367 2:1 26:1 55:1 56:1 86:1 94:1 107:1 161:1 392:1 1286:1 1364:1 2380:1 2750:1 2751:1 
0.96115838264986 0.7416280218319071 1 0.4425222313316144 2:1 9:1 26:1 107:1 114:1 392:1 2752:1 
0.03900809519712181 0 0.4576477443886494 0.5374776861121859 2:1 26:1 28:1 36:1 47:1 52:1 56:1 71:1 76:1 80:1 187:1 241:1 323:1 376:1 392:1 837:1 913:1 2295:1 2753:1 2754:1 2756:1 6596:1 
1 1 0.9373013082540084 1 2:1 26:1 86:1 129:1 392:1 503:1 522:1 917:1 
0.6947261734183611 0.3761201656098068 0 0.8421865651605075 2:1 26:1 68:1 144:1 392:1 2762:1 5802:1 
0 0 1 1 2:1 26:1 71:1 144:1 379:1 392:1 
1 0.497082349727741 0 1 2:1 6:1 26:1 66:1 340:1 341:1 392:1 427:1 525:1 2765:1 2766:1 
0.4202790255816373 0.9133310780076408 0 0.7371886377706416 2:1 26:1 47:1 66:1 68:1 73:1 86:1 179:1 392:1 400:1 853:1 2124:1 2392:1 2767:1 2768:1 
1 0.9954514049101522 1 1 2:1 5:1 26:1 45:1 242:1 392:1 410:1 837:1 1090:1 1321:1 2761:1 2769:1 5802:1 
1 1 1 1 2:1 9:1 26:1 166:1 392:1 
0.7355597305228976 0.4582604415825636 0 0.5383482526005327 2:1 9:1 26:1 45:1 63:1 73:1 82:1 392:1 446:1 584:1 660:1 1243:1 1914:1 2142:1 2771:1 2772:1 2777:1 
