solver_type L2R_LR
nr_class 5
label 4 0 3 1 2
nr_feature 28269
bias -1
w
-0.02564837195851246 -0.6691491392838177 0.5047597329975738 -0.1504600689924185 0.382673320535199 
-0.7358038452882981 -0.7020755740362873 -0.6567616369248974 -0.04109607564564707 -0.4728313944276306 
0 0 0 0 0 
-0.7358038452882981 -0.7020755740362873 -0.6567616369248974 -0.04109607564564707 -0.4728313944276306 
-0.08924099344575194 0.2236050569990697 -0.02726601177553488 -0.1168578660442442 -0.06296790206254496 
0.0700779705833763 -0.0172368449854582 -0.04079119369407251 -0.07193308367068985 0.02939971174758099 
0.6117979197883231 -0.0335872897247446 -0.1951932501164111 -0.232057964155114 -0.1289154333817419 
-0.328711872550939 0.3204062466228224 0.05471474157740053 -0.2076262862453864 -0.01433852370400629 
0.1953254072677083 -0.1247596267008274 0.1219359490914492 -0.2385121108035108 0.05997854081179267 
0.1983390210144659 -0.02311050450353012 0.1134872806904271 -0.1190359023045446 -0.1517618915154382 
-1.133041505052849 0.9259757602994112 -0.08832375007880378 0.2005936630257529 -0.5052429373898 
-0.06717954739905704 -0.0757887151504988 -0.3046979616361434 0.7365569822241167 -0.6473431140671637 
-0.1990966071824763 -0.2776872246034559 -0.4338541835239308 -0.7648789424879959 -0.5279980990511339 
0 0 0 0 0 
0.2962477267563552 -0.5212345561418724 -0.2124484231374805 0.6246005696974589 -0.2758490690644799 
0.329346475436676 -0.2852180458447033 -0.1060540837054975 0.05617783217163542 -0.1575394816642035 
-0.4357369833898178 -0.5134709348754345 -0.4477001604582471 0.9674387493089139 0.245910416454327 
-0.4325480853021029 0.4367457472058028 0.2687739249168246 0.5527509852822949 -0.9742826977961094 
-0.2758556708092528 0.0586979709530262 -0.3554441101846377 0.4361918818273915 -0.2679386247529394 
0.2302237386669911 -0.03196987262783868 -1.123378497459194 0.2325404552123373 -0.1069868884325861 
1.358240630537093 0.2440937863271831 -0.4560262730211516 -0.5969660007977344 -0.8122154022943333 
0.3197381880177417 -0.1887402683949767 0.5741070662931999 -0.7754844220668871 0.1397189545930188 
-0.1102652597901694 0.9123082993667737 -0.3234776757670412 -0.4084954602231872 -0.4621704809963694 
0.6437313347992155 -0.3093798972500334 -0.06863069625514853 -0.2078508466021699 -0.09615079224324277 
0.4237222469350409 -0.6410882957571975 0.537564354302522 -0.4477859447311746 0.07876925361051243 
0.6860941081925934 -0.01636462892555828 -0.5136009100115387 0.1321187915931105 0.1264398114110973 
0.02676119901768845 0.2266233317952476 0.278725739395274 -0.5556548188452682 0.02654104215701837 
-0.165462580259432 -0.1458225705778013 0.05510135503982069 -0.01737980752774608 0.2329121778230355 
0.9952058919863862 -2.423341312971904 -1.46683935763706 0.4609897738642241 -0.5523203688531787 
0 0 0 0 0 
-0.1761244338196834 -0.3814781498886025 -0.1958149596392417 -0.1536444942695217 0.3874254763114247 
-0.01041968492058369 0.1478892244615805 -0.140708595648145 -0.3200752400719151 0.1582490678825105 
0.2204987027363261 -0.4007943169405306 0.5443135824160873 -0.2459224969968157 0.0422392101874622 
0.03122180680204759 -0.06310579531233956 -0.104821508744699 0.2370943430836733 -0.09158456646144823 
0.4823155385067474 -0.193632267438371 -0.1836930069618699 -0.1055690955305614 0.07330750790418343 
0.5477581246292639 -0.0665821673587897 -0.1118288422187673 -0.08248110244255363 -0.2452411319283198 
-0.104963556268787 0.7121647033766338 0.464445809585496 -0.5420489740660083 -0.6766119033355612 
-0.07283359013060181 0.1725226236553435 0.02172199312951065 -0.3140373252486268 0.04503226869990947 
0.6094357042381311 -1.192100471047759 -0.6027178144738577 -0.06620101986931848 0.7563014646246351 
-0.3269585447162253 0.03456692580820208 -0.05658009563214762 -0.2228276183804726 0.2976725676402938 
-0.5412121013975493 -0.1392091437058776 0.3846592388320765 -0.6221016200174836 0.5179550973574527 
-0.1952613632291074 0.0469699812849311 0.2312870725260157 -0.04645764714659948 -0.1185846727117713 
-0.128068575734132 -0.1772930612547544 -0.3701024131861562 0.1315520113175219 0.3627545801687114 
0.2478947546392757 0.3640834238056827 -0.7476195838965113 0.672482431312282 -0.1343333290620641 
0.3973518295405765 0.02276825714103247 0.2663375930574503 0.6002613993118645 -0.8460624480782902 
-0.1109007810538899 -0.1286622970033207 -0.1651497339852789 0.1148938968963813 0.05825364677979431 
0.1429472711000224 0.1481763419043003 -0.01624592737334897 -0.1032585067829494 -0.1516835463941859 
-0.002973000243544473 0.1155413785355214 -0.3165806751958388 -0.06562478903884209 0.1260553035154576 
-0.06356686460705781 0.2483165962921633 0.1080048524663147 -0.1320863201814818 -0.1492189764948191 
0.7083681475907753 -0.400629009591046 -0.1422969671935452 -0.292681907717948 0.07110007154017173 
-0.1586585183235855 0.1911467905352192 0.05436625265955378 -0.3580981117732742 -0.02475161156210633 
0.3507305715732154 -0.2472304987867155 -0.1121040117651463 0.03357925104692914 -0.01268155107497365 
0.3408594225149499 -0.6467046068049883 0.1457151912557543 -0.1938828684858174 0.3768511677191888 
-0.05069372749328837 0.8660365088310505 0.2201993073063154 0.1166574012170966 -1.302074734002737 
0.06704189117030918 0.06685385226249668 0.4488297363965871 0.08985427456077048 -0.3709301402170493 
0.1451138858890706 0.3529879866329949 -0.004433040067284271 -0.1940782261650987 -0.23521274609389 
-0.1918456451458639 -0.124972625950029 0.02391927489395072 0.2280935827018593 -0.05500409440051226 
-0.1297963620811241 0.2766473708156057 0.1852322858226809 -0.64622365678831 0.132708928401388 
0.1543691079020535 -0.06615773586644454 -0.7541268304578089 -0.5487510717525298 0.6455803833587481 
0.595277022499479 -0.1690636206179487 -0.1703073738538752 -0.04174572446739393 -0.1194329034933626 
0.2671685707431823 0.3036322078771583 -0.8822081762090906 0.2036311391987789 -0.1023945527931487 
-0.1588188577625508 -0.05556879666695399 0.0647226581473232 -0.498120093742638 0.499057660980711 
0.05158301867473328 0.1463297541794105 -0.0399994290084432 -0.200795613165135 -0.009009093230599457 
-0.07391597498486741 0.0237131155153842 -0.2370571883879866 0.0995558732580471 0.07260988979059251 
0.07825277773856135 -0.2638142226486266 0.1296079435079508 -0.02636000772131269 0.1992842772230203 
-0.03253728431925251 0.2939499152920501 0.009141811441821947 -0.5694600892736307 0.1599088721153685 
-0.1802379327409702 -0.09485411159525109 0.20251942155346 0.3158242878100162 -0.3684589560485442 
0.07295806014920259 -0.1818830470057671 0.2762584644960416 -0.2844944736334661 -0.1246300336246527 
0.2681754781540167 0.04597470929053241 0.211353700043759 -0.2165502645971948 -0.2221853811893897 
0.2045497380449431 -0.0116236918096026 -0.07829411090423011 -0.1694262897780935 -0.06149837756355083 
-0.3940780253336211 -0.5968095217613225 -0.02944092419601491 0.8975843372547978 -0.09485066504702105 
0.01453753038164932 -0.09731424213369473 -0.2223983292145624 0.2568840740817716 -0.0931976197275927 
0.2236911359950323 -0.06373120691728926 0.02874560171890587 -0.5584124325983306 0.2667995093006038 
-0.3578545441485471 -0.2076752551281321 0.1228142964651774 0.09455504227293431 0.2394271892127018 
-0.1460205571000641 0.06615639000666498 -0.09472060867075183 0.5102090566970536 -0.2301667486428949 
-0.0334052445812535 0.003610363436162216 -0.0946214016357933 -0.08033243167333735 -0.03754820836502494 
-0.09365590856027572 -0.3175323283250568 0.2449225874077384 -0.4675262838749204 0.5303285225300038 
2.438155380524078 -1.50693009458558 -0.3605638102052038 -0.7482064309704008 -1.114869973502192 
0.3529705667130477 0.01301320963034593 -0.03749956004460886 0.04558544759703359 -0.2436453298243081 
-0.4389232445715472 0.2975639744541398 -0.06131287920483239 -0.1849490759168112 0.02049908494633424 
0.2045497380449431 -0.0116236918096026 -0.07829411090423011 -0.1694262897780935 -0.06149837756355083 
1.929499242743857 -0.5207249100565936 -0.7551190693653084 -1.35311847162369 -0.5845297766979012 
0.06250875316054826 0.1126720437615399 0.002223119971155956 -0.1252364273019197 0.07412980202168412 
0.609432303938682 -1.04233657844121 0.3257685420546941 -0.2403475412318852 0.1283595407755914 
0.4073279544976788 -0.6313256655486946 -0.2034800755751593 0.3723925504837259 0.2495778102222367 
0.1057514784728711 0.07704558140982065 -0.1970924783327502 -0.02763348893837555 -0.2055163130061224 
0 0 0 0 0 
-0.1413163330714461 0.1206801712736782 0.8210906540642511 -0.82900765486223 0.02099682120430749 
0.07669900439494078 0.2731958223685484 0.09094416620616855 -0.1396891952786083 -0.2595032919240877 
0.7560864047688424 -0.1027595187114663 -0.3292473478402119 -0.1307804035508545 -0.1384548066637486 
-0.7544114898167016 -0.1499499340795389 0.8042477627928457 -0.1660565284572146 -0.1023055761850328 
0 0 0 0 0 
-0.1408691599690937 0.05702810042219336 -0.5685766868475155 0.6546480427231118 -0.3431617249156216 
0.4550707197747221 0.05186906693084355 0.115046003830255 -0.09771210373087724 -0.2415248021949153 
-0.378042166797896 -0.01133139345586222 0.7696586523094616 -0.6760566698874524 0.08320201899037565 
-0.1984918430284212 -0.07147036006239417 0.02284611983436501 -0.4684396811793324 0.2010395901492612 
0.1943496257329273 0.3188244115222333 0.01794102048755876 -0.6499750137464926 -0.1482395754605755 
0 0 0 0 0 
-0.7366772029140861 0.9091041387859821 0.05594021831449243 -1.204634112227599 -0.1215758944134291 
0.2052813114222125 -0.4289390634909852 0.3978547419946172 0.2734021428555912 -0.4442031311885148 
-0.05528682151620522 0.1372597502915753 0.04427980044676489 -0.05098837526762966 -0.04930234575070353 
0.5001081383248228 -0.4569253533470789 -0.3015029744969637 -0.2295584804113716 1.061508198057908 
0.2947973622431749 0.2268740013106132 -0.2017285658650931 -0.5971726319615323 0.2348589292986559 
-0.1079776565970865 0.004049846225849058 0.101021797216819 -0.5515575050460959 0.3916535274930648 
1.390729658576011 -0.3857179676253818 -0.1978674128786858 -0.3260997893406751 -0.2862604617350495 
0.123609919058616 -0.546338392606307 -0.5885967591007071 1.022380259655151 -0.5047438076280862 
0.1314702935336588 -0.4585254435560279 0.6841187856809452 0.3201503287255223 -0.4001927582984914 
0.9345639151634221 -0.2928915752180171 -0.2160910658227149 -0.3376482283320275 -0.2519889382819734 
-0.121312237469819 0.1996782890644302 -0.1626539156657151 -0.3287708068100965 0.1514265872168154 
-0.08005863861366085 0.06971871180329962 -0.04110626982038693 0.07602603983238444 0.006391709094368325 
-0.1133148574595888 0.1530997519445386 -0.204435474087939 -0.6219922611157959 0.4806889426026583 
0.1222712315900953 -0.2349941873980326 0.2014900532843685 -0.0942485531902571 0.108891663620487 
0.1058746878374951 -0.02167508585825964 0.3730092730032916 -0.02330444371504133 -0.2649436705462703 
0.0998976128011904 0.1106207371447427 0.1903591646509921 -0.02387955385224021 -0.4522615494720143 
-0.6854855439131536 0.09051515786131802 0.07068598682155393 0.5477468337409471 -0.07664993356225425 
-0.2019951109461459 -0.1323306031384283 -0.05008607046500752 -0.01377120540824564 0.5776800002793048 
0.3768290772263815 0.1509078080502084 -0.5005673912896174 0.05319141548815276 -0.1533715799583351 
-0.7289765690598463 0.649944665201312 0.05309988133937774 0.4568950067243636 -0.8846710282217769 
1.036622923341583 0.6102762978121967 -0.1954329888393021 -0.7787918584452136 -0.43217455400515 
0.1700092013565376 -0.7902375574625391 -0.08503383883072259 0.03859505062269618 0.3810260559007287 
1.136534583426116 -0.1709747903362206 -0.1484797465797121 -0.6141878305827393 -0.2461765666070157 
-0.4366831737310339 7.763639954918092e-06 0.207433513337717 0.01304399049658548 0.1439185423185458 
1.200749056006919 0.144898209572305 -0.2374939368491359 -0.6839479874469649 -0.5549512150073256 
-0.07038189962249654 0.7298043959207949 -0.342099792737146 -0.9608417548623172 0.1481854809405452 
3.105406528512343 -1.590123554600815 -1.102250310155291 -1.605768992907564 -1.53945731444525 
1.317612689832861 -1.115874364232664 -0.282511691541773 -0.5402913466875703 -0.4765398092748762 
0.1927346040472002 0.1972209921496986 -0.6323523288701944 0.2269502840095194 -0.211842540189203 
-0.1032471757580959 0.765556336192878 0.07514011232746608 -0.2190377574281869 -0.6891171516437818 
0.4717288091014323 -0.06130171085811947 -0.03750323754462619 -0.2891503955151975 -0.009256988580905101 
0.02324934142626019 0.03430284386768629 0.5123461026197369 -0.2144047460198545 -0.1495338148404906 
0.1287760359244393 0.2622634162001289 -0.249174912277879 -0.4120095102307619 0.1838374820017757 
-1.110375077946659 -1.196071739382661 0.5543035647688611 0.9890163209056209 -0.8270422088009277 
0 0 0 0 0 
0.5181834523422567 -0.1884353972203242 -0.6256490952348699 0.1137541264476896 -0.01556364763564411 
0.01232073136681934 -0.922549302781809 0.7619960916186052 0.2294269647645271 -0.05363291937356211 
0.6679762206013499 0.5398627959556039 -0.3900903217354149 -1.154395490904601 -0.5248572837324164 
1.360885985888667 -0.284718475255348 -0.6521589052210137 -1.020407608608831 0.001251398845281909 
1.000146486259879 -0.5443550812492397 -0.1189929206424511 -0.4726014205150834 -0.3864377618121884 
0.3273927445382225 -0.03085212149314959 -0.5412925113256171 0.2216917010193841 -0.1804076574489404 
0.9763067927549544 0.1503407801828371 -0.4558185483078728 -0.4138877521673182 -0.3378847755872156 
0.3845046548188046 -0.4423611707064466 0.1665891460308322 -0.1914251897323169 -0.0880130121951099 
-0.02720123414878891 -0.6618088575110022 -0.2463633220510455 -0.2754183613439511 0.7038237818020654 
0.2183914459079075 0.09146576577464027 -0.547266597529021 -0.3227438315692695 0.1355382320765775 
-0.1007111503345501 0.3823451526947649 0.7160454930691946 -0.2962634791736824 -0.3373957552845464 
0.7396466090207258 -0.02837110856851225 -1.032592961960738 -0.2602569565362883 0.1800945904549981 
-0.9045404507338305 -0.1080260545286119 0.7380423042246921 0.2592737833503384 -0.1329155180837706 
0.511820098335187 0.7800511918418965 -0.4901237202431571 -0.1286391052734744 -1.336705417814808 
0.3594848518951665 0.1554093776018824 -0.2709384468585815 -0.1449614008229002 -0.1762340810229889 
0.8565327600679251 -0.7473500135210132 -0.5277489607027707 -2.014927617991079 1.367141462443848 
0.682502458549793 0.3166838569456068 0.1295219159286455 -0.3315605703170863 -0.36549393993975 
0.07022446373906707 -0.20761966687264 0.1524397446303266 0.019738135103539 -0.01955618696018557 
0.06328284831078511 -0.09011919439076932 -0.07488975911423347 0.153134172775927 -0.05452898851077105 
-0.06482744671978719 0.2235643999548269 -0.009243011652076583 -0.1795530806442612 -0.03431500338680828 
0.4492384328293996 -0.3568211771517116 -0.3160381357050332 0.3037111852445659 -0.3264131448843457 
0.01562144514458635 -0.5613360679058763 0.4072020832873111 0.3336479882264304 -0.05411241850473016 
-0.2514976202657231 0.2097978019401192 -0.04720087901284151 0.1213648535088587 -0.08886868301238829 
0.396774130806485 0.1078182584423164 0.7225773676318458 -0.6915205735028261 -0.3934985206235236 
0 0 0 0 0 
0.06632454388649194 -0.1717570019793423 0.3212576383465383 -0.4195254745843624 0.1300940506244212 
0 0 0 0 0 
2.25913517081525 -0.5736839150492378 -0.4610159786875342 -1.392775997930677 -0.4192427221545472 
-0.007177814749482796 -0.07600180254326806 0.03391098227790793 0.05276044967055765 -0.06932982694566593 
-0.1040985588981126 -0.541615384731145 -0.819642046327216 0.6031507138527848 0.2914341479128603 
0.6433895910428857 -0.1271707093375906 -0.1018373557765555 -0.2786732092510485 -0.1365661511556706 
0.5347960639253722 -0.148581365110639 -0.0583680158197249 -0.1718345848744134 -0.184001515996103 
0.8308325206853784 0.229670198596857 -0.9341084483271058 -0.4565438802504121 0.1631841578953304 
0.2702272179074753 0.253715703266547 -0.2388437663288014 -0.007897266173891235 -0.2331491347989615 
-0.1505329265876503 0.6503586830457759 0.1043869791639039 -1.297806893932391 -0.1513929373891398 
0.05901092480042421 -0.2220432851243521 0.2428503222238925 0.129171997857462 0.0009172738815704205 
-0.6663192484999194 0.1881169375331542 0.7149512389182547 0.3270892669351081 -0.731679349236482 
-0.06831284217499028 0.414205320899884 -0.5680191017349712 0.4579358490853752 -0.3718422178106038 
0.1670351744506814 0.07215419080475284 -0.1211058715069203 -0.3454179731605589 0.1704631205447507 
0.135749425850291 0.03136469477875391 0.1011038823491955 0.2008601272718427 -0.723244939160247 
0.1940267657217173 0.1152646304096298 0.08361355109917477 -0.2222443786592314 -0.2705806993023612 
0.4433394007554087 -0.3525393817658752 -0.1299468251230514 -0.08827033784751577 -0.1266180630039372 
0.1242919118693948 0.5336544953824843 -0.1172895670860888 -0.8034511678727199 -0.007366096344136659 
-0.2966676220711988 0.5188994926535107 -0.5005561881610313 -0.2230143060114791 0.2428059272637216 
0.4074196634748712 -0.5550434288466199 -0.9989132060674878 1.310349262098186 -1.851508384737361 
-0.3436350819418533 -0.2367641147892378 -0.3048357221550615 0.6639486970816965 0.1222822021526019 
0.0587753543434213 -0.4078011003167511 0.2767188303691762 -0.2244163417598304 -0.01137671320000945 
1.106493761847021 -0.4656257063020171 0.272023692925886 -1.244445022025052 0.1166919376581083 
-0.07423636758447448 -0.6929352451768904 -0.8011837502973528 0.5836713942992665 0.1333551562862327 
-0.0822024179910863 0.3720669225431581 -0.2923870303983296 0.316298630626314 -0.3319313773582703 
-0.5268154943265829 -1.680065796701082 -0.1251833216265255 1.474256812977487 -1.238261817503933 
0.6687630950830479 -0.2512020728230573 0.02348744943606086 -0.3134476791725455 -0.1559721245346941 
0.1800448996671431 1.065977224944601 -0.1769639667361077 -0.6925734902672629 -0.4963406844704907 
1.628073344574345 -0.5271314502797062 -0.5416809620465111 -0.5237615839733893 -0.134385974682131 
0.08201513747846011 0.04157855587027985 -0.06474790630754186 -0.1497502103436907 -0.01074225986448601 
0.2203217733455158 -0.5047649296591946 0.04602496636326103 0.05742494886517654 0.2584367788364988 
0.227400620463782 -0.5452645220130863 -0.6444231971966101 -0.3385347309080647 0.7954074840198945 
2.865816959215267 -1.12926346162343 -0.5634353921717947 -1.601470259767389 -1.245735592950077 
0.1587769377308141 0.4022129505078492 -0.1169333781872387 -0.8918729085777928 0.1694493788006151 
-0.351838136203778 0.1618481752279518 -0.4579270917219184 0.5316944156881004 -0.1063922931279673 
0.3078745009080571 -0.2173193002987274 -0.108855611955472 0.2422867943961431 -0.4462443123198667 
1.961090534530131 -0.2729756077096027 -0.2508736019789487 -1.349039965145014 -0.5627672690840472 
-0.6873273472798345 0.1179365154954232 0.1216205693949704 -0.6876549265051679 0.6678414635352262 
-0.1049788657473508 0.7972184556088724 0.015392593133872 -0.2144935416116383 -0.582864616703475 
0.3699786625962769 -0.5467233227215901 0.6383644843085616 -0.2027055267541868 -0.2720978689286417 
1.138645602644721 -0.205273747568617 -0.2494232192143921 -0.1297582428432481 -0.2388003939435818 
0.009095154496970924 -0.2555154604498078 0.02336777410939037 -0.1982741125897677 0.09496302359664682 
-0.2029420175265185 -0.09351668013064404 -0.1670404358293421 0.3445962536213136 -0.0778295860275834 
0.5343360836441812 0.2226824334943918 -0.4856984285886518 -0.1026538537698533 -0.338815852571433 
0.5065676746441575 -0.6730958192123427 -0.0003212961817175026 0.34456634253688 -0.3134244888813342 
0.2481599666709651 -0.5932215847382502 0.2111426475706622 -0.2637773134312736 0.2038127150928759 
0.2154222734950968 0.2418984515927386 -0.1420379354787327 -0.004631853585039647 -0.3695876793898792 
-0.07851132395977548 0.153705969066006 -0.5713485714424044 -0.5522992162721464 0.6835492744304746 
0.6332260217397906 0.2280624088507787 -0.1401583898274871 -0.1685534151124114 -0.3309617573601774 
0.5355578927650704 0.1134858354938244 -0.1044745325762693 -0.2331976172701651 -0.2480245636128962 
0.04671941727504174 0.01095216009915296 0.04066669408879034 -0.2758179625287956 0.3641592514159044 
0.1514233248316126 -0.03178467818603358 -0.5069504520445001 0.4187789234178511 -0.5598910823797563 
-0.6668174731967864 -0.1907813326145317 -0.8645004031249643 0.394867551189607 0.6196508582345758 
0.4125583362978095 -0.9654713061058073 -0.2765552187309744 0.4612816004217303 -0.2908739768380976 
0.07426902574316174 -0.1018589441106378 -0.1230806883162178 -0.02947766282938058 -0.07460418228653742 
0 0 0 0 0 
1.535192660462418 -0.02006694908320378 -0.3820721579056149 -0.559297177821386 -0.718478699366573 
-0.3455193551413812 -0.1817994433465488 0.02399030822136751 -0.3729921958202876 0.5863630752199203 
1.177959363839737 -0.4583966229133755 -0.9474995839446846 -0.7555201186371043 -0.538863992652977 
1.749854903331408 -0.7637406543414884 -1.329308868948199 -1.023858611875578 -0.4514274399598778 
1.40608969868746 0.2074369859786906 -0.8756180914596324 -1.103653801184508 -1.193066097988512 
3.051358680361814 -2.07557559950205 -1.497334963050119 -1.869066512047298 -1.389587395874628 
1.731817509434533 -0.6022116024525964 -0.3594445998062263 -0.6358410373517729 -0.630511261728705 
0.6763676114188821 -0.2808525437139855 -0.6346733621591542 0.1032745427594655 0.1066762129554474 
-0.2875957211660607 0.128010523494219 0.002905924244721777 0.01193403342968021 -0.04043338897260493 
0.1311593499118267 0.04704407450166619 -0.2161106765279183 0.1973472826509839 -0.02821242710591718 
0.4374849320560487 0.1782701746381552 -0.2530430264301752 -0.3790587315985189 -0.1499426007033349 
1.009806771676846 -0.6441249743115532 -0.5968835411084135 -0.2819592799407643 -0.1339613918001487 
0.9899053064466747 -0.2670824508315179 -0.09891593766626772 -0.438292404136879 -0.1994318830886581 
0.4369263630993668 0.1303680506887814 -0.05547156627215239 -0.3000303066700541 -0.1190864905875546 
0.5365997433421544 0.1207254419030933 0.0078808282985796 -1.638838201535823 0.6975632608452306 
-0.01880702422130516 0.6852569122488051 0.1872409676493054 -0.1916242935920266 -0.697561685674717 
0.5388614093985771 -0.01337965375707647 -0.01215774043743991 -0.2246977700137224 -0.1617471975984363 
0.3650167024596461 0.09974629199288411 -0.1179770604121649 -0.1752594338690259 -0.3392415671652366 
-0.4931023221924881 0.1132431191061892 -0.1977942627162113 -0.2724030505211829 0.4397324023192115 
0.03828222420654374 -0.1705108839908407 -0.02318677653309713 -0.0565110650050044 0.09180633021664095 
-0.5594252601728538 0.125822852709199 0.1252247911432166 -0.6382702601044359 0.4437896088190752 
1.416613304495794 -0.4948890180428881 0.05793310184705779 -0.9912379571350525 -0.2242522186240511 
0.3306861501621654 -0.2180556527131546 0.1644050871108925 -0.3589884607714565 0.143029961143374 
0.3120830502442696 -0.4889220179638193 0.07504101827174148 -0.143679080066777 0.1837962240464318 
1.813930411469871 -1.13275126439148 -0.9171246828436577 -0.4824967709760427 -0.5218049618823523 
0.2384768832351486 0.3269782206272692 -0.348601466599224 0.4725672213559591 -0.2734821290778923 
0.5226605763059287 -0.5546803369033343 0.6717876713589671 -1.116477861929941 -0.0242771025272587 
-0.07231959768718581 -0.2386321342575907 -0.009839161708831763 0.3162981562988021 0.04723997212673245 
-0.4238148041966854 0.4387391224649931 0.06814234903257629 -0.3392981927609874 -0.1747629724082433 
0.1091138353829598 -0.2224146112751714 0.2293267472221382 -0.5576690476000155 0.36714943239138 
-0.5380373673533209 -0.6685854324011046 -0.3950164833076449 0.6679924935736906 0.4527388274618743 
0.09624170503261648 0.4135417564267492 0.5245250182145174 -1.067575449220266 0.01143342315833127 
-0.6300531922569034 0.5745645603446179 0.7096011102538744 -0.7159355190985861 -0.1640398857835256 
0.008647889411863244 0.4736189337948011 -0.4584603371436884 -0.3934984738482166 -0.06631455375220995 
0.8467049766745549 -0.644243166169691 -0.5282879170996844 0.05631545348061442 -0.697951850119287 
0.04383212833333966 -0.1107908337494834 -0.6097580760971356 0.3736413010610935 -0.05137798162905776 
0.07879194524153757 -0.2493500131087096 -0.1307621637278474 -0.1901354707058665 0.09311545900189751 
-0.2752474753215727 -0.1225713207783391 0.1791109719042512 -0.1767124120517049 0.153706262953369 
0.611731970233635 -0.1199402588517159 -0.1036832204574055 -0.297464717229948 -0.07612829113416267 
0.1605318652167308 -0.1880323493466088 0.3697927550634753 -0.6126934279178309 0.02187808722592038 
0.06107807857681676 -0.4149394665470175 0.0502730073470939 -0.6494168233430677 1.057683679295723 
0.0625680341774367 -0.2150507633967047 -0.4072051351040691 0.8404717405269728 -0.7823760150533929 
-0.2822429799186186 -0.8364940526029317 0.01975748984035497 -0.007242954001020971 0.6842001200322422 
-0.1560537175894385 0.5208118345445333 -0.1650895098226768 -0.8703810165864679 0.3270521188516906 
0.4278306873225775 0.02485848502757623 -0.02976266407508631 -0.6098416229549616 -0.1222137295539439 
0.4571014110916772 0.01463665007910131 1.009814760955939 -0.7766780785633024 -0.423740256409498 
0.817115739028596 0.09415397762736569 0.022875118045867 -0.6693438380850504 -0.3991621445874422 
-0.3457041834892184 0.07433479544964662 0.2914250497840275 -0.2187674332912509 -0.6275563367458135 
-1.193227184291756 -1.809194806558912 3.937349725576217 -2.251328744673858 -2.065283130364204 
0.2488354707835986 -0.2006149077375512 -0.09564707454912807 -0.004586291761187036 -0.09129955902072248 
0.118936034098289 0.03598179642026426 -0.1662541166690324 -0.4376748666852865 0.38563549444048 
0.5884509770609492 -0.2587304058215378 -0.6536948926495542 0.3868975316804424 -0.801590156672665 
0.5701573802380548 -0.5571884124229433 -0.5815528373352873 0.5200140332852163 -0.392055521657475 
0 0 0 0 0 
0.7171104098806815 -0.1185810922120024 -0.1506088299179459 -0.2942646667258996 -0.1199879448287827 
-0.3011676977585704 -0.4600012388453663 0.9519116895866032 -0.5264384008598904 0.1670829194362684 
-0.3724823086012676 0.1248115583911445 -0.4932063832986143 0.4448583293199233 0.08299535146797016 
2.055620701206088 -0.6176697024940897 -0.6532416891905031 -1.119304892705831 -1.034542893774231 
-0.3152863159574579 0.6147579554961179 -0.3066156832266047 -0.08218455537309809 -0.3422894476473206 
-0.009799314141097228 -0.05594056047060238 -0.2231526914892141 -0.01794845646104332 0.2487487482478186 
-0.07404005226171552 0.08996681939459186 -0.3975938960559487 -0.6932994038317805 0.9117643879881537 
0.05237587490703055 0.3122901180273528 -0.7203383843517136 0.1610852698941379 -0.3230904713089085 
0.9589627437453938 -0.2518743512230572 -0.1770796231990777 -0.2413814972045049 -0.2572496573108023 
-0.1307889868484414 -0.03689723011953261 -0.01599501063328254 -0.4039067605327634 0.5710156485647697 
0.554775407470132 0.4293635291696308 -0.05386373911496747 -0.789167923031234 -0.3054993567013843 
0.4870446836629068 -0.1891796632270707 -0.03541463899691311 -0.07427692721063948 -0.128609974619416 
0.4675522293960027 0.3436476646226831 0.240148949159623 -0.5474808874453533 -0.5026768492458842 
0 0 0 0 0 
-0.7083040306780134 0.7981241098583249 0.2013536974737047 -0.007108435215345639 0.04813411488004524 
-0.1650856448881075 0.05951399861197463 0.03245937047957457 -0.4532898713964046 0.0513363325482308 
-0.01530946238679629 0.3449563924291195 -0.7214696177079406 0.4172904551831795 -0.2949019212338304 
0.6658490204490926 0.01043468016941622 -0.207676344106788 -0.1297104473307324 -0.4198424004317812 
0.6772209185030661 -0.3401614161206455 -0.4633551189544666 0.4319740636451286 -1.219008412711095 
0.2442682882600727 -0.1320609891685638 -0.03045541398953215 -0.1240139551593697 -0.0165187099704344 
-0.1846200916890023 0.2897487396263231 -0.2674220193630581 -0.2973903812827374 0.2089070932235765 
0.3961727040301118 -0.3202369471495808 -0.1685958339841156 0.1989389408026226 -0.1650937780299961 
0.2442682882600727 -0.1320609891685638 -0.03045541398953215 -0.1240139551593697 -0.0165187099704344 
0.7006117816653825 -0.02856035132929633 -0.1314700065650471 -0.4740123584440424 -0.4583071788221062 
-0.8171532409165335 -0.4096475610203595 0.09622386533514379 0.6805437204660316 0.06280283755854983 
2.061907823316349 -0.6306368338987268 -0.07043497089440287 -0.9276302144979465 -1.239799358538949 
0.1931161266165036 0.5824813345044434 0.07143830353782252 -0.4746374632359874 -0.2879286305235561 
0.4261262480252211 -0.07654633270324977 -0.08125672029526609 -0.06791097048782034 -0.09255238631469445 
0.4152818429001109 -0.1295322990496048 -0.1148873043297276 0.01294231978514643 -0.2434337127153257 
0.06233974874090499 -0.06780886202439454 -0.4295839822341987 -0.5621803301769318 0.3887802896886209 
-0.1576233071578126 -0.06057957006003808 -0.04552929836661297 -0.1197154545942703 0.2956438034992053 
-0.1494434405052414 -0.08559834021214553 0.2492548221830783 0.116848295700322 -0.0414062147422002 
0.08144363238039233 -0.0692783512625585 -0.04764366021858981 -0.2872138288036575 0.2472325792426228 
0.4261262480252211 -0.07654633270324977 -0.08125672029526609 -0.06791097048782034 -0.09255238631469445 
-0.3156573369893977 -0.03532668619409121 0.670152391242785 -0.4863133661978596 -0.2075324787289388 
-0.1074062961983898 0.121998209138469 -0.2345747989417511 0.512633456328668 -0.05171090062073001 
0.2753372947124972 -0.2623015288008239 -0.06670635896184959 -0.5930560936761248 0.2730054239281426 
-0.07917529345990454 -0.1966696520806836 -0.04968215567724067 0.2045989366565872 0.05572287258501382 
1.152236180212943 0.04622883554431648 -0.7601952896961254 -0.6324368529756377 -0.3457411232181256 
0.5877405892153367 0.3090816539445377 -0.1039325584838742 -0.1881831351012865 -0.6005026493799398 
0.9358138071228365 -0.3002859498893927 0.1109251681314334 -0.5550170690702364 -0.2456683408368857 
0.6060284893945802 -0.00771739282260885 -0.05982433523990172 -0.04636132789292213 -0.4553353397885571 
0.2828237598222454 -0.5674321337510985 0.193110111907647 0.186357824507898 -0.05579307705809482 
-1.237367295637305 -1.133181813566704 -0.4450483531377391 -1.258304497758668 2.234590437272615 
-0.3397198558266798 -0.4570299564087907 -0.5543693780341848 -0.4870920716139033 1.370807970922346 
0.5379230377326871 0.3591763754173052 -0.1147779916524629 -0.2097325861149859 -0.5668359021209574 
-0.17366236607911 -0.3962982030385139 -0.357383615940471 0.2492688650709538 0.3548060430036912 
0.6060284893945802 -0.00771739282260885 -0.05982433523990172 -0.04636132789292213 -0.4553353397885571 
0.4683004938134592 -1.311904104662524 -1.624359069609312 1.123218578441024 -0.6033676337870849 
-0.1595775275056471 0.1253916307027194 0.3477252109233635 0.2515076899483158 -0.9659668521809901 
0.3578463024859125 -0.09408721379563612 -0.8270457315069286 0.05070453513178289 0.231668649969938 
-0.1896035923662822 -0.1238205907073407 0.1014276461432421 0.1250488649414079 -0.2431844886398182 
0.1726583244812194 0.2042454903900553 -0.8217901333896445 -0.3711553009334978 0.2732342648353009 
-0.310007959065204 -0.1364706804128837 -0.1925662579042747 -0.3385045702320629 0.6051005761208239 
0.6356050062720201 -0.01597852144787605 -0.3022899041961456 -0.1820867253842011 -0.4463238680605442 
-0.08828111931756591 0.3822575654080494 0.0826413171077589 -0.3235007903393397 0.07408564588421181 
-0.09978128248083407 0.5783576798068988 -0.3756752557289207 -0.6974361732909071 0.4744025089815187 
-0.1540755101303345 -1.369732518707238 -0.6484009572088603 0.9141422064531995 -0.2300588447071134 
-0.1885154616431029 -0.4885680659145538 -0.4149948836641765 0.4757757717431875 0.0484738764489677 
-0.4065931361837927 -0.5985735255762401 1.231826936903887 -1.055043478149615 -0.0367479052453861 
-0.4356330310508351 -0.1783802445836527 0.02749031947880751 0.3649236382139279 0.1289497822248726 
-0.2194528928139403 -0.57895364213279 0.4080275979554613 0.09790212184642276 -0.1706976020866147 
0.7878941821360955 -0.250539777681024 -0.1563123692367187 0.1385066309663482 -0.5042421195833716 
0.2788004339901396 -0.4437560053110237 0.1353589206353925 -0.1524700593390442 0.1401264671731296 
0.01331852307915693 -0.1085048827862477 0.1794981595751452 0.9278977951047583 -0.5347513038876154 
0.7754728718196614 -0.5313224220324333 0.2308126662526794 -0.5431871549734169 -0.4624675897083233 
-0.3422867137339941 -1.042077622398143 1.036713185651189 -0.4165122041010819 0.19005973156228 
0.3912300651753309 -0.2234169858795273 -0.4252390270929625 0.2864046612969811 -0.2612151106262941 
0.3994901289021625 0.248967368544574 -0.5686473020820397 0.4617800196406474 0.2677123707141152 
-0.1150635484242772 -0.1247729005933434 -0.1994518920234875 -0.257220922407684 0.626997729635932 
-0.07880210885396091 0.3945630505451593 -0.02896524958251819 -0.2921414872445148 -0.06936588006971775 
0.9353031189064176 0.1626358038405257 0.4467375083194706 -0.2857909023877467 -0.7970048538903236 
0.8538843922798821 -0.7733519993651188 -0.06053833001953231 -0.3308991405059261 -0.1495061234898244 
0.2883968415378509 0.2416887659029854 -0.3341632759687728 -0.4667454713893277 -0.07243645832314261 
0.3428186267608231 0.3468317025616625 -0.03244756457801967 -1.279059295977714 -0.01321457165116799 
-0.2487086672597071 0.4886746209014432 0.1003401827298251 -1.193443578224686 0.435102656598237 
-0.2531347022382469 0.220570715789871 0.1803764659604732 -0.4554481243757793 0.04972622640404833 
0.4394554152554992 -0.6887913600243896 -0.6691900807451345 0.04315175234531435 0.5993827682771045 
-0.3398715353810167 -0.3078632877972864 -0.730462085196864 0.5003109677855017 0.1862238812587366 
0.1558182145878668 1.160947913415851 -0.1387924774806714 -1.058014651768426 0.5218062301964822 
-0.1400859124659258 -0.6932689071670141 0.7374128311470884 -0.05045664794265076 -0.156743835322217 
0 0 0 0 0 
0 0 0 0 0 
0.1502068644023409 0.5719989969466521 -0.01525686718715911 -0.2761917555033161 -0.2513321525613184 
0.05440641579391391 0.4651619475825686 0.349315730083114 -0.268506033066906 -0.3950115570983069 
-0.2227202222373489 0.3912036373809064 -0.595726398873476 0.651491082382705 -0.1970858491468347 
-0.2672220215173154 -0.448060795255018 0.6506104671295772 -0.1460878117620635 0.1613542037191926 
2.515188031424461 -0.7328760125170398 -0.702595348787095 -1.463087600105384 -0.9283692045993179 
0.4999082267689181 -0.4439359249561447 -1.027742125596016 0.4306564867151083 0.06325025740322666 
0.04387824919664984 0.4372035981924683 -0.3025559021119341 -1.110669344720797 0.7012372813628452 
0.6765363458237141 -0.9930754582751161 -0.2175351705509607 0.1170478191568796 0.1866478872858453 
-0.09487958910150328 0.3798150442559675 -0.03845793349947581 0.4559651715589412 -0.8243318807007112 
0.0393514052002765 -0.8529722708721792 -1.011793157068952 1.313188377072938 -0.610620710710321 
1.04728086511124 -0.100882072706078 -0.2837791999258848 0.09884095322110474 -0.6735954963402431 
-0.5135288431674863 0.3017399843730102 0.6176941060315273 -0.6630848594468302 -0.08069004370263082 
-0.2066221216307598 -0.2958772224908894 0.2600247871766803 0.4045227549320291 -0.2400947411600553 
-0.1387344258380332 -0.2082298038406004 -0.1583606225086097 0.5071399610656648 -0.1394709483968049 
0.1385789508244286 0.4135318628400249 -0.419362840153204 -0.8040736443490852 0.2148196682865764 
0.6883971427495271 -0.2354557293916285 -0.08786549947357113 -0.10467385722855 -0.1736640522748205 
-0.4700882616014851 0.3671776964003923 -0.1232204675062539 -0.9639333197217195 0.6308318225777083 
-0.02824613894729334 -0.7096009348008609 -0.6327043519763148 0.6021397843826185 0.4480486171376638 
0.1197391374322156 0.06052398715593214 0.06529869968284917 0.06631981396643366 -0.1480010640363272 
-0.2418140185581558 0.6330480151333208 -0.2044804429938717 0.00141941736369175 -0.2718730701431967 
-0.6476577763135434 -0.1619843021930191 -1.656870626643552 -0.3771135893942667 1.296036626437139 
0.3340497683098276 -1.038670806177453 -0.4569047930169968 0.973908940945615 -0.1519611784617889 
0.7636476010578729 -0.2054357257559382 -0.05982260673702854 -0.1151075882978187 -0.1884842877073163 
0.07565715736344819 0.07960183484968361 -0.6880473750509969 -0.3514746828856458 0.5933198218757439 
0.7237661197659907 -0.5253363870365528 -0.5229326569599705 -0.3908673938313492 0.2802114601166151 
1.247970483561445 0.468189756631588 -0.241085591241375 -0.9944402356248249 -0.8278939897772822 
0.927471999675661 -0.04674455715526946 -0.5433727907524133 -0.9985912282134281 0.05518274341129527 
2.753466409285764 -1.045094411054216 -0.3676226816795181 -2.562775353141387 -1.354012226609658 
0.2399967610604124 0.2895157083564132 -0.2556852956069415 -0.2111336556059629 -0.1013549820342438 
0.06354549153657094 0.2161585564517677 -0.1494788154041159 -0.639124564371119 0.408999892163225 
0.04931806788142226 -0.3521656280347933 -0.4398608939463394 0.209680707824801 0.2917718384361979 
0.6780317490167862 -0.5844191553422187 -0.9651966608182548 -0.1584951842899009 0.2123293594185935 
-1.100324933063229 -0.3649360875429182 -0.9740841195229565 -1.367953938472589 2.047483942726556 
0.1559638835368332 0.04982802874437833 0.00763534167203641 -0.2541941192723303 0.1248647828256135 
-0.4307414688868751 0.0001727140254695544 -0.579165092256585 -0.1375475454306075 0.6905569223463618 
0.04405748604857944 -0.5905496915094777 0.584167165759426 -0.9338854074539367 0.7764082187102244 
0.5342773079984933 0.4838993307437799 -0.6484355637609008 -0.32499405210348 -0.7143598611634093 
0.66246474657202 -0.2159357828821955 -0.1306772640047282 -0.1014592590011899 -0.1943688172135831 
-0.4473943436060818 0.03292925082380975 0.1135322961134792 -0.2064261515721725 0.2527751861808239 
0.66246474657202 -0.2159357828821955 -0.1306772640047282 -0.1014592590011899 -0.1943688172135831 
0.2962666248523052 1.160611568195135 -0.5551122253385775 0.09870694925895976 -0.742769858096394 
0.8641566283142964 0.03669215295331736 -0.3414397735082529 0.5862524866151949 -0.9662602900570354 
0.01609980255113879 -0.6333809592899913 -0.6378407524668634 0.7101444656362859 0.06342397308395148 
0.1949992591851805 -0.003784435891636677 -0.009237812013710635 -0.4944477421545811 -0.04562736481722608 
0.5511884265310105 -0.3622785059868641 -0.1370593062049029 -0.1359551233159859 0.062639999378233 
-0.5921747199638202 -0.1886234267142215 -0.4644850170577892 0.4848537885305118 0.5932378897972248 
1.266613759514573 -1.199894090912175 -0.5412954554344549 0.1514448554251769 -0.779604615556687 
-0.1755762620097703 -0.4732192735497307 -0.1121545459058249 0.8273501870996329 -0.2101448732902206 
0.7507111616956059 0.1107922128472946 -0.1348094200738105 -0.3597550002747643 -0.3189823158928197 
-0.3915522386498035 0.09399708534811101 -0.04620242294505819 -0.08403356065562664 0.2727413390536824 
1.509824173219082 -0.1897742365989223 -0.2429364257081259 -0.8169027469327741 -0.3477700744857419 
1.592331995185833 -0.388594798042014 -0.6101613894937894 -0.1444208855639137 -0.8263794616393301 
-0.4620227183474229 0.8296576279327318 -0.03524992471091266 0.04030950723091979 -0.5675157067601031 
-0.08294063869883743 0.3365896420059771 0.6121698097251943 -0.2375728991286937 -0.5965637461617996 
0.5482979788735218 -0.2031980852735991 -0.06964004173529249 -0.1192880233388254 -0.1155734899703142 
-0.4714997646003402 0.3487353252834526 0.2538674057782393 -0.6878321977524174 -0.1849277899987413 
-0.1453790831824019 0.1842064586060519 -0.2590090384541084 0.1094172593289481 -0.05208731489177922 
0.5482979788735218 -0.2031980852735991 -0.06964004173529249 -0.1192880233388254 -0.1155734899703142 
0 0 0 0 0 
-0.04746204564922828 -0.005626524418709871 0.2320225733694356 -0.06370773978161222 -0.1102889866122613 
-0.3037389878454275 -0.7240197118235504 -0.6623075770247826 1.137826127804684 -0.2791925243050933 
0 0 0 0 0 
0.5086283014758169 -0.2325439348406865 -1.185072650037193 0.05084916557119341 0.151875697784804 
0.1752828442548119 0.6543850210354474 -0.1267688868720908 -0.07123637577958347 0.02727094627836988 
-0.4634410156549575 -0.3966299884382434 -0.2670840493462645 0.06900496885681714 0.507868376676628 
1.116888009526149 -0.107817098607911 -0.210199007228149 -0.5668229003504011 -0.6428337663068999 
0.1967807259486575 -0.07750791483045383 -0.8157214548581021 0.002041380356794419 0.4652313838774112 
0.3141951128578576 -0.004412195868505329 -0.01913972860673661 -0.1394378696799223 -0.3174644746437056 
-0.06080882933559169 0.03423570490066365 0.7704311293623917 -0.4613401655308301 -0.08314076033299383 
-0.1484027013931182 0.0106916541716991 -0.06055541024981671 -0.2952368069040865 0.1809018487395933 
1.025504153394009 -0.7261289189483686 -0.2303188474927614 -0.4169959556054343 0.1801281853879243 
-0.2380653845907454 -0.1178146604143924 0.2094343414883355 -0.1890085164881121 0.4065177364193236 
0.3621034652073231 -0.01536268809905826 -0.1453300038129726 -0.02712829458861524 -0.3233551797895236 
0.3621034652073231 -0.01536268809905826 -0.1453300038129726 -0.02712829458861524 -0.3233551797895236 
0.7090918837653565 -0.02887845774281641 -0.2043352640177314 -0.2362022476211689 -0.4171430548336961 
0.3181047312490211 0.4136239671843701 -0.4609798938697692 -0.07817669976010937 -0.3567916271915925 
0.2196705204458546 -0.07294533460321631 -0.3555988754497262 0.5817096935010504 -0.4608597688682719 
-0.06820762414410722 -1.408077772264843 1.324400452988145 -0.7643373839086746 0.7520257032790796 
-0.6184637046685527 0.3363496873517939 0.4426252679406159 -0.7330643854495467 0.5417924655089623 
0.3092576553889473 1.0528846657081 -0.09085924156890926 -0.8826561554127199 -0.9101397010415855 
0.7319116305431368 -0.425810302280019 0.3070488219558077 -0.54583183258497 -0.4892487917379104 
-0.01468464153867147 -0.3064348190437958 -0.233975950175021 0.6221994492074711 0.05282261436684669 
0.09450902606222961 0.4992168962413326 0.05640714421723284 -0.3450207425805383 -0.167138122079988 
0.1990548870413421 -0.08897642048042229 0.2705691574681416 -0.443070531019246 -0.1272425925946048 
0.3699790664617681 -0.02535504842977931 -0.08953632478000036 -0.05900846037094823 -0.2627069445435947 
1.409364381779758 -0.7756703173994258 -0.9097817034209484 -0.7244857838913255 0.5147305536291275 
-0.0310225495632834 -0.09513228580855075 0.1472005363393951 0.1359585080277971 -0.02223530639824189 
0.2484724078317893 -0.5683258261535363 -0.2837906536382674 0.5756302057579141 -0.3239118222427925 
0.6564158089906961 0.1578463102255908 -1.233133441332157 -0.008941377725530289 -0.1670895647506082 
-0.6292607240800332 0.4006658386946585 0.8004176744717701 0.1100410624375441 -1.017440378275577 
0.4413767641584352 -0.1222139119010702 -0.03133500895730042 -0.03266633514179331 -0.1501644228766147 
-0.4359221590288314 0.273604813868645 0.4208573206312521 -1.062439211164897 0.6571038838707189 
0.406967051430726 0.2034794686272945 0.8484178732448003 -0.8562908761829912 -0.1467523930523549 
0.498666218825184 -0.2025050564351359 0.6220982327932049 -0.4254907375978998 -0.3242899164589595 
-0.2146798115053044 0.2429135829765046 -0.6627551701574945 0.1024695760462087 0.4409153472344539 
0.2283139327297545 -0.1239031685084569 0.1237520304869001 -0.2212019604821997 0.2475216645871841 
-0.4433782926357286 -0.1948395254904915 -0.7606430155110396 0.7294978624937458 0.1092522061696761 
0.4313951346296521 -0.3574645354631938 0.1445194445732811 0.3055943037169528 -0.2838205836265779 
0.9574992042627402 -0.300544432868925 -0.1488478297809999 -0.3143499822475651 -0.2932154494000003 
0.2264017511685958 0.09015830757290466 -0.2437743870458826 -0.2608878179980284 0.3262664976083467 
-0.5096039692023565 0.2010298891866288 -0.2010266384776618 0.6600582305200614 -0.615388987100862 
1.030741867962219 -0.3192564979630815 -0.01453765060583461 -0.7684849648684134 0.217387264816654 
-0.1680478053121215 0.3288624152344397 -0.09589616809021564 -0.08809787789075382 -0.05608208052234242 
0.2817803366660369 0.4048187892553665 0.1591103471182531 -0.5940946056862064 -0.3028534411554666 
-0.1212811454861655 -0.007993024067104835 -0.001147941949654683 0.1078867040203462 -0.02001219633005179 
0.4308387888373768 -0.1043496229075218 -0.1206247523705413 0.1084572544166564 -0.374891524639646 
0.6599514013844497 0.7680093958453612 -0.8132856837803453 -0.9299200422563466 -0.2744896334699846 
0.5233091053757184 -0.8261402344711577 -0.641806875692194 0.005624429412613815 -0.03374093050848985 
-0.1194900918224093 0.309119224190638 0.1538166718950298 0.2980246739341896 -0.4125845149290142 
0.9203915462171698 -0.5933257643597074 0.1429809477410845 -0.2573584185108601 -0.3669507487892811 
0.5735000241627063 -0.08620768351699228 -0.1574909948199697 -0.197072385139273 -0.1102355927803926 
0.7626121649165818 -0.2955978393469876 -0.1820362516723463 -0.2412449009002182 -0.1270144566276199 
0.0745770759302421 -0.1760860090827508 0.4810346717093325 -0.07079526535045837 -0.2504704786998927 
0.03491798367728136 0.3291502720449324 -0.5675308229972126 -0.8038759433653623 0.245246252344586 
0.6030207851424688 0.6596427256159534 0.0286142548358583 -0.5817664757920062 -0.7539791706244856 
1.212537812125457 0.1436793826750278 -0.5715624304453102 -0.1211316950335035 -0.8298045338019385 
0.8955068177965451 -0.157938106906227 -0.1890577077480665 -0.3985434549221846 -0.1887460329495589 
0 0 0 0 0 
-1.00976499923329 -0.057740966684725 -0.1992525081867013 -0.07478878902986424 0.607092090362758 
1.764081559181709 -0.6427761177338042 0.8688278173788648 -0.5753000397196155 -1.202761939782609 
-0.5373417144218616 -1.168970888255512 0.305807121145067 -0.3309004667233754 0.9807229626220464 
1.19771857044966 -0.08756662771353735 -0.3877006839914899 -0.2064986793552562 -0.2870933164989191 
0.05655143756128504 -0.1589611318592618 -0.02265940155003244 0.1907942423090757 0.0009393929643408024 
0.1666043497699439 0.08902618304625481 -0.3752594985023374 -0.1841771166917635 0.1371212008075247 
0.1702516263363411 0.4196244067451452 -0.2324880444265298 -0.09281596057929965 -0.5732396164460357 
-0.0336897782760905 -0.06693643439843298 -0.1091963380607044 0.5464704034704428 -0.2355353134821069 
1.105565650699301 -0.9395006856727789 -0.7019125484060208 0.3985808448916704 -1.269876598746591 
-0.6343480911634671 -0.7862320017210699 -0.9467093062316143 1.982631321126215 -1.208939853838717 
0.3039518285941687 -0.2941333319935095 -0.4377923421564258 -0.07989911402489064 0.5493283272240214 
0.5869564031342643 0.6813086846665081 -0.434561918844191 -0.3816693585532897 -0.7308488389830317 
0.4024305996080559 0.06782109800460354 0.7875871812967594 -0.8697319686352499 -0.5693779298890678 
0.6783854470948797 -0.9436473549576234 0.04993997120135524 -0.007923412074964907 -0.4916824325102199 
1.068504592945696 -0.2677313791321225 -0.1735859636039662 -0.5577198269869942 -0.3420483696488836 
-0.1369000357523625 -0.9754566124044287 0.2949404928024013 -0.174482336678122 0.3776646280106267 
0.7851940670166979 -0.4365815674612586 -1.096525461564172 -0.8546731906254392 1.447760920981991 
-0.1351346523289223 0.4866451188986358 0.1301602068180903 0.1406384184152678 -0.6887377415761912 
-0.476639452619069 0.6043507024958295 0.3155683437025727 0.1591747961504266 -0.2123122064760486 
-0.1819600314936384 0.4344091000749354 -0.5150247400842426 -0.8901206717340877 0.7108181451717327 
-0.468808512724938 0.05443432799370358 0.09314688442259982 0.05383117782547697 0.09777437585137766 
-0.3726533148522851 -0.5091677752028824 1.035454446967629 -0.0284028757378444 -0.1763307885238976 
0.9319441702298583 -0.5218224059097762 -0.1476016701535983 -0.427892027141789 0.2475870406805376 
0.5319241354056813 0.01215769024986922 0.2795219398510031 -0.0518208801814008 -0.389828504757164 
0.1842454679418226 1.473494720272106 -0.7473544747005469 -0.6116455841827284 0.01535367210701555 
-0.1691417274129198 0.02659473748028137 -0.01176398275289354 -0.05123171006163828 0.1143167592955482 
1.180116542705165 -1.218554789896724 -0.5274170028844051 -0.5922715753793021 0.8096836392622112 
0.2782832556391733 0.1236421133447437 -0.001263756704554658 -0.09642238483236118 -0.65919483800084 
-0.4088500463169527 1.290553424864494 -0.5160121317776758 -0.2170427378703977 -0.5790299099747207 
-0.3954999814176409 0.1735021851325273 -1.145874251743254 0.6818157299950035 -0.3957047734274209 
0.4669421158235617 -0.5281197893827645 -0.007486137224028388 -0.001719373933784611 -0.1259529546998955 
0.7366108390517676 0.1846447721661376 -0.4390211274378987 -0.1697137532282367 -0.4884702880481435 
0.2360435239710902 -0.115204293743699 0.2082422493921523 -0.4531060412984255 0.1018200885851138 
-9.494934416419149e-05 0.1130370487074242 -0.3226248464853576 -0.04325553120593274 0.2069174154734775 
1.108480464390604 -0.1503234630077472 -0.13326438292648 -0.02845095927310913 -0.5890241876677703 
-0.5052854066142236 0.1608984754455712 0.232425378237387 -0.6901370754432152 0.2116986297305506 
1.060053032370121 0.4090212864749632 -0.1760917142194305 -0.1425758942274872 -0.7514282929773493 
-0.128751617059579 0.3131127170961418 -1.065847266550157 0.2795864395009542 0.04322674744427146 
0.3494307264522529 0.25139716859519 0.3412502788543756 -0.7566867987432816 -0.3483961728322028 
1.044355912138011 0.2414751262503894 -0.4822497312166228 -0.02323271312252669 -0.6111333329522571 
0.5915536078755461 -0.1079110045399182 -0.7061467769801502 -1.266859763162725 0.6961339340891139 
-0.4992670900407524 0.3514457314548377 0.03907443564541527 -0.16007376748709 0.02698983936279692 
0.06812585124208026 1.129074614609253 -0.4435539013681588 0.1985184125075814 -0.7897746982575757 
-0.2412903354359113 -0.2601552890510714 -0.7621150732614276 0.1599895361916815 0.3416623570507282 
0.1338855960411303 -0.2818763924621669 -0.8838748725961014 0.3310614214413762 -0.1647102065369416 
0.001421753063843713 -0.1605024667516189 -0.2747862587712498 0.2626894526104708 0.01750857648503766 
0.2350109662631621 -0.9800995038766382 -0.2414899510093592 0.5062131065577341 -0.02259116262212758 
0.7445396001608056 -1.170741303627376 -0.2040744716030514 -0.6311314427864078 0.6779312374617296 
0.2192141823872899 0.3111164848358847 -0.6666524162572852 -0.412419129543524 0.09897186398130187 
0.3127015041053011 0.1287636187918649 0.4282837530292529 -0.3690045823534613 -0.2129756096683932 
0.3597264652120764 0.3267518837194884 -0.3478879464980212 0.1376581824758117 -0.4479938756226506 
2.828688257623196 -1.951977631349914 -0.8887052826462928 -1.906496953304935 -1.20689748577787 
-0.4116172207372184 -0.2921306282902212 -0.6561994691318689 1.030292324378689 -0.6165949124221167 
0.624551273453307 -0.09323282995517888 -0.06730804940449778 0.1738045125067871 -0.9789790458299306 
-0.08505360959670873 0.384688318451547 0.3509904454577994 -0.6324906210594614 0.06488662699713661 
1.243464957033308 -0.635585295435389 0.2519102832862239 -0.5500660990631583 -0.2963279773731854 
1.768058041867559 -0.8966678679880427 0.1036836778313769 -0.3526655539324783 -0.9128430358918468 
0.5665752720666641 -1.192484996268959 0.6761984400917419 -0.06036942700755085 -0.06999348421021233 
0.2319686562291234 -0.3996881583816598 -0.5894123386067214 -0.1152316732253123 0.5822832531906453 
0.07249081288692488 -0.1154403718836179 -0.2953532327800899 -0.6121354758068761 0.4460412696469112 
0.1681629539458425 -0.04476762503227268 -0.06736662019035697 -0.02246603203265481 -0.02454886497614685 
-0.2847129520362674 0.37729729719931 0.6195379594449114 -0.4389549693096872 -0.4410636611513081 
0.06107893737838861 -0.4625635703952184 0.04243592815558736 -0.2124382998707951 0.538386346706204 
2.054724384347947 -1.269763728519003 -0.5750805949825242 -1.095012584398511 -0.7527386782954898 
-0.1478487641187336 1.224703810274975 -0.1789637091074355 -0.9765695487780272 -0.3652433915184906 
0 0 0 0 0 
0.1514377693581558 -0.03105663885626925 0.06378018848743362 -0.5476173254216232 0.4659894695271645 
0.05665936808629103 0.2410529955034967 0.6744631875085902 -0.7395209528942928 -0.3641340094081937 
0.4264261107768194 -0.08121427835896904 -0.7272190202561645 -0.3174182157873521 0.475195499032051 
0.9628468629244256 -0.1909385925260271 -0.1378375067576388 -0.442967343235102 -0.2909673856324235 
0.469456614451612 -0.06288728956311868 -0.07394727213194362 -0.1940828678042651 -0.1505469523767735 
0.03698268241794332 0.3013162614244711 -0.3780849317675365 -0.1755315829521225 0.07243285118240603 
0.2220564772798494 -0.4642799363582854 0.6779285989343229 -0.73570532678551 0.3387452639893749 
0.6810893109637827 -0.3392761686751247 -0.1990965727756208 0.3420988161642224 -1.233860994614205 
0.8675418685562031 0.3150480180857168 -0.5403563278899854 -0.7222914951589727 0.00826459078414764 
0.2438419311503828 -0.04179449564689225 -0.08707537456674549 0.1309895662970265 -0.08823830783707641 
-0.976230102425286 -0.01884634995828421 1.031366537058736 -1.259786364265707 0.3077057938760821 
0.2021533023242783 0.2863595106949438 -0.5023251803447571 0.1023293450259621 -0.3628698775787506 
0.2413057648961494 -0.04168452880093144 0.4509801067285392 -0.09858005508256577 -0.372823251059025 
-1.169407795792033 1.422201484626651 -0.2967862585992136 -1.105463856938209 -0.4610642857550407 
0.275864013016636 -0.01517474846258998 -0.01999870926578046 -0.03998348171704084 -0.007011237124668139 
-0.1723792981955702 -0.662227744950006 -0.4040588000546506 0.473138049850687 1.055496319238285 
-0.06035762827947871 1.352045722283608 -0.133703911426895 -0.4643215739232534 -1.485846105529736 
0.9466969002969136 0.2721735382811135 0.510246522058981 -0.4927399222216093 -1.154661523328737 
1.070924036858425 0.1987867594146877 -0.6192150434205714 -0.2807337900924249 -0.4119633645541235 
-0.3228430649547979 0.2306603046982968 0.02189459768670225 0.1102491964729495 -0.2636061612236269 
0.6999786922025275 -0.2805323809873447 -0.2314120386252568 -0.3246130095988723 -0.06814641044315894 
0.07952552383667352 -0.07287358050697668 -0.1662861847580182 -0.03855355774236716 -0.01128677119111591 
-0.004761992326095737 -0.05979755294374298 0.08498302763279876 -0.5716154717523785 0.009997803881371685 
0.3289534975525786 -0.1025435813516293 -0.2180502439993682 -0.2042446354042424 -0.2950838370942562 
0 0 0 0 0 
1.093034611825562 -0.1925429791703044 -0.2044317209452455 -0.2677231250358747 -0.3336269988564401 
-0.04881813699151134 -0.2355699735857721 -0.3480733101494708 -0.04953239762909609 0.5349196965969644 
1.208343907670081 -0.09732852328131664 -0.2294878940213424 -0.9433698544725776 0.01081423332637203 
0 0 0 0 0 
0.09927608408528887 0.6970379878369004 -0.2260373612876922 -1.178612623227423 0.2566211613425908 
-0.4035965060985476 -0.417817932583134 0.9873072113093231 -0.1748527788278247 -0.08531757906540371 
1.361777865712812 -0.4986963073198881 -0.4385173916437973 -0.3506834960066756 -0.1480261735958768 
0.473956787607693 -0.01958773927728744 -0.08061701087986421 -0.1710760177282954 -0.2470815454574293 
0.00183941644458965 -0.8782121323686701 -1.02361756676428 0.0744548353714418 1.176699200637024 
1.247387211594691 -0.2422920027151108 -0.31885033958153 -0.4904497808777656 -0.4590310708588807 
0 0 0 0 0 
-0.1281147511834873 -0.1962835775243361 0.2783501276977248 -0.2116679899217767 0.5377897724306124 
0.5340657250285652 -0.06275254889010086 -0.1058586583626168 -0.2741513532452156 -0.08455693259501978 
-0.482922457526466 0.1843180340878099 -0.1335280961877225 0.8299887320213269 -0.5420045112793909 
-0.1044639238454614 -0.2099852656394678 -0.1197840552657151 0.4388824731855552 -0.1363532056638227 
-0.1176877035498334 -0.1111382928781722 -0.1088606349907899 0.4363170611494918 -0.1389502390656232 
0.5340657250285652 -0.06275254889010086 -0.1058586583626168 -0.2741513532452156 -0.08455693259501978 
-0.07931713649289324 1.144937736527977 -0.8743680377804592 -1.394018764746733 -0.03578856032131723 
0.3279966142428546 -0.07781060348438197 0.9478602051146021 -0.833110831689693 -0.787667340535522 
0.2735817161909156 -0.6966437421009535 1.483067171885683 -0.6744339020730985 -0.5456892311513437 
0.3912227675990525 0.2555645619122166 -0.3026193834882483 -0.09791411623769683 -0.1375084867781984 
0.3797576891988289 -0.0776504712001916 -0.005128093571625757 -0.3520024846029626 -0.01935877734806218 
0.08595483532649234 -0.1168424147727653 -0.4052666599061945 0.2736288831391601 -0.03419268805983421 
-0.4749524983675905 0.3798591589737472 -0.1777236645808096 -0.7521115931489358 0.2887523272194297 
-0.1615157717080948 1.015402048295621 -0.3727822690488343 -1.176856088820507 0.3752993359941537 
-0.7983304027956 0.01891709753450443 -0.5408182305936122 -0.6295560311635415 1.583691190168153 
0 0 0 0 0 
0.1406563951376715 -0.1057932640020503 -0.02946338559515678 -0.1124569588490918 -0.09297519595674464 
-0.05833804099427779 0.6177936878513728 -0.363484213433878 -0.0150208548636525 -0.3285158190470766 
-1.049995404461559 -0.3632221134813607 0.2136869220277358 0.1833668892571689 0.6268800453986603 
0.9073469089960016 -0.06930777129801127 0.1975838582993797 -0.05025922881453893 -1.03952745589114 
-0.3071361200562925 0.654337960225489 -0.2544271725099841 -0.2780798206815709 0.0478908936912029 
0.8205304202108983 -0.1937798372782725 -0.03745668431206704 -0.06883600986637457 -0.2089040873526069 
0.8205304202108983 -0.1937798372782725 -0.03745668431206704 -0.06883600986637457 -0.2089040873526069 
-0.4443334354233034 -0.1173050940064839 -0.4319872074539598 -0.1240121766649843 1.006522113909541 
-0.3147186702795737 -0.09057899388202831 0.3251060257049965 -0.1349528576859884 0.07889974157286818 
-0.7193243869761218 0.3467834912066406 0.06324273183087549 -0.9573302185760126 0.5863849742201659 
1.436983550516335 -0.1538081837470229 -0.1219690476076036 -1.412447627876223 -0.201985869440388 
1.05018244468694 0.1253992956638558 -0.4753973843407709 -0.4282178487380746 -0.7336317759542845 
0.8092510507318135 -0.4626052306486796 0.377049502283414 -0.4102479746748919 -0.5837711011435065 
0.06498013326295068 -0.09005511676264566 0.2267042346776217 -0.1141596560942044 0.2796723408270039 
-0.1104784687606685 -0.5134239036887414 0.5878264856998511 -0.740917345795474 0.8663703695026912 
-0.306289122826616 1.058613113127104 -0.7576614289072484 -0.2016554884418914 0.06768868923474086 
1.065416522199043 -0.4208254373447974 -0.5594259159845001 -0.82307460026052 0.6213825716395216 
0.7364077625711108 -1.183827421591563 -0.5955465800734312 0.5008622262183214 -0.4845784193320088 
2.763555903915231 -1.263473510320532 -1.076848444051382 -1.32303418252501 -1.666654282615535 
0.1350111729295589 -0.6033198469875426 0.1301995188682893 -0.2819171384405765 0.906241339119186 
0.191196918193276 -0.05432539676368203 -0.005373260556455478 -0.149478052414736 -0.03847276975569744 
0.4305261890719441 -0.3714300712279263 2.242666100729465 -1.344982421924656 -1.677264936849189 
-0.1538637196596299 -0.1155920768881121 -0.8420005054591222 -0.3844605329028809 0.8375950608992788 
0.1941524818162141 0.5192095268148865 0.05068870767057158 -0.6514268909439828 -0.2813636547696902 
-0.1111609443350986 0.35020054460901 0.1164271443681202 -0.165287237916469 -0.1664688358807676 
1.321624436055458 -0.5287638210929189 -0.1049212243763532 -0.1017035746582304 -0.5093332816651831 
0 0 0 0 0 
0.5809112345779859 0.05756505868293002 -0.8267382668838035 -0.1407031298693136 -0.400709834262598 
0.4932309692139208 -0.01018236828669746 -0.01120167585673339 -0.49616217780535 -0.04627020173429128 
1.01590486350809 -0.4609328769450576 0.01740586208070064 -0.5195517729329528 -0.2652319429870038 
1.331053446003182 -0.4164435740255466 0.2280615650412547 -0.6895560576671339 -0.4665221067226009 
-1.044456808727781 0.1796857059029996 -0.697098378821897 0.2708362387517062 0.6059292475349344 
0.2891873921551187 -0.5630554443131385 1.072910246136859 -0.5048583768692252 -0.264178034668973 
0.1691431511599347 -0.8769668836450092 -0.4606339405201131 -0.009201193671699403 1.011969615342634 
0 0 0 0 0 
-0.004346200312730707 -0.415784264888667 -0.01841465848043249 1.273070260761975 -0.6121307585882526 
0.5325294670703667 -0.05778757512606368 -0.1346999542529331 -0.0897721556948414 -0.1515896578080936 
0.6732993608182188 -0.1358344978247184 -0.1098172241251896 -0.2362139435160816 -0.1359374420139583 
-0.2305678517795762 0.4327309179253024 -0.3427532587220131 0.129674710323385 -0.1886197171057325 
0.5527379137469152 -0.164525985053517 -0.06314509787278501 -0.2147639232843935 -0.09859875861979488 
-0.006533403694087225 -0.2963347329575615 0.4916997761982341 -0.5285871224870199 0.01710675797482047 
0.9137562898933939 -0.240698870022814 -0.4716757903652163 0.3822734066270584 -0.817168939777741 
0.8505752441000715 -0.1053438274433955 -0.07719080292858342 -0.6350600518398719 -0.1485785743953089 
0.01500595514363531 -0.2258932000449512 1.063629240989493 -0.7066021086969388 0.04589690699753258 
0.601483984281907 -0.1014569235920499 -0.09746625480118147 -0.3093194227013508 -0.0927566843463597 
0.689260494565235 -0.2437360245026284 -0.05680135638914501 -0.3713670505957181 -0.05818096617834805 
0.1307505924009855 -0.3032440766086097 0.2535601093174064 -0.08907763284045778 -0.1836078929021125 
0.365610311801754 -0.9319812750041184 -0.2575327707815641 0.3014614853429209 -0.1138073938435294 
1.447334825217805 0.4358748216395391 0.03193798903693051 -1.056054330819545 -0.8116821324945687 
-0.09183277482802032 0.1737907660305641 -0.6519773471334678 0.24120657019386 0.07803434380145981 
1.137513132317747 0.1007236037241373 -0.1002249445227506 -0.2942727587808755 -0.7404147364799634 
-0.3368032926460933 -0.0643470138979048 -0.3004319742154745 -0.3134035736838185 0.5515711217459648 
0.0105472681717244 -0.09853494773748071 0.439369337233718 0.2236553325439321 -0.4527249301243811 
-0.6594367636680828 0.09380376154622279 -0.4264603779383901 0.7164048640414948 -0.03081246024247666 
-0.2551607061106738 0.158583852292594 -0.3941921155346978 -0.3113973532944544 0.4486828129977899 
1.118112752331151 0.3320228253680632 -0.5907717871110815 -0.6776107923921745 -0.2748979869264949 
0.4313533286675856 -0.1063226451072893 0.7909180201288079 -0.6876476667931595 -0.7923262244678918 
-0.1625394643307166 0.218706020918612 -0.454498454865551 0.5042691868610611 -0.1798512861692261 
0.7230183011829694 -0.1411307241521927 -0.07156052574229264 -0.4420295498386909 -0.1187648436788346 
-0.3710480378324167 -0.6705259901681762 -0.6093493535240943 0.8446488597590147 0.009632872653067202 
-0.008626907220315432 -0.5451920207189684 -0.07018717650960479 -0.150072676815797 0.4244638845376706 
0 0 0 0 0 
1.300212757952769 -0.4455881166805751 -0.283599234775633 -0.8685714415525718 -0.05972496513419421 
0.6322606972396959 -0.482856088427682 -0.4938678076752255 0.4120158441047992 -0.08436060315259908 
0.1674489198128291 -0.1169479035615168 0.2723431041098714 -0.06577659876541479 -0.3237590008691781 
0.2088633162947726 -0.09836019994247328 -0.01147784820953703 -0.05287206640946236 -0.2424026759554511 
0.5461422473426606 -0.2632008399321837 -0.4073517631130795 -0.2037233314583626 0.3876484343213398 
-0.05790369009964577 0.1504371923006783 -0.3678326060389948 -0.7687844207662523 0.7510095212488992 
-0.8593965952757857 0.862341229336016 -0.1077236464851846 -0.2963930444574024 -0.3495083688986913 
0.9323401472047916 -0.540442022268203 1.03941975940156 -1.405189973835814 -0.3441048631052345 
1.629747522706132 -0.8647872123286179 -0.6992870589558067 -0.4901305263296111 -0.5185345574640959 
0.2049399067524872 -0.06851677388620651 -0.09851555945275786 -0.05572044840873541 -0.06679743366427747 
0.1517667383401754 0.3616482359693155 -0.1337306759572484 0.03030238038920123 -0.4504628450925283 
0.1206935204610818 0.4923523378091276 0.1356562798428425 -0.4127301585444599 -0.3680679332982061 
0.06903697436268316 -0.3420183187429781 -0.411800755112767 0.7917585086180949 -0.4240581497847443 
0.3275260535076385 -0.0799976207418106 -0.6029075505443041 0.03400086390258103 0.04988270957135648 
-0.4665427678575214 -0.4146383436554473 1.307643339532202 0.09470954711093192 -0.7540222740820786 
-0.3750482859350606 -0.678276931658872 -0.364154446344981 1.061002040044403 -0.1487337099728899 
-0.3307934342871152 0.7293346036667092 0.4415970981589782 -0.7675675155460251 -0.4536218799043585 
-0.7208502821028258 -0.5240351392727299 -0.6210993373927954 -0.7284277661339589 1.452424924542587 
0.6668365657284492 -0.209779564452407 -0.2495547547920471 0.03356543000739916 -0.26681975038858 
-0.3185830721391917 -1.0695665876231 -0.03948347959000954 0.5660850061579384 0.1076194016847891 
0.5435032626808524 -0.01262906549813019 -0.03075318010179038 -0.3382459652204161 -0.107957407781887 
0.650761408362597 -0.3383323919058408 0.3598741282773183 0.2898600416778864 -0.6919266181789011 
-0.08471800250332559 -0.1887620916482053 -0.005060497100945595 0.04427638998423264 0.4525289567344214 
1.882002890960122 -0.5162095999388006 -0.1848214839780497 -0.6139486398528926 -0.7263178754160423 
0.5361868739069557 -0.1116773223112217 -0.1103056660820401 -0.1947176554569439 -0.1326361827432024 
1.91841644221421 -0.7696476239315537 -0.3317252274586501 -0.9436037912056195 -0.3044560204474648 
1.352560226359615 -1.120131358401275 0.08885348459055226 -0.2554363083592439 -0.4374301818249621 
0 0 0 0 0 
0 0 0 0 0 
-0.1526824480825943 -0.5185923253471857 -0.1451396232541997 -0.6623237451484174 1.069443555006979 
-0.007323453809089081 -0.01078183505333552 -0.04232903239013266 0.1573730314708474 -0.04111149683891127 
-0.1684290904849284 -0.09645332160756256 -0.1278043069226343 0.4431516642952772 -0.4416509840934483 
-0.9716353685601655 -0.7476901837478616 -0.573345206490386 1.644984131092366 -0.9747714628950297 
0.219263081649437 -0.0084317662348482 -0.0228958423456976 -0.09659501743570152 -0.02447176266747877 
0.6420766713146657 -0.08916041452389187 -0.04831878549431676 -0.3062563374560012 -0.1997923309799412 
0.6447951302665562 -0.08194590004950031 -0.04455465805469665 -0.2664856593411353 -0.23076562868974 
0.9928794506782421 -0.7917893357358758 0.4537139675416291 -0.7036662735491417 -0.3935118517815502 
0.1582689912395491 0.04899888894626647 -0.6376293057604369 0.2726776765916953 0.07891003527423837 
0.4865888640059338 -0.09381309827117047 -0.1402254137288255 -0.1044293149865193 -0.1201558076176676 
-0.1072186372614437 -0.06056403530607852 0.2762590790017668 -0.2897810433669208 0.0893960918949557 
-0.3447442399820561 0.9212557108580253 -0.5069083704879603 -1.082763611857384 0.3896158646019379 
0.09204338587424676 0.2359239253059194 -0.2130131933227387 0.1332589631883864 -0.07092920642275842 
0.4606689811385766 -0.01375069735671233 -0.0135325328144675 -0.5135556492785682 -0.04740496296345904 
1.623319705551468 -0.5773536301290316 -0.4680890150315104 -0.5483427074967273 -0.6684564892783661 
0.5164077443168513 0.04182363722785968 0.5162808486083964 0.007554741196516945 -1.117054741273747 
0.1610345837382936 -0.2949118523265354 0.1907690368218053 0.2934361590855272 0.07799056613634447 
-0.4512477170464037 0.1084227446647602 -0.08531511775275294 -0.3210846169658888 0.3144201352294139 
1.093995486422915 -0.6767220507227865 -0.1867867163050956 -0.01318375452241263 -0.1281342348996286 
1.093995486422915 -0.6767220507227865 -0.1867867163050956 -0.01318375452241263 -0.1281342348996286 
-0.1247839624137211 0.04861119666005135 -0.2791102764788167 -0.7474737917517708 0.3765889254983202 
0.2598870422615287 1.287479574481104 -0.7637661208019444 -0.1347867944067185 -0.3634915078776497 
-0.3729014386989788 1.042487573909125 -0.1929047407520998 -1.046025234710221 -0.09327804721777153 
-0.1910831180833906 -0.8171649924413276 -0.3638567872008665 0.6717570201012359 -0.3802459781205526 
-0.5632706010076171 -0.457310442464161 -1.177603649477079 0.9606208247698595 -0.2650651998626587 
0.6996723980668201 -0.2448074612983611 -0.2050207243037002 0.1015562316979611 -0.4438726437957848 
0.9622780709241522 -0.09844528154694983 -0.06673742111812046 -0.865338119107809 0.06445448163368982 
0.985319120689757 -0.05434923614351772 -0.05564995138855081 -0.7198361524106509 -0.1396761717799079 
0.06794753266669842 -0.6560711595133994 -0.2132951498482704 -0.2376832275709843 0.4535785638486086 
0.5326294496858505 -0.2424753707961541 -0.3363822187167536 0.1555804407512335 -0.4408846733178372 
0.5532071512662415 -0.9949657318120353 -0.6456458187259798 0.8745674335628637 -0.5355259594348704 
0.5953813996501199 -0.05261911579824186 -0.01860150998650081 -0.2755828938762206 -0.1289914584996694 
-0.3858334477504637 0.4486664295525712 -0.08335245917609869 0.2177421403443105 -0.1281722624933478 
-0.1493180243567036 -0.8776746977548381 0.08345867774001781 0.8217905767910683 0.05940288183582262 
0.5000949012268394 -0.7608742872262083 0.07182188917884363 0.4785876420697124 -0.8273865454537978 
0.4885148822755788 0.05088502409589113 0.01016549489598296 -0.7097757265210256 0.3644552083880302 
0.05701871503321551 0.1687626084308688 0.225898517706839 -0.1415865151846654 -0.3114935632713758 
0.4335413890107563 -0.1856326831214585 -0.3619226826240981 0.1924749326460071 -0.1812729940975 
0.04288726597605742 0.8499920330186622 -0.661361325553956 -0.04175297937366925 -0.3125033711732335 
0.04164585217940724 0.2750306694318886 -0.4702988969830451 -0.4227462077202294 0.376971817892258 
0.9402192981856343 -0.1225761315220933 -0.1023446126678434 -0.5513020208993116 -0.1535441092324292 
0.7192585971104067 0.1204433062319493 -0.7070998615732552 -0.8061960326256901 0.1528541954228654 
0.2759192541897353 -0.293159782289786 -0.1237749472047567 -0.02723828113548211 -0.07579889194959791 
0 0 0 0 0 
0 0 0 0 0 
0.645740318357676 -0.07951512530304453 -0.08218143760184442 -0.1506954359902603 -0.1559733499584887 
-0.61080983044037 0.3168869272866301 -0.1772820735319424 -0.5048864866486193 0.5444726708295131 
0.6125718237047146 0.1730124824709233 -0.306008830721074 -0.7701711322056959 0.3235245826119578 
0.5711123524849779 -0.03050546313268741 -0.0052621662160154 -0.1141493592662917 -0.4237118964947626 
-0.6286934513935177 -0.03171847879023978 -0.7678204496709443 -0.5863021835583139 1.018137672931661 
0.953192141720792 0.2471315447670185 -0.7256923851482466 -0.460752972849033 -0.5486072653073406 
-0.2854058815008562 -0.9208826463337906 -1.146707945417236 0.6131264702634713 0.6382301683975049 
1.856295197080471 -0.4216276606779683 -0.06065627956784377 -0.5465909540428967 -0.9395402466973357 
-0.09427095636442412 -0.7034896815099574 0.409164449877268 0.7521198627385277 -0.4848846954175568 
-0.3309873393984379 -0.4478480350404699 -0.133045037905361 0.01042492971659301 0.5387715687686129 
2.124459896026416 -0.2364920579494005 -1.494377672049962 -1.117628755690164 -0.3803619670122303 
0.7733149933081509 -0.06886503198280568 0.4278727941431673 -0.3358844090680612 -0.6176115499076272 
-0.1402881449162753 -0.5034491393088718 0.2908027323761975 0.1023376888835708 0.1795294452907621 
-0.6534024423349358 -0.9987086482287759 -1.289584380623658 1.511081537162211 -0.5014815943162755 
-0.09505576499145019 -0.1253255491717192 0.3257125090831358 -0.002760969988280196 -0.5054504609384292 
0 0 0 0 0 
0.6006827631054565 -0.1279256439435946 -0.08442834056690264 -0.2826672965882986 -0.07625618079695931 
-0.9726066838118647 0.5206633250633207 0.3849993050560586 0.06487791361900379 -0.2594524656129046 
0.8999887216096993 -0.4800160958609367 -0.2234155739157216 -0.64640349133852 0.2800994944209343 
-0.4165248318256499 0.7517254217895675 -0.1253939345748508 -0.1848069904569763 -0.5436349445058914 
0.6235338103722591 -0.763804321011939 -0.06340442098219587 -0.06534772027998272 0.2236701778468278 
0.1511057852877717 -0.04874084722632028 -0.8630748473921016 0.6276763930033638 -0.2945620258638066 
0.9193956699685425 -1.0433636407753 -0.7517861580572748 0.1345731390880417 0.1645468962036796 
0.255899370579578 -0.3959220003874513 -0.2211776834710057 0.5554011974998515 -0.1108038851182748 
1.805680391945866 -1.585253670788216 0.9970880590102627 -2.471773973539687 -1.157921614806851 
-0.1617492087303459 -0.991903782495939 0.293594004566967 0.376984039267479 0.2439878785423921 
-0.1172212984391574 -0.1510515547857492 -0.1408935015560193 -0.03939190243334463 0.3534465598129723 
-0.1015141688601143 -0.5306356048528862 1.531935162108494 -0.5277002096731301 -0.8683816221741069 
-0.09435955160472978 -0.04272461289290086 0.4408700291092061 -0.2029498051845473 -0.157420172736562 
-0.08675552849858045 0.418025816923562 -0.1204150249785531 -0.455457787204508 -0.07006163302358225 
-0.3534990326728135 -0.4489249636545826 0.1976953159715751 0.2030684409728635 0.06449920169480958 
0.3095999102731715 -0.1760625074396223 -0.2933558545489905 -0.4924445724843673 0.3641072098963428 
0.1218436468984052 0.1932006568163697 0.3878814659016274 -0.0008298493118261488 -0.4968201830576333 
0.1231911180287859 -0.03877043002925742 -0.03729692244619111 -0.04956252171769247 -0.03991429243847554 
1.119908507636205 -0.5829654738262738 -0.7443241590204763 -1.048489944993191 0.5451789543378005 
0.2624446144638279 -0.05842268687504894 -0.04810758505922444 -0.0349176190385126 -0.1292496542661656 
0.2228645192279972 0.4158168817371676 -0.590367788744685 -0.1667519676224143 -0.04717141340550042 
0.5257160487042423 -0.002108646662619364 -0.04395611312796967 -0.3300005426124235 -0.2564865757351905 
0.2624446144638279 -0.05842268687504894 -0.04810758505922444 -0.0349176190385126 -0.1292496542661656 
0.2624446144638279 -0.05842268687504894 -0.04810758505922444 -0.0349176190385126 -0.1292496542661656 
0.2624446144638279 -0.05842268687504894 -0.04810758505922444 -0.0349176190385126 -0.1292496542661656 
0.1071825455227646 -0.6422974952945966 -0.1472759141933742 -0.1317738659622713 0.690637826773981 
0.2624446144638279 -0.05842268687504894 -0.04810758505922444 -0.0349176190385126 -0.1292496542661656 
0.2624446144638279 -0.05842268687504894 -0.04810758505922444 -0.0349176190385126 -0.1292496542661656 
0 0 0 0 0 
0.3374443921863788 0.1497111850449341 0.1294905073142458 -0.5091723790244008 -0.6195396881397697 
1.249559653210291 0.2381690134762079 -0.8339268350369297 -0.314861046633404 -1.034024448429798 
0.5035850609235125 0.4448029570146317 -0.5024094607857801 -1.271930520895854 -0.2576491039257717 
0.3647838937441717 -0.1805261704381949 -0.08063953186598574 -0.02924364369418712 -0.08477892368570369 
0.5846509235670945 0.04739335282356765 -0.6749121297551288 0.1416403004697616 -0.2313854984211588 
-0.2273578526383575 0.4499669545550603 -0.1487450023879786 -1.216090377395388 0.6248241291302076 
0.3647838937441717 -0.1805261704381949 -0.08063953186598574 -0.02924364369418712 -0.08477892368570369 
1.264839388494692 0.159969655180766 0.1543711992701426 -0.2468270247606862 -1.285029076025046 
0.05894728809512862 0.3182522883539007 -0.264376779130085 -0.1059589316253156 -0.07206716291683007 
0.6061037830566945 -0.1028910728862788 -0.1833511892670647 -0.1042146377777933 -0.2260493797793129 
-0.2084059275295496 -0.5959836591079646 -0.6787695138641145 -0.2752185755235074 1.225114123515512 
-0.1905633905154902 0.3291478968982507 0.2088950980364982 0.06324562309478056 -0.342507925543363 
1.239550295771285 -0.1072380588500948 -0.07850387555372002 -1.064526518248834 0.1704260648933502 
-0.4621267958860845 -0.615858538568219 -0.2150113986013655 1.52548626431669 -0.9961049044278799 
0.7558815943912709 -0.02407603512159292 -0.1546870199935043 -0.3099875536476002 -0.2614277939624671 
0.5169979279212241 -0.03049374392802221 -0.186060026146159 -0.1378913853349099 -0.0333160974237682 
-0.3056396529072736 0.5314060653499642 -0.300608637777238 -0.4494331968859057 0.237720890249166 
0.05386045664058296 -0.4434315893654164 1.31307587183462 -0.5665989790906065 -0.5196406836980622 
0.5169979279212241 -0.03049374392802221 -0.186060026146159 -0.1378913853349099 -0.0333160974237682 
0.5570053380960107 0.1528075530560523 -0.4208627007075967 -0.1681572352704076 -0.002408112365009811 
0.2933920679191001 -0.1918040619044498 -0.2333440395666567 -0.182452412694356 0.3334296466257941 
0 0 0 0 0 
-0.03094047033340451 -0.1141738304036893 -0.3390730581161233 1.059899870443154 -0.9127734671497936 
-0.08390421052997496 0.5573876064627383 0.6033854027347647 -0.5191817549767084 0.02442608489695593 
0.3653648774010411 -0.4606037207322799 0.3708866412982307 -0.8611252014295103 0.05396370142691824 
-0.1257110367303747 -0.7276990158590363 -0.09900140822298409 0.813443447825589 0.1172269109622162 
0.01980153526397503 -0.1896056748363624 0.2610777807760616 0.07912654991483095 -0.4074971830869209 
0.2207371655453569 -0.1672573354240522 -0.2082561018179139 0.7555491490174474 -0.3041820383725077 
-0.219778271251615 -0.6364818620962543 -0.2994654428312943 -0.01636806765604776 1.113922116855756 
0.3349455292823879 -0.02888167771530946 -0.1356934657548658 -0.05093057056618439 -0.08008450778040885 
0.3190588786257745 -0.3685162780477951 -0.2574528277856275 -0.06149766138182846 0.3717908852195005 
0.7667200190163556 -0.2599652494683496 -0.2083041684423544 -0.2515816732834785 -0.05986987737195451 
0.5771858631655475 -0.1176781796495457 -0.1239334013462119 -0.2284692276905153 -0.07231644033087319 
-0.5177689006875669 -0.1225643636470936 1.163681263917398 -0.9145273938257301 -0.1081911543041232 
-0.1089504175272642 -0.3870308867745533 0.8589378928454017 -0.302111600020806 -0.1210683709716328 
0.4532295096610592 -0.2774799748254267 -0.313903696344749 -0.02393096749871708 0.1071219691134339 
-0.3777224059983797 0.1420445779723991 -0.05577258956986998 0.4126157324962787 -0.1640737459605849 
1.017015230323191 -0.6739436571696675 0.3871216229394023 -1.230906139327907 -0.1818102044610546 
-0.2262300791936334 0.1222101894781743 0.2198941410394485 -0.5558533717242765 0.2224684748262407 
0.4831813952501243 0.2931797355849035 0.1085237735943452 -0.2185701396571013 -0.6570314184189076 
-0.2535363519226829 -1.115689328516106 0.05322981249540625 -0.2626834079707168 0.902992807551336 
0.2215988812396901 -0.2470167473920922 0.05242597294059691 -0.0556052550465318 -0.04499610836909411 
-0.4071420204588077 -0.2302260639074186 -0.1725595752664772 -0.8283264082265405 0.9187249468821589 
0.533885331642751 -0.1827615857291996 -0.1139485333320756 -0.3719086695103752 0.2826917422541265 
0.1938313603321938 0.9975583131867592 -0.6583221319189891 -0.9561936427770733 -0.6141478470438864 
0.456608082933163 0.12835407286156 -0.1456011089019564 0.2950952503272319 -0.4953912508897833 
0.9728928318237565 0.3696220570484933 -0.04531268949765065 -0.6829751733862374 -0.6147202946518405 
-0.9589321455875621 -0.4012003417548308 -0.3552433497395626 0.01580034223958799 0.8824456982257545 
-0.04712053850561472 0.3837693279316258 0.1709746808606122 -0.5379998175277488 0.2997123841169132 
0.04886724687906067 0.2885425224955637 -0.5699178962023675 -0.04365351272085846 0.3034965787129115 
1.708439696660423 -0.8173946654186122 -0.812806001054313 -0.2993781567221265 -0.7181428344935269 
0.1911537435051622 0.2398993720956433 -0.1144079329882078 -0.4732728922835971 0.1792385860456346 
0 0 0 0 0 
0.9108231832759639 0.05911846357479428 -0.1804255774921912 -1.063865573295937 -0.1424233596563598 
1.675995483718404 -0.1131577467805411 -0.008179690191034129 -1.409969248841278 -0.7704374165089292 
0.6242264545065169 -0.4952853861147544 -0.3463016109952398 -0.3530145754152908 0.6818256163478806 
-0.332530100778251 -0.2886749273437913 -0.1839103493129312 0.07862595334467248 0.5535573063712215 
0.08190495312605652 -0.4452187547175315 0.1218574802515744 -0.2258573613685216 0.3113820954205591 
0 0 0 0 0 
-0.1195487616033614 0.2428797033330186 0.2474695000602276 -0.4765648870771919 -0.2665806744201085 
0.8692206798663865 0.005264420435887067 0.0611961486547976 -0.2777624842475088 -1.087312391212505 
0.5032790701651035 0.04023643697395302 -0.1520799950928846 0.09044715887745566 -0.2767450669820076 
0.4425901938061663 -0.20755285620901 -0.1804733876581119 -0.1663612483580942 -0.2058080712827625 
0.4097216894393361 -0.6428539128662222 -0.429056286645336 -0.6840598846763115 0.5025529461567311 
-0.3929129210227298 0.03343948753787008 0.7079453453015929 -0.3942932679253511 -0.2993185504190284 
-0.4430674272751683 -0.451090012502109 -0.2152353380764802 0.530676970235854 0.4932004638095564 
-0.498401825576807 1.88103819417748 -0.7484643678807399 0.1276208935887992 -1.243905757978639 
0.3264379907918885 0.08529307889299249 -0.4095595585051938 0.2204835979639718 -0.1295415812406657 
0.590304626082081 -0.158333877331463 -0.05245482284438507 -0.0250728464386463 -0.1537535517679209 
0.2330694968888238 -0.2120850482949731 0.2324067332094436 -0.12577249149058 -0.1324551945639407 
0.4794231439658397 1.131877111149054 -1.160351626240545 -0.5415154703896835 -0.9058188447693596 
0.4527230771872801 -0.8871883070149721 -0.5362930466936162 0.5939033034053153 -0.3236584722271879 
-0.4049000516081483 -0.8583466437116422 2.526689667696733 -1.108719275273863 -1.2532031547141 
0.477316949517452 -0.03599035183096226 -0.1623338567793023 -0.008145107240829303 -0.1043856969890408 
0.2840411797453901 0.143792786405668 -0.2022436033157646 -0.04293138727430715 -0.1370670300644706 
0.477316949517452 -0.03599035183096226 -0.1623338567793023 -0.008145107240829303 -0.1043856969890408 
0.1880950893116254 -0.380485270727115 1.001406144413677 -0.3476641323390747 -0.1948217719085601 
-0.2126177543950812 1.519511230172609 -0.8630607621742662 -0.6204459497006394 -0.4031385939994609 
0.1131677659536234 0.05718971214896396 0.2682998058383491 0.02725509227026576 -0.6614564452283003 
0.5909784924392166 -0.02428662201320016 -0.01411173930586291 -0.725392814504031 -0.08783709565232993 
-0.1896938607806415 -0.08111625905741318 -0.4296393755785444 0.2145910810241642 0.1998769817742745 
0.5909784924392166 -0.02428662201320016 -0.01411173930586291 -0.725392814504031 -0.08783709565232993 
-0.153610955227619 -0.03366795614529328 -0.09543914388184292 0.1115119701774976 0.2467541561288023 
0.689440412419456 -0.5915453224362026 -0.2646565140990556 0.006219759069680961 0.1730260754858935 
0.1692399850941513 -0.3489556291353363 -0.09353124762238246 -0.1650952790370007 0.1637509753672756 
0.5740359867384851 -0.05114803339561316 -0.1118622859019179 -0.235260310004612 -0.1411346524330226 
0.5740359867384851 -0.05114803339561316 -0.1118622859019179 -0.235260310004612 -0.1411346524330226 
0.7036680685645876 -0.1364132209721182 0.6957219217963526 -0.5124807635909242 -1.01826642153035 
0.525101426145226 -0.7712679494977122 -0.5053646588886936 0.5248591828659936 0.2087371357182813 
0.4911400607259637 0.1321122060912791 -0.3742020260491021 0.1028873588939774 -0.03067104618067141 
-0.9504791971071069 0.9443136580503853 -1.235319574600368 -0.05398488323407845 -0.1901921325973697 
0.1226914230475318 0.187370075967472 -0.007655798649165262 -0.5180825482520665 0.09795365635344613 
0.9800871088229957 -1.351193947008977 -0.2715367224869168 -0.1680740919538234 0.8509798019172641 
0.6563986421374106 -0.3880079401826271 -0.05806665770722757 0.4219894852016973 -0.3943836542600823 
0.5133831551129372 -0.0636257539737361 -0.03833033622070363 -0.340247599175804 -0.03482125314377427 
1.525989617548331 -0.8505685436853917 -0.9556069909969876 0.2493829788373623 -0.6151795263960499 
-0.03862203315803631 0.1597342442553396 -0.1643366934784904 0.1476514389971301 -0.1409421386657045 
0.6468292295317462 -0.2229471439745835 -0.045600081418317 -0.1763930999832099 -0.1421226060591622 
0.0947529260441607 0.214301211408593 -0.05059281901187536 -0.1991829343323312 -0.1934935881731746 
-0.5554080049243186 -0.3465741851685172 -0.1711481965199523 0.0291500233169274 1.099338258988956 
0.6237659465901133 -0.3770808048521714 -0.4166755581658803 -0.4239834835110012 0.3182350841187698 
-0.0836596249323398 -0.5245459441623465 0.5487347741825866 -1.655614177357909 0.9784945016815469 
0.03395199109616044 -0.365074916380934 0.1791245313786685 -0.4370809652498386 0.6434739251992276 
1.634802973525436 -0.2418191856799216 -0.1382799499038675 -0.777575623606413 -0.5831709566830752 
0.05670494725980904 0.5068579811996123 0.1270939231484063 -0.1577788922030138 -0.2045251231171266 
0.5453096581473489 -0.4354947573776368 -0.3013240288811679 0.5285001833232366 -0.05437510113533654 
0 0 0 0 0 
-0.2616934092504677 0.7260006415170184 -0.3519649211584254 -0.6435404013548103 0.2369864986551307 
0.3194069366026004 -0.145683054594672 -0.107186250881918 -0.1341906503111382 0.001940036590591524 
-0.2822343281511153 -0.1632394941599061 -0.2857133333616112 -0.3822531571953686 0.7044760526160744 
0.3726121529786869 -0.08147141287495434 -0.197256586035894 0.1489657564250974 -0.1602939641578839 
0.3804553836818904 -0.06594432985603607 -0.02854234044611157 -0.1293870687761032 -0.1152138268749622 
0.2431520107050096 -0.2744501515207449 0.8037289594116851 -0.6317621289238059 -0.123672971499586 
-0.3518465840721439 0.2077259517743011 0.3658161725827533 -0.6167148190523668 0.2216549320349628 
0 0 0 0 0 
0.6505518407832971 -0.02101255317464342 -0.2229921570804297 -0.2179986095672833 -0.1724197517648638 
0 0 0 0 0 
0.05796066666929217 -0.286489170789736 -0.05352931160941397 0.06939056235425058 0.1503618081398453 
0.5884902470971777 -0.4759925472538689 0.328468622136561 -0.0477572203442355 -0.4338130997177411 
-0.2560553950922735 0.9144184715326268 -0.8248565875441725 -1.801513458588232 0.4327353801462077 
2.004228369922467 -0.4408810241470958 0.1978778173930931 -1.419493716768764 -1.030821893914038 
-0.1616268708213345 0.1805582162199419 0.08814726716570966 -0.02340350747948257 -0.1523715056579568 
0.5291447362415331 -0.1480554556454182 -0.03683834667823861 -0.166398204799083 -0.2030938041189774 
0.8731054621206871 -0.1559738585236143 -0.05495853175794449 -0.580397201857102 -0.2461483251651069 
0.3331718814589569 -0.2926575507485851 0.4772337921603817 -0.5714049579208567 -0.02937485716720615 
0.2643101140187213 0.1007106014393265 -0.684437525743069 -0.6542792499323244 0.7487892501472582 
-0.01684740728336168 0.4250287290821969 -0.4727204642596269 0.4443213982345458 -0.7292505756142715 
-0.04062814071440132 -0.003944778099529002 -0.04396701588576075 -0.2147698946464487 0.3588396236194178 
0.3636418368568498 -0.03136047671100135 -0.2273832580512033 -0.041390624342026 -0.05673562561063368 
0.519924418958627 -0.1792599893112755 -0.14755339134119 -0.003587420921436288 -0.2302594064540306 
-0.2183792648246441 -0.1855437425239845 0.247627943903748 -0.643852385348751 0.4054539132734667 
0.5357430789199228 -0.5268200871507289 0.2737939396351875 -0.03805624347444453 -0.2019098852742952 
-0.02131030043663141 -0.2476702254819377 0.5563036643886458 -0.01465442509815414 -0.2628868171371991 
0.519924418958627 -0.1792599893112755 -0.14755339134119 -0.003587420921436288 -0.2302594064540306 
-0.4328895184033199 0.4457311263738415 -0.5031997191830595 -0.7588899958768403 0.5227644263220372 
0.1026722431110677 0.08472196225848465 0.1219302651823151 -0.6532733408738823 0.2163285880435529 
0.7393033506295353 -0.3550967825138527 -0.152917700624139 -0.1195393904287098 -0.2388842995208394 
0.9998579000507268 0.2920698029263185 -0.8538619264014548 -1.507185264118882 -0.1793794454892617 
-0.1570850075821156 0.6061844456769999 -0.07827010259009379 -2.433860169394165 0.3413011228637678 
0.1091691563830348 -0.2848517857057463 -0.01662113708462713 -0.004102502832573417 -0.1444590436482999 
-0.589726884662095 1.7569977960589 -0.4137370225341602 -1.153920188585239 -1.072255560453024 
0.6134087214932328 -0.4648689736674769 -0.2142743555292803 -0.01703348072912561 -0.3870525623688411 
0.2677214456437365 -0.59577286652558 0.05086095794939832 -0.1804142746544772 0.3944200289013915 
-0.1191088882615965 -0.384342312671813 0.875500827985522 -0.2798298069811174 -0.260089330572939 
0.8379542369721438 0.1119954110120924 -0.13217363553549 -0.6015132275431945 -0.1789545106974433 
0.1210243497067705 -0.4590392405092226 0.249161326304956 -0.4260926312017028 -0.064859309898548 
-0.1159322593087778 0.04003406847426654 -0.2333181355685411 0.7263555928538463 -0.3690132826939994 
0 0 0 0 0 
0.5823661449501941 -0.2984715711196051 -0.2267644661403479 -0.1678424851281947 -0.08737438102691415 
0.2759192541897353 -0.293159782289786 -0.1237749472047567 -0.02723828113548211 -0.07579889194959791 
1.368158037848505 0.2173462549824512 -0.2691116139065135 -1.19706196840268 -0.8259142492021634 
0.1452797991929428 -0.1129167895204063 -0.08337588893814303 -0.02020885808282004 -0.04950993338782354 
0.8082183227766964 -0.05567284043326105 0.1219956691063047 -0.3298300937946966 -0.3810160384830716 
-0.2359412562948676 0.4991607361668994 0.415898288278956 -1.514925561979167 0.3529419853872948 
0 0 0 0 0 
-0.4290954462168878 0.1937796326998202 -0.4978906397521898 -0.01378806909357828 0.3362226627927712 
0.3645514382280354 0.5273420067840461 0.6077301319586994 -0.5571094570852194 -0.5078463340499269 
0.303208283070746 -0.07739621852008101 -0.05798393080973881 -0.08054780738233698 -0.03407064236550317 
-0.7394764744985289 -0.5143892669235568 2.179434637152193 -0.1923102205573503 -1.490581547325159 
0.6198459635263402 1.097651709078743 -0.8078811708253498 -0.9769614540770211 -0.7454287860517804 
-0.2647843227533846 0.5431711916618742 -0.02458808187078955 0.3279646845721131 -0.7603756823851825 
-0.1698510487887009 -0.07896352994676713 -0.06198632146045241 -0.02192759772169458 -0.03230816646082149 
0.2184035404390803 0.5631721989528325 -0.4438330988937847 0.3805501404299289 -0.2926945345447119 
0.8273543894787638 -0.1384476441899608 -0.01261600529029479 -0.4362202223014855 -0.1909656004211165 
-0.1796716931404505 -0.05558111183397118 0.2339135498008347 -0.296265055261893 0.3498914314095957 
0.8273543894787638 -0.1384476441899608 -0.01261600529029479 -0.4362202223014855 -0.1909656004211165 
0 0 0 0 0 
0.3437954664521625 0.4174527731659018 -0.01496989793409626 -0.2845718353079623 -0.4068483003200832 
0.9056387466033666 -0.075446345537887 -0.1299364409741703 -0.2227032298892232 -0.6118388926552291 
0.1428508646498205 -0.2209845290203338 -0.009358765061892774 -0.01421307902684623 -0.005795271691673535 
-0.5491222423301154 1.850260793268665 -0.4109825649808115 -0.609946343342747 -1.05937782509981 
0.5920712158358586 0.5650017607873805 -0.354447411631036 -0.170545801965748 -0.3767760329259187 
-0.2527320949918976 -0.5157993256864815 0.3064949554955085 -0.4140962384225685 0.726275369758028 
0 0 0 0 0 
-0.5145259341940065 -0.1084923782623964 -0.6086515576656392 0.885720359345913 0.006198586537696005 
0 0 0 0 0 
0.5454916995098389 0.1081131754611285 -0.4765673741495071 -0.07844643334302795 -0.2710877632265149 
0.7736712863166304 -0.05566446171695615 -0.1649839722709809 -0.04536959523693412 -0.4403977974706924 
-0.5095274582852078 -0.2653835097684182 0.499048040579016 -0.4273409379151115 0.4283029696810316 
-0.08691473308930633 -0.5159226886498621 1.662868952535005 -0.9406852533547486 -0.6417042091789449 
0.6577162277928802 -0.3271879836039513 0.02951096919030635 -0.1273474481011769 -0.09226941741200984 
0.7397291002619212 -0.2538350684251324 -0.3164663115199168 0.05740213781188461 -0.2079926345424324 
0.09403614379760346 -0.1274362573551487 -0.2552708171301566 -0.1513089177468329 -0.143039791674189 
-0.228665779313717 -0.4282828436841587 -0.07492952302191945 0.364954342971939 0.3926208503298418 
0.179351643346607 -0.0783257137884843 -0.115248031635019 -0.1381317998710054 0.545580336662839 
-0.6058083139218604 -0.3838854072451436 0.03499596509858587 -0.07202251234993698 0.6036877469048416 
-0.2890827834581607 0.3853862157009598 -0.01704987085630146 -0.3524659064964708 0.2012188151474493 
0.1197352849574921 -0.02571399068554787 -0.009570460302726444 -0.2720244322742688 0.3238341131030221 
-0.1026920811087911 0.5430419311498836 -0.08429624535463909 -0.05427654370838697 -0.1158317389445813 
0.7330225572827126 -0.1477859017367656 -0.1781598820473582 -0.4326271863170457 -0.3751313566435466 
1.577711756824711 -0.3338624139604907 -0.1849498112426271 -0.5558137545776951 -0.1431664871150653 
-0.2512162184059156 -0.1164251860301404 0.5958578042604049 -0.2910024417183269 -0.191869221271329 
0 0 0 0 0 
0 0 0 0 0 
0.4316367461072422 -0.07758672312164108 -0.008616758976947034 -0.09918130914789118 -0.1736310960518613 
1.399847417099158 -1.095000990816637 1.032217993284966 -1.818350025900212 0.07901110989832143 
0.5832864441615886 -0.07628351503911218 -0.08356768390316374 -0.3049369679925441 -0.1662687751110398 
0.6640378258689135 -0.5790471964727979 -0.1241788681990832 0.3717535321648175 -0.3643745555701715 
0.06491399330481493 0.2114661822726207 -0.8772832517137086 -0.2638093179891831 0.223767225509318 
-0.6334847092985402 -0.2209273722789102 -0.3663163143222065 -0.2283996644745306 1.019790601097838 
1.195180306620568 -0.3667607530970172 -0.3553523519621274 -0.7167496337625696 -0.1912906312415878 
-0.3434859827784262 0.14144449132667 -1.207626977024272 0.6275653681922582 -0.2475243302763669 
0.7072837757045446 -0.1502071812038275 -0.2147084456984277 0.3911054018390694 -1.129933009798842 
0.590871328986863 -0.1480618262546954 -0.123782418824162 -0.6421046012513916 -0.09447960946800903 
-0.483248985148437 -0.2864817559243805 -0.1574761303170146 -0.1970689629400972 0.5667244371021951 
0.3990751603530782 -0.4983229674128347 -0.6086482659738476 0.3399223656478437 -0.3993311044577362 
2.014721344443817 0.3011366289398005 -0.7341759034213874 -1.462420110440396 -0.9149685878480333 
0.2747785237382444 -0.01885925633182335 -0.005561421182695256 -0.5385172198988737 -0.03804230180175852 
0.1549210904878869 -0.006903120093369781 -0.004655736332493366 -0.2274676513346279 -0.0311048121733338 
0.2269883852484302 0.4055855028778762 -0.4283491218672965 -0.3005768398351448 -0.07859499872713462 
0.9324493758873371 -0.03071577770430602 -0.03181780855764788 -0.8009054825821115 -0.1004147806475507 
0.1914739837044905 -0.5227767329275593 -0.6398107262109642 0.6946307233746151 -0.3591517535084555 
0.2436973803469261 -0.02045067384244635 -0.04655431756325611 -0.3609746167521092 0.181093388193204 
1.362065381435938 -0.5622024786926398 0.1484046555076088 -0.6745959206134843 -1.074584095444699 
-0.9121052823038824 -0.1124242927380933 0.9902232979334139 -0.8448357559708526 0.5039462986095343 
0.4311402346561666 -0.05164773533862067 -0.3160839155331083 -0.03426258648705038 -0.01990043705795708 
0.4393556449659769 -0.1205316968018428 -0.1991900868912688 -0.03434070321763699 -0.02158547931589656 
0.2694992661913156 -0.1571233475053629 0.4291149771714559 -0.07252081334445069 -0.3934585996493547 
0.4390754500259356 0.2245299447671291 1.009804220186199 -0.9948911678869259 -1.209960297908159 
0.7846781901597866 -0.4230914849816135 -0.3709258886010346 -0.1125617682692609 0.3668358515231034 
-0.3225958840102233 0.08477466071828102 0.765240919443843 -0.4853838598609111 -0.2752645963490883 
0.2646360292991279 -0.4785132433178521 0.0334903721635796 0.296892816082241 -0.4084797618024394 
-0.6689461126964299 0.1443031514193811 0.0001643999377238369 -0.4403827049749507 0.3990789656466037 
0.9863295676129481 -0.2805194171497843 -0.1179353301533412 -1.112218978556492 0.3866423145778454 
-0.1853778396453714 -0.3725226626195874 -0.7526616131087893 0.823537491404247 0.2242976952813018 
0.06664744230528767 0.1139775950092 0.340807694084414 0.08940296543572786 -0.396733431693428 
1.216829847034042 0.1459145416368244 -0.122385139931032 -1.715646802939432 -0.1346575284191255 
0.3683602900359206 -0.04756960879261016 -0.05454568977159324 -0.2090154146921118 -0.04567652285853324 
0.7634795042719839 0.6505742386696944 -0.3840237192949126 -0.7053499941970126 -0.269833535063312 
0 0 0 0 0 
1.595991886575499 -0.755355890650067 -0.5754947857366519 -0.3016970756782324 -0.954597936891931 
-0.3476338966302011 0.4547802685646307 -0.3475058974784903 0.8346051456661336 -1.37969394093939 
0.8632085329081007 -0.3360700522900112 -0.4410300459395204 0.753201731581891 -0.7781577478988745 
-0.3230778686705826 1.173700102495536 0.05231735495892291 -0.9044075353439304 -0.8589323734515236 
0.07780648634228977 -0.01483575851471422 -0.6470098623895929 -0.02968079826998941 0.460876547278232 
1.792978067399439 0.2701773591741881 -0.9151793855862603 -1.313759240515396 -1.253808315185258 
2.164784714487377 -1.166186430452407 -1.083651741980984 -1.011810308427392 -0.02419713202975156 
0.2606116984434376 -0.09679637965986596 0.2508277576040803 -0.1982274010210393 -0.2557160425741709 
0.4179024828927829 -0.2848126178698563 -0.01640215680835639 -0.09033794488311053 -0.0580264305312446 
1.210712032980291 0.3391913293655053 -0.5922645833472787 -0.5972189005084706 -0.5722640207610755 
0 0 0 0 0 
0 0 0 0 0 
0 0 0 0 0 
0.2754880699205705 -0.3462019448282818 -0.02306916119658957 -0.2510456137088009 0.3456560523033733 
0.6138227284258478 0.1228973633229623 -0.05371242277140739 -0.3331739112310172 -0.466804558431915 
0.07834478986098155 -0.5366114217074792 0.556912304751961 0.4251029669645526 -0.5266366130250163 
-0.673115220878969 -0.5172364970235613 -0.03660562487494619 0.9444191419845094 0.1193260142567916 
0.4580831531494796 0.003044795555953793 -0.2329264447897088 -0.1611178558887796 -0.163490232560891 
0.6683757707294997 -0.2882870296512076 -0.5392184203765757 0.07341704638561222 -0.2954585483314299 
0.9505976296306341 0.4099049835488311 -0.4681204657208144 -0.3475842893976243 -0.9224533458333396 
-0.2949533360982883 0.5878781117036378 -0.1610796397485785 0.1241801210164042 -0.4964451832478302 
0.02416663071417202 0.1326976726872741 -0.0168209820882888 -0.3715395484065632 -0.1753610462957512 
0.6509316788353742 -0.5484477944243922 -0.6112570336282489 -0.4952821281834451 0.09496978770438486 
0.2792223860524218 -0.4437393470546304 -0.03590815849933396 0.97535056259166 -0.3968628772189386 
0.5857568607984202 -0.0177731557317809 -0.4316292243179397 -0.1115270900922807 0.00435631745702706 
-0.2253933617555871 0.2038461962776871 -0.3321660537235379 0.007861994447687036 0.1538147523023096 
0.7201461273268529 -0.1587834975882247 -0.2283770637724604 -0.2125742649647433 -0.1596593353430544 
0.5219238983749506 -0.1055154377232164 -0.1071269877032362 -0.1883315145973837 -0.1097367521260689 
0.4994640554086507 -0.04036049359879216 -0.02901400567530182 -0.1134719434494481 -0.2271544443274026 
0.4994640554086507 -0.04036049359879216 -0.02901400567530182 -0.1134719434494481 -0.2271544443274026 
-0.492755728733951 -0.5854036219345056 -0.3181659285031455 0.5492592036298513 -0.1657589219929421 
0.4994640554086507 -0.04036049359879216 -0.02901400567530182 -0.1134719434494481 -0.2271544443274026 
0.06917088317633376 -0.4287691233074592 0.05903813273225259 0.05418195845324364 0.0212059150664499 
0.4994640554086507 -0.04036049359879216 -0.02901400567530182 -0.1134719434494481 -0.2271544443274026 
0.355399551626647 -0.1476585947507193 -0.2736006616928239 0.03525563237758501 -0.1341615223364435 
-0.4739107624037667 -0.5386441543796154 -0.7494977918276229 -0.2729346381720688 1.031221169638136 
0.4994640554086507 -0.04036049359879216 -0.02901400567530182 -0.1134719434494481 -0.2271544443274026 
-0.2375307800994578 0.4705158986012485 -0.431344507416541 0.03193878664194269 -0.1224276475969928 
-0.07399263103516968 -0.09558453894641744 -0.03281387523806824 0.350734250546812 -0.161588395984907 
0.5134813104950231 -0.1130333347585988 -0.1176109066917601 -0.1863212118951336 -0.1905334016116458 
0.01935046244279778 -0.17723649748458 0.6778681458824449 -0.2323685714978687 -0.270891096770829 
1.574001669451794 -1.267327005559283 -0.05378061362974528 -0.05097368133441113 -0.6888360722231881 
0.125123159826606 -0.06981016383508176 -0.1964539449008286 0.5063931983896686 -0.4135583643715544 
-0.1227757496544111 -0.1702231101710072 0.1898446970517887 -0.3604244519496186 0.4227581249473958 
-0.3614350009638478 -0.5493725621067034 -0.005909827260640897 0.5888659321310844 -0.03622197825640416 
0.8864288100195933 0.0907653561640262 -0.3938870147140028 0.4706496543570807 -0.7925891862351352 
0.6943543579910089 -0.009172359899237622 -0.2881981578022058 -0.3899473719243816 -0.1668765995845756 
0.6943543579910089 -0.009172359899237622 -0.2881981578022058 -0.3899473719243816 -0.1668765995845756 
0.1692018297333176 -0.84750956624832 0.9288472427283497 -0.5193017662720977 0.4179005852679026 
-1.057067752175432 -1.067703316913917 0.185226790182165 0.4198186717665249 0.708493192352539 
-0.293261320600896 0.07836679074861991 0.1398881730047119 -0.5804871869859782 0.6564499436437715 
-0.2429633796970849 0.1304361914853985 0.2935602787567395 -0.2634814641787129 -0.03846254179444528 
