solver_type L2R_LR
nr_class 5
label 4 0 3 1 2
nr_feature 22467
bias -1
w
-0.8104214023965325 -0.1573508743687274 -0.2903794966524947 0.4470891946583122 0.1855632103707652 
-0.8539043644784849 -0.8081558734687178 -1.044744802186962 -0.02230722849352063 -0.5653178189982796 
0.7659264705553583 -0.6522434864726866 0.9489872573937367 -0.6047194229205669 0.2120435548232762 
-0.8539043644784849 -0.8081558734687178 -1.044744802186962 -0.02230722849352063 -0.5653178189982796 
-0.1865296173391621 -0.009059888573086127 0.3612614303887781 -0.1980731655104946 0.121072744832547 
0.1511639036352986 -0.009323882615472468 -0.2171859519633147 0.09567860583501421 -0.02153884962642616 
-0.4261445191604269 -0.01095057783788703 -0.7926545431265114 0.3127466475226906 0.7205607439683325 
-0.3875192780912443 0.3043540523588172 0.1215476751330498 -0.2283795039667557 0.004819271786856299 
0.2036801346449819 -0.1222663750995655 0.05798036263124644 -0.2385014651586736 0.07857615205425812 
0.007971845257117402 0.01625537194984 0.1434037686554837 -0.1459555974562403 0.01626521449156575 
-0.5896181883179256 0.8378203245962698 0.6006300350790373 -0.5089165023477118 -0.9007902386206237 
-0.07274870398007705 -0.02283384188943578 -0.3846128896681378 0.7423416770023705 -0.6578857759619537 
-0.6243592642787916 -0.6255709203147141 -1.389956008957369 -0.8320368972216319 -1.02496392241274 
0.8721463051489315 0.6988085000634907 1.306529486572056 -0.2063579475382636 0.7535199026765427 
0.2711363938461524 0.3919478925435613 -0.3288798339111842 0.2036465298944832 -0.7747875245345422 
0.3585827609360413 -0.3723401011125421 -0.4641798741650011 0.07999133276014644 -0.09575364856555833 
-0.4427995160377815 -0.6504991810469094 -0.6155401047263586 0.9821457137085082 0.2822197257339644 
0.1164819662915056 0.1413921738836634 0.7899890789708147 0.3709381176450207 -1.309421581403744 
-0.2238431414351501 -0.1587304039413752 -0.09982804882068752 0.1520374393484691 -0.0259946392275282 
0.2388589431424236 -0.1454749644756134 -0.9799352304268285 0.2072033682685246 -0.05021189202735029 
1.148567380418513 0.2785777353799446 -0.3385417426873423 -0.6702151137222824 -0.5966989286412353 
0.2918981658863318 -0.1520163972545392 0.776388919803468 -0.6503277529654976 -0.2019770884732398 
-0.1051081348306835 0.555158586733646 -0.2898540807331621 -0.2718044062418856 -0.1566642432300712 
0.5928959016737635 -0.2347905650609191 -0.05304010533396156 -0.409838316220168 -0.03265011533977305 
0.5944829633929531 -0.007065006307734908 0.4424105946318779 -0.645679043990094 -0.3085059310384629 
0.2644690257906894 0.02683838418188084 0.2048766399892085 0.290569185763735 0.07245475319981898 
-0.08647716819647927 0.1329579556769466 0.08440759983843527 -0.1518511182826255 -0.02162964546337304 
-0.03354151289816817 -0.2383077423587514 -0.0891858147815143 0.05817203243728797 0.1837263089518182 
0.68060690726582 -2.303465714111743 -1.32919389615555 0.5644535143198429 -0.4078709051483505 
-0.9542159440245309 -0.9423036169889477 1.060445175416541 0.7371454279795535 -0.6251124567929873 
0.254286683711303 -0.8335799441573355 0.1414925416628246 0.356741674890694 -0.1081711365888779 
0.09413737992138226 0.132983017945181 -0.2263505251982837 -0.3441593575842214 0.2082159625253052 
0.08881453534070878 -0.5924389373014487 0.4777941208487305 0.1346419267041366 -0.06595298607561496 
0.1354637609367966 -0.05900664489569313 -0.08293978229440854 0.2275597002335866 -0.08368952003388408 
0.0857781186143281 0.5570258496309408 -0.5433680288988236 0.2554816660049476 -0.472664260995719 
-0.5076782049250559 0.03000552547405552 -0.4896517223959969 0.3920417561671307 -0.111912753479694 
-0.0003735643542231038 1.007938705452584 0.3911286677880208 -0.5721239797524938 -0.718462837225067 
-0.1854664970704751 0.2120500413810674 -0.01014607417682351 -0.2808608928159731 0.1037226161504168 
0.3073998030337333 -0.5325114810789233 0.09732568748729634 -0.2279343215940275 0.3302349507229315 
-0.2856020390342475 0.1000682513334047 -0.02744394158625942 -0.2944153474185002 0.3438935385916033 
-0.6542241631127551 -0.08635374680005245 0.3253095641325599 -0.4782633221199653 0.4845248246005796 
-0.2010630182645976 0.05157392149182478 0.2171681342951453 -0.003305879086150675 -0.07551749907888748 
0.1885302817965785 -0.1471482729811081 -0.2325616078053683 -0.02444008013482046 -0.08136016557066685 
-0.5292743763145478 -0.02916969148661479 -0.009730086973490263 0.4892796520523423 0.02524133105087345 
0.5099659529165252 0.07200906043007023 0.2891520404860718 0.5004783488159601 -0.5771886768886024 
-0.1544109008101391 -0.08931268907028087 -0.1757527310706211 0.1003654390751042 0.09119327825875154 
0.1947614912217776 0.1874710781537531 -0.03388417292017456 -0.1896458349072039 -0.1222146096575028 
-0.01632815328120941 0.11397334473661 -0.2910523033936518 0.03170947660851643 0.06306292540189429 
0.7555468777954111 -0.3835924461843569 -0.1979615056315839 -0.1487434435606194 0.1228059619550156 
-0.2262404303570956 0.1380147956221162 0.06266690146190627 -0.3094766649939763 0.07152953486183879 
0.1930509539821676 -0.2821703233599272 0.01991120973279411 -0.01903447428047772 0.06907726118959988 
0.2315110874567405 -0.75263916679025 0.159566661298102 0.2880761483259365 0.2130244121286297 
0.1690778913238069 0.5696449023129563 0.1227573859394728 0.1636707747522917 -1.263310547473138 
-0.192569230272319 -0.007423135832615718 0.5143650666138857 -0.07413270508796375 -0.1893084530737416 
0.1686061676974016 0.3009064390445175 -0.05393990210512663 -0.1468306958027413 -0.2239627154063812 
-0.1300092387742432 -0.126390581814985 -0.002852392701392325 0.2069837877986806 -0.04072398536020589 
-0.04343081585433953 0.4540645101895573 0.2748190701261969 -0.8989113750187603 -0.1133106614521616 
0.02856249179755099 -0.005954701108624939 -0.6098324025554029 -0.569832362183223 0.6346880457980922 
0.7727843414308688 -0.144072283288182 -0.2292989340644987 -0.03412944288924714 -0.1328130253444928 
0.2897857920545442 0.009520619325036797 -0.2293135538762086 -0.1211025844203684 0.03423493051305979 
-0.1080038824485367 -0.05131870706782735 -0.06431485448461836 -0.5911155693302479 0.8146421571550153 
-0.1373024465840728 0.3095399886520572 -0.08061985284055168 -0.357084214015253 0.1147461068984465 
-0.1739210693436273 0.06189421181203014 -0.1749160433344767 0.0768673034298534 0.09779378813631291 
0.06427267628660353 0.09665384622874459 -0.09280528207537522 -0.1344275000550848 0.08952445284666814 
-5.537243292629696e-05 0.1896476507778263 0.08918703519624475 -0.6421468741481915 0.3150158697967377 
-0.2385490698896322 -0.04357237917077383 0.1341480500808622 0.3209788173234392 -0.3434875221497982 
0.201980002760643 -0.2805588579381194 0.1999995096122371 -0.3739093556725666 -0.1223989464181477 
0.1291977126545243 -0.0008986432412326588 0.2951490634877655 -0.2189419334853858 -0.1148054261963729 
0.2443455255016977 -0.0123797179226241 -0.07393913581574629 -0.2516507264823557 -0.0616952759175473 
-1.016687812565693 -0.5472168232602541 -0.03191537403831887 1.184667929951539 -0.2269337198250219 
-0.04269229372257335 -0.02510231564880531 -0.1219792593594888 0.1521358863363992 -0.01081101464929839 
0.270566768726529 -0.09801580997418832 0.0440351064973594 -0.6233881907624822 0.2610987907740243 
-0.2488415039721027 -0.1010506298837361 0.06484018541604866 0.0734025289959654 0.2144603172819686 
0.201939589718587 -0.230895484980149 -0.0214292189636809 0.2801104099500554 -0.1787430225001674 
-0.005286060355396506 0.006844533702180352 -0.07329918695346743 -0.07930905780410406 -0.0460158830045545 
-0.02583066861520769 -0.1129155903182915 0.2376270244318483 -0.1418116866868355 0.1389945952891805 
1.856437123274325 -1.350264349768229 -0.3131530152151282 0.01713590878229623 -0.5247400748051058 
0.451170421190385 0.03918792214792614 -0.06983363331612977 0.05536466450234188 -0.3147847504827537 
-0.4694211820953976 0.3235523257276882 -0.04285937840466011 -0.2229577314623351 -0.04197827025977714 
0.3835960440255939 -0.11943211733597 -0.09447660625062176 -0.2796826694009937 -0.07800956531389466 
1.902682118296383 -0.4563145972234152 -0.7205613858577684 -1.335228543711601 -0.8251962641896559 
-0.003710276993814862 0.1147221637144457 -0.02862348116477475 -0.04678297244988473 0.06797840823143717 
0.199261239050813 -0.5289235335683347 -0.3361464361162775 0.4585856509063004 0.5524417287747508 
0.02201170424934398 0.08372827471007244 -0.09921636222792117 -0.008024055732321879 -0.1588624646801931 
0.7467761073560175 -0.02014572400887766 -0.4188599411213463 -0.185737956092991 -0.1191218047747366 
-0.03510908897478516 0.001483008788160296 0.8808215070845633 -1.097916594983014 0.1525759846658994 
-0.03489061886018756 0.2909493757837862 0.1949168187027768 -0.3166283763097208 -0.1717568977840277 
0.6957769419536566 -0.0705131646066512 -0.497163767184865 0.04146222416224438 -0.2023198945181207 
-0.7090439044036873 -0.3501284633323669 0.8404021421600109 -0.06915977932933597 0.1458192025212446 
0.04823796828107828 0.5527230159932652 -0.3181013812614776 0.167419685864843 -0.2542642001907917 
0.1694861398065648 -0.4074470905077232 -0.1214401850050188 0.729814514971565 -0.3177785535506727 
0.2414836405346087 0.1090809855028925 0.1135927221376943 -0.1927670028709371 -0.03496417599785424 
-0.3289409878057251 -0.09879992244803934 0.709754386216775 -0.3911246954296138 0.003420296553513339 
-0.3628018414304685 -0.05572077021697155 0.1070528328141001 -0.2700314810622949 0.2107428866620389 
0.1753180564640541 0.3154428879531469 -0.1159544671207116 -0.2850633875392666 -0.1958790060016254 
0.3467685120104913 0.2906017864633232 -0.5264629328474404 0.2842933173278824 -0.2703695176183006 
-0.7628379022940657 0.8238607689295805 0.06837651200236951 -1.10880762472325 -0.1379554509222089 
0.5425795670347854 -0.02979082432988375 0.2965831782831551 -0.01407164544113713 -0.6035178466452739 
0.06274838139688887 0.124081759365658 -0.08380247592230863 -0.007432151999308342 -0.03686998570313097 
0.3973346817453784 -0.4743971109612935 -0.3853259794891888 -0.2158984475496306 1.222679965562133 
0.3958865441794098 0.06103779566775077 -0.2119982502264345 -0.3955504225812239 0.158255676348828 
-0.1257622375392885 0.06794027115298185 0.0005535796102214047 -0.5834527319461756 0.2768430131648374 
0.9941304868731065 -0.3444787544283257 -0.5528659704639725 0.622337612109758 -0.411434260106438 
0.07472673571084429 -0.723199165936437 -0.009109705879491219 0.3439298226328219 -0.1118331865137285 
-0.1313666795751779 -0.3534989894861554 0.6963995285767599 0.2458045637525219 -0.1825546769852811 
3.201955160723536 -1.881445348284869 -1.004294498947028 -1.852684690023053 -1.505856863666962 
-0.1005808881882948 0.1064622030135667 -0.04888283492416913 -0.2763950808930786 0.1401091005443714 
-0.05766811291200665 0.1478402407402586 -0.2717365220171418 0.3432940864398727 -0.2151636833884754 
-0.1915019643146667 0.08866683775643057 -0.102363743393443 -0.6089448971398812 0.5070559681996316 
0.2343181312541344 -0.289336332382754 0.3137175304357165 -0.3481377563093604 0.1527149730066844 
0.1817174723386999 0.1013044872698711 0.3036254273293918 -0.1075457952136549 -0.1551017526352642 
-0.05943829176289103 0.2386133576660198 0.2057094649351602 -0.07869830293245755 -0.4513515433078931 
-0.7234874697710474 0.2341864334504743 -0.0891375160981024 0.7545635338450217 -0.2898598533439772 
0.02091635100001606 -0.5358888292346494 -0.1432257161825498 0.1675197860561707 0.4105706134777262 
0.3028869946410197 0.2568279823444906 -0.4304172156090985 -0.1107784931141531 -0.1164944095196045 
-0.07582552746519118 0.3314955606266576 -0.7104685557873338 0.3938290555180956 -0.8390632713022499 
0.04625720945175411 0.8622699699071257 -0.7261095427861102 -0.2605038608896042 -0.1340266917843444 
1.610535137051633 -0.5899281109925321 -0.0381738904421664 -0.8455013672091258 -0.1250224405247249 
0.5785683547480733 0.4658948882829342 0.02854049536505085 -0.7913105931654383 -0.4018256483039885 
-0.009351682716687786 0.8195906034683935 -0.5060887115387389 -0.6574866929444813 -0.03591873692817557 
2.095254983681018 -0.1365580290611118 -1.420044540531282 -1.644725636393952 -1.250917046820717 
1.686180744144628 -1.186306106671883 -0.5770350999953038 -1.056230246226736 -0.5410765477004404 
0.0167163418089474 -0.01142678185134354 -0.5063859951912754 0.3745557771637846 -0.1717924916290051 
-0.1393424596325195 0.6399747083035854 -0.2300385725755894 0.154948529491974 -0.5762911757486362 
0.154154393127771 -0.02786398249010429 -0.01649117627455763 -0.071306777070304 -0.00431112303115547 
0.07232575467942043 -0.002242029403310523 0.2638373551341662 0.1406822627845735 -0.1583772368496207 
0.08799228276669956 0.2303326853475298 -0.1592852939867734 -0.305845593243533 0.1374898477425876 
-0.3429230895883345 -0.4532766664363299 -0.1322821548201472 0.4836869375485423 -0.2806340367979053 
1.190289946006716 -0.3113776040018493 -0.2937684203383 -0.536600066647046 -0.249636858404543 
0.381436155311686 -0.06944773105740347 -0.5978482407393462 0.1686113258572869 0.005199068639547073 
0.05819066941568188 -1.172357807122836 1.052039582591193 0.3293519417599112 -0.1403156681267016 
0.6066057963324989 0.5207672636950211 -0.5314983121672429 -0.5611328550677308 -0.8234657000273741 
1.622426913287037 -0.1471458428298675 -0.7484787079374027 -1.139752008812883 0.01281168411819889 
1.331145338385758 -0.6067859536591247 -0.1878184986393643 -1.192183162326969 -0.3810632406209125 
0.4179446548090537 -0.2141884230298317 -0.5439500484843974 0.3199003867891697 -0.3027112434168078 
1.003735710862403 0.1745229737120882 -0.2993642273494338 -0.5026532374907762 -0.3408427656723734 
0.5412645030769704 -0.485629628045887 0.2542537180764374 -0.311101871135168 -0.2133584437181499 
-0.3106048771847238 -0.4998922081251854 -0.1397022653319794 -0.1178165669462339 0.4769942078859411 
0.03470339803562141 0.2323281226865405 -0.353517267223274 -0.05607808519339337 -0.06293080134117544 
-0.09133904265273932 0.2892144345329855 0.3463021270941251 -0.2182807434676812 -0.09621146591530026 
0.5058037916613971 -0.2006683570855859 -0.9810506012346565 0.1059568965544708 0.07762831872098343 
-0.6084690054020286 -0.1127049601306615 0.5089995244656261 0.2359429568324037 -0.1749585366927659 
0.5114216362220534 0.7962771985212848 -0.496534464652281 -0.04522177597394302 -1.395674957918939 
0.2629935126911744 0.3212216230893027 -0.4756679951015415 -0.1451602060667073 -0.2011746918623062 
1.066594113316164 -0.8602301314381253 -0.2867395092650523 -1.420694536849535 0.7956611851426205 
-0.04820024614000706 0.326795976985126 0.2386368509475043 0.3338611486338287 -0.5819630127284835 
0.1751831728442085 -0.2304676034470705 0.07953703234506664 -0.05142458510956427 0.0269754360180607 
0.07845767212017964 -0.1599324945068149 -0.05620043961018505 0.006578621248520405 0.1151636462872843 
-0.1555921295498173 0.229790012835074 -0.6544318700777919 -0.6078832281308354 0.4253361826895019 
-0.03008580330119728 0.1647862254616684 0.02201624368826393 -0.117359550011492 -0.07780967553705749 
-0.1160200574853742 -0.3590495576018245 -0.3893380497552464 0.8485022629368382 -0.4063859776822023 
0.001485399935596945 -0.591802297198492 0.3749902929084583 0.5004655244821521 -0.2870459167864488 
0.4370960143782348 -0.04232459295601104 -0.3179411006964147 0.07166415281257854 -0.1497549575461854 
0.7684189321284174 -0.2570161657660102 0.8222761620032168 -1.206231469723899 -0.06979765359141972 
0.4959967288050124 -0.0691773600419127 -0.1017287040582366 -0.1864802896414917 -0.08879448404365828 
0.2294684586935296 -0.02589285016072275 0.04762610939023981 -0.2017203992473971 -0.02229992799459607 
1.055748014414571 -0.2934804738595961 -0.2283706914365581 -0.3757786554277242 -0.2927248828041807 
0.2284508538761414 0.1278796313954022 0.1305856003904048 -0.2078600570169824 -0.3126777540133719 
0.0008646727287342365 -0.09913641922280006 0.173515974423877 0.02927971271746337 -0.1616079481259293 
0.1801038261301242 -0.5862337156299919 -0.6455302178737362 0.3833272386053336 0.1837917807467269 
0.7644075880239171 -0.2326847070753335 -0.1238498741904311 -0.2848951799261762 -0.08653697990158034 
0.7969480542335213 -0.01183755474226451 -0.9096140455274805 -0.2786551654490195 -0.02726083147366254 
0.2126995138785042 0.1553527359475922 -0.1498734348389065 0.0930869523911004 -0.1897081325446612 
-0.4923875456813372 0.8191014212911268 -0.02099384854018229 -1.736586041093338 0.01256075662197234 
0.3276726364584271 -0.275275947563251 0.1820178756051893 0.257927995378837 -0.1709170367452091 
-0.6540205977617494 0.02394246621420061 0.6558617284476709 0.5519735958310756 -0.5885585734431984 
0.0511462568025637 0.3200611383887077 -0.3795872718080913 0.3758471785655592 -0.233216871792316 
0.0470590536792924 0.235909572696636 0.1626434856372238 0.0218506954264839 -0.646077291684251 
0.2891307894053683 -0.3164112603370406 -0.1361634144610368 -0.03886067170242178 -0.1109403911642409 
0.009590719133658668 0.570742020866906 0.04581974501899621 -0.791476794229322 -0.06648332912371606 
-0.521274315884577 0.7055054128592531 -0.4171548220931618 -0.1673343822765694 0.0454074784399033 
0.7251649481040054 -0.3474168827565674 -0.8690122280624728 0.7660492119517205 -1.336034384581548 
-0.2484069513229806 -0.3313861843218394 -0.395877400303571 0.625463631209652 0.1245018403611221 
0.8189433641155579 -0.3680319136998843 0.01929061501951049 -1.490261326927665 0.5457571329263217 
-0.1461897740042024 -0.5061759436865318 -0.8832895248918624 0.7805370791130055 -0.08692879688743001 
0.02860239212017507 0.2207615276411992 -0.1952789088216115 0.48222713449456 -0.3432036069425795 
-0.2804420747234256 -0.4171617753647743 -0.1553440397372418 0.2442053272730872 0.09291329330597914 
-0.4005327195058386 -1.822968161841454 -0.4481235278914258 1.687652194153236 -2.026148615009643 
0.08002419370196071 1.089913234892341 -0.4847191135733476 -0.6566016629478489 -0.8114418532884309 
-0.2793032023446496 0.4566279530410963 -0.7612163120096972 0.5511036599993298 -0.3684503409628176 
0.2315332311821925 -0.02622337453651073 0.04848290545149133 -0.1746730920966414 -0.03362603003949248 
0.2831594801444435 -0.6089150034741069 0.03373884273382174 0.09649653732587399 0.2733315246903211 
0.3689868654454858 -0.6595369714934779 -0.6552768130231534 -0.05172020634015487 0.5014344833192862 
2.296069573306172 -0.8591310234652947 -0.2215684514393361 -1.636018872143567 -1.086501984236215 
-0.1093178738321171 0.2618899207229307 0.1642495360565081 -0.3806704238905928 -0.1016628256349191 
-0.2654306431843156 0.1923164417423366 -0.2322478002240928 0.4971216885578866 -0.2241251357866997 
0.417908747607146 -0.1030547464784325 -0.1993196484505036 0.2036602143159793 -0.4954984839319356 
1.899646773267766 -0.2813402856389088 -0.2296275636540055 -1.461756049727124 -0.3662678893514589 
-0.09035911673842323 0.5027510755855399 -0.06079562307399092 -0.1244682782508075 -0.1959038138497558 
-0.2320243548074105 0.1304083528305859 0.8649256253217521 -0.8750871235516741 -0.06138316226769583 
0.9633709328119215 -0.1960693501423441 -0.1927966136182435 -0.09880756891844168 -0.337170193665587 
0.4164395018181516 -0.2583660162994353 0.01090501739936495 -0.2676495938139515 -0.0148666467830017 
0.03201931482795758 -0.7875802922095171 -0.4794358905240498 0.2433972458046916 0.5351477954771112 
0.3360139206835148 0.3478317058134416 -0.5878109881170899 0.05479019016917286 -0.3100108287420688 
0.197101052400752 -0.4727982746443304 0.3884135835900711 0.9023638879202345 -0.7816980500744185 
0.2644184777697932 -0.470408851425494 0.3070474936868557 -0.3143685020391952 0.228478405843392 
0.2894377719304134 0.1441913573458371 -0.1670743058938486 -0.1113821045476963 -0.2753761742606439 
-0.1215447865963152 0.4724967265270477 -0.3652416262302041 -0.3383064843769221 0.3674103351363531 
0.6117232087035038 0.1516410936778065 -0.08939323698838485 -0.284023283258262 -0.2843617069829411 
0.3932836496733911 0.1805350836557443 -0.1771877716108888 -0.192117040704585 -0.09426601058876521 
-0.2441102644347787 -0.01600978990321262 0.05114994187855528 -0.2442484177823258 0.4657932118306812 
0.2318937967105836 0.02460169658803673 -0.4362145137989184 0.4834273695557386 -0.6900303536054554 
-0.1516254477716134 -0.1271794907423028 -0.1117254771490701 -0.1245058305653899 0.299836146827242 
0.2822383243498977 -0.813215564642952 -0.1498777789687291 0.4385213385815966 -0.3447848898779481 
0.3453904713185303 -0.2836892556425286 -0.03688950763149634 0.003407630139330653 0.007867844256773331 
0.1761725386598342 -0.4241274682426152 0.5320532367429692 -0.1095576918963519 -0.02840453651271817 
1.050989859660774 0.06796488422063175 -0.2123837229542226 0.05062339075793981 -0.8274224099107717 
-0.3578333641416924 -0.1648082876295513 0.07230862564020388 -0.296678449124968 0.4615541960835892 
1.181578764413148 -0.5368443474670662 -1.087910757236491 -0.8906138423378926 -0.660109330390886 
1.382718188524521 -0.6040811849202407 -0.8780638944162786 -0.4348808636552715 -0.5889573146099685 
1.242769968131706 0.09469473522527294 -0.912838157777041 -0.8792132327412565 -1.12249256403205 
3.03889214252265 -2.083605803765835 -1.406338828529714 -2.14235698050606 -1.504041451491623 
1.058359098524989 -1.531168452949826 -0.1143227269562217 -0.1446459981031216 -0.1839203367268903 
0.5894733733316775 -0.4526889962712379 -0.662207217551841 0.02057177867725268 0.32200017041593 
-0.2925985510366554 0.08985818764318194 -0.009199103752097057 0.06784062550445784 -0.01252226427587498 
0.06481809116074211 0.1818993979538577 -0.2474624438791329 0.2291392613399083 -0.1189687374094017 
0.5299380773368243 -0.3406821862254359 -0.6355271699992836 0.06363066911082568 0.07926620248766827 
0.4724112863836661 0.05190759193355842 -0.02375297053705966 -0.3408145967652711 -0.06704438264326046 
0.3014712911164583 0.3123309757005426 0.1712161077304636 -1.37022124310471 0.4905962278235279 
0.004303796215007982 1.10472166004405 -0.295348231027033 -0.2354079635805005 -0.8948686110953958 
0.4675868517090725 -0.03454539591621523 -0.007714665606728107 -0.1935133826852219 -0.09295458925070804 
0.5005926506913073 -0.06461359446577875 -0.2865302997088557 0.04384461893143426 -0.5697646256601729 
-0.2260527505749499 -0.2439063599412479 -0.08244329873578846 -0.2115381747380169 0.5753714915662888 
0.164030585283191 -0.3366529794058713 -0.4281659196300762 0.2667273129186332 -0.09222332022481863 
-0.2777247848034741 0.01908853759037053 0.1591978048136763 -0.575441991056684 0.3746696627285432 
1.664068225321696 -0.8134873956701533 -0.4614087539961834 -1.04387783287217 -0.3677696592653349 
0.03060481532471672 -0.1902935033452411 0.6110787879057799 -0.474560297644643 0.08717237512728794 
0.2241389681189589 -0.7461365515437448 0.1594538368557143 0.01985519435086504 0.1725856785925915 
1.696418464812174 -1.232264409797255 -0.9045489143254384 -0.7410479865505122 -0.1592775559232114 
0.2920053506013396 -0.1821738520487743 0.5155154382185652 -0.7102541138557763 -0.3109166821791852 
0.05728146805107423 -0.3266945134714401 0.07402537765505862 0.149730718479228 -0.1659877830852708 
-0.5302739648300795 0.3849286623291396 0.2527222304056743 -0.2276743884244697 -0.09410235769190774 
-0.02737239341108386 -0.300605083872351 0.1607477663571155 -0.4082817856717203 0.4888376756924087 
-0.2305247819098791 -1.270366742683495 0.2530558394176927 0.8705848464164774 0.3439052742730146 
-0.2048396225740554 0.4604709359952244 0.1070999638113603 -0.5534362592543992 0.2360653871575608 
-0.4499565637145681 0.4795580692216464 0.6242967885065098 -0.5163033723478587 -0.1729112061123822 
-0.005157228600095699 0.4936780950256186 -0.3547373564074554 -0.230946819510855 -0.1193311036383694 
-0.003591949832365923 -0.1098537304789179 -0.635737701149357 0.3971972054522084 -0.02586807444428762 
0.0684743163547222 0.04537865342638735 -0.2855586975935156 -0.372391189340919 0.2123595689109652 
-0.267150232631198 -0.1707064004567414 0.2294238582936894 -0.1151638609483791 0.2060349550442916 
0.5717910617285291 -0.1521212098025633 -0.07311780690648706 -0.2446753845149297 -0.08165241014195128 
0.3810070041802371 0.2097361720843912 -0.1609018554782755 -0.8070715270867466 -0.1331033998904618 
0.2508926214936497 0.1134203411419016 -0.2020664189967135 -0.8761222939216593 0.9508910206650671 
0.3379737046652825 -0.07816355103721993 -0.6836124535215612 0.3978622275371677 -0.6526722033611128 
-0.4433597339527928 -0.6627302871821479 0.1273430210335451 -0.08932643489154206 0.7560113697154447 
-0.01822234574326153 0.2340321570659058 -0.4686128764709261 -0.3798512306333424 0.1321191391401589 
-0.1962856334018619 0.4390789332806042 -0.2259067668472372 -0.3303305567207457 -0.05927454884411547 
0.4409294784135513 0.4296741708322209 -0.1440749844449189 -0.5114095880741393 -0.4585653706236544 
-0.4132527144383026 -1.232542464071255 1.019752860676689 0.9577473766572033 -1.790652039869207 
-1.029477081883313 -1.37833435603451 3.152755201207604 -3.357798738637134 -1.061821925792169 
0.2256430062369119 -0.1290847233133071 -0.1144098860791446 -0.3000979695287737 0.2928654754318185 
-0.2595965192769713 -0.3862321117656316 -0.5229653356568756 0.4286120698439791 0.3573080674268845 
0.7251798710508414 -0.51849434381411 -0.3448686528012084 0.05332831850789558 -0.04611404147957603 
0.6106356314882941 -0.1339047347601793 -0.09342910476833921 -0.2124356350352057 -0.1186050860798676 
0.6106356314882941 -0.1339047347601793 -0.09342910476833921 -0.2124356350352057 -0.1186050860798676 
0.3412106961202378 -0.21544993168889 0.3501619686701608 -0.1037903866686672 -0.04918544059070358 
-0.5021015460310085 0.0217423758774646 -0.8368634802134834 -0.1277390446171313 0.6077594553523351 
1.962370565737076 -0.673828518477669 -0.6823771032943713 -1.104061290427379 -1.060703466205378 
-0.05505715082566744 -0.1070746290993403 -0.4179061639428093 0.5664192138488603 -0.3003762088901465 
1.111513684051075 -0.5610145210207167 -0.4865595217475319 0.2404036512984794 -0.4908498242791953 
-0.01516227007968098 -0.2224589054510245 -0.3548291259507954 -0.5085862650243331 0.8315258340420697 
0.2258036786791618 0.2443474201783217 -0.389192685389033 -0.07975509160350555 -0.1711071951586813 
-0.08804178061692204 -1.082491577402527 0.2247848045434401 -0.2293238886230577 0.8045128710397614 
-0.3166675144110295 0.3852043825264015 -0.3021531233307568 0.5059383200875607 -0.07189932918095737 
0.2981693742316942 0.06527953949721139 -0.382528308879021 -0.132609132069447 0.06709825488313373 
0.3136794173710328 0.4106471186852045 0.2541213621243296 -0.5989952669330192 -0.4867381688072894 
-0.2083232921631994 -0.2782579297329824 -0.2625655108155242 0.2532949139932641 -0.0420432750929102 
-0.561075501100242 0.6136761460248774 -0.04354157872858785 -0.5394764265569969 0.3984346373923799 
-0.05373299314904767 0.217595346375078 0.1999128254617527 -0.3706812160138938 -0.03001762598271124 
-0.1813136543192266 0.3989600889486449 -0.2733958489804848 -0.110625103995176 -0.1594477735114808 
1.07375139091689 0.1196761178998306 -1.065041325549711 0.2492295382527945 -1.402825890822035 
0.5624788866315573 -0.4213006758154301 -0.1552429012663801 -0.122455765820492 -0.04751874224054395 
-0.008627271517311344 0.1905325565279137 -0.5434502485725893 -0.1121155078253315 0.02778914505270944 
0.1527409331724317 -0.5033866015939658 -0.2325440039595053 0.2472247417097905 0.08289941612909014 
0.3177856223925331 -0.3051716638020891 -0.01371719004725032 -0.06241151709019424 -0.02106082236878135 
0.218649764261455 -0.2188859709969877 0.4966371431533478 -0.3903978182727543 -0.4022114042945007 
-0.9155950059323262 -0.4080880575338347 -0.1154615399446162 0.7901343125060027 0.09768022540752597 
1.978272830933238 -0.5365645535875843 -0.3035999250089789 -0.6398359545681586 -1.097353354496905 
-0.1472380555772027 0.0131528723765526 -0.1309823162037465 -0.2518372761053778 0.4517970292365538 
0.7830190417317576 -0.2680449603189645 0.4060699024377057 -0.3677315772915228 -0.4145838981815704 
0.1147576816897556 -0.07081619120303162 -0.4401289865851666 -0.398754855073218 0.3908537702990493 
-0.1880968206132379 -0.1057118228428969 0.03197818035455923 0.02264181564400261 0.2641047538257055 
-0.1288017224572107 -0.384733158938552 0.2970804625502931 0.3132693179122262 -0.08622083223333081 
0.5027445131660663 -0.0942655460526511 -0.07465113132166315 -0.2520325709623307 -0.1457063637338359 
0.4379654205158434 -0.04250924725600681 -0.05191912559830115 -0.1318874790677211 -0.1176932825566167 
-0.4159951110404056 -0.1548518984463243 1.233067531553022 -0.4146038455406202 -0.4899477292321844 
0.328792653244623 0.09234236619600961 -0.2827483742639911 0.1202704918437048 -0.2150539973853686 
0.1713294188835776 0.1406284484111053 -0.2162048449285662 -0.5967130300835457 0.08779946725662896 
-0.1351255804542219 -0.2336700405746777 -0.02621710833010418 0.6494669995646335 -0.08565058645115424 
0.4530631108227133 0.3653148594694142 -0.3876714395189785 -0.1558507924426569 -0.3024133259456234 
0.4020706288656533 0.1288032701285018 0.4685903153536168 -1.216180388683381 -0.04222784322405826 
0.7457788635847635 0.40756002257006 0.7471421559998443 -0.2684668089091967 -1.084790755957489 
0.3150951206935195 -0.4935905336025747 0.1020311243720903 0.1332067178460783 -0.08029839588752248 
-1.238786877027313 -0.5369984922546056 -0.6209946507024934 -0.824330707946431 1.76976622278965 
-0.6059777079260903 -0.6766817585775835 -0.4233998730839515 0.9557048210850414 -0.1153897508260471 
1.214254705616994 0.2075604401661066 -0.2908807902933253 -0.3247281579791986 -0.3965125911369514 
-0.04943294030644169 -0.3293980392106416 -0.3569213481278353 0.08657952790291597 0.5291763505813942 
0.6203264163762312 -0.01435278172854001 -0.1866523411531623 -0.004095532010062945 -0.2432328492736143 
0.3285759195039003 0.4491380427660288 -0.5010151996790797 -3.723771740113109 1.931085037899455 
0.4516615803328771 -0.9652322073442096 -1.712835522130842 1.051823951091647 -0.7791053832420757 
-0.3116771814105202 0.001681010044849378 0.6911414705222164 0.1993785490458116 -0.5533020721428789 
0.3411264905041733 -0.06756912272420053 -0.7009371816711324 0.2812452255500288 0.04500606573151803 
-0.09484422785026159 -0.1062403997989023 0.1949254557781387 -0.1497084932652511 -0.1952781493198174 
0.2356913630471109 0.1516968888136544 -0.7592014897064523 -0.1205770655593756 0.1013521065158221 
-0.09549777636805226 -0.3083356164090336 -0.2708263197167873 -0.1684717399508421 0.544144839389877 
0.4382766222987838 0.06535877962921879 -0.7410333950157145 0.06086620860572314 -0.05482880475551676 
-0.2353352324772156 0.4081711201499563 -0.02837902189214175 -0.4636820195639487 0.1776134487530684 
-0.07008583299648691 0.808681288163044 -0.2935275338228048 -0.8681765452480809 0.04912311921720111 
-0.3191642948283536 -1.231828613449448 -0.6100665429826561 1.174121302844793 -0.4520590788505293 
-0.1265412981169232 0.03447902304853988 -0.4828082783246131 0.5300858199516588 -0.3009664679131256 
-0.4545322319555063 -0.4136674487559686 1.181497097613667 -0.891390464530248 -0.2259064148653358 
-0.3507334078113226 -0.4176176463277032 -0.03602509801653725 0.7596536370608944 0.02271270452780806 
0.3106452185661082 -0.5306674424669939 -0.236280343087943 -0.01478557976795126 -0.1606092698801439 
1.046319110192541 -0.3340451303503388 0.06159820067376964 0.2272786151282304 -0.6132809528066645 
0.2708847163240528 -0.462755577069868 0.07798605488933001 -0.2284971375706801 0.2183858990950493 
-0.1098579653329428 0.3806122749757733 -0.1151253701308408 0.3491670983403345 -0.3890093605789087 
0.6605882567971527 0.09777307784800693 0.2428921819528213 -0.463691857958458 -0.9354291397018021 
-0.492811562273591 -0.9456326523094136 1.212490242949242 -0.4895170731273926 0.1344071416129208 
0.443549585901912 -0.2299557561798681 -0.4130595362074209 0.2754480566722621 -0.2214052902720681 
0.3982113971244003 0.5223138063741373 -0.7931617179771997 0.4820925911722621 0.2987263543046499 
0.008723801504722645 0.403491159668301 -0.480672201029391 -0.3544428115961908 0.614684414998998 
0.2719589667074078 0.2818076223783209 -0.186339787378813 -0.2753985901792862 -0.1418086209598045 
0.3837192968115001 1.620089193947564 -0.1111773960735052 -0.9502286933165645 -1.222956871207843 
0.4333923149859336 0.1957171191083331 -0.1991347562555213 -0.5801353266086593 -0.1498455350521167 
0.1830863752835871 0.3612673871503698 0.1461772115583109 -1.283184457673593 0.03836563756417372 
-0.1538101651168335 0.5083214485878521 0.1679323785000344 -1.249186670506851 0.3277099610283707 
-0.1110681895205508 0.1042498710477522 0.2240545196145779 -0.3059032224430201 0.04774204814276206 
0.3147745436841461 -0.6079889865161485 -0.2786547065307317 0.2043376076864382 0.4743212954826915 
-0.3609936196132284 -0.09534068435426696 -0.112962794732104 0.1635610608098886 -0.01778094906780013 
0.1455404807200728 1.006005618561738 -0.01766691359626509 -0.868513288236614 0.2652257280775228 
-0.1770754291935255 -0.7913109660721365 0.07540668494506131 0.2426421085293067 0.2598758022647971 
0.309977354372751 -0.02616871066446116 -0.01189593067745418 -0.1893131483294518 -0.01639933895674792 
0.2550381036708151 -0.0294284923028879 -0.09733860093047854 0.0002354356457396761 -0.06647707564091961 
-0.1124602512156464 0.4849167480239964 0.7080600338499253 -0.5020094477181815 -0.2114557086925055 
0.2576766454376653 0.5372162638158829 0.1076799662310382 -0.4245644184659002 -0.2057566601185032 
-0.1804985743055212 -0.284156500345472 -0.1251050530245151 1.340743695050975 -0.4639923953380903 
-0.2895538825802545 -0.3226540791597517 0.6936513830683255 -0.329926890099729 0.3321501654038438 
2.659397630427466 -1.298922961940998 -0.9189170768794943 -1.443874480930452 -1.50511699003255 
-0.173404921002216 -0.492488263147823 -0.6605213205233764 1.120578160373931 -0.7542835219824346 
0.08136944468266807 0.4155691672389956 -0.4294212137911941 -1.107841901011885 0.8458963249173793 
0.7432382117117714 -0.9203886974441781 -0.5980709436125325 0.3733822023813279 0.4139362548245372 
-0.3757930838421702 0.5748895867501849 -0.1265696302118382 0.5698201916493525 -0.7986576242097202 
-0.06086329451413443 -1.133524224987702 -0.4796475202479651 1.079327054967424 -0.6195649690786492 
0.942648810876151 -0.009331926805694363 -0.199664692063329 -0.2493171427440461 -0.457589961307537 
0.1247281159974103 -0.0586716346216808 0.6092634063609714 0.2810580522775468 -0.6189563209980425 
1.100391982539201 0.1609445305111292 -0.2897397060017377 -0.2439720096928358 -0.7647240782450868 
0.1885167805568034 0.2605566576919681 -0.4894173501122843 -0.5788002891027981 0.2973478593219072 
0.653266617998247 -0.2049716637535651 -0.08185668187020419 -0.09736276362018244 -0.2136313335883758 
-0.6153874529919969 0.4821855749378204 -0.2193933272071896 -0.8197674390063274 0.5905496223315093 
0.6341018062911181 -0.8005412309575415 0.2961044942627448 0.09857519684493213 -0.002747013999458849 
0.2361708893146385 0.0512267282728512 0.121356992002242 0.08163730166413941 -0.2380732621771944 
-0.7622287059366936 -0.1549664920131975 -1.628357740382263 -0.1949861591117467 1.128748453134068 
0.1060634987885614 0.01537658311416779 -0.08052475812267933 -0.01583810952513049 0.01140667462944974 
0.7066795319684049 -0.3983136683489912 -0.06764225548045474 -0.04517508259602875 -0.193686303288619 
-0.06699786486930005 0.006012480579166105 -0.323729030207203 -0.2025365734398009 0.5456771347436959 
0.6067953595934557 -0.2859648313786107 -0.595096085140465 -0.03075757592142458 -0.1840821225714065 
1.350713700716538 0.1180923923695396 -0.5274111800813536 -1.006349108900136 -0.05230328333292276 
0.2069668629256215 -0.09911517493717131 -0.0007779974964075738 -0.2185196576825726 -0.01403654748667174 
2.569722742430947 -1.032610545937188 -0.1595366233424245 -2.483072714768312 -1.400385117680333 
0.3690451398065104 -0.3430790885775027 -0.2561748277835304 0.2715260897446841 -0.01381847866562788 
-0.1550610200442024 0.0006514182349032262 -0.5958370945666366 0.6065418003900069 -0.125287991173324 
0.5066661009421434 -0.5980437103788869 -0.5273909763857161 0.02309181403528157 0.1034480632565351 
-0.9116501507427236 -0.1147061242639242 -0.9131683101997315 -1.195177670315373 1.658139833515556 
0.1383479992048054 -0.05258904383013245 0.03728644456320547 -0.1006806509766965 0.01122210327777379 
-0.383769944549015 0.03972860150983591 -0.4179235712106633 -0.2862735576016734 0.5018617756519346 
0.1700939294356032 -0.5934704297252993 0.4610095424569638 -0.6775591176449722 0.6577236725793878 
0.4022480579847609 0.6154653035702211 -0.264888497238789 -0.5759361674964671 -0.6814242572492377 
-0.3186358105213103 -0.1527813602358739 -0.1832770542851001 0.1057024902134434 0.2925013904378137 
0.7900637575235121 -0.2687946560872694 -0.120991418390168 -0.003241499455163287 -0.6894120208315977 
0.1414068924459331 0.01668481774961795 0.754497733096414 -0.9983030672040319 -0.2185488122065918 
0.953267405641302 0.1753742086747091 -0.05921686142092684 0.03056133054703896 -0.9789300403634056 
-0.001411252472555908 -0.6814180150055842 -0.4656322232622995 0.6502499008108307 -0.1128410968728337 
0.2821574897949595 -0.003361416127448034 -0.00806279175946786 -0.3827592442525611 -0.06380640679425786 
0.07744141117933905 -0.4702740023897811 0.04460990712199475 -0.1720279792208749 0.303537100343385 
-0.5225735513832128 -0.1357748280570213 -0.7905562435566673 0.6380088936777268 0.5343833457978413 
0.7612277805921028 -1.197165353631944 -0.2982591784635874 0.6444977623212312 -0.5826754160206737 
-0.4782562693154637 -0.1970343284818893 -0.08255333553197487 0.7025803123101459 0.05925090233520019 
0.7493616893949087 0.1172187036075007 -0.1000818707903985 -0.2864905205892864 -0.2771265845904734 
-0.3171600755787942 0.1130646649809641 -0.2151708492716255 0.06436222443892957 0.1710091220621863 
1.000025719533037 -0.4578137604552618 0.2633424448409079 -0.7218333479858168 0.09625869470068939 
-0.2793079422325375 0.7144694192161127 0.1212538978194002 0.1535960860327068 -0.6498106865788947 
0.1430147693111695 0.09658622820645299 0.4856923700134971 0.002265158869719591 -0.6948297964301647 
0.5026142932206737 -0.3072311625264936 -0.02952335942507111 -0.055368880262934 -0.09244883375197521 
-0.1254404038480962 0.979955606833019 -0.3011600471338924 -1.307771644774416 -0.18534999258038 
-0.310941196753677 0.257539862436768 -0.3361312155380239 0.09909204247115613 0.09369501325807245 
0.5026142932206737 -0.3072311625264936 -0.02952335942507111 -0.055368880262934 -0.09244883375197521 
0.6212856594559335 -0.1250326685771966 -0.2970198798729941 0.0634725376348959 -0.2324767119832125 
-0.004056710465530064 -0.3501749117627009 0.2461503183135671 -0.258489871637192 -0.2334932042469996 
-0.4046164256127532 -0.490447904507427 -0.5659705351906732 1.210457692448984 -0.3174806411769536 
0.4129833794250964 -0.5600915293855481 -0.3985154017779016 0.08470865706037109 0.3064486279748634 
0.2512371720002776 -0.1218120757953127 -1.52328493931587 0.02418358607253399 0.4221357641881333 
0.3668791363895143 0.6079385325558238 -0.08117562103457798 -0.068731936799444 -0.2328791876313712 
-0.3045810658805679 -0.5789800153839769 -0.1096934497611741 -0.01136027294843887 0.6305038341969708 
0.79353260509251 -0.2115713138520867 -0.1273222456724613 -0.4451076974072887 -0.7091170614906199 
0.2377556094919306 -0.000501804508175892 -0.009705171864158327 -0.1881804418266339 -0.4156524867848999 
0.5582938373172323 -0.2548554321032408 0.7794497260028741 -0.494795687324428 -0.4052444221300458 
-0.6055854434192628 -0.314072036711059 -0.35354721438732 -0.2828931172089676 0.7409036956765336 
0.9399887609042719 -0.5304252526658808 -0.4622856578944908 0.1358304711376033 -0.05480410771325549 
-0.3858417721586962 -0.09285709360326991 0.1442453145647208 -0.1903160983999466 0.375759535109156 
1.485841286420727 -0.501789683054004 -0.528026308406452 -0.5892672991078778 -0.171939217605061 
-0.1706048225032213 -0.02129543744549211 -0.1706516065659745 0.7011248433221575 -0.5937996317089957 
0.2933832276114082 -0.02211371001577805 -0.1859532407569492 -0.2346057550308161 -0.06492812732931508 
0.06547472244877513 0.5823450954070765 -0.4931105228275958 -0.03193128670205304 -0.4849288841630032 
1.244535439727662 -0.4755124106040182 -0.7323446426056964 0.03047543510787944 -0.2442879950338404 
-0.3891799735608032 -1.680361426544619 0.9164356138986126 -1.111174530852363 0.8837538938058613 
-0.7607894357875021 0.1602752310671148 0.3677059390434733 -0.7532958011723641 0.6983747677348868 
0.2232993690571227 1.415450708865843 -0.1350242364123572 -0.9507819330421925 -1.129306625495946 
0.8933237402847587 -0.7690647540202996 0.1053653387385832 0.1440210955385125 -0.3601081808566629 
0.07241461727183836 -0.1253093940638893 0.4930865195505432 -0.3159698218976661 0.09901498448506496 
0.2436719102265669 -0.05389101723728888 0.167310152596304 -0.6266717699153773 0.04753623424063753 
1.104467617221182 0.5728383849984833 -0.6772733503706748 -0.3648533699818069 -0.8269678040232883 
0.3172137470371851 -0.1547400131762306 -0.04216763942108694 -0.04222789935703407 0.003003098027940366 
-0.06861487772106145 -0.02473995953743464 0.03379029441243417 0.2357767524277562 -0.02076418649251546 
0.3285302016550425 -0.7138982771993695 -0.2504409436565885 0.5918098953475592 -0.3435872995235447 
-0.6471685867280161 0.3729033414486763 0.6560321091369252 0.1663937500655099 -0.8018139891988666 
0.6016367880107868 -0.1925299132560736 -0.07184396345609577 -0.02815484698455341 -0.1370823869621993 
-0.6230442912873636 0.3337156772541612 0.1207976641995442 -0.5643367272762104 0.5193266259137055 
-0.04363354751989711 0.2606529723408519 0.6184703065987585 -0.2417729575440237 -0.2657424181106024 
-0.4585141493056636 -0.9564460834056779 0.2613019083017847 -1.130566736980249 1.456054789276112 
0.4965981420835882 -0.6846997749196988 0.09216419817535926 0.324966788154987 -0.3254096524792754 
0.1881702785524047 -0.2232140719059941 -0.06102243362657728 0.09553562926943304 0.1493433369732332 
-0.4348624755057794 -0.05046605106715721 -0.642742819641164 0.687762123106812 0.1145026146568387 
0.707272021211216 -0.1691287183663539 0.1023798328819572 0.088510811880079 -0.2491706330210928 
0.08537780693783106 -0.3450975973501074 0.9050710579426987 0.02565237320158035 -1.510685250723492 
1.032901737713356 -0.3600388613662131 -0.1607161981228617 -0.225931725261384 -0.3343750515782711 
0.208122564114157 -0.1397942147660038 0.09443776442790094 -0.4293744114335015 0.5854991502793778 
-0.3104681567066694 0.4381288079809501 -0.1650192316561037 0.5502535078872378 -0.7663802116628197 
-0.4237079283816358 0.1978325495577094 0.02909716175987888 -0.3293620589790076 0.1160409319516795 
-0.01286589075058628 0.2661597005085273 -0.2628399920178786 0.07070858220174973 -0.1651035073690041 
0.3661543586866896 0.700219931826106 -0.1003539224642368 -0.9535767384035151 0.1388376903583715 
0.9884262225188193 -0.5188472541070437 -0.1985613488373844 -0.6170391409302149 -0.3253519264168186 
0.4534013981578092 -0.3240994145352137 -0.09803333913273077 0.1357440784589473 -0.2760545439049423 
0.0449536720479374 0.8032686763431037 -0.232271201747955 -0.7144070081725418 -0.3026382425905387 
0.3665982610667593 -0.7256909611112102 -0.2841694048270794 0.179633393073589 -0.1804781678527271 
-0.3509514570695278 0.4946285113077974 -0.4782986334014573 0.5244589904995606 -0.2711891497930085 
1.147384036283601 -0.7016387004773109 0.07395636695967311 -0.1891118675769385 -0.4891618285411265 
0.4069539568190375 0.3907293358793476 -0.6266088047402432 0.4091690297590159 -0.8144449070055094 
0.05699935225324711 -0.3098361740403894 0.517864668944424 -0.03484027862489295 -0.1056877620669368 
0.1601410353517944 0.4439736638156622 -0.7161625993041149 -0.8466748742617021 0.372958597670106 
0.05981736126216111 0.7591003047374429 -0.3467498590388721 -0.02476518973074235 -0.6962899510071733 
0.7163165042037439 0.4506370661170307 -0.856181202716064 0.4629174352955309 -0.7433454012253098 
1.030375945283143 -0.2529238234361189 -0.1640966260922273 -0.382741341719574 -0.2298994117492384 
0.1286553508619164 -0.08823438405065774 0.5147099876779698 -0.4526632569236224 -0.09869070172910846 
-0.7433705226548114 -0.2708285166284118 -0.5977516329846851 -0.07879024045107093 0.5936362170475767 
1.304427688565338 -0.9764074431525924 1.507481359851615 -0.888031615144389 -0.9918228030141419 
-0.05422575280939494 -0.829231285806361 0.2350428033662552 0.08650128147268303 0.4460002341371246 
0.9653930963124803 -0.0745085980398722 -0.3166428499560006 -0.2113076909957985 -0.2224170825991937 
-0.05619746183596415 -0.1364892173759354 0.05180700128090969 0.2637551065307753 0.06770672647730444 
1.003681231914578 0.1959873069616481 -0.05211324271950825 -0.5673070044431016 -0.4141265197742556 
-0.1166983925791293 0.007985734286188269 -0.007172980952123188 0.6006070151204609 -0.3672934014436002 
0.8288125061075721 -0.9375422476833206 -0.5612060701604712 0.4166487587859296 -0.9816147497524618 
-0.9431563862152481 -1.267254020806922 -1.450042396811434 1.963851934336909 -0.717016705452451 
0.6527090944492513 -0.3002012562952114 -0.259832046330533 -0.1271489392176033 0.3750443166649328 
0.465816628021888 0.7472357588343672 -0.4689115909476914 -0.2113742534812169 -0.673733798666007 
0.5505232992828942 0.1894955606977065 1.097701064863098 -1.083353280049447 -0.5541821670152024 
1.111663822887721 -0.6834053280831709 -0.1533402789645377 -0.2806740163012078 -0.4572966881331494 
0.1404065000416221 -0.7672508428481633 0.3688740167162304 -0.2800010527941842 0.2060273128339356 
1.059519881877844 -0.3866179597206015 -0.8246867131590322 -0.738664198702375 1.18702253273572 
0.1221886683088976 0.04856649899997166 0.5086257667911982 -0.08737585444449933 -0.4673859972171834 
-0.4319502038550877 0.3239906404734103 0.511653983248415 0.1423469842388393 0.0968281873604184 
-0.3010993194501067 0.4949052357529397 -0.4060634406874148 -0.6430578042124194 0.3942829612382672 
-0.5255587999827215 0.05557753989401133 0.1209874515464621 0.1304935710729838 0.1034808074008172 
-0.08025163095242743 -0.6946020260299287 1.208751617322614 -0.3036184828775084 -0.2120921376717095 
0.2629394151096794 0.1891979000870639 -0.4359765144272869 0.1442129007852496 -0.2152690414691188 
0.4527631909710184 -0.1401837888134006 0.1582435063577363 -0.2257947459130706 -0.1970376605315122 
1.031052733784569 -1.25073204228943 -0.1036255356895481 0.1143579237193162 0.217267061899386 
0.6889603021239364 0.3124997434274223 -0.3257034721311626 -0.3739907713067929 -0.7123113130093296 
-1.009361500062818 0.7493861012161431 -0.4733895129778827 -0.2305477238614844 0.2794023292113492 
-0.2780745379335515 0.7376918510150614 -1.307837726036722 0.3255223026774138 -0.1773674506610136 
0.5794195070514252 -0.3177379401497698 -0.04333969926973772 -0.003714466451253806 -0.07563435557589868 
-0.01857237984170675 0.07415271112809571 0.2957733272246148 -0.0908938293108775 0.0125527978924348 
0.1700860092654023 0.08625415324360493 -0.4589806073122313 0.001455543150019334 0.1766084006467961 
0.1832718360351583 -0.1182569011096633 1.172305302296423 -0.5878681875955293 -0.5798437197506962 
-0.2573807965043053 0.06877608167491341 0.4213837318108395 -0.6836360986052145 0.1494860864908888 
0.7558850816723662 -0.1500035626842916 -0.4378791382336034 -0.7917130296256127 -0.3246007908412187 
-0.1021118421248935 0.05424998837042434 -0.9826697684690515 0.5414933264122856 0.08958882888072577 
-0.2946730517478732 0.4077888306026306 -0.3312932000605696 0.007230392948041495 0.3168444356760338 
0.9335439680490789 0.2517676207295789 -0.3225225076593156 -0.3283825231280849 -0.563792351740512 
0.461233761649488 -0.09419404431347107 -1.030799242814695 -0.8654268639073885 0.6974613392366409 
-0.5076626533327286 0.2885620310388748 0.05652479876376953 0.1231584931200964 -0.03072249196281557 
0.2338332348187267 1.191274890846641 -0.5300208679856412 0.06757021355218663 -0.7855285429530933 
-0.2568330433711919 -0.3202748034024753 -0.6118924105335648 0.1971037852501175 0.2483744943502057 
0.1056142088522609 -0.846503813579064 -0.4440249270054051 0.3891196251556411 0.351495619405894 
0.2082830127871745 -0.5634897058399586 -0.4612360243177841 -0.1786934764113277 0.5039528376381686 
0.1000076025997592 0.2976412027753247 -0.4771514298849941 -0.4272264451108497 0.1709226817928169 
0.2367614711247886 0.02577406392898964 0.5715424132881336 -0.5856421121600328 -0.3206139343839622 
0.1990742814012184 0.2428621058563076 -0.3701692156490428 0.2468902221880858 -0.2862144928350827 
-0.6601636046303863 -0.3825588174411889 -0.3995519581026498 1.36232368078828 -0.6984857873547045 
0.630688238124499 -0.3013029924855606 -0.2534700313611991 -0.0697379737096486 -0.8578037156510168 
-0.02805849734625428 0.2500539495521534 0.4736605260873195 -0.8099587930650793 0.1670636393387003 
1.129804725462131 -0.6164314547660871 0.3341891983872327 -0.4836155905720456 -0.304148704861902 
1.925137756779714 -1.172833957901706 0.07300656450289748 -0.3724760614894271 -0.954320966342752 
0.4442608042362239 -1.115211388092373 0.2326047777055794 -0.0612260306345539 0.3524131793235967 
0.7110405519126053 0.05070535193292565 -0.1297709597586545 -0.2343221351224945 -0.592018945307179 
0.1210713491006578 -0.152890975355058 -0.4912694659130676 -0.6616305978770362 0.3333867029519151 
0.4511797711472422 0.3638732327859222 -0.1776121600494605 -0.4885821666527146 -0.2637374113126105 
-0.2775107778297085 0.5496880075094578 0.3839283246632631 -0.3229494564141953 -0.4045059905644835 
-0.1026690196444566 -0.8032096750456206 0.3958651122050161 -0.03862152446495754 0.4399967218352841 
2.127241587884963 -1.260352804465147 -0.3597638793622389 -1.142037077157609 -0.9174586051378583 
0.5429367060827717 1.102686759869337 0.04053917142592488 -0.4117628172243503 -1.3272912512589 
0.3219876814983579 -0.3700690510322501 -0.3923872240970783 0.4310858101703925 -0.2247126853142192 
0.1174133849698521 -0.01862481879416844 -0.01295465987604719 -0.4049988403908055 0.4550715203122995 
0.1209887595795014 -0.06328656782117256 0.2907203677678993 0.08045482414644752 -0.3197460631603677 
0.572813496003008 -0.6616051281359689 -0.1750928984815376 -0.05600309364516196 0.1581853456463286 
-0.07340425112365778 -1.304281024489649 -0.7813684946315387 1.420872451191463 -0.8039107583500266 
0.6039854611855942 -0.0165079583982243 -0.04412584403979515 -0.4412776527940534 -0.08821825887450543 
-0.2397216602533797 0.1203064208575751 -0.2856985964630072 0.09360475359529827 0.1987290182671704 
-0.7437630104086925 -0.01996070920803674 0.007858196202594675 -0.03741165143931532 0.2896692069230642 
-0.1738699298676348 0.6440678160288955 0.7171951854518551 0.1209864515763074 -1.405444551046582 
0.9637244063957157 0.3237555277565806 -0.5697520451358766 -0.4853968139695031 -0.1247942199202716 
0.3319026010777822 -0.06669649334377545 -0.04836833957537472 0.1566231159834047 -0.1158011927897587 
-0.6186982835381635 -0.03758099914754133 1.11539917542163 -0.7061030129001002 -0.1730384292224429 
0.7411392064015064 0.2952749382212694 -0.8732173308039968 -0.5109577285797716 0.192842930678335 
0.01815747116842052 0.06551642553798706 0.02242698376337638 0.1544550516505993 -0.3330270933136292 
-0.6098095177711278 1.180606597937712 -0.4036730131560432 -1.108172981095832 -0.1111543219505951 
0.348542414249627 -0.04380972603234772 -0.01703111083594242 -0.06193438964038877 -0.01448651809757235 
-0.2055867364644612 -0.6479748785362979 -0.5800235929559988 0.7555066429065589 0.5361096811443954 
-0.2037945901190221 1.136495152545747 -0.1707419573306873 -0.1855083187415767 -1.331567344786634 
1.054367050413442 0.1278560478977055 0.7990448815323882 -0.194604737348141 -1.463753033181072 
0.7698523141213436 -0.5587369641408126 -0.6741223385346277 0.208235509559218 -0.1845774858939696 
-0.2006583887704662 -0.08283701992571241 -0.01501261558059738 0.1882962970716771 -0.1786956769838946 
0.7725151267413332 -0.1001940441698349 -0.2561808541965651 -0.3527621577856711 -0.1031566653325697 
0.09458623704223756 -0.02183887287053705 -0.231885658972297 -0.05754070843005883 -0.02304731175802014 
0.4028717804941194 0.07082359173282712 0.3247284070577946 -1.058586789855088 -0.4415754979346648 
0.4297577874828842 -0.1428491480202518 -0.2336774942862679 -0.03148283376205654 -0.2683276208339079 
0.3203974133625435 -0.1313881978785997 -0.07795360522364167 -0.09072345961608791 -0.05483670210336726 
0.9584778166496022 -0.1778420627333576 -0.1049606456417047 -0.2814383858785643 -0.2441181874130526 
1.262721035929176 -0.50307948600394 -0.3621336864261062 -0.6904515744583145 0.2136046183467758 
-0.07675418862397279 -0.3006627469187413 1.19606627457666 -0.6685335882064262 -1.055768434515224 
0.4940065781535898 -0.3034717161792624 -0.04508280465349511 -0.05070567078769658 -0.20139872776344 
0.1212099944106174 0.6742346659806865 -0.07209859139194677 -1.202367180301886 0.1141445681265939 
0.3907728157160041 -0.2514213867502456 0.5352397808940023 -0.593141740908433 -0.02407075927118626 
1.214627169428151 -0.5870241425265201 -0.2065448045096644 -0.3182988420800509 -0.2241907535734206 
0.2924600895600566 -0.05632666358702969 -0.09748158929934561 -0.05598250649096347 -0.1590911577074186 
0.1766063861577055 -0.528292414587015 -0.2096974054215091 -0.7171741494657524 1.087387466321871 
1.296614309554067 -0.3894663046648161 -0.2607561112098422 -0.492322359790356 -0.5994846538131107 
0.2924600895600566 -0.05632666358702969 -0.09748158929934561 -0.05598250649096347 -0.1590911577074186 
-0.03788334031978798 0.1232275973040637 -0.1869206917801566 -0.1814921740774013 0.3884639425895974 
0.6653266613895117 -0.1675202154235033 -0.01571461116414116 -0.2871574653709343 -0.08497167108917043 
-0.2275229502077837 0.0481902369795537 -0.2260652844959845 0.8882194285979351 -0.7806900946043706 
0.1052206750820658 -0.2495027900230129 -0.02906972499437605 0.3120772958369308 -0.1573509860930793 
-0.2504252838043605 -0.1980282278699566 -0.4675664284117209 0.1600029111602724 0.3173314158541441 
0.5359336858477423 0.2809247053578929 -0.05843667327646876 -0.4409789337996947 -0.1267035196847789 
0.1745877150062862 -0.04704234559716618 1.236381966399315 -0.9214072109168633 -0.7892994488203735 
0.8288918175858827 -0.1280763087011315 -0.3122751670873605 0.1369497198522985 -0.16734210586975 
0.3227028770542217 -0.2372302605309806 -0.01095908452589574 -0.1664118087232623 -0.01331997898392698 
-0.08286024161886009 0.2038269036966772 0.3116319007053122 0.2390795720871005 -0.6248473421743963 
-0.4672309863487838 0.2709370765401853 -0.1843582596830922 -0.2541521228364495 0.1622362856617469 
-0.5608293891220835 1.197864245308345 -0.3060319531543632 -1.745995489995654 0.6935466894240394 
-0.6223453035116686 -0.2785174596277243 -0.380514829631188 0.08508034460695083 0.6868127343100975 
0.6462546292346729 -0.2263494866947328 0.08442546500884528 0.03643453258915068 -0.5504828115832643 
0.6584573318140988 -0.08724386124973259 -0.6622938444351645 0.01660738244584159 -0.1695971280370227 
0.2878066984804195 0.5257706138218745 -0.3925949775990205 0.07077854057189081 -0.4531156667137757 
-0.9857478779521914 -0.4640532423517877 0.2766092597889701 0.3303841058808837 0.622667623092194 
0.9101445417928115 -0.4565641307303307 1.065566834637195 -0.4348437353851198 -1.116193468180478 
-0.09930432544390674 0.6931982659464002 -0.4716227097280812 -0.5458477101356489 0.5083519593254657 
0.7422382854439238 -0.233178598325375 -0.1347575439243765 -0.01823390445472421 -0.2505378772158652 
0.7422382854439238 -0.233178598325375 -0.1347575439243765 -0.01823390445472421 -0.2505378772158652 
-0.6500582775558603 0.2612188062861002 -0.3369649303172678 -0.09667738598350402 0.7210877339028493 
-0.243378220536211 -0.08609111772596689 0.3538089650198993 -0.1459689866181969 0.07263641431376315 
-0.6199216876227308 0.2357061511910837 0.09255241997856214 -0.9208380091554259 0.5800548762085612 
1.116047629847121 0.0724915485754748 -0.07204040274023363 -1.066513122397369 -0.1986960093943025 
1.140592626863206 0.07657496976361658 -0.6871574000249027 -0.1915032380806609 -0.6377360810321486 
0.8349961946870721 -0.9565354431925513 1.838135066152387 -1.669429229697889 -1.783174192506757 
-0.2148530050521525 0.1233697534349086 0.4037413845134388 -0.2730011211003435 0.1961262926202245 
-1.374054007002004 -1.138977231956886 -1.232058671793674 2.319205463445714 -0.3394100309654529 
1.356728232140967 -0.2491043126373351 -0.2238411837294514 -1.147799843782907 0.1739751410728148 
0.392245217841123 -0.812217375669723 -0.5131445879940868 0.7210989972899977 -0.5329784555741801 
2.743804197087754 -1.317899076739041 -1.063853595258092 -1.422033635997567 -1.805216917558283 
0.09715540822462276 -0.5131908685992443 -0.2225199845526154 -0.132506341778846 1.080003670911908 
0.2274440988966207 -0.0222380677780066 -0.003176337374423253 -0.3179668347997678 -0.01600697591978097 
-0.1784751885816334 -0.2715142422216829 -0.6638987765302471 -0.436865820735698 0.8834055669297262 
0.4232346870296834 0.3171333080139089 0.1663500320493283 -0.3431316761684067 -0.3114960368368668 
1.16850366472964 -0.5473438889367352 -0.05039856924460934 -0.1080550144015087 -0.5232617243733715 
0.7071163015384483 0.358817157568919 0.1594426510682681 -0.7317624142561154 -0.7157137602425376 
0.6400789279736522 -0.04331555230635138 -0.7804519828421813 -0.0806211676769846 -0.4723590769856587 
0.5353047489920386 -0.009300586286521565 -0.02574243975881023 -0.4450041522120486 -0.01641550808535828 
1.167101998215068 -1.04980681166233 -0.2193883162618753 -0.3445618061012465 0.3988093323105344 
1.221209187440292 -0.4518538090227526 -0.3667808609242594 -0.7463887558050958 -0.6418604673199342 
-0.1373491555805982 0.3265615675497864 0.06187718634445354 -0.297960092793715 -0.2966897290452 
-0.9056640795538003 -2.278809340034668 -1.007172038130294 2.450527624579744 -2.232530546469242 
0.6090793169969857 -0.5230515372946984 1.346248696256135 -0.9367130164005762 -0.3358034515283226 
-0.4116666551076063 -0.3957087816871219 -0.8394929504815898 -0.8875007867349884 1.432521309379034 
0.5856601776160421 -0.1244526059558679 -0.07249873656824996 -0.03700226725280934 -0.1033623049102006 
-1.006689707182597 -0.2442615206928125 -0.4676738752459424 1.63922764622162 -0.2101106472710444 
0.5856601776160421 -0.1244526059558679 -0.07249873656824996 -0.03700226725280934 -0.1033623049102006 
0.478530234199933 -0.06998633018352259 -0.0697330402530241 -0.1550711065390835 -0.1106205402108051 
-0.7081810197481522 0.5820739040983252 -0.02115436084251337 -0.1658770257058494 0.08667133691260047 
0.3074399355151263 -0.1266750898567409 -0.03422076083546032 -0.1502114758093053 -0.04319582913899291 
-0.01442493562999737 -0.318750816099472 0.5951197584947916 -0.163441891652285 -0.05346643249660818 
0.9204351496526912 -0.3676187242839196 -0.1702137922824336 0.4524950385505338 -0.7282466722058097 
1.1531264321535 -0.2294107549274584 -0.1835930917216649 -0.7799244416261967 -0.2560621046680418 
0.2630330368852319 -0.1808731403051084 0.5160956897984007 -0.3568590537103112 -0.2903537962279487 
0.6018805652498467 -0.1153522112377595 -0.07098933483056774 -0.2771062930948758 -0.1005394055712727 
0.3749616998212777 -0.3405723998686825 0.1066069271532334 -0.1745631004938413 0.0290063770522128 
0.2666756319620312 -0.2039129076827189 0.2472627095406033 -0.3880487013464433 -0.1366131901275394 
0.6548884514162282 -0.4078851312891949 -0.4128888391692029 0.0233789761650134 -0.327401296503936 
0.1095348316119358 -0.2585681615158053 -0.4919794162618097 0.4156219522880119 -0.2594656906332636 
1.175289993747229 0.09069863275938896 -0.1538844564095044 -0.6845626414609527 -0.5870612722606887 
0.1931195902235916 -0.006687717780080111 0.300479015926207 0.1641027171647286 -0.5595539991176488 
-0.4750044570593467 0.03400267724011197 -0.1073524309350716 0.7131883967832447 -0.265457397707674 
-0.4060843413805791 0.1396249693181125 -0.4940320588955783 -0.2616772704450565 0.5131278691423146 
0.9797710101262959 -0.0008221244665825838 -0.06211778288373171 -0.4475436774258748 -0.7932980717093208 
-0.1910781846582846 -0.05758692756898022 0.1434173965393641 0.1199221217232811 0.02892435579788123 
0.6791381333547544 -0.08535795530283041 -0.0589176871045845 -0.367966697546214 -0.2110131566904901 
0.2080608169720259 -0.2660063238036471 -0.5168978096955051 0.3689438971803139 -0.2422337839880583 
0.2785429168660427 -0.01886205478804635 -0.1286868993545116 -0.006814994506049189 -0.1399977101801566 
1.016162908326808 -0.8293680215581883 -0.473678485552663 -0.713970680049936 0.6698410477784087 
0.5811820800595264 -0.01552726761632093 -0.4220078635917591 0.1236494296413772 -0.09905991418470206 
0.8217263783832386 -0.3100022331872336 -0.5241188721190135 -0.2561140137284545 -0.07659507602728677 
0.2785429168660427 -0.01886205478804635 -0.1286868993545116 -0.006814994506049189 -0.1399977101801566 
0.5399502650560272 -0.4336681479444995 0.4084389330490488 -0.06571877694028475 -0.02870924908002718 
-1.455099354054862 -1.332873168005798 2.774242753006224 -2.714142613430275 -0.4757363966382618 
-0.4591719462118635 0.9579384295993492 -0.07461122894733294 -0.5895040695322079 -0.1770523196701322 
0.8979209025878077 -0.5180031928047444 0.842434699938605 -1.609215560451619 -0.4341180633361602 
1.030637222207843 -0.6283975272097788 -0.01164869169677049 -0.2786627515619298 -0.5761740627370366 
0.2240346425911666 -0.07166856677382709 -0.06199527458112816 -0.07022759439933049 -0.04755841759128644 
-0.3070021302824336 0.3096264016087442 -0.1799637063599705 -0.2312111366182919 0.2005582769526691 
0.04136582050940731 0.942774100443324 -0.7586331543169746 0.08538210133884115 -1.229535330790203 
0.4099301537212127 -0.05815073407097381 -0.4054244733634863 -0.2280451481674451 0.0716565661296186 
-0.1681072271120325 0.4465294495683323 0.4303530120408414 -0.09639666095862034 -0.3423388931370215 
-0.3364672424202368 -0.6352321999269573 -0.2927234464379223 0.9862733043477486 -0.09848686611820739 
-0.2068518999473032 0.5392987649683871 0.6080674201804231 -0.6126946401006104 -0.5764608478792994 
0.9078372648375291 -0.252054003686538 -0.2974631010440254 -0.006959950771010401 -0.3914876092606633 
-0.2788025623035766 -1.181359825395655 -0.03885775565123609 0.5593953732838897 0.1066364634399282 
0.05319981691425348 -0.001253774039664661 -0.007797923119392727 -0.1040183440270128 -0.02325861670410635 
0.9827823444840827 -0.3928489071423823 0.757141723557012 -0.0813349173750787 -0.9783640651013629 
-0.1974155899170153 -0.1885849461544339 0.01309538273673228 -0.3745521252085787 0.3247742766656248 
1.095118065898491 -0.4349445055640387 -0.1573600455529588 -0.3454372161037216 -0.4693800376768094 
1.166446205492042 -0.3342436477428096 -0.2903232277725691 -0.5899715576354962 -0.2624680491121011 
1.715247997767859 -0.411021798841812 -0.4891616378086572 -0.7049375295923859 -0.4149566010566634 
1.680721018547848 -0.7290734588734564 -0.3747477301263923 -0.281530179662267 -0.5773609445615542 
0.1606851327663941 -0.02986032461466075 -0.09515860987431721 -0.08813448737202642 -0.1034819025146846 
0.2632259022127725 -1.237513005004765 -0.1238073515124394 0.6042950669462249 -0.3172988688814147 
0.5135128251865827 -0.1577468503187625 -0.06832771186584329 0.1264554750235387 -0.1809130800088906 
-1.400234056910781 -0.8732669880839199 -0.623145940864368 1.84848617617127 -0.9370602302573992 
0.09233598334721971 -0.006977877209127071 -0.006645000811149527 -0.1463224346315087 -0.00692443082899567 
0.1472978459678736 -0.01375891833218321 -0.01298553964166327 -0.131495274230244 -0.04332662547797927 
0.08451933656644803 -0.2876110697473049 -0.6692172107242386 0.6034095361704225 0.1710511408245664 
0.6583139199800184 -0.2569797984735175 -0.0591301108356939 -0.04427238786609138 -0.2860029881851912 
-0.03063849646874341 -0.01452775581493057 0.1667972473894536 -0.1912252069525298 0.07292109912451086 
-0.2911863359416591 0.601431044820352 -0.2917562221539151 -0.3341733509523836 0.2071593233410929 
0.2103407362604371 0.189654418513454 -0.3140875988137395 0.1944490446267247 -0.07931208099218999 
0.5513174379091907 -0.01374107244950296 -0.03431223057893735 -0.4196880565735958 -0.01918836082420248 
1.762986181011272 -1.121524190126255 -0.5457016035672506 -0.3995135197849957 -0.6807750546987443 
0.5606945904432401 0.3090862423606418 0.1065407074381763 -0.3036842774222337 -0.5938015595600615 
0.06813750426539497 -0.5400907277705853 -0.05187703629537671 -0.05961691252964597 0.2827437181625247 
0.5853820502492817 1.315385527408091 -0.8519244164558689 0.351087299211422 -0.5088557529012394 
-0.1521420213311342 0.9146502515617354 -0.13962193460554 -0.9939298310451227 -0.1857140414381051 
-0.7462524750559605 0.001963395670156486 -1.391712318395971 0.8451912971203038 -0.3986451883198658 
0.4166731216098695 -0.2649173765552607 -0.3224297438020053 0.2060681217523089 -0.353723457485541 
0.6967598070569478 -0.09794415058789616 -0.06941350358872339 -0.7697219245108056 0.1154269887133552 
0.7849891967088585 -0.03159140522575973 -0.04662092977004386 -0.6774606282023306 -0.160065508471879 
0.09721979093537099 -0.8327305396407712 0.06648720906916419 -0.7658782214858326 0.5681484442672399 
0.3816351868979095 -0.3905061667399348 0.338544111212225 -0.003427346106983543 -0.5141376872729654 
0.4528381573115516 -0.7398492124463653 -0.5406773495543346 0.654394456123695 -0.4094048438610499 
-0.1458875864594632 -0.3787005169485972 0.4011140417868869 0.435695399650939 -0.3835150970002715 
-0.3253408975653462 0.3774312346662731 -0.1144497161870906 0.2499922311283552 -0.1294454294338206 
0.289712050976952 -0.690414860495543 0.1212893963950478 0.6591219602798356 -0.4023368992228082 
0.5230728179119289 0.2145679378042925 -0.6320316520642616 -0.3561503485478182 0.4472100027306774 
0.09198883301791635 0.1337573525978201 0.2051244796251346 -0.2300408250439089 -0.1952431187909147 
0.5747747880363837 -0.1385898964259015 -0.4618107753463467 0.2283736937349867 -0.1914041660445985 
0.2477800948587099 -0.08419967645220712 0.4008301061031365 -0.1372587624598902 -0.4161949551583585 
0.229205928668078 0.3316279498222897 -0.467905040529865 -0.3294980557555113 0.204971051974161 
0.5637221564252354 -0.1199265363277838 -0.01379575616003003 -0.3080838830761597 -0.04897531790927385 
0.6821776002266808 0.2498501336009682 -0.8361953946299486 -1.124044910180015 0.3809448142804197 
0.5569644186382035 -0.4866731945048395 -0.04853897752642548 -0.1033180774279563 -0.154219662599914 
0.2190628974486284 -0.01468511145248669 -0.02190400738916222 -0.06350621998880336 -0.1184598713468561 
0.2190628974486284 -0.01468511145248669 -0.02190400738916222 -0.06350621998880336 -0.1184598713468561 
0.2190628974486284 -0.01468511145248669 -0.02190400738916222 -0.06350621998880336 -0.1184598713468561 
0.5884281819513939 0.1018809732645982 -0.2059055669010215 -0.7508780830912153 0.3746045670097679 
0.5459936513849482 -0.1129959393740111 -0.04235435768429935 0.09462078425153017 -0.7167135995699219 
-0.9723544535480539 -0.218198187541315 -0.3740042134222244 -1.588837513992441 1.429134212828684 
0.8894537027365209 0.4088909020090408 -0.6930865623265992 -0.450589201806844 -0.5233342078856745 
2.198261759274557 -0.3048044460559305 -0.5289569541015405 -0.6684992864139737 -0.9237469081991566 
-0.03258124863970033 -0.7807340450679018 -0.05974215585780335 -0.1275768886345524 0.6022531142233493 
1.924033275750611 -0.3123126666137678 -1.585427421027882 -0.9499016971330172 -0.549890821193365 
-0.05844615744240845 -0.3929144245819273 -0.5053333379143272 0.7729606487915278 0.1109810064634973 
0.1142163807469975 -0.5375892764212234 -0.1827934026943351 0.1243002464182621 0.2546219322463778 
-0.05192952217618856 -0.9002276860236917 -0.8455081762347356 1.173752935126383 -0.5023090347662293 
-0.4571404904964005 -0.4547537593459071 2.411006731373481 -1.294995985726921 -1.720985232185292 
0.2628362753612417 -0.8423532954255351 0.6834610581070135 -0.4143837927788785 0.1485508794037431 
0.7379321001450572 -0.01840388460354434 -0.3302453600465826 -0.1957933689833582 -0.03751229060059164 
0.005827498267830153 0.2124713581261557 0.5715154724104786 -0.4276018263551961 -0.404414198310958 
0.681381075981915 -0.4715710566517851 -0.4816134603068957 0.09832792737650536 0.163147122482342 
-0.3743117504355947 0.7574237886418004 -0.03464440519171242 -0.2655094232626322 -0.713453656179448 
0.6699204582238273 -0.3142830124253965 -0.09413586196697468 -0.58480294652253 0.296051933886718 
0.1713762450194407 -0.9582342490014376 -0.6585721983003349 0.7680828458119865 0.1168783936468508 
0.6064858436655287 -0.3557172013950035 -0.2017027862900002 0.2994050332859511 -0.3680754762479914 
1.614669999733003 -1.578475648918193 1.062262370332605 -2.496412112781067 -1.219998918914388 
0.4934273239379832 -0.3688176254119076 -0.01933264085680395 -0.2601214424860818 0.3800430015812477 
0.005749290642355886 -0.6854134505009022 1.363712739263934 -0.6389916239344935 -0.832536124755851 
0.2458795808480729 -0.97133474303923 0.1828733211111684 -0.4102683926343729 0.4091692697514269 
-0.02221041980469121 0.3632698724502437 0.04342245396129786 -0.4357787207545336 -0.1217578451704634 
0.2506266476742399 0.2117547495700257 -0.1538194542140219 -0.1345077249883265 -0.6127006577208456 
1.332449429506553 -0.01220783740746716 -0.3590389129984871 -1.030447206864311 -0.5244262206014367 
-0.594403454860031 0.5861937662186832 0.1912470108345707 0.2273660013631301 -0.07311676457624774 
0.09305753885267669 -0.1455287883126617 -0.01691361508491553 -0.04687666004422264 -0.01679256015411419 
0.2065721650262259 -0.02929483172322915 -0.0264466630836133 -0.03990765146954228 -0.126603119240878 
0.08000039666394682 0.584431668390599 -0.6033376293803355 -0.01622493480670378 -0.1530281646923419 
0.5762297309981563 0.003181275995905099 0.1133012522029489 -0.5842892425496603 -0.1831817370510014 
0.2065721650262259 -0.02929483172322915 -0.0264466630836133 -0.03990765146954228 -0.126603119240878 
0.2065721650262259 -0.02929483172322915 -0.0264466630836133 -0.03990765146954228 -0.126603119240878 
0.3599350421987588 -0.5293362055920475 -0.2438227109075043 0.3155616103040105 0.04827110222856923 
0.07136569269508317 -0.6905747391443564 -0.1349916774287857 -0.1239218330135195 0.6248014966599078 
0.2065721650262259 -0.02929483172322915 -0.0264466630836133 -0.03990765146954228 -0.126603119240878 
0.2065721650262259 -0.02929483172322915 -0.0264466630836133 -0.03990765146954228 -0.126603119240878 
0.1935049859295579 -0.236153575268887 -0.6814117204328112 0.1894243365547884 0.1376324093474022 
0.6250139409459845 0.06248439829700587 0.3985320175198759 -0.5826034893545606 -0.8121941918039512 
0.8243429707682042 0.3308367832598413 -0.9945618741618762 -0.6035582302200555 -0.5119776366544344 
0.7315783913869524 -0.3331572759119223 -0.3293391884457339 -0.06785502964500317 -0.2638341011615009 
0.2393549148321458 0.1099894238286636 -0.4641186717951158 -0.4412217887398989 0.1273032971293099 
0.2248937207353687 0.3151953672964388 0.1754712009971332 -1.506293185244185 0.2335608036715922 
0.2963926581263492 -0.1696148072918132 -0.08047478876189279 -0.02217880976232785 -0.07798805871779085 
1.266999685191937 0.1367570471773651 0.3989139195312358 -0.7723661563598339 -1.427814682836352 
0.0766998720664801 0.6324247300550636 -0.2040828064042663 -0.1794407298407989 -0.2519887209805447 
-0.08313979157465581 -0.6582397622159122 -0.778494661293164 -0.09582925132972295 1.145259955148789 
1.052885585261105 -0.1115502062734216 -0.0737300578924012 -0.8693228327912123 0.1695920388683987 
-0.2427883621805629 -0.4881701412604934 -0.4591690090314118 1.304557770560386 -0.8564906017902515 
0.7033781149711944 -0.01889649913213588 -0.1105346626146729 -0.2115535604750062 -0.366063459661207 
0.3965693090345976 -0.02966197535116081 -0.2946824772168345 -0.04631267298180575 -0.01642249612291593 
-0.2009244589877771 0.3846194023825442 -0.04683976152744745 -0.2445763011849957 0.1848287153915898 
0.3965693090345976 -0.02966197535116081 -0.2946824772168345 -0.04631267298180575 -0.01642249612291593 
0.2064635131270374 -0.1853236590526444 -0.3297108912980655 -0.1079466275133844 0.3795704229796061 
0.464143499885473 -0.08761491599356636 -0.05836300701852012 -0.2024393850024995 -0.1840267806984646 
-0.04305351304845315 -0.1167459617647518 -0.2915991791711978 1.196842273666628 -1.105566243095288 
-0.2075662755553941 0.4042678407611842 0.5699442692145797 -0.1967626134213867 0.03469143288736111 
-0.4455695502772468 -0.06612542902461604 0.1300854721130784 0.5389159588298845 0.09709629171535848 
-0.1771826929487407 -0.06206136456444999 0.3659302638961908 -0.0196238998541305 -0.3643165340568255 
0.2372979521468445 -0.2994401247341469 -0.1200229584558479 0.6424043904137895 -0.267106478557999 
0.3218899105674535 -0.1310145681812525 -0.08027943393380362 -0.007904375607600912 -0.1085578047861498 
0.1337650138263906 0.1449039905653233 -0.8159451269569133 -0.05896143192931798 0.4136468663635059 
0.5679684626977886 -0.1432827949008473 0.07532595904134506 -0.06748485769699239 -0.1106531513394278 
0.4695203187282945 -0.1474857766776682 -0.1149795887048166 0.04952868504664976 -0.1938655329814822 
-0.783767403141574 0.1423877754988427 1.041680933304002 -0.8995880806254655 -0.2406955071598957 
0.09142180981016493 -0.3135066202176165 0.5557335828265509 -0.05427816972024152 -0.1076789948543863 
0.6080932203215785 -0.3595305867580663 -0.2320196682712113 -0.01206039957156749 -0.1747742683944403 
-0.5039146990592951 0.187807942948556 0.1000801024146524 0.4812436305976007 -0.1885860901027761 
0.5868369356437442 -0.5257427234770968 0.5515775611734151 -1.189034920642703 -0.005255220969578313 
0.02113840184143201 0.1681266581006753 0.2290528713474938 -0.2359383755619159 -0.09378270908687962 
0.2608112392241076 0.2103174675376502 0.02889141108465599 -0.4773178737963261 -0.04959460566038972 
-0.2380224208987814 -0.6437788539485253 -0.0726300961003308 0.1907425404283223 0.6419449491412772 
0.272459848888923 -0.01528367403419179 0.03433215840970966 -0.3034003451866736 0.1776382741949554 
-0.4571888711744349 -0.2551854930249375 -0.3323331871494526 -0.3536028837252461 0.916113751413388 
-0.05095634352792813 0.3772877552266378 0.4953655858311171 -1.389370546271556 0.5073923391540854 
1.05014207468898 0.5063808155025419 -0.3094376923401176 -1.186830081584042 -1.193777175265769 
0.1963540795164345 -0.06707795904556187 0.2995125317596657 0.2435254025247501 -0.8454366309108083 
0.7407777937244774 0.1231444553295103 0.08629086396548161 0.2275691680126131 -1.191305089553516 
-0.7630990633971816 -0.1862843946334714 -0.1082038310258386 -0.2675176886526139 0.8596770614187268 
-0.07007493689277222 0.5082823356010664 0.6639617750806991 -1.175544191569255 0.1379295058620698 
-0.2610371933744518 0.5526698160491155 -0.2264344079861604 -0.08680659043829703 -0.03373177197992986 
1.306916202745157 -0.8946258595396034 -0.7169383406732837 0.04466289946180095 -0.665538669009586 
0.02289199474971863 -0.00257090287017641 -0.004064175956557145 -0.03571321820738367 -0.005927670445940746 
0.7381881705049712 0.09085259362180872 0.07390100138181696 -0.7564531788269161 -0.2376737403319975 
1.629920633330012 -0.01191809357476818 0.0880615620766827 -1.146112969755408 -0.9653649404261572 
0.7153664261242584 -1.248472746664681 -0.4924537474291357 0.2355294156287352 0.5347147091460309 
0.4555675573175241 -0.02532116052552797 -0.03246803248445652 -0.2497908728663079 -0.2282635528142831 
-0.1261479549878508 0.3958067870040033 -0.2135502286655711 0.2098898282331152 -0.6113687661003511 
1.066742283194397 0.03904694887531331 -0.02892914440037743 -0.3579148504611203 -1.187940311262718 
0.6782330651929663 -0.6836743692680702 -0.104007903218617 -0.656076405046648 0.2702277409280072 
-0.3237678539008778 -0.01834549149642443 0.6028763959299955 -0.4812866110354994 -0.1519142013821976 
-0.3361558628354858 -0.5168452417299481 -0.1136004453092914 0.5017747694761659 0.5038656568451143 
-0.4462159743103443 1.651068271296859 0.1506379904223082 -0.293920309604702 -1.408558876513306 
0.3294037550290952 -0.07002144468914707 -0.4160143647420599 0.6013896172357428 -0.1836354257599839 
0.6233771442400394 -0.1725657800585526 -0.06236210470866344 -0.0344699461914219 -0.122638500554737 
0.4310564110783177 -0.4711498052403877 0.6800740997626272 -0.3365175529494943 -0.2130080614682009 
0.1644047574215427 -0.6601776069234646 -0.3893939147354278 0.6651780669933536 -0.3242112075015031 
-0.2544425079424525 0.4426287030726747 -0.4342819034229516 0.06684684156183844 -0.2953175399164731 
-1.02420997387776 0.4872721613778611 -0.09364007986777693 -0.9251892459357425 0.6809608634280184 
0.7295560006162021 -0.003035879709905419 -0.3288505151505921 -0.0002495279180939718 -0.05303819050175863 
0.5009219900787436 -0.353801578181849 0.7365515983903543 -0.1815323921052385 -0.265426946185267 
-0.2113778185639613 1.504042078013856 -0.8193443443907008 -0.5737451382304251 -0.3367787007911177 
0.7046803734327379 -0.09409962609880256 -0.07011598352154896 -0.6596922606599569 -0.1288650906267031 
-0.2327699676610512 -0.0856907710199066 -0.4707092540931566 0.2380407212632878 0.321300171533279 
0.9185509649035619 -0.03765898301747506 -0.02577843825173439 -0.9718649900408749 -0.03542424163964365 
0.1119123872135677 -0.1335095042397235 -0.07811879043540557 -0.1181044988376059 0.2352977764903991 
0.6138436501564271 -0.05003373124604081 -0.06858069409742321 -0.2774206880259596 -0.1482023808041851 
0.8238637040357454 -0.1521617010028083 0.7909830278577223 -0.754516140432907 -0.9909681228166602 
0.2633578574819243 0.1515485703863147 -0.2696566426119665 0.09205960190026961 -0.09634304499224235 
-0.5932403649354719 0.7424339390202914 -1.198328052820858 0.10289025869417 -0.2348882802744341 
0.09271351055740014 0.1778790212601905 -0.06041028203270288 -0.4811585919715289 0.151948763622567 
1.071171680024556 -1.409772535764466 0.08481241135358877 -0.3017953460431118 0.8126379656886321 
0.0560719541610103 0.4796802740431537 -0.5346627365545612 0.02732069288759373 0.1198276630860486 
0.3888974517390099 -0.0699802500238226 -0.008169545754893894 -0.440791931962052 -0.01530625935757748 
1.419424041387031 -0.6170751203719289 -0.5409783417935731 -0.01474170187735839 -0.6656467637069207 
0.0483672037599063 0.2172589877560753 -0.2049905915282844 0.1285768830157066 -0.1080878046849176 
0.7719775921099935 -0.1663093989789403 -0.07720434897605047 -0.259278241195005 -0.1026436296728145 
0.01571295032883391 0.1564772189527838 -0.09147886842171643 0.2278478787730269 -0.2353090117957208 
-0.6902265663582884 -0.4502094197379563 0.1642346263387229 -0.1236366440123806 0.9577126238632484 
0.3385223934145957 -0.8721575927774593 0.3241848811236969 -1.096205330548927 1.05880387323888 
-0.2304037127591018 -1.266048785526219 1.266078747173343 -0.8368898394681724 0.0890731189198416 
1.517541672582575 0.02112237541202992 -0.4821026883932655 -0.8453428702150763 -0.393557667092395 
0.07573036702575635 0.5130632004536118 0.1539205757718569 -0.1657061609294853 -0.3346378566457855 
0.6348499754983906 -0.4870517312781992 -0.3084892086053125 0.7647222330151594 -0.01427944674285824 
0.4763340682108228 -0.7816257992374996 -0.1458549750244177 -0.7584416767499529 1.089480745217097 
-0.3085103660746993 0.5868938886230701 -0.1509284628479494 -0.8133976290693318 0.2051200688360717 
0.1983474543836641 -0.1087581582909293 -0.1120624341084828 -0.03446547168791857 -0.114945303541583 
-0.1693210282343602 -0.2462976808232655 -0.3025739595194961 -0.4722418248220736 0.7605478700658459 
0.2617712808867996 -0.07026803697947182 -0.252245242347142 0.3115460625215318 -0.332432946710342 
0.2651076495307141 -0.04901628325133991 -0.01475374113036794 -0.03167842505858125 -0.2555006800398515 
0.2164560227529835 0.4749880603523273 0.3806080904335173 -0.9376428295043689 -0.2857215488781619 
-0.05542708331364091 -0.06949615822754221 0.1645900602078021 -0.7162967990352624 0.07436980031817014 
0.546528186363948 -0.01598526493981958 -0.3857177167829299 -0.1524597196038085 -0.1217929440358991 
0.4873061781967628 0.3344577372555912 -0.1283762360173062 -0.4889491785792489 -0.194999820872027 
-0.1242366177734 -0.1646023025038534 0.2200943423386312 -0.213597211507591 0.243525617050026 
1.476711735196071 -0.7654372648820545 0.4233951114887018 -0.6735303800791519 -0.4962781113627472 
-0.3463529198512363 0.8199016831264053 -0.4571442669040646 -1.905946245377233 0.4042405119766643 
2.02165960855709 -0.5709414097694436 0.4314347838942325 -1.258188026308665 -0.9324575615574863 
-0.2834098958757246 0.1689082224313947 0.04233570482916912 0.01532089131487446 -0.1019901564553097 
0.6289575411406063 -0.1757459415267459 -0.01841526459329904 -0.3473677774099863 -0.1009312973151083 
0.9961498112581021 -0.2070064613099536 -0.03804915215476546 -0.4791414462440436 -0.1454750474694372 
0.3173182208792537 -0.3195983903197563 0.371380645096211 -0.1595017654430111 -0.1423285728131936 
0.12693167810078 0.2667051320442183 -0.9611935100118262 -0.2804511878607783 0.1925495243952867 
0.001602181177327654 0.7040389694346123 -0.4843598969253511 0.384614979833471 -0.8255784178372025 
-0.3945033655893209 -0.4797137876858212 -0.2341938289094322 0.8305228782833338 -0.05584533994049857 
0.3221577371516555 -0.04412659894191281 -0.1712388103621768 -0.03449602876499158 -0.05176418537541361 
-0.3062583566701166 -0.09584834268020603 0.2754146732648406 -0.3553344331378518 0.2345786693026723 
0.0441259515181817 -0.06571742774750701 0.160740882695089 -0.05749643897804599 0.3198207123592472 
0.08662937216180472 0.8730614458831756 -0.5106062741508252 -0.03146509058672771 -0.6487640880126125 
-0.4292500319642399 0.6623284755859062 -0.4674416614951485 -0.7302277277612202 0.4104358701227892 
0.03195718873017526 -0.0681051894987942 -0.2821460507659102 -0.3974352824962876 0.3716821435650997 
0.7935767696286309 0.4410153957392035 -0.8703340361915355 -1.307505999620267 -0.2902679136072701 
-0.1290711181277678 0.7419810388502461 -0.2303387229229018 -2.312136601468422 0.2052983159610078 
1.848959033871432 -0.7457904273401535 -0.09969839192947687 -0.5352140149079024 -0.8083852314015918 
-0.2595412472185004 1.204887502528523 0.1409355762384908 -1.057922609387522 -0.9400711097875724 
-0.2736759050267 -0.2123753375084236 -0.1203500359507171 0.7592599115079577 -0.1046961439897644 
-0.1406712088901606 -0.4496776973118526 1.268987588374436 -0.2133308905200464 -0.7483088240377588 
0.6769669856568685 -0.3561046277433824 0.402783758642602 -0.333634617716391 -0.4422804110791982 
0.4596897689432788 0.1583044845583726 -0.3891751951303307 -0.02276950619337916 -0.4898356108334614 
0.3379015211895751 -0.4719880830523528 -0.02663497013726326 -0.03981185743915289 -0.03575979125305791 
0.5342946552231485 -0.4747684043677159 -0.2722487412308065 -0.1256793535790165 -0.04855585628904005 
0.07371299131944375 -0.1023471111068646 -1.270205903649666 0.7259219808558174 -0.0672206631744493 
-0.1356456704790513 -0.02630344178216822 -0.4716585941301891 0.06834328710268035 0.1946232954057341 
0.5567417291502451 0.7087718026875057 -0.6692274473299906 -0.4665395235021975 -0.6065561171733874 
-0.2207963202428593 0.2210906722469811 0.7553864069520919 -1.055200056874743 -0.05366578056915828 
0.693509806736438 -0.1236343986931784 -0.1389340465186437 -0.3647375402682896 -0.1688665282987179 
-0.08193431195268054 0.1625104407205107 -0.1081484550888222 -0.01062541882662884 0.1326413423256189 
0.4789412703851411 0.5733351929317557 0.3370503441077881 -0.6031680043606614 -0.5591492920189606 
0.2466089871720211 -0.04688304757806228 -0.031370339538325 -0.03756559515718413 -0.08551522494276545 
-0.5782918609435089 -0.5440589220354278 2.416785058366866 -0.4329050633110548 -1.588841272858127 
0.8737621716013908 0.5787327440170353 -1.013603766035929 -0.1492543518037034 -0.9411967516364406 
-0.412270033267725 0.5613570116324316 0.4001822230018162 0.0215382842506982 -0.5649731447485296 
0.1947312120878364 -0.2929135068068913 -0.1188281682020727 0.01698973824631416 -0.2086861732832059 
0.5896152295445241 0.3262037551601966 -0.3297417494640938 -0.1941703528428565 -0.2567681746750265 
-0.1553392276416529 -0.04085595478963399 0.2522644102402009 -0.3636586946028508 0.416080216020719 
0.742643437617399 -0.06490878520527626 -0.02329748056822702 -0.3132626933202597 -0.1162222199985859 
0.3679110026293968 0.2165222512337622 0.02846879628257692 -0.4203694281154754 -0.1651521342027265 
0.4053165165029186 0.4005850483815632 0.9837140897208994 -0.8338404720052729 -0.9844081734818498 
0.1856501182091091 -0.3915020979452752 -0.003411299320898897 -0.001245161030444045 -0.001129211116806779 
-1.35475329814989 2.468160097177843 -1.103022837718402 -1.612536238942403 -1.279800141403903 
0.9793056152908551 0.2352425602107151 -0.5729247166007434 0.09057761706829748 -0.5650712897896054 
-0.1115753828249359 -0.3265804389863117 0.4860725221103108 -0.4176937113005137 0.3436101697967528 
0.3869269145431045 -0.04502231634369699 -0.03201170085569471 -0.2247380895523312 -0.1939120900605154 
-0.01914736109220754 -0.3701474111884747 -0.9051043525943957 0.7217123342881168 -0.01714964859247769 
0.3869269145431045 -0.04502231634369699 -0.03201170085569471 -0.2247380895523312 -0.1939120900605154 
0.3504417874159996 0.07352525487428105 -0.08981889620700657 -0.07176950841513577 -0.2273347247085813 
0.99821856747521 -0.2338164126736945 -0.4629753739480262 -0.1055338742355746 -0.212862823505982 
-0.5047211654964018 -0.2788705596773117 0.492056272235784 -0.04690625845118578 0.2751858388737128 
0.461793400677916 -0.625184981812166 1.247006426482006 -1.144722233997451 -0.6870800705334377 
0.4872719584444812 -0.2883661237004585 -0.2687177228770976 -0.1322638122165521 0.3307334992858932 
0.6119520098460284 -0.07598858403217695 -0.4527692370026791 -0.1044685278677402 -0.1300221645787863 
0.1216644845559262 -0.1011129025088243 -0.09488556942872955 -0.2128191566639672 -0.1391148259816181 
-0.426803431042461 -0.6155516101275523 -0.09851094931740287 0.02773730821896681 0.5239334446599722 
-0.2533998720620836 0.2984256181745962 -0.1216408245936172 -0.06568528490441591 0.1047529786060677 
0.2631793485516045 -0.1118330259275509 0.03058047452877339 -0.2655140583032267 0.2212108654608357 
0.4669718085865158 0.5524276181233472 -0.3240038610878148 -0.3792628027777039 -0.4106935168898771 
1.378041669180866 -0.2652536299623113 -0.3151374354289158 -0.8181286601863033 -0.5426011814291738 
0.1727860133108182 -0.2894062322420167 -0.01974801274654141 -0.1532779617721184 -0.02408119034856022 
-0.3189760817110329 0.01455267491142454 0.421266510053766 -0.1417546187694484 -0.1832667016367657 
0.4169333772825918 -0.03296290078264589 -0.02478701050178729 -0.1352774729588991 -0.08085878809003423 
0.4169333772825918 -0.03296290078264589 -0.02478701050178729 -0.1352774729588991 -0.08085878809003423 
0.4169333772825918 -0.03296290078264589 -0.02478701050178729 -0.1352774729588991 -0.08085878809003423 
1.405561950338184 -0.93793784696454 0.9379003411120025 -1.824073282931907 0.0569354103096063 
0.610017540416208 -0.09556459438655437 -0.1310366200490856 -0.1741519497706656 -0.1955100068897109 
-0.4374835582711761 -0.07532060138059116 -0.1653464015694009 -0.5139919283904245 0.8075881794885003 
1.076909614706607 0.2944704780839944 -0.322004727488304 -0.6782215360802757 -0.5910661168364852 
0.2968944015868814 0.1200699899103334 -0.06781897978277796 0.4439636277708462 -1.178825098760037 
0.6927975936961364 -0.154650902735701 -0.07162498331805514 -0.5400501230423507 -0.1007919054234265 
0.645033602312324 -0.358796211889037 0.4723022834680272 0.05316293011171941 -0.8668692543488539 
0.852925317531794 -0.794632022321932 -0.7666247878496834 0.151636609786344 -0.6617203689811075 
0.3555211784480816 -0.008252055001942704 -0.008297943671810491 -0.8097027795204897 -0.01760074583464879 
0.280653750931434 -0.005280214760703668 -0.007386496722979647 -0.3917893716117881 -0.01578165452608404 
0.2048015576077961 0.2243254747022004 -0.5842799412665416 -0.5821842216532106 0.4146242170962492 
0.5891371806369992 -0.0334912532952575 -0.0146271753695252 -0.5001046357267225 -0.09392489435899827 
0.05438195388747267 0.4280494916498558 -0.6908125127081371 0.1908447493261957 -0.380471291889754 
0.292442446935882 0.03331014053862022 0.008822517433058459 -0.403862817685285 0.2847468377208109 
1.226940310967211 -0.001886593892329435 0.02555430595649612 -1.059667317353864 -1.266593039720321 
-0.497332050402033 0.3263817159326685 0.6638172227014333 -0.6939910921861935 -0.07576860250158204 
0.4202237763908112 -1.00366312697539 0.5414237703544295 -0.1946416191811857 -0.557273178580361 
0.2904005700003417 0.437983453334378 0.5959789866154365 -1.185518921009315 -1.016456377938646 
-0.1482451658128112 -0.7662103189068754 -0.7552081943802103 -0.7511484908107604 1.283608423259834 
-0.2104089622949624 0.1114734875475172 0.5881567711880084 -0.4724778828364424 -0.3199284956940023 
0.4401618533884113 0.1102094110816075 0.04216134043036236 0.673521277513964 -1.123723597714247 
0.2080230796990346 0.2032332386168973 -0.2231399333689694 -0.808555345352169 0.1247224268645434 
0.08095523769047867 -0.09505006111268688 0.605558436078698 -0.04903583655660187 -0.3132392793747425 
1.109923743965174 0.06514781721019486 -0.02341090492611274 -1.699145922024283 -0.2493795184789677 
0.4008190085033961 -0.03610915559993992 -0.02293000849654346 -0.1790472996215967 -0.07807116276659215 
0.2657557067705089 0.2403691235939604 -0.1808610863514764 -0.4642195777070304 -0.07461226253665729 
0.9204026653355585 -0.04795470141570919 -0.207429335276174 -0.2365898843590436 -0.06715555663621725 
1.330007331982013 -0.8794609811042617 -0.5948191310263419 -0.1792779152033605 -0.9990383974414718 
-0.5746006318138031 0.4273936119285685 -0.3004179062814799 0.4738071518959541 -0.1548957594974167 
0.9895409609995376 -0.2736373330792848 -0.3885117292915013 0.2207593655491297 -0.6376403926911065 
1.98294808716617 0.03046562165564505 -0.8394366077875631 -1.546316110305999 -1.118170974318123 
2.166063490338799 -1.522621831267441 -0.9229522441107314 -0.9255264457753702 0.1924237214526549 
-0.06172842453286894 0.7594123854036808 -0.3371606300416497 -0.9320034846240286 0.1461865177850315 
0.2335457231331446 -0.2595041425636317 -0.1044942932258719 -0.1354091493778887 0.2769246353339885 
0.3658478711735496 -0.07794773158325262 -0.003513710393573166 -0.0384838799349966 -0.2082373938840935 
-0.4010280754019128 -0.7941039589723479 0.2543435301058254 0.5406376712358558 -0.06117327711406348 
0.3658478711735496 -0.07794773158325262 -0.003513710393573166 -0.0384838799349966 -0.2082373938840935 
0.1102779162822221 -0.09308715483667022 -0.01740622559559325 -0.1857328166853583 0.2150789227990616 
0.5168560207817678 0.3271740224846902 -0.3156120667628984 0.02415801937093413 -0.66153915935867 
0.0678479862554645 -0.6063731026027391 0.2468783576865896 0.8796007909261736 -0.6908194747750011 
-0.1103129947640169 -0.8481222663913625 -0.09241500235373488 0.7013428535490772 0.2522709719359847 
0.5962356421408191 -0.2596876847357622 -0.4194492142161305 0.2361103930271182 -0.2654757812384353 
0.4729078625476719 -0.5288644020312269 -0.6468844047620551 0.1904759497643765 0.2657372407712696 
0.5253668527529726 0.5877972002723578 -0.4399296401904504 -0.3588361994039083 -0.8004267585587751 
-0.04405859031949427 0.3229514466023213 -0.06051877145627423 -0.3057771523683786 -0.1758420701611187 
0.6741395985481109 -0.5051986151318992 -0.5254706463161902 -0.426690836043094 -0.05191777164927513 
0.6377505337664874 -0.4247906017953358 -0.5315855120294618 0.0279668365393148 0.02685161065119996 
-0.1964305920989291 0.040389418967559 -0.2139126852193546 0.1723502667605258 0.2222629344944059 
-0.3183913252817054 -0.8157658904303836 0.03823182254591781 1.23075710589544 -1.245824348292863 
0.9264132985640706 -0.100015705641531 -0.9051845407926756 -0.3312177646077247 0.07985026462647933 
0.4727800001629946 -0.1388982560148901 -0.06446974632169641 -0.124862273952962 -0.1487910593723742 
0.4371313089635199 -0.1099931196549461 -0.1811105371945672 -0.09574153990596904 -0.1026388918220802 
0.5791981975653742 -0.05464053465168976 -0.02607239858475187 -0.04026051446289615 -0.367057125705472 
-0.3490684496252699 -0.5415212259462341 -0.1483613087728514 0.5191192238401439 -0.1970006442208109 
-0.2022740816745464 0.1390186029433418 0.002574170583069666 -0.4258733339475612 0.3906248533671775 
0.02039759099684255 -0.03759292475504621 0.3878338326585029 -0.1872737682042986 -0.2408004266930908 
0.3855602015964794 -0.1168905602300455 0.2937264307085546 -0.08212246612861895 -0.454162191543092 
-0.5359744318517623 -0.7600025547595058 -0.7481311890327426 -0.3422592846813404 1.213826997248315 
0.5791981975653742 -0.05464053465168976 -0.02607239858475187 -0.04026051446289615 -0.367057125705472 
-0.02790977599230923 0.6154468857440666 -0.369169601867034 -0.1284146039810045 -0.3019257098597564 
0.004227356888776939 -0.139357186242921 -0.04048603669596908 0.282480530519065 -0.2434120156507318 
-0.1249633836701493 0.1336361182360813 0.2177729098189642 -0.2939992238831685 -0.02689803326752208 
0.4952067002224222 -0.2580686816817657 0.4854938031327011 -0.2871301027127675 -0.2998884193172945 
2.526495265018115 -1.254936438116655 -0.4703932456959569 -0.7316677152827263 -1.51356407207702 
0.007556231024704041 -0.01749167877473274 -0.1736556382298704 0.3866860168783048 -0.2895581660071201 
0.2164616675333449 0.02358228743102527 0.07218613820486484 -0.5459189162194049 0.3515508826782905 
-1.109712434566117 -1.769024044256928 -1.05888662571143 2.218973553065618 -0.4221653622256828 
0.7384179192015772 -0.07695181222177033 -0.4122405387658186 -0.5257456533367632 -0.01291109979814909 
-0.7940658927336625 -1.040295378164552 -0.05850702202655571 0.04687451095439878 0.9191575223146339 
0.2396765005441226 -0.6109810946710705 0.8449918406313547 -0.6444156095732317 0.1885394026503882 
-1.12992475494909 -0.9012121163422734 0.4089870680362972 0.3527679715673198 0.6399891056702272 
-0.2001479114075268 0.09819094539651078 0.2238777006407645 -0.1198317644536825 -0.002843805498605098 
0.8750184704545065 -0.3024719522982838 -0.08966096599601139 0.6105879187402841 -0.9667103777065585 
-0.3110224248376925 -0.4186816724996209 0.06999802942581267 -0.1369151778749923 0.190194736003997 
-0.01433582151249547 0.2412750866098683 -0.01056412117146679 0.2523462830282331 -0.2002667009528389 
0.4200246410719103 0.4698080801388591 -0.1180943861926286 -0.2121388865283765 -0.6188459668223507 
0.3589919912794445 0.190667732287244 -0.7805280116196794 -0.2457119583352613 0.1712355691277249 
1.0684889387256 -0.8462111836134352 -1.069047267021093 0.1879286900698944 -0.4393276522992288 
-0.4422467001741415 1.12048488077305 0.001013299259283451 -1.051399654286139 -0.4328186354028568 
0.795794838624129 0.12046638244102 0.06466361256545439 -0.5019621711837137 -0.5220928320674396 
-0.001983073872632537 0.3500612445003982 -0.0211280282507312 -0.3954283464618257 -0.07660701507409927 
1.182881561746967 -0.4804059275241488 -0.2453559881222506 -0.6887393364513542 -0.07988793264099843 
-0.116131737034558 -0.587073851762744 0.1187527812688166 0.4358101044952338 -0.6029226187171992 
0.713605305366746 -0.4952843779396415 0.2180471107149336 -0.2279606656953283 0.09052744185115852 
-0.5297863747720518 0.6501432409151822 0.1486688718396305 -0.960807365310256 -0.07749994485973645 
0.1448771101104644 0.3579190201139968 -0.001926692408018191 -0.3678690996762497 -0.1178340118608963 
-0.2913452842589694 -0.08898040239315141 -0.7390719727638684 -1.030340553550234 0.798940080174406 
0.1940482853048737 0.3212502624550611 0.1822969585116633 -0.4104124772008667 -0.5798202820862288 
-0.01984343002710132 0.4711193276462583 -0.01939228427297466 0.04809626696054797 -0.4899938696422997 
0.6592578421259921 -0.9683991480677612 0.3534678339716507 -0.6234829885320093 0.05890119200111021 
0.03527692777976233 -0.0140759810670367 -0.01063370376964481 -0.03058787549606235 -0.06693809075942674 
0.8328583183235123 -0.9383612020434605 -0.614159414898647 0.6392873323028907 -0.5492806903806238 
0.09972004626551204 0.06308358638874487 0.06990571787560647 0.05602216569420515 -0.3254571588916371 
-0.3123282120997858 -0.4081364668651554 0.3489208704080645 0.3101253362043496 0.4866923317492527 
0.5964734633459068 -0.5756576310019932 -0.5401854893148215 -0.2188682800180825 0.5557624520847095 
0.05057531846506063 0.5789109521421206 -0.3062406303803524 0.1921396502489472 -0.2889025613155117 
0.2710500092014235 -0.4012317459838299 0.03278719158646552 0.006895247889742197 0.2437308040404686 
0.4808591243248026 -0.06222153302426225 -0.1269833685939593 -0.1003361452401828 -0.2164288257900444 
1.161047330997674 -0.2988574548389306 -0.3606946330485432 -0.5848618033163249 -0.1798347413034521 
0.1375929620181219 0.1759065279565321 0.4430101851759152 -0.956208345909316 0.1463771733090146 
0.03152363922070906 -0.06956300310192906 -0.4280624850916441 0.1527819199096057 0.2423835727691514 
-0.3483068948819503 -0.2262736230624894 -0.6759422048655293 1.46633926348859 -0.9199583877097077 
0.2029192061637442 0.06152768457609784 -0.952866808975289 0.02197307938693031 0.04892320670876634 
0.4024652773179755 -1.799891373969175 0.3738657448847636 0.7048522371832819 0.1978568492246376 
0.3144899097069522 0.1288772717666133 -0.4477161765550529 0.05567608888600806 -0.2496190868402124 
1.452085199464426 -1.006383549577029 -0.5637041589057286 0.1890420225124562 -0.5234578280067683 
-0.6001850691211611 1.977675051267084 -0.6977323240046871 -1.577546863563411 -1.037468189543896 
-0.06349099096899999 -0.3705889431661811 -0.6667001395502746 1.182465100290789 -1.215827539009615 
0.1344051966221044 -0.1760132796876297 0.7253140046177966 -1.060349500639604 0.2790051793019493 
0.3690298485051382 -0.1780766643923109 0.213825317800131 -0.5937455862640876 0.2928543317757605 
-0.2801904011681839 -0.339485659567109 0.2031088496430602 -0.03584853949377751 0.4070738411660185 
0.5947908383413733 -0.01785366375564972 -0.01016208563500964 -0.2877136898010081 -0.01944583446165626 
0.5947908383413733 -0.01785366375564972 -0.01016208563500964 -0.2877136898010081 -0.01944583446165626 
-0.3623777762241716 -0.2673174117651367 -0.4012255188672493 0.05326970234698437 0.5718258153834455 
0.8097103213095143 -0.3309553250488709 0.1144207694427219 -0.4559178627326571 -0.08354915736930489 
-0.3267618912403633 0.8112033044744874 -0.4508856641696181 -0.1835620450687919 -0.0686912893379511 
0.1700214059292051 0.2840128005560487 0.09890186948404318 -2.114482895754384 0.7678358451113172 
0.3031182702241438 -0.3550716570578911 -0.1499590343327749 -0.239592148706483 0.371678666567093 
0.2787819382848392 -0.2424829198119695 -0.01042246222944407 -0.07853838272943958 -0.01306328297731483 
0.1094684446331503 -0.0674950841301524 -0.1326536840353655 -0.5215631080101568 0.4152719313958452 
0.157631847515904 1.009081054813394 -0.7738555042921873 -0.2713104752581949 -0.440496797929056 
-0.4657745450642227 -0.9769596659041897 -0.2500716293575858 0.4489794508688116 0.4369564284054868 
0.04806104229988933 -0.1408142566793381 -0.09929480334913074 0.2953498981050605 -0.09319781475530479 
-0.1991327500788631 0.4607868374419162 -0.3467397816855424 0.2584795112045932 0.08169915652066574 
0.03411002975281879 0.302798605055692 0.3220926419183393 -1.080437223225287 -0.2336851975612264 
1.042669732172801 0.3325419783918347 -0.5716486035818008 -0.2899462767111222 -0.3649996366533988 
0.9917845402435442 -0.8308996318785007 -0.6189200520629976 -0.5511046864015159 0.5655648312998929 
-0.7762406887172716 -0.3544943116719023 -0.09848120795106646 -1.659773457796738 1.494269175807709 
0.5707569741733647 0.1619000822498146 -0.1975246221340336 -0.06226135971033418 -0.5174372289828408 
0.2385888413300921 -0.1376470597086345 -0.05734436232394854 -0.03545689060194301 -0.0527054321601941 
0.002119947725252744 -0.3469371346965615 0.3658166825410899 -0.2606559886849722 0.07693481369702646 
0.1687444051129116 0.5861399295764361 0.5112189514412014 -0.4816415049703804 -0.3528084620815893 
0.5407119181488107 -0.1222022790081472 -0.409468788720801 0.1014549668733043 -0.2328893272918927 
-0.0009310054377609234 0.4100144378215059 -0.1466538275916923 -0.1236109445776561 -0.1614707476458698 
